nep3 2 Te Pb 
cutoff 8 4
n_max 4 4
basis_size 8 8
l_max 4 2 0
ANN 30 0
  6.2799901e-02
  2.5350956e-02
  3.2423961e-01
 -1.4288893e-01
  1.7093240e-01
  6.6031213e-04
  1.8882178e-02
  6.8709746e-02
 -1.0528369e-01
 -1.4871171e-01
  3.4722024e-01
  7.5195818e-03
  4.4391751e-03
 -1.6975347e-03
 -6.7005977e-03
  1.1308277e-01
  5.6542321e-03
 -1.5796719e-01
  8.2146150e-01
  4.0109560e-01
  1.1322661e-01
  1.5381794e-02
  1.4602855e-02
 -4.7888771e-02
  6.4602129e-02
 -3.7007179e-02
  5.7677243e-02
  2.9659331e-02
 -3.0640885e-02
  3.4942713e-02
  1.8304014e-01
  4.9830243e-01
  3.1686690e-01
 -2.8997484e-01
 -1.3983560e-01
  1.6683251e-01
 -7.3750764e-02
 -4.5619465e-02
  1.3273146e-02
 -2.2287298e-02
  5.8049683e-02
 -9.1933168e-02
 -5.1524349e-02
 -3.8320865e-02
  8.3835647e-02
 -1.1753894e+00
 -5.5259442e-01
  6.1186291e-02
  9.0410458e-03
 -9.5675632e-02
 -4.0023588e-03
 -6.1839050e-01
  1.3635038e-02
  8.2688853e-02
 -2.0825978e-01
  1.7970102e-01
 -8.1319502e-03
 -4.1081533e-02
 -7.7675186e-02
 -1.5785715e-01
 -1.2244237e-02
 -1.6145195e-01
 -7.8008235e-02
 -2.0015061e-02
  1.1497811e-01
 -7.4568614e-02
  2.9371362e-02
  9.6929796e-02
  3.4253996e-02
 -2.1312922e-02
 -6.7332372e-02
 -4.5922294e-02
  1.6091017e-02
 -2.2575665e-02
  4.5589820e-02
  8.1773847e-02
  7.1830250e-02
  3.7381474e-02
  5.6875207e-02
  6.5344512e-02
  1.4226623e-03
  2.1143617e-01
 -1.0136416e-02
 -7.1938541e-03
 -3.8563550e-02
  4.8906825e-02
 -2.0141862e-03
  2.8009159e-02
 -5.2167103e-05
 -1.3169721e-03
  7.9974186e-01
 -1.5426310e+00
  5.0578266e-01
 -3.6099246e-01
  4.2692921e-01
 -4.5337539e-02
 -1.7424179e+00
 -5.5276597e-01
 -3.2014757e-02
 -3.3787692e-01
  4.0466413e-02
  4.5776591e-02
 -4.1822156e-01
 -2.2612213e-01
 -1.0875009e-01
 -8.2726367e-02
 -3.6463860e-02
  9.0358444e-02
  2.9384989e-01
  8.2734600e-02
  2.1174742e-01
  1.9712716e-02
  1.0155065e+00
  1.1509041e-01
 -4.9010817e-02
  5.9374958e-02
 -1.6768856e-02
 -7.8816511e-02
  1.0449488e-01
 -3.1290565e-02
 -1.6456827e+00
  2.2386725e+00
 -1.8620214e+00
 -2.0274162e-01
 -2.0948391e-01
  2.3959205e-03
  1.8785195e-01
  1.5330927e-01
  6.7807293e-01
  1.9301243e-02
 -3.1783659e-02
 -1.0441309e-03
  1.7049715e-01
  2.2030491e-01
 -1.4923997e-01
 -4.0526170e-02
 -4.7660521e-03
  2.6579797e-02
 -3.4313373e-02
 -2.8231449e-02
  6.0876023e-02
  3.1627677e-02
 -2.1746330e-02
 -7.0818454e-02
  8.2703279e-03
 -2.1599874e-02
 -1.7703250e-02
  6.7328617e-02
  2.8725272e-01
  2.2830186e-02
 -2.3220507e-03
 -4.2063430e-02
 -1.0344099e-02
  4.0089481e-02
 -2.7127855e-02
  5.1038796e-01
 -5.1310405e-02
 -1.2991107e-01
  1.4021214e-02
  2.6173252e-03
  5.8010880e-02
 -7.3067337e-02
 -2.3698106e-01
 -1.8804245e-01
  1.2888755e-01
  3.7514944e-02
 -1.0499476e-02
 -2.4610842e-02
 -4.8285563e-02
  1.9998066e-02
 -1.3147842e-02
 -5.6905239e-03
 -1.4452333e-02
 -3.6019802e-02
 -1.1535274e-02
 -2.7962852e-01
 -3.6943797e-02
 -3.2120720e-02
  2.3350157e-02
 -2.0399353e-02
  7.2805208e-01
  2.7972674e-01
 -6.4415440e-02
 -4.7717530e-01
  5.5649053e-02
 -9.8666209e-01
  7.8327841e-01
 -3.3232108e-01
  1.7915247e-02
  8.5306674e-02
  7.6694943e-02
  3.4331113e-02
  3.0242646e-01
  1.5699533e+00
 -1.4287811e-02
 -1.6030286e-01
  3.9303392e-01
 -5.9095001e-01
  1.9315138e-01
  4.0728021e-02
  5.3011769e-01
  5.1613891e-01
 -9.7088629e-01
 -2.3947242e-01
  8.6656138e-03
  2.1395358e-01
 -2.1135351e-01
  7.7422790e-02
  5.8165693e-01
  7.8762053e-03
 -1.4121732e-02
  1.6412163e-01
 -2.2359630e-02
 -7.7086106e-02
 -1.0701334e-02
  9.0631306e-02
 -4.2686570e-02
  2.9809704e-01
 -1.0340413e-01
 -9.0888515e-02
  1.6542779e-02
 -3.0107636e-03
 -1.1128813e-02
  1.3920700e-02
 -2.0348746e-02
  3.5477740e-01
  3.3196956e-02
 -3.6713097e-02
 -2.0704247e-01
 -2.9492793e-03
  2.2197776e-02
 -5.0077438e-03
  4.2558961e-02
  8.9880619e-03
  2.1029141e-02
  6.2872529e-02
  1.4012991e-02
 -1.0041918e-01
 -9.5902026e-02
  6.6357836e-02
 -1.8947652e-02
  1.6944693e-02
 -1.6586173e-01
 -1.0181780e-01
 -1.6576309e-02
 -2.1204177e-02
 -9.2954580e-03
  3.0438706e-02
 -6.2973462e-03
 -3.9507575e-02
  3.7144803e-02
  1.4006406e-02
 -1.6559891e-02
  1.6112128e-02
 -1.1969993e-01
  3.0625351e-02
 -7.0234761e-02
  1.0666405e+00
 -3.0534435e-02
 -3.8620941e-02
 -8.9459851e-02
  7.2249494e-02
 -1.2274746e-01
 -1.2436433e-02
 -4.9033415e-02
  2.4512736e-02
  2.6481664e-02
 -2.9780623e-02
  1.4637926e-01
 -7.0215046e-01
  1.5631489e-02
 -6.6964895e-02
  4.5821695e-03
 -4.5932988e-03
  6.0695959e-03
  1.4406236e-01
  3.3178031e-02
 -2.1405142e-02
 -5.9928574e-02
  1.0015111e-01
 -6.6592479e-03
  2.3272047e-02
  4.9868278e-02
 -3.1823568e-02
 -4.4850424e-02
 -1.7076194e-02
  4.1252092e-02
  8.9299425e-02
  5.7983033e-02
 -2.8651167e-02
 -1.4480921e-02
  2.1735439e-02
 -1.3473717e-02
  6.7732289e-02
  5.8440864e-02
  6.9724577e-03
  7.3581547e-02
 -1.0572955e-01
 -7.1326554e-02
 -1.5903400e-01
 -5.8368361e-01
 -6.3950604e-01
 -4.9576414e-01
  3.2913625e-01
  5.4786289e-01
 -3.1124696e-01
 -2.5681674e-01
 -1.2922306e-03
  2.6439974e-02
 -2.2905241e-01
 -4.1973352e-01
 -8.1005168e-01
  7.0562139e-02
 -7.0557438e-02
 -1.9398934e+00
  2.4445584e-01
  4.9588454e-01
 -4.5042150e-02
  9.6678380e-03
  1.6565610e-01
 -6.5357154e-03
  3.3986267e-02
  5.9060473e-02
  1.4616869e-01
  4.4920645e-03
  4.5989953e-02
 -1.0148926e-02
  7.7099483e-03
 -9.6561247e-03
  1.9311343e-01
 -8.2363687e-02
  1.2792110e+00
  6.9201559e-02
 -7.2934091e-01
 -8.1343812e-01
 -3.6359555e-01
  2.5923979e-02
  1.2869038e-01
 -1.8158168e-02
  1.6947072e-02
 -3.4346572e-01
 -5.7420701e-01
  1.3512026e-02
 -2.9485879e-02
 -1.8466993e-01
 -1.0064491e+00
 -4.4062633e-02
  2.9679924e-02
 -4.8035540e-02
 -1.1914918e+00
 -1.3768630e+00
 -1.9771243e-03
 -5.4863539e-02
 -4.6771042e-02
  8.6023861e-01
 -1.8165310e-01
 -1.6572428e-01
  1.8449826e-02
 -3.4945887e-03
  3.5838533e-02
 -2.9500332e-01
 -7.0660406e-01
  1.0024462e+00
 -1.0462185e+00
 -4.7490570e-01
 -7.1994904e-03
 -1.7637034e-01
 -6.0640849e-02
 -8.2356697e-03
  1.5507780e-02
  1.2890384e-01
 -7.8034826e-02
  7.6110706e-02
 -2.7139401e-01
 -4.7227032e-02
 -1.7227873e-02
 -1.2967100e+00
 -5.0467294e-02
  4.2453863e-02
 -7.1925297e-02
  1.6230915e-02
  1.0505484e-01
  3.9334622e-01
  3.4346092e-01
  1.2870745e-01
  2.2253694e-02
 -7.5482883e-02
  2.6526287e-02
 -5.1145107e-03
  4.2041164e-02
 -3.8594492e-02
 -1.5124871e-01
 -2.4622645e-02
  5.4847609e-02
  4.5857344e-02
 -5.2968726e-02
 -5.1155165e-02
 -7.5395040e-02
  1.6243270e-02
  1.1093105e-01
 -3.3039958e-03
 -1.4984282e-02
 -5.1471507e-03
  6.9464602e-02
 -1.3795851e-02
 -3.0588925e-02
 -6.0698882e-02
 -2.3234745e-02
  3.1311251e-02
  7.8364406e-03
 -1.0752728e-02
 -1.0336015e-02
  3.4888662e-02
 -2.1861352e-02
 -3.4464374e-02
 -2.5448872e-02
 -1.6344905e-02
  1.3181635e-02
 -4.5056477e-02
  1.0977864e-02
  1.8355908e+00
  4.5177433e-01
 -1.1461385e-01
 -9.0237916e-01
 -2.8110164e-01
  3.3267099e-01
  1.1628351e-01
 -1.0131367e-01
  2.5334248e-01
  8.7226979e-02
  5.5497415e-02
  1.3056181e-01
 -8.0895215e-02
  3.4528804e-01
  2.2596706e-02
  4.0102005e-02
 -2.1172902e-01
  7.2305771e-03
 -1.8765283e-01
  7.0658363e-02
  3.7586596e-02
  5.0875857e-02
 -1.1519572e-01
  3.1908873e-02
  1.0535303e-01
  4.1872911e-02
 -5.4187477e-02
 -1.3575815e-03
 -2.9980806e-01
 -5.0931955e-03
  2.2788869e-01
 -8.4309870e-01
  6.7303997e-01
 -8.9120537e-01
  8.0040228e-03
  3.5094506e-01
 -2.6463878e-01
 -3.3334829e-02
  1.2533435e-01
 -7.0266120e-02
  2.6393485e-01
  2.8135994e-02
 -3.0480334e-01
 -2.0008563e-01
 -9.7518917e-03
  6.2173001e-02
 -4.5810966e-03
  4.0157658e-01
  1.1871777e-02
 -2.9279046e-02
  5.4897354e-03
 -6.6516602e-01
  3.2369173e-01
 -4.2052549e-01
 -1.0591765e-01
  4.2364020e-02
  6.3873366e-02
  3.4912437e-02
 -1.5895069e-02
 -1.0726811e-02
 -8.2618501e-03
 -3.1335406e-02
 -8.1537664e-03
  4.5760050e-02
 -6.6569597e-02
  3.9015062e-02
 -3.1596329e-02
  1.4396854e-02
 -1.9126263e-02
  2.7114801e-02
  1.0977709e-01
  6.7350417e-02
 -3.7004128e-02
  5.7256475e-02
 -2.0208895e-02
  6.2190551e-02
 -5.9326578e-02
 -2.9271303e-02
 -9.5395390e-03
  1.6591646e-01
  1.1313478e-02
 -3.1192159e-02
  2.4934690e-02
  2.0302096e-02
 -7.7565402e-02
  3.9996229e-02
  3.6579229e-02
 -4.5570135e-02
 -2.4306916e-02
 -2.6064536e-02
  6.8539190e-01
 -9.6436203e-01
  3.3071187e-01
 -6.5035635e-01
 -1.2182508e-01
 -2.9112114e-02
  3.3915233e-02
 -4.7116090e-02
  2.3180029e-01
 -5.6222502e-02
  1.4973956e-01
  1.7979507e-01
  1.0023861e-01
 -4.2254101e-02
  2.6526827e-01
  3.2792002e-02
 -5.5529814e-02
 -7.8865010e-03
 -4.3585949e-02
  1.1006667e-01
  2.5890604e-01
  1.1144127e-01
 -6.1871149e-02
  2.0648390e-01
  2.2466135e-01
  7.0232689e-02
 -1.4325646e-01
 -3.4910887e-03
  3.5883240e-02
 -2.6662925e-02
 -3.7188414e-02
  5.7871986e-02
 -1.4303902e-02
  1.1024246e-01
  3.3766799e-02
  9.5695049e-02
 -1.2193638e-01
  6.5796271e-02
 -1.0957149e-01
  1.3456763e-01
  7.9561420e-02
 -1.8282071e-02
 -6.9925159e-02
 -4.1967370e-03
  7.0362233e-02
 -2.7465152e-02
 -1.6887490e-01
 -5.2320406e-02
 -5.1918842e-02
  6.8848319e-02
 -5.9620097e-02
  4.4088811e-04
 -3.1642012e-02
 -3.4543686e-02
 -8.3491422e-02
  1.2677765e-02
 -1.9911893e-02
 -2.9132659e-02
  2.9357493e-02
 -9.6731056e-03
 -7.8712851e-02
 -6.3449436e-01
  5.5255741e-03
 -4.4891005e-03
  4.7792681e-05
  5.5894688e-02
  3.2404009e-03
  5.1207632e-02
 -2.3575209e-02
  3.4745194e-02
 -6.1110193e-03
 -5.6732580e-02
  3.8409851e-02
 -1.8186260e-02
  5.3851280e-02
  4.9488947e-02
 -1.4231271e-01
  4.6609439e-02
  7.7736512e-02
  1.1287454e-01
 -1.0940235e-01
 -8.1792176e-02
  1.0148527e-02
  6.9951196e-04
  2.0254233e-01
  8.8161051e-02
 -4.4627860e-04
 -1.0562012e-02
 -1.0503520e-01
  5.6707330e-02
 -1.8943019e-01
 -1.5789466e-03
 -8.2070969e-02
  7.1767099e-02
  3.8821951e-02
  1.0881615e-02
 -2.2054011e-01
 -9.3624080e-03
 -9.4546616e-02
 -2.5047399e-02
  2.1718591e-02
  3.5883043e-02
 -6.9786690e-02
  5.2734539e-03
 -6.9797345e-02
  1.2152694e-01
 -7.5847059e-02
 -1.3196176e-02
 -1.7702295e-02
  1.6826529e-02
 -5.5978879e-02
  1.6810317e-02
  1.3188943e-01
 -2.2726512e-02
  3.7861899e-02
  1.1382133e-02
  1.0437778e-01
 -4.0001150e-02
 -5.6209341e-03
  6.7160115e-02
  8.5413575e-02
  3.0460896e-02
 -5.3887153e-01
 -5.5893576e-01
  4.0279804e-03
 -4.1038263e-01
  1.0657351e-01
 -2.8993636e-02
  1.7634198e-01
 -8.1977129e-02
  3.5209182e-01
 -1.8096458e-02
  1.3750771e-01
 -4.1613683e-01
  3.3911654e-01
 -1.2982309e-01
  1.6714133e-01
 -1.0801459e-01
  1.6528143e-01
 -5.8168758e-02
  3.5698104e-01
 -1.5532984e-01
 -8.1221044e-02
  7.1515054e-03
  5.6244738e-02
 -7.4738367e-03
 -6.0642719e-02
 -5.7994545e-02
 -9.1709644e-02
 -8.5580088e-02
 -3.2578349e-01
  9.5400852e-01
 -5.3376770e-01
 -7.9190141e-01
 -1.5325614e+00
 -5.0684720e-01
 -2.4513124e-01
  4.2438917e-02
 -4.2650852e-02
 -1.2249292e-01
 -8.7076974e-01
  1.8425670e-02
 -1.7235418e-01
 -7.9026431e-02
 -1.4317796e-01
  4.9594164e-01
  2.2927973e-02
  2.5751796e-02
 -8.7380111e-03
 -1.8411018e+00
 -3.2699475e-01
 -1.7013222e-01
  4.1588597e-02
 -1.0333017e-01
  6.7348218e-01
 -2.0583184e-04
 -1.8652745e-02
  1.1140901e-02
  5.2183732e-02
  2.5988899e-02
  2.1684229e-02
 -1.4300430e-01
  6.3856453e-02
  1.1890192e-01
  3.6261067e-01
 -1.0825509e-01
  2.3860638e-01
  1.1125772e-02
  7.3971592e-02
 -3.6349739e-03
 -2.5577515e-02
  1.4331632e-02
 -1.4269978e-02
  2.7410722e-01
 -5.9041744e-03
  2.6950289e-02
  6.7729741e-02
 -1.3582582e-02
 -4.4145547e-03
 -4.5601152e-02
  6.5749772e-02
 -1.1634760e-02
  3.7076790e-02
  2.8638668e-02
  1.2524141e-01
  2.8731974e-02
 -9.8820530e-02
 -3.2247838e-02
 -1.9240972e-02
  1.0359675e-01
  1.9549861e+00
 -2.6988009e-01
  6.8507034e-01
  1.6894907e+00
  1.9617239e+00
  6.1598790e-01
 -3.1877950e-02
 -1.4954318e-01
 -6.1985046e-01
  1.0733138e-01
  2.0168939e-01
  7.0039141e-01
 -9.2997760e-02
  2.8068505e-02
  4.4729722e-01
  4.9533743e-01
  3.1154662e-01
 -7.1754493e-02
  9.0762712e-02
  5.2165782e-01
  1.8065657e-01
  2.9661221e-02
 -7.2198696e-02
 -2.2596646e-02
  4.2818520e-02
 -2.3639467e-02
  1.2042762e-01
 -2.3653533e-02
 -5.9309695e-02
 -1.7551385e-01
  1.7134189e-03
 -9.7598314e-02
  8.8233784e-02
 -7.0710495e-02
  1.9709315e-02
  1.1006612e-03
 -1.4882903e-01
 -3.3132777e-02
  1.8624913e-02
 -1.0437361e-01
 -1.0499140e-02
  3.6044118e-01
  4.8820216e-02
 -3.1384900e-02
  1.1456259e-01
  1.6233161e-02
 -1.7654084e-01
 -8.6756974e-02
 -1.7654609e-02
 -2.4482962e-03
 -1.0755999e-01
  3.3155195e-02
 -1.0097047e-01
  1.9329160e-02
  3.7194081e-03
 -2.1665372e-02
 -2.3706270e-02
 -1.5207817e-01
 -1.6101912e-01
 -6.9884874e-04
 -1.5910134e-01
 -5.6148786e-02
  9.8481327e-03
  1.4908493e-01
  1.9274248e-01
  8.5817836e-04
 -8.1465870e-02
  3.8952179e-02
  1.9152785e-02
  3.1902041e-02
  6.7334488e-02
  4.5206621e-02
 -1.4633462e-01
 -9.4718568e-02
  8.1212021e-02
  9.0310082e-02
  4.3530883e-03
  3.9977301e-02
  9.7424217e-02
 -3.4345657e-02
 -3.0143857e-02
  5.5777952e-02
 -4.3723946e-03
  9.0202004e-02
  1.1766618e-01
  6.2853351e-02
 -4.6096027e-02
 -1.4581176e-03
  2.4254685e-02
  2.0792957e-02
  3.3451626e-01
  2.8928718e-01
 -1.2860795e-02
 -1.2663829e-01
 -2.0880110e+00
  1.1070741e-02
 -4.7597852e-01
  1.2393415e-02
 -6.5825664e-02
 -1.4775703e+00
  8.4916788e-01
 -6.8880625e-02
  5.9690543e-02
 -2.4282653e-03
  1.3494992e-01
  4.9899194e-02
 -7.7322707e-02
  3.4721059e-01
 -4.2264901e-02
  4.0973436e-02
  6.1303562e-01
 -2.6393957e-02
  6.4765178e-02
  1.0117155e-02
  9.8146029e-02
  5.2679505e-02
  2.2453282e-02
  2.3090944e-02
 -6.5207556e-03
 -2.2309914e-02
  8.9941782e-01
  1.6985197e-02
 -8.8936865e-01
  1.1447020e-01
  1.4008315e-01
  2.2773476e-01
 -2.8633833e-01
  8.9928746e-02
  8.7409079e-01
  2.2782376e-03
 -3.6059599e-02
 -1.4611937e-01
  7.5830538e-03
 -9.6447311e-02
 -7.3555373e-02
 -2.1290794e-02
 -6.2309295e-02
  8.7882735e-02
 -1.3250065e+00
 -1.4247361e-01
 -4.4611987e-02
  3.4584157e-02
 -3.2007027e+00
  1.1361936e-01
  7.4313544e-03
  7.3799774e-02
 -2.5335696e-02
  1.4858761e-02
 -2.5186580e-01
  4.3764718e-02
 -5.9974600e-02
 -1.4064825e-01
 -2.6511617e-02
  1.5507773e-02
  2.3640862e-02
 -1.0191188e-02
 -6.6437013e-02
  8.0594257e-02
 -1.6775452e-02
 -6.9856062e-03
  6.3545473e-02
  8.2010292e-02
  6.9579691e-02
 -1.4365745e-01
 -2.3509935e-04
 -5.2970335e-02
 -7.0669572e-03
 -3.0888803e-02
 -3.3050306e-02
 -1.0460623e-01
  1.6202053e-01
  1.9082082e-02
  9.0612151e-02
  2.6611283e-02
  6.5016150e-02
 -3.7120845e-02
  9.7128656e-03
 -1.3308217e-01
  6.0101319e-04
  1.5487354e+00
 -3.5345093e-03
  8.9926815e-01
 -8.1241522e-03
  1.3756254e+00
  7.3029520e-04
  1.1996212e-01
  8.9516072e-04
 -5.1012553e-02
 -2.7524073e-02
  2.8236505e-02
 -2.8697264e-01
  6.9959098e-01
  1.5268402e+00
  2.8744411e-02
  2.9964313e-01
  2.8024843e-01
 -1.0933676e-01
 -2.1109222e-01
 -3.2505859e-02
 -5.9103318e-02
  1.7498506e-03
  3.4217652e-02
  9.5263857e-01
 -4.0128801e-02
  9.7987992e-01
  1.8875690e-02
 -3.0609267e-02
 -5.4597628e-01
 -3.2698160e-01
  1.2420645e-01
  1.2357158e-01
  2.5456697e-01
 -2.4451295e-02
 -2.6186350e-01
 -1.3303189e-01
 -1.2717667e-02
  4.5945814e-01
  5.9282940e-02
  5.1514576e-03
 -2.2183025e-02
 -3.7707004e-01
 -2.8599602e-01
  3.1101504e-01
 -3.2078789e-04
 -3.7659478e-01
 -4.2611596e-01
 -1.4666265e-02
  2.4449414e-01
  3.0463789e-02
  5.0704788e-02
 -8.1659012e-02
  1.3915536e+00
 -2.2371583e-01
 -9.7656883e-02
  2.9981986e-01
 -3.2846909e-02
 -7.8714766e-02
  2.3420113e-01
 -5.0038379e-01
 -1.9954754e-02
  3.9117138e+00
  5.2867699e-01
 -3.3741567e-01
  6.6443133e-01
  7.0661944e-01
 -1.0662657e+00
  1.4974031e+00
 -2.8575882e-01
  4.7134969e-01
 -7.1876830e-01
 -2.3737984e+00
  1.4090553e-01
 -1.1837269e+00
 -1.8823551e+00
  2.1000917e+00
 -2.2636059e-01
 -1.0624810e-01
 -3.7353975e-01
 -8.2944793e-01
 -9.5917749e-01
  1.0384846e-01
  8.9055008e-01
 -6.5214479e-01
  2.5983393e-01
 -1.1119052e+00
  2.5440982e-01
 -1.4305111e+00
 -3.3227742e-01
 -1.0393297e-01
  1.2196610e-01
  8.0777580e-01
  8.7906855e-01
  9.2474413e-01
 -1.9474146e-01
  4.2176548e-01
 -1.0081727e-01
  1.0892051e+00
 -5.7046372e-01
  9.6363062e-01
 -8.3533120e-01
  1.1682075e+00
 -7.1265709e-01
 -6.3539511e-01
  8.9027452e-01
 -1.0992945e+00
 -2.0551445e+00
 -1.0939779e-01
  8.2807487e-01
  8.1018275e-01
 -1.2418127e+00
  3.9911699e-01
  1.2467525e+00
  1.5338454e+00
 -8.6907232e-01
  1.6685089e+00
  3.2589006e-01
 -2.1705849e+00
 -1.7394710e+00
 -1.5449546e-01
  4.8602855e-01
 -5.1218832e-01
 -9.3263930e-01
  1.3056868e+00
  2.5344124e+00
 -6.9924706e-01
  1.0078764e-01
  3.6974752e-01
 -9.7711164e-01
  1.0909955e-01
 -4.9459276e-01
  1.3513507e+00
 -1.0431349e+00
 -7.5406718e-01
  1.7428223e+00
 -4.9890777e-01
 -5.4216331e-01
 -2.9954323e-01
 -1.7916560e-01
 -1.0708892e-01
 -1.1801328e-01
  1.2773232e-01
  1.6458286e+00
  8.0478841e-01
  3.8745016e-01
 -2.2110844e+00
  3.7623873e-01
 -1.3751639e+00
  1.2140120e-01
  7.8093189e-01
  2.0455430e-01
 -1.3207803e+00
 -7.8756857e-01
 -1.7606577e-01
 -3.2679245e-01
  7.3020619e-01
  1.2002619e-01
 -2.9652628e-01
 -7.3872596e-01
  1.1329013e+00
  1.1656424e-01
 -1.0095910e-01
  1.1915716e+00
 -1.7032963e+00
 -5.7619035e-01
  9.3560839e-01
 -8.0121326e-01
 -3.2622606e-01
 -1.0347106e-01
 -3.3060491e-01
 -1.1177163e+00
 -9.6474820e-01
  6.3837963e-01
  2.0098579e+00
  1.3480138e+00
  1.1973099e+00
  2.0823590e-01
  2.1897894e-01
 -9.5979619e-01
 -9.2047101e-01
 -1.7969595e+00
 -2.0294011e+00
  2.5687566e-01
 -6.3931507e-01
 -7.2689766e-01
 -1.7872113e+00
  2.4541309e+00
  3.4243393e+00
 -1.0670556e-01
 -1.5994202e-01
  1.1178757e-01
 -6.5916187e-01
 -9.4960612e-01
 -7.1462452e-01
  5.0303805e-01
 -1.0264472e+00
  1.0078850e+00
 -2.5609154e-01
 -1.4095025e+00
 -1.0406992e+00
 -1.9979453e-01
 -1.0957726e+00
 -4.9176353e-01
  5.9944886e-01
  1.1188643e+00
 -1.0079172e-01
 -4.1349414e-01
  9.7800708e-01
  2.5194284e-01
 -9.8388457e-01
 -1.3099930e-01
  1.0291129e+00
  4.8250362e-01
  1.0083885e-01
 -5.7134420e-01
 -6.9282484e-01
  1.5844501e+00
  1.8787923e-01
  5.1058888e-01
  1.3426939e+00
  1.1801045e-01
 -7.9021955e-01
  7.5150019e-01
 -8.7494010e-01
  1.1495080e+00
  1.1290991e-01
 -3.3388564e-01
  2.7039167e-01
 -1.8217021e+00
 -7.3825604e-01
  3.6803547e-01
 -3.5435906e-01
  8.8395727e-01
 -2.9940075e-01
  9.5731533e-01
  5.3499556e-01
  1.9981561e+00
 -9.4355774e-01
  1.4175779e+00
 -5.6516922e-01
  1.0757036e+00
 -1.0338101e-01
 -1.2652284e-01
 -1.4990375e+00
 -1.9017105e+00
  1.2032689e-01
  1.0642760e-01
  1.7155337e-01
 -6.0710299e-01
 -1.3126349e-01
 -2.1457702e-01
  2.5515783e+00
 -4.6240655e-01
  1.1164717e-01
  1.0643026e-01
  1.9629332e-01
 -7.8797603e-01
  1.2401173e-01
  1.2342205e-01
  1.0806777e-01
 -8.0684668e-01
 -1.1071780e-01
  1.2585819e-01
  9.3432021e-01
  1.0228220e-01
  4.0301847e-01
 -1.1341701e-01
  1.6995895e-01
  3.4864369e-01
  1.0178780e-01
  1.7339692e-01
 -1.4190206e-01
  5.9209365e-01
 -1.0227028e-01
 -1.4938886e-01
  1.4260708e+00
 -8.7564111e-01
 -1.0879464e-01
  1.0881817e-01
 -1.1746525e+00
 -7.4584448e-01
  1.6171119e-01
 -1.5167010e-01
 -6.0118335e-01
 -1.1816861e-01
  1.0420254e-01
 -1.2807938e-01
  8.1964988e-01
  1.0492561e-01
 -1.2263101e-01
 -1.0008953e-01
 -5.9098285e-01
  9.9872851e-01
 -1.0841609e-01
 -1.0481816e-01
 -4.9442926e-01
  4.1232798e-01
  2.7942702e-01
 -1.5677585e-01
 -1.0624977e+00
 -5.6226593e-01
  1.3881996e-01
 -1.1514661e-01
 -1.7032620e-01
  4.9332380e-01
 -1.1848961e-01
 -2.6081920e-01
  1.0197931e-01
 -1.5547780e+00
  1.2414234e-01
 -1.5532504e-01
 -5.4807192e-01
 -1.7619652e-01
  1.4104030e-01
  1.3643149e-01
 -1.1784903e+00
 -1.3836747e-01
  1.2301104e-01
 -1.0784654e-01
 -1.6247824e-01
  1.8289721e-01
 -1.1027896e-01
  1.3780196e-01
 -9.1865671e-01
 -2.5232831e-01
 -1.0567492e-01
  1.6340432e-01
  3.4427390e-01
 -1.9231078e-01
 -2.2382626e-01
  1.6168666e-01
 -1.2516862e+00
 -1.8256134e-01
 -1.3609710e-01
  2.2763914e-01
  8.2672548e-01
 -1.0577203e-01
 -1.3983242e-01
 -1.1492629e-01
 -8.6325788e-01
  1.1310111e-01
  1.1775586e-01
 -1.1672886e-01
 -4.0045026e-01
 -1.0141169e-01
  1.2656367e-01
 -1.4294304e-01
  1.3618761e-01
  1.6425855e-01
 -1.1694069e-01
  1.3442686e-01
  1.0551608e-01
 -1.3536400e-01
  1.2800211e-01
 -1.1960562e-01
 -1.5524039e-01
  1.3074163e-01
  1.2241833e-01
  1.8537079e-01
 -6.1091435e-01
 -1.6311523e-01
  2.1212450e-01
  2.1775550e-01
 -3.2245451e-01
 -1.1962666e-01
  1.0100655e-01
  1.3110201e-01
 -2.1092858e+00
  2.2844869e-01
  1.0788272e-01
 -1.0520221e-01
 -5.7397515e-01
  1.0215116e-01
 -1.0914094e-01
  1.4203349e-01
  1.4210561e-01
 -1.7433360e-01
  1.9801757e-01
  1.8321909e-01
 -6.7737126e-01
 -1.4179605e-01
  2.0435828e-01
  1.4827165e-01
 -6.8363857e-01
 -1.4123327e-01
 -1.5356007e-01
 -1.4740090e-01
 -5.7885426e-01
  1.1059273e+00
 -1.5323061e-01
 -1.1684700e-01
  2.4382022e-01
  1.9859202e-01
 -1.5106152e-01
 -1.5484974e-01
  1.8365154e+00
 -7.8054249e-01
 -1.6631627e-01
 -1.1501360e-01
  1.0134616e+00
  1.4867358e+00
 -1.0218593e-01
 -1.2273917e-01
  2.2060113e-01
  3.3324170e+00
 -1.2378940e-01
  1.2495647e-01
 -4.5624003e-01
 -1.0246710e+00
  1.1714038e-01
  1.3958845e-01
  2.0861501e-01
 -3.5224962e-01
  1.2115733e-01
  1.0035450e-01
 -1.5978505e-01
  1.2473941e+00
 -5.9695190e-01
  2.1262537e-01
  8.7960398e-01
  7.9602164e-01
 -3.1742862e-01
  1.3779175e-01
  1.3779175e-01
  1.3779175e-01
  1.3779175e-01
  1.3779175e-01
  2.6472874e+00
  2.6472874e+00
  2.6472874e+00
  2.6472874e+00
  2.6472874e+00
  1.1261542e+00
  1.1261542e+00
  1.1261542e+00
  1.1261542e+00
  1.1261542e+00
  4.4858238e-01
  4.4858238e-01
  4.4858238e-01
  4.4858238e-01
  4.4858238e-01
  2.2502172e-01
  2.2502172e-01
  2.2502172e-01
  2.2502172e-01
  2.2502172e-01
  4.1431818e+00
  4.1431818e+00
  4.1431818e+00
  4.1431818e+00
  4.1431818e+00
