nep4 2 Te Pb 
cutoff 8 4 74 10
n_max 4 4
basis_size 8 8
l_max 4 2 0
ANN 30 0
  4.9122950e-01
  1.5392530e-01
 -5.0609864e-02
  2.7008975e-01
 -3.0147472e-01
  1.1460829e-01
  3.2483771e-01
  9.3071051e-02
 -1.6376862e-01
  1.8937971e-01
 -5.5265969e-01
  4.3177736e-01
 -1.8222161e-01
 -2.7263464e-02
  2.0571297e-01
  2.1094036e-01
  4.7786728e-01
 -9.9032268e-02
  3.0403802e-01
 -4.8637222e-02
  8.6673908e-02
 -1.3285272e-01
 -6.9719851e-02
  3.4460682e-02
  1.1604533e-01
 -5.8265239e-02
  1.0999721e-01
 -2.6906717e-01
  2.5392836e-03
  9.2937589e-02
 -1.8060315e-01
 -1.2322152e-01
 -2.8924102e-01
  1.0938341e-01
 -1.7988913e-02
 -1.5438847e-02
  1.3478750e-01
  8.8942006e-02
  8.2926698e-02
  1.1126300e-01
 -6.9905303e-02
  3.5330527e-02
 -4.7771922e-01
  3.1759165e-02
 -1.0862236e-01
  5.5295497e-02
  1.9336109e-01
 -3.0526477e-01
 -1.7634253e-01
  1.8573146e-01
 -3.8647089e-02
  1.4274234e-01
  1.2557712e-01
  1.9226773e-01
  2.1312575e-01
 -2.1410783e-01
  1.2996495e-01
  7.3548876e-02
 -7.5172371e-01
  6.8154499e-02
  9.8215395e-01
  1.0324594e-01
  1.4671856e-01
  1.5310153e-01
  2.6348022e-01
  1.3961792e-01
  4.8349034e-02
  2.6959449e-01
 -2.2237875e-02
  5.4098938e-02
  1.2074810e-01
  1.0256862e-02
  1.5075031e-01
 -1.9954899e-01
  2.4894940e-02
  2.0637079e-01
  6.6094272e-02
 -3.3291405e-01
  4.9663022e-02
 -2.8765857e-01
 -1.4955968e-01
 -7.1067126e-03
 -1.7230543e-01
 -7.5209394e-02
  1.9033486e-01
 -4.5595132e-02
  3.9427906e-02
 -1.3324361e-01
 -5.6083333e-03
 -1.8487984e-01
 -5.0551248e-01
 -1.4711446e-01
  2.7227962e-01
  8.7566607e-02
 -5.8411062e-04
  2.3278558e-01
  3.5395020e-01
 -1.4710885e-01
 -1.4627010e-02
 -1.5510580e-01
 -2.4179360e-01
 -2.8916994e-01
 -1.2843208e-01
 -3.4739953e-02
  2.1688515e-01
  2.1331653e-01
  1.3473581e-01
  1.6936606e-01
  8.5881934e-02
 -1.7760530e-01
  1.3067621e-01
  2.4502254e-01
 -3.3102017e-03
 -2.1297054e-01
  2.3218493e-01
 -2.4391477e-01
  7.3904470e-02
  8.9218214e-02
  7.1377926e-02
 -6.4771719e-02
 -7.7922845e-01
  3.1662025e-02
 -5.7900913e-02
  9.6214011e-02
  2.7464557e-01
 -3.0793961e-02
 -8.1545107e-02
  1.3531861e-01
  2.9055762e-01
  1.3393530e-01
 -3.4412574e-03
 -3.7836483e-01
  1.1175060e-01
  7.6711670e-02
  9.9577326e-03
  3.1542599e-02
 -2.1298301e-01
 -1.6351673e-01
  1.2851682e-01
  5.0638467e-02
  4.3228376e-01
 -1.9264525e-01
 -5.6589991e-02
  2.0950729e-01
 -2.2370726e-02
 -2.2539967e-01
  3.3453047e-01
 -2.0642061e-02
  1.3624416e-01
  9.3210526e-02
 -2.1248515e-01
 -2.7824847e-02
  2.0388444e-01
  1.6777524e-01
 -1.4383309e-02
  1.1779770e-01
  1.7861495e-02
  5.2699409e-03
  1.4750150e-01
  1.3835686e-01
  2.9638854e-01
  4.5360440e-01
 -1.3831939e-01
  4.4906610e-01
 -1.9570611e-02
  6.8914913e-02
 -2.0449764e-01
 -7.4440420e-02
 -3.5409403e-01
  5.8957562e-02
 -8.2909144e-02
 -1.9041744e-01
  1.2341181e-01
 -9.1164380e-02
 -4.0313268e-01
  5.7924643e-02
 -4.1609555e-02
  7.7725738e-02
 -2.0027885e-01
  4.5293602e-01
  3.6988693e-01
  8.6197816e-04
 -2.5358062e-02
  3.2086980e-02
  8.0617905e-02
 -2.1479249e-02
  8.6631075e-02
  8.5868485e-02
 -1.9565135e-02
  1.1314481e-02
  2.2905192e-01
 -1.0941219e-01
 -1.1756799e-01
 -1.4948866e-01
  2.3399445e-01
 -1.6828990e-01
 -2.0483056e-02
  9.9096745e-03
 -2.0451665e-01
  7.4701682e-02
  1.4249292e-01
 -1.4468908e-01
 -7.2394488e-03
 -3.3039474e-01
 -2.6468697e-01
  1.5489067e-01
  1.8391803e-01
  3.6475053e-01
 -3.7075236e-01
 -4.0142214e-01
  9.4341241e-02
 -5.8737598e-02
  7.6823555e-02
  3.5838902e-02
 -8.1009246e-02
  1.9651607e-01
 -5.3302038e-02
 -1.2864698e-01
 -1.9638972e-01
  3.9108239e-02
  2.5649682e-01
 -1.9173244e-01
  2.1459041e-02
  4.9832452e-02
  2.9008371e-01
 -1.6272241e-01
 -3.7087280e-01
  1.7269231e-02
 -9.6725851e-02
  1.1413866e-01
 -1.1343885e-01
  8.2974918e-02
 -8.8274330e-02
 -7.1475893e-01
  3.6190590e-01
  1.5977791e-01
  1.0510691e-01
 -3.5541952e-03
  2.6430318e-02
 -2.2307628e-01
  4.0325737e-01
  8.5408658e-02
 -1.1169214e-01
  6.7360029e-02
  4.6152294e-01
  7.5947225e-02
 -2.2088364e-01
 -8.1638545e-02
 -2.2657728e-01
  2.0661740e-02
 -2.1349120e-01
  6.1969493e-02
 -1.7434256e-01
  1.2855713e-01
  4.5277990e-02
 -7.4638724e-03
  3.7681684e-03
 -1.7334506e-01
 -2.4391524e-04
 -5.9886426e-02
  2.9150468e-01
  1.9523853e-01
  3.5603687e-02
  3.4347314e-01
  9.3155354e-02
 -9.2847534e-02
 -2.5258638e-02
 -3.9452747e-02
 -9.8463744e-01
  5.6399040e-02
 -2.0094223e-01
  4.3705174e-01
  2.7516872e-02
 -1.9755076e-01
  1.6467632e+00
 -1.9566196e-01
  2.3288724e-01
  2.7887076e-01
  3.0174654e-02
 -4.8894338e-02
  4.1434966e-02
 -1.1318251e-01
 -1.8737352e-01
  6.9247824e-01
  3.4542134e-01
  1.2392382e-01
 -6.6287845e-02
  5.0778393e-02
 -1.4877063e-01
  3.3585511e-02
  1.2335585e+00
  6.4626947e-02
 -6.5488964e-03
  2.3657599e-01
  2.3918024e-01
 -1.8072902e-01
  1.0933375e-01
 -8.6868525e-02
 -2.8469600e-03
 -8.6920783e-02
 -1.9359324e-02
  2.6008993e-02
 -1.8750519e-01
  5.0682537e-02
  2.3748402e-01
  3.2736802e-01
 -1.7924886e-02
 -3.0289260e-01
  7.4564390e-02
 -1.7547917e-01
  9.1438904e-02
  2.2516757e-01
 -1.1420956e-01
  4.0943053e-02
  2.1695575e-01
 -6.0731642e-02
  1.4744572e-01
  3.4858781e-01
 -2.0883435e-01
 -1.9000961e-02
 -1.7645042e-01
  1.1394597e-01
  2.1180940e-01
 -4.3641932e-02
  3.1287462e-02
 -1.3739860e-01
 -7.0828028e-02
  8.5510209e-02
 -1.4602846e-02
  1.6153626e-02
 -5.7205528e-02
  3.3580288e-01
  3.5920851e-02
 -8.7720998e-02
  3.2446152e-01
  2.7213791e-02
 -5.2374423e-02
 -3.3050051e-01
  1.4129698e-02
 -3.3988878e-01
  7.1751535e-02
  3.3009052e-03
  1.0571666e-02
 -1.2073363e-01
 -2.4070330e-01
 -1.8525918e-01
 -6.3062727e-02
  1.5139794e-01
 -1.0837737e-01
 -2.4309346e-01
  2.0056686e-01
  3.5550427e-02
 -1.2213905e-01
 -1.1765204e-01
  1.6516748e-01
 -4.7910139e-02
 -1.0368999e-01
 -5.4035544e-01
  6.3896477e-02
 -4.8485801e-02
  1.2027142e-01
  4.0336189e-01
 -1.3966814e+00
  5.3775150e-01
 -2.7386975e-02
  2.0890680e-01
  2.0005348e-01
 -1.7607641e-01
 -1.6977447e-01
  1.7804120e-01
  6.5050252e-02
  2.0288676e-01
  1.3782670e-01
  2.8585854e-01
 -1.5852529e-01
  1.2867215e-01
 -8.4612302e-02
  1.2450977e-01
  3.2476997e-03
 -3.2821861e-01
  1.7850330e-01
  6.9445573e-02
 -1.5616308e-01
  1.9452988e-01
 -3.1909578e-02
  2.0319819e-02
  1.9830506e-01
 -1.3753313e-01
  1.4253985e-02
  8.7784775e-02
  3.0175534e-01
 -1.2187398e-01
 -4.2605773e-02
  4.7051974e-02
 -1.7283678e-02
 -5.9944626e-02
 -1.3727894e-01
  5.3973496e-02
 -3.0729245e-02
  2.3430282e-01
 -1.3742422e-01
 -3.2943365e-01
  5.9938408e-02
  2.0986505e-01
  4.2349029e-01
  1.5077898e-01
 -3.9776659e-01
  2.4772249e-01
  2.9958805e-01
  9.4169460e-02
 -1.2400843e-01
 -7.8966685e-02
  2.2850484e-01
 -2.5487655e-01
 -7.4759975e-02
 -2.5475167e-02
 -1.7983252e-01
  2.6150092e-01
  3.2201365e-01
 -7.6259673e-03
 -3.7874770e-01
 -1.1957343e-01
  1.2755923e-01
 -3.0628881e-01
  1.1906132e-01
 -2.4247551e-01
 -1.2006529e-01
 -2.0649695e-01
  3.2581088e-01
  4.3348202e-01
 -6.8033278e-02
 -1.8140027e-01
  6.9397345e-02
  1.0034710e-01
  7.8641370e-02
 -1.1317052e-01
 -5.4078937e-02
 -2.4616587e-01
 -1.0350928e-01
  2.1795166e-01
  2.2499898e-02
 -2.9037613e-01
 -1.6755305e-02
 -2.9495746e-01
 -1.9703078e-01
  2.5544402e-01
 -1.0328982e-02
  1.5964256e-01
 -2.1612315e-02
 -2.7842870e-01
 -3.5445336e-01
 -2.7549922e-01
 -9.1392338e-02
 -7.0229806e-02
  2.7494460e-01
 -3.8446093e-01
 -1.6196717e-01
  7.4205026e-02
 -1.1237405e-01
  1.9229952e-02
 -1.1997778e-02
 -6.2675700e-02
 -9.0296239e-02
 -3.3703911e-01
 -3.1164251e-02
  1.0166259e-01
  2.9940489e-01
 -4.5278838e-01
 -5.0661224e-01
  4.8854865e-02
  4.0710859e-02
  1.7274228e-01
 -2.2508362e-01
 -1.1674677e-01
 -6.4803772e-02
 -5.4977566e-02
  3.4274697e-01
  2.0986199e-03
  2.7303275e-01
  1.5342383e-01
  3.9823624e-01
  2.8009713e-04
 -1.7446171e-01
 -1.2346439e-01
  3.7924290e-02
 -3.1690624e-02
 -2.8742775e-03
  1.9601835e-02
 -2.8348126e-02
  3.2895735e-01
  2.0233984e-01
 -2.1137711e-01
 -4.8236605e-02
  4.8199633e-01
  1.1877169e-01
  9.4817169e-03
 -2.2294705e-01
  7.8982554e-02
  9.8325826e-02
 -4.0488482e-01
  2.1969885e-01
 -8.2252049e-01
  7.5844191e-02
 -3.7240464e-02
 -1.3336477e-01
 -1.2838119e-01
  1.3048829e-01
  8.8280067e-02
  2.9518542e-01
  1.0384318e-02
  1.8185666e-02
  1.7369863e-01
 -4.4207513e-02
  1.1146035e-01
 -8.6733058e-02
  1.7131263e-02
 -4.1277099e-01
  2.2765726e-01
  2.0170793e-01
 -5.0832745e-02
 -2.2889242e-02
  9.4581917e-02
 -4.5265082e-01
 -1.3817022e-02
 -1.7221366e-01
  1.2602985e-01
 -2.1478400e-02
  7.9815626e-02
  2.7633208e-01
  9.1034196e-02
 -3.4804156e-01
 -3.6301333e-01
  3.0909356e-01
 -8.0431998e-02
 -9.8876998e-02
 -8.3411738e-02
  1.4916861e-01
 -2.2652782e-01
  1.6076475e-02
 -8.2606629e-02
 -4.7189510e-01
 -1.1397339e-01
 -7.7813506e-01
  7.1970755e-01
  3.7791193e-02
  1.4256116e-02
 -1.6260980e-01
 -1.7640908e-01
  2.4199644e-01
  3.3677589e-02
 -1.8839325e-01
  8.9106664e-02
 -1.4028156e-01
 -2.4497703e-01
 -1.9051917e-01
 -5.7525352e-02
  2.8861627e-01
  5.7945076e-02
  2.4437720e-02
  1.0984075e-01
  3.4517249e-01
  6.1449453e-02
 -9.2320286e-02
 -7.4023408e-01
 -2.4840634e-02
  1.7698176e-02
  9.3191057e-02
  5.0830297e-02
 -1.1476160e-01
  1.3716725e-01
 -1.5920787e-01
 -6.6586149e-01
 -1.5322516e+00
  7.9146713e-01
  6.4438987e-01
 -3.1942394e-01
 -4.0884009e-01
 -2.5391886e-01
 -1.1757082e+00
 -3.7627839e-03
 -2.5258809e-01
  2.3458010e-01
 -4.1040021e-01
 -7.0270133e-01
 -4.2364180e-01
  2.2850953e-02
  8.0293588e-02
 -1.0496235e-02
 -4.1347635e-01
 -1.0902771e-01
  3.7619498e-02
  1.5607652e-01
 -7.2066247e-02
 -4.2217952e-01
  1.8925332e-02
 -1.1616062e-01
  8.0434009e-02
  3.6043748e-03
 -6.2537268e-02
  3.6944672e-02
  1.0269001e-01
  1.0292405e-01
  1.4925794e-01
  1.9862689e-01
 -7.8748152e-02
  1.0368440e-02
 -1.6988331e-01
 -2.1470861e-01
 -1.2650469e-01
 -4.8482665e-01
 -2.9063880e-02
  1.8795314e-01
 -4.7042571e-02
 -1.3268232e-01
  1.1045264e-01
  3.1018211e-02
  6.7028657e-02
 -2.1198928e-01
 -3.1567699e-01
 -8.7529063e-02
  5.7295198e-03
 -1.0347855e-01
 -7.2322212e-02
 -6.5824908e-01
 -1.7874485e-01
 -2.1349625e-01
  1.2690632e-01
  7.0010275e-03
  1.8924896e-01
 -5.2726299e-01
 -4.8480440e-02
  7.8472987e-02
 -3.7851200e-02
  2.6752049e-01
  1.6974622e-02
  6.9783390e-02
  2.1889377e-02
  1.2326740e-01
  2.9158860e-01
 -2.1868895e-01
 -1.3910729e-01
  1.8226340e-02
  5.3195957e-02
  2.1116531e-01
  2.8930429e-01
 -5.3031392e-02
  7.8892991e-02
  3.0926776e-01
  2.8712371e-01
  3.8117483e-02
 -3.3508128e-01
 -3.3646293e-02
 -4.2189717e-01
  1.4775932e-01
 -2.1609126e-01
  1.8121663e-02
  3.2663696e-02
 -3.1476992e-01
  7.3742032e-02
  1.1725405e-01
  2.3576232e-02
  6.9231331e-02
 -2.1890435e-01
 -9.6821892e-01
  5.2291214e-01
 -1.7037506e-01
 -7.1079075e-01
  1.4011514e-01
  3.5214520e-01
  3.5260010e-01
 -4.5555303e-01
  2.0500297e-02
 -1.6980026e-02
 -5.2338433e-01
 -7.8816569e-01
  2.7451265e-01
 -1.8708621e-01
  3.8338926e-01
 -9.9390817e-01
  2.5601211e-01
  4.4054784e-02
 -5.8417678e-01
 -5.8726840e-02
 -1.1959976e-01
 -4.0924652e-03
 -9.0314373e-02
  4.0883657e-01
 -1.9066270e-01
 -1.5869343e-01
 -1.5943697e-01
 -9.8233670e-04
  5.9719510e-02
  5.4989763e-02
  6.7205763e-01
  1.9969280e-01
  8.9991763e-02
  1.6252789e-01
  4.9042851e-02
  8.4456131e-02
  7.5166814e-02
 -3.4457047e-02
 -8.4689148e-02
  4.8223853e-01
 -2.7807768e-02
  3.8305712e-01
  2.5616534e-02
  2.6593840e-01
  7.8334287e-02
  7.5835057e-02
 -6.8947636e-02
  1.4171595e-02
  1.5011075e-01
  1.8142799e-01
  2.9409254e-01
  2.0876881e-01
 -1.9139880e-01
  7.1810782e-02
 -2.1628718e-01
  2.8186966e-02
  1.8362646e-01
 -2.9438326e-01
 -1.0580184e-01
  5.6395686e-01
  6.5489165e-02
  1.5120211e-01
 -4.3023352e-02
 -1.7503638e-02
 -3.1601125e-01
 -1.9947293e-01
  6.9527566e-02
  1.5131384e-03
  1.1397328e-02
 -4.8456666e-01
  1.9480389e-02
  1.1418109e-01
 -6.0866866e-03
 -4.6409726e-02
  9.4373859e-03
 -2.8998533e-02
  3.9170352e-01
  1.9186923e-01
 -2.1476036e-01
 -6.8431817e-02
 -1.3370132e-01
 -1.8958512e-01
 -1.5395463e-01
 -7.3521048e-02
 -2.5825450e-01
  5.4037675e-02
  8.1920221e-02
  4.7175223e-01
  1.0367013e-01
  8.7856814e-02
 -6.2110763e-02
 -1.9009243e-01
  5.3938985e-02
 -3.7470218e-02
  2.5008011e-01
  2.5612336e-01
  2.8629038e-02
  4.0599145e-02
  9.8317720e-02
  9.8604962e-02
  3.4390554e-01
 -1.0042542e-01
 -1.2404387e-01
  3.4317607e-01
 -6.8598121e-02
 -5.3083129e-02
  5.2507222e-02
  3.1616226e-01
  2.0124178e-02
 -5.1415361e-02
  7.8029804e-02
  3.2771118e-02
 -8.4151290e-02
  1.7308295e-01
 -1.2441528e-01
  1.2498315e-01
  1.0935249e-01
 -3.5253465e-01
  8.9225546e-02
 -5.3851873e-02
  2.6129391e-03
  1.4193052e-01
  2.2133420e-01
 -1.6740218e-02
 -1.2621665e-01
  2.5016797e-01
  2.2140054e-01
 -1.4953066e-01
 -2.0089370e-01
 -1.2504723e-02
  2.6832396e-01
 -1.6126576e-01
  1.9598641e-01
  1.6411933e-01
  1.8890604e-01
 -4.3050826e-02
 -2.3549238e-01
 -7.2253510e-02
  1.0577469e-01
  3.6292154e-02
  1.8318760e-01
 -2.6356246e-02
 -2.0829968e-01
 -2.4160039e-01
  4.2952386e-01
  4.4221929e-01
 -3.0359553e-02
 -5.4125696e-01
 -8.4067494e-02
 -1.3033407e-02
 -3.4875339e-01
 -2.4595280e-01
  1.2560037e-01
  9.0382770e-02
 -2.8517255e-01
  2.3042783e-02
  7.2952300e-02
  1.6532099e-01
  2.5214115e-01
 -3.1243373e-02
  1.4277793e-01
  4.1279081e-02
 -3.8685453e-01
  4.0928233e-01
 -6.4325305e-03
  9.0584993e-02
 -4.5409627e-02
 -3.1002280e-01
  1.2184909e-01
  2.0051496e-01
  5.8064763e-02
  5.3879893e-01
  7.0759431e-03
 -2.4648581e-01
  1.1774002e-01
  6.6082105e-02
 -3.7713908e-02
 -5.2362386e-02
 -9.0976164e-02
 -1.7043778e+00
  9.9948120e-01
 -1.0325693e-01
 -3.2590505e-01
  1.9011167e-01
 -4.9991563e-02
 -5.9022099e-01
 -3.5279781e-01
 -3.0227356e-02
 -1.0611835e-01
  4.5824972e-01
 -1.6488492e-01
 -1.3902704e-01
 -8.6022019e-02
  1.7498401e-01
  4.1771775e-01
  1.5876165e-02
  5.3269193e-03
  1.9043384e-01
 -7.6239854e-03
 -3.2056585e-02
  9.1973856e-02
  1.3087589e+00
 -8.2799464e-02
 -1.2897664e-01
  2.0995580e-02
 -1.0427172e-01
  1.7905051e-01
 -4.2143193e-01
 -2.1411565e-01
 -1.2432493e-02
  2.1300908e-02
 -9.6147597e-02
 -1.8075007e-01
  1.1613478e-01
 -9.1246217e-02
  3.9860714e-02
 -2.1395259e-02
 -1.3478701e-01
  2.0793879e-01
 -8.7092064e-02
  6.5934695e-02
 -8.8500105e-02
 -1.7008515e-01
 -1.6393875e-01
  9.7288087e-02
  4.5972876e-02
 -1.2606181e-02
  2.5353062e-01
 -4.5395178e-01
  1.4074478e-01
  4.2492386e-02
  1.6949102e-01
  8.0887631e-02
 -4.7192141e-02
  7.1206376e-02
 -6.8251252e-01
  9.4072267e-02
 -1.4511876e-01
  1.1295320e-01
 -3.5995804e-03
  1.9783440e-01
  1.8472077e-01
 -4.0350743e-03
  1.7928182e-01
 -1.9500092e-01
 -1.6473790e-01
 -5.4626918e-01
 -7.7142194e-02
 -3.2145355e-02
 -1.9775562e-02
 -4.6580676e-02
 -5.7889807e-01
  2.5281508e-02
  1.3892083e-01
 -2.6395731e-03
 -1.0623038e-02
 -1.0222524e+00
 -1.7845310e-01
  9.4748899e-02
  3.3894360e-01
 -1.6931349e-01
 -2.1890150e-01
  3.1866187e-01
  1.4930941e-01
 -1.2246428e-01
  1.9075377e-01
  9.9001318e-02
  1.9737302e-01
  9.3955975e-03
  1.0101721e-01
  3.3915970e-01
  1.4001034e-01
 -7.6123729e-02
  3.4174964e-02
 -2.5357533e-02
 -7.3714189e-02
  6.0370600e-01
 -1.0006510e-01
 -7.4681014e-02
  8.6547546e-02
  1.5871027e-03
 -1.5199696e-01
 -5.0643033e-01
 -2.4938481e-02
  2.4909830e-02
 -2.8878281e-01
 -4.3690699e-01
  1.8335208e-02
  1.2595266e-01
 -4.9340773e-01
  7.0649534e-02
 -6.2439468e-02
  1.3825801e-01
  9.8530352e-02
  6.6998377e-02
  2.7165353e-01
  6.4344293e-01
 -6.9411188e-01
  3.4162140e-01
 -4.2589533e-01
 -1.0712517e+00
  8.8745266e-01
 -4.7640926e-01
  1.7399622e-01
  1.1131267e-02
  5.4723382e-01
 -1.3605075e-01
  9.9223956e-02
 -1.3061133e-01
 -1.5606891e-01
 -6.7057967e-01
 -7.5284982e-01
 -3.3309221e-01
  2.4799360e-02
 -4.2152163e-01
 -2.6459995e-01
  7.8051031e-02
  4.5296487e-01
  1.8045764e-01
 -8.4915437e-02
  2.6572749e-01
  9.8480798e-02
  1.7765856e-01
 -8.7350732e-01
 -3.4003288e-01
 -5.4902297e-02
  6.7921048e-01
 -3.9974648e-01
 -5.8853263e-03
  4.0207759e-01
  2.1209076e-02
 -7.4956305e-03
  1.1169407e-01
 -1.5642138e-01
  1.5647493e-01
 -3.3993375e-01
  2.0092469e-02
 -1.5453584e-03
  8.4923185e-02
 -1.1914043e-01
  2.2294165e-01
 -1.7837113e-01
  5.2824546e-02
 -2.5065433e-02
  6.5035120e-02
  4.8571825e-02
 -4.6987344e-02
 -3.4590110e-02
  7.3256224e-02
 -4.2934470e-02
  4.0318213e-02
  1.5618995e-02
 -2.1523961e-01
  3.6779469e-01
 -1.2037650e-01
  1.0996111e-01
 -4.9762917e-01
 -4.7823015e-01
 -2.6338291e-01
  6.2046923e-02
  5.6980169e-01
  2.6748461e-01
  4.6436721e-01
  8.9441612e-02
 -3.6126402e-01
  1.7787553e-01
 -7.5293228e-02
 -1.6809911e-01
 -4.4798806e-01
  3.6331096e-01
 -1.8391429e-01
 -2.1186119e-01
 -3.6653647e-01
 -1.0780965e-01
 -1.5963903e-01
 -5.1774770e-01
 -5.7783190e-02
 -1.3564007e-01
 -1.5449449e-01
  2.5872776e-01
  1.7494336e-01
 -6.5829180e-02
 -8.1198186e-01
  1.1636857e-03
  9.5658749e-02
 -2.7187577e-01
 -1.6260222e-01
 -6.4016126e-02
  1.0427063e-01
  3.8597432e-01
  2.7620363e-01
  9.7656913e-02
  1.8427758e-01
 -8.9404032e-02
  1.2952529e-01
  2.7081031e-01
 -4.0449536e-01
 -7.4713744e-02
  9.6777387e-02
  2.0853066e-01
  2.9278228e-01
  3.7674803e-01
  4.8067355e-01
 -5.3172016e-01
 -5.7025239e-02
  3.2986647e-01
 -3.4562719e-01
  1.6118960e-01
 -1.6755664e-01
 -1.1240515e-01
 -4.3551698e-02
  4.8268214e-03
 -2.9499459e-01
  1.4449945e-01
  6.6509843e-03
 -2.0734844e-01
  8.3714962e-02
 -9.7240269e-01
  3.7835553e-01
  3.9654821e-02
 -3.9980641e-01
  7.5612523e-02
 -4.3193620e-01
 -1.3783612e+00
 -1.2621678e-02
  7.1873553e-02
 -4.6963047e-02
 -3.6127571e-02
  7.4158639e-01
  1.4351496e-01
  1.7252189e+00
 -2.0045191e-03
  1.6980284e-01
  6.3418433e-02
 -4.6495211e-01
 -4.0970308e-01
 -6.0043015e-02
 -8.1020266e-02
 -9.6400416e-01
  4.0148729e-03
  5.3900123e-01
  5.1798217e-02
 -4.3953890e-03
 -1.1564434e-02
  1.0753657e-01
  2.0122629e-02
  1.2548673e-01
  1.0951755e-01
 -1.7953725e-01
 -2.0242780e-03
  2.7843964e-01
 -2.0213239e-02
 -6.7349225e-02
  8.9885965e-02
 -3.6828618e-02
  2.1791492e-01
 -1.9262581e-01
 -2.5558788e-01
 -3.6156930e-02
  1.5682513e-01
  7.4103065e-03
 -2.3052551e-02
  2.0208873e-02
 -6.2078916e-02
 -3.7160558e-01
 -3.0229253e-01
  1.1048466e-01
  1.0359797e-01
 -1.5442877e-01
  9.1779537e-02
  3.7740253e-02
  1.4086656e-01
  2.0411578e-01
  4.8985414e-02
 -9.7007036e-02
  1.1057280e-01
  4.2757444e-02
  4.9460009e-03
 -1.8733509e-01
  8.4683053e-02
  1.1780964e-01
 -3.8524196e-01
  1.1396103e-01
 -1.7613678e-01
 -8.5843854e-02
  6.0639068e-02
  8.2683772e-02
 -1.2316110e-01
 -2.9770774e-01
 -1.3229145e-01
  1.1977982e-01
  1.2360346e-01
 -2.5399819e-02
  3.3389091e-01
 -1.7146116e-01
  4.0591784e-02
  9.2380598e-02
 -1.4755848e-01
  2.1534342e-01
 -1.2995948e-01
 -1.8504275e-01
 -1.5233940e-01
  1.5951940e-01
 -1.8536587e-01
  1.0258196e-01
 -6.9344439e-02
 -2.6222605e-01
 -1.9758578e-02
  9.4900727e-03
  1.8070560e-02
  4.1877534e-02
  4.9668822e-01
 -7.3140636e-02
 -3.6506798e-02
 -4.9819566e-02
 -7.9721175e-03
  3.1554508e-01
 -2.6781633e-02
  2.8219712e-01
  1.8299909e-01
 -3.1961226e-01
 -4.7940783e-02
  7.5217046e-02
  2.7164426e-02
 -6.9879778e-03
 -2.0432164e-01
 -5.0170962e-03
 -5.6877270e-02
 -8.7335818e-03
 -2.6266828e-01
  1.0958891e-01
  5.3084977e-02
 -3.1560636e-01
 -2.8024286e-01
  1.0646291e-01
  7.2230119e-04
  3.2716522e-01
  3.2385910e-01
 -2.5982133e-01
  3.9106670e-01
  1.5641698e-01
 -5.6639660e-02
  2.2623539e-01
 -1.6511381e-02
 -2.7203040e-02
  1.4499542e-01
 -2.8175035e-02
 -2.8705043e-01
  1.2117451e-01
  1.2716688e-01
 -2.3264611e-01
  1.1246500e-02
 -3.0694664e-01
  2.0812938e-01
 -6.9127470e-02
 -1.1210304e-01
  1.2422779e-01
  5.4876961e-02
  8.2031853e-02
  1.7469104e-02
 -1.8942173e-01
  1.5209736e-02
 -6.6496742e-01
  3.7296936e-02
 -2.4882394e-01
 -1.8822092e-01
  2.7156571e-01
 -1.0032292e-01
  1.9315065e-01
 -1.9702055e-01
  3.0794871e-01
  7.6882340e-02
 -8.7616123e-02
 -1.8685894e-01
 -4.3557951e-01
  4.1258488e-02
 -7.2291136e-02
  6.2152863e-02
  2.9729262e-02
 -2.7323490e-02
 -2.1492949e-01
  3.3567482e-01
 -2.7413188e-02
  6.1426859e-02
 -1.1446603e-01
  3.9155692e-02
 -7.4846134e-02
 -5.6519419e-02
 -2.0887515e-01
  3.2436046e-01
  2.8182697e-02
  2.6109853e-01
  3.8256992e-02
  2.2359677e-03
 -5.5766106e-03
 -1.5467814e-01
  1.7318143e-01
 -3.2208532e-01
 -4.4924361e-01
 -1.2809582e+00
  1.3691988e-02
  7.6669455e-02
  4.2755656e-02
 -6.5921500e-02
  3.6782581e-01
 -4.2845104e-02
  2.4416628e-01
 -1.2977946e-01
 -2.9103625e-01
 -2.4871701e-01
  3.3666588e-02
  8.2505718e-02
 -1.7297192e-01
 -2.2783816e-02
 -2.1033546e-01
 -1.1853450e-01
  1.7933846e-02
  4.3396041e-02
  1.1121700e-02
 -1.8606946e-02
  2.3266041e-01
  7.9855181e-02
 -2.8554294e-01
 -4.7407982e-01
 -9.8112859e-02
  5.1427927e-02
 -4.2359747e-02
 -1.4742778e-01
 -7.9698861e-05
  2.9525316e-01
 -7.3521361e-02
  9.9821568e-02
 -1.6595682e-02
 -3.5522327e-02
 -1.5776552e-01
 -8.4786057e-02
 -1.4766112e-02
 -2.1800019e-02
  7.7560909e-02
 -1.8148273e-02
  3.8509011e-01
 -2.7816200e-01
 -5.9613358e-02
 -1.4402084e-01
  2.2839658e-02
  3.5329461e-03
 -2.5852424e-01
  1.9276932e-01
 -1.2760775e-01
 -3.2212532e-01
 -6.0072988e-03
  8.7458640e-04
  4.6794582e-02
  1.6494277e-01
 -1.8432574e-01
  1.9710857e-01
 -1.6331935e-02
  1.0618023e-01
  1.5169056e-01
 -2.3842189e-01
  1.7295621e-01
  1.3227035e-01
 -1.9909413e-01
 -7.3697254e-02
 -7.9365917e-02
 -2.6317500e-03
  1.0008442e-01
  1.1339471e-01
 -3.5638532e-01
 -6.2035959e-02
  4.0266458e-02
  3.5226205e-01
 -2.1951360e-01
 -5.7685614e-02
 -1.1294967e-01
  1.8862393e-03
 -9.1473073e-02
 -2.2585860e-01
 -1.9685052e-01
  2.4408624e-03
  9.9721719e-03
 -7.8010902e-02
  6.9413453e-02
 -3.4519348e-01
  6.2913418e-02
  5.9885018e-02
  2.4422237e-01
  9.0477538e-01
 -9.7371191e-02
  2.1370468e-01
 -1.9628642e-01
 -2.6980612e-01
 -2.1279901e-03
  7.9967327e-02
 -3.3492573e-02
 -3.1261377e-02
  8.7505400e-02
 -7.7351987e-02
 -9.7498678e-02
  1.1728436e-01
 -1.2026878e-01
  1.6679852e-01
  1.4235063e-01
 -1.3769211e-01
  1.8080385e-01
 -6.1500426e-03
 -4.0227208e-01
 -1.4740977e-01
  4.0957335e-02
  1.6787332e-01
  1.0839032e-01
  2.2921145e-01
  1.1828021e-01
 -9.1564097e-03
  1.8016353e-01
 -2.6091170e-01
 -7.3943280e-02
 -1.8005772e-01
  3.8018492e-01
  1.9615400e-01
  1.6106656e-01
  3.1137311e-01
 -6.1870884e-02
  3.1427339e-02
 -2.1911705e-01
 -1.6433258e-02
  3.0347425e-01
 -1.0313418e-01
 -7.2435424e-02
 -4.2742550e-01
 -5.2319702e-02
  2.2243422e-01
 -1.8107520e-02
 -2.0074295e-01
  8.7130234e-02
 -2.3442385e-01
 -2.9233518e-01
  3.8287991e-01
  2.2690231e-01
  5.1757570e-02
 -2.3197292e-01
 -3.8326038e-03
 -3.2802561e-01
 -2.1537118e-01
  1.3394754e-01
  2.9456192e-01
  3.2277989e-01
  1.0891300e+00
 -5.2105767e-01
 -3.5521522e-01
 -5.8160111e-02
 -6.4361656e-01
  9.6228108e-02
  1.0271871e+00
 -2.3166865e-01
 -7.6739013e-02
  2.0058534e-01
  2.4337303e-02
  1.1918851e+00
 -8.6705558e-02
  1.2325637e-01
 -1.0970658e+00
 -6.3536331e-02
 -2.4185617e-01
  1.3601635e-01
  8.8990301e-01
 -1.6002867e-02
 -1.5190990e-01
 -5.4164499e-01
  2.3215643e-01
  3.8548440e-01
  1.0333411e-01
 -7.2294801e-02
 -1.6313803e-01
 -9.1989920e-02
 -7.3034704e-02
 -4.0577188e-02
  1.3116691e-01
 -4.4027828e-03
 -1.0401935e-02
 -2.2497466e-01
  1.6318086e-01
 -8.1188262e-02
 -1.6421860e-01
 -6.6517413e-02
  5.6180380e-02
 -1.0399409e-03
 -2.2634380e-01
 -2.6483598e-01
 -4.6605982e-02
 -1.7983355e-01
 -1.9351518e-02
  2.2003926e-01
  7.8559302e-02
  6.6873819e-02
  2.6216641e-01
 -5.7268739e-02
  3.7019290e-03
  1.8880460e-01
  4.3044311e-01
  2.6175894e-02
  9.2100441e-02
 -3.6298595e-02
  2.4736274e-02
  9.9730179e-02
  3.0708504e-01
 -4.1015293e-02
 -2.7445307e-02
 -1.4853598e-01
 -3.6974582e-01
  4.4001814e-02
  5.4894321e-02
  1.0624427e-01
 -2.3938546e-01
 -2.3724760e-01
  4.9003072e-02
  9.1862470e-02
 -2.5311396e-02
  1.6160290e-01
  4.6267640e-02
  5.8130735e-01
  1.3107316e-01
 -4.6709317e-01
  1.4303721e-02
 -2.4650683e-01
 -2.4147594e-01
  1.7549472e-02
  2.1194081e-01
  3.7669010e-02
  4.3498746e-01
  8.1209339e-02
  2.5567850e-01
  8.4404759e-02
 -2.1042528e-02
  9.1178074e-02
  1.3719775e-01
 -2.0045048e-01
 -1.9845790e-01
 -6.5171826e-01
 -3.0014253e-01
  8.9328492e-01
 -3.8400346e-01
  1.8129583e-01
 -1.1598352e-01
 -2.2355847e-02
 -1.9643895e-01
  8.6991072e-02
 -1.6151326e-02
 -3.2767467e-04
 -1.3180307e-02
  2.3931678e-02
 -3.5662502e-01
 -9.5373183e-02
 -8.4214307e-02
 -6.1262369e-02
 -5.6002116e-01
  9.7737730e-02
 -1.8183018e-01
 -2.6879740e-01
  3.5322145e-01
  1.8058422e-01
 -1.7471213e-02
  3.5111588e-01
 -1.3304766e-01
 -4.2417842e-01
  4.2100571e-02
 -1.2801477e-01
 -5.0760284e-02
 -2.9884275e-02
 -1.3417964e-01
  2.4288793e-01
 -5.8156264e-01
  8.4133796e-02
  6.2382184e-02
  1.4664952e-01
 -1.5843984e-01
  3.4288463e-01
  1.6596131e-01
 -2.7191537e-02
 -5.0855532e-02
 -5.4272868e-02
  2.9622233e-01
  6.0739018e-02
 -7.7160381e-02
 -1.5824540e-02
  4.6282589e-02
 -2.0399457e-01
 -9.1908477e-02
 -1.9894326e-01
 -5.0894535e-01
  4.1997838e-01
  2.2165485e-01
  1.2871616e-01
 -6.2151030e-02
  2.4448471e-02
  1.1299963e-01
 -1.0098159e-01
 -2.0229945e-01
 -2.7917400e-02
 -4.4895825e-01
 -1.0704882e-03
 -3.7069440e-02
 -3.2218757e-01
 -4.0429413e-02
 -1.4057295e-01
  9.7190708e-02
  1.2919934e-02
 -1.4439119e-01
 -1.6525497e-01
 -1.6734406e-02
  2.5807700e-01
 -2.9141438e-01
 -2.1864951e-02
 -2.1071384e-02
 -3.1645522e-01
 -5.7934087e-02
 -1.4281124e-01
  4.6361338e-02
 -9.6023083e-05
  5.3946084e-01
  4.2662284e-01
 -7.1184278e-02
 -1.9467425e-01
 -1.4110970e-01
 -1.1629850e-01
 -6.2295891e-02
 -6.6131137e-02
  5.1314569e-01
  2.2151940e-01
  6.9169307e-01
  2.7449064e-02
 -4.8294467e-01
  9.5343679e-02
 -1.9603933e-01
 -1.5819463e-01
 -2.6654765e-01
  3.8596848e-01
  9.5465384e-02
  4.0836856e-02
  7.6799780e-02
  7.1035270e-03
 -2.9428953e-01
 -1.1130232e-01
 -2.9119426e-01
  1.5227719e-01
  1.6868444e-01
  1.1997155e-01
  3.8884092e-02
 -1.1270397e-01
 -8.5014686e-02
  3.1150499e-01
 -3.3746618e-01
  4.1588783e-01
 -3.3894888e-01
 -1.3514747e-01
 -1.6687125e-02
 -3.1272769e-02
  2.8413850e-01
  1.0583819e-01
  1.2709332e-01
 -1.8404019e-01
  8.9453183e-02
  9.3803331e-02
 -3.5351843e-01
 -6.2661964e-01
 -2.4488059e-01
  1.3488533e-01
 -2.4983600e-02
 -2.8709716e-01
 -3.3611320e-02
  3.3930752e-01
  2.4198881e-01
 -1.9895753e-01
  3.1209093e-01
 -2.0588142e-01
 -1.2662570e+00
  1.1748835e-01
  1.4774522e-01
 -1.5879305e-01
 -9.5700301e-02
  6.1286058e-02
 -1.5734585e-01
  7.1954101e-02
 -6.2990829e-02
  2.8686285e-01
  6.6054657e-02
  1.1348700e-01
 -1.9758695e-01
  4.6382815e-02
 -6.1648395e-02
  6.7768894e-02
 -1.4654559e-01
  1.1078826e-01
 -2.1626495e-01
 -2.5941184e-02
  2.0300785e-01
 -6.2037981e-03
 -8.7267622e-02
 -1.9690324e-01
 -1.1888228e-02
 -7.2186738e-02
  1.0293899e-01
 -4.5987260e-02
 -4.4615710e-01
 -3.5944644e-01
  2.7230552e-01
  8.5669376e-02
  2.5706649e-02
  4.6300381e-01
 -2.3326968e-01
 -1.5593839e-01
 -4.0004909e-02
  1.5408094e-01
 -2.4380381e-01
 -1.0038272e-02
  8.4543675e-02
  3.0633619e-01
  6.1487424e-01
 -7.0511711e-01
 -5.7117224e-01
 -1.0823577e-01
 -3.3360320e-01
 -2.6078272e-01
  1.4254753e-01
  2.5784617e-02
  1.0994215e-01
  5.5141091e-02
  6.1052158e-02
  3.3759493e-01
  3.2215174e-03
 -1.0948983e-01
  8.4626511e-02
  5.7784554e-02
  8.3415192e-01
  2.6918688e-01
  9.7251582e-01
  2.8292155e-01
 -3.9948970e-01
  8.5262582e-04
  1.4966354e-01
 -1.4831138e-01
 -8.2966849e-02
 -2.2076584e-02
  2.0053761e-01
 -1.9936715e-01
 -4.3580011e-01
 -4.8328571e-02
  4.5883961e-02
  5.5592179e-01
  9.4310986e-03
 -4.4196054e-02
  1.9507074e-01
 -1.6814475e-01
 -8.0845731e-01
 -9.0974428e-02
 -3.1494483e-01
  6.7826048e-02
  9.8634511e-05
  5.6875363e-02
 -4.0433702e-01
  1.4579093e-01
  1.8164828e-01
  1.1238430e-01
  8.9546636e-02
 -1.1276261e-01
  2.6400271e-01
 -8.4754124e-02
  1.6095036e-01
  4.3196686e-02
  4.4201925e-02
 -9.5016889e-02
 -2.0817827e-02
  9.1085486e-02
  1.6713430e-01
  4.3669504e-01
 -2.1715094e-01
  4.5425091e-02
  2.7428448e-01
 -1.9536858e-02
 -2.4577734e-01
 -3.5352681e-02
  7.1560224e-03
  1.8199374e-01
 -1.9943856e-01
  1.7675672e-01
  9.9301971e-02
 -2.8799924e-01
  1.1511216e-01
  4.6924438e-02
  2.9679260e-01
  4.7418296e-02
  1.5929610e-01
  4.6608195e-02
  8.6105031e-01
 -4.4596866e-01
  1.3802493e-01
  6.6368267e-02
  1.6451910e-01
  5.1786192e-02
  2.1219185e-01
 -3.7027535e-01
 -1.5752451e-01
 -1.2327939e-01
  1.1552627e-01
 -4.7602750e-02
  3.4093678e-01
 -1.3816041e-01
 -2.0724870e-01
 -2.0860665e-02
 -2.3655169e-01
 -9.5306233e-02
  6.3545890e-02
 -1.7235851e-01
 -4.8567757e-02
 -2.3467545e-03
 -1.9060314e-02
  1.1763562e-01
  3.4693811e-02
 -2.0149525e-01
  3.6880037e-01
 -7.8067310e-02
  3.2488650e-01
 -6.8668276e-04
  8.9115709e-02
  9.9531889e-02
 -1.4341226e-01
 -2.8620929e-01
  9.1848699e-03
  2.1603501e-01
  4.7772340e-03
  2.1132882e-01
 -2.5137417e-02
 -5.0620019e-01
 -2.8313375e-01
  3.9923146e-01
  3.2837000e-01
 -1.3837361e-01
  6.9201738e-02
 -1.3074750e-01
  3.4977013e-01
  1.0718514e-01
  7.7337436e-02
  2.8527908e-02
 -1.2245430e-01
 -6.3783728e-02
  9.4446674e-02
 -1.3307077e-01
  3.4993243e-01
 -1.1007342e-01
 -1.1127493e-01
 -1.5563704e-02
 -7.1314186e-02
 -4.9861890e-01
 -4.6732724e-03
 -2.6762063e-02
 -3.9100107e-02
 -2.1479566e-01
 -6.0380362e-02
 -2.0869668e-01
 -1.0077320e-03
 -2.0869589e-01
  1.9121979e-01
  2.0036615e-02
 -1.3566458e-01
  3.1844944e-01
 -1.1626790e-01
  1.0207541e-01
  1.4162976e-01
  4.1522291e-01
  1.8837640e-02
  1.4189710e-01
 -1.2930064e-01
  3.0230444e-02
  8.6906463e-01
 -9.1937877e-02
  6.3415840e-02
 -1.1606251e-01
  5.3978920e-02
 -4.3133583e-02
  6.1527338e-02
 -3.5423517e-01
  6.8742625e-02
 -3.8807899e-01
 -1.4866038e-01
  8.4901311e-02
  8.6711124e-02
 -1.3435405e-01
  8.4902957e-02
  1.0787088e-01
 -3.3220105e-02
 -1.4082003e-01
 -4.3724470e-02
  9.8241992e-02
  1.5074283e-01
 -9.2601675e-01
 -1.4507678e-01
 -9.9154383e-02
  7.4109173e-01
  2.3856407e-01
  8.8325851e-02
  2.8985012e-01
 -5.4554707e-01
  2.2499260e-01
  4.3685108e-01
  3.2344413e-01
  9.3313612e-02
 -1.7552927e-01
  1.9615640e-01
  1.1271380e-01
 -8.1601575e-02
 -3.2896799e-01
 -2.9118448e-01
  7.2559166e-01
  1.3614112e-01
 -4.2424145e-01
  1.1767961e-02
  2.4796142e-01
 -3.7655419e-01
  2.3751587e-01
  1.4517960e-01
  6.1041854e-02
 -1.2679064e-02
 -2.4235971e-02
  1.3500811e-01
 -2.0216694e-01
  1.1526277e-01
  1.1330616e-01
  1.0585603e+00
 -5.2587241e-02
 -2.9152477e-01
  2.4784537e-02
  6.1515945e-01
 -1.8835772e-02
  2.6646486e-01
 -1.4154786e-01
 -8.3584808e-02
 -1.8137980e-02
  6.6162698e-02
 -1.8875001e-01
  4.3958329e-02
  1.1043672e-01
 -2.5324339e-01
  8.0443358e-01
  3.4449238e-02
  3.7214667e-01
  1.2107600e-02
  1.6725317e-01
 -6.1061606e-02
 -5.9667486e-01
  4.8057042e-02
 -3.6593795e-02
 -7.5768334e-01
 -2.0572627e-01
 -1.5959948e-01
  1.7295611e-01
  1.4180543e-01
 -2.5451306e-01
  3.5923574e+00
 -1.5869293e-01
 -1.8785343e-01
  1.2858485e-01
 -1.7356039e+00
 -2.4336129e-01
 -8.5991824e-01
  2.7701340e+00
  1.0902374e+00
 -1.6385324e-01
 -1.8764065e-01
 -4.1532490e-01
  7.1300739e-01
 -1.4688291e-01
 -8.0969924e-01
 -3.8628593e-01
 -9.1830999e-01
 -2.5946292e-01
 -3.3752757e-01
  6.7619252e-01
  2.1774307e-01
 -1.0140028e+00
  1.3860315e-01
 -8.1451446e-01
 -5.9442371e-01
 -3.3101943e-01
 -1.0887808e+00
  1.0694171e+00
  6.5353006e-01
 -1.2461009e-01
 -1.0156745e+00
  8.6690772e-01
 -1.7253338e+00
 -8.2526237e-01
 -4.0892935e-01
  1.3911787e+00
 -1.1087798e-01
 -3.1373304e-01
  1.8517560e-01
  2.2905022e-01
  6.8732464e-01
 -1.7736347e-01
 -8.7763423e-01
 -5.1902229e-01
 -4.0226549e-01
 -1.3339609e-01
 -5.3841114e-01
 -4.7256574e-01
  4.5036098e-01
 -1.6916283e+00
  3.5057080e-01
  5.7573026e-01
  1.7193002e-01
  1.1327696e-01
 -4.5574990e-01
 -1.6776055e+00
 -5.2145594e-01
  1.2829177e-01
  1.7542166e+00
 -1.1989000e+00
  4.8166835e-01
  1.4254403e-01
 -1.5717977e-01
  2.2267804e-01
  7.8825003e-01
  1.1893479e-01
 -1.1738037e-01
 -6.4391965e-01
  1.4181352e-01
  4.9984163e-01
 -1.1445475e+00
  4.3959856e-01
  1.2901697e-01
 -1.3714579e+00
  3.3429831e-01
 -2.0692554e+00
  1.4884280e-01
 -1.1346896e-01
  6.7151600e-01
 -1.3175803e-01
 -5.6147695e-01
 -2.2639401e+00
 -9.6784723e-01
  4.5166233e-01
  4.3486810e-01
 -6.9732755e-01
 -3.4140873e-01
 -4.4796360e-01
 -3.6438900e-01
  1.6713196e+00
  2.9133215e+00
 -2.7076764e+00
 -2.3398295e-01
 -1.2808483e+00
 -3.0803964e-01
  1.7155460e-01
  1.8577057e+00
 -1.1217353e-01
  6.7517430e-01
 -1.7513141e-01
 -1.5892732e-01
  1.0910133e-01
  1.3101356e+00
 -7.4371839e-01
  3.6265671e-01
  6.7042983e-01
  1.7144769e+00
  1.1468241e-01
 -1.2366885e+00
  1.0920039e+00
 -2.8952929e-01
  3.2658672e-01
  4.6125931e-01
  1.6447705e-01
  3.4688279e-01
  1.4643556e-01
 -7.1687531e-01
  5.6931090e-01
  1.1899297e+00
  1.3932231e-01
  6.0821688e-01
  4.9939206e-01
 -1.3716069e+00
  1.4589152e-01
 -7.5980985e-01
  4.6319515e-01
 -2.9363680e-01
 -1.8472263e-01
  3.8875958e-01
  2.5701863e-01
  2.1373627e+00
 -6.6354477e-01
  2.4807889e+00
 -7.5916135e-01
  6.2192202e-01
 -1.0233285e-01
  1.3148956e-01
  6.7289758e-01
 -1.5887573e+00
  7.0900154e-01
 -5.5288953e-01
 -8.5126799e-01
 -1.0057132e+00
 -2.5638682e-01
 -9.4505608e-01
  7.5963396e-01
  7.2338271e-01
  1.4726881e+00
  3.8399148e-01
 -3.0399498e-01
  2.2028688e-01
 -1.0364450e+00
 -1.3269453e-01
  1.3826797e+00
 -9.9543619e-01
  2.2294375e-01
  8.2923728e-01
 -6.4240944e-01
 -1.1259288e-01
  1.4529900e-01
  2.0230472e-01
 -2.8053543e-01
 -7.6565915e-01
 -9.0425998e-01
  2.6751593e-01
  5.9557062e-01
  4.4865647e-01
 -1.4153786e-01
 -1.4794268e-01
 -1.1778870e+00
 -4.2930087e-01
  3.7031123e-01
  8.8407379e-01
 -2.1944188e-01
  2.9746962e-01
  1.1455414e-01
 -1.1272936e+00
 -6.9887847e-01
 -1.1339772e-01
 -1.3626105e-01
  1.1319621e-01
 -2.6721773e-01
 -6.6871339e-01
 -1.1028750e+00
 -1.9000947e-01
  1.7821047e-01
 -2.1065083e-01
 -5.1472688e-01
 -1.4000227e-01
  3.3065966e-01
  2.9518041e-01
  2.7878436e-01
 -1.1791840e-01
  1.4184065e-01
  2.7981371e-01
  3.5009667e-01
 -4.7814223e-01
  5.9260553e-01
  3.2005498e-01
 -2.4015382e-01
  1.1896161e-01
  1.9723055e-01
 -1.1198031e-01
  1.1134747e+00
 -1.4086591e-01
  1.5360418e-01
  1.4595488e-01
 -1.0976706e-01
 -3.0582073e-01
 -6.4690089e-01
  6.4867318e-01
  3.1582788e-01
 -2.5473768e-01
 -1.1750668e-01
  3.4041348e-01
 -3.6248192e-01
  3.9047220e-01
  3.4222290e-01
 -1.1179658e+00
  1.1658031e+00
 -1.7299530e-01
 -2.1973895e-01
  2.4166086e-01
 -1.6947415e-01
 -2.2763777e-01
  3.1052241e-01
  1.2742317e-01
  2.8535837e-01
 -1.5187606e-01
  3.2299763e-01
  6.1863881e-01
 -1.4814734e-01
 -1.1614026e-01
  3.9086112e-01
 -2.6050657e-01
  5.5414295e-01
  1.7313989e-01
 -4.1553372e-01
  9.1344833e-01
 -2.5407371e-01
 -2.5679037e-01
 -3.0384690e-01
 -2.4337846e-01
  4.5214492e-01
  2.1718137e-01
  2.0183077e-01
  7.4413347e-01
  7.8362256e-01
 -2.8881940e-01
 -1.8277070e-01
 -2.0890144e-01
  2.0599216e-01
 -2.2868016e-01
  1.3074565e-01
  1.7616159e-01
 -1.0090817e-01
 -3.9375737e-01
 -1.8049341e-01
 -1.4920110e-01
 -1.2487029e-01
  2.6706266e-01
  1.5238528e-01
  2.1828908e-01
  3.8947779e-01
  1.1708853e-01
  2.9410571e-01
 -1.9277634e-01
 -1.8127438e-01
  1.2397820e-01
 -1.0094084e-01
  2.1907553e-01
  2.3272488e-01
 -1.0989466e-01
 -2.5756317e-01
  2.1666935e-01
 -1.6465557e-01
 -2.3498052e-01
  2.3476461e-01
  2.2803217e-01
  2.0419550e-01
  1.8395120e-01
 -3.2353395e-01
 -4.1426975e-01
 -4.1542187e-01
  3.2569900e-01
  1.2235863e-01
  6.1278939e-01
 -6.3568234e-01
  1.0757364e-01
  2.2750422e-01
 -8.0279249e-01
 -1.0580492e+00
 -4.9430677e-01
  3.5447529e-01
 -4.9427724e-01
  3.0122128e-01
  4.4386265e-01
  2.6667163e-01
 -1.3335927e+00
  2.6890010e-01
 -1.2047896e-01
  2.6894560e-01
 -2.6147716e+00
  2.0047691e-01
 -2.1145043e-01
  9.9071741e-01
 -2.7534309e-01
  1.1711411e+00
 -1.2854229e-01
 -2.7005634e-01
  3.3670795e-01
  2.1304963e+00
 -4.2528823e-01
  1.9547784e-01
 -2.5348929e-01
  1.5227840e+00
  1.1195406e-01
  1.0238130e-01
  3.9069238e-01
  5.0456756e-01
  1.5437870e-01
  4.0795377e-01
  1.8423168e-01
  7.0969552e-01
 -2.4989340e-01
 -3.5295323e-01
 -4.9397135e-01
 -3.3618543e-01
 -1.9781008e-01
  1.1832336e-01
  2.4081910e-01
 -1.9191328e-01
  2.0831558e-01
 -2.0954728e-01
 -1.8436787e+00
 -1.2080434e-01
  4.6161202e-01
  4.5365104e-01
  3.2969388e-01
  1.5966913e-01
 -1.3250926e-01
  1.3742653e-01
 -5.1855564e-01
 -3.0193409e-01
 -5.6348008e-01
 -1.6137697e-01
 -1.2082954e-01
  2.2992012e-01
 -2.2426115e-01
 -1.3679564e-01
 -6.1627108e-01
 -3.6731169e-01
 -1.3100360e-01
 -3.7274751e-01
  1.1277726e-01
  2.5552127e-01
  1.2282754e-01
  1.3179135e-01
  4.8541230e-01
 -1.9167596e-01
 -2.3606345e-01
  1.4880730e-01
  1.4880730e-01
  1.4880730e-01
  1.4880730e-01
  1.4880730e-01
  2.6647415e+00
  2.6647415e+00
  2.6647415e+00
  2.6647415e+00
  2.6647415e+00
  1.1261693e+00
  1.1261693e+00
  1.1261693e+00
  1.1261693e+00
  1.1261693e+00
  5.9470659e-01
  5.9470659e-01
  5.9470659e-01
  5.9470659e-01
  5.9470659e-01
  2.3224033e-01
  2.3224033e-01
  2.3224033e-01
  2.3224033e-01
  2.3224033e-01
  4.1872978e+00
  4.1872978e+00
  4.1872978e+00
  4.1872978e+00
  4.1872978e+00
