nep4 2 Te Pb 
cutoff 8 4 74 10
n_max 4 4
basis_size 8 8
l_max 4 2 0
ANN 30 0
 -3.5994418e-02
 -2.3803495e-02
  1.0141215e-01
  9.0639777e-02
 -1.6357446e-01
 -2.3366417e-01
 -2.1815269e-01
  1.1160498e-01
 -2.7198339e-01
 -1.4775400e-02
  3.5155125e-02
 -1.4660850e-02
 -4.8160553e-04
  2.5271785e-01
  3.8458679e-02
 -2.3110674e-01
  2.2975102e-01
 -1.9232519e-01
 -1.4977182e-01
 -1.5393774e-01
 -2.5680137e-01
 -2.1477866e-01
  1.0539326e-01
 -2.5347331e-01
  2.1907575e-01
  5.4672733e-03
 -2.2478309e-01
  3.7582508e-01
  2.1740398e-01
  2.4473384e-01
  5.5062715e-02
  2.1308896e-01
 -2.0128211e-01
  1.1312105e-02
 -1.6749474e-01
  2.8964862e-02
 -1.1560496e-01
  1.0885883e-01
 -2.3368843e-02
 -2.7468387e-02
  1.5077588e-01
  2.5173958e-02
  4.5193236e-02
 -3.5457548e-01
  2.6504451e-01
  3.1062251e-01
 -2.3803536e-02
  6.9324076e-02
  1.1632469e-01
 -6.9685608e-02
  1.4166769e-01
 -4.6343744e-01
 -8.2807600e-02
  7.0578083e-03
 -5.4713275e-02
 -1.2836902e-01
  4.5794770e-02
 -1.7221573e-01
 -5.8715124e-02
  2.9468000e-01
  1.8030262e-01
  2.1841291e-02
 -3.7802196e-01
  3.7142988e-02
  1.8875444e-02
 -1.7912400e-01
  1.6946493e-01
  2.1844888e-01
  1.1029543e-01
  8.3564214e-02
 -1.5317935e-01
  9.6874362e-01
  1.5077743e-01
  2.1091618e-01
  1.8689671e-01
  1.6756952e-01
  4.4459891e-01
  1.8202193e-02
 -5.3950125e-01
  8.0982596e-02
  2.8875977e-01
 -1.4378601e-01
 -2.1064900e-02
  2.8674886e-02
  2.4943402e-01
  4.9197242e-02
 -1.3307060e-01
 -3.3202261e-01
  4.9154241e-02
  4.4638641e-02
 -4.3762602e-02
 -4.4722438e-02
  5.1137352e-01
 -6.7943186e-01
  3.2767825e-02
  3.3754417e-01
  1.0609418e+00
  4.2737415e-01
  2.0882402e-01
  8.4204853e-02
 -2.2466615e-01
  2.8705519e-01
 -2.7391374e-01
  1.0432109e-02
  4.3423930e-01
  7.2590202e-02
  2.6392546e-01
  1.4505422e-01
  1.4446825e-03
  1.6270004e-02
 -4.2122120e-01
  2.8945854e-01
  5.6772050e-02
 -1.4262871e-01
 -8.5214205e-02
  1.6708190e-02
  6.0890540e-03
 -3.1814685e-01
  1.6960981e-01
 -1.9236425e-01
 -1.8241407e-02
 -1.2026410e+00
  3.2565904e-01
  1.1680703e+00
  1.8636922e+00
  1.7667982e-01
 -1.6847517e-01
  2.3450395e-01
 -1.7261083e-01
 -3.7668753e-02
 -1.5743126e-01
 -5.9937462e-03
 -1.0172930e-01
 -1.3268938e-02
 -9.4579645e-02
 -1.5454799e-01
  3.7035875e-03
 -8.5623577e-02
 -6.5039408e-01
  8.8241830e-02
  2.8613767e-01
  4.2428717e-01
 -5.3049767e-01
 -4.1753083e-01
 -1.7264712e-01
 -8.8291168e-02
  1.4953038e-01
 -1.2794558e-02
  3.1290951e-01
 -2.1610591e-01
 -3.4038869e-01
 -4.0704664e-03
  2.2154532e-01
  3.0173473e-02
  3.4603179e-03
  5.4510528e-01
  1.1108537e+00
 -5.2978251e-02
  3.0086812e-01
  2.1256037e-01
 -1.9968279e-01
 -3.4690192e-01
  2.6693875e-01
 -4.5980960e-03
  5.9266418e-01
 -5.7576910e-02
 -1.2775223e-01
  3.4593368e-01
  2.1183790e-01
  1.6795145e-02
  4.4096075e-03
 -1.0281760e-01
  2.4881619e-01
 -5.5199761e-02
  5.3913496e-02
  2.0331287e-01
  2.7324900e-01
  9.3114324e-02
  2.2302981e-02
 -4.4971883e-01
  5.0110453e-01
 -5.3133283e-02
 -3.2375813e-02
 -1.2981004e-01
  1.5029924e-01
 -8.5154891e-02
  1.6323760e-02
 -2.1755812e-01
  4.8626591e-02
  2.3903832e-02
  1.4492488e-01
  7.5406440e-02
  1.7208435e-01
 -2.1530750e-01
 -7.7683210e-02
 -4.4154981e-01
 -1.2888470e-01
  2.1538639e-01
 -5.0580140e-02
 -2.9224008e-03
  4.4220310e-01
  2.0977837e-01
  5.7292204e-02
  1.0709587e-01
  1.4608574e-01
  4.3588057e-01
 -2.0673791e-02
 -1.6742663e-01
 -5.7259083e-02
  6.2750362e-02
  5.9028003e-02
 -1.4575575e-01
  2.9764944e-01
  2.1750708e-01
  2.2437936e-01
  1.6965702e-01
  1.0072776e-01
 -7.1168067e-03
 -3.7091456e-02
 -5.5947382e-02
  8.6723501e-03
  7.2495155e-03
 -1.1917263e-01
  6.3760692e-01
  1.5204701e-01
  8.3844811e-03
 -1.5193078e-01
 -1.6722712e-01
 -1.9273981e-02
 -1.3459952e-01
  3.4539416e-02
  3.6616483e-01
  1.1985036e-01
  1.1974735e-01
 -2.5878176e-03
 -3.0403960e-01
  3.1734329e-01
 -1.3344577e-01
  1.8983676e-01
 -1.0548344e-01
 -1.3642287e-01
  3.5273659e-01
  4.6046746e-01
  3.5176685e-01
  1.5446460e-01
  2.5992846e-01
  8.6319506e-02
  4.5524636e-01
  2.8634745e-01
  1.5548434e-02
 -1.0450469e-01
 -1.1029556e-01
 -8.6561576e-02
 -2.8195226e-01
  1.3393088e-01
  1.4126752e-01
 -4.5200892e-02
 -1.3273759e-01
  3.6190171e-02
  1.5143268e-01
  1.5278199e-01
 -3.6918424e-02
  1.1561292e-01
 -1.6011837e-01
 -1.5111421e-01
 -7.3067613e-02
 -3.6684099e-01
 -2.9760662e-02
 -3.2061762e-01
  1.2576059e-01
  1.9185344e-02
  7.1909674e-02
 -6.4674608e-02
 -1.5082039e-01
 -2.3431148e-02
  2.0571931e-01
  1.6053252e-01
  4.8168227e-03
 -4.1201741e-02
  1.5919273e-01
  1.6522951e-01
  6.1767116e-02
 -6.4724259e-02
  6.5940902e-02
  1.7898995e-01
  1.9979025e-01
 -3.3353856e-01
 -1.9901606e-01
 -1.2083527e-01
 -6.0636185e-02
  5.9087729e-01
  5.0049871e-02
 -3.1366479e-01
  3.0255175e-01
  6.3938133e-02
  9.3730628e-02
  1.5645871e-01
  3.0255307e-02
  2.6997489e-01
 -2.9529771e-01
 -2.2501487e-01
 -1.9511962e-01
 -3.0152325e-03
 -1.9174404e+00
 -6.6732979e-01
  2.6404656e-02
 -5.0989163e-01
  3.2028282e-01
  2.5208497e-01
 -1.3051493e-01
  6.6680187e-01
 -1.5603703e-01
  2.4870756e-01
  1.0647680e-01
  8.1896707e-02
 -6.6989535e-01
 -2.2699411e-01
 -6.1711276e-01
 -3.3576928e-02
  8.4578887e-02
 -1.8515636e-01
  4.0627655e-01
  7.7979244e-02
 -3.8686711e-01
  3.1672338e-01
 -3.4085768e-01
 -2.1827915e-01
 -1.1479042e-01
 -1.8123759e-01
 -1.5320518e+00
 -5.5525589e-01
  7.9085732e-01
 -1.0347667e-01
 -2.4070768e-01
  2.5566849e-01
  1.8635325e-02
 -2.3634644e-01
 -1.3385893e-01
 -5.1408327e-01
  9.3851060e-02
  3.9758053e-02
  2.2015911e-01
  7.4373417e-02
 -6.8365224e-03
 -1.6578980e-02
 -8.0381989e-02
  2.9870141e-01
  2.3908606e-02
 -1.3247468e-01
  9.6661404e-02
  6.7251727e-02
  7.8561082e-03
 -1.8042448e-01
 -3.1419557e-01
  8.7448530e-02
 -3.5162866e-01
  5.5262379e-02
 -2.9378021e-01
  5.9039678e-02
  1.0841635e-01
  3.3122694e-01
 -5.9977703e-02
 -3.6741918e-01
 -1.1378517e-02
 -5.0624764e-01
  1.3749123e-01
  9.7057737e-02
  3.0039202e-02
  2.9976463e-01
  2.8431141e-01
 -8.0772247e-03
  4.8134387e-02
  1.3152653e-01
  3.8200283e-01
 -2.2507088e-01
 -3.6301652e-01
  7.0318353e-01
  7.9748206e-02
 -1.6481876e-01
 -7.1586818e-02
  4.7278860e-01
  7.0614517e-02
 -1.5144287e-01
  1.9679126e-01
  2.8336975e-01
 -6.9179386e-03
  3.9265756e-02
 -7.6799408e-02
  5.4610050e-01
  1.0551536e-03
  6.2878078e-01
  3.6891699e-01
 -4.8958771e-02
  2.0114791e-01
 -7.1758777e-02
  1.9030806e-01
 -8.4767029e-02
 -5.7380676e-02
 -4.0305290e-02
 -3.5719769e-03
 -1.4753500e-02
  2.6608151e-01
  2.0704214e-01
  8.6723436e-03
 -6.6102609e-02
 -1.0757308e-01
  3.9172751e-01
  2.9016484e-02
 -1.1731340e-01
 -3.7085563e-01
 -1.4679790e-01
 -3.9550439e-01
 -1.6870780e-01
  8.7346479e-02
 -3.2727438e-01
  1.8110698e-02
  1.1086208e-01
  1.3879552e-01
  2.0934299e-01
  4.8189247e-03
  1.4161649e-01
  2.5953326e-01
  9.2807508e-01
 -1.2978281e+00
 -4.1645020e-01
  4.0740192e-01
 -1.3745894e-01
  1.1001198e-01
  4.2328721e-01
 -2.7010018e-01
  2.6502779e-01
  3.5632876e-01
  3.3405937e-02
 -7.1808696e-05
 -6.2735647e-02
  2.8131881e-01
  4.4851653e-02
 -6.5524012e-02
  1.0299275e-01
  2.6376629e-01
 -5.5492216e-01
  9.1527984e-02
 -3.5300151e-01
 -1.5423926e-02
 -5.2353394e-01
  1.3144076e-01
  4.1588280e-02
 -6.0496233e-02
  2.2114480e-01
 -3.7344611e-01
 -1.8717970e-01
  1.6899493e-01
  1.3877955e-01
 -2.1111968e-01
  2.9704052e-01
 -2.5280160e-01
 -9.3758091e-02
 -2.4137315e-01
  3.0464628e-01
  8.1115402e-02
 -1.1881825e-01
  1.3072141e-02
  4.8208687e-02
  2.3589650e-01
 -1.3962775e-01
 -1.8660730e-01
 -8.3207428e-02
  2.3142615e-02
  1.2817529e-01
  2.4023876e-03
  1.1697404e-01
 -2.5178581e-02
  9.3733370e-02
 -1.1410887e+00
 -1.7286310e-02
  1.5785158e-02
 -2.6906368e-01
 -5.7540506e-02
 -2.5199048e-02
  8.3545163e-02
  4.2423120e-01
  6.7212564e-01
 -1.0362682e-01
 -2.0219412e-01
  1.8088096e-01
  5.9187734e-01
 -2.9227990e-01
  3.5982929e-02
  6.0191974e-03
  5.3333950e-01
 -3.2410488e-01
  1.2565416e-01
  5.0627120e-02
 -1.1251839e-01
 -1.3362320e-01
  1.3691658e-01
 -4.6627364e-01
  1.5840921e-01
 -1.2266675e-01
 -1.4927967e-01
  9.1476783e-02
 -4.8652494e-01
 -1.0071998e-02
  1.8649420e-01
 -5.8559263e-01
  1.2226485e-01
 -1.1830253e-01
  1.2858863e-01
 -2.1613885e-02
  3.0864987e-01
 -6.5781987e-01
  1.7254075e-01
 -1.1426279e-01
  1.7695811e-01
  5.8825806e-02
  1.0335109e-01
 -1.3662663e-01
 -1.9192892e-01
  6.2220402e-02
 -7.0120744e-02
 -7.0055529e-02
  4.0010564e-02
  1.6288552e-01
 -4.1533881e-01
 -2.9977119e-01
 -2.3963560e-01
 -2.7609846e-01
  2.3778374e-01
 -1.4630933e-01
  1.3779590e-01
  2.6884335e-01
  1.0784158e-01
  2.0329916e-01
 -1.1117662e-01
 -1.3951954e-01
  1.3773280e-01
 -1.7970116e-01
 -4.0446302e-01
 -1.2674966e-01
 -3.0215845e-01
  4.1108769e-01
 -1.1216140e-01
 -1.5820487e-01
  3.2620659e-01
  2.3048720e-01
  2.8899056e-01
  6.9956414e-02
  1.2955469e-01
  1.6726182e-01
  1.2990545e-01
  2.2387981e-01
  9.6895806e-03
 -1.4749417e-02
 -9.4920054e-02
  2.9994896e-01
  1.5612672e-01
  1.3378166e-02
  4.8668925e-02
  2.7081445e-03
  7.0198245e-02
 -1.9611420e-01
  2.7188566e-01
  2.1095395e-01
  4.0155622e-01
 -1.6226806e-01
 -1.5557030e-01
  2.6816130e-01
  5.2219349e-01
 -6.9908723e-02
 -9.2128087e-03
 -6.4843380e-01
 -4.7544681e-02
  6.6977352e-01
  1.7747882e-01
 -4.3954968e-01
  3.0827204e-02
 -3.0204636e-01
  1.5442936e-01
 -2.6459862e-03
 -4.6566007e-01
  1.3438945e-01
 -3.0047052e-02
  2.2243100e-01
  2.3504972e-01
 -3.7747896e-01
  1.0701680e-01
  4.9087875e-02
 -1.1378743e-01
 -1.7561370e-01
  6.5708943e-02
 -2.6050907e-01
 -1.8390445e-01
 -4.6198323e-02
  5.2619177e-01
 -1.6839762e-01
 -8.5299544e-02
 -2.1580863e-01
 -1.0419174e-01
  2.7765146e-01
  5.6182379e-01
  1.5931670e-01
 -1.1883467e-01
 -3.7476492e-01
  2.9918507e-01
  2.1441039e-01
  1.9111910e-01
 -1.8908046e-02
 -7.8963196e-01
  3.4312958e-01
  4.0389612e-01
  2.0558437e-02
 -1.4223516e-02
  1.2292656e-01
 -4.5901060e-02
  1.6596782e-01
 -5.8959052e-02
  2.8539237e-01
  5.9315260e-02
 -2.9808581e-01
 -3.6744919e-02
 -1.2047355e-01
  3.9106801e-02
 -3.5746485e-02
 -6.1460966e-01
 -5.8404583e-01
  7.3790409e-02
  6.1824679e-02
  7.0095740e-02
  2.8914586e-03
  4.2361364e-01
  2.1650860e-01
  1.3358963e+00
  2.0639697e-01
  7.4067235e-02
 -1.6051112e-02
 -3.3669999e-01
  3.5020038e-01
 -6.0927875e-02
  1.9830823e-01
 -2.1987301e-01
  1.2737297e-01
  2.6845667e-01
 -3.8927477e-02
  4.6842219e-03
 -7.5085163e-02
 -2.8243712e-01
  1.9023886e-01
 -2.3996878e-01
  8.4381886e-03
  2.3435155e-02
  1.8259433e-01
  2.1017788e-02
 -2.8522363e-01
 -9.9764630e-02
 -1.1431991e-01
  2.2541349e-01
  2.4183084e-01
  2.3108461e-01
  4.5510012e-01
  3.7660811e-02
 -8.5369132e-02
 -7.0947997e-02
 -6.4095579e-02
  1.5011866e-01
  1.4933634e-01
 -1.7732583e-01
  4.0933896e-02
 -1.4123258e-01
 -1.9127016e-01
  9.2213802e-02
  1.0429333e-01
  2.7441493e-01
 -2.8491378e-02
  4.9801329e-01
 -4.3497458e-02
 -5.9312601e-02
  3.3701906e-01
 -3.3842915e-01
  2.1909702e-01
  5.0835364e-02
 -1.2991175e-01
 -1.0534386e-01
 -3.5879150e-02
  1.0495894e-01
 -1.4213403e-01
  2.3738840e-01
  1.2730092e-02
 -3.0092504e-02
  9.6635282e-02
  4.4265103e-01
 -4.1669391e-02
  2.2312316e-01
  8.4518231e-02
  1.6297495e-01
  1.0087508e-01
  1.0966641e-01
  9.3637578e-02
  1.4614922e-02
  2.3515676e-01
  3.6547586e-01
 -5.6597803e-02
 -6.7148104e-02
  8.1670202e-02
 -4.3880051e-01
  1.9117589e-01
 -2.7533251e-01
  1.2830137e-01
 -5.2996006e-02
 -2.5268054e-01
 -2.5062405e-02
 -4.1462964e-01
  1.1710602e-01
  5.9329903e-01
  2.3263535e-02
  6.3183364e-03
 -1.9964626e-01
  4.5693576e-01
 -3.5666877e-01
  4.2153266e-01
  4.0019274e-02
  3.5104343e-01
  2.5493410e-01
 -2.8013360e-02
  2.0024468e-01
 -2.8768450e-01
 -1.6760913e-01
  2.6699552e-01
 -2.8188175e-01
  8.2221575e-02
  1.2358658e-02
 -5.8049345e-01
  9.5280260e-03
 -4.4447452e-02
 -2.2259785e-01
 -6.1534278e-02
 -3.6339715e-01
 -3.3530664e-01
 -1.6469002e-01
  1.1681228e-01
  8.1437394e-02
 -1.8203676e-01
  5.2698290e-01
  5.8190420e-02
 -2.5352263e-01
  2.0608887e-01
 -4.5793571e-02
 -1.7826009e-01
 -5.8990681e-01
 -7.8243636e-02
 -1.7722711e-01
  4.6282551e-01
  8.6672026e-01
  7.3192552e-02
  2.1581011e+00
 -5.3146940e-01
 -2.4742159e-01
 -1.2321227e+00
 -2.6145416e-01
 -3.6495858e-01
 -3.3519363e-01
 -1.7580916e-01
 -5.9250925e-02
 -1.9180802e-01
 -5.0675333e-01
 -3.0360878e-01
 -2.2343766e-02
 -8.7517464e-01
 -1.1199429e+00
  6.0521716e-01
  8.2764626e-01
  7.9928082e-01
 -3.2313910e-01
 -1.1501977e+00
  7.0244944e-01
  3.1272998e-01
  1.8562050e-01
 -4.1591439e-02
  1.4900099e-01
  2.8217968e-02
  7.7240542e-02
 -9.7551294e-02
 -1.3580967e-01
 -8.7505734e-01
  2.4426749e-01
 -1.5059286e-01
 -4.8528615e-01
  1.6661702e-01
 -3.2838285e-03
 -1.0060456e-01
 -1.7994437e-01
  1.7141324e-01
  9.4461709e-02
  3.6290432e-03
 -1.2008183e-01
  5.6033619e-03
 -1.3393739e-01
 -2.6374795e-03
 -6.0596600e-02
  1.0561872e-01
  4.0147930e-02
 -1.6205251e-01
 -3.0115348e-01
 -2.6447419e-02
  1.9391613e-01
  1.5083879e-02
  4.3056149e-02
  7.2389334e-02
 -1.7705223e-01
  2.5534630e-02
 -2.1896119e-01
  9.5742330e-02
 -3.7734830e-01
 -2.7435961e-01
 -1.3123856e-01
  4.0932995e-01
  4.2134069e-02
  6.0618776e-01
 -1.5317252e-02
  6.9537416e-02
  1.2948895e-01
  2.0161733e-01
  1.8662380e-01
 -4.6898067e-02
 -5.2316613e-02
  3.3157021e-01
  1.5591419e-01
 -5.2601531e-02
 -1.1712830e-01
  2.1003403e-01
  8.9178182e-02
  3.9322004e-02
 -2.5093329e-01
  2.0167877e-01
  3.8841847e-01
 -1.6224225e-01
 -1.6564521e-01
  1.8791178e-01
 -2.7726921e-01
 -1.1958166e-02
  2.5850959e-02
  2.9290029e-01
  7.6462820e-02
 -2.4719398e-01
 -2.4803761e-01
 -2.7387556e-01
  6.4775467e-02
  3.4896302e-01
 -2.3991410e-01
  2.8700221e-01
 -2.9185168e-02
  1.6627371e-01
 -1.4385140e-01
 -4.9487527e-02
 -3.7791517e-01
 -1.5644550e-02
 -1.1862545e-01
 -1.4582562e-01
  3.5010615e-01
  1.3881126e-01
 -8.3461434e-02
  2.7213091e-01
 -3.8298286e-02
  1.2483597e-02
 -1.3993128e-01
 -3.0683258e-01
 -1.9038008e-01
 -4.9164712e-01
  4.9573272e-02
 -3.9013693e-01
  1.4307559e-02
 -5.8853918e-01
 -4.8344916e-01
 -5.5063665e-01
 -8.0345261e-01
  4.7406211e-02
  7.7261722e-01
  4.1098577e-01
 -1.3388354e-01
  8.6213477e-02
 -1.3053076e+00
 -7.6654577e-01
 -1.0897275e+00
 -1.3781729e+00
 -1.1444142e+00
  2.5280553e-01
 -4.7362555e-02
 -3.9783284e-01
 -3.1326860e-01
  5.8745734e-02
  1.5641142e-01
 -3.7238747e-01
 -6.9956970e-01
 -6.3317448e-01
 -5.2177149e-01
 -4.2088151e-01
 -4.3393728e-01
 -1.8245897e-01
  2.6512876e-02
 -1.2859619e-01
 -1.7228678e-02
 -1.0278830e-01
 -2.5327486e-01
  1.3005613e-01
 -3.1874630e-01
 -1.5495597e+00
  4.7033429e-03
  2.0142041e-01
 -2.3948902e-01
 -1.3956627e-01
  9.3511119e-04
 -1.3401052e+00
  1.9120164e-01
 -1.9398867e-01
  2.1294963e-01
  5.2722227e-02
  1.3876387e-01
  1.6490081e-01
  1.8435040e-01
 -5.7719320e-02
  1.0947811e-01
  4.0229818e-01
  3.7535197e-01
  1.6983098e-01
 -2.0395163e-01
  9.4190147e-03
  5.7495201e-01
  7.8764223e-02
 -2.9434460e-01
 -2.9456761e-01
 -7.4005497e-01
 -6.8196669e-02
 -1.1077031e-02
 -3.9214030e-02
 -4.4184184e-01
 -3.3179438e-01
 -8.3110616e-02
 -1.8192600e-01
  3.9270896e-02
 -1.6443020e-01
 -1.4302967e-02
 -3.4624839e-01
  4.9440987e-02
 -4.0715480e-01
  3.3494806e-01
 -1.6180725e-01
 -4.8962347e-02
  2.7104717e-02
  4.2743191e-02
 -6.9910228e-02
 -2.0787501e+00
 -8.1748372e-01
  1.5959772e-01
 -3.1968605e-02
 -6.1748959e-02
 -8.8530280e-02
 -7.2607666e-01
 -5.0525665e-01
 -2.4486370e-01
 -1.1963329e-02
 -6.5489084e-01
 -5.1420498e-01
  2.9715833e-01
  5.6614602e-01
 -1.9775435e-01
  3.1815737e-01
 -2.7132186e-01
 -1.1432281e-01
 -3.7432578e-01
 -1.1810270e-01
  1.1009159e-02
 -1.4572126e-01
 -4.5208007e-02
 -2.2910064e-01
  1.6131288e-01
  7.3456377e-02
  1.5013341e+00
  2.0179266e-01
 -2.3825444e-02
  8.0212063e-01
  1.8641098e-01
  1.6974775e+00
 -3.9458492e-01
  1.3701232e-01
  1.1428992e+00
  9.7860277e-02
 -1.2288671e-01
  9.1370620e-02
 -2.4963501e-01
  1.9686113e-01
  1.5653695e-01
 -3.2086521e-03
 -2.2448607e-02
 -6.8553209e-02
  5.1315092e-02
 -2.3581508e-01
  4.3563545e-02
 -2.3274274e-01
  4.2463252e-01
  5.0505286e-01
 -4.5129284e-03
 -3.7058979e-01
 -1.0803965e-01
  2.3654521e-01
  5.5909641e-03
 -7.7821732e-02
 -7.9499640e-02
 -3.5702413e-01
 -1.2872938e-02
 -6.3503966e-02
  1.9594683e-01
 -1.1814092e-01
 -2.8198496e-02
 -1.9315001e-01
  1.5073139e-02
  2.3269664e-01
  3.2435974e-01
  5.1182657e-03
 -2.5974771e-01
 -2.0815182e-02
 -1.1501049e-01
 -2.2829275e-01
 -1.4754707e-01
 -6.0401566e-02
  3.1547993e-01
  1.3236746e-01
  7.2418898e-02
  1.5575351e-01
  1.8925481e-01
 -9.3433134e-02
  1.1019484e-01
  2.3984785e-01
 -6.8903327e-02
  1.2410796e-01
 -4.9103221e-01
  2.2171080e-01
 -2.0776911e-01
 -7.8701571e-02
 -1.3992782e-01
  1.5966736e-01
 -1.3661708e-01
 -1.0733820e-02
  2.9183650e-01
  3.8045713e-01
 -1.6032192e-01
 -7.7204257e-02
  9.7163498e-02
 -2.5690541e-01
 -9.3603723e-02
  7.7796459e-02
  3.7708879e-04
  5.1147148e-02
  1.3648823e-02
  1.5872601e-01
 -1.7633539e-01
  1.0848676e-01
 -3.1755912e-01
 -3.0276713e-01
 -2.0469838e-01
 -1.4808784e-01
 -4.6307936e-02
  4.9746183e-01
  1.5532069e-02
  5.8278538e-02
  4.8747593e-01
  1.6414019e-01
  9.8381847e-02
 -9.8781578e-02
  3.3074480e-02
  1.0175647e-01
 -2.7890500e-01
 -1.0561739e-01
  5.3018409e-01
  1.2159504e-02
 -3.6780763e-01
  5.8594994e-02
 -1.4521061e-01
  1.9682668e-01
  5.6221032e-01
  2.9521206e-01
 -6.2976491e-01
  4.4949047e-02
  1.6082883e-01
 -7.9326935e-02
  9.9515431e-03
  1.3033082e-01
 -1.3160473e-01
  2.3000860e-01
  3.5252118e-01
 -6.7032799e-03
 -3.0311400e-01
  1.3202360e-01
 -2.0623462e-01
  1.6441084e-02
 -1.4931786e-01
 -8.5054412e-03
 -3.7222254e-01
 -2.6788697e-01
 -4.6550605e-02
 -4.3090296e-01
  5.5982322e-02
 -1.0463011e-01
  5.5747020e-01
 -3.9802127e-02
 -7.5734004e-02
 -2.2929990e-01
  1.1435016e-01
  8.5366689e-02
  1.8770948e-01
 -1.7885180e-01
  6.0562532e-02
  3.8353062e-01
  5.8993585e-02
  1.8270403e-01
 -4.3055493e-01
 -4.8266590e-01
 -4.4967815e-02
  8.8131130e-02
  4.8999749e-02
 -1.9355018e-01
 -1.3126544e-02
  1.4489843e-02
 -4.5350268e-02
 -4.1647273e-01
 -2.4318580e-01
  1.9656682e-01
  1.0564012e-02
  3.6871028e-01
 -1.9856799e-02
  3.1480532e-02
  1.3183364e-01
 -5.6754913e-02
 -6.6310711e-02
  6.5379944e-03
 -4.7788128e-02
  2.9851478e-01
 -5.0680552e-02
  3.1026894e-01
 -2.5370833e-01
  1.9720212e-02
 -8.8398702e-02
 -3.3721781e-01
 -9.2519231e-02
  2.3733772e-01
  4.5305860e-01
 -3.6975247e-01
 -4.1064572e-02
 -3.6306775e-01
  1.3080847e-01
  9.3102083e-02
 -1.5345180e-01
 -5.4870838e-01
 -1.2848578e-02
 -6.4563654e-02
  1.3331637e-01
  1.7651586e-01
 -2.5917143e-01
  2.4626419e-02
  2.2203252e-03
 -1.3075113e-01
  2.6750448e-01
  2.5026128e-03
  9.5475256e-02
  7.3764034e-02
  1.2907372e-02
 -1.3209495e-01
  1.7562285e-01
 -7.7802882e-02
 -1.0482022e-01
  4.2164043e-02
 -3.0769902e-01
 -5.0947852e-02
 -1.6387369e-01
 -1.1924578e-01
 -5.9579000e-02
  1.5777755e-01
 -3.0488393e-01
 -4.5320079e-02
  3.2038575e-01
 -1.1058034e-01
  8.1891954e-02
 -3.2396939e-02
  1.0034941e-01
  5.4025686e-01
  9.0845622e-02
 -3.4917787e-02
  2.5220471e-02
 -5.3177200e-02
 -7.4325569e-02
  7.5089045e-02
  1.3234627e-01
 -4.2784759e-01
  4.4825983e-01
 -2.4880496e-01
  3.7768722e-02
 -3.4581268e-01
 -4.1630450e-01
 -3.3983475e-01
  1.1173235e-01
  1.0098660e-01
  1.9280909e-01
  2.9298740e-02
 -1.5811715e-01
  3.6516893e-01
  3.6492378e-01
 -4.5341292e-01
 -2.2944294e-02
 -9.1160923e-02
  3.3799782e-03
  8.0256239e-02
 -2.7255410e-01
  8.2647197e-02
  9.4548590e-02
  9.5109837e-03
  2.7105919e-01
  3.0893093e-02
 -1.5964258e-01
  9.0164132e-02
 -3.8251474e-01
  1.6159894e-01
  5.5579454e-01
  4.6053819e-02
 -3.7852201e-01
 -2.5119295e-02
 -2.3558787e-01
  2.0960820e-01
  2.1314968e-01
 -7.3222801e-02
 -5.2776895e-02
 -1.5846062e-01
 -3.1703897e-02
 -4.6725607e-01
 -2.8981873e-01
 -1.6466346e-01
  9.5113039e-02
 -4.1162366e-01
  7.2637461e-02
 -2.4954358e-01
  5.9682451e-02
 -4.6841525e-02
 -1.3342993e-01
 -3.2706581e-02
 -7.2602138e-02
 -1.6151403e-01
  9.8024294e-02
  9.7770818e-02
  6.4668365e-02
 -1.2475116e-01
 -2.6898137e-01
  2.9502541e-02
  1.6213331e-02
  2.5074029e-01
 -1.1771670e-01
 -1.0661021e-01
  1.4381394e-01
 -2.8920515e-02
  6.6771723e-02
 -1.4862116e-01
  2.3995967e-01
  8.4928557e-02
  3.8522363e-01
 -2.0731671e-01
  2.6117418e-02
  8.7258476e-01
 -5.4306817e-01
 -3.3437204e-01
  5.0442256e-02
 -2.1441364e-01
  1.8940315e-01
 -1.5938781e-01
  1.1166567e-02
  1.5302557e-01
 -3.4616894e-01
  1.2788168e-01
  2.4664131e-01
  2.0047638e-01
  6.9484405e-02
  1.2054502e-01
 -1.4199224e-01
  6.1419509e-02
  1.4777783e-01
 -4.2574778e-02
 -1.2853995e-01
  3.0398361e-02
  1.0854675e-01
 -1.1382720e-02
  7.3342562e-02
 -1.8863884e-01
  9.5501542e-05
 -1.0871409e-01
  3.1550699e-01
  3.7555772e-01
 -2.2086836e-03
  5.3715742e-01
 -9.3873050e-03
  2.1978999e-02
 -2.1178727e-01
 -1.1991937e-01
 -4.1483104e-01
 -2.5386196e-01
  4.9176711e-01
 -4.8266415e-02
  3.0889678e-01
  9.3242913e-02
 -2.9167381e-01
 -2.2694550e-02
 -8.3643720e-02
 -4.0242377e-01
 -1.1631408e-01
  7.0886388e-02
 -9.9762082e-01
  1.0929796e+00
 -1.3176437e-01
 -6.0414799e-02
 -1.5829603e-01
 -6.8259664e-02
 -2.3867714e-01
  2.3264924e-01
  2.6110557e-01
  1.5138456e-01
  1.8985742e-01
 -7.9262316e-01
 -1.2975156e+00
  2.5734404e-02
 -7.6482588e-01
 -4.1511637e-01
  3.1707072e-01
 -1.6719365e-01
 -2.6607523e-02
 -1.3699162e-01
  3.7212905e-01
  2.8189376e-01
  3.1965554e-02
  4.3635729e-01
  5.1002222e-01
  3.4979813e-02
  4.2648646e-01
 -6.8158731e-02
 -6.0164815e-01
  4.5350349e-01
 -8.4008440e-02
  4.3066886e-01
  9.6803643e-02
 -2.5946297e-02
 -9.3372641e-03
  9.5086507e-03
  1.4546023e-01
 -6.1596179e-01
  1.8348867e-01
 -4.4291845e-01
 -1.2684110e-01
 -5.4933345e-01
  4.7480103e-02
  3.9091654e-02
  8.7280679e-01
  1.3036261e-02
 -9.2887974e-01
  2.1088928e-01
  2.9240325e-01
 -4.3183073e-02
  7.6857418e-02
  1.6032603e+00
 -1.4538864e-02
  3.4197338e-02
  1.0533421e-01
  1.8694651e-01
 -1.1236145e-01
 -1.9393963e-01
 -2.3889013e-02
  5.0618887e-01
  1.3095653e-01
  2.3447865e-01
  6.8750046e-03
 -4.8528928e-02
 -2.2848770e-01
  2.4329111e-02
  8.6690284e-02
  1.8115765e-01
  2.5814813e-01
 -1.9424354e-01
  2.1868533e-01
  1.6263738e-01
 -2.6333380e-01
  9.4706547e-03
 -5.1061731e-02
  2.2931971e-01
 -1.8656638e-01
  1.1289071e-01
 -1.0670714e-01
  2.3734677e-01
  3.3158576e-01
 -4.2311668e-02
 -2.1427019e-01
 -9.4337076e-02
 -4.5046157e-01
  1.4146667e-02
 -2.2772540e-01
  6.0773261e-02
 -7.8428090e-02
  1.3310291e-01
 -6.4030981e-01
  8.4675200e-02
  1.5503289e-01
  2.7638143e-01
 -3.1498000e-01
 -2.7985886e-01
 -1.4568114e-01
 -1.1225412e-01
  3.3407149e-01
  8.5291162e-02
  4.0621884e-02
 -9.9057162e-01
 -1.0354984e+00
  1.9837372e-01
 -1.1046925e+00
  3.1205380e-01
  1.4817990e+00
 -4.4107404e-02
 -1.5120856e-01
 -5.1236331e-02
  2.0716745e-01
  1.7227578e+00
 -8.8543378e-02
 -1.9251734e-01
 -2.4738088e-01
 -1.0645209e-01
  1.1634816e+00
  6.7451641e-02
 -7.9349613e-01
  6.4042753e-01
  5.4623634e-01
  2.9703690e-02
 -1.5568759e-01
  1.5575740e-01
  2.0838992e-01
 -7.9191700e-03
  9.3106508e-02
  2.2830842e-01
  1.2956694e-01
 -4.1927747e-02
 -1.6237183e-02
  1.5790527e-01
  1.0618784e-01
  4.9642453e-01
  1.4211656e-01
 -1.3309145e-01
 -1.5595192e-02
  2.5528006e-02
 -3.6618406e-01
 -6.3014761e-02
  1.6572353e-01
  1.3954942e-01
 -2.1748766e-01
  3.8859088e-02
  8.3619840e-02
 -5.6375980e-02
  7.6871401e-01
 -1.4645515e-01
  6.5022856e-02
  9.8823011e-02
 -3.2276176e-03
 -1.2167544e+00
  9.6654616e-02
  5.9311211e-01
  3.7775165e-01
 -4.0301076e-01
  2.4737071e-01
  1.6254193e-01
  9.4686322e-02
 -3.0014336e-01
  3.0674994e-02
  2.4964486e-03
 -1.9107866e-01
 -1.7777041e-01
 -7.0389412e-02
  3.8050377e-01
  4.5981262e-02
  1.2971565e-02
  2.3733152e-01
  1.1853658e-02
 -5.8324546e-02
  1.6027708e-01
  9.2783026e-02
 -4.9034484e-02
  9.6445754e-02
 -2.8052099e-02
  4.3618694e-02
 -4.1128954e-01
 -2.9491001e-01
 -1.8209594e-01
  8.3729982e-02
 -9.2361152e-02
 -2.6270874e-02
  2.7529231e-01
 -4.6529603e-01
  3.3629248e-01
 -2.0063828e-01
  3.8418472e-02
  2.7942535e-02
  1.5016754e-01
 -1.5894842e-01
 -4.6429226e-01
 -6.7777216e-02
 -7.3379004e-01
 -5.8263189e-01
 -6.5841627e-01
 -7.4055290e-01
  6.9069475e-02
 -3.2992411e-01
  7.6139313e-01
  5.9854537e-02
  8.9880151e-01
  1.9601394e-01
 -3.8151227e-02
 -8.7748103e-02
 -7.7645645e-02
  1.9889322e-01
  7.1055397e-02
  5.3808886e-01
 -1.7494176e-01
 -2.9276919e-01
  3.0142739e-02
 -3.4840471e-01
  7.8017496e-02
  4.4139054e-01
  5.6380127e-02
 -2.2403616e-02
  8.9310937e-02
  3.6777534e-02
  3.4356329e-01
  1.1178450e-01
 -6.4902550e-01
 -1.1202157e+00
 -1.0373390e+00
 -7.5120687e-01
 -9.1297287e-01
  7.8524107e-01
  4.8098889e-01
  1.8962099e-01
  4.3474415e-01
  2.1212623e-01
 -3.6346230e-01
  4.7597989e-02
 -1.7178899e-01
  2.4529468e-01
  6.0652278e-02
  4.1052291e-01
  6.0702813e-01
 -1.6435163e-01
 -1.3964050e-01
 -1.5636127e-01
 -1.0617173e-01
  7.4793950e-02
  2.0020550e-01
 -5.5427033e-01
  5.3354660e-03
  2.0895948e-01
  9.1938496e-01
 -9.6604928e-02
  2.7785710e-01
 -2.8209323e-01
  5.6301739e-02
  4.1314101e-01
  1.9530313e-01
  1.8843934e-01
 -4.9098560e-01
 -8.9972742e-02
 -1.4843768e-02
 -8.3729163e-02
 -4.0592831e-01
  9.5190167e-02
  5.1159811e-01
 -1.0134530e-01
 -1.2773322e-01
 -2.8136218e-01
  5.3612089e-01
 -1.9152449e-01
 -1.4860994e-01
  4.5412090e-02
 -4.8869228e-01
 -1.1801049e-01
  9.5947281e-02
  2.4492136e-01
 -3.8005495e-01
 -1.2841588e-01
 -8.1736065e-02
 -3.2614774e-01
  1.6548745e-02
  2.2920954e-01
 -3.2415885e-01
 -3.9181623e-01
  2.7603722e-01
  4.8659507e-02
  4.9516711e-01
  4.9686618e-03
 -1.3411885e-01
 -7.2957523e-02
 -3.4365976e-01
 -2.0802465e-01
 -1.6625772e-01
  1.6986121e-01
  2.0267759e-01
  6.0691468e-02
  3.9673293e-01
  1.7453720e-01
 -8.4728129e-02
  9.4788618e-02
  1.5749660e-01
 -8.1114531e-02
  5.0291106e-02
  7.0404935e-01
 -1.3950558e-01
 -6.6866316e-02
 -9.6096450e-01
  1.5000297e-01
 -5.8597080e-02
  4.4885522e-01
  5.6266242e-01
  9.2300862e-02
 -3.3122904e-03
 -2.3379366e-01
 -1.2674850e-01
  2.0790841e-02
 -2.5417864e-01
 -1.3093123e-01
 -2.5661886e-01
  7.9734854e-02
 -4.9285942e-01
 -1.0632191e-01
 -1.0782582e-01
  1.0604200e-01
 -1.3974608e-01
 -4.7099393e-02
  2.7181029e-01
  4.3781392e-02
  2.9945370e-02
 -1.4329460e-01
  1.5272836e-01
  7.9994902e-02
 -2.8623489e-01
  4.6514761e-01
  3.1863487e-01
 -4.7282681e-02
  1.5532768e-01
  1.6892724e-01
 -7.7829443e-02
  1.1443455e-01
 -9.1496654e-02
  2.4978008e-02
 -3.4138909e-01
  1.6674686e-02
 -2.6111579e-01
 -1.2584010e-01
 -2.0327060e-01
 -1.2464046e-01
 -2.7669701e-01
  1.3381261e-02
  1.3630968e-01
  6.6148795e-02
  3.0862927e-02
 -1.4564519e-01
 -7.8698777e-02
 -2.5754470e-01
  3.6902940e-01
 -4.4286209e-03
 -5.7301126e-02
 -3.7981164e-01
  5.3847700e-02
  5.3621799e-02
 -5.3622492e-02
 -7.1870275e-03
 -1.3190213e-01
 -8.6896420e-02
  2.2066945e-01
 -8.7113604e-03
 -4.6240276e-01
  1.7155762e-01
  2.8979361e-02
 -3.3824083e-01
  5.5390362e-02
  5.6049813e-02
  1.5008612e-01
 -2.9202450e-02
 -8.9992084e-02
  2.9293138e-01
  5.7412386e-01
  2.0327974e-02
 -9.9006251e-02
  7.8969985e-02
 -8.5333236e-02
  1.9796886e-02
  2.3367465e-02
  3.2978728e-02
 -4.9179934e-02
  1.3967806e-01
 -9.4471909e-03
 -2.0081930e-02
 -9.8150693e-02
 -5.6546950e-01
  3.6689986e-02
  1.0636478e-01
  1.8169980e-01
 -1.9468132e-01
  2.8117010e-01
  3.3981812e-01
 -7.0581689e-02
 -2.5492242e-01
  1.0447713e-01
  3.1713834e-01
 -6.3446544e-02
  3.3833057e-01
 -1.2841277e-02
  1.0964775e-01
 -1.0948393e-01
 -3.6159746e-02
 -5.8759712e-02
 -4.6306893e-02
 -8.4920749e-02
 -1.0882707e-01
 -1.0830389e-01
 -6.0717788e-02
 -8.0559321e-02
  1.3090383e-01
  4.2658839e-02
  1.9873235e-01
  2.7064231e-01
 -2.0603159e-01
  5.2854802e-02
 -2.5666156e-01
 -7.5120106e-02
  3.8732588e-04
 -1.0046958e-02
 -3.1680384e-01
  3.3511576e-01
  1.4128806e-01
  4.2862725e-02
 -4.5610741e-03
 -2.0986180e-01
 -1.1288906e-01
  6.8634190e-02
 -1.9319955e-01
  8.2918778e-03
  1.0352110e-01
  3.9670280e-01
 -2.7678007e-02
 -9.5958054e-01
  5.1008005e-02
 -7.9359233e-02
  5.8087908e-02
  1.2081104e-01
 -3.1600514e-01
 -1.9590499e-01
  7.6486424e-02
  2.1458691e-01
  7.4075532e-01
 -3.2807767e-01
 -1.9314200e-01
  3.6717114e-01
  3.0795592e-01
 -3.2258156e-01
  1.7503371e-02
  1.0489652e-01
 -1.5896287e-02
  8.2233518e-01
 -4.7515929e-01
 -6.0066752e-02
 -2.4699374e-01
  1.0928729e-01
 -3.8618869e-01
 -2.5060672e-01
 -7.4657321e-02
  9.5692791e-02
  1.5265964e-02
  2.0196342e-01
  1.4605780e-01
 -2.5872859e-01
 -2.3303455e-01
 -4.1415721e-01
 -5.7179641e-02
 -6.4291224e-02
  1.0764992e-02
 -3.8970143e-01
 -6.1005790e-02
  5.1313661e-02
  2.9045941e-02
  1.9565216e-01
 -1.0754826e-01
 -1.9212916e-01
 -3.3108808e-02
  1.2377325e-01
 -1.3514692e-01
  1.3076395e-02
  1.1845310e-01
 -4.0229061e-03
 -1.5720117e-01
 -1.5398872e-01
 -1.1747392e-01
  1.5300035e-01
  5.9639845e-02
 -2.4330375e-01
  1.1142799e-01
  2.2641563e-01
  2.9160574e-01
 -2.9007718e-03
 -2.1102099e-01
  8.1194244e-02
 -3.6403638e-01
  2.7014750e-01
  4.7994497e-01
 -2.4852188e-01
 -1.1536280e-01
 -2.2287726e-01
  9.0322390e-02
  4.9007142e-01
  1.4553103e-01
 -3.2600164e-01
  2.8377184e-01
  1.4794651e-02
  3.5210200e-02
  2.1724775e-02
 -7.4236110e-02
  7.7638105e-03
  5.8142122e-02
  2.8838165e-02
  2.3273832e-01
 -2.0640758e-01
 -5.1058274e-02
  3.3287084e-01
 -4.1009724e-01
 -6.6419788e-02
 -9.3309149e-02
  1.3075441e-01
 -3.6247292e-01
  1.0002809e-01
 -1.3784026e-01
  7.0507705e-01
  3.4215182e-02
  2.6366580e-02
  3.0856747e-02
  7.0469096e-02
  4.2679593e-01
 -4.2268026e-01
  6.8940688e-03
 -3.6724764e-01
 -1.1623096e-01
  1.1218718e-01
 -8.0745056e-02
  1.3546333e-02
 -2.2289534e-01
 -8.7409943e-02
 -1.4409341e-01
 -1.1839736e-01
  6.9196239e-02
 -8.1907529e-03
 -2.5795996e-01
 -7.2991192e-02
  9.9784493e-02
 -1.8691646e-01
  5.3321078e-02
 -2.5784373e-01
 -1.2021559e-01
 -5.1019603e-01
 -6.3150011e-02
 -2.4942715e-01
 -1.1128432e-01
 -2.2081475e-01
 -7.1283288e-02
  3.9014095e-01
 -5.5862777e-02
 -3.7660725e-02
 -4.1274510e-02
 -3.0297610e-01
  2.5835729e-01
  9.4343817e-01
  2.8567532e-01
  9.2641905e-02
  1.9101908e+00
  6.3276827e-02
 -1.9359109e-01
  5.4062933e-01
 -2.1085460e-01
 -1.8224962e-01
 -1.0390746e-01
 -3.1242400e-02
 -3.7274264e-02
 -1.0190369e-01
 -8.6384036e-02
 -1.5185165e-01
 -5.8748428e-02
  2.4696648e-01
 -4.8486635e-02
 -5.6049520e-01
  4.2692292e-02
 -1.9317964e-02
  2.3930263e-02
  9.7642513e-03
 -3.8243528e-02
 -9.3889631e-02
  8.3291717e-02
  2.1251306e-02
  1.6217362e-02
  1.9601786e-01
  5.7493541e-02
  1.5106806e+00
  6.6452217e-01
  2.9998131e-03
  4.2161524e-01
 -9.0221477e-01
  5.8731273e-02
 -1.8343070e-01
 -1.7441413e-01
 -6.4047307e-01
 -1.9003108e-01
 -5.6015335e-02
  9.5884204e-03
 -1.4551322e-01
 -2.5928229e-02
  9.6038359e-01
  1.2981009e-01
  6.3954554e-02
  1.2015417e-01
  2.1118996e+00
 -2.2502361e-01
 -1.3059741e+00
 -9.4016570e-01
  3.3396909e-01
 -1.0602553e-01
 -6.8718219e-01
 -3.0028503e+00
  1.2288757e-01
  1.0095897e-01
 -7.3421843e-02
  4.2510864e-01
  1.5223129e-01
 -1.0361001e+00
  2.4879409e-01
  1.6761415e+00
  3.0620509e-01
  1.2363867e+00
 -1.1046408e+00
 -1.1146318e+00
 -1.2216845e-01
  3.2685271e-01
  2.0115277e-01
  1.3232857e-02
  9.2369211e-01
 -1.6351700e+00
 -1.0575291e+00
 -2.9327691e-01
 -1.3399234e-01
  1.5387230e+00
  2.7373230e-01
 -3.8190078e-02
 -1.0518036e+00
  3.4488700e-02
 -1.6201910e+00
  3.3313531e-01
 -8.2148921e-01
  3.1642509e-01
 -6.8791851e-02
 -1.4740156e-02
 -4.3847293e-01
  5.1663313e-02
  7.1366525e-01
 -8.0454195e-01
 -6.4419138e-01
 -4.5247123e-02
 -8.5635222e-02
 -7.9331762e-01
  2.1888733e+00
 -5.8465934e-01
  3.3728477e-01
 -4.8945332e-01
  4.2499012e-01
  8.2939243e-01
 -1.1165597e+00
 -2.1757144e-01
 -5.1271010e-02
  5.6380564e-01
  6.8817675e-01
 -9.3923551e-01
  1.7460133e+00
  6.7136687e-01
 -5.1591551e-01
 -8.6987102e-01
  7.9139495e-01
  3.7275031e-02
  8.4395093e-01
 -1.2217031e-01
  5.8606827e-01
  2.5470278e-01
  5.8513570e-01
 -6.9024992e-01
 -5.5390370e-01
 -5.9793872e-01
  2.2432573e+00
  7.8491509e-02
 -4.2602533e-01
 -2.2815727e-01
  1.2723559e-01
  3.4499276e-01
  3.3557065e-02
  8.6806223e-02
  3.5611436e-01
 -1.4965910e+00
 -5.4298323e-01
 -2.8410652e-01
  7.1393007e-01
 -6.6181701e-01
  3.6759624e-01
  9.6737278e-01
  9.1078985e-01
 -3.2621622e-01
  3.4330517e-01
 -1.4051525e-01
 -4.8400623e-01
 -2.8047058e-01
 -6.6254728e-02
  8.1889504e-01
  1.9753204e-01
 -1.2718168e+00
  4.3705174e-01
 -2.8518033e-01
  5.8286202e-01
 -1.5037830e+00
  5.4443926e-01
 -3.1831574e-01
  1.2111954e-01
  6.2920010e-01
 -2.2590781e-02
  5.2907012e-02
  5.8771926e-01
 -4.8302037e-01
  3.3984372e-01
 -1.8113558e+00
 -6.9220096e-02
 -7.0296484e-01
  3.5770230e-02
  1.0520343e+00
  1.2269406e+00
  7.2765446e-01
  1.1616940e+00
  1.5618289e+00
 -9.2990792e-01
  2.8141862e-01
  1.9418710e+00
 -4.6060354e-01
 -1.6535449e+00
 -1.0780476e-01
 -9.5421672e-01
  2.0971949e+00
  1.2320925e-01
  2.1779106e+00
  1.4159278e-02
  6.0481155e-01
  2.7923378e-01
 -7.3466793e-02
 -2.3721309e-01
  4.5459020e-01
 -1.1880078e+00
 -2.6600027e+00
  1.2695106e+00
 -7.8996843e-01
 -7.9397386e-01
 -7.3668283e-01
 -3.4396389e-01
  5.1460278e-01
 -4.2560494e-01
  9.0447354e-01
  1.8217373e+00
  1.1626133e-01
 -2.7130926e-01
  1.4327364e+00
 -1.7200544e-01
 -1.5760440e+00
  7.7368295e-01
 -9.4006754e-02
 -5.1483572e-01
  5.3016645e-01
 -6.6503137e-03
 -1.1368436e-01
 -1.9290449e-01
 -1.0613627e+00
 -7.6612838e-02
 -1.7399772e-01
  1.0995492e-01
 -1.1864424e+00
  1.3324935e+00
  3.3689791e-01
 -2.1032952e-01
 -1.2938566e+00
  1.3750062e+00
 -3.3069381e-01
  6.6776538e-01
  1.3551304e-01
  4.7525544e-02
  4.8288184e-01
  1.0434096e+00
 -1.4540349e-01
  5.4155901e-02
 -2.5813824e-01
  5.6521875e-01
  9.0192966e-03
 -7.9380298e-01
 -3.3476645e-01
  2.7195981e-01
 -4.2882018e-02
 -4.0555674e-01
  3.6030862e-01
  1.0952726e-01
  2.8067619e-01
 -3.7858844e-01
 -1.1230425e+00
 -2.2855002e-01
  3.2299515e-02
  7.8647310e-01
 -1.1451502e-01
 -1.3291922e-01
 -2.5351334e-01
 -6.4632261e-01
 -5.1136732e-01
  4.7369128e-01
  7.6452181e-02
 -9.5314588e-03
 -3.0493784e-01
  1.2480073e-01
  4.9917600e-01
 -5.2369660e-01
 -4.5258173e-01
 -5.6640905e-01
 -4.2430261e-01
 -7.9036075e-01
 -8.0827558e-01
  6.1503392e-01
  2.2600992e-01
  6.6517115e-02
 -6.9349301e-01
  2.6449315e-02
  8.8335231e-02
 -1.3321975e+00
 -8.8531412e-02
  1.9993906e-01
  2.2640293e-03
  3.1518751e-01
  2.2851666e-02
  1.4946510e-01
  7.2551034e-02
  3.8494986e-01
  7.9449189e-01
 -1.1504634e-01
 -3.6544964e-02
 -1.0124022e+00
 -3.2570377e-01
  3.0971122e-01
  7.3644423e-01
  3.3562973e-01
 -2.2271986e-01
  1.5469617e-01
  3.9464554e-01
  6.7960806e-02
 -5.0284272e-01
 -7.4524283e-01
  3.8011540e-03
 -4.3130958e-01
 -4.6571922e-01
  3.5593051e-01
  5.6093293e-01
 -6.1861418e-02
  2.6385054e-01
  5.6048262e-01
 -2.5964060e-01
  6.3080782e-01
  4.9055240e-01
  3.7543672e-01
  1.9723855e-01
  1.4309698e-01
  2.1426925e-01
  4.2657602e-01
 -8.1881545e-02
  3.9601609e-02
  1.0349488e-01
 -7.0836771e-01
 -3.0471587e-01
 -5.1888019e-01
 -1.1191548e-01
  6.9693238e-01
 -1.9514334e-01
 -1.2518822e+00
  3.8141829e-01
  6.1036624e-02
 -9.9115014e-02
 -4.7121924e-01
 -1.6384450e-01
 -3.1988867e-02
 -1.4749371e-01
 -6.0510492e-01
  1.9966559e-01
 -2.1884036e-01
 -1.4503893e-02
 -9.4388986e-01
 -1.1945690e-01
  3.8069725e-01
 -2.1844858e-01
 -1.5562230e-03
  6.5770364e-01
  5.9653640e-01
  2.0418936e-01
 -5.7994592e-01
  1.8198907e-02
  2.8495822e-02
 -1.5990904e-01
  8.1587240e-02
  7.5946055e-02
 -3.7651533e-01
  7.4379891e-02
  1.2980562e-01
  3.9956313e-02
 -1.6420002e-01
 -4.3107918e-01
  3.8537234e-01
 -4.6921901e-02
 -6.4576808e-03
  4.2508957e-01
  4.2515166e-02
 -4.1165486e-01
  1.3396536e-01
 -2.3546340e-01
  2.0792906e+00
  1.0257146e+00
  1.4533234e-01
 -7.4760109e-01
  1.0243814e-01
 -1.6668850e-01
  1.4735122e-01
 -2.3342745e-01
  6.9007385e-01
  5.4709554e-01
 -2.7597222e-01
  5.2127481e-02
 -1.8026881e-02
  1.2616646e+00
  5.5512413e-02
 -2.6913079e-02
  2.9295820e-01
 -4.5854915e-02
  1.0476696e-01
 -1.7141007e-02
  9.0022904e-01
 -9.1996652e-01
  2.0798968e-01
  1.6568197e-01
  1.3255908e-01
  3.6232889e-02
  1.1761788e-01
 -2.5814451e-02
 -1.7409974e+00
  3.7925445e-02
  1.7389958e-01
  1.8091854e-01
  1.2872493e+00
 -1.3255990e-01
 -3.6610472e-01
  2.0412919e-01
 -5.5578172e-01
  2.9230893e-02
  6.7942180e-03
  2.9423863e-03
 -5.6492561e-01
  1.2443136e-02
 -1.3651247e-01
 -2.5990218e-02
 -8.1278038e-01
 -7.4143100e-01
 -4.1635998e-02
 -3.8066007e-02
  8.9625955e-01
  9.4306320e-02
 -1.6750494e-01
 -5.3476680e-02
 -1.8308252e-01
 -3.1783044e-01
  4.2140457e-01
  1.4880730e-01
  1.4880730e-01
  1.4880730e-01
  1.4880730e-01
  1.4880730e-01
  2.6647415e+00
  2.6647415e+00
  2.6647415e+00
  2.6647415e+00
  2.6647415e+00
  1.1261693e+00
  1.1261693e+00
  1.1261693e+00
  1.1261693e+00
  1.1261693e+00
  5.9470659e-01
  5.9470659e-01
  5.9470659e-01
  5.9470659e-01
  5.9470659e-01
  2.3224033e-01
  2.3224033e-01
  2.3224033e-01
  2.3224033e-01
  2.3224033e-01
  4.1872978e+00
  4.1872978e+00
  4.1872978e+00
  4.1872978e+00
  4.1872978e+00
