nep4 2 Te Pb 
cutoff 8 4 74 10
n_max 4 4
basis_size 8 8
l_max 4 2 0
ANN 30 0
 -6.6025954e-01
  5.9174168e-01
  1.6558892e+00
  9.1770709e-02
  6.1844593e-01
 -1.5039507e-01
 -4.1642338e-01
 -1.3052611e-01
 -6.8183106e-01
 -2.0164818e-01
  5.5857384e-01
  3.5249263e-01
 -3.6863381e-01
  1.4058414e+00
 -9.1658270e-01
  1.4378492e+00
  1.4723462e+00
 -5.0880724e-01
 -2.3138976e-01
  1.0502424e+00
  1.8293190e-01
  1.7137869e-01
  1.0028337e-01
  2.9546720e-01
 -1.4351470e+00
 -1.8819472e-01
  3.0301848e-01
 -4.1924059e-02
 -8.6550039e-01
 -5.3534222e-01
  1.0629340e+00
 -2.6014113e+00
  4.2089504e-01
  4.6155477e-01
  1.3759083e-01
  1.5439194e-01
 -4.0644193e-01
 -5.1137084e-01
 -2.0907544e-02
 -2.9499692e-01
 -2.4584386e-01
 -1.0202831e+00
  6.8418837e-01
 -3.7777081e-01
 -1.8789594e-01
  5.6425643e-01
  4.7277281e-01
  1.1521105e-01
  1.9480559e-01
 -1.6975509e+00
 -2.4792485e-02
  5.6467438e-01
 -1.0569699e+00
 -6.3749635e-01
 -6.0380852e-01
  6.0962749e-01
  1.3411057e-01
 -1.4349273e-01
  1.0792256e-01
  1.9090623e+00
 -7.9136595e-02
 -8.1531052e-03
 -1.8914281e+00
  4.4328958e-01
  9.9000478e-01
  1.8681771e-01
 -6.2340504e-01
  1.1481512e+00
  9.2590404e-01
  1.6005195e+00
 -1.7487004e-01
 -1.4732393e+00
  1.9592780e-01
 -1.2798598e+00
 -2.7277628e-01
 -1.0815703e+00
  5.0651836e-01
  2.6733646e-01
  1.2622223e+00
  8.3372384e-01
 -3.1746536e-01
  1.0604991e+00
 -1.0213481e-02
  4.7383621e-02
 -1.8177335e-01
 -8.4185910e-01
 -1.2317529e+00
  1.1307740e+00
  2.0847252e-01
 -5.3997822e-02
 -8.8315052e-01
  4.4446152e-01
  1.4774085e+00
  5.6339830e-01
 -3.5749635e-01
 -3.9424580e-01
 -5.3704131e-01
  6.0197270e-01
  9.8016363e-01
  9.4116002e-02
  9.9286330e-01
 -5.5921805e-01
 -2.1241829e-03
  1.2033603e+00
 -2.1489635e+00
  7.7082694e-02
 -6.1267275e-01
 -3.5895506e-01
 -1.0857355e-01
 -3.9052287e-01
 -6.5203905e-03
 -2.1166136e+00
 -3.1659000e-02
  2.1531959e+00
 -3.0630100e-01
  1.0352643e-01
 -2.5376534e-02
  3.2137540e-01
  7.5033182e-01
  1.5633895e-01
 -2.7547698e+00
 -9.7255355e-01
  1.9650800e+00
 -1.4514947e+00
 -1.7189980e+00
 -6.9560516e-01
 -1.8373251e-01
 -5.8183169e-01
 -1.2514073e-01
 -7.1910834e-01
  9.6969515e-01
  5.8992434e-01
 -2.9755395e-02
  4.3800074e-01
  1.2534899e+00
 -9.5507795e-01
  4.5896554e-01
  4.4582272e-01
  1.0091319e-01
 -7.8235388e-02
  5.0376886e-01
 -4.9833876e-01
 -7.7522978e-02
  3.4908220e-02
  1.4582342e-01
  4.2302251e-01
  1.2312359e-01
 -1.4910440e+00
 -1.2911078e-01
 -2.1512716e-01
 -1.2360246e+00
 -1.1774082e+00
 -4.0420106e-01
 -2.7053407e-01
 -6.8169165e-01
  7.6726961e-01
  7.0422471e-01
  1.0197078e-01
 -4.0640399e-02
 -2.3913096e-01
  2.1075640e-02
 -4.2137450e-01
  4.3074127e-02
 -4.3847078e-01
 -5.0882626e-01
  8.9000696e-01
 -5.7506621e-01
 -5.4076469e-01
 -7.3516376e-02
 -1.4762186e-01
  6.1440963e-01
 -2.4409074e-01
  3.2501519e-02
  4.9607255e-02
 -3.4882417e-01
 -1.7005590e-01
 -5.2184510e-01
 -5.3308290e-01
  6.1219627e-01
  1.2026588e-01
  3.7456480e-01
  6.3701981e-01
  2.4934549e+00
  2.6137730e-01
  2.1061602e+00
 -1.6343389e+00
 -1.5267664e+00
 -2.4570611e-01
  2.0547729e+00
 -2.5807524e-01
 -3.4845513e-01
 -7.6493579e-01
  3.8934815e-01
 -2.3756057e-01
 -7.0437437e-01
 -9.8362362e-01
  1.9777578e-01
  5.1088345e-01
  2.9216784e-01
  3.9954895e-01
  1.0019004e+00
 -9.2930841e-01
  1.8355410e+00
 -2.1726766e-01
 -1.3792081e-01
 -1.0416154e+00
  6.9125369e-02
  1.2890562e+00
  5.6613296e-01
  3.9251444e-01
 -4.3948087e-01
  3.6365187e-01
  1.3313364e+00
  2.5154078e-01
  1.5410545e-02
  1.1065243e-01
 -6.7683034e-02
 -8.6652458e-01
  6.0824299e-01
  1.2867440e+00
 -8.2441658e-02
  7.8295994e-01
  5.2249104e-02
  8.0499631e-01
  7.4394482e-01
 -6.2515521e-01
 -8.3311719e-01
  2.7552183e+00
  1.6674908e-01
  1.2518163e+00
 -7.6997274e-01
 -1.5402833e+00
  1.8907866e-01
  2.3625532e-01
 -9.0452588e-01
 -4.9239379e-01
 -1.3998270e-01
 -4.1902834e-01
  4.3559253e-01
  6.7635313e-02
 -3.3084539e-01
 -3.4030101e-01
  4.1699663e-01
  1.3016125e+00
  9.6137846e-01
 -3.6205506e-01
  3.6700168e-01
  3.0809084e-01
  1.0816598e+00
 -6.6826087e-01
 -5.1311058e-01
 -1.2507635e-01
  5.3191525e-01
 -1.2984173e+00
 -4.9396703e-01
 -2.9762584e-01
  2.9521549e-01
 -5.6337923e-01
 -1.4344794e-01
 -3.3884153e-01
 -7.9501674e-02
 -1.6729851e-01
 -2.0760949e-01
 -1.3125665e+00
  1.8890154e-01
 -3.2978866e-01
  6.6150713e-01
 -1.5553361e-01
  9.3474537e-01
  3.8984352e-01
  2.5966972e-01
  8.5343915e-01
 -2.3742606e-01
 -9.8390296e-02
 -3.1659567e-01
 -2.0150025e+00
  3.4778064e-01
  1.1586036e-01
 -3.8635266e-01
  4.5933983e-01
 -5.8894616e-01
 -4.3802637e-01
 -9.8503780e-01
 -3.7108552e-01
  1.1422256e+00
 -3.2343853e-01
  2.8461850e-01
 -3.0930877e-02
 -3.0166698e-01
 -1.1440859e+00
  7.7413410e-01
 -2.4380140e-01
  4.2035353e-01
 -2.5566697e-01
  2.7001539e-01
  4.1670483e-01
 -1.1339737e-01
  4.0295309e-01
  1.9141997e+00
  7.1021420e-01
 -1.4170626e-01
 -9.6676725e-01
 -1.3828520e+00
 -7.2228891e-01
  6.8753392e-01
  4.0095061e-01
  1.2710192e+00
 -1.5658813e+00
 -4.8913500e-01
 -8.5546070e-01
 -1.9821830e-01
 -1.1732213e+00
 -2.2821686e+00
 -2.9961655e-01
 -9.1267109e-01
  4.1590124e-01
  6.5090251e-01
  6.5230131e-01
 -3.3437392e-01
 -2.3614392e+00
  4.1450731e-02
  4.2259100e-01
 -2.3309782e-01
  7.3052597e-01
  1.2290616e-01
  5.0507349e-01
 -8.7244272e-01
  1.1705439e-01
 -9.3584999e-02
  6.7559940e-01
  7.3244798e-01
 -5.1949942e-01
 -4.2354992e-01
 -2.7115247e-01
  7.8749850e-02
 -1.9534859e-01
  1.5177493e+00
 -1.2351038e+00
 -1.7085741e+00
  1.3688992e+00
  2.6692326e+00
 -6.1384541e-01
  1.5296599e-01
  8.0831158e-01
  8.0865955e-01
  8.8214791e-01
 -2.7217112e+00
 -7.2701514e-01
  1.6097652e+00
  3.6473364e-01
  7.3376238e-01
 -3.0308977e-01
  1.0042875e-01
  2.4249725e+00
 -4.9072325e-02
  1.2914886e+00
  2.7015132e-01
 -9.6375406e-01
 -3.0307165e-01
 -9.6695584e-01
  1.1344552e-03
  5.8411680e-02
  4.8358253e-01
 -7.3140323e-01
  1.3108333e+00
  1.2323407e+00
 -6.7498654e-01
 -4.4876459e-01
 -3.5921377e-01
 -7.1417868e-01
 -1.0310552e-02
 -2.2717653e-01
 -2.1579623e-01
  1.2510309e-01
  2.0510602e-01
  6.7089891e-01
 -4.1334224e-01
 -2.8747380e-01
 -9.8903924e-01
 -5.8142617e-02
 -5.0172043e-01
 -1.8771562e-01
  4.9821728e-01
 -4.6067384e-01
 -1.3546979e-01
  2.0384388e-01
 -1.1652651e+00
 -4.6711177e-01
  5.3637069e-01
  1.2159716e+00
 -4.8261732e-01
  9.9545997e-01
 -2.0300917e-02
 -7.1194448e-02
 -1.8680643e+00
 -5.9716076e-01
 -2.8476599e-01
 -4.4578323e-01
  4.6318710e-01
 -8.0039370e-01
 -1.6301185e-02
  1.6591084e+00
 -1.9550737e+00
  1.4206725e+00
  1.9759212e+00
  3.9828458e-01
 -6.3057888e-01
 -3.0551791e-01
  4.8485631e-01
 -1.1418741e+00
 -2.3363764e+00
  1.3251470e+00
  1.1533631e+00
 -2.4611127e-01
  1.7502663e-01
  2.5377521e-01
 -5.5335683e-01
  8.1853068e-01
  1.0711098e+00
  1.4950271e+00
 -2.8474858e-01
 -1.7556824e-02
  6.5790564e-01
  4.1525793e-01
  4.1198793e-01
  2.8879972e+00
  4.3062037e-01
  1.8692241e+00
 -5.3224176e-01
 -1.9001171e-01
 -5.3959876e-01
 -8.3185065e-01
  1.0011554e-01
 -3.3150360e-01
  5.8406174e-01
 -1.0800502e-01
 -2.1399063e-01
  2.0468600e-01
 -5.9051621e-01
 -5.8744645e-01
  1.4587826e-01
  4.4272691e-01
 -5.2245313e-01
 -2.1625342e+00
 -3.5510868e-01
 -2.8743527e+00
  4.4592696e-01
  6.3447666e-01
  2.1090460e-01
  1.5204400e-04
  1.0784901e+00
 -6.8517971e-01
 -9.4942272e-01
 -1.8709546e-01
  7.9056877e-01
  9.2634451e-01
  3.7069377e-01
 -5.2075591e-03
  8.1218970e-01
 -2.0796712e-01
 -2.3064509e-01
 -5.8668882e-01
 -3.7755162e-01
 -1.6742001e-01
 -4.4421978e-02
  2.0297810e-02
 -7.4684825e-03
  4.5728448e-01
 -1.3878124e+00
 -1.1952362e-01
  1.7861566e-01
 -2.8451639e-01
 -5.7746404e-01
 -1.6110393e+00
 -8.9446348e-01
  3.1323424e-01
 -1.7709910e+00
  4.8244068e-01
  4.7277936e-01
 -2.8862590e-01
  1.4736962e-01
 -2.4603912e-01
  7.8871697e-01
 -2.6307182e+00
  1.1835958e-01
  4.6309769e-01
 -8.9665097e-01
  1.0616609e+00
  8.8240409e-01
  1.0303576e+00
  1.8122556e+00
  1.7945085e+00
 -1.1420210e-01
 -1.8242265e-01
  6.2519051e-02
  3.1559734e+00
 -3.1563884e-01
  4.5208281e-01
 -3.2470581e-01
  3.5205130e-02
  1.6882569e-01
  3.1841102e-01
 -7.4243867e-01
 -1.9574964e-01
  1.7098713e+00
 -1.7591270e+00
  1.1932570e+00
 -7.6519273e-02
  1.1775451e+00
  2.2251348e+00
  2.3363321e-01
  1.9333982e+00
  2.4403945e-01
 -5.1723100e-02
 -7.9426980e-01
 -4.1758776e-01
  7.2224423e-02
 -9.1104192e-01
  1.5558290e-01
 -6.9884038e-01
  1.8158299e-01
 -2.9300827e-01
 -5.5390573e-01
  1.2082478e+00
 -7.3507577e-02
  7.4758345e-01
  1.7214289e-01
  1.7672855e-01
 -1.7800756e-01
  7.1271801e-01
  2.0676868e-01
  1.9494310e-01
  9.4510406e-01
 -4.5852765e-02
 -7.3803651e-01
  1.0899574e-01
  7.9236042e-01
 -1.0086328e+00
  1.8385279e+00
 -1.2313315e-01
 -7.9968500e-01
  5.8116794e-01
 -2.0014104e-01
  3.2419762e-01
  3.3587211e-01
  8.1146365e-01
  5.3723311e-01
  2.2775927e+00
  1.7385101e+00
  1.3972747e+00
 -6.4525920e-01
 -1.3886598e+00
  1.6806217e+00
  5.0828093e-01
 -1.1743604e+00
 -1.4873165e+00
 -5.1462561e-02
 -3.2951880e-01
  3.9504796e-01
 -1.7619586e-01
  1.4920670e-01
  2.1629357e-01
  3.8162205e-01
 -9.3325651e-01
  4.9214369e-01
  1.0731356e-01
  2.3052163e-01
 -1.2049884e+00
  1.8000595e-01
  1.3440236e+00
  6.9258285e-01
 -8.9159155e-01
 -2.0238898e+00
  6.3679421e-01
 -3.8277063e-01
 -2.0552236e-01
  1.0302848e-01
 -3.3752197e-01
 -1.8605831e-01
  9.2991269e-01
 -4.6077952e-02
 -7.5863644e-02
 -6.5958701e-02
  1.0704943e+00
 -1.4289919e+00
  3.9060333e-01
 -1.2060705e-01
 -7.0599413e-01
  1.2766771e+00
  3.7006295e-01
  1.6024040e-01
  7.4594849e-01
  9.2109221e-01
  1.6181365e-01
 -1.2603891e+00
  6.9342768e-01
 -1.5747052e+00
  4.5406513e-02
 -1.0108171e+00
  1.2132934e-01
  5.8477402e-01
  1.3523982e-01
 -2.4098682e+00
 -4.3042338e-01
 -4.1281867e-01
 -1.9940032e+00
  1.6591185e+00
  3.4136191e-01
 -1.4247034e-01
  3.6797154e-01
 -1.6234809e+00
 -2.6298103e-01
 -7.5739533e-02
 -5.3075135e-01
 -9.6353781e-01
  1.1025553e+00
 -7.7349812e-01
 -9.4087742e-02
  4.1420594e-01
  7.4222243e-01
  2.5126904e-01
  8.5422933e-02
  5.3233802e-01
 -3.9281613e-01
 -1.3531147e+00
  9.1174775e-01
 -9.3602341e-01
 -8.2830513e-01
 -1.2818944e-02
 -7.1188368e-02
 -1.5237602e+00
  6.9127113e-02
 -1.1338563e-01
  1.4807391e+00
  5.7134539e-01
  1.1382239e+00
 -2.0794100e-01
 -6.0950167e-02
 -3.3371443e-01
 -4.4162881e-01
  2.7449068e-01
  5.2617830e-01
 -2.6621687e-01
  1.2606033e-02
 -6.1553341e-01
 -3.9252084e-01
 -5.6751245e-01
 -2.7217609e-01
 -3.8825214e-01
 -3.4443980e-01
  1.4374872e+00
  1.8276620e+00
  4.4854343e-02
 -2.8570428e-01
 -2.3736866e-01
 -1.2417626e-01
  7.4609601e-01
 -7.3633349e-01
  7.8411537e-01
  4.3753743e-01
 -5.7954693e-01
  8.2745260e-01
  5.1641554e-02
 -7.1734774e-01
 -5.3758478e-01
  9.5299578e-01
  1.2781620e-01
  1.7062433e-02
 -3.9270133e-01
 -6.5737808e-01
 -5.4057646e-01
  4.5385301e-02
  6.4723179e-02
  1.8986022e-01
  3.5807627e-01
  1.6215335e+00
 -2.2061698e+00
  8.0389261e-01
 -1.5010828e-01
 -3.7475340e-02
  3.4537219e-02
  5.9882212e-01
 -7.3287988e-01
 -1.6633835e-01
  3.6735764e-01
 -2.8147459e-02
  7.6550245e-03
  1.8843095e-01
 -5.1341492e-01
  2.1031149e-01
 -9.6511596e-01
  1.5625313e-01
 -6.2084302e-02
 -1.8983018e+00
  3.5622478e-01
 -6.5343326e-01
  1.0261575e+00
  3.1727223e+00
  2.5430220e-01
 -8.1195027e-02
 -1.5619627e+00
  4.1722518e-01
 -8.7962079e-01
  1.3047811e+00
 -6.3607228e-01
 -1.2408760e-01
  2.1257715e+00
  8.0938900e-01
 -4.0307164e-01
  1.7484835e+00
  1.7930873e-01
  6.3827795e-01
 -9.1420710e-01
  3.5221111e-02
  6.2972891e-01
  2.6357102e-01
  2.2429714e+00
  5.5871852e-02
 -2.0357949e-01
 -1.3824649e-01
  3.9869118e-01
 -8.6138153e-01
 -3.9631050e-02
  1.4668648e-01
 -1.2487876e+00
 -5.3719145e-01
  1.3074319e+00
  9.5646203e-01
 -2.1685685e-01
  1.6030612e+00
 -6.3240469e-02
  2.5293303e-01
 -6.4729229e-02
  9.6377635e-01
  6.5534748e-02
  1.1576951e+00
 -6.6369665e-01
  1.1568793e+00
  1.0539070e+00
  4.0578720e-01
  1.6468692e-01
 -6.2737280e-01
 -3.8125029e-01
 -5.7906002e-02
  6.8564671e-01
 -3.4409329e-01
  7.1004879e-01
 -6.7770928e-02
  6.2806457e-01
  7.2756493e-01
  3.6478475e-02
 -2.1061793e-01
 -2.8027239e-01
  6.4141440e-01
 -3.4847939e-01
  2.0135590e-01
  1.2760659e+00
 -7.4597692e-01
  1.5221587e-01
  7.7408171e-01
 -1.2017998e+00
  6.7985260e-01
  2.3832917e-01
 -1.0284544e+00
 -6.1091548e-01
 -1.2357379e+00
 -2.5053182e-01
 -7.9891688e-01
  2.8144376e-02
 -3.8418895e-01
 -1.1127727e-01
 -3.8078403e-01
 -5.0944418e-01
 -7.8926170e-01
 -4.8629808e-01
 -1.5751407e-02
 -1.3726248e+00
 -6.3554746e-01
  1.1953974e+00
 -8.0757871e-02
 -1.0890515e-01
 -5.6830710e-01
  1.6986691e+00
 -7.4143440e-01
 -4.0257156e-01
 -7.0659250e-01
 -7.3303685e-02
  1.7249602e+00
 -6.8241820e-02
 -2.9939783e-01
 -1.0954652e+00
 -6.6642642e-02
  6.7357606e-01
  8.2816827e-01
  1.0298637e+00
  2.1822708e+00
 -6.2236768e-01
  5.0442255e-01
 -8.7323040e-01
 -1.5316671e+00
 -9.3857788e-02
 -1.0753251e+00
 -1.9659001e-01
 -1.0343220e+00
 -7.6265293e-01
 -5.8642769e-01
  2.5063774e-01
  1.1100810e+00
  1.2573229e+00
 -5.4351583e-02
 -6.5419953e-03
  8.4634209e-01
  1.0404491e-01
  8.0493224e-01
 -2.9101259e-01
 -4.6091545e-01
 -5.1260740e-02
  3.8521588e-02
 -5.7326043e-01
  4.7018299e-01
  4.4370329e-01
  3.5616142e-01
  1.1123320e-01
 -1.3289599e-01
  5.1246059e-01
  1.9322526e-02
  3.8406503e-01
  1.5977997e-01
  1.3166082e+00
  5.6773305e-02
  4.8570722e-02
  2.6617281e-02
 -9.7487435e-02
  5.2111906e-01
  2.6136807e-01
 -4.2296129e-01
  1.3852338e+00
  3.7442892e+00
 -1.3521255e+00
  8.8807505e-01
  5.4724908e-01
  1.6492214e+00
  3.9838618e-01
 -2.6650703e-01
  1.8359390e-01
 -6.8977922e-01
 -1.1572394e+00
 -4.3381542e-01
 -1.8250051e+00
 -6.4499867e-01
  7.2721624e-01
 -1.7123305e+00
  1.7145993e+00
  5.4216367e-01
  1.0086776e+00
  2.7597189e-01
  1.7049545e-01
 -6.2470877e-01
  1.7140871e-01
  1.1065103e+00
  2.5683299e-01
 -5.3072101e-01
  3.1595019e-01
 -2.1372437e-01
  4.7757539e-01
  4.2977497e-01
  7.6952666e-02
  1.9962193e-01
 -4.2199856e-01
  4.5971683e-01
  3.3288884e-01
 -3.6378583e-01
  3.8008702e-01
  4.3799952e-03
  5.9713513e-01
 -1.3443115e-01
  6.4450026e-01
 -7.1610951e-01
 -2.4486294e-02
 -1.5126234e-01
 -1.9246945e-01
 -2.6403129e-01
  6.2143385e-01
  1.9644143e-01
  1.6099916e+00
  2.4250266e-01
 -1.4905275e+00
 -1.1951403e-01
 -2.1662313e-01
  1.0595427e+00
 -6.7490101e-01
  9.8295617e-01
 -4.2714886e-02
 -3.4020297e-02
  1.5662823e+00
 -1.7330691e-01
  6.4167047e-01
 -4.4266993e-01
 -2.3460923e-01
  2.3005141e-01
 -9.6156019e-01
 -7.4958265e-01
 -2.2009444e+00
 -2.8625205e-01
  7.5862002e-01
  1.7194746e+00
 -4.5958114e-01
  1.5604071e-02
 -5.3490883e-01
 -2.3469308e-01
 -2.1209282e-01
  1.2295744e+00
 -1.2132549e+00
 -6.3773084e-01
 -1.3483246e-01
 -1.8422160e-01
 -7.5672626e-01
 -7.7104747e-01
 -9.4418895e-01
 -6.2463824e-02
 -2.9905871e-01
 -1.8206885e-01
  2.9220337e-01
 -3.1378254e-01
  8.0880862e-01
  4.6545601e-01
  2.4328082e+00
 -6.1217153e-01
  7.6216686e-01
  5.8388209e-01
 -3.5589150e-01
 -1.5010330e-01
  1.0209537e+00
  3.3968204e-01
  1.6194437e+00
 -4.0438849e-01
 -4.9325579e-01
  7.0120925e-01
 -1.1073166e+00
  1.0773133e+00
 -4.0535203e-01
  3.8663155e-01
  4.5475465e-01
 -4.8145512e-01
 -8.7412372e-02
 -2.7547967e-01
  1.1413428e-01
 -3.1108931e-01
  6.0090512e-02
  1.4695133e-01
  9.0443432e-02
 -1.4987321e-01
 -2.2275150e-01
 -1.9016597e-01
  1.7655009e+00
 -4.4517732e-01
  6.3043034e-01
 -8.1140894e-01
 -2.1737479e-01
 -1.1149800e+00
  5.4763734e-01
 -1.1715530e+00
 -8.8525492e-01
  6.4252877e-01
 -1.0597085e+00
 -1.5079370e-01
 -1.2277642e+00
 -8.6801600e-01
  1.5039897e-01
 -1.5706661e-01
  1.0982225e+00
 -1.5928944e+00
 -6.1962903e-03
 -1.5537623e-01
 -2.1467572e-01
 -5.0624490e-01
 -9.5216453e-01
 -2.3447596e-01
  6.8581223e-01
  6.9771224e-01
  4.5520809e-01
 -6.4873534e-01
  2.0145229e-01
 -4.4041231e-01
  1.2712113e+00
  2.9005129e-03
  7.9483008e-01
  4.2144805e-03
 -1.0282840e+00
  6.0344700e-02
 -1.4645541e+00
  3.1959218e-01
  9.8204352e-03
 -4.8226793e-04
  1.6216336e+00
 -1.3575010e-02
 -8.9255117e-02
  1.2638180e+00
  9.5360982e-01
  8.5643746e-02
 -1.2386443e-01
  3.9492674e+00
  1.3725869e-01
  8.3722621e-01
  3.3379441e-01
  3.8301465e-01
 -3.2324575e-02
 -1.6502203e+00
  5.9580475e-02
  2.0240803e+00
 -1.1146911e+00
  3.2880756e-01
  5.4693609e-01
  1.2735221e+00
  2.4676278e-01
 -6.6716397e-01
 -2.8286192e-01
  2.0420508e+00
  6.1076730e-01
 -1.4306800e-01
 -1.1530638e+00
  5.5636203e-01
 -2.5430825e-01
  3.4281734e-01
 -2.1736832e+00
 -1.2272968e+00
  3.1202844e-01
  5.9702873e-01
 -7.0581084e-01
 -1.4556867e+00
 -3.7508674e+00
 -2.9577917e-01
  7.7516085e-01
  1.5881321e-01
  4.9324262e-01
  1.5883688e+00
  1.2053705e+00
  3.7011233e-01
  6.0116434e-01
 -2.4234245e+00
  2.2625609e-01
 -4.5809668e-01
  1.1479167e-01
 -2.6255766e-01
  1.9253352e+00
  1.3016222e+00
  1.0960214e-01
 -4.1482240e-02
  1.5088394e+00
 -7.6488602e-01
 -1.0983363e-01
 -3.7147519e-01
 -1.1756290e+00
 -1.0978042e+00
 -7.9225540e-01
 -6.5650195e-03
  4.5328024e-01
  9.9200732e-01
 -8.4671623e-01
 -7.0084155e-02
  1.0282933e+00
 -4.3220714e-01
  5.4950821e-01
 -1.0448251e+00
 -1.1093655e-01
  7.6070654e-01
  1.4611206e+00
 -2.5016773e-01
 -4.3082587e-02
 -6.3832349e-01
 -8.3999920e-01
 -8.7157920e-02
  9.4836049e-02
 -2.1648786e+00
  6.8249166e-01
  4.4436842e-01
  1.1535252e+00
  5.1667106e-01
  1.0354395e+00
  9.7072893e-01
 -4.3059081e-01
  2.8409824e-01
 -1.2104201e-01
 -9.9679577e-01
 -4.5264721e-01
 -2.6162922e-01
 -4.4068655e-01
  1.4810842e-02
 -1.1726416e+00
  2.8609967e-01
 -3.4585503e-01
 -2.4199921e-01
  3.3287206e-01
 -1.2020418e-01
  1.9192280e-01
 -1.8222324e+00
 -5.5028722e-03
  3.6010605e-01
 -6.6873235e-01
  3.2561526e-01
  4.0047005e-01
  2.0769404e-01
  1.1178510e+00
  8.4791183e-03
  7.6693960e-02
 -2.8793216e-02
 -8.1023133e-01
 -1.0044034e-01
 -6.9688159e-01
 -4.1084796e-01
 -1.3679018e-02
 -5.4406154e-01
 -2.1733478e-01
 -2.8406657e-02
 -2.4911653e-01
 -9.0227172e-02
  1.3475831e-01
 -1.9045825e-01
 -6.3776565e-01
 -6.0534137e-01
  1.3889194e-01
 -6.4307356e-01
 -1.2385407e-02
  6.4507908e-01
  1.4283211e+00
 -2.6744443e-01
 -8.9893848e-01
  1.6905031e+00
  6.7158526e-01
 -1.3040717e+00
  9.3150914e-01
 -3.5876922e-02
 -5.9502637e-01
  2.5641067e+00
 -1.3813947e+00
  1.1547419e+00
  9.1234976e-01
 -7.6483816e-02
 -4.8391154e-01
 -8.4331697e-01
  3.1395707e-01
 -2.9810545e-01
 -4.3869935e-02
  3.4245607e-01
 -1.6837871e+00
  3.3418691e-01
  9.7909063e-01
 -1.3067989e+00
  7.0007086e-01
 -5.7349104e-01
  2.7079884e-02
 -4.3983766e-01
  4.2956674e-01
  3.7666285e-01
 -1.7399970e+00
 -4.7663458e-02
  3.7965092e-01
 -1.0087325e-01
 -2.4731091e-01
  5.0712007e-01
  4.3917485e-02
  5.8444643e-01
 -1.3623958e+00
 -1.4007628e-01
 -1.1641318e-01
  1.6385027e+00
 -1.2492043e-01
 -5.7230249e-02
 -2.5111324e-01
  4.1270399e-01
 -1.6606173e-01
  5.4488569e-01
  4.0742210e-01
 -3.2532826e-01
  7.8199607e-01
 -1.6562749e+00
  6.4901471e-01
  7.7562761e-01
 -1.7571415e-01
  1.9650342e+00
  1.7946866e+00
  4.0647125e-01
 -3.3025894e-01
 -1.4036649e+00
  4.3614390e-01
 -7.2719336e-01
 -8.4352851e-01
 -6.0560173e-01
  4.8047852e-02
 -1.0993967e+00
 -1.3110334e-01
  9.8952901e-01
  1.4570963e+00
  1.4230912e+00
  9.5777921e-02
  2.7967376e-01
  6.5166956e-01
 -2.1259677e-01
  6.2799793e-01
  7.3178840e-01
 -1.4404118e-01
 -1.6399094e-01
  1.9134393e-02
 -2.0228857e-01
  9.9506661e-02
 -3.8884655e-01
 -2.4981955e-02
  1.8214732e-01
  6.4550436e-01
 -2.1559277e-01
  2.5221473e-01
  3.2909387e-01
 -1.8552153e+00
  9.7104937e-01
 -6.7641771e-01
  2.1990648e-01
  1.8644965e-01
 -4.5074224e-01
  1.7007400e-01
 -6.2607282e-01
  2.8026053e-01
  1.3633400e+00
 -1.8503651e-01
 -2.4812630e-01
 -7.9752201e-01
  1.6168168e-01
  1.0350971e+00
  3.3130031e-02
 -1.4321785e+00
 -1.4506651e+00
  6.4217538e-02
  1.7436849e-01
 -5.4290390e-01
 -9.8444217e-01
  5.1109838e-01
  4.2138493e-01
 -2.5721616e-01
  1.6187967e-01
 -3.9506811e-01
  1.6775455e-01
  1.4935294e-01
 -2.3614255e-01
  4.6442363e-01
 -2.7278802e-01
  2.2345718e-02
 -1.3761833e-01
 -9.9892789e-01
  6.3850477e-02
 -2.7295375e-01
  5.2773356e-01
  2.4329162e-01
  6.8424624e-01
  6.9317353e-01
  1.1642079e+00
 -2.8391775e-01
  1.0821360e-01
 -1.5214369e-01
  1.0108407e+00
 -8.3273208e-01
  8.3276510e-01
  8.9229691e-01
 -9.6153027e-01
 -5.8168960e-01
  1.7064434e+00
 -1.2944710e+00
  1.0264944e-01
 -3.0807364e-01
  5.8583617e-01
 -1.6240531e+00
 -1.5134023e+00
 -1.1208416e+00
 -3.7192407e-01
  4.0324685e-01
 -2.2110398e+00
  3.0580497e-01
  4.4339651e-01
 -1.5537772e-01
 -1.1296633e+00
  1.4863361e-01
 -1.3065885e+00
  2.2323698e-01
  6.8662316e-03
 -9.3349683e-01
  1.0497011e-02
  9.0189540e-01
 -3.0092043e-01
  1.2488171e+00
  3.3755231e-01
 -2.2106143e-02
  3.7473100e-01
  1.2398237e+00
 -3.4884684e-02
 -8.1066680e-01
  4.1919088e-01
 -9.5922863e-01
  1.3219857e+00
  1.5222657e-01
  2.7390826e-01
  7.4755144e-01
  7.4571937e-02
 -7.0675090e-02
 -5.1533234e-01
 -3.1532302e-01
  3.1569320e-01
 -1.7086586e+00
  3.5026041e-01
 -5.7541348e-02
 -7.0631111e-01
 -1.2641495e+00
  1.9116702e+00
  1.4878082e+00
  4.4030258e-01
 -6.6460919e-01
  3.1885174e-01
 -6.2946081e-01
 -1.0623422e-01
  3.8983390e-01
  1.8491131e-01
  5.9096181e-01
 -2.0751458e-01
 -1.8355095e+00
  6.7364007e-01
 -1.4379843e-01
 -7.1436638e-01
 -6.9112450e-01
  6.3583046e-01
 -6.0875523e-01
 -5.1996970e-01
  3.2974586e-01
 -5.3013408e-01
 -4.5556226e-01
 -3.8948333e-01
 -1.4420518e+00
  1.1671409e-01
  8.8661516e-01
  3.6052078e-01
 -8.6892575e-01
  3.0205721e-01
  4.5995036e-01
  8.8152224e-01
  5.9380245e-01
  9.9076468e-01
  3.4423983e-01
 -4.6672568e-01
  2.0576430e-02
 -5.8796763e-02
 -2.9372201e+00
  7.6928771e-01
 -5.0888842e-01
 -1.2810271e+00
 -2.4684169e+00
 -8.1389332e-01
 -2.2791390e-01
  4.6605113e-01
  3.2451525e-01
 -7.3329741e-01
 -1.8189108e-01
 -7.9647326e-01
 -8.8451818e-02
 -6.2501436e-01
  1.5078437e-01
 -6.4693975e-01
 -1.3531628e+00
 -7.7278900e-01
 -1.2223442e+00
  8.2513577e-01
 -8.7328017e-02
 -9.2882439e-03
  3.6679471e-01
 -6.4659357e-01
 -7.0697948e-02
 -1.3899646e+00
 -3.6279058e-01
 -6.9329834e-01
  3.2312220e-01
 -5.2028573e-01
 -9.9295944e-02
  2.6553124e-01
 -2.4278805e-01
  1.2907493e+00
 -9.4058536e-02
  7.1291715e-01
 -2.0361887e-01
 -1.0692134e+00
 -9.8224729e-01
 -5.6976132e-02
 -1.4883927e+00
 -9.2560405e-01
 -1.9487450e+00
 -2.0969081e+00
  3.0912988e-02
  7.3922175e-01
 -1.3630747e+00
  1.6672502e+00
 -3.9579421e-01
  2.9921222e-01
 -3.8553563e-01
  1.3300714e+00
 -2.7410612e-03
 -1.1837747e+00
 -2.3835514e-01
 -1.2886590e+00
  3.4224659e-01
 -1.3720465e-01
 -5.3519619e-01
 -2.6873685e-03
  7.3979950e-01
  2.0728204e-02
 -9.1697443e-01
 -1.4339489e+00
 -2.0865262e-01
 -1.4897025e+00
  1.0665159e+00
 -1.1783184e+00
 -4.5209306e-01
 -3.2741332e-01
  1.3325506e-01
  8.4552139e-01
  5.3910959e-01
 -4.0066919e-01
 -1.3730055e+00
  3.4514420e+00
 -5.4226601e-01
 -1.1917950e+00
 -2.1279807e+00
 -1.7371777e-01
 -4.4279048e-01
 -3.6365747e-01
 -3.3814150e-01
 -1.6464202e+00
 -2.4954486e-01
  6.8229514e-01
 -9.0978980e-02
 -5.0276689e-02
  1.7913485e+00
 -9.4763511e-01
 -4.3582514e-01
  8.4841555e-01
 -1.3040404e-01
 -7.9954796e-02
 -1.2513192e-01
 -8.2024318e-01
  8.4268995e-02
  9.8509061e-01
 -4.3216056e-01
 -6.5623981e-01
  5.5897743e-01
  6.9258040e-01
  7.8067613e-01
  7.5099194e-01
 -2.0929557e-01
  5.6198752e-01
 -5.7746983e-01
 -3.3030504e-01
  9.3940638e-02
  2.6945779e-01
 -1.4666034e-02
  3.9043587e-01
 -1.4555594e-01
  9.3639714e-01
 -6.9774246e-01
 -1.8674823e+00
 -1.0239027e-01
  5.3200382e-01
  3.1742778e-01
 -6.7830813e-01
  8.4538674e-01
  1.4001467e+00
  2.0237264e-01
 -2.1184212e-01
 -3.9691955e-01
  8.5639685e-01
  6.5574372e-01
 -5.2714419e-01
 -1.1830614e+00
 -1.3923142e+00
 -3.7439801e-02
  1.2511240e+00
  2.4008845e-01
 -1.0842010e-01
 -5.3557968e-01
 -1.1345314e+00
  2.6339892e-01
  4.1981953e-01
  6.5588242e-01
  1.1020095e+00
 -9.9791998e-01
 -7.2545588e-01
 -3.8674092e-01
  3.0141473e-01
 -3.1713369e-01
  3.9126676e-01
  9.8402351e-02
 -5.0844383e-01
  3.5963553e-01
  8.4803671e-01
 -3.0437720e-01
  2.8640479e-01
  3.9352289e-01
  2.6832676e-01
 -2.6657239e-01
  1.1941297e+00
  1.1328292e-01
 -1.6057029e+00
 -6.9690216e-01
  1.1064471e+00
  1.3082543e-01
  1.6438219e-01
 -3.6745387e-01
 -1.0538667e-01
  8.3497989e-01
 -6.1706209e-01
  1.0472535e-01
  2.2944982e-01
 -4.1418272e-01
 -4.9971986e-01
 -6.8571305e-01
 -4.3126178e-01
  1.6311044e-01
  2.4914497e-01
 -1.3673123e+00
 -5.1460546e-02
  2.7717434e-02
 -5.2186847e-02
  8.7833315e-02
  5.0959748e-01
 -6.3589686e-01
 -2.0266604e+00
 -2.2751924e-01
 -1.0559481e+00
 -1.9771430e+00
  4.6120101e-01
 -1.3632400e+00
 -6.9802284e-01
  2.0601717e-01
 -8.0096483e-01
 -2.8421865e+00
  4.5303404e-01
 -1.5869126e-02
 -6.0514581e-01
  2.9597944e-01
 -1.2862110e+00
 -3.5589913e-01
  1.1937165e+00
 -3.8861699e-02
  1.6830973e-02
  1.8073353e+00
 -8.6385059e-01
 -2.6693648e-01
 -6.6216213e-01
  2.4849036e-01
  9.2727906e-01
  2.1368060e-02
  9.6569884e-01
  1.1360240e+00
 -1.8819675e-01
 -1.9264463e-01
  3.2232511e-01
 -1.8183824e-01
  5.4036267e-02
 -4.3272957e-01
  2.1413383e-01
  1.9763684e-01
  1.3886440e+00
  2.8906083e-01
  2.4720230e+00
 -7.2366595e-01
 -3.3933830e-01
 -6.7505395e-01
 -3.4051016e-01
  4.4513327e-01
  2.3665655e-01
 -6.4057022e-02
  5.9947753e-01
 -3.1542557e-01
  6.4397717e-01
 -8.1612474e-01
  8.0338746e-02
 -5.0483018e-01
  3.1722829e-02
 -2.6927522e-01
 -2.3482816e-01
 -2.9391080e-02
  1.2778391e+00
  1.6331984e+00
 -1.4435086e+00
 -1.4746249e+00
  7.6547194e-01
 -2.3482652e-01
  4.6673506e-02
  1.1715174e+00
 -7.8341854e-01
  5.4942942e-01
  2.9287121e-01
 -8.9762205e-01
  1.8852367e+00
  2.1974199e-02
  4.6947736e-01
  8.1569278e-01
  1.6959786e-01
 -8.5937983e-01
  8.6940372e-01
  5.2483475e-01
  5.4965332e-02
  4.3912530e-03
  3.2185590e-01
  4.7012608e-02
 -7.3454231e-01
  7.7061510e-01
 -1.0706507e+00
 -4.9273953e-01
  2.6100191e-01
  2.3513019e+00
 -9.1155007e-02
 -3.4484115e-01
 -1.3145411e+00
 -8.5642076e-01
  8.2526848e-02
  7.5423610e-01
 -6.4661300e-01
  2.2108340e-01
  1.6453023e-01
  3.0962050e-01
 -6.3878524e-01
 -5.2875972e-01
 -2.5883876e-03
  3.4204897e-01
 -1.7343894e-01
 -2.1055493e-01
 -6.5631884e-01
 -2.9536209e-01
 -3.5383812e-01
  9.9508625e-01
 -2.5724912e-01
  1.5741447e+00
  6.0762733e-01
 -2.3081357e+00
  4.6522620e-01
 -3.4570992e-01
  8.8687265e-01
 -3.1560451e-02
  4.1395605e-01
 -7.4953890e-01
 -4.6710953e-01
  2.3755842e-01
 -7.0139802e-01
  1.2583972e+00
  3.0372849e-01
  2.1116899e-01
  1.8529534e-02
  8.0728635e-02
  9.1313732e-01
  5.3510332e-01
  7.1642548e-01
  2.6945931e-01
 -1.6443293e+00
 -5.4108936e-01
  7.6242095e-01
 -2.7827218e+00
  1.4594418e+00
  5.3563648e-01
  3.0609822e-01
 -1.2022971e-01
  7.1493185e-01
  9.8169565e-01
 -1.7874037e-01
  4.7669727e-01
 -5.3735483e-01
 -1.8358147e+00
 -7.3034179e-01
 -4.3807268e-01
 -8.6133987e-01
  4.4320157e-01
  2.7252998e+00
  9.9500251e-01
 -9.9732101e-01
  3.8595282e-02
 -3.5658893e-01
  7.4085575e-01
 -3.5021905e-02
 -8.4844375e-01
  1.3247802e+00
 -2.0878444e+00
  1.6979448e+00
  8.7072754e-01
 -1.1546574e+00
 -8.8483679e-01
  6.4662457e-01
 -8.2334384e-02
 -4.2108688e-01
 -2.9768562e-01
  8.7216711e-01
 -1.1684299e-02
 -8.9063644e-01
 -5.9298831e-01
 -8.8931215e-01
 -3.2777876e-01
 -1.0367838e+00
 -4.9199876e-01
  6.5283471e-01
 -3.7969348e-01
 -8.8405424e-01
 -2.1123202e-01
  2.1960402e+00
 -1.4614232e+00
 -2.1060917e-01
  9.9332964e-01
  1.2348288e-01
  2.9559344e-01
  1.3918357e-01
  5.0884426e-02
  1.7167696e-01
 -1.5050533e-01
 -3.5697699e-01
 -2.1730770e-01
  5.5297321e-01
 -2.1322052e-01
  2.2966245e-01
 -1.0731778e+00
 -3.9055496e-01
 -8.4986460e-01
  2.1802604e-02
  1.4641609e+00
  6.6702777e-01
  1.1869027e-01
  2.3206520e+00
 -7.5058782e-01
  3.4501927e+00
  1.4427873e-01
 -1.5454361e-01
 -2.8802544e-01
  1.4428137e-02
 -5.1628494e-01
 -2.3113385e-01
  3.2435510e-01
 -8.5176885e-02
  3.3538368e-01
 -1.0422593e-01
 -1.7385855e-02
  6.0353994e-01
  2.6591277e-01
 -1.9010447e+00
 -1.5818773e-01
  4.8909953e-01
  1.7636245e+00
 -9.0124822e-01
  3.1659430e-01
  3.4015465e-01
 -3.2620806e-01
 -7.5251305e-01
 -1.3551258e-01
 -9.1279075e-02
  2.5791883e-01
  2.7560362e-01
  4.5515037e-01
 -1.0170312e+00
 -2.0924641e-01
  6.8689269e-01
  7.4003136e-01
 -3.1099743e-01
 -2.9928428e-01
 -2.4749213e-01
 -5.1513928e-01
  5.9601843e-01
  3.6839125e-01
  2.1544485e-01
 -5.1389450e-01
  9.0031557e-02
 -3.3463538e-01
 -7.9846102e-01
  2.0126501e-01
 -2.1682639e-02
 -2.1888964e-01
  1.3840390e+00
  5.8243948e-01
 -2.2124082e-01
 -5.5056202e-01
 -2.6092054e-02
 -8.0378719e-02
  1.5560238e-01
  3.1791439e+00
  1.2281895e-01
 -1.8117652e+00
  3.5875741e-01
  7.5405288e-01
  1.9825352e+00
 -1.6885686e-01
 -6.3106090e-02
 -1.7757250e-01
 -1.1543068e+00
  2.1997373e+00
 -2.6802477e-01
  1.1949955e+00
 -3.1547135e-01
  2.4063167e-01
 -1.7176292e+00
  1.3330118e-01
 -5.1871896e-02
  1.4295619e+00
 -2.7872088e+00
  6.8924439e-01
 -2.6333970e-01
  9.1890424e-01
 -4.2087263e-01
  6.4337647e-01
 -1.1518395e+00
  1.0513896e+00
 -1.8431807e-01
  1.7011419e-01
  6.0618383e-01
  1.8884763e-01
 -2.4550889e-01
  1.1854672e+00
 -5.0306106e-01
  1.4078033e-01
  3.0118448e-01
 -2.4976170e+00
 -9.8535120e-01
 -1.3207746e-01
 -9.3642908e-01
  1.0599961e+00
  4.0383580e-01
 -5.2539758e-02
  2.5757232e-01
  2.9031649e-01
  3.3967483e-01
 -3.2112882e+00
  3.9664835e-01
 -4.9375641e-01
 -2.3136044e-01
 -6.2722586e-02
  5.2060378e-01
  1.3576007e-01
  8.3724695e-01
 -2.8662694e-01
 -7.6210731e-01
  7.4967742e-02
 -1.4998069e-01
  5.3057921e-01
  8.3480299e-01
  2.9400074e-01
  3.8242143e-01
 -1.9904400e-01
 -1.2362963e-01
  3.3671260e-01
  2.9915375e-01
  1.2302716e+00
 -6.6485524e-01
  6.1635554e-01
  1.6270585e+00
  5.5872196e-01
 -2.1454692e-01
 -2.7610242e-01
 -2.4523893e-01
  2.3386967e-01
 -5.3622174e-01
 -7.1742344e-01
  2.1644680e-01
 -6.5567076e-01
 -1.3976085e+00
  7.7540791e-01
 -1.5247223e+00
 -8.5971391e-01
  5.8577430e-01
  1.1908384e-01
  6.1000282e-01
  1.0810065e-01
  9.3521702e-01
  3.1988223e+00
  5.8628842e-02
 -1.0513484e-02
 -6.3496780e-01
 -4.0018541e-01
  1.0749465e+00
  8.3899546e-01
 -2.2460489e+00
 -2.9177856e-01
  1.3096133e-01
 -2.3215093e-01
 -2.2703047e-01
  1.0988024e+00
 -1.0914291e-01
 -4.8924941e-01
  7.6739453e-02
  4.5499843e-01
  5.1295185e-01
 -3.7341940e-01
  5.8532518e-01
  2.4001181e+00
  1.1438502e+00
  2.2733092e-01
  3.3597121e-01
  2.5995332e-01
 -1.0782801e+00
  1.9224116e+00
  5.7971203e-01
 -8.4499687e-02
  7.0143212e-03
  2.2126204e-01
  7.3849320e-01
 -1.6886872e+00
  4.3966269e-01
 -2.1974605e-01
 -1.0514438e-01
  1.6899340e+00
  2.0619282e-01
  3.0000052e-01
 -5.4912686e-02
  3.1711924e-01
 -1.7457538e+00
  2.3845215e-01
 -5.6273274e-02
  2.0451779e-02
 -5.2986610e-01
  2.9525498e-01
  8.6848652e-01
  2.7432874e-01
 -2.5393763e-01
 -1.1629528e+00
  3.5028252e-01
 -3.9044988e-01
  5.6043732e-01
 -5.8760524e-01
 -1.9915407e+00
  1.1942492e+00
  1.7145795e-01
 -1.4734296e+00
  4.7014463e-01
 -1.6364253e+00
  1.6817443e+00
  8.5439980e-01
  3.5815188e-01
  9.0976751e-01
  1.0824707e-01
 -1.0776829e-01
  9.3022501e-01
  2.4265175e+00
  1.5109150e+00
  7.7707088e-01
  9.4541132e-02
 -8.3222389e-03
  1.4863740e+00
  6.6832882e-01
  1.9776626e-01
  1.0061876e+00
 -7.3101932e-01
 -5.4894871e-01
 -1.2596177e+00
 -3.9420670e-01
  1.5453545e+00
 -2.5812132e+00
 -1.0306290e+00
 -1.3949545e-01
 -1.0565383e+00
 -1.3356707e+00
  1.3675912e-02
 -4.6783832e-01
 -7.4360830e-01
  4.2538965e-01
  6.3640404e-01
  8.8380426e-01
 -9.5451957e-01
  1.6939200e-01
 -7.5072058e-02
 -9.1102231e-01
  1.1467795e+00
 -1.3469795e+00
 -2.4642191e+00
  1.3983210e+00
  2.7187964e-01
 -1.4274120e+00
 -1.7768809e+00
 -1.3003834e+00
 -9.7686535e-01
  2.3263774e+00
  7.6837730e-01
  3.3498403e-01
 -1.2428925e+00
  7.4032521e-01
 -2.8565490e+00
 -1.8352435e+00
 -9.5799649e-01
  1.1085854e+00
 -2.6091337e-01
  5.5717754e-01
 -6.8937671e-01
 -1.6483700e+00
  1.1738875e+00
 -1.7481438e+00
  7.0445585e-01
 -1.4910580e+00
  5.1829040e-01
 -2.0056276e-01
 -2.6254745e-03
  7.6067314e-02
  1.9261687e+00
 -4.5519486e-01
  9.3837285e-01
  2.2167490e+00
  3.8560739e-01
 -1.0682137e+00
 -8.4583950e-01
 -1.3583540e+00
  5.1009619e-01
  1.0698283e-01
 -9.3605214e-01
 -3.6897293e-01
  1.1395961e+00
 -3.0360436e+00
  5.7617849e-01
  1.9590962e+00
  3.1968042e-01
 -1.5746957e+00
 -2.0731809e+00
 -2.0770127e-01
  4.7767016e-01
  4.6756026e-01
 -4.2591107e-01
 -3.8862026e-01
  7.7813059e-01
  4.3264878e-01
  8.8721827e-02
  7.4912465e-01
 -1.9345397e-01
 -1.9361486e+00
 -3.8856834e-02
  1.3252122e+00
  9.5678550e-01
  6.2673301e-02
  6.0712135e-01
  6.8687195e-01
  7.8898031e-01
  2.7151227e-01
  4.8390809e-01
  1.2259557e+00
  8.4393388e-01
 -9.0959030e-01
 -2.7402477e+00
 -8.0091029e-01
 -2.2336003e-01
  2.6431861e+00
  5.8448380e-01
 -1.0015098e+00
  9.8469037e-01
  3.9657533e-02
 -1.0945822e+00
 -8.1578028e-01
  1.5157393e+00
  2.3298684e-01
 -4.1926348e-01
 -9.5134455e-01
  2.7845412e-01
  4.2675892e-01
 -8.0236262e-01
  6.8718016e-02
  4.7176710e-01
  7.5192526e-02
 -1.6119115e-01
  6.7979656e-02
  9.0177286e-01
  8.5235232e-01
  3.3490959e-01
  1.9660356e+00
  3.5283556e+00
  2.1638162e+00
  1.3585489e+00
 -7.7883208e-01
  9.4464296e-01
 -3.4060772e-03
 -3.9197364e-01
  1.2424382e+00
 -8.0114359e-01
 -1.0709695e+00
 -6.4121699e-01
 -6.3391298e-02
  1.5353310e+00
 -9.1645753e-01
  9.5398039e-01
  3.5740511e+00
  5.8212185e-01
  5.2023858e-01
  2.6903304e-01
  1.9651625e+00
  1.4068420e+00
  8.3047056e-01
  3.3421326e-01
 -2.5375265e-01
 -2.0177109e+00
 -1.8362840e+00
 -4.6666443e-01
  1.2983061e+00
 -1.3085569e+00
 -1.4130502e+00
 -4.7490078e-01
  9.1516799e-01
  1.5555212e-01
 -2.4162393e+00
  1.7113206e+00
 -9.4407523e-01
  1.1974609e+00
 -1.4542194e-01
 -2.5209725e-01
 -9.5524383e-01
 -2.6733959e-01
 -1.7085071e+00
 -6.7125875e-01
  6.8564601e-02
 -2.7086668e-02
 -1.1164912e+00
  5.3317994e-01
  2.2768034e-01
  3.3739451e-01
  1.0457732e-01
  9.7315872e-01
 -2.6919842e+00
  7.6897061e-01
 -1.0392532e+00
  1.9601956e-01
 -1.6175212e+00
 -8.6336493e-01
 -5.0740027e-01
  1.4414233e+00
  2.1969676e+00
  4.1453889e-01
 -2.4698691e-01
  4.5531020e-01
  4.5257720e-01
 -2.5315407e-01
 -1.1865635e+00
 -2.6715213e-01
 -8.2133555e-01
 -5.4852372e-01
 -6.7083496e-01
  3.5456365e-01
 -1.7927518e-01
 -5.3941399e-01
  9.6268281e-02
  3.8187477e-01
  8.6525761e-02
  1.0989115e-01
  2.1156121e-02
  1.9900799e-03
 -1.1833888e-01
  4.6815194e-02
  1.2190889e+00
 -1.1340104e-01
 -7.8809267e-01
  1.2214447e+00
  4.8851371e-02
 -7.2931314e-01
  1.2963378e+00
 -7.4213821e-01
  6.6623551e-01
  2.9584885e-01
 -2.1591895e+00
 -2.0209947e+00
 -1.2291561e+00
  2.8265828e-01
  3.8645434e-01
  5.4034424e-01
 -6.7299712e-01
 -9.1268086e-01
  4.4471353e-02
  6.3544255e-01
 -2.4542756e+00
 -5.6932402e-01
  4.5725554e-02
  2.6540315e-01
 -1.4542398e+00
  5.8300489e-01
 -6.4977551e-01
 -7.0571023e-01
 -1.3398826e+00
 -9.7917855e-02
  3.2683659e-01
  9.7548831e-01
 -4.3091670e-01
  4.1835833e-01
 -5.9637702e-01
 -4.2183965e-02
  1.8047813e-01
 -1.8674968e+00
  1.5817474e-01
 -7.7345151e-01
 -2.4479924e-01
 -8.9932688e-02
  5.1230502e-01
 -2.5068781e+00
 -2.6433966e-01
 -1.1608889e+00
 -5.6345213e-02
 -5.9283972e-01
 -4.8356235e-01
 -1.8227814e+00
  7.3726857e-01
 -3.3556268e-01
  1.1490035e+00
  7.3488593e-01
 -1.0250510e+00
  7.8910244e-01
  1.6023947e+00
  1.8347070e+00
 -1.1458931e+00
  1.3298225e+00
  2.1027960e-02
 -1.7079769e+00
  2.5887981e-02
  9.6148878e-01
  6.9178289e-01
 -2.4693072e-01
 -1.0967097e+00
  6.0353249e-01
 -2.4466064e+00
  1.5133315e-01
 -1.5250802e-01
 -3.1338951e-01
 -6.6035390e-03
 -2.5773069e-01
  3.9914393e-01
  5.2455574e-01
 -2.5526410e-01
 -4.1985872e-01
  1.5262182e+00
  1.4341851e-01
  1.6635998e+00
  1.9597707e+00
 -1.0428467e+00
  3.9023004e-02
  2.0123479e+00
 -7.1321213e-01
 -1.0824382e+00
  1.4992304e+00
  1.6690478e+00
  3.3072922e-01
 -3.8319486e-01
  3.5270199e-01
  4.5952076e-01
 -2.4350905e-01
 -1.3923927e-01
 -7.0876747e-01
 -1.3186936e+00
  2.6038447e-01
 -6.1641967e-01
  3.0312878e-01
 -2.7985969e+00
 -2.1350589e+00
 -1.9401093e+00
  6.1592472e-01
  3.8687745e-01
 -2.6929781e-02
  8.6115992e-01
 -3.4193671e-01
 -3.4754282e-01
  3.1356263e+00
  1.1675388e+00
  9.0006477e-01
 -1.9718955e-01
 -8.3745003e-01
  9.8081368e-01
 -8.4064400e-01
 -3.7936860e-01
 -2.7200432e+00
 -1.2318820e+00
  1.8489977e+00
 -6.3471600e-02
  1.6401900e+00
  1.2182924e+00
  1.0815381e+00
  1.7181829e-01
  3.3991107e-01
  2.4124041e+00
  5.4316962e-01
 -8.2518363e-01
  6.7750531e-01
  9.4813269e-01
 -3.5323766e-01
 -3.5497230e-01
  8.8773930e-01
 -9.1864958e-02
 -4.4045776e-02
 -5.6686848e-02
  1.7445830e-01
  1.7445830e-01
  1.7445830e-01
  1.7445830e-01
  1.7445830e-01
  3.1867156e+00
  3.1867156e+00
  3.1867156e+00
  3.1867156e+00
  3.1867156e+00
  1.6190683e+00
  1.6190683e+00
  1.6190683e+00
  1.6190683e+00
  1.6190683e+00
  6.9877112e-01
  6.9877112e-01
  6.9877112e-01
  6.9877112e-01
  6.9877112e-01
  2.2210346e-01
  2.2210346e-01
  2.2210346e-01
  2.2210346e-01
  2.2210346e-01
  9.7094412e+00
  9.7094412e+00
  9.7094412e+00
  9.7094412e+00
  9.7094412e+00
