nep4_polarizability 2 O H 
cutoff 6 4 109 39
n_max 6 6
basis_size 10 10
l_max 4 2 1
ANN 10 0
 -7.4265373e-01
  6.9279343e-02
 -1.0869399e+00
  6.8367237e-01
 -5.4099560e-01
 -1.3780807e+00
 -1.0271833e+00
  5.7747203e-01
  2.1377115e-01
  4.6139988e-01
 -2.6544428e-01
  2.8376931e-02
  7.7696145e-01
  7.9333717e-03
  5.1004303e-01
  1.1133333e-01
  3.5350779e-01
  4.8219073e-01
 -5.1414770e-01
  4.7207913e-01
  1.9544853e-01
  6.0451323e-01
  3.7880418e-01
  7.1691644e-01
 -2.0013255e-01
 -5.1891975e-02
  3.1665348e-02
  1.8450578e-01
  2.9091156e-01
  3.5490504e-01
  8.4144562e-02
 -1.7610003e-01
 -1.5447299e-01
  4.7304341e-01
  5.1045388e-01
  1.8827441e-01
 -1.4449912e-01
 -3.0346859e-01
  3.9814919e-01
  1.0876976e-01
  9.6948899e-02
 -1.0905218e+00
  4.7211293e-02
 -3.9615750e-01
  3.1544465e-01
 -2.9964976e-02
  1.5650329e-01
 -1.7745243e-01
  3.9936647e-01
 -1.6529799e-01
  1.5034352e-01
  3.8499281e-01
  6.8259388e-01
  6.8826146e-02
  1.7150576e-01
  6.0165841e-02
 -4.4812161e-02
 -1.5103127e-01
  6.7352451e-02
  9.5500104e-02
  7.6291291e-04
 -2.4174342e-01
 -4.0080449e-01
  1.5067898e-01
 -8.9934856e-02
  7.4601904e-02
  1.7607077e-03
  5.5256017e-02
 -1.2983613e+00
  5.3687376e-01
 -3.8958478e-01
  2.3280377e-02
  3.7113631e-01
 -3.5272452e-01
  6.1886978e-01
 -1.6183075e-01
 -3.3631122e-01
 -3.5443777e-01
 -2.2484562e-01
 -4.3287173e-01
 -3.7262481e-02
  1.0931338e-01
 -3.5963428e-01
 -2.1123151e-01
 -4.0648416e-02
 -3.2293278e-01
  1.8912731e-01
  8.8184930e-02
 -4.8866076e-03
 -3.1013820e-01
  3.8678180e-02
  3.2431525e-01
 -4.2704649e-02
 -2.5072852e-01
  5.4246411e-03
 -3.5026622e-01
  3.8889083e-01
 -4.9147751e-02
  1.2210143e-01
 -2.1130063e-02
 -1.7126398e-01
  1.2546143e-01
  2.1970140e-02
  2.3944020e-01
 -8.9448057e-02
  4.1303486e-01
 -8.7629572e-02
  1.5005806e-01
  6.7630343e-02
  1.6041015e-01
  2.0626168e-01
  9.8952591e-02
  2.8091154e-01
  2.9129592e-01
  1.4466622e-02
 -2.0012085e-01
  2.0006894e-01
 -1.2386772e-01
 -1.4881572e-01
  2.3017131e-02
 -1.4005546e-01
 -2.7082223e-01
 -5.1648271e-01
 -6.6786945e-01
 -2.3398113e-01
 -1.0050923e-01
  1.2085845e-01
 -1.4600663e-01
 -9.0073571e-02
 -1.5132700e-01
  2.0853311e-01
 -5.1874167e-01
  1.5441684e-01
  4.1287962e-02
  4.0082490e-01
  2.7627039e-01
  2.4615807e-02
  8.0444992e-02
  1.1863960e-01
  6.6911973e-02
 -6.0418583e-02
  5.1758561e-02
  3.4304926e-01
  8.0155855e-01
 -9.6239559e-02
  3.3772215e-02
  1.7624363e-01
 -9.3890649e-01
  3.6021078e-01
  6.6356701e-01
  4.4797349e-01
  2.0225840e-02
 -1.0343256e+00
 -4.4613436e-01
 -3.7777117e-01
 -9.6472017e-02
 -8.5368283e-02
 -2.8504172e-01
 -6.2173474e-01
  3.4208852e-01
  6.4772898e-01
  2.2098099e-01
 -8.6393911e-01
  8.0431290e-02
 -3.1456351e-01
 -7.2605270e-01
 -6.2159497e-01
  2.7630553e-01
  1.8365431e-01
 -1.4746296e-01
 -2.1994038e-01
 -7.4646443e-02
 -4.4002816e-02
 -1.0039339e+00
  3.8447419e-01
 -9.4058938e-02
  6.2938917e-01
 -7.5863487e-01
  4.0873456e-01
 -2.5039381e-01
 -6.1414842e-02
  2.9863843e-01
 -3.3787284e-02
  1.9268605e-03
  4.6523724e-02
 -5.5823069e-02
 -3.9147067e-01
  8.1466985e-01
  3.4028763e-01
 -2.1171074e-01
 -5.1977402e-01
 -1.5239619e-01
  2.4376789e-01
 -4.8382542e-01
 -2.4585297e-02
  8.5871615e-02
  2.2433365e-03
  8.8500029e-01
 -2.8230427e-02
 -1.9545423e-02
 -1.9734865e-01
  3.6098599e-02
  5.2768350e-01
  8.8039646e-03
 -6.7043580e-02
 -1.2838647e-01
 -1.4097884e-01
 -6.8476789e-02
 -3.0064154e-01
 -3.6128852e-01
  9.5290758e-02
  4.3391604e-02
 -7.2688147e-02
 -5.4057349e-02
 -1.3522702e-01
 -1.3384558e-01
  9.5198438e-02
 -3.0646658e-01
  1.8714333e-01
 -2.7237043e-03
  1.6322321e+00
  7.0972189e-02
  1.7643310e-01
 -9.4229905e-03
 -4.2396185e-01
 -5.6659544e-01
 -1.3471635e-01
  7.5659759e-02
  5.9145039e-01
 -3.3501801e-01
  6.1904851e-02
  1.1085624e-01
  9.0837991e-03
  2.2465754e-02
  4.7016907e-02
  4.2482686e-01
  2.0834312e-01
  1.0227989e+00
  3.8774115e-01
 -3.7139040e-01
 -1.1976597e-01
  2.7246324e-02
  1.8132060e+00
 -1.2843128e-01
  2.1734608e-03
 -8.6968124e-01
 -1.9986731e-01
  1.8016595e+00
 -2.8149199e-01
  7.0216221e-01
  8.8468093e-01
  5.0324321e-01
  8.5889971e-01
  6.7588575e-02
 -4.2382848e-01
  7.0616141e-02
 -2.4674183e-02
  2.1127640e-01
 -1.4259899e-01
 -7.0854700e-01
 -2.9022521e-01
  4.6302462e-01
  7.2356323e-03
  1.0417306e+00
 -6.1374355e-02
 -1.2833074e-01
  8.8245913e-02
 -5.6661075e-01
  1.6122477e-01
 -2.8188145e-01
  3.6916965e-01
  5.9727168e-01
 -1.8368237e-02
  3.0582482e-01
 -9.1437675e-02
  2.8980887e-01
  9.6305482e-02
 -1.4839685e-01
 -3.1009721e-02
 -1.0166092e-01
  1.7301372e-01
  4.1501483e-01
 -1.8933167e-01
  2.8024170e-01
 -3.5055436e-02
 -4.9064606e-01
  2.6308095e-01
  1.1187939e-01
 -3.5896218e-01
  1.7204155e-01
  9.5871620e-02
  3.9444613e-01
 -8.5780597e-01
 -4.7537394e-02
 -1.6179042e-01
 -7.8986757e-02
 -4.5996480e-02
  1.7185289e-02
 -9.6135609e-02
  2.4373522e-01
 -7.4514186e-01
  7.5411119e-02
  1.7604558e-01
 -4.5031109e-01
  1.0282522e-01
  4.9623403e-01
  1.5748085e-01
 -4.6675269e-02
 -8.7523479e-03
  6.2104630e-01
  5.3225968e-02
 -2.6126266e-01
 -1.5224834e-01
  4.4811111e-02
  2.0793600e-01
  2.2644687e-01
 -3.1516629e-01
 -4.6789157e-01
 -2.5169814e-01
  4.9288991e-01
  4.5475829e-02
  4.5813542e-02
 -8.2976390e-03
 -1.9241640e-01
  3.6231257e-02
 -5.0844228e-01
 -1.9974399e-01
 -7.6909220e-01
 -2.5607061e-01
 -6.4038061e-02
 -6.8510465e-02
  9.4615780e-02
  1.3049955e-02
 -1.9366540e-02
 -1.1809011e-01
  1.6181810e-02
 -4.6990294e-02
  2.6974079e-01
  1.2361498e+00
 -2.1108685e-01
  1.0895150e-01
 -1.7372611e-01
 -4.6222973e-01
  1.2070201e-01
  3.3266097e-01
  4.6144035e-01
 -5.7948917e-01
 -7.8292876e-02
 -1.0081854e-02
 -3.7816852e-01
 -9.2954762e-02
  1.8456848e-01
  9.6668363e-02
 -1.5222426e-02
 -1.3370152e-01
 -4.5100087e-01
 -3.0628828e-02
 -1.5986526e-01
 -3.9508295e-01
  3.1564251e-02
  8.7295383e-01
  3.8787645e-01
 -9.5293576e-01
  1.2110134e-01
  1.4709426e-01
  8.9987084e-02
 -5.6262896e-03
  2.6952585e-02
  1.4240649e-01
 -2.8999072e-01
 -1.4716391e-01
  2.3397261e-02
 -1.3422449e-01
 -4.6130512e-02
 -4.3530890e-01
  1.6499817e-01
 -8.0550897e-01
  2.1506561e-01
 -1.7758149e-01
 -1.6700397e-01
 -4.9425006e-02
  2.7924987e-02
 -2.3673949e-01
  3.9287204e-01
  9.3535513e-02
  6.2103341e-03
 -1.1252905e-01
 -1.4314294e-01
 -2.8239560e-01
 -1.3207850e-01
 -1.3657628e+00
  5.3112757e-01
 -3.9556897e-01
 -8.8357437e-01
  9.6696979e-01
 -1.3427047e-01
  1.0949705e+00
 -5.3958899e-01
  3.3285955e-01
 -3.1463465e-01
 -3.9573874e-02
  6.9147110e-01
  1.2546502e-01
  3.8560978e-01
  9.5645465e-02
  1.5347415e+00
 -1.4289503e-01
 -2.9381070e-01
 -3.5590646e-01
  4.0405622e-01
  5.8645356e-01
 -1.9631222e-02
 -5.0675100e-01
 -4.3531877e-01
 -2.8497943e-01
 -2.0560570e-02
  5.8637667e-01
  9.1628116e-01
 -1.3402195e-01
  1.2927914e-02
  5.9866797e-02
 -1.6981001e-01
 -2.0520385e-01
  5.5634212e-02
  4.4652024e-01
 -7.2356206e-01
 -1.4592364e-01
  4.5151278e-01
  2.0817718e-01
 -2.8260988e-01
 -6.2444825e-02
 -5.1433589e-02
  9.7452499e-02
  1.2436251e-01
  2.7214131e-01
  6.7678668e-02
 -1.4709557e-02
 -3.7584320e-01
  5.7314777e-01
  4.3970291e-02
  1.4377141e-01
 -2.7742189e-01
  7.0793577e-02
 -7.9758251e-01
 -5.1735204e-01
 -2.6202366e-01
 -1.1182221e+00
 -7.4186480e-01
  2.5124484e-01
  5.9178691e-02
 -2.0609426e-01
  9.3815289e-02
 -3.1187823e-01
  4.8529044e-02
  1.3259740e-01
  8.1031245e-01
 -7.7723451e-02
  3.6205512e-01
  1.2607077e-02
  9.5736021e-01
  1.0786742e+00
  9.9400246e-01
  7.3415774e-01
  6.2854761e-01
  2.4050912e-01
 -2.5482515e-02
 -7.8124972e-03
  1.4880550e+00
 -3.6795336e-01
  4.4558120e-01
  5.2577727e-02
  7.7146196e-01
 -2.9715067e-01
  5.4229837e-02
  2.4000889e-01
 -4.4440722e-01
 -2.5565967e-02
  1.6670443e-01
 -7.2979435e-02
  1.1604944e-01
  4.1564316e-01
 -1.0786345e-01
 -5.0998390e-01
 -3.5034500e-02
  3.9523181e-02
 -2.0522511e-02
  1.7439869e-01
  2.4126858e-01
  4.0803871e-01
  2.0187974e-01
 -1.0358782e-01
 -4.6736518e-01
 -7.6240174e-02
  6.8420613e-01
  2.0965929e-01
  6.2294185e-01
  1.4603136e+00
 -7.3016763e-01
 -2.2633630e-01
  4.1136032e-01
 -1.2884047e+00
  3.3408254e-02
 -2.4646256e-02
  2.1437104e-01
  1.5064082e-01
  5.7546866e-01
 -4.6505925e-01
  2.9050255e-01
  1.0247344e+00
 -1.4619235e+00
  8.1202418e-02
  2.7967849e-01
 -1.3936301e-01
 -5.6098931e-02
 -1.2009560e-01
 -4.0306813e-01
 -1.1289885e-02
  7.8325067e-04
  4.6424372e-03
 -9.0071395e-02
  3.4253087e-02
  2.3158419e-01
 -4.9674213e-01
  4.4388798e-01
  5.1786304e-01
 -8.3641261e-02
 -1.5584934e-02
 -1.1698936e-01
  3.0094383e-03
  5.2784669e-01
 -3.6144249e-02
 -5.4714445e-02
 -7.2596663e-01
  2.7422315e-01
  2.3523927e-01
  3.2335970e-01
  3.0600303e-01
 -1.0617269e-01
 -2.6680800e-01
  4.9017061e-02
 -1.5031867e-01
  3.5443094e-01
 -5.7458032e-02
 -7.0989631e-02
 -8.4728740e-02
 -2.2135976e-01
 -1.3419574e-01
 -9.7621992e-02
 -2.9653320e-01
 -9.5569678e-02
  3.9081836e-01
  3.0955157e-01
  9.1469362e-02
 -3.3640504e-02
  6.0913239e-02
 -1.2179436e-01
 -1.3510727e+00
  7.0232183e-01
  3.3158427e-01
 -1.8147139e-01
  2.4797605e-01
  2.3161131e-03
 -1.3826565e-01
 -2.1763335e-01
 -3.6851415e-01
 -3.2314560e-01
  4.0297844e-02
  7.4162669e-02
 -6.0148066e-01
 -1.3956210e-01
  1.0279874e-01
  3.3652908e-01
  2.3741629e-02
  3.0367896e-02
  2.0302797e-02
 -6.7710094e-02
 -3.2146886e-02
 -3.6626168e-02
  4.5698494e-02
  1.9743019e-01
 -1.6265278e-01
  1.0533150e-01
  6.8766311e-02
 -1.5716615e-01
  1.1669046e-01
  2.0951383e-01
  2.7702065e-02
 -2.1820590e-02
  1.1998188e-02
  1.3049130e-01
  9.4329789e-02
  4.5012140e-01
 -5.8408719e-02
  1.1606944e-01
 -7.2114401e-02
 -5.3855661e-02
 -3.8732612e-01
 -2.0304051e-01
  1.2201232e-01
 -1.0564909e-01
 -1.9992270e-01
 -3.8185656e-01
 -1.3903649e-01
 -2.3186443e-02
 -7.9043530e-02
 -3.8155091e-01
 -1.0553436e+00
 -8.9301012e-02
 -3.3399865e-02
  2.0191871e-01
  2.6945500e-02
  4.3056241e-01
  1.8089700e-01
  2.0197970e-01
 -3.5041714e-01
 -5.7795191e-01
  1.1343595e-01
  1.8452926e-01
  1.7644475e-01
 -2.4671216e-01
 -2.3843221e-01
  2.4745601e-01
 -2.7052311e-02
  1.7881167e-01
 -3.0118585e-01
  4.8256385e-01
  1.2454593e-01
  8.3257426e-03
  4.2251754e-01
 -6.3671302e-03
  1.3945238e-01
 -3.6135596e-01
  3.3620116e-01
 -4.7815707e-01
  1.2457570e-01
 -2.1347907e-01
  3.3313364e-01
  9.2709827e-04
 -9.0173967e-02
  2.3099538e-02
  3.4566399e-01
  1.2801409e-01
 -3.1114125e-01
 -4.1396302e-01
  2.7204114e-01
  1.2881874e-01
  3.9322308e-01
 -2.5162831e-01
  8.3899461e-02
  2.3607260e-01
  2.9252610e-01
  1.5830038e-01
  5.7018656e-01
 -5.8582157e-02
 -9.7073668e-01
 -4.0848547e-01
 -9.9963605e-02
 -8.7324387e-01
  9.6023537e-02
 -2.0932746e-01
 -3.3719346e-01
  4.1022830e-02
  8.2760103e-02
  4.3185517e-02
 -6.5431066e-02
  2.4681036e-01
 -3.5440716e-01
  5.9080210e-02
  2.7581695e-01
  1.2924004e-01
 -5.4020023e-01
 -3.5210740e-02
  2.4671388e-01
  3.3515323e-02
  3.7912481e-02
 -3.2677734e-01
  2.1966524e-01
 -1.7487502e-02
 -4.1371703e-01
 -2.1549541e-01
  3.8202974e-01
 -4.1706142e-01
 -2.1785334e-01
 -5.6772178e-01
  1.8517895e-01
 -7.0090437e-01
 -1.1219652e-01
 -2.0253412e-01
  1.9744487e-01
 -3.5062695e-01
 -2.3273820e-01
 -1.1738484e+00
 -2.1326441e-02
  9.8756708e-02
 -4.7649574e-03
 -1.0680510e-01
 -5.6657467e-02
  1.0794751e-01
  5.6415305e-02
 -5.1778799e-01
 -4.4115182e-02
 -1.6374126e-01
  3.8786959e-02
 -1.7301333e-01
 -7.9155415e-02
 -1.7654587e-01
  1.6072728e-01
 -6.0890187e-02
  1.5859675e-01
  6.6273369e-02
  5.4930825e-02
 -3.5530549e-02
 -1.0268012e-01
 -3.8255584e-01
 -1.3140965e-01
 -1.6231468e-01
 -3.3299798e-01
  1.5001942e-01
 -5.1754646e-02
 -9.2645675e-02
  1.9398335e-01
 -1.1535813e-02
  4.9629632e-02
 -4.4172071e-02
 -6.4413883e-02
 -9.6269697e-01
 -3.7925965e-01
  9.5339812e-02
 -2.4083161e-03
 -2.2941795e-01
  5.6483090e-01
 -1.7915265e-01
  1.1809020e-01
 -3.7995532e-01
  5.0553452e-02
  2.8045524e-02
  8.5600808e-02
  1.9250308e-01
 -6.6303313e-01
  6.7286509e-01
  1.7758161e-01
 -2.4299677e-02
  2.6873425e-02
 -8.1591189e-02
  4.1508368e-01
 -3.1200242e-01
  6.5242149e-02
  1.4667992e-02
 -1.1512393e-01
  7.7610552e-02
 -3.4833217e-01
  5.8858644e-02
 -2.4837928e-01
 -1.3096069e-01
 -1.3377579e-01
  2.3642613e-01
 -6.4507431e-01
 -9.1489479e-02
 -4.1392513e-02
 -3.4762299e-01
 -7.9677952e-03
  1.5990144e-01
  6.6348247e-02
 -1.9876710e-01
 -4.5092186e-01
 -4.2762604e-01
 -7.2593935e-02
 -8.0108052e-01
  2.2476587e-01
  2.2910304e-01
  1.0063057e-01
  6.6399008e-02
 -2.8329372e-01
  1.3533388e-01
  4.0594825e-01
 -5.1577885e-02
  6.6071756e-02
  3.1133166e-01
 -2.4435064e-03
 -1.8647034e-01
 -3.3130610e-01
  1.9295784e-03
  1.1824456e-01
 -1.1690280e-01
 -1.3194501e-01
 -4.5803867e-02
 -3.7882763e-01
 -3.9198560e-01
  1.5103188e-01
  2.7520344e-01
  1.7484188e-01
 -7.4049324e-02
  2.4636886e-01
  1.3432100e-01
  2.2244723e-01
  5.6138498e-01
 -3.9705816e-01
  6.3525185e-02
  3.3890298e-01
 -3.8460374e-01
 -9.9526502e-02
  7.5269796e-02
  1.3314561e+00
 -8.5416116e-02
 -3.8754880e-02
  9.5234379e-02
  2.8635505e-01
  1.6764167e-01
  6.0082454e-04
  1.2672180e-01
  4.6597618e-01
  8.3985442e-01
 -3.3897877e-01
  3.9713331e-02
  3.4401137e-01
  1.1343621e-01
 -1.3223838e-02
  3.1817544e-01
 -6.9973506e-02
 -2.1671441e-01
 -7.8380561e-01
 -3.9186612e-02
  3.1020710e-02
 -1.2182791e-02
  2.0222966e-01
 -3.4580588e-01
  2.1627016e-01
  4.4637758e-02
  2.0254119e-03
  1.2389753e-01
  1.6523777e-01
 -2.6527560e-01
  4.2049858e-01
 -2.6621035e-01
  4.6674892e-02
  3.4219021e-01
 -3.0197620e-01
 -4.0342790e-01
  1.6564934e-01
 -3.2807734e-02
  1.7312810e-01
 -2.1037123e-01
 -2.8921932e-01
 -1.3375281e-01
 -6.8130203e-02
 -5.1293150e-03
  1.5414594e-01
  3.1884858e-01
 -2.2044064e-02
  5.2656237e-02
  4.4816639e-02
  5.8712339e-01
  2.0662287e-01
 -2.0177688e-01
  4.7157377e-01
 -7.5230757e-03
  8.8212036e-02
  2.2478203e-01
  2.1275058e-01
  2.9536751e-01
 -2.4571888e-01
 -1.0584516e-01
  4.5472947e-01
  2.8281851e-02
 -1.0189556e-01
 -3.4862837e-01
 -3.2258125e-03
 -1.3520402e-01
  3.7762812e-01
  1.2019727e-01
 -1.8735817e-01
  2.2046451e-01
  1.0647787e-01
 -5.4578239e-01
  5.4835300e-03
 -3.6211795e-01
 -9.9818021e-02
 -1.2313574e-02
  3.4258255e-01
  4.9043249e-02
  1.3662000e-01
  5.9757467e-02
 -2.7279088e-01
 -2.6273736e-01
 -3.6290649e-01
  1.8680532e-02
 -5.1305309e-02
  7.1482581e-01
 -4.3147859e-01
 -3.5686004e-01
 -6.3068926e-01
 -1.6817899e-01
  5.5408187e-02
 -3.9732754e-01
 -5.0094873e-02
 -2.0742270e-01
  2.8727061e-01
 -1.4776035e-01
  4.5748930e-03
 -1.7592071e-01
  3.8093480e-01
 -4.9804965e-01
 -1.0182188e-01
  1.0749580e-03
  3.5964008e-02
 -1.4290199e-01
  8.4521621e-02
 -5.9996128e-02
 -1.1526232e-02
 -2.0495275e-01
  5.3801173e-01
 -2.0374706e-02
 -4.5742966e-02
 -2.2707960e-01
  4.6233952e-02
 -1.2766917e-01
  2.2374415e-01
  3.2244846e-01
 -1.8438439e-01
 -7.3090822e-02
 -1.6812925e-01
  3.4651700e-02
 -3.1717774e-01
  7.0684138e-03
 -4.0374983e-02
  1.8584105e-01
 -1.9969971e-01
 -1.6792935e-01
  1.3835979e-01
  1.1285897e-01
  7.1979232e-02
  1.0236523e-01
 -4.7825906e-02
 -8.0788746e-02
  2.0000929e-01
  9.2480220e-02
 -1.9976099e-01
  3.3402139e-01
  2.7503902e-01
 -1.5551879e-01
  1.1491781e-01
  2.7127138e-01
  4.7022279e-02
 -3.0643883e-01
 -9.5376045e-01
 -1.6368474e-01
 -5.0745142e-01
  2.5793567e-01
 -2.4875689e-01
 -2.6992556e-01
  9.3031846e-02
 -6.5256584e-01
 -1.7013745e-02
 -6.0314786e-02
 -1.0849446e+00
 -4.5923004e-01
  2.0749453e-02
  2.7415636e-01
 -1.4394397e-01
 -2.9913199e-01
 -3.9683846e-01
 -1.6752677e-01
  2.3867780e-01
  6.7251158e-01
 -2.0971307e-01
  1.4383757e-02
 -4.5184553e-02
  3.1187177e-01
 -7.5550720e-02
  7.2350253e-05
  2.4631906e-01
 -1.1268553e-03
  3.2259297e-01
  1.3969330e-01
 -5.5112977e-02
  4.0942464e-02
  9.1169991e-02
  1.5503305e-02
 -7.2815549e-01
 -1.1455470e-01
  6.8333380e-02
  2.6263201e-01
  2.1789370e-01
  1.4628518e-01
 -2.6571238e-02
  1.6469125e-01
  7.4778058e-02
 -3.0203652e-01
  1.7270067e-01
  4.9894196e-01
 -5.6288570e-02
 -8.7893181e-02
  2.1674512e-03
  1.6911413e-01
 -1.2123103e-01
  3.1046882e-01
 -5.2918151e-02
  2.1078778e-02
  5.6512100e-03
 -1.0562140e-01
  2.0119354e-01
 -3.8211948e-01
 -1.3444060e-01
  6.9745994e-01
 -1.7568690e-01
 -1.2064483e+00
  8.7831616e-02
  1.2078744e+00
 -3.6181533e-01
 -3.9341363e-01
 -1.3527412e-02
 -1.9466490e-04
 -1.8574653e-02
 -1.8801806e-02
  4.7975578e-03
 -2.2412673e-01
 -1.5170081e-03
  5.3739194e-02
 -1.1105477e-02
  4.4107432e-03
  6.7938185e-01
  2.4364570e-01
  1.4425769e-01
 -3.0068806e-01
  2.4552122e-01
 -7.9031987e-03
  7.0545894e-01
 -1.9996770e-01
 -7.1250960e-02
  3.0931610e-01
  3.6513671e-01
  8.5245714e-02
 -9.6110217e-02
 -1.6749945e-01
  1.4217776e-01
 -3.6795352e-02
  9.6927740e-02
 -2.2875179e-01
  3.4640953e-01
 -1.2866664e-01
 -3.5605367e-02
 -6.4350605e-01
 -2.5233496e-02
  1.0433677e-01
  2.9978800e-01
 -3.8191414e-01
  4.6188708e-02
 -2.2830269e-01
 -2.0069214e-02
 -5.6132335e-02
 -1.6714670e-01
 -1.4800818e-01
  4.0967241e-02
 -6.0296571e-01
 -4.8412144e-01
 -2.9076400e-01
  5.8320139e-02
 -1.7754778e-01
  1.3531485e-01
 -3.6591222e-03
 -1.9827785e-01
 -1.3814427e-01
  3.5549462e-01
  6.1853364e-02
 -7.6569803e-02
  9.7853854e-02
 -2.3722531e-01
 -6.2036213e-02
 -6.7479110e-01
  3.0731213e-01
  1.9962242e-01
 -6.1240280e-01
  6.3134871e-02
  1.6170517e-01
  1.0264949e+00
 -7.9852653e-01
 -9.5244879e-01
  5.3525385e-02
  2.0459001e-01
  2.3136070e-01
  2.6261544e-01
 -6.2559021e-01
 -8.9765275e-01
 -3.3527216e-01
 -4.3165150e-01
  1.7274025e-01
  2.0817570e-02
 -5.9204150e-02
 -7.0896196e-01
 -1.2658539e-01
 -2.3370647e-01
 -3.3980213e-02
 -1.7282443e-02
 -4.1327083e-01
 -5.4028398e-01
 -7.8411591e-01
 -1.7254880e-01
 -2.6325542e-01
 -1.0364495e-01
  3.6871383e-01
 -3.8656723e-01
 -1.2867528e-01
 -3.9171633e-01
 -4.4397429e-02
 -4.2601004e-01
 -1.4161032e-01
  1.0484342e-01
 -6.9788568e-02
  1.2411882e+00
  3.0471453e-01
 -1.3948840e-01
  2.9052165e-01
  3.0476010e-01
  9.3101107e-02
 -2.3875178e-01
  3.3303061e-01
 -4.1448578e-02
 -7.1977101e-02
 -9.4078168e-02
  2.3592609e-01
  1.2620201e+00
 -3.4499785e-01
  4.5859006e-01
 -4.2472869e-02
 -9.0052798e-02
 -5.8157772e-02
 -2.2490744e-01
  5.4805715e-02
 -1.1643921e-01
 -1.6373318e+00
  3.1108376e-01
 -1.0907998e-01
 -2.7147245e-01
 -3.2032050e-02
 -4.5392597e-01
  4.3947959e-01
 -4.2731190e-01
  5.9324312e-01
 -1.0056610e-01
  4.9896696e-01
  1.6162722e-01
  2.5134867e-01
  3.8164327e-01
  1.0451168e-01
  2.7292424e-01
  8.6793259e-02
  8.5572341e-05
 -7.3761478e-02
  2.0285872e-01
  3.1412181e-01
  7.9731345e-03
  5.7114410e-01
  3.7923670e-01
  1.8415129e-01
 -1.3607126e-02
 -2.9754737e-01
 -3.0703780e-01
  1.4445551e-01
  1.1022959e+00
 -2.3530819e-01
  3.0758025e-02
 -3.7488788e-03
  1.9856286e-01
  1.3089453e-01
  2.8777373e-01
  5.6639738e-02
  5.7282648e-03
 -1.7891169e-01
  1.3058344e+00
 -1.0399136e-01
  7.8675222e-01
 -1.3607398e-01
  1.3491968e+00
  1.4977994e+00
  7.0098072e-01
  5.2139245e-02
 -4.0032774e-02
 -3.4064543e-01
  1.2071914e-02
  3.6914030e-01
  3.2382354e-01
 -6.6513404e-02
  8.0324453e-01
 -3.0331077e-02
 -4.0987685e-02
 -7.6270131e-03
  5.7380558e-03
  4.9203607e-01
 -2.0272113e-02
 -1.6796510e-01
 -9.9829897e-02
  1.2064888e-01
 -2.7537650e-01
  1.1177922e+00
  2.2398971e-02
  6.0052389e-01
  1.4414853e-01
 -3.7562603e-01
 -5.1535302e-01
  3.8394845e-01
  2.5859278e-01
  9.9336177e-02
  2.8697610e-02
  2.3269641e-01
 -2.1544800e-03
  1.1830788e-02
 -8.3969116e-02
  3.9490464e-01
 -1.7361067e-01
  3.0402182e-02
 -4.4774780e-01
 -5.1537663e-02
  2.1749350e-01
 -2.7811475e-02
  1.4361152e-01
  2.0705242e-02
  5.2349371e-01
  6.6685420e-01
  2.4064240e-01
 -2.2419621e-01
  1.9438168e-01
 -1.5931284e-01
 -3.2723457e-01
  4.5828640e-01
 -1.0834234e+00
  5.9097040e-01
 -4.5284283e-01
 -7.8224123e-01
 -7.1141160e-01
  2.9615659e-02
 -4.1290483e-01
  1.0919441e-01
 -1.3600063e-01
 -1.5440420e-02
 -7.3818541e-01
 -8.2159358e-01
 -5.2046020e-02
 -1.3122414e-01
 -4.6632454e-01
  8.7658994e-02
  2.5332308e-01
  2.3586948e-01
 -1.2383462e+00
 -2.1466805e-01
  7.1654677e-02
 -5.1533914e-01
  3.5041787e-02
  2.9537675e-01
  2.3192511e-01
 -2.6513198e-01
  7.1872286e-02
 -3.1365690e-01
  5.0590452e-02
  1.2909049e+00
  7.7246986e-02
 -2.3049778e-01
 -5.8197105e-01
  8.2945995e-02
 -3.5958165e-01
 -1.3236257e-01
 -3.3728674e-01
  2.4791445e-01
 -3.5522437e-01
  3.1315288e-01
  1.1424201e-01
 -6.9627933e-02
 -4.1294223e-01
 -5.0489503e-01
 -2.7886000e-01
  2.7426893e-02
 -2.9635796e-01
 -1.9290556e-01
  6.3708222e-01
 -1.4534952e-01
 -2.8074244e-01
  5.0374269e-01
 -1.0624099e-01
  9.5890284e-02
  3.1781510e-01
  2.1470319e-01
 -5.6545071e-02
 -3.6853120e-01
  8.1658132e-02
 -9.8092459e-02
  4.8224133e-02
 -6.7101009e-02
  1.1488403e-01
  2.8991961e-01
 -2.5881628e-02
 -4.4443879e-01
  1.5901816e-01
 -2.5309366e-01
  2.9712722e-01
 -2.8264174e-01
 -1.4608401e-01
 -5.1304981e-02
 -6.7152865e-02
 -2.1712181e-01
  4.8041731e-01
 -1.6184141e-01
 -8.8406086e-02
 -2.7046612e-01
 -7.0386246e-02
 -3.4686458e-01
  1.4346986e-01
 -1.3786982e-01
 -8.2887240e-02
 -1.1399870e-01
  1.2174708e-01
 -2.3940361e-01
  1.1843593e-01
 -8.4186547e-02
  2.1511427e-01
  4.6060856e-02
  5.9295617e-02
 -4.1396382e-01
 -1.7749910e-01
  3.6683908e-01
 -4.1907054e-01
  3.2501110e-01
 -5.7230407e-01
 -7.1318465e-01
 -7.9384148e-02
  5.7896090e-01
  3.0503708e-01
 -3.7686735e-01
  5.4039544e-01
 -1.0240187e-01
 -3.3111069e-01
 -8.6522944e-02
  2.8198740e-01
 -2.8694543e-01
 -1.2716191e-01
  2.6090622e-01
  3.1868109e-01
 -2.7625877e-01
  5.5658215e-01
  3.0597370e-02
 -4.0429142e-01
  1.9242339e-01
  1.7528597e-01
 -1.9941922e-01
 -1.9881423e-01
 -3.4196916e-01
 -1.3908713e-01
 -9.7581163e-02
 -3.5767961e-01
 -3.1440473e-01
  1.9401084e-01
  6.1205864e-01
  7.6444276e-02
 -2.4845822e-02
 -1.3357808e-01
  5.4993922e-01
  2.0991100e-01
 -2.4665397e-01
 -3.8932720e-01
 -1.8514801e-02
 -3.7792433e-02
  1.3175128e-01
  2.2360969e-02
  1.5237428e-01
 -2.8538719e-01
  1.2140083e-01
  6.4819729e-01
  1.7293409e-01
  2.1037987e-02
 -1.0350064e-01
  3.8076228e-01
 -1.4557332e+00
  4.8003277e-01
 -5.6918061e-01
  2.7903330e-01
 -3.1604391e-01
 -3.3907939e-02
 -2.5672132e-01
 -4.5277712e-01
 -1.9731700e-01
 -1.2195618e-01
 -1.4656061e-01
  4.7152343e-01
 -1.6211249e-02
 -7.5506456e-02
  1.3236147e-01
 -3.4591919e-01
  2.3274097e-01
 -5.3758174e-01
  3.2988295e-01
 -1.8107302e-01
 -2.9221058e-01
  6.6964738e-02
 -1.6525869e-01
  4.9616594e-02
  1.1819252e-01
 -3.9474076e-01
  1.7715771e-01
  2.1244863e-01
  1.0723758e-01
  2.5111035e-01
  4.3366924e-01
 -4.0171233e-01
 -3.7095461e-02
  9.6597865e-02
 -3.6295608e-01
  2.3694523e-01
  1.9900905e-01
  2.3173254e-02
 -2.2705130e-01
  3.5502624e-02
  4.7721636e-01
 -1.2048157e-01
 -1.8764459e-01
  1.0743436e+00
 -6.6868079e-01
 -6.7854628e-02
 -6.8945892e-02
 -8.5470267e-02
  3.5647842e-01
 -4.8103914e-02
 -5.3064162e-01
  7.9827532e-02
  4.3637797e-02
 -6.5080710e-02
 -2.4172147e-01
 -3.5527196e-02
  1.3582404e-02
 -3.2267827e-01
  2.3401514e-01
 -8.0593705e-02
 -2.1930270e-01
 -3.0505711e-01
  3.1179202e-01
 -5.9449196e-01
  1.8882558e-01
 -5.9825424e-02
 -2.5007512e-02
  2.2738168e-01
 -4.8842318e-02
 -3.4960067e-01
  4.6872815e-01
 -2.0826542e-01
 -1.2510128e-01
 -3.2886279e-01
 -8.4785968e-02
 -3.4940924e-02
 -4.5028421e-01
 -4.1300591e-02
 -2.5885138e-01
  1.8680450e-01
 -6.4220250e-01
 -5.5205023e-01
 -3.1801471e-01
  5.0151861e-01
  7.1535334e-03
  4.1136950e-02
  4.7200763e-01
 -3.8922444e-02
  9.9539183e-02
  1.5662134e-01
  4.2892894e-01
 -1.1037160e-01
 -4.1198316e-01
 -7.0757782e-01
  3.6443061e-01
 -1.2701172e+00
  8.7150790e-02
 -2.2920364e-01
 -4.7292471e-02
 -2.6710159e-01
  2.9540190e-01
  8.1244844e-01
  1.2856114e-01
  9.4320953e-02
 -4.7375193e-01
 -9.6012741e-01
 -3.4901974e-01
  4.3671550e-03
 -1.1257682e+00
 -9.0571302e-01
 -2.9012674e-01
 -4.5006767e-01
  1.2113667e-01
  1.5114397e-01
 -1.6801105e-01
  4.5150074e-01
 -1.2842669e-02
 -3.2215980e-01
 -5.1630664e-01
  1.5371396e-01
  3.1412026e-01
 -5.8194673e-01
  6.0764754e-01
  1.1961130e+00
 -6.1531138e-02
 -4.6696803e-01
  3.6148317e-02
  2.0645364e-01
  7.2565220e-02
  1.3519497e-01
  3.2910961e-01
 -1.1205514e-01
 -3.5713264e-01
  1.1472987e-01
  3.6402598e-01
 -1.0405400e-01
 -1.0562804e-01
 -1.9433606e-01
  8.7489530e-02
 -1.4606179e-02
  6.5818304e-01
  2.2530639e-01
 -2.7647966e-01
 -1.0042017e+00
  6.0281682e-01
  2.5790232e-01
 -2.1355511e-01
 -1.1015638e+00
  1.7640154e+00
  1.4587326e+00
  6.9768816e-01
  4.9735382e-01
  9.7484030e-02
  7.9847264e-01
 -6.3830471e-01
 -6.3420254e-01
  7.4914533e-01
  3.8005224e-01
 -3.9110082e-01
 -7.9561681e-01
  1.5978698e-02
  7.7409017e-01
 -2.4639004e-01
  3.9286539e-02
 -1.3190931e+00
 -4.6058957e-02
  3.2180168e-02
  2.1330352e-01
 -1.0392854e-01
 -2.2043507e-01
 -2.1736322e-01
  4.6174747e-01
  1.2663685e-01
 -2.3694044e-01
  1.1957850e-01
 -4.7654563e-01
  7.4260727e-02
 -1.2667638e-01
  3.6770743e-01
 -2.1290399e-02
 -5.1434493e-01
 -4.9691215e-02
 -1.3172197e-01
 -5.6042689e-01
 -5.7006973e-01
 -1.2971194e-01
  2.0988467e-01
 -1.9161844e-01
  1.6078366e-01
  1.3581640e-01
  3.0696744e-01
  2.6436406e-01
 -9.9360853e-02
 -8.6518931e-01
 -1.9700844e-03
 -1.3164714e-01
  4.3160686e-01
  3.7228826e-01
  5.9857000e-02
 -3.7637111e-02
 -4.0212831e-01
 -1.7318892e-01
  2.0601629e-01
 -3.3680465e-02
 -9.1167890e-02
  4.3468150e-01
 -1.8621853e-01
  1.7061390e-01
  6.5124846e-01
 -2.6134055e-02
 -1.1765327e-01
 -2.7691147e-01
  1.5613368e-01
  1.6626823e-01
  1.3982698e-01
  2.2301041e-02
 -1.4920670e-01
  3.7984455e-01
  7.2769858e-02
 -1.8138677e-02
  1.2127184e-01
  4.4919562e-01
 -3.3138409e-01
  1.4569044e-01
  5.2176870e-02
  3.7005341e-01
  2.0247628e-01
  1.5280859e-01
  6.4390242e-02
  7.2510886e-01
 -4.2358676e-01
 -4.0291689e-02
  6.4172172e-03
 -2.1163963e-01
 -5.2221096e-01
  2.4621317e-01
 -1.3511893e-01
  2.6456120e-03
  3.0699131e-01
 -1.6989622e-01
  4.1947681e-02
  2.9870450e-01
  8.4788306e-03
 -1.9367956e-01
 -2.3926133e-01
 -6.0327925e-02
  5.1275361e-01
 -1.1785103e-01
 -2.8394932e-01
  3.1903785e-01
 -2.0666355e-01
  5.2636523e-02
  9.1576710e-02
  1.8858103e-01
 -4.3680179e-01
  3.0122223e-01
  9.4961718e-02
  3.6546463e-01
  2.2833592e-01
  1.0846563e-01
 -1.1946417e-01
  1.7636636e-01
  2.0192699e-01
  2.8139523e-01
 -8.8904226e-01
  2.1509738e-01
 -4.9740668e-02
  4.9466752e-03
 -1.2166152e-01
  3.1458744e-01
 -1.0783215e+00
 -1.1934525e-01
  2.0848738e-01
  1.6606158e-01
 -1.4990507e-01
  1.5079570e-02
  1.5961173e-01
  4.8643500e-02
 -8.8720381e-02
 -2.0420736e-01
  4.1282039e-02
 -2.7271035e-01
  5.3349817e-01
  4.5431641e-01
 -8.9228816e-02
 -2.0670827e-01
 -5.2086145e-02
 -2.8731021e-01
 -5.4813832e-01
  7.1033813e-02
 -1.3104621e-01
  2.4074054e-01
  9.9989451e-02
 -1.5690602e-01
  7.4177736e-01
  1.0029645e-01
 -2.3169897e-01
 -4.9623411e-02
  5.1602412e-02
  1.1362855e-01
 -3.7808910e-01
  1.4275488e-02
 -2.0880479e-01
 -5.9432954e-01
 -8.9985862e-02
 -2.1764660e-01
  4.6806537e-02
  2.1709029e-01
 -5.8050662e-02
 -9.9730082e-02
  8.9530997e-02
  1.5134990e+00
 -2.0593984e-01
  1.5604296e-01
 -6.5328932e-01
 -2.4666534e-01
  1.2141243e-01
 -1.4768881e-02
 -4.2764332e-02
 -2.4223693e-01
  1.8266407e-01
 -4.8760113e-01
  9.9287011e-02
  6.4670223e-01
 -3.1575456e-01
 -1.5739110e-01
  1.6016948e-01
 -7.9274878e-02
  3.5976049e-01
 -2.7533630e-01
  6.9651350e-02
 -1.9416049e-01
  1.0258789e-01
  1.0390545e-01
  2.2668344e-01
  1.6199577e-01
 -6.6788301e-02
  4.3486241e-02
  3.0215439e-01
 -7.1719147e-02
 -2.8671440e-01
 -2.2389388e-01
 -6.8451218e-02
  3.7887394e-01
  9.3800068e-02
  2.1557520e-01
 -3.3972526e-01
  6.8179771e-02
 -3.2691851e-01
  1.6088778e-02
 -1.0869234e-01
 -6.3208930e-02
 -2.9482323e-01
  1.4158301e-01
  8.6619151e-01
  2.9368490e-01
 -1.3967165e-01
  8.9169756e-02
 -3.5672256e-01
  2.4919426e-01
  1.2815467e-01
 -2.1203040e-01
 -6.6545093e-01
  7.5129412e-02
 -5.4387456e-01
  1.1180203e-01
  2.7542222e-01
 -3.3864517e-02
 -5.4826818e-02
 -3.8325168e-02
 -1.0360819e-01
  3.8489822e-02
  8.9596361e-02
  1.7599875e-01
  3.4083538e-02
  1.7783433e-02
 -2.3246679e-01
 -3.1726295e-01
  2.0353003e-01
  4.2197490e-01
 -5.2665185e-02
  2.0960769e-01
 -2.3205747e-01
  2.6158469e-02
  1.5823616e-01
 -2.6420090e-02
  5.6405318e-01
  1.3847928e-01
  1.7529131e-01
  6.2131310e-01
  3.2695445e-01
  6.2148910e-02
  5.0611740e-01
 -2.9374793e-01
 -4.6010446e-02
  1.4374612e-01
 -4.5250945e-02
 -2.1738763e-01
 -3.8852638e-01
  1.0436814e-01
  2.6353782e-01
 -6.7515927e-03
 -5.9852857e-02
  3.7349604e-02
  3.2458764e-01
  1.1584317e-01
  2.8809929e-01
  6.2934853e-02
 -2.7143928e-01
 -1.0940848e-01
  3.2946914e-02
  3.1771891e-02
  3.3774322e-01
  4.7077924e-02
  2.7847183e-01
  2.8622475e-01
 -3.8390568e-01
 -5.4200071e-01
  1.6577156e-01
  4.8825245e-02
  1.1662059e-01
 -2.4909978e-01
 -1.5874852e-01
 -3.2267913e-01
  1.9807881e-01
  2.4207643e-01
 -3.7089783e-01
 -1.5772712e-01
  4.1021943e-01
 -8.9119446e-01
  1.0268071e-01
  3.0159417e-01
 -3.3546448e-02
 -2.8004957e-02
 -5.2573811e-03
  4.7848353e-01
 -4.7970697e-02
 -2.3642404e-01
  6.3077591e-02
 -3.0604938e-01
 -6.8094730e-02
 -3.4333207e-02
 -1.3258271e-02
 -4.5642804e-02
 -1.6249031e-01
 -3.9461587e-02
 -5.2335727e-01
 -9.0939879e-02
  2.0308866e-01
 -5.5815231e-02
  1.5208516e-01
  1.8083599e-01
 -4.5980070e-02
 -4.3496087e-01
  1.6888326e-02
 -1.7237896e-01
  3.1663930e-01
  1.9969477e-01
 -1.0411652e+00
 -4.8194140e-01
  2.0826876e-03
  1.1676709e-01
 -1.6594942e+00
 -2.1796866e-01
  2.5922822e-02
  3.2051839e-02
  8.1294283e-02
  1.0162045e-01
 -2.0227110e-02
 -3.2779247e-01
  3.5998407e-01
 -2.1654995e-01
 -2.4172284e-01
  1.5734857e-01
  1.6605179e-01
  3.2596129e-01
  5.1811528e-03
 -1.6956419e-01
 -9.3904749e-04
  5.1531311e-02
 -8.5026510e-02
  1.0041273e-01
 -4.9583337e-01
  8.9774199e-02
 -1.0859309e-01
 -5.2456188e-01
 -2.7552089e-01
 -1.6956386e-01
  7.1024537e-02
  1.5571320e-03
 -1.1662669e-01
  3.0976236e-01
  1.3038467e-01
  1.8318231e-01
  2.6499343e-01
 -1.1050152e+00
  5.9787273e-02
  3.3246723e-01
  1.1293201e-01
  2.0489807e-01
 -2.1886490e-01
 -2.4799822e-01
 -3.5336792e-01
  8.6304134e-01
 -7.1528524e-02
 -5.7076776e-01
 -2.6130535e-02
 -1.3273962e-01
  4.4339761e-02
 -1.0763487e-01
 -7.1558219e-01
  1.5700948e-01
  1.3024002e-01
  5.4292887e-01
  1.6830923e-01
 -7.7314344e-03
 -1.7408380e-01
  3.2500800e-02
 -9.2189074e-02
  4.7651964e-01
  4.4493034e-01
 -2.6962116e-01
 -2.0632496e-01
 -7.8020893e-02
 -4.1471403e-02
  9.7350724e-02
 -1.9110630e-01
 -4.8917857e-01
  1.0086197e-01
 -5.0743443e-01
  2.4966934e-01
 -2.3959771e-01
  7.9744324e-02
  5.0317232e-02
 -4.4845185e-01
 -1.6544081e-01
  3.9598769e-01
  1.4379314e-01
 -2.5494418e-01
 -1.6254523e-01
 -7.4496728e-01
  1.7588548e-01
 -8.2601003e-02
  1.1476598e-02
  7.5609213e-01
  1.6045114e-01
  3.5567176e-01
  9.6549517e-01
  8.5411794e-02
 -6.3751295e-02
 -8.6603582e-01
  3.4147661e-02
  1.6455793e-01
  5.5077326e-01
  1.5964662e-01
  1.4679089e-01
  1.3741058e+00
  2.8613245e-01
  1.2462398e-01
 -1.3356552e-01
 -1.9978561e-02
  9.9221528e-02
 -1.8309045e-01
  3.0494915e-02
  2.3393598e-01
 -1.9041419e-01
  3.6666009e-01
 -8.2840115e-02
 -3.0857837e-01
  1.9042648e-01
  2.0063719e-01
  2.6601818e-01
 -8.1329592e-02
  9.3862641e-01
  3.2579756e-01
  5.7546686e-02
  7.2950222e-02
 -1.0730524e-02
  7.3747665e-01
  3.7234157e-01
  4.1078207e-01
  4.1478883e-02
 -1.0567711e-02
  8.2925744e-02
  1.7789063e-01
 -1.6427006e-01
  5.3995367e-02
 -6.1799883e-04
 -4.1036658e-02
  4.6076053e-01
 -1.3704053e-01
  4.0030740e-02
  2.6488945e-01
  1.0187481e-01
  2.5768310e-01
  1.0627232e-01
 -3.4617639e-01
  5.6370407e-02
  3.0657154e-01
  2.1099491e-02
 -1.6814895e-01
  1.8518421e-01
 -1.5355965e-01
  1.5749232e-01
 -3.5887398e-02
  2.5266109e-02
 -2.3554558e-01
  4.3664521e-01
  1.9694263e-02
  1.6289632e+00
 -4.2325847e-02
  3.1396925e-01
  1.4441237e-01
  5.7274508e-01
  3.0690554e-01
  2.5611699e-01
  4.4174753e-02
  4.8792189e-01
  2.9862559e-01
 -1.6377345e-01
  2.5147116e-02
 -1.9943997e-01
  1.3198911e-01
 -1.0491812e-01
 -2.2667144e-01
 -1.2411573e-01
 -6.8672985e-01
  2.5741461e-01
 -2.3958747e-01
 -7.1219154e-02
 -2.0681746e-01
 -1.6397092e-01
 -1.3893907e-01
 -4.4063527e-02
 -7.9504848e-02
  4.8378557e-01
 -1.0925616e-01
  8.6442053e-02
  1.3899602e-01
  1.8274020e-02
  8.3597384e-02
 -3.0774832e-01
 -1.8975797e-01
 -8.2827337e-02
  1.6529550e-01
  5.7977086e-01
 -8.9509934e-01
  6.3464627e-02
 -7.3396385e-02
  1.4788212e-01
  4.9430277e-02
 -9.3112681e-03
 -4.8157728e-01
  2.2238176e-01
  5.0250888e-01
  3.9854798e-01
  3.6606455e-01
 -4.7048548e-01
  3.5560253e-01
 -2.9810369e-01
  3.3780739e-01
  1.8566700e-02
 -7.6522422e-04
  4.0424936e-03
  5.9431470e-03
  1.0262290e-02
  9.7469958e-03
  4.8832214e-03
 -5.2272046e-01
 -2.0986948e-02
 -1.0443442e-01
  5.1901658e-04
  4.4384345e-01
  3.2247019e-01
 -2.3167817e-02
 -3.0730991e-02
 -2.5902089e-01
  1.3343889e-01
  3.9726445e-01
  7.2266325e-02
  1.0010875e-01
  2.2891079e-01
 -6.1675471e-01
 -5.4127466e-02
  1.9024360e-03
 -1.0117264e-01
 -5.9948134e-01
 -2.6883185e-01
 -2.7475175e-01
 -1.2818438e-01
 -2.6561600e-01
 -5.2055174e-01
 -2.3759378e-01
  1.2444618e-01
 -4.6046370e-01
  5.2416462e-01
 -7.9164773e-02
 -4.5822775e-01
  6.2137705e-01
 -1.9432992e-02
  3.0632091e-01
 -8.0231033e-02
 -2.1371244e-01
 -4.9975412e-03
  1.1037449e-01
 -1.3868214e-01
 -1.2461941e+00
 -3.8178340e-03
  1.3383980e-01
 -5.4607648e-01
 -7.1424633e-01
  1.3410434e-01
 -1.7191695e-01
 -5.9529692e-01
 -7.8317058e-01
  1.9142494e-01
  1.5811291e-02
 -5.7511783e-01
  5.0073570e-01
 -4.0486255e-01
 -5.9600192e-01
 -3.7738901e-01
  3.0164763e-03
 -3.8580421e-01
  2.5683734e-01
 -2.8914970e-01
 -3.4740970e-01
  7.2367392e-02
  1.1106468e-02
 -1.5715128e+00
  2.7830008e-02
 -1.0638281e-01
 -3.5797727e-01
  1.5640099e-02
 -4.3362141e-01
 -2.1348099e-01
 -8.5691936e-02
 -2.0528037e-02
 -1.4275263e-01
 -4.5359337e-01
  4.9454942e-01
  3.4246284e-01
  2.2443984e-02
  1.5731548e-01
  5.7724047e-01
 -3.5091910e-01
 -1.4758128e-01
 -5.0093386e-02
  1.2974422e-02
  2.2699152e-01
  2.0109524e-01
  1.0047747e-01
  1.9068301e-01
  2.1505772e-01
  6.6146385e-03
 -4.0353049e-02
 -1.3807344e-01
  1.0982898e+00
 -3.8304034e-01
 -1.4839251e-01
  1.8119200e-01
  9.7938019e-01
 -2.6905587e-01
  5.2497137e-01
  5.9387282e-02
 -9.1069199e-02
  3.2874119e+00
 -1.0118752e-02
 -2.6400986e-01
 -1.7781439e+00
 -1.3087479e+00
  1.4478596e-01
  6.9109076e-01
 -8.5473001e-01
 -5.3145629e-01
  2.2047675e-01
  5.4390115e-01
 -5.6271839e-01
  1.6200378e+00
 -1.6471306e-03
  1.5240803e-01
 -8.1169382e-02
  1.4229257e+00
  4.1238192e-02
  4.0198854e-01
  4.1723379e-01
  5.0125468e-01
  5.3817172e-02
  3.5099676e-01
 -1.5398997e-01
 -9.0253431e-01
 -1.8402299e-01
  3.2985967e-02
  8.5054286e-02
 -7.8245175e-01
  1.8279001e-02
  5.6765234e-01
  1.1987474e+00
  1.0949273e-01
 -5.3625506e-01
  1.2764801e-01
  1.5014585e+00
  3.2856712e-01
  3.4662467e-01
  5.6748599e-01
 -1.3099997e-01
 -3.0714339e-01
 -7.5980604e-02
 -3.5867125e-01
 -6.0185790e-01
 -6.9800222e-01
 -1.0552309e-01
 -2.8628949e-02
 -5.6173998e-01
 -3.9530084e-01
  9.5159873e-02
  2.5658783e-01
 -7.5805551e-01
  7.9467857e-01
  2.8219396e-01
 -2.4824195e-01
 -2.8420382e-03
 -1.4431438e-01
  4.2417463e-02
  2.7774629e-01
 -8.2912278e-01
  8.8029045e-01
  2.0477641e-01
 -9.2957363e-02
  2.0091055e-02
 -4.3693331e-01
  1.3911036e+00
  1.1809944e-01
 -3.5512543e-01
  3.5131237e-01
  6.1523533e-01
 -5.2351477e-03
 -8.8438648e-01
  1.1403922e-01
 -1.6351730e-01
 -5.5975460e-02
 -1.4767823e+00
 -6.2747687e-02
 -6.8084550e-01
  2.1358767e-01
 -6.2831867e-01
 -3.0459338e-01
  2.2461101e-01
  2.3638569e-01
  3.0863056e-01
  2.4623470e-01
  5.5303100e-02
 -1.8940209e-01
 -1.4142069e-02
  1.9687755e-01
  2.3706764e-01
 -1.9497722e-01
  8.7226069e-01
 -7.0898265e-02
 -4.7800774e-03
  6.1409164e-02
 -6.8911904e-01
 -3.1732565e-01
  3.0933112e-01
  1.0550022e+00
 -1.0187765e+00
  6.4148420e-01
 -6.9834465e-01
  6.4345993e-02
  7.9121208e-03
  1.4123652e+00
 -3.2664666e-01
 -1.6347995e-01
  8.0642541e-04
  8.0428153e-01
 -1.2219840e-01
 -7.4797392e-01
 -4.8538297e-02
 -4.3733835e-01
  2.8996760e-01
 -3.2999046e-02
 -6.5659684e-01
  3.6751024e-02
 -7.5826384e-02
 -7.3421097e-01
 -7.2737932e-02
 -1.0757161e+00
 -1.0642074e-01
 -1.0373234e-01
  3.9254457e-02
 -1.9450384e-01
 -8.7695807e-02
  1.2586012e-01
 -1.9454773e-01
 -2.9570885e-02
  3.1333771e-02
 -3.4434083e-01
 -4.9681923e-01
  1.6757848e+00
 -4.0731299e-01
  3.0544162e-01
 -9.7303987e-02
 -2.6960301e-01
 -5.7870038e-02
  3.9475776e-02
 -5.4483789e-01
 -3.3320096e-01
  3.6029220e-02
  5.3745158e-02
  5.9984319e-02
  1.0791081e-02
 -2.6356166e-02
 -2.1224323e-01
 -2.2900146e-01
  1.6134083e+00
  1.6889341e-02
 -3.2886740e-02
  5.0813951e-02
  5.9786856e-01
 -5.1407296e-02
  1.2999076e-01
 -1.0444188e-01
  9.8071605e-01
 -3.5400391e-02
 -4.9310509e-02
  7.5282896e-01
  1.8767530e-01
  5.8429641e-01
  5.9019212e-02
 -8.9594579e-01
 -1.9207714e-01
  1.9444119e-02
 -4.1204369e-01
 -1.7495886e+00
 -2.1490490e-01
  4.1512880e-01
 -1.4174147e-01
  2.8648040e-01
 -2.9289450e-02
  3.2772171e-01
  1.2151295e+00
  5.1394984e-02
  8.3416110e-01
  1.9969961e-01
  2.5210452e-01
  7.0860945e-02
 -1.3689350e+00
 -2.1992637e-01
 -2.6231152e-01
  7.7886915e-01
 -1.8448951e+00
  3.3626309e-01
 -1.7774534e-01
  1.0077176e+00
  1.7723653e-01
 -1.5069070e-01
 -7.8578450e-02
 -2.1073658e-03
  9.4394130e-01
 -1.8129475e-01
  2.4257386e-01
 -3.6195177e-01
  9.7070622e-01
 -1.7125283e-01
  1.3185741e-01
  6.5806806e-01
  5.1784152e-01
  2.0072500e-01
  4.0246540e-01
 -3.0716342e-01
  1.3419500e-01
  5.8869988e-01
 -5.9775744e-02
 -7.2480178e-01
  1.2539019e-01
  8.4370069e-02
  2.4926394e-01
 -1.4292956e-02
 -1.8581849e-01
  6.9817476e-02
 -3.7943128e-01
  4.0965730e-01
  4.0006000e-01
 -1.6642983e-01
  1.3748156e-01
 -5.3416109e-01
 -4.8637938e-02
 -1.6637251e-02
 -3.9696521e-01
 -2.4733166e-01
 -9.1822791e-01
 -2.2498450e-01
 -2.9112248e-02
 -5.0748324e-01
 -1.7647789e-01
 -6.3281107e-01
 -3.0609336e-01
  6.5731061e-01
  1.1880651e+00
 -2.6864868e-01
 -8.9820221e-02
 -7.4090503e-02
 -8.5267633e-01
  1.0085239e-02
 -3.9463106e-01
  3.8855094e-01
  1.1181452e-01
  2.2638890e-01
  3.9677647e-01
  4.3439209e-03
  2.6846506e-02
  3.2345560e-01
 -8.0665551e-02
 -9.1640216e-01
 -2.2216301e-01
 -1.3039520e-01
 -6.5575618e-01
  1.2545344e+00
 -5.7298434e-01
  2.1368492e-01
 -2.7026990e-01
 -1.3258206e+00
  3.6291342e-02
  1.0957865e-01
 -2.1084805e-01
 -1.3073231e-01
 -4.7155359e-01
  1.6078497e-01
  1.0507586e-01
 -9.3850762e-02
  9.0752953e-01
 -5.9681754e-03
  2.9599455e-01
  1.2720910e-01
  2.2805317e-01
  2.7232620e-01
 -2.2051796e-01
  2.6776877e-01
 -3.5511866e-01
 -3.3732031e-02
 -4.3620953e-01
 -5.7792562e-01
  8.1442315e-03
 -1.4309245e-01
 -3.2908589e-01
  5.3089994e-01
  9.6473452e-03
 -8.8873794e-03
 -5.2507633e-01
  2.1170366e-01
 -2.6381004e-01
 -5.4126489e-01
 -7.1707837e-02
  7.4000812e-01
  3.6382797e-01
 -2.1888828e-01
 -1.6059211e-01
 -9.4872391e-01
 -3.5655308e-01
  1.7553072e-02
  4.8744196e-01
  2.1237358e-01
 -4.3568775e-01
 -3.8773272e-02
  1.2115018e-01
  3.5559788e-01
 -6.7509115e-01
  3.9606681e-01
 -2.0893238e-02
 -1.9904144e-02
  2.9094395e-01
  8.1735902e-02
 -1.9771175e-01
  2.8187075e-01
  3.6753365e-01
  1.7647466e-01
 -2.7396655e-01
 -6.2070119e-01
  1.6013716e-01
 -2.1287031e-02
 -2.4320658e-02
 -1.7812183e-01
  2.2048475e-01
  8.4136911e-02
 -1.7331824e-01
 -7.2870970e-02
  1.8385760e-01
 -2.4179175e-01
 -1.9448602e-01
 -3.3037534e-01
 -1.5385541e-01
 -5.2760668e-02
 -2.8591114e-01
  2.9422128e-01
  3.8427594e-01
 -3.3456138e-01
  6.0865059e-02
 -1.0040678e+00
 -8.0672699e-01
 -1.9931494e-01
  2.4983270e-01
  1.5664184e-01
 -3.2638109e-01
 -8.6578858e-01
 -3.4240121e-01
 -3.7071231e-01
  4.8644939e-01
  4.0457319e-02
  7.6669697e-03
 -4.3128428e-01
  3.7112567e-01
  5.5325747e-02
  5.6933533e-02
  6.6906340e-02
 -3.0734280e-01
 -8.2763225e-02
  5.7443462e-02
  2.0617703e-01
  3.0541809e-02
 -2.5620103e-01
  2.3353716e-02
 -1.0405579e+00
 -3.0375698e-01
  1.8004671e-02
  1.1020386e-01
 -4.0619573e-01
 -2.2284677e-02
  2.3614097e-02
  2.5228834e-02
 -1.1306318e-01
 -8.1482656e-02
  5.3419149e-01
 -3.6643839e-01
 -2.9228455e-01
  7.7754939e-01
  5.4650657e-02
  1.1482295e+00
  1.4829126e-01
  3.7390611e-01
  3.1461567e-01
 -1.1563807e-01
  2.1359062e-01
  9.7398842e-03
 -4.9976084e-01
 -2.5285751e-01
  7.3222987e-02
 -1.3276036e-01
 -1.8446287e-02
  1.5841039e-01
 -5.8152187e-01
 -1.8102625e-01
  2.0301595e-01
  2.7647562e-02
 -4.7548038e-01
  9.6919566e-01
  3.7824142e-01
 -6.9229558e-02
 -1.1103618e+00
  1.7257057e-01
  4.3217313e-01
 -2.0245399e-02
  2.7364376e-01
  1.6210294e+00
  1.8035823e-01
  2.1956174e-02
 -7.2710118e-03
 -7.6787955e-01
 -1.1534581e-01
  6.5869534e-01
 -2.0697033e-01
 -1.4708393e+00
 -1.4196977e-01
  9.0399265e-02
  3.3431441e-02
  1.0281119e+00
  1.1680642e+00
 -1.0697198e-01
 -3.5652041e-01
  9.2146856e-01
  6.0284668e-01
  1.6836165e-01
 -9.2447912e-03
  8.1166315e-01
 -3.2741329e-01
  1.7301220e-02
 -2.3970611e-01
 -2.8098246e-01
  1.1379960e-01
 -3.1748015e-02
 -7.5595605e-01
  3.9667112e-01
 -2.0886508e-01
 -6.0352415e-02
 -2.7379289e-01
  4.4562757e-01
 -7.3118106e-02
  1.7878336e-01
 -1.1694941e-01
  6.0720545e-01
  1.5704201e-01
 -7.2894943e-01
 -2.5997320e-01
 -5.7644355e-01
 -3.6148062e-01
 -2.9429961e-02
 -1.2637505e-01
  4.3958431e-01
 -2.4671039e-02
 -1.2994803e-01
 -6.8226807e-02
  1.3852671e-01
  1.1525555e-01
  1.6643051e-02
 -2.8056219e-01
 -6.2871885e-01
  4.2352580e-02
 -6.5423742e-02
  2.4791273e-01
  7.9720807e-01
 -1.3243204e-01
  2.1402527e-01
 -3.1814629e-01
  1.4837191e-01
 -1.6753219e-01
 -1.3035399e-01
 -2.2238252e+00
 -1.0277431e+00
  1.0145894e-02
 -9.0816684e-02
  1.1994387e+00
 -8.6037970e-01
 -5.8062100e-03
 -6.4356580e-02
 -4.1204181e-01
  2.2744305e-01
  9.9336788e-02
  1.3753231e-01
 -2.9593226e-01
  4.2868868e-01
 -2.0014566e-01
 -4.5531645e-01
  4.3904209e-01
  7.4645981e-02
 -9.6994758e-02
  5.6503791e-01
  7.2684266e-02
 -1.6070467e-01
  1.4318493e-01
 -5.9239852e-01
 -1.0711451e-01
 -1.1272660e+00
 -2.4830322e-01
 -3.4440228e-01
 -3.0246772e-02
  8.8754547e-01
  5.0221115e-01
 -4.2430165e-01
  9.5568240e-01
  8.6161554e-02
 -1.4842774e-01
 -3.6802614e-01
 -2.3476972e-01
 -1.7571898e+00
 -1.3235748e-01
  6.3117005e-02
  4.6920802e-02
  4.2451359e-02
  1.0343161e-01
  2.1249308e-01
  4.8619661e-01
  1.2384986e-02
  3.0532983e-01
 -2.5468436e-01
 -4.8532137e-01
 -3.1356286e-02
 -2.4428304e-01
  1.4507923e-03
  3.6239329e-01
 -8.0769515e-01
  8.8260514e-01
 -7.4573749e-01
  1.2472957e-01
 -2.2091492e-01
 -1.4762560e-01
 -4.1443896e-01
 -6.2025636e-01
 -1.2954111e-01
 -2.2331956e-01
 -8.1379212e-02
  2.2089034e-02
  2.2089034e-02
  2.2089034e-02
  2.2089034e-02
  2.2089034e-02
  2.2089034e-02
  2.2089034e-02
  2.5244545e-02
  2.5244545e-02
  2.5244545e-02
  2.5244545e-02
  2.5244545e-02
  2.5244545e-02
  2.5244545e-02
  8.0110375e-03
  8.0110375e-03
  8.0110375e-03
  8.0110375e-03
  8.0110375e-03
  8.0110375e-03
  8.0110375e-03
  4.7230693e-03
  4.7230693e-03
  4.7230693e-03
  4.7230693e-03
  4.7230693e-03
  4.7230693e-03
  4.7230693e-03
  4.7784154e-03
  4.7784154e-03
  4.7784154e-03
  4.7784154e-03
  4.7784154e-03
  4.7784154e-03
  4.7784154e-03
  2.3544026e-03
  2.3544026e-03
  2.3544026e-03
  2.3544026e-03
  2.3544026e-03
  2.3544026e-03
  2.3544026e-03
  1.3647575e-03
  1.3647575e-03
  1.3647575e-03
  1.3647575e-03
  1.3647575e-03
  1.3647575e-03
  1.3647575e-03
