nep4_zbl 3 Ba Ti O 
zbl 0.75 1.5
cutoff 6 4 86 26
n_max 8 6
basis_size 8 8
l_max 4 0 0
ANN 40 0
  3.3884779e-05
  2.7619213e-05
 -3.1083560e-05
  3.8549664e-05
 -2.0923817e-06
 -1.8810614e+00
 -3.2082702e-05
 -2.8665146e-02
  4.7241243e-05
 -7.9861511e-06
 -8.2659171e-05
 -1.7643118e-06
  4.0806397e-05
 -9.4089824e-05
 -6.4521017e-05
  1.2181002e-04
 -7.8229816e-05
  4.7511517e-04
 -1.3973067e-05
  8.2071987e-05
 -4.7948641e-05
  1.6664036e-06
  7.9503434e-06
  4.2945007e-04
  6.9667462e-05
 -3.6869445e-04
 -1.7846571e-05
 -3.3520522e-05
  2.7302298e-05
 -3.6223097e-05
  4.4903143e-05
 -6.1058156e-05
  2.3522050e-06
  8.2106171e-06
 -6.0632337e-05
  8.3005703e-05
  1.1530583e-04
  1.4752324e-05
  9.9616489e-05
  7.3006653e-05
 -2.2917358e-05
  1.0619765e-04
 -2.7149068e-02
  5.6304678e-05
 -6.9450733e-05
  9.3092314e-07
 -5.1644769e-05
 -1.3083946e-04
  1.2484193e-05
 -1.8087738e-08
  2.0741039e-05
  1.7627606e-05
  2.3533119e-05
 -1.2047311e-03
 -1.6132182e-05
  2.5563795e-05
 -6.1113678e-06
  1.7392030e-04
 -5.2065111e-06
 -1.4045786e-05
  5.5997520e-05
 -2.1740150e-04
  2.4532992e-05
  7.8402853e-05
  1.9445735e-04
  4.9335569e-05
 -5.6459621e-06
 -1.9738729e-05
 -3.8368138e-04
 -8.8181921e-05
  2.8295777e-04
  1.0819401e-05
 -1.7504381e-05
  9.2205548e-05
 -1.4947870e-05
 -4.4668239e-05
 -2.4085930e-05
 -1.3743120e-05
  9.9427075e-07
  3.7538473e-06
  4.2263325e-04
  4.9160069e-05
  1.5588108e-05
 -2.6465450e-06
 -9.0371635e-05
 -2.0739273e-05
  2.1379379e-05
 -6.6328495e-05
  4.3448792e-05
 -2.9750608e-04
 -7.6288452e-05
 -7.4457021e-05
 -1.1156965e-04
 -1.0480378e-05
 -1.7120059e-04
  1.0308337e-04
  5.0543163e-06
  1.0066966e-04
  6.8250723e-05
 -3.5081415e-05
 -4.6401765e-06
 -8.4702033e-06
  1.2187663e-05
  5.7276837e-05
 -2.8792718e-05
  1.4446889e-05
  1.6675433e-04
 -1.0557815e-04
  5.0130955e-05
 -7.0054892e-05
 -2.0063075e-05
  3.4059387e-05
  1.4100042e-05
  1.4602384e-04
 -2.4842899e-04
  6.4941632e-05
 -2.0510129e-04
  1.5080818e-04
 -4.5459389e-04
 -2.9747455e-06
 -2.0884198e-05
 -2.3713385e-05
 -2.2393171e-05
  4.9061433e-05
 -9.6215510e-05
  2.9289204e-05
  1.1228862e-05
  9.3109687e-05
 -1.5724901e-06
 -1.7639013e-05
  1.9416990e-04
 -1.0244498e-04
 -5.3595675e-05
 -9.9569870e-06
 -1.5500091e-05
 -4.9361319e-05
 -1.0564568e+00
  3.7992952e-06
 -2.2416486e-06
  6.7582005e-06
 -8.5889696e-05
 -6.3968357e-05
  1.2648916e-04
  1.4117143e-04
 -8.2274004e-05
  2.1308635e-06
  3.8836475e-05
  7.8814373e-05
 -2.5957821e-05
  1.5959849e-05
 -2.3376222e-05
 -2.1492491e-05
 -1.4709543e-04
 -1.1989223e-04
 -4.1658102e-05
  1.2490630e-05
  2.5123620e-05
  9.7367403e-05
 -3.6954934e-05
 -3.7808077e-05
 -2.5756823e-05
 -3.2649335e-04
 -8.8089357e-05
  2.0284868e-05
 -3.8942017e-05
 -4.6331297e-05
 -2.1575966e-05
 -1.6464235e-05
 -8.1313003e-05
  3.6297212e-03
  9.3064170e-07
 -1.9314155e-06
 -1.5692010e-04
 -1.9926898e-05
 -2.4419727e-05
  2.4783452e-05
  5.1308245e-05
  4.1983243e-05
 -6.0139089e-03
  5.0313294e-05
  5.4249736e-05
  3.7531467e-05
  5.9452836e-05
 -1.6947799e-05
  2.5877345e-05
  2.1699374e-03
  1.7749977e-05
  9.2499241e-02
  1.3650789e-04
  5.2205330e-01
  4.6461943e-01
  8.3693184e-02
  2.2423047e-01
 -1.2674207e-02
 -3.8732793e-03
  2.2077657e-01
  7.1306708e-06
  1.5075582e-05
 -4.4794047e-05
 -1.7104117e-04
 -1.1867968e-05
 -3.6736968e-04
  1.5463214e-01
  4.6865112e-04
 -7.6225820e-06
  5.2614021e-05
  1.8006887e-01
  3.2152548e-05
  1.4289274e-07
  4.0141687e-02
 -1.9177744e-05
 -1.5709222e-05
  1.2032943e-05
 -3.0767499e-06
  1.5222041e-05
  1.0221602e-01
  7.3262364e-02
 -3.4636087e-06
  3.5649438e-05
 -6.3378866e-05
 -7.4573927e-06
 -9.0899535e-05
  2.1893694e-01
 -3.0827234e-06
  5.5862939e-01
 -2.1189007e-04
  1.1036918e-02
  6.4422983e-01
  1.3500770e-02
 -4.7229394e-01
  8.5553415e-03
 -1.1956839e-01
  3.3791188e-05
 -3.9980954e-05
 -7.7327168e-05
  1.5544027e-05
  6.3089828e-05
 -2.1596369e-04
 -2.2278913e-05
  2.9506817e-04
  5.6806966e-05
 -1.6077722e-05
 -4.8256716e-05
 -3.3643810e-04
 -1.6755388e-05
 -4.1424483e-04
  4.0310767e-04
 -2.9524077e-05
 -7.8939018e-05
  2.0213813e-05
  1.9946770e-05
 -1.3802528e-05
  5.1353709e-04
  8.5781363e-04
 -4.4758804e-06
 -1.8423545e-04
  1.6456188e-05
  1.3459084e-04
 -6.1053137e-04
 -6.2064551e-05
  1.2050263e-04
 -5.4544136e-05
 -1.2447551e-06
 -2.5146818e-01
  2.4229768e-04
 -9.9569133e-06
 -1.3058283e-04
  4.2505842e-05
 -1.0692846e-06
 -9.4706484e-05
  1.1137458e-03
  5.8561286e-06
  2.2055703e-05
 -3.1391319e-06
  4.4459350e-05
  7.7321019e-05
 -1.0933727e-05
 -5.3003205e-05
 -2.0477299e-05
  5.2449417e-05
 -2.9635317e-05
 -4.2606909e-05
 -8.7258369e-02
 -3.8338935e-06
 -4.5400655e-05
  1.5112791e-05
 -4.0129304e-05
  5.0348222e-05
 -2.9768520e-05
 -4.4555578e-05
  3.3994216e-05
 -2.9225210e-05
 -1.2977371e-06
  2.7146092e-05
  5.0966488e-04
 -3.0327255e-05
 -3.0133129e-05
 -7.3710798e-05
  2.2194977e-04
 -2.7285978e-05
 -4.6668389e-05
 -5.7293219e-05
 -3.9016712e-05
 -2.5679199e-05
 -8.9550078e-05
  4.4491328e-05
  1.7340503e-04
 -3.5398054e-05
  1.3402141e-05
  2.4440480e-05
 -8.9687846e-06
 -1.9301934e-04
  1.9978049e-06
 -5.4061191e-05
  1.2370474e-04
 -8.7278182e-05
  8.7059241e-05
  7.5257405e-05
 -7.1642600e-05
 -7.2543521e-06
 -8.8029265e-06
 -2.2743823e-05
  1.9246772e-05
 -4.2143693e-05
  2.0076761e-04
  5.4529919e-05
 -2.6747808e-04
 -1.1825275e-04
 -1.3231503e-05
  1.2799051e-04
  1.4302879e-05
 -4.8243634e-05
 -1.1826532e-05
  1.5590678e-01
  1.2855284e-05
  8.0143064e-02
  1.0420624e-04
  1.5774430e-01
 -4.4439739e-01
  9.4313586e-01
  1.6761217e+00
  5.4889446e-01
 -5.0389624e-01
  8.0096418e-01
  9.4846291e-05
 -2.7786195e-05
  1.2163269e-05
 -1.0582378e-04
 -1.4430046e-04
 -7.2501402e-04
  4.3886572e-01
 -1.5465002e-05
 -1.7979144e+00
 -1.0842424e-04
 -9.2304901e-05
 -1.8172944e-04
 -9.5156968e-02
  4.3052262e-01
 -3.7035694e-05
 -2.9783809e-04
  3.3693407e-02
  2.7629605e-06
  2.5418904e-04
  2.6620349e-01
  4.2424744e-01
  1.3940998e-05
 -5.4273721e-02
 -6.1882083e-06
 -3.9488470e-05
 -1.1514376e-03
 -1.8891225e-05
  7.9429679e-05
  3.8723963e-05
  4.0676576e-05
 -1.1833676e-04
  2.3872496e-04
 -2.6262745e-05
  1.6721489e-04
  6.3483903e-06
 -2.9670655e-05
  3.1061209e-05
  3.7134720e-05
 -1.9126867e-04
 -6.7030051e-05
  1.5179544e-05
  4.5396038e-05
 -8.9520203e-05
 -7.0027971e-05
  3.7010581e-05
  7.6964585e-07
  8.1256621e-06
  1.5808808e-05
 -1.2649235e-05
  9.3098577e-05
 -1.8890269e-05
 -4.6414294e-05
  6.7518871e-05
 -1.9463191e-04
  1.1869309e-06
 -3.1155396e-05
 -6.4088126e-06
  2.4803543e-05
  1.0036866e-05
  1.7043996e-05
 -4.1275398e-06
  5.8853340e-05
  3.3237971e-05
  2.7230757e-04
 -7.5783719e-05
  3.4420764e-01
 -8.4103121e-05
  1.0223234e+00
  4.3019238e-03
  4.2834584e-02
  6.6889755e-02
 -7.6117512e-04
 -2.0103412e-02
  2.4307138e-04
 -3.6534129e-06
 -4.7178361e-05
 -1.3064108e-04
  8.2832274e-05
 -4.8388629e-06
  1.2588825e-05
  4.8784148e-02
  1.0238159e-04
  6.4998630e-06
 -1.9453830e-05
  1.4023368e-04
  1.0121342e-04
 -6.1027189e-05
  9.1320081e-03
 -3.6939244e-05
 -7.9826277e-05
  8.4290023e-06
 -1.8119948e-05
 -5.7276007e-04
  1.5660986e-05
  1.2838858e-02
  1.6526412e-05
  1.0930950e-05
 -1.6715017e-05
  1.5318724e-04
  2.2548896e-04
 -6.8984002e-05
 -5.3541251e-05
  1.9020663e-05
  8.6009095e-05
 -1.1567255e-05
 -2.2442106e-05
 -6.3778905e-05
  1.0382523e-05
 -3.6054214e-05
  1.5045369e-04
 -3.5681005e-05
 -2.5990699e-05
 -7.0006667e-05
  8.3142851e-07
  4.9990460e-05
  2.5896174e-05
  2.2555940e-05
  9.2722985e-06
  3.1037507e-05
 -2.4315512e-05
 -4.0119801e-05
  7.0413342e-05
 -4.0524141e-05
  9.3461003e-06
 -2.7918690e-04
 -1.0895776e-04
 -5.4415468e-05
 -1.1450445e-04
  3.5350356e-05
  1.4197252e-04
 -1.0239962e-04
 -2.7686194e-06
  1.1641957e-04
 -3.7370490e-05
  1.4446530e-05
  7.8142511e-05
  4.0854149e-05
  7.0481270e-05
 -8.2887585e-05
 -1.3680226e-04
  1.2796439e-05
  4.3083910e-05
  1.0352528e-04
 -7.1959177e-05
 -7.1783638e-06
  1.5415566e-05
 -1.3997962e-04
 -2.5728026e-05
  8.4862731e-05
 -6.3775093e-05
 -4.9232265e-05
 -3.1922002e-05
 -4.4619304e-04
  4.3425047e-05
  1.3222566e-05
  1.9222689e-04
 -2.6442156e-06
 -5.6171495e-05
  2.8278277e-04
 -2.7420614e-05
 -1.2701553e-06
 -1.3064744e-02
 -2.1850683e-05
 -5.1915836e-06
 -9.4616342e-05
 -5.1400883e-05
 -1.9526316e-05
  3.8828919e-05
 -1.1932252e-04
 -4.3826062e-06
 -3.4047203e-05
 -7.1863593e-05
 -6.4396459e-05
 -5.3882536e-06
 -2.3538496e-05
  6.8100344e-05
  2.5192225e-05
  1.6904394e-04
 -3.7319522e-05
 -3.6039080e-06
 -5.8457958e-06
 -2.5204972e-05
  1.6995125e-05
 -6.1828694e-05
  5.8744976e-05
  2.2926866e-05
  9.0746298e-06
  4.1092029e-05
 -1.2510235e-04
 -5.3616870e-05
 -6.9949769e-05
  4.8776037e-05
 -1.3283488e-05
 -9.3778004e-07
  1.1458045e-04
 -2.5295813e-05
  7.8582183e-05
 -1.2983626e-04
 -1.8260977e-04
 -1.5111797e-05
  3.7425532e-05
 -2.5669073e-05
 -6.7077468e-05
 -1.9206635e-05
  1.6521909e-06
 -5.9306458e-05
 -5.0848492e-05
 -9.6941396e-05
 -2.6472122e-05
  5.6634885e-06
 -1.8146962e-05
 -5.8067868e-05
 -4.6729157e-05
 -1.3336753e-04
 -8.3231665e-05
  3.0925534e-05
  5.1555591e-05
 -3.0808518e-05
  7.6447723e-05
 -4.2107960e-05
 -1.1884480e-06
  1.2381298e-05
 -3.9048980e-05
 -2.3069819e-05
  7.6418633e-05
 -1.9451754e-05
 -3.1129002e-05
 -2.8781495e-05
 -4.4846780e-05
 -1.6358042e-04
  7.5014294e-05
  4.0610266e-05
 -1.7354136e-05
 -7.4184281e-05
 -1.5680525e-05
 -3.6068213e-05
 -1.8032131e-05
  1.6913913e-06
  1.7399618e-05
  1.5120205e-06
 -7.8674129e-06
 -1.0956760e-04
 -4.6222318e-05
 -8.5501318e-07
 -4.2432232e-05
  1.8014290e-04
 -1.9675294e-05
  4.9801592e-06
 -2.7389366e-05
  1.3276216e-05
 -3.4455454e-05
  1.9264684e-05
 -1.6537878e-04
 -2.9120711e-05
 -1.8553535e-04
 -4.5202974e-05
  1.6137583e-05
  7.7137147e-06
  1.6663904e-05
 -1.1147104e-05
  8.3669009e-05
 -4.4951780e-06
 -1.8134764e-05
 -4.2831649e-05
 -7.0121467e-05
 -2.6307443e-01
 -1.1832860e-04
  7.6148972e-05
 -6.6107110e-05
 -1.9131777e-07
  5.4432516e-05
 -1.1287456e-04
  2.7362639e-05
  1.1500283e-04
 -3.6215431e-05
 -3.4798668e-05
 -3.6418900e-02
  4.1989191e-05
 -4.7264715e-05
  2.5821224e-05
 -4.0485775e-05
  5.1848747e-05
  4.0937289e-06
  1.4969018e-04
 -1.9735418e-05
 -1.0727830e-05
  5.9798436e-05
 -1.6591435e-04
  5.6140088e-05
  5.5698724e-06
  8.6481206e-02
 -7.9629812e-05
  6.4855827e-05
  2.5818747e-04
 -7.0982929e-07
 -8.9034784e-06
  7.3059906e-05
  1.0572746e-04
 -3.4004138e-06
  1.3349329e-05
 -1.0096602e-05
  5.4247757e-05
  4.2112824e-05
 -1.4266472e-04
 -1.4217360e-05
  1.2569157e-05
  2.4472205e-05
  2.2206453e-04
 -1.5635400e-05
 -8.7666194e-05
 -8.1824008e-05
  5.3641837e-05
 -1.1899174e-05
  7.2453047e-05
  2.7343513e-06
 -1.0768519e-04
  6.6927455e-06
  4.2591648e-05
  2.0978447e-05
  2.4383975e-05
 -2.2713437e-05
 -4.1953124e-05
  3.0685693e-04
 -2.6636699e-04
 -1.9103805e-05
  8.0208891e-05
 -2.8535827e-05
 -9.6063759e-06
 -6.8254572e-05
  3.9324495e-05
 -1.3103554e-04
  1.1171588e-04
  6.3776351e-06
 -1.9436900e-05
  3.3858836e-05
 -5.2823612e-05
 -1.0823866e-04
  1.6623757e-05
 -4.5999543e-05
  2.2743639e-05
  4.1855958e-05
 -9.8970064e-05
 -9.6546348e-05
  1.3999635e-04
 -9.2178008e-05
  6.5796662e-06
 -5.2378591e-06
  1.9659063e-05
 -2.4222477e-06
  3.2570726e-05
 -2.1057211e-05
 -2.7926813e-05
 -1.6477305e-05
 -1.3207158e-03
  2.2558258e-04
  4.3902157e-05
  1.6781619e-04
  3.3016571e-05
 -5.8220874e-04
  3.8380895e-05
  4.1583035e-04
 -3.8897660e-06
  5.1783682e-06
  3.3838631e-05
  4.8684902e-05
  1.6849437e-05
  1.6787078e-05
 -6.6850007e-05
 -2.9425017e-05
 -5.7524059e-05
 -4.1472860e-05
 -4.0121577e-05
 -6.7582200e-06
 -1.6319215e-04
 -9.7315358e-05
 -5.7705720e-06
 -4.0939791e-05
  5.3525164e-05
 -1.4082456e-06
  2.5680006e-04
  1.8149769e-05
 -6.8630761e-05
  8.3481435e-05
  5.5163579e-05
 -1.9000842e-06
  1.6369953e-06
  2.7814636e-04
 -1.2192627e-05
  4.9816285e-06
  3.3821994e-05
  4.1879608e-05
  2.0986244e-04
  4.7707214e-05
 -2.2140475e-05
 -8.6343905e-05
  2.0935985e-04
  5.2697669e-06
 -2.1433589e-05
 -8.8640220e-02
  1.4286015e-04
  1.8562409e-03
  3.8028663e-01
  2.1705058e-05
  1.1366780e-05
 -8.1427112e-05
  2.9928981e-06
  2.5236199e-05
  1.8410601e-04
 -6.8555782e-05
  2.2946532e-01
  2.4373991e-05
  7.7422310e-06
 -1.1384964e-04
 -5.9949027e-05
 -2.1462762e-05
 -2.5140807e-05
  5.4574379e-05
  1.1231979e-04
 -7.1066047e-06
  3.6247460e-05
  2.6509273e-05
  3.7134349e-05
 -5.1940324e-06
  5.2380467e-05
 -2.6428741e-05
  1.6895172e-05
  1.5388199e-05
  2.8653620e-04
  1.5698872e-04
 -2.2620272e-05
  1.0096379e-04
 -4.6188416e-05
 -3.7773882e-04
  2.0836089e-05
 -1.0698874e-04
 -1.3492288e-04
 -2.9250459e-05
 -2.7550761e-05
  4.5281864e-05
 -1.2032456e-04
 -4.6015390e-05
 -4.0042682e-06
  6.5313878e-05
  8.6937007e-06
  3.4845165e-05
  2.8245235e-04
  1.5448080e-04
 -1.0816568e-05
 -9.7628836e-06
 -4.3080800e-05
  1.4303360e-04
 -1.8293156e-04
 -4.6915022e-05
  1.6247129e-04
  5.0386701e-05
  6.4401293e-06
  6.5904242e-05
 -2.0699790e-05
 -5.7446137e-05
  2.0197032e-05
 -1.5161126e-05
 -7.2174415e-05
 -3.0360250e-05
  3.6441284e-05
 -1.4474393e-05
 -9.0072070e-05
  4.0719583e-06
 -9.5495307e-06
  5.4129756e-05
 -1.8155585e-04
 -8.6482066e-01
 -8.8607660e-05
 -3.1993446e-01
  6.7231726e-05
 -1.1461269e+00
 -9.5213160e-02
 -7.5367874e-01
 -1.3134047e+00
  2.1619540e-01
 -1.3921329e-01
 -5.1522481e-01
 -5.7782786e-06
  3.2203216e-02
 -1.6505701e-05
 -7.6711818e-05
  1.9391558e-01
  1.7646218e-02
 -6.2972748e-01
 -3.6812108e-04
  1.0200236e-04
  1.5073326e-04
 -1.1650690e-04
 -4.3997938e-05
  5.2017462e-08
 -5.2826524e-01
  3.0352265e-01
  1.0837938e-04
 -1.5840450e-01
  5.4200384e-05
 -9.6949443e-05
 -2.7212647e-01
 -5.5825579e-01
  2.3734246e-05
  1.4743201e-01
 -3.1869076e-05
  3.0939162e-05
 -2.4724968e-05
  1.1841958e-05
  4.9078835e-06
 -1.2800604e-04
 -6.5122418e-05
 -2.7073962e-05
 -2.1131518e-06
 -1.3609107e-05
  1.0541430e-05
 -2.4369041e-05
 -5.3084361e-05
  1.2203741e-04
  1.5352896e-06
  1.6082362e-04
 -6.6881676e-06
 -2.5333659e-06
  7.3143594e-05
  4.6182620e-05
  2.0054981e-06
 -8.1819371e-06
 -1.7270332e-06
 -1.4337318e-05
 -2.6198029e-05
 -1.4737455e-05
 -2.5919375e-05
 -4.9875525e-05
 -2.1192478e-05
 -9.4900251e-06
 -6.1539111e-05
 -2.1575004e-05
 -1.7024891e-05
 -6.9108188e-05
 -9.7122675e-06
  1.1372320e-05
 -3.6032063e-05
 -5.1048253e-05
  1.4223823e-05
 -7.3942283e-05
  4.3090095e-06
 -3.6926464e-05
  1.3807296e-05
 -9.7748329e-05
  1.8050712e-04
 -4.9554514e-05
 -1.2159138e-04
  6.8389250e-05
  9.9672127e-07
 -1.1967647e-05
  1.9686508e-04
  9.0410118e-05
 -1.2311332e-05
  2.1821133e-06
 -3.4252120e-05
  1.2677170e-04
  5.8572623e-05
 -1.2913787e-04
 -7.5164439e-06
  2.6333217e-05
 -4.4013606e-05
  6.4342355e-05
 -4.1232470e-06
 -1.0165605e-05
  5.0848361e-05
 -2.9018785e-05
 -1.4166169e-04
 -3.5109249e-05
 -1.7199238e-05
  5.4864872e-01
 -1.3779157e-05
 -3.3572151e-06
  5.5369550e-05
  9.7803750e-05
  3.9158011e-05
 -4.3985234e-05
 -1.1207453e-06
 -5.9602676e-06
 -2.0644758e-04
  9.9271027e-05
  1.3098684e-04
  1.0892355e-05
  1.3302977e-06
  1.2112141e-04
  3.6853686e-05
 -8.5134016e-06
  3.0469642e-05
  9.2991954e-08
  2.8167264e-05
 -5.3635886e-05
 -4.6803238e-05
  2.8492588e-05
 -2.2348040e-05
 -2.8454093e-05
  1.7423205e-05
  1.3601694e-05
  5.4471002e-06
 -1.5804329e-05
 -1.8642393e-05
  1.2894943e-05
 -1.0145378e-05
  2.1137059e-05
  2.0652868e-05
 -4.4699318e-05
 -3.8154103e-06
 -6.0892630e-06
 -2.6033369e-05
  2.6965696e-05
  2.0473935e-05
 -1.0625835e-05
 -3.4192100e-05
 -3.3492226e-05
 -1.3920216e-05
 -3.1958346e-04
  5.4407024e-05
  9.1303453e-05
  1.4515572e-05
 -1.0119940e-04
 -2.4136843e-04
 -1.6197951e-05
 -3.1510619e-05
  2.3226574e-05
  4.2656691e-05
  3.7804526e-05
 -2.2759680e-06
  3.8500330e-05
 -1.1629059e-05
 -2.5917794e-05
 -6.4465465e-05
 -8.7587745e-05
  1.1619361e-05
 -8.1932303e-06
 -8.4487183e-06
 -5.9178151e-06
  1.1306309e-04
 -6.6572087e-05
  2.7841222e-04
 -2.6464133e-05
  2.4063173e-05
 -4.4029915e-05
  9.7590305e-07
  4.1754047e-06
 -3.1715073e-05
 -7.8430159e-05
  1.1322695e-04
 -4.3538152e-05
 -2.4290921e-06
  4.4178974e-05
  2.3407159e-05
 -4.9876363e-04
 -5.3144872e-06
  3.4561311e-04
  1.3388399e-04
  2.4256676e-04
 -1.5092915e-05
  2.6203712e-05
  7.9401383e-05
 -1.3497390e-05
  8.9005562e-06
  1.1646785e-05
  6.2113919e-05
 -8.8676825e-06
  9.2050679e-05
  2.9442052e-05
 -7.0651084e-05
 -2.5501882e-04
 -3.0495328e-05
  1.6328465e-04
 -2.7636184e-05
 -5.9118036e-05
 -1.2781667e-04
  1.6600941e-04
 -6.4908476e-05
 -7.7599829e-08
  5.5438381e-05
  1.4977659e-04
  1.8204744e-05
  5.9617229e-05
  3.8167840e-05
  1.5329088e-05
  2.5381812e-06
  1.7274442e-05
  5.2448926e-05
 -1.8069330e-06
 -1.2576382e-04
  1.9158975e-05
 -3.1035215e-05
 -2.9806422e-05
 -4.4235818e-05
  7.6784527e-05
  1.5714992e-04
 -1.2832129e-05
  1.7185954e-05
  1.0191216e-04
  7.1886447e-05
  9.0676520e-05
  3.4349388e-05
 -1.3427997e-04
 -4.7461126e-05
 -2.7100481e-05
  3.7993483e-05
 -1.7091601e-04
 -1.6529557e-05
 -1.1209332e-05
  1.3592369e-06
 -4.0040140e-05
  3.0824667e-05
  6.9413909e-05
  9.0132162e-06
 -9.3353765e-06
  1.1310933e-04
  2.7417910e-04
  3.5259196e-05
 -3.0829204e-05
  4.1903881e-04
  8.0977021e-05
  2.7523181e-04
 -1.2365132e-05
  2.2963657e-04
 -6.6608314e-05
  6.3351734e-05
 -8.6729095e-05
  1.1947801e-04
  5.6828059e-05
 -7.3829731e-05
 -1.0268905e-04
  7.4149546e-05
  1.7552926e-05
  7.0770955e-05
 -9.8811561e-06
 -1.3939059e-05
 -3.5456819e-06
 -4.4584993e-01
  3.1151701e-06
  5.9603826e-05
  2.3687982e-05
 -3.2758144e-05
  1.9776937e-05
  1.2658743e-04
 -1.6678339e-07
  6.4606525e-06
  3.2637431e-06
  6.9433449e-06
 -8.1737380e-05
  1.8237346e-05
 -9.1820737e-05
 -2.1493066e-05
  6.9986949e-05
  1.6564854e-04
 -4.6211007e-05
  8.0405389e-06
 -5.6050929e-05
 -6.9186637e-05
  6.1151654e-06
  7.3162220e-05
 -4.3837008e-05
  1.5946138e-05
  7.8575104e-05
  5.3456781e-05
 -2.3743236e-05
 -1.5412747e-05
  1.0203931e-05
  4.6750808e-01
  3.1320415e-05
  9.8589726e-02
  5.3674034e-05
  5.2532339e-01
 -1.7917432e-01
 -7.4179485e-02
  9.0000528e-01
 -2.8368604e-01
 -4.3909878e-01
  3.5522452e-01
 -9.1907677e-05
 -3.1244470e-04
  1.5398662e-06
  5.9980735e-05
  1.6172478e-05
 -4.9764675e-04
  6.7260885e-01
 -5.6169883e-05
  2.8532146e-05
  5.4324723e-06
  3.5444195e-05
  2.2031481e-05
  9.5488019e-02
  6.6854519e-01
 -9.8371729e-06
 -2.7619571e-05
  1.8856542e-01
  2.6710793e-06
 -2.3354010e-05
  3.7582913e-01
  5.7331413e-01
 -2.5191734e-06
 -1.3763079e-01
  2.4110124e-05
  5.4987184e-05
  1.5740287e-04
 -3.5176826e-01
  1.6657193e-04
 -2.3721021e-01
 -5.0614726e-05
 -2.7394602e-01
 -9.9818867e-01
 -3.8054291e-02
 -1.0270557e+00
  2.2949135e+00
  6.7372972e-01
 -6.2669981e-01
  1.5956855e-05
  2.2409154e-01
  3.5184068e-03
  3.6863119e-05
  1.3341557e-05
  4.5922063e-02
 -5.6728715e-01
 -3.5194145e-05
  1.3849518e-05
 -5.4804430e-05
  6.8282308e-05
 -2.5930050e-05
  3.3172110e-01
 -5.6871015e-01
 -5.9860991e-05
  2.6454728e-02
 -3.4563705e-05
  8.3416176e-05
  2.5627391e-05
  5.5300845e-03
 -4.3621552e-01
 -2.7597524e-04
  2.3117472e-01
  6.0789794e-06
 -1.3267620e-05
  1.8450159e-05
 -8.7677858e-05
  1.6233756e-04
  9.1622140e-05
 -4.4043372e-06
 -6.0812905e-05
  1.8429125e-04
 -5.1452917e-05
  5.3732267e-05
 -2.8641440e-04
  4.6400073e-06
 -4.2978245e-05
  2.0675199e-05
  4.7862017e-05
  1.0409831e-04
  1.3502591e-04
 -2.1065745e-07
 -3.1136544e-05
  2.3902347e-05
  5.4929944e-05
  1.5419140e-04
  7.5132113e-05
 -1.1910448e-04
  8.4704880e-06
 -1.6013622e-04
  3.4961944e-05
 -8.4558997e-05
  2.6637090e-05
 -2.4715132e-06
 -4.0928619e-05
  1.3182674e-05
  1.7130886e-04
  4.5134610e-05
  7.7711447e-05
  7.1359907e-05
 -8.3107243e-06
  2.6052043e-05
  1.2219745e-05
  1.0403232e-04
 -7.2074865e-05
  1.9092680e-05
 -7.3289819e-05
  9.6296906e-05
 -4.9434984e-05
 -6.4359083e-05
  4.1078241e-05
  1.3754590e-05
  2.4631396e-05
  1.7721368e-05
 -1.1109828e-04
  9.4909337e-05
  9.1508373e-05
 -2.4662348e-05
 -1.4459254e-04
 -7.0800263e-05
 -7.6742179e-04
 -6.1385235e-04
  4.1111118e-05
  2.6627423e-04
  7.3661417e-05
 -6.6525708e-06
  1.2167521e-04
  1.1748510e-05
  1.4037789e-01
  6.3733285e-05
 -9.5167059e-05
 -3.1336742e-05
  1.7664967e-04
 -9.4116192e-05
 -1.9296724e-05
  6.2703730e-05
 -8.7515269e-05
  7.4632619e-05
 -3.2638756e-05
 -3.8428029e-06
 -7.2485469e-05
 -9.5937692e-05
 -3.5012403e-05
 -1.7477527e-07
 -1.5835951e-05
 -2.2935053e-05
 -9.8821065e-06
  3.4795106e-05
 -1.2767032e-05
 -3.6151770e-05
  2.3592525e-05
  1.6886584e-05
  4.3690288e-05
  7.5029580e-05
  1.1521555e-04
 -2.6508776e-06
 -5.0678333e-05
 -7.5268355e-05
 -2.9292115e-04
  4.9505710e-05
 -4.0319836e-05
  2.8274542e-05
  2.8005015e-05
 -6.1175546e-05
 -2.0699107e-04
  2.5174217e-05
  1.2993229e-05
  9.3222006e-06
 -1.4165035e-05
 -1.2533606e-05
 -1.7463615e-04
  1.6903879e-05
  1.4773129e-05
  6.7602406e-05
  3.9733973e-06
 -4.7611280e-05
  3.9631723e-05
  1.7821999e-06
  1.2783955e-04
  2.7051859e-05
 -3.2681524e-05
 -3.1971969e-05
  7.2727722e-05
 -4.8830902e-06
 -2.9072624e-05
  6.3537584e-05
  3.0343203e-06
  1.1179766e-04
 -2.1389396e-05
 -2.5648176e-04
  4.5708581e-05
 -1.8085953e-05
 -2.3561272e-05
  2.7481467e-04
  7.3313608e-06
 -2.3827060e-05
  2.4644876e-06
  1.4294578e-04
  1.6141632e-05
  5.7787565e-06
  2.0448634e-04
  4.6800353e-05
 -7.1034796e-05
 -3.0442996e-05
 -1.5809275e-05
 -1.6329062e-04
 -8.7706663e-05
 -9.7376971e-05
 -3.3903723e-06
  2.8403723e-05
 -9.8876189e-05
 -1.0493135e-04
 -3.0890085e-05
  1.7921822e-05
 -3.4024313e-05
  2.8118073e-05
 -8.2342493e-05
  2.8966815e-05
 -1.5796877e-05
 -1.0841935e-04
 -1.9300140e-04
 -4.1796325e-06
 -1.7457515e-04
 -1.9473313e-05
  2.4918332e-05
 -4.2591280e-05
 -1.0081294e-04
  1.7418650e-05
 -2.5889154e-05
  4.2870422e-05
  5.8557995e-05
 -1.0476843e-04
 -3.4784967e-05
 -6.8777546e-05
 -3.6244826e-05
 -1.8856057e-05
 -1.9201552e-04
  2.2472342e-04
 -1.3820287e-04
 -2.0865999e-05
  9.2471362e-04
  1.7627532e-05
 -1.8743522e-05
 -7.9308265e-06
  1.1479781e-05
 -3.5710091e-05
 -3.3154897e-06
  1.3068109e-05
 -1.6291220e-04
 -2.4192936e-05
  1.6470469e-05
 -5.2968422e-05
 -3.3736102e-05
 -4.5397963e-05
  1.3432770e-04
 -4.3961867e-05
  7.7649947e-06
 -1.0001412e-04
  4.3027670e-05
  3.5773672e-05
  3.9491650e-05
 -7.6502401e-05
  5.6511777e-05
  8.9289679e-05
 -1.1445564e-05
 -9.9712612e-05
  4.4595112e-05
 -2.6787206e-06
  6.6500070e-06
 -1.9149779e-04
  1.1940870e-03
 -5.6953992e-05
 -7.5321244e-05
 -8.3797422e-06
 -2.8024215e-06
 -5.4500251e-06
  5.0652801e-05
 -2.3482738e-05
 -1.0197355e-04
 -9.6484800e-05
 -8.4875268e-05
  2.6036800e-05
 -2.0166433e-05
  1.5101819e-05
  5.2210471e-05
  2.2178812e-05
 -5.6856999e-05
 -8.6283631e-05
 -6.3383879e-05
  1.4004910e-04
 -1.3855900e-05
 -1.5729629e-06
  1.0320324e-05
  1.3599296e-04
  8.3272236e-05
 -1.2146783e-04
  8.8836423e-05
  2.3194749e-05
  4.1917741e-05
  2.3682722e-05
  2.4567513e-05
 -4.8406396e-06
 -1.0760975e-04
 -6.0458187e-05
  1.3010349e-04
  2.4478290e-05
 -9.8793562e-06
  1.1770847e-04
 -3.3526494e-06
 -3.9966053e-05
  8.2553313e-05
  1.7715216e-05
 -3.3114728e-05
 -1.3362512e-06
  4.4446869e-04
  2.0121081e-05
 -9.1613372e-05
  5.5563691e-05
  2.5739198e-05
  1.2108525e-04
 -2.4936969e-06
  1.8385403e-04
  3.7754042e-05
 -3.4008490e-06
  2.2424603e-05
  2.0719663e-04
  2.0496595e-05
 -6.8982888e-05
 -3.7223064e-05
  1.0074054e-05
 -9.3486497e-06
 -6.2545456e-05
  4.0959695e-04
  5.5588585e-05
 -5.5380166e-05
 -1.5665164e-05
  2.2097553e-05
 -8.6008117e-07
  1.5744173e-04
  5.8683072e-05
 -4.6205943e-04
  4.2627478e-05
  5.2525374e-05
  1.3564933e-06
 -3.3421317e-04
 -2.9226323e-05
 -9.3889561e-05
  3.0133371e-05
  2.6307634e-05
  4.0361651e-06
  4.8486887e-05
 -8.9502908e-05
  1.0252403e-04
  1.2703080e-04
  1.6463146e-05
 -2.0979057e-06
  1.8595356e-04
  6.3447966e-05
  7.6991273e-05
  2.5227169e-05
 -1.2435816e-04
  6.3452782e-05
 -2.6751133e-05
  7.5590084e-05
 -5.4169009e-06
 -5.4018314e-05
 -7.3826406e-05
  1.0252598e-04
 -3.4012648e-01
  4.3132663e-02
  1.4408817e-05
  5.0302049e-05
  2.2417035e-08
  5.0743982e-02
 -6.0540198e-05
  1.2221484e-04
 -3.9892413e-05
 -2.0169982e-05
 -3.0085735e-06
  1.6563191e-04
 -4.5470591e-05
 -2.5650625e-05
  1.1801379e-04
  1.1127657e-02
 -2.3781450e-02
 -2.3785756e-06
  2.4908464e-05
  1.9635339e-05
  1.1532643e-05
  4.2296866e-05
  2.7673832e-05
 -4.0159812e-05
 -1.3179509e-01
  9.2231804e-01
  1.3559067e-04
 -1.2431633e-05
 -4.4438610e-05
 -1.7563132e-05
 -8.9042151e-05
  9.5148556e-05
 -4.6639288e-05
 -5.8432597e-06
  3.5995323e-02
 -6.9603987e-02
 -1.6211696e-04
  8.7129672e-05
 -3.5626570e-05
  6.0298729e-01
  6.4650142e-01
 -2.5161037e-01
 -1.0998111e-04
  1.6702781e+00
  8.1996232e-06
  7.1373194e-01
 -4.8760590e-05
 -4.1473509e-06
 -2.9159010e-05
 -2.8667546e-05
 -1.9652033e-01
 -1.1621815e-04
 -8.7913533e-05
 -1.5005937e-05
  1.4576371e-01
 -4.6284208e-06
 -2.0642960e+00
  2.9722471e-05
 -9.3977527e-05
  3.9860480e-02
  6.3779280e-06
  6.5644032e-05
 -1.6863891e-05
 -5.9127808e-04
  2.0365703e+00
 -2.0803998e+00
  2.2553682e-04
 -7.6630713e-05
 -1.0426628e-04
  6.9636822e-05
 -5.3691696e-05
  7.8135941e-05
  2.9883196e-04
  7.9196425e-06
  5.5706285e-05
  6.6537978e-05
  7.8760029e-05
 -7.6206969e-05
 -2.2817113e-02
 -6.7674569e-06
 -1.2808205e-05
 -1.8871667e-04
  1.0696919e-04
  2.1150019e-05
 -3.2875778e-05
  3.3512810e-05
 -9.1338025e-06
 -1.1114010e+00
  1.9783793e-05
  7.7236618e-05
  2.2637105e-06
 -9.1117781e-06
  5.5937748e-04
 -1.8383482e-05
  8.3079767e-06
  3.2178130e-05
  1.5311796e-04
 -4.0273608e-07
  2.2823049e-05
  3.5338282e-05
 -6.7498272e-06
 -6.2230647e-05
  1.1575817e-05
 -4.4576671e-05
  2.1033186e-06
  6.5744127e-05
  5.1262792e-05
 -3.3076925e-05
 -1.4236616e-05
  1.7161484e-01
 -4.8214162e-05
 -9.8362842e-05
 -8.0527498e-06
  4.9786609e-02
 -1.3029008e-04
 -6.1839029e-02
 -1.1315104e-01
 -5.4901972e-04
 -8.0360973e-05
  1.7803839e-04
  1.5702845e-01
 -2.4666335e-04
  5.5293895e-06
 -6.9807866e-05
  3.0035258e-04
 -1.7576315e-03
  5.5962748e-05
  8.6329837e-06
  1.0757131e-03
  1.5148520e-04
  1.4601095e-04
 -3.9721482e-02
  9.5272409e-03
  3.6192039e-05
  7.2222308e-04
 -1.2142571e-04
  2.7723066e-04
 -4.4775643e-06
  6.8303496e-05
  5.4874623e-01
  4.7411352e-02
 -1.0793681e-02
 -2.3997913e-05
 -8.7752752e-02
 -2.4326324e-05
 -2.9121853e-05
  4.1024202e-01
  8.4886454e-02
 -7.2452523e-05
  2.5263615e-04
  2.1691039e-05
  1.1321405e-04
 -1.7504521e-05
 -7.9489415e-05
 -1.1807441e-04
 -1.2121555e-04
  1.1650000e-04
 -5.8246005e-05
  2.1809645e-05
  1.4622268e-04
  3.4692457e-05
  1.4228945e-05
  1.9757448e-04
  4.1007588e-05
 -1.9520722e-04
 -7.4780828e-06
  2.1644310e-05
 -7.1207476e-05
  6.9714726e-05
 -5.4285851e-05
 -1.3349790e-05
 -6.5037148e-06
  1.5870955e-05
 -7.8112816e-06
  2.0667532e-05
 -2.4603711e-05
  6.1672326e-05
  3.8898411e-06
  1.3701709e-04
 -6.1132370e-05
  8.1894985e-05
 -2.5411526e-05
  8.1426851e-06
  1.9796578e-05
 -1.0468333e-05
  1.0202114e-02
 -4.0776215e-02
  5.4638892e-01
  4.1184548e-02
  1.4699481e+00
 -9.2698669e-01
  7.0127642e-01
 -9.0595917e-05
  2.0402455e+00
 -3.1919021e-02
  8.9846209e-02
 -7.9166496e-01
 -1.6823729e-05
  1.5429348e-01
  4.5486361e-01
  1.7544002e-05
  5.5957574e-02
 -8.2994476e-02
  1.0378435e-01
 -1.0015671e-05
  3.3881509e-01
 -8.0719697e-01
 -9.8412151e-05
  6.4507753e-05
  1.0359126e-01
 -1.2125310e-01
  6.9761350e-05
 -5.0672799e-02
  4.8855051e-01
 -4.4393080e-01
 -1.1649036e-01
  1.3428351e-03
  4.6346248e-03
  2.1534866e-05
  2.0023173e-01
 -1.1128818e+00
 -3.2791075e-01
 -1.7764448e-04
 -5.8044002e-06
  2.1179761e-03
 -1.6272301e-05
  5.7354923e-06
  6.2628565e-06
 -3.9176324e-05
 -9.4578791e-05
  1.7996354e-04
  1.9566703e-04
 -3.6716705e-05
 -5.0039991e-05
 -2.4142089e-05
 -6.4719883e-05
 -2.1484559e-05
  2.8219813e-05
 -1.1256003e-05
 -6.8270238e-05
  1.5095286e-05
  3.3692993e-06
  1.1597907e-04
 -1.5451988e-05
  1.2311994e-05
  6.4933556e-05
 -7.8694084e-06
 -5.2313467e-06
  5.6702597e-06
 -4.1100586e-05
 -1.7791597e-05
  2.3853943e-05
  7.6951335e-05
 -1.3601324e-04
 -9.8203554e-07
  1.1536303e-05
 -5.2011237e-05
 -9.0073054e-06
  9.4865944e-05
 -1.1333749e-05
 -3.7792350e-05
 -3.2236563e-05
 -2.2882614e-05
 -7.6298678e-04
 -3.9489507e-03
 -7.9447269e-02
 -1.8832916e-05
 -6.2879037e-05
  1.6847372e-04
 -3.9953639e-04
  3.5871031e-05
  1.1046360e-04
 -2.2266596e-04
  3.3247808e-05
 -2.5758129e-05
  2.4344302e-04
 -1.8809571e-05
 -4.1257106e-05
 -1.8207589e-05
 -2.8358849e-03
  1.2787177e-03
  1.1476678e-04
 -6.6909211e-05
  1.3171552e-05
  1.1537660e-04
 -5.9562658e-06
  2.2546384e-03
 -1.8302771e-01
  7.3630698e-03
 -3.4134671e-01
 -9.9636154e-06
 -9.2587818e-04
 -3.5585051e-06
 -2.8004567e-04
 -8.5112224e-06
  8.1237711e-02
 -1.1960179e-05
 -1.6747619e-05
 -2.5172621e-06
  1.8422461e-05
 -1.5427709e-04
  1.3692832e-06
 -2.4966008e-05
  1.1558664e-05
  1.8478309e-04
 -1.5380863e-05
  1.2129641e-04
  3.4674897e-05
 -5.1735358e-05
 -2.8246683e-05
  5.4133659e-05
 -8.9575424e-06
 -5.2970525e-05
 -5.2102649e-05
 -7.9236699e-05
 -5.3115575e-05
  1.9627045e-05
  2.5096524e-04
  8.4691974e-06
  9.6740841e-06
 -3.0710733e-05
 -2.8818700e-04
  7.4480755e-05
  8.4558997e-06
  3.0534113e-05
 -7.1358145e-06
 -2.2211772e-05
 -1.5637453e-04
 -3.8749535e-05
 -3.0100541e-06
  3.0261139e-05
 -1.3867412e-05
  3.8519422e-05
 -1.7055999e+00
  1.0297228e+00
 -1.1019539e+00
  1.4798272e+00
  1.5037549e-01
  3.5941979e-01
 -2.0488866e-05
 -1.2437553e+00
  4.9013737e-01
 -1.4224499e-01
 -1.0078870e-04
  1.5912808e-02
 -2.4987035e-05
  1.2713933e-01
 -5.2558780e-01
  3.9773495e-05
 -3.5169348e-01
 -2.0434667e-04
  1.1899633e-02
  2.0633586e-05
  2.3822679e-01
 -6.5582317e-01
 -6.8985639e-05
 -1.6035951e+00
  7.9358792e-01
  2.2011207e-01
 -1.1278385e-05
 -1.7610721e-05
  4.0578592e-01
 -8.1674923e-05
  1.0896599e-01
 -1.2414220e-01
 -2.5714904e-02
 -2.3495051e-05
  3.0367947e-01
 -9.9014342e-02
 -3.2339826e-01
  1.9441787e-02
 -6.0943609e-01
 -2.4959362e-01
 -6.2951230e-04
 -9.7074807e-03
  9.0614247e-01
 -5.3262006e-02
  4.1984897e-03
 -1.2505205e-01
  4.6708584e-01
 -4.3638184e-04
 -1.4408125e-02
 -2.4686100e-05
 -5.8303338e-01
 -1.2145868e-03
  2.9855156e-01
  5.7485366e-01
  5.7269610e-03
 -7.1331044e-05
 -1.3348529e-04
  1.9321007e-05
  2.6970145e-01
  2.3588000e-01
  3.3323684e-01
  4.3641889e-05
  2.3474984e-01
 -8.2375547e-05
  1.9020609e-03
 -5.6234664e-01
  1.2231675e-01
 -7.4550426e-01
  6.3810721e-03
 -4.2206217e-03
 -4.7277845e-05
 -7.7339500e-01
  5.1243609e-01
  1.6700354e-01
 -1.0249004e+00
  1.3637851e+00
  2.0532899e+00
  7.3368186e-01
 -1.9486632e+00
 -6.2406403e-01
 -8.7089664e-01
 -1.5234419e+00
  1.9313171e+00
 -1.1408854e+00
  2.9176843e-01
  5.1126552e-01
 -1.1547367e-04
  1.1776768e-01
  6.8393123e-01
  1.5834531e-01
  1.1853467e-03
  1.5914270e+00
  3.7256771e-01
  5.2013487e-04
  1.1857126e+00
  1.9287893e-01
  6.0512713e-04
 -1.2973405e-01
  6.9481403e-01
 -4.8546270e-01
 -1.8162270e-04
  2.3250249e-01
  1.6272521e+00
 -4.2266965e-01
  2.1277039e-01
  2.8587356e-01
  1.0455990e+00
 -8.1836805e-04
 -8.9411449e-01
  1.1960404e+00
 -7.2887344e-03
  3.7405975e-04
  2.9295343e-05
  2.0117095e-05
 -6.8273148e-05
  1.3718999e-04
  6.7174726e-05
  8.0674938e-05
  2.7917250e-04
  1.9808771e-05
  2.5171848e-05
  6.6835841e-05
 -6.3947955e-06
 -7.2131159e-05
 -4.9011865e-05
 -4.8783065e-08
  6.1270788e-05
  2.5363581e-04
 -7.9052174e-05
  3.6945345e-05
  3.0228661e-05
 -9.5521455e-06
  6.3437656e-05
 -9.6448130e-05
  2.2619872e-05
  2.0382342e-05
 -7.4822732e-05
 -1.0875040e-04
 -3.3158125e-05
  1.5410656e-01
 -1.5490556e-04
 -1.6366779e-05
  2.2627302e-05
  5.7915345e-06
 -3.8450575e-04
  5.6742225e-05
  1.0847214e-08
 -5.6684662e-06
 -2.7797936e-05
  3.2534200e-04
  6.0087892e-05
  8.7707172e-05
  1.2481127e-04
  8.4384483e-05
 -1.5905176e-05
  3.6695103e-05
  3.5080004e-05
  3.0968644e-05
  7.2654097e-05
 -2.7604152e-05
  8.3061655e-05
 -1.0544755e-05
  1.2400076e-05
  4.4817592e-05
 -4.3720014e-05
  4.4898326e-05
  1.7826949e-06
  6.7445562e-06
 -8.2885863e-06
  1.3429883e-06
 -6.0158876e-05
 -1.8112884e-04
 -1.5201462e-05
 -1.4638211e-04
 -3.4558623e-05
 -1.5408940e-04
  1.8470298e-04
 -3.1876454e-05
  2.6584891e-04
 -3.4233381e-05
 -7.2206327e-05
 -8.2961989e-05
  7.0829951e-06
 -1.2766675e-05
 -4.1291984e-05
  5.4672056e-01
 -2.6414800e-02
 -1.4320295e+00
  6.2074047e-03
 -7.7307068e-06
 -1.4903581e+00
 -4.5860354e-05
 -2.8496960e-01
 -2.8578144e-01
  7.4859954e-02
 -2.1470571e-04
 -1.3108654e-01
  5.0666644e-05
  1.7964527e-04
 -3.0001491e-01
  6.2686242e-02
 -6.8600589e-01
 -8.6656570e-02
  2.6934214e-02
  1.7521276e-04
  3.7769789e-01
 -5.5710368e-02
 -9.5191253e-06
 -1.2779295e-01
 -2.4193261e-02
  4.3983199e-02
  8.0528735e-06
 -2.2984663e-01
  6.4742351e-01
 -1.0958105e-04
  2.8556573e-01
  7.5996108e-02
  1.6279182e-01
 -3.0392948e-07
 -8.4791702e-01
  4.3462005e-01
 -2.1095006e-02
 -2.1928510e-01
  1.1133460e+00
 -5.5197251e-01
  1.2630318e-06
 -9.1377370e-02
  5.1056057e-01
  3.9683896e-01
 -2.3963182e-01
  7.7867395e-01
 -2.5996673e-01
 -7.4738669e-01
 -7.9479828e-02
  6.5661884e-06
 -1.8834355e-01
  8.5180068e-01
 -3.5932248e-05
 -5.1093554e-01
 -8.7030309e-01
  8.0959958e-01
  2.6535135e-05
  3.2329303e-01
 -2.8366897e-01
 -5.6692930e-05
 -1.4569897e-02
 -1.1251915e+00
  4.6365298e-02
 -7.1935596e-05
  3.2484095e-04
  7.2540715e-02
 -2.2206037e-01
 -4.7813824e-01
 -6.4669710e-01
  9.4853860e-01
  2.8368788e-05
  4.6488158e-02
  2.7834162e-01
 -3.1905255e-01
 -5.4945522e-05
 -4.5787285e-05
 -3.3252212e-01
 -1.0386189e-04
  1.0304763e-04
 -9.6839678e-01
 -1.1575349e-04
  8.1652135e-05
 -4.9667047e-05
 -5.2222282e-02
  1.3964253e-05
 -1.8237890e-05
 -2.7041817e-05
  1.1403282e-04
 -1.7525845e-05
  2.7960976e-05
 -2.8006247e-05
 -2.0870063e-04
 -2.8138596e-05
  3.8084338e-05
  9.5000250e-05
 -3.8813587e-04
 -3.5232923e-04
 -6.8064212e-05
 -3.7886151e-05
  2.6221634e-05
  1.5142809e-04
 -3.2211858e-04
  1.3236889e+00
 -2.9616192e-04
  4.5174769e-01
  1.0396937e-03
  3.1633239e-02
 -9.4386232e-06
 -2.2283953e-06
 -3.2101995e-01
 -6.6470131e-02
  1.1725084e-05
 -1.0419666e-05
 -1.7362820e-01
  5.8758145e-05
  1.9645713e-04
  3.3572207e-05
  9.8852970e-06
  6.0473532e-05
 -1.5740203e-05
 -1.6461535e-04
  1.5699763e-04
 -2.4888705e-05
  1.1873794e-05
 -9.0535112e-05
 -9.6807353e-06
  6.7383085e-06
 -1.1830716e+00
  2.5319097e-05
  8.0864564e-05
  3.8278115e-05
 -2.4410012e-05
 -3.5553352e-05
 -2.1628350e-05
 -1.7845883e-05
  4.6354362e-05
 -3.2703098e-02
  1.0422578e-05
 -6.7782581e-05
 -2.9990304e-01
 -5.8814767e-05
  1.7698105e-04
  4.3020205e-04
  8.4902334e-04
  4.3485328e-05
  2.0197593e-05
  2.1294985e-05
 -1.6852740e-04
 -4.7932120e-04
  1.2991554e-01
 -4.2349014e-01
  5.5577779e-01
 -1.1728910e-01
  7.3570502e-01
 -2.7428252e-01
 -1.9903676e-01
  9.5453961e-03
  4.1222489e-03
 -6.4057797e-02
  1.6664726e-03
 -6.3957086e-05
 -1.2720017e-01
  6.5053406e-04
  3.1841260e-01
  2.6149493e-01
  8.5682385e-03
 -5.0680586e-03
 -9.8025510e-03
 -2.1324527e-01
  3.4700456e-01
  1.5524925e-01
 -2.3483203e-04
  1.0409309e-04
 -6.8211228e-01
 -1.1152546e-05
  9.9466376e-02
  2.3097940e-01
  7.9026723e-01
 -3.4637804e-04
  6.7584217e-02
 -6.6500776e-02
  8.5697291e-05
 -2.9996586e-01
  5.1896617e-02
  5.0233770e-02
 -6.1265382e-05
 -1.3351433e-05
 -2.5559399e-05
 -1.2340336e-06
 -1.3457699e-05
  9.7044416e-05
  1.1397719e-05
  7.1671064e-05
 -1.7556758e-04
 -1.6078648e-05
 -8.8585606e-05
 -2.2102662e-05
  1.4384204e-04
 -2.0650873e-06
 -4.8589245e-05
 -1.1446768e-04
  5.9379981e-06
 -9.0702008e-05
 -5.1314426e-05
  9.0350448e-05
 -5.9157992e-06
 -1.2862630e-05
 -6.2571475e-05
 -3.6395209e-05
  7.1092320e-05
  1.4410688e-06
  3.9302136e-05
  3.1702908e-05
 -5.9202655e-05
 -9.0132316e-06
  1.3142246e-05
 -6.9578280e-05
 -2.5417430e-05
 -2.0787838e-05
  6.9737769e-05
  7.1715936e-06
  3.1873435e-05
 -9.8895025e-06
 -4.4836717e-05
  1.7818622e-05
  1.0306650e-05
  1.3529232e-01
 -3.3013067e-01
  4.9564405e-04
  1.7576144e-07
  7.8467288e-05
 -5.6359352e-04
  3.2699609e-04
 -4.7041860e-05
  1.1688055e-04
  6.0606620e-04
  4.0533119e-03
 -1.6710230e-05
 -1.6363502e-04
  6.4242500e-05
  3.2598295e-05
 -4.8827808e-04
  8.2050959e-05
 -2.6270858e-05
 -1.2726543e-06
  9.5899792e-05
 -2.6445094e-05
 -1.6235155e-01
  7.3420866e-05
  1.1200975e-05
  2.4496172e-01
 -7.0534661e-06
  1.6256969e-03
  2.3696690e-05
  1.1348351e-03
 -4.6480662e-05
  3.5376059e-05
 -1.7858671e-01
 -1.6603163e-02
 -9.9585151e-05
  3.0615780e-01
 -1.3930250e+00
  3.7007999e-02
 -2.5932250e+00
  1.7597221e+00
 -1.0101920e+00
 -1.0055521e+00
  1.2552477e+00
 -1.4752077e+00
 -1.0756978e-01
  6.6136444e-01
 -4.7707633e-04
 -4.0417735e-04
  5.6118328e-02
  2.0635042e-01
  4.1806445e-02
  1.3440140e-01
  2.7979150e-01
 -1.2089354e-04
 -5.6534357e-02
  6.9509715e-01
  2.6385877e-01
 -7.7899389e-02
  2.0938976e-01
 -4.9158644e-02
 -5.4042859e-05
  5.2364665e-01
 -9.1677010e-01
  1.2794182e-01
  1.1582673e+00
  3.4502771e-01
 -1.0953212e-01
 -7.8921046e-05
 -5.5164438e-01
 -3.2712668e-02
  1.5030127e-02
 -2.6230269e-05
 -3.1218465e-02
 -9.7319312e-02
 -1.0439138e-03
  5.6305540e-01
 -3.0679768e-01
 -2.8417455e-05
 -6.2839958e-05
  2.7841638e-04
 -1.5406226e-01
  1.2591997e-01
 -1.1416098e-04
  6.9307214e-05
  5.3675824e-01
 -3.8145453e-04
  9.4850635e-05
 -3.0108652e-01
 -1.4934040e-05
  2.8786440e-03
 -2.1135947e-01
  2.5209424e-01
 -5.0525321e-03
 -5.0642863e-02
 -2.6509237e-01
  1.0736848e-01
 -1.0088822e-01
 -3.4794093e-06
 -2.4115223e-02
 -1.1961322e-01
 -3.7279487e-01
  3.2686055e-04
  1.5553683e-01
  4.1878976e-02
  6.3328487e-05
  1.1816048e-02
 -1.7242406e-01
 -1.1849244e-01
 -8.7532049e-01
  3.5320995e+00
 -9.6657085e-01
  1.5201945e+00
 -2.5527563e+00
  6.0950592e-02
 -4.0497041e-01
 -4.0223119e-01
 -1.8225852e-01
 -1.3813601e+00
  2.9893348e-04
  2.8960985e-01
 -3.0688676e-05
 -5.2496757e-02
  1.5488000e-01
  1.4778902e-02
 -2.8921397e+00
  5.3416306e-01
 -4.8387602e-01
  4.1133444e-05
  3.1899202e-01
  1.1208709e+00
 -5.1597158e-06
 -2.2620267e-01
  2.3561412e-02
 -3.0536199e-01
  3.9773247e-05
  2.4703342e-01
  1.1744895e+00
 -1.0472763e-01
  1.0429159e+00
 -1.1342279e-01
 -1.2921716e+00
  4.7951224e-05
 -2.1558976e+00
  2.0764873e+00
 -1.1219481e-01
 -5.3683263e-05
 -1.0072108e-05
 -1.3716854e-04
 -1.6974598e-05
 -1.6501364e-04
 -1.3279843e-05
 -1.6471693e-05
 -1.8512681e-05
 -2.9013999e-04
 -5.7388716e-05
  7.0531355e-06
  3.9797153e-05
  2.9615136e-05
 -6.4343367e-05
  1.8718842e-05
  6.5768996e-05
  3.5543765e-06
  2.4545514e-05
  5.2781002e-06
  2.3155542e-05
  2.1683421e-05
 -9.3431727e-06
  5.3775202e-06
 -3.8272092e-06
 -1.4182804e-05
 -4.6781279e-05
  4.9658156e-05
  3.1093274e-05
  1.5705080e-05
 -5.8104622e-05
 -1.1299654e-04
 -3.2614753e-05
  4.2609445e-05
  8.7707340e-05
  9.8485878e-05
  2.2703143e-05
 -2.9772518e-05
  2.2338428e-04
  1.6428679e-05
 -1.5532349e-04
  9.5294694e-05
  4.6925046e-04
 -7.5584912e-01
 -3.0605333e-05
  1.7712401e-04
  1.1225989e-05
 -1.2286660e-03
  2.4766283e-04
  8.4907646e-05
 -6.2812302e-05
 -3.8940434e-05
 -1.4037245e-05
  3.6647834e-05
  2.5188823e-05
  3.5747697e-05
  3.7156376e-05
  2.5242596e-05
 -2.8961536e-01
 -6.4557017e-04
 -2.3404355e-04
  1.1086398e-05
  2.5815823e-05
 -1.7553335e-01
  4.1980595e-05
 -2.9648985e-05
 -1.4551787e-02
 -3.0812414e-03
  6.4421401e-06
 -1.2615004e-04
  1.2140388e-03
 -8.4675885e-06
 -4.4209387e-06
  9.7049950e-03
 -2.2751018e-03
 -3.5923757e-02
  1.3964394e-03
 -3.8611053e-03
  6.2529922e-02
  2.5637567e-01
 -9.7491211e-01
 -9.7692857e-05
  2.0977847e-04
 -1.5102054e-01
 -2.5386178e-01
  1.8515062e-04
 -5.7734096e-06
 -2.7884169e-05
  2.4061397e-02
 -4.3628919e-01
 -3.8314996e-05
 -6.4692616e-01
  2.6077583e-05
  2.6754135e-06
  4.5293299e-03
  7.3314481e-04
 -3.8472646e-01
 -8.9943940e-05
  9.7927645e-02
  8.6025856e-02
 -1.3997538e+00
 -7.2822411e-05
  1.4745237e-05
 -9.9481761e-02
 -3.6570686e-03
  9.3358587e-03
 -3.6853922e-05
 -2.6166528e-01
 -5.5005959e-05
  4.3719145e-03
 -1.9798413e-01
 -8.9107096e-02
 -3.6256436e-02
 -6.9116732e-06
  4.1841063e-01
 -7.8709888e-01
 -1.6040017e-01
  7.6676399e-01
  1.1569983e-05
 -2.9865336e-01
  4.0692271e-04
  3.5604319e-01
  1.4106600e-03
  3.3810699e-01
  5.8470494e-05
 -6.0875427e-05
  1.0261745e-01
 -6.9938341e-07
 -1.8882498e-01
  7.1736760e-02
 -4.7743204e-05
 -5.9200163e-05
 -2.2079678e-01
  5.0272608e-01
  2.8108491e-04
 -4.8421691e-05
 -4.3152599e-03
 -5.1439023e-03
 -3.0634958e-05
  2.5127059e-01
 -3.9649194e-01
  1.7007942e-01
 -2.6963662e-02
 -2.2133230e-01
 -5.3330052e-01
 -3.4354656e-05
 -6.4458102e-03
 -4.2028427e-02
  6.4484058e-03
  5.1899529e-05
  7.9061829e-05
 -1.4080335e-05
  1.2994065e-05
 -9.4968436e-06
  1.1800348e-04
 -1.7634853e-05
 -9.8223973e-05
  2.2449609e-05
 -8.2438014e-02
  3.6747655e-04
 -1.2135858e-05
  4.7548063e-05
  1.8799872e-05
  2.1015750e-05
 -1.0941473e-05
  8.3928308e-07
  3.2083368e-05
  4.2409771e-05
 -5.0239541e-02
 -6.4616220e-06
  2.1903888e-05
  2.5312653e-01
  2.9345521e-05
 -1.5597816e-05
  4.1810283e-05
  8.2878265e-05
 -3.3422104e-05
  1.3426066e-04
 -3.4693818e-05
  4.2022803e-05
  1.6360596e-04
 -9.2510221e-05
  2.8935476e-05
  3.1140378e-05
  4.2254783e-06
  8.4894273e-05
 -9.6746544e-07
  3.7888487e-05
  8.4422882e-06
 -2.0119636e-05
  1.9638367e-04
  7.1628332e-05
  1.9970721e-05
  1.2135056e-05
 -9.3103066e-05
  2.0686016e-04
 -1.4789035e-05
  8.6992359e-06
 -5.8936679e-05
 -1.2225220e-04
 -1.2833018e-06
  1.2379131e-05
 -1.9406592e-05
  4.0356476e-06
 -1.0415934e-04
  7.4980667e-06
  6.9680427e-05
 -6.3108741e-06
  3.8072540e-05
  1.1605857e-04
  3.3845205e-05
 -1.1667213e-04
  1.3529554e-04
  1.2733235e-05
 -1.6284959e-05
 -1.2572030e-05
  2.0868292e-06
  1.5873060e-04
 -4.3184246e-04
 -1.7347552e-04
 -1.7005698e-04
 -7.3898009e-05
 -4.8814138e-05
  7.3514238e-05
  1.0370437e-02
 -1.9293615e+00
  3.2410514e-01
 -1.1289300e-01
  8.6220890e-01
 -1.9618626e-01
 -7.2635512e-06
  7.3384079e-05
  9.9813715e-02
 -6.4959511e-02
  1.1918143e-05
 -1.0603161e-06
 -3.4614913e-03
  6.2982813e-02
  4.8427733e-05
  5.6434608e-01
 -2.6171026e-06
  5.6622525e-06
 -8.0422367e-05
  2.2863505e-05
  1.3596816e-02
  3.8824455e-05
 -3.5051122e-05
 -8.8926675e-03
  2.0081753e-01
 -2.3526118e-04
  8.6606298e-05
  8.7934353e-07
  9.8104037e-02
 -3.4768008e-02
 -1.8335006e-04
 -6.9169962e-01
 -6.4112712e-04
 -4.7838379e-04
  4.9408395e-02
  9.6003585e-02
  2.7199287e-05
  5.7625315e-05
 -3.0150225e-06
 -4.1268922e-05
 -4.2419921e-05
  7.3468141e-06
  1.3910149e-05
 -4.8875751e-05
  5.6558354e-05
 -1.0591860e-04
  5.6908851e-07
  5.6015815e-06
 -1.9607627e-05
  4.7815454e-05
  2.0673411e-04
  2.1750006e-05
  1.9688348e-04
  6.1291416e-06
 -6.3996595e-05
 -2.2167922e-05
 -6.0777747e-06
 -2.6788545e-01
  2.6223977e-06
 -6.7228299e-05
 -7.5302167e-05
 -3.5086559e-05
 -5.7218083e-05
 -3.7062251e-05
  9.3354583e-06
 -5.0778348e-05
  2.5137005e-04
 -1.0395222e-04
  1.5300795e-05
 -9.9528725e-06
 -6.2514620e-05
 -4.2670399e-05
  3.5059958e-05
 -1.1317466e-05
 -6.8571826e-05
 -1.4079578e-05
  1.8519402e-05
  1.2025731e-04
 -4.8052811e-05
  7.7312594e-05
  3.9402614e-05
 -5.3186734e-05
 -2.1299707e-05
 -1.0140798e-04
  7.0939699e-05
 -2.2614799e-05
 -1.7738642e-04
  1.6479031e-04
 -9.5125833e-05
 -2.4717781e-04
 -1.0128891e-03
 -1.8402947e-05
 -2.2771716e-05
 -1.7462571e-06
 -1.3134998e-04
 -1.0585404e-04
 -1.9701906e-04
  1.3074255e-05
  3.7399120e-06
 -2.0423179e-04
  6.3300853e-05
  2.2560571e-04
  2.3033701e-05
 -7.6068800e-06
 -2.1903463e-06
  8.8043244e-06
 -1.9583304e-04
  1.2061402e-05
 -1.2773218e-05
 -1.1269276e-04
  4.3320065e-06
  2.9473827e-04
 -1.4630529e-04
 -5.6883870e-05
 -3.3942511e-06
 -1.8102293e-04
  4.6304373e-05
  5.4494447e-01
  7.8476245e-05
 -3.6744990e-05
 -2.3143550e-05
  3.8174792e-05
 -8.2092061e-05
 -7.4064978e-05
 -2.3260165e-04
  2.5224468e-05
  3.9083538e-05
  1.6195743e-05
  1.4815135e-04
  1.0665682e-04
 -6.1726198e-05
  5.3613185e-05
  1.7541624e-05
  9.5769414e-05
 -8.7615044e-05
  1.4811600e-04
  5.2843956e-05
 -1.0499387e-07
 -1.9999419e-05
 -3.2022676e-06
 -6.7797678e-06
 -2.4143658e-06
 -8.5407138e-01
 -1.2571737e-04
 -2.4596060e-05
  4.6333043e-05
  4.1820749e-05
 -3.5371537e-05
  2.6799151e-05
  1.7879294e-04
 -6.1688428e-05
  9.5325871e-05
 -4.6264886e-05
  1.5163913e-04
  5.3901160e-05
  2.8001163e-05
 -7.3246127e-05
 -7.2082483e-05
  1.6434200e-05
 -5.6678191e-06
  2.5792742e-05
  7.6899260e-06
 -1.9679024e-04
  5.0156963e-05
  1.2124283e-04
 -1.1655774e-06
 -1.8698089e-05
 -1.1823565e-03
 -5.9462059e-06
  1.6966475e-05
 -5.1730294e-06
  3.4766425e-05
 -3.4109651e-06
  3.3475874e-06
 -9.1249261e-05
  1.1443110e-04
  1.8400526e-04
  2.3800278e-05
  4.0855353e-05
  1.2993407e-05
  2.0707739e-05
 -1.0484856e-05
  4.3842036e-02
  9.4112374e-06
  2.2352711e-04
  1.6066020e-02
 -5.3896648e-01
 -3.1371915e-01
 -3.4918424e-01
  6.5656888e-01
 -1.6623946e-01
  8.7713612e-05
 -2.3779106e-01
  3.0413634e-01
 -1.5872453e-03
 -7.3922956e-06
 -9.9854688e-06
  1.9324459e-01
 -6.8829930e-01
 -6.3712680e-05
 -6.5515706e-06
  3.5974509e-03
 -1.0587107e-04
  3.2995253e-05
 -1.9365814e-01
  1.7518878e-01
 -2.4935978e-05
  4.8207292e-01
 -2.2099083e-02
  3.2670152e-01
  4.3388645e-05
  3.3751605e-06
  7.5330716e-01
  2.6392329e-01
  5.1176703e-01
  1.0801423e-01
 -6.5005101e-02
 -1.9662824e-05
  8.0357146e-05
  8.9115489e-01
  1.6726732e+00
  5.1097713e-06
  1.1011743e-05
  1.1716131e-05
  1.1883073e-05
  1.2401213e-03
  2.6501143e+00
 -4.7234342e-05
 -5.7712500e-06
 -1.5540370e-05
  1.1989157e-05
  1.1489997e-04
  4.3351953e-05
 -4.0039889e-05
  1.0593651e-05
 -1.4609122e-05
  1.9211611e-05
  2.4505865e-05
  1.8978545e-04
  1.0137222e-05
  9.4396186e-05
 -1.1357732e-05
 -4.6214627e-06
  2.7141079e-05
  2.0059513e-05
 -1.4974683e-04
 -2.8182700e-01
 -5.5873850e-05
 -3.7392687e-02
 -1.3887504e-02
 -8.4535568e-04
  3.4513672e-05
  1.0971162e-05
  3.0973522e-02
 -8.5700422e-06
  1.6658367e-05
 -7.9801597e-02
  5.2803716e-05
  8.6416832e-05
 -1.9982859e-05
  6.8587369e-06
  1.4548413e-04
  2.2599972e-05
 -9.3042636e-06
 -6.9713198e-05
  1.1124253e-06
  1.1651568e-05
 -3.4532688e-05
 -7.0706064e-06
  7.3830129e-06
 -4.1409752e-05
 -3.0164381e-05
  3.6254034e-05
  1.8716732e-05
 -8.9393034e-05
 -1.0491081e-04
 -3.5892601e-05
 -3.0310341e-05
  1.8452072e-05
 -1.4441342e-05
 -2.5601211e-04
  3.1571494e-06
 -1.2128648e-04
 -2.0579800e-04
 -1.9780786e-05
  1.2562811e-05
 -1.4633039e-05
  9.2992459e-06
  9.3626877e-05
  3.5899862e-07
  9.2054879e-06
  2.9827152e-05
  2.5135285e-05
  2.2486243e-05
  1.6453183e-05
 -4.9257153e-05
 -1.9141948e-05
  2.1178982e-06
 -3.1020707e-05
 -5.9850012e-05
  1.5791920e-05
 -7.4440886e-06
  9.8987057e-06
 -9.1576185e-06
  5.4030144e-05
 -1.3602232e-05
  6.7711630e-06
 -1.7434540e-05
 -2.8059920e-05
 -1.2348813e-04
 -2.1932043e-05
 -2.7711338e-05
 -6.7504534e-06
 -4.3103555e-05
 -7.4444062e-05
  1.6281745e-04
  5.3298289e-05
  1.5550586e-05
  8.5395450e-06
  7.9717742e-05
 -1.5502461e-06
 -4.1711271e-05
 -1.1642697e-05
  4.1529702e-06
  2.0985946e-05
 -1.6932236e-05
  6.5910172e-05
  3.2218548e-05
  1.1723835e-04
  2.9598636e-05
 -1.8220021e-04
  1.0977600e-05
 -9.4423928e-07
 -3.6616551e-05
  3.4823282e-05
 -3.4509332e-05
  5.2790409e-05
 -9.4745650e-05
 -5.1993022e-05
  2.0838399e-05
 -1.2397046e-05
 -4.9720831e-05
  9.4749994e-06
  9.0620797e-06
  7.2926865e-05
  2.5092371e-05
  1.0515186e-04
  9.6986662e-07
  2.2496506e-05
 -1.2999632e-05
  2.4068571e-05
  2.2814638e-04
  8.2247068e-05
  4.1063246e-05
 -7.1067974e-05
  1.3037090e-04
  1.7079743e-05
  4.9805585e-05
  2.6196471e-05
 -6.5372376e-05
 -1.1375832e-04
  1.5333828e-05
 -5.2204628e-06
 -6.6549874e-05
 -4.1697946e-04
  4.6129855e-05
  7.9089987e-05
  6.2344836e-05
 -6.2158383e-06
  4.7698803e-05
  2.7526909e-04
 -3.4287623e-01
 -3.0192611e-01
 -2.4462193e-01
  5.1161510e-01
 -2.3744391e-05
  1.9266429e-06
 -1.6197026e-05
  3.6623536e-05
 -9.5574367e-05
  1.3096457e-04
 -3.0585215e-05
 -1.7249057e-04
  1.9585025e-04
  6.8726063e-01
  2.8318840e-05
 -7.5432845e-06
  1.0924219e-05
  2.7832515e-05
 -3.5706325e-04
 -7.2834309e-06
  6.1798069e-06
 -3.1295949e-05
 -4.6407953e-05
 -1.4176045e-01
  7.9280653e-05
  1.9275403e-01
 -3.5167465e-01
 -5.9111107e-06
 -3.0276027e-01
 -5.2973259e-02
 -5.0297034e-01
  3.1206295e-05
 -1.5481832e-05
 -1.4013401e+00
 -3.4196775e-05
  3.8092134e-05
  4.7815403e-05
 -3.3745475e-04
  3.3545864e-06
  2.0020932e-05
  3.7669241e-05
  3.1236512e-05
  3.3170253e-04
 -1.7283181e-05
 -8.2646258e-02
 -9.6303247e-06
  1.6565162e-05
  7.7490186e-06
  3.5079981e-06
  1.9736401e-05
 -6.7923202e-06
 -1.0710203e-04
  8.1145648e-05
  4.2069241e-05
  1.3994057e-04
  5.2894862e-05
 -2.2482674e-05
  2.0580184e-05
  1.7590519e-05
 -5.5095832e-05
  7.6640072e-06
  8.3091218e-05
  1.0245005e-05
  4.0405803e-06
  3.4823010e-05
 -7.4786003e-06
 -5.3608510e-05
  1.1279506e-05
 -3.6231544e-05
 -7.9215723e-05
  1.6678520e-04
  2.4932935e-05
  2.7948120e-04
  6.7045461e-05
 -2.2341426e-05
  4.1319403e-01
  5.5941146e-06
 -2.7389401e-06
  2.1782089e-05
 -3.0121192e-01
  1.8515176e-01
 -1.0746424e+00
 -3.6042857e-06
  4.3566652e-05
  2.7690778e+00
 -6.7174357e-01
  1.2701509e+00
  1.8931134e-05
  3.1935462e-01
  3.7997856e-05
  2.1840990e-05
  2.2526340e-01
 -1.0985216e-01
  2.7759954e-01
 -6.4603606e-04
  2.5081322e-01
  2.0929000e-01
 -1.4467527e+00
 -2.9336783e-05
  3.9479222e-05
  4.4656515e-02
 -3.4020180e-05
 -1.9740788e-04
 -2.3320559e-05
 -6.0105074e-05
  2.8038612e-01
 -4.7146791e-01
  2.1881257e-05
 -3.4488687e-06
 -2.3505274e-05
 -1.3464690e+00
  3.2628042e-05
 -1.0414730e-02
  5.1367933e-01
  8.0040991e-06
 -7.5313586e-01
 -3.3720600e-05
  3.9830074e-01
  1.0616399e-01
 -7.9263932e-01
  1.7970661e+00
 -1.1997567e+00
 -3.2166920e-03
  7.1794721e-03
 -7.3159206e-01
 -1.5464059e+00
 -3.1256804e-01
 -2.6086858e-01
  1.3252817e+00
 -5.3853859e-05
 -3.9826593e-01
  1.1820662e+00
 -1.0082204e+00
 -1.4915196e+00
  6.0723229e-05
 -3.6228746e-01
 -5.2431774e-01
  7.5545979e-01
 -2.1928981e-04
 -1.1448779e-01
  5.6300867e-01
 -2.7965254e-04
 -2.6551941e-05
  2.6110789e-01
  1.2745601e-05
  6.7113996e-01
 -2.7535892e-01
 -5.4362354e-05
  9.1049287e-06
 -1.3527114e-06
  4.3954873e-01
  5.1216986e-03
 -7.5844349e-05
  1.7912796e-05
 -6.0371722e-06
 -1.2015873e-04
  1.6736032e-05
 -1.3126000e-05
 -4.0186649e-05
  9.6954491e-06
  1.6476164e-02
  1.2477713e-04
  1.0813144e-05
  6.6210188e-05
  1.0117205e-05
  4.4861491e-07
 -9.4132765e-06
  4.1827760e-05
  4.1365340e-07
 -3.2487431e-05
  2.4022997e-05
  3.7472902e-05
 -9.7582131e-05
 -1.4821962e-04
  1.6119053e-04
 -3.6177276e-05
 -2.6605427e-05
  3.7831069e-06
  3.9126832e-07
 -3.2936965e-05
  1.6761657e-04
  4.5976583e-05
 -2.1277307e-05
  3.8474813e-05
  2.5596159e-05
 -1.7114293e-05
  7.8304452e-05
 -2.9164221e-05
 -3.5155910e-05
 -4.6770576e-01
 -5.8493010e-06
 -1.1625814e+00
 -6.1820960e-01
 -1.6092159e-03
 -5.2258140e-01
 -5.1565731e-01
 -8.1078811e-05
  5.0464510e-03
  4.9734586e-05
  4.1329384e-02
 -2.1245240e-03
 -5.0237167e-01
 -5.8161885e-01
 -6.3170588e-01
  4.7003902e-02
 -5.3456717e-04
 -1.2694149e-04
  1.2897631e+00
 -4.3563206e-05
 -2.1001563e-04
 -7.8442417e-06
 -2.1112525e-04
  1.8785805e-04
 -1.2655692e-01
 -2.3137925e-03
 -2.2741389e-02
 -8.0026221e-01
 -2.2288452e-05
 -7.1112090e-01
  6.3194748e-05
  8.1878454e-08
  5.3888991e-05
 -2.2540205e-05
 -2.7789748e-01
 -7.3043579e-05
 -5.2763975e-01
 -5.6896335e-01
 -2.2911179e-01
  4.1745764e-01
  4.5050883e-01
  2.3947161e-01
 -1.6316183e-01
 -1.0285547e+00
 -6.7913121e-01
 -1.3551253e+00
  2.5779923e-02
 -3.0266470e-01
 -3.3863517e-03
 -3.4591880e-01
  8.6194533e-01
  1.0804987e+00
  5.2648401e-01
  1.0804771e-01
  3.4060499e-01
  1.6705886e-01
 -1.4475521e+00
  1.3270383e-01
  5.9924299e-01
  1.3671067e+00
  1.6656463e-01
 -2.4797496e-01
  2.0420137e-05
  1.1092161e-04
  3.6841828e-01
  5.7123721e-02
  3.8020703e-01
  1.0686246e+00
 -1.4488461e+00
 -1.6461101e-05
  1.1126218e+00
 -1.1771066e-02
  8.3225638e-01
  7.2513089e-02
  5.2248823e-05
 -3.3855765e-06
 -2.6352212e-05
 -1.6131835e-05
  7.2906099e-05
 -1.1035005e-04
  4.6738298e-03
  4.1249539e-05
 -8.8572953e-05
 -7.9347437e-06
  2.2853788e-05
 -1.4354678e-02
 -1.7692202e-05
 -6.7738909e-04
 -6.3446452e-05
 -1.1300819e-04
  9.5746200e-06
 -2.3690855e-05
 -6.4439432e-06
  6.1116625e-05
  4.0676758e-05
 -5.2655978e-05
  3.4407226e-06
  5.5018292e-05
 -7.7428536e-05
 -2.5926709e-05
 -1.5065973e-04
  2.5241814e-05
  4.0422747e-05
  1.2551009e-04
 -6.1518757e-04
 -4.3053606e-05
  3.8425787e-05
  7.2406961e-05
 -3.4412622e-04
 -4.3289947e-06
  7.7857752e-05
  1.8234882e-01
 -2.4305761e-01
 -1.3344653e-01
 -2.8677386e-01
  4.6598652e-01
 -3.9794180e-05
  2.3937037e-02
  7.3218114e-05
  3.4311346e-05
  4.4225737e-05
 -1.6383041e-02
 -3.7688391e-05
 -3.2839999e-03
  1.3989866e-04
 -9.8780237e-02
  8.1356895e-01
 -2.1816171e-05
  2.2946991e-02
  8.1731429e-05
 -8.1675127e-05
  2.4030491e-04
  2.3387230e-04
 -1.2924818e-04
 -2.1895581e-04
  7.8618781e-05
 -5.3272746e-05
  2.0362539e-05
 -9.6240299e-05
  6.3748455e-05
 -9.3063691e-06
 -8.8013321e-01
  5.0928375e-05
 -4.2573021e-05
  9.6249467e-05
 -4.1831355e-04
  3.7113514e-05
 -4.7111404e-03
  6.7346084e-01
  6.2226883e-07
 -1.5539855e-01
  5.3414065e-01
 -4.3781108e-01
  3.1044334e-03
  9.5344245e-01
 -4.8020658e-05
  1.3945829e+00
  2.1032004e-01
  2.4808630e-01
  7.6034246e-03
 -1.4867397e-01
  1.3603480e-01
 -6.8173878e-04
  2.4673128e+00
 -2.8484408e-04
 -2.2392769e-04
  3.1131899e-04
 -1.8183458e-05
  1.9920863e+00
 -2.7516356e-03
 -1.2687988e-04
 -9.2874625e-04
  7.0863783e-01
  2.7572361e-05
  2.9022214e-01
 -1.3531074e-03
  2.2996976e-06
  9.0929061e-01
  6.8663724e-02
 -1.3635076e-04
 -5.7234924e-05
 -1.0716527e-04
 -4.8285648e-01
 -1.4990464e-01
 -1.7022066e+00
 -4.5429537e-01
 -1.6753055e+00
 -4.2265800e-01
  6.5016270e-01
 -1.3499186e+00
  4.6265784e-01
  1.6135383e+00
  1.2063674e+00
  1.6160815e+00
  3.4402382e-02
 -9.7165990e-01
  2.2715601e-01
  5.3067398e-01
  1.1557654e+00
 -2.6122513e-01
  1.7671315e-02
  1.3448688e-01
 -4.6868411e-01
 -1.2449751e-01
  1.1716862e+00
 -7.5137556e-01
 -6.5922922e-01
  2.0474830e-01
 -1.8542718e-02
  1.2897013e-01
 -1.6441479e-01
  2.3774105e-01
  7.7110611e-02
 -4.9028358e-01
  2.5089136e-01
  3.1115431e-01
 -1.8358876e+00
  1.1296711e+00
  8.1872922e-01
 -1.7106987e+00
 -1.6323979e-01
  1.2009466e+00
 -9.5097985e-06
  1.8517450e-04
  9.4464012e-05
  1.4694041e-05
  1.1461489e-05
  4.4685323e-05
  6.0049417e-05
  1.0022040e-05
 -7.8946527e-05
 -1.9540896e-05
  1.3985643e-04
  4.1583620e-04
  7.5659686e-05
  1.6452346e-04
  7.4851130e-05
  5.8476719e-05
 -2.0007927e-05
 -1.5481818e-04
 -6.2599829e-05
 -7.4390991e-06
  3.5222227e-05
 -1.4098053e-04
  7.3662770e-05
  2.9045217e-05
 -3.1979328e-06
 -4.1055278e-05
 -8.6377004e-05
 -1.6991326e-04
  1.4326713e-04
 -6.0291350e-05
 -2.2543338e-05
  4.4467279e-06
 -4.8680453e-05
 -7.5765805e-05
  2.2349173e-05
  7.0173204e-01
  4.1829389e-05
  2.1906109e+00
  6.3961309e-08
 -2.7695349e-01
 -2.1028067e-01
  3.0766734e-01
  2.3921882e-01
  1.1054460e-02
 -1.6571959e-05
  2.6231824e-04
 -5.1574507e-06
  4.4735634e-01
  1.3726709e-05
 -3.2379118e-01
  9.9951612e-05
  5.1192492e-01
  3.0891302e-01
  2.0354571e-05
  4.8922348e-01
 -3.8927876e-05
 -2.2099834e-05
  9.4827396e-05
  4.3008474e-04
 -2.1458343e-01
 -5.5917334e-02
  1.5196898e-04
  1.9499446e-04
 -8.8840000e-02
  1.8575999e-01
  1.5314944e-01
 -2.8483155e-01
  8.1880206e-01
 -2.4745930e-05
  3.5219005e-04
  3.4787681e-05
 -1.7015354e-04
  1.6014808e-05
  8.4998578e-01
 -1.1920452e+00
  1.8569423e+00
  2.0500703e+00
  9.2575528e-02
  1.5022854e+00
 -3.7366736e-01
 -6.0102695e-01
 -4.7829214e-01
 -2.9108481e+00
 -8.8495696e-01
  2.4647815e-02
 -7.2313410e-01
 -6.3183922e-01
  2.1279410e-01
 -5.5243027e-01
 -6.8653721e-01
  2.7433649e-02
 -2.2598927e+00
 -5.4981685e-01
 -1.0345783e+00
  5.3995723e-01
  3.4588450e-01
 -2.1307988e+00
 -6.1449301e-01
 -1.3698766e+00
 -4.5736329e-04
 -2.1069715e+00
  6.3030571e-01
  4.8999009e-03
  5.9561288e-01
 -4.3126351e-01
  1.1808464e-01
 -2.4894855e-04
 -4.9393550e-01
  4.5864150e-01
  1.2175174e+00
  8.8232255e-01
 -1.3193197e+00
 -1.7608584e-01
 -1.2231668e-02
  7.1116424e-01
 -1.7726043e-01
  1.9142446e-01
  7.2254443e-01
 -1.7118162e-05
 -7.9636611e-02
 -5.3482313e-02
 -9.3363167e-05
  3.1774655e-02
  2.8268096e-01
  1.9929624e-01
  2.8604323e-01
 -1.2061145e+00
  4.8841020e-01
  2.5747067e-03
  1.8570233e-03
 -6.3674390e-02
  4.0484145e-01
  3.8093001e-06
 -1.4966692e+00
 -5.4584905e-03
 -1.4085124e-01
  1.1772456e-01
  3.9740726e-01
  4.3538725e-01
 -7.1437739e-02
 -2.2761509e-01
  3.4245357e-04
  1.2975192e-04
 -2.8879761e-06
  3.8523370e-01
 -5.2898359e-01
 -5.3072459e-01
 -1.4519735e-01
 -1.2367460e-01
  9.5446794e-06
 -3.1751120e+00
 -2.3284733e-01
 -8.8866514e-01
 -9.7792298e-01
 -1.8121674e+00
 -1.4780009e-04
 -5.8636445e-01
 -9.9585373e-03
 -1.0579658e+00
  3.1510913e-01
  1.0363877e+00
 -1.2830410e+00
  4.6432862e-05
 -2.5339266e-02
 -2.7343528e-02
 -9.2756853e-02
 -2.4864383e-05
 -9.7662985e-02
 -5.9009171e-01
 -7.5612727e-05
 -3.3677999e-02
 -4.0461015e-02
  3.4739864e-01
 -1.1739221e-04
  8.5379571e-01
 -7.2442997e-01
 -6.4547652e-01
  1.6992893e+00
 -1.0855902e+00
 -1.2650862e-06
 -3.7126832e-05
 -3.1833808e-04
  5.0447643e-01
 -1.0837041e-02
 -3.8360450e-01
 -1.2087244e-01
  3.5125792e-01
 -9.1179289e-02
 -6.4037424e-01
 -2.8349221e-01
  1.1406455e+00
  6.8362616e-02
  1.0714222e+00
 -9.4513841e-02
  1.0095298e-01
  1.4555511e-01
  9.4946951e-01
 -2.5457931e-01
  6.5967929e-01
 -9.8887160e-02
 -1.8434417e-02
  6.2937236e-01
 -3.6837304e-05
  7.5125802e-01
  1.8621005e-01
  1.5161166e+00
 -3.1781205e-05
  4.7585773e-04
  1.4633731e+00
  5.6351864e-01
  4.3127936e-01
  5.9355468e-01
  2.2170080e-01
 -8.6124700e-01
 -4.5828497e-01
  4.0542394e-01
  1.2989256e-04
  6.6684319e-05
  6.4706999e-01
 -1.7533088e-01
 -2.3421030e-01
  9.5390320e-01
 -8.6195821e-01
  5.9153682e-01
 -1.1963727e+00
  2.1038704e+00
  9.5049107e-01
  1.4424481e+00
  2.2727460e-01
  2.4191482e-01
 -3.2453048e-05
  7.6954138e-01
 -3.2767903e-02
 -5.5220335e-05
  8.8807398e-01
 -1.7980646e-01
  2.7168298e-01
 -8.5365945e-01
  1.0871246e+00
  1.0988225e-02
  2.8846440e-01
  1.9067074e-01
 -3.8239035e-01
 -1.5059244e-05
  5.0377458e-01
  2.5964868e-01
 -1.6422971e-01
 -2.2768774e-03
 -9.0733552e-01
 -6.6790783e-01
  3.4294984e-01
  1.1577419e-01
  1.0594498e+00
  2.2021979e-06
 -7.0959704e-06
 -1.8704883e-05
  1.5154872e-05
  3.6640318e-05
  1.2512701e+00
 -1.5506300e-01
  1.7162740e+00
  2.5019285e-01
  7.0522022e-01
  1.9935499e+00
  9.1895545e-01
  1.1283010e-01
 -1.2688216e-02
  7.0455295e-01
 -1.1505238e+00
 -5.9725977e-02
  1.0555801e+00
  4.5604804e-01
  6.5309459e-01
 -7.1687448e-01
  4.4280491e-03
  3.1954897e-04
 -4.1367696e-03
  1.3228977e+00
  1.0674927e-01
  6.4187628e-01
  5.1009828e-01
 -2.2676548e-01
  6.2127491e-03
  3.2001022e-01
  3.3578704e-05
 -5.7870311e-01
  5.8266586e-01
 -2.1548278e+00
 -2.1336593e-01
  2.1064590e-01
 -1.0993992e+00
  8.7239423e-06
  8.0984430e-03
 -3.8621745e-01
  2.0481360e-01
 -9.2511642e-01
  2.2809135e-04
  1.2588795e-05
  8.3389750e-05
  9.4444527e-05
  6.1829029e-05
  3.5830695e-04
  1.3618398e-04
 -9.0751884e-05
  1.5143957e-04
 -1.7034168e-05
 -1.7260147e-04
  8.6721639e-06
  2.6112530e-05
 -3.8972084e-05
 -1.7037593e-05
 -4.7300087e-05
 -3.0509443e-06
 -2.2480307e-04
  6.8835463e-05
  1.4128238e-04
  3.5304614e-04
 -1.4076417e-05
  7.2596804e-04
 -3.5109679e-05
  1.2204378e-05
 -3.8698086e-05
  5.5252029e-05
  1.0001252e-04
  2.2897508e-04
  1.3655634e-04
 -1.1351594e-04
 -1.3968123e-04
 -3.5041470e-05
 -1.1114405e-05
  7.1519798e-06
  4.4866301e-05
 -1.2195089e-04
  6.0196282e-05
 -1.6793286e-04
 -3.9364499e-05
  3.0466390e-04
 -4.5157918e-05
 -4.5769430e-06
 -1.1705828e-05
 -8.7369510e-05
  2.7198366e-05
  4.9009861e-04
 -7.0525834e-06
  1.7503831e-05
 -5.6764467e-05
  1.2056514e-05
 -2.6188009e-05
  2.3115591e-04
  2.2149785e-05
  1.1256234e-04
 -8.3336463e-06
  9.7336188e-06
 -5.8196500e-05
 -1.1569111e-05
  1.2413911e-05
 -5.1575156e-05
 -1.5099399e-06
  1.4083707e-05
  2.4280975e-05
  1.4772796e-04
 -4.6245124e-05
 -5.7674941e-05
 -1.5095001e-05
  1.3268857e-04
  8.9654422e-05
 -1.3750524e-02
 -4.7794267e-05
  4.6577650e-05
 -5.6498036e-05
 -4.8870232e-02
 -8.2391045e-05
  9.4207965e-02
 -7.0094633e-01
 -2.3103504e-02
  7.2359800e-01
 -5.5466164e-03
 -1.4283956e-03
  1.0652567e+00
  1.1669174e-04
  1.4021351e-05
  9.0644285e-03
  1.3697203e-01
  1.0058957e-05
 -2.2048077e-01
  8.1504154e-01
 -1.9759376e-04
  3.3842707e-01
  5.7971407e-05
 -1.3628680e-01
  8.9181447e-04
 -1.8992323e-05
  1.1433595e-05
 -4.4005316e-01
  1.0544588e-03
  2.7878383e-05
 -4.2246137e-02
  6.0595674e-05
  8.3667954e-05
 -3.3914688e-01
  9.0292484e-02
  1.6591419e-04
 -6.8685884e-05
 -3.5283738e-05
  4.8049118e-02
  1.0348530e-04
  6.5237820e-01
  1.2214482e+00
 -6.0049742e-01
 -7.0002538e-01
 -8.5250151e-01
 -9.4758081e-01
 -1.7583448e+00
  1.0813618e+00
  1.2589662e-02
  4.4935691e-01
  8.1713151e-06
 -3.3514947e-01
 -5.5253059e-02
 -3.7040591e-01
  4.4402168e-05
  4.3872035e-01
 -2.0747453e-02
 -5.2838150e-05
 -7.4297673e-01
  4.8153077e-05
 -7.6192105e-01
 -3.0153993e-01
 -1.1920062e-03
  7.2104693e-04
 -9.1511565e-01
  6.8375385e-01
 -3.2701304e-05
  2.0583734e-01
 -1.5307392e+00
 -6.5684283e-01
  6.2625714e-02
  5.6987894e-01
  2.6008159e-01
  9.4427822e-05
  2.2609156e-06
  3.6401609e-01
  3.0303528e-03
  6.5323645e-01
  1.6793658e+00
 -9.8565966e-01
  7.5791883e-01
 -1.9616421e-01
  1.8448456e-01
  8.1506056e-01
 -7.9064965e-01
 -1.5566196e+00
 -3.3588794e-01
  1.8468529e-01
 -1.4240377e+00
 -5.9662402e-01
 -9.2901431e-02
 -2.8561023e-01
 -2.3219696e-01
 -5.2144593e-01
 -5.9721482e-01
 -2.1315049e-01
 -1.7227736e-01
  7.5244337e-01
  1.4992489e-04
  2.9982001e-01
 -1.4586655e+00
 -4.9559551e-01
  1.8242486e-01
 -1.4346705e-05
 -2.4302243e-04
 -2.6811758e-01
  8.0482298e-01
 -2.5969530e-02
 -1.5422723e+00
 -3.7462448e-04
  8.4064108e-05
  5.0652394e-05
 -6.9615847e-01
 -1.3966920e-03
  1.1436522e+00
 -3.4654999e+00
  1.8525130e+00
  1.9808694e+00
 -4.9694797e-01
 -1.5314298e+00
  1.3954866e+00
  1.9353358e+00
 -9.7975826e-01
  4.7638737e-02
  6.5686637e-01
  1.1463558e-01
  3.9293972e-01
 -2.5387019e-01
 -2.2805780e-02
  5.2244222e-01
  2.0413778e+00
  7.6687521e-01
  8.3160388e-01
  8.4242243e-03
 -7.7114743e-01
  1.1190896e-04
  1.2873601e+00
  2.8828750e+00
 -2.9418355e-01
 -3.1547931e-01
 -3.3477876e-01
  2.1673220e-01
 -2.6916975e-01
 -4.1853157e-01
  9.5217824e-01
  2.7530006e-01
 -2.1848322e-01
 -3.6665017e-04
  2.3034483e-01
 -9.1655523e-01
 -6.1765099e-01
  1.2160382e-01
  4.1313396e-07
  1.2427404e-05
 -9.1786991e-05
  2.1772112e-05
  6.4246551e-06
 -1.5794400e-04
  9.5056908e-05
 -4.1766762e-05
 -7.3117269e-05
 -1.0423018e-06
  2.0684167e-05
 -2.2957277e-06
 -7.0479007e-05
 -2.0651170e-05
  1.7234748e-05
  3.6147630e-04
  3.3562264e-05
  4.6549980e-05
 -3.6870417e-05
 -5.9996473e-05
 -3.2920943e-05
  1.1074029e-04
  1.7952942e-04
 -3.1641408e-05
  8.6873379e-06
 -7.1512834e-05
  3.0427355e-01
 -2.2567976e-04
 -3.9006656e-05
  1.5949160e-04
 -2.9969651e-05
 -1.8317611e-05
 -8.6566200e-05
 -5.1302795e-05
 -3.5429580e-06
  3.1371471e-06
  6.8449765e-05
 -2.7476995e-05
 -2.1900016e-05
 -6.9659836e-05
 -4.0658638e-01
 -8.8641091e-06
 -7.7953773e-05
  8.4600042e-06
  6.3395513e-05
 -1.0529989e-01
  1.0898655e-03
  8.2284358e-05
 -6.5326021e-04
 -1.5621620e-03
  2.2960807e-05
 -3.0189874e+00
  6.1870538e-05
  6.2462379e-04
  1.2875989e-04
 -3.5869514e-05
  3.1102027e-05
 -1.0493794e-05
 -1.8489140e-05
  1.2157683e-04
  1.0970765e-02
 -4.8023292e-05
  8.8683100e-06
  6.4778173e-01
 -2.4541629e-02
  7.6375123e-05
  2.8789547e-04
 -5.7505316e-05
 -1.6235475e-05
 -3.2452353e-05
 -1.7046441e-05
 -1.4558037e-04
 -3.3509968e-05
  1.3815674e-05
 -5.8675897e-01
  1.9294314e-02
  6.9904105e-05
  5.6947142e-01
 -7.9591316e-01
  2.4687870e+00
 -4.1074929e-01
 -3.1386296e-06
  1.1809469e-05
  1.0380964e-05
  9.5058111e-03
  3.7285786e-02
  8.3157837e-02
  1.8500413e-04
 -2.9476168e-05
 -2.0550084e-01
 -2.2086813e-05
 -1.9801235e-02
  2.8869661e-05
  8.8101566e-05
 -5.1466521e-04
 -7.1005015e-05
  1.5479419e-01
  3.3033444e-05
 -6.5282404e-02
 -6.1908882e-05
 -6.0236514e-01
  8.2009092e-06
 -1.9042270e-02
 -8.2748719e-03
  3.7241907e-06
  4.8576141e-05
  4.8088310e-05
  5.3159598e-05
  3.8601440e-05
 -2.2102555e-04
  1.5734233e-01
 -5.1116850e-03
 -3.4058496e-05
 -9.9455639e-05
 -4.4882789e-04
  9.1744696e-05
  1.8636484e-04
 -1.0449246e-05
  1.9322523e-04
 -3.5575526e-05
  2.0686633e-05
  2.0371888e-05
  9.3886792e-06
  3.6743975e-05
  1.1818488e-06
 -1.6690099e-05
  3.1181549e-05
  3.1087995e-05
 -6.8549547e-05
 -1.3406685e-05
  6.4671978e-05
  3.0864820e-05
  1.6050104e-05
  5.4763779e-05
 -7.5105163e-06
  2.8243578e-05
  7.8912371e-06
 -6.0891143e-05
  6.2172410e-05
 -7.2158505e-06
 -6.4798005e-05
 -4.2908774e-05
 -9.9666715e-05
 -5.5300717e-07
 -2.9502218e-05
 -6.1847873e-05
 -1.6229578e-05
 -2.5672028e-07
  2.2797582e-03
  1.4520294e-04
 -2.5962103e-05
  1.0583745e-01
 -1.2981970e-02
  1.3071260e-05
  3.2757391e-05
 -4.8380822e-05
 -2.8179304e-04
 -1.3227991e-04
 -5.3948595e-05
  2.0961906e-04
  1.8950415e-05
  1.4914506e-05
 -6.2528437e-05
  1.1301784e-04
 -2.8967805e-05
  1.5012000e-02
 -3.5826662e-01
  1.2007972e-04
  9.2914452e-05
  1.6793620e-05
  7.4097434e-06
 -4.3450473e-04
 -2.5877785e-05
  1.4955184e-04
 -2.7100205e-05
 -1.5082880e-04
  1.3073755e-04
 -1.2323237e-01
  1.1376511e-01
  1.0282231e-05
 -5.9116269e-06
  3.8268804e-06
 -6.5007749e-05
  1.9344510e-04
  1.9087006e-06
 -1.2143447e+00
  1.5426213e+00
  1.3911037e+00
  8.1807429e-01
  1.2591548e+00
  1.0353973e+00
 -8.4046865e-01
 -5.7704604e-01
 -1.4282467e+00
 -1.8144110e-02
 -3.6989003e-01
 -7.3680395e-01
  1.9327600e-01
  1.1662995e+00
  3.6002856e-01
 -2.7642629e+00
 -3.2087666e-01
  1.0929761e+00
  3.8792032e-01
 -1.0974514e-01
  1.0942906e+00
  1.1630768e+00
  4.2539176e-01
 -2.1790771e-01
  3.5659203e-05
  4.1814369e-01
 -1.4995589e+00
  2.5913230e-01
 -8.4048826e-01
 -6.8055981e-01
  6.5021974e-01
  9.2052974e-02
  2.9107025e-03
  1.0567369e+00
  8.0821240e-01
 -1.1966647e-01
 -4.6421212e-01
 -3.5447836e-05
 -9.8905155e-05
  5.9988484e-05
 -5.5129865e-05
  2.9753050e-01
 -1.6326128e-04
  3.6772726e-05
  9.3127106e-05
  4.8095320e-05
 -4.3144424e-05
 -3.0033354e-02
 -2.0719074e-01
  1.2390592e-05
  1.7302924e-05
 -2.2620462e-04
 -2.0828404e-04
  1.0704245e-05
  3.9688977e-05
 -1.1837525e-05
  1.4651302e-05
  6.0968148e-04
 -2.5697666e-06
 -2.2284987e-06
 -5.1190826e-04
  7.3083618e-05
 -8.3769912e-05
 -1.4092323e-06
 -3.7611502e-05
  1.5508233e-06
 -2.0572753e-04
  2.0044885e-05
  6.9050446e-05
 -1.4802449e-06
  3.8886308e-05
 -7.3908865e-02
 -5.9593374e-05
  2.3232260e-05
 -1.3625575e-05
 -1.9057346e-05
  5.1353383e-04
 -1.3113272e-05
 -5.9181304e-05
  4.5487845e-06
 -6.3595282e-05
 -4.3263022e-05
 -4.8847382e-05
 -2.9298903e-03
  1.1756038e-04
  3.0373340e-04
  3.2754735e-05
 -3.2285010e-05
 -1.0290033e-04
 -7.7451827e-05
  4.1778917e-06
 -2.3110673e-05
  4.5886927e-06
 -1.9470035e-05
  7.9509657e-05
 -8.6318199e-05
  8.2360086e-05
  4.3485841e-05
 -2.2334106e+00
  2.1385500e-04
 -4.6768586e-05
 -1.2787433e-05
  4.0285126e-05
 -1.8976102e-02
  1.0211294e-04
  4.7022048e-05
  5.5921164e-06
  1.3337100e-04
 -3.8658884e-05
  6.6505963e-05
 -3.4848033e-06
  1.0801721e+00
 -1.1451724e+00
 -6.2930316e-01
  9.2678052e-01
 -1.8261728e-01
 -1.5612817e+00
  3.1938761e-01
  4.1058093e-02
  1.3955709e+00
  3.2502601e-01
 -5.3110652e-02
  2.5474524e-01
  9.6680142e-02
 -1.9482056e-04
 -1.8137254e-01
  7.1230114e-01
 -5.4189079e-02
  2.7281860e-01
  4.5708054e-01
  7.7837676e-02
 -8.6521613e-06
 -4.1181740e-01
 -6.2914783e-01
  3.1774327e-01
  1.2496663e+00
 -7.2947994e-05
  5.4875606e-01
  1.1503140e+00
  4.4168425e-01
 -1.0892987e+00
  3.2807395e-01
 -1.9944878e-02
 -2.4584218e-04
 -3.3190750e-02
 -1.0959474e+00
 -5.0065088e-01
 -1.2667358e+00
  2.1694858e+00
 -6.0557508e-01
  2.5219232e-01
  7.7621311e-02
 -3.4494051e-01
 -8.2919961e-01
 -3.1340218e-01
 -6.4173564e-06
  3.8544741e-01
  3.6636722e-01
 -6.0356032e-02
  1.5756657e-04
  3.0298609e-01
 -2.7550062e-05
 -6.7031237e-05
 -8.6985106e-05
  4.8393289e-05
 -2.5794882e-01
 -1.3535988e-06
  1.5456760e-01
 -1.7188826e-04
 -1.7834893e-04
 -1.5197978e-05
 -5.4724351e-05
 -5.9207625e-05
  2.4942465e-05
  6.3202839e-04
 -8.0983125e-02
  1.1226969e-04
  8.4477180e-04
 -1.0514602e-01
 -2.4599896e-01
  7.9317921e-05
 -8.3960139e-04
 -3.7791270e-01
  2.2315366e-05
 -3.4454992e-01
  5.2806245e-06
  3.4305725e-05
  5.7059126e-05
  2.6816229e-05
 -4.1646976e-04
 -7.4126670e-05
  1.0070486e-05
 -2.3544995e-05
  2.2615133e-05
  6.4517437e-05
  4.8487651e-05
  7.2167466e-05
 -9.6755624e-01
 -8.1789488e-04
  6.4280386e-05
  2.4473204e-05
  1.1428503e-05
 -6.9714421e-05
 -7.0143884e-05
 -7.2068951e-06
  1.6172926e-04
  2.3120515e-06
 -1.7571663e-05
  8.1178630e-05
  3.7974321e-05
 -9.9941390e-04
  5.2050513e-04
 -2.3689715e-04
 -6.1272160e-04
  1.4248501e-05
  5.1197203e-05
 -2.4283581e-05
 -8.6158238e-05
 -3.1632267e-06
 -1.1513763e-04
 -1.4400971e-05
  5.3619395e-05
 -4.2114480e-06
 -6.9191003e-01
  3.3774441e-01
  1.0529341e+00
  9.7628570e-01
 -2.8397181e+00
  2.4493815e-01
  8.8444036e-01
  5.7992560e-01
  1.3320374e-04
 -9.1365264e-06
  4.7687285e-02
 -1.6057569e-01
 -5.1374802e-05
  8.0922559e-02
  3.2031688e-01
  1.3652637e-04
 -8.1478947e-06
 -8.7289754e-06
 -1.9053386e-01
  3.0757946e-01
  3.6691285e-03
 -1.4728343e-01
 -3.9500305e-01
  8.9753635e-02
  5.4715718e-03
  3.8672793e-01
  2.2796120e-01
 -2.3480114e-05
  2.8015700e-01
 -9.2622794e-02
 -1.6419393e-05
  1.6843161e-04
  2.4199020e-05
 -3.9494067e-01
 -3.5660887e-06
 -7.9036497e-02
  1.6030584e-01
 -5.0257277e-05
 -1.5810298e-05
  1.7654783e-01
 -5.0735128e-01
 -2.1330487e-02
  1.6989145e-02
 -9.8747460e-06
 -2.8652637e-04
 -1.2437052e-04
 -2.5503295e-03
  8.3562772e-06
 -1.9582383e-01
  1.6331096e-05
 -7.7917321e-05
  5.9228564e-06
 -9.0063522e-06
 -4.8407216e-02
 -6.4620552e-05
 -2.3895517e-04
  3.0772411e-04
 -1.8518802e-05
 -3.4944311e-05
 -1.1799813e-05
 -6.6553344e-05
  1.4129994e-04
 -3.0890888e-02
  1.7430452e-01
 -5.2598618e-05
  2.7915522e-02
 -4.5829411e-03
  2.2266539e-02
  8.0297277e-06
  1.3402298e-04
  3.4414759e-06
  7.3465176e-06
 -7.9391348e-01
 -2.6565744e-05
 -2.6210078e-05
 -6.6076376e-05
 -4.1139200e-01
 -1.1112345e-04
  2.8886752e-05
 -8.1512624e-01
 -3.2721273e-05
  1.2257375e-04
  1.6992285e-04
  3.0804928e-05
  1.0838968e-04
 -6.6946086e-05
  2.0026300e-06
  8.9537600e-05
  1.7316075e-05
  2.6923404e-05
 -2.3449688e-01
  1.1135970e-05
 -3.5797860e-04
 -1.6807500e-05
 -1.4110190e-04
  1.6742553e-05
  3.1916949e-04
 -1.5345140e-04
 -2.7798174e-05
  2.9451394e-04
 -1.2090520e-04
 -8.8660789e-05
  6.2414083e-06
 -1.3921474e-04
 -2.7504150e-04
 -6.1879080e-05
 -5.7575940e-05
  1.6607014e-04
 -1.9281568e-05
  2.4178302e-05
  5.2550953e-05
  1.0573983e-04
 -2.0396935e-03
 -9.0696294e-06
  7.3143841e-05
  1.3383869e-03
 -3.7460265e-04
 -1.8839750e-05
  1.0627991e-03
 -1.5019330e-04
 -1.9618039e-05
  9.8773453e-05
  3.5328740e-05
  1.7939560e-04
 -1.0544914e-04
 -3.9288216e-07
 -9.7771896e-05
  4.9185361e-05
  5.9922560e-05
 -4.9370199e-05
  4.8105741e-01
 -9.0966942e-06
  2.0507077e-05
 -1.8219248e-03
 -4.4197704e-06
  7.3444644e-05
 -1.1300954e-04
  1.1923633e-04
 -1.2725413e-04
 -3.0535720e-03
 -8.9314171e-06
  1.0727342e-04
  2.5045435e-04
  5.5859080e-05
  2.4576995e-05
 -1.5006616e-04
 -1.5067523e-04
 -6.5906625e-03
  7.7787110e-05
  1.2620720e-05
 -1.4725120e-01
 -3.6522458e-04
 -1.5835893e-05
  2.6285290e-04
  3.5289188e-05
 -4.6112636e-05
  1.8497467e-06
  1.6923699e-05
 -6.7524357e-05
 -2.2129532e-05
 -1.8164372e-06
  1.1727036e-04
 -3.8911607e-05
  3.7981581e-04
  4.8779635e-05
 -5.4635671e-05
 -7.7056234e-07
 -1.1285118e-04
  7.7983444e-05
  1.3976237e-04
  4.4090807e-04
  2.4823619e-05
  2.4843854e-05
  8.7063941e-05
  1.9821080e-05
 -4.7418736e-05
  1.3657752e-05
 -2.2939536e-04
 -1.1813345e-06
 -1.3434891e-05
  7.0512659e-05
  7.0047630e-05
  3.8732418e-05
 -7.5239956e-02
  9.4769204e-01
 -8.7468128e-05
  1.3447990e-01
  6.1357446e-02
 -1.1660987e+00
  6.8045527e-02
  6.3104045e-01
 -6.6195615e-02
  4.0882981e-01
  1.5775190e-04
 -1.0602847e-01
  4.5810898e-06
 -1.0330462e+00
 -2.4647291e-03
 -6.6909902e-02
  1.9028348e-01
  4.7054609e-06
  3.5259858e-01
  3.9332073e-05
  2.3402090e-01
  1.2091194e-04
  3.5257142e-02
 -1.3511714e-01
 -2.3868985e-03
  3.5162509e-05
  2.3883601e-06
 -1.4101315e-02
 -8.4367321e-06
 -1.7890769e-05
 -3.4219375e-01
  5.7462239e-01
  2.5257049e-04
 -2.2651315e-05
  1.5789871e-04
 -5.2010977e-01
 -1.5928893e-04
 -6.2505417e-02
 -1.0458158e+00
 -2.3147293e-05
 -2.7516681e-01
  2.4778049e-01
 -9.0854812e-01
  5.6637591e-01
  4.3076593e-01
 -1.3065033e-04
  1.5416068e-05
  3.6391229e-04
  5.8899541e-06
  1.6884613e-01
 -4.9780107e-01
 -2.3378883e-05
  3.4604843e-03
  1.9300026e-01
  2.4033579e-01
  7.2369981e-03
 -5.7343652e-05
  4.5126796e-01
  1.6279621e-01
 -2.5038689e-06
  8.6564447e-05
 -3.1353172e-02
  1.2402181e-01
  3.4522909e-05
  3.5488227e-01
  4.3520755e-01
  6.7706242e-05
  1.3126578e+00
  7.1201943e-02
  5.3917582e-05
  7.2115166e-05
  3.0126350e-03
  3.0207083e-01
  3.4569272e-05
  3.7734857e-01
  3.7421474e+00
 -2.3524504e+00
 -1.5743024e-03
  8.6414814e-01
  7.7479398e-01
 -6.0995531e-01
  1.2842046e+00
 -5.7414287e-01
  1.9085995e+00
 -6.1242270e-01
  2.8670600e-01
 -2.2512586e-01
 -1.2359052e+00
  2.1085027e-01
 -2.0608971e-01
 -1.6479610e+00
 -9.2552871e-01
  7.4461497e-02
 -5.5341679e-01
 -1.1032691e+00
 -4.7713974e-01
  5.7431912e-01
  1.1690071e-01
  1.4852659e-02
 -4.0315205e-01
 -4.0521958e-01
  5.4912876e-02
 -1.2182763e-03
  1.3340428e-01
 -3.3319283e-02
  7.2967649e-01
  1.8919203e-02
  1.1272504e-03
 -8.3407559e-02
  7.1717635e-02
  1.1618882e-01
 -1.7325704e+00
 -2.5430405e-05
 -1.5435628e+00
 -1.3371588e+00
 -1.6260183e-05
 -6.7948170e-02
  2.2683129e-01
 -1.1163604e+00
 -1.1173246e-05
 -5.1907945e-01
 -1.1803467e+00
 -7.7970457e-01
  2.0898432e-01
  1.1894853e+00
  4.3736202e-01
 -1.1138149e-01
 -6.7583722e-05
  1.2471860e-04
 -2.2984979e-01
  8.2748532e-01
 -3.0539386e+00
 -4.2948890e-01
  3.3187100e-06
 -5.6331605e-01
 -1.0383608e+00
  1.3206248e-05
 -2.0569237e-06
 -3.6979783e-01
  3.4195575e-05
 -8.1410020e-05
  8.6423510e-01
 -1.3006364e+00
  1.7712316e-06
  1.0306402e+00
 -1.1711100e+00
 -6.3539535e-01
 -8.7632943e-05
  1.4314738e-01
  3.7964687e-03
  1.5303364e+00
 -2.0447171e+00
  2.6229698e-05
 -1.5335956e+00
  1.0487324e+00
 -1.2159554e-04
  2.9760498e-01
  2.9853031e-01
 -3.8472946e+00
 -1.4623975e-02
  3.8082099e-01
 -9.1018432e-01
  1.0508547e+00
 -4.4170874e-01
  1.1509168e+00
 -4.8508608e-01
  6.8782252e-01
  7.6329480e-03
 -3.7036859e-04
  4.2752340e-01
 -4.0220135e-01
 -1.4837972e+00
 -1.7474836e+00
 -1.1829329e-01
 -2.0199828e-01
 -3.6063665e-01
  1.1178685e-04
  1.8403715e-01
  9.3712032e-01
  1.4661309e-01
  1.4196368e-02
  1.0041586e+00
 -3.4028035e-01
 -5.8225010e-02
  4.2033800e-01
  3.3680457e-01
 -3.5116512e-01
  2.8852868e-01
 -1.5126222e-01
  5.1320541e-01
  1.0360415e+00
 -1.0348135e+00
  7.5242300e+00
  2.1015382e-01
 -6.4222896e-03
  2.2479485e-01
 -4.6550745e-01
  2.5334117e-01
  3.4832871e-01
 -2.7407136e+00
 -2.5585811e+00
 -3.4071741e-01
  4.2094954e-04
  2.8594473e-04
  1.8100193e-04
 -2.5923448e-05
  1.7722996e-04
  2.0194555e-05
 -9.3762450e-02
 -4.3747175e-05
  8.5406840e-01
 -1.2850156e-03
 -1.6457744e-01
 -7.7201933e-02
 -2.1137194e-04
  1.8471649e-02
  4.7339106e-01
  1.7137249e-01
 -5.3346056e-01
  1.6390136e+00
  4.7626755e-01
  1.8450531e-01
  4.7381160e-01
  3.0744073e-01
  1.2586141e-01
  1.3191988e+00
  1.2165443e+00
 -2.7806750e-01
 -3.0398947e-01
 -4.8678819e-05
 -1.7511571e-04
  5.9599447e-01
 -1.2952284e-05
  3.6489013e-01
  4.1724718e-01
 -1.8118944e+00
 -1.9355069e+00
  1.5522792e+00
  3.2402454e-06
 -3.9167327e-04
  7.9935398e-06
 -3.2716805e-01
 -1.9448002e-01
  7.7344447e-01
  1.3750253e+00
 -2.2893529e+00
 -2.2216387e+00
  1.6913120e-01
 -5.4264922e-02
  5.7727199e-02
 -6.7752957e-01
  3.7374843e-03
  3.3771515e-01
 -1.2424575e+00
 -1.4924988e+00
  1.5848653e+00
  1.6618544e-01
  9.8765318e-05
 -1.1060110e+00
  1.0195997e-04
  6.4413391e-02
  5.5330355e-02
 -8.4964406e-01
 -4.9382318e-02
  3.4158757e-01
 -1.8300377e-01
 -4.9526969e-01
  2.0395471e-01
 -2.3790647e-01
  1.2753621e+00
 -9.5617461e-01
 -1.3027275e+00
 -1.5862461e+00
  2.0071998e+00
 -1.3176857e-05
  3.7075231e-06
  3.6099172e-01
  1.3955125e-02
 -6.8634528e-01
  1.5381554e+00
  1.3863063e+00
 -4.7287950e-01
 -1.9187040e+00
  4.4049509e-04
 -1.9662557e-04
 -3.3626227e-05
 -1.1805032e-04
 -3.0759027e-02
  3.4256715e-01
  4.5506007e-05
  6.8337307e-05
 -6.8334125e-02
  4.7288053e-03
  1.7324011e-04
 -9.8067423e-05
  1.2703037e+00
  3.4338069e-01
 -2.8703029e+00
  1.5341733e+00
  2.4837842e+00
 -8.3196586e-01
 -4.8525508e-05
  5.3324628e-05
 -8.7895663e-05
 -6.1562824e-01
 -2.1907029e+00
  1.5118623e+00
  2.4883392e+00
  4.2113942e-01
 -7.3776906e-03
  3.7359464e-06
 -2.1926685e-04
 -1.6866979e-04
  9.9288904e-05
 -1.6987346e+00
  1.0113822e+00
  2.2311449e-05
  2.2466290e+00
 -1.1801588e-01
  1.3932700e-05
  7.1283728e-05
 -4.2298339e-05
  4.1861078e-01
 -3.3950016e-01
 -9.7627532e-01
  1.2004560e+00
  2.6049304e+00
 -1.5514044e+00
  1.3079127e-05
  7.2810195e-05
  9.5705866e-05
  1.4590836e-01
 -1.6702038e-01
 -1.2680925e+00
 -1.9252118e-01
  7.9939991e-01
 -3.0205446e-01
 -1.1543296e-05
  3.1166492e-06
 -5.1846396e-06
 -4.5241249e-01
 -1.1862079e+00
 -1.1855921e+00
  1.0658193e-01
  4.9519345e-01
 -1.1305032e+00
  4.1791176e-05
  6.4855462e-06
  1.6216869e-05
 -2.8932743e-02
 -1.7601395e+00
  1.6442844e+00
  7.1180093e-01
  7.5804240e-01
 -3.4750521e-02
  2.1146758e-02
  4.5038567e-05
  6.8502259e-01
 -5.7263911e-01
  1.1564856e-05
 -1.7182806e+00
 -1.7071850e+00
  1.0870593e+00
 -7.8371030e-01
  7.8898862e-05
  8.2689230e-06
 -2.3161094e-06
  1.6040922e-04
  1.8674985e-04
  1.0044023e-05
 -7.9245103e-05
 -5.7849960e-05
 -6.4639084e-02
  2.6424002e-05
 -6.4788121e-03
  6.0209684e-04
  1.8087239e-04
  5.9084350e-06
 -3.4144256e-02
  7.1172392e-01
  4.5024794e-01
 -2.1479993e+00
  1.1384885e-01
  7.9015171e-04
  4.6026922e-05
 -1.1336173e-01
  6.3371897e-02
  7.3529802e-02
 -6.2831640e-02
  1.6862821e-02
  2.7829611e-01
  1.0357034e-04
  1.1221220e-05
  1.1314527e-05
 -6.5018365e-05
 -5.1581974e-05
 -1.3548384e+00
 -3.4625467e-05
 -1.0345191e+00
  2.6581222e-01
 -1.9291609e-05
  1.3912625e-04
  6.5908571e-06
 -4.8890638e-01
  1.2404227e-04
  5.2108258e-01
  1.2198060e+00
  1.1480385e+00
  3.4010241e+00
  1.6487195e-01
  3.4960638e-05
  4.1145328e-01
 -1.6164358e-01
  5.1421916e-01
 -5.4592460e-01
 -2.5543344e-01
  1.1416637e+00
 -1.4473478e+00
 -2.5999017e-05
 -7.8824232e-05
 -1.0510468e+00
  2.7156329e-02
 -2.4659872e-01
 -1.0833976e+00
  4.3501252e-01
  3.6044198e-01
 -1.2377848e-01
 -3.9221430e-03
 -3.8891528e-02
  8.9733350e-01
 -7.9091096e-01
  1.0071078e-03
  4.4141966e-01
  3.6749379e-03
 -1.0852131e+00
  6.4414495e-01
 -3.3183870e-04
  2.3994906e-05
 -1.3479310e-04
 -9.0033245e-05
 -1.2500493e-01
  1.9506383e+00
 -7.8480918e-04
 -2.6761763e+00
 -6.6640699e-01
 -1.1532124e-05
  1.8396247e-05
 -5.7133406e-05
 -1.0159041e-04
 -2.1515139e-05
 -4.2425150e-01
 -2.7378985e-05
 -2.5165824e-05
 -1.6526214e-04
 -7.2727904e-05
  5.6929013e-05
 -7.4292293e-05
  7.7294462e-05
 -6.0851038e-03
 -6.3140923e-01
  1.2364921e-04
 -1.0715368e+00
  5.5590385e-01
 -1.8113373e-05
 -5.1806605e-04
 -1.0752810e-04
 -1.9840287e+00
 -1.8637468e-01
 -1.2459735e+00
 -2.6968666e-03
 -1.3515599e-01
  4.9918169e-01
  2.1847263e-05
 -1.2409588e-04
 -1.5915291e-05
 -6.3152202e-06
 -2.2074619e-01
  1.4432331e+00
 -6.7735809e-01
 -4.0632881e-02
 -1.8367663e-01
  1.0111809e-04
  1.4253728e-04
 -3.3029166e-01
  6.2297593e-05
  1.2643951e-01
 -1.4191211e+00
  1.2137085e-01
 -9.2998087e-01
 -3.1884387e-01
 -1.2803127e-04
  6.1940467e-05
  5.8598620e-05
 -9.5336193e-01
 -1.0812322e+00
  3.2582903e-01
 -3.3622630e+00
 -2.1288859e-02
 -1.0673918e+00
 -1.2978880e-05
 -2.5202855e-05
  1.2974394e-04
 -2.6699516e-01
 -5.2099003e-05
 -2.8634572e-01
  9.3713242e-01
  6.7859358e-01
 -2.3444021e-01
 -8.6444552e-06
  5.6231842e-05
 -4.9343398e-05
  2.2978613e-01
 -9.4822988e-02
  1.4311500e-01
  1.0903854e-02
 -2.7140211e-02
 -8.3109176e-01
  6.3436382e-02
  1.0864177e-04
  1.7887458e-01
  2.3651233e+00
  2.2870185e+00
 -1.1739602e+00
  8.0467117e-01
 -8.3641064e-01
 -7.3101223e-02
  6.8071477e-02
  3.6995290e-04
 -1.6830703e-05
 -1.7026639e-05
  3.3984847e-02
 -2.9526219e+00
 -1.5721222e-02
 -1.0229691e+00
  1.8926926e+00
 -8.8480563e-04
 -5.1868290e-01
  6.1491956e-03
  9.7373497e-01
  1.4248925e-02
 -1.0657338e+00
  1.4124062e+00
  5.3323293e-01
  2.5245881e-02
  1.2452700e+00
  1.2446386e+00
 -1.7064245e-03
 -6.5916044e-01
  1.5527372e+00
 -5.1278484e-01
  1.0058111e+00
  1.4799274e+00
  1.3847778e+00
 -2.1226166e-04
 -8.3672162e-04
  1.2384951e+00
  2.1685469e-01
  1.4042225e-05
  2.4081814e+00
  1.0285562e+00
 -1.0829409e+00
  2.1351163e+00
 -1.3383575e-04
 -1.4605673e-02
  1.3383618e-02
  4.7679793e-02
  7.2795039e-01
 -7.1440184e-01
  1.1644831e+00
  5.4018253e-01
 -1.3400032e-01
  2.2197734e-01
 -8.1807262e-01
  7.1071178e-01
  9.0109581e-01
  2.2119963e+00
  1.0160866e+00
 -6.7533457e-01
  1.8090731e+00
 -1.1816308e-01
  1.5169789e-01
 -4.0085972e-04
  5.2013516e-01
  9.8653418e-01
  3.7108794e-01
 -1.1280051e+00
 -8.2257915e-01
 -3.9316893e-01
  1.4892873e+00
 -1.3564545e-01
 -7.1609509e-01
  1.8519941e-01
  1.7834423e+00
  2.2510533e+00
 -1.1247227e+00
  4.1698745e-01
 -1.9887224e+00
  1.8035124e-01
 -2.3919960e-05
 -4.1690520e-05
 -5.7662374e-01
 -4.5974383e-01
 -5.2171344e-01
 -1.2163966e+00
 -3.7288415e-01
  1.5804367e-03
 -1.0570667e+00
  1.2676654e-04
 -3.3442462e-05
 -3.4209890e-05
  4.7676876e-04
  5.8451646e-05
 -2.7609867e-01
  9.8403878e-05
 -5.3949933e-02
 -3.2705706e-02
  5.0403029e-05
 -1.9239095e-03
  4.3500073e-05
 -8.7617552e-01
 -7.2101498e-01
  1.8702335e+00
  4.4871435e-05
  2.0352274e-03
 -3.3394381e-01
  9.6784666e-02
  4.1433941e-05
 -2.4874030e-01
 -4.2995584e-01
 -3.3346042e-02
 -4.5569235e-01
  1.6945446e+00
 -1.2964578e+00
 -2.3617551e+00
  3.6050547e-05
  2.0555004e-04
 -5.9612150e-05
 -7.4434775e-01
  1.2773220e-01
 -9.5943189e-01
 -2.2397545e-01
  2.0230052e+00
  1.4397904e+00
 -6.7464476e-05
 -9.8737506e-03
 -8.0986828e-02
  3.5651628e-02
 -7.9882264e-01
  2.9646462e-01
  1.2912379e-04
  1.5892353e+00
 -1.3910917e+00
  1.2882087e-02
  4.2083226e-03
  2.8489431e-02
  1.2640108e+00
 -2.0008762e+00
  8.7271982e-01
 -1.5377765e-02
 -5.9800076e-01
 -1.8241003e+00
 -8.6595603e-05
 -3.9816863e-05
 -7.7954102e-01
 -2.1116781e-01
 -2.0560238e+00
 -2.2247310e+00
  1.0636905e+00
  6.8265581e-01
 -2.3931134e-01
 -5.7922979e-04
 -1.8918517e-01
 -2.5490578e-04
 -1.9763296e+00
 -7.3194933e-01
  1.3798189e-01
  1.9881340e-02
  3.2664314e-01
  9.9897506e-03
  1.1711159e-01
  7.5844167e-05
  1.4297526e+00
  1.9541406e-03
  3.5057780e-01
  7.0571738e-01
  2.6786230e+00
  1.0682517e-01
  3.7309870e-01
  7.9529587e-04
  2.6116406e-05
 -5.5267126e-05
 -1.5310502e-04
  1.5726311e-05
 -2.1909527e-01
  4.8433113e-01
 -3.2630092e-01
  2.3287795e+00
 -3.0113342e-05
 -7.5431563e-02
  1.6970493e-01
  2.0350929e-01
 -6.8282759e-05
  1.2529989e-01
 -1.0258032e+00
 -9.6859044e-01
 -4.7262704e-01
  4.0885240e-01
  2.0122343e-01
  1.4958206e-02
  9.0890258e-05
  2.1222439e-01
 -7.3098820e-01
  2.0276337e+00
  1.0614677e-05
 -9.8851395e-01
  3.6467685e-05
 -5.7166490e-05
 -8.4774010e-02
 -3.0549403e-05
 -1.2369272e-05
 -4.6415934e-01
 -6.9229907e-01
  3.8813736e+00
 -2.8666527e+00
  1.1498111e-04
  2.7615399e-06
  3.4718785e-02
  4.3013030e-01
  2.3144465e-02
  7.3336262e-01
 -1.1650703e+00
 -8.4531891e-01
  7.9606968e-01
  2.6826739e-01
 -4.7275058e-05
 -2.8867090e-01
 -5.5328517e-05
  2.5968194e-01
 -1.4845316e-01
 -3.2044536e-01
 -1.2989013e+00
  1.8383715e+00
  9.9093653e-05
  4.2994849e-05
  9.6003097e-03
 -9.8419514e-06
  2.2063290e-01
  9.4141208e-02
  1.2837403e+00
  5.6938684e-01
 -2.4204113e-02
 -5.5674148e-01
  1.4804527e-05
  4.6407577e-01
  1.1521008e-02
  6.5333670e-01
 -8.0611467e-01
  7.2364442e-02
  5.3304873e-02
 -1.7790643e+00
  3.7290904e-01
  1.8243186e-02
 -2.0293932e+00
  8.7080234e-01
  3.1689465e-01
  1.2255893e+00
  2.3891640e+00
  4.4809780e-01
  1.5615692e+00
  3.6253792e-01
  1.0101794e-01
 -2.2258151e-01
 -2.1232228e-04
  7.8460573e-05
 -1.1468579e+00
 -1.2238538e-06
  4.9110255e-01
 -4.5839071e-02
 -1.2435887e+00
 -8.7645954e-01
  7.7627665e-01
 -5.8995793e-06
  7.6820186e-05
  2.1215998e-05
  1.3053863e-05
 -6.3202597e-02
 -6.5375876e-01
  1.1370507e+00
  8.9956492e-01
  4.3265656e-01
  1.2029795e-01
  3.7754339e-01
  4.6863157e-01
 -1.8822289e+00
 -2.4901041e-01
 -5.2404577e-01
  3.1097017e-05
 -2.6396948e-01
  8.2406247e-01
 -1.1651074e-05
  3.4987161e-04
 -1.4264053e-01
 -5.5219559e-03
 -1.7933031e+00
 -7.5925350e-01
 -4.6417656e-05
 -2.4800563e-01
  1.1694062e-01
 -6.9058937e-01
  1.4158468e-01
  8.8063203e-02
  1.1493931e-01
 -7.5363845e-02
 -5.8020210e-01
  1.8633102e-01
  6.1670095e-01
 -1.6305286e+00
  1.1288164e-06
  3.7931818e-01
 -5.4855633e-04
  5.5089910e-02
 -6.0274866e-05
  1.1913924e+00
 -9.2069352e-01
  2.0774171e-01
 -1.2360075e+00
  1.6781367e-01
  7.1914683e-06
 -2.0550278e-01
 -1.1783503e+00
 -7.6444203e-01
  3.8365233e-01
 -7.2214586e-01
  1.2095329e+00
 -3.4401414e-01
 -1.2233453e+00
  7.0819616e-01
 -3.8660339e-01
  4.0841246e-06
 -4.6395576e-01
 -1.7653619e-03
 -2.5182250e-01
 -1.1049627e-01
  1.2294623e+00
 -6.9726062e-01
 -1.1240443e+00
  2.8418714e-01
  9.7784454e-01
 -1.6661412e+00
  2.4339299e+00
 -4.0864483e-02
 -6.7356537e-05
  4.7945644e-04
 -2.1771908e-05
 -1.5223815e-05
 -2.9076007e-04
  1.5998849e-05
  5.5682057e-01
  1.7974086e+00
  1.0104610e-01
  6.9603369e-02
  1.0518557e-01
  6.3681822e-05
 -2.0182161e-01
  3.7169504e-01
 -1.9589837e-01
 -2.7499053e+00
  3.6528644e-01
 -8.0592692e-01
 -4.1770947e-01
  5.8813244e-02
 -8.3117634e-01
  2.8076550e-02
 -1.3515821e-01
 -1.7429791e-01
 -3.0290511e+00
 -1.7895668e+00
 -7.5684088e-06
  8.9891767e-03
  6.0026789e-01
  3.2693784e-05
  9.3181175e-01
  1.6167363e+00
  6.5333292e-02
  2.4997325e+00
 -4.4155356e-02
  5.5752010e-03
  2.9322177e-01
  3.1291783e-01
  3.4103855e-02
 -1.5942769e-01
 -6.7096722e-01
 -1.7562300e+00
 -2.9867980e-01
  2.0636120e+00
 -9.2897624e-01
 -6.6265464e-01
  1.6294990e-01
 -1.5177591e+00
 -6.0451438e-04
 -6.8506676e-01
 -1.2183062e+00
 -1.6652873e-01
 -1.0283352e+00
 -9.6752570e-05
  3.9561279e-04
 -1.5959288e-01
 -2.5011590e-01
 -2.4801420e-02
  8.7171638e-01
 -1.0416473e+00
 -7.4653196e-01
  1.0533557e-01
  1.5908402e-01
  3.9433101e-01
  1.1520933e+00
  9.9020761e-01
 -3.2348137e-03
  6.6277027e-02
  6.5224833e-04
  2.0564673e+00
 -2.0460099e-01
 -2.4302104e-01
  8.1640944e-02
  1.0610777e+00
  2.7564555e-02
 -3.1065810e+00
  6.3411099e-01
  4.9414107e-01
  2.1170199e+00
 -3.1868901e+00
  1.4445215e-05
 -2.5213990e-04
  4.5659002e-05
 -1.4888348e-05
 -2.1665024e-02
  3.9153007e-01
  1.0485161e-04
  2.0856149e+00
  2.9540365e-06
 -2.0669924e-01
  1.3644893e-01
  1.2738609e+00
  2.7901316e-01
  2.3972526e-02
  6.8378216e-01
 -1.1260848e-02
 -1.6335495e+00
 -2.7613524e-01
 -6.5465880e-05
  1.3013338e-05
  4.0962243e-01
 -2.7980494e-05
 -3.3718624e+00
 -1.4371446e+00
  7.5880063e-01
  3.2009566e-01
  1.2091615e+00
 -6.0578320e-02
  1.7447265e-02
 -1.7006970e-06
  5.2524126e-01
 -4.5584206e-05
 -7.7108538e-01
 -2.1745104e-01
  9.1921312e-01
  8.5444933e-01
 -1.0487223e-04
  1.6134287e-05
  8.2953745e-01
  2.6585272e-05
  1.3149339e+00
 -8.2071966e-01
 -2.9073840e-01
 -6.4634335e-01
 -7.8092963e-02
 -8.8524265e-04
  1.9056624e-04
  1.3274567e+00
  2.6446663e-02
  2.7530032e-01
 -8.8597506e-01
  1.6363554e+00
 -1.0267280e+00
 -3.8339132e-01
 -1.2854515e-01
  1.1288136e-01
 -2.8517631e-01
  3.0226408e-02
 -1.2662052e+00
 -4.9815956e-01
  8.4984010e-01
  1.1810344e+00
  1.2018205e+00
  2.9732499e-05
 -8.7551882e-05
  3.6589906e-01
  9.4833206e-07
 -1.1744063e-01
 -4.2026550e-01
 -8.5835151e-02
  1.4414632e-01
 -3.9903387e-02
 -9.2555510e-06
 -1.6316681e+00
 -1.2923284e-01
  6.9492485e-04
  1.0115474e-05
  7.3386061e-01
 -8.6791301e-01
  9.3987298e-01
  1.4783711e+00
 -5.2900865e-05
 -1.3522302e-04
 -4.5118101e-02
  4.8199901e-05
  2.5915493e-05
 -4.1662395e-01
 -1.1392271e-01
  2.3246041e-01
  3.9499959e-01
  6.4742388e-05
 -1.3513224e+00
  5.2284326e-05
  1.0250415e-05
  3.7315229e-05
 -6.2266818e-06
  4.9938774e-01
  4.0682547e-02
 -3.9162049e-01
 -5.7455482e-06
 -1.1393608e+00
 -1.9153847e-01
 -1.4362976e-05
 -4.4100298e-06
 -7.7731794e-01
 -1.6193422e+00
  2.4568723e-01
  1.6075233e+00
  6.1876519e-05
  6.7550701e-04
 -2.1637951e-01
 -9.8017126e-06
 -2.2005096e-04
 -1.2878431e+00
 -6.9502865e-05
  5.4321527e-01
 -5.2038735e-01
 -2.4869878e-05
 -2.1235242e+00
  7.6938480e-01
  5.2821593e-05
  9.3402186e-06
 -5.2659459e-02
  2.8825036e-01
  2.0678422e+00
 -1.7793318e+00
 -1.4321697e-04
  1.4520752e-03
 -8.9216268e-01
 -6.2497347e-06
 -3.9565068e-05
  3.4487382e-01
 -1.1452781e+00
  1.1804503e+00
 -3.9132121e-01
  5.7610385e-05
 -1.3029101e+00
 -2.5693056e-01
  1.3259590e-03
  1.0374157e-04
 -2.4748726e+00
  3.2647493e-01
  2.6313645e-01
 -2.5512069e-01
 -6.0591916e-05
 -8.8990688e-01
  4.3585297e-04
  7.5319229e-05
  6.0511502e-06
 -2.9656231e+00
  1.4794596e+00
  5.7255131e-01
 -4.7498444e-01
  5.5321474e-05
 -4.1365220e-05
  9.8785376e-06
  9.0067444e-04
  4.2551160e-01
 -1.3934655e-01
 -3.4395069e-01
 -3.5412002e-01
  2.7958455e+00
  7.8345511e-06
 -2.5694778e-06
  5.6720957e-05
 -6.6005746e-06
 -2.8349512e-05
  1.2225094e+00
  2.0591590e-04
 -7.5288451e-01
  1.0116422e-06
 -2.8230258e-07
 -9.5244170e-05
  3.2029735e-04
  4.2406822e-04
  5.2978299e-03
 -8.7058371e-01
 -3.6335343e-01
 -6.0901779e-01
 -3.4470275e-01
 -2.0509525e-03
  1.7518538e-05
  1.5929623e-05
  2.5743822e-05
  7.1421301e-01
 -1.1326236e+00
  1.2303770e-01
 -1.2182283e+00
 -1.7208779e+00
  3.9486931e-05
 -6.3616200e-05
  1.8099199e-05
  6.7501040e-03
 -3.1246248e-01
 -1.4290287e+00
 -2.0378059e-01
 -7.9235816e-01
  4.5240329e-05
  8.4956346e-06
  4.8416081e-05
 -1.8897135e-05
 -4.1184099e-05
  1.0979203e+00
 -6.8213964e-01
  5.3397709e-01
 -2.2629364e+00
 -2.5845177e+00
 -4.3375396e-05
 -3.8070755e-06
  2.9304074e-05
 -8.6916400e-05
 -2.9774319e-06
 -6.5637898e-01
  1.7751025e-02
  2.1053970e+00
 -1.0454826e-04
  4.6915331e-01
  1.0099253e-04
  1.1134857e-04
  2.9820547e-01
 -1.3264531e-05
 -7.7416852e-02
 -2.3402755e-01
 -1.1116798e+00
 -7.0614666e-02
  3.0104641e-04
 -2.3345280e-04
 -1.4151213e-05
 -4.2834988e-01
  1.6219717e+00
  1.6883197e+00
  5.1496547e-01
 -4.1955212e-01
  3.6081612e-01
  1.6051995e-04
 -2.1839052e-02
  1.4067845e-01
 -7.3334918e-06
 -5.1199269e-05
 -2.7697759e-05
 -2.0155072e+00
 -2.2922800e+00
 -7.5485873e-01
  1.1725877e-04
 -4.2849661e-06
  7.9977901e-05
  3.9937313e-05
  3.7349702e-04
  1.5215577e-04
  2.5639958e-05
 -7.4288040e-01
 -1.9369758e-05
  4.7043577e-05
 -5.2975677e-03
  5.4277414e-05
  2.7520664e-05
  1.4077327e-05
 -9.1224560e-05
  6.5366608e-01
 -4.0462390e-02
 -5.2795339e-01
  8.1239006e-05
  1.6093458e-05
  1.6492648e-01
  3.8147997e-04
 -1.1106940e-06
 -4.2770618e-05
  2.2270019e+00
  5.1237726e-01
 -6.2505096e-01
 -2.1415898e-04
 -8.2085535e-06
 -8.5645454e-04
 -1.6189684e-05
 -1.1822284e-04
  4.2274073e-02
  8.6762327e-01
 -8.3359444e-01
 -3.8389400e-01
  9.6322197e-05
 -2.4407075e-04
  2.1507332e-01
 -1.5055551e-05
  2.8655729e-06
  4.5563982e-05
  8.2929325e-01
 -6.8859762e-01
 -4.9631381e-01
  1.1382536e-04
  1.0611076e-06
  3.6456961e-02
 -6.0925984e-05
  5.3465716e-05
  9.3399234e-05
  1.0603482e+00
  5.2331823e-01
 -9.2717179e-05
 -9.2487295e-05
 -7.8035049e-02
 -1.1422801e-02
  2.0866253e-05
  4.5165292e-05
  4.4889752e-05
  5.8701289e-01
  9.5417060e-02
 -1.1589704e+00
 -6.3656043e-05
  2.3726350e-05
  8.5129809e-01
 -7.2172161e-06
  1.4139913e-04
 -3.4947960e-05
  2.5905362e-01
 -1.4646270e+00
 -3.8273346e-02
 -1.9715464e-05
  6.1493256e-06
  5.5967717e-05
  1.6624293e-01
  1.9283762e-05
 -7.6502931e-01
 -2.5097820e-01
 -5.9005630e-01
  1.0336621e+00
 -2.8714203e-04
  4.1318603e-07
  4.1801962e-07
  6.2715236e-07
 -2.1593680e-05
 -3.8710647e-04
 -5.7360295e-02
 -1.1734081e-03
 -7.9821700e-01
  2.5757590e-05
  1.1065757e-05
 -1.1212358e-04
  4.1470411e-01
  3.1023507e-04
 -1.5373473e+00
  3.4953412e-01
  2.2787823e-01
 -2.5091004e+00
 -2.7411879e-05
 -1.3315909e-05
  2.2955201e+00
  5.9922313e-06
  2.3751697e-01
  2.8306320e-01
 -3.6018708e-01
 -4.6420193e-01
 -3.1207716e-01
 -8.1701866e-05
 -7.1081166e-05
 -4.1966807e-05
  2.9778462e-03
 -1.7709671e-01
 -9.1224976e-02
  5.9226897e-02
  1.6853467e+00
  1.3736765e+00
 -5.6728717e-05
  5.2222431e-06
 -4.3630782e-01
  2.2368965e-01
  1.1443837e+00
 -7.4191326e-01
  3.2551846e-01
 -1.3236680e+00
 -9.8028308e-01
 -6.3644720e-06
  1.7791137e-05
 -3.0804317e-06
 -4.6382651e-05
 -1.1202555e+00
 -1.2203456e+00
 -1.7985281e+00
 -1.1740541e+00
  2.8335469e+00
 -2.8288658e-05
 -6.1307226e-05
 -9.1563757e-05
  3.4606159e-01
  7.4820369e-01
  1.2328048e+00
 -1.1300355e+00
  5.9290272e-01
  3.2922950e+00
  1.2794703e-05
  9.3755807e-05
 -1.2710384e-05
 -7.9670317e-05
  8.2694413e-04
  1.0648878e+00
 -5.9931979e-02
  7.3914039e-01
  1.8188634e+00
  3.0414389e-05
  2.4590483e-05
  6.9354683e-05
 -4.1752450e-02
 -8.6897653e-01
  5.3121376e-01
  3.9374098e-01
  1.0086401e+00
  3.3741960e-01
  3.6023550e-05
 -7.5530232e-05
 -6.2761479e-05
  3.4295696e-05
  9.7413249e-05
  1.5413064e+00
  3.0508533e-04
 -2.5999179e-04
 -2.1259786e-05
 -3.7181686e-05
  7.4078140e-05
  1.1193390e-04
 -6.8958327e-02
 -3.2507667e-01
 -9.7515363e-01
 -4.3770820e-02
 -3.2630679e-01
  3.2935140e-01
 -2.5874793e-05
  3.6662877e-05
  4.1861644e-05
 -2.9331882e-04
  5.0034004e-01
  9.7965789e-01
  5.6214571e-01
 -6.4325765e-02
 -1.2768855e+00
  2.9225774e-05
  4.5669753e-05
 -1.5307416e-05
 -4.0513980e-01
 -9.6333164e-01
  7.4587411e-01
 -1.0498070e+00
  5.8277562e-02
  8.6168957e-01
 -3.1931972e-04
 -1.2944914e-05
  5.1209579e-05
  7.9803422e-06
  1.2742662e-02
 -6.7430049e-01
  2.5978518e-01
 -1.7614989e+00
  1.4592770e+00
  1.0422200e-05
 -6.3109786e-05
 -6.2181018e-05
 -3.0643165e-01
 -8.7544042e-01
  8.2249165e-01
  4.7411913e-01
 -1.5395688e+00
  3.7095910e-01
  2.7428102e-04
 -1.4869645e-04
 -1.5355398e-04
 -3.1135238e-05
 -1.7177522e+00
  6.4324325e-01
 -7.5758833e-01
  1.3838995e+00
  7.6041743e-03
 -6.9054498e-05
 -5.8427871e-05
  5.4857624e-05
  1.1284437e-05
 -5.8245254e-01
 -2.1051104e-01
  1.7830431e-02
 -2.0764036e+00
 -3.8081035e-01
  9.0187867e-05
 -1.1459657e-05
 -4.2086367e-06
 -1.0787544e+00
 -3.1598920e-01
 -1.6830601e-01
  1.0554378e-01
 -2.4235341e-01
 -1.7900256e+00
 -5.3721902e-07
 -7.5661006e-08
  1.4721761e-04
 -3.0770363e-05
  8.5803018e-05
  5.4629302e-01
 -3.2113912e-04
  2.3410830e+00
 -4.9205762e-01
  4.6749588e-05
 -1.0235142e-05
  4.2903943e-05
 -7.9460418e-01
 -1.0349239e-01
  1.0131017e-02
  2.6254755e-01
 -7.6457798e-01
  1.2226882e+00
  1.5484227e-04
 -6.4191991e-06
  2.5361862e-06
 -4.3105447e-01
 -1.8633684e+00
  2.4960408e-01
  5.4441261e-01
  1.8252832e+00
  1.0365424e+00
 -3.1940497e-05
 -7.2591181e-05
  4.6516212e-05
 -4.3672886e-02
 -1.7045420e-02
  1.1563801e+00
  6.9437885e-01
  2.5334123e-01
 -2.5897582e+00
  1.2846314e-05
  7.4090254e-05
  1.4958465e-04
 -1.2271515e+00
  6.5905303e-02
 -6.2460393e-01
  4.7316808e-01
  1.5075539e-02
  3.9376378e-01
 -8.7673950e-05
  4.2678690e-05
  6.8704703e-06
  1.2856993e-05
 -8.5197675e-01
  1.4103676e+00
 -5.2407263e-03
  9.6948773e-01
 -3.8913983e-01
 -7.2891253e-06
  1.8444010e-05
 -6.8345711e-02
 -1.0883981e+00
 -3.3803640e-03
 -1.3722436e+00
 -5.6604606e-01
  1.1282792e+00
 -1.1596966e+00
  2.7072314e-05
 -1.7174538e-05
 -2.6745525e-05
 -1.0303681e-01
 -4.9186713e-01
 -8.4347934e-01
 -4.5243263e-01
  4.8431057e-01
 -1.4158399e+00
  2.4430383e-02
  2.4430383e-02
  2.4430383e-02
  2.4430383e-02
  2.4430383e-02
  2.4430383e-02
  2.4430383e-02
  2.4430383e-02
  2.4430383e-02
  1.0906366e-01
  1.0906366e-01
  1.0906366e-01
  1.0906366e-01
  1.0906366e-01
  1.0906366e-01
  1.0906366e-01
  4.1858934e-02
  4.1858934e-02
  4.1858934e-02
  4.1858934e-02
  4.1858934e-02
  4.1858934e-02
  4.1858934e-02
  3.2475173e-02
  3.2475173e-02
  3.2475173e-02
  3.2475173e-02
  3.2475173e-02
  3.2475173e-02
  3.2475173e-02
  1.3545549e-02
  1.3545549e-02
  1.3545549e-02
  1.3545549e-02
  1.3545549e-02
  1.3545549e-02
  1.3545549e-02
