nep4 3 Ba Zr O 
cutoff 8 4 232 26
n_max 8 6
basis_size 8 8
l_max 4 2 0 
ANN 50 0
  3.4957564e-01
  9.1638409e-02
  8.0611128e-03
 -1.2366968e+00
  1.1393243e-02
  5.1535599e-02
  1.5537105e-02
  6.8566747e-02
 -8.1229216e-01
 -2.3424419e-02
  7.1698971e-02
  2.7451521e-01
 -7.9368139e-03
 -3.8704328e-02
  6.7155245e-03
 -9.9709809e-02
  2.2980782e-01
 -2.1618520e-01
  6.2486279e-04
  4.5325328e-02
 -9.8529615e-02
 -1.3401093e-02
  6.1860874e-02
  2.6668379e-02
 -5.3903796e-02
  4.3742586e-02
  2.0557240e-02
  1.4330682e-01
  4.8438910e-02
  6.9908679e-02
 -3.2745458e-02
 -1.8009809e-03
 -2.6261963e-02
  1.5782278e-02
  4.5213591e-02
  7.8575969e-02
  5.2246239e-02
 -1.4227822e-01
 -3.8584918e-02
  7.8241490e-03
  5.9983026e-02
  1.8142447e-01
  5.1447246e-02
 -1.0116885e-01
 -2.0598916e-02
 -3.2027580e-02
 -2.1250800e-03
  2.8324809e-02
 -4.1309677e-04
  4.9337421e-02
  9.3329623e-02
  3.9084598e-01
 -1.0229768e-01
 -1.8117296e-02
 -1.1425114e-02
  2.9944062e-02
  7.0436135e-02
  1.2970985e-02
  3.2269947e-02
 -5.2356858e-02
  3.8274083e-02
 -5.8018759e-02
  8.2301610e-04
 -5.0973497e-02
  6.4143971e-02
 -8.9775324e-02
  2.2025377e-01
  3.3103030e-02
 -4.3714773e-02
 -1.0210846e-02
 -1.0881234e-02
 -1.3759740e-02
 -8.5445029e-01
  2.3249494e-02
  1.4937553e-01
 -1.0651380e-02
  4.8811752e-02
 -7.0513189e-02
  7.8094766e-02
  2.9966084e-02
  2.4663717e-03
 -4.1326106e-02
  1.7252344e-01
  4.8852418e-02
 -6.2495336e-02
 -8.2450666e-02
 -9.8539360e-02
 -9.1884077e-02
  2.8688079e-01
 -3.2568228e-04
 -4.4297747e-02
 -4.9295217e-01
  4.2367090e-02
  8.5288912e-02
 -8.9154532e-03
  2.4159458e+00
 -1.1514315e-03
  9.4925173e-02
  2.3603499e-02
  8.3070077e-02
 -6.8267626e-03
  3.0239314e-02
  2.3387339e-02
  5.2697688e-01
 -2.4942616e-02
 -8.1276512e-03
  6.3799031e-02
 -1.7888058e-02
  3.6736447e-02
 -1.0556645e-01
 -2.8185891e-02
  2.0297651e+00
 -9.9593978e-03
  9.2707857e-02
 -2.2903927e-02
  4.3308273e-02
 -3.1745891e-04
  2.4938630e-03
 -1.5371976e-02
 -4.7643494e-02
  2.0477723e-01
  2.0951463e-02
  3.2689221e-02
  1.2505663e-03
  9.9808816e-03
 -3.8651429e-02
 -6.5525412e-03
 -2.5159570e-03
  3.5216596e-02
 -3.7634703e-03
  4.4564093e-03
  3.5376258e-02
 -1.2332765e-01
 -8.1316493e-03
  1.3162477e-01
  1.3518114e-02
 -7.6180795e-04
  4.3788310e-02
  4.8802719e-02
 -5.1303610e-02
  3.9904773e-02
  9.1792829e-02
  5.3208694e-02
  2.8159259e-02
  2.5049549e-02
 -2.1320972e-01
 -4.3548900e-01
  2.2661232e-03
  9.7095165e-03
 -6.2044065e-02
 -1.2440381e-02
  3.0695617e-02
  1.3814349e-01
  1.0089217e-02
 -2.6324012e-03
  2.8971486e-02
 -4.6167810e-02
 -3.2528337e-02
 -7.9328470e-02
  7.5123953e-03
  4.0230870e-02
  1.5595261e-02
  1.7578901e-03
 -3.0841267e-02
  3.1645734e-02
  2.2595622e-01
  7.5655513e-02
  3.7561068e-01
  5.2628342e-02
  1.7142366e-01
 -8.2152613e-02
  5.4417677e-02
 -7.5432602e-03
 -8.9081377e-02
 -2.0442380e-02
 -9.5230371e-02
  4.0668238e-02
 -6.2777780e-02
  3.7946858e-02
  3.6550414e-02
 -1.7667817e-02
  1.5108624e-02
  4.4212066e-02
 -1.5193793e+00
  5.9423051e-03
 -4.1534252e-02
  2.5034811e-02
  3.8608294e-03
  5.4402754e-02
  3.8246796e-02
  1.5124123e-01
  8.7335259e-02
 -8.8481940e-02
 -5.5351593e-02
  3.7725162e-02
  6.6864202e-03
 -2.3577539e-02
 -6.4966179e-02
 -1.9589435e-01
 -5.9365039e-03
  1.4581583e-01
 -2.0344412e-02
  1.0809515e-01
  1.5932825e-01
  2.1324001e-02
 -2.3424495e-02
 -7.0997387e-02
 -2.9210400e-04
  2.7932912e-02
  8.3692171e-02
 -8.0939364e-03
  7.1950224e-03
 -1.5479087e-02
 -1.2336108e-01
  2.5477323e-03
  6.9217063e-02
 -7.4615985e-02
 -2.1633123e-01
 -2.6936943e-02
  1.2657144e-02
  1.6619687e-03
 -3.2497242e-01
  2.7169472e-02
  3.1763311e-02
 -8.1310263e-03
  1.2962011e-02
  1.3991731e-01
  4.5108456e-02
 -1.3611886e-01
  5.0283928e-04
  5.9985407e-02
  6.2788591e-02
 -7.5138351e-03
 -5.0949793e-02
 -1.1324831e-02
  1.7328302e-03
  3.1157872e-03
 -1.8290194e-02
  5.1595282e-02
  8.2047015e-02
  7.3267682e-03
  1.0473166e-01
  1.7104963e-02
  4.8253484e-02
 -3.2308728e-02
  6.3108069e-01
  7.0800371e-02
 -1.5367899e-02
 -5.9982643e-02
  2.0367403e-02
  2.2360003e-02
  1.1975647e-01
  2.4417367e-02
  3.6687467e-02
  7.9878843e-01
 -1.1897215e-01
 -1.0739545e-02
 -7.5628512e-02
 -2.3120411e-02
 -3.1351071e-02
 -3.8727071e-02
  1.1755658e-02
  1.5117941e-02
  5.1979568e-02
  5.5887438e-02
 -6.9048963e-02
  1.2087934e-01
  1.3899730e-03
 -5.1042236e-02
  1.8229224e-02
 -8.6943014e-03
 -5.2476670e-03
  1.9923786e-02
 -6.0235854e-02
  4.5685738e-02
  2.1797432e-02
 -1.3608811e-02
 -8.8787392e-02
  1.5767351e-02
 -6.5292016e-02
  4.5909818e-02
  1.5505315e-02
 -1.2495846e-01
  4.8285320e-02
 -3.6637735e-02
 -3.1049256e-03
  1.3978249e-02
 -3.5661601e-02
 -4.4441391e-02
 -2.6025809e-02
  8.8185228e-02
  7.4314632e-02
 -3.7344232e-02
 -4.2025208e-02
 -4.5804434e-02
  1.1758295e-01
 -1.3194282e-01
 -7.8965873e-02
  9.0383828e-02
  1.3225357e-02
  2.2340162e-02
 -9.3633726e-02
  5.9166909e-03
  1.1652783e-03
  5.0096441e-02
 -1.2921557e-01
 -2.4613623e-02
 -1.5217529e-01
 -1.1565831e+00
 -3.7783266e-03
  7.4101675e-01
  4.5109704e-01
 -3.6325514e-02
  7.1171451e-01
  1.2989349e+00
 -8.4900022e-01
 -3.1181070e-01
  1.5899956e-02
 -8.1131279e-02
  5.4905280e-02
 -1.5489002e-02
  2.0111209e-02
  6.8724059e-02
  2.7850721e-02
  1.7155527e-01
 -1.5409544e-01
 -3.7605930e-02
 -7.7306177e-03
 -3.4639561e-01
 -8.1975886e-04
  3.1813806e-01
  8.1517637e-02
 -6.5015666e-02
 -1.2639838e-02
 -1.7815430e-02
 -1.2993150e-02
  2.6741900e-02
 -2.1702833e-02
  1.5906778e-01
 -6.8243654e-03
  1.6444072e-01
  1.3761509e-02
  4.7467802e-02
  5.8960728e-02
 -4.7238294e-02
  8.8715337e-02
 -1.7511459e-02
  5.1732674e-02
 -4.8960585e-02
  7.2514787e-02
 -6.3528545e-02
  1.1281879e-02
  9.8456301e-02
  2.6637003e-02
  4.3990394e-01
  1.7445490e-01
  1.4610516e+00
  1.5775194e-02
 -1.9642433e-02
  7.1755446e-02
 -4.6449549e-02
 -8.3509333e-02
  7.4718244e-02
 -9.2965662e-02
 -9.0319514e-02
  3.0703321e-02
 -1.3560203e-02
 -5.8044512e-02
 -7.8245032e-01
 -5.7363946e-02
 -1.6672069e+00
  2.9647162e-02
  2.3050949e-02
 -3.0555189e-02
  6.5269262e-02
  2.8783306e-01
  7.3533081e-02
 -2.8803772e-01
  2.4787866e-02
  3.6857862e-02
 -2.9453818e-02
  3.1356659e-02
  3.4781855e-02
 -7.8954570e-02
 -6.1215255e-03
 -3.5296422e-03
  1.8373559e-01
 -2.1107297e-02
  7.4314415e-02
  5.3341508e-02
  1.6663639e-01
  6.3037068e-02
 -8.1079341e-02
 -8.2954340e-02
  5.2278098e-02
  1.5824473e-02
 -6.0181433e-01
 -9.9418193e-02
  1.5189229e+00
 -1.8594044e-01
 -2.4769392e-02
  4.1696414e-02
  9.0363944e-01
 -8.2093006e-01
  4.8646469e-02
  5.1034581e-02
  5.0203409e-02
 -3.1724632e-02
 -8.5233130e-02
 -4.0923774e-02
  1.8022923e-02
 -2.8587842e-02
 -9.2674173e-02
  6.2644370e-02
 -1.7335787e-02
 -6.4350553e-02
  3.5069328e-02
 -1.3943543e-02
 -1.3664907e-01
 -4.7871768e-02
 -3.3731859e-03
 -1.3901822e-02
 -3.0630134e-04
  5.4185919e-02
  6.2332926e-03
  2.0105174e-02
  3.3155523e-02
 -7.8227952e-02
 -5.4726470e-02
 -2.0365920e-03
 -6.4634155e-03
 -8.6849794e-02
 -6.3290641e-02
  4.0455633e-03
  5.1510490e-02
 -3.4559395e-02
  9.0131005e-03
  4.5954552e-02
 -1.0823322e-01
 -7.3481642e-02
 -3.4616336e-01
  7.6636195e-02
 -2.6298534e-02
 -2.6961006e-02
 -8.3792858e-02
 -5.3094529e-02
 -6.4184368e-02
 -1.5964009e-01
  6.5791801e-02
 -3.4033876e-02
 -2.2978295e-02
  2.3954378e-02
 -3.0506495e-03
  3.8157176e-02
 -2.3799676e-02
 -7.3941626e-02
  5.8872584e-02
 -2.1431220e-01
  1.7356336e-02
 -1.3997007e-02
 -5.6383815e-03
  7.2394766e-02
  2.8019434e-02
 -4.3766141e+00
 -2.3221269e-02
 -1.6853212e-01
  5.6798598e-03
  6.6693105e-02
  4.2432796e-02
 -3.2922596e-02
 -1.2383445e-01
  1.3953395e-01
 -1.0972038e-01
  4.8174664e-02
  6.1528187e-02
  4.7135618e-02
 -1.8932849e-02
  3.8869958e-02
 -2.6182670e-02
 -2.6283765e-02
  7.7844807e-04
  5.9488637e-04
  6.4900741e-02
  4.3845247e-02
  1.2164868e+00
 -3.5441992e-01
 -1.1278841e+00
 -9.2915642e-01
  4.6539822e-01
 -1.1376190e+00
  9.9952781e-01
 -1.5415999e+00
  3.3854482e+00
  2.2364609e-02
  3.2181486e-01
  2.8724772e-01
  4.4197373e-02
 -5.6854881e-02
 -2.2929661e-02
  6.1140057e-02
 -2.0210566e-01
  8.6027883e-02
  1.3186713e-01
 -3.6496226e-02
 -2.3316887e-01
  1.6625154e-01
 -1.1916323e-01
 -1.4335482e-01
  3.5592704e-03
 -4.5332756e-02
 -1.9084195e-02
  6.9023385e-03
 -3.7111029e-01
 -2.4587905e-01
 -5.3893313e-02
 -3.3698084e-03
 -1.4972702e-01
 -1.8933773e-01
  5.1402837e-02
  4.3173902e-02
  2.8548978e-02
 -2.0840347e-01
  4.5891266e-02
  3.2510124e-02
  5.4845912e-03
 -2.5762704e-03
  3.0874323e-02
  4.0253442e-02
 -1.4444158e-02
 -5.4669194e-02
 -5.7586078e-02
 -4.1752037e-02
  3.0384449e-02
 -4.8677470e-03
  3.3453031e+00
  3.6878873e-02
 -1.0853045e-01
 -3.5705466e-02
 -1.6078369e-03
 -3.0589776e-02
  9.6915603e-02
 -2.2828693e-02
 -2.8929733e-02
  1.7982444e-02
 -7.2212662e-03
  1.0704732e-03
  5.6204032e-02
 -2.3290193e-02
 -5.4552164e-02
 -5.0358441e-02
  4.5043901e-02
 -1.4644193e-02
 -3.3317577e-02
 -6.2091786e-02
  2.6335998e-02
 -3.2005157e-02
  1.1751113e-01
 -5.7538431e-03
 -1.2658675e-01
  4.4139735e-02
  1.2349842e-01
 -5.0360382e-02
 -1.0241199e-01
 -4.3192297e-02
 -9.4386719e-02
  2.4421677e-02
  1.2612635e+00
 -1.4146916e-02
 -1.7201325e-02
 -1.3071893e-02
 -3.7852354e-02
  6.8788052e-02
 -1.7729828e-01
 -3.7295723e+00
 -1.9852723e-01
  1.8676899e-01
  3.3357404e-02
 -7.1054801e-02
 -1.2093381e+00
  4.7012255e-02
 -1.4717566e-02
 -3.9270865e-03
  3.1050837e-03
 -1.4802237e-01
 -9.4317645e-03
 -2.6056187e-02
 -7.6308562e-03
  6.9754474e-02
  3.4371909e-02
 -1.6086017e-01
 -5.6028709e-02
 -5.2368606e-04
  1.4859629e-02
 -3.5756361e-02
 -7.9612825e-03
 -4.3459449e-02
 -7.7969907e-03
  1.4438866e-02
  7.2352663e-02
 -3.0230492e-02
  3.1402383e-03
 -9.4598256e-02
 -4.7216102e-02
  1.1283428e-01
  3.5279356e-02
 -5.1490549e-02
  6.5856151e-02
  4.2608022e-03
 -3.7781720e-03
 -3.3763077e-02
 -3.3773918e-02
 -6.0725957e-03
  2.4578976e-02
 -3.1796694e-02
  4.7986272e-01
 -3.9509168e-01
  9.2203462e-01
 -1.3145494e+00
 -4.8583445e-01
 -2.3427695e-01
 -2.1054427e-01
  4.1569817e-01
 -5.6230110e-01
  2.2825370e+00
  9.9926525e-01
 -3.6939409e-01
 -1.9715561e-02
  6.0798168e-01
 -7.1607783e-02
  3.1934154e-01
  7.1432531e-02
  8.2648173e-02
  2.7417830e-01
  1.7616197e-02
  2.8207906e-02
  7.5582825e-02
  1.0047936e-01
  2.1072205e-02
  6.7237794e-02
  2.0475447e-01
 -6.4112768e-02
  6.8234834e-03
 -2.0058746e+00
  6.1344709e-02
 -1.2999454e-02
  1.0988523e-01
  2.3966210e-02
 -1.9287309e-03
 -4.7511298e-02
  1.2671889e-02
  1.5095328e-02
 -2.6899874e-03
  7.7107632e-01
  1.6843788e-02
  2.5817621e-02
 -2.2113066e-02
 -1.9120863e-03
  4.0863901e-02
 -1.3317651e-02
  2.6187934e-03
 -3.2381117e-03
  1.2571303e-02
  4.2124521e-02
 -3.9161712e-02
  6.1015915e-02
 -6.1364123e-03
  1.1263675e-01
 -3.3245418e-02
  6.5245658e-02
  6.5237045e-02
 -3.5666265e-02
  1.8166676e-04
  5.6655802e-02
  1.2830533e-01
 -8.5898740e-03
  1.3158946e-01
 -4.6327006e-02
  3.8822111e-02
  9.9884517e-02
  7.2877714e-03
 -6.8924181e-02
  1.0765282e-02
 -1.2241921e-02
 -8.9736640e-02
  3.9226161e-03
  3.1902701e-02
  4.0091831e-02
 -6.4011633e-02
  5.8292322e-02
 -7.4582539e-02
  4.0130001e-02
  6.8783715e-02
  1.9472210e-02
 -1.4744984e-02
 -9.8157562e-02
  8.0282092e-03
  1.6824843e-01
 -3.3500802e-02
  1.1091405e-01
  2.8386505e-04
  4.6239097e-02
  1.4835470e+00
 -3.3755854e-02
 -4.6873382e-01
  4.2912806e-03
  5.1468726e-02
 -5.1057413e-02
  4.6160785e-03
 -6.2368101e-01
 -1.0978483e-01
  6.5586003e-03
  9.7928971e-01
 -2.1294557e-02
  8.0934102e-03
  1.3916470e-02
 -1.7050220e-02
  1.4084880e-02
 -1.6716078e-01
 -2.9531274e-02
 -1.2966908e-03
  1.0287398e+00
  1.6016282e-02
 -4.9394239e-02
 -1.2288176e-01
 -1.6999850e-02
  1.3025479e-01
  4.7398284e-02
  2.5277242e-02
 -1.1143820e-02
 -2.1020563e-02
 -9.7628636e-03
  6.7239083e-02
  2.1511445e-02
  2.9527584e-02
 -7.5781539e-02
 -6.8969287e-02
  1.0247357e-03
 -9.4054110e-02
 -3.5617009e-02
 -1.2286812e-02
  1.1527776e-02
 -3.7532084e-02
 -2.1752568e-01
  3.7894599e-02
  8.7807667e-01
 -7.3056661e-02
 -2.6937241e-02
  1.3120683e-02
 -1.8801829e+00
 -7.2984479e-02
  6.7716557e-01
 -2.5261116e+00
 -5.3582305e-01
  8.0052751e-01
  2.8086156e-01
  1.6604276e+00
 -2.6014477e-01
  7.7214912e-03
  2.2626021e+00
  3.1450459e-01
  1.7644478e+00
  5.9119280e-02
  7.3666729e-02
 -7.9358548e-01
 -5.8455193e-01
  5.3092110e-01
 -1.3538319e+00
 -7.2020084e-01
 -5.1695353e-01
 -1.1648217e-01
 -1.8230942e+00
 -2.1415231e+00
 -2.3949188e-01
  2.6330146e-01
 -7.4816912e-01
 -1.4731096e-02
 -8.0549717e-01
 -6.6517240e-01
 -1.8161259e+00
  2.8795386e-02
 -7.6013261e-01
 -4.0751934e-01
 -1.5862562e-02
 -1.0155573e-01
 -6.3694850e-02
 -1.0939804e-01
 -5.4937974e-02
  1.8149531e-01
  2.5583722e-02
  4.5053894e-03
  3.2241125e-02
  2.0034045e-02
  1.4814007e-01
  1.5586479e-01
 -2.4671426e-01
  1.6650125e-01
 -3.7801955e-02
  2.9491523e-01
  2.6427892e-01
  4.6704751e-01
 -3.5876739e-01
 -1.0996445e-01
  1.0801291e-01
 -5.2814592e-02
 -3.0464599e-01
  1.2708037e-01
 -2.9777166e-01
 -4.4357716e-03
 -1.2056091e-01
 -6.0071431e-02
 -4.2698193e-02
 -4.5852233e-02
 -1.3826846e-01
  1.9301584e-02
 -6.8191811e-02
 -1.2115355e-01
 -5.6850929e-02
 -5.0059795e-01
 -2.3546441e-01
 -3.7694771e-02
 -7.6733941e-01
 -8.8064037e-03
  4.5276549e-02
  3.1207460e-01
 -9.6813990e-03
 -5.2548345e-02
 -4.5071924e-03
 -2.1381919e-01
 -5.3534560e-02
 -8.0201745e-02
 -2.6324110e-02
  2.2755744e-01
  6.0352191e-02
  6.1652448e-02
  8.1825897e-02
 -7.6981805e-02
  1.2574832e-01
 -1.5277237e-02
 -2.7791779e-02
  6.4051867e-02
 -9.9469513e-02
 -2.0811584e-02
 -1.6207093e-01
  1.4605343e-02
 -1.0198607e-01
  3.9776720e-02
 -1.9596880e-02
 -3.9052881e-02
  1.1926249e-01
  4.3903060e-02
 -5.2835438e-02
 -5.4228898e-02
  6.6573173e-02
  6.7103736e-02
  9.1665285e-03
 -2.1432985e-02
 -5.4347526e-02
 -1.8049346e-01
 -1.8956871e-01
 -1.7786181e-02
  6.7595370e-02
  3.7859540e-02
  3.0883581e-03
 -3.1358015e-02
  8.0789505e-03
  4.1829165e-02
 -1.8168747e-01
 -1.4962036e-03
  6.5485515e-02
 -1.0997397e-01
  3.4601405e-02
 -1.2907137e-02
  9.4819805e-03
 -4.6489052e-02
 -1.8093709e-02
 -3.3340859e-01
  1.2248781e-01
  1.0194932e-01
 -9.8843258e-03
  7.2736397e-02
 -3.3421136e-02
  1.3350674e+00
 -4.3999488e-03
 -6.8098903e-02
 -1.0734215e-01
  8.0597088e-02
  1.7962614e-02
  9.5175365e-03
 -5.3526084e-03
  7.4069634e-02
  2.5475068e-02
  5.6426721e-03
 -2.4560135e-02
  1.1668339e-01
 -1.3695554e-04
  2.1661343e-02
 -2.7746802e-02
 -8.4164906e-03
 -1.5152645e-01
 -1.9898677e-02
 -2.4940647e-02
 -4.1036375e-02
 -2.0545987e-02
 -1.1574966e-01
 -2.7118599e-02
  6.3483040e-03
 -1.4701559e-01
 -1.0957643e-01
 -5.9640775e-03
  5.8655519e-02
 -2.6282262e-02
  8.3795339e-02
  4.0544715e-02
  7.2114885e-02
  4.4080247e-03
  2.2740334e-02
  2.2862455e-02
  9.9515595e-02
  8.4565878e-02
 -2.0567730e-02
 -3.9085414e-02
 -1.4064798e-01
  4.4391334e-02
  3.6654554e-02
 -5.4962928e-03
 -7.0854925e-02
 -6.0535491e-02
  3.3842586e-02
 -1.2273066e-01
 -1.0703182e-01
  1.5680401e-02
 -4.1590177e-02
  1.3149790e-01
 -4.4577841e-02
  1.3400242e-01
 -1.2022749e-01
 -2.1366911e-02
  2.9217564e-02
 -2.3069670e-02
  3.1209156e-02
 -9.8383754e-02
 -2.7153326e-02
 -7.1361698e-02
  3.0698843e-04
  2.7308628e-02
 -1.5188538e-02
  8.2779936e-03
  3.4242962e-02
 -8.9127213e-02
  1.2676293e-02
 -4.5410499e-02
  1.6609814e-03
  6.7932010e-02
 -2.9595921e-02
 -1.4136076e-03
 -2.6151530e-02
  2.0318376e-02
 -3.3695309e-03
  8.1733868e-02
  5.6851376e-02
 -1.3782321e-02
  3.0143883e-02
 -4.2806722e-02
  2.6871799e-02
 -4.1299168e-02
  3.1399425e-02
 -1.1011787e-01
  6.8714316e-03
  2.1337001e+00
 -4.9737313e-01
  2.5896800e+00
  1.0224513e+00
 -9.6171540e-01
  3.6055779e-01
  1.6245675e+00
 -3.4057651e+00
  5.2820283e-01
  1.7289721e+00
 -1.6751258e+00
  1.2758113e+00
  1.1136335e+00
  2.7723858e-01
  1.8078727e+00
  1.7321801e+00
 -1.5838173e-01
  5.3115327e-02
 -1.9593978e-02
  3.0524917e-02
  1.0008132e-01
  2.7146281e-03
 -7.3535994e-02
  7.1634024e-01
  6.9668069e-02
  5.2857107e-01
  4.4354159e-02
 -6.4091153e-02
 -2.7578490e-02
 -5.5248355e-03
  1.4561683e-01
  1.4425457e-02
 -1.1541775e-02
  1.7917232e-01
 -4.0140994e-02
 -3.9451119e-02
  9.1934219e-02
  1.9279402e-02
 -2.6510442e-02
  3.9050821e-02
 -1.2733524e-02
  1.2578944e-02
 -5.2167554e-03
 -6.9551304e-02
  1.0487975e+00
  4.9447380e-02
 -6.8986058e-01
 -3.1659899e+00
  7.8376949e-01
  1.0093874e-01
  1.6298185e-03
  3.3043575e-01
 -7.3265821e-01
  5.9390426e-01
  1.3762415e-02
  3.8034385e-01
  6.3184746e-02
  1.4895834e+00
  3.4038338e-01
  1.5244443e-02
  4.9774937e-02
  1.8418682e-01
  8.1772842e-02
 -4.5868363e-02
 -1.4759988e-01
 -2.7670577e-02
 -1.0463184e-01
  1.6945130e+00
  1.9833729e-01
  5.7788372e-01
 -8.6197175e-02
 -8.2546413e-01
  8.8858351e-02
  1.4672650e-02
 -2.7436763e-02
  5.8503170e-04
 -1.4004153e+00
 -2.2945058e-01
  7.4030189e-03
 -2.1536633e-02
 -5.3926175e-03
 -6.9457918e-02
  4.7458559e-02
  2.1623770e-02
 -3.3517670e-02
 -1.9706434e-02
 -5.4731660e-02
 -5.7449888e-02
  6.3233626e-01
  8.9042861e-04
  1.8958411e+00
  4.7875635e-02
 -3.3371557e-02
  8.4749214e-02
  1.9423911e-01
 -2.1168002e-01
 -2.3743567e-01
 -3.1423336e-01
  1.3076368e-01
  8.7842807e-02
 -2.2113068e-02
  3.1419870e-02
  7.8475609e-02
  7.2706267e-02
  1.1663141e-01
 -1.4696716e-02
  1.6039318e-01
  9.9907955e-03
 -6.3724779e-03
  9.0222046e-02
 -6.0286753e-02
 -3.1145252e-02
  1.5635324e-01
 -2.5992172e-02
 -3.6887057e-02
 -5.8911890e-02
 -4.1577008e-02
  1.0644546e-01
 -2.7548565e-02
  5.6142762e-04
  3.3314895e-02
 -1.2587945e-02
 -4.9233755e-01
 -1.7071687e-02
 -5.5114317e-01
  1.1363378e-02
  1.2847090e-01
 -2.1772683e-02
  4.5241438e-02
  3.5396501e-02
  4.6986598e-03
  1.3723084e-02
 -3.5263438e+00
  1.3560672e+00
  1.5928988e+00
 -4.6481407e-01
 -1.1216978e-01
  5.5293983e-01
 -1.5867183e-01
  7.1023047e-01
  1.5511404e+00
  9.7046924e-01
 -2.1731074e+00
 -4.6884167e-01
  9.2156802e-04
  1.3163438e-01
  4.5923408e-02
  2.6800469e-02
  2.6683418e-02
 -5.9690632e-02
 -6.0314819e-02
 -3.9272389e-01
 -2.6923916e-01
 -1.8368728e-01
  2.3474906e-02
 -3.3019528e-02
  1.1879349e-01
 -5.2959029e-02
 -9.6708089e-02
  5.9858970e-02
 -2.7098600e-02
 -8.7423217e-01
  4.4611329e-03
 -3.9257694e-02
 -9.0673566e-03
 -8.4938765e-02
 -5.4491483e-02
 -1.0090868e-01
 -1.1365952e-01
  3.6059812e-02
 -1.1510999e-02
  7.9609759e-02
 -2.4282945e-02
  9.9664249e-02
  3.7892733e-02
  2.6111204e-02
 -1.0238383e+00
  2.7619213e-02
  2.1150124e+00
 -1.9435503e-01
 -2.2790140e-01
 -6.7873609e-01
 -5.8608729e-01
  1.8759031e+00
  1.2178646e+00
 -9.9530220e-01
 -2.3150518e+00
  1.6222320e+00
 -8.7262273e-02
 -2.2313688e+00
 -6.0004950e-02
  6.3925892e-01
  6.7945510e-02
  3.9892447e-01
  6.6248000e-01
 -1.2359130e+00
 -7.6429427e-01
  9.5890939e-02
 -1.2122329e+00
  3.2282361e-01
 -8.1738438e-03
  7.4370110e-01
 -5.1352200e-03
 -1.6257192e+00
 -2.1941450e-03
  3.9380410e-01
  1.5910169e-01
  1.9085342e-02
 -9.5498666e-02
 -2.9613664e-02
 -9.6572101e-01
  3.7618612e-03
 -1.1992972e-01
 -5.5735607e-02
  4.6990786e-02
  3.3035049e-01
 -5.6442977e-03
 -1.2863550e-01
  1.8692182e-01
  2.5173190e-01
  1.1880344e-02
  2.7536780e-02
 -4.5569908e-02
  5.4641664e-02
 -1.2334591e-01
 -1.8059675e-02
  3.6981055e-01
 -5.7745516e-01
 -1.3262206e-01
 -1.3842518e+00
 -3.1949028e-02
  3.9648709e-01
  4.0075770e-03
  2.7756378e-02
 -7.0509739e-02
 -1.2520482e-02
 -1.2264376e-01
  4.1221219e-01
 -2.8788287e-02
 -2.2884611e-02
 -6.9006970e-03
 -3.1150138e-02
  3.2135421e-01
 -7.4361295e-02
  9.2581719e-02
 -1.2517838e-01
 -6.3917667e-02
 -1.4811413e-01
  3.8347427e-02
  6.4316601e-02
 -1.3411947e-01
  2.3166036e-02
 -1.2714359e-02
 -1.1864424e-02
 -3.5560231e+00
  3.8268343e-02
  6.4564608e-02
 -1.9521173e-02
 -7.2323620e-02
  2.4473667e-02
  1.0891799e-02
 -8.9527026e-02
 -6.4855646e-03
 -8.6572371e-02
 -6.0564083e-01
 -3.6728565e-02
  6.8392575e-02
 -2.0025214e-03
  1.4478146e-01
 -2.4642741e-02
 -7.5246707e-02
 -2.4807142e-02
  1.8368559e-02
  1.1217219e-01
 -3.6554429e-01
 -2.1231191e-02
 -1.6440992e-01
  5.7681493e-02
 -1.1389225e-02
  4.3572322e-02
  4.0256009e-02
  6.2013388e-02
  7.6152035e-03
  2.3597354e-02
  6.9216620e-03
  4.6947965e-04
  2.9607581e-02
 -2.1745527e-01
  2.9016491e-03
 -4.0233362e-02
 -6.9416784e-02
 -5.5513404e-02
 -1.0063987e-01
 -5.7178736e-02
  1.7981380e-02
 -8.9130895e-03
 -4.8762418e-02
 -2.1888044e-02
  7.6071069e-02
  7.3660240e-02
  2.0727286e-02
  3.4048036e-02
 -9.4664106e-03
  2.1214129e-01
  7.3168509e-02
 -2.3816235e-02
  9.8819345e-02
  5.1048189e-02
 -1.6707815e-01
  6.1818898e-01
  2.2582304e+00
 -1.3478427e-01
  1.6712403e+00
 -1.1303728e+00
 -1.5525798e+00
 -2.4269903e+00
  3.5496202e+00
 -6.4568415e-02
 -1.1042961e-01
 -1.4900120e+00
 -6.1152638e-03
  3.9655331e-01
  2.6899828e-02
  6.7240991e-02
 -3.8738896e-03
 -1.1295442e-02
 -1.2141106e-01
  1.9574071e-01
 -1.8947052e-02
  6.6984124e-02
  2.1970212e-01
 -2.1942157e-01
 -4.5807996e-01
 -1.9107017e-01
  9.8883612e-03
  4.8691574e-03
  1.3663690e-01
  1.1333915e+00
 -2.3741087e-01
 -1.2788661e-01
 -7.8445533e-03
 -4.3950542e-03
 -3.2306191e-02
  6.2265426e-02
  2.8844785e-03
  1.5884724e-01
 -1.1565065e-01
 -9.7904220e-02
 -9.6893199e-02
  3.4235626e-02
  7.0637184e-01
  7.9783592e-03
  7.4379271e-01
 -4.5736217e+00
 -6.1748471e+00
  1.8919190e+00
 -4.4323212e-01
  3.2034567e-01
  7.2198570e-01
  3.5323772e-01
 -4.2738613e-01
  4.3109232e-01
  7.0672911e-01
 -2.4019525e+00
 -3.3544683e-01
 -3.1941351e-01
  5.0654693e-04
  6.2618804e-01
 -2.9092479e-01
 -3.8894150e-01
 -1.6188496e+00
  2.5818899e-01
 -6.6588901e-02
  2.5158909e-01
  1.3740546e+00
  4.6079602e-02
 -1.6120920e+00
 -8.9507872e-01
  1.6338969e+00
 -9.2465419e-01
  1.1493485e+00
 -1.6066808e+00
 -4.4637460e-01
 -6.8488566e-04
  1.2659010e-02
 -3.7258226e-02
  2.3037058e-03
 -1.2503202e+00
 -1.5651267e-02
 -2.8970620e-02
 -1.0195824e-01
  2.1225711e-02
  7.8716632e-03
 -6.5991290e-02
  5.4905459e-02
  1.5154239e-02
 -1.1938954e-01
  5.8233485e+00
 -3.3865117e-02
 -2.2427950e-02
  3.9481450e-02
 -2.8219705e-02
  5.2970797e-02
  2.0524234e-01
  5.5811919e-02
 -1.1674426e-02
  1.9492693e-02
  4.0054885e-03
 -9.3334369e-05
 -4.3398783e-02
  3.9390139e-03
 -6.3660316e-02
  2.1837834e-02
 -7.1552597e-02
 -2.1643301e-03
 -1.7976828e-01
  2.7858047e-02
  1.2117042e-03
  2.9565863e-02
  6.1116114e-02
 -2.3349609e-02
 -1.6378243e-01
 -7.6037593e-02
  6.5701073e-01
 -3.1002944e-02
 -1.1673983e-02
  1.0414291e-01
 -2.1406658e-02
  1.4403252e-01
  5.7112508e-02
  3.1316247e-02
  5.1008914e-02
 -4.3400951e-02
  3.2507945e-02
  8.4267169e-02
  1.7202003e-02
 -7.9309978e-03
 -7.2621959e-03
  7.5162813e-02
 -6.9884934e-02
 -1.6710773e-01
  4.1360579e-02
 -1.9177072e-02
 -5.7458039e-03
  2.4210729e-02
 -4.6173796e-02
 -8.2318977e-02
  3.1240991e-01
  4.8836984e-02
  1.2039567e-03
  1.8318608e+00
  4.1599018e-03
 -2.6138477e-02
 -4.2798713e-02
 -2.5500290e-02
 -1.8965423e-02
  5.5257261e-02
 -1.6175380e-02
  2.0564284e-02
 -2.7621621e-02
  1.3854527e-02
 -3.7337549e-02
 -3.8511830e-03
  1.6148132e-01
 -5.2307382e-02
 -2.3158932e-02
 -5.8363147e-02
  1.1815267e-02
 -2.0938009e-02
  9.9466801e-02
  2.9052394e-02
 -3.2834280e-02
 -3.6608934e-04
 -2.2015814e-02
  5.0188769e-03
 -9.0876268e-03
 -2.2470837e-02
 -1.4276148e-02
 -1.5254518e-01
  9.9788204e-02
  1.4353715e-01
 -2.7917998e-02
  4.6156999e-02
  1.5037155e-02
 -1.3772656e+00
  5.5877417e-01
  1.4824545e+00
 -4.5524442e-01
  4.4707730e-01
 -1.5558771e+00
  3.5887654e+00
 -1.5461086e+00
  2.3160817e-01
 -7.6594824e-01
  1.1359080e+00
  2.1918556e-01
 -3.1950111e+00
 -1.1521771e+00
  3.9413080e-01
  1.2102083e-01
  8.0430079e-03
  3.0552334e-01
  1.9356887e-01
 -1.5655237e-01
 -1.5695690e+00
 -1.4983949e-01
  3.1472800e+00
  1.8685470e+00
 -1.0167481e+00
 -1.3731509e+00
 -9.8148711e-02
 -2.7542213e-02
 -7.4843800e-01
 -6.8813875e-02
 -4.4419537e+00
 -2.6046060e-02
 -6.2356359e-01
  2.0589339e-02
 -1.0760762e-01
  5.6898214e-02
  1.2982402e+00
 -1.6455735e-01
  5.3856307e-05
 -1.9375079e+00
 -5.8686789e-02
  1.3981838e-02
  2.4124857e-02
  5.7052054e-02
 -5.6074619e+00
  1.3502778e+00
  1.9081051e+00
  5.2184448e+00
  1.5836053e+00
 -1.4731923e+00
  3.7720242e+00
 -2.1811702e+00
 -1.0036150e+00
 -1.0505174e-02
  2.0007525e-02
 -1.1944453e-01
  8.2145624e-02
 -1.0651633e-02
 -3.2424998e-01
 -4.0112454e-03
 -3.6573257e-02
  1.7035766e-02
 -6.4451732e-02
 -1.3735947e-01
  2.9770318e-01
  9.1346487e-02
  7.6974548e-02
  3.8896602e-02
 -6.2325996e-01
 -1.9439200e+00
  1.6464044e-03
  5.5585112e-03
 -2.3036771e-02
  2.7850822e-02
  1.0222855e-01
 -1.4924159e-02
 -2.6933637e-01
 -2.1392316e-02
  5.7512140e-03
 -1.3806119e-02
  2.1743858e-02
 -5.3949777e-02
  1.8857254e-02
  1.1158229e-02
 -2.5726771e-02
 -9.5445916e-02
  8.2617648e-02
 -3.2351833e-02
 -2.1557119e+00
 -8.8965857e-01
 -2.5454508e-02
  1.0997807e-03
  5.1296175e-02
 -8.2165888e-03
  1.1213351e-02
 -1.6084248e-01
  2.2975121e-02
  6.1163981e-02
 -2.1234605e-02
  5.9858613e-02
 -8.5441275e-03
 -2.5335468e-02
 -2.2897999e-01
  8.7599894e-03
  2.6149319e-02
 -1.0104030e-03
 -4.2018564e-03
 -9.2083095e-03
 -2.1020168e-02
  4.6686426e-02
  1.4862415e-03
 -2.6946852e-01
  1.4872012e-02
 -1.2401707e-02
 -1.9254098e-02
 -4.7152126e-03
 -2.0724069e-02
  2.0823883e-02
  4.4874814e-03
  8.4983692e-02
 -1.6150773e-01
 -1.6602588e-01
  3.0062806e-02
 -4.0080898e-02
 -1.8812627e-02
 -3.4941416e-02
  1.6001582e-03
  8.4824584e-02
  1.0528469e-02
 -4.1981759e-03
 -2.1231504e-01
 -5.4241173e-02
 -1.0150921e-01
  9.9729113e-03
 -1.4845975e-01
 -7.8185543e-02
  6.5854472e-01
 -1.5026514e-01
  1.0598338e-01
  5.1772989e-02
 -2.4021838e-02
 -2.1212222e-02
 -9.9185528e-03
  1.9715485e-01
 -1.0160601e-03
 -5.8278614e-03
  3.3317003e-02
  1.1038506e-02
  2.1844739e-02
  1.2283198e-02
 -3.8234450e-02
 -1.4964236e-01
 -1.1268011e-01
 -1.8343008e-01
 -2.1355960e-01
  2.0018879e-02
  1.2207454e-01
  4.8376959e-02
  2.7933815e-02
  5.7154503e-02
 -5.3676084e-02
  2.2308327e-02
 -8.5445747e-02
  1.2628967e-01
 -5.2124325e-02
  4.1569192e-02
 -2.7773395e-02
  7.1222913e-03
 -3.1073546e-01
 -2.1250268e-02
  1.0480259e-01
  9.1470517e-02
  1.5522705e-01
  1.7273676e-02
  1.7125573e-02
 -1.0548980e-02
 -6.3040800e-02
 -7.3355779e-02
 -6.0047656e-02
 -2.9061468e-02
  1.9710939e-01
  4.9139589e-02
 -1.2740444e-02
 -1.7648049e-01
  3.4078602e-02
 -2.2881985e-02
  1.8610952e-02
 -5.6655193e-03
  1.5917841e-02
 -1.8194476e-02
  7.3714182e-02
 -2.7608620e-02
  1.2964605e-01
  6.5669976e-02
  3.0680576e-01
  2.6636066e-02
  7.2560571e-02
 -2.8360884e-03
 -5.3068187e-02
 -8.6307630e-02
 -3.5302851e-02
  2.1140317e-02
  1.3379918e-01
 -6.3148938e-02
  7.3097028e-02
  1.7224429e-02
 -2.3181183e-02
 -9.3900591e-02
  8.7614313e-02
 -1.6476480e-02
  3.0998584e-02
 -3.7121335e-03
 -2.5562885e-01
  5.9442163e-02
 -3.8932939e-04
  1.7605145e-01
  1.3338131e-02
 -7.0858570e-03
 -2.1902138e-02
  1.0304397e-02
 -2.0003784e-02
 -2.6142439e-02
 -2.8566377e-02
  7.8292079e-02
 -2.1230347e-01
 -4.2669829e-02
  8.7497145e-02
  4.8532680e-02
  1.0536292e-01
  8.1431858e-02
 -4.9467217e-02
 -4.1339345e-02
 -1.5979374e-02
 -2.1574138e-02
  1.7005409e-01
  5.8652770e-02
  2.9510619e-02
  8.1534736e-02
  1.9781472e-02
 -1.0442465e-01
  2.5328901e-02
 -2.1919517e-02
  1.9659704e-02
 -1.0008165e-02
  6.0288673e-03
  5.0094668e-02
  3.9998842e-03
 -8.0656856e-02
  2.1106010e-02
 -8.1187859e-03
  5.2450545e-02
 -2.7195145e-03
  2.0319372e-02
  2.8568795e-02
  1.7664926e-02
 -1.9969107e-01
 -1.2507313e-01
  1.3448657e-01
 -2.3082770e-01
 -2.1411275e-02
 -9.6274026e-02
 -2.3112295e-02
 -4.7203247e-02
 -2.5667346e-03
 -3.2802121e-04
 -7.3075132e-03
  5.5977434e-02
  1.6249714e-02
  5.8786187e-02
  7.3538058e-02
 -5.5145736e+00
 -5.1164948e-03
 -8.6474726e-03
  2.5988152e-02
 -5.0612096e-02
 -4.7873698e-02
  2.4767132e-02
 -7.7897999e-03
  3.3913646e-02
 -1.8237039e-03
 -1.7932953e-02
  4.3674804e-02
  8.2158066e-02
  2.4102709e-01
  5.6207914e-02
  3.0229829e-02
 -1.4605409e-02
 -9.5687523e-02
 -2.1256357e-02
 -8.4655872e-03
 -6.4628109e-02
  2.5707178e-03
 -3.0759195e-02
  1.1510620e-01
  1.9330953e-01
 -1.6572456e-01
 -1.3755445e-01
  1.2184470e-01
 -5.7178888e-02
  7.6877177e-03
  1.0138332e-02
  3.1341951e-02
  1.6211234e-02
 -8.7638907e-02
 -1.9330012e-02
  7.3431889e-03
  3.7596747e-03
 -4.2018755e-03
 -6.7064867e+00
  3.2581265e+00
 -8.5642827e-01
  2.3335881e+00
 -2.8100572e+00
 -2.5852137e+00
  7.5915847e+00
 -1.9260261e+00
 -1.4067659e+00
  1.3042752e+00
 -3.4233317e+00
  8.7883162e-01
  1.0944854e+00
 -5.8341332e-02
  3.3238915e-01
 -3.8047131e-02
  1.1327744e+00
  8.0044381e-02
 -7.2969133e-01
  4.8368808e-02
  6.9053061e-02
  1.6378780e-01
 -3.3239346e-02
 -9.8752737e-01
 -1.9727771e-01
 -1.6616210e+00
  4.9965307e-01
 -1.0835521e+00
  3.7325555e-01
  1.4717541e-02
  6.6922253e-01
 -6.1670649e-01
  5.2431035e-03
  1.1201239e-01
  1.2742487e-02
  3.4868571e-01
  1.9532022e-01
  1.8377930e-02
 -1.8281806e-02
  1.3074923e-01
  2.1472460e-02
 -1.8792992e-02
  2.1444717e-04
  1.6842115e-01
  6.9731843e-01
 -9.4557869e-01
 -7.7519131e-01
 -3.4100442e+00
  1.0187100e+00
  1.7411133e+00
  4.7922826e-01
  6.2557274e-01
 -2.8887887e-02
  6.4909345e-01
 -8.1100119e-03
 -1.0169797e+00
  9.1572034e-01
 -2.9292399e-01
  7.9143062e-02
 -2.4031978e+00
 -8.0994821e-01
  4.7944374e-03
 -7.5870417e-02
 -2.1674287e-01
 -2.6091607e+00
  1.1638252e-02
 -4.1637294e-02
 -8.6097914e-01
  1.5528992e+00
 -2.0891795e+00
 -4.0919387e-01
 -2.5246758e+00
 -2.9539507e-02
  5.8962677e-02
  3.2777196e-01
  1.2899809e-02
 -1.4375845e+00
 -8.6369745e-02
  4.4807728e-02
  1.1545229e-01
  1.6623037e-01
 -3.5614602e-02
 -2.4423836e-02
 -4.4570927e-04
  1.2469466e-02
  9.7321801e-02
  4.4427463e-03
  1.1333031e-02
 -6.6257280e-01
 -2.6679125e+00
 -4.8515229e+00
 -3.8756831e+00
  4.5263047e+00
 -5.6767815e-01
  2.4686496e+00
  2.5069101e+00
 -4.1715148e-01
 -1.2793807e+00
  9.5024742e-02
 -3.5755751e-01
  7.1262032e-02
 -9.7711626e-03
  4.1896284e-01
  6.4614636e-01
 -7.5853445e-02
 -7.3334306e-02
  3.7636884e-02
  1.0373199e-01
  6.6534452e-02
  8.4740929e-03
  7.7999279e-02
  1.6724254e-01
 -1.5382376e-02
 -6.8303235e-02
  9.1438316e-02
  1.1997063e-02
 -1.3129844e-03
  4.3274235e-02
 -7.5031057e-02
  1.2990719e-02
  2.5365403e-02
  7.0875108e-02
  5.8017224e-02
  1.0607230e-02
  2.2106324e-01
  1.0265278e-02
 -6.5431683e-03
 -1.2871383e-01
  1.8397953e-03
 -1.1664572e-01
  6.5999113e-02
 -9.3398988e-02
  8.6253424e+00
 -2.9588294e+00
 -3.4981902e+00
 -4.7378478e+00
 -2.0392451e-01
  3.4297082e-01
 -2.9549460e+00
  1.2622609e+00
  7.6936084e-01
 -4.4091135e-01
 -7.1559674e-03
  1.0298648e+00
  4.5878929e-01
  1.5904510e+00
 -1.0057057e-01
  2.2609288e-01
  6.2282458e-03
  4.9582954e-02
  6.7837499e-02
 -6.8412335e-03
  8.6911792e-01
  3.8438205e-02
  1.5084262e-01
  8.3766282e-03
 -5.8146257e-02
  1.3075048e-01
 -8.6024046e-02
  1.1934030e+00
  2.3007801e-02
  3.1144718e-02
  1.2055758e-02
  1.2940457e-02
  2.3686017e-01
 -4.2467966e-04
  9.1429122e-02
 -7.3398642e-02
 -5.3691130e-02
  1.3419841e-01
  1.8827679e-03
  7.4764923e-03
 -3.5627585e-02
 -2.5722431e-02
  7.8215012e-03
  4.0335140e-01
 -1.0553589e-01
  4.2129338e-02
 -1.8737318e-02
  2.4016406e-01
  2.4197973e-02
  3.6979929e-01
 -1.5084547e-02
  1.6618135e+00
  1.7901227e-02
  1.7117571e-02
  7.5321734e-02
 -1.6141365e-03
  5.2172188e-02
  2.5450597e-02
 -4.3639038e-02
 -1.1317164e-02
  8.1929922e-02
  3.0902348e+00
 -6.2169633e-03
  9.3809431e-03
 -3.7238546e-02
  1.2312114e-01
  3.3746302e-02
 -5.5949047e-02
  1.8612631e-02
 -6.1677985e-02
  7.2400913e-02
  1.1609223e-01
 -6.6040635e-02
  1.4770289e-01
 -6.9102854e-02
  7.1166016e-02
  3.5463870e-02
  2.1956500e-02
  3.3130560e-02
  1.0245879e-02
 -1.1086747e-01
 -6.4771019e-02
 -2.0558224e+00
 -4.5262687e-02
  2.2700092e-02
 -1.9066500e-02
  3.6185118e-03
  3.7966524e-03
  1.8176332e-03
 -3.7764807e-03
 -3.9944693e-02
  9.1707278e-03
 -4.3648768e-02
  9.9442080e-02
 -1.2433787e-03
 -9.2031516e-02
 -4.6790201e-02
  3.8260594e-03
 -2.3017619e-02
 -2.5796875e-02
  3.2611854e-02
 -2.2912709e-01
  6.4599901e-02
  4.9880971e-03
 -5.4137886e-02
  2.4021177e-03
 -7.4282072e-02
 -1.5032574e-03
 -5.3128958e-02
  4.1221771e-02
 -1.0907723e-02
 -1.0953097e-01
  7.2583291e-03
  3.9509861e-03
  3.8172729e-02
 -1.5294141e-01
 -4.8657786e-03
  1.5037588e-02
  4.5917757e-02
  1.0974175e-01
 -8.1388466e-02
  1.1372490e-01
  4.1026198e-03
 -4.6133921e-02
  4.5673802e-02
  1.3325419e-02
 -2.3470359e-02
 -3.5214782e-02
  1.9502129e-02
 -2.3011874e-02
 -4.0577468e-02
 -7.3529795e-02
  2.5261659e-02
 -1.0949174e-01
 -2.0007910e-01
 -7.9702362e-02
  3.4881920e-02
 -8.8960022e-02
  5.4349672e-02
 -1.8692373e-01
 -3.3002935e-02
  4.6827435e-03
 -4.8767779e-02
  2.0242708e-02
  8.0886642e-03
  1.4765762e-02
  1.4193660e-03
 -3.3302609e-02
 -1.2474990e-01
 -2.9497845e-02
  2.3258824e-03
  1.6783603e-02
  1.0436909e-01
  2.4370598e-03
 -3.8268041e-02
 -1.6149843e-01
 -6.2644757e-02
  1.5362903e-02
 -1.5393344e-01
  1.5887907e-02
  3.3380568e-02
 -4.7929060e-02
  1.5560703e-01
  1.6674346e-01
 -6.0833152e-02
 -2.0982012e-02
 -4.2118572e-02
  1.1157119e-01
  3.4000419e-02
  3.5793487e-02
  2.3406382e-01
 -2.0208704e+00
 -1.1912481e-01
  1.0498029e-01
 -3.4436677e-02
 -7.6773562e-02
 -9.0862823e-01
  8.4078737e-02
 -4.2058834e-01
 -2.6708775e+00
  6.8037175e-02
  3.8726194e+00
  7.2584826e-01
  5.1892275e-01
 -5.7619864e-01
  2.9938288e-02
 -1.7961841e-02
 -1.2370706e-01
 -1.0509283e-02
  4.6537176e-02
  5.5906828e-02
  1.9025341e-02
 -3.3251297e-02
 -7.4018113e-02
  2.1096482e-03
  3.0462919e-02
 -2.3819412e-01
 -3.7126046e-02
 -6.6680528e-02
 -3.9365746e-02
 -1.6143568e-02
 -4.8656430e-02
 -3.0534260e-02
  3.2068565e-02
 -3.2715452e-01
 -1.4127529e-01
  7.3075391e-02
 -1.1708462e-01
  9.5335789e-02
  1.1304174e-01
 -6.2456071e-02
  7.6645499e-01
  8.7923199e-02
  1.9941406e-02
  6.4181522e-02
 -1.0496413e-02
 -1.2847704e-01
 -8.9439072e-02
  3.1761076e-02
  9.5513035e-03
 -1.2703533e-01
 -7.1287787e-01
 -4.7684431e-01
 -7.8165674e-01
  1.7885298e-02
 -7.1605831e-02
  1.3463736e-01
  7.8180617e-01
 -2.2024405e-01
 -4.5657387e-01
  1.2975498e-01
  1.9564210e-01
 -7.5246483e-01
  2.9716937e-02
  1.1241114e-01
  2.3254365e-01
 -2.4139182e-01
  5.9249558e-02
  1.8883385e-02
 -2.3101862e-01
 -3.3002177e-01
 -8.7487556e-02
 -6.2846261e-01
  5.6556806e-02
  1.0687976e-01
  5.4881364e-01
 -3.2417785e-02
  2.0184407e-02
 -3.0829868e-01
 -4.1549796e-01
 -2.1158528e-02
  1.3883574e-01
 -7.0499154e-03
 -1.5158232e-01
  4.2198300e-03
 -4.2425923e-02
 -1.0633793e-01
 -2.4453571e-02
  4.9779873e-02
  5.7720714e-03
 -8.6505763e-02
 -6.2783635e-03
  5.5559729e-03
 -2.3165898e-02
 -8.9791000e-02
 -6.7292285e-01
 -6.4037722e-01
  1.6200806e-01
 -5.7882730e-02
  4.5857248e-01
  5.1956868e-01
 -2.9522142e+00
 -2.9613212e-01
 -1.6735737e-01
 -2.3855381e-02
  2.1509647e-02
  1.1700736e+00
  2.1137975e-01
  2.2141702e-01
 -3.8046187e-03
  9.2036031e-02
  4.8633147e-02
 -2.9428063e-03
  2.5693333e-02
  5.9213888e-02
  3.1476066e-02
 -7.0256129e-02
  1.5320807e+00
  2.0280786e-01
  7.4694795e-03
  5.3845990e-02
  8.7520438e-01
 -1.2444757e-02
 -4.4706795e-02
  7.3759414e-02
  5.0242215e-02
 -2.4528383e-01
 -8.6459205e-02
 -1.2739453e-01
  4.5682803e-02
  1.7957374e-02
 -5.9614126e-02
 -1.4593985e-02
 -3.0342133e-03
  1.8544728e-02
  7.7665433e-02
  2.7873479e-02
  3.3128562e-03
 -4.7053012e-01
  3.4399915e-01
  7.4323299e-03
  1.5462574e-01
  1.2165125e-02
 -3.3858005e-02
  2.9312864e-02
 -1.0225217e+00
  2.0195466e-02
  1.1896408e+00
 -1.1371387e+00
  8.9381874e-01
 -1.0292739e-02
  5.5765283e-01
 -5.5398792e-01
 -1.1569018e-02
  6.7032367e-02
  1.2113808e+00
  6.7673892e-01
  6.3499752e-03
 -6.2651113e-02
 -7.4858449e-02
 -9.3641812e-01
  1.7656552e+00
  7.4558866e-01
  7.2843838e-01
 -1.7663012e+00
  6.2091641e-02
 -5.1786425e-03
  2.1378045e+00
  6.8847817e-01
 -1.6069636e-02
  8.3576612e-02
 -5.6458312e-01
  1.7601752e+00
 -1.1018667e-01
 -1.2193326e-01
 -4.6784572e-02
 -4.5817609e+00
 -2.6030855e-03
  1.6759912e+00
 -1.1243947e+00
  1.0090570e+00
  8.1515826e-02
 -5.2062416e-01
  2.1537526e-01
 -7.8308302e-01
  3.5061195e-01
  7.9282269e-02
  3.9984572e-01
  1.5824774e-01
  2.3620507e-01
  5.5131815e-02
  8.8769004e-02
  1.2528442e-02
 -4.5199294e-02
  3.0367155e-02
  6.8513799e-01
  8.1860945e-02
 -1.7484036e-01
  2.3057517e-01
 -3.6314747e-01
 -1.5913540e-03
 -2.6312840e-01
  1.2925735e+00
  3.5923872e-02
 -6.3791148e-02
 -5.6769097e-01
 -3.4076548e+00
 -9.2155635e-02
  5.7318002e-02
  4.9695335e-03
 -5.1597697e-01
 -3.4228751e-01
  1.4485072e+00
 -1.0046637e+00
 -1.5077509e+00
  1.0697458e-01
 -2.1830479e-02
  6.3653159e-01
  1.2407937e+00
 -7.3552474e-02
  5.9633460e-02
 -4.7842953e-01
 -1.7887474e+00
  7.9165928e-02
 -6.9371328e-02
  4.9248666e-02
  2.7258743e-02
  5.5294728e-01
  1.0129715e+00
 -8.2896066e-01
  2.6532218e-01
  1.4019697e+00
  2.4932227e-01
  5.8871053e-02
 -3.0218235e-01
 -2.0738426e-01
 -4.3114361e-01
  7.8897071e-01
 -6.1503857e-01
  8.4409508e-04
  1.3319908e-01
 -2.4759926e-01
  7.1447515e-03
 -7.6351725e-02
 -7.7791307e-03
  3.8348977e-02
  3.4036018e-02
  2.1352787e-02
 -1.8698830e-02
 -3.1937551e-02
 -6.3374418e-01
 -4.0819269e-02
  2.8371684e-02
 -3.6216419e-02
  1.7800502e-02
 -1.8164524e-01
  9.3483012e-03
  5.8934696e-02
 -7.0163622e-03
  3.2091964e-02
  4.1732527e-02
 -6.8302855e-02
 -1.0630711e-02
 -6.8510249e-02
  1.7251548e-03
 -3.4760483e-02
 -3.9098877e-02
 -5.1795924e-01
 -2.3197202e-01
 -4.7828429e-03
  1.6717528e-01
 -1.2305082e-01
  2.8522976e-02
  1.0490102e-02
 -7.1958207e-02
 -6.0990658e-02
 -1.0245210e-02
 -4.8089322e-02
 -6.0807662e-03
 -2.1408135e-02
 -5.6017870e-03
  5.4173864e-02
  4.9579939e-01
 -1.4796101e-01
 -6.4682865e-01
  9.9710870e-01
  5.7576060e-01
  1.2071902e+00
  1.5785034e+00
 -3.6630839e-01
 -2.2667035e-01
 -7.1535408e-01
  8.3406752e-01
  1.6546230e+00
  1.6565275e+00
 -4.0073638e+00
 -9.8444963e-01
  3.6174598e-01
 -2.5027570e-01
 -2.6644962e-02
 -3.0551907e-01
 -1.0417855e+00
 -2.6176789e+00
  2.2204806e-01
 -2.8760743e-01
  3.0662427e+00
  8.3267784e-01
 -1.2488980e+00
  4.8639277e-01
 -2.3328180e+00
  1.2669697e-02
  9.2454064e-01
 -9.5536906e-01
  6.0933549e-02
 -1.3612111e+00
 -7.0951903e-01
  2.2643378e+00
 -4.3208320e-02
 -9.9584955e-01
 -4.9268641e-02
  1.2234920e-01
  9.6272945e-02
  2.5559982e-02
  6.5792143e-02
 -1.3770011e-01
 -4.5498427e-02
  7.3659070e-02
  8.1064802e-01
  1.2363509e+00
 -5.4147351e-01
 -2.0167241e+00
 -6.3177526e-01
  1.5129755e+00
  2.1443217e-01
 -8.6078709e-01
 -3.5271067e-02
 -1.1755407e-01
 -8.6887799e-02
 -1.0192071e-02
 -8.0893170e-03
 -8.1145652e-02
 -3.9459310e-02
 -1.9719711e-02
  1.8421130e-01
  9.5462851e-02
 -1.8654972e-02
 -8.7465942e-03
 -5.3134140e-02
 -1.0213970e-03
  2.0406330e-03
  4.3338619e-02
  3.1235267e-03
 -2.3538671e+00
 -2.7087431e-02
 -1.1767814e-01
 -2.3661946e-01
 -1.3056129e+00
  8.1283778e-02
  2.8019559e-01
  1.9006658e-02
  2.6606531e+00
 -2.1067526e-02
  2.7748534e-01
  7.5231250e-03
  4.0754031e-02
  3.5391025e-02
 -1.3748365e-02
  1.1785444e-02
  4.7728073e-02
 -1.7924261e-03
 -1.0108482e-01
  2.7135217e-01
  1.6980823e-02
  6.1123904e-02
  7.4339084e-02
 -4.1686404e-02
  3.6332708e-02
  5.9718925e-01
 -2.4986388e-02
  2.0087065e-01
 -6.7687583e-01
 -6.8216249e-02
 -7.0609435e-02
  4.1942865e-02
 -7.5540892e-03
  1.1949937e-02
 -3.2836895e-02
 -4.2813364e-02
 -2.1608138e-02
  2.5715025e-02
 -8.3726540e-02
  2.7003970e-02
 -2.2193713e-02
 -4.8078569e-03
 -3.2346539e-02
 -1.4403356e+00
  1.9498991e-02
 -9.9806204e-02
 -4.1828986e-02
 -9.0325007e-04
 -3.8348578e-02
 -3.9494604e-02
  2.8892590e-02
  5.9051748e-02
 -3.5226837e-02
 -1.9717518e-02
  5.1425703e-02
 -3.2207850e-02
 -8.2275756e-03
 -8.0084153e-02
 -1.9356359e-02
 -4.2300947e-02
 -7.6309793e-02
  1.0115488e-02
  1.5019041e+00
 -2.9845138e+00
  2.7178571e+00
 -2.6693204e-01
 -1.3957109e-01
  3.0604968e+00
  2.8820426e+00
 -9.5803577e-01
  2.5279021e-01
 -2.3462908e+00
  1.4340837e-01
  1.7637014e-02
 -6.0482193e-02
 -2.8000849e-01
  2.7793573e-02
 -3.2230052e-01
 -7.9581690e-01
 -2.9586384e-01
  1.1538126e-01
  6.6128187e-02
  2.1615601e+00
  4.9303837e-02
 -1.0279433e-01
 -8.7797505e-01
  8.7560755e-01
  1.5348961e+00
  1.2895441e+00
  7.1093029e-01
  1.2845944e-02
 -8.7238449e-01
 -2.6390803e-01
  4.4360206e-02
 -1.1866570e+00
  2.2613969e+00
  2.4350760e+00
  3.0568074e-03
 -1.0663586e-02
  1.6484777e-02
 -1.3876893e-02
  1.0363623e-02
  9.4519682e-02
 -1.2175612e-02
  2.3955125e-02
 -1.7915488e-03
 -1.0031652e-01
  1.2496568e-01
 -2.1559115e-02
 -1.3110185e-02
 -6.2910274e-02
  9.2476137e-02
 -2.4965053e-02
 -1.3685186e-01
 -1.7044489e-01
 -3.3167245e+00
 -3.2920700e-02
  5.8584601e-02
  1.9183153e-03
  2.0578286e-02
  9.2178427e-02
  6.1579913e-02
 -3.2336127e-02
 -7.8023113e-02
  4.2311221e-02
  1.4407147e-02
  8.5875720e-02
  3.4354299e-02
  1.0355064e-01
 -8.6985976e-03
 -2.2581322e-03
  9.4438326e-01
 -1.0292102e-03
  4.3612774e-02
  1.1840061e-02
 -9.3499340e-02
 -3.1455640e-02
  1.7407574e-01
  2.1347085e-02
 -8.8189527e-02
 -2.4553642e-03
 -7.9724891e-03
  1.2101540e-02
  5.3746193e-03
  3.3107813e-02
 -1.0422299e-02
 -1.3863257e-01
  4.5158774e-02
  2.5670875e-02
  7.4956551e-02
 -4.0600079e-01
  2.2038851e-02
 -7.9729088e-02
 -6.9773220e-02
 -2.4467309e+00
  2.2189665e+00
  6.7904152e-02
 -2.9906410e-01
 -6.9272339e-01
  1.4756936e-01
 -3.9826814e-02
 -4.9369603e-02
  1.1368359e-01
  5.3407326e-02
  2.0844486e-02
 -2.4081896e-01
 -2.0094550e+00
 -3.5696544e-02
 -1.9858003e-02
 -1.3883650e-01
 -1.5020691e-01
  3.6801215e-02
  4.6887152e-02
  7.6888449e-02
 -4.6143234e-02
  7.5504100e-01
  2.3057356e+00
  2.3306448e+00
  3.0302031e+00
  2.5222027e-01
 -7.6610021e-02
 -3.0762455e-03
 -2.2203714e-02
  2.1431777e-01
 -7.2863561e-01
 -7.7733671e-04
  3.4524016e-02
  4.4516552e-02
  4.4958983e-02
  2.1683531e-02
  5.2018292e-02
  1.9077139e-02
 -1.5044170e-02
 -1.1054466e-02
 -2.7349401e-01
 -3.3344224e-01
 -3.5195249e-01
  4.9071617e+00
 -9.1791177e-01
  1.4238340e+00
  1.6366307e+00
  1.3229277e+00
  1.6849560e+00
 -8.0278456e-02
  1.0505300e-02
 -1.9074769e+00
  8.9789993e-01
 -7.6978666e-01
  4.1670153e-01
  6.8431512e-02
 -2.0921294e-02
 -9.5302564e-01
 -3.4894262e-02
 -2.1687753e+00
  2.2949016e-02
 -6.8366796e-02
  3.8923756e-03
 -9.1299981e-02
  2.6230682e-02
 -1.7886387e+00
 -2.5872454e-01
  9.5273973e-03
 -1.6312992e-04
 -2.3554921e+00
  3.0342376e-02
  2.2777831e-02
  1.1504994e-01
 -2.7305336e+00
  9.0100932e-01
 -8.4624290e-03
 -3.4783103e+00
 -2.1537030e-02
  7.2873443e-02
  5.0205909e-02
  1.0160182e-01
 -1.6710075e-02
  1.7258345e+00
 -1.0205638e-03
  5.0882563e-02
 -3.9745234e-02
  1.4153682e-01
 -1.9130290e-01
 -2.5345746e-02
 -1.9702588e-03
  1.4181893e-01
 -9.7823419e-02
 -7.2107470e-04
 -7.3349290e-02
  1.0155409e-01
 -2.5199321e-01
  2.7908597e-02
 -2.6876852e-01
 -2.1721160e-03
  4.1684531e-02
 -3.9193612e-02
 -1.0846148e-01
  1.3294508e-02
 -4.0896077e-02
 -7.0279357e-03
  1.2268304e-02
 -2.0131248e-03
  2.8971683e-02
 -7.3898388e-03
  2.6207797e-02
 -2.5688093e-02
  1.8328832e-01
  6.9671474e-02
 -1.2490692e-02
  1.8918807e-02
 -7.0611224e-02
 -1.1332481e-02
 -3.8034540e-02
  6.2324874e-02
  2.1905972e-02
  4.9348950e-02
 -5.5735979e-02
 -1.6940227e-02
 -1.5145026e-02
  7.3890269e-02
 -1.4845659e-03
 -5.2451525e-02
 -1.0627813e-01
  7.0280647e-01
  1.9964179e-02
 -3.0482371e+00
 -2.2745390e-01
 -2.9893658e-01
 -1.5778430e-01
  9.3801983e-02
 -1.0029929e-01
  8.1390716e-02
 -7.3740198e-03
  3.2259626e-03
  8.3987601e-02
 -2.0728497e-02
 -3.6261889e-01
 -1.2763183e-01
 -6.7863822e-02
 -1.3301823e-03
 -4.3916009e-02
 -1.1660317e-02
  6.5989912e-02
 -4.3307163e-02
  2.1462681e-02
 -3.0583988e-03
 -3.1240692e-02
  1.7924383e-01
  2.3071958e-02
 -1.4470588e+00
 -5.2473892e-02
 -3.0461565e-02
  3.4571737e-02
  4.0852141e-02
 -2.6057811e-02
 -3.6936630e-02
  2.8300185e-02
  2.0362620e-01
 -1.0666370e-01
 -1.9179547e-02
  6.0571212e-02
  4.1615989e-02
  2.6998807e-02
 -6.4339563e-02
 -1.1157202e-02
  3.9694097e-02
 -1.2572241e+00
  7.4796624e-02
  5.8247489e-03
 -3.2071527e-02
 -1.2942488e-01
 -3.7112445e-02
 -9.9934749e-02
 -3.6001835e-02
  1.6868863e-03
 -3.4070976e-02
  3.1357575e-02
 -3.3406049e-02
  2.2312097e-02
 -2.6210455e-02
  2.8347762e-03
 -4.4104263e-02
 -1.2535344e-01
  1.0049606e-04
  1.5436063e-02
  3.5866838e-02
 -3.9898064e-02
  1.1433715e-03
 -3.9272018e-02
 -6.2656611e-02
  4.2265866e-02
  1.0768730e-02
  7.5672947e-02
  5.4792713e-02
  2.5932711e-02
  2.0354928e-02
 -7.9980390e-03
 -1.3970812e-01
 -5.4596425e-03
  4.5097973e-02
 -1.0203374e-02
 -4.5807339e-02
  5.9955303e-02
 -6.5880895e-02
  2.4548281e-02
  2.4597388e-02
  4.3449242e-02
 -1.1154857e-02
  2.9120259e-02
  8.0845086e-03
  1.2589946e-02
  2.2916613e+00
  6.2991327e-01
 -2.2701876e+00
 -1.0962979e-01
 -1.3073559e+00
 -1.2332656e+00
 -6.7752713e-01
 -2.9470186e+00
  3.0864222e+00
  1.4623132e+00
 -8.8022333e-01
  8.8431281e-01
  4.6127906e-01
 -1.9073629e+00
  1.7865657e+00
  1.6994901e-01
 -9.9234022e-03
 -3.9334949e-03
 -9.1288072e-01
 -5.2788061e-01
 -9.4209000e-02
 -1.9800685e-01
 -1.7749739e-01
  1.1150643e+00
 -1.7150433e+00
 -1.0219873e-01
  1.3896536e+00
 -7.4674004e-01
 -6.6820675e-01
 -2.6570122e+00
 -3.0415806e-01
  1.0353585e+00
  4.9115042e-03
 -5.9217696e+00
  1.0256194e-01
 -5.0917208e-01
 -2.7339137e-01
 -9.4653852e-03
  6.4010900e-03
  7.0719190e-02
 -4.4103982e-03
  5.9718002e-02
  8.6156027e-03
 -1.7851540e-03
 -1.0620259e-02
 -4.8067298e-02
  9.7226985e-02
 -4.4425350e-02
 -9.8995692e-01
 -2.0228217e-03
  2.9065991e-02
  5.2767128e-02
  6.4996022e-01
 -9.6066564e-02
  1.2571597e+00
  3.2132663e-02
 -7.6576252e-03
 -5.4510698e-02
 -1.1860486e-01
  1.7283209e-02
  8.5086748e-03
 -2.0157251e-01
 -1.0356834e-02
 -1.3608925e-02
  7.3124774e-02
 -3.4480758e-03
  5.4773241e-02
 -2.4751779e-02
 -1.3328620e-02
 -7.8080669e-02
 -2.4608076e-02
 -1.5593481e-01
 -6.6183947e-02
 -3.8202353e-02
 -6.0082089e-02
 -5.7266433e-02
 -2.1572195e-02
  1.5103318e-01
  4.1239344e-02
 -7.7925816e-02
  1.3005424e-02
  1.5698487e-02
  8.0894209e-02
 -5.2085340e-02
 -3.1411787e-03
  1.5970986e-02
  2.5303014e-02
 -7.6475106e-02
 -1.7684036e-01
  6.1417904e+00
 -2.3046370e+00
 -1.1029292e+00
  6.9509256e-01
 -3.8197961e+00
  9.8993337e-01
 -8.5308844e-01
  7.9843026e-01
 -4.9132803e-01
 -5.2365825e-02
  1.4035795e+00
 -3.3025949e-03
 -9.2146784e-02
  4.2034465e-01
  3.5683292e-01
 -1.6661911e-01
  3.2425706e+00
  2.8435432e-03
 -4.3838340e-01
  1.3325050e-01
  2.2181699e+00
  1.1399102e+00
  1.6079730e-01
  2.5300106e-02
 -2.0274863e+00
 -3.6994037e-01
  1.3381032e+00
  2.8980697e-02
  6.4325857e-01
  1.8477082e+00
  2.2915464e-02
 -1.2634404e-01
 -7.1113729e-01
 -2.4750538e+00
 -1.2848274e-01
 -1.1203529e+00
 -3.3165332e-02
  1.0425039e-04
  1.4884813e-02
 -4.5202054e-02
 -6.5533035e-03
  1.5395637e-02
 -1.7899784e-01
 -1.6732858e-02
  1.3782541e-01
 -9.8702282e-01
  5.1622400e-03
 -3.5966475e-02
 -1.3359665e-02
  4.4338290e-02
  1.2253297e-01
  2.5356695e-01
  3.1011691e-03
  1.3062183e-02
  3.2992822e-03
  6.6346455e-01
 -1.0448518e+00
 -8.3542399e-02
  3.1879604e-02
  2.1107893e-02
 -2.5481230e-01
 -1.1531297e-01
  2.2807945e-02
  3.0532479e-02
  4.4010170e-02
  1.6508298e-03
  3.8489327e-02
  1.6637759e-03
  2.7057720e-02
 -2.8118458e-02
 -2.4084494e-02
 -2.0821860e+00
 -2.0586664e-02
 -6.3443339e-01
  1.2086499e-01
 -1.3749605e-01
 -2.7091021e-02
  3.2595789e-01
  4.5265213e-02
 -5.6660105e-02
  3.2692723e-02
 -2.5973452e-02
 -2.1468553e-01
 -3.5782363e-02
 -1.2197282e-01
  1.0430657e-02
 -5.5883765e-02
  5.5500451e-02
  1.1532185e-02
 -1.9026248e-02
  4.3347646e-02
 -3.0834100e-01
  1.6067839e-01
  2.2755836e-01
  5.8307134e-02
  2.3144927e-02
 -1.3096133e-01
  2.7564803e-01
  1.9632876e-01
  6.1700754e-02
  4.7971193e-02
  4.2081043e-02
 -1.0344447e-02
 -8.6996205e-02
 -2.1747611e-02
 -3.1843245e-01
 -1.3573076e-02
  1.0807262e-01
 -7.9049110e-02
 -1.1632477e+00
 -2.4414677e-03
 -2.7406832e-02
 -9.7361796e-02
 -4.4021126e-02
 -3.4333989e-02
 -3.1444147e-02
  1.1684636e-01
  1.2189168e-01
 -9.0479501e-02
 -3.0113684e-02
 -8.1264652e-02
  2.3644632e-01
  6.7579776e-02
 -5.9985671e-02
  7.8153965e-04
 -1.6826149e-02
  1.1187943e-01
  9.7122730e-04
 -1.3309320e-03
 -4.8795022e-02
 -1.8227909e-02
  1.4164890e-01
  1.0633103e-02
 -9.0042520e-01
  4.2673778e-02
 -5.2316904e-01
 -2.6513031e-02
 -2.9434865e-02
 -6.8155617e-02
 -1.4995475e-01
 -7.9306524e-04
 -2.8865173e-02
  2.9360242e+00
  3.8209937e+00
  5.0196096e-02
 -4.2466667e-02
 -1.2176434e-01
 -1.6080512e-02
 -1.5465844e-02
  1.0964014e-04
  5.4795649e-02
  7.0079356e-02
  4.6614520e-02
  2.3491306e-02
  2.2692893e-02
  1.2900148e-02
  6.4453036e-02
  3.9181495e-03
 -4.1301344e-02
 -1.8710108e-03
 -2.7597628e-03
 -5.4085568e-02
  2.3743631e-02
  8.9866742e-02
 -1.6596375e-02
  1.5870401e-01
 -1.5257879e-01
  1.1208851e-01
  1.9531911e-02
  8.9127675e-02
 -5.1423747e-02
  2.2062967e-02
  6.0786515e-02
 -1.5386823e-03
  1.1437206e-01
  1.2914859e-01
  1.2884223e+00
 -1.0492167e+00
 -2.7697055e+00
 -3.2799263e+00
  2.2217276e+00
  1.1662352e-01
 -5.8513600e-01
 -1.5483883e-01
  3.9915428e-01
 -2.7189490e-01
 -2.5125488e-03
 -4.1049749e-01
 -3.6362741e-02
 -2.9902315e-02
 -1.9330395e-02
  7.4982755e-02
  2.8334031e-01
  6.7716478e-03
  3.3364947e+00
 -2.9790986e-02
  4.2626694e-02
  4.3065179e-02
  8.2758404e-02
 -1.6280054e-01
 -6.4512426e-01
 -7.1702576e-01
  3.6596611e-02
 -1.8933728e+00
  2.0022526e+00
 -1.0322374e-01
 -4.3615066e-02
 -3.3959214e-02
  1.8769072e+00
 -2.3879445e+00
  3.9104659e-02
 -8.2206503e-03
  1.8539339e-02
 -5.8070507e-02
 -7.0626043e-02
  5.1847678e-02
 -7.0158234e-03
  8.8657625e-02
  3.2031201e-02
  1.0633692e+00
  5.3535241e-01
  9.6397996e-03
 -1.2325339e+00
  3.0285447e+00
  5.1482365e-02
  1.6235789e+00
 -1.7890428e-01
 -2.6570123e-01
 -5.1255131e-01
 -1.9261968e-01
  1.3822864e+00
 -1.6321772e+00
  3.3724198e-01
 -7.4404776e-02
 -8.4270008e-02
  8.3011473e-03
  1.4970117e-03
 -1.5187201e-02
 -2.9486048e-03
 -1.2803909e+00
  1.1068982e-02
 -3.9955471e-03
 -2.0569002e-02
  1.3544063e-01
  6.1833289e-02
  1.2611274e+00
  1.5445364e-01
 -1.2441269e-02
  5.1752853e-01
  5.5717874e-01
 -1.0644751e-02
  2.9583845e-01
 -1.4964803e+00
 -8.5229725e-01
 -5.8051115e-03
  1.7693251e-02
 -6.6797860e-02
 -1.8724190e-01
 -8.6190619e-02
 -7.6803990e-02
 -1.0350592e-01
  7.7587828e-02
  1.6761185e-01
 -2.2098273e-01
  1.5788618e-02
  1.2304213e+00
 -1.3419261e+00
 -1.4366032e+00
 -1.4737691e+00
 -8.4375334e-01
 -1.9113454e+00
  1.7820181e+00
 -1.0784739e+00
  9.2261108e-03
  1.2715392e-01
 -1.8309051e-01
  2.3990607e-02
 -1.8183343e-02
 -3.2232250e-03
 -1.2117150e-01
  6.7591049e-02
  2.8870456e-02
  3.3979442e+00
 -3.2929286e-02
 -2.1069530e-01
 -1.9905197e-02
 -4.5126823e-01
  4.1314168e-03
 -1.2425437e-02
  2.4680581e+00
 -5.7832491e-01
  5.2564126e-01
 -3.0394652e-01
 -7.8487235e-01
 -6.2538628e-03
  1.1475438e-01
  1.9150953e+00
 -1.3097145e-01
 -3.6679227e-02
  1.2699971e+00
  6.1272692e-02
 -4.9286433e-02
  1.2384687e-02
 -1.5762599e-01
  8.9999125e-04
 -4.1552804e-02
  8.7393180e-02
 -7.8330688e-02
  6.8279073e-02
 -1.5262826e-01
  4.2688742e-02
  5.3076755e-02
 -1.2404481e-01
  2.1028552e-02
 -4.3115407e-02
 -1.3574586e-02
  7.3826276e-02
  7.0200659e-02
 -1.4162052e+00
 -1.0143699e-01
 -1.2375168e-02
 -1.4914838e-03
 -6.3785748e-03
  7.1453989e-02
 -2.5764240e-02
 -5.9656229e-02
  7.0488505e-02
  2.8903814e-02
  1.0361700e-01
  2.0752598e-02
 -2.0571163e-02
 -1.9283442e-01
 -8.9413106e-02
  2.9688936e-01
 -8.1718929e-02
 -1.0783704e-02
 -1.6313557e-02
 -9.7473338e-02
 -5.2914139e-02
  4.0579680e-03
 -2.1947084e-02
  8.1492662e-02
  1.3237244e-01
 -9.1809452e-02
 -2.4409991e-02
  2.0052524e-02
 -4.2951688e-02
 -3.2907307e-02
 -1.1541950e-01
 -1.0345341e-01
  6.5990515e-02
  3.4169301e-02
 -3.5978460e+00
 -6.2365305e-01
  1.9490591e-01
  2.6755929e-01
  1.6742429e+00
 -7.4925011e-01
  1.1372099e+00
 -4.4361150e-01
  6.1677831e-01
  1.4503543e+00
  4.5047596e-01
 -6.0275865e-01
  1.3694650e+00
  1.1212974e+00
 -1.2920527e+00
 -2.2584791e+00
 -2.0578133e-01
  2.7626939e-02
 -1.7499518e+00
 -1.0037951e+00
  1.8232553e+00
 -3.0128195e+00
 -2.9506295e+00
  1.1425979e+00
 -1.5435601e+00
 -9.5133048e-01
 -3.5281441e-01
  4.0721905e-01
  8.2555199e-01
  8.3238113e-01
  4.3911189e-01
 -4.2544520e-01
 -3.6847665e+00
 -6.2716728e-01
 -3.5563719e-01
 -7.9629727e-02
 -8.6935811e-02
  9.6606892e-03
  1.7996186e-01
  1.1200850e+00
  3.6476022e-01
 -1.8974233e-02
 -6.7183298e-01
 -3.6547191e-02
 -5.6367725e-02
 -2.4525122e-01
  5.3786382e-02
 -2.0964625e+00
 -4.1599922e-02
  7.2536126e-02
 -5.9199482e-03
  1.2164738e-01
 -5.2798251e-03
  9.1431625e-02
  2.0434755e-01
 -2.2116703e-01
 -8.1378244e-02
  2.0576224e-03
  1.2632837e-02
 -2.7640054e-02
  1.5759653e-01
 -3.8790509e-01
 -7.5737253e-02
  1.3560550e-02
  1.9897241e-02
 -3.5556689e-02
 -4.4216238e-02
 -2.4548289e-03
  7.0655067e-03
  4.1044001e-02
  2.2523125e-01
 -2.5676118e-02
 -1.5880855e+00
  7.1285099e-02
 -5.6526653e-02
 -3.8973581e-02
 -1.0155108e+00
  4.5760316e-01
 -6.3644141e-02
  8.0141919e-03
 -1.7279593e-02
  6.4833850e-02
  1.7782908e-02
  2.2380505e-02
  5.4854237e-02
  2.5827309e-02
 -2.3269538e-02
  1.2053427e+00
 -1.9833462e+00
  1.1203749e+00
  8.3776140e-01
  6.2947911e-01
  1.4342165e-02
 -1.9995230e+00
  2.5558457e+00
 -7.5525707e-01
  5.4921824e-01
  2.7266517e-01
  1.7780249e+00
 -4.1412539e+00
  7.9434556e-01
 -6.0895271e+00
  8.0714947e-01
  1.0886754e-01
  6.7415098e-03
  1.6398475e-01
  8.1588078e-01
 -4.1035395e-02
  7.6722920e-02
  4.2681590e-02
  3.5338030e+00
 -1.2656184e-01
 -3.0023024e+00
  8.5131234e-01
 -2.4085608e+00
 -1.2106062e+00
 -7.7276367e-01
  1.1644970e+00
 -9.1150653e-01
  1.0266032e-02
 -3.4897470e-01
 -9.1704148e-01
 -1.1222120e-01
  2.5626884e+00
 -5.0334215e-01
  6.4359508e-03
  1.0579271e+00
 -3.0772485e-02
  6.7862766e-03
 -2.8344510e-02
 -3.3195753e-02
 -9.5695164e-03
  9.5589772e-02
  1.8384744e+00
  1.3753030e+00
 -9.2258036e-02
 -4.6407413e+00
  7.8780895e-01
 -3.0653648e+00
  2.5951746e-01
  1.4912293e+00
 -4.8694303e-03
 -9.4045084e-03
 -1.2273709e-01
 -5.1270086e-01
  6.3067623e-03
 -4.1655222e-01
 -1.1082290e-02
 -1.5880217e-01
 -5.9351135e-02
 -9.1907606e-02
 -4.6221465e-02
 -1.3415568e-02
  1.6320689e-02
  4.1695842e-01
  3.1177627e-02
  4.3804187e-02
 -3.5670232e-02
  3.3076038e-03
  1.6217818e-02
 -7.5361931e-01
  1.7945815e+00
  5.3696781e-02
 -2.1012917e-02
 -1.7000847e-01
 -1.5336909e+00
 -7.3771842e-02
 -6.1265923e-02
  8.8980250e-02
 -3.6180690e-02
  8.0104068e-02
  4.0263720e-02
  3.4701366e-02
  6.1419941e-02
 -3.1205991e-03
 -5.1379108e-01
  1.8707592e+00
  1.7376301e+00
 -2.5363496e-01
  1.6511224e-01
  8.5785502e-01
  1.2496866e+00
 -1.9464023e+00
 -9.7386926e-01
 -1.3504164e-02
 -3.6820129e-01
  6.6896327e-02
  9.2027932e-01
  9.1263926e-01
  1.7710795e+00
 -1.9978726e-02
  7.6999605e-02
  9.7517401e-02
  1.1391108e-01
  7.4574269e-02
  2.4155097e-02
 -3.4152418e-02
  3.3172261e-02
 -1.4175834e-01
 -4.8597273e-01
 -1.2338277e-02
  1.6365206e+00
 -1.0356382e+00
  1.5368512e-01
 -9.7011632e-01
 -1.9328774e+00
  2.7529042e-02
  2.6589856e+00
  7.2146499e-01
 -1.7232825e-01
  9.0386660e-04
  2.9716128e-01
 -6.5584374e-03
  2.2165462e-02
 -2.5727037e-02
 -5.5600695e-02
 -4.8814435e-03
 -1.0180889e-02
  1.6973698e-01
 -8.7928466e-02
 -7.5936221e-02
  3.1476837e-02
 -3.4368712e-01
 -5.6396108e-02
  1.6052859e-02
 -8.9006700e-02
  7.4347056e-02
 -4.2137146e-02
 -5.8696661e-02
 -8.5598014e-02
  1.8995842e-01
  1.9408602e-02
  1.9381285e-01
 -6.5909564e-02
 -1.6567517e-02
 -3.9017268e-02
  2.5642246e-01
 -4.9196631e-02
  3.9712563e-02
  5.0068084e-02
  4.3951064e-02
  3.4343626e-02
  3.2034375e-02
 -5.0053015e-02
  8.8638037e-02
  1.8296896e-01
  7.8525133e-03
 -5.9697595e-03
 -6.7239814e-02
 -7.9432495e-02
  2.8332371e-02
 -1.6041188e-02
 -6.2849671e-02
  8.3168842e-02
 -4.8097435e-02
 -1.6616925e-03
  5.0471313e-02
  2.7352422e-02
  6.1806157e-02
 -4.1690925e-03
  5.2818339e-02
  2.1526404e-01
 -1.9414952e-02
 -5.9157186e-03
  1.4423768e-01
 -4.4298835e-02
 -6.1733939e-02
 -6.8952061e-02
 -2.1148264e+00
  3.6284678e-02
 -1.2741771e-01
  1.0886130e+00
  3.0759150e-01
 -2.2115454e-01
  7.2943546e-02
 -1.0409410e-01
  1.7798582e-02
  8.6240254e-02
 -1.5354063e-02
 -2.2849014e-01
  3.1642455e-03
 -3.9460011e-02
  9.7608879e-02
 -2.3477457e-03
  1.4884652e-02
 -9.1974344e-03
 -5.2829973e-02
  1.8315510e+00
  2.0381555e-02
  2.8032006e-03
  1.1980938e-01
 -8.9828953e-02
  2.1978568e-02
 -7.8301817e-02
  1.0903095e-01
 -2.0401499e-03
 -2.8207528e-03
 -9.0093710e-02
 -1.1490404e-02
 -1.2008349e-01
 -1.1846913e-02
 -8.4779076e-02
 -6.0819536e-03
 -1.5755758e-01
  8.1695346e-03
 -1.8673363e-01
  1.6202273e-02
  6.4257509e-01
 -1.1018139e-02
 -1.6646398e-02
 -3.6729449e-01
 -1.2550321e-01
 -5.2906746e-01
 -7.0500177e-01
  1.9108667e+00
 -1.1925672e+00
 -1.2664522e+00
  1.9465456e-02
 -4.0794690e-03
  3.2791014e+00
  7.5285882e-01
  1.4506766e-02
  4.6440255e-02
  4.8665623e-03
  9.7502181e-03
  9.6473629e-03
 -2.1250129e-02
  7.2190516e-02
 -1.6339807e-01
 -1.5566477e-02
 -4.2207155e-01
 -7.8260556e-02
 -1.1608751e+00
 -1.0184183e+00
 -7.5001472e-01
 -1.3693447e-02
 -3.3990827e-01
 -1.6161867e+00
 -8.2029784e-03
 -3.8992874e-02
  4.7153614e-02
 -1.6686429e+00
  2.6602629e-01
 -1.0839182e-04
  4.1732419e-02
 -2.4699651e-02
 -7.3546483e-03
  5.4834718e-01
  5.8972519e-02
  3.7171442e-02
  1.6778473e-02
 -1.2766847e-01
 -8.1398040e-01
  6.6251539e-02
 -2.0184075e-02
 -5.9917155e-03
 -2.2969672e-02
 -3.7593957e-02
 -1.5267721e-01
  7.0893377e-02
  3.5420652e-02
  7.9155527e-02
 -2.0081380e-02
 -5.3914335e-02
 -1.5369933e-02
  1.0571218e-02
  8.6403497e-02
 -1.3269987e-02
  6.9463804e-02
  3.1843640e-02
  6.7248553e-02
  3.5383282e-03
  6.3513637e-02
 -1.7266201e-02
  5.6371436e-02
 -5.8053751e-02
  3.3340987e-04
 -1.0144574e-02
 -2.8631933e-02
 -1.6994230e-02
  1.2807047e-02
  4.1650485e-02
  6.3106567e-03
 -5.6213744e-02
  6.0881697e-02
 -1.5427295e-02
  8.3176427e-02
 -6.2404193e-02
  2.4801226e-01
  3.8139325e-02
 -4.4681627e-02
  2.6604794e-02
  4.1394103e-02
 -2.9669875e-02
  2.6071157e-02
 -8.0338009e-02
  1.8595229e-01
 -6.8213567e-02
  5.8269754e-02
 -8.2498714e-02
 -6.0648727e-01
 -1.2407903e-02
  1.2227978e-01
 -4.7845647e-02
 -7.4834771e-02
 -7.5260825e-03
  1.6051862e-02
  9.4958141e-02
 -3.2249045e-02
 -4.2155225e-02
 -9.1171935e-03
 -1.8329957e-01
 -2.6701845e-02
 -5.1230203e-02
 -2.8744362e-02
  4.5255810e-02
  3.7025329e-01
 -8.3970450e-02
 -1.0106497e-02
 -2.6626403e-02
 -6.0408745e-02
  8.0546975e-02
 -5.1996950e-02
  1.3852958e-02
  1.6096432e-02
 -7.0266598e-03
 -5.3479540e-01
  6.1751250e-02
  2.5555495e-02
  2.2926295e-02
 -1.4640788e-02
 -6.1643538e-03
  1.3939846e-01
  5.0179578e-02
  2.2768756e-02
 -2.3324927e-02
 -3.9501380e-02
 -1.0156170e-02
 -1.9447817e-01
  3.9294360e+00
 -8.8824832e-01
 -5.4641871e+00
  5.5298168e-02
 -1.0373269e+00
 -1.2120861e+00
 -2.1751633e+00
 -1.1504478e+00
 -1.3278283e+00
  7.6527365e-02
 -1.6470562e-03
  4.5199800e-02
 -1.4294859e+00
 -6.2191024e-02
  3.3384051e-02
 -1.5498319e-02
 -1.3242207e-01
 -2.3305858e-02
  1.3650726e-01
  1.0078728e-01
  1.7168520e-02
  1.6452536e-02
 -2.2047664e-01
 -2.3615651e-01
 -1.6273987e-02
 -3.0211052e-02
 -1.4076002e+00
  3.2378915e-01
  4.9382936e-02
 -3.7366477e-01
 -9.1799843e-01
  3.7884116e-02
  1.7269495e-03
  1.1932965e-01
 -2.2649655e+00
 -1.2025488e-02
 -4.0049486e-02
  9.2158914e-02
 -1.9095430e-02
  1.2530039e-02
  1.9157550e-03
  1.7842340e-03
 -1.8933376e-02
 -5.3301738e-03
  4.1075301e-01
  4.4471351e-03
  6.6386230e-02
  2.7101073e+00
 -2.9083036e-02
  7.5882524e-01
 -8.5740310e-01
 -7.9193372e-01
  1.3421226e+00
  1.6108738e-01
 -4.9208349e-01
 -1.4535524e+00
  1.5134921e+00
 -7.3658818e-01
 -2.2458035e-01
 -2.6069889e-02
 -5.2778795e-02
 -2.6079470e-02
  1.3271967e-02
  3.8814166e-04
 -3.5168082e-01
 -2.0376682e-01
 -1.2635766e-01
 -1.4397547e+00
  2.0071099e-02
  1.2315184e+00
 -8.9674495e-02
  2.7421176e-01
 -2.8655335e-02
  1.7025768e+00
  2.3030856e+00
 -2.8241683e-02
  3.4343255e-01
 -1.5617707e-01
  1.8131074e+00
  3.6394671e-01
  2.1475306e+00
 -2.4586473e-02
  5.2099392e-02
  5.6204792e-02
  3.7694383e-02
  5.5104692e-02
 -4.5037650e-02
 -4.2521149e-02
  1.8353696e+00
 -1.0577846e-01
 -3.7426970e+00
  3.2130808e-02
 -1.9614403e+00
  5.7907575e-01
  1.2612331e-01
 -1.7106898e+00
 -2.5786343e+00
 -4.8095625e-02
 -1.1507452e-02
 -4.8267175e-02
  1.3663860e-02
 -9.8266676e-02
 -3.1703636e-02
 -1.8706782e-02
 -4.6047993e-02
  3.8165386e+00
  1.1620308e-02
 -6.1068017e-02
 -4.1818086e-02
  4.4996865e-02
 -1.5665320e-01
 -1.1107676e-01
 -1.4140758e-03
  9.1649741e-03
 -3.1630361e+00
  7.9184788e-01
 -2.8111363e-02
  1.9469803e-02
 -1.5036415e-02
 -7.0394702e-02
 -2.4932252e-02
 -1.0910656e-01
 -1.3601362e+00
  1.1578582e-02
 -2.4580536e-02
  3.4917653e-02
  1.5559535e-02
  6.2017933e-02
 -1.1167476e-02
 -1.4590941e-01
  1.3405514e-03
  3.6977109e-02
  1.1419478e-01
  1.2375862e-02
  3.1657008e-04
 -4.4062391e-02
  7.4343890e-02
 -9.8249093e-02
  1.0539301e-01
 -3.4058094e-02
 -1.1964343e-01
 -4.2265989e-02
  3.4809597e-02
 -2.1515446e-02
  1.5966598e-02
  1.5510828e-02
 -4.4276768e-01
  3.3426158e-02
  4.2812806e-02
  2.5074113e-02
  7.7742166e-03
  5.0766673e+00
 -1.1837464e-02
 -1.8861327e-01
  9.1132196e-03
  4.2583682e-02
 -3.9563548e-02
 -6.7334637e-02
 -1.2788542e-02
  3.2421332e-02
  1.9098413e-01
  2.4916777e-01
 -4.2540798e-04
 -1.8929999e-02
  1.8122815e-02
 -2.7442399e-01
 -7.6888040e-02
  7.8040034e-02
  8.4093511e-03
  1.8101890e-04
  1.4561789e-02
  2.1044554e-02
 -4.2925000e-02
 -9.1633452e-03
 -9.2107587e-02
  1.0896300e-02
 -1.0022230e+00
 -8.5018836e-02
 -1.3283571e+00
  2.4089787e-02
  8.5000992e-01
  2.2867177e+00
 -4.3086771e-02
 -7.6632828e-02
  1.1367885e-01
  7.7050783e-02
  1.1216050e-01
 -1.3750727e-02
 -2.8960854e-02
  6.8690062e-02
 -4.5591909e-02
  4.9555663e-02
 -1.9614823e-02
  6.8035866e-03
  4.4394541e-03
  2.8765272e-02
 -2.3568930e-02
 -2.2827739e-02
  2.3582183e-02
  2.3399996e-02
  4.0915972e-03
  2.9915418e-02
 -2.0485863e-02
 -4.2075109e-02
  2.6359461e-02
 -3.6827766e-03
  2.4595167e-01
  5.2907739e-02
 -3.5945386e-02
  1.8273022e-02
  1.2296682e-02
  1.3994414e-01
 -6.2875099e-02
  6.8415141e-01
 -2.1092497e-02
 -1.5444434e-02
  1.0073670e+00
  3.6758311e-02
  1.7917611e-01
  6.5573812e-02
 -3.0789930e-01
  2.3122251e+00
 -3.2084477e-01
 -2.1704285e+00
 -9.7055131e-01
 -3.0906308e+00
  1.9975502e+00
  3.7316483e-01
  1.4506292e+00
 -2.6180279e+00
 -1.5642557e-02
 -8.3213985e-02
  7.5394976e-01
 -9.3718642e-01
 -3.6754847e+00
  2.3039565e+00
 -8.7415779e-01
  1.9198803e-02
 -1.0376101e+00
  1.4983282e+00
 -3.3150244e+00
  2.4989845e-02
 -1.8100872e+00
  4.1296399e-01
  2.0102615e-02
  1.5152172e+00
  2.8534732e+00
 -3.6685416e-01
 -6.6422737e-01
 -2.1372750e+00
 -5.1200128e+00
  8.1206694e-02
  2.9050081e+00
  3.8582304e+00
 -1.1876113e-01
 -9.3857363e-02
 -1.3269918e-01
  6.5235198e-02
 -8.6945444e-02
  9.9134166e-03
 -6.5546148e-03
  2.8015189e-02
  3.7666280e-02
 -6.2848854e-01
 -6.6275224e-02
  2.2948548e-02
 -1.3477410e-01
  7.6185837e-02
  2.6238321e-03
  1.2080911e-02
 -2.5340090e-02
 -4.3015177e-03
  2.6017576e-02
 -2.5672175e-03
 -9.3880026e-03
  3.0912362e-02
  1.4038898e-02
  5.4638900e-02
  8.4291203e-03
  1.0768986e-01
 -1.2454381e-03
 -4.4041000e-02
 -1.5009460e-02
 -3.7500061e-02
 -2.7337454e-02
 -6.0840726e-02
 -5.7485765e-03
  2.6921453e-02
 -1.6575715e-02
  1.8126814e-01
 -1.0435615e-02
 -6.6482574e-02
 -5.0375741e-03
 -2.6957860e-02
  1.4921571e-02
 -4.6674002e-02
 -2.3715284e-01
 -4.9107883e-02
 -5.7556848e-03
  7.7959942e-03
 -4.2388900e-03
  2.1570763e-02
  7.8249872e-02
 -3.0199779e-02
 -1.2095248e-01
 -7.4322830e-04
 -1.1229896e-01
 -8.5894996e-04
  3.1017437e+00
 -4.6133522e-02
  5.8932191e-01
 -1.9167084e-02
  9.1959977e-01
 -6.2818885e-02
  3.3122414e-01
 -1.5936288e-01
 -6.8413907e-01
 -3.7276980e-02
  3.1639636e-02
  8.7600313e-03
 -6.0125768e-01
  1.8665703e-03
 -4.7828570e-02
 -1.1686874e-02
 -1.0676006e-02
 -7.8172032e-03
  7.0077303e-04
  2.9702019e-02
  1.2281720e-01
 -1.4824912e-02
  2.5508207e-01
 -3.9152864e-02
 -4.4873945e-02
  2.3890287e-01
 -6.4253217e-01
 -3.3742569e-02
 -3.7472323e-03
 -1.7267071e-02
  3.1383365e-02
  2.9140230e-02
 -2.7376423e-02
 -3.0162591e-01
  3.4627002e-01
  3.9107997e-02
  1.2390973e-01
 -8.5597225e-02
 -1.4245059e-01
 -6.4207628e-02
 -9.0746813e-02
 -2.0567287e-02
  5.3690273e-02
  5.8222219e-02
 -1.4205632e-01
 -2.4853729e-01
  2.7731133e+00
  1.3501372e+00
  2.4821149e-01
 -3.6150572e+00
  6.2266088e-01
 -1.8066258e+00
  2.3859212e+00
  6.2641251e-01
  3.4853544e-02
  8.2922536e-01
 -2.3563704e-02
  1.4272750e-02
 -3.6250618e-01
 -5.3487089e-02
  1.9251570e-02
  3.0854023e-01
  5.3558674e-02
 -4.4280883e-02
 -4.7974002e-02
 -2.1144068e-01
 -1.9461580e-02
  5.0301626e-02
 -5.3714726e-02
 -9.0231083e-02
 -9.2470124e-03
  2.8185682e-02
  2.2165254e-02
  1.4359646e-01
  1.5975639e+00
 -8.0244660e-02
 -8.6636853e-04
  1.1715666e-02
  2.2902507e-02
 -1.5250628e-02
  5.5858546e-01
 -6.2345501e-02
  7.6229997e-02
 -3.2655448e-03
 -6.8103047e-03
  3.7327677e-02
  2.8194636e-02
 -5.6339230e-02
 -2.3819907e-02
 -1.0598653e-01
  5.5096898e-02
 -6.1844800e-02
 -2.1357294e-02
  7.3188372e-02
  3.2800583e-03
 -2.3517033e-02
 -9.3632573e-03
  2.9252345e-02
 -2.1758398e-01
  5.1633220e-02
  8.8044526e-03
 -9.0400301e-02
  1.1132358e+00
  2.7344558e-02
  7.1986936e-02
 -1.1303876e-01
  7.3011434e-03
 -6.6409610e-02
  2.8066289e-01
 -7.4945316e-03
  1.0337771e-01
  9.9294923e-02
  7.5535461e-02
  3.8568918e-02
  3.3335615e-02
  1.1172359e+00
 -1.7964981e-02
  3.1701583e-02
 -3.2651141e-02
  1.4289971e-02
  9.0211004e-02
 -1.1427584e-01
  3.9783880e-02
 -4.0388659e-02
  1.1399623e-01
  1.8610656e-02
 -5.0833568e-02
 -2.0989796e-02
  1.1656167e-01
 -6.9943093e-02
 -4.7922399e-02
  1.4223761e-02
  1.4801792e+00
  4.1443890e-01
 -3.0780587e-01
  9.9507326e-01
  8.5422820e-01
  3.6408064e-01
 -2.3519096e+00
 -3.3111025e-02
 -7.1668738e-01
 -5.3679615e-01
 -3.4908138e-02
  1.5707423e-01
 -2.4273131e+00
  7.5520794e-03
 -2.7016418e-02
  2.1362036e-02
 -7.6008126e-02
 -2.6019424e-02
  2.2891115e-02
  6.2880553e-02
  7.5591609e-02
  4.9198408e-02
  1.0702991e-01
  1.8813610e-01
 -3.2138196e-01
  1.5781251e+00
 -1.5021430e-01
 -7.1280795e-01
  6.4575836e-02
 -6.3975816e+00
 -7.2481126e-01
 -1.8311840e-01
  1.2698020e-01
  2.2685298e-01
 -1.0665838e+00
  2.5566548e-01
  5.8940962e-02
  1.5166678e-02
  4.6992027e-03
 -4.7682237e-04
  1.8862857e-02
 -2.8598437e-02
  7.0588426e-03
  5.4589652e-02
  4.0998259e+00
 -1.1972239e+00
 -1.5108986e+00
  1.9593884e+00
  6.2745404e-01
 -1.1225678e+00
 -3.8301549e+00
  9.2507862e-03
 -1.3096038e+00
 -1.2537768e-01
 -7.3272251e-02
 -1.7453960e-01
  2.4374384e-01
 -4.2412767e-01
 -9.5720049e-03
 -7.9811126e-02
 -2.8582543e-02
 -4.0154144e-02
 -1.7943259e-02
 -1.8839225e-01
 -9.1407120e-02
 -3.6745642e-03
  1.0597210e-01
  2.2543497e-01
  2.2569330e-02
 -8.5416603e-01
  3.6630176e-02
 -3.9172131e-01
  1.0013521e-01
  4.7366384e-02
 -4.2796266e-01
 -8.7744957e-03
 -3.4993812e-02
  7.0335793e-01
  4.9055982e-01
 -8.1940590e-05
 -2.4061050e-02
  2.7509244e-02
  4.0138834e-03
 -8.5893773e-02
 -8.3732483e-04
  1.0113446e-02
  9.3005493e-02
 -8.0703788e-02
  9.7830482e-03
 -1.9857418e-02
  5.4758205e-03
  8.8671530e-03
 -6.9793248e-01
  2.6971629e-01
 -4.9705229e+00
  4.8843723e-02
 -1.1363027e-01
  3.5093885e-04
 -3.1134242e-02
  1.3999182e-01
 -3.8264032e-02
  9.3925610e-02
  5.1205140e-02
  3.9947620e-03
  1.2920220e-01
  4.7709331e-02
  7.8100297e-03
 -9.6423654e-03
  1.7571166e-02
 -8.4114321e-02
 -1.3182399e-02
  8.1952391e-03
  2.2119494e-01
  7.5530380e-02
 -2.8657904e-02
  1.1893958e-01
 -3.8611364e-02
  1.4593537e-02
  1.1877960e-01
 -4.6817817e-02
  7.6378591e-02
 -1.9847649e-01
 -9.7185791e-02
 -6.7779876e-04
  5.4047979e-02
  1.4204223e-01
 -3.4749951e-02
 -5.0592396e-02
  4.2138924e-03
  5.0487522e-02
 -1.0963043e-01
 -1.2869753e-01
 -7.4906719e-01
 -2.7382413e-01
  1.5948042e+00
  4.7387651e-01
  2.1632333e-01
  1.8280156e-01
 -6.7373866e-01
  7.2088701e-01
  8.9113337e-01
  1.4469144e-02
 -7.0189977e-01
  1.5139376e+00
  7.3332858e-01
 -6.3309669e-02
 -2.9775548e-01
 -4.2049147e-02
  3.7160353e-03
  2.8028263e-02
  1.7569911e-01
  6.8393713e-01
  1.2556858e-02
  2.6163470e-02
  8.1000939e-02
 -1.0078034e-01
 -6.2946510e-01
  6.5007031e-01
  4.4981349e-01
  6.5232015e-01
 -1.2942746e+00
 -3.0784380e-01
 -1.4956543e-01
  3.4935355e-02
  2.3989909e+00
 -1.6396966e-02
  6.7769814e-01
  1.0791717e-03
  1.2621713e+00
 -1.6399123e-02
 -2.4262557e-02
  1.8680232e-02
 -3.6629423e-02
 -3.8772542e-02
 -6.3723898e-03
  2.8707662e-01
 -2.3243119e-01
  4.7802038e-02
  1.7807887e-01
 -8.9134872e-03
 -1.3768640e-01
 -6.5016784e-02
 -1.3425760e-01
  4.3362742e-03
  3.9910817e-01
 -1.7599065e-02
 -1.4049910e-01
  9.5869027e-02
 -1.3122025e-01
  1.0884590e-01
  2.9709762e-01
  3.1149298e-02
 -8.4802248e-02
 -6.6591133e-03
  2.0040158e-02
  9.7605921e-02
  3.2079299e-03
  2.9776603e-02
 -1.5462656e-02
 -6.9388613e-02
  7.4948869e-03
  1.9902466e-02
  6.0467494e-01
  5.3577735e-03
 -1.4673368e-02
 -2.5324392e-01
  1.9578559e-02
  7.7621013e-02
 -4.9007952e-02
 -1.9694586e-01
 -1.3988346e-01
  4.3391213e-02
 -9.4938483e-03
  8.7709725e-02
 -8.9534402e-02
  5.1908386e-03
 -1.1189493e-01
 -1.1291578e-01
  2.9166271e-03
  3.1087041e-02
  1.4224025e+00
 -2.5113121e-01
  1.3172072e+00
  2.9345164e+00
 -1.1051542e+00
 -1.6788586e+00
 -1.3630080e+00
  5.0465461e-02
 -1.5117149e-01
  5.0282413e-01
  4.3856874e-02
  1.5833504e-02
 -8.4217858e-01
  3.2696354e-01
 -7.9775095e-02
  1.2958623e+00
 -2.7479732e-03
 -4.0651798e+00
  2.0436229e-02
 -1.0843214e-01
  2.0682603e-02
  4.1567855e-02
  1.7179731e-01
 -3.6178818e-01
 -2.0547380e-01
  1.4206132e+00
  8.5956442e-01
  1.6173275e-02
  2.0664599e-02
 -1.8033719e-01
 -2.5276059e-01
  7.5289682e-02
  1.5953650e-01
 -9.4222739e-02
 -1.1081275e+00
  6.8199724e-02
 -2.9970184e-02
  2.9984886e-02
  4.8161481e-02
 -1.4240769e-01
 -6.8757398e-04
  9.7488391e-04
 -6.5526873e-02
 -7.0435226e-02
 -5.8822900e-01
  1.7650015e+00
  1.3910564e+00
 -3.4097109e+00
 -1.8972518e+00
 -3.6232579e+00
  2.2762592e+00
 -2.5723784e+00
  8.1019700e-01
  3.8021982e-01
 -3.3807389e-02
 -3.8150761e-01
  4.3514562e-01
 -7.2039205e-01
  2.2973967e-01
 -1.1354662e-02
  9.0060271e-03
 -2.8254704e-03
  3.2793400e-01
  6.0440511e-01
  1.8308068e-03
 -3.7917607e-02
 -8.2022641e-03
 -6.0320306e-01
 -2.0769428e-01
 -5.7610691e-02
  2.6729631e+00
 -1.0966231e+00
 -4.9577955e-02
 -2.0451947e-01
 -1.5060163e+00
 -4.8482567e-02
  1.9182054e+00
  4.6294579e-01
  3.1255248e+00
  5.4519991e-03
  9.2539507e-01
  9.1776140e-02
 -1.5270173e-02
  3.9095218e+00
 -4.3047454e-02
  1.2324325e-02
  1.9235143e-02
  9.2442647e-02
  1.9571612e+00
 -1.3876262e-02
  1.7732476e+00
 -1.6070560e+00
  1.3948917e+00
 -1.4587829e+00
 -4.1151521e-01
  1.3533697e-01
  9.2077827e-01
 -7.8188336e-01
 -2.9945126e-02
  7.0612900e-02
  5.7875335e-01
  7.4542426e-03
  1.6516145e-02
  4.2242273e-03
  6.9107185e-03
 -6.9525456e-03
 -1.2219459e-02
  2.5019732e-01
  1.4527310e-01
  3.7230685e-02
 -3.4082305e-02
  3.3597138e-02
 -4.9297538e-02
 -2.9223627e-01
  1.8473150e-01
  1.4788346e-02
 -5.6508582e-02
 -2.4113744e-02
 -3.0180259e-02
  1.4429542e-02
 -1.3203395e-02
  4.8367668e-02
 -5.5487737e-02
 -3.9616287e-02
  3.5284076e-02
 -1.3477146e-03
  2.8276904e-02
  4.8771277e-02
  1.3506691e-01
 -1.0032177e-01
 -4.1659125e-03
  4.8019320e-02
  4.1526803e-03
  7.8949919e-03
 -2.0595428e-02
 -3.2887871e-03
 -6.0090311e-02
 -9.6804257e-03
  1.7455526e-02
 -3.0287978e-04
 -1.9277170e-02
 -6.7087382e-02
 -4.0857233e-03
 -7.3850192e-02
 -8.7366298e-02
  2.9465225e-02
  5.0828200e-02
 -1.6889054e-01
 -2.0569017e-02
  6.9531128e-02
  2.7027134e-02
 -1.0292956e-02
  4.9463999e-02
 -5.6154054e-01
 -9.4174951e-02
 -7.6864034e-02
  2.6109120e-02
  2.4293017e-02
 -1.4697859e-03
  4.6189938e-02
 -1.1329462e-01
  5.1992824e-03
  1.8974146e-02
  1.4709425e-02
 -2.4697857e-02
 -1.1698634e-02
  9.4936918e-03
  1.8996898e-02
  7.4897833e-02
  1.2299003e-01
 -1.0167412e-01
  2.3759194e-04
  1.7752627e-02
  2.6776034e-02
  3.1260189e-02
  1.0496886e-02
 -1.2237530e+00
  1.0839403e+00
 -5.0852472e-01
 -2.8111728e-02
 -3.9689392e-01
 -4.3099858e-02
 -1.7348816e+00
 -1.6035777e+00
 -2.1973716e-02
 -4.6986943e-01
 -5.1227754e-01
 -1.6902582e-01
  5.1655419e-02
  2.7645752e+00
 -1.7419720e-02
  1.9492144e-02
  9.4115603e-01
  5.8841527e-01
  2.2410676e+00
 -6.8961543e-01
 -1.8143348e-02
 -9.7300611e-02
  3.8192928e-01
 -8.8347036e-01
 -7.0250148e-01
  8.6065286e-01
  4.7165174e-02
  1.2929925e-02
 -1.2695340e+00
 -1.1901631e+00
 -5.5646658e-01
 -6.2946647e-01
 -1.5247409e+00
  7.6182288e-01
 -4.1746691e-02
 -1.4553428e-01
 -1.1702493e+00
  3.1662680e-02
  1.3387464e-02
 -1.1623204e+00
 -1.7754071e+00
 -1.8176966e+00
 -2.8815198e-01
 -1.0591792e-01
  3.9214385e-01
 -1.0556488e+00
 -1.5184408e+00
  2.7605641e-01
 -1.8814874e+00
  1.0114753e-02
  4.1473579e-01
 -8.0188245e-01
  2.4862272e-01
 -4.4609115e-02
 -1.3859414e+00
  1.6996045e-01
 -2.9362577e-01
 -8.8071632e-01
 -2.8099522e-01
 -2.0130247e-01
 -4.0054832e-02
 -9.0943378e-01
 -1.3958588e-01
 -1.2515187e+00
 -3.0473375e-01
 -3.9699264e-02
  3.4250614e-01
  1.5181171e+00
  5.2621841e-01
  7.9576033e-01
 -9.0833670e-03
 -2.3744910e+00
 -5.1229799e-01
  7.1240193e-01
 -5.1973140e-01
  1.9761322e+00
  8.2895502e-02
 -5.0967004e-02
  3.8437641e-01
 -3.0812396e-02
 -5.3453472e-02
  5.9314758e-01
  3.7013896e+00
 -2.0537068e-01
  1.1290818e-01
 -8.9501119e-01
 -2.2096932e+00
 -2.0137331e-02
  6.6561234e-01
 -2.4759310e-01
  1.2934879e-02
  1.2268732e+00
 -1.0727296e+00
  8.4003516e-02
  1.3864964e+00
  7.8643972e-01
  1.0196553e+00
  1.2309598e+00
  2.1765298e-01
  1.6330241e-01
  7.6231933e-01
  6.4171875e-01
 -1.1773263e+00
  1.2461150e+00
  8.2564123e-02
  6.4923555e-02
 -3.0631380e-02
 -1.8227963e-01
  3.6210448e-01
 -2.1497594e-01
 -1.4087243e-01
  1.9735654e-01
 -1.4195348e-02
 -3.4396671e-02
 -1.9603486e-01
 -6.9276378e-02
  5.8297738e-02
 -1.4654045e-02
 -3.6371075e-02
  1.0324017e-01
 -1.5415378e-02
  6.7500967e-01
 -1.2762689e-02
 -3.7024582e-03
 -2.3266245e-02
 -3.7037984e-02
 -4.9669531e-01
 -1.4891231e+00
  8.0245785e-02
 -1.8970115e-02
  3.1502359e-02
  2.4150517e-02
 -3.0589083e-02
  1.9683914e-01
  3.3070728e-02
 -1.1124847e-02
 -4.7109369e-03
 -1.1111434e-01
 -1.5741307e+00
 -3.6612403e-02
 -5.8715556e-02
  1.4635445e-01
  5.7397586e-01
  3.2590175e-04
  4.9264380e-01
  3.4794325e-01
 -2.2883344e+00
  5.8988613e-01
  3.9635298e-01
 -3.5678070e-02
 -2.6402092e-01
 -4.5527095e-01
 -5.1590401e-01
 -5.5502611e-01
 -1.8775895e-01
  2.7491716e-01
 -1.0705650e-02
  4.7790903e-01
  4.3018967e-01
  7.5573035e-02
 -4.5781070e-03
 -9.6593410e-02
  1.9983578e+00
  3.7535027e-01
 -1.3153613e-01
 -1.9103670e-01
 -8.3112806e-01
 -1.3816561e+00
 -9.2805582e-01
  1.5372409e-01
  2.2701414e-02
 -1.2143002e-01
  1.1030600e+00
  6.3060260e-01
 -2.9116023e-01
 -1.2903328e+00
 -3.5779785e-02
  2.0611776e-01
  7.1989113e-01
  2.0623865e-02
 -3.8761973e-02
 -7.4028121e-03
 -1.2951336e+00
  4.2628285e-01
  1.1806973e-03
 -7.5405897e-03
  1.0275377e+00
  4.7342930e-02
 -9.2872240e-02
 -1.1277372e-02
  4.6752151e-02
 -4.0513282e+00
  3.8143035e-02
 -1.2282388e-02
 -4.0596485e-02
 -4.6654013e-01
 -1.1907699e-01
  1.4093766e-01
 -3.4208253e-02
  1.1182495e-01
  1.3683866e-01
 -1.0033046e-01
  7.3553291e-03
  2.8795538e-02
  5.5814438e-02
  5.4885142e-02
  1.9710495e-01
  1.4525676e-01
 -1.6052568e-02
  5.4459423e-02
  4.8102334e-02
 -1.0727075e-01
 -5.0403744e-02
 -3.4570400e-02
 -2.2306219e-03
 -1.5697595e-01
 -7.2426036e-02
  1.3137351e-02
 -2.0072304e-02
  9.9835329e-02
  4.8834309e-02
 -3.0106924e-02
 -5.5069178e-02
 -8.0944328e-03
 -6.7534164e-02
  8.1570059e-01
  1.1354714e-01
  2.1916414e-02
 -1.0618380e-01
  1.0240333e-02
  2.4200720e-03
  1.8296195e-02
 -2.2922819e+00
 -1.4562011e+00
  7.7348340e-01
  1.6651291e+00
  1.8603430e+00
  2.2616027e-01
  2.2456957e-01
  5.3316027e-01
  2.1822073e+00
 -5.4481709e-01
  1.4694462e-02
  4.5819518e-01
  2.1958329e-01
 -7.0797604e-01
  1.7908890e+00
  7.1063064e-02
  1.2940036e-01
 -7.1039730e-01
  2.1502934e+00
 -6.7344867e-02
 -9.7835325e-03
 -8.8985240e-01
  3.7544500e-02
  1.1722624e+00
  2.7617601e-01
 -1.9298013e-03
 -2.1670372e+00
 -6.3962066e-01
  2.6949098e+00
  2.7160076e-02
 -2.8701894e+00
  2.0372552e-01
  2.8730556e-02
 -3.0112547e-01
 -9.9023330e-01
  7.3105103e-01
 -1.2166287e-03
  7.3505469e-02
 -1.6052055e-03
  4.8931229e-01
 -6.2905881e-04
  5.1327206e-02
 -1.4067999e+00
 -6.3253725e-01
 -2.4148421e+00
  2.2353289e+00
  2.6277442e+00
  7.4731314e-01
  4.6269739e-01
  7.1908164e-01
  4.5635769e-01
 -6.1994217e-02
  5.8364302e-01
  8.0423439e-03
 -5.6418274e-02
  2.5458878e-02
 -1.0906477e-02
 -1.8166833e-01
  2.7663356e-01
  1.6751219e+00
  5.1924191e-02
  3.7509365e+00
  2.0527798e-01
  2.1051701e-02
  3.0409213e-02
  8.1396742e+00
  1.9469649e-02
 -2.6557061e-01
  5.2444311e-03
 -4.3366211e-03
  2.6360297e+00
 -2.1658893e+00
  3.8302584e+00
  1.6114937e-02
 -8.7831654e-02
  4.5323234e-02
  1.1388347e-01
  1.0739312e-01
 -2.6458089e+00
  1.2631655e+00
  3.1706160e-03
  3.7822083e-02
 -1.5480110e-01
  4.4317499e-02
  6.6622235e-02
 -2.5740694e-02
 -2.2179618e-01
  3.2305047e-02
 -1.4210639e+00
 -9.7915884e-03
 -1.1189218e+00
 -5.3042543e-01
 -1.3345478e-01
 -3.6047012e-01
  1.9190652e+00
  1.8145776e+00
  5.8905613e-01
  6.2805212e-01
 -2.2708154e+00
  7.8161424e-01
 -1.7785077e+00
  2.7903099e+00
  1.9366267e-01
 -6.2819356e-01
 -4.3769312e-01
 -1.5895398e+00
 -2.4910023e+00
 -3.2131493e-01
  1.0775212e+00
 -4.5002618e-01
  9.0334773e-02
  6.5695979e-02
 -2.0431798e+00
 -1.8922317e+00
 -2.0037005e+00
 -1.3377546e-01
 -1.5158564e+00
 -3.6220755e-02
  1.1197491e+00
  1.7248030e+00
  1.4168178e+00
 -1.9698721e+00
  6.2480658e-01
 -2.6660728e+00
 -4.7498569e-02
 -4.2217993e-03
 -1.5648149e+00
  9.9141431e-01
  4.7979854e-02
  2.2939856e-01
  1.1302873e+00
  2.8129930e-02
  5.6327742e-01
 -1.7834762e+00
  1.1476603e+00
 -2.3937540e-01
  1.3423444e+00
  4.0431228e-01
  5.7480288e-01
 -5.0544667e-01
  5.4772413e-01
  6.9084960e-01
  4.5035303e-01
  2.2099297e-01
  2.1892543e-01
  3.3136308e-02
 -1.2304643e-01
  1.1923581e+00
 -6.4325833e-01
 -1.2091363e-02
 -1.2067217e-01
  6.0117535e-02
  3.8978755e-01
  5.6219709e-01
 -3.5234419e-01
 -6.5673605e-02
 -1.9998353e-02
  1.7945316e+00
  5.4376543e-02
 -9.0717775e-01
  2.9667369e-01
 -3.4942321e-02
  9.0845069e-03
  9.2270449e-02
 -8.3862446e-02
 -4.3089972e-03
 -9.3856531e-01
  2.4073066e-01
  1.7080259e-02
  1.2306545e-01
  6.3805774e-02
 -1.1766136e-01
  4.9703900e-02
 -2.4394399e-01
 -5.5314374e-01
  1.2556948e-01
  1.1803309e+00
 -2.2973716e+00
  2.2563534e+00
  9.7436285e-01
 -3.9286497e-01
  2.0406008e+00
  1.2734200e+00
 -1.4329827e-01
 -2.1887503e+00
  1.0340161e+00
 -2.3845117e+00
  5.6284171e-02
 -8.0849551e-02
  2.1300802e+00
  1.4585472e+00
  1.0999475e-01
  5.9384298e-02
 -7.2804660e-01
 -2.1462538e+00
 -4.4772682e-01
 -2.5432125e-01
 -2.6636858e+00
  5.1551503e-03
  5.3699303e-02
 -4.2105172e-02
  7.9801735e-03
 -1.0506539e+00
 -1.5049434e+00
  1.6011887e+00
  1.4876649e+00
  2.6271155e-01
  6.3491285e-02
 -9.9517718e-02
  1.8632347e-02
 -1.8572057e+00
 -4.2357463e-01
 -2.0823915e-02
  6.2307511e-02
 -2.8718641e-01
  1.6633999e-02
 -4.7092184e-02
 -1.4274716e-01
  3.0016472e+00
 -1.3362560e-01
  2.2676636e-01
 -7.0980912e-01
  3.3601966e-02
  2.5318613e+00
  3.6842322e-01
 -6.1543390e-02
  6.5570228e-02
 -2.3892201e-01
  3.6909841e-02
  1.3327120e-02
 -2.6068499e-02
  1.0389958e-01
  4.2519610e-02
 -1.2492987e-02
  2.1501984e-01
  5.9313941e-01
 -9.0338150e-03
 -8.4049225e-02
 -2.6380738e-02
  2.2005668e-02
 -2.5444055e-02
 -1.6419636e+00
  3.3829391e+00
  7.9896055e-02
  8.3564790e-03
  2.4426538e-01
  1.3424373e+00
 -5.2303489e-02
 -3.5940491e-02
  1.2654676e-01
 -1.2236993e-03
  8.7719113e-03
  1.4057517e-03
 -6.8413809e-02
 -1.5210840e-01
 -6.4102441e-02
 -6.9995329e-02
 -6.1745481e-03
 -5.7333494e-03
 -2.3262380e-01
  2.6331609e-02
  1.0659083e+00
 -1.2632996e-02
 -9.1306746e-02
 -4.4176909e-03
  8.7954346e-03
 -2.8814076e-02
 -5.0972540e-02
  1.4800867e-01
 -4.1594088e-02
 -2.1218106e-02
  1.8084532e-02
  3.2293897e-02
  3.7462728e-03
 -5.9129888e-01
 -3.2379162e-02
  3.1525359e-02
  4.9475200e-02
 -4.4677807e-03
  9.6813112e-02
  1.0645092e-02
  3.1013131e-02
  3.9468046e-02
  2.5781204e-03
 -4.7305230e-02
  5.5092055e-02
 -2.1943999e-02
  2.0360751e-02
 -2.4851173e-02
 -3.9224356e-02
 -1.5560629e-02
 -1.4553002e+00
 -1.7401474e-02
  1.3710265e-02
 -1.9156443e-02
 -3.6761794e-02
 -4.4096988e-02
  8.1882272e-03
  4.3065865e-02
 -2.7825054e-02
  3.8520659e-03
 -8.4864935e-03
  9.2158817e-02
 -2.6979607e-01
  7.7224164e-03
 -4.5724862e-04
 -5.0421044e-02
 -3.8151455e-03
 -1.4394219e+00
 -1.4088215e+00
  2.1449625e+00
  4.7888196e-01
  6.6395468e-01
  1.6151087e+00
  2.4157530e-01
  3.3691723e-02
  6.1003876e-01
  1.1337172e-01
 -1.6348116e+00
  8.5798288e-03
 -1.3733789e-01
 -1.3635284e+00
  3.1271404e-01
 -1.6371170e+00
 -2.0611037e-02
 -2.1657996e+00
 -5.4495512e-03
 -5.3729534e-02
  1.1294199e-01
  2.0294435e+00
  2.2051465e-02
 -3.5605943e-01
 -3.1573203e-01
 -2.1236230e-02
 -7.5229144e-01
  4.9072558e-01
  3.2093659e-02
 -7.3282667e-02
 -7.0057654e-01
 -1.8796405e-01
  1.3808269e-03
 -8.9798354e-02
  1.7624277e-01
 -1.1553607e-01
  2.5875296e-02
  4.0222228e-02
 -3.8102264e+00
  3.0710235e-02
  7.4338444e-02
 -1.2873557e-03
 -3.2492852e-01
 -4.6026367e-03
 -6.2534518e+00
  8.0294657e-01
  1.9933345e+00
  2.6773861e-01
 -7.7349144e-01
 -8.1235689e-01
 -3.1475728e+00
  1.1954810e-01
 -6.4315826e-01
 -5.0902855e-01
  4.9750488e-02
 -9.8160371e-02
  5.0292108e-02
  1.5670425e+00
 -7.3811501e-02
 -1.0615370e-01
 -2.6111788e-01
 -1.0430038e+00
 -3.2374859e+00
 -7.6157763e-03
 -8.9208521e-03
  1.9713570e+00
 -5.2738452e-01
  6.5338979e-03
  1.6689189e-01
  9.4381556e-02
 -5.3714734e-01
  1.1430688e+00
 -1.1441420e+00
  1.6098809e-01
  1.8236829e-01
 -3.3808563e-02
 -3.7596652e-01
  5.7361156e-02
  1.6015553e-01
 -8.9459741e-01
  3.8553052e-02
  6.4569317e-02
  3.4601428e-02
  5.9812987e-01
 -2.3008054e-02
  1.1051854e-04
  9.2816335e-01
  1.9206548e-03
 -9.6683331e-02
  1.1349968e+00
  5.0014716e-01
 -6.6256738e-01
  2.9999536e-01
  5.3880578e-01
 -4.0488001e-02
  1.4865804e-01
 -9.0427071e-01
  4.8729245e-02
  1.8684918e-01
  5.5456258e-02
  1.1226922e+00
  9.7957116e-01
  1.9194221e-01
  3.8972929e-02
 -9.4604239e-02
 -9.4659469e-04
 -9.8869449e-01
 -8.5722264e-03
 -6.0528922e-01
  3.0446464e-01
 -2.1499144e-02
  2.4384083e-02
 -8.9232191e-02
 -1.9999053e-02
  8.7029692e-03
  8.9852996e-02
  1.5426934e+00
 -5.0203178e-02
 -7.8172550e-02
  1.1517514e-01
 -5.8719724e-02
 -1.0802779e-01
 -6.9953635e-02
  5.9375115e-02
  4.3030016e-02
  1.9645980e-02
  6.1731879e-03
  5.1475626e-01
  8.8062160e-02
  3.1701595e-02
 -4.7080758e-01
  1.0610221e-01
 -5.1929411e-02
 -6.7928098e-02
 -2.1352121e-03
 -1.1545602e-01
 -4.4916291e-03
 -1.9848267e-02
 -3.6954915e-04
 -2.9713916e-02
 -1.0876184e+00
 -2.4182981e-02
  1.2276616e-01
  8.1357710e-02
  1.8478148e-01
 -3.6208756e-02
 -6.4541012e-02
 -2.7511504e-02
 -2.6786404e+00
 -9.1818365e-04
  1.3944466e-01
  4.1385395e-03
 -2.9230209e-02
 -8.1885734e-04
 -5.9523635e-02
 -2.3640433e-02
  7.4587412e-02
 -8.1200734e-02
 -8.2649082e-02
 -2.7835781e-02
 -1.1348067e-01
  1.5084995e-01
 -2.1873025e-02
  3.4319483e-02
 -4.6122600e-03
 -2.6725927e-02
 -1.0848741e-01
  3.5551127e-02
 -6.7108557e-02
  1.0227413e-01
  9.9898949e-03
 -9.7998351e-01
 -7.0298992e-02
  1.1628199e-01
  2.0182928e-02
  1.0392980e-01
 -4.3501836e-01
  8.7718195e-01
 -3.9250643e+00
  7.6524609e-01
 -5.4852617e-01
  3.9875979e+00
  2.0272117e+00
  3.2972219e+00
 -4.1759238e+00
  7.6351988e-01
 -1.4327240e+00
  1.6408979e+00
  1.1537123e+00
 -9.4942488e-02
  4.8756221e-01
 -2.8747785e+00
 -3.9651420e-02
  9.2839104e-01
 -3.3700216e+00
  9.3047202e-02
 -1.8414619e+00
  1.0675509e+00
 -1.7054701e+00
  2.4742503e+00
  7.9229891e-02
 -2.0132737e+00
 -9.2256820e-01
  1.5863800e+00
 -1.4406626e-02
  6.1302990e-01
 -1.5452315e+00
 -1.9192109e+00
  1.7040769e-02
  1.0390296e-01
  3.3107319e+00
 -7.5946391e-01
  4.6399632e-03
  1.0632474e-01
 -1.2139066e-01
  5.3788048e-01
 -7.3334537e-02
 -7.5632975e-02
  9.7212076e-01
  6.8962257e-03
  1.0434785e-01
 -5.9557218e-02
  1.3656212e-01
  1.1693943e-02
 -4.0290207e-02
  2.3932509e-01
  9.0244208e-03
  2.6212014e-02
 -1.0241624e-02
  7.7759656e-03
 -1.5175025e-02
 -3.9575648e-02
 -1.6734000e-01
  4.9303275e-02
  3.9281052e-02
 -3.6857985e-02
 -6.5904394e-02
  5.7047321e-03
 -5.6465156e-02
  2.4477377e+00
 -2.1605326e-02
  3.4718895e-01
  1.9721700e-01
 -7.9774797e-02
 -6.9432999e-03
 -1.3477935e-02
 -4.8487537e-02
 -1.5718476e-01
 -3.4059711e-02
 -1.2914064e-02
 -2.1199627e-01
 -8.9554124e-02
 -1.4661591e-02
 -2.7130349e-02
 -3.3468794e-02
 -7.4901357e-02
 -4.1057542e-02
 -1.1337985e-02
 -1.2247604e-02
 -5.7825245e-02
 -1.0450306e-01
  1.3576681e-02
 -5.3408366e-02
  5.9284787e-03
  5.5221039e-01
  7.6024318e-01
 -1.0424028e-01
 -5.8746737e-01
  1.3952634e-01
 -8.4267810e-02
  5.2003402e-02
  9.1969043e-01
 -1.5810601e-01
 -3.4296285e-05
 -1.1109323e-01
 -1.2785333e-01
 -2.2614580e-01
  1.7388745e-01
 -3.5464910e-01
 -1.0166188e-02
 -4.8334680e-02
 -2.6433352e-01
  2.8830001e-01
  5.3936161e-02
 -4.0387511e-03
 -1.4432656e+00
  1.5319321e-02
  4.2565148e-02
 -1.4634952e-01
  1.0316359e-02
 -1.8790080e-01
 -3.0502772e-03
 -1.4624941e-01
  2.3271767e-02
 -4.4033650e-01
 -5.1360339e-02
  4.9223248e-02
 -1.2034275e-01
  2.2516619e-01
  4.4341888e-03
  7.5707793e-02
  2.8339649e-02
 -4.1270312e-03
  1.0877134e-01
  1.1270299e-02
 -1.4545047e-01
  1.1771411e+00
 -1.2197003e-02
 -6.8911088e-01
 -6.2182385e-02
 -2.0412428e-02
 -1.6821544e+00
 -4.0564913e-01
  3.4179746e-03
 -5.1569009e-01
 -1.0254783e-02
 -1.0196213e-02
 -5.5351287e-01
 -2.4964600e+00
 -1.9848276e-02
 -1.6171739e-01
 -5.9496950e-02
  5.7620443e-03
  4.3814093e-02
  4.5714777e-02
 -3.4400532e-01
  2.8407477e-02
 -1.4206587e-01
 -2.9776381e-02
  1.8947783e-03
 -8.4208930e-03
  1.2358618e-01
 -2.5199797e-02
  6.5843381e-02
 -4.6120293e-02
  2.9335076e-02
 -1.0143244e-01
 -2.5833329e-02
 -1.1554894e-01
 -4.0665932e-02
 -5.0655920e-03
 -9.2534922e-02
 -1.4620838e-01
 -2.1263147e-02
  3.9132601e-03
 -8.6264294e-01
  1.7866589e-01
 -1.0547026e-01
 -3.4526858e-02
  6.6116296e-02
  2.5521833e-01
  1.1327246e-02
  9.8486018e-01
  4.7208610e-01
  1.9723938e+00
 -3.1884885e-01
  1.0603520e+00
  6.3674742e-01
 -6.1802405e-01
  2.5142090e+00
  3.9665025e-01
 -7.3538952e-02
 -3.7951967e-01
  8.9272696e-01
 -2.3274305e-01
 -2.0274470e+00
 -9.9690932e-01
 -9.8762091e-04
 -2.8209963e-01
 -4.1476946e+00
  7.8620112e-01
  4.1092712e-01
 -9.6290779e-01
 -8.3089942e-01
 -1.6571747e+00
  1.1476369e+00
  1.6549164e+00
 -5.4973590e-01
  1.2981478e+00
 -1.2825571e+00
  9.5770764e-01
 -1.9055786e+00
 -8.8087934e-01
 -2.0958076e-01
 -2.3019686e+00
  2.8336780e+00
  2.1737130e-01
  2.5905521e+00
  8.4076589e-03
  9.9113770e-03
  3.5087585e+00
 -3.6543328e-01
 -3.2841403e-02
 -5.0748270e-02
  2.1402273e-01
  1.0311428e+00
 -4.7090743e-02
 -5.3702440e-02
 -7.9394615e-01
 -1.4703753e+00
 -4.5487184e-02
 -7.1208761e-03
  1.4552706e+00
 -1.6074539e-03
  1.6075633e-02
 -2.5393270e-02
  4.7412645e-02
  1.9843312e-02
 -4.5004673e-02
  1.1690418e-01
  8.6174935e-02
 -3.5038935e-03
 -3.2643404e-02
  1.1020695e-01
  6.8091922e-03
  7.1153790e-02
 -1.7352051e-01
 -2.7254987e-01
  1.2578974e-02
 -1.9645793e-02
  5.2047022e-02
 -2.8218346e+00
  2.1773260e-02
 -1.4675017e-02
  1.0035704e-01
 -1.1710304e-01
 -2.1963680e-02
  3.2862015e-02
 -7.5442851e-02
  5.2562308e-02
  2.3104899e-02
 -1.1542881e+00
 -5.4255216e-03
 -3.7426141e-03
  4.7511473e-02
 -4.7962149e-03
 -1.7251370e-02
 -9.1631390e-02
  2.4692819e-02
 -7.1180686e-02
  1.4631435e+00
  4.8013884e-01
 -2.1107055e-01
  3.2626548e-01
  4.4977991e-03
 -4.9212268e-03
 -2.8557692e-02
  8.1604235e-02
  7.2771572e-02
 -1.8222930e-02
 -4.0856201e-02
  8.0000713e-02
 -4.9518447e-02
 -7.1183369e-02
  6.3654855e-02
 -2.3648199e-02
 -9.1372751e-02
 -4.3113083e-02
 -1.0564844e-01
 -3.2692280e-02
 -1.8653339e-02
  1.0235620e-01
  1.9891853e-02
 -9.6468508e-02
  8.1964247e-02
  9.5261037e-02
 -2.2500042e-02
 -4.6889558e-02
  6.0615454e-02
  6.9133379e-02
 -6.2328108e-02
 -2.5720051e-01
 -8.2690138e-03
 -4.5414265e-02
 -3.5883002e-02
  6.1433744e-01
  1.6465103e-02
 -8.7488759e-03
 -9.8484464e-02
 -3.0081693e-02
 -6.6804551e-02
  2.3536677e-03
 -1.1346453e-01
 -5.6650005e-03
  4.0048584e-01
 -8.7416410e-01
 -1.5245039e+00
  2.9370799e+00
  5.1043832e-01
 -1.0004810e+00
 -5.3048468e+00
 -7.9875425e-02
 -4.7724542e-01
 -1.6668690e+00
 -1.4034395e-01
  5.4164469e-01
 -2.4809875e+00
 -1.8032964e+00
  8.7733525e-01
  8.4683251e-01
 -8.3917528e-01
 -6.6982013e-01
 -2.7973777e-01
 -9.3096817e-01
 -1.3700190e-01
 -2.3573463e+00
 -8.8938254e-01
 -4.9644905e-01
 -1.5723616e+00
 -7.9439896e-01
 -1.8472587e-01
  1.6848093e+00
 -1.4453100e+00
  7.2386764e-02
 -1.0681393e+00
 -4.7004525e-02
 -4.3079619e+00
  4.2931247e+00
  1.8040112e+00
 -2.5690958e+00
  3.3242382e-02
  1.6826366e-01
  9.1082358e-01
 -3.3855472e+00
  2.7687481e-02
  2.1289350e-02
  4.1929290e-01
  1.3147396e+00
 -6.5743313e-03
  1.3754238e-02
 -5.3257847e-01
  5.8789492e-02
  1.4762782e-01
 -1.7078809e-01
 -8.6728558e-03
 -1.1016671e-01
  8.4029324e-02
 -6.7590714e-02
  4.4189784e-01
 -4.3858100e-02
  2.3429027e-02
  8.4183685e-04
  8.1128903e-02
 -1.4849178e-02
  2.5610732e-02
  1.6989283e-02
  1.4965254e+00
 -6.0794633e-02
 -9.5564947e-03
 -7.3560826e-03
 -6.6261210e-02
  1.4533819e-02
 -3.2066856e-02
 -9.6102461e-02
  5.7999142e-02
  2.7502817e-03
  8.6492434e-04
  1.6322134e-03
 -1.8959155e-02
  1.6250379e-02
  6.8401434e-02
 -5.7366155e-02
  6.7386031e-03
 -1.5672792e+00
 -8.6853802e-02
 -6.5054864e-02
  1.0031661e-02
  7.6049723e-02
 -3.0605050e-02
  5.1837344e-02
 -3.9737620e-03
 -2.9484672e-03
  2.0811262e+00
 -1.5776330e-01
  2.1808627e+00
 -2.0770020e+00
 -2.5626669e+00
 -1.0567166e+00
  1.0386055e+00
  5.6233662e-01
  1.3532235e-02
 -2.7417926e-02
  2.8585719e-02
  1.9944808e-02
  1.0465639e+00
  6.0831630e-01
  9.2750140e-02
  8.1544977e-01
  5.2916307e-02
  9.1915555e-02
 -1.6218762e-01
  2.4017212e-01
  9.3828119e-02
 -1.0998139e+00
 -3.6886759e-02
 -7.7303815e-01
 -1.0700381e+00
 -8.3073661e-02
  2.6918599e-01
  1.0895039e+00
  1.8482478e-01
 -7.3229119e-02
 -7.0287837e-03
 -9.9202767e-03
  5.5567641e-02
  1.2254112e-02
  1.0119380e-01
  2.3180125e+00
  4.0492486e-02
 -7.7580796e-03
 -1.4849140e-03
  6.8954363e-02
 -5.2177679e-02
 -3.2952444e-03
 -9.0798151e-01
  8.9327104e-02
 -2.2047115e-03
  4.2942309e-01
  3.2334123e-02
 -2.2985309e-01
 -5.3814311e-02
  2.4947920e-01
 -1.5060978e+00
 -3.0618030e-01
  4.1741687e-01
 -1.3971410e-02
 -3.7301388e-01
  4.1133361e-03
  5.0910968e-01
 -4.3315634e-01
  1.0619217e+00
 -8.1846826e-02
 -4.7340862e-02
 -1.5049882e-01
 -2.8357291e-01
 -2.8938851e-01
 -2.7824834e-01
  3.4736234e-01
 -5.5163566e-02
 -3.2248847e-02
  1.4949900e-01
 -1.2645345e+00
  2.6714194e-01
  5.3033687e-02
  3.1030282e-01
  8.4083393e-02
 -4.2233907e-02
  5.4697561e-01
  8.4811099e-02
  5.7320163e-02
 -4.1537580e-01
 -5.3632730e-01
  9.6682077e-03
  4.0715955e-02
  5.2712256e-01
  1.1540043e+00
 -2.6237048e-02
 -6.4729326e-03
 -7.1033156e-01
  2.7610826e-01
 -2.2017953e+00
 -3.0822568e+00
  3.1460276e+00
  5.3490895e-01
  5.0264543e-01
 -1.4985670e+00
 -3.9535660e-01
  1.5402085e+00
  4.1340041e-01
 -3.1390530e-01
  1.5587153e+00
  1.2332279e-01
  2.1317165e-01
  9.3325830e-01
 -1.5810268e-01
 -5.3779924e-01
 -2.9436668e-02
  9.8498851e-01
  1.4676877e+00
  1.7977805e-01
  1.7038188e+00
  9.0822086e+00
 -2.5007814e-02
 -1.2385849e+00
 -3.1278562e-02
  3.4375403e+00
  7.3738855e-01
  9.4822460e-01
  2.0805445e+00
 -3.7189025e-02
 -9.6764570e-01
  7.9614513e-02
  2.6095552e+00
 -5.9172794e-02
 -3.4753907e+00
  2.0754033e-01
  6.3646939e-03
  1.6609706e-02
 -2.7078947e-02
  1.1517051e-01
  9.7311459e-02
 -8.7953903e-02
 -1.1109047e-01
  1.0108767e-01
 -3.5051748e-02
 -2.0679758e+00
  3.9674860e-01
 -4.9872038e-01
 -1.1839795e+00
 -2.2312667e+00
  2.3272479e+00
  9.1519199e-02
 -1.3714708e+00
  1.9618362e+00
 -6.0696977e-01
  2.0729322e+00
 -2.7563146e-01
 -8.9261323e-01
  3.9059322e-02
 -3.8568604e+00
 -3.1359062e-01
  3.7222850e+00
 -2.9665160e+00
 -1.0704325e+00
 -1.6220927e+00
  1.4511044e+00
  3.4552841e+00
 -1.5598668e-01
  1.7425200e+00
  1.3778200e+00
 -3.8298576e+00
 -7.3245697e-02
  6.8908334e-01
  2.7821028e-01
  2.0378234e+00
 -1.0410063e+00
  2.2627451e+00
 -3.1185899e+00
 -3.3144858e+00
  1.1424117e+00
  1.7341876e-02
 -3.5574034e-02
  1.8303803e+00
  2.4456914e-01
  1.0286098e-02
  7.4020123e-01
 -5.9412283e-01
 -1.0630024e-02
  3.9867866e-01
 -4.4716442e-01
  8.5323089e-01
  5.0813717e-01
 -1.1413814e+00
  1.9666548e+00
  2.6804769e-01
  8.9164622e-02
  2.5132912e-01
 -1.0301483e-01
 -7.0740628e-01
 -3.4308565e-01
 -3.4290782e-01
 -2.9068873e+00
 -1.2363552e+00
 -4.3673772e-02
 -1.7203362e-01
  9.2432916e-01
  6.4514828e-01
  7.0740934e-03
 -1.0375314e-01
 -3.3983965e+00
 -7.8507900e-02
 -6.0431194e-03
 -2.7446989e-03
 -1.0303049e+00
  4.0329880e-01
 -1.0281991e+00
 -3.5700262e+00
 -8.0168709e-02
  5.1046515e-01
 -3.7797935e-02
  1.0330226e-01
  6.6849999e-02
  1.3587414e-02
  1.4623502e-01
 -8.1059718e-01
  1.9053914e-02
 -6.6461974e-01
 -4.9130151e-01
 -5.7408798e-02
  3.1867769e-02
  1.1742309e+00
 -5.4565910e-02
 -8.9210981e-01
 -9.5144129e-01
 -3.4138295e-01
 -1.3095409e-02
 -5.5824894e-01
 -2.6538789e-01
 -3.9500213e-01
  4.5776311e-01
 -8.3270919e-01
  1.8220189e+00
  2.7802366e-01
 -3.2116714e-01
  1.4399203e+00
 -1.5817237e+00
 -7.9020953e-01
 -5.4277796e-01
  1.8546757e+00
 -2.4854736e+00
  7.6989841e-01
  1.4359200e+00
 -2.1547873e+00
 -1.3670944e+00
 -2.4568915e-01
  2.4218151e-01
 -1.3994976e+00
 -8.2392478e-01
  2.0103559e-01
  7.6410127e-01
 -3.2656498e-02
 -2.0150559e+00
  5.3082019e-01
 -5.6964626e+00
 -2.6768990e+00
 -1.8532802e+00
  1.5570068e+00
 -1.5334815e+00
 -2.9136569e+00
  3.3797300e-01
 -3.5943693e-01
  8.4271336e-01
  3.3588746e-01
  1.7976265e+00
  7.5962263e-01
  1.9630332e+00
 -1.2325144e-02
  8.9877242e-01
 -1.3995850e-02
  2.5194345e-02
 -6.0027182e-02
 -1.3355406e-02
  4.1100133e-02
 -3.8463853e-02
 -1.1421994e-01
 -1.9279923e-02
  1.9133545e-01
  8.2051508e-02
  8.5036317e-03
  2.8663577e-04
  4.7687665e-03
 -4.4176579e-03
 -4.2010166e-02
 -3.2957715e-03
 -1.3007100e-01
  1.9053908e-02
  1.5836703e-02
  9.6410317e-03
  5.7662292e-03
 -9.3250498e-02
 -7.4166493e-03
 -1.0496289e-02
 -5.9776209e-02
  2.1058321e-02
  8.4781565e-02
  4.1384664e-03
  4.8304778e-03
  3.7697475e-02
  3.0385671e-02
 -1.6901111e-02
 -5.9722450e-02
  3.0561564e-02
 -4.9139280e-03
  8.8375561e-02
  2.4148595e-02
 -1.5426775e-02
  5.4675125e-02
  5.4359186e-02
  6.3249266e-01
 -9.3351245e-02
 -7.3526561e-02
  7.7955037e-01
 -1.5666029e+00
  1.8134953e+00
  2.7136269e-01
  3.0595939e+00
 -7.5378835e-01
 -1.7578530e+00
  4.1707122e-01
  1.5600264e-01
 -1.6005265e+00
 -4.6888694e-01
 -6.7944877e-02
  1.4919642e-01
 -5.9550518e-01
 -6.4172603e-02
  1.9078825e-01
 -1.2551157e+00
 -2.1430573e+00
  5.7236996e-02
 -5.6381039e-03
 -2.4114242e+00
 -4.6593940e-01
 -8.5262841e-01
 -1.5580134e+00
 -2.5449875e-01
 -3.2382286e+00
  7.0785743e-01
  4.5293275e-01
  1.1595748e-01
 -1.3386442e-01
 -2.0675804e-02
  7.7281885e-02
  1.2268931e-01
  7.5364403e-02
 -3.3133980e-02
  6.4015612e-02
 -1.6882975e-02
  2.9588500e-02
  1.3423537e+00
  8.6590931e-02
 -7.8233421e-02
  3.3516071e+00
  2.8483260e-02
 -1.2286104e-01
 -9.5180217e-03
  1.6572006e-01
  7.2372697e-02
  6.4430088e-02
 -2.8412940e-03
 -1.3394906e-02
 -5.7433765e-02
  5.7667263e-02
 -7.8512147e-02
  3.1699127e-01
 -1.9762507e-02
 -9.8159559e-02
 -1.4063493e-02
  9.7544134e-02
  1.7591795e-02
  2.8289331e-02
  1.5627112e-02
  4.3385482e-01
 -7.2107557e-03
 -8.9977443e-02
  2.2028831e-03
  7.0104180e-03
  4.1240174e-02
  2.4204375e-03
 -9.0716593e-02
  5.5732332e-02
  6.8634883e-02
  2.0313062e-02
  3.1468499e-02
 -2.0516081e-01
  2.6009882e-02
  6.8730697e-02
 -2.8659408e+00
 -1.0923753e-01
 -2.5303852e-02
  2.6635470e+00
  2.2554891e-02
  2.0452654e-01
  1.4654773e+00
 -1.4945534e-01
 -4.9703263e-02
  5.6829747e-02
  2.2363532e-02
 -1.1021958e-01
  1.1280557e+00
 -2.6076937e-01
 -3.1860340e+00
  1.3543557e+00
  4.1025525e-01
  3.0596846e-01
 -4.4203956e-02
  3.6850417e+00
  7.0499462e-01
 -1.4089731e+00
  1.7436403e-01
  1.6807472e-02
 -1.1372784e+00
 -1.4918157e+00
  3.0582413e-01
 -2.6532635e-02
  4.6296297e-03
 -3.5620565e+00
 -5.3292341e-03
  7.5078718e-02
 -3.1478245e+00
 -9.7865742e-01
 -3.3607755e-02
  1.3384676e-03
  8.5788794e-02
  1.1282820e+00
  7.4321136e-02
 -8.2330763e-01
 -2.8170210e-03
 -6.5517105e-02
 -6.9799654e-02
 -4.1790664e-02
 -6.1396664e-01
  7.7764398e-01
  1.1170873e-02
 -5.3045910e-02
 -4.4220563e-02
  1.8684186e-02
  2.1297810e+00
  4.0681366e-02
  6.0833514e-02
 -2.6233998e-01
 -2.4381629e-01
 -4.6254937e-02
  1.8421084e-01
  3.1519972e-02
 -1.0803171e-01
  3.6682356e-02
  3.6683843e-02
 -1.0248914e-01
  5.7674266e-02
 -1.9878873e-03
  1.0238079e-02
 -4.3216873e-02
 -1.2648953e-01
 -1.4211979e-02
 -1.3245097e-02
  2.1128574e-01
  2.6003491e-02
 -7.1999036e-02
  8.1533857e-02
  1.9134792e-02
 -9.1657847e-02
 -5.8232367e-01
 -1.9243639e-02
  7.6659620e-02
 -3.9609160e-02
 -2.7948596e+00
 -8.5113064e-04
 -6.6013455e-02
  4.5484370e-03
  3.3652272e-02
 -1.2601619e-02
 -1.2987964e-01
  4.2116951e-02
  2.3998458e-02
 -2.0972373e-02
  3.9374951e-02
  2.0810507e-01
 -2.6344856e-02
 -8.0088312e-03
  4.8226673e-02
  3.4502845e-02
 -1.4951452e-02
 -4.2551786e-02
 -7.5940467e-02
  2.7750222e-02
 -9.6308291e-01
  5.4023957e-01
 -3.4994040e+00
  1.6021017e+00
  2.2411604e+00
  1.7346269e+00
 -2.3492956e+00
  1.0263332e+00
  1.3250993e+00
 -2.7841768e+00
  7.3046714e-01
  3.5148966e+00
  1.2018281e+00
  7.3209143e-01
  1.3815913e-01
 -1.6714640e+00
 -7.6654196e-01
  1.0567948e+00
  6.7694468e+00
  9.3586081e-01
 -2.8823161e-01
  1.2861177e+00
 -7.2821045e-01
 -1.5680753e+00
 -6.4660716e-01
  2.4053607e+00
 -6.8437654e-01
  1.3048604e+00
  2.3272495e+00
  6.8584698e-01
 -1.6903511e+00
 -6.8925059e-01
  1.6955492e-01
  3.8198265e-01
 -4.6633286e+00
  2.6381183e+00
  3.4374455e-01
 -1.5508477e-01
  4.0761322e-01
 -2.9195219e-01
  3.7519806e-03
 -1.1981990e-01
  2.5035220e-01
  2.3599643e-01
  1.3837811e+00
  2.4384391e+00
 -1.8366946e+00
 -1.2225002e+00
  1.2983798e+00
  2.4068573e+00
 -1.5454553e-01
 -1.3992260e+00
 -2.3354361e+00
 -3.3612046e-01
 -3.6224326e-01
  7.2554350e-01
  4.1911464e+00
 -8.5528916e-01
  1.8267385e+00
  1.7422445e-01
  2.8180171e-02
 -2.5160570e+00
  2.3162270e+00
  2.2347156e-02
 -7.1328841e-02
 -1.8182553e+00
  1.3843456e-01
 -4.0402994e-02
 -3.0338854e-01
  1.7171272e-03
 -1.0372061e+00
  2.7621944e-02
 -2.1367450e+00
  1.1508082e-02
  1.8111559e+00
  1.3481956e-02
  3.0702045e-02
  2.6672323e+00
  5.2244610e-01
  5.0613531e-03
 -2.7179416e-02
 -5.7596099e-02
  2.3286476e+00
 -5.0997984e-01
  5.5911992e-02
 -5.8385376e-02
 -6.1523110e-01
 -1.7110379e-02
  2.1570978e+00
 -1.3562019e-01
  5.7460296e-01
  2.0520795e-04
 -1.7451806e-02
 -3.8718930e-01
 -8.1712449e-01
 -2.0480502e+00
  1.4105333e-01
 -9.2868790e-02
  2.9508259e+00
 -2.0138099e+00
  2.4412761e+00
 -2.4223435e+00
 -1.6147776e+00
  3.2241800e+00
 -2.1566668e-01
  3.6203976e+00
 -3.6249411e-01
 -1.5256429e-01
  6.9996643e-01
 -1.9767946e+00
  9.5148847e-02
 -1.7299930e+00
  1.2554543e+00
  1.1515043e-02
 -1.3556732e-01
 -3.2230639e-01
 -2.7188570e+00
 -2.6619482e-01
  3.3029425e-01
  1.2145903e+00
  9.2817672e-02
  2.9541487e-01
 -2.8203523e+00
 -2.5491750e+00
 -4.3961924e-02
 -3.0805352e-03
 -5.4339588e-01
  9.6761686e-01
 -3.3177333e+00
  1.9300329e-02
 -1.1672256e-02
 -3.4793612e-02
  1.3356802e-01
 -1.3595043e+00
 -9.3109675e-02
  4.3173261e+00
 -1.2736271e-01
  2.5802260e-02
 -1.8743690e+00
 -7.5479668e-01
 -1.1962649e+00
 -1.1400262e-01
 -6.9423979e-03
  4.1605517e-01
  1.5617777e+00
  2.5187433e-02
  1.5370918e-02
  2.4957040e-02
