nep4_zbl_charge2 3 Ba Ti O 
zbl 0.75 1.5
cutoff 6 4 86 26
n_max 8 6
basis_size 8 8
l_max 4 0 0
ANN 40 0
  1.2641901e-05
 -1.4881930e-01
  1.9851071e-04
  5.6777884e-05
  1.1628951e-05
 -2.7121324e-04
 -1.4646332e-04
  1.9039896e-04
 -1.8754396e-04
  9.0620590e-05
 -1.4359824e-02
 -4.3823202e-05
 -2.0379225e-08
  7.8450954e-05
 -2.6179485e-05
 -9.1233589e-05
 -1.9684517e-04
 -1.8796871e-05
 -1.8336706e-05
 -1.0418508e-04
  1.4481649e-03
 -8.2320206e-05
  6.5812659e-05
 -5.2810344e-04
 -3.7020698e-05
 -5.3726486e-05
 -3.4053843e-05
 -1.4788400e-04
  2.7412138e-05
  3.0007041e-05
 -6.1321123e-05
 -7.2089798e-04
 -1.7330762e-04
 -3.0798785e-04
 -1.0207075e-04
 -3.1959958e-04
  1.0102433e-04
 -2.2717325e-06
 -4.4786357e-04
  1.2675739e-05
  4.6841606e-02
  7.1435337e-05
 -2.1788106e-05
 -4.7341004e-05
  3.1653879e-05
  3.3049015e-05
  6.6532289e-06
  2.1894227e-04
 -4.5730496e-05
  5.7407520e-05
 -2.4840256e-04
 -4.9834041e-05
  1.4314789e-04
  6.0446204e-05
 -2.1370276e-04
  7.6606331e-05
  4.7251183e-06
 -2.6318966e-04
  1.0556827e-04
 -2.4662184e-04
  2.1560492e-05
  3.7007729e-05
  8.3362822e-05
  4.2710511e-05
 -8.3589744e-05
 -5.0894469e-05
 -7.1572125e-05
 -7.3447613e-06
  4.9240109e-05
 -2.0603968e-05
  1.8059203e-04
  6.9484381e-06
  6.7508459e-05
  6.4941865e-05
  1.3671558e-05
 -2.3907482e-05
 -7.9782194e-07
  2.6625443e-05
 -2.0750245e-04
  4.3835403e-06
  1.2479645e-02
  3.2084965e-05
  1.3213075e-04
 -1.2228468e-04
 -1.6052235e-04
  3.0974563e-06
  9.0630761e-05
  2.8327027e-05
 -8.4607542e-05
 -8.7022388e-05
  1.3198436e-04
  2.4563862e-05
 -4.1848787e-05
 -5.5697583e-06
 -2.6298356e-05
 -4.7299123e-05
  3.0267223e-05
  8.5484549e-05
  4.7720117e-05
 -2.2254537e-05
  7.4278279e-05
 -2.3931051e-03
 -3.5702553e-05
 -1.0740603e-04
 -1.0811718e-04
  1.0073676e-04
  2.4011484e-04
  2.3561281e-05
  4.0886982e-05
  2.3224909e-04
  3.0530960e-04
  5.0903764e-02
 -2.9463193e-01
  3.5078447e-02
  9.2924871e-02
 -4.8931342e-01
 -6.5988931e-03
 -1.4045653e-03
  1.0649595e+00
  1.3471308e-01
 -3.6901337e-04
  2.9247679e-04
  6.4903448e-05
 -2.5010901e-04
  9.1784826e-04
 -4.7774527e-05
  5.4456355e-05
  1.9710995e-05
  1.6407663e-04
 -1.3525558e-05
 -8.3030236e-06
  9.0468158e-05
 -4.8808628e-04
  5.0734110e-05
 -2.1427643e-04
  1.3328267e-04
  5.8806727e-05
  1.7638404e-04
  4.9210616e-05
 -2.0153928e-04
 -2.7746660e-06
 -1.1652159e-04
  1.3291687e-04
  1.9987294e-04
 -3.5714125e-05
  4.2520356e-04
  1.7086974e-04
  5.8135345e-05
 -9.6981537e-01
  1.7944430e+00
 -4.7096446e-02
 -1.2592206e+00
  9.1250330e-01
 -1.2872876e-01
  1.2620787e-04
  1.9787495e-01
  1.4521352e+00
  6.4014290e-03
 -4.8669230e-02
  5.1550061e-04
  5.0079994e-05
 -4.7955131e-05
  9.3436474e-06
 -2.1596938e-05
  9.5499150e-02
  1.3299131e-02
  3.5026973e-05
 -1.3228616e-05
 -4.9870595e-04
  4.4098462e-05
  7.2575240e-05
  3.4970853e-01
  1.6980076e-01
 -3.1044657e-04
 -7.3288620e-04
  3.2630481e-04
 -1.4402120e-06
 -3.3393357e-05
  2.2656384e-01
  2.6921389e-01
 -5.9981372e-05
  1.0748596e-05
 -3.7777194e-04
  6.6803601e-05
 -1.0012004e-05
 -1.2613396e-01
  7.5252744e-04
 -2.7884834e-04
 -4.1868949e-05
 -1.8520230e-04
 -2.7046075e-05
  6.7680267e-05
  1.4000507e-04
 -3.2747697e-04
  9.0578811e-05
  3.1067879e-04
  7.6947414e-05
  5.6594377e-05
 -1.9909264e-04
  1.6812573e-04
 -8.1526079e-05
  6.4318236e-05
 -9.3106697e-05
  1.0208102e-05
 -2.0272369e-04
  1.8860565e-05
 -7.3961113e-05
  8.5743115e-05
  4.4218963e-05
 -3.5007452e-04
 -1.6480272e-04
 -9.3944815e-05
 -3.3893724e-05
  3.7677051e-05
 -9.7262193e-05
  8.7601387e-05
  3.8967246e-05
 -5.2218215e-04
 -6.8708898e-05
  3.8139158e-05
 -1.4235491e-04
  6.0646245e-05
 -1.4262757e-01
  1.7142366e-04
  3.7757323e-05
  2.8295348e-05
 -1.5545455e-04
 -3.1093191e-04
 -4.4854623e-05
 -4.9918130e-05
  1.2088446e-04
 -5.6851084e-05
  1.6285143e-04
 -3.3970905e-04
  1.2832630e-04
 -6.4739113e-05
  1.7008891e-04
  3.3790519e-04
 -1.6076204e-04
 -4.5438983e-06
 -6.7894965e-05
 -2.3878143e-05
  1.4342832e-04
 -1.7514625e-05
 -3.0358793e-05
  1.3533202e-06
 -6.3507789e-05
  5.5056134e-05
 -2.2114125e-04
 -3.0869542e-05
  1.1536983e-04
  1.4792284e-04
 -5.1211260e-05
  8.9086334e-06
 -1.0053925e-04
 -1.7798555e-04
 -3.4276146e-04
 -2.7459118e-04
  2.5251106e-04
 -1.9511387e-02
  2.3512512e-04
  1.2711553e-04
  3.9394250e-05
  3.5568639e-05
 -5.2003379e-06
  3.1904950e-05
 -1.0117400e-04
  1.1936562e-04
  9.4474803e-05
  1.2682886e-04
 -1.4036134e-04
  7.3241499e-05
  2.6835358e-05
 -6.4073967e-05
 -1.4475599e-04
 -7.7784516e-06
 -4.6797677e-06
 -9.1578683e-04
 -7.4212861e-05
  1.0055198e-05
  2.1221372e-04
  2.4465849e-05
  5.3576976e-05
  9.7856770e-05
  3.5758545e-05
  1.3494046e-04
 -5.9702226e-05
  6.0668885e-05
  2.5984771e-05
  9.5180309e-05
  6.3737076e-05
 -2.9669616e-06
  3.7579297e-04
  9.0620044e-05
 -2.9542713e-05
 -5.1564984e-05
  1.2213115e-01
  2.8625625e-01
 -7.9230536e-03
 -3.4119505e-01
 -9.2897512e-02
  7.0149735e-02
  3.2480710e-04
  7.3692980e-05
 -1.5111845e-03
 -1.0992864e-04
  2.2503948e-04
 -4.9690274e-04
  2.7317922e-06
 -3.1771106e-03
 -2.9804210e-05
 -6.0281956e-05
  5.3870928e-04
  8.5172498e-05
 -7.4549721e-06
 -2.5182611e-05
  7.2765870e-05
 -8.4260362e-04
 -1.3278160e-04
  1.3239847e-05
  4.2978903e-05
 -1.4072805e-04
  2.6354325e-04
 -3.0358799e-04
 -1.6635633e-04
 -4.0799536e-05
 -1.0656583e-04
  7.9273181e-05
  3.0456678e-04
 -4.4133572e-05
  1.7482006e-04
 -5.6439992e-05
  6.0009093e-05
 -7.5016709e-05
  7.3832613e-05
  4.9118150e-04
  7.3147507e-06
  7.7042365e-05
 -1.4039702e-04
 -7.8586891e-06
 -5.2357615e-07
 -4.5909171e-04
 -3.2659809e-05
  7.4076575e-05
  5.3964559e-05
 -1.6290697e-04
  2.9341156e-05
 -1.3817538e-04
 -2.3918259e-05
 -4.7627265e-05
  5.8556037e-05
 -7.6559096e-05
  5.5609853e-04
 -3.5132711e-05
 -1.0978057e-04
  1.9759384e-04
  3.1311577e-04
  1.0435377e-05
 -1.0269328e-06
  1.4265963e-04
 -8.2309488e-03
 -1.6890271e-04
  1.0863810e-04
 -8.2176521e-05
 -4.7857513e-05
 -8.3972031e-05
  6.1979532e-05
 -1.6176858e-04
 -4.8961625e-05
 -4.8377597e-06
 -1.0938884e-01
 -4.5356938e-01
 -2.2953784e-01
  2.7765129e-03
  6.1614970e-05
 -6.2816359e-02
 -3.6402846e-05
 -1.5483991e+00
 -1.6043577e-02
 -1.1713901e-04
 -3.6147133e-02
  1.5142429e-04
 -1.1285202e-04
 -7.3231742e-05
 -1.2856211e-04
  7.2617418e-05
  7.0135982e-04
  1.2730595e-04
 -6.8297661e-05
  1.1684878e-05
  6.9879030e-04
  1.6490631e-04
  1.2304263e-04
  2.6467836e-01
  3.6481727e-02
  1.0848307e-05
  1.1049007e-04
 -4.4541357e-05
  1.5669967e-04
  2.5684008e-04
  9.4766319e-03
  2.5826535e-01
  1.4477689e-05
  9.0002555e-05
 -2.5865202e-05
 -6.1422586e-04
 -9.1685733e-06
  1.4125633e+00
 -4.8437278e-04
 -1.2350803e-04
 -1.3309120e-01
  9.7501297e-06
  8.4248939e-05
 -8.9530922e-06
  1.6136852e-05
 -2.8889126e-04
 -2.1590306e-01
 -7.6031405e-03
 -1.8824631e-04
 -1.5416332e-05
  8.6744483e-05
  5.5731631e-05
  8.5999520e-05
 -5.0509432e-05
 -2.7847270e-04
  1.0227639e-03
 -5.8536007e-05
 -2.0996087e-04
 -8.7317785e-05
 -4.6226464e-04
  1.1356320e-04
  2.4219454e-04
 -5.0126015e-05
  5.2124277e-02
 -2.0681603e-06
 -9.2990522e-06
  1.0046421e-04
 -1.0927395e-06
 -1.7576618e-04
 -1.3258759e-04
  1.2813203e-04
 -7.2821946e-04
  3.1115760e-05
  7.4434560e-05
  1.3935477e+00
  1.2635269e+00
 -1.4350083e-04
  2.5704762e-01
 -4.1207045e-01
 -7.3399729e-01
 -1.6395825e-04
  8.1319743e-01
  1.8174928e-02
 -1.7690890e-04
  1.3079264e-04
  1.2431869e-04
  3.2652279e-05
  2.1926164e-04
  2.4836687e-05
  9.4392753e-06
 -1.6614998e-04
 -1.5014439e-04
  1.1393595e-05
 -2.1914218e-04
  1.8244314e-04
 -3.9280854e-05
  1.4087453e-04
 -3.3629865e-05
  5.5240042e-04
 -6.6289322e-05
  2.8790197e-05
  2.1998836e-05
  8.6850836e-05
  6.4462984e-05
 -1.9499379e-04
 -3.8733677e-05
  1.2383373e-04
 -5.1117098e-05
 -3.0894480e-05
 -1.1275161e-04
  1.4969567e-04
  1.4921697e+00
 -5.5170184e-01
  1.5120067e-04
 -1.6194596e+00
 -3.8046920e-04
  3.5466958e-02
  7.4729680e-05
  1.7504996e-01
 -1.1901426e-04
 -4.6171363e-06
 -1.2593727e-05
 -1.7417989e-04
  6.1569804e-06
 -1.3646610e-04
  2.6597516e-04
  8.9266548e-05
  2.5716732e-05
 -1.8083415e-04
 -9.7057462e-05
 -2.3820857e-04
  2.8089331e-05
  4.5659915e-05
  1.6376669e-04
  6.3168976e-05
  3.9972011e-02
  1.0522068e-05
  6.3313026e-04
 -7.2338289e-01
 -6.1047444e-04
  6.1868457e-05
  3.7409020e-05
 -6.4636243e-04
 -7.4446303e-05
  2.0883475e-05
 -1.9665930e-04
 -8.1197577e-05
 -3.7358128e-05
 -1.7157188e-02
  3.2474152e-05
 -1.6838360e-04
 -5.6293411e-05
  5.9550639e-05
 -1.5852414e-04
 -9.3190385e-05
 -1.1144723e-04
 -5.9061793e-05
  5.3345342e-05
 -1.8597378e-06
  1.1334023e-05
 -9.0444656e-03
  5.2878007e-05
 -1.4143498e-05
  3.7645476e-04
 -4.6542662e-04
  7.8592006e-05
  2.6571372e-05
  1.2976369e-04
  2.3922196e-04
  8.8291396e-05
  9.3970833e-05
 -2.5498095e-05
  2.0318006e-03
  1.3353632e-04
  1.7971749e-04
  1.4841776e-04
 -5.9116184e-05
  9.2213624e-05
  2.0499585e-05
 -2.1413619e-04
  3.5607073e-04
 -2.8941661e-04
  1.2338370e-04
 -1.1118296e-04
  7.5166878e-05
  5.7056117e-01
 -7.0466273e-02
 -9.6718889e-01
  7.8684896e-01
 -7.1490031e-01
  7.7861798e-01
 -6.5093887e-01
  2.6571332e-02
  9.4039477e-02
 -1.8321125e-01
  2.4106300e-02
  2.8324325e-04
 -1.2806867e-04
  4.9425457e-02
  7.5777316e-06
  1.2397992e-05
 -1.7910618e-01
 -3.3334437e-01
 -9.9630874e-05
 -3.4151791e-04
  1.6964319e-04
 -1.1461003e-04
 -2.2103274e-04
 -5.8362299e-01
 -2.1208212e-01
 -1.9377095e-04
  7.2840565e-05
 -2.9194489e-04
 -1.1377816e-04
 -2.2970329e-05
 -3.1640196e-01
 -3.1770116e-01
  2.9288392e-04
 -7.6584118e-05
  2.0658928e-03
  1.5676496e-04
 -1.9453098e-04
  5.7963133e-01
 -1.8953940e-01
 -3.4930028e-02
  7.4566429e-04
 -6.3539255e-01
  2.5797416e-02
 -2.8061965e-03
 -3.5898037e-02
  2.3164809e-01
 -1.7146638e-01
  3.1144826e-02
 -7.1768642e-05
 -3.0747411e-05
  6.8771653e-02
  1.4341901e-04
  8.3882042e-05
 -1.7490105e-01
 -7.3104963e-04
  3.6320399e-04
 -1.4772979e-04
  1.0536923e-01
  2.4648625e-04
  9.0873691e-05
 -2.2447152e-01
 -1.3364118e-01
 -8.8800516e-05
 -3.8938259e-05
 -3.9057053e-05
 -1.5103933e-04
 -6.3904264e-04
 -1.5592913e-01
 -4.7495257e-02
 -9.9060097e-05
  2.0106469e-05
  5.5117521e-02
  1.8805428e-04
 -1.3038934e-04
  1.7693439e-04
  1.2772070e-04
  1.8178717e-04
 -1.5124831e-04
  1.7699026e-04
 -1.7514537e-04
  2.8778879e-05
 -6.9481292e-05
 -1.5599826e-05
  7.4053860e-05
 -6.5181777e-04
  7.4405621e-06
 -9.2703456e-05
  3.8569811e-05
 -4.5695564e-05
 -2.8200861e-04
  6.0157075e-05
 -5.8858815e-05
  7.4316922e-05
 -6.8018489e-05
  2.0540509e-04
  1.3395778e-05
  6.6944769e-05
 -3.4588433e-05
  1.3414682e-05
 -2.4145302e-04
  1.7991324e-05
  2.0094555e-04
 -7.9524580e-06
 -1.5736032e-04
 -1.7792416e-04
 -1.1507974e-04
  1.0138859e-01
 -3.1308104e-05
  1.3223967e-04
 -1.1285162e-04
  2.3888097e-05
 -4.3191373e-01
 -1.4415065e-04
 -9.1680959e-05
 -4.5275170e-04
  1.2109861e-05
  2.2770466e-04
  4.8444867e-03
  6.1112881e-04
 -1.4320116e-03
  5.6946516e-04
 -1.5547396e-04
 -2.1392890e-04
  5.0544724e-05
 -8.2801664e-05
  2.4179128e-05
 -4.5973407e-05
  1.7306907e-04
  9.9295910e-05
  6.7933393e-06
  1.5677001e-04
 -2.0413409e-04
  6.9738155e-05
 -3.0252640e-04
  3.9123773e-04
 -2.8215378e-04
 -2.0408185e-04
 -4.6160104e-04
  1.9047331e-05
 -6.6039242e-06
 -8.5722131e-04
  7.5866148e-05
 -1.8481087e-04
  7.6727832e-05
  8.0914404e-05
  5.3943626e-05
  1.1167350e-05
  1.1512683e-06
 -1.1861904e-01
 -2.4615712e-01
 -5.4193701e-04
 -4.1027746e-05
  4.6492819e-04
 -3.0664125e-04
  1.1701206e-03
  1.1827264e-03
 -4.4997465e-05
  2.1841768e-04
 -4.5299003e-05
  1.1813230e-05
  1.1896151e-04
 -1.2319171e-03
  6.0857179e-05
 -2.4340877e-04
  3.1529943e-04
  1.7557189e-05
 -4.8481772e-05
  2.0750472e-04
  6.2768704e-05
  1.2330675e-04
 -1.3154513e-03
  4.3688447e-04
 -2.0357179e-04
  8.7311841e-05
 -9.8109216e-05
 -9.0864996e-05
  3.3402805e-05
 -6.0860926e-05
 -4.5798581e-05
 -5.7205292e-05
  1.4966489e-04
 -5.8837046e-05
 -1.5888012e-04
  2.7192547e-04
 -1.4012234e-05
  1.7953575e+00
  5.8575076e-01
  6.9893763e-04
 -5.5861837e-01
  9.3103543e-02
  4.6651652e-01
 -1.8223485e-02
 -1.3595341e+00
 -1.9741981e-04
  1.9567666e-05
  1.1840334e-01
 -1.7866541e-05
 -4.2576947e-05
  2.6540391e-04
  7.5178832e-05
  6.0472020e-04
 -5.5013879e-05
  4.3702077e-02
 -1.6632049e-04
  3.0789455e-02
  4.3561704e-05
  1.7748405e-05
  1.0193784e-04
 -9.2727605e-05
  5.1508620e-02
  5.1741528e-05
 -1.1327583e-04
  2.2228395e-04
 -1.2640568e-05
 -1.0036963e-04
 -3.9649327e-04
 -9.1217400e-05
  1.4317644e-04
  2.2994496e-04
  9.4372808e-05
  1.0763726e-04
  1.4093412e-05
  3.6842638e-04
  3.3829758e-05
  1.3588477e-04
 -6.4893495e-05
 -1.4825372e-01
  1.1572453e+00
  1.4248071e-04
 -1.3884330e-04
  5.9141516e-05
 -1.3419750e-06
  1.9797285e-04
  8.3888022e-05
 -6.5814471e-05
  3.7286407e-04
  2.3668006e-05
  6.1787830e-08
  5.6770932e-05
 -1.6546059e-04
 -3.2584765e-04
 -8.8997760e-05
 -1.6783324e-05
 -1.2100669e-05
 -6.1235070e-05
  2.1137648e-04
  2.0466523e-05
 -3.1140228e-04
 -6.4288055e-05
  2.4619151e-04
 -4.1369138e-05
  3.1086634e-05
  3.0172046e-04
 -5.6258363e-05
 -6.2105275e-05
 -2.0046663e-04
  8.4682542e-05
  4.8601476e-04
 -4.5703673e-05
  1.2044708e-04
  5.1336315e-06
  1.1437865e-01
 -3.4791483e-05
  1.6757408e-01
  6.7228313e-05
 -1.5252623e-04
  2.6379165e-01
  3.1822358e-06
  1.4196978e-04
 -5.3201284e-04
 -1.9205316e-04
  1.4088761e-04
  3.8572492e-05
  1.6457589e-04
 -9.7547090e-05
  3.8005254e-04
 -5.9174723e-05
  1.9538602e-05
  9.6106676e-05
  1.8179050e-04
  2.6037850e-04
  2.4452142e-04
  1.8829664e-05
  9.7871653e-06
  2.1058915e-05
  5.0631852e-06
 -2.3645951e-05
 -2.1982611e-05
 -7.1175426e-05
  1.2319228e-04
  1.2922481e-05
  4.0324577e-04
 -1.7233461e-04
 -6.9973132e-05
  2.2519664e-05
  3.1564428e-05
  5.1354313e-01
  1.1215859e-04
 -5.8032446e-02
 -2.8303093e-01
  2.7386907e-01
 -9.0908796e-01
  4.9534333e-01
  2.8398288e-05
  1.5749224e-01
  2.1454117e-03
 -7.3509273e-04
 -2.0582720e-05
  2.0664035e-04
 -1.1048280e-05
  2.7879038e-05
  2.8230061e-04
  3.5385642e-04
  5.8200094e-08
  8.7705070e-05
  4.0405107e-04
  1.1488898e-04
  1.4465601e-04
  2.6120886e-04
  8.6956599e-04
 -4.6918762e-05
  4.6039826e-05
 -8.1301863e-05
  1.3251088e-04
 -4.2648612e-06
  4.6864301e-05
 -6.4788715e-06
 -8.5920590e-05
 -5.8266810e-06
 -1.7151180e-04
 -1.0922255e-04
  2.8972620e-06
  2.5002637e-05
  9.7992532e-02
 -9.5392816e-02
  9.8303545e-01
 -8.0700606e-01
 -1.1641059e+00
  1.0090514e-01
 -7.2927970e-01
  1.1566536e+00
 -9.9384367e-01
 -3.3536458e-01
  1.4191870e-01
  7.2447423e-05
 -4.7785798e-06
 -4.1021174e-03
 -1.0671964e-05
 -1.7237429e-04
 -2.9448023e-01
 -4.6524650e-01
  3.1097553e-04
 -1.5319911e-05
 -9.6227406e-05
  2.8800155e-04
 -9.9670113e-05
 -1.1584494e-01
 -8.0429971e-02
 -2.9532143e-06
 -7.6564017e-04
 -8.7404734e-04
 -2.0386583e-06
  2.0395819e-04
 -5.9735650e-01
 -1.4764725e-01
 -7.0198359e-05
  6.2692029e-06
  1.9144887e-01
  2.3341250e-05
  1.4456797e-04
  1.3575733e-01
 -1.7292953e-01
  4.5542657e-02
 -5.5290751e-02
  5.2988555e-02
  3.0734325e-02
  2.5783938e-01
  6.5048325e-01
  4.9564965e-06
  4.3037874e-01
 -8.0107093e-02
 -6.7958295e-05
 -7.0814451e-05
 -2.3297291e-02
  7.6082652e-05
  9.4486917e-05
  3.8760999e-01
  1.4715227e-02
  1.3735154e-05
  4.3003872e-04
 -6.2985171e-05
  1.4693521e-04
 -1.3330270e-04
  1.9710231e-01
  1.6369577e-02
  1.4895255e-05
  9.6641117e-05
  1.1781821e-05
 -3.2800107e-04
  4.0468189e-05
  1.2846226e-01
  9.5496699e-02
  1.2323569e-04
 -1.9079733e-05
 -2.5376016e-01
  7.2957475e-05
  8.3285013e-05
  1.8661918e-02
 -2.3756021e-04
  2.4118053e-05
 -1.9749616e-04
  3.9444090e-05
  1.0684173e-04
  2.7890088e-05
 -4.6854612e-01
 -1.7114263e-04
  6.2137849e-05
 -3.3938799e-03
 -3.4432578e-05
 -4.3382652e-06
 -5.9916213e-04
 -6.4529107e-05
 -5.5644223e-06
 -9.5130908e-06
  1.3468727e-05
 -1.9633576e-04
 -1.1586394e-04
 -2.5283478e-04
  4.5845358e-05
 -1.3749261e-04
 -9.2504888e-05
 -2.2934877e-05
 -4.8619822e-05
  1.0570870e-04
  1.8207922e-04
  2.2967606e-05
  1.7662309e-04
  5.6396122e-05
  5.9973965e-05
 -7.4785741e-05
  1.2502818e-04
 -4.9493375e-04
  1.6508604e-05
  2.2584760e-05
 -1.2949685e+00
  1.9133272e+00
 -1.7311591e+00
  5.2502882e-01
  2.1372826e-01
  7.9874897e-01
  4.1740615e-02
  7.9401815e-01
 -1.8803327e-01
  6.4674562e-01
  6.5626139e-03
  4.6616775e-04
  5.5552537e-05
 -1.2063317e-01
 -2.3495681e-05
  6.2599647e-05
  5.8390474e-01
  6.7430519e-04
 -5.6773097e-05
  1.3970505e-04
 -1.7797943e-03
 -2.6399643e-05
 -1.1629997e-05
  5.7700336e-01
 -5.7715273e-01
  5.4350192e-05
  3.5491747e-05
  5.0076840e-05
  3.6392550e-04
 -1.2515015e-04
  4.5276543e-01
  6.2132064e-02
 -6.0398706e-05
  1.2264402e-04
 -2.6292941e-01
  1.7244741e-04
  7.7954872e-05
  1.5885310e+00
 -5.7399418e-02
 -2.3717408e-04
 -2.2273895e-01
  5.6968950e-02
  1.0751984e-01
  3.8931298e-04
  1.1432728e-01
 -1.4784515e-03
 -3.3499764e-05
 -3.5285521e-02
 -1.5262238e-04
  3.0194324e-05
 -2.6637318e-03
 -2.4778629e-04
 -2.9261826e-06
  1.3920733e-04
 -6.4091727e-02
  5.9280523e-05
 -5.9473376e-05
 -3.7229187e-05
 -4.1484498e-04
  6.6455730e-05
  9.8767829e-05
 -1.5430312e-01
  6.1631341e-05
 -4.2479496e-06
 -2.8134379e-04
  5.9270602e-05
  1.2854349e-05
 -8.1182639e-05
  6.1433268e-05
 -1.3121759e-04
  2.1454701e-04
 -2.7036003e-05
 -1.5094850e-04
  3.1631539e-06
 -5.0552964e-05
 -3.0416054e-01
  5.9007445e-05
 -3.1088159e-05
 -1.2834242e-04
  3.5030284e-04
  2.4230769e-04
  1.2130399e-04
 -1.1175739e-04
  1.4930815e-04
 -6.6827502e-05
 -1.7262781e-04
 -7.3676507e-05
 -2.2688051e-04
 -7.6582313e-05
 -8.2583545e-05
  3.3061584e-05
 -8.6426538e-05
  2.2391650e-05
  5.4763979e-05
  4.9570908e-06
 -2.3602320e-04
 -2.8332392e-05
 -1.6695877e-04
 -6.0895062e-04
  4.7666070e-04
 -2.1432759e-04
 -2.9905084e-05
 -1.7498255e-04
  3.4507955e-04
 -1.0430392e-04
 -3.9543860e-04
 -2.0896624e-04
 -1.0400863e-05
  2.8489661e-05
  2.1559962e-04
  3.5524092e-04
  3.0251712e-04
  1.7319604e-05
  2.5989633e-04
  7.2387644e-05
  9.0454079e-05
 -4.9284055e-05
  7.8900615e-05
 -3.5977569e-05
 -3.7864654e-04
  3.1516896e-04
 -1.9803343e-04
  1.5684699e-04
  6.3978945e-04
  2.7177610e-05
  2.6893867e-05
 -1.7479164e-05
  4.1517592e-06
 -2.4182254e-05
  6.0027749e-05
 -2.1688140e-06
  1.6905008e-04
  9.8302102e-05
  4.2149382e-05
 -6.7661262e-05
 -1.0370638e-04
  1.8076279e-04
  1.8789615e-06
 -1.2752572e-04
 -3.7140224e-05
 -7.0936636e-05
  7.9405254e-05
  5.3918950e-05
 -6.5026572e-05
 -5.3464100e-05
 -7.2289200e-05
 -1.1512290e-05
 -2.8059156e-05
 -1.3962553e-01
 -2.9619259e-04
  2.2094841e-04
 -1.0985410e-04
  3.5224164e-01
  1.8244502e-05
  9.3051903e-02
  3.7759324e-05
 -2.4860086e-02
 -1.9863757e-05
 -2.3189673e-04
  5.6574121e-05
  2.4236280e-04
 -5.2889017e-04
 -1.4198269e-04
  1.9594014e-05
 -4.6357908e-04
 -1.0980612e-04
  1.6541798e-04
 -1.1172846e-04
 -3.1700756e-06
  5.4943512e-06
  3.7349531e-05
  9.4963376e-05
 -6.0352863e-06
 -6.7116656e-05
 -5.8102788e-04
  5.1164399e-05
 -2.1302034e-05
 -2.7640868e-04
  4.7029611e-05
 -2.3179328e-04
  8.8884890e-06
 -3.0288540e-05
 -3.2829944e-04
 -7.6027936e-05
  9.2825365e-05
 -3.9817759e-01
 -7.9160142e-01
 -5.7004422e-01
 -1.7627342e+00
 -8.0398507e-02
 -1.5725086e+00
  1.4112253e+00
  2.5474197e-01
  3.5651109e-01
  4.7378719e-01
 -5.7560694e-01
  6.4095657e-05
  2.0535533e-04
 -4.4842228e-01
  1.0128635e-04
 -1.9992403e-04
  3.2065749e-01
 -1.3828480e-05
 -4.5465218e-05
 -1.2710811e-04
 -1.6897180e-03
  4.7250788e-04
 -1.7883614e-04
  4.3069342e-01
  4.0372893e-01
 -1.5926878e-05
  8.3376246e-05
 -7.2305833e-05
 -5.0440729e-05
 -1.5068756e-04
  2.9062927e-01
  5.0987899e-01
  7.7267934e-05
  2.3049125e-04
 -1.7000951e-01
 -1.4807242e-04
  5.2394738e-05
 -6.2347627e-01
  5.1056147e-01
  3.1544763e-01
 -7.5459450e-01
  1.2965364e+00
  2.4197507e+00
 -2.5498548e-01
 -3.2811999e-01
 -2.6009479e-01
 -2.4859354e-02
 -2.8785223e-01
  2.6771730e-05
 -7.7599161e-06
 -2.0214516e-01
 -6.4539949e-05
 -2.2646522e-05
 -8.6680317e-04
 -2.2083814e-01
  1.4918223e-04
  1.9518557e-05
  2.1121649e-04
 -8.7224698e-06
  1.3889994e-04
 -6.1694140e-05
 -1.7716697e-01
  1.5293161e-04
 -1.6362274e-05
 -4.6393668e-04
 -9.0439961e-04
  8.4879037e-05
 -4.7612384e-02
 -2.2497607e-05
  5.6366061e-05
  1.1446745e-04
  1.1733377e-03
  6.9296526e-05
  3.0982969e-04
  3.4133366e-01
  1.4242425e-03
 -9.2692800e-02
  2.4517080e-01
 -1.4707230e-01
 -5.4028302e-01
  2.9865373e-04
  6.9269037e-01
 -5.0601967e-02
  8.4990822e-04
 -4.7637979e-03
  1.8956642e-06
 -9.8308570e-05
 -1.2356606e-02
 -8.7833178e-05
 -2.2974362e-05
  8.4176318e-05
 -2.7755555e-04
  8.1758517e-05
  6.7788316e-04
 -3.9788258e-05
  1.4074869e-04
  1.4034762e-04
 -6.9807907e-06
 -4.7939200e-05
  2.2576047e-05
 -6.9663758e-05
  3.4321121e-05
  2.1427853e-05
 -1.9485960e-04
 -1.8329993e-04
 -5.1619939e-04
  3.2984408e-05
  2.8714929e-05
 -5.5818469e-04
 -8.4235013e-05
  1.5037380e-04
  6.4701283e-01
 -1.1220120e+00
  7.2836334e-01
 -4.7677685e-02
 -1.5819757e-01
  1.8053060e+00
 -3.9656204e-01
  2.2790197e-03
 -9.6324420e-01
 -7.0780456e-02
  1.0360026e-01
 -1.0591152e-04
 -7.8160316e-05
  3.8346267e-01
 -4.5303474e-04
 -1.5298024e-04
 -1.0805941e-01
 -2.6190004e-04
  5.1114490e-05
 -4.1400112e-05
  1.2791321e-04
 -2.9263602e-04
  6.3925261e-05
 -3.2089642e-01
 -7.3059790e-02
 -3.3467288e-05
 -2.4297141e-04
 -4.2504034e-05
  9.8762011e-06
 -1.1800560e-04
 -1.9458313e-01
 -2.8905714e-01
  1.3064471e-04
  4.9439281e-05
  6.3594792e-04
 -3.7470847e-04
 -9.2507100e-05
  9.9686347e-02
  7.0102490e-03
 -5.2670843e-05
 -9.6825529e-03
  9.0097654e-01
  1.1656993e-04
 -8.1020691e-05
  2.8820019e-05
  3.8178786e-04
  2.0714160e-05
  5.0277300e-05
 -3.6729960e-04
 -4.6525645e-05
 -5.3286797e-04
  4.4299879e-05
 -1.1195421e-05
 -1.3101821e-05
  8.6344924e-05
 -5.0307764e-05
  4.7988022e-05
  9.1906229e-05
  7.3681942e-05
 -1.3711139e-05
  3.6099162e-05
  2.9747553e-06
 -1.7626700e-04
 -1.1092619e-04
  2.2834993e-04
 -1.0139815e-04
  1.6980608e-05
 -4.8406386e-05
  4.0809851e-04
 -1.5780168e-04
 -7.5194526e-05
 -5.5436514e-05
 -3.1711472e-05
 -2.3117592e-04
 -1.2759594e+00
 -7.8172386e-03
 -4.9765813e-03
  2.2373292e-01
 -5.6944066e-01
 -1.2579328e-01
 -2.4767904e-02
  5.7475235e-02
  1.1751241e-04
 -7.6247066e-05
 -2.9409846e-05
 -4.8504087e-05
  1.2837084e-04
  3.8010287e-04
  5.3592492e-04
 -1.6284484e-04
 -6.2992389e-04
 -3.1229098e-05
 -2.9250114e-05
  2.9270837e-05
  2.3453728e-04
 -5.1385032e-05
  1.3403306e-04
 -9.7558295e-05
  1.0460815e-04
 -2.0938160e-04
  2.5524527e-05
  1.0103972e-04
 -1.6913014e-05
 -5.6759377e-06
 -5.9312320e-04
  1.3413947e-04
 -1.5559893e-04
  4.3608074e-05
  2.3562480e-04
 -5.7318316e-06
  1.1735773e-05
 -3.3626279e-01
  8.9019813e-06
 -1.3669360e-04
  7.2880772e-05
 -4.7004670e-02
  1.3526539e-04
  7.1992581e-05
  5.9139620e-05
  7.3423889e-04
 -3.2152660e-05
 -9.2806273e-05
  3.3189257e-04
 -1.4221990e-04
  5.4464553e-04
 -3.7746140e-04
 -1.0922844e-04
 -2.5843369e-04
 -1.0117975e-04
 -8.7601948e-06
 -1.3273532e-04
  9.1343296e-05
  5.3452590e-05
  1.5945478e-04
  1.4908290e-05
 -4.8610789e-05
 -1.7443487e-04
  2.3429967e-04
  3.8493221e-05
 -2.3487411e-04
  1.7048829e-03
 -5.4189091e-04
  8.9232481e-06
  5.9126716e-05
 -8.5023195e-05
 -1.1504915e-05
  7.8909931e-04
 -1.0070042e-04
  1.7188197e-01
  3.1918782e-05
 -1.4497047e-04
  8.2532359e-05
  8.4375525e-01
  9.7669050e-02
 -6.0147647e-04
  1.3054618e-04
  2.9878964e-04
 -4.8050034e-04
  1.1828174e-01
  1.6213035e-04
 -2.2104442e-04
  4.3944859e-05
 -1.2355283e-04
  7.1634720e-05
 -7.5618905e-04
  2.0480376e-04
 -4.2324831e-05
 -4.9018557e-04
  6.0705181e-05
  6.9182650e-05
 -3.9830364e-05
 -2.1936528e-02
  1.4005459e-04
 -2.1304058e-05
  1.2070831e-06
 -1.9381172e-04
  5.6615612e-05
 -7.1576971e-05
 -1.1641916e-03
  9.2720547e-05
  1.1442096e-04
  8.8726578e-05
  3.9462798e-04
  4.3853124e-06
 -1.2867360e-03
  7.5083852e-01
  7.8250784e-01
  1.8051422e-05
 -2.1546792e-02
  4.4895455e-01
  4.4284013e-01
 -9.5310546e-02
 -1.4797084e+00
 -5.2780998e-01
  2.0299822e-05
 -4.2453369e-01
  2.6772862e-02
 -5.3456426e-02
  1.2455858e-01
  6.7081505e-01
 -3.2672736e-01
  2.6391950e-04
  2.2344246e+00
 -1.0960433e-04
 -9.7955430e-01
  1.0352769e+00
  1.3668246e+00
 -1.1905978e-04
  5.8484876e-01
 -9.8622721e-01
 -2.3531541e-01
  3.7703040e-01
  5.2185118e-01
  1.0747284e-01
  3.3813201e-02
 -3.6194313e-05
 -1.0009459e+00
 -4.9722761e-01
  2.9433477e+00
  4.0285993e-01
  7.6574284e-01
 -2.8002946e-02
 -1.5836147e+00
  1.5126298e-01
 -1.1944611e-04
 -4.5385474e-01
 -1.5441923e-05
  1.3039170e-01
 -3.1500902e-02
  8.8718063e-01
 -4.1665990e-05
 -6.8915331e-05
 -2.6719391e-04
 -1.8361188e-01
  1.0170389e-04
  1.2608751e+00
  9.3396317e-05
  8.5408948e-03
  1.1395983e-01
  1.2312873e-04
 -1.6151974e+00
 -8.1234753e-01
 -2.1279049e-04
  1.7376854e-01
 -1.4306331e-04
 -9.6573317e-03
 -1.5170726e-01
  2.2353569e-01
  4.2698303e-01
 -1.5683576e+00
  8.5335976e-01
 -2.8914992e-05
  1.3072873e+00
 -6.8944466e-01
 -8.6187847e-02
 -2.0388648e-04
  3.0434571e-04
  1.3114005e+00
 -1.5456542e+00
 -8.4490086e-05
 -8.5826987e-01
  5.8112692e-02
 -2.1532817e-01
 -2.5966766e-04
 -6.8146878e-01
  3.2703912e-01
  3.9917079e-01
 -9.5856449e-06
 -6.3965726e-01
 -2.9360563e-01
  2.3187779e-01
  8.4661670e-02
 -6.9044489e-01
  8.9926970e-01
 -8.7589870e-06
 -6.5723920e-01
  5.5789667e-01
 -4.2069173e-01
  7.4057698e-01
 -2.1755283e-01
  4.1245085e-01
 -2.8314779e-02
  4.1815206e-01
  2.5499511e-01
  5.8907270e-01
 -1.3615662e+00
 -1.6822180e-01
 -3.7826699e-06
  4.1592708e-01
  6.1085576e-01
  5.4858512e-01
  1.9893473e-01
  9.6327379e-02
  1.8566903e+00
  2.9202762e-01
 -1.8187631e-04
  1.1531748e+00
  3.4826598e-01
 -1.2881421e-01
  1.2999616e+00
  2.6775643e-01
 -4.6111289e-01
 -2.3715746e-01
 -2.3178257e-01
  2.0388018e-01
  8.6595719e-05
  5.0245749e-04
  6.8465793e-01
  5.1203328e-01
  1.0401566e-01
  4.7607712e-02
  1.5353270e+00
  1.1708087e+00
  5.1453549e-01
  2.9397213e-06
  4.4317247e-05
  9.5669407e-04
 -2.7074621e-04
  2.5841682e-05
  4.3366752e-05
  1.3152682e-02
 -4.1240975e-05
  3.4565609e-03
 -6.4665539e-05
  3.9608643e-05
 -8.3551062e-03
 -3.3759023e-04
 -7.1533793e-07
  4.6080896e-01
 -3.7197009e-05
  7.6762872e-04
 -4.6932083e-04
 -8.6973736e-04
 -2.4244626e-04
 -5.7487518e-02
  2.5666952e-01
  5.1590830e-02
  1.5667525e-01
  6.2101499e-05
  2.4857618e-02
  6.5133827e-05
 -1.1265700e-01
  5.0435579e-01
  5.9407699e-01
 -1.2928568e+00
 -2.7831596e-01
 -1.0690292e-03
 -4.6299376e-02
 -6.2858635e-01
  4.7806155e-02
 -1.0280744e+00
  7.8102792e-05
  2.9341205e-05
  2.3925926e-04
  3.6705971e-02
  2.0343291e-03
  8.0545913e-05
 -2.2904705e-05
  9.4324231e-02
  6.3031592e-04
 -1.4757431e-05
  5.9065826e-02
  3.3503398e-02
  2.8626141e-03
  1.3391142e-04
  2.0783676e-01
 -3.6851102e-01
 -2.8203348e-02
  1.2344350e-04
 -1.2033825e-01
  5.9427645e-02
  2.9035467e-05
  2.0678933e-01
  2.4118236e-01
  2.7323049e-02
  8.2544483e-02
  2.7713063e-01
  8.8364434e-01
  1.1592752e-04
 -1.2041118e-04
 -5.3442760e-05
  2.4033847e-04
 -4.2171243e-01
  5.1646161e-01
  1.6878455e-04
  1.1290600e-04
 -2.7775268e-05
  1.2476859e-03
  1.0588689e-05
  1.1665651e-03
 -2.4069510e-04
  4.7612934e-06
  1.4439345e-05
  7.2998882e-05
  2.4014055e-03
  2.2585526e-04
  1.9592102e-05
 -1.0001686e-04
 -7.2168485e-05
  2.5702311e-05
 -7.3527815e-05
  7.5170050e-05
  4.5609620e-04
 -5.0173738e-05
 -7.1592935e-05
  6.4656931e-05
  1.9717278e-04
 -9.2822331e-05
  3.3325421e-05
  4.7921194e-04
  3.6337433e-06
 -1.0816285e-04
  4.0891406e-04
  8.6647451e-05
  1.2524481e-05
  2.7884214e-04
 -2.8074563e+00
  1.2489965e-01
  2.2987819e-01
  4.6667388e-01
 -9.0574242e-02
 -3.8219321e-01
 -1.4716216e+00
 -5.3175747e-01
  3.7267989e-01
 -1.6741727e-02
 -1.2063274e-04
 -1.7214352e-01
  1.6571062e-04
 -2.8004563e-01
  8.2311349e-04
 -3.0043133e-02
 -4.4891077e-01
  1.2908877e-04
 -2.5668528e-04
 -8.0720693e-02
  3.0522150e-01
  1.3969947e-01
 -2.8018389e-05
 -8.8229561e-01
 -8.2677975e-03
 -3.1262532e-01
  4.0986635e-02
 -7.7709912e-05
  1.4833902e-02
 -4.1499877e-04
  2.6796651e-01
 -7.9165772e-04
 -7.4597225e-03
 -2.3596746e-01
  2.2003488e-01
 -1.1669006e-04
  2.1728113e-01
  1.8018994e-01
 -4.4957203e-01
  5.6920631e-04
  9.1783822e-01
 -6.7707813e-01
  1.7985090e+00
  7.0044696e-01
  2.6488227e-01
  3.7935057e-01
  1.0171096e-01
 -5.9072545e-04
  2.5854670e-04
 -2.4014447e-05
  3.5368386e-05
 -3.0204470e-04
  1.7149332e-01
 -2.6680684e-05
  2.7322733e-01
  6.1961851e-04
  7.1948372e-05
 -1.2723618e-04
 -4.5627687e-04
  1.1327764e-04
  4.1041132e-02
  3.7467268e-01
  5.7433874e-05
  2.6606768e-04
  8.4312133e-02
 -1.5528416e-05
 -1.9693302e-01
  9.7314045e-02
  1.3649823e-03
  3.6494728e-04
 -5.8832189e-05
 -1.0781863e-02
  2.4044326e-01
 -1.3788966e-02
  1.4841188e-04
  2.0828936e-04
 -8.6765867e-05
  2.4876407e-01
  4.6253589e-04
  2.5645306e-05
 -1.8848585e-04
  3.6267916e-04
  3.0586115e-04
  3.4895439e-02
 -5.8885990e-04
 -4.9475308e-05
  2.3204900e-04
  2.1540961e-04
  1.1069909e-04
  1.4712855e-04
 -4.6450887e-07
  4.6352114e-05
 -1.6683723e-01
 -3.6693211e-05
 -5.7981499e-05
 -7.5490309e-05
 -5.5531858e-05
 -4.7242047e-05
  1.8523163e-04
 -1.4689378e-04
  3.0007720e-04
  1.0198088e-04
 -3.0345173e-04
 -3.2441318e-04
  4.0453440e-04
  6.5195141e-04
 -6.3858970e-05
  2.5993423e-03
 -4.0587267e-05
  5.1454128e-05
  3.9450076e-04
 -1.2952363e+00
 -7.3660135e-01
 -3.1413343e-02
  4.4963357e-01
 -7.7206582e-01
 -5.2796322e-01
 -1.0211407e-03
  9.0486628e-01
 -1.8187554e+00
  1.7092867e-01
  1.4123551e+00
 -3.1926161e-01
 -8.1850702e-01
 -5.1085335e-01
 -1.5784924e-01
  3.4182367e-01
 -3.1199610e-01
 -4.7141322e-01
  2.3387225e-02
 -7.9747874e-01
 -1.8487369e+00
 -5.6474084e-01
  5.5493152e-01
  4.0495783e-01
  2.2089994e+00
 -2.0516623e-02
 -2.6958771e-02
 -2.1801798e+00
 -1.2701714e+00
 -2.2632385e-02
  7.6050460e-02
 -1.0330014e+00
  1.7003565e-01
 -1.3263697e-02
 -7.1335214e-01
  3.1009930e-01
  5.0057806e-02
 -4.4190302e-01
 -1.3361570e-01
 -2.6661606e-04
  1.3056016e-01
 -1.1488581e-01
 -3.9803072e-05
  1.1660904e+00
  1.7765442e-02
 -3.7617257e-04
  1.5734648e-05
  8.8186510e-02
  1.1774549e-03
 -2.8702608e-04
 -1.3852419e-03
  1.0190749e-04
 -5.4930127e-04
 -2.9295871e-01
 -8.8289708e-02
  5.0348943e-05
  1.0150856e-04
  5.1458766e-05
  2.9475725e-05
  1.3274264e-04
  4.4121552e-05
  1.0371282e-05
 -9.2949231e-05
 -1.2994391e-01
  2.1412671e-02
 -1.4014312e-04
  1.1837333e-02
 -2.3403269e-04
  2.0986468e-04
 -8.3390214e-02
  5.9751972e-05
  4.8172954e-02
  7.5171073e-04
  1.5348534e-05
  7.7696488e-05
  2.4521275e-06
 -3.4123022e-05
  2.6428957e-05
 -5.2648647e-05
  4.6203106e-05
  6.7324661e-05
 -6.4596949e-05
 -2.4260480e-05
 -4.4254525e-04
  3.8072860e-05
 -2.1752636e-05
  2.5128166e-04
 -3.5132389e-04
 -2.1973026e-05
  1.8277595e-05
  1.8387022e-04
  3.8498981e-04
 -1.0399239e-04
  4.0399341e-04
 -2.2848162e-05
 -6.4567350e-05
 -5.7958998e-02
  1.6679945e-04
  5.1818341e-05
 -1.6217647e-04
 -2.1178673e-04
  1.2055877e-05
  5.7076584e-05
  1.6254824e-04
  3.9688741e-05
 -7.1968949e-05
  1.2092760e-04
 -1.2535979e-05
 -2.2445290e-04
  9.1674359e-04
 -1.0149862e-04
  1.5007735e-04
  2.6814276e-04
 -7.1446055e-05
  2.5391264e-05
  1.3510041e-05
  5.8138644e-06
 -1.4590414e-04
  1.5558145e-04
  8.8607456e-05
  3.6318914e-04
  5.6487514e-04
  2.6507347e-05
  2.1318482e-04
  1.9432048e-04
  1.1174111e-04
  8.5072184e-05
  6.5856805e-04
  6.2735497e-05
  1.6963003e-04
 -3.7669166e-04
  1.5200225e-04
  2.1888212e-04
 -3.2227490e-05
 -5.8752281e-05
  1.1432774e-03
 -1.2151813e-04
 -1.1187349e-04
  3.0597443e-05
  2.3172477e-05
 -1.0702213e-04
  2.7855684e-04
  1.4591831e-04
  1.4007588e-04
  1.0790362e-04
 -4.0652521e-05
 -4.8643793e-05
  2.2343366e-04
  3.9745602e-04
 -1.3075552e-04
  1.1068565e-04
  4.7982123e-04
 -1.0808315e-04
 -3.8485523e-05
  3.0698797e-05
  1.5511767e-04
 -1.0445357e-04
 -4.0813138e-05
 -4.5461845e-04
  3.2800432e-05
 -5.9462225e-05
 -6.5265587e-05
 -1.1448388e-04
  1.1029215e-04
  1.5891732e-04
  3.3507329e-01
  9.5640082e-04
  1.7863917e-04
  9.4774638e-05
  1.5660578e-04
  1.9383402e-05
  1.4651006e-04
 -8.2491517e-02
 -6.9233829e-05
  7.5198056e-07
  1.1035276e-04
  2.7704185e-05
 -1.4335090e-04
  8.2140486e-06
  5.7037629e-05
  1.7127756e-04
  5.3906598e-04
  1.6270860e-05
  1.8466371e-05
  3.1818847e-06
  1.8846991e-02
  2.8603809e+00
  9.7814634e-02
  3.7032965e-01
  1.6853896e+00
 -2.4620795e+00
 -3.7082788e-01
 -2.5045744e-01
 -2.7966249e+00
 -2.1324205e-01
  6.8203187e-01
  3.0725367e-02
 -2.3210213e-01
  1.6957532e-01
 -6.2688864e-06
 -1.6648236e-01
 -3.2624729e-02
  5.0886103e-04
  5.3875273e-01
 -9.0915835e-01
  1.8903403e-02
  3.6747141e-03
  1.5364695e-01
  8.6964643e-01
  7.0563657e-03
  8.3153702e-02
 -9.9995220e-01
  2.1988032e+00
  1.9648178e-01
  3.5165098e-01
  2.8249285e+00
  1.2522842e+00
 -1.3885903e+00
 -4.2233142e-01
  1.1752701e+00
  5.2817494e-01
  2.3562057e-04
  9.5903385e-01
  9.0841852e-02
 -6.1536956e-01
 -1.5631124e+00
 -1.8820296e-01
  2.4017656e+00
  8.3800381e-01
  3.5325384e-01
 -1.8963988e-01
  3.1072221e-04
  1.6147937e-03
  1.1713817e-04
  2.0293376e-04
  4.0701230e-04
 -2.3181015e-04
  1.2615004e-04
  5.8980997e-05
 -7.0030140e-03
 -1.2505706e-04
 -1.1222714e-04
  3.4658893e-05
  1.3575805e-05
 -3.2288537e-04
  1.3893784e-03
 -2.0426635e-01
  1.0177214e-01
 -4.9438275e-02
 -1.4656332e-03
  1.1745658e-04
  7.1387255e-04
  4.6345416e-01
 -5.2421592e-04
 -1.3191158e-04
 -5.3608045e-04
  1.2374462e-01
 -5.1306817e-04
 -1.7377693e-04
 -5.8278852e-06
 -9.7822231e-05
 -1.5965605e-02
  2.7749849e-02
  4.7255006e-01
 -4.8576432e-01
 -1.7682879e-04
 -6.8602247e-05
  6.5573826e-02
  4.2368403e-05
 -8.2727782e-02
 -3.6780809e-03
 -1.4979108e-05
  3.5642509e-04
 -2.8887138e-04
  2.2704818e-03
  5.1612512e-04
  5.5414131e-03
  8.8433488e-05
  1.4641213e-04
 -5.5572502e-02
 -1.4528534e-01
  2.2989588e-03
  2.6419954e-04
  5.4953266e-06
 -8.3797984e-02
  9.0349742e-05
 -3.8816664e-02
 -1.6612149e-03
 -1.0117514e-01
  9.9150391e-05
  2.0874286e-04
 -7.1868204e-02
  4.2856700e-05
 -5.2207816e-02
  3.7302336e-04
 -6.6129073e-06
 -3.7362415e-01
  1.3211188e-01
  3.1545007e-01
 -1.0773926e-01
 -1.3233098e+00
  5.5692594e-02
  1.0726962e+00
 -8.1039780e-01
 -3.5604455e-02
 -3.4850836e-01
  3.7421921e-01
  2.3553939e-01
  1.3814615e-02
 -4.3704046e-04
  5.2708018e-01
 -9.0404823e-02
  8.2280435e-02
 -2.3421960e-02
 -1.1054732e-02
 -1.4992313e-04
  5.4513240e-01
  4.8488954e-01
 -5.1506066e-01
  1.0841070e+00
 -1.3824459e+00
  1.9631362e-01
  2.1503305e-02
 -1.0822120e-01
  1.3659203e-02
  3.2308623e-01
  3.0394259e-01
 -8.0311770e-04
  4.6372026e-01
  3.7068126e-01
  5.2275395e-01
 -1.3239242e-01
 -1.3724129e-05
 -2.8201148e-02
 -1.4923980e+00
 -6.0301423e-01
 -2.0615794e-01
  4.7867537e-01
 -1.8167609e+00
 -1.0325178e+00
  7.9124427e-01
  3.7234247e-02
 -8.8210134e-03
 -9.0127805e-06
 -3.9717335e-01
 -5.7472330e-02
 -1.3867582e-01
 -5.9040252e-04
  8.5910153e-01
 -1.1907417e+00
  6.2031984e-05
  2.4422358e-01
 -5.9573388e-01
 -6.4151675e-01
 -3.0170274e-01
  6.2164891e-01
  4.6800029e-01
 -1.1924119e-01
  3.0895364e-01
 -9.9185121e-01
  6.2649536e-01
 -4.1618907e-01
 -5.0466391e-04
 -3.0860114e-01
  7.3869698e-02
 -2.0316279e-01
 -1.9932628e-01
  5.8944350e-01
 -6.6447169e-01
  4.7784656e-01
 -2.6573721e-04
 -3.6103901e-04
  2.7118991e-05
  6.2147617e-02
 -6.8648817e-04
 -1.1741521e-04
 -3.3593731e-04
 -2.1896062e-06
  3.5228197e-05
 -4.5461999e-04
  8.2180677e-06
  7.0514223e-05
  1.5081506e-04
  3.5761460e-07
 -5.3063442e-04
 -4.1156737e-04
  1.0941694e-05
 -5.0353941e-05
  1.2390362e-05
 -3.5465584e-04
  2.2438723e-04
  9.1160407e-05
 -4.3771237e-05
 -3.2180315e-04
 -2.8976476e-05
 -1.1743030e-04
 -6.4179726e-04
 -8.1079845e-05
  2.4422337e-05
  3.3829817e-06
 -3.4525772e-04
 -1.2067364e-04
  3.3960343e-04
  2.4923382e-05
  3.8067068e-05
  2.1446326e-04
 -5.0635752e-04
  6.3648960e-04
  2.5423015e-02
 -1.4489202e-01
  8.7014139e-01
 -1.3726476e-01
  1.0129274e-01
  1.0051508e-03
 -4.6041003e-01
 -1.1957066e-01
  9.2290668e-03
 -2.2253653e-01
  2.7158620e-02
  2.0477429e-04
  1.4997033e-03
  6.4620486e-05
  3.0350552e-03
  2.7375939e-01
  5.1293806e-03
 -1.0880262e-01
  2.2240502e-03
 -2.2434328e-05
 -8.1943686e-04
 -4.5226043e-05
  4.7045070e-01
 -4.7428057e-06
 -8.1394304e-04
  1.1464428e-01
 -8.6372270e-04
 -6.6310822e-05
 -1.6901561e-03
  8.2218857e-04
 -8.9470312e-05
  1.8583935e-04
  9.3393728e-02
  2.5979840e-04
 -6.6672526e-03
 -7.9913937e-02
  1.1656666e-03
 -3.3355005e-05
 -4.8312668e-02
 -1.0494789e+00
 -1.6526591e-03
 -4.5535401e-01
  1.0281527e-01
  2.1311374e-01
  5.2092611e-03
  7.0444793e-02
 -4.0198203e-02
 -1.6212222e-04
  6.9226357e-06
  8.7033622e-03
 -1.5141549e-04
  4.1905433e-02
  6.5445775e-01
  1.7072421e-02
  2.6690675e-04
  1.3780682e-01
 -1.8480404e-04
 -2.2877846e-03
  1.4183225e-04
  1.7583597e-01
 -3.2055372e-04
 -1.9619529e-01
  2.6211410e-04
 -1.1749873e-02
  7.7047313e-05
 -3.0262884e-02
  3.0179110e-01
  3.1781185e-03
  1.4047883e-03
  3.5630259e-01
  4.1474294e-04
  2.6900109e-04
 -1.4880281e-02
 -9.6615695e-05
  1.3006228e-04
 -2.3187928e-05
 -4.2981639e-05
 -3.8231033e-04
  3.0066847e-04
  1.1083734e-04
 -9.9515521e-05
 -2.9624734e-04
 -3.5288002e-05
 -2.3965335e-04
 -3.0544506e-05
 -1.7053333e-04
  1.4938724e-04
  3.1323370e-04
 -2.0819591e-05
  4.3052893e-05
 -9.4057623e-07
  6.4047192e-05
  1.0531090e-04
 -1.4225947e-04
  7.6531367e-05
 -5.9991438e-05
 -1.1260283e-05
 -6.2912040e-05
 -1.0517755e-04
 -3.0782254e-04
  2.0072525e-04
  4.8177015e-05
  1.7765159e-04
 -2.2048225e-04
 -2.1146373e-03
 -1.0692683e-04
 -4.4350336e-06
  9.4288480e-05
  1.6209271e-05
  5.0839706e-05
  1.1070608e-01
  1.6240160e-01
  2.8040105e-02
 -2.2498387e-01
  1.0333445e+00
 -8.5591990e-01
 -6.5180160e-02
 -1.7795404e+00
 -3.8126734e-01
 -6.9284588e-01
  6.6445631e-01
 -4.0360117e-01
  5.3300226e-01
  3.5737619e-01
 -3.8643774e-01
  4.4036198e-01
  1.6754688e-01
  2.3589650e-05
  3.2261068e-03
  4.2251070e-04
 -5.6646787e-02
 -2.6408452e-01
  4.3838003e-01
 -2.0913265e+00
 -6.9931731e-02
 -1.7886937e-01
 -1.3857621e-01
  6.4583677e-01
 -6.3166575e-05
 -5.7333779e-01
 -7.7185410e-01
 -1.9251488e-01
 -3.8726348e-01
  8.3701916e-02
  1.8101762e-01
  7.7349897e-03
 -1.0492831e-02
  1.1760915e-04
 -8.1504002e-04
 -3.6599580e-05
  9.1035128e-02
 -1.1613100e-03
 -4.0291730e-01
 -4.0873306e-04
  2.6087129e-01
 -9.1134396e-04
 -6.0231607e-05
  3.3143078e-04
 -5.7303973e-06
 -2.3538436e-04
  4.3505555e-05
 -2.6019316e-04
 -7.6242350e-04
 -2.0715511e-04
 -2.5344754e-04
 -4.3030974e-04
  4.5161185e-05
  2.4756271e-04
  1.5506646e-04
 -5.4570650e-05
 -6.8471607e-05
 -2.1584314e-05
  5.5804604e-04
 -2.3981486e-04
  6.5201463e-04
  3.8722740e-04
  4.7020838e-04
 -8.3420862e-04
  6.2128670e-08
  2.5214944e-03
 -8.6629356e-05
  2.7326902e-05
  4.8807336e-04
  6.0666131e-04
  3.6223206e-05
  1.3926621e-04
  1.4870030e-04
  5.6795633e-01
  4.4799440e-02
  5.6008907e-05
  3.2719481e-04
  3.2761518e-02
  1.4079841e-04
  2.5716738e-05
  3.8435217e-05
 -3.6299283e-05
 -2.0115470e-04
  5.8558264e-05
  1.4857350e-04
  1.1357968e-03
  1.2658183e-04
  5.9920375e-04
 -1.6149627e-04
  1.2356287e-03
 -3.6573692e-04
 -4.9978698e-04
  3.0843032e-04
 -8.7878412e-05
 -1.0612392e-04
 -1.7212646e-02
 -2.2589962e-05
 -2.0692011e-04
 -3.6911879e-05
 -3.0242847e-03
  1.9862410e-04
  5.8960690e-05
 -1.1397764e-02
 -8.7708569e-05
 -6.4401771e-04
 -1.2444366e-04
 -4.0490937e-05
  2.6696859e-04
  1.4376466e-05
 -3.2914544e-05
 -2.2299805e-04
 -3.4121364e-05
  1.4970559e-04
 -2.9737777e-05
  7.4095718e-05
 -1.2979403e-04
  1.2020073e-04
 -1.7795018e-04
 -4.5445471e-05
 -2.2136184e-04
  6.2303683e-05
 -1.8247807e-05
 -9.3495575e-05
  2.0013815e-04
  5.0063318e-05
 -5.0331091e-05
 -5.3660402e-05
 -3.0447272e-04
 -4.5979500e-04
 -1.8006414e-05
 -1.6369230e-04
 -1.7544720e-04
 -7.8204554e-04
 -4.2222244e-05
  4.2261079e-05
 -3.0366265e-05
 -1.2599140e-03
 -2.0234981e-04
 -4.6391840e-04
 -1.0443702e-04
  1.3261802e-04
 -2.0251299e-04
  2.0253299e-04
  2.2568274e-04
 -1.3121091e+00
 -8.6253214e-01
  1.9248368e-03
  1.0366129e+00
 -9.9381268e-01
 -8.0756396e-02
  9.4439006e-01
 -9.3118185e-01
  6.8396702e-02
 -2.8664896e-01
  6.1229464e-02
  6.0417944e-01
  3.5565343e-05
 -4.6614140e-01
 -2.7557413e-04
 -9.2841394e-04
 -1.3822317e-01
 -2.5794318e-01
  3.4365308e-01
 -2.3821622e-01
 -9.7484146e-05
 -9.8519840e-06
  5.9546521e-05
 -8.9347416e-01
  1.7698845e-04
 -7.2751107e-04
 -3.0846888e-01
  5.3527292e-02
 -2.1088141e-01
  1.0159259e-02
 -4.0477738e-02
  1.0920443e-04
 -3.6543977e-01
 -3.3032864e-01
 -6.2451314e-02
  3.0411589e-01
  6.0432147e-05
 -1.6345456e-01
 -6.3684332e-01
  1.4465149e-01
 -2.4914639e+00
  1.3945129e+00
  9.6643609e-01
  1.6332165e+00
  7.1091938e-01
 -3.5075739e-01
 -1.7001280e-01
 -1.3615282e-01
 -5.3489852e-01
 -4.0449735e-04
 -4.4157806e-01
 -2.8077686e-01
 -3.5357576e-02
 -1.1867766e+00
 -4.4379297e-01
 -3.9893991e-01
  2.2956190e-01
 -5.5889165e-01
 -6.8071961e-01
  5.9836591e-04
 -5.2438432e-01
 -7.4224472e-01
 -5.3051792e-02
 -2.6964754e-01
 -9.2218971e-01
  2.3685904e-04
  1.0945151e-04
 -4.8757607e-01
 -2.3291886e-02
  4.0664807e-01
  8.9894831e-02
  6.9622320e-01
 -1.2680833e+00
  8.1062138e-02
 -3.6261543e-03
  6.0603881e-01
 -1.9412315e-01
  6.0836701e-03
  7.2274609e-03
 -6.9778949e-02
  3.1666368e-01
  1.6497868e-01
  1.3010190e-01
  5.7633949e-04
 -1.7592536e-01
  7.2354029e-05
 -8.1919316e-05
  3.6893741e-03
 -5.8504124e-04
  5.4780248e-04
  4.3327060e-01
  1.9868618e-01
 -2.6720589e-05
  2.1601295e-01
 -1.4528187e-03
 -1.1908032e-01
  1.5194871e-02
  2.6122427e-01
  4.7658006e-05
 -9.4966053e-05
  4.1232634e-01
 -2.3962960e-04
  2.3924872e-04
 -1.7839205e-02
  1.0369220e-01
  3.8292339e-05
 -1.9824808e-03
  7.3679253e-02
 -3.9126077e-03
 -1.6103640e-04
 -3.4497704e-03
  6.3013834e-01
  8.3711350e-01
  3.2983533e-01
  6.9492400e-02
 -2.5226486e-01
  6.7846769e-01
 -6.6131604e-01
  3.1593576e-01
 -9.2822087e-01
  5.8315128e-01
 -1.3277429e-01
  2.3834497e-01
  4.4451077e-02
  3.4274720e-02
  2.0772688e-01
 -6.2780641e-02
  5.2753276e-01
  3.1695482e-01
 -2.2918062e-01
  1.2837251e-04
  6.7581837e-03
 -1.5724692e-01
 -1.1450294e-01
 -6.3326585e-01
 -6.4636487e-01
 -8.1222229e-02
  7.4659681e-01
 -1.3255591e+00
  8.3683886e-02
 -2.5827497e-01
 -1.7666110e+00
 -3.8301849e-01
  7.6531172e-02
  1.6838674e-01
 -2.4210477e-01
  1.6581310e+00
 -3.9176079e-03
 -1.6506384e-04
  3.6644433e-05
 -4.0943836e-04
 -1.9589675e-04
 -1.7725052e-03
 -1.5737140e-05
 -1.2695398e-04
 -4.1550215e-06
  6.9446971e-05
  9.5846830e-05
  4.0940687e-04
  2.7972503e-04
  5.9200196e-05
 -8.8147674e-05
  4.0280203e-05
  2.3044267e-05
 -3.1982825e-05
 -4.5314060e-05
  1.2512959e-04
 -1.0563734e-04
  4.2351690e-04
  1.4576101e-04
  5.0669285e-05
 -1.2693116e-06
 -3.6089693e-04
  3.7235215e-05
  5.4555185e-05
  1.2493586e-04
  2.3485707e-04
  6.5531429e-05
 -1.1492550e-04
  3.2283072e-04
 -2.1787517e-05
 -1.6117733e-02
  5.3904823e-05
 -8.3028561e-07
  6.4039326e-05
 -1.0247088e-04
  2.2329701e-04
  2.5453811e-04
  1.8429258e-04
  2.6272109e-02
  2.2315871e-04
  2.8713877e-04
 -1.4076308e-04
  6.9074638e-05
 -6.3537550e-06
  3.0344538e-04
 -6.5828058e-06
  2.1195899e-04
 -8.2880815e-06
 -7.3704075e-05
  1.5930459e-04
 -1.2652324e-05
  5.3280097e-04
 -1.2857637e-04
  7.1296946e-04
 -2.1308757e-04
 -3.6234682e-04
 -1.6167844e-04
 -3.6392437e-05
  5.7131395e-04
  2.2121074e-04
  6.2271705e-05
  4.8969654e-05
 -4.9534609e-04
 -1.6947211e-05
  7.0623244e-04
 -5.6950077e-05
 -2.5927983e-04
  4.8325554e-05
 -5.7522341e-04
 -3.1179472e-05
  1.1492011e-04
 -1.1786506e+00
 -2.7000099e-01
  6.0002804e-03
 -2.3462905e-03
  2.4899706e-01
  4.7465410e-02
 -2.9435282e-04
 -2.7660540e-01
  1.5249026e-01
  1.6451976e-04
 -4.4015544e-03
 -1.0152553e-04
 -1.2676104e-05
  2.4441176e-04
 -6.8225505e-05
  8.5645297e-05
  6.2950142e-02
  2.9665287e-04
  3.4837594e-04
  1.4257926e-04
 -2.7382030e-04
 -3.5319146e-05
 -1.9032438e-04
 -1.4201111e-04
 -1.0728214e-04
 -2.6690708e-03
  7.4103725e-04
 -3.3702414e-05
  2.6443176e-04
 -1.2389961e-02
  4.6060376e-02
  7.7742727e-05
  4.4494864e-02
  4.5108467e-02
  1.3559538e-01
  1.4584487e-04
 -6.5287732e-02
  3.5412097e-05
 -5.5143081e-02
 -7.6140000e-06
  5.2704835e-01
 -1.7326493e-04
 -9.3440460e-05
  4.8908238e-05
 -5.2707630e-05
 -5.1541709e-05
  3.1009267e-04
  6.8535810e-05
 -1.5889572e-04
 -7.8329054e-04
  1.2398484e-04
  1.3196914e-04
 -7.1861780e-01
  1.7475523e-03
  5.6678953e-05
  5.9563579e-05
  1.2826431e-01
 -5.6496097e-05
  4.0413969e-04
  2.4837580e-05
  1.5953254e-02
 -1.9220253e-05
 -3.1960942e-04
 -4.2373443e-04
  2.7960583e-04
 -1.4304247e-04
 -7.8642415e-04
 -8.3184546e-05
  1.9209120e-04
  1.3043464e-04
 -1.9738940e-04
 -5.5719720e-04
  1.4020425e-03
 -1.2414834e-04
  4.5435168e-02
 -1.1466358e-01
 -4.0436059e-02
 -3.1113780e+00
 -3.3250062e-03
  8.3370961e-02
  6.8330663e-01
  1.5513261e-01
 -6.2951148e-02
  2.2912084e-03
  1.5052429e-03
  9.8565929e-02
 -3.0140299e-01
  4.1037440e-01
 -4.2484440e-05
 -1.3270110e-01
 -5.8006501e-04
 -1.0988951e-04
  9.9161750e-01
 -1.2699974e-04
 -2.8996504e-04
 -7.3014735e-03
  1.1952490e-03
  9.3923879e-01
  5.9731394e-02
 -1.1541373e+00
 -1.0842623e-04
  5.3340358e-01
 -2.5005028e-02
 -2.5392291e-01
  1.2776807e-01
  6.2303998e-02
  1.7260826e+00
 -4.0984559e-01
 -6.9291896e-01
  1.9291089e-01
 -3.7407421e-04
 -1.8853082e-04
  1.8959501e-04
  2.1564504e-04
  4.8423215e-04
  1.8208434e-01
  6.8591289e-05
 -9.4188450e-05
 -2.2916142e-04
 -6.3869949e-05
  4.7502755e-05
  6.1928848e-05
  4.7744976e-05
 -1.3442260e-04
 -2.4411207e-04
  2.7830235e-04
 -9.9299665e-05
 -1.2327435e-03
 -2.7574243e-03
 -3.1753464e-04
 -3.7975362e-04
  1.6337830e-05
  9.9785393e-04
  7.3448195e-05
 -1.1372718e-04
  4.0331379e-05
 -2.5652887e-05
 -3.8201786e-05
 -2.6909513e-05
 -3.8114798e-05
  5.1967316e-05
  2.7363031e-04
 -7.2948351e-05
 -1.2290715e-04
  3.2067273e-04
 -1.2969044e-04
  4.4177580e-04
  3.0789396e-04
 -1.0607018e-04
 -9.1176207e-06
  7.6588278e-04
 -6.9919792e-05
 -1.6711078e-03
  1.5886303e-04
  2.5911329e-05
  2.4457806e-04
 -1.5309305e-04
  7.8529403e-05
  1.0003886e-04
 -1.7830220e-01
 -8.5319316e-06
 -5.2684201e-05
 -1.3071382e-04
 -3.5874435e-04
 -1.7811662e-04
  7.6334683e-05
 -9.0953588e-05
 -2.8367131e-04
  1.1146113e-04
 -1.4521369e-04
 -7.1676484e-05
 -1.6898723e-04
  3.6475688e-04
 -3.9368282e-05
  9.5858450e-05
  4.8655513e-04
 -3.3890792e-05
 -4.3305292e-05
 -2.3153530e-04
  3.7963178e-05
 -1.2121540e-04
  2.9515760e-04
  7.0079892e-05
  2.2393471e-05
  7.7817560e-05
 -1.6469383e-04
  4.4209686e-05
  1.6957216e-04
  3.6729274e-05
 -8.3933199e-05
  9.4433417e-05
 -2.9391065e-05
  6.8241301e-05
  2.7153216e-04
 -7.1524606e-05
  6.8508212e-05
 -5.9138543e-05
  9.2134716e-05
 -1.4413084e-04
  3.9494698e-04
  6.7885403e-06
  1.6462449e-04
 -2.4188261e-05
  6.3388048e-05
  1.8042061e-04
 -1.6426884e-05
 -6.9220347e-05
 -7.6172379e-05
  6.2729050e-05
  8.9628456e-06
  6.8865324e-05
 -2.4149507e-05
  2.6826907e-04
  1.5606161e-04
 -4.1966964e-04
 -3.1949050e-05
 -8.9040160e-04
  1.1149770e-04
  6.2070139e-05
 -2.3726106e-04
  4.3049535e-05
  3.2778826e-05
 -2.0219572e-02
  1.2230458e+00
  5.9668034e-02
  1.1815528e-01
 -1.5277144e+00
  3.2177472e-01
 -6.7357980e-02
 -5.6662875e-01
 -3.4101168e-03
 -2.0586506e-01
  4.2946869e-01
  1.2594674e-02
 -7.1182083e-05
 -1.0423707e-05
 -1.0592768e-04
 -5.0886095e-02
 -4.2319205e-01
 -9.7064555e-02
  1.8893348e-04
 -3.3386718e-02
  9.1699593e-02
  2.4461609e-01
 -2.8477543e-05
 -1.8069173e-01
 -1.7597439e-04
  3.2497723e-02
 -4.1224319e-03
  2.2567411e-01
  1.3840088e-04
  1.4241023e-01
 -8.9535013e-02
 -1.5543026e-04
 -2.1597952e-01
 -2.6114702e-01
 -2.8635153e-01
 -5.3320364e-05
  5.7024401e-05
  1.0529052e-01
  7.6555316e-06
 -1.0035261e+00
 -5.2414700e-02
 -1.7190750e-01
 -1.1442477e-01
 -1.8454771e+00
 -1.1815044e-02
 -3.9783978e-01
  5.8592705e-04
  1.5522726e-01
  4.5511679e-05
  6.5967008e-02
  8.4186211e-04
  1.9474856e-04
 -3.9160677e-05
  3.2895012e-03
 -4.2189466e-04
 -1.0102350e-04
  6.6754239e-04
  5.9790301e-01
  2.8691435e-01
 -4.7413483e-02
 -1.9737612e-03
 -7.6798683e-01
  1.5911818e-04
 -2.9491732e-05
 -2.2046161e-03
  3.4245162e-04
  4.4351062e-01
 -3.2196899e-03
  2.9815683e-02
  1.9491726e-03
  1.5382788e-02
  4.7529015e-01
 -5.4158700e-05
  7.9863563e-02
 -8.0534301e-05
  4.6977805e-04
 -5.5958968e-05
 -4.3536400e-04
 -1.5808264e-04
 -4.8447022e-05
  1.5919219e-04
  6.7993315e-05
 -2.6796712e-04
 -2.3372750e-05
 -2.5552463e-05
 -8.4699626e-05
 -2.0731983e-05
  3.9566105e-04
  3.1766461e-04
 -7.0920214e-05
  3.1332875e-05
 -2.3845396e-05
 -6.7262656e-05
 -2.4525105e-04
  2.0127436e-04
 -3.4757202e-05
 -5.3559455e-05
  1.4211932e-05
 -6.3711312e-05
  2.1022045e-06
 -1.3962190e-04
  2.9880941e-04
  6.9534384e-05
 -4.4828028e-04
 -1.4370363e-04
  2.4420279e-04
 -1.7962624e-04
  1.2891446e-04
  1.6736548e-04
  5.5899687e-05
  3.1146931e-04
 -1.1662604e+00
 -1.3302711e+00
 -1.8459586e+00
 -7.2444481e-01
 -1.8584594e-01
 -4.2379877e-01
  1.2623032e+00
 -8.1704181e-01
 -5.6967056e-01
  2.3825853e-01
  3.2539994e-01
 -9.5774798e-05
  4.9291062e-01
 -1.4574986e-04
  6.0137713e-01
  7.2071135e-01
 -6.5357900e-01
  6.2618995e-01
  6.5552753e-01
  3.9432940e-01
  7.8018792e-02
  2.2002147e-01
  1.0266798e+00
  1.1066489e+00
  1.4455390e+00
 -1.8372852e-01
  1.4888158e-04
  8.2402122e-01
  6.2281156e-01
  1.8602434e-01
  9.7491300e-01
  1.5311120e+00
  1.9221487e-02
 -2.5719102e-02
 -2.8957210e-02
  3.5649750e-01
 -4.9691617e-02
  8.1438202e-01
  2.7659589e-01
 -1.9020300e-01
 -1.7150698e+00
 -1.2261685e-01
 -7.0487326e-01
  5.7123214e-01
  8.2072210e-01
  3.5420459e-04
 -9.6599026e-05
  1.0387804e-04
 -9.7194231e-01
 -1.6531973e+00
 -5.5327863e-01
  3.9986366e-01
  3.8345060e-01
  3.9627495e-01
 -2.9080117e-03
  6.1482832e-02
  2.6831531e-04
 -2.4218647e+00
 -1.0618074e+00
 -4.6073070e-01
 -5.2051938e-01
  5.7374662e-01
 -3.2414749e+00
  3.3087158e-01
 -1.1505696e+00
 -1.2382356e-04
 -1.0768368e+00
  7.6537468e-02
  2.9732790e-04
 -7.6935512e-01
  1.0248119e+00
 -1.1533139e+00
 -9.0482754e-01
 -4.1781878e-01
  5.3921783e-01
  3.2054144e-04
 -5.8515674e-01
 -6.7179851e-02
  5.8365512e-01
  1.9994685e-01
  8.9484495e-01
 -5.6741995e-01
 -2.0753194e-04
 -1.4453745e+00
 -5.7455391e-01
  1.2618335e-04
 -9.9455872e-05
  2.2046239e-04
 -1.8921704e+00
  1.7823510e-01
 -1.6041873e-01
  7.7688861e-01
 -1.0955924e+00
 -1.1982107e-04
  6.6247326e-01
  1.8176074e-01
 -1.2533680e-04
 -1.8121949e+00
 -3.7790969e-04
 -5.1391989e-02
  1.1387993e-04
 -8.5992789e-01
 -1.7950073e+00
  6.2435582e-02
  1.2549403e+00
 -6.0209729e-02
 -1.6608975e-04
  4.2801219e-01
 -4.1046697e-01
 -1.5512937e+00
 -3.1127857e-02
 -7.5748489e-05
  6.5407134e-05
  1.3480517e-01
  1.0753520e+00
 -5.2125088e-06
 -1.2733309e+00
  4.1957223e-01
  7.2174080e-02
  1.2703452e-01
 -3.1564799e-01
  8.9875674e-01
  4.6557829e-01
  1.3356405e-01
 -3.5265961e-01
 -7.7237107e-02
  9.2554190e-05
  5.7099208e-02
 -9.0144314e-02
 -3.4056368e-01
  5.4336870e-01
 -6.1065423e-01
  1.6718425e-01
 -1.5671767e-01
  3.7700766e-01
  6.0993367e-01
  9.0600413e-05
  4.4988237e-02
 -1.3710070e+00
  6.1494523e-01
  2.0899951e-01
 -4.7897276e-01
  3.8299996e-01
  5.0715721e-01
  4.6101296e-01
 -4.8666891e-02
  5.9451228e-01
  3.1160608e-01
 -1.8533941e-02
  1.3380483e-01
 -1.7269826e-01
 -5.3038913e-01
  2.4111250e-01
 -6.6062850e-01
 -7.8927529e-01
  1.2350531e-04
 -1.2106379e-01
  2.2265518e+00
  1.0133155e-01
  5.9041494e-01
 -2.4249046e-01
  1.5302017e+00
  5.8582145e-01
  5.4728411e-05
  6.3258100e-01
  1.9133296e+00
  4.9908020e-05
 -3.5113163e-02
  9.1784261e-02
  2.8952235e-01
 -4.7006318e-01
 -7.2719043e-01
  4.8348346e-01
 -1.1886249e-03
  1.9386596e-05
  3.2842718e-02
 -5.8924087e-04
  1.8339949e-04
  1.5492023e-04
  8.9964896e-01
  3.5084729e-05
 -1.4913466e-04
 -1.8229850e-05
 -5.4069480e-04
  1.4031910e-04
  5.8447313e-01
 -3.7016514e-01
 -1.0738292e+00
  2.5236635e-02
 -1.4224279e-01
 -3.1802370e-04
 -5.6645047e-02
  2.4258933e+00
 -4.8294333e-01
 -4.3177217e-02
  1.3461075e-02
  2.5283301e-04
  5.0502967e-02
 -3.4334475e-01
  1.1920407e-04
 -6.5432459e-02
  3.4621681e-04
 -4.8046702e-05
  5.2885352e-06
 -8.5269268e-05
 -9.0543815e-04
  3.6009605e-04
  2.0883647e-04
  6.5999862e-05
  3.9393440e-02
  9.5368814e-06
  2.7756601e-05
  3.4004622e-04
 -1.0045206e-04
 -3.1946934e-04
  3.0598938e-03
 -5.3232566e-02
  6.5290168e-02
  8.4686466e-04
 -9.0963549e-06
  2.0633937e-05
 -3.4428087e-06
 -8.8477733e-05
  1.1710058e-03
  7.5562370e-05
  4.7523266e-05
  2.6721487e-05
  5.7864971e-05
  1.2464208e-05
 -1.4932355e-01
  1.1067790e-04
 -1.5555841e+00
 -1.2275263e-02
  4.6676838e-01
  1.0324836e+00
  2.2592754e+00
 -7.8660244e-01
 -5.0257701e-01
  7.9298890e-01
  4.8082102e-02
  3.0854726e-01
  6.1430770e-01
  1.1155417e+00
  1.3219903e-05
 -1.4355196e-01
  5.5566009e-02
 -5.3106952e-01
 -5.0932670e-04
  1.0070485e+00
  2.3947813e-01
 -9.9452585e-02
  2.3381744e-01
  1.2318102e-01
 -1.3337492e+00
 -1.6325794e+00
  2.9283860e-01
 -3.1778958e-02
  3.4991261e-01
  1.4303994e-03
  5.9498453e-01
 -9.0116984e-01
 -5.0728425e-02
 -1.0378002e-01
 -9.4870702e-05
  5.5815075e-05
 -6.2381086e-04
 -1.5179635e-04
  1.5410628e-02
  2.0067289e-05
 -1.0203637e+00
 -1.3657526e+00
 -3.7433580e-01
  6.1343694e-01
 -1.4084742e+00
  5.2132750e-01
 -2.9418746e-01
  1.1293892e+00
  7.4368697e-01
 -7.3933494e-01
 -2.1495859e-04
 -1.2674398e+00
  1.1547693e-01
  1.0983824e-03
 -1.5877631e-01
  4.1019678e-04
  4.8166636e-02
 -8.6321697e-02
 -1.4294077e+00
 -7.1455231e-03
  1.1872849e-04
  1.9053513e-03
 -1.8503400e-03
 -5.1255118e-02
 -1.6466544e-04
 -1.8498980e-01
 -1.1656194e-04
 -6.3650674e-01
 -3.1265867e-01
  6.6454016e-02
 -1.5236003e-03
  6.2324936e-05
 -3.8256395e-01
 -4.4678536e-01
 -8.4569305e-03
 -1.0549601e-01
  5.1909024e-06
  1.4325124e-04
  4.9951348e-05
 -1.5534507e-04
 -1.0331572e-04
 -2.4823417e-05
 -1.7807394e-04
 -6.5307293e-05
 -2.1466530e-04
  6.1548944e-06
  1.0354089e-03
 -3.2715040e-04
  1.6699807e-04
  4.8900889e-05
  6.5816339e-06
 -3.1746954e-03
 -7.8657256e-05
  2.8312603e-05
  1.8452024e-04
 -4.0081263e-04
  2.3532884e-04
  9.5716142e-04
 -2.0949171e-04
  1.0650251e-01
  1.2030206e-03
 -5.1826002e-05
  4.9531856e-04
 -4.2320611e-05
 -5.8347829e-05
  8.8945089e-04
 -3.1335725e-04
 -1.3611963e-04
 -1.0189971e-04
 -7.1628735e-04
  2.8690905e-04
 -3.0322935e-06
 -2.2507984e-04
  5.1579368e-01
  1.3181127e+00
 -2.4694633e+00
  5.6099135e-01
  1.1463869e+00
 -2.0971787e+00
  5.9804493e-01
 -3.9514333e-01
  2.3086002e+00
 -9.4864213e-01
 -2.7611527e-01
  7.9696655e-02
 -6.1208006e-02
  1.3673605e-02
 -1.2954094e+00
  8.4099120e-01
  5.3076661e-01
 -8.0690556e-04
  1.5313730e-01
 -6.2869722e-01
  1.4643164e+00
 -4.8105767e-01
 -1.2400792e+00
  3.6390769e-01
 -1.4788873e+00
 -1.4045612e+00
  6.3933977e-03
 -2.1406062e-02
 -6.7597401e-01
 -1.5685759e+00
  5.9784210e-01
  1.8385077e+00
 -9.4969392e-01
 -5.7715651e-02
  1.0731379e+00
  5.6867158e-01
  1.0205517e+00
  5.7858413e-01
  8.9387258e-04
 -5.0842029e-01
 -1.9683520e+00
 -2.5924668e-01
 -4.1939041e-01
 -7.0908926e-02
  8.1741738e-01
  2.3829370e+00
 -3.9890259e-05
 -2.0724916e-01
 -4.6008203e-02
 -3.8108334e-01
 -6.1137986e-01
 -1.5834570e+00
  6.3686632e-03
 -6.6333905e-02
 -3.7739393e-01
  3.6407173e-01
 -2.2687369e-03
  2.7189148e-05
 -4.4430602e-01
 -3.4694943e-01
  8.3470225e-02
 -5.0321013e-01
  1.6566674e-01
 -2.4125671e-01
  1.7011199e-04
  2.1776693e-01
 -1.7781825e-01
  1.1458156e+00
  5.2231379e-02
 -4.0298097e-02
 -6.1101860e-01
 -6.2699556e-01
  4.7707689e-01
 -9.8299408e-01
 -1.3104063e-01
 -2.9225823e-01
  3.1228440e-03
 -8.9996524e-02
 -1.4499676e+00
 -1.8745577e-03
  5.9733015e-01
  6.7756343e-01
 -2.2817766e-02
 -1.6731836e-01
  2.2005221e-01
  8.6001068e-02
  1.1186441e-01
 -4.2376574e-02
  5.4347212e-04
  4.7488266e-01
 -1.4810501e-01
  2.5482261e-01
 -1.4373872e-01
  5.2664411e-05
  2.9299733e-01
  2.9797253e-01
 -1.2419769e-01
 -1.3506886e-03
 -4.0792453e-04
  6.2677965e-02
  8.8622339e-02
  1.3807558e-03
 -3.3929048e-03
 -2.2469757e-01
 -4.5879565e-02
  3.7989146e-03
  9.0694218e-04
 -3.7048190e-05
 -2.0326964e-04
  9.0125322e-01
 -6.2442058e-01
  1.5661483e+00
  2.6789699e+00
 -1.0337584e+00
 -2.3511606e-01
  2.1268862e-01
  2.6176743e-02
 -1.1760778e+00
  1.1282839e+00
 -1.9245407e-01
 -5.3193361e-01
 -4.6784973e-01
 -1.1624553e+00
 -4.0231085e-01
 -1.5442969e+00
 -2.6246765e-01
  1.7929020e+00
 -4.4142932e-01
 -6.1635876e-01
 -7.7398539e-01
 -7.8799653e-01
 -8.0593300e-01
 -1.1352497e+00
  9.4277662e-01
  6.5531701e-02
 -4.7382084e-01
 -8.4543574e-01
 -1.1403356e+00
 -2.8777673e-05
  8.6775713e-02
 -1.3900398e+00
  2.0146091e-01
  1.1282550e+00
 -1.0376071e+00
 -1.2282554e-02
 -8.5066903e-01
  7.1359999e-03
 -9.4794703e-01
 -1.6942996e-04
  7.6826490e-02
  3.6072057e-01
 -5.5611283e-02
  2.4371163e-04
 -4.1016406e-06
  1.5147036e-04
  3.0984689e-04
  4.1840954e-06
 -5.8723243e-05
  4.7204614e-01
 -5.7557154e-05
  1.1949112e-04
 -3.1618529e-05
  1.3538593e-04
 -6.0992653e-04
 -2.6781583e-04
  8.7599567e-04
  6.3449075e-04
 -4.6885187e-05
  3.2341143e-04
  9.3356171e-04
 -8.4172971e-06
  2.0959217e-04
  4.6104655e-02
  1.6780036e-04
  7.5488679e-05
  1.7250029e-04
 -2.0503504e-04
  5.3410653e-02
 -5.0376111e-05
 -6.6791027e-04
 -1.5892006e-03
 -5.0169841e-04
 -8.4634601e-05
  9.8524488e-06
  6.1134451e-05
  1.8458760e-01
  7.1787708e-02
  3.2178022e-02
  2.1407683e+00
 -5.9170741e-01
 -2.9838267e-01
 -3.1732928e-02
 -4.2052156e-01
 -8.2492852e-04
  2.3567000e-04
 -3.6322340e-01
 -3.5560612e-02
  2.0648591e-02
 -4.9549551e-03
  1.0386305e-04
  1.1522704e+00
 -1.1355560e-01
  1.6115765e-03
  2.4029551e-04
  1.5173122e-04
 -3.8477223e-04
 -4.8607507e-01
  9.5362741e-01
  1.9186934e-02
 -3.8244089e-05
 -4.7112912e-01
 -5.2304094e-05
  4.9688271e-05
 -6.6193885e-01
  4.2483885e-02
  1.3235976e-01
 -2.3162955e-02
  5.5130386e-05
 -7.1254794e-07
 -2.7884214e-05
  7.4782706e-04
 -1.1831400e-05
 -9.6216839e-04
  4.2625725e-05
 -1.3186038e-04
  4.5745273e-05
 -2.2810238e-04
 -6.8876526e-04
  8.5634441e-05
  2.1901762e-03
 -1.3620732e-04
  1.8528124e-04
 -1.8039405e-04
 -3.0145931e-01
 -7.7778013e-06
  2.1748283e-04
 -1.2451052e-04
  1.9169923e-04
  1.5272618e-04
 -8.6168970e-05
 -1.9803463e-05
  1.4574276e-04
 -1.1071771e-04
 -9.6589429e-05
 -1.2285108e-04
 -1.1951180e-04
 -1.0582690e-04
  2.2468868e-05
 -4.6032128e-05
  7.4361116e-05
 -1.1146273e-04
 -4.9981935e-04
  4.1375443e-04
  3.2073518e-04
 -7.4272793e-05
  4.9561943e-04
  4.3081940e-04
 -1.9892883e-04
 -2.4437468e-06
 -1.9184145e-04
 -4.1284213e-05
 -4.9294002e-04
  2.2745067e-01
  1.6478089e-05
 -2.6340011e-04
 -3.8093975e-05
 -7.9728762e-04
 -8.0746080e-04
  7.3124291e-05
  8.0385041e-07
  2.5693758e-04
  3.1349270e-04
  2.9938537e-04
  2.4380490e-05
 -1.8653442e-04
  4.2200139e-07
 -1.5624118e-04
 -2.5140206e-04
 -1.4227217e-04
 -2.0431623e-02
 -2.5277293e-05
 -4.8588603e-04
  2.6753356e-05
  8.8334109e-06
 -4.8258062e-05
 -1.1387950e-04
  3.2661594e-06
  9.2828186e-04
 -3.7571677e-05
  4.9168164e-05
 -2.1118985e-06
  4.3339905e-04
  2.9882477e-04
 -3.1947831e-04
 -8.0905258e-05
  5.1074574e-04
 -6.2119102e-01
 -1.9938709e-01
  2.9677141e-01
  1.9222562e-03
  6.2401617e-01
  4.5694733e-01
  3.9554598e-05
 -1.2012931e-02
  1.7605241e-01
  7.8536159e-01
  5.6149429e-01
  1.0758533e-01
  1.9072515e-03
  5.8258200e-01
 -1.1043867e-04
  4.8228469e-02
  8.0454886e-01
  3.0217731e-01
  6.5325359e-05
 -8.3586872e-02
  2.7784629e-04
  2.7682140e-04
  3.8911535e-06
  2.5294051e-01
  1.9279477e-01
  1.3034962e-01
  2.8957939e-04
  3.0638406e-04
  4.2348140e-04
 -1.1018034e-05
  5.9118229e-03
  2.7510014e-01
  3.3130223e-01
  2.1179432e-04
 -6.4569977e-05
  2.7003410e-01
  6.0183891e-05
 -8.8932216e-01
 -1.1937637e+00
  5.8482796e-01
 -9.7046798e-01
  6.0948995e-03
 -1.4852592e+00
 -2.6283741e-01
 -1.7351545e-01
 -1.3827389e+00
  4.6749175e-02
 -3.6091667e-01
  8.8983619e-01
  8.8263160e-01
  7.6704510e-02
 -2.8488412e-01
  1.6504334e-01
 -1.0382103e-04
  4.5782143e-01
  6.1126524e-01
  6.2809074e-01
  6.3130140e-01
  2.1666832e+00
 -6.4303541e-01
 -1.2205404e-01
  7.9290785e-02
  1.7164351e+00
  1.3745773e+00
 -7.6367460e-06
  7.2530288e-01
  9.5743322e-01
 -5.2297485e-01
 -1.2408142e+00
  6.6169113e-01
  9.2374682e-01
  7.7910417e-01
  1.6234845e+00
  6.1989628e-04
 -6.3834989e-01
  5.6482600e-03
  3.9989003e-03
  3.6990091e-01
 -1.4194393e-01
  1.4392367e-01
 -1.0100207e-01
 -4.0860336e-02
  5.7320076e-01
  5.9762037e-01
 -1.2312123e-01
 -5.1348448e-01
 -5.9805810e-01
 -9.8952740e-02
  3.5857817e-04
 -5.0298190e-01
  8.7276354e-02
  3.2150589e-02
  1.0108138e-03
 -8.5559353e-02
 -3.1901836e-01
 -6.8807746e-03
  9.7051159e-02
  2.2489826e-01
 -9.4005412e-01
 -8.9676723e-02
 -2.2835764e-01
  1.9684198e-04
 -3.0888370e-04
  3.3995025e-03
  9.8416227e-01
 -1.1382530e-01
 -1.8160933e-01
 -1.9134368e-03
  4.0031857e-05
  1.3733438e-01
  2.2075519e-01
  2.4744070e-03
  1.2741941e+00
 -1.1866537e-01
 -3.1186733e-02
 -1.6111563e+00
 -1.2300461e-02
 -7.4268617e-05
 -4.9463913e-01
 -5.2716428e-01
 -7.1100026e-02
 -6.9002563e-01
 -1.7616698e-01
 -3.6960980e-04
 -1.1466879e-01
 -6.5792538e-02
  6.7666890e-03
 -7.7714287e-02
  3.7095778e-02
 -1.1508442e-02
 -2.2759038e-04
 -3.6448464e-01
 -1.0292205e-01
 -3.3830733e-03
 -1.9393398e-01
 -3.9326079e-04
  4.3466224e-04
 -1.5145802e-01
 -2.7325177e-01
 -1.0832545e-01
  1.7348871e-01
  4.4253226e-03
 -1.1317410e-03
 -1.3470401e-04
  1.3974532e-05
 -1.5179717e-04
  4.2324975e-02
 -4.8766236e-04
 -2.0246220e+00
 -9.7354996e-01
 -1.1211365e-01
 -2.2694360e-01
 -1.5874947e+00
 -3.3346552e-01
 -3.5261557e-01
  3.3480147e-01
  1.5568976e-01
 -2.9435188e-03
 -2.8139785e-01
  1.2973110e-01
  2.5269595e-01
 -4.1951847e-04
 -4.7476981e-03
  5.8693260e-01
  3.8303109e-03
  7.2262323e-05
 -1.1877844e-02
 -1.1419770e-04
  3.4828982e-04
 -5.8957441e-03
 -6.5636031e-02
 -1.4000056e+00
 -5.4522514e-01
 -2.0029331e-03
  7.5617820e-05
 -4.7993730e-04
 -4.3681735e-01
 -5.4251325e-01
 -1.8844847e-01
 -2.7570993e-01
  2.3578507e-01
  5.1529333e-04
  1.3850580e-02
 -1.3345337e-01
 -3.9252474e-05
 -1.6570385e+00
  4.3771997e-01
 -2.8749546e-01
 -1.7665262e+00
 -1.0419011e+00
 -3.2939723e-01
  3.9952312e-02
  6.4051253e-01
  3.7515104e-01
 -1.0078922e-05
  4.7259897e-01
  1.8038483e-04
  8.8956731e-05
 -1.2136751e-01
  3.9691781e-04
 -1.2526466e-01
 -4.3273383e-05
 -2.9580086e-05
  5.1070154e-01
  1.3931422e-05
  1.8518005e-04
  2.1881001e-01
  2.3611565e-01
  3.9198883e-05
 -7.1520175e-05
  6.5578379e-02
  8.0075384e-05
  4.6903040e-04
 -1.7876904e-02
 -2.2058941e-02
  3.0120537e-01
  2.0520476e-04
  5.5329129e-04
 -5.9940876e-04
  2.5553480e-04
 -1.3500731e-05
 -8.7813404e-04
  4.9496731e-01
 -2.2785880e-05
 -1.3161535e-04
 -1.1097338e-04
 -3.4461478e-05
 -1.4579796e-03
 -3.8885111e-05
 -1.3664631e-04
 -4.6387420e-04
  1.3838895e-05
  3.5636345e-04
 -1.3070136e-04
  2.6566631e-01
  2.0319891e-05
 -4.1266288e-05
  2.0523224e-04
 -2.4594754e-06
 -1.2660268e-04
 -1.5779879e-03
  5.6850440e-05
 -8.7059329e-05
 -1.4448591e-04
 -1.0649047e-03
 -2.6043833e-03
  2.2907040e-01
  5.8353954e-04
 -3.4519806e-05
 -2.6592982e-04
  3.9927009e-04
  4.2307151e-05
  3.8961472e-05
  3.8667153e-05
 -1.0725608e-04
  6.1720631e-05
  2.2548356e-04
  3.1118642e-04
  8.3340652e-05
 -7.3474959e-02
 -2.0114087e-01
  4.4997048e-01
 -6.2863350e-01
 -3.0685402e-05
 -8.0397651e-05
 -4.8567861e-01
  1.5411660e-04
  2.2073584e-05
 -6.4039476e-02
  1.6317143e-03
 -1.0677577e-04
  1.0392043e-03
  8.4236410e-05
 -7.5811578e-04
 -2.9688337e-04
 -1.3205763e-04
  8.8613051e-06
 -7.3175099e-05
  2.4512349e-04
  8.8563131e-05
  7.2671057e-05
 -5.6864205e-04
  6.1718476e-01
  6.3698462e-05
  9.5822436e-01
  7.7860968e-05
  1.3712659e-05
  6.7116856e-04
  3.9392547e-04
 -1.0533257e-03
  2.6370916e+00
  3.5241600e-03
  2.0851082e-06
 -4.0409530e-05
 -4.3662364e-04
 -8.4273761e-06
  4.0342152e-01
  1.4818395e+00
 -6.7490906e-01
  2.7731137e-02
 -1.6004419e-01
 -3.1146508e-01
 -5.4090452e-01
  3.4529287e-02
  5.6761974e-01
 -2.9761114e-04
 -8.9172512e-01
  1.3704182e-02
 -9.9454928e-06
  5.3388958e-05
 -6.3150370e-01
  4.0616027e-01
  9.9584274e-04
 -7.4126320e-03
 -1.5814736e-04
 -1.3181657e-04
 -1.9797804e-04
 -9.9257730e-02
 -1.8829900e-01
 -3.6358308e-02
 -1.5278810e-01
 -2.9732345e-04
 -1.5577220e-04
  6.4328859e-05
 -2.6160115e-01
 -2.3829621e-04
  9.7271074e-03
 -1.4688301e-01
 -2.4139554e-04
  6.1464329e-05
  1.1404238e-04
 -9.5192158e-01
  1.2237244e-04
  3.6734024e-01
 -1.4564332e+00
  9.8702379e-02
 -4.6582597e-01
 -7.4874784e-05
  3.3096503e-04
  2.7951093e-05
 -4.5750505e-01
 -3.7998191e-01
 -8.2119741e-02
 -3.7810788e-01
 -3.6139169e-05
  2.0999594e-05
 -1.5379467e-04
 -5.1140791e-04
  1.0440228e+00
 -2.9743854e-02
 -1.4329348e-03
 -4.4610449e-03
 -4.5150681e-04
  1.5684996e-04
  6.2681211e-05
  1.0700021e+00
 -1.1222742e-01
  1.6368463e-04
 -3.0849269e-01
 -2.5278702e-03
  1.1551789e-05
 -2.8188327e-01
 -4.6912596e-02
 -1.0494628e-02
  1.8870883e-04
  1.0378475e-04
 -1.9169238e-04
  4.6971758e-04
  4.7441274e-02
 -3.0420565e-03
  2.1303806e-04
  5.8980459e-05
  2.3933830e-04
  7.8145720e-05
 -1.0399763e-04
  1.3547657e-04
 -3.4810288e-05
  5.2158034e-04
  2.5135468e-04
 -3.0343668e-04
  1.3185860e-04
  3.7253572e-04
  5.5842957e-04
 -2.1798279e-04
 -5.7778129e-06
 -2.6192845e-04
  2.8405499e-01
 -1.3939654e-04
  6.8153917e-05
 -9.8528035e-05
  1.5665950e-04
 -1.6992587e-04
  2.7485736e-05
 -6.8410605e-05
 -3.0690609e-04
 -1.8441878e-04
  4.3124202e-04
 -7.2050963e-05
  8.8594061e-05
 -1.8955555e-04
 -7.0415776e-06
 -2.3078472e-05
  4.5970191e-05
 -4.2926516e-05
  5.5778011e-05
 -9.1710572e-05
  9.4620103e-05
  2.3097473e-01
 -1.1836302e+00
 -3.3941808e-01
 -4.8570269e-05
 -2.4660754e-01
  6.7454535e-01
  1.4335150e+00
  4.2761821e-01
 -1.4575257e-04
  6.9507625e-04
  2.6325461e-01
 -1.8942561e-04
 -2.7098108e-04
 -1.4798325e-01
  1.5445554e-04
  1.3486798e+00
  3.3167860e-04
 -1.0543275e-01
 -1.8042238e-01
 -2.8192840e-04
  1.4278496e-04
 -1.6901535e-01
  1.6302189e+00
 -2.6408490e-05
 -7.9642993e-01
  1.9944896e-01
 -6.8212757e-05
  6.0068571e-05
  3.8771191e-01
  2.0109809e-03
 -1.4204881e-04
 -2.6656138e-02
 -2.1869321e-01
 -2.2168306e-03
  2.1778618e-04
 -2.3029014e-01
  3.4452659e-01
  2.4557830e-01
 -9.7564586e-02
 -1.9921835e-01
  5.0556833e-01
  7.9982495e-01
 -6.5718007e-01
  1.4240476e-01
 -2.4594381e-05
 -1.3360961e-01
  7.5632124e-05
  1.6805783e-03
 -1.5421686e-02
  4.3829661e-04
  2.3037977e-04
 -3.0445325e-01
  7.8334272e-02
 -4.0321457e-04
  1.1066534e-01
 -3.7007114e-01
  1.5508071e-04
 -1.7232236e-01
 -6.8670404e-01
  2.2787800e-01
 -9.7595632e-02
 -1.0691176e-04
  3.8960912e-05
  8.3026323e-05
 -1.4574557e-04
 -4.5061424e-01
 -1.0052440e-04
  1.7917060e-04
 -2.1788331e-02
  9.5941847e-05
  5.2148730e-01
 -3.4212961e-05
 -7.4853608e-03
  2.6637455e-04
 -3.1237134e-05
  4.7019464e-01
  7.4175291e-02
 -9.6389991e-01
 -1.1264525e-01
  2.5580282e-04
 -1.8692903e-02
  1.7867362e-01
  6.2796362e-02
 -8.2781364e-05
 -3.5429159e-01
 -9.1135371e-05
  3.9012550e-04
  5.3108797e-05
 -1.6218980e-04
  1.4231067e-04
 -2.4593461e-04
  2.4340618e-04
  4.0544757e-05
  1.4391970e-03
  2.4285539e-04
  6.9471856e-04
 -5.4909283e-01
 -2.1234155e-04
  1.1667935e-04
  8.0429757e-04
 -3.2402372e-07
  1.6858383e-05
 -7.6230463e-06
  4.2880030e-04
 -3.0817026e-03
  1.9640479e-02
 -1.1776490e-04
  1.0104690e-04
 -5.4149757e-05
 -3.0346963e-04
 -9.8742242e-04
  2.4678771e+00
 -3.0408943e-02
 -1.3688740e-01
  1.3361614e+00
 -2.6670876e-01
  5.0736952e-01
  1.6630751e-01
 -3.0711187e-02
  5.3337924e-02
  6.4160235e-02
  4.8073900e-01
 -3.2523531e-01
 -9.5765717e-02
 -3.2831547e-05
 -7.5324982e-02
 -9.6904792e-02
  1.3221888e-01
 -7.1154988e-01
  1.4101258e-03
 -4.4297710e-01
 -4.2360733e-04
  5.0694071e-04
  1.4509565e-01
 -4.3611802e-04
  1.6522941e-05
 -1.7446440e-03
 -5.5773696e-04
 -3.4038839e-04
 -3.3082670e-01
 -2.0354454e-01
 -3.9047542e-01
 -9.8497170e-01
 -1.0625030e-03
 -3.5343543e-01
 -1.7407002e-04
 -4.2898226e-01
 -3.7741738e-05
  8.2847121e-04
 -6.7874841e-02
  3.3751822e-01
 -1.2039278e-03
 -7.4889511e-01
  2.3958581e-03
 -6.4192939e-01
  1.0124599e-01
  2.0522569e-04
 -9.0142872e-05
 -3.8346510e+00
 -4.2229303e-06
  3.4778145e-01
  5.8511868e-03
  3.0071011e-01
  2.2164488e-04
  1.7868340e-04
 -1.5997910e-04
 -7.9553683e-05
 -9.6590164e-05
 -1.4846586e-04
  5.3809363e-05
 -2.9817061e-03
  9.8295504e-01
 -1.5160543e-04
  4.5305444e-03
  7.4624753e-05
  2.5551018e-04
  2.6457694e-01
 -3.5539924e-05
  1.7203653e-04
 -1.3862459e-01
 -1.3468176e-04
 -3.4558623e-05
 -1.4490190e-04
  2.4917809e-04
 -3.7507420e-05
  2.8169572e-02
  5.3878021e-01
  1.5814674e+00
 -1.5195222e+00
 -1.1220175e+00
  8.8266068e-04
 -1.5645026e-01
 -7.5724936e-01
 -3.6178532e-01
 -1.8344569e-04
 -1.1948306e-01
  5.9287256e-01
  6.3837451e-01
  1.8715175e+00
  9.0193236e-03
  2.1383947e-01
  3.1957275e-04
  7.9567671e-01
  7.5171214e-01
  1.2733709e+00
  9.0254104e-01
 -1.3276519e-01
 -6.3402723e-03
  6.1132933e-04
  1.4198052e-03
  2.5976336e-02
  9.4201487e-01
  9.5249271e-01
  3.3533707e-02
  4.9638873e-01
  1.5859870e-04
 -3.5308713e-05
  1.1083062e-04
  1.4318734e+00
  1.1780447e+00
 -5.6969279e-01
  5.7963204e-02
 -4.5089394e-01
  3.7650928e-01
  4.7298884e-01
  1.2630358e+00
 -1.6786851e-02
  1.0575321e-01
 -8.4720731e-02
 -3.0049476e-01
  4.2974465e-03
 -5.8793765e-04
 -3.9899448e-01
  1.9567285e-01
 -1.3150340e-01
 -7.8062563e-05
 -5.4042193e-05
 -1.0261662e-01
  7.9415040e-04
 -4.0674422e-04
 -1.3033090e-04
 -5.5602647e-04
 -3.9363487e-04
 -3.1039640e-02
 -9.3731004e-01
 -1.0967646e-04
 -5.7133830e-01
  2.1351414e-04
 -7.3219526e-05
 -1.7184280e-03
  1.9175768e-02
 -7.9884194e-04
  2.6435903e-01
  2.2428753e-04
  1.5742829e-05
  2.9915683e-03
  8.3596824e-05
  1.9093809e-01
  1.1019938e-03
 -1.6011784e-02
 -2.9359484e-01
 -1.7001908e-01
 -4.2983569e-02
 -1.4946001e+00
 -1.0449989e+00
 -2.0675306e-01
  3.8954090e-02
 -2.0013287e+00
 -6.8597734e-01
  1.4002027e-01
  3.5948521e-01
  3.7820512e-01
 -5.9428066e-04
  6.1377478e-03
  9.4558620e-01
 -1.8017362e-04
  7.3661715e-01
 -3.8794700e-02
  4.0764499e-01
  1.2018742e-01
  2.4859764e-01
 -1.7348055e+00
 -1.2707476e-04
  1.6489135e-01
  1.5953826e-02
  6.0376263e-01
  2.8247994e-01
 -1.2171960e-02
  8.0825132e-04
 -2.5589097e-01
  2.4072985e-01
  8.9951878e-05
  1.5233743e-01
  1.3126015e-04
 -4.4203117e-02
 -3.3273816e-04
  5.9591550e-03
 -1.7556608e-04
  1.5649043e+00
 -1.0727527e+00
 -3.4862369e-02
 -2.5338377e-05
  2.6823708e-04
  3.4419762e-04
 -4.3469602e-01
  5.6220661e-06
 -1.0766977e-03
  2.3196108e-04
 -1.1560157e-04
 -3.8765973e-04
 -1.8444711e-02
  1.3238470e-01
 -1.9374861e-04
  7.7739242e-05
  6.2446547e-05
  7.2437382e-05
 -1.4839706e-04
  5.6481356e-04
 -1.7995028e-01
 -4.1380823e-05
  2.3272194e-04
  5.4749697e-05
 -5.6096109e-05
  2.6521746e-05
 -8.6262851e-05
  1.9990322e-01
  1.1570801e-01
 -3.4665700e-05
 -1.2175054e-04
 -5.4939654e-05
  4.0138263e-04
  1.2732037e-04
  2.4530906e-04
 -1.8056823e-01
  4.3204776e-03
  4.6017072e-01
 -1.4693159e-01
  3.0173604e+00
  7.1290843e-02
  3.0610143e-05
  3.4376138e-04
  3.4066379e-05
 -4.1895130e-04
 -5.4929958e-04
 -1.1968923e-04
  1.9674977e-04
  2.0937950e-04
  8.3683546e-05
  6.4624575e-05
  2.2352835e-05
 -4.2407829e-02
 -3.8570716e-04
  9.0369329e-02
 -2.9616629e-05
  3.8743572e-04
 -4.6713784e-02
  2.0474422e-04
  5.2660689e-05
  2.5507077e-04
  1.2904638e-01
 -1.6452098e-04
  1.9756447e-01
 -5.2201845e-05
  1.4394938e-04
  6.2586744e-03
 -1.3500218e-08
 -5.2420040e-05
  7.0381084e-06
 -1.2593524e-04
 -3.3155252e-04
 -1.9663664e+00
 -2.1385369e+00
  1.1955372e+00
  1.0628029e-02
 -2.1312907e+00
  2.0284085e+00
 -2.1490912e-01
 -1.2975073e+00
 -6.8026346e-01
  1.3352500e-01
 -1.2202897e+00
  2.4575303e+00
 -8.3865404e-02
  1.7208126e+00
 -8.3676696e-02
 -1.7961285e+00
 -3.9839731e-03
 -9.2609012e-01
  2.3639400e+00
 -1.7338604e+00
  3.1706211e-01
  5.6906873e-01
 -2.3685422e+00
 -1.4765755e+00
 -1.4860443e+00
  8.8503742e-01
 -1.5337236e-01
  4.5865953e-01
  4.1844016e-01
 -3.4090292e-01
 -1.0835942e+00
 -6.6003859e-01
  2.1207619e-01
 -7.8099431e-03
 -2.6025602e-01
  3.8391611e-01
 -6.9479144e-01
  5.7383830e-04
 -9.8230362e-01
  9.9295509e-01
 -4.5990746e-02
  9.6491778e-01
  4.7934130e-01
  3.5613295e-02
 -9.9971359e-05
  2.5209707e-01
  1.9671250e-02
  1.8691720e-01
  3.4936619e-01
  1.5936157e-04
  4.1153586e-01
 -4.6576923e-04
  1.2733249e-02
  1.1386249e-04
  3.9795825e-01
 -2.8999344e-02
 -1.4555514e-05
 -2.6730229e-05
 -1.7761433e+00
 -1.7680464e-02
 -2.7433861e-04
 -2.0867069e-01
  5.6997561e-01
  1.8138239e-01
 -5.5562943e-04
  7.0817393e-01
 -1.0069365e-03
 -5.7011890e-01
  6.7618029e-04
 -5.0024686e-05
  1.8750369e-03
 -3.9518482e-04
 -6.3506293e-01
  2.9014112e-05
 -7.6997632e-05
 -2.2443413e-04
 -1.0073501e-05
  2.8243740e-04
  3.5925466e-05
  9.5807615e-04
  1.0635753e-04
  2.0163228e-04
  8.9491667e-05
  2.8883986e-05
  4.7965787e-05
  8.1100588e-04
  2.4624166e-04
  1.1006630e-04
 -2.0027277e-04
  1.2167294e-04
 -5.8069258e-05
 -3.1426098e-04
  8.0760648e-05
  2.1657124e-06
 -1.3323360e-04
 -1.6404971e-03
  4.7796035e-05
  6.2709808e-02
  4.0891515e-05
 -1.0082405e-05
 -2.0671770e-04
 -2.8708497e-05
  1.0395077e-04
 -1.8412063e-03
  8.8268469e-05
  2.1025407e-05
 -1.6008466e-05
  1.0830216e-04
  4.2941218e-04
  6.0561678e-04
  5.1205083e-05
 -7.9467303e-05
 -7.7135005e-04
 -1.8305263e-04
  2.8722011e-04
  7.0817844e-04
 -1.3655277e-04
  6.0399176e-05
 -2.9310981e-05
  9.5716707e-05
 -1.5588608e-04
 -2.9332124e-04
  1.2589683e-05
  6.7601890e-05
  2.2110826e-04
  3.9551427e-04
  5.7969362e-05
 -2.4315045e-04
  4.5022866e-06
 -3.1763815e-05
 -1.3608685e-04
  2.9340998e-04
 -1.3488499e-04
 -9.4209747e-05
 -6.1639912e-05
 -7.4944855e-04
  2.4658535e-04
  4.9499173e-05
 -1.8757554e-04
 -2.7617990e-04
 -9.1339991e-04
  1.6495718e-04
  1.8199081e-04
  1.4663338e-04
  3.9749488e-04
  4.8330974e-05
  8.8502275e-05
 -2.4137057e-04
  6.0837792e-05
  1.0230079e-04
 -9.0117646e-05
 -4.0309696e-04
 -1.0263527e-04
 -3.6638125e-05
  1.2543204e-01
  8.3377323e-05
 -1.4790340e-01
 -1.9773658e-04
 -1.3283868e-02
  3.4233773e-05
  5.7668667e-02
 -6.8654686e-02
  3.1731732e-04
  3.6173898e-01
 -1.4354316e-04
 -1.0687627e-04
 -3.2264824e-04
  7.5500669e-05
  1.3897830e-04
  1.8472815e-04
 -7.6456010e-05
  1.2857834e-03
  9.4351411e-04
  3.1471034e-05
  9.8043005e-05
  7.6047327e-05
 -1.2754239e-04
  7.6955382e-04
 -1.2074086e-01
 -8.1662938e-06
  5.9052980e-01
  5.0141844e-05
 -1.7189727e-06
 -1.5252672e-05
 -1.0809558e-04
  2.4388413e+00
 -2.1908710e-02
 -1.5683397e+00
  3.9824483e-01
  1.4783840e+00
 -2.0778285e-01
 -7.4497718e-01
  8.2324341e-02
  5.3221792e-01
  3.5464093e-01
  4.1822857e-01
  1.9528246e-01
 -2.1277432e-04
  2.1227625e-01
  5.4061049e-01
 -6.9743574e-02
  8.6102349e-01
  8.5508607e-02
  9.8542392e-01
  8.9682889e-04
 -7.8211502e-05
  9.3467049e-03
 -6.5262601e-02
  3.1227508e-01
 -2.9389849e-01
  5.2971276e-04
 -2.2720316e-01
  1.6678567e-01
  2.5394734e-02
  2.4758062e-01
  1.5085013e-01
  8.3742261e-01
 -2.4879173e-05
  2.7664968e-01
 -4.6510781e-05
  6.4565063e-02
  4.7498122e-01
  8.5546327e-01
  2.8478965e-01
 -6.6533297e-01
 -1.5935086e+00
 -8.1282997e-01
  4.2431498e-01
 -1.2690769e+00
  3.8461974e-01
 -1.2285105e+00
  1.2437781e+00
  2.9643238e-01
 -7.5546026e-01
 -2.2361659e-05
  2.0179029e+00
  1.7099782e+00
  5.1487362e-01
  7.8160614e-01
 -1.6578053e+00
  9.0200627e-01
 -1.2570424e+00
  2.4700591e-02
  1.9064681e-01
  9.8213446e-01
 -1.6532626e-04
 -3.5595039e-01
 -1.1294398e+00
 -3.8495797e-01
  3.4775808e-01
  8.3122951e-01
  1.8925697e+00
 -9.3085164e-01
  7.0036262e-01
  1.7501988e+00
  8.1960523e-01
 -1.0712645e+00
  1.1375139e+00
  1.3970748e+00
  5.5826670e-01
  1.0426939e+00
 -1.7023216e+00
 -4.5048884e-01
 -2.2821282e-01
 -1.1649382e+00
 -1.1102014e+00
 -2.7204090e-01
  1.3314698e+00
 -2.1236584e+00
 -1.3129338e+00
 -1.1974577e+00
  2.1582651e-04
 -8.8011521e-01
 -1.9485598e-05
 -2.9847546e-02
 -3.5311457e-02
  9.1589248e-01
  5.9220952e-01
  6.0405040e-01
  7.0709372e-01
 -4.3349028e-01
  7.3191812e-05
 -1.8566029e-01
  4.4366735e-01
 -6.7603177e-01
  3.4470001e-04
  2.6508451e-01
  1.1280994e-04
 -4.4068098e-01
  1.1126397e+00
  7.6311834e-02
  1.0148418e+00
  5.8033133e-01
 -1.4529377e+00
  4.5981142e-01
 -1.6411915e-01
 -9.6198958e-01
 -7.0488617e-02
 -1.6156489e-04
 -1.8627757e-04
 -2.7741903e-01
  1.6778363e+00
  4.5077760e-02
  3.2208410e-01
  7.8765184e-01
 -4.5113131e-01
  4.0036497e-01
 -1.3972468e-02
  1.5785262e-02
  9.6957505e-02
  6.9352061e-02
  6.7641765e-01
  7.6961553e-01
 -2.8427199e-01
 -1.5928873e-01
 -1.2508330e+00
  1.6650757e-01
  5.0928575e-01
 -1.2665184e+00
 -3.7027329e-01
  7.5994775e-02
 -7.3194599e-01
 -1.6438979e-01
 -9.2026182e-02
 -8.0858357e-02
 -7.5584754e-02
  3.0609566e-01
 -1.2253089e+00
  7.7795617e-02
 -1.2827884e-01
  6.9936633e-01
  1.4186926e-01
 -5.3893417e-01
  4.9645886e-01
 -6.0849134e-02
  2.3155937e-01
  1.6872747e-01
 -5.1676983e-01
 -7.9878324e-01
 -2.1134488e-01
  4.6288782e-01
  7.3959452e-01
  2.7986717e+00
  1.1286163e+01
  2.6104975e-04
  2.2494327e-01
  1.4861383e+00
 -1.8002866e-01
 -4.7665522e-01
 -1.6928639e+00
  1.3147566e+00
 -2.6753471e+00
 -1.2888930e+00
 -4.6553391e-01
  1.1783879e-03
 -1.1158740e-03
  1.3799981e-04
  7.6903607e-06
  4.1348773e-01
 -3.1003465e-03
 -9.6136272e-01
  1.0359195e+00
  2.0648007e-01
  3.5998830e-01
 -2.4416870e-01
 -3.1534184e-04
  7.9693735e-02
  1.4767292e+00
  2.3002458e+00
 -3.5757084e+00
  2.7266760e+00
 -3.7812489e-01
 -1.2613119e+00
  1.4151994e+00
  1.9621668e-02
 -5.9900660e-04
 -4.2214151e-02
 -3.6241767e-01
  1.8087317e-01
 -2.5176380e+00
  1.5216611e-01
  1.7557453e-03
  6.9262199e-02
 -4.3617304e-02
  8.8723880e-01
 -4.6559301e-01
 -6.4945883e-01
 -2.6108074e+00
  2.3935640e+00
 -9.6133437e-05
  3.1779800e-02
  2.9763642e-01
 -1.0122802e+00
 -8.7599611e-01
  1.7246500e+00
  8.4839603e-03
  1.2928554e+00
  2.1596696e+00
 -3.4525017e-03
  1.4379041e-02
  1.4295899e+00
 -7.9088801e-01
 -1.6979385e-02
  6.0850191e-01
 -6.2700254e-01
  3.7948430e+00
  2.6579602e+00
  1.6493064e-01
 -4.3162839e-03
  8.4100419e-01
 -2.0664991e-01
 -1.0375059e-01
  1.0279846e+00
 -2.2589400e-02
  3.1824845e-01
 -5.8139330e-01
 -3.6415599e-02
  8.0218777e-02
  1.3136156e+00
 -6.0584658e-01
  2.5886467e-01
  1.8969154e+00
 -1.3698231e+00
 -3.0581822e+00
  1.1339084e-01
 -1.7607929e-01
 -1.2677863e-01
  1.4010196e+00
 -1.5140229e+00
 -1.8292270e+00
  1.7638022e+00
 -1.8501800e-01
  1.6320018e+00
  1.4284517e+00
  1.2983166e-04
  3.8066613e-05
  5.7530665e-01
  1.5125902e-03
 -5.0503961e-03
 -6.9270211e-01
 -5.1771557e-01
 -2.6318545e+00
  2.4337516e+00
 -1.0636853e-02
 -1.6040069e-01
 -1.8280061e+00
 -1.2905405e+00
 -5.4001355e-01
 -9.4360834e-01
 -1.2327187e+00
 -1.1987479e+00
 -2.8369062e+00
  6.7128724e-01
  1.4710547e-04
  1.6184624e-01
  5.4509014e-01
 -1.9390967e+00
  8.1583746e-02
  7.6939307e-02
  2.7728555e-01
 -5.7910925e-01
 -1.8472290e-01
 -1.8300438e-05
  5.8863121e-01
 -1.8317240e-01
 -5.8727048e-02
  5.5081129e-01
 -1.6038822e+00
 -1.2055775e+00
  2.3658898e+00
  4.2432126e-01
  2.1679954e-01
 -2.3980895e-02
 -7.7255702e-01
 -2.3588516e-02
  4.5484787e-01
  1.1490607e+00
 -1.0644606e+00
 -5.4958832e-02
 -1.6042883e-04
  8.6574936e-01
  1.0075738e+00
 -5.3030390e-01
 -2.5676513e+00
 -5.9935892e-01
 -6.5592222e-02
  1.0113982e+00
  4.3574494e-01
  6.9208531e-06
  9.1815782e-01
 -1.8331587e-03
 -1.9086584e-01
 -1.6268220e+00
 -6.7976838e-01
 -1.4535494e-01
  7.8152603e-01
 -4.7058236e-02
 -1.4144695e+00
  1.9592246e-01
  9.2959386e-01
 -1.3970925e+00
 -8.5161519e-01
  1.0301883e-01
 -2.5971347e-01
 -4.9679732e-01
  6.1956561e-01
 -7.8512626e-03
 -1.4641042e-01
 -3.3708308e+00
 -8.4539747e-01
  2.6448112e-04
 -7.0258749e-01
  4.2343244e-02
 -1.4828475e+00
 -8.3139753e-01
 -1.0462121e-04
 -8.4823012e-05
  8.6603846e-05
  8.8587607e-05
 -3.7091476e-04
  1.7812032e+00
 -2.6250815e-01
  1.1224369e+00
  1.1515458e+00
  8.4813148e-02
  4.3642968e-01
  1.4961494e+00
  8.9032845e-05
 -3.8147715e-05
  5.3145057e-01
 -6.7224539e-07
 -1.4666940e+00
 -5.9960645e-02
 -1.0364182e+00
 -1.1296189e+00
  3.0750616e+00
  5.3248233e-01
  1.5577838e-01
 -2.1796656e+00
  2.5888569e+00
  7.5134188e-01
 -7.7154958e-01
  6.3905299e-02
 -5.6042889e-05
 -2.1376483e+00
 -1.6318319e-05
 -2.4457931e-04
 -7.8133345e-01
 -1.0059143e+00
  3.6034861e+00
  5.0456083e-01
  1.1806126e-04
  6.6433460e-02
 -7.2004478e-03
 -3.5747966e-01
  6.2295234e-01
 -6.8262118e-01
 -8.1021202e-01
 -4.5823067e-01
  8.0646455e-01
 -9.3524247e-01
  3.8337740e-01
  1.3769023e+00
 -2.5039384e-01
 -1.1790529e+00
  1.4011827e-05
 -6.1699408e-01
 -1.9599377e-01
  1.7392633e+00
  3.3934004e-04
  6.6965796e-02
 -8.0607915e-01
  2.4028731e-04
  3.1698704e-01
  2.4567943e+00
  1.6526483e-05
  1.7813358e+00
 -2.6775676e-01
  5.2301504e-04
  1.0223780e-01
 -1.2271999e+00
  1.0701733e+00
  2.2940751e-05
 -5.6819856e-01
 -1.7145972e+00
  4.8576552e-01
 -1.2927279e-01
 -4.0960567e-05
 -7.0351833e-01
  8.7242883e-01
  9.9907279e-02
  1.5238036e-01
  1.3792859e+00
  4.6400997e-01
 -1.3095777e+00
  5.0123197e-01
 -4.8378407e-04
 -3.0037176e-04
 -2.4047677e-04
 -3.3643388e-05
  1.2074376e-04
  7.1509159e-04
  4.9953131e-05
 -6.6956272e-05
 -3.4367037e+00
 -2.4325681e-04
  1.2142525e-04
 -5.9805441e-01
 -1.7261310e-04
 -1.1821660e-01
  6.3218462e-01
 -4.6804613e-01
  2.9620627e-01
 -2.5447372e-01
 -2.0161428e-01
 -9.1308010e-01
 -1.0219431e+00
  4.7101086e-01
  1.2468430e-01
  3.1529921e-01
  1.4004931e+00
  1.8541304e+00
 -1.3847024e+00
 -6.1684623e-05
 -2.1007494e-05
 -1.2018961e-01
  6.6215500e-05
  1.6344708e-05
  1.4953542e+00
  1.8357282e+00
 -5.3260815e-01
  2.9673794e-01
  6.1294828e-02
  7.9076761e-01
 -1.5435929e+00
 -2.9418455e-03
  3.8331911e-01
  4.8224220e-01
  2.4346964e-01
 -1.2973855e+00
 -1.4714984e+00
 -4.3062514e-01
 -8.8343942e-01
 -7.5613630e-01
  3.4060419e-02
 -1.3957162e-01
  7.4622595e-01
  6.0504764e-01
  4.6654701e-02
 -1.7174248e+00
  5.7637608e-01
  8.8406690e-05
  1.6690893e-01
  5.2458001e-04
  8.3154917e-01
  3.9149535e-01
  9.3483311e-01
  4.5903143e-01
 -3.5714276e-02
  6.4205498e-01
  3.0475578e-01
 -6.7624342e-01
 -2.9892468e-01
  1.4580268e-04
  8.4696907e-01
  2.0691502e-01
  5.8588213e-01
  2.7565211e-01
  1.9055209e-01
  9.7048536e-02
  5.0988841e-01
  8.2646005e-02
 -6.4666480e-02
  2.4261104e-01
  9.6348584e-01
  1.3745296e-01
  1.0796741e+00
  5.7899591e-04
 -2.0131971e-05
  4.6753533e-02
  6.5280547e-05
  5.7702076e-05
 -6.2644392e-01
 -8.7231920e-06
  5.3265807e-04
  1.0963243e+00
 -8.3163865e-03
 -6.2142730e-02
 -1.0927848e-04
  1.3686591e-01
 -1.5004012e-01
  1.2434244e+00
  1.7620850e-04
  1.3192616e+00
  2.5381431e-02
  4.4171542e-01
  2.4736275e-01
  1.3971133e+00
  6.1471772e-01
 -2.0812331e-02
 -4.4966605e-01
  9.2505574e-02
  2.4635527e+00
 -1.4123000e+00
 -4.1300576e-04
 -1.9486513e-04
  1.1540571e+00
 -7.0221351e-05
 -4.5775867e-01
 -1.3652543e+00
 -1.0787117e+00
  8.4953022e-01
  5.6297249e-01
 -2.0578751e-04
  6.5665081e-02
  2.4081025e-01
 -8.9833945e-01
  3.6845201e-01
 -2.4467032e+00
  9.8266071e-01
  2.4883199e+00
  1.0878465e+00
  2.7672553e-01
  5.9112537e-01
  5.0613922e-01
 -4.3876672e-01
 -4.7003664e-02
 -2.4230810e-01
  9.5358223e-01
  4.9207154e-01
  3.1109232e-01
 -1.1395061e-01
  5.6466105e-04
 -7.2339040e-01
 -2.9723415e-01
  4.5063102e-04
  1.2535059e-01
 -9.4911754e-01
 -1.1943787e-01
 -4.9954349e-01
  7.6174162e-02
  1.5700856e-02
 -2.9674140e-01
 -2.1470711e-01
 -1.1732658e+00
  1.5586780e-01
  1.7936234e-01
 -6.2402582e-01
  3.2035801e-01
  2.8950635e-02
 -5.3003848e-01
  1.5572190e+00
 -9.3417138e-01
  4.6171677e-01
 -1.3108975e+00
 -1.3395283e+00
  8.8382220e-01
  4.5720929e-01
 -1.3503068e-04
 -2.9875772e-04
 -1.2811291e+00
  3.9003706e-05
 -6.5046625e-05
 -3.7301460e-01
  2.4351780e+00
  1.9796464e+00
 -2.0866623e+00
  4.7959998e-01
  6.6200364e-01
  3.2208097e-01
 -1.2097440e-01
  1.1624674e-02
 -8.7756073e-01
 -5.3334337e-05
 -2.6012942e-01
 -4.5837930e-01
 -8.7641472e-01
  9.6815139e-01
 -2.8945571e-01
 -1.2084807e+00
 -6.5955508e-01
  1.8484362e+00
  9.3303556e-03
 -9.1622710e-02
  9.6810661e-02
  1.7229047e-01
  6.0874521e-04
 -1.0076283e+00
 -1.8539721e-01
  2.6359500e-03
 -1.9421172e+00
 -2.6552117e-01
  2.5690904e+00
 -2.0491178e+00
  3.9266205e-01
  3.5294867e-01
 -2.3968430e+00
 -8.0686671e-01
  2.2543296e-04
  2.0336347e+00
 -5.2719331e-01
 -2.9644303e+00
  6.2006658e-01
 -5.0338686e-01
  6.7066485e-01
  2.0025160e+00
  2.4533765e+00
 -3.3049035e-01
  2.1786792e+00
 -1.0813762e-02
 -1.3511274e+00
  6.8666697e-01
  8.4721334e-02
  3.4137478e-01
  9.9331605e-01
 -7.2366118e-02
  7.9493338e-01
 -5.6452179e-01
  6.2404716e-01
 -6.3388258e-01
  1.0178316e+00
 -6.3239396e-01
  8.6100787e-01
  1.6685822e+00
  6.3165504e-01
  6.6453904e-01
 -8.9352024e-01
 -4.4989231e-01
  5.9943175e-01
  3.4566730e-01
  2.2343213e-05
 -3.1426040e-04
 -4.9282154e-01
 -7.2387964e-01
  2.6011124e-02
  2.4099876e-01
  2.6125622e-01
  2.6584539e-01
 -4.4752473e-01
  1.6243679e-04
  6.2796600e-05
  1.7584322e-04
  2.1886804e-04
 -1.3949327e-05
 -4.0936671e-04
  1.5696981e-04
  2.2667542e-04
 -6.5505519e-05
 -2.2354546e-01
 -1.6447787e-01
  3.0684480e-01
  7.3749207e-02
  5.1601022e-01
  1.7523220e+00
  6.2431616e-04
  2.3147637e-02
 -3.0468658e-01
  6.2462139e-01
  1.2794917e+00
  1.4300380e-02
  6.0227517e-02
  4.1803338e-02
  1.0583729e+00
  1.7588292e+00
  2.1940014e-01
  1.8278250e-01
 -1.9494873e-02
  3.8207963e-05
 -2.2346611e-01
  2.3566805e-01
  1.8039925e-04
  3.9896312e-01
 -1.1493626e-04
 -7.7474921e-05
 -5.3922087e-01
 -6.9205248e-04
 -1.0668848e-01
  4.4703913e-01
  1.5796262e-05
  9.9185213e-02
  7.5605106e-01
  5.5137181e-01
  1.7545474e-01
 -6.0719292e-04
  5.4803646e-01
  8.8718057e-01
  6.8787819e-01
 -4.4512877e-04
  3.5246211e-01
 -6.4494061e-01
  1.1067544e+00
 -1.2083033e+00
 -1.0101152e-02
 -7.4033983e-02
  4.5908950e-05
 -7.7963507e-01
  1.0314412e-01
 -1.0118911e-01
 -1.2556074e+00
  9.4011521e-01
 -9.5430531e-02
  4.3322203e-01
 -1.3316855e+00
 -3.6243191e-03
  9.3560576e-02
 -2.1339150e-01
  7.6468986e-01
  1.0789601e+00
  9.1427374e-01
  1.6053569e+00
  1.8548220e+00
 -1.1350834e-03
 -3.8004124e-01
 -3.6989592e-02
  1.1634187e+00
  7.7716005e-01
  1.3833418e+00
 -5.2494532e-01
 -7.5859857e-01
  1.8642493e+00
  4.6844412e-05
 -1.3931077e-04
 -4.9203958e-02
  4.3716653e-05
  1.0166044e-03
 -8.8353801e-01
 -1.0917052e-02
 -2.2482717e-01
  1.1442333e-05
 -3.9939467e-05
 -4.0106438e-02
  2.9024130e-03
  8.1820972e-04
 -7.0909512e-01
  6.0060638e-01
 -7.4615903e-02
 -8.6702919e-01
  7.7907300e-01
  6.7836372e-05
 -2.3945799e-02
 -1.4537383e+00
 -1.2701750e-04
  7.2332346e-01
  6.4650601e-01
 -2.5413446e+00
 -9.4251293e-01
 -2.5482413e-01
  3.3547950e-04
  9.5616771e-05
 -1.7638227e-01
  1.2954752e-01
 -6.8246162e-01
 -8.3817023e-01
 -1.9963753e+00
 -1.1081810e+00
  4.4893466e-02
 -2.1930155e-01
 -1.0328594e+00
  2.8103593e-04
  2.9692871e-02
  4.6191499e-02
  4.6385627e-02
 -5.5781811e-01
  6.7167646e-01
  1.7238031e-01
  2.2777370e-03
  4.7135640e-05
 -3.3964217e-02
  9.1216433e-01
 -3.3057439e-03
 -1.1203258e-01
 -7.9276448e-01
 -9.3570226e-01
  7.4720785e-02
  3.5019897e-05
 -1.1548453e-01
 -3.8298893e-01
 -2.4288898e-02
  2.5739184e-05
  2.7156949e-01
  7.2900194e-01
 -4.6560171e-01
 -1.3054582e+00
 -9.4112279e-03
 -4.5605775e-02
 -1.0879041e-02
  6.8721198e-02
  1.1826527e+00
 -2.7187812e-01
  1.6122987e-02
 -1.4869223e+00
 -5.2091241e-01
  4.1187324e-02
  6.0787314e-01
 -1.0452484e+00
 -3.8246822e-01
 -5.6249015e-02
  3.9606425e-01
  3.6079916e-01
  2.3921999e-01
  9.1485071e-01
  1.3072385e-03
  4.5221383e-04
  2.4828422e-03
 -2.5379763e-06
 -3.1682393e-05
  5.3481030e-01
 -2.3468619e-04
 -9.6578974e-01
  1.2696515e+00
 -4.4849437e-02
 -6.2723858e-03
 -2.2342585e-01
 -1.7898422e+00
  3.3422172e-04
 -4.1203985e-01
  6.0901907e-04
  1.4788270e+00
 -9.6800315e-01
  8.4491730e-01
  1.0141844e-02
  5.4678732e-01
 -3.8329931e-03
  5.3401079e-02
 -1.1165928e+00
 -7.1017534e-01
  2.8495584e+00
 -7.5178176e-01
 -1.0652030e-01
  3.2464472e-05
 -1.4139359e+00
 -1.3776266e-04
  9.7549260e-02
  6.5274054e-01
 -1.7739097e+00
 -4.7411224e-01
  1.7564166e-01
  2.2834355e-04
 -9.2285246e-01
  1.5617131e-01
  2.4564748e-01
  2.5289309e-01
 -1.3737663e-03
  7.0364249e-01
 -2.0501162e-01
 -1.4570580e+00
  3.6311423e-04
 -2.2087647e-01
 -1.0606540e-01
 -5.1284897e-01
 -5.4802708e-02
  2.4045253e+00
  1.0060277e+00
  1.1027776e+00
 -8.4910280e-01
 -5.2758139e-03
  7.8961230e-04
  3.5147890e-01
  3.0274415e+00
  2.0088582e-01
  1.5257583e+00
  6.0811445e-02
  1.0210489e+00
 -1.1365154e+00
 -6.9627815e-01
  4.9512893e-02
  1.1434898e+00
  1.3957919e-02
  1.3491837e+00
 -1.9039744e+00
 -3.3112526e-01
 -1.4914438e+00
  5.3891087e-01
  1.2498806e-04
  1.7351054e+00
  8.3099432e-02
  7.1313784e-02
 -1.7421652e+00
  9.4259167e-01
  3.7737042e-02
  7.7288091e-01
 -7.3542881e-01
 -9.3544477e-05
  8.7463734e-05
  7.8931254e-05
  6.8995061e-05
 -4.4442988e-03
 -1.4879284e+00
 -2.2220737e-04
  2.7488241e-01
 -3.4226808e-01
  8.5546024e-05
  7.7031285e-01
 -1.1292922e-01
  3.0776408e-01
  4.2167857e-01
  1.7752792e-01
 -7.8675598e-01
  5.3449309e-01
  3.8350847e-01
  1.0918769e-04
  1.0678281e+00
  1.3789973e-01
 -1.7194162e-04
  3.2118756e-01
 -5.6230414e-01
  8.5390228e-01
 -4.4650412e-01
 -2.2045336e+00
 -3.1092603e-04
  3.1510211e-04
  3.8586266e-05
  2.3722048e-01
  5.9747970e-01
 -3.1334171e-01
 -3.4565076e-02
  8.2783997e-01
 -1.9422121e-02
 -9.6441487e-05
  1.6996343e+00
 -4.2024958e-01
 -5.2760369e-03
 -4.7164921e-02
 -9.7766566e-01
  1.8853761e-01
 -3.2859277e-02
 -5.2004397e-01
 -2.9642846e-05
  1.9889760e-06
  6.6584992e-01
  1.1393215e-03
 -2.1232712e+00
 -1.6278684e+00
 -1.0559971e-01
  1.2224189e+00
 -1.3813711e+00
 -2.3088216e-06
  1.5943273e+00
 -5.5905247e-01
  4.8705116e-03
 -2.2293069e+00
 -1.0366585e+00
  3.4343171e-01
 -1.1114964e+00
 -3.1534514e-01
 -4.1006077e-02
  6.4662039e-01
 -1.8393594e-01
 -4.9745351e-01
 -1.2252302e-01
 -9.7443029e-02
  6.6044307e-01
 -1.3436772e-01
  7.0749301e-01
 -4.2142102e-01
  3.0338539e-02
  1.6270037e+00
 -4.3278754e-01
 -2.0400101e-01
  4.8705074e-01
  9.5919997e-01
 -1.4144486e+00
  4.6492791e-01
  3.8790200e-05
  6.3376829e-05
  3.1759337e-04
  1.3578430e-05
  3.8366066e-04
  1.5801281e+00
  3.7254670e-04
  1.1207541e+00
  4.2577556e-01
 -3.1851652e-01
  5.1251531e-02
  1.6711272e-01
 -3.3929965e-01
 -1.5080138e+00
 -1.6983576e+00
 -4.5992884e-01
 -9.4718778e-01
 -4.5542592e-01
 -5.8630554e-05
 -6.1359879e-06
  9.4557554e-01
  1.2667871e-05
  2.2042844e-01
 -1.2586565e+00
  2.9542482e-01
  1.1457204e+00
  1.1616728e+00
 -1.2605034e-01
  9.2305072e-02
  1.3377063e-04
 -3.5859826e-01
 -1.5418321e+00
  3.9860418e-01
 -3.9358976e-01
  1.6300585e+00
  2.8697052e+00
 -9.0529267e-03
 -1.0103776e-04
  8.2704031e-01
 -3.6446631e-04
  4.4097167e-01
 -2.5409948e-02
 -4.7869876e-02
 -2.3053427e-01
  2.3164243e-01
 -2.1761155e-04
  6.3132425e-04
  1.1095505e+00
 -1.7562994e-01
 -3.0949801e-01
  1.4328184e+00
  3.1332838e-04
 -8.0813038e-01
  9.1892236e-01
 -2.0776966e-01
  1.9701147e-04
  3.3680612e-01
 -7.6230653e-02
 -4.8631793e-01
  1.3468753e+00
 -1.0595168e+00
  7.0381713e-01
  1.9972699e+00
 -1.1075683e-04
  1.7570211e-04
  2.9773250e-01
 -1.6815455e-03
  7.8269683e-02
  3.2014090e-01
  6.3491993e-02
 -1.1838224e+00
  4.9335706e-01
 -5.2563184e-05
  1.4090171e-04
 -1.3430729e-05
 -3.3435559e-01
  1.1329655e-04
  1.6640480e+00
  7.8170776e-01
 -2.0047889e+00
 -2.3552136e+00
 -8.9252877e-05
 -1.3309123e-06
 -1.4140447e-04
  1.0754482e-04
 -2.1635360e-04
  8.0418969e-03
  3.1114442e-04
 -1.4636302e+00
  1.3441026e-04
 -5.3545638e-05
  1.7692561e-04
  1.2492204e-04
 -2.8538379e-01
  1.5357545e-01
  3.5150796e-03
  3.6988097e-01
 -3.9807014e-02
  1.6365649e-01
  3.4062818e-04
 -2.9433213e-04
  9.4304931e-05
  7.3724754e-05
 -5.6833702e-01
 -1.8939143e-01
 -8.2098091e-01
  8.9061409e-01
  1.7619244e+00
  3.9771927e-05
  8.4113119e-05
  4.5685911e-06
 -1.1397079e-01
  5.7696038e-01
 -1.0680006e+00
  4.2443253e-02
 -1.9187375e+00
  1.4523689e+00
 -1.2890456e-04
  2.4198003e-04
 -5.2659296e-05
 -7.2191142e-06
 -1.0091706e-01
  7.9854943e-02
  6.8138903e-01
  3.8109574e-01
  1.2958244e+00
 -3.1334773e-04
 -2.3740422e-04
 -9.3969218e-05
 -4.8917817e-04
 -4.0304018e-04
  1.2770947e+00
  2.7892336e-01
  7.7560544e-02
  2.0593703e+00
 -3.4417659e-05
 -2.8053601e-05
  1.2513732e-04
 -1.5496123e-01
  5.3740805e-01
  5.4022646e-01
 -2.6426193e-01
 -1.3832475e-01
  1.1200053e-01
  7.1781222e-05
 -1.1815068e-04
 -2.8778156e-04
  4.1404871e-07
 -6.5518248e-01
 -1.8538010e+00
 -1.1867036e-02
  3.8184449e-01
 -9.4639115e-02
 -2.2520249e-04
 -1.1100087e-05
 -3.5840456e-04
 -1.1366472e-01
 -1.2332233e+00
  6.3463688e-01
  2.1470006e+00
 -1.4528069e-01
 -5.7205558e-01
 -2.5609819e-05
 -9.7626559e-02
 -1.6162400e-04
 -9.1572911e-01
 -3.8486224e-01
  2.6953346e-01
  1.3151242e-03
  2.0527802e+00
  2.1673550e-04
  1.7934144e-04
  1.1381434e-04
 -4.5261229e-05
  7.3873234e-06
 -9.0066820e-01
 -3.1746522e-01
 -6.9656050e-01
  2.4269591e-01
 -1.8218181e+00
 -1.1000672e-04
  8.4070190e-05
  7.9184494e-05
 -1.9412580e-01
 -2.7613113e+00
 -6.0807151e-01
  1.8152605e+00
  1.5523195e+00
  1.9145762e+00
  2.5706892e-04
  2.5143441e-05
  8.4091707e-06
  5.6491740e-04
 -1.7790999e-01
 -7.4913520e-01
  2.4186236e-04
  1.5636455e+00
  1.1380404e+00
 -3.4225680e-04
  2.9390104e-04
 -3.1937125e-05
 -9.5623726e-01
  2.3651519e+00
 -1.4005904e+00
 -9.2551515e-02
  1.5741065e-01
 -9.3338531e-01
 -2.0250487e-04
  3.4872430e-06
  3.9152874e-06
  7.0775472e-02
 -6.4749163e-01
  1.0741159e+00
  2.0153728e+00
 -1.0714036e+00
  1.2826960e-01
 -5.9965427e-05
  4.8397636e-05
  1.9640890e-04
 -5.3899342e-01
 -1.4163684e+00
  6.5145814e-01
 -2.6911495e-02
  1.3404539e-01
  1.6978574e+00
  5.7597164e-05
 -1.9920101e-04
 -8.9653797e-05
 -4.8398753e-05
 -1.7240144e+00
  1.7030877e-01
 -1.2656665e+00
  1.1195775e+00
  1.4793417e+00
 -2.2384246e-04
  1.6545958e-04
 -5.2703973e-02
  5.9060304e-04
 -1.0867430e+00
 -6.8622816e-01
  6.2890917e-01
 -9.4942904e-01
  9.4536018e-01
  1.1660198e-04
 -5.0979146e-05
  3.7487353e-05
 -5.0367984e-05
 -8.6881733e-04
  2.4244714e-01
 -1.6630232e-02
 -1.6483172e+00
  2.0395343e-01
 -3.9422088e-05
  4.8264954e-04
 -3.2969782e-04
  7.6966797e-05
 -6.2726063e-01
 -2.8721622e-01
 -1.9513283e-05
  8.5657638e-01
 -6.0637016e-02
  2.7267085e-04
 -3.9581084e-04
  3.7581506e-01
  1.3574795e-04
 -1.0249470e+00
  1.7802572e+00
 -1.2129729e+00
 -8.7015516e-01
  1.1613398e+00
  7.6309647e-05
 -7.3178133e-05
 -5.2304380e-04
 -8.8248007e-02
 -1.7574997e-01
  1.0394070e+00
 -7.1472311e-03
 -3.2557876e+00
 -1.4858875e-01
 -6.6380817e-05
 -1.9796807e-04
  6.0467346e-04
  1.4297366e-01
 -9.2960283e-02
 -4.7877431e-01
 -8.2188386e-01
  9.5968223e-01
 -3.0852129e+00
  5.5983182e-05
 -5.8489950e-05
  1.5215752e-01
 -4.2170995e-01
 -5.3482664e-01
  5.0926805e-01
 -1.1592957e+00
  3.2162068e+00
 -1.4845072e-01
 -1.0080186e-04
 -1.3558203e-04
 -6.5960485e-01
  5.2966988e-01
 -5.3756475e-01
  7.3185390e-01
  3.4412381e-01
  5.5861443e-01
  1.7282991e+00
 -6.7704626e-05
 -6.2794759e-05
  1.2033625e+00
 -7.5093371e-01
  4.1662335e-01
  3.0300111e-01
  1.1721331e+00
  2.1435130e-01
  6.3675272e-01
 -4.3863303e-05
  2.1287598e-05
 -2.9283809e-04
 -7.1764410e-01
 -6.8421498e-02
 -2.5449800e-01
 -2.4928308e+00
 -9.2235518e-01
  7.4772060e-01
  1.0277340e-04
  1.5019256e-04
 -4.1797601e-05
  1.0867167e-04
  6.9738744e-05
  1.6581757e+00
  7.6362870e-05
 -6.3172495e-01
 -2.3292905e-01
  4.2855660e-05
 -7.7225930e-05
  2.2366758e-04
 -1.8057980e-01
  2.2910137e-01
  4.9585167e-01
  1.4384575e+00
  1.1083525e-01
  1.6897105e+00
 -2.7117774e-05
  5.4108216e-03
  1.2347729e-05
 -8.0332810e-01
 -3.9453021e-01
 -3.5620177e-01
  4.5454818e-01
 -1.9332306e+00
 -2.0937886e+00
 -2.0380144e-04
 -5.4488381e-05
 -2.4639265e-04
  1.3572988e-04
  6.4105443e-05
  1.2288883e+00
  1.8786244e-01
 -5.4341263e-01
  3.5224733e-01
 -4.0130290e-05
 -3.3043284e-04
 -5.7407218e-05
 -1.5310485e+00
  2.0659104e-01
  1.5875953e+00
  1.4089473e+00
  1.5867293e+00
  3.2490000e-02
  1.8422286e-05
 -1.2420831e-04
  2.5006855e-06
  5.2064247e-02
 -9.5754039e-01
 -1.5979275e-01
  9.0285641e-01
 -9.7017385e-02
 -8.6704083e-02
 -6.9814734e-04
  2.3524644e-04
 -5.6676476e-05
 -6.9997871e-01
  1.0678972e-04
  1.1872807e+00
 -1.4753483e-01
  1.1234389e-01
  2.2879833e-01
  4.8361823e-04
 -3.4473378e-05
 -2.0608835e-01
 -1.6472292e-01
  4.0684661e-01
  1.4565839e+00
 -7.8275996e-01
  4.1479263e-01
  1.2508595e+00
 -4.0861755e-06
  3.4713291e-04
 -7.3822216e-06
  1.0360993e-01
  1.0001062e+00
  1.3966513e-03
 -1.2335287e+00
 -1.4314202e+00
  4.0438101e-01
  2.7809965e-05
 -2.3062452e-05
 -6.6236861e-04
  3.4318512e-04
  5.4035663e-05
  4.3730596e-01
 -7.7062432e-06
  5.8389783e-01
 -1.7960765e-05
  2.1808514e-04
 -1.6348344e-05
 -6.5704262e-05
  4.8266076e-02
  3.3456102e-01
 -1.4233737e+00
 -5.2836311e-01
  1.3226184e+00
 -1.5642121e-01
  3.3477067e-05
  5.0507631e-05
 -7.7094046e-05
 -4.6353314e-05
  2.5872391e-01
 -7.8261280e-01
 -1.4949580e+00
  2.4675353e+00
 -2.0600967e-01
  1.5185973e-05
  9.5731513e-05
 -2.0544718e-04
  8.2390858e-03
 -7.5700426e-01
  1.7165798e+00
 -1.2921429e+00
  1.7179301e+00
  1.1780962e-01
  2.3771787e-05
 -8.2976760e-05
  2.0234256e-04
 -7.0803369e-05
  1.2767693e+00
  5.7763571e-01
  1.6552116e-01
 -2.6984975e-01
  5.1895183e-02
  4.7341969e-06
 -8.4508443e-05
 -1.6417151e-04
  1.3705772e-04
 -6.1675179e-01
 -3.0940002e-01
 -3.1935585e-01
  4.4784901e-01
  1.1715707e+00
 -6.6636821e-05
  4.3868749e-05
 -3.8748785e-05
  1.2994930e-04
 -2.0291756e-01
  5.4692245e-01
  6.5809608e-02
 -1.8593079e+00
  1.3789681e+00
  3.4662499e-04
  1.5721736e-05
 -1.3355483e-04
 -4.3575064e-04
  1.1105037e-01
 -6.5688670e-01
  1.5456113e+00
  5.9454310e-01
  5.1366812e-01
  2.4430383e-02
  2.4430383e-02
  2.4430383e-02
  2.4430383e-02
  2.4430383e-02
  2.4430383e-02
  2.4430383e-02
  2.4430383e-02
  2.4430383e-02
  1.0906366e-01
  1.0906366e-01
  1.0906366e-01
  1.0906366e-01
  1.0906366e-01
  1.0906366e-01
  1.0906366e-01
  4.1858934e-02
  4.1858934e-02
  4.1858934e-02
  4.1858934e-02
  4.1858934e-02
  4.1858934e-02
  4.1858934e-02
  3.2475173e-02
  3.2475173e-02
  3.2475173e-02
  3.2475173e-02
  3.2475173e-02
  3.2475173e-02
  3.2475173e-02
  1.3545549e-02
  1.3545549e-02
  1.3545549e-02
  1.3545549e-02
  1.3545549e-02
  1.3545549e-02
  1.3545549e-02
