nep4_zbl_charge1 3 Ba Ti O 
zbl 0.75 1.5
cutoff 6 4 86 26
n_max 8 6
basis_size 8 8
l_max 4 0 0
ANN 40 0
  8.3429497e-01
  1.6404667e+00
  9.5993662e-01
 -5.7338059e-01
  3.7426372e-07
  6.9084752e-01
  2.0647035e+00
  7.8472685e-06
 -2.0749049e-01
 -1.7341839e-05
 -1.4763038e-05
 -7.2844673e-06
 -1.8844034e-03
 -2.3392409e-04
 -5.4097145e-05
  1.0354197e-05
  2.6946953e-02
 -2.5833893e-04
  4.8753333e-07
 -1.0183372e-06
  6.3492224e-02
  1.5897842e-05
  1.5263208e-04
 -7.1876741e-05
  1.7663953e-05
 -2.8455381e-05
  1.1669992e-03
  1.2683478e-03
  2.9262278e-04
 -1.9039708e-03
  1.4467384e-05
  7.5170465e-07
  5.6229048e-05
  9.4417438e-02
  2.9333394e-03
 -1.6376291e-05
  2.6456279e-05
 -2.2223090e-01
  5.2536768e-01
 -8.4173947e-04
  7.6857097e-03
  2.2971299e-01
 -5.1711798e-01
  1.7331582e-01
  6.6847133e-05
  4.1577175e-01
 -5.9151349e-05
  9.8258985e-05
 -4.6162408e-05
  1.6917993e-01
  1.7930854e-05
 -4.5700635e-05
 -1.5520233e-04
 -5.1755349e-05
 -4.1247613e-04
 -1.7780808e-04
 -4.8379123e-05
 -4.3676165e-03
  1.6577477e-03
 -9.5618359e-04
 -9.7241696e-05
 -9.1218564e-05
 -2.9996765e-05
  1.4066892e-05
 -3.3151805e-02
 -8.3429208e-05
  1.2966666e-04
 -1.8164387e-04
 -8.0014579e-05
  1.5480835e-05
 -9.3609311e-02
 -5.4707628e-04
 -3.3277331e-05
 -3.7180989e-06
  4.8072565e-02
 -8.3731937e-01
  1.8090350e-04
  3.8421802e-02
  9.1551243e-05
 -7.2042650e-01
  1.8635911e-01
 -4.0481918e-05
 -4.2996901e-01
  1.1997684e-04
  8.6023947e-06
 -9.1311427e-05
  3.6000365e-05
  3.1308409e-05
  7.9177786e-05
 -2.2901926e-05
  1.2353286e-05
  1.5558794e-04
  3.5979512e-05
 -2.9891901e-04
 -1.6651240e-04
  1.0524605e-04
  3.6888563e-05
 -2.4366431e-04
 -4.1208510e-05
  1.1666210e-04
  2.2119870e-05
  1.4534538e-05
 -5.7108507e-05
  1.2035386e-04
  3.4731961e-04
 -8.1281047e-05
 -5.8709815e-05
  4.5421621e-05
 -2.8469756e-05
  4.0012968e-05
  1.2515586e-04
  3.1394306e-01
  2.8381988e-01
  3.5838670e-01
 -3.1371972e-01
 -4.8903930e-01
  7.8217030e-01
 -1.5578990e-01
  9.9060945e-02
  5.1040173e-01
  8.1474027e-06
 -3.9600433e-05
 -4.9863036e-05
 -1.1522609e-02
 -5.8648270e-03
 -1.2332619e-04
  5.4816861e-04
 -1.7495768e-04
  3.0981100e-05
 -3.4895780e-05
 -4.3752207e-05
  2.3378083e-01
  6.6210843e-05
  1.2444696e-01
  2.6019991e-04
  8.9034991e-05
  1.3966324e-04
  2.4183242e-01
  2.4833421e-01
 -1.2277004e-04
 -2.7925714e-03
  2.0180122e-04
 -2.6579422e-05
  5.4089865e-05
  1.9424073e-01
  1.6280073e-01
  1.9898912e-04
  1.0514804e-03
  2.0421576e+00
  3.0065258e+00
 -1.3193455e-01
 -8.4847331e-02
 -4.7073182e-02
  5.9308255e-01
  5.2126360e-01
 -2.7760014e-01
 -4.1527250e-01
 -3.1008873e-05
 -3.8763235e-04
 -8.8727642e-03
 -6.9586182e-04
  9.6296683e-02
 -4.5768065e-05
  4.1616657e-01
  1.6619696e-04
  2.6193749e-05
 -2.8237730e-05
  1.3550642e-01
  4.0359974e-01
  8.1461485e-07
  1.7845982e-01
 -1.3625064e-04
  7.1327246e-05
  1.3127650e-01
  9.0572340e-03
  6.5468788e-01
  1.8745800e-04
 -6.1463383e-05
 -7.1913557e-04
 -1.6150707e-04
  1.1042047e-04
  1.7599821e-01
  5.0370246e-01
  1.6515909e-03
 -4.0693753e-04
  1.9505218e-01
  9.9181630e-02
  2.3483396e-02
 -6.8624042e-02
 -9.8836011e-01
 -3.7252408e-02
  2.9029483e-03
  1.0884320e-04
  3.2918400e-04
  6.8061089e-04
 -2.7933548e-04
  1.0043661e-04
 -3.0756277e-01
  1.0357486e-02
 -1.0893794e-04
 -1.1365106e-05
 -7.8319677e-04
 -1.9578882e-04
 -1.2532197e-04
 -2.0898126e-01
  1.2641755e-01
  1.0221956e-05
  4.4659743e-04
  6.5333676e-04
 -8.8738132e-05
  1.7346533e-04
 -3.1455685e-03
 -1.5580849e-04
 -6.1169339e-05
 -2.5360804e-02
 -2.0374026e-04
 -5.8115926e-05
 -2.2583884e-04
  1.0887436e-02
  1.6760343e-03
 -2.9810930e-05
  4.1839440e-04
  1.1668355e-01
 -4.3000364e-01
 -2.8640235e-02
 -5.7193279e-02
  7.3155832e-01
 -9.2652673e-01
 -1.8202452e-01
  1.1226803e-04
  2.3125678e-03
 -1.3406413e-04
  8.0999198e-05
 -2.2801678e-04
 -4.1260496e-02
  7.6732406e-04
  2.2956931e-04
  8.7311804e-05
 -9.2744587e-05
 -7.9318292e-05
 -1.5009321e-04
 -4.8937509e-04
  2.1751059e-04
  8.8326939e-05
  8.2013277e-05
 -1.0186945e-04
 -1.7140166e-05
  1.1212977e-04
 -1.0967749e-03
 -1.1170260e-04
 -1.5865116e-06
 -1.1996683e-04
  8.6405889e-06
 -4.9626789e-05
 -2.6320868e-05
  1.4858403e-05
  2.9028355e-05
  2.5756084e-05
  4.4220270e-04
  9.1086709e-05
 -4.4324067e-01
  2.8622046e-01
 -1.5382907e+00
  9.2160732e-02
 -1.6080572e-01
  3.9197734e-01
 -7.7043915e-05
  7.8696981e-02
  3.8879779e-07
  1.1235346e-05
  2.2762199e-05
 -2.7449653e-01
  5.0713127e-03
 -2.0245452e-05
 -3.2574462e-05
  1.9314047e-04
  8.1211329e-05
  1.3558091e-04
 -3.2236808e-04
  4.2915329e-02
 -1.2800234e-04
  2.9927248e-04
  4.6055998e-06
  1.4600332e-04
 -2.3161854e-05
 -2.6056013e-04
  8.3146279e-04
 -5.4367429e-05
 -3.2681835e-04
  5.4254306e-05
  5.9048965e-05
  5.4199209e-05
  1.7724189e-05
  9.5919961e-05
  5.9436967e-05
  1.1317043e-05
 -1.4219589e-04
 -1.2705404e-01
  1.9044948e-05
  5.7375251e-04
  6.0808012e-04
  1.5989392e-01
 -1.1948156e-01
  1.5935290e-04
 -1.2524632e-05
  2.1918080e-04
  9.9727738e-05
  1.6717615e-05
 -1.0221695e-05
  7.2218582e-04
 -3.3238431e-04
 -8.5153442e-05
 -3.4781249e-05
  4.1838362e-06
  1.1536620e-05
  3.0093601e-05
 -2.4360644e-04
  7.7162535e-05
  2.9873627e-05
  1.5569506e-04
 -1.9010462e-04
  1.0249153e-04
 -3.3918583e-05
 -7.9474294e-06
  1.0339332e-04
  4.4851644e-05
  6.2529923e-04
 -3.5155492e-03
 -1.0329288e-04
  2.1552447e-04
 -3.4639001e-05
  7.5428130e-04
 -2.9116782e-05
  8.9612019e-01
 -1.4320219e+00
  5.4863334e-02
 -1.2157847e-04
  2.5311802e-02
  3.5413638e-01
  6.7187989e-01
 -5.5739146e-01
  2.1863858e-01
 -5.1405472e-01
  2.5853261e-04
  3.0119452e-05
 -1.1495850e-01
 -1.9943219e-04
 -1.4428292e-04
  3.8256394e-04
 -1.3826378e-05
  8.1616045e-06
 -6.8387651e-01
  4.3924178e-05
  2.2914384e-03
  3.3239863e-04
  5.7871945e-02
 -3.3963446e-05
  7.0230228e-05
 -8.2593768e-05
 -1.9997010e-02
  6.8715252e-02
  1.0780659e-05
 -1.0800121e-04
  6.0723807e-05
  3.2921726e-04
 -8.8672736e-05
  4.7565676e-02
 -8.5965105e-05
 -9.5597374e-05
  1.2366428e-05
 -5.9351277e-01
 -1.8084197e-01
 -1.9829255e-04
  1.0812096e-01
  4.7715777e-04
  6.8437690e-01
 -4.1053367e-01
 -3.8686430e-05
  6.7044957e-06
 -1.6858458e-04
 -1.0071070e-04
  4.1466257e-01
  7.6584416e-05
  2.5072426e-05
 -3.0435303e-05
 -8.1642444e-05
 -8.6026354e-05
 -9.9228273e-06
  6.0589369e-05
 -2.0575443e-04
 -4.5689576e-05
  1.9906615e-04
  4.0756886e-06
 -1.9238613e-04
 -2.1018964e-04
  9.3199902e-05
 -7.7593329e-05
 -1.1074468e-05
 -7.0619069e-05
 -2.2680910e-04
  2.1897383e-04
 -8.4397070e-05
 -2.0974209e-03
 -5.5657077e-04
 -1.0849757e-04
  2.5069533e-04
  1.9441431e-02
  2.4609488e-02
  9.6032120e-02
  8.9500370e-03
 -2.4732655e-02
  1.8704293e-05
  2.2542446e+00
 -3.5517223e-02
 -3.8550681e-04
  7.4272148e-02
 -2.1382846e-05
 -2.3916662e-05
 -1.8037763e-05
 -7.8364402e-02
 -8.7626082e-05
 -1.2993286e-04
 -3.5768888e-05
  5.2855175e-05
 -2.8323857e-04
  8.0999808e-04
 -8.9273717e-06
  1.5602580e-04
  2.9887987e-04
  4.7824808e-05
  1.3896226e-03
  7.6575001e-05
 -1.3157620e-05
 -2.3595299e-04
  5.3113780e-04
  3.2156579e-05
 -7.7231794e-05
 -3.2205771e-05
  1.5960869e-04
 -1.6978245e-04
 -2.0345660e-05
  2.3616620e-04
  4.6798406e-05
 -1.7340758e-04
  1.4404710e-01
 -1.6152025e+00
  1.1884043e+00
 -1.2018459e-01
 -6.2658866e-03
 -6.6305214e-01
  1.8502051e-01
 -1.8094212e-01
  1.0344093e+00
 -3.9015963e-06
  1.6055127e-04
  3.0778965e-02
 -3.6860979e-01
  3.1092671e-01
  5.5273395e-06
 -5.9103648e-05
  5.0379636e-05
 -8.8086472e-06
 -1.1880745e-05
 -7.8337975e-02
  4.2738008e-01
  4.9724611e-05
  4.7982186e-02
 -1.1408945e-05
  5.2812047e-05
 -7.6161872e-05
 -8.4163524e-02
  3.0093861e-01
  2.9916770e-05
 -7.6620907e-02
 -1.0367998e-04
  1.7451294e-04
 -7.3579861e-07
  1.0961978e-01
  1.6201156e-01
  4.4428660e-03
  6.6990830e-02
 -5.2039242e-05
  1.9402945e-04
  7.7996556e-05
 -2.6922840e-01
 -1.6353809e-04
  9.6002042e-02
 -2.3342163e-04
 -4.0471754e-05
 -1.1072576e-04
  8.0177364e-05
 -1.7730496e-04
  4.9441045e-05
  5.6631934e-06
 -1.0163783e-04
  8.9908506e-05
  2.0782910e-04
  1.1404794e-04
 -1.0886514e-04
  1.9404577e-04
 -3.2737073e-05
 -2.0046638e-05
  1.2054495e-04
 -1.0117741e-04
  8.6441272e-05
 -1.5069546e-04
 -8.0874452e-05
  2.3336101e-05
 -5.6108580e-05
  1.5259852e-03
  1.5571919e-04
 -1.1547027e-03
 -1.1508763e-04
 -7.4467891e-05
 -2.7201779e-05
  5.7194055e-05
 -4.8336302e-04
  3.2234137e-05
  5.0222677e-01
 -2.7410638e-01
 -4.2291500e-02
 -1.1700504e+00
 -5.1583403e-01
 -4.0339532e-01
  1.8878637e-01
 -1.5214270e-04
  1.0647464e-02
 -1.7724739e-04
  3.8386766e-05
 -1.2216763e-05
 -3.5781511e-06
 -8.1900362e-05
  9.6867061e-06
 -7.4780393e-05
 -1.0264627e-04
  2.8278169e-04
  2.0179879e-04
  1.2782360e-04
  5.5140909e-04
 -9.4701216e-05
  9.9088962e-04
 -9.8164692e-06
  4.3460936e-05
 -4.7174504e-05
 -6.6882360e-01
  1.3567847e-02
 -7.1018556e-05
 -1.4493533e-04
 -7.5389857e-05
 -4.7816873e-05
  2.4718751e-04
 -1.4689553e-05
  8.2466453e-03
 -9.5232790e-05
 -2.4222223e-05
  8.4167582e-01
  3.1099954e-01
  5.3092193e-02
  3.1752351e-01
 -5.4149050e-01
 -1.9056197e-01
  9.8812476e-02
  6.0401166e-05
  1.6183487e-01
  7.2428411e-05
  3.4226923e-05
 -2.5313922e-05
 -2.2004192e-01
  1.6904254e-01
 -8.5589988e-07
 -4.3291960e-02
 -2.6470552e-06
 -5.9033990e-02
  1.2632324e-03
 -4.0923893e-01
 -2.9189920e-03
 -1.1503265e-04
 -5.2314535e-02
 -1.3717123e-05
  1.6047110e-04
  1.1198950e-04
 -3.1496730e-01
 -2.2265030e-01
  2.0013672e-04
  6.8053363e-05
  7.9913174e-05
  2.2252063e-05
  3.5012876e-05
 -8.5872423e-05
 -7.3017664e-02
  2.8876262e-05
 -7.5039912e-05
  1.2553976e-01
 -4.3803260e-02
 -2.2685957e-01
  2.4509400e-02
 -3.4563670e-01
 -5.8631416e-02
  2.0424426e-02
  3.9288254e-05
  1.6897760e-01
  1.1877269e-04
  3.0291005e-05
  1.2409755e-04
  1.0030697e-01
 -2.7597556e-01
 -1.8183042e-04
 -4.4554267e-02
  2.0851418e-05
 -3.8164664e-05
 -3.1120583e-06
  2.4808096e-02
 -5.7873470e-01
  2.0271253e-05
 -1.0877074e-01
  4.7584472e-06
  2.8217837e-05
 -4.1579398e-05
  4.7589052e-02
 -4.4805837e-01
  9.1660086e-06
 -4.6414036e-01
 -3.8488084e-05
  2.2481698e-05
  6.4493615e-05
 -3.1619138e-01
 -5.0629145e-01
  5.6104214e-05
 -7.4643391e-01
  2.4300492e-04
  1.3528271e-01
  1.7474318e-04
  3.0145247e-02
  1.2375682e-04
 -3.7107401e-02
 -7.8572402e-06
 -2.0943777e-04
 -1.0685448e-01
 -2.4430308e-04
 -8.7066059e-05
 -1.6780438e-04
  1.0616271e-04
  1.1996268e-04
  3.4662458e-04
 -4.3654754e-06
  5.2346011e-05
  1.0778217e-04
 -1.7045289e-06
 -1.3426505e-03
 -2.2810191e-04
 -2.1039757e-05
 -5.1412924e-05
 -2.3486424e-04
 -9.9111545e-05
 -1.1791002e-05
 -2.7246089e-04
 -4.9988303e-04
  4.0775514e-05
  1.4783583e-05
  1.6010825e-04
 -1.6612939e-04
  5.4782959e-05
 -1.5671278e-04
 -1.3304666e-04
  1.6952008e-01
 -3.1550185e-04
 -6.6935569e-03
  1.1446791e+00
 -7.7455632e-05
  1.1866655e+00
 -4.1425291e-01
  7.9526728e-01
 -6.0647780e-01
  1.0438576e-04
 -2.0113251e+00
  1.5902609e-04
  1.2923163e-04
  2.7777471e-05
  3.8795269e-01
 -1.1202273e-04
  4.4938570e-05
 -3.5332073e-04
  5.1927295e-06
  2.2803484e-04
 -1.8481636e-05
 -2.0328987e-05
 -5.5172735e-05
 -8.2314255e-05
 -1.9938012e-05
  6.6840956e-05
 -2.6565196e-04
  7.8995574e-05
 -7.8740981e-05
 -1.8528789e-04
  2.6333929e-04
  2.6358010e-03
  1.0386507e-04
 -6.7365858e-05
 -1.1672673e-04
 -2.7151546e-04
 -4.3148416e-04
  1.8997892e-04
  2.2109783e-04
  3.0086181e+00
  1.3675830e+00
 -1.8660241e-01
 -1.1624674e+00
  5.8196467e-01
  1.5086585e-01
  7.8387320e-01
 -1.6264975e-01
  1.5696155e+00
  2.1619289e-04
  3.3288703e-05
 -3.6394772e-01
 -1.4794461e-01
  3.3244482e-01
 -9.7014898e-05
  9.9975467e-03
  2.5254411e-05
 -4.1763851e-05
 -2.7559729e-05
 -5.4823744e-05
  3.6700889e-01
 -2.1385022e-04
  3.2855112e-02
 -1.8305225e-04
  4.3002561e-05
  2.2664107e-03
 -2.1402825e-01
  2.3510313e-01
  1.5220941e-05
 -8.2665570e-02
  5.7211440e-05
  6.8267676e-05
  6.6572911e-01
  1.8782340e-01
  2.2998308e-01
 -1.0635856e-04
  2.3651391e-01
 -1.3951017e+00
  6.5793830e-01
  1.2923436e-01
 -5.6087989e-01
  6.1137164e-01
 -1.4270744e+00
  1.0630360e+00
 -1.0789851e-04
  1.7985195e-01
  9.3531868e-05
  6.4822023e-05
 -2.4520054e-01
 -2.7501732e-01
 -1.0937559e-04
  5.3120173e-05
 -8.1725178e-05
  2.9362869e-04
 -4.1408541e-05
  6.8959911e-05
 -8.4935293e-02
  2.9274862e-04
 -8.3887862e-05
  1.1059809e-05
  2.9538956e-04
 -6.9715374e-05
  1.0805492e-04
 -4.9165308e-02
  3.5972317e-04
 -1.3369049e-05
  1.6883115e-04
 -2.8116588e-04
  2.2987952e-03
  2.6120167e-04
 -1.0940960e-04
  6.5009655e-05
  5.3242253e-05
  4.3022021e-04
 -2.3554961e-05
  3.9292902e-02
  7.5772613e-01
  2.0829152e-02
  1.8295246e-04
 -2.4075641e-01
  8.7661035e-03
  5.1980434e-05
  1.1612179e-01
 -6.5724975e-03
 -1.1188122e-04
 -8.6851796e-05
 -6.8831409e-04
  3.6543827e-03
  3.2807491e-04
  6.1729275e-05
  7.6508048e-05
  6.7399844e-05
 -2.2022190e-04
 -6.1242020e-04
 -1.0040632e-03
  8.5477470e-05
 -1.8142540e-03
  1.2575783e-04
 -2.2882364e-06
  2.7978790e-04
 -3.4709685e-02
 -4.7636323e-02
  1.5594414e-04
  1.7399379e-04
  2.9498719e-05
  6.4042244e-05
  2.2750284e-05
 -7.9688354e-05
 -6.8042800e-02
 -2.2726967e-04
 -2.6192240e-05
 -9.2688167e-01
  8.2366598e-01
  1.7853116e-03
  6.2697911e-01
  6.1912786e-02
 -8.8114589e-01
 -1.2727294e+00
 -1.0338766e-01
 -4.7807389e-01
  1.0457594e-04
 -6.1757426e-05
 -4.4761306e-05
 -6.7967769e-05
 -4.3749802e-05
  2.2795855e-05
  5.4325839e-03
  4.9166076e-05
 -5.6962537e-05
  7.1493829e-05
 -2.7403808e-06
  6.8301172e-04
 -1.3386570e-04
  7.7062016e-03
  1.8269254e-04
 -1.3007315e-04
  9.2461712e-05
 -2.6276158e-02
  9.4952345e-02
  1.1532812e-05
 -1.2895836e-04
  5.0257458e-05
  1.7056223e-04
 -1.8406692e-05
  2.2993200e-04
  5.1983508e-05
  4.4931028e-05
 -5.0657141e-05
 -7.3089823e-02
 -1.7632606e-02
 -8.8796645e-05
 -1.2946615e-02
  1.7270353e-01
 -1.7880183e-02
  2.7708448e-02
 -2.1698959e-04
 -2.5705764e-05
 -2.0502329e-04
 -1.6816404e-05
 -2.8984499e-05
  2.7174503e-03
 -1.7300653e-01
 -2.0864286e-04
  2.6901676e-05
 -8.9793793e-05
 -2.1653381e-05
 -1.1241223e-05
  6.5093242e-02
 -8.0127997e-05
 -8.5783802e-05
 -1.8342386e-04
  4.3964315e-05
 -7.8442436e-06
 -3.3111081e-01
  2.5469311e-02
 -2.1406074e-04
 -4.4080054e-05
 -1.2817384e-05
  3.7531634e-05
 -2.4472504e-06
 -7.5006363e-05
 -3.3463532e-04
 -3.4811419e-06
  9.3543014e-05
  8.4658022e-05
  2.0000603e-04
 -1.7666481e-02
 -1.0014920e-04
  1.2613407e-04
  1.9232658e-04
 -1.5107718e-01
  3.6424764e-05
 -1.2788313e-04
  6.0109563e-05
  1.5565264e-04
 -1.0288766e-04
  1.1910184e-04
  3.2959826e-04
 -1.1580131e-04
  9.5474112e-05
 -3.2830730e-04
  2.4094836e-05
 -3.6285009e-04
  2.3898136e-04
  2.9722028e-04
  1.6766255e-04
  1.9678893e-04
 -5.0684517e-05
  1.2062619e-04
 -2.9259760e-04
  6.0967818e-07
 -4.2525196e-04
 -1.0617184e-04
  9.3264527e-05
  2.1253839e-04
 -1.9014291e-05
 -2.3582184e-05
 -2.0496520e-05
  2.5472676e-04
  1.7272565e-07
 -6.1388317e-05
 -5.4656839e-06
 -7.0000836e-04
 -2.6507762e-05
  5.9404214e-05
 -1.0295126e-02
 -7.5827498e-05
  9.0784401e-05
  3.2400269e-02
  2.0876586e-02
 -4.9637958e-05
 -1.4886067e-06
  7.4214331e-06
 -1.1835629e-04
 -5.2493990e-05
 -4.9406249e-04
  2.4034771e-05
  7.6776622e-03
 -3.0368095e-05
 -4.3376390e-06
  3.5886264e-05
  3.8572074e-05
 -9.1400204e-07
 -5.6933670e-05
  1.2558755e-03
 -1.8742436e-04
  3.4328853e-04
 -3.8225069e-05
 -1.2867797e-04
  7.1293296e-04
 -3.7455648e-05
 -2.2307044e-05
 -4.0286428e-05
  1.2384247e-05
 -4.2020616e-05
 -1.5419211e-05
  1.0305866e-04
 -1.1403256e-04
  1.2050138e-04
 -2.9749521e-05
 -4.1771527e-05
 -1.4632985e-05
  6.6120694e-05
 -3.9569641e-04
 -7.6612596e-05
 -1.8236256e-05
 -1.0211474e-04
 -8.6680651e-02
 -9.3704657e-06
 -4.2017742e-05
  1.3932318e-04
  1.1744469e-03
 -1.2553565e-04
 -5.9970429e-05
 -3.9989587e-05
  1.7446261e-04
 -7.5782402e-05
  6.7550609e-05
 -1.3881637e-04
 -6.5162087e-05
 -1.7672454e-04
 -3.1981785e-05
  9.4952789e-05
  7.8297810e-05
  1.9257724e-05
  1.3927529e-04
  1.1212190e-04
  7.7316399e-05
  2.6147411e-05
  1.9623837e-04
  6.2696119e-05
 -2.1319704e-04
  3.3782839e-05
 -5.9600457e-05
  4.8976977e-05
 -8.0826569e-05
 -6.8650141e-02
  8.7641889e-01
  1.5110446e-02
  1.8570554e-03
  9.5906204e-01
  4.3348014e-01
  1.6377632e-01
 -6.8530739e-05
 -9.2984073e-02
 -2.4914616e-05
  1.2450974e-04
  5.4814725e-05
  1.6475444e-01
 -6.9754883e-06
  1.9482747e-04
 -5.7552166e-05
 -3.2634558e-05
 -4.5740067e-05
  2.6813525e-04
  6.0157996e-05
 -8.1172988e-02
 -2.5715695e-05
 -1.4555063e-03
 -2.0546588e-05
 -3.3136705e-05
 -6.3018597e-05
  6.8009058e-06
 -4.5781050e-02
  1.8324814e-05
 -1.4098646e-04
  5.3870492e-05
  2.1307334e-05
 -5.7891742e-05
 -1.2997771e-02
 -4.3814899e-03
 -9.0610789e-05
 -2.0606008e-04
 -4.7625624e-02
 -4.1863230e-01
  7.1013419e-05
 -1.2855327e+00
  3.7009931e-01
 -2.1831499e-01
  1.1011424e-01
 -3.3222468e-04
 -6.0028768e-01
  2.2788956e-05
 -7.2807219e-05
  3.4338053e-05
  1.2642886e-03
 -1.2302210e-04
 -6.5974091e-05
  2.1199705e-05
 -6.9050497e-05
 -3.1184911e-04
  5.2119889e-05
  1.6005756e-04
  6.0887943e-04
  1.6198419e-04
  1.0655105e-05
 -2.5707321e-05
  1.2329093e-04
 -6.8736794e-05
  2.4061930e-05
  4.8961263e-04
  2.8654134e-05
 -3.6525229e-04
  1.1714744e-04
  6.8013283e-06
 -3.7372430e-04
  8.3997037e-07
 -5.3631415e-05
 -4.3522869e-05
  1.3255599e-02
 -1.4271841e-03
  6.2471414e-01
 -3.8868038e-04
 -9.9354303e-03
  6.8587717e-04
 -8.5115862e-01
  1.9587845e-02
 -3.5806923e-04
 -1.0848134e-03
 -7.3376748e-07
 -2.6058182e-04
  1.1518030e-05
  6.7554922e-03
 -2.6602199e-04
 -2.0720670e-05
 -4.0966046e-05
 -3.8920269e-05
 -3.4002852e-04
 -6.5052322e-05
  7.7753633e-05
 -4.0646605e-04
 -1.4811363e-05
 -4.0814551e-03
 -2.4558627e-05
 -5.0269668e-05
  3.2111191e-05
  1.0354821e-05
 -3.7186863e-04
 -3.2951418e-06
  1.1013001e-03
 -9.5465919e-03
 -6.9483947e-05
  1.1898210e-04
 -8.6832303e-04
 -8.2567101e-05
  6.9715927e-05
 -1.5592594e-05
  2.4868481e-04
  4.9706736e-01
 -3.6692752e-05
 -4.1009652e-04
 -9.0319685e-05
 -2.0603091e-02
  1.0518270e-02
 -8.8106819e-05
 -1.1236911e-01
  5.7446421e-05
 -3.5372656e-04
  5.0438407e-06
  4.6634432e-05
 -7.0592732e-06
  1.1716451e-04
  1.5897132e-04
 -1.2862688e-04
 -1.3579996e-04
  8.3967717e-03
  1.0098740e-04
  1.4836612e-04
 -2.0334926e-04
  1.8125216e-07
 -9.6117161e-05
  9.7634538e-06
 -2.2187390e-04
  2.5858678e-04
  2.2314704e-05
 -2.4232824e-04
 -8.5657521e-05
  1.3493511e-04
 -4.5992780e-05
  4.9752794e-05
  8.1593949e-05
  1.0535655e-03
  9.8145947e-06
  3.0580707e-04
 -6.9341707e-01
 -2.1375291e-02
 -1.1684815e-04
 -9.3847883e-01
  2.9669881e-01
 -9.4040759e-02
  3.7961078e-01
  2.8005858e-05
  5.9616435e-01
 -3.9033812e-06
 -1.5382491e-04
 -8.4896258e-04
  2.9523224e-01
  1.6537901e-02
  9.4143586e-05
 -1.1129082e-04
 -4.3283322e-05
  5.9674454e-05
 -4.0479707e-05
 -1.9318641e-05
 -3.4727086e-04
  1.5959017e-04
 -1.9778258e-03
 -7.2115584e-04
  5.6789257e-05
  2.6846523e-04
  4.8534494e-02
 -5.9975253e-04
 -3.9921477e-05
  5.1750278e-05
  2.6048496e-04
 -4.4976103e-05
 -1.5427611e-05
 -1.1749662e-01
 -1.5389227e-05
 -3.5311659e-05
  6.3380794e-05
  2.6316860e-01
  6.7470914e-01
  1.2940399e-03
 -3.6142147e-03
 -2.3339860e-02
  1.1857829e-01
 -2.4489716e-02
 -1.5466158e-04
 -4.5349550e-02
 -1.7037446e-04
  4.8450282e-05
 -2.8640843e-05
 -4.1239808e-04
  2.2628653e+00
 -1.7670156e-04
 -1.1349222e-04
  7.4793308e-05
 -4.6063601e-06
 -1.5543770e-05
 -6.6464374e-05
  2.0922261e-01
  5.9333022e-05
 -4.5255663e-05
  3.7816705e-04
 -6.3113912e-06
 -4.3072516e-05
 -1.7444359e-02
  5.7037089e-02
 -6.3043612e-05
 -6.0660425e-03
 -8.2578845e-07
  4.9290418e-05
 -1.7891043e-04
  3.4186963e-02
  7.5867586e-02
 -9.2059083e-05
  6.0469937e-04
 -8.4682530e-01
  5.5945683e-01
 -2.2232813e-04
  1.7597832e-02
 -1.6716382e-01
  5.7100123e-03
  2.3883435e-05
  7.6507400e-05
 -7.1590795e-04
 -9.4109324e-05
 -1.7581646e-04
  1.9067059e-04
  7.9187460e-02
 -2.4082512e-03
  3.1842717e-06
 -1.2161749e-05
 -4.8855414e-05
 -1.0100257e-05
  3.1415534e-06
  5.3453173e-02
  3.4956691e-05
 -1.7946686e-05
  1.5023041e-04
  8.0267258e-05
  1.7723494e-04
 -9.3070754e-05
  3.6530322e-04
 -2.5133259e-04
  6.1463063e-05
  6.8183937e-05
  2.0169473e-05
 -2.0164101e-04
 -4.5525769e-05
 -5.8381713e-05
  3.7270653e-05
 -2.4156783e-05
 -2.6455414e-04
 -5.1113653e-01
  1.2198907e+00
  6.3544256e-05
 -1.8725845e-01
 -1.0308452e+00
 -8.5446435e-01
  1.6558070e-01
 -1.4825081e-02
 -5.1676985e-03
  1.2884260e-04
 -4.1068492e-05
 -7.9317088e-06
 -7.7222705e-02
  9.5770309e-05
  3.0301910e-04
  2.8886867e-05
 -2.2258913e-05
  3.5176778e-04
  9.4925046e-05
 -1.1740545e-03
  9.5344655e-04
 -2.1074590e-04
  5.2581832e-05
  1.2959469e-04
  3.2161735e-04
  1.2868964e-04
 -6.0806992e-03
  4.6894854e-04
  1.0079314e-04
 -2.3930559e-04
 -4.1437233e-05
 -6.2313535e-05
 -2.9274731e-04
  1.2160311e-03
  2.5909502e-04
  8.6311702e-06
 -2.3189157e-05
  1.6754260e-03
  4.5670512e-01
  7.1345858e-02
 -1.4012287e-02
 -2.4825572e-03
 -1.7404574e-01
 -3.5314390e-04
 -2.8408229e-04
 -1.8391349e-05
 -4.2804491e-05
 -1.4105439e-04
 -1.8303454e-04
 -9.1599025e-02
 -1.7498064e-04
  2.0703248e-05
  6.6767871e-02
  5.0313865e-06
 -5.8314177e-05
  1.0920020e-04
  8.4479665e-03
  2.2296658e-01
 -1.0109345e-04
  1.1962480e-01
  1.0371205e-04
  3.8217957e-04
  9.5893942e-05
  2.4915469e-01
  3.2891774e-01
  7.0416201e-05
  3.8678963e-06
 -3.6285460e-04
 -1.5605641e-05
  1.9793117e-05
  2.6118629e-02
  2.0957352e-01
 -3.0141389e-05
  3.7766332e-04
  8.1500435e-01
  8.8646495e-01
  3.3691693e-05
 -7.4072137e-02
  1.7157328e-04
 -9.9994354e-02
  4.2444703e-01
  4.1602041e-05
  8.4617633e-01
 -9.3763783e-06
  1.1489665e-04
 -1.9263772e-04
 -8.5202679e-05
  1.7410412e-04
  1.4790970e-05
 -1.4186927e-04
  9.8256220e-05
  5.9056885e-05
  2.1336690e-04
 -4.8606271e-06
 -1.9209441e-05
 -1.4189723e-03
 -5.3265836e-04
 -5.8020478e-06
 -1.0353598e-05
  8.7207860e-05
 -3.0640268e-04
 -1.5487489e-03
  2.5442644e-04
  3.9128575e-04
 -2.5671661e-05
 -2.0344649e-05
 -1.8323348e-05
 -6.1068404e-04
 -4.2790332e-04
  1.3953450e-04
 -7.7389508e-05
  9.7663114e-03
  3.3376418e-02
  1.8336551e-04
  1.9541050e-01
 -2.1826775e-01
 -1.5603742e-02
  1.9229183e-02
 -8.8473382e-05
 -2.8387135e-01
 -4.8466773e-06
 -2.6508290e-03
  2.8521288e-05
  1.1048474e-05
  6.2437158e-04
  2.6240248e-05
  3.9249942e-05
 -3.2917746e-05
  4.9919538e-05
  2.6517497e-05
 -3.6906663e-04
 -3.4900184e-04
  7.4431853e-05
 -1.3708002e-03
 -9.1211230e-05
 -3.9934450e-05
 -3.5204135e-05
 -1.2172937e-04
 -8.0795074e-04
 -2.3404666e-04
  2.4868216e-04
 -2.9856581e-04
 -1.5358526e-04
 -1.5056425e-05
  5.1549370e-07
 -4.9187848e-03
  1.5127194e-05
 -6.2138875e-05
  1.6307642e-01
 -1.2478571e-03
 -7.9153884e-05
  4.2676780e-04
 -2.7292127e-02
  4.8564507e-06
  5.6913221e-01
 -2.2831240e-05
 -7.1679191e-05
  2.0907403e-04
 -7.7764467e-05
  1.6848417e-04
  4.8843176e-05
  3.2380037e-04
  1.0045512e-04
 -7.9671481e-06
  2.1686703e-04
 -4.0495238e-06
  1.3178304e-05
  5.5967557e-06
 -7.3516916e-05
  1.7835258e-05
 -1.1614452e-04
  6.9675792e-05
  3.0929179e-05
  2.5046991e-05
 -1.0191175e-04
 -2.4364608e-04
 -1.1086384e-04
  1.7476865e-04
 -4.1084044e-05
  1.2437531e-04
 -8.2734230e-05
 -5.9903537e-05
 -6.1304690e-06
 -1.3126339e-05
 -2.6235392e-03
  7.1469933e-04
  2.7058029e-06
  3.3062807e-04
 -2.4386018e-05
 -4.7182180e-06
  6.3212194e-02
  4.3945399e-04
 -7.4605200e-06
 -3.1736368e-04
 -1.3196176e-05
  1.5019177e-05
  1.0575721e-05
  1.2566686e-05
  4.7432579e-05
 -3.0606549e-05
  1.0674514e-04
  3.4426026e-05
  4.5398330e-05
  1.3708372e-05
  1.2527536e-04
 -1.4282005e-04
  5.2708972e-05
 -2.1428965e-05
  8.5680309e-05
 -1.4408122e-04
  5.8109179e-04
 -1.7389428e-04
  3.8084749e-05
  2.4193041e-04
 -3.5589273e-05
 -6.3869987e-07
 -3.8750505e-03
  9.1920025e-05
 -3.6097568e-05
  2.6998319e-05
 -3.8428043e-04
  2.5612381e-04
 -1.3983943e+00
  3.0802891e-02
  1.1237317e+00
 -3.0693591e-01
  3.4403121e-01
 -2.1628052e-01
  1.8784347e-01
 -3.0469400e-01
 -5.2332002e-01
 -1.3758047e-01
 -6.2783337e-01
  1.7801772e-01
 -7.7859353e-05
  1.6413349e-05
  4.6110523e-01
  4.5410809e-01
  2.2356257e-01
 -1.3254716e-01
  6.6235131e-01
 -8.5658044e-02
 -8.8733411e-01
  8.0772758e-02
  6.5273416e-01
 -5.1911336e-01
 -3.0204684e-01
  4.5479795e-01
  1.1850958e-04
 -2.3842932e-01
 -6.5153432e-01
  6.4003885e-01
 -4.9937145e-05
  3.4595832e-01
 -4.0070809e-05
 -1.8997312e-02
  8.8818304e-02
  7.8791194e-02
  1.3411045e-01
 -9.4637787e-01
 -7.1823847e-01
  1.0796784e-04
  5.7321125e-01
 -2.3207722e-04
 -9.6749477e-02
  4.9150288e-01
  2.6028335e-01
  2.4165180e+00
  1.1847185e+00
  1.3873566e+00
  7.4051425e-04
  1.2822431e-01
  3.7774540e-04
  8.5522520e-04
  1.2427108e+00
  3.9143011e-02
  1.1070862e-01
  3.6679056e-01
 -1.3376734e+00
 -7.8466229e-02
 -8.1494504e-01
  1.2098544e+00
 -9.6404139e-04
  1.9382977e-01
 -6.5107473e-05
 -8.4327358e-01
 -1.7260315e-03
 -2.7914855e-04
  7.6531738e-05
 -6.7235065e-01
  5.4603115e-02
 -3.5667224e-04
  3.6028225e-05
 -6.0421891e-05
  1.0023813e+00
 -1.4638227e+00
 -1.9136426e-03
  2.2821318e-01
  2.0045492e-01
 -3.0765354e-05
  2.3154241e-01
  9.5976058e-05
 -6.7963414e-02
  7.8047931e-01
  2.2747503e-01
 -6.1193132e-01
 -7.8022730e-01
  6.1123151e-01
  2.3128250e-01
  2.8536668e-01
  2.7072698e-01
 -1.3720175e+00
  4.3467134e-01
 -4.3394652e-01
  8.0199284e-04
  6.1452664e-02
 -4.2421284e-01
  5.8038014e-01
  1.7021885e-02
  1.5448937e-01
 -6.2354926e-02
 -3.5271131e-02
 -1.5371180e+00
  5.3038591e-01
 -1.2853492e+00
 -2.6289278e-01
 -4.8597888e-03
 -1.9742867e-01
 -6.4316623e-02
  1.2211272e-01
 -2.3045135e-01
  1.1138813e+00
 -1.5820149e-01
  1.7195859e+00
  3.8365513e-02
 -5.6793159e-01
 -1.0794320e+00
 -5.2312547e-01
  5.0903809e-01
  8.9672065e-01
  2.1527928e-01
  1.0207868e-01
  4.9813996e-05
 -1.5930017e+00
 -1.0096762e+00
 -2.5275229e-03
 -5.2076489e-01
 -5.8269490e-02
 -1.6561678e-02
 -3.4669568e-04
  5.2109754e-01
 -6.2803598e-03
 -8.5573491e-05
 -4.0106897e-05
 -1.6714048e-01
  3.2544718e-03
 -3.9341468e-02
 -6.6491589e-02
 -3.7785736e-04
  1.3514345e-04
 -1.3978848e-04
 -3.2753873e-04
  8.4400090e-04
 -2.6430751e-04
 -2.4667438e-04
  1.8436346e-03
  1.5204230e-04
  9.3076667e-03
 -8.4335878e-03
  9.9794808e-05
 -4.2010966e-04
 -3.8327946e-04
 -9.4159466e-04
 -1.3994468e-04
 -4.9263348e-05
  1.4425714e-03
  2.7876589e-01
  2.3117576e-04
  3.3408787e-02
  2.7875027e-01
  1.4589114e-04
  2.4559364e-01
  7.5730255e-05
  5.5847269e-01
 -5.5182077e-06
  7.7806462e-06
  1.3627989e-04
  1.5312517e-01
 -5.2471416e-05
  2.5090472e-05
  2.9748995e-04
 -9.9326971e-05
 -1.5877305e-04
 -9.8271506e-05
  8.7598870e-05
 -3.3896773e-05
  2.5077115e-04
 -5.5222225e-01
 -8.1773056e-04
  2.9360873e-04
 -3.1562275e-04
  1.3792889e-04
  2.2773325e-05
 -9.9022861e-04
 -5.7382778e-05
 -2.3903692e-04
 -7.6016826e-05
 -2.7657687e-04
  1.0124601e-04
 -2.4712814e-03
  5.5674023e-05
  1.3783503e-04
  1.5209549e-05
 -1.3952120e-01
  3.2268800e-02
 -4.9089396e-04
  9.3655159e-05
  1.1198076e-03
  3.2807344e-01
  9.0848072e-05
 -3.7655781e-04
  2.2165693e-04
 -1.8906151e-04
 -3.2261893e-04
  7.8559504e-05
 -6.3489861e-04
 -2.1935095e-05
 -2.5255755e-05
  1.1441094e-05
 -4.3288230e-05
 -3.3290922e-05
  3.2010183e-02
  7.6518867e-05
 -2.2746214e-04
 -2.8219476e-05
 -1.1909241e-05
 -1.4235120e-04
  3.4767247e-05
 -1.0932246e-05
 -4.1670068e-05
 -1.4629416e-04
  1.8633493e-04
 -3.9271644e-04
 -3.0864881e-05
  3.3447712e-05
 -1.4291592e-04
  5.3022140e-05
 -2.8003413e-05
  2.2074832e-03
 -6.0464547e-05
  9.1024915e-05
 -9.3732888e-06
 -2.7733468e-04
  5.7262136e-04
 -1.5891227e-04
  1.4941480e-02
 -3.2431893e-05
 -6.3450600e-05
 -9.0146495e-04
  2.0048559e-04
  1.6926172e-04
  5.6744540e-01
 -3.2978298e-04
 -1.0664009e-04
 -5.6602938e-05
 -3.0752363e-02
  3.2017873e-05
 -2.0421438e-02
 -9.7923476e-05
 -1.6337224e-04
 -2.2113089e-04
  8.4621148e-05
 -4.3310156e-05
  1.0213067e-04
 -5.5304081e-05
 -7.6302800e-05
  8.7091612e-05
 -1.8359859e-02
 -1.5309693e-05
 -1.3199337e-04
  2.5848576e-05
 -2.2433790e-04
  4.0328470e-01
 -8.9601323e-05
 -8.1750960e-04
  7.1593190e-06
  1.2160910e-04
 -9.4475443e-05
  6.2445630e-05
 -8.2644830e-05
  8.6632054e-03
 -4.7947475e-01
  4.1343096e-01
  1.0458039e-01
 -2.0923306e-01
  4.1513047e+00
  6.8397462e-01
 -4.5786821e-03
 -2.3235316e+00
 -1.3961323e-01
  8.2313496e-04
  1.0152983e-04
 -7.3006898e-02
  7.0885623e-01
  1.4619109e-01
  8.0757841e-02
 -1.6962637e-01
 -1.0320182e-01
  6.4365950e-04
  2.8102531e-05
 -2.1361669e-03
  3.4939454e-04
 -1.5234062e-03
 -8.4310097e-01
 -2.2496143e-01
  4.7800800e-01
 -5.3895098e-01
  5.0122023e-01
 -5.1099771e-01
 -5.3549749e-01
  4.5982836e-04
 -3.2853848e-01
 -5.7927433e-02
 -2.4224125e-02
  4.1401342e-01
 -6.5420347e-01
 -4.2797700e-01
 -3.0943743e-04
  2.9120955e-04
 -1.0791937e+00
 -3.6225910e-04
 -1.5616644e-04
  1.2431019e-04
 -2.3473757e-04
  1.3815128e-04
 -1.4148575e-02
  1.4066820e-04
 -2.6414262e-05
 -1.8845512e-04
 -7.8778348e-06
 -1.2857699e-05
  3.2533288e-05
  8.1905637e-06
 -7.6525503e-05
  3.9507975e-03
 -1.7648761e-04
  7.4914999e-05
 -2.6552076e-04
  6.8906971e-05
  3.7973921e-05
  1.0370694e-05
 -5.7591044e-04
 -6.6777437e-05
 -9.9635159e-04
 -2.3465148e-04
 -3.4734112e-05
 -5.4206306e-05
 -8.1439146e-05
  1.5120087e-04
  3.9988369e-04
 -2.1092095e-04
 -3.3413387e-05
 -7.9252823e-05
 -5.1005196e-04
  9.6272379e-05
 -9.0764232e-05
 -7.9830170e-01
  5.6481349e-06
  2.0875639e-04
  1.6772305e-05
  1.0293806e-03
 -9.9434228e-06
 -5.1378231e-07
 -1.2086731e-05
  7.4134412e-05
 -1.4000507e-04
  6.4183155e-06
 -9.7085604e-06
  9.3985574e-07
  1.3307827e-05
  4.2634874e-04
  1.1795798e-04
 -9.7707380e-05
  5.0022594e-05
 -7.9475270e-05
 -2.1384419e-04
 -9.7346281e-05
  7.3085779e-05
  4.3647000e-05
  1.9384363e-04
 -3.2464165e-04
  6.5987900e-02
  1.4622626e-05
  1.4157685e-05
 -2.7030526e-04
 -5.2889802e-05
 -5.2133739e-05
 -6.8710692e-04
  5.8858073e-05
  4.0740310e-06
 -3.4049408e-05
  6.8259895e-01
  3.7679039e-02
 -7.8221867e-03
 -2.4708748e-02
 -1.3233912e-01
 -9.4422758e-01
  6.0196686e-01
 -1.2494210e+00
 -8.9774895e-01
  3.6986086e-01
  4.7909978e-01
  2.5628791e-05
  1.8398534e-01
  2.7127081e-01
 -1.6501586e-01
  8.5188192e-01
  2.5917393e-01
  2.8892779e-01
  5.7546119e-04
 -4.6521163e-04
  1.5510767e-02
  1.0959251e-02
 -3.5284281e-02
  2.2280100e-01
  1.2653505e+00
  1.1778763e-04
  6.0248882e-01
  4.1270104e-01
  2.6907694e-01
  2.9599512e-01
  5.9245169e-01
  4.7086485e-02
 -3.6322592e-05
 -1.2361642e-01
 -3.0889398e-01
  1.6666016e-01
 -8.1637698e-01
 -3.2728118e-01
  5.2002858e-02
  5.8574826e-01
  2.8745919e-03
 -1.8774873e-01
 -1.2958223e+00
  1.3698680e-04
 -3.9851096e-02
  1.4829098e+00
  2.6230760e-02
  7.6695615e-05
  2.1038457e-05
  4.3315145e-01
  1.7964405e-01
 -3.4567016e-01
  3.0946168e-05
  1.1043930e-04
  7.4054949e-02
  1.8481318e-04
  2.9081222e-01
 -3.0621572e-04
 -3.5163027e-06
 -1.5154279e-02
  8.5559838e-02
 -3.0524784e-01
 -6.3252950e-04
  2.2536510e-04
 -5.2569729e-01
  1.3243979e-01
  1.5878847e-01
 -1.1911998e-03
  2.7322793e-01
  1.8496703e-03
  4.5764542e-01
 -2.6457858e-01
  6.7530564e-05
  1.7833219e-01
 -5.0940274e-05
 -9.8352529e-02
 -4.1797683e-01
  5.1227778e-01
  5.6168478e-02
 -5.1129267e-02
  2.4009387e-01
 -7.6472831e-01
  1.7073615e+00
  4.3459248e-04
  2.7352741e-02
  2.7354035e-01
  3.4686255e-01
  8.1002852e-03
  4.3092445e-02
  3.7381882e-04
 -1.4173309e-04
  1.3668882e-02
  2.5696078e-01
  4.9599636e-05
 -8.7852175e-05
 -8.1012717e-05
 -1.0939623e-03
 -7.0593637e-01
 -4.2968616e-03
  1.5287068e-02
 -4.3205697e-02
 -8.2103452e-06
  2.5269580e-01
 -2.4788475e-01
  3.3368431e-03
 -3.3433640e-01
  2.1014517e-05
  3.3427670e-03
  6.5811944e-01
  1.2432860e-01
  5.8551510e-03
  9.6299489e-05
 -8.2219150e-05
  3.9541852e-01
  3.1855900e-02
 -3.5916214e-04
 -1.3675535e-04
 -2.0329660e-04
 -2.1939335e-05
  7.6737451e-05
  4.0137101e-04
  1.1912255e-04
 -1.4988378e-04
 -2.2921495e-05
 -1.9092029e-05
  2.2585956e-04
  2.3902727e-04
 -4.0692842e-04
 -6.7631438e-05
  4.3036978e-04
 -2.0888278e-04
  3.8306386e-04
  1.1221040e-04
 -2.7215068e-08
  3.1640575e-05
 -4.0635924e-04
  1.0082909e-04
 -1.0838198e-04
 -5.4691467e-05
 -1.1200095e-04
 -2.3394827e-05
 -1.8911379e-04
  1.6037251e-04
 -4.2559556e-04
  3.9460658e-04
 -1.0714364e-05
  5.6945431e-05
 -1.5873183e-04
  8.2832621e-04
  8.9001929e-04
 -1.1270365e-02
 -3.4462416e-04
 -6.9638627e-05
  1.3173457e-04
 -1.0501178e-03
  8.0644713e-05
 -8.1590606e-06
 -1.0698957e-04
  4.1186853e-05
  5.9054510e-06
  2.0774891e+00
 -1.2964259e-04
 -1.8260286e-04
  6.7550187e-05
  2.7430829e-01
  1.5581046e-04
 -4.8435315e-05
  1.1319808e-04
  5.4275803e-05
  8.4181793e-06
  1.8986735e-05
  2.0358219e-05
 -4.1938874e-01
  1.4321970e-05
  2.1694451e-04
 -6.7604356e-05
 -1.1285301e-04
  3.0289331e-04
 -2.3167518e-04
  7.4854825e-04
  7.0447080e-05
  2.2894322e-04
 -6.5061489e-05
 -1.5407043e-04
 -3.7971960e-04
 -9.7487383e-02
  9.4705692e-06
 -9.3198663e-01
 -5.3959790e-05
 -8.3009943e-02
  2.6796720e-04
  1.2108227e-01
 -8.2533399e-04
 -4.6173716e-01
 -5.3464348e-05
  5.3166237e-05
 -1.0395891e-04
 -7.3685794e-04
  3.2996881e-04
  9.6410033e-05
  5.5460394e-05
  2.5965489e-04
  1.1238450e-04
 -1.9852158e-04
  9.1670798e-03
  3.6791596e-05
 -7.0945889e-06
 -3.9329607e-04
  3.2272917e-04
 -1.4810244e-05
  2.4919345e-05
 -4.9418530e-05
  3.2513199e-04
  9.5156611e-05
  2.2162876e-01
  8.5913944e-06
 -2.5952255e-04
  8.9638845e-05
 -2.4454301e-04
  1.7260454e-04
 -4.0998459e-03
 -3.1448028e-04
 -3.9634298e-05
 -1.0102840e-04
  9.6556562e-01
 -7.2149407e-05
 -1.4570574e-05
  3.2648219e-05
  6.3719694e-05
  9.4709460e-05
  2.1783603e-02
 -1.4230527e-05
 -1.8219264e-04
  4.4858254e-05
 -4.0077811e-04
  1.8272898e-05
  5.3267227e-05
  6.7217508e-05
 -1.8071408e-04
  1.3419992e-04
 -2.1883077e-04
  4.0141153e-04
 -3.4749073e-06
  4.5479621e-05
 -1.1228065e-03
  6.2975254e-05
  6.3942547e-04
  3.4847526e-06
  4.4451992e-04
  2.3814122e-05
  1.7776302e-04
  1.5032265e-03
 -6.3551379e-05
 -2.2247206e-05
 -3.9492606e-05
  1.5692251e-04
  1.1011049e-06
 -9.0028581e-05
  2.1503326e-01
 -2.7673835e-01
  1.2174588e+00
  2.9276478e-01
 -3.9140952e-01
  5.8805525e-01
 -1.0309642e-03
 -3.9148638e-01
 -1.6534073e+00
 -1.3754391e-03
 -4.0003192e-02
  3.1099793e-01
  1.9104591e-04
 -1.5107157e+00
  1.4654688e-02
 -3.0752659e-01
  6.5515712e-03
 -3.6442418e-02
  5.4823927e-04
  7.2966087e-01
  1.9784219e-04
 -2.2175081e-02
  1.1722262e+00
 -5.5050431e-04
  1.2986333e-03
 -1.5296625e-01
  3.8716051e-01
  7.6673245e-01
  6.2021458e-01
  2.1092816e-01
 -3.7193176e-01
  1.0119227e+00
 -5.3808343e-01
  8.4546868e-05
  4.9874350e-01
  4.6746549e-01
  1.5731176e+00
 -3.0486758e+00
  8.7241620e-01
  2.9182518e-03
 -1.4385606e-01
 -4.5877504e-01
 -2.5275528e-01
 -2.4624129e-01
 -1.9560724e-01
 -2.1506318e-01
  4.2100528e-01
 -3.0276075e-02
  1.6495384e-05
  2.3752166e-01
  3.9743730e-01
  5.7692815e-02
 -1.0131471e-01
  6.2322881e-02
  1.9448192e+00
 -4.4611153e-01
 -5.0584655e-02
 -1.9454303e-01
  5.7270944e-01
  3.1261495e-01
  1.3091806e-01
  5.9695554e-01
 -4.4983849e-03
  2.7577153e-01
 -6.6750031e-03
  2.5814736e-01
  6.8277436e-01
 -2.0200521e-02
 -1.7681979e-01
  5.9662551e-01
 -6.4175787e-05
 -2.4560171e-01
  1.4246391e-01
  5.0285697e-01
  4.2052218e-04
 -8.2241543e-02
 -1.8360239e+00
 -7.1932429e-01
 -1.0170683e+00
  5.9097677e-01
  1.3894283e+00
  5.7740492e-01
 -1.9086681e-04
 -6.0680324e-01
 -1.7006004e+00
 -1.1919836e+00
  3.7075125e-04
 -4.2312618e-02
  3.2793977e-03
 -8.9359103e-04
 -7.4522102e-01
 -1.8491428e-02
 -4.7246155e-01
  9.7739935e-01
 -6.5965170e-01
 -1.0091866e+00
 -1.5947121e-01
 -1.0752025e+00
  9.9902534e-01
 -2.1950531e+00
  9.9917746e-01
 -5.5949706e-01
 -9.8810554e-01
  1.8527371e-01
 -1.0402813e+00
  1.7059765e+00
 -1.1640781e+00
 -8.4793431e-01
  8.6065733e-01
 -2.6600137e-01
 -1.5940835e+00
 -1.3070301e+00
 -1.0422829e-01
  7.4204838e-01
 -8.4139419e-01
  3.6337870e-01
 -5.1406670e-01
  8.0351704e-01
 -2.1893902e-04
 -5.8048010e-01
  2.6804528e-01
  2.4138896e-01
  1.3500834e-01
  2.1663634e-01
 -7.3164642e-02
  1.4167043e-03
 -5.8379806e-05
 -2.2040647e-04
  4.9624808e-02
  1.4605566e-03
  2.7564952e-01
  2.0639587e-02
  1.0801754e-03
 -2.2081809e-01
  4.2687327e-02
 -4.4263639e-02
 -3.5347823e-02
  1.5058270e-02
 -2.9353390e-02
  2.6264971e-01
 -3.5590222e-01
 -2.0296830e-01
  3.1197930e-02
 -3.6713041e-02
  9.3743565e-06
  2.4854649e-02
  3.7582293e-02
 -4.9141217e-03
  1.0608112e+00
  1.3968060e-04
  3.5185355e-01
  8.3253330e-01
 -7.0278469e-04
 -2.8397807e-01
  3.4471595e-01
 -4.7290581e-04
  4.1326137e-05
  8.6540922e-06
  3.6241397e-01
  1.7007151e-04
  3.0067263e-04
  6.3227650e-05
 -9.3734961e-05
 -9.0138083e-03
 -8.8872963e-05
 -3.1520764e-07
 -3.9877643e-05
  2.2867767e-03
  1.7698584e-04
  5.5242293e-05
  2.7912378e-05
  1.5278166e-02
 -1.4265744e-05
 -4.0007159e-02
  4.5339207e-04
 -6.2916899e-04
 -4.8397441e-04
  2.3200804e-01
 -1.8840387e-01
  1.6723403e-04
 -5.4863153e-04
  1.8637026e-04
  1.9389519e-05
 -2.5616176e-03
  5.0643237e-05
  5.1179945e-01
  4.1858461e-03
  9.6590687e-03
 -3.8445914e-01
  6.5975983e-05
 -1.8235760e-05
  7.4606776e-02
 -3.6947393e-05
  6.8695466e-05
 -8.0565518e-01
  1.7571842e-04
  4.6089411e-04
  5.9643749e-04
  7.5254720e-03
  3.9002960e-05
 -1.3834359e-01
 -1.9214742e-04
  4.7363286e-05
 -8.1468163e-05
  1.0815615e-04
 -7.4138603e-04
 -9.8463306e-07
  2.0727590e-05
  7.2860370e-05
 -1.2561087e-04
 -4.5542859e-02
 -1.2199791e-05
 -2.3858077e-04
  2.1602305e-04
  1.7208064e-01
 -2.2924143e-01
  3.3813143e-05
 -5.8801036e-02
 -8.7147055e-05
  5.1618280e-04
 -6.2604138e-04
 -1.4622010e-04
 -3.0074370e-04
  5.6739980e-01
 -3.0267593e-01
  1.9353043e+00
  5.2281624e-01
 -1.5029459e+00
  8.6360596e-02
 -9.3812323e-01
  3.2072634e-04
  4.1739948e-02
  1.0309937e-01
 -1.2746835e-03
  1.2384415e-04
 -1.5265002e-02
 -1.5035306e-01
  1.2985170e-03
 -8.6036343e-03
  2.4222433e-04
 -2.4047263e-01
  2.3628617e-04
 -5.5384400e-05
 -4.0460908e-04
 -3.2833160e-04
  2.1184066e-04
 -3.4051929e-03
  3.8184354e-01
 -3.8385767e-04
  3.1355523e-02
  5.5612320e-05
 -8.8739701e-02
 -1.3357928e-01
  8.1637040e-02
  1.6288984e-03
 -2.7054045e-04
 -1.5280782e-01
 -2.0965954e-02
  4.5531066e-04
  3.0886475e-03
  1.2233827e-04
 -1.2567823e+00
 -2.3552038e-01
  2.6429156e-02
 -1.9718450e-01
  2.5541462e-02
  6.1232597e-02
 -1.7852386e-04
 -1.2267869e+00
 -4.1333949e-03
 -1.3812335e-01
 -2.8732562e-01
 -5.8187693e-01
 -2.2661188e-04
 -2.7127719e-05
 -8.6085815e-03
  4.9922530e-02
  5.2120961e-04
 -1.4372398e-01
  3.4180684e-05
  1.9970992e-05
 -4.5811408e-05
 -3.4729637e-05
  1.3835794e-01
  5.6110103e-02
 -5.1962310e-03
  3.0199256e-02
 -6.1961924e-05
  2.7453211e-06
  1.8843293e-01
  1.7890614e-02
  6.5953469e-01
  6.3146296e-04
  8.5291499e-03
  1.9131634e-01
  1.2256908e-02
  2.4383684e-01
  4.5721247e-03
  1.2537321e-01
 -6.2140769e-01
  2.8959331e-01
 -1.4808931e-02
 -2.8412688e-01
 -7.4328072e-02
 -6.3219406e-05
  5.2442551e-01
  2.0866550e-04
  2.0380701e-05
 -1.6066295e-05
  4.8767831e-03
  6.4241081e-03
 -2.7132025e-01
 -9.2613526e-02
 -3.0617241e-04
  3.1390705e-04
 -7.9202589e-05
  2.6254193e-04
  2.7752577e-04
  2.2739667e-01
  1.0446704e-04
  3.8400915e-01
 -9.1176562e-02
  4.6952267e-05
 -1.2064319e-03
 -1.5205806e-01
  3.3082243e-02
 -6.3583839e-01
 -1.0648824e-04
  2.7725395e-05
  9.7266510e-02
  3.3004067e-03
 -1.1523734e+00
  3.0542456e-03
  3.7213367e-01
 -4.4265325e-05
 -1.7562078e-03
 -3.4213943e-05
 -1.7966251e-04
  4.1130788e-05
 -1.2507732e-01
 -1.7383778e-03
  5.3290951e-05
 -1.5587399e-02
  1.2091415e-04
 -3.2360142e-05
 -2.2859914e-04
 -1.1454722e-04
 -6.4705418e-05
 -1.5963718e-05
  1.0938175e-05
  2.2077090e-04
 -1.0732891e-04
  2.8214617e-05
 -2.1417753e-04
  9.5267831e-05
 -6.0222734e-05
 -2.2784760e-04
 -1.9938509e-01
 -5.4701639e-05
 -6.6841058e-05
  1.2276405e-03
 -5.1029725e-05
 -1.2639188e-04
  2.6849121e-02
 -7.4397924e-04
 -1.8524212e-05
  1.2259629e-06
 -3.5452520e-04
  8.0944330e-04
  6.6621498e-05
  1.5752879e-04
  1.0284809e-01
 -1.3490523e+00
 -9.3432850e-01
 -1.3670540e-01
  1.8257220e+00
 -4.3303825e-04
 -4.5582294e-02
  1.5621795e-03
 -4.7755226e-01
  1.5867969e-01
 -4.0192659e-05
 -6.0851930e-04
 -1.8698015e-04
 -1.8239349e-01
  3.3302152e-01
  1.9867429e-01
 -7.8853342e-04
 -1.7000566e-01
  1.0730635e-03
 -3.4776941e-01
  5.3339958e-04
 -1.4682591e-04
  7.7207245e-02
 -5.9543185e-02
  4.4262754e-03
  1.3444139e-04
 -2.2360258e-04
  2.2478201e-03
 -1.7803192e-01
  1.0581540e+00
  1.1216645e-03
 -5.8701706e-01
 -2.9505633e-03
 -4.3098679e-01
  1.5953692e+00
 -3.1907819e-03
 -7.7076662e-01
  4.6952293e-04
 -1.7341876e-01
  1.6930172e-01
 -2.7999360e-02
  8.2077413e-06
 -3.0988815e-01
  1.6137372e-05
  7.5971140e-05
  1.2266649e+00
 -2.5640524e-05
  3.9928919e-04
  4.3406086e-05
  2.1010794e-04
  2.6807046e-04
  2.8600880e-05
 -3.1039341e-05
 -2.3344639e-05
  4.2881362e-05
 -1.7789915e-05
 -3.9526407e-04
  1.2721763e-04
 -3.7210008e-05
  1.8755854e-04
  9.5134661e-02
 -8.3690800e-05
  1.4165630e-05
  3.8487553e-05
  2.4708161e-05
  3.6277077e-01
  3.1852132e-01
 -1.6856368e-04
  2.8575208e-02
 -1.0039069e-03
 -3.1069235e-04
  7.3725918e-05
  9.4409173e-05
  2.8793083e-05
  3.3812898e-01
  1.7776344e+00
 -6.6084671e-01
 -1.1576791e+00
 -2.5907224e-01
  8.6100316e-01
  6.2857893e-05
  8.7077314e-01
  6.0414767e-01
  1.6362246e+00
  3.4504104e-05
  2.8710920e-01
  4.9641564e-01
  3.0093407e-04
 -7.7566415e-01
 -8.1324519e-04
 -5.6920424e-02
  8.1219397e-02
  7.0947399e-03
  1.6993284e-01
 -2.1187868e-02
  1.2663369e+00
  4.7967312e-01
  3.3329159e-01
  1.7163222e+00
  3.0440870e-01
  1.5691762e-01
  9.0211672e-01
  1.8155904e-01
 -2.5270507e+00
 -2.3076083e-01
  1.3826114e-01
 -2.4025369e-01
 -6.4697111e-01
 -3.7550423e-02
 -9.2693316e-03
  2.2720230e+00
 -3.2611859e-01
  6.2748298e-02
  9.8984629e-01
 -1.9190431e-02
  8.2000718e-03
  1.9833741e-03
 -1.9203003e-06
 -5.1196770e-05
  3.8170445e-01
 -2.0830423e-01
 -1.2197718e-01
 -3.1950660e-02
 -3.6821528e-03
 -4.8791067e-06
  9.7488696e-03
  5.0890710e-02
 -1.4602886e-01
 -4.6350833e-04
 -2.0606288e-01
  2.1006385e-02
 -4.8013823e-04
 -5.6692341e-04
 -7.5786904e-02
  5.1073488e-02
 -5.8186469e-03
 -3.6150942e-04
 -3.2334658e-04
  1.9578769e-05
  4.9824506e-01
  2.1032828e-01
 -3.1681642e-01
 -1.4489879e-01
 -2.4063447e-04
 -3.6585820e-03
  2.8213905e-04
  2.3449014e-05
 -5.6616655e-03
 -2.8594875e-05
  1.1966228e-05
 -9.4402999e-01
 -7.0148060e-05
  2.2343652e-04
 -6.5507513e-05
 -5.8542399e-05
 -5.5532266e-05
 -9.2163580e-05
 -1.2391626e-03
  1.6830656e-05
 -4.7006593e-05
 -4.1768744e-05
  1.1796628e-04
  1.6241176e-03
 -4.7764645e-04
  2.2855257e-04
  1.5267743e-04
  2.0847689e-04
 -7.3289310e-05
 -1.5477522e-04
  1.3997682e-05
  2.6912935e-04
  9.2805609e-02
 -2.9245214e-04
 -1.5119094e-04
 -1.8104933e-05
 -7.6672077e-05
 -9.8300388e-06
 -1.6870914e-04
  5.2157327e-05
  1.8495429e-04
 -9.8184219e-06
 -3.7813047e-04
  3.8589649e-05
  3.9369894e-05
 -4.3746622e-04
  2.5508111e-06
  7.0626840e-05
 -8.9864194e-01
 -1.0162003e-04
  4.0455696e-05
  4.2641412e-05
 -1.0185744e-05
 -5.6359251e-05
  1.2266498e-04
  5.6100063e-05
 -2.2035588e-04
 -6.6940651e-05
 -7.7375198e-06
 -3.3219031e-04
 -1.0788337e-04
  2.0590390e-03
  8.8527726e-05
 -7.7365589e-04
 -7.5185176e-06
  1.5659405e-05
 -1.1855503e-04
  2.5346864e-07
  6.3911830e-05
  1.8338962e-04
  1.1750873e-05
  1.1839285e-05
  5.5345520e-04
  4.3105989e-05
  1.5530422e-04
  1.7171483e-04
 -1.1412966e-06
 -1.4914171e-04
  2.4845745e-05
 -7.2743962e-05
 -2.8914651e-02
 -1.1520801e-01
  1.4504021e-04
  1.1573349e-04
  7.1723392e-04
 -9.2182852e-02
  1.6926177e-04
 -4.1430623e-05
 -3.0588201e-01
 -2.1752607e-04
  1.7159103e-04
 -1.0449052e+00
 -4.6828511e-01
  7.2462397e-05
  9.6624033e-05
  1.6407299e-04
 -1.6091422e-04
 -9.8092423e-04
 -1.3804181e-02
 -7.5342708e-05
  2.2885417e-05
  1.0710888e-04
 -1.0246802e-04
  1.7012992e-04
  1.0827421e-03
 -2.9645707e-05
 -5.4475694e-04
  5.9636104e-06
 -1.1099646e-04
 -4.6044559e-05
  1.8098865e-04
  1.2207196e-05
 -2.1628911e-02
  2.4116425e-04
 -3.6735530e-04
 -2.1657062e-04
 -1.1561297e-04
 -5.6794356e-04
  1.2689094e-04
  9.6502125e-05
 -1.4026828e-04
  3.0358538e-01
 -1.0668399e-03
  2.6601175e-04
 -1.4394290e-04
  2.4367918e-04
 -8.8650058e-04
 -6.1128943e-05
 -1.0937498e-01
  7.0804567e-06
  8.7581470e-04
  3.5642217e-05
 -4.0899272e-04
  7.4384414e-04
 -4.7707619e-04
  1.3283327e-04
 -1.2389101e-02
  2.0347022e-06
  6.8084148e-05
 -1.2453440e-04
 -2.7084114e-05
  1.1210500e-04
 -2.0914292e-04
  5.7264984e-05
 -6.5917976e-04
  1.0280817e-04
 -2.1296428e-03
  1.2108844e-04
  5.9085287e-04
 -2.1464776e-03
 -2.1985116e-04
 -2.2940029e-04
  1.7933444e-05
 -2.6021016e-04
  5.3219393e-02
  2.9435201e-04
  2.7104392e-05
  3.8832876e-01
 -1.9052076e+00
 -2.0122282e-01
  1.0662728e-01
 -7.7364868e-01
  6.9362885e-01
  1.6245636e+00
  1.1033025e+00
 -9.1549605e-01
  1.8926014e-01
 -9.3074024e-01
  6.4399634e-03
  2.3701695e-01
  1.6865113e-01
 -3.4730664e-01
 -6.1784583e-01
 -9.1574860e-01
 -8.9584738e-02
 -1.3059851e-04
 -4.8850685e-01
  3.9900118e-05
 -7.2625822e-01
 -5.9064132e-01
  4.4490793e-01
 -1.4567047e+00
 -5.0004876e-01
 -4.1182938e-01
 -4.7710377e-01
 -7.6250821e-01
 -1.2939768e+00
  2.9218489e-01
 -8.2634741e-01
 -6.5553606e-01
 -3.1306285e-03
 -1.8859622e-01
 -5.8733094e-01
 -1.3547117e+00
  5.4528467e-05
 -9.5719421e-05
 -1.2868365e-04
  5.0327595e-05
  3.3517252e-04
 -1.9508212e-04
 -2.2773609e-04
  6.4237411e-06
  4.9263079e-05
  6.2673271e-04
  3.5999092e-05
  6.9025860e-05
  7.6445962e-05
 -1.8786863e-04
  2.1592333e-04
 -1.4141369e-05
  1.2885900e-04
  1.2138667e-04
  4.3447013e-05
 -3.7821445e-07
  7.4330012e-05
 -9.5204841e-06
 -1.8042425e-05
 -7.8900135e-04
 -5.0381183e-05
  1.2568431e-04
 -6.6651133e-05
 -1.4403029e-04
 -2.3628792e-04
 -1.3259950e-04
  2.8901212e-04
 -1.3392698e-05
 -4.6509056e-05
 -6.9481479e-07
  3.0926819e-04
  1.8163069e-04
 -6.4581727e-05
  1.2961800e-05
 -3.1173825e-01
 -4.2917648e-01
  3.0628871e-03
  8.2715007e-05
  3.7622920e-01
  2.6144620e-02
  4.8127715e-04
  4.7759651e-04
 -3.2439613e-05
 -1.6662103e-05
  2.8003678e-05
 -2.1027774e-01
 -1.6103931e-04
 -1.9680559e-04
 -1.3514419e-05
  1.0170919e-01
 -1.3717287e-04
 -1.8842416e-05
  1.1637232e-01
 -1.3650837e-03
  2.4609558e-02
  4.0488000e-04
  4.2834342e-04
  4.5316378e-03
 -4.2726315e-05
  5.4415602e-02
 -7.3930146e-03
 -3.6244852e-05
  9.5207892e-02
  5.4137617e-01
  3.8021168e-01
  2.8388755e-05
  2.1261229e-05
  5.2402182e-03
 -2.6704159e-04
  5.6457102e-01
 -3.7165039e-04
 -2.8724835e-04
  4.9843052e-01
 -2.7182090e-05
  3.4136512e-05
 -3.7519647e-05
  3.2192802e-05
  6.2627478e-05
 -6.7703702e-02
 -3.8645991e-05
  5.1750785e-01
  1.2076921e-02
 -2.5858707e-04
  3.1696192e-05
 -4.2226751e-05
 -3.1542554e-04
  6.7039468e-06
  7.4201518e-05
 -1.4406424e-04
 -3.4287012e-05
  2.0399661e-04
 -4.1187018e-02
  9.9826102e-05
  8.1569602e-04
 -1.3626834e-04
 -4.5629215e-05
  1.7733658e-04
  3.5765868e-01
  7.9038627e-02
  3.7431937e-01
  2.3238990e-01
  3.2809699e-01
  8.0770871e-05
  5.9132897e-05
  1.3282802e-02
 -6.2970023e-05
  1.3846855e-03
  3.8121325e-01
 -1.6395561e-04
 -4.7089416e-01
 -5.4278703e-06
  1.8428217e-01
  3.4865893e-02
 -2.7097067e-05
  9.7205763e-04
 -8.5775644e-02
 -3.5564095e-05
  3.4313944e-05
 -1.9720988e-04
 -7.9277391e-04
  9.2319991e-05
 -3.5520305e-03
 -2.5885126e-03
 -1.7814658e-05
 -1.2566976e-04
 -8.4636515e-05
  1.1497935e-01
 -4.6459932e-02
  8.1349943e-05
 -5.1886207e-05
  3.9967126e-01
  1.3476929e-01
  1.6686670e-04
  9.3054805e-05
  1.8686765e-04
  1.4599106e-02
  3.7374216e-01
 -5.5546536e-07
 -9.0360530e-02
 -2.1091888e-05
  7.0234390e-05
 -1.5510245e-01
 -9.6130408e-02
 -1.8522047e-04
  1.9483647e+00
  1.3005659e-01
  5.0942862e-01
  2.9309178e-04
  8.3988494e-01
 -1.4783747e+00
 -9.2587966e-01
 -2.4665769e-03
  6.0880131e-01
 -4.9639207e-01
 -1.5836635e-04
 -1.0619415e+00
  4.0702123e-02
  2.2675311e-02
 -1.5379044e+00
  4.5613661e-01
  8.4240783e-05
 -7.5115147e-04
 -9.5420879e-01
 -4.0905005e-01
  6.4160627e-01
 -1.5415195e+00
 -1.0560935e+00
  7.7100426e-01
 -6.4338112e-01
 -4.0625152e-01
 -1.2676594e-05
  1.2092063e-02
 -2.2050042e-01
  8.3159363e-01
  1.8474562e-02
  5.0831050e-01
  1.3507851e-02
 -2.3908250e-01
  9.9259494e-03
 -9.3166912e-01
  1.7804924e+00
 -8.1881650e-02
 -6.1566811e-03
 -3.1113806e-01
 -1.3066518e-01
 -1.1791288e-03
  1.8058876e-02
  5.6047871e-04
 -4.0633018e-05
 -2.1084156e-02
 -1.6085795e-01
 -6.1608451e-05
 -2.2160065e-04
  5.3670076e-03
 -3.3619408e-06
  1.8957077e-04
  4.9076072e-05
 -2.1097856e-05
 -8.9017718e-05
 -4.3236032e-02
 -2.2870339e-04
 -1.4367689e-04
 -1.2176180e-09
  1.2053492e-04
 -6.2296740e-06
  1.3001471e-04
  3.2410240e-05
  2.2449493e-04
 -1.3200007e-04
 -6.1544668e-02
  2.6141892e-03
  3.1216221e-04
  2.7794752e-01
 -1.3700466e-03
 -4.6028122e-06
  2.4937321e-01
  3.7724336e-04
  7.1308561e-02
 -4.3169055e-03
 -1.3301644e-01
  4.3856534e-01
 -3.1582110e-02
 -1.0528013e+00
 -5.0395101e-02
 -1.0222486e-04
  4.6600571e-01
 -1.0576856e+00
 -6.5483138e-02
 -5.4416703e-03
 -1.5606474e-05
 -1.3445857e-02
  4.1829669e-05
  2.4095717e-01
 -1.0971812e-03
  4.5356899e-01
 -1.3148418e-04
 -6.8815229e-05
  4.3975621e-01
 -4.4448964e-02
  8.5502021e-02
  9.8369538e-04
  4.6763486e-01
  6.0204297e-02
 -3.4290977e-04
  8.8917604e-03
 -1.6249661e-01
 -9.6890668e-05
  3.2396364e-01
  1.3026963e-01
  1.7920043e-01
 -2.0782124e-04
 -3.9696679e-02
 -5.1809072e-01
 -1.5607755e-01
 -3.8173385e-02
 -1.6764932e+00
  2.7551921e-04
 -1.4846815e+00
 -1.0230276e-05
  1.7997071e+00
  1.3421760e-01
  4.1629511e-04
  3.0691445e-01
  3.8622998e-02
  1.6824412e+00
 -3.3227089e-01
  8.7483406e-02
  1.4772980e-01
  1.0820503e+00
 -5.7504100e-01
  1.4189703e+00
 -1.2122996e+00
  2.7492696e-01
  1.2000469e+00
  7.3439646e-01
  1.9153873e+00
  4.4209829e-01
 -3.5829492e-02
  1.5893034e+00
 -4.6956787e-01
 -1.4578347e-01
 -2.8286424e-01
  2.5955391e-01
  3.1374417e-02
 -2.3625724e-01
  9.4936915e-02
 -5.4211682e-01
 -1.1244761e+00
 -5.9432707e-05
  1.8317783e-01
  6.2069539e-02
 -2.5235611e-01
  4.6289656e-01
  5.6503713e-01
 -1.9649842e-01
  7.7660411e-04
 -5.1438534e-01
 -1.0024053e-04
 -1.2755550e-01
  9.6824080e-01
  3.0234421e-04
 -7.8667313e-02
 -1.7963332e+00
 -4.3152773e-01
  2.5532657e-01
  2.5381601e-01
 -1.3630153e-01
 -9.8351869e-05
  4.2213011e-01
  5.9035581e-01
 -2.5844104e+00
  2.3638589e+00
 -1.2605400e-01
  1.1213176e-01
  1.8273207e-04
  2.4275811e-01
 -3.6806922e-02
  2.0271434e-01
  4.4404278e-05
  3.3956796e-03
 -3.1559622e-01
  7.8198510e-01
 -5.6543644e-04
 -3.6914484e-05
  8.4054011e-01
 -3.8115147e-01
 -1.1329959e-01
 -1.4657633e+00
 -1.0454617e-05
  3.8960883e-01
 -3.3322090e-01
  1.1125469e+00
 -1.7555251e+00
 -2.8435115e-04
  1.1433390e+00
 -3.8739863e-01
 -5.9161153e-02
 -8.6464667e-01
 -9.3096405e-02
 -7.0750706e-02
  5.1808000e-01
  8.9151144e-02
 -1.4601828e-01
  5.7373393e-01
 -2.8029922e-01
 -1.0273380e-01
 -6.4804807e-02
  9.5598555e-01
  7.0440590e-02
 -1.1973807e-01
 -1.3333765e+00
  2.2547176e-01
 -3.6575657e-01
 -1.3240157e-01
 -1.2298547e+00
 -6.5383607e-01
  4.2260808e-01
 -2.2654611e-01
  6.2272906e-01
 -7.7260447e-01
  9.9258952e-02
 -5.8463514e-02
  9.5285070e-01
  3.1283131e-01
  1.9007115e-01
 -2.2539644e-01
 -1.3771072e-01
  3.2207608e-02
 -1.9099498e-04
  2.1467361e-01
  1.1320741e-01
  1.5185523e-01
 -1.8148886e-01
  2.8457147e-01
  3.9004508e-01
 -4.6086729e-01
 -8.1296451e-03
  2.8557014e-01
 -4.5254484e-01
  9.8257378e-02
  5.7867205e-01
 -2.7675202e-01
  2.6785976e-01
  1.3301148e-01
 -3.2263726e-02
 -5.4541528e-05
 -5.5517148e-02
 -2.2370212e-03
 -4.1122679e-03
 -1.8523797e-02
 -5.0784634e-05
 -1.6172023e-01
 -1.5103653e-04
  3.6855945e-01
 -2.6011874e-04
 -4.9753562e-03
  2.1363194e-01
 -1.7305827e-02
  8.6973497e-04
 -6.0079992e-04
 -1.4170999e-02
 -4.3388227e-01
 -1.7181758e-02
 -5.3902324e-03
  7.2390831e-05
  5.0628191e-01
 -7.1476774e-05
  1.3648486e-01
  5.8755453e-05
  1.3830940e-01
 -3.5532512e-04
  2.7467700e-04
  5.2952021e-01
 -1.2913414e+00
 -1.0010706e+00
 -1.3201421e+00
 -6.3848996e-01
  2.0617013e+00
  3.1240591e-01
  1.1963142e-01
 -9.7450785e-02
 -8.7942084e-04
  2.9262733e-03
 -2.9212257e-01
 -2.8225303e-02
 -2.9681777e-03
 -9.7188914e-01
  6.8442777e-02
  1.8719065e-01
  3.8092967e-05
 -9.4336530e-05
 -3.5015549e-04
  2.5012689e-03
  1.0072914e-01
 -4.6098526e-04
  1.9480847e-04
 -1.8312412e-05
 -6.1041635e-01
  6.1612765e-05
  6.3999884e-02
 -1.6483611e-03
 -5.7111789e-05
 -8.0792516e-01
  1.1083560e-02
 -1.1797637e-05
  3.4439366e-02
  6.4801679e-05
  4.2656013e-01
  5.4801114e-02
 -4.1851282e-01
 -8.9563620e-01
 -7.7919528e-02
 -3.6772642e-01
 -1.3698271e-01
 -1.1136299e+00
  2.6070479e-01
  2.6695362e-01
  4.0317914e-01
  6.0558168e-04
  4.7412789e-03
  3.2852089e-01
  6.1415470e-01
  9.0802459e-05
  6.8617427e-01
  4.8853748e-04
 -1.2626138e-01
  1.2846993e-01
  8.8062286e-02
  4.4654459e-01
 -2.6422817e-01
  5.9472829e-01
  2.9538336e-01
 -1.5885140e-03
  1.7386819e-03
 -9.2898412e-03
 -4.5907102e-05
  3.4750375e-01
  2.0279053e-01
  4.1360103e-02
 -1.1701028e+00
 -9.2301016e-06
  2.0779060e-01
 -1.5527282e-02
 -1.6427672e-01
 -2.2896456e-03
 -1.6284853e-02
 -7.6367095e-04
 -6.8160838e-01
 -2.2711039e-05
  3.0765820e-01
 -1.9963896e-04
  1.7259337e-01
  3.7889946e-01
 -4.5483065e-01
  2.1016982e+00
  1.7506351e-05
  2.4491692e-01
  2.6034316e-01
  3.8796258e-03
 -1.0727257e-03
  3.9775189e-04
 -1.0902900e-04
  1.9245337e-04
  3.3181874e-05
  7.0146739e-01
 -1.5783595e-04
 -5.7013280e-04
  3.8963401e-01
  8.1722290e-05
 -4.7572994e-05
  8.2852370e-05
  9.9535096e-01
  8.7399269e-05
 -6.4410567e-02
 -1.2719893e-01
 -9.8419718e-05
 -3.7987280e-01
 -1.0900468e-04
  4.1443571e-01
  3.1074616e-03
  4.4389611e-01
 -6.6759974e-05
  1.4369834e-04
 -5.1991767e-01
 -1.6904333e-01
 -1.5076715e+00
 -1.5712312e+00
 -5.1717561e-01
 -1.1638908e+00
 -1.4118398e+00
 -4.1534880e-01
 -2.8668725e-01
 -9.0968645e-01
 -4.2288366e-01
 -1.0526568e+00
 -1.8015699e-01
  5.6269928e-04
  9.8917091e-01
 -1.1313885e-02
 -1.5357800e+00
 -7.5441217e-01
 -1.6083995e+00
 -2.3487379e-01
 -1.0745076e+00
 -1.9012082e-01
  1.4085343e-01
  1.5202260e+00
 -1.0374850e+00
 -4.9874389e-01
 -1.4032949e+00
 -1.3159057e+00
 -9.6838540e-01
 -5.2836245e-01
  1.5526116e-02
  2.1803296e-01
 -1.6418037e+00
  1.5687538e+00
 -6.5653819e-01
 -4.8053533e-01
  4.1433471e-01
  1.6052670e+00
 -5.7267845e-01
 -5.0125973e-06
 -3.3862012e-05
  5.0174278e-01
 -1.3889942e-01
 -1.2994862e-04
 -8.1800134e-04
  8.0722868e-02
 -3.8425407e-01
  6.6975167e-06
  3.5392126e-04
 -1.4300093e-05
 -4.8511931e-05
  1.0957019e-01
  3.3517597e-05
  9.8935016e-05
  4.2546103e-06
 -2.1596518e-04
  8.8257613e-05
  1.1347930e-05
 -8.4791772e-02
 -5.3880114e-05
 -1.5787465e-04
 -8.8464579e-04
 -2.9218098e-05
 -1.1407041e-05
 -2.2891120e-03
  1.8361388e-04
 -1.4719325e-03
  2.9323685e-01
 -5.8511231e-04
  4.9752052e-06
  6.2429049e-04
  4.9437553e-04
  7.0637594e-05
 -7.1750444e-05
 -7.3770994e-01
 -2.4788456e-01
 -2.5726254e-03
 -1.1242752e-02
 -2.0629534e-01
 -5.7413507e-01
  3.0107099e-01
 -2.8383973e-01
 -1.4055859e+00
 -6.5757288e-03
  1.5012729e-02
  5.1718736e-01
  1.9155118e-04
 -7.3437104e-03
  2.9764205e-01
  9.9547237e-02
 -5.1386058e-01
 -4.4829525e-05
  9.0441890e-02
 -7.1333023e-05
 -7.1455652e-05
  8.2741752e-02
 -6.9092560e-01
  5.9550192e-02
  2.3207164e-04
  1.9414827e-02
 -2.7999995e-02
  7.8092073e-04
  5.6586313e-01
  6.1560199e-02
 -6.6473359e-01
  2.1146465e-02
 -3.6938407e-04
  3.6154483e-02
 -8.1225348e-01
 -1.5560165e-04
 -8.5576328e-05
  3.5026944e-05
 -4.7181296e-01
 -9.2116176e-07
  6.9966281e-06
 -2.4597629e-04
  3.8415100e-04
 -2.7889572e-04
 -3.2374379e-01
 -1.2721869e-01
  2.2149230e-05
 -9.0760633e-04
  1.1999939e-04
  6.4972934e-04
  4.0193630e-05
  1.1148524e-02
  2.2650531e-05
 -7.2798980e-06
 -2.3896997e-04
  1.6124622e-04
  1.5164078e-04
  8.0702157e-05
 -5.9978361e-04
 -1.5419901e-05
  1.1224270e-05
 -1.6238206e-04
  5.2368796e-01
 -3.2325252e-04
 -8.7748966e-05
 -1.5921815e-04
 -2.7581246e-04
  3.7200693e-03
 -2.3328189e-06
  1.4888051e-04
  3.6804875e-06
  1.5950261e-04
  5.2022675e-05
 -1.1030570e-04
 -5.3433275e-01
 -2.7092442e-01
  1.7881088e-01
  3.2666564e-06
 -5.9637582e-01
  1.1153316e+00
  3.3367008e-02
 -3.5243458e-01
  1.1186090e+00
  4.0019257e-04
  1.0820954e-04
 -4.1522384e-05
 -7.0668339e-06
 -5.7702000e-05
 -1.8035255e-01
  2.8732428e-04
  2.2929233e-05
 -4.2641873e-04
 -1.1353809e-04
 -4.2499456e-04
 -1.4566076e-04
  4.6583701e-02
 -3.9626501e-04
  2.7595283e-04
  1.5907953e-04
 -2.7097258e-01
 -1.8853677e-04
  5.8714033e-04
 -8.8204637e-05
 -8.0942627e-05
  9.2028695e-01
 -1.5752379e-05
 -2.6139385e-05
 -1.6459127e-04
  1.2994200e-02
 -1.2899349e-04
  5.4917973e-04
 -2.5605423e+00
 -9.3557847e-01
  7.2371387e-01
 -5.4732174e-01
 -9.9239475e-01
 -1.2954723e+00
 -1.0340786e+00
  7.9339230e-01
  5.4670745e-01
 -1.1743605e+00
 -8.8841510e-01
 -3.0197508e-03
 -1.4267898e+00
 -1.0253836e+00
 -1.6062505e+00
  3.0883011e-01
 -1.0018998e+00
 -1.8264239e+00
 -5.7047713e-01
 -8.7781590e-01
 -1.7235157e-01
 -2.2986689e-01
 -6.7340457e-01
 -1.0385028e-01
 -2.8358883e-04
 -7.5537026e-01
  3.1721327e-01
  8.9449644e-01
 -6.7587054e-01
 -1.4705135e-01
  1.3810297e+00
 -9.2837143e-01
  1.6039333e+00
 -4.6290165e-01
  1.3182461e-01
 -6.9954669e-01
  2.1330726e-01
  4.7388086e-05
 -5.3048739e-03
  3.3849475e-04
  2.1680409e-05
  3.9808605e-05
 -3.8481653e-01
  6.6127002e-01
 -1.3990169e+00
 -5.0250292e-02
 -9.5485673e-05
  4.2088483e-05
 -1.7413852e-01
 -1.8582362e-04
 -3.4583009e-05
  7.5166163e-06
 -3.4834378e-04
  2.2571801e-01
 -5.7937745e-05
  2.8744849e-04
  9.5110336e-05
 -1.2914439e-01
  6.7741130e-03
 -1.9170227e-04
 -3.4124725e-05
  4.9407863e-05
 -2.2262130e-03
 -5.0835588e-05
 -5.6165609e-05
 -5.9856242e-04
 -1.6087841e-04
  1.3022240e-02
  4.1852065e-05
 -3.0307172e-04
  1.5086235e-04
  9.8963216e-02
 -1.4274940e-04
  2.2033433e-04
 -7.4887133e-01
  1.1982996e-01
  1.0369106e-04
  1.9271596e-01
 -1.3298492e+00
  1.5107336e+00
 -6.7930145e-05
  2.1326472e-01
  2.7541056e-01
 -9.6936278e-02
 -1.5410554e-02
  9.1690361e-02
  1.1219919e-04
 -3.4908604e-05
 -4.2144805e-01
 -2.1825961e-05
 -1.4303499e-03
  1.8277996e-04
  6.6553120e-04
  2.5107214e-04
 -7.5160119e-06
 -1.1440320e-02
 -9.5534975e-05
  3.8035247e-07
  4.7448928e-05
  2.5066506e-04
  1.3475470e-05
  4.5170277e-04
 -1.1934511e-01
  2.9089717e-02
  8.8416412e-04
  2.3047489e-05
  1.8168661e-05
  2.5418997e-04
  1.4998597e-03
  3.5623325e-05
 -3.6357639e-03
 -1.2454617e-01
  1.1773098e+00
  8.6982918e-01
 -1.5224776e-01
  4.0049523e-01
 -1.4563062e+00
  1.6909566e+00
  4.2119941e-01
 -3.2438007e-01
  5.8156598e-01
  1.9375198e-01
 -1.2604355e+00
 -2.3534625e-04
 -7.3495418e-01
  5.2011747e-02
  4.0989828e-01
 -5.8514893e-01
  3.6147728e-03
 -1.0792282e+00
 -3.8252983e-02
  6.6737723e-01
  2.0064300e-02
 -1.1172664e-04
  3.3143103e-01
  3.5761435e-02
 -2.3740278e-01
  2.8333243e-04
  1.2419460e+00
  2.3437311e-01
  7.6166511e-02
 -2.2427568e+00
 -2.2682453e-04
  9.3693388e-01
 -4.0323931e-01
 -2.9134585e-02
 -6.7320548e-04
  3.0493948e-05
 -7.9208326e-01
  2.3152895e-01
 -9.8000866e-01
  6.1950460e-02
 -9.4877839e-02
  5.3622359e-01
 -4.0498096e-01
  2.2144995e+00
 -7.0790970e-01
  5.2244205e-02
  7.7809758e-02
 -4.8821134e-04
 -1.5005846e-04
  3.7313080e-01
 -3.3699971e-01
 -3.3139881e-02
 -2.6184475e-02
  5.6020846e-04
 -1.5932938e-01
 -1.4631802e-03
  3.9764160e-01
  6.3953662e-01
 -1.9073224e-03
 -6.0278058e-01
  1.3449718e-01
 -3.0905844e-03
 -2.8922495e-03
 -5.1522928e-01
  6.2879769e-04
  3.4612749e-04
 -1.1942171e-01
  2.6169387e-03
  3.3401835e-01
  1.0484502e-01
  1.4147043e-01
  3.1727949e-01
  4.8482851e-03
 -4.2858151e-01
  1.8723786e+00
  1.8220568e-03
  3.5124144e-01
 -3.0405340e-01
  1.1681554e+00
  2.3552044e-01
  2.3476592e-01
  4.1331681e-03
  3.0224654e-01
 -8.1754005e-01
 -2.2440547e-01
 -1.3055392e-04
  7.2123177e-02
 -1.8753339e-01
 -3.4054884e-01
 -4.0605530e-01
 -1.4994569e-01
 -1.1177729e+00
 -7.9996680e-04
 -2.9244733e-01
 -2.0027556e+00
 -2.8283191e-01
  2.1898488e-03
  2.9380471e-01
 -1.2072479e-02
 -2.1141262e-01
  4.2507827e-01
 -5.6025922e-01
  1.1631461e-02
 -3.4166530e-02
 -2.6212152e-04
  1.7018628e-03
 -1.8141820e-04
  2.1346027e-02
 -1.6829701e-01
  4.7471729e-04
 -4.6310477e-05
  4.4786083e-04
  4.9538412e-05
  6.6590160e-03
  2.1967248e-04
  6.0514431e-04
 -5.0931674e-05
  1.1618865e-04
 -1.0807805e+00
 -3.3352579e-04
 -2.3706825e-02
 -5.5551907e-05
  3.2662417e-04
  7.4300077e-04
 -6.4579112e-04
 -2.7289623e-03
 -9.2492810e-05
 -1.2527870e-04
  9.0248074e-04
  3.3160439e-04
  1.2212050e-04
 -3.1328294e-02
  3.1821305e-04
 -3.4041679e-04
 -1.7815677e-04
  1.0686868e-04
 -3.6533596e-04
  7.1534494e-05
 -9.7026044e-05
 -1.2970282e-04
  2.6685739e-02
  3.6258873e-04
 -1.6517927e-04
 -2.7820704e-04
 -2.7684746e-05
  1.8919862e-05
 -2.3928109e-04
 -8.8023713e-05
 -7.1063989e-01
 -4.8768420e-02
  2.8139826e-02
 -2.3220375e-02
  2.2754772e-01
 -3.0758616e-01
 -1.1946412e+00
  9.1686016e-01
 -1.1609054e-04
  1.3488673e-01
  2.5259778e-01
 -6.9105132e-05
  1.6567657e-04
  1.2791900e-01
 -5.0007857e-05
  1.3114064e-05
  6.5090040e-05
  1.8849839e-01
 -7.2992351e-03
 -2.7618864e-01
 -2.6596880e-03
  2.5433567e-04
 -2.5041151e-04
  2.4785774e-04
  7.0052825e-02
  5.6285789e-05
 -1.2622361e-01
  1.5046339e-01
 -1.3389005e-04
  2.0239887e+00
  4.1037325e-05
 -1.4246455e-04
  1.7865392e-05
 -1.4759374e-01
  2.0101158e-02
  4.6828119e-04
  8.5076392e-01
  1.7223357e+00
 -1.2405847e-01
 -8.3520830e-02
 -7.7567548e-01
  6.1718684e-01
 -7.9521790e-02
 -1.7657473e+00
  1.9788991e+00
 -1.1414685e-02
 -1.4034456e-01
 -1.8857489e+00
 -1.8791358e-04
 -5.9271359e-01
  3.0977917e-01
 -1.6108334e-02
  1.5759646e+00
 -9.0961921e-01
 -1.5487003e-03
  1.5960350e-04
 -2.5289097e-01
 -1.0346205e-02
  8.8549650e-06
  2.0504268e-01
 -4.4581681e-04
  8.4299886e-01
 -2.0772134e-01
  1.9247570e+00
 -2.6187437e-04
 -1.7137271e-01
 -6.0942197e-01
  6.6123998e-01
  4.8021597e-01
  1.6151145e-04
  2.9255841e+00
 -6.7011635e-03
 -8.7077649e-05
  1.2363011e+00
  3.3781681e+00
 -1.8458335e+00
 -8.3415463e-05
  7.6284446e-02
  2.8841543e-01
  1.6505836e+00
 -9.7274882e-01
 -3.4730885e+00
  4.8948690e-02
  2.2233675e-01
  5.0756234e-01
  3.6148232e-04
  1.5283624e-03
 -1.6185554e-02
 -1.6272522e-04
  3.5407946e-01
 -1.4573948e-05
  1.6714503e-01
 -2.6880129e-05
  2.4168214e-01
 -6.6743582e-01
  2.5068772e-01
  3.9049760e-02
  1.4927386e-03
  2.4232958e-03
  7.0137575e-02
 -4.1517827e-01
  1.5699279e-01
  4.9848791e-04
 -1.5378691e+00
 -6.6392298e-05
 -1.7891766e-01
  5.7233922e-04
 -4.1310942e-01
  6.5705580e-01
  2.0123986e-03
  9.3873948e-02
 -5.2795988e-01
  2.6531366e-01
  2.2234775e-01
 -6.4354891e-01
  4.3897313e-01
 -2.9109482e-04
 -4.4456968e-01
  8.2970560e-02
 -2.4708875e-03
 -4.6764955e-02
  1.1662772e-02
  3.6390204e-05
  1.3130247e-04
 -1.2619168e-01
  1.8322442e-04
  3.9002153e-01
  1.4360985e-01
  4.5316246e-01
  2.0115731e-04
 -8.5300595e-02
 -4.0224725e-01
  1.8417137e-04
  2.3451378e-06
 -2.0933987e-05
  6.3960254e-03
  1.3322447e-04
  1.1903971e-03
 -2.7630469e-01
 -2.7742763e-06
  1.6693746e-01
  1.9660545e-06
  1.2319059e-04
 -2.0755286e-05
 -2.9326293e-06
 -1.6600089e-01
 -2.1693596e-01
  4.1911513e-05
 -3.4538782e-01
 -3.2253945e-04
 -4.2043350e-05
 -7.5995813e-05
  7.4210977e-05
 -3.3289733e-04
 -5.0000901e-05
 -8.3141237e-01
  4.2271193e-05
 -1.7848186e-04
 -2.3377741e-05
 -1.8745245e-04
 -7.3930962e-05
  9.9672739e-05
 -2.1000422e-04
  8.8381406e-05
  8.4910265e-05
  4.4582928e-05
 -2.6272034e-04
  4.1986012e-05
  1.3777628e-04
 -9.3736426e-06
  2.2965675e-04
  2.1501726e-05
 -2.4954195e-04
 -2.1382079e-04
 -2.9191840e-04
 -6.6787303e-05
 -1.7284330e-04
 -1.7989532e-04
 -2.7250286e-04
  1.4160543e-05
 -2.4716576e-04
 -1.0655925e-05
 -1.4723036e-04
 -1.2240188e-04
 -2.3234355e-01
  1.4210167e+00
 -3.3225890e-02
  1.5093521e+00
 -1.5303779e+00
  6.3054574e-01
 -4.1860798e-01
  9.2408001e-01
 -7.2640479e-01
  6.0093915e-01
 -2.4605628e-02
 -2.4676217e-01
  4.3229397e-02
  3.1992102e-01
 -1.1838408e-02
  2.9717353e-01
  7.0193136e-04
  4.8176511e-03
  4.3999448e-01
 -4.2811821e-06
  2.1190623e-04
 -6.7904443e-02
  6.4074934e-01
  3.9831087e-01
  1.4906423e-01
  1.1194233e+00
  4.2226105e-03
  2.7746119e-04
  3.3327006e-02
  7.7831142e-02
  1.1169222e-02
  1.8751307e-04
 -1.5364571e-02
 -7.6710902e-02
  1.1364887e+00
  7.7421308e-01
 -7.4235424e-03
 -6.4936829e-01
  1.3446425e+00
 -1.7349093e+00
 -1.6752558e+00
 -2.2190690e-01
 -1.6834729e+00
 -2.5326653e+00
  4.4639613e-02
 -2.6739380e-01
 -1.0125984e+00
 -3.9942032e-01
 -1.6061424e+00
 -3.8044134e-01
 -5.7708001e-01
 -5.4059947e-01
 -1.5098166e-02
  1.7684264e-01
 -2.5248167e-01
 -1.3762141e+00
 -4.6002522e-02
 -4.9078351e-01
 -1.1954566e+00
  3.3196658e-01
 -2.9178119e-01
 -1.2604162e-01
 -1.4610973e-01
 -1.6784888e-05
 -7.9832757e-01
 -5.1401359e-01
  6.2085644e-05
  1.0943362e+00
 -6.3764557e-02
 -2.4540186e+00
  1.3824584e-01
  1.3861377e+00
 -3.4386147e-04
  1.2313889e+00
  2.4816445e-05
  2.9362905e-06
  3.1668134e-04
 -9.0950562e-05
 -2.2378093e-05
 -1.7034978e-04
  1.3217886e-04
  1.4104366e-01
  4.9327442e-05
 -4.9621146e-04
  2.5371817e-04
 -3.2423856e-03
 -1.8075408e-04
 -3.4412660e-04
  1.2366234e-04
 -2.5296771e-05
  5.6767010e-05
 -2.7184861e-04
 -5.2455896e-05
 -1.1549036e-04
 -5.5171015e-05
  4.7565706e-04
 -3.8606100e-05
  8.0557278e-05
  1.2684429e-04
 -1.1717179e-04
  2.5107940e-05
  1.9675036e-04
 -6.2789259e-05
  8.7450417e-06
 -3.0767388e-04
 -5.9124486e-05
  2.0935815e-05
  1.4059413e-02
 -5.2362495e-05
 -9.1070913e-05
 -3.1463635e-05
  5.5066131e-02
  6.1398816e-01
 -5.1027757e-01
  1.2631902e+00
 -2.5429347e-01
 -1.7288218e-04
  1.3090564e-04
  3.3171012e-03
 -2.8282133e-01
  1.2134243e-04
  1.4124600e+00
  2.6765814e-01
 -3.7933576e-05
 -1.8820623e-05
  9.1735184e-02
 -4.5441885e-02
 -6.3170081e-01
  3.8837063e-01
  2.5045875e-01
  1.1514203e-04
  1.0897328e-04
  2.2548007e-02
  3.1814285e-04
 -6.5346147e-05
  1.3635350e+00
  1.9306183e+00
  9.6228039e-05
 -4.5512667e-01
 -1.3973340e-04
  5.7361316e-02
 -4.9321265e-05
  2.8317594e-03
  1.9499098e-01
  1.0017342e-03
  1.5684713e-01
  2.9994437e-04
 -1.2256355e-04
 -4.2900613e-01
 -3.3385801e-01
  6.5060335e-01
  6.6196877e-01
 -2.3779748e-01
 -1.1085386e+00
 -2.0312957e-01
 -1.8079859e+00
 -9.1459525e-01
 -1.1314316e+00
  1.8713665e-01
 -2.1379143e-01
 -9.4093740e-02
  2.5902098e-04
 -5.5453920e-01
  2.0943762e-01
  8.9123972e-02
  1.2601323e-02
 -2.1944939e-05
 -1.4154593e-02
  9.2758454e-02
 -4.1200104e-01
  3.4657389e-02
  6.8778631e-05
  7.8461456e-01
 -2.8370729e-01
  2.3898103e-03
  3.9121977e-04
  4.8317569e-01
  8.6728358e-01
 -7.4446094e-01
  2.6953661e-01
  2.3103373e-01
 -8.5929799e-01
 -4.8512137e-01
  7.1102977e-01
  7.1208932e-02
  1.6224980e+00
  1.0295855e+00
 -1.8304170e+00
 -3.1809625e-04
 -2.0739474e+00
  1.3485830e-01
  5.0933325e-01
  1.0482531e+00
 -3.4111595e+00
 -1.5961957e-01
 -4.1224514e-03
  1.4940487e+00
  5.3153544e-05
 -7.5292657e-05
 -6.9241077e-01
  5.2948290e-01
  1.2890290e+00
  1.3972500e-01
 -3.1331426e-01
  1.0605178e-02
  5.1291318e-05
  1.3810598e+00
  3.6854267e-02
 -3.1770239e-04
 -1.7548225e+00
 -1.4456187e+00
  2.8313851e-04
  1.8375503e-01
 -2.2489063e-02
  3.5415657e-04
 -1.6226633e+00
 -7.3057257e-05
  1.0307551e-02
 -1.6851294e-04
  3.0199125e-01
  1.6005673e-05
 -4.1166987e-02
  5.0164288e-01
 -2.8230330e-01
  5.2869534e-01
  1.8241838e+00
 -7.7960747e-01
  4.1048941e-01
  2.2860870e+00
 -1.3078268e+00
  2.8684087e-02
 -1.9828701e-01
  7.6476997e-01
  2.5144219e+00
 -1.0467976e-04
 -2.3066688e-02
 -4.4296172e-01
 -3.9928940e-01
  1.3972545e+00
  8.3330148e-01
  2.0930502e+00
 -2.9443868e-04
 -9.9717444e-01
  3.9658457e-01
  7.7790275e-02
  8.2289761e-01
  2.1169440e-01
 -1.1649379e-01
  2.2607155e-01
 -2.1786107e-01
  7.2862250e-01
 -3.7844282e-01
 -2.0366919e-01
  3.8826915e-05
  1.9722512e-02
 -1.0117251e+00
 -2.4977949e-01
  8.6624250e-03
 -3.7866363e-01
 -1.4952353e-01
  1.2165689e-01
 -7.7043250e-02
  2.1283467e-01
  1.2063663e-01
 -7.1802489e-02
  8.6279416e-01
 -3.4654349e-01
 -9.5198721e-01
 -4.6221617e-01
 -2.2080910e-04
 -9.7712064e-03
  2.5100270e-04
  2.5727444e-05
 -2.2582216e-03
 -5.6337070e-01
 -3.6228805e-05
 -1.8950993e-02
  1.3126674e-03
  9.4611265e-02
  2.2020076e-01
 -1.5259825e-01
 -6.2803236e-05
 -1.8520279e-01
 -4.4172712e-02
 -2.9255682e-01
 -4.4406565e-06
 -4.0232906e-01
 -3.3518860e-01
 -1.5992677e-01
  4.4531003e-01
 -3.0676677e-04
  1.5267600e-01
  1.1745460e-04
  1.1335725e-01
 -4.3306500e-01
 -1.6432333e-01
 -4.6703950e-02
 -1.3751297e-01
 -5.4321041e-05
 -5.9246033e-02
 -1.0697939e+00
  8.8973486e-01
 -3.2117149e-01
  8.2110727e-01
  4.1632554e-01
  5.6877905e-01
  6.3294941e-03
  3.1977192e-01
 -3.4826408e-05
 -7.0998162e-02
 -1.2302456e-02
 -1.8186266e-02
  2.0333462e-04
 -2.6524509e-04
  1.7761436e-01
 -3.1136637e-04
 -4.8542756e-04
 -6.8538648e-04
 -1.6417680e-04
 -6.0336614e-01
 -5.1010090e-01
  1.4601655e+00
  1.5208169e-04
  2.6060220e-02
 -1.6272493e-03
 -4.6188702e-04
  3.1996763e-06
  1.7336672e-04
  4.2425257e-01
  1.6932745e-04
 -1.4227805e-02
  1.2041195e-05
  5.9712729e-05
  8.3106948e-05
  2.1779673e-01
 -4.3262058e-01
 -4.2978804e-06
 -2.8162709e-01
 -2.0395356e-01
 -1.1693765e-03
  1.0412879e+00
  8.0294669e-01
 -1.9951244e-03
  2.9658899e-01
  2.8362891e-01
  1.0523279e-04
 -3.5691763e-05
  1.3848560e-01
  9.7882315e-05
  2.8189120e-04
 -1.1261643e-04
 -9.5593496e-05
 -4.6438412e-04
  2.3721237e-01
 -8.0481008e-02
  9.8358956e-05
  2.5972544e-04
  9.3221462e-07
  5.6714931e-04
  2.9340369e-04
  2.2871445e-04
  1.4167968e-03
  1.9090656e-04
 -1.6371838e-05
  2.1312792e-04
  1.3543517e-04
  4.1279112e-04
 -2.0253935e-04
 -4.0922969e-05
  1.1649041e-04
  6.3234795e-05
  4.9524236e-04
  1.0470289e-04
 -7.6629478e-04
  1.8971863e-04
  6.9772312e-04
 -9.6509639e-06
  2.1567463e-04
 -3.8549355e-05
  1.5785004e-04
  3.4907728e-04
  2.9013740e-04
  1.7488033e-04
 -4.7631250e-04
  1.1341762e-04
 -9.3802773e-05
 -2.5799122e-06
 -4.4530725e-07
  1.2799479e-04
  5.2227424e-06
  2.4604466e-05
  3.6349008e-04
  1.1950271e-04
  9.6458789e-05
  5.6569360e-04
 -7.1072347e-05
 -1.8689407e-05
 -1.8043494e-05
 -1.9382502e-05
  5.4969263e-07
  6.6830422e-04
  1.0331202e-04
 -3.4508391e-04
  1.4076192e-05
 -5.6500954e-04
 -3.1520709e-04
  1.1435653e-04
 -3.0408057e-05
 -3.4354631e-05
 -3.3923458e-05
 -2.0610512e-04
  8.4164185e-06
 -7.9893929e-05
 -1.7697665e-05
  1.2598454e-05
  3.2663174e-05
  1.8789709e-05
  1.8453164e-05
 -5.0703634e-04
  1.3258941e-04
 -1.1302495e-06
 -1.1463575e-04
 -2.6634380e-05
  2.1984370e-05
  1.6557061e-04
 -8.5916954e-06
  1.7337706e-04
  4.5198129e-04
  1.4782262e-04
  2.5766843e-05
  1.3260540e-05
  1.7337599e-04
  1.7622002e-05
  2.1157283e-04
  9.3399278e-05
 -2.9918692e-05
  8.6107328e-05
 -2.1140408e-05
 -3.2195196e-04
 -2.3362245e-05
 -8.9274334e-05
  7.2732000e-05
 -2.2605482e-04
 -3.0161868e-04
  3.9351824e-05
 -1.3488872e-03
 -1.8611258e-04
  2.8537929e-01
  7.9029423e-01
 -9.2937782e-02
 -2.5908390e-01
 -2.2656360e-01
  1.9592782e+00
  2.9370916e-04
 -3.1101308e-04
 -3.1375219e-04
 -1.2473461e-04
  4.8077565e-02
 -1.2545785e-03
 -1.4349676e-04
 -5.7641068e-04
  5.5766653e-04
  1.0823680e-02
  6.7006360e-05
 -1.5409961e-03
  1.5065857e-04
 -9.9777877e-05
 -2.3888166e-04
  4.5641096e-05
 -3.9149836e-05
  6.5875196e-05
 -2.2969835e-02
 -1.9515354e-04
  2.5399390e-04
 -3.2839940e-05
 -5.6690926e-05
  4.0945313e-03
 -1.6760601e-04
 -3.0901155e-01
  1.2253046e-04
 -1.1605234e-03
 -1.7685033e+00
  1.5101210e+00
  2.0702806e+00
 -4.8470744e-01
  8.2493019e-01
 -7.5049335e-01
  3.2758634e+00
 -1.5726125e+00
 -1.5064087e+00
 -8.3159131e-05
 -2.0617735e-02
 -4.6698937e-01
 -2.1974629e-01
 -2.5242958e-02
 -3.3362713e-01
  1.1477482e-01
 -1.1847617e-04
 -4.6312171e-01
 -4.2669469e-01
  6.7541521e-05
  6.4335877e-01
  3.5458308e-02
 -5.2009130e-01
  2.0238697e-04
 -7.5271702e-01
  1.4401793e+00
 -8.4265746e-02
 -5.7521892e-01
  5.9649594e-02
 -2.1871980e-02
  1.3997409e-01
 -6.9851384e-02
 -2.4877504e-01
 -6.2121129e-01
  2.3124519e-01
 -4.9870390e-01
 -7.0777531e-03
  4.0291902e-01
  1.5225601e+00
 -3.1700099e-01
 -1.1089850e-01
  1.9920634e-01
  1.1401237e-01
  7.7522591e-02
 -9.3646568e-01
 -1.1458417e+00
 -1.3175718e-01
 -9.5505879e-05
  4.7871219e-03
  1.5893434e-01
 -6.6746568e-04
 -1.1694083e+00
 -5.7634807e-01
  1.1396748e-02
 -3.0281399e-03
  6.0026869e-03
  2.2648704e-01
 -1.0951496e-04
 -2.1850892e-05
 -5.2206724e-05
 -7.5705677e-05
 -2.9596356e-03
  1.6375721e-01
 -1.2284810e-04
  6.5380740e-03
 -2.9499537e-01
 -3.0537727e-04
  4.5135167e-01
  2.2176524e-05
  3.6067992e-01
  1.7639629e-04
  3.9018369e-01
 -8.7590115e-03
 -4.8625250e-03
  3.8100693e-01
 -1.5411794e+00
 -1.3667288e-04
  1.8058110e-04
  9.9179220e-01
  3.6141929e-01
 -2.2872840e-01
 -4.7774339e-01
  1.1051632e+00
  1.2850860e-03
  8.1305002e-04
  4.7998300e-01
  8.6570530e-05
  2.7401283e-04
 -6.7427993e-01
 -4.6088095e-04
 -8.9820205e-05
  9.8789751e-04
 -2.8648981e-04
 -1.1931068e-04
  2.2053182e-05
  7.2072618e-02
 -9.6439362e-05
  3.1655226e-04
  8.6713693e-04
  1.4036748e+00
 -2.8429802e-05
  3.0816141e-01
 -1.0284371e-02
  5.1976257e-04
 -1.2981425e-01
  5.3452491e-04
 -3.3973272e-05
 -6.5776185e-05
  3.2637159e-05
 -1.6477998e-05
 -6.0068240e-05
 -3.7842873e-01
 -8.6105293e-01
 -1.4180879e-01
 -4.6182096e-02
  4.7603735e-05
  1.0695989e+00
 -1.8718695e-02
 -7.3409885e-01
 -4.6766847e-02
 -1.8261834e-03
  6.3401583e-04
  4.1104306e-04
  5.1686198e-05
 -2.6218244e-04
  1.3738742e-02
  8.1484846e-05
  1.0040192e-05
 -3.5230658e-04
  4.1809916e-01
 -4.1097170e-05
  1.6671857e-01
 -1.6357778e-01
 -1.6064801e-04
 -1.3067150e-04
 -2.4876840e-04
  1.5675343e-04
  9.8587581e-05
 -2.3452173e-01
  3.0801740e-01
 -5.0570629e-06
  1.9944680e-01
  2.6944361e-03
  2.4374055e-03
  7.1444757e-02
 -4.0996331e-01
  1.7646907e-01
  1.2850056e-03
 -7.4827904e-01
  1.0569696e+00
 -1.2516098e+00
 -7.0682847e-01
 -4.6203724e-01
 -2.5412619e+00
  2.4634764e-01
 -1.0341898e+00
 -2.0010209e+00
  7.1121275e-01
 -1.7474994e-01
 -1.4704505e+00
  5.7866931e-01
  1.6262960e+00
  5.8936286e-01
  2.5317195e-01
 -2.9063931e-02
  1.2382482e+00
 -1.0920653e+00
 -2.5251601e-02
  1.1870292e+00
  1.3324909e+00
  1.3196535e+00
  5.0637704e-01
  1.2139176e+00
 -4.9241287e-01
  1.4729453e-03
  1.7375624e+00
  7.6352842e-02
  2.6674637e-01
  1.7421962e+00
  5.8684015e-01
 -1.7580061e-01
  6.5030462e-01
 -6.1598025e-02
 -1.4316839e-04
  9.2859483e-01
 -8.0842710e-01
  5.7408530e-02
  1.2210983e+00
  2.6312235e-04
  7.6809925e-01
  1.3462927e+00
  4.0624392e-01
  2.5060388e-01
  7.2300717e-02
  2.9702857e-01
  1.2424644e-01
  8.5533690e-01
  1.5516626e-04
  1.9273801e-01
 -2.4189703e+00
  3.1580955e-01
 -1.5091540e-03
  7.4440613e-03
  3.2634422e-01
  6.7953755e-05
 -2.9184166e-01
 -2.0787589e-01
  5.7409081e-04
 -1.9984247e-01
  2.7791172e-01
  3.8554367e-02
  2.5809069e-05
 -4.3960250e-04
 -7.7827973e-03
  5.7005191e-01
  2.4962027e-01
 -2.0120882e-04
  7.9561454e-01
 -7.0220420e-05
 -2.0279214e-01
  8.0319832e-04
  3.3159933e-05
  1.3085132e+00
  4.3534343e-03
  5.2075487e-01
 -1.4633555e+00
 -1.4016622e+00
  5.2405369e-01
 -8.9515674e-01
  2.0726173e+00
  1.5215592e+00
 -1.5634903e+00
  2.0482068e+00
 -1.1879027e+00
 -9.1933936e-01
  3.4920818e-01
 -2.4919217e+00
 -5.7070881e-01
 -1.5216021e-01
 -3.5720164e-01
 -1.1540837e+00
 -1.0314516e+00
 -2.6063007e-01
 -1.6847862e+00
 -4.1019592e-01
  3.8503771e-05
  1.9973798e+00
  5.7276452e-01
  5.5810183e-01
 -1.0784711e+00
 -2.4735753e-01
  4.6665969e-01
  1.5361881e-01
 -5.8452630e-01
  2.2685196e+00
  8.7117577e-01
 -5.4817146e-01
 -4.4144455e-01
  2.3357651e+00
 -1.8301684e-02
  1.1367129e+00
 -3.6745694e-01
 -4.3461344e-01
  1.1502649e-01
  3.6697322e-01
 -6.3339788e-01
 -1.4257041e+00
 -3.7706509e-01
  8.0710155e-04
 -4.7994331e-01
  2.4334675e-01
 -1.2270323e+00
 -3.9014565e-03
 -6.7617458e-01
  8.3598131e-01
  6.8941307e-01
  1.8784434e-01
 -7.4804336e-01
 -8.4157720e-02
 -6.9153672e-01
  5.7509142e-01
 -1.3028542e+00
 -3.9191920e-01
  5.3211671e-01
  1.8077313e+00
  3.8250972e-05
  2.0739198e+00
  1.0588602e+00
  3.5009223e-01
 -1.9256207e+00
 -2.4814212e-01
 -7.6598054e-01
 -7.1269727e-01
  1.1000180e-01
  2.6885231e-05
 -2.6642312e-03
 -1.5897112e+00
 -7.2113925e-01
  8.1573564e-01
 -9.8961359e-03
  1.4235893e+00
  7.4010074e-01
 -2.0291536e-01
 -3.4043121e-01
  5.9875280e-01
  1.2060466e-01
 -1.9539300e-01
  1.6560626e-01
 -1.6407813e+00
  4.5324075e-01
 -3.4485358e-01
 -7.4968763e-02
 -4.5257956e-01
  5.1273191e-01
 -1.5999657e-01
 -5.5300039e-01
 -7.3483461e-01
  4.6891809e-01
 -1.9679038e-01
  3.2791321e-03
  5.8110577e-01
  1.1618572e+00
  1.5658571e-01
  3.7192789e-01
 -2.8104046e-01
 -3.5429012e-02
 -1.4756992e-01
 -1.7904213e-01
  2.3671690e-02
 -1.1890333e+00
  4.5053366e-01
  2.6430132e-02
 -2.4261215e-01
 -6.7433156e-02
  2.9779908e-01
  7.8334570e-01
  2.2395281e-04
  4.0039209e-01
 -5.6009907e-01
 -3.9489028e-01
 -1.2716037e-01
  1.6376936e-01
  3.5245910e+00
  7.6133833e+00
  2.7992187e-02
  2.9651170e+00
  8.8898677e-01
 -5.5260468e-01
  9.1944444e-01
  6.5784293e-01
  1.5353705e+00
  2.8548038e+00
 -4.2527205e-01
  6.1962474e-03
  1.7827454e-04
 -1.7617239e-01
 -7.5214855e-05
  7.7329780e-05
  1.0636330e+00
  1.2851080e-01
  1.3746166e+00
  2.0519605e-01
 -9.8776795e-02
 -7.8864050e-01
  1.3154132e+00
 -3.3603373e-04
  1.3055791e-01
 -1.7939566e+00
 -1.7500444e-01
  1.4288616e-01
  1.0351233e+00
  2.3915231e+00
  9.8933659e-02
 -1.1482300e+00
 -1.9330403e-01
  5.9682608e-01
  1.8147765e-01
  1.1377072e+00
  1.0375958e-01
 -1.4930513e+00
 -3.1969994e-02
 -4.8802560e-04
  2.5891688e-01
  4.3913500e-05
  1.8866530e-01
  1.5789917e+00
  9.3508296e-02
  4.1665295e-01
 -1.3067023e+00
  5.4698746e-04
 -4.0811837e-01
 -3.7366503e-01
  1.3934518e-01
 -1.3604140e-04
  1.8648363e+00
 -1.3434832e+00
  1.6954548e+00
 -1.8999738e+00
  1.3075060e+00
  2.2102513e+00
  1.7192001e+00
 -3.4871817e-04
  9.7642630e-01
  4.5090491e-01
  6.9255894e-01
 -4.6310410e-01
 -1.5174575e+00
 -4.6984129e-02
  1.0181490e-01
 -7.7112019e-03
  1.2034760e-05
 -5.2345282e-01
 -1.0297266e+00
 -3.2382705e-03
 -6.9276434e-01
 -2.6114032e-01
  2.7751520e-01
  2.0444238e-01
  4.0006575e-01
 -2.6622567e-01
  2.2188181e-01
 -2.8131635e+00
  9.4045991e-01
 -5.1668072e-01
  6.9536185e-01
 -6.5881574e-07
 -1.4026946e+00
 -8.2418931e-01
 -2.8552153e+00
 -1.8896537e+00
  1.5006526e-01
 -7.3702043e-01
 -1.0726510e+00
  5.7174289e-01
  2.8115068e-05
  9.0362228e-06
  7.6072901e-01
 -1.8431248e-05
 -3.5547520e-04
  5.5666614e-01
  3.6120447e-05
 -1.8461851e-05
  3.0157712e-04
  9.4845360e-05
 -1.8060245e-01
 -9.8078173e-01
  2.1279968e-01
  2.9494832e-03
 -9.2491490e-01
 -2.4543865e-02
 -3.5862455e-01
 -2.3538175e+00
  9.2432030e-02
  1.4547609e+00
  3.9758730e-01
  1.9108864e+00
 -1.4938169e+00
 -2.8762206e-01
 -1.1634575e+00
  1.7659996e+00
 -6.2231398e-01
 -1.3818516e-04
  2.6296049e-05
  2.0627824e-03
 -9.9986524e-04
 -2.5328595e-02
  4.1533265e-02
 -7.4430257e-02
 -6.9712681e-01
 -6.7832243e-01
  8.3287591e-03
 -7.3547488e-01
 -2.1705029e+00
 -2.5437453e-01
 -1.4261656e+00
  7.4095935e-01
 -3.9939713e-03
 -2.1708204e-01
 -4.4263530e-01
  5.1374750e-06
 -2.6253340e-01
 -2.8720064e+00
 -6.8727392e-01
 -4.4711959e-01
  8.9651036e-01
 -1.0304019e+00
  1.4386686e+00
 -2.3637217e-02
  3.8778933e-05
  1.3504861e-04
 -1.5002215e-01
 -1.4627671e-01
  3.8838755e-02
 -2.5791216e-01
 -1.0975175e+00
 -6.6482760e-02
  1.2431895e+00
  2.4317818e-04
  1.0358539e-01
  1.3834929e-01
 -1.1100972e+00
 -4.7583050e-01
  1.4893797e-01
 -1.1249529e+00
 -2.0980322e+00
 -1.5587031e+00
  2.6812508e-05
 -2.9954675e-01
  4.8004854e-01
  7.6490253e-01
 -2.2362983e-04
  4.9012632e+00
 -9.1800958e-01
 -1.3158959e+00
  1.2878155e+00
 -2.5948581e-05
  6.1195809e-04
 -1.9851643e-04
 -7.5072385e-05
 -4.0484307e-04
  3.1680200e-04
 -6.8318885e-04
  4.7022766e-01
 -2.9806703e-01
 -2.8386893e-02
 -2.3328592e-01
 -1.0789697e-04
  2.7799264e-01
  3.4392096e-02
 -7.5423628e-02
 -1.6347982e+00
 -1.2917074e+00
  2.0708692e+00
  2.3697156e-01
 -1.4398973e+00
 -3.7305158e-01
  1.8788417e-01
 -2.0826334e-01
  5.5968904e-01
 -6.5283507e-01
 -3.3896384e-01
  6.7879379e-01
 -3.1280313e-02
 -1.5931157e-04
  8.3667472e-02
  1.8759038e-04
  7.4930000e-04
  2.7447946e+00
 -1.3878317e-01
  6.1693616e-02
 -7.7430174e-02
 -4.5462305e-04
 -4.1856103e-02
 -5.3317046e-01
 -3.8994087e-05
 -3.0457011e-01
  3.5309860e-01
 -5.6076650e-02
 -3.3619814e+00
  1.4679334e-01
 -4.8710572e-05
 -4.7789548e-02
 -7.7459687e-01
  2.3518056e-02
  3.3904873e-02
 -1.6895930e-01
 -9.6904910e-01
 -3.5135485e-03
  7.5960916e-01
 -3.8822756e-05
 -4.9869039e-05
 -9.9380595e-06
 -3.7712245e-05
  1.5023381e-01
  1.3144284e+00
  6.9234240e-01
  1.0868279e+00
 -1.1318780e+00
 -1.8711785e-02
 -6.9578504e-03
 -7.9083723e-01
 -3.7818348e-01
 -3.1732711e-01
  8.2445204e-01
 -1.4804896e+00
  3.4542331e-01
  4.4240665e-01
 -9.9432208e-02
  1.9101416e-01
  2.8426850e-03
  4.2261649e-02
 -2.4120690e-02
 -5.4524791e-01
  2.8726802e+00
  2.4707682e+00
  5.1996118e-01
 -1.4341147e-04
  5.9769860e-07
  1.6329022e-02
 -2.5231553e-05
 -8.7540259e-04
 -1.1555226e-01
 -6.2412307e-02
  1.0555573e+00
 -1.1340778e+00
  4.2667559e-01
  9.4365430e-01
 -2.3538679e-01
  1.3513064e-01
  1.6039355e-04
 -6.8509978e-01
 -1.2643808e+00
 -6.8737078e-01
 -1.8536707e+00
 -1.5229568e+00
 -2.7532503e-01
 -6.4649171e-01
  1.9937770e-02
 -6.6114801e-01
  6.6312641e-01
  1.0065650e+00
 -7.1133411e-01
 -1.2096485e-01
  2.2953351e-01
  3.1862564e-02
  1.5977049e+00
 -2.5914150e-04
  5.3039499e-02
  1.0483640e+00
  9.5872557e-01
  2.4131060e+00
 -3.0637441e+00
  3.3477327e-04
  2.4180199e-01
 -6.8050802e-01
  1.9937140e+00
  1.3300641e-01
 -2.0149825e+00
 -1.9133240e-01
  5.3849787e-01
  7.2386962e-01
 -6.2382615e-01
  1.1583221e-01
  1.3450363e+00
  5.9246719e-01
 -2.7907142e-02
  1.5042344e+00
 -3.3723300e+00
  9.3778878e-01
 -8.3603859e-01
  5.8982730e-01
  3.6111588e-04
  1.4399353e+00
 -3.2496399e-01
  3.8314322e-01
  5.2420300e-01
 -9.9167997e-01
  1.2425627e-01
  3.1981423e-01
  2.3050339e+00
  3.1628361e-01
  1.8133367e+00
  5.7648188e-01
 -3.6514643e-01
  1.8070360e+00
 -6.2673914e-01
  2.1448088e+00
 -2.0370176e+00
 -4.1804893e-04
 -9.6627627e-05
 -6.9430339e-01
 -9.3245007e-02
 -3.2167801e-01
 -5.5106074e-01
  1.6734268e-01
 -7.3843874e-02
 -1.6938026e+00
  8.1712271e-05
 -2.5183183e-05
 -2.6434343e-04
  6.9700356e-04
  4.2710264e-04
 -5.9599924e-04
 -2.0831662e-04
  4.1484103e-02
  5.5481651e-04
  2.9668104e-04
 -1.1559472e-04
 -1.5385642e-04
 -1.2487420e-01
  1.0235206e-05
 -1.2747814e-04
  4.3693659e-04
  7.2755251e-06
 -2.0570364e-02
  8.3178701e-03
 -5.1926216e-03
 -8.8717240e-01
  6.6790832e-05
 -9.1656409e-02
 -2.2689949e-04
 -1.1183171e-02
  2.1006641e-01
  1.1912600e+00
  2.5972156e-05
  2.2294139e-04
 -2.6563919e-01
  2.1150592e-04
 -5.7582201e-05
 -9.6950382e-01
 -1.0674937e-04
  3.7960768e-01
 -8.8767862e-05
 -2.0108849e-04
  6.0635689e-04
  2.0319182e-02
 -6.5354756e-03
 -3.9935851e-05
 -3.9435935e-01
 -6.4847316e-03
 -4.9920121e-01
  9.9828273e-01
 -7.3817799e-05
 -1.2012629e-04
 -5.3851228e-02
  4.6929128e-02
 -1.9211021e-01
  4.1000272e-05
  2.6778331e+00
  3.3045914e-03
  1.0413991e+00
  5.6365505e-05
 -5.4967909e-06
 -1.1333543e+00
 -1.4129317e-01
 -1.9608687e-03
  1.9483179e-01
 -1.4617635e+00
 -9.6848365e-03
  1.7579362e+00
 -1.7270753e-04
  2.3506063e-05
  3.6193141e-01
 -1.0344161e-04
  7.1896918e-02
 -1.2028315e+00
 -3.0339630e-02
  1.6863132e-01
  3.8699359e-02
 -2.4748273e-05
  7.1131467e-04
  2.8864408e+00
 -4.4295064e-01
 -6.3965368e-01
 -4.9480602e-02
  9.3567342e-02
  3.5789819e+00
  1.8797373e+00
  6.2489649e-05
  1.9215480e-04
  4.1017833e-04
  2.2997615e-04
  2.0284387e-01
 -1.0948493e+00
 -6.6692999e-04
  3.4091077e+00
 -2.4234353e-01
  5.4873508e-05
 -2.5145302e-04
  3.2786018e-04
 -1.0599309e+00
 -1.2038310e-01
  1.5582909e-02
 -1.4368445e-04
  8.6791623e-01
  2.3218302e-01
  1.0593882e-04
  1.2186863e-01
  5.3045410e-01
  2.8219910e+00
  1.8358744e+00
  8.2246177e-02
  3.6161745e-01
  1.0628004e+00
 -2.0851498e+00
 -3.0620737e-05
  5.1179966e-05
  9.5169228e-03
 -6.4502093e-03
  1.0046014e+00
 -9.4655877e-01
  1.7113785e-01
  9.6422452e-01
 -2.7513444e+00
 -1.8303046e-05
  1.7787560e-03
 -1.8082865e-04
  1.1271772e-01
  2.1897439e-02
  1.1706100e+00
  8.0928131e-04
 -6.1146550e-02
 -1.0455882e-01
 -9.1822709e-05
  9.2910376e-04
  1.7522962e-01
  3.2408702e-01
  5.5111341e-02
  1.1659689e+00
  1.6273348e+00
 -2.9211595e+00
  7.0927995e-01
 -1.2541602e-02
 -1.4458065e-02
  6.2294525e-01
  1.0806758e+00
  1.8660923e+00
  1.8380699e+00
  2.6494074e+00
 -1.5542735e+00
 -1.1734278e-01
  6.5825339e-03
  2.7730843e-02
 -6.9385931e-02
 -1.0231013e+00
  1.5341376e+00
 -1.7002617e-01
  1.4332831e+00
  9.2415559e-01
  2.8872035e-02
 -1.7355836e-03
 -3.9755562e-01
 -6.5494615e-01
 -1.0253783e-02
  2.0217188e-01
 -4.8138711e-01
 -6.8774623e-01
 -6.2671214e-01
  3.8121441e-01
 -1.8579476e-04
  1.1138714e-05
 -3.2224139e-04
 -1.7177860e-03
  3.4072128e-04
 -2.3400209e-04
 -6.4390345e-04
  8.4967697e-01
 -1.6223091e+00
 -4.7811162e-01
 -4.9953142e-01
  1.0385357e-05
  3.2993481e-02
 -2.8146602e-02
  1.4367663e+00
 -5.0782219e-02
 -1.0225929e+00
 -9.1851032e-01
  9.0590030e-02
 -1.7395768e-02
 -7.3942649e-01
 -5.3085241e-02
  1.0391057e+00
  1.4504868e-02
  2.8501406e-01
 -1.0652224e+00
  4.5411745e-01
 -2.1285674e-02
  6.4105545e-05
 -7.1546726e-02
  2.4775782e-04
  2.6771843e-01
  9.2239940e-01
  1.8005345e+00
  1.5312253e+00
  3.6418530e-01
 -1.4348914e-02
 -3.9463514e-01
 -3.8645655e-01
  1.7654631e-01
 -2.9805332e-01
  1.3867565e+00
 -1.8730454e+00
 -1.5902543e+00
  1.1220460e+00
  8.0337804e-03
  5.6298170e-02
 -8.6816794e-01
 -4.2812836e-01
  1.3656827e+00
  2.3808102e-01
  1.0968732e+00
 -3.7422569e+00
 -1.1751133e+00
 -2.0005202e-01
  9.2737086e-05
 -8.3752221e-01
  7.9876639e-02
  6.1197039e-02
 -2.9773229e-01
 -3.8861766e-02
 -1.1402018e+00
  4.5876179e-02
 -6.2153179e-02
 -9.7645700e-01
  3.0528708e+00
  6.5654600e-01
  3.2596421e-04
 -1.2736877e+00
  3.2091364e-01
 -4.1168952e-01
 -1.2482202e+00
  5.3361390e-04
 -9.1748865e-05
  8.8677472e-05
  7.1974367e-02
  4.6830845e-01
  4.1602273e-02
 -1.3262926e+00
  8.6610061e-01
 -6.6220695e-01
 -1.9612176e-05
 -3.8815426e-05
 -1.5917922e-05
  5.8267065e-06
 -1.2142989e-05
 -7.0010602e-01
  4.8503429e-01
  4.6485093e-05
  1.9568278e-04
 -1.6389613e-05
  1.3042256e-04
  2.9353746e-03
  9.0444088e-01
 -2.7236572e-01
 -1.8509552e-01
  2.2795271e-02
  5.5787772e-01
  2.8731817e-01
 -9.5554738e-04
 -1.3645239e-04
 -7.6857992e-03
  5.3386497e-01
  5.8250565e-02
 -2.8839051e-03
  1.3072239e+00
  1.3806085e-02
 -1.8078588e+00
  5.4128221e-05
 -4.0671439e-05
 -1.8918373e-01
  2.6021343e-01
 -1.0850967e-04
  3.4813425e-01
  5.4271448e-01
 -7.8409627e-02
  1.0134987e+00
 -1.1026918e-04
  2.7992225e-03
  1.3408579e-01
 -1.5404979e+00
  6.4129436e-01
 -5.5682078e-02
 -2.6045476e-05
  1.1272765e+00
 -1.4238129e+00
 -1.1770922e-05
  2.8049797e-04
 -4.5425677e-01
 -1.5237333e-01
 -1.9511115e-04
 -9.7121391e-04
  2.3797370e-02
  5.3996700e-05
 -2.3917518e+00
  1.3172427e-05
  1.6139420e-05
  6.6092926e-01
 -1.6262579e-01
  1.9844379e-01
  5.7597816e-01
  8.7249273e-01
 -7.2890794e-01
  3.7862650e-01
 -9.1015727e-06
  4.8500601e-02
  5.5220153e-04
 -1.9850804e+00
 -6.1420178e-01
 -4.7175190e-01
 -1.5302126e-01
 -1.9858327e+00
  6.9740540e-01
  3.6108810e-05
 -8.1482321e-02
 -1.9298974e+00
  1.3341166e-01
 -1.1048872e+00
  2.2221975e+00
 -2.9549105e+00
  4.8545194e-01
 -2.8992517e+00
  2.2504506e-05
  4.3499540e-06
 -1.5424868e-01
  5.4533011e-04
 -5.7893032e-03
 -4.1583955e-01
 -3.3400857e-01
  1.1401594e+00
 -4.0155935e+00
 -4.1365263e-04
 -1.2791607e-01
  5.8950019e-01
 -5.9717637e-01
 -1.1165364e-04
 -3.1844446e-01
  5.1962930e-01
 -2.3996093e+00
 -2.5041893e+00
  1.1431649e-01
  7.9301953e-02
  8.6976096e-02
 -1.1921272e-01
 -1.2223006e+00
  3.3602428e-01
  9.6581882e-01
 -8.4905028e-01
 -1.0274476e+00
 -4.5978792e-05
 -3.0068777e-04
 -7.2606820e-01
 -2.8061425e-02
 -4.8803534e-02
  2.6737888e+00
 -1.2721119e+00
  6.9254953e-01
 -1.6118845e+00
  1.3564346e-05
 -7.7176780e-01
  8.6354482e-01
 -1.6378069e-01
  1.6770333e-02
  1.1763327e+00
 -1.5825462e+00
  2.0058153e+00
  6.6224819e-01
  1.3689634e-01
 -5.0727201e-01
 -3.1681052e-01
  1.7488166e-03
 -1.8603436e-03
 -1.4357263e+00
  1.2684231e+00
 -3.2705966e-01
  1.9355803e+00
 -5.7589856e-05
  2.3845788e-04
  1.5753834e+00
 -9.7129667e-01
 -2.6920021e-01
 -1.9605286e-01
 -7.3295110e-01
  6.6575157e-03
  2.9378195e+00
  6.8655618e-02
 -1.2441690e+00
 -2.6880610e-01
 -8.0378813e-01
 -2.6781872e-01
  7.4421513e-01
 -9.0475619e-01
 -9.7507948e-01
 -1.0706078e+00
  1.4026227e-04
 -8.0989230e-05
  3.5068133e-05
  5.1840532e-01
  1.6203355e+00
 -8.8618910e-01
  1.0923916e+00
 -1.3057795e+00
 -8.3294487e-01
  1.1182314e-05
 -1.0908135e-04
  1.5198531e-04
  3.2823070e-04
  7.9953368e-04
 -1.2973253e+00
 -9.5656971e-05
 -2.1772038e-02
 -3.5707578e-01
 -9.2313230e-06
 -1.9785116e-04
  1.5893842e-05
  1.2401682e-01
  6.2928295e-01
  1.4644493e-01
 -1.2669581e+00
 -1.4914423e+00
  2.8268385e+00
  9.6511139e-05
  3.4811886e-04
 -3.2288463e-05
  1.4859371e-01
  5.4587716e-01
 -3.7254950e-01
 -5.0124055e-01
  6.2965703e-01
  7.7071553e-01
  3.5462519e-06
  4.3252458e-05
  8.3013409e-05
  8.2108025e-05
  3.2118022e-01
 -4.0243191e-01
 -1.6205338e-01
  7.1739775e-01
  6.1700785e-01
 -9.9823665e-05
  1.5368190e-04
  3.7560932e-04
  6.2843716e-01
  2.4037068e-01
  2.4665191e+00
 -9.0210062e-01
 -8.4109163e-01
  6.6963732e-02
  3.2586479e-04
 -1.5831849e-05
  4.7111651e-05
 -1.8319466e-04
  1.1793672e+00
 -2.3367640e-01
 -8.7445930e-02
 -2.0884035e+00
 -2.6386207e-01
  1.9617414e-04
  1.4857290e-04
 -5.0207094e-05
  3.3837217e-01
  8.8070798e-01
 -4.7339618e-01
  2.4048755e-01
  1.6631629e+00
  2.1088590e-01
  1.0408346e-04
  4.5359855e-05
 -3.0268870e-05
  2.6878336e-01
 -1.1123701e-01
 -3.2283983e-01
  7.7808434e-01
 -4.8100937e-02
  1.6784182e-01
  9.8918819e-05
 -2.3818695e-05
  1.7152676e-04
 -2.9241371e-01
 -9.2952229e-02
  2.6894145e+00
  6.5727192e-01
  2.8289128e-02
 -8.4713727e-01
 -2.0137272e-04
  2.4370848e-04
 -2.5733809e-05
  1.9962979e-04
  6.0729672e-05
  9.1827548e-01
 -7.1070062e-05
 -7.8648597e-01
  1.1795856e-01
  1.3409835e-05
 -8.0452685e-04
 -1.3934920e-04
 -1.6690060e-01
 -5.6661338e-02
 -4.4938949e-01
 -1.1974146e+00
 -1.1057772e-01
  1.6227559e+00
  4.7719997e-05
  6.5149507e-05
 -3.1921747e-05
  9.7514637e-04
 -6.5848916e-03
 -4.4169259e+00
 -7.1203119e-01
 -4.2552540e-01
 -1.7340815e+00
 -1.5810740e-05
  2.8375318e-04
  2.6135147e-04
 -1.1934901e-03
 -7.2441367e-03
  1.9611660e-01
  3.9211134e-04
 -1.9601921e+00
 -3.0515513e-03
  2.8404070e-04
  7.6834614e-05
  2.8075319e-04
  7.8316407e-05
 -9.6561149e-02
  1.6105620e+00
 -9.0650129e-01
 -1.5603884e-01
  1.6793079e+00
  8.8594490e-05
  1.7850156e-05
 -8.7645749e-05
  2.0177386e-05
  9.8583878e-06
  2.9367919e+00
  7.2671217e-01
  1.8778850e+00
 -3.8870427e-01
 -7.3250478e-05
  8.8398450e-04
 -8.9407476e-05
 -1.3237437e-02
 -2.5322980e-03
  1.7797190e+00
  1.4633814e+00
 -7.3455459e-01
 -2.0569708e+00
 -9.1210386e-05
  4.5741810e-05
  4.8939586e-05
  6.6287017e-01
 -3.8069504e-01
 -3.2045066e-02
  1.6763866e+00
 -1.2321100e+00
 -1.3870320e+00
  3.4090339e-05
 -1.1523191e-03
 -1.9391249e-03
  2.1294251e-01
 -9.9458583e-02
 -2.1548617e+00
  2.6650748e-01
 -1.0597006e+00
 -1.9380624e+00
 -1.1654594e-05
  7.9554979e-05
  7.1169234e-05
 -9.8641489e-05
 -5.6067485e-01
 -1.9582790e+00
  4.1529501e-04
 -4.9974725e-01
  8.4252781e-01
  2.4275758e-04
 -3.0403351e-04
  2.4242889e-05
  1.5499859e-01
 -3.6829266e-01
  9.5751917e-01
  5.2114986e-02
 -1.1145655e-01
  1.5042980e-01
 -6.7088047e-05
 -5.7387238e-05
 -3.1255683e-04
  2.1617828e-04
 -1.9797403e+00
  1.6226369e+00
  7.9260536e-02
 -1.4920663e+00
  6.8742996e-01
 -1.9058652e-04
 -2.3812901e-04
 -1.1272325e-04
  7.4779242e-02
  1.3207892e-04
 -4.6415040e-01
  6.8262033e-04
 -3.1230378e-01
  2.8287263e+00
 -3.0662844e-04
 -1.2636122e-04
  4.2788588e-04
  1.3681046e-04
 -2.5091480e-02
 -3.7108055e-01
 -4.2675817e-01
  1.1243535e+00
  3.8908374e-01
  4.0251347e-05
  1.9814439e-05
 -1.9974016e-02
  1.7029768e-03
 -2.2188346e+00
 -1.4739126e-01
 -1.8280195e-01
  2.3341042e-01
  1.4244334e+00
  7.1519498e-05
  8.2695282e-05
 -9.5245210e-05
  9.9365225e-06
  6.2556500e-03
  9.3448293e-01
  2.3460002e-01
 -1.1544741e+00
  1.3943545e+00
  6.1289989e-05
 -1.2917207e-04
  1.0525535e-04
  3.0282841e-04
  1.2256370e-01
 -5.7192254e-01
 -2.4641697e-01
  4.2807901e-01
  1.4105523e+00
 -4.0576023e-01
  3.7280974e-04
  6.0339862e-01
  1.8574153e-01
 -3.8104301e-04
  1.2061834e+00
  3.0890727e-01
  1.0767550e+00
  1.8651277e+00
 -2.0733847e-04
  2.7997151e-04
  2.1520647e-04
 -1.6402136e-04
 -5.0321833e-05
 -3.8746139e-04
  7.2483032e-04
 -8.0640399e-01
 -5.2241781e-03
 -2.3517154e-01
  8.3333929e-04
  5.4904294e-01
  6.0661547e-03
  4.9571216e-05
  1.4973769e+00
 -4.0635583e-01
 -1.5295706e+00
  3.5423437e-01
 -1.8068968e-04
 -7.8124678e-05
  9.6474338e-01
  1.5392089e-04
 -5.9933845e-02
  5.5685741e-01
  3.1604950e+00
 -9.0320337e-01
 -1.6175518e+00
 -1.5763342e-01
  2.0262146e-02
  3.6951114e-04
  1.9052593e-05
  1.3671863e-02
 -1.1464484e-01
 -4.8910875e-05
 -1.5539571e+00
  6.3022740e-02
 -2.7551353e-03
  6.9976166e-05
  1.2742178e+00
  3.0913296e-01
 -2.4151556e-01
  3.8312113e-01
 -1.4550819e+00
 -1.4403869e+00
  3.4231615e-01
 -2.1963035e-04
 -1.4916467e-04
  1.2322102e+00
  4.7491565e-05
  8.4796816e-01
 -3.2590514e-01
  1.5356596e+00
 -2.6360217e-02
  1.9719575e-05
 -1.5160379e-01
  3.3813898e-02
 -7.5540636e-05
  3.2115418e-01
 -4.6887654e-01
 -1.7349467e+00
  4.3994793e-01
 -1.0412452e+00
  1.0299704e-01
 -5.8974579e-06
  1.8842695e-05
  3.6246607e-01
 -4.1015155e-05
 -7.6195993e-02
  1.2799207e+00
 -9.2165357e-01
 -2.2633983e-01
 -2.3012268e-03
 -2.0060040e-02
 -2.2568245e+00
  2.5665726e-05
  5.7238895e-01
  1.0161712e+00
 -9.2741156e-01
  2.9822665e-01
  4.4876322e-01
 -1.7507770e+00
  1.8697861e-05
 -6.6105225e-05
 -4.6508838e-04
  3.5063818e-01
 -8.0878031e-05
  8.4245294e-01
 -1.8915498e-05
 -2.0399658e-01
 -1.6833888e-01
 -1.6331618e-06
 -1.0040394e+00
  6.1857486e-01
  2.8009582e-01
  1.1843593e+00
 -1.4058230e+00
 -1.0038918e+00
 -5.4058087e-01
  9.4482017e-01
  1.0516301e-03
 -8.1694323e-01
 -2.3595098e-02
  2.5237963e-01
  2.4079821e-01
  9.2937624e-01
 -2.5642602e+00
 -2.5959313e+00
 -1.6190991e+00
 -3.6015289e-04
  3.1390860e-05
  7.8037432e-05
  6.9326797e-04
  3.8617051e-01
 -6.9872504e-01
 -7.9868406e-01
  2.0067105e+00
  1.3912897e+00
  6.6243600e-05
 -1.7417591e+00
  3.2609832e-01
  8.8730466e-01
  8.8461459e-01
  4.0140614e-01
  8.1242967e-01
 -2.0946352e+00
  2.9553514e+00
 -9.8033954e-05
 -1.0443737e-03
 -5.5870384e-01
 -1.0375308e-06
 -1.2076145e-02
 -2.3957810e+00
 -1.2333544e+00
 -4.6808070e-01
  8.8524151e-01
  1.7991746e-04
 -1.2212439e+00
  3.2463318e-01
  7.1988511e-01
  1.8804516e+00
  1.0686022e+00
 -5.8903182e-01
 -7.1474737e-01
 -5.2503890e-01
 -3.3443757e-05
 -7.1456409e-01
 -1.7911701e-02
 -1.1001968e-04
 -9.4866157e-02
  7.9569870e-01
 -2.3590478e-01
  1.4235588e+00
 -4.1442558e-02
 -4.7407553e-05
 -2.7260279e-05
  3.0807827e-05
  6.2949806e-02
 -1.7919874e+00
 -1.3692402e+00
 -9.1571659e-01
  1.8611904e+00
 -7.7274805e-01
  5.4696553e-05
 -5.5761739e-05
  5.4122796e-05
 -3.7039679e-03
  2.2635391e-05
 -6.8224287e-01
 -1.4930218e-04
 -6.4768374e-01
  9.7779150e-05
  9.0859299e-05
 -8.3703490e-05
 -8.2457089e-05
  4.2528415e-04
 -3.0923149e-01
  2.1843014e+00
 -1.1210589e-01
 -3.9114481e-01
  2.3109515e+00
 -1.3442126e-05
  2.0884081e-04
  6.6323868e-05
  2.7421977e-02
 -1.0521264e+00
  4.2465603e-01
  7.8644031e-01
  1.1785414e+00
  5.6352913e-01
  3.6139354e-05
  9.2933682e-05
 -3.1153184e-05
 -4.5320574e-02
 -4.1438785e-04
 -1.6691656e+00
 -8.5185230e-01
  1.8186656e-01
  6.3491970e-02
  1.2914678e-04
  1.6121085e-04
  1.2134587e-01
  9.9295640e-01
  8.0169851e-01
 -8.0400176e-02
 -2.0746460e+00
  6.5316372e-03
  4.4097668e-01
  6.7011402e-05
 -1.5102863e-05
 -3.7703870e-05
  5.4980296e-04
 -8.3412492e-01
 -4.7396529e-01
 -1.4844300e+00
 -9.6803278e-01
  4.1246751e-01
 -4.9217939e-05
  1.2761083e-05
  9.2980066e-05
 -8.1840783e-02
 -6.4109886e-01
 -3.9647323e-01
  2.8863978e-01
  9.7632237e-02
  7.6329654e-01
  2.3039887e-04
 -2.8621580e-05
  1.7711162e-04
  1.0399814e+00
  7.9781979e-01
 -7.1472156e-01
  1.6838502e+00
  1.4037492e+00
  1.3046796e-04
 -7.7507802e-06
 -3.1933513e+00
 -8.7610823e-01
 -8.3152467e-04
 -4.7798404e-01
  2.4500036e+00
 -4.8874375e-01
 -9.8838359e-02
  5.3396583e-01
 -4.0668656e-05
  7.7059696e-05
 -3.7075020e-05
  2.2919787e-04
  3.7019001e-04
 -1.9256623e-01
 -5.7153334e-04
 -1.9487119e+00
  7.3582358e-03
  2.2574579e-05
 -5.4101838e-05
 -1.6102071e-04
  7.3100321e-02
 -1.4890571e+00
  3.8984519e-01
 -1.7822962e+00
 -5.6849730e-01
  5.2215832e-01
  9.8822231e-05
  2.7178901e-05
 -2.1550378e-01
  1.0409094e-01
  1.1323944e+00
  6.1918676e-01
 -1.0444986e+00
 -1.3751937e-01
  5.6129169e-01
 -4.9610124e-05
 -1.9322501e-05
 -1.8340893e-04
 -5.9044462e-01
 -1.3277327e+00
  2.3376523e-02
  1.0852579e-05
 -1.2834644e+00
  1.5252683e+00
 -2.6801859e-05
 -9.3802296e-02
 -1.8511556e-01
  6.8168372e-01
  1.2846349e-02
 -8.1317455e-01
  1.8457019e+00
 -3.1231334e+00
 -8.6979747e-01
 -1.0870610e+00
  1.7995837e-05
 -1.1259352e-01
 -1.7053239e-01
 -2.4008425e-05
 -4.3224302e-01
 -6.6701210e-01
  6.6324675e-01
  1.6154780e+00
  1.0027673e-04
 -9.3721277e-01
 -1.8501865e-02
 -3.8865730e-04
 -1.4350351e+00
  1.3513559e-01
 -5.5927336e-01
  1.7440444e+00
  2.2051582e-01
  2.7914275e-05
  3.6810485e-05
  7.2350252e-01
  1.3229825e-01
  3.1857550e-01
 -3.6252224e-01
 -3.2604862e-02
 -3.9049494e-01
 -9.4907373e-02
  2.4430383e-02
  2.4430383e-02
  2.4430383e-02
  2.4430383e-02
  2.4430383e-02
  2.4430383e-02
  2.4430383e-02
  2.4430383e-02
  2.4430383e-02
  1.0906366e-01
  1.0906366e-01
  1.0906366e-01
  1.0906366e-01
  1.0906366e-01
  1.0906366e-01
  1.0906366e-01
  4.1858934e-02
  4.1858934e-02
  4.1858934e-02
  4.1858934e-02
  4.1858934e-02
  4.1858934e-02
  4.1858934e-02
  3.2475173e-02
  3.2475173e-02
  3.2475173e-02
  3.2475173e-02
  3.2475173e-02
  3.2475173e-02
  3.2475173e-02
  1.3545549e-02
  1.3545549e-02
  1.3545549e-02
  1.3545549e-02
  1.3545549e-02
  1.3545549e-02
  1.3545549e-02
