nep4 3 C H N 
cutoff 3
n_max 8
l_max 4
ANN 50 0
  1.8852984e+00
 -1.0685418e+00
  1.1884304e+00
 -6.0229814e-01
 -2.0904336e+00
  1.0948398e+00
  2.1318421e+00
  4.0046706e+00
 -1.3700567e+00
  3.6804438e+00
  3.4803730e-01
  1.4390646e+00
 -2.5586635e-01
  5.4929405e-02
  1.2245153e-01
 -1.4696867e+00
  3.9377644e+00
  6.7273207e+00
  1.3229944e+00
 -2.4277401e+00
  8.0895913e-01
 -1.4547409e+00
  1.1208391e+00
  2.0206070e+00
  1.6471317e+00
  2.1826186e+00
  1.2323227e+00
 -1.6598525e+00
  9.9194032e-01
 -1.1476964e-01
 -2.9790099e+00
  2.0562325e+00
 -7.5809413e-01
 -7.0722604e-01
 -2.4144266e+00
  1.7105277e+00
 -6.1441040e-01
  8.5739386e-01
 -1.2685986e+00
  1.8095074e+00
 -5.9480815e+00
  1.2083836e+00
  3.5687730e-01
 -7.0532662e-01
 -1.1300666e+00
 -1.2720135e+00
 -1.5142107e+00
  7.6870292e-01
 -9.8798937e-01
  1.6074882e+00
 -1.9378513e+00
  5.6923475e+00
  4.7851410e+00
 -2.5411050e+00
 -4.0159545e+00
  4.6446732e-01
  6.9870524e-02
 -1.3973253e+00
  7.5088114e-01
  6.4741507e-02
 -1.3053430e+00
 -2.9872367e+00
  2.8135575e-02
 -4.3934399e-01
 -2.0614915e+00
 -4.7016662e-01
 -8.8119991e-02
  2.8903317e-01
 -1.1203922e+00
  1.5769721e+00
  1.9241194e+00
  4.8325044e-01
  9.0796381e-01
  4.5256621e-01
  2.7336464e+00
  1.4643611e+00
  3.8103099e+00
 -8.4661674e-01
 -5.5120802e-01
  1.3156511e+00
 -1.1201401e+00
  1.1842121e+00
  1.4139419e+00
  2.0051262e+00
  5.0056877e+00
  1.1767899e+00
 -1.5442305e+00
 -3.0811183e+00
 -2.8516595e+00
  6.0865715e-02
 -2.7387364e+00
 -2.7208662e+00
 -1.1799090e+00
 -1.8111055e+00
 -7.1998113e-01
  4.4539957e+00
  1.7879472e+00
  2.4613266e+00
 -2.3758774e+00
 -9.8979789e-01
 -4.8127833e-01
 -3.4521610e-01
 -5.5248535e-01
 -3.9095533e+00
  1.5143253e+00
 -6.2073636e-01
 -8.1029171e-01
 -1.2066927e+00
  2.8627782e+00
 -2.0308518e+00
  1.7309686e+00
  2.2165027e+00
 -1.5225898e+00
  1.8016829e+00
  5.0908220e-01
  2.9969316e+00
  5.6649127e+00
  1.5896997e+00
 -2.7537405e+00
 -4.4630724e-01
  2.1398907e+00
  2.1832496e-01
  2.1045887e-01
 -9.0430033e-01
  6.9448066e-01
 -6.3931000e-01
  3.5643837e+00
 -2.1041677e+00
  1.5787116e+00
 -6.7859316e-01
  3.8771725e+00
  6.2410545e+00
 -3.9552350e+00
  4.5438805e-01
  4.0490556e+00
 -1.5158451e-01
  8.3426791e-01
  1.3320299e+00
  6.1716409e+00
 -1.9122010e-01
 -2.1956642e+00
  1.3042371e+00
  9.8824430e-01
 -4.3877611e-01
  2.5651596e+00
 -8.0371684e-01
  3.5861080e+00
 -2.7655587e-01
 -1.1748478e+00
 -2.5778222e+00
 -2.4402325e-01
  1.6107734e+00
  2.0680420e+00
  1.0980393e+00
  1.7168576e-01
  2.5204957e+00
  2.1749594e+00
  1.8966261e-01
  1.5681974e+00
 -2.8688250e+00
  4.1926417e+00
  2.8662813e+00
  1.1276213e-01
  1.7735025e+00
  8.8367864e-02
  4.4507053e-01
 -1.2870218e+00
  4.0573592e+00
 -2.8486085e+00
  1.7363786e+00
 -1.5720001e-01
 -3.1985089e-01
 -6.8611431e-01
 -1.3728495e+00
  1.3475881e+00
  2.3622841e-01
 -1.6841687e+00
 -2.9278793e+00
 -1.1125530e+00
  7.0472741e+00
 -1.7319268e+00
  1.7440857e-01
 -1.3242831e+00
  1.1245270e+00
  1.6453911e+00
  1.4305180e+00
  7.3042071e-01
 -3.9323914e-01
 -6.1898685e-01
 -3.6795783e-01
 -2.1891022e+00
 -3.9663437e-01
 -1.6052239e+00
  8.9247489e-01
 -3.2053670e-01
  6.7852187e-01
  1.0848360e+00
  6.1966932e-01
 -1.6918222e+00
  1.6645463e+00
 -2.8043842e-01
  8.4871978e-01
  1.3610054e+00
  1.6564006e+00
  2.3631575e+00
 -1.7958953e+00
  2.7124152e+00
  7.9475987e-01
  1.2012769e+00
 -3.4781232e-01
 -4.2624102e+00
  1.5288054e+00
 -1.6505456e-01
  1.7145231e+00
 -2.3016152e-01
  2.1015680e+00
  1.7023802e+00
  7.5980657e-01
  6.0662311e-01
  3.9341395e+00
 -1.5062453e+00
  4.4772692e+00
 -6.9002372e-01
 -3.2578809e+00
  3.5209267e+00
  1.6623887e-01
 -1.2608216e+00
  1.6794090e+00
 -4.4887562e+00
  3.5031322e-02
 -2.2966871e+00
  1.6217761e+00
  1.8043957e+00
 -4.6098738e+00
  1.9701907e-01
  4.8733526e-01
  2.7947241e-01
 -5.4460627e-01
  1.3903353e-01
 -2.7825768e+00
 -6.8072927e-01
 -1.6915413e+00
 -1.0278997e-01
  5.4390678e+00
 -1.5604620e+00
  9.5778644e-01
 -1.3133874e+00
  2.4855313e+00
  1.7064530e+00
 -7.5848889e-01
  1.2976763e+00
  4.3443558e-01
 -2.5808129e+00
 -6.1273974e-01
  1.2261816e+00
  2.4443927e+00
 -2.8615363e+00
  1.1455826e+00
  2.9655671e+00
 -6.5282983e-01
 -3.2317548e+00
 -1.1200068e+00
 -1.5831722e+00
 -1.0014893e+00
  7.8077704e-01
 -9.6675787e+00
  3.8900131e-01
  1.2329218e+00
  1.6520812e-01
 -3.7971151e+00
  3.1323698e+00
 -4.6680665e-01
  6.4240422e+00
 -2.9862767e-01
  3.1876096e-01
  4.4263053e+00
  1.0549999e+00
 -7.4871016e-01
  5.7584274e-01
 -5.6659236e+00
  5.8879037e+00
  3.7225541e-01
 -1.6469214e+00
  6.1415869e-01
 -4.1900411e+00
  6.0357648e-01
  2.1855869e+00
 -3.6253986e+00
  3.9199295e+00
  2.3258672e+00
 -4.0010748e+00
  2.6339085e+00
 -1.1627607e+00
  1.9380580e-01
  2.9487751e+00
  6.9495541e-01
  8.2942986e-01
 -2.1953322e-01
  3.2650836e+00
  1.9576685e+00
  4.9158150e-01
  4.3563738e+00
  1.7445043e+00
 -2.1565294e+00
 -1.4537519e+00
 -1.0359172e+00
  1.9834689e+00
 -3.3757484e+00
 -2.4502597e+00
  2.0798105e-01
 -1.4377922e-01
 -8.1738061e-01
 -4.0059695e+00
 -2.2754256e-01
  8.7116265e-01
 -1.1430017e+00
 -4.5227456e+00
  7.4547336e-02
 -1.1036201e+00
  6.4890952e+00
 -3.2585242e-01
  6.8726611e-01
 -1.1903458e+00
 -5.4512887e+00
  3.7901800e+00
  1.3157922e-01
 -1.1144012e+00
 -3.4506090e+00
  9.3512750e-01
 -2.3415956e+00
  4.1541305e+00
  1.1625494e+00
  5.3244495e-01
 -1.2091885e+00
 -4.8244980e-01
  1.3625180e+00
  9.8804623e-01
 -1.5321695e+00
 -4.4681578e+00
 -9.2616779e-01
  1.4611003e+00
  4.4942870e+00
 -3.6970048e+00
 -1.9664394e+00
  7.9246175e-01
  3.8189616e+00
  2.9584208e+00
  2.1412537e-01
  2.3086357e+00
  2.5603409e+00
 -1.1132503e+00
  4.6220827e+00
  1.7153944e+00
 -1.7344168e+00
 -1.1399217e+00
 -1.8332043e+00
  3.3407934e+00
 -7.2832149e-01
  1.4495000e+00
  1.7801702e+00
 -1.0643232e+00
  1.8871086e+00
 -1.0574226e+00
  2.2061299e-01
 -1.7748126e+00
 -5.3711540e-01
  1.5076513e+00
 -2.8424475e+00
 -5.9814280e-01
 -4.1833270e-01
 -4.7980750e-01
  1.6485345e+00
 -1.4314971e+00
  3.5906358e+00
 -2.3539622e+00
  4.6393929e+00
 -4.6890390e-01
 -2.5716078e-02
 -6.8865294e+00
  7.8751320e-01
 -6.6455728e-01
  1.3090448e+00
  2.4289558e+00
  2.2840168e+00
 -2.7586858e+00
 -3.0564630e-01
  1.2148300e+00
  3.2183409e-01
 -7.9842663e-01
  8.2828891e-01
  1.9650788e+00
 -2.0574167e-02
 -9.1662192e-01
 -2.6505840e+00
 -5.3211617e-01
 -3.2007344e+00
  1.0462496e+00
 -1.0213213e+00
  1.4873722e+00
 -7.0506132e-01
 -1.0325410e+00
 -1.1867419e+00
  5.2649450e-01
  3.0539951e-01
  5.7492030e-01
  7.7339560e-01
  1.3374808e+00
  7.5189161e-01
 -1.1785505e+00
 -1.2307366e+00
  2.3951119e-01
  4.9309522e-02
  4.4244668e-01
 -9.9040210e-01
  2.6515236e+00
 -2.2232690e+00
  3.8921280e+00
  1.1179297e+00
 -1.7849314e+00
  6.1362201e-01
  1.7997735e+00
 -1.1633921e-01
  7.6984540e-03
 -1.0605947e+00
  1.7163998e+00
 -6.3452452e-02
 -1.6972429e-01
  9.6074009e-01
  3.0657980e-01
 -6.8793362e-01
 -1.8458270e-01
  1.2990698e+00
  1.8380028e+00
 -7.4599636e-01
 -1.6012243e+00
  1.6301535e+00
  7.8706589e+00
  1.6315791e-01
  4.4360113e+00
  6.8389487e-01
 -1.7700847e+00
 -2.3584218e+00
  2.5919175e+00
  1.4502439e-01
  1.2409823e-01
 -1.1494384e+00
 -1.2750272e+00
 -1.3717196e+00
  2.2764914e+00
  9.4640279e-01
  2.0194761e-01
  2.9077101e-01
  3.9210436e+00
  5.2594652e+00
 -8.1746209e-01
  2.2823691e+00
  4.9683854e-01
  1.5066534e+00
 -2.3357668e+00
  4.2076570e-01
  6.5843141e-01
  9.1539770e-01
 -8.8820058e-01
  4.1411314e+00
 -4.0261202e+00
  3.1166315e-02
  5.9521258e-01
 -4.8205485e+00
  1.4761523e+00
 -2.3473692e+00
  1.1534534e+00
  4.9097133e-01
 -1.7971221e+00
  1.0728217e+00
 -1.3385363e+00
  2.1789682e+00
  1.3032638e+00
  4.5258734e-01
 -2.7035117e-01
  4.8015875e-01
  3.6886469e-01
  3.6047959e+00
  2.1608260e+00
 -4.1614566e+00
  1.9835061e-01
  1.3227044e+00
 -5.9582740e-01
 -1.1964458e+00
  2.3054821e+00
 -1.8038169e+00
 -1.0376424e+00
  1.2201675e+00
  2.2258844e+00
  9.6096069e-01
 -1.6945498e+00
  1.6755271e-03
 -2.6788223e+00
 -1.1565030e-01
  2.0298765e+00
 -2.2019289e+00
 -4.4489670e+00
  1.6466228e+00
 -6.3295901e-01
  3.2171255e-01
  3.8688946e+00
  4.4901836e-01
  4.5070367e+00
 -3.7268883e-01
  1.6979791e+00
  2.4388857e+00
  4.2442137e-01
  3.4580874e-01
 -2.9238001e-01
  2.5351911e+00
 -1.0305804e-01
 -2.5533826e+00
  2.2183411e+00
 -2.6329217e+00
  3.7100563e+00
 -2.1278017e+00
  6.8105829e-01
  3.1564599e-01
 -2.2275801e-01
  7.7007645e-01
 -4.8957095e-02
  4.7837453e+00
 -4.8876736e-01
  3.0424416e+00
  8.0754358e-01
 -3.2574275e+00
  1.3034365e+00
  1.2464677e+00
 -5.4261512e-01
  1.4963631e-01
  2.2194099e+00
  2.9758153e+00
 -4.8186406e-01
 -4.8909158e-01
  2.5177751e+00
  2.5933156e+00
  5.2323651e-01
  8.2223147e-01
  3.9708290e-01
 -7.4274182e-01
 -7.6401338e-02
  5.1476276e-01
  5.2962512e-01
 -1.9094446e+00
 -6.1707640e-01
 -8.3784002e-01
  3.9737086e+00
 -1.6592844e+00
  4.1990595e+00
 -3.9058945e-01
  3.9168379e+00
 -3.9430397e+00
  4.5554423e+00
 -3.3130795e-01
 -1.1067598e+00
 -1.8133202e+00
  9.3376279e-01
  4.5461411e+00
 -4.0897722e+00
 -3.0954850e+00
 -2.4124980e+00
  1.2574823e+00
 -5.4718189e+00
 -2.7400203e+00
 -3.3918946e+00
  1.4014051e+00
 -4.2545843e-01
 -1.1038852e+00
 -4.5059500e+00
 -3.1562114e+00
 -4.5799780e-01
 -1.4947052e+00
  1.7510011e+00
  8.0355453e-01
  2.9288623e-01
 -4.5516396e-01
  1.9592602e+00
  4.8382792e+00
  5.4245420e+00
  2.5687397e-02
  1.5168785e+00
  1.4976487e+00
  1.6231971e+00
 -3.6191270e+00
  1.2972126e+00
  7.4643576e-01
 -2.1163204e+00
  1.6313033e+00
 -1.6941118e+00
  3.1153684e+00
 -2.2185145e-02
  1.5211195e+00
 -3.8624480e+00
  2.6365509e+00
 -3.1364977e+00
 -1.4755348e+00
 -7.8379865e+00
 -2.7774024e-01
 -4.7322431e+00
  1.0907730e-01
  2.6891358e+00
 -6.0054488e+00
 -9.0467751e-01
 -5.0796318e-01
 -1.0040029e+00
 -2.0324932e-01
  2.9295905e+00
 -7.3488367e-01
 -2.1265259e+00
 -8.2046056e-01
  7.2271919e-01
 -5.0595164e-01
 -7.7770752e-01
 -4.7091872e-01
  8.7623626e-01
 -4.1520371e+00
 -3.1775478e-03
  3.2305806e+00
  4.9224012e-02
 -1.1892376e+00
  6.8879237e+00
  1.6506203e+00
  2.0227389e+00
 -1.3633657e+00
 -1.4335115e-01
 -6.8956196e-01
 -5.9356852e+00
  2.0993741e+00
 -1.0935507e+00
 -2.0831733e+00
  2.3663089e+00
  2.6043582e+00
  2.6160753e+00
  1.5359576e+00
  1.8190785e-01
  2.4281666e+00
 -2.9849262e+00
  1.3932006e-01
 -3.9958053e+00
  2.8650296e+00
 -2.7213171e+00
  2.0449619e+00
  9.2073697e-01
  1.6576124e+00
  4.4562659e+00
  1.1267327e+00
  2.2289858e+00
 -4.1079001e+00
  2.4283707e+00
  1.7470430e+00
  9.6506554e-01
 -3.2929173e+00
 -3.8518002e+00
  5.6223434e-01
 -5.9939760e-01
 -5.4816210e-01
  3.6930883e+00
  1.7231226e+00
 -2.2127578e+00
 -3.7380226e+00
 -5.9758496e-01
  2.8935530e+00
  9.3182814e-01
 -2.2941390e-01
  2.3222210e+00
  2.2751877e+00
  5.7471080e+00
 -1.3413395e-01
 -1.1280681e+00
 -9.0644026e-01
  1.6095717e+00
  2.7819216e+00
  2.2415099e+00
  9.1119194e-01
 -3.6024898e-01
  3.3798283e-01
  3.5880134e+00
  1.1916473e+00
 -1.8956530e+00
  2.1187727e+00
 -2.8126037e+00
 -8.9470881e-01
 -2.1906037e+00
 -5.1905656e+00
 -6.1954938e-02
  6.5947801e-01
 -1.6180317e-01
  1.2624336e+00
  6.2094674e-02
  4.2494249e+00
 -7.8180385e-01
  2.5460327e-01
 -2.0101724e+00
  3.7639623e+00
 -1.6755396e+00
  2.3945537e-01
  7.7007067e-01
  8.5933395e-02
 -4.9443254e-01
 -2.3515940e+00
  2.1597605e+00
  1.5196983e+00
 -2.4123845e+00
  1.0305190e+00
  2.4482056e-01
  8.3821207e-01
  1.4130210e+00
 -2.1829500e+00
 -1.4302900e-01
  4.1703662e-01
 -1.8225867e+00
 -9.2355245e-01
 -3.6477754e+00
 -1.3979383e+00
  4.7127008e-01
  4.4970951e+00
  1.2739120e+00
  1.5635587e+00
 -8.0956697e-01
 -3.1115417e+00
  9.5753533e-01
  9.5675126e-02
 -1.0883757e+00
 -1.0002617e+00
 -2.8625906e+00
 -1.0243895e+00
 -4.5985338e-01
 -2.2134154e+00
 -1.1524614e+00
  1.8195442e+00
 -2.8373520e+00
  5.4535344e-02
 -3.2587540e+00
 -2.1286654e+00
  3.9589624e+00
  2.7383575e-01
 -1.3464104e+00
 -7.5752163e-01
 -2.7651554e-01
  2.4905887e+00
  6.8585300e-01
  1.3354349e+00
 -1.4154906e+00
 -5.4650720e-02
 -9.5129460e-01
 -1.3383069e+00
 -5.0860745e-01
 -5.6083357e-01
 -1.6425617e+00
 -3.2663679e-01
  1.5093541e+00
  1.2294137e+00
 -7.2321230e-01
  1.7515522e+00
  1.0963161e-01
 -2.3100388e+00
  1.0671978e+00
  1.0073591e+00
  8.1723160e-01
 -1.0623524e+00
  1.9885504e+00
  6.8330133e-01
  4.7391858e+00
 -1.3497329e+00
 -1.4567616e+00
  1.6462942e+00
  3.0495853e+00
 -1.6941348e+00
  2.0040530e-01
 -7.2927409e-01
  1.0939844e+00
  3.2150140e-01
  2.9762721e+00
  1.2525893e+00
  6.7805398e-01
 -2.7971685e-01
  8.2155168e-03
 -2.5793765e+00
 -3.8177137e+00
  3.7563751e+00
  6.4511042e+00
  2.5225613e+00
 -3.6125946e-01
 -6.0676661e+00
  2.6818783e+00
 -8.4505987e-01
 -1.8820109e+00
  4.9720430e-01
  1.7475340e+00
  2.9368371e-01
 -8.7319881e-01
 -1.1499805e+00
  4.0466957e+00
 -6.4553332e-01
  4.1763775e-02
  3.5967958e+00
  1.8846087e+00
 -4.0923867e+00
  1.3418622e+00
  2.7906711e+00
  1.3328712e+00
  1.8873272e+00
  1.9056416e+00
 -3.0737591e+00
  4.2346412e-01
  3.4508004e+00
 -1.0651510e+00
  2.0272932e+00
  1.3055078e+00
 -1.0320722e+00
  6.5048051e-01
  3.4001189e-01
 -1.6239308e+00
 -2.2565358e+00
 -5.4350632e-01
 -8.1137884e-01
  1.3739496e+00
 -4.0421936e-01
 -1.9445877e+00
  5.0265014e-01
 -3.4169579e-01
 -3.2672912e-01
  2.2336997e-02
  1.9301919e+00
  2.6087663e+00
 -2.7082245e+00
 -1.4162767e+00
 -1.3646295e+00
 -3.0092256e+00
 -1.2333142e+00
 -8.3093412e-02
 -3.9789174e+00
  2.7750776e+00
  3.5050814e+00
  2.3982738e-01
 -8.5964918e-01
  2.4925735e+00
  1.3413783e+00
  6.6883445e-01
  4.0637034e-01
  3.4215850e-01
 -4.0947671e+00
  2.0294197e+00
 -4.1006532e-02
  6.8537235e-01
  1.3309759e+00
  2.7203207e+00
  1.2929521e+00
 -1.1551240e-01
  1.8825957e+00
 -6.7626190e-01
  4.8942990e+00
  7.0585364e-01
  1.7960757e+00
  5.0099099e-01
 -1.9844633e+00
  4.2701144e+00
  4.6000395e+00
  2.5271072e+00
  2.0517621e+00
  2.6097959e-01
  9.0452033e-01
 -6.3020557e-02
  4.2812810e+00
  3.5188510e+00
 -1.9524218e+00
 -7.8109346e-02
 -2.8701394e+00
 -1.7304887e-01
  1.4170469e+00
 -2.0928707e+00
  1.3692338e+00
 -7.5389272e-01
 -1.6370205e+00
  1.2295323e-01
 -2.7049989e-01
  1.2887275e+00
 -1.3197241e+00
  3.8089347e-01
 -3.4953012e+00
  4.5729818e+00
 -3.1120057e+00
  4.7900925e+00
 -2.3552399e+00
  2.0908248e+00
  1.5758640e-01
 -2.4070559e+00
 -6.5934658e-01
  2.8808510e-01
 -2.6235907e+00
 -3.9718691e-01
  3.0560799e+00
 -3.8305372e-01
  7.1022600e-01
  3.0912712e+00
 -1.4419873e+00
  3.5077598e+00
  4.0027592e-01
 -3.5967043e-01
  3.9439464e-01
 -3.6917172e-02
  1.4796571e-01
  1.0507187e+00
 -2.3034318e-01
 -1.1161730e+00
 -3.3814311e+00
 -1.5747809e+00
 -5.1385341e+00
 -6.6719675e-01
  1.6153325e+00
 -6.3258189e-01
 -8.0831420e-01
 -8.0394185e-01
 -2.7181324e-01
  9.7417176e-01
  4.6293674e+00
 -4.3825231e+00
 -1.0206158e+00
  9.5379066e-01
  1.2193230e+00
 -1.2857721e+00
  1.2811866e+00
 -1.5524294e+00
  4.0097027e+00
  1.0244347e-01
  1.0979115e+00
  8.1228071e-01
  4.3889353e-01
 -2.1879432e-01
  1.1760448e+00
  5.8087653e-01
 -1.3819705e+00
  1.9271392e+00
 -2.1735305e-01
 -2.3956292e+00
 -2.2256465e+00
  4.9344987e-01
 -5.7071026e-02
  2.4879282e+00
  8.4225446e-01
 -6.2895226e-01
 -2.8642309e+00
 -5.0540739e-01
  5.2684206e-01
 -8.4861881e-01
  2.2728269e+00
  5.7407510e-01
  1.6365914e+00
  1.1904500e+00
 -2.8513458e+00
 -1.6525874e+00
 -1.5540795e+00
 -8.0749410e-01
 -1.3632295e+00
  2.1845570e-01
  1.1976129e-01
  1.0075723e+00
 -3.8093090e+00
 -3.7275889e+00
  2.5814581e+00
 -3.8428433e+00
 -1.6446549e+00
 -5.0388193e-01
  7.3669404e-01
  8.2464647e-01
 -2.0725630e-02
  8.5027283e-01
 -4.7042283e-01
 -2.0597286e+00
  2.4930003e+00
  5.0408500e-01
  1.4564677e+00
  4.8332563e-01
 -1.6984161e+00
 -1.9408836e+00
  3.9285010e-01
 -6.5503454e-01
  1.7524928e+00
 -3.0381217e+00
 -4.9872532e-01
  1.7264348e-01
 -2.7048235e+00
  1.3232716e+00
 -5.1073927e-01
 -1.7679051e+00
 -1.2341921e+00
 -4.1399207e+00
  7.1040124e-01
 -4.7876638e-01
 -9.2457122e-01
 -3.5297784e-01
  7.6283979e-01
  1.0383793e+00
 -3.4584327e+00
  4.2784414e+00
 -3.8672727e-01
  4.1372671e+00
 -1.0232728e+00
 -1.3214785e+00
 -2.4206209e+00
  2.3161362e-01
 -4.2742109e-01
 -6.1828130e-01
  2.6352193e+00
 -1.2747406e+00
 -5.7818799e+00
 -6.8586886e-01
  8.0260551e-01
  4.9099131e+00
  1.4044266e+00
 -1.7420014e+00
  4.6925840e+00
  1.2381611e+00
 -6.2358737e-01
  1.1606612e+00
  6.4667225e+00
 -2.0970371e-01
  3.6910114e+00
  3.3056639e-02
  3.9991393e+00
  2.6304216e+00
  3.2512987e-01
 -5.7683289e-01
 -5.9563041e-01
 -9.3843454e-01
 -2.2857759e+00
  1.2933216e+00
 -2.6796526e-01
  1.5564739e+00
 -2.5318663e+00
 -1.2019957e+00
 -1.8242748e+00
  3.5835283e+00
  3.5037954e+00
 -3.8895738e-01
 -5.2281320e-01
  1.0345232e-01
 -2.5276480e+00
 -1.4458134e+00
  5.6945169e-01
  3.4259284e+00
 -2.6010697e+00
 -7.6319480e+00
 -2.0767297e-01
  8.2916260e-01
  2.0740025e+00
 -8.2024884e-01
  2.7802751e+00
  8.1690371e-01
 -1.0614387e+00
  1.1982360e+00
 -2.3233252e+00
  3.6342478e-01
 -5.9076226e-01
 -1.0871284e+00
 -1.8755506e+00
 -1.9957783e+00
 -4.3866754e+00
  1.3528144e+00
  1.7796173e+00
  1.9689052e-01
  1.1862246e+00
 -6.8028241e-01
  1.2881050e+00
  6.5408731e-01
 -3.2586476e-01
 -1.0985055e+00
  1.0462962e+00
 -1.1190895e+00
 -1.8681161e-02
 -1.3079503e-01
  4.4237156e+00
 -1.1592884e+00
 -1.1312151e+00
 -1.3176309e+00
 -1.2289268e+00
  3.6767337e+00
  1.3072537e+00
 -3.2145295e+00
  3.2571279e-02
 -1.2667534e+00
 -1.7486084e+00
 -2.4337387e+00
 -1.7991814e-01
 -2.7812952e-01
 -2.3707201e+00
 -9.7214162e-01
 -1.3893330e+00
  1.0211523e+00
  2.6799948e+00
  4.4447187e-02
  3.0103171e-01
 -4.2079306e-01
 -2.0106332e+00
 -1.8441519e-01
 -2.0129421e+00
  2.4542143e+00
 -5.6992488e+00
  2.5053504e+00
 -6.7864549e-01
  2.0513040e-01
  2.0911341e+00
  6.5724766e-01
  8.5701835e-01
  1.3350395e+00
 -3.8899058e-01
  1.3546288e+00
 -1.4167011e+00
 -1.8146101e+00
 -1.7542415e+00
 -2.4285184e-01
  2.7109272e+00
  1.0096210e+00
 -3.0315432e-01
  2.4347863e+00
 -1.0664812e+00
 -2.8874347e+00
 -3.9090228e+00
  1.1553662e+00
  9.7789481e-02
 -1.7324527e-01
  1.1908038e+00
  2.6043263e-01
 -8.6947250e-01
 -9.3535028e-02
  2.7386465e+00
 -1.9493273e+00
 -2.5422215e+00
 -1.2813121e+00
 -7.8294867e-01
 -2.4877450e+00
  1.6234753e-01
  2.3611989e+00
 -1.4839053e-01
  4.5730309e+00
 -6.3141239e-01
 -1.2271554e+00
 -3.6011429e+00
 -2.5350981e+00
  3.7518930e-01
 -4.3343526e-01
 -1.1481633e+00
 -2.2597286e-01
  5.8099566e+00
  4.8741918e+00
 -4.1966162e+00
 -4.8426229e-01
 -1.8583690e+00
 -1.1643127e+00
 -1.4890903e+00
  5.6322184e+00
 -9.0475810e-01
 -3.1183357e+00
 -4.9509335e-01
  4.7385776e-01
  1.1154112e+00
 -7.8292048e-01
  1.5227325e+00
 -1.1060034e+00
  4.6153829e-01
 -1.1574147e+00
  2.1223638e+00
  1.9448614e+00
 -1.3248903e+00
 -2.7686387e-01
  1.3546419e+00
  3.3201420e-01
 -8.8005972e-01
  6.3111562e-01
  2.9898806e+00
  7.6420438e-01
  1.2645512e+00
  8.9613819e-01
 -4.4112115e+00
  1.1078087e+00
  6.5704507e-01
  1.9489343e+00
  7.6836038e-01
 -1.9183896e+00
  1.7164195e+00
  5.8021611e-01
  4.9355912e+00
  1.9265909e+00
 -3.5255623e+00
  6.0645714e+00
 -1.7553890e-01
 -3.1018176e+00
  1.8181201e+00
 -7.2338426e-01
  4.2678828e+00
 -3.2634377e-01
 -3.5858336e-01
 -2.7740273e-01
 -8.0636435e+00
  1.5714126e+00
 -1.7290194e-01
  7.8697175e-01
 -1.8589201e+00
  3.8373835e+00
  4.8316264e+00
  1.1814725e+00
  3.9223361e+00
 -1.2336103e+01
 -2.8553021e+00
  2.1220272e+00
 -1.0105338e+00
 -1.1233725e+01
 -4.2283654e+00
  9.0610188e-01
  5.5027318e+00
 -3.3846242e+00
  1.8275870e-01
  5.7050925e-01
 -1.3141915e-01
 -1.3862741e+00
 -1.3501676e+00
 -3.4286001e+00
 -1.2375841e+00
  1.2664036e+00
 -8.4884542e-01
  1.8058383e+00
 -1.8237135e+00
  2.6359553e+00
 -1.1763519e+00
  1.9848411e+00
 -9.7528940e-01
 -5.6863219e-01
 -8.2951653e-01
 -7.6488477e-01
  1.4205644e+00
 -3.5038057e-01
 -2.4416634e-01
  5.7231836e+00
  2.5908637e-01
  9.6534300e-01
 -1.8294244e+00
 -1.2988969e+00
  4.2434922e-01
 -1.4433835e+00
  1.7246026e+00
  1.1152570e+00
 -7.5485992e-01
 -6.6082531e-01
  2.2436733e+00
  3.9862223e+00
  8.6947322e-02
  2.7701156e+00
 -7.0869344e-01
 -3.4450881e+00
  1.1399497e+00
 -1.4548829e-01
 -3.0629959e+00
 -7.2185558e-01
  3.5196906e-01
  3.4201434e+00
  3.6170778e+00
  2.5773544e+00
 -1.7610824e+00
  3.4044490e+00
 -1.6870935e+00
 -2.6250526e-01
 -1.9230622e-01
  5.5203146e-01
  3.9303228e-02
 -2.2061892e+00
  2.9190955e+00
  3.5278223e+00
  3.2895870e+00
  1.1130451e-01
  2.0860054e+00
 -1.0407026e+00
 -4.3362384e+00
  1.3993696e+00
 -1.4124064e+00
 -4.6493244e-01
 -1.4726260e+00
 -1.7061536e+00
  2.5751238e+00
  9.8050016e-01
  1.3573098e+00
 -6.0720754e+00
 -3.4501173e-02
  6.4798719e-01
  1.8031299e+00
 -4.5863137e-02
  1.5087893e+00
 -3.7959247e+00
 -3.2414198e+00
  1.7463351e+00
 -3.7418258e-01
 -2.0758018e-01
  1.2041870e+00
  6.6039217e-01
  2.1378086e+00
  1.5863187e+00
 -1.6742826e+00
 -1.0026158e+00
 -1.3511889e+00
 -3.9907105e+00
  5.3382225e+00
 -2.1406450e+00
  1.7348182e-01
  3.4993732e+00
  2.0603156e+00
 -4.2754049e+00
  9.3741435e-01
 -9.2346102e-01
  1.0136693e+00
  1.5803695e+00
  5.1523548e-01
 -2.3995280e+00
  1.1189018e+00
  4.1861573e-01
  4.4380870e-01
  2.9522568e-02
  7.7129159e+00
 -2.6531053e-01
 -1.1041224e-01
  1.5613631e+00
  6.0249192e-01
 -1.5309912e+00
  6.6296163e+00
  1.5082114e+00
  4.5125616e-01
 -6.0500491e-01
  1.6897559e+00
  1.2913711e+00
 -2.5250535e+00
 -7.8962600e-01
 -1.5792463e+00
  1.1820064e+00
 -1.5971295e+00
 -1.1994063e+00
  6.0133076e-01
 -6.2902533e-02
 -1.3364653e-01
 -1.7040104e+00
 -6.9273990e-01
  3.5894201e+00
 -1.6879015e+00
 -6.6918654e+00
 -3.5086334e-01
  4.0015354e+00
 -7.3985033e-02
 -2.0926854e-01
  2.0466921e+00
  2.5025878e+00
 -2.1662357e-01
  1.9684142e+00
 -3.2783142e-01
 -1.8563309e+00
 -3.2103832e+00
  5.2369561e+00
  4.9146026e-01
 -4.6834016e+00
 -9.1132838e-01
  9.1277307e-01
 -8.1080508e-01
 -3.8381872e-01
  1.6719117e+00
 -5.0897396e-01
  6.4277518e-01
 -3.5371095e-01
  3.8669158e-02
 -2.4185274e+00
 -4.7529307e-01
  1.4524088e+00
  3.1064093e+00
 -1.8613006e+00
 -2.6853907e-01
  1.2345768e+00
 -1.8051419e-01
 -2.0725868e+00
  1.6230062e+00
  4.1113031e-01
 -3.3373723e+00
 -6.4745104e-01
 -6.9292754e-01
 -1.0874380e+00
 -1.2942642e+00
  5.3210729e-01
 -1.1504167e+00
  2.1337578e+00
  9.9879050e-01
  5.3018248e-01
 -1.8484027e+00
  5.5087101e-01
 -2.4313216e+00
 -2.6461780e+00
  1.8158230e+00
 -1.7570727e+00
 -5.2547932e-01
 -5.7754695e-02
 -1.0320912e-01
  1.0296195e+00
 -4.1223269e+00
  1.2617110e+00
 -4.7867331e-01
 -2.3672407e+00
 -3.2291526e-01
  2.1642365e-01
 -4.6285704e-01
 -2.5922515e+00
 -1.5124304e+00
 -4.1080871e+00
 -2.3868170e-01
  7.3391110e-01
  4.2091981e-02
 -1.2074453e-01
 -1.9175363e+00
 -8.9277864e-01
 -1.2908639e+00
 -1.8616136e+00
 -1.4205076e+00
 -1.0063635e+00
 -1.0653386e+00
 -7.9828668e-01
  2.9635046e+00
  5.2140307e-01
  2.7007904e+00
  1.1757054e-01
 -6.9472510e-01
  1.6774198e+00
  3.6860559e+00
  1.3894656e+00
  1.0602100e+00
 -1.6218216e+00
  5.3227228e-01
 -6.4701903e-01
  4.6594495e-01
 -1.2256389e+00
 -4.1314965e-01
  1.2299383e-01
 -2.5299609e-02
  1.0939524e+00
  8.2280374e-01
 -3.5966281e-02
  1.9784819e+00
  9.7854711e-02
 -1.1998008e+00
  5.2592969e-01
 -2.8711839e+00
  1.2067813e+00
  1.3875265e+00
 -3.1990950e+00
  2.0263278e+00
  3.1510162e+00
  9.2840776e+00
  8.9581144e-01
  3.2231992e-01
  7.6989047e-02
  1.4275637e+00
  5.9865689e-01
  1.6337336e+00
 -7.0665836e-01
 -1.2915123e+00
 -5.9502721e-01
  1.1531591e+00
  2.4112756e+00
  2.6010609e+00
  5.7111663e-01
  3.2701468e-01
 -1.2902813e+00
  2.0949168e+00
  2.5075958e+00
 -5.8434901e+00
  7.0245802e-01
  8.2466537e-01
  6.1588750e+00
  7.7152681e-01
 -5.8456004e-01
  2.0636947e+00
 -3.1734335e-01
 -6.1025523e-02
  1.1310898e+00
 -4.2090116e+00
 -1.5461639e-01
 -2.2936029e+00
  3.9024622e+00
  1.4565922e+00
  5.5084052e+00
  2.0855567e+00
  2.7236898e+00
  2.4316173e+00
  2.3690710e+00
 -8.8965937e-02
  8.6039644e-01
  1.9085592e-01
  3.0212321e+00
  1.5216072e-01
  1.5087073e+00
  1.8679558e+00
 -4.9363194e+00
 -1.5987712e-01
 -1.0050545e+00
 -9.5110603e-02
  3.9074793e-03
  8.3441114e-01
  6.9192362e-01
 -1.2361572e+00
 -2.4561930e+00
  3.6611385e+00
 -4.7295246e-01
  7.0786458e-01
 -1.6446379e+00
 -1.6729989e+00
  1.3349075e+00
 -8.8154756e-02
  7.8514773e-01
  3.9614943e-01
 -4.4256443e-01
 -1.3184248e+00
  9.2870820e-01
  1.5168495e+00
 -1.7013842e+00
  1.7766261e+00
 -2.7782202e+00
  2.6635188e-01
 -3.0700821e-01
  2.1459301e+00
  2.1961627e+00
  3.6395136e-01
  1.2347027e+00
  8.9345586e-01
  1.3976671e+00
  4.6280155e+00
  6.3609821e-01
 -1.2654116e+00
  4.3684840e-01
 -2.7274089e+00
 -1.7785668e+00
  1.1201631e+00
  1.6576766e+00
  2.6059611e+00
 -1.1921148e-01
 -7.2462922e-01
  3.0471578e+00
 -5.9818774e-01
  1.9955741e+00
 -3.4568076e+00
 -1.2443946e-01
  3.1180647e-01
  2.9244053e-01
  3.7274784e-01
 -4.0091090e+00
  2.6197639e-01
 -2.7297657e+00
  7.5260425e-01
  9.5581651e-01
 -1.2027202e+00
  7.3033810e+00
  4.4009290e+00
 -7.8810340e-01
  2.5141008e+00
  1.2316610e+00
  3.9623828e+00
 -1.9126121e+00
  4.4123539e-01
  2.0119846e+00
 -1.2602113e+00
  5.0210381e-01
 -2.8142567e+00
  3.2939784e-02
 -2.8614159e+00
 -3.8211754e-01
 -4.3311555e-02
  2.7250004e-01
 -1.9070812e+00
 -8.0707550e-01
  4.2079935e+00
  9.9612720e-02
  1.0102684e+00
 -2.3372750e+00
 -5.8828431e-01
  2.9959807e-01
 -3.4461482e+00
  4.3928528e-01
  7.2456822e-02
  1.1832367e+00
 -2.2729039e+00
 -2.4996586e+00
 -1.8901029e-01
  2.6519318e+00
  2.2833443e+00
  1.4873657e+00
  8.1437969e-01
  6.8518752e-01
  9.8629659e-01
 -7.3062998e-01
 -4.6533912e-01
  1.4399244e-01
 -2.4495311e+00
  1.5953845e+00
 -1.5402606e+00
  3.9537001e+00
 -3.5526733e+00
  5.4672465e+00
 -1.9721138e+00
 -5.8625808e+00
 -2.4618568e+00
 -3.1953421e+00
 -3.4067046e-02
  8.1959444e-01
  1.4541594e+00
 -7.0052832e-02
 -2.0896494e+00
 -4.7988459e-01
  3.1850083e+00
  1.8361013e+00
  6.3438100e-01
 -3.9483324e-01
  2.0473876e+00
  6.1583932e-02
  5.4563023e-02
 -4.1281843e+00
  2.5849121e+00
 -2.3559017e+00
  1.7000850e+00
  2.1638300e+00
  8.1605360e-02
 -1.4674656e+00
  2.0366535e-01
 -1.2751085e-01
  3.4596906e+00
 -7.3034996e-01
 -1.0187933e+00
 -2.2703669e+00
 -1.6400673e+00
  1.4214842e-01
 -1.8637666e+00
 -5.8968015e+00
 -2.2834413e+00
 -4.9950395e+00
  1.0216122e+00
 -2.2081561e+00
  4.3583459e-01
 -2.1261537e+00
 -7.0744991e-01
  2.3268332e+00
 -1.0450156e+00
 -1.3049330e-02
 -1.4807093e+00
 -4.6525888e+00
 -2.3467790e-01
 -2.7221720e+00
 -4.1734391e-01
 -1.5543871e+00
 -2.4603175e-01
 -1.2697966e+00
  1.2115777e+00
  1.1647840e+00
 -2.7287188e-01
  1.2908298e+00
  1.3098384e+00
 -3.7608974e+00
  2.5562043e+00
  1.5086700e+00
 -4.7065166e-01
 -3.3761203e-01
 -1.7095418e+00
 -6.3588977e-01
 -7.3722088e-01
 -2.9092972e+00
 -3.9152429e+00
  6.5632993e-01
 -1.9755628e+00
 -3.9418206e+00
 -3.2366924e-03
  2.0682031e-01
 -1.3159683e+00
 -1.4965158e+00
  8.6706430e-03
  3.9048648e+00
  5.6810212e-01
 -1.6436278e+00
  4.2512029e-01
  2.6549547e+00
 -8.1651223e-01
 -6.2784445e-01
  3.6265773e-01
  5.7491028e-01
 -1.7279333e-01
 -3.3602281e+00
 -2.8413315e+00
  8.5455233e-01
 -4.0126911e-01
  5.5371130e-01
 -5.7491736e+00
  2.1258960e+00
  1.3682325e-01
  7.3823142e-01
 -2.0310624e+00
 -2.3107519e+00
 -3.4686861e+00
 -1.5787818e+00
  2.7579086e+00
 -1.6431501e+00
  3.1746784e-01
 -1.5097750e+00
 -2.7350118e+00
  1.9865775e+00
  6.2383080e-01
 -3.7598798e+00
  1.3806425e-01
 -4.5921555e+00
 -6.4151168e+00
 -7.9289830e-01
 -3.0471921e+00
 -2.2588761e+00
 -7.1964377e-01
 -2.1826997e+00
 -2.4136767e+00
 -4.2135339e+00
  1.1820996e+00
  7.3055892e+00
  5.4361711e+00
  6.3392920e+00
  4.4359380e-01
  2.0818653e+00
  3.4884024e+00
  1.7325792e+00
  2.1862434e-01
 -2.8366163e+00
  3.2181993e+00
  4.3041831e-01
 -2.4905348e+00
 -1.7044710e+00
 -1.1404538e+00
  8.2661879e-01
  2.0027888e-01
 -6.6065416e+00
  1.4444164e+00
  3.2689750e+00
 -2.8096884e-01
 -2.3355956e+00
 -1.8147780e+00
 -8.0460751e-01
 -5.7906288e-01
 -1.3305150e+00
  2.5112247e+00
  5.8503103e-01
 -3.4039035e-01
 -5.1161450e-01
 -1.7133640e-01
 -2.3530138e+00
  1.4963655e+00
 -3.2115345e+00
  8.6039728e-01
 -6.4025944e-01
  2.3944988e+00
  2.8248879e-01
  1.6332157e+00
 -1.0483041e+00
 -1.6792746e+00
 -4.0204973e+00
  1.9054864e-01
 -7.5972509e-01
 -2.0989130e+00
  1.5092665e+00
  1.4285514e+00
  2.4127071e+00
  2.2333781e-01
  5.7599056e-01
 -4.9585361e+00
 -7.4677372e-01
  9.1963011e-01
  2.2205136e+00
  9.4652784e-01
 -1.5177284e+00
  2.9535527e+00
 -5.6383829e+00
  2.5514746e-01
  2.3062954e+00
 -5.7763605e+00
 -1.0681859e-01
  2.5040667e+00
  5.0838733e-01
 -1.8954465e-01
 -9.0618081e-02
  3.2272055e+00
 -3.7496135e+00
  8.4192002e-01
 -7.7073174e+00
 -2.2763226e+00
  3.3151674e+00
  4.1218942e-01
  2.1896091e+00
 -2.2872375e-01
  1.8965532e-01
 -1.6193794e+00
 -2.3880517e+00
 -3.0612183e+00
  1.0182540e+00
 -9.4357565e-02
  1.5012937e+00
 -4.5152097e+00
 -2.7344074e+00
  3.3152986e+00
  8.3102423e-01
  2.1925136e-01
 -4.6029263e+00
 -8.4748259e+00
 -1.8597823e+00
  1.4004799e+00
 -2.3723001e+00
 -1.0962173e+00
  3.4893477e+00
 -1.1494356e+00
 -4.4722152e+00
 -3.9706235e+00
 -2.0119221e+00
  1.4278235e+00
  1.8640780e+00
  3.0040970e-01
  1.1781917e+00
 -7.4434266e+00
  9.0507382e-01
 -1.5520689e+00
 -3.1004331e-01
 -1.1797276e+00
 -2.8702726e+00
  1.7818537e+00
  4.5980840e+00
  1.2359113e+00
 -1.6209773e+00
  1.5066025e+00
 -7.4106830e-01
  2.2162604e+00
  2.0082223e+00
  1.1186965e+00
  1.8713853e+00
 -3.4772434e+00
 -4.6269007e+00
 -1.3529458e+00
  2.5582092e+00
 -4.0487399e+00
 -1.2050574e+00
 -8.1938043e-02
 -2.1095030e+00
  4.3714776e+00
 -1.1538944e+00
 -5.9228343e-01
  2.0626602e+00
  1.0307447e+00
  1.7363838e+00
 -5.4663521e-01
 -1.5923046e-01
 -9.5266390e-01
  4.1892821e-01
 -1.4895498e+00
 -1.0370921e+00
 -8.5887510e-01
  2.8413844e+00
 -6.6761576e-02
 -2.6243722e-01
  1.1097450e+00
 -1.6255302e+00
  7.4671775e-01
  1.0676174e+00
 -5.1321840e-01
  1.2778236e+00
  2.7186584e+00
 -9.5053300e-02
  2.5845462e-01
  4.8855182e-02
 -1.4344817e-01
  3.0378819e-02
 -1.3226472e+00
  2.4595860e-01
  1.9712023e+00
 -1.2112912e-01
  1.9387926e-01
  9.9116719e-01
 -1.2702413e-03
 -3.1115085e-01
 -7.7716666e-01
 -1.0778544e-02
 -4.1474249e-02
  1.6158083e-01
  6.9158655e-01
  2.2223142e-01
  5.7340138e-02
  1.0870852e+00
 -2.8826645e-01
  5.0276071e-01
 -7.8129834e-01
 -8.4786385e-01
 -3.1754711e-01
  9.1533834e-01
 -1.0744499e+00
  5.6339920e-02
  7.3158219e-02
  8.8009465e-01
  1.0565532e+00
  2.3479094e-01
  9.4918355e-02
 -5.0269336e-01
 -2.2400863e+00
  1.5728045e+00
  2.3475420e+00
  1.1934253e+00
 -2.6152554e-01
  2.1902316e+00
 -3.8077633e+00
 -2.8640594e+00
  1.1370245e-01
  4.1986389e+00
  1.6461079e+00
  2.9168544e+00
  7.7954030e-01
 -1.4060117e+00
  5.6712574e-01
 -4.7481254e-01
 -3.0088122e+00
  2.3413100e+00
 -1.8199446e+00
 -2.2384086e+00
 -1.6578784e+00
 -2.9803035e+00
  1.2305965e+00
 -1.1884025e+00
  3.6479149e+00
  1.6746351e+00
  3.6427903e-01
  3.4940906e+00
 -2.7108133e-01
 -1.2430589e+00
 -1.7939717e+00
 -1.4848483e+00
 -5.2239561e+00
  3.2895060e+00
  6.1838758e-01
  1.2109567e+00
 -2.1446197e+00
  1.3529027e+00
 -3.8478699e+00
 -7.6726609e-01
  1.7541898e+00
  2.9147315e+00
  2.8285357e-01
 -5.1709491e-01
  7.4906850e-01
 -7.6574415e-01
 -2.1869309e+00
  8.9308709e-01
  3.0185695e+00
  2.0404408e+00
 -2.0678339e+00
  1.9642879e+00
 -1.9208097e-01
  3.0007150e+00
  4.5974398e-01
  1.8106934e-01
  3.8979356e+00
 -4.8266262e-01
  3.7367902e+00
  1.6405230e+00
 -1.3185504e-01
 -1.7146932e+00
 -2.5378778e+00
 -6.3353968e-01
  1.3748454e-01
 -7.6547331e-01
  2.1554577e-01
 -2.0726016e-01
  3.7666747e-01
  4.2725763e-01
  2.3303397e+00
 -3.3878869e-01
 -1.0401077e+00
 -1.5222622e-01
 -2.0550854e+00
 -2.8904620e-01
 -5.1707745e-01
  2.4072847e-01
  3.3204930e+00
 -7.7193916e-01
 -2.0837548e-01
  1.3538377e-01
 -6.0511100e-01
 -1.5685861e+00
  5.5294132e-01
 -2.4474263e+00
  2.1187317e+00
  4.9524546e-01
 -2.4165859e+00
 -1.9985913e+00
 -2.3442960e+00
 -2.5567472e+00
  3.3031189e+00
  8.8949794e-01
  6.8822545e-01
  1.2085605e+00
  2.7813083e-01
 -6.1432660e-01
  1.1902411e+00
  3.9430130e-01
 -1.0545349e+00
  2.3991880e+00
 -3.7686634e+00
  7.3087788e-01
  2.2972400e+00
 -2.1417382e+00
 -8.9158678e-01
 -3.3691883e-01
 -9.3375176e-01
 -8.7091202e-01
 -2.3272187e-01
  8.4685761e-01
  6.7123008e+00
 -3.8135080e+00
  8.8753110e-01
  1.9165546e-01
  2.2628226e+00
 -1.2348776e+00
 -1.4217843e+00
  3.8897333e+00
 -8.9825779e-01
 -4.7136211e-01
 -5.7810247e-01
  2.2027247e+00
  9.8394525e-01
  2.9404217e-01
  2.0607052e+00
 -2.2757447e+00
  1.2365900e-01
  1.3314037e+00
 -5.3604943e-01
 -1.8535316e+00
 -1.8034934e+00
  3.1478913e+00
 -5.3645082e+00
 -2.8242829e-01
  1.3932606e+00
 -1.3991852e+00
 -3.0169198e-01
 -2.8413348e+00
  2.0337493e+00
 -9.4184780e-01
  9.4813704e-01
  1.2809886e-01
  3.6179161e-01
  2.9570684e+00
 -2.1344805e+00
 -1.5397546e+00
 -2.0974197e+00
 -1.9341648e-01
 -1.4880570e+00
  1.0956690e-01
  2.0639336e+00
  5.0237221e-01
  2.7835975e+00
  3.6008041e+00
 -1.4978130e+00
 -5.9582108e-01
  5.1732183e+00
 -1.2086529e+00
 -2.3727012e-01
 -1.3459942e+00
 -4.5465982e-01
 -1.5662972e+00
  6.3241082e-01
  9.3782198e-01
  1.9773049e+00
  9.7329915e-01
  2.5530687e-01
 -4.2689323e-01
 -1.3324932e+00
 -3.8605287e+00
  3.2868019e-01
 -7.3927373e-01
  6.7033780e-01
  3.2694480e+00
  1.3078064e+00
 -3.1582433e-01
 -1.6593243e+00
  2.8154367e-01
  6.1420518e-01
  4.1473451e-01
  1.3952107e+00
  1.8441968e+00
 -2.7182868e+00
 -2.9340792e-01
 -2.7864239e+00
  2.0644624e+00
 -1.1723911e+00
 -2.5705464e+00
 -1.0479479e+00
 -1.4057602e+00
  1.4555874e+00
 -3.1260810e+00
 -1.6326969e+00
 -2.0572975e-01
 -3.8441202e-01
  5.1962465e-01
  8.2609755e-01
  1.8635479e+00
 -1.2408692e-01
 -2.7557752e+00
  1.6788583e+00
 -2.0276856e-01
  1.5410171e+00
 -9.0012789e-01
  1.7602817e+00
 -2.8373218e+00
  7.5264710e-01
 -1.0377236e-01
  2.5840049e+00
  2.0000179e+00
 -1.8352795e+00
  7.2557110e-01
 -4.5378011e-01
 -2.0332289e+00
 -7.2190624e-01
  1.7922521e+00
 -1.7255393e+00
  1.0042187e+00
  2.8548021e+00
  2.9178421e+00
  9.4652176e-01
 -1.2996597e+00
 -2.0058107e+00
  8.0020088e-01
 -1.0290291e+00
 -1.2851627e-01
 -6.9215441e-01
 -1.1228448e+00
  2.1406665e+00
 -1.5573446e+00
 -8.7332755e-01
  6.4985132e-01
 -1.2848371e+00
  4.9029472e-01
  2.5083325e+00
 -8.6464137e-01
 -9.7066861e-01
 -1.0387896e-01
  1.1909108e+00
  1.1718112e+00
 -3.7842288e+00
  1.4606047e-01
  2.0528932e+00
 -1.3687019e+00
  1.8599483e-01
 -4.4983149e+00
  2.6572800e+00
 -1.1156838e+00
 -2.6091595e+00
 -2.3227277e+00
  3.0832164e+00
 -2.8648765e+00
 -3.0861038e-01
  3.9868383e+00
  3.3047302e+00
 -1.1830083e+00
  1.5609480e+00
 -4.1916940e-01
  1.8130643e+00
 -1.0997143e+00
  5.5155540e+00
  1.3203266e+00
 -1.3611737e+00
 -2.2467098e+00
 -3.2024014e-01
 -5.7983727e+00
  1.0748909e+00
 -7.7427845e+00
  8.7277722e-01
  3.6481205e-01
  1.2655435e+00
 -1.2861423e+00
 -1.9826168e+00
 -3.8913743e+00
  5.8949180e+00
  2.0638709e+00
  4.1121435e+00
 -1.6507336e+00
  1.6105046e+00
  1.1603515e+00
  1.4837160e+00
  1.5918856e+00
  3.7362269e-01
 -1.5856512e+00
 -4.5637524e-01
  1.1586987e+00
 -1.5571663e-01
 -6.0598445e-01
  1.2728008e+00
  1.7345662e+00
  1.2277045e+00
 -2.3657137e-01
 -3.8733025e+00
  1.5807275e+00
  5.4321849e-01
 -2.8180373e+00
 -2.6490397e+00
  1.2973745e+00
  3.6321577e-01
  1.3899190e+00
 -1.5640105e-01
  7.9203397e-01
  2.4402356e-01
  2.8748085e+00
  4.5473349e-01
 -1.5989207e+00
  1.2687629e+00
 -7.1804416e-01
  3.1660950e-01
 -1.0176053e+00
 -2.2511930e+00
 -2.3715439e-01
 -1.5505544e+00
 -1.1551554e+00
 -8.0273724e-01
  2.1920161e+00
 -2.2604506e+00
  1.2761827e+00
 -1.4184754e+00
  2.9704317e-01
 -1.7427952e+00
  1.7949922e+00
  1.5158463e+00
  1.3621584e+00
  5.1152521e-01
 -1.6614573e+00
  9.3647307e-01
  1.6626452e+00
  1.3989946e+00
  8.4757406e-01
 -3.0186760e+00
  5.3835064e-01
  7.7239078e-01
 -1.8536823e+00
  7.9721081e-01
 -2.8349319e+00
  1.3355809e+00
  2.2275243e+00
  3.0308769e+00
 -1.2789378e+00
 -3.1773503e+00
 -2.7865615e-01
  1.9851120e-01
 -8.5720861e-01
  1.6303015e+00
 -2.5404012e+00
  5.3760848e+00
 -2.5999455e+00
 -2.7660149e-01
  4.9540251e-01
  1.3437167e-01
 -1.1224488e+00
  2.1460497e-01
  8.7573117e-01
 -2.4260917e-01
  4.1040912e-01
  1.1531696e-01
  5.2712460e+00
  2.0532804e+00
 -1.9583453e+00
  2.0970535e+00
  5.6659514e-01
  9.0691179e-01
 -3.3705437e+00
  3.4423585e+00
  2.1386120e+00
 -4.0984464e-01
  7.1182770e-01
 -2.4804285e-01
  2.9962752e+00
  3.3647580e+00
 -6.9968998e-01
 -4.0508935e-01
  3.4060762e+00
  1.4753165e+00
  2.3927183e+00
  3.6513016e-01
 -1.2260301e+00
  7.6645410e-01
 -6.6163731e-01
  1.8562737e+00
 -6.5724748e-01
 -1.3666319e+00
 -1.1964968e-01
 -1.4600779e+00
 -1.4292990e+00
  1.3241899e+00
 -1.3281788e+00
  3.0095184e-01
 -2.8607576e+00
  7.2520888e-01
 -2.0092695e+00
 -2.2311138e-01
  2.8379485e-01
 -3.9484258e+00
 -3.3255410e-01
 -3.7141711e-01
 -9.6620643e-01
 -9.2525899e-01
  2.2500569e-01
 -2.2340198e+00
  5.3107852e-01
 -1.5816911e+00
 -1.1458144e-01
 -3.6855352e+00
 -1.6257243e+00
 -1.8466702e+00
  1.4007654e+00
 -3.1802030e+00
  2.6976068e+00
 -5.8634949e-01
  4.3765030e+00
  2.1341865e+00
  8.1772494e-01
  8.5916144e-01
  3.5097972e-01
 -1.5144947e+00
 -3.1866524e+00
 -5.7382421e+00
  1.9788172e+00
  4.6820182e-01
 -1.4147090e+00
  1.7835486e-01
 -2.5296762e+00
  4.4004694e-01
 -1.3105929e-01
 -2.2383602e+00
  1.2293061e+00
  2.3310249e+00
  2.9941922e-01
 -9.0869147e-01
  1.1715177e+00
  2.4666338e+00
  3.7632695e-01
 -3.7476617e-01
 -1.0180075e+00
  1.0150998e+00
 -5.1773828e-01
 -9.0664876e-01
 -2.8347840e+00
  2.8598964e+00
  3.4068663e+00
  2.3985202e+00
  4.4427757e+00
  1.9197093e+00
  3.4730917e-01
  1.1012341e-01
 -5.6627469e+00
 -4.6291661e+00
 -1.8986629e-01
  5.9627414e-01
  8.1831872e-01
 -4.9366918e+00
  2.4239724e+00
 -1.2048720e+00
 -1.7947272e+00
 -2.0823414e+00
  1.1928111e+00
 -1.8700030e+00
 -4.0059276e+00
  2.8271356e+00
  1.4893813e+00
  1.2260072e+00
 -1.6659600e+00
  3.4784689e+00
 -8.0723011e-01
  1.3840261e+00
 -7.8458089e-01
 -1.8314348e+00
  2.9402167e-01
  2.1266499e+00
 -3.0124784e+00
  1.2059269e+00
  1.6640742e+00
 -1.3612017e-01
 -1.1501520e+00
 -5.9869629e-01
  1.2041672e+00
  5.0083661e-01
  2.4526796e+00
 -9.4915175e-01
 -3.6996841e+00
 -2.5426474e+00
  4.4810920e+00
 -1.2932024e+00
  2.3856306e-01
  2.0974998e+00
  6.0416865e-01
 -9.2664021e-01
  1.2655820e-01
  2.5163651e+00
 -5.2282274e-01
 -7.8668559e-01
  1.4267246e+00
 -1.3375503e+00
  2.7905443e-01
 -7.8617102e-01
 -1.0493202e-01
  1.6624171e+00
  9.5908308e-01
 -1.5012329e+00
  7.6508206e-01
  6.7203188e+00
  4.2924838e+00
  3.4637162e-01
 -2.8649867e-01
 -1.5203363e-01
  7.0373464e-01
  5.2616727e-01
  2.7220778e+00
 -1.2014264e+00
 -1.3291620e+00
  2.2075911e+00
 -1.4724718e+00
 -7.5517100e-01
 -3.2107787e+00
  1.3299837e+00
 -3.3537936e+00
 -1.3335401e+00
  1.2953492e+00
 -2.2019663e+00
  4.2026469e-01
 -8.2750618e-01
 -1.7261827e+00
 -3.8053269e+00
  2.8923619e+00
 -9.7416341e-01
 -7.9815418e-01
  3.5004464e-01
  3.4772866e+00
 -2.5322168e+00
  1.3290286e+00
 -2.2792530e+00
  4.3639725e-01
 -1.2861145e+00
  2.0922656e+00
 -3.4969490e+00
  2.9581279e-01
  1.6177742e+00
 -2.6185970e+00
 -2.3562307e+00
  2.7585724e-01
 -2.8492376e-01
  3.5616779e+00
  6.4559633e-01
  5.1932392e+00
 -7.7738988e-01
  1.7104341e+00
 -1.3585068e+00
  6.5698218e-01
  7.6299530e-01
  6.7773943e+00
  1.1233363e+00
  1.1324054e+00
  1.2299944e-01
  1.3518797e-01
  2.7644582e+00
  5.3175008e-01
 -8.6870730e-01
  1.2375163e+00
 -1.6555963e+00
 -4.9481857e-01
 -2.8078423e+00
 -7.0516682e-01
  2.4087057e-01
  1.7614554e+00
  5.0342262e-01
 -1.6819525e+00
 -2.6439221e+00
  6.0312624e+00
  1.0253277e+00
  2.0325003e+00
 -1.3868302e+00
  1.0077602e+00
 -7.3395538e-01
 -5.3404326e+00
  5.1183206e-01
  6.3214417e+00
 -7.2946709e-01
 -2.3790768e-01
  1.6818900e+00
 -2.6080840e+00
  4.3719487e+00
  3.0307660e+00
  3.5894156e-01
 -3.8007011e+00
 -3.1560785e-01
 -1.5054893e+00
 -1.7082468e+00
 -2.6049752e+00
  1.9127226e-01
 -2.7116060e+00
 -2.7754765e+00
  1.8417838e+00
 -1.1923051e+00
  1.8802004e+00
 -4.8953545e-01
 -1.5066164e+00
  3.1771818e-01
 -2.2874107e+00
 -1.9035759e+00
 -1.9548067e+00
  1.8795853e+00
  1.1434329e+00
 -1.1962514e+00
  2.6827331e+00
 -1.5033954e-01
 -3.4479845e+00
  8.9424485e-01
  4.0122408e-01
 -2.6776423e+00
  9.2031646e-01
  2.2225819e+00
 -1.4172229e-01
  3.5963583e-01
 -3.1204348e+00
 -1.8204072e+00
  2.1884718e+00
 -1.3516862e+00
 -9.8676777e-01
 -3.5625398e+00
  1.1368614e+00
 -2.1339519e+00
 -6.8200165e-01
 -1.2465615e+00
 -4.3796782e+00
 -4.8901585e-01
 -6.9753373e-01
  2.3236859e+00
  1.0726500e-01
  1.8787241e+00
 -1.8227463e+00
  1.3673295e+00
  2.5590053e+00
  1.1305872e+00
 -2.2512186e+00
  7.7568686e-01
  2.0096462e+00
 -1.1576904e+00
  3.6782238e+00
  3.3639982e-01
 -2.6237261e+00
  3.9175105e+00
 -2.2511989e-01
 -9.7854316e-01
 -1.5427690e+00
 -4.4319984e-01
  1.0622120e+00
  5.9252757e-01
 -1.2814467e+00
 -2.4734011e+00
  3.1907444e+00
 -2.6674573e+00
 -7.8388447e-01
  1.1647114e+00
 -7.5743425e-01
  3.9466581e-01
 -2.7192802e+00
 -2.0274665e+00
  2.3160787e+00
  1.2097572e+00
 -7.1456051e-01
  1.9266658e+00
 -3.0682552e-01
  2.1525328e+00
 -4.4711447e+00
  1.2467365e+00
 -2.1957626e+00
  9.1420549e-01
 -1.6125518e+00
 -1.1963068e+00
  1.8515472e+00
  2.3082972e-01
 -8.0073565e-01
 -2.0935264e+00
  4.8485863e-01
  1.4819198e+00
  1.8096904e+00
  1.2060720e+00
 -2.2063260e+00
  2.4092262e+00
 -1.6941278e+00
 -2.8588130e+00
  2.1426290e-01
 -2.8276906e+00
 -2.7723885e+00
  5.2848706e+00
 -2.5191350e+00
  1.2576020e-01
 -2.1265769e+00
  1.6195406e+00
  5.4263878e-01
  3.5106218e+00
  3.0512602e+00
 -7.5255048e-01
 -1.9610325e-01
 -4.4288673e+00
 -2.3909932e-01
 -1.8049185e+00
  9.0750427e+00
  1.3724986e-01
  3.8237987e+00
  2.0551983e-01
  5.3947598e-01
 -4.8706837e+00
 -6.1844379e-01
  3.5532412e-01
  1.1583997e+00
  1.6876948e+00
  1.4844228e+00
  1.2948204e+00
  1.0107918e+00
  2.0487146e+00
 -1.2413467e+00
  3.4184544e+00
 -1.1364609e-01
  1.4152400e+00
  1.9398901e+00
 -3.4216352e+00
 -4.5715410e-01
  2.0898767e-01
  1.0992212e+00
 -1.3628334e-01
 -9.2313087e-01
 -8.3171958e-01
  3.6072677e-01
 -1.6532377e+00
  1.2017348e-01
  1.2017348e-01
  1.2017348e-01
  1.2017348e-01
  1.2017348e-01
  1.2017348e-01
  1.2017348e-01
  1.2017348e-01
  1.2017348e-01
  3.7500963e-02
  3.7500963e-02
  3.7500963e-02
  3.7500963e-02
  3.7500963e-02
  3.7500963e-02
  3.7500963e-02
  3.7500963e-02
  3.7500963e-02
  2.0779429e-02
  2.0779429e-02
  2.0779429e-02
  2.0779429e-02
  2.0779429e-02
  2.0779429e-02
  2.0779429e-02
  2.0779429e-02
  2.0779429e-02
  3.0119156e-02
  3.0119156e-02
  3.0119156e-02
  3.0119156e-02
  3.0119156e-02
  3.0119156e-02
  3.0119156e-02
  3.0119156e-02
  3.0119156e-02
