nep4 3 C H N 
cutoff 3
n_max 8
l_max 4
ANN 50 0
  2.0268686e+00
 -4.9908927e-01
  2.3939180e+00
  1.3795029e-01
 -3.4475443e+00
  3.9746919e-01
  4.3951888e+00
  4.6240225e+00
 -8.4627736e-01
  1.8523234e+00
  2.2572439e+00
  1.0246607e+00
  2.8988340e-01
 -5.2889753e-02
  3.2609727e+00
 -1.5524558e+00
  3.2391398e+00
  7.9879951e+00
  1.9863514e+00
 -2.0833607e+00
  2.4541661e-02
 -1.5441658e+00
  2.3871095e+00
  1.5176345e-01
  2.8944101e+00
  2.0183086e+00
 -1.7266843e-01
 -3.1347730e+00
  2.8341091e-01
  7.6651597e-01
 -3.1269445e+00
  3.1963041e+00
 -3.2023042e-01
  1.6463332e+00
 -5.5565600e+00
 -4.5080364e-01
 -7.6975489e-01
  1.9907737e-01
 -2.0626338e+00
  4.2305107e+00
 -4.2747307e+00
  7.5381976e-01
  2.8847343e-01
 -1.7579989e+00
  7.5350773e-01
 -4.2603226e+00
 -2.0818193e+00
  3.0019224e-01
 -8.9357477e-01
 -1.5552821e+00
 -1.1395414e+00
  6.5130906e+00
  4.0640135e+00
 -2.7283854e+00
 -3.3975935e+00
  7.1988845e-01
  6.6018784e-01
  1.4499243e+00
  1.0182676e+00
  2.3210824e-02
 -1.1925423e+00
 -5.3869281e+00
 -1.6664718e+00
 -4.8641253e-01
 -2.0454037e+00
 -5.3726202e-01
  1.3099768e+00
 -3.5638440e+00
 -1.2396058e+00
 -5.6023091e-01
  2.1122231e+00
 -6.3093320e-02
  1.0079120e+00
  5.0351399e-01
  2.8116515e+00
  2.0369215e+00
  4.1173205e+00
 -9.7715312e-01
 -5.6492054e-01
  8.7510598e-01
 -1.0985750e+00
  1.1487414e+00
  1.1993310e+00
  1.7626212e+00
  5.0463166e+00
  9.9985433e-01
 -1.3948988e+00
 -3.6641111e+00
 -3.2723761e+00
 -8.0335528e-02
 -2.4115379e+00
 -3.5243034e+00
 -1.2274133e+00
 -1.1551973e-01
 -7.6627493e-01
  4.4805660e+00
  1.5388492e+00
  2.2350225e+00
 -2.7104218e+00
 -8.2204521e-01
 -2.7381611e-01
 -2.2155604e-01
 -5.2860737e-01
 -4.0438895e+00
  1.3287905e+00
 -4.4902226e-01
  4.4030830e-01
 -1.2639898e+00
  2.5554187e+00
 -2.6685438e+00
  3.7275028e+00
  4.5152078e+00
 -4.9310746e+00
 -9.4781989e-01
  2.8422301e+00
  7.4259025e-01
  1.6726431e+00
  5.5900607e-02
 -3.9636591e-01
 -1.0450634e+00
  1.5187950e+00
 -4.4983211e+00
  1.4167180e+00
  3.1392032e-01
  5.2018981e-02
  9.7266108e-01
  6.6332340e+00
 -2.6436825e+00
  3.3120301e+00
 -1.1964350e+00
  2.8596141e+00
  1.2205954e+00
 -2.3265910e+00
 -2.4244605e-01
  7.0742030e+00
 -5.5373687e-01
  1.8572404e+00
  9.4757169e-02
  6.3780847e+00
 -3.9090881e+00
 -1.7671007e+00
  1.8119639e+00
  1.2875050e+00
 -1.3315713e-01
  4.6661363e+00
  7.1396548e-01
  3.1112595e+00
 -3.0120509e+00
 -5.2280432e-01
 -1.8395913e+00
 -1.2665675e+00
  2.8231878e+00
  3.9998426e+00
  2.7919495e-01
 -9.2150998e-01
  6.2281591e-01
  1.9905113e+00
  1.1337410e+00
  5.6367648e-01
 -2.7361393e+00
  4.0238853e+00
  1.6771891e+00
 -3.8780385e-01
  1.3561903e+00
  2.5900370e-01
  1.6889216e+00
 -4.5411801e-01
  4.1934495e+00
 -2.3001773e+00
  1.9829932e+00
 -4.6369348e+00
  8.8460886e-01
 -4.3764618e-01
  6.5574992e-01
  2.4601847e-01
  1.1099488e+00
 -1.9923751e+00
 -4.0031157e+00
 -7.3771495e-01
  6.7608089e+00
 -2.6160488e+00
  3.0531082e+00
 -1.3017089e+00
 -1.6539079e-01
 -4.7089958e-01
  4.7301108e-01
  1.3693807e-01
 -7.3124690e+00
  6.2481785e-01
 -4.3937864e+00
 -1.2821215e+00
 -1.0209957e+00
  5.6455600e-01
  8.1510448e-01
  2.7903414e+00
  3.7996139e-02
 -1.0388048e-01
  7.9329151e-01
 -2.1012151e+00
  7.2025652e+00
  1.9855343e+00
  1.2496477e+00
  2.1529322e+00
  1.6117429e+00
  2.7510774e+00
 -2.2407939e+00
  8.6629373e-01
  1.6437532e+00
 -1.6046856e-01
  1.3990575e-01
 -2.9047999e+00
 -7.2951221e-01
 -1.4720938e-01
 -1.0135360e-01
  4.2469189e-01
  2.4433374e+00
  2.0886431e+00
  8.3893582e-02
 -8.3148408e-01
  2.2730851e+00
 -9.2482913e-01
  4.6439376e+00
  7.1067524e-01
 -8.1897569e-01
  1.2613603e+00
  5.2180052e+00
 -9.9101341e-01
  2.0806926e-01
 -3.7546129e+00
  2.2450127e-01
 -2.8654783e+00
 -1.8351412e+00
  8.0407357e-01
 -1.0266041e+00
 -1.5372445e-01
  7.5530827e-01
  2.1851385e+00
  4.1857228e+00
 -1.4888080e+00
 -1.9016788e+00
  1.1321348e+00
  3.2031398e+00
  4.3340191e-01
  4.1839409e+00
 -2.7384186e+00
  7.6348013e-01
 -8.8568509e-02
  1.0740004e+00
  1.6903495e+00
  1.3220569e+00
  1.3207411e+00
  7.3674721e-01
 -2.5481715e+00
 -5.1550072e-01
  1.0661391e+00
  2.7860408e+00
 -1.5548817e+00
 -8.9556205e-01
  3.4100494e+00
  1.3984780e+00
 -2.7591693e+00
  4.8166960e-01
 -2.7100855e-01
 -8.2561988e-01
  8.0027157e-01
 -9.7258596e+00
 -3.2407876e-02
  5.9028280e-01
 -3.4406905e+00
 -3.7729187e+00
  2.9693279e+00
  1.5295385e-01
  6.9012699e+00
 -8.5084224e-01
  1.2001139e-01
  5.1262889e+00
  8.2541919e-01
  1.2232900e+00
  5.3463352e-01
 -5.5545440e+00
  4.4384656e+00
  2.4671945e-01
 -1.0935677e+00
 -9.4416440e-02
 -3.9603891e+00
 -1.2224843e-01
  1.9262093e+00
 -3.3791440e+00
  4.4155526e+00
  2.2884226e+00
 -3.9851897e+00
  3.0137722e+00
 -2.9810336e+00
 -6.2352163e-01
  1.9761580e+00
  7.6115149e-01
  1.0517597e+00
 -7.7942014e-03
  3.0320437e+00
  1.9598156e+00
  5.2019900e-01
  4.7811556e+00
  3.7171001e+00
 -1.6376728e+00
 -1.6948093e+00
 -1.0910436e+00
  1.7674333e+00
 -3.3496366e+00
 -2.2195652e+00
  4.8477381e-02
 -9.7627304e-03
 -5.2701712e-01
 -4.4226017e+00
 -9.0163821e-01
  1.3992500e+00
 -1.1768508e+00
 -5.2119422e+00
  2.4120314e-01
 -1.1671293e+00
  5.9721642e+00
 -7.4022388e-01
  1.1757230e+00
 -9.4760263e-01
 -4.7144732e+00
  3.5214870e+00
  1.8030639e-01
  1.4676248e-01
 -3.9589102e+00
  1.0664637e+00
 -1.2697781e+00
  1.6634520e+00
  3.5165086e-02
  5.5172390e-01
  6.8104696e-01
  1.7992504e+00
  2.2538750e+00
  2.1136994e+00
 -2.2371984e+00
 -6.9630542e+00
 -8.1359565e-01
  2.3389673e+00
  5.5291510e+00
 -4.0162044e+00
 -3.4181466e+00
  9.1004044e-01
  2.9052215e+00
  2.4818902e+00
  1.1316322e+00
  4.3504179e-01
  1.5577288e+00
 -3.5386877e+00
  7.7474685e+00
  1.7401189e+00
 -3.3074069e+00
  1.2337189e+00
 -3.4160784e-01
  3.6984184e+00
  4.6955824e-02
 -5.4672050e-01
  4.7712855e+00
 -1.5269666e+00
  2.7494392e+00
  2.2400923e+00
  1.0842981e+00
 -7.4632668e-01
  2.8768101e-01
 -1.8813033e+00
 -1.4760019e+00
  4.4202778e-01
 -1.0719701e+00
 -4.0360622e+00
  1.2822957e+00
  9.2736137e-01
  2.8420360e+00
 -1.4999304e+00
  2.0090182e+00
  2.4854977e+00
 -1.1978829e+00
 -6.6201057e+00
  3.7145302e-01
 -8.0143040e-01
  1.5704642e-01
 -1.6064554e-01
  2.8698745e+00
 -1.3495153e+00
  1.2878834e+00
 -1.6256790e+00
 -3.2789236e-01
  1.9444978e+00
 -7.7684367e-01
  1.7878406e+00
  3.4191809e+00
 -9.3218267e-01
 -3.2576115e+00
 -1.1331118e+00
 -3.3876927e+00
  3.2843635e+00
 -3.4726410e+00
  1.5264755e+00
 -4.6778102e+00
 -1.0875224e+00
  1.8124000e+00
  3.5928545e+00
  1.3233329e+00
  7.1960187e-01
  6.0337675e-01
  1.1695061e+00
 -2.4153109e+00
 -2.4392681e+00
 -6.4872123e-02
  4.9748826e-01
  8.3099538e-01
 -3.2717674e+00
  3.3563163e+00
 -1.5190092e-01
 -2.5181909e+00
  3.9931278e+00
  2.3994393e+00
 -9.7678512e-01
  2.1882243e+00
  1.5855924e+00
  2.7993891e+00
  1.1885213e+00
 -1.2029145e+00
  1.2805012e+00
 -1.0648614e+00
  2.4085146e-01
 -6.1728828e-02
 -1.9345988e+00
 -3.2184293e+00
  1.1831439e+00
  8.6748332e-02
  3.3494911e+00
  8.9525628e-01
  1.8932511e+00
 -7.4885786e-01
  6.7459650e+00
 -4.7756750e-02
  4.7138906e+00
  5.9024805e-01
  8.0470878e-01
 -5.1842079e+00
  2.9554765e+00
  2.4314682e+00
 -2.7310756e-01
 -1.8836563e+00
 -4.4017973e+00
 -1.6738315e+00
  2.0605826e+00
  1.2578834e+00
 -5.6551594e-01
  1.5578254e+00
  4.2916112e+00
  6.4038815e+00
 -1.8666950e-01
  3.0939984e+00
  1.9246513e+00
  4.3546243e+00
 -1.6125902e+00
  3.6511135e+00
 -1.0173991e+00
  1.1868886e+00
  1.7183355e+00
  3.9369626e+00
 -4.0507936e+00
  5.2070767e-01
  2.3893909e+00
 -4.8574924e+00
  3.3522677e-01
  2.3888235e+00
  1.2119255e+00
 -2.8454103e+00
  3.9720778e+00
  2.8837311e+00
 -1.8294253e+00
 -3.3282213e+00
  8.6583383e-02
 -2.0922744e-01
 -4.3570140e-01
  2.5709867e-03
 -3.0436349e-01
  3.5820911e+00
  4.4841247e+00
 -4.2379313e+00
 -2.8400164e+00
  9.3467009e-01
 -7.4472797e-01
 -3.1761736e-01
  3.3875649e+00
 -2.9286792e+00
 -1.4237987e+00
  2.8069043e+00
 -5.4449158e+00
 -4.7474823e+00
  1.9802121e+00
 -9.8637879e-01
 -9.0253758e-01
  7.7777559e-01
  1.5855703e+00
  2.8354897e+00
 -6.5932183e+00
  1.6257623e+00
 -3.5824326e-01
  3.0056951e+00
  5.1430421e+00
  3.6358037e+00
  4.8271279e+00
 -6.0705829e-01
  1.6690838e+00
 -1.0313628e+00
  1.6747596e+00
  2.6884335e-01
  1.9164367e+00
  2.4027591e+00
  4.2126698e+00
 -1.6357193e+00
  1.8637587e+00
 -2.1915357e+00
  6.1954846e+00
  3.6884704e-01
 -1.8361479e+00
 -1.9259228e-01
 -7.8984296e-01
  5.8316655e+00
  3.7930284e+00
  4.0495529e+00
 -3.9153960e+00
  1.0223777e+00
 -4.3329587e+00
 -3.5318253e+00
  1.2025969e+00
  7.3620307e-01
 -1.0206333e+00
  8.9741325e-01
 -1.0157262e+00
 -1.9908783e+00
 -2.6094973e+00
  1.8759655e+00
  3.6742954e+00
 -1.5094830e+00
  9.7097701e-01
 -8.9952183e-01
  1.0159734e+00
 -2.1762207e+00
 -6.3244075e-01
  2.7150707e+00
  1.4855289e-01
 -1.8621304e+00
 -1.5048994e+00
 -1.3279306e+00
  3.0977495e+00
 -2.4296081e+00
  4.8445110e+00
 -1.5308168e+00
  7.0228662e+00
 -1.5033844e+00
  3.3038936e+00
 -4.5808494e-02
 -1.0529529e+00
 -1.5782673e+00
  1.1186209e+00
  3.9849544e+00
 -2.9956481e+00
 -4.3812637e+00
 -1.8129680e+00
  9.2194390e-01
  2.2511303e+00
 -3.9531689e+00
 -3.9136775e+00
  7.7288884e-01
  4.1117990e-01
 -3.5840309e+00
 -4.1884336e+00
 -2.6765203e+00
 -1.9172959e-01
 -2.7329211e+00
  1.8368915e-02
 -1.4844213e+00
  7.7146202e-01
  5.5324942e-01
  2.0742064e+00
  6.1650295e+00
  5.4545078e+00
  1.2502059e-01
  1.1008683e+00
  1.8910724e+00
  1.7424715e+00
 -3.2763276e+00
  7.5606203e-01
  1.4876443e+00
 -3.4907489e+00
  1.2590652e+00
 -1.3382127e+00
  4.0310130e+00
 -5.0130390e-02
  1.7268482e+00
 -4.5773187e+00
  2.8062458e+00
 -4.0830560e+00
 -2.2034845e+00
 -4.9084215e+00
 -1.2361640e-01
 -5.8699503e+00
  2.8001350e-01
  2.9083023e+00
 -5.3041387e+00
 -5.4971236e-01
 -4.4003859e-01
 -2.1202981e-01
  4.4125503e-01
  3.1847951e+00
 -7.6460129e-01
 -1.4992387e+00
 -1.5411521e+00
  7.7953005e-01
 -5.3893757e-01
 -7.4175930e-01
 -1.4730173e+00
  8.3973175e-01
 -3.9193976e+00
 -2.1079408e-02
  3.0572565e+00
 -4.3702647e-01
 -9.2279577e-01
  6.6945524e+00
  1.4715794e+00
  2.5136209e+00
 -6.1360288e-02
 -1.5769154e+00
 -5.1505995e-01
 -7.5321450e+00
  2.1999006e+00
 -1.2805077e+00
 -2.0827749e+00
  2.2612700e+00
  1.6129483e+00
  2.9527073e+00
  1.5834458e+00
  6.7657679e-01
  2.5211284e+00
 -2.8972504e+00
  1.5686762e-01
 -3.9603069e+00
  2.9542847e+00
 -2.2082694e+00
  4.9443293e-01
  8.3751851e-01
  1.7959489e+00
  2.3756883e+00
 -1.6554388e-01
  1.6281079e+00
 -2.6240842e+00
  2.0375946e+00
  1.9573852e+00
  6.7351019e-01
 -2.4371505e+00
 -3.8878577e+00
 -7.7961278e-01
 -6.3319892e-01
 -4.6895307e-01
  2.8234563e+00
  2.6153073e+00
  6.7360479e-01
 -4.3572116e+00
 -4.7795326e-01
  1.3048769e+00
  3.6505207e-01
  1.5125151e+00
  2.4739654e+00
  5.1280904e-01
  5.4430156e+00
 -5.3161020e+00
 -6.5762335e-01
 -4.0050464e+00
  7.8322530e-01
  3.9359417e+00
  1.3421484e+00
  1.7268872e+00
  8.6513984e-01
 -1.9409150e-01
 -1.1134746e+00
  3.2963365e-01
 -1.7900375e+00
  2.7294226e+00
 -3.2530422e+00
  4.0687785e+00
 -1.5987864e+00
 -4.2396536e+00
  6.3021839e-02
 -7.3459023e-01
  7.9114175e-01
 -7.0426714e-01
 -5.1977766e-01
  4.6008291e+00
 -1.6196263e+00
  8.2530314e-01
 -3.2233558e+00
  3.4647155e+00
 -6.5148920e-01
 -1.4845350e-01
  1.0717943e+00
 -9.8117089e-01
  4.4914909e-02
 -1.5979079e+00
  3.9128468e+00
  5.2823627e-01
 -3.8724794e+00
 -9.6986651e-02
 -5.2493900e-01
  1.7430843e+00
  1.0461131e+00
 -8.5287666e-01
 -1.7142091e+00
 -7.0262015e-01
 -2.4996406e-01
 -3.1739485e-01
 -4.7908731e+00
 -1.9353398e+00
  7.7231199e-02
  3.6771805e+00
  6.5293819e-01
  1.9639555e+00
 -2.0231507e+00
 -2.8853679e+00
  3.4223679e-01
 -6.0760088e+00
 -2.0341456e+00
 -9.3279874e-01
  1.7572269e+00
 -5.6375015e-01
  2.9383194e+00
  4.2904666e-01
 -1.9421982e+00
  1.3916036e+00
  1.6839784e-01
  1.2810099e+00
 -3.1634400e+00
 -2.1968489e+00
  2.7686587e-01
 -4.6235690e+00
 -3.1801617e+00
  1.6413119e+00
  3.1215075e-02
  9.5261529e-02
  5.2241385e-01
  1.3111706e+00
 -3.6932569e+00
  9.8695874e-02
  2.2719615e+00
 -6.9478428e-01
 -4.5111144e-01
 -9.8769540e-01
 -1.4508067e+00
  9.4317067e-01
 -1.1886922e+00
 -6.1106400e+00
  3.1528124e-01
  1.4797168e+00
  4.9094096e-01
  1.6375095e-01
  2.3844938e+00
  7.4881661e-01
  7.6563841e-01
 -1.2806633e+00
  2.0346098e+00
  2.3657434e+00
  5.5512481e+00
 -7.3590654e-01
 -6.7761326e-01
  2.4269121e+00
  7.5208211e+00
 -9.4021064e-01
 -2.6878662e+00
 -7.5991169e-02
  9.9229002e-01
 -4.5350428e+00
  1.6550368e+00
  1.3878714e+00
 -3.0833797e+00
 -1.3406898e-01
 -1.2359941e-01
 -1.1578963e+00
 -4.3191376e+00
  4.0268760e+00
  5.0423174e+00
  2.5822430e+00
  4.3011650e-01
 -3.4794362e+00
  7.4356475e+00
  6.0504107e+00
 -4.7462926e+00
  1.6429715e+00
  4.6188277e-01
  4.6022344e-01
 -8.0745912e-01
 -2.9488494e+00
  4.3774734e+00
 -3.9007030e+00
  3.0896099e+00
  2.4666195e+00
  1.8965118e+00
 -5.5124640e+00
  2.4836762e+00
  3.3430672e+00
  1.7311666e+00
  1.3623072e+00
  2.2633140e+00
 -3.0278218e+00
  2.7476659e+00
  1.9273297e+00
  4.7591388e-01
  2.5533278e+00
  9.2254859e-01
 -3.3176720e+00
  2.6587710e-01
 -2.2119837e+00
  2.7318799e+00
 -1.4624271e+00
 -8.1011021e-01
 -4.1237199e-01
  4.2787166e+00
  7.7395344e-01
 -2.0461679e+00
  5.5583030e-01
 -1.6537375e+00
  4.3412218e+00
 -2.5612172e-01
  9.3325005e+00
  2.4272838e+00
 -3.1173439e+00
  4.2111933e-01
 -5.8750215e+00
 -1.6962645e+00
 -1.2329719e+00
 -3.8521115e-02
 -4.8318682e+00
  1.8176199e+00
  4.0741382e+00
  1.4537933e-01
  2.1081764e-01
  2.0930037e+00
  1.0286508e-01
 -8.3704519e-01
 -8.8842368e-01
  5.4118520e-01
 -2.8209321e+00
  2.4880226e+00
 -1.0443482e+00
  2.4333348e+00
  3.7091020e-01
  4.5488081e+00
 -1.1417553e+00
 -3.2867782e+00
  1.7746520e+00
 -8.9900374e-01
  4.0207138e+00
  2.4944172e+00
  6.2766957e-01
  3.0089164e-01
 -4.4939947e-01
  4.2820392e+00
  5.3244162e+00
  2.3273394e+00
  2.6250823e+00
  1.7582214e+00
  1.1468363e+00
 -6.7302996e-01
  4.6700397e+00
  3.5018883e+00
 -2.3056405e+00
 -9.6941672e-02
 -3.0441871e+00
 -1.5882978e+00
  4.9522316e-01
  1.7538981e+00
  1.4816267e+00
  9.6512203e+00
 -2.1308300e+00
  1.1912419e+00
  4.3926394e-01
  2.0431092e+00
  1.7294718e+00
  4.4450784e-01
 -2.2512929e-01
  2.4946802e+00
 -1.6794460e+00
  4.0189657e+00
 -3.5793564e+00
  1.1762955e+00
  1.6838572e+00
 -2.7093680e+00
  1.9987559e-01
  1.7685238e+00
 -6.5583825e-01
 -1.2470711e+00
  2.5975425e+00
 -2.7800896e+00
 -2.3296895e+00
  3.1282887e+00
 -1.3083335e+00
  3.3200796e+00
  2.6279402e+00
  1.8398823e-01
 -1.0616302e+00
  2.8803733e-01
  5.0269973e-01
  1.9832689e+00
  2.1518297e+00
 -5.3663917e+00
 -4.5015669e+00
 -4.5976105e+00
 -2.7503502e+00
 -1.0380325e+00
  1.8820308e+00
 -2.7081844e-01
 -7.6216489e-01
 -4.5758134e-01
 -1.2370466e+00
  3.3515641e-01
  4.1970005e+00
 -1.2070226e+01
 -1.1324991e+00
  1.9477069e+00
  1.4306124e+00
  1.1751612e+00
  1.1040330e+00
  1.0031379e+00
  2.6180015e+00
 -1.9194949e-01
  1.3386372e+00
  1.2390102e+00
  2.3064892e+00
  2.0459327e-01
  1.0871204e+00
  5.2143759e-01
  3.3648953e-02
 -1.5032509e-01
  2.7724066e-01
 -3.2795544e+00
 -2.6826293e+00
 -6.3249855e+00
 -5.7182595e-02
  8.3186853e-01
  1.3306422e+00
  1.6587102e+00
 -1.5662832e+00
  7.0532310e-01
  5.2894974e-01
  4.5754418e-01
 -6.8188701e+00
  1.6466184e+00
  6.9440651e-01
 -8.6437237e-01
  1.1093804e+00
 -3.4439331e-01
 -1.8796489e+00
  2.7300858e+00
 -2.4208586e+00
  2.6664320e-01
  1.8768448e+00
 -1.2898542e+00
 -3.6907415e+00
 -3.5759595e-01
  2.3686981e+00
 -4.5966806e+00
 -3.9330311e+00
 -5.0321710e-01
  9.0824032e-01
  5.0935736e+00
 -2.5597498e-02
  1.9205050e+00
  2.8966916e-01
 -2.0178275e+00
  2.3643348e+00
  4.7434628e-01
 -2.4079018e+00
 -2.3424878e+00
 -1.5374302e+00
  2.2360938e+00
 -2.2095412e-01
 -2.1061997e+00
 -8.5112262e-01
 -2.9853120e-01
 -4.3318248e-01
  2.0712185e-01
 -2.8610221e-01
 -2.6701980e+00
  1.0834770e+00
  1.7824707e+00
  1.5068240e+00
 -5.9826355e+00
 -1.7360983e+00
  4.0742356e-01
  1.1256888e+00
 -1.1897372e+00
 -3.3188267e+00
  9.0222341e-01
  2.0721984e+00
  2.2227485e+00
  2.0876238e+00
  2.7217155e+00
 -9.0636879e-01
 -2.8364160e+00
 -1.8579334e+00
  1.1131845e-02
 -4.2601639e-01
 -6.2351096e-01
  2.4654574e+00
 -2.7526054e+00
 -5.5378966e+00
 -5.4156893e-01
 -2.8950340e-01
  5.9278789e+00
 -1.4685925e+00
 -3.4052618e+00
  5.3627849e+00
  4.8573175e-01
 -2.9671807e+00
  2.4253714e+00
  6.0778151e+00
  9.0272629e-01
 -1.7882380e+00
  3.1800598e-01
  1.1870353e-01
  6.6398330e+00
 -1.1128244e+00
 -3.5722365e+00
 -1.7052447e+00
  1.1603272e-01
 -7.4085121e+00
  3.9687810e+00
 -6.5007005e+00
  3.2052629e+00
 -2.3255322e+00
 -1.3453143e+00
 -3.8497930e+00
  3.4181228e+00
  7.2309942e+00
 -9.8544520e-01
 -1.0878665e+00
  2.9014840e+00
 -6.2410789e+00
  1.0732438e-01
  8.6874847e+00
  5.5753818e+00
 -1.4985449e+00
 -9.0509043e+00
  8.9787310e-01
 -6.3715488e-02
  9.3295509e-01
 -1.1092654e+00
  2.9381537e+00
  2.3021705e+00
 -1.0661683e+00
  5.9298277e-01
 -2.4527030e+00
 -1.3745096e-01
  6.0195401e-03
 -8.0036807e-01
 -2.2119687e+00
 -9.3589282e-01
 -2.2908659e+00
 -5.9838206e-01
  1.7467424e+00
 -9.1037117e-02
 -1.3302444e+00
 -1.3009226e+00
  1.7144129e+00
  9.3059886e-01
  1.1788110e-01
  7.3484510e-01
  4.9936152e+00
 -1.1524680e+00
  1.5300415e+00
 -4.4035993e+00
  4.1929636e+00
  4.0101692e-01
  1.2662048e+00
 -1.6803728e+00
 -1.1172211e+00
  4.0660009e+00
  4.6769114e+00
 -3.2773528e+00
  4.5842247e+00
 -1.4367954e+00
 -1.4666916e+00
 -4.6036901e+00
 -2.0713131e+00
 -1.7082366e-01
 -2.7267206e-01
  7.7136004e-01
 -2.2928052e+00
  2.7490082e+00
  3.1138451e+00
 -1.1728765e+00
 -1.0615780e+00
 -6.6913223e-01
 -2.1399810e+00
  6.3710243e-01
 -3.9424832e+00
  1.8561652e+00
 -6.4915662e+00
  6.7881703e-01
 -1.0996130e+00
 -2.7956476e+00
  4.2775130e+00
 -2.9526025e-01
  1.0676166e+00
  1.1781120e+00
  6.1049944e-01
  8.2404661e-01
 -3.7308619e+00
 -1.6743915e+00
 -5.5365860e-03
 -2.5486066e+00
  3.6543741e+00
  4.8071781e-01
 -1.0001340e-01
  2.0652094e+00
 -6.1002362e-01
 -1.2567126e+00
 -3.0513372e+00
  1.0838535e+00
 -4.7526634e-01
 -1.1347634e+00
  4.0203257e+00
  1.0422272e-01
 -2.6267393e+00
  1.0587995e+00
  2.7514424e+00
 -1.9036748e+00
 -2.2597110e+00
 -1.1215001e+00
 -3.9649254e-01
 -2.2582755e+00
  1.7049809e-01
  2.5620327e+00
  1.5564351e+00
  5.5004942e-01
  2.7552652e-01
 -5.0234848e-01
 -4.2578993e+00
 -1.4876484e+00
 -1.8780854e+00
  1.3177302e+00
 -1.2659214e+00
  2.5787911e-01
  6.0158734e+00
  5.2400370e+00
 -4.3565340e+00
 -1.6554080e-01
 -1.1560613e+00
 -1.3795973e+00
 -8.3632016e-01
  6.3096042e+00
 -1.0603073e+00
 -2.6303322e+00
 -6.0916966e-01
  1.9932450e-01
  1.2331542e+00
 -1.0584606e+00
  1.9255965e+00
 -3.6412445e-01
  4.3075773e-01
 -7.6161987e-01
  2.4529324e+00
  1.7868127e+00
 -1.2987044e+00
  4.5786463e-02
  1.7026281e+00
  4.0160999e-01
 -1.0492486e+00
  5.1386350e-01
  3.4654865e+00
  4.8545551e-01
  1.5261995e+00
  1.7479460e-01
 -4.7466149e+00
  1.0837198e+00
  7.7863204e-01
  2.1816807e+00
  7.2302234e-01
 -2.1289802e+00
  2.3172972e+00
  6.1515236e-01
  4.8713632e+00
  1.1552835e+00
 -3.5998778e+00
  6.4026380e+00
 -3.7874639e-01
 -2.8284187e+00
  3.6914063e-01
  8.3627589e-03
  3.5617139e+00
 -2.7005991e-01
  6.7371261e-01
 -1.9382498e-01
 -5.3594861e+00
  2.9687784e+00
 -5.7121910e-02
 -3.1773014e+00
 -1.9043820e+00
  4.5708256e+00
  3.8821669e+00
  2.0476310e+00
  4.1739068e+00
 -1.1870583e+01
 -2.0036879e+00
  2.2459319e+00
 -1.1869006e+00
 -1.0901714e+01
 -3.7479680e+00
  1.6810246e-01
  5.7465577e+00
 -3.0032334e+00
  8.9277816e-01
  3.7632421e-01
 -1.4893672e-01
 -1.3997214e+00
 -2.6939008e+00
 -3.0450072e+00
 -1.7932875e+00
  4.5293334e-01
 -6.4646161e-01
  1.7031063e+00
 -1.7587831e+00
  2.5310416e+00
 -1.1185967e+00
  2.0053854e+00
 -1.1092303e+00
 -5.8709866e-01
 -8.9057797e-01
 -7.8659350e-01
  1.6959608e+00
 -5.5007178e-01
 -2.8807563e-01
  5.0745950e+00
  7.4296735e-02
  6.2663418e-01
 -1.7577040e+00
 -1.4481735e+00
  9.0577126e-01
 -1.4454530e+00
  1.5774865e+00
  1.2367475e+00
 -7.2689992e-01
 -6.2423253e-01
  2.5894783e+00
  3.8575127e+00
  1.2445616e-01
  2.2388055e+00
 -5.2117455e-01
 -3.3788645e+00
  1.2979437e+00
 -3.6432695e-01
 -3.0933433e+00
 -1.1946622e+00
  2.7033970e-01
  2.6323602e+00
  3.4683247e+00
  7.3462588e-01
 -8.6865675e-01
  3.9170797e+00
 -6.4340264e-01
  1.2425030e+00
 -1.3995044e+00
 -4.4115743e-01
 -1.4653373e+00
 -2.3655713e+00
  3.4805915e+00
  3.3949175e+00
  4.6367283e+00
 -1.2084814e+00
  6.6093963e-01
 -9.3454468e-01
 -4.4588470e+00
  1.7737492e+00
 -1.3913356e+00
  1.7309500e+00
 -3.0460196e+00
 -1.4337584e+00
  2.6003287e+00
  4.9076052e+00
  1.4085798e+00
 -6.0858922e+00
  7.1936202e+00
  6.5415710e-01
  1.8356477e+00
  2.3677483e+00
  1.1811848e+00
 -3.5161071e+00
 -4.2744884e+00
  2.4268825e+00
 -5.8012879e-01
  3.0996028e-01
  1.9259962e+00
  1.3070145e+00
  1.8650950e+00
  4.4029365e+00
  4.3381929e-02
 -1.7097062e-01
 -1.6526327e+00
 -4.1167884e+00
  4.2640195e+00
 -2.6594224e+00
  3.4286961e-01
  3.1714590e+00
 -3.7519112e+00
 -5.0201559e+00
  1.5458417e+00
  1.6217089e+00
 -4.3453878e-01
  8.4107006e-01
  7.1830660e-01
 -8.8417912e-01
  1.0220358e-01
  8.8731170e-02
  2.8108988e+00
  7.7051735e-01
  7.4234848e+00
 -2.7911210e+00
  2.1807005e+00
  1.5534846e+00
 -1.9271936e+00
 -1.3286049e+00
  6.6867714e+00
  7.6485252e-01
  5.4235902e+00
  9.4338691e-01
  7.0935249e+00
  2.0350690e+00
 -3.1498823e+00
 -8.3277130e-01
 -1.4784988e+00
  8.6101878e-01
 -1.5070647e+00
 -1.2085789e+00
  5.4857749e-01
  6.9603868e-02
 -2.8070104e-01
 -1.6638930e+00
 -7.0763266e-01
  3.2347362e+00
 -1.6174653e+00
 -6.3439517e+00
  2.8910382e-02
  3.9228365e+00
  3.6754856e-01
 -3.5201961e-01
  1.9699345e+00
  1.8079747e+00
 -2.0703964e-02
  1.9657000e+00
 -2.0222878e-02
 -1.1752219e+00
 -2.5632300e+00
  5.4563074e+00
  2.6980937e-01
 -4.2069635e+00
 -1.3846108e+00
  1.1586957e+00
 -6.8689573e-01
 -5.3147578e-01
  2.1414690e+00
 -5.4002112e-01
  4.5334098e-01
 -3.0728078e-02
  2.5744557e-02
 -3.6520066e+00
 -8.5481673e-01
  1.8584369e+00
  2.4937508e+00
 -5.5667090e+00
  5.7969920e-02
  7.0518649e-01
  4.8558563e-03
 -2.4318817e+00
  2.2375433e+00
 -1.1787667e+00
 -2.4078491e+00
  1.1898090e+00
  1.3140100e+00
 -2.5867698e+00
  4.0280768e-01
 -8.0229652e-01
  9.7408451e-02
  4.6052948e-01
  3.9810100e+00
 -1.0771756e+00
 -2.7560859e+00
  3.5393474e+00
 -4.2642965e+00
 -2.4075677e+00
  6.6485801e+00
 -4.0166473e+00
 -4.3925915e+00
 -9.2101669e+00
 -1.4257851e+00
 -1.2288663e+00
 -4.0688376e+00
  7.2517526e-01
 -3.2546632e+00
 -4.2693183e-01
  5.1274929e+00
  7.3733729e-01
 -2.4069414e+00
 -3.0486705e+00
 -2.4794276e+00
 -3.9637094e+00
 -3.3997065e-01
  6.8777907e-01
 -4.4516221e-01
  1.5474965e-01
 -5.2288094e+00
 -9.6492571e-01
 -5.8666784e-01
 -4.6692657e+00
 -2.1459975e+00
 -3.6703291e+00
  9.0333253e-02
 -3.4558606e+00
  4.8995347e+00
 -4.1870156e-01
  2.3566084e+00
  1.0607291e-01
  2.8825967e+00
  1.6482261e+00
  2.6416130e+00
  6.2894088e-01
  1.1716812e+00
 -7.9278100e-01
  1.3604153e+00
  4.4633088e-01
 -5.7966244e-01
  1.5636737e+00
  1.0007409e+00
 -5.7630432e-01
  2.1780021e+00
  2.6754963e+00
 -1.0331470e+00
  8.0472821e-01
  1.4791726e+00
  3.5613615e-02
 -3.3901817e-01
  9.1425353e-01
 -3.5447648e+00
  1.2293389e-01
 -5.7368428e-03
 -2.4761057e+00
 -2.5706666e+00
  5.8575231e-01
  8.1130762e+00
 -2.2801633e+00
  8.2458252e-01
  3.6893696e-02
  5.7319742e-01
  1.5534077e+00
  1.2093154e+00
 -4.9349326e-01
 -3.5813532e+00
  2.1431318e-01
  6.0249095e+00
 -2.2137678e+00
  1.5948302e+00
  1.3408993e+00
  4.4531590e-01
 -2.3039393e+00
  2.5963585e+00
  4.8891649e+00
 -5.0548954e+00
  1.0503881e-01
  3.9280522e-01
  6.0447049e+00
  6.9855392e-01
 -3.1390694e-01
  1.3938351e+00
 -1.5466123e+00
  2.6704633e-01
  1.0353819e+00
  6.0728413e-01
 -8.0023021e-01
 -2.2527087e+00
  3.9824831e+00
  4.0920157e+00
  5.3690634e+00
  4.9219790e+00
  7.0303073e+00
  3.4593074e+00
  2.1543257e+00
 -4.5888433e-01
  1.8319046e-01
  1.2252424e+00
  4.5726209e+00
  5.6774406e+00
 -3.7576818e-01
 -7.5169778e-01
 -5.1795187e+00
 -2.4775038e+00
 -4.1227159e-01
 -1.6426980e-01
 -2.2081227e+00
 -1.4862400e+00
 -1.7725586e+00
 -3.7480204e+00
 -5.1542549e+00
  4.8672218e+00
 -3.3568368e+00
  5.6426930e-01
 -1.6677506e+00
 -3.3408076e-01
  1.3391337e+00
  4.6126413e-01
  1.3258795e+00
 -3.2550068e+00
 -1.8407570e+00
  2.1075549e+00
  7.8130388e-01
  6.9899446e-01
 -2.5056715e+00
  2.9300690e+00
 -1.9695551e+00
  1.9934547e+00
 -1.8622931e+00
  1.6342514e+00
  2.2778544e+00
  1.8090644e+00
 -1.3443861e+00
  2.1933537e+00
  8.3494151e-01
  4.6760206e+00
 -1.6138943e-01
 -1.4434112e+00
  2.3008826e+00
 -2.4069576e+00
 -3.0825248e+00
  4.5321665e+00
  3.4992731e+00
  1.1430889e+00
 -5.9546113e-02
 -2.9922086e-01
  9.1339535e-01
  4.2377806e-01
  4.7578096e+00
 -2.8991096e+00
 -2.1571646e+00
  2.7912405e+00
 -1.6686592e+00
  1.0005199e+00
 -3.4321742e+00
  2.5253016e-01
 -2.7633221e+00
  1.6019908e+00
 -3.7182143e+00
 -1.2611115e+00
  3.9977527e+00
  5.8170757e+00
 -1.4004045e+00
  1.7663817e+00
  3.2636130e-01
  3.5413120e+00
 -1.5146352e+00
 -1.2275534e-01
  2.2374678e+00
 -1.7752955e+00
  6.2923574e-01
 -1.4142250e+00
  1.8441035e+00
 -4.8373451e+00
 -3.0645686e-01
 -1.3831096e+00
  8.1765667e-02
 -1.8252058e+00
  2.6152422e+00
  3.7445617e+00
 -2.9461715e-01
  3.3077404e+00
  1.2642798e+00
 -3.3343762e-02
  5.7121223e-01
 -3.3157976e+00
  7.2789860e-01
 -2.5419956e-01
  1.2938254e+00
 -3.1061747e+00
 -2.9030967e+00
 -4.8788467e-01
  2.6124518e+00
  3.4205439e+00
  1.5601279e+00
  9.6885318e-01
  1.0795707e+00
  1.3765451e+00
 -8.5112923e-01
 -1.8934697e+00
  3.1770998e-01
 -2.4522388e+00
  1.1851319e+00
 -1.1245427e+00
  3.8713067e+00
 -3.7951298e+00
  4.7672939e+00
 -1.6810948e+00
 -5.0631576e+00
 -2.2985556e+00
 -2.5144103e+00
 -2.6609664e+00
 -5.4190397e-01
  1.9677215e+00
  5.8561218e-01
 -1.8978519e+00
 -2.2483756e-01
  3.1786082e+00
  1.8026536e+00
  6.4042318e-01
 -1.0493153e+00
  2.7612793e+00
  2.1656813e-01
  4.5270029e-01
 -3.6327212e+00
  2.2435489e+00
 -2.4882112e+00
  1.3212919e+00
  2.1493948e+00
  4.3730447e-01
 -2.6464243e+00
  1.4009309e-01
 -2.1153851e+00
  1.6281984e+00
 -5.9219104e-01
 -1.3937294e-01
 -3.8687549e+00
 -8.4463537e-02
  5.6796676e-01
 -2.6039524e+00
 -4.0535998e+00
 -1.1570183e+00
 -4.6314225e+00
 -2.8941575e-01
  7.0950699e-01
 -3.2108603e+00
 -2.6937935e+00
  1.6648442e-01
  7.2587399e+00
 -1.0672588e+00
 -4.9269184e-01
 -4.6015677e+00
 -5.3881817e+00
 -1.3567451e+00
 -3.1181461e-01
  2.6500729e-01
 -4.7763882e+00
 -7.9607850e-01
 -3.0007885e+00
 -8.2018203e-01
  1.6102078e+00
 -6.2863767e-01
  1.7796080e+00
 -3.7057459e-01
 -3.5347409e+00
  2.1166058e+00
  6.2273413e-01
 -1.5847188e+00
  7.1444833e-01
  4.0952760e-01
 -2.3114898e+00
 -2.3490047e+00
 -1.3634950e+00
 -3.2847109e+00
 -1.6174065e-01
 -1.6223533e+00
 -3.6978643e+00
 -9.9952954e-01
 -4.2183766e-01
  1.0635947e-01
 -2.1206787e+00
  6.6359401e-01
  4.9475579e+00
  2.7092235e+00
 -1.3995787e+00
 -3.6661184e+00
  2.3579569e+00
  6.6767621e-01
 -8.2939738e-01
  2.5212812e-01
 -2.6305385e+00
  1.0168263e+00
 -2.7072616e+00
 -3.2181664e+00
  1.5116225e+00
 -1.6248603e+00
 -5.3836173e-01
 -4.6049595e+00
  2.1584685e+00
 -3.4453607e-01
  8.0955112e-01
 -1.1912435e+00
 -2.2213826e+00
 -3.2553120e+00
 -1.5218028e+00
  3.2254477e+00
 -1.4619721e+00
 -2.8607123e+00
 -1.6160960e+00
 -2.9710035e+00
  1.2873863e+00
  1.1657938e+00
 -2.3280363e+00
 -4.5029426e-01
 -3.2116601e+00
 -6.6170793e+00
 -7.6851952e-01
 -3.4022760e+00
 -1.9812934e+00
 -1.8051093e+00
 -1.7466787e+00
 -2.0447018e+00
 -3.6460309e+00
 -4.4789594e-01
  7.6742868e+00
  4.7388978e+00
  5.8096166e+00
  3.6533773e-01
  1.8508334e+00
  2.1000073e+00
  1.2603197e+00
 -3.2667378e-01
 -4.0670204e+00
  3.7167621e+00
  7.6429665e-01
  1.4429120e+00
 -1.8927649e-01
 -1.1155612e+00
  1.1962445e+00
  9.9173769e-02
 -4.8139095e+00
  3.1543574e+00
  3.0957987e+00
 -3.0011778e+00
 -2.7142656e+00
 -1.1606401e+00
 -1.0574170e+00
 -1.1150030e+00
 -2.5496301e-01
  1.3205190e+00
 -2.9423225e-01
 -1.5422676e+00
 -3.2408597e+00
 -6.6686237e-01
 -2.3358140e+00
  9.4579244e-01
 -5.4903831e+00
 -1.8261354e+00
 -2.2101266e+00
  2.0569906e+00
  6.1539072e-01
  2.8925436e+00
  4.6688080e-02
  2.5070071e+00
 -4.0383701e+00
 -3.1055996e+00
  1.2850494e+00
 -1.9893163e+00
  6.3401192e-01
  1.4939949e-01
  2.2270303e+00
 -3.1435424e-01
  8.8173729e-01
 -5.2375698e-01
 -4.2723360e+00
  1.5767354e+00
  7.5239348e-01
  1.8207874e+00
 -1.3833371e+00
 -1.4963920e+00
 -6.3026457e+00
  1.2416952e+00
  5.2051011e-02
 -2.8655195e+00
 -2.1470399e-01
  1.5703043e+00
  7.8565443e-01
 -1.2493974e+00
  1.9255854e-01
  1.9025797e+00
 -3.9372220e+00
  1.5767318e-01
 -9.1989975e+00
 -2.0226848e+00
  3.6398468e+00
  2.9278830e-01
  3.8631561e+00
 -1.4503632e+00
 -9.9234724e-01
 -1.6357476e+00
 -6.8861651e+00
 -3.3154933e+00
  1.0055823e+00
 -4.2556772e-01
  2.2576132e+00
 -8.2827550e-01
 -3.8047566e+00
  3.7208483e+00
  8.9318103e-01
 -3.5987887e-01
 -3.4216220e+00
 -6.0162559e+00
 -1.5388798e+00
  1.4296314e+00
 -2.2416968e+00
 -7.4521858e-01
  3.5008156e+00
 -2.6087275e+00
 -9.4684714e-01
 -4.2884879e+00
 -2.2115669e+00
  1.4201926e+00
  1.9389758e+00
  3.3024055e-01
  4.9021073e-02
 -7.2503333e+00
  3.9386815e-01
 -1.4377325e+00
 -1.1080167e+00
 -1.2666563e+00
 -2.3640976e+00
  1.7131106e+00
  4.9363465e+00
  1.8127389e+00
 -1.1550956e+00
  2.9885533e+00
 -2.1515656e-01
  2.2335610e+00
  2.0841575e+00
  1.1259432e+00
  1.8540444e+00
 -3.1675992e+00
 -6.1647539e+00
 -1.3303169e+00
  2.4237010e+00
 -4.3771720e+00
 -2.2913158e+00
 -3.5977277e-01
 -2.6388013e+00
  4.5222030e+00
 -1.1342955e+00
 -2.5717878e-01
  1.9125839e+00
  8.5587901e-01
  2.3689671e+00
 -4.7949180e-01
 -5.5111840e-02
  3.4337726e-01
  3.5504627e-01
 -1.4750232e+00
 -1.2908183e+00
 -5.2170157e-01
  1.4556745e+00
 -6.3985318e-02
 -3.6912170e-01
  1.2078949e+00
 -8.0353737e-01
  1.0798850e+00
  1.0752766e+00
  4.8242450e+00
 -4.1988287e+00
  1.9635571e+00
 -1.1344533e-01
  2.4437422e-01
  3.4427226e-02
 -5.3006158e+00
  7.1494855e-02
 -6.6691846e-01
  5.6570691e-01
  2.8999379e+00
 -1.0946403e-01
  8.3407395e-02
 -1.7095804e+00
  2.9881978e-03
 -4.3820959e-02
 -1.3448283e-01
 -7.8511275e-03
 -5.3666037e-02
  1.4853033e-01
  6.1735547e-01
  2.1493548e-01
 -1.1047145e-01
  9.1313916e-01
 -2.7320549e-01
  2.0150141e-01
 -2.7501601e-01
 -8.3377886e-01
 -5.9863245e-01
  9.0908682e-01
 -2.1390173e+00
  6.0471117e-02
  1.0370784e-01
  1.9670378e+00
  7.1867317e-01
  8.9029104e-02
  1.6214573e-01
 -3.0124626e+00
 -2.2335479e+00
  1.4150218e+00
  2.1280909e+00
  1.2337180e+00
 -1.5516942e+00
  3.0270033e+00
 -3.7713656e+00
 -3.4348295e+00
  2.6474631e-01
  4.4024692e+00
  1.6737719e+00
  2.8605461e+00
  9.5286834e-01
 -1.2069409e+00
  3.4317238e+00
  1.2194470e+00
 -1.4913148e+00
  2.5626993e+00
 -1.5783331e+00
 -1.9530197e+00
 -1.8583205e+00
 -3.8198323e+00
  9.8864877e-01
 -5.3236275e+00
  4.4814882e+00
  1.2252785e+00
  5.2833217e-01
  3.4384120e+00
 -2.1793824e-01
 -1.5534879e+00
 -2.2251475e+00
 -9.3512094e-01
 -6.1612263e+00
  3.1841841e+00
 -1.1989793e-01
  1.1222075e+00
 -2.0336471e+00
  1.3545989e+00
 -3.9056628e+00
 -8.2698989e-01
  1.4237229e+00
 -1.2705784e+00
  1.5533212e-01
  7.1520346e-01
  1.0408673e+00
 -5.6151527e-01
 -2.3404665e+00
  7.1713084e-01
  2.6587033e+00
  3.1134355e+00
 -2.4000268e+00
  1.2251081e+00
 -4.9659830e-01
  2.3068669e+00
  5.1803827e-01
  4.6109584e-01
  4.3915968e+00
 -4.6792346e-01
  2.8908427e+00
  1.7800661e+00
 -4.1626337e-01
  5.0835502e-01
 -2.5865211e+00
 -6.6601908e-01
  1.0585094e-01
 -7.8121817e-01
  1.7438126e-01
 -2.8035250e-01
  1.7394929e+00
  4.9237663e-01
  2.4819231e+00
 -7.6152152e-01
 -1.0662619e+00
 -1.7211133e-01
 -1.5872838e+00
 -5.3235525e-01
 -1.1460433e+00
  1.5754024e+00
  2.4347305e+00
 -3.1087491e-01
 -1.5704145e-01
  2.3282012e-01
 -9.0058351e-01
 -1.5325905e+00
  5.9130478e-01
 -1.6028484e+00
  3.1116719e+00
  2.7919406e-01
 -2.1098690e+00
 -1.9062785e+00
 -2.1792018e+00
 -2.4538596e+00
  2.6560061e+00
  7.3857003e-01
  2.7301409e+00
 -2.5352468e+00
  3.3267084e-01
 -4.1562271e+00
  1.4063584e+00
  6.8262243e-01
 -1.2426212e+00
  1.5645735e+00
 -4.5272541e+00
  1.0754244e+00
  2.8030868e+00
 -2.4999416e+00
 -1.4655675e+00
 -3.1070578e-01
 -8.8485163e-01
 -6.5367401e-01
 -1.6158637e-01
  6.2680900e-01
  5.8164144e+00
 -3.2245700e+00
  1.0774072e+00
  3.3642268e-01
  2.2534425e+00
 -1.2049825e+00
 -1.4747154e+00
  3.7643948e+00
 -7.4510407e-01
 -6.7481101e-01
  3.9337492e-01
  2.1905918e+00
  2.5263078e+00
  3.3766961e-01
  2.1521883e+00
 -2.2464306e+00
 -1.3077553e-01
  1.3949279e+00
 -8.2222962e-01
 -2.5380058e+00
 -1.6646838e+00
  2.6107030e+00
 -5.4565234e+00
 -3.5725865e-01
  1.3880621e+00
 -8.7179130e-01
 -1.2007126e-01
 -1.4753077e+00
  2.5191786e+00
 -9.3632668e-01
 -1.1155279e+00
  1.7449951e-01
  4.2353049e-01
  2.9970062e+00
 -1.7875906e+00
 -1.5949560e+00
 -2.0933659e+00
  7.5891864e-01
 -5.9750867e-01
  5.1000416e-01
  2.1206300e+00
  4.6438175e-01
  2.7342756e+00
  3.4910142e+00
 -1.4388460e+00
 -1.0941843e+00
  5.7012501e+00
 -8.3681613e-01
 -1.3514150e+00
 -1.4847031e+00
 -4.6137816e-01
 -1.5614482e+00
  6.3883358e-01
  9.7369432e-01
  2.2558818e+00
  1.3134890e+00
  5.0125867e-01
  2.6757970e-01
 -1.3949509e+00
 -3.8343167e+00
  2.9639742e-01
 -9.1781098e-01
  6.1243689e-01
  3.1045341e+00
 -3.3087847e-01
 -8.2567465e-01
 -6.1728001e-01
  5.8934385e-01
  7.3564172e-01
  2.4559224e-01
  1.4680076e+00
  1.8764168e+00
 -2.8025167e+00
 -1.4013970e+00
 -2.8712804e+00
  1.3411556e+00
 -1.4655218e+00
 -2.6028450e+00
 -9.8725641e-01
 -1.4728297e+00
  1.4747304e+00
 -1.9893873e+00
 -2.3079486e+00
 -1.9008470e-01
 -4.1230670e-01
  3.5635030e-01
  8.4833163e-01
  1.7985036e+00
 -2.8576091e-01
 -2.6573451e+00
  2.2529523e+00
 -1.8669033e-01
  1.2585653e+00
 -1.2901384e+00
  1.8380635e+00
 -2.8582320e+00
  7.6600510e-01
 -2.1414438e-01
  2.5199430e+00
  1.9951712e+00
 -7.6787221e-01
  1.7429875e-01
 -4.5768407e-01
 -2.0240407e+00
 -6.9338048e-01
  1.7662102e+00
 -1.6634586e+00
  1.0136216e+00
  2.2822006e+00
  1.3715050e+00
  8.7693608e-01
 -2.1509321e+00
 -2.0934021e+00
  7.9798430e-01
 -9.3755049e-01
 -1.4034863e-01
 -6.6311282e-01
 -1.3207200e+00
  2.4704373e+00
 -2.2761028e+00
 -1.2673029e+00
  5.8231497e-01
 -1.2943705e+00
  5.4424745e-01
  2.4865901e+00
 -8.6200744e-01
 -1.0423828e+00
  6.5812075e-01
  5.6704891e-01
 -2.8348908e-01
 -3.8710027e+00
  2.0076591e-01
  1.9967066e+00
 -1.2284206e+00
  2.3850268e-01
 -4.4935398e+00
  4.4800532e-01
 -1.0590792e+00
 -3.4321682e+00
 -2.2834780e+00
  3.1273749e+00
 -2.9939785e+00
  5.5862021e-01
  3.9927399e+00
  4.1796036e+00
 -1.3785845e+00
  1.2817159e+00
  2.0963759e+00
  2.0702879e+00
 -1.2726401e+00
  5.0793471e+00
  1.1428366e+00
 -6.6963023e-01
 -2.8639338e+00
  7.0466882e-01
 -6.0065618e+00
  1.1323150e+00
 -7.8529935e+00
  9.5406449e-01
  3.1504500e-01
  1.1810904e+00
 -1.6871496e+00
 -2.1748431e+00
 -4.0442123e+00
  6.0170765e+00
  1.8551389e+00
  4.1748719e+00
 -1.7783152e+00
  1.4961783e+00
  9.7441697e-01
  1.2475295e+00
  2.6964536e+00
  7.0432127e-01
 -1.5293546e+00
 -1.5203263e-01
  6.9947523e-01
 -2.3955473e-01
 -4.9537829e-01
  1.2319967e+00
  1.7170233e+00
  9.1290236e-01
  2.0332915e-01
 -4.1565328e+00
  1.7431101e+00
  2.0508196e+00
 -2.7259026e+00
 -2.6632636e+00
  1.0376793e+00
  8.1055593e-01
  1.3426872e+00
  1.7597591e+00
  1.0469766e+00
  1.1408347e+00
  2.8481634e+00
  5.5808979e-01
 -1.5350585e+00
  1.2209890e+00
 -8.3786291e-01
  5.3851485e-01
 -7.8405553e-01
 -2.2516637e+00
  5.4854906e-01
 -1.3105843e+00
 -8.4763336e-01
 -7.7060992e-01
  2.4428799e+00
 -1.9735970e+00
  1.3706001e+00
 -1.8757067e+00
  1.9970287e-01
 -1.9939098e+00
  2.1221938e+00
  1.4669029e+00
  1.3167982e+00
  3.7920895e-01
 -1.8396599e+00
 -2.3789081e-01
  2.1296580e+00
  1.2625300e+00
  1.0857528e+00
 -2.9780512e+00
  8.4203428e-01
  7.7920258e-01
 -2.9316201e+00
  1.1298597e+00
 -1.5726720e+00
  2.8500171e+00
  2.6140580e+00
 -5.4441357e+00
 -1.0718114e+00
 -3.5463932e+00
 -4.5396343e-01
  5.0040382e-01
 -8.9192468e-01
  9.4214189e-01
 -2.5534494e+00
  5.4900298e+00
 -2.4200504e+00
  2.3741581e+00
  5.4348624e-01
  1.8747535e-01
 -1.3823061e+00
  2.9947770e-01
 -2.9878345e-01
 -4.6727142e-01
  4.3992844e-01
  1.7187582e+00
  5.2316155e+00
  2.1223722e+00
 -2.1187692e+00
  3.3950377e+00
  4.6855879e-01
  8.9827961e-01
 -2.8870342e+00
  3.3375432e+00
  2.0757692e+00
 -7.0293015e-01
  1.1738575e+00
 -2.7841741e-01
  1.4515659e+00
  3.4297423e+00
  5.2814358e-01
  2.9006338e-01
  3.1795459e+00
  3.9901188e-01
  3.4568778e-01
  3.9258271e-01
 -1.3827574e+00
  8.9188093e-01
 -2.0219260e-01
  6.5265632e+00
 -1.1036835e+00
 -1.2994896e+00
  1.5800181e-01
 -1.5056382e+00
 -1.5565366e+00
  1.6516045e+00
 -7.3830521e-01
  2.5014815e-01
 -3.5189359e+00
  8.7251568e-01
 -1.9980977e+00
 -3.2963228e-01
  6.8016618e-01
 -3.6480036e+00
 -3.7109670e-01
  3.0654204e-01
 -1.1149480e+00
 -8.8095427e-01
  1.5303860e+00
 -2.2037160e+00
 -9.0117973e-01
 -1.7126864e+00
 -1.0547018e-01
 -3.5364759e+00
 -1.8555920e+00
 -1.7103128e+00
  1.2842822e+00
 -3.3013625e+00
  2.0903974e+00
  1.0525761e+00
  4.3841634e+00
  2.0387468e+00
  7.4358153e-01
  4.4328162e-01
  2.2430024e-01
 -3.3623571e+00
 -3.8166564e+00
 -5.3248796e+00
  1.0561863e+00
  7.8029722e-01
 -1.4214510e+00
 -1.7619389e-01
 -2.5709884e+00
 -1.7947179e-01
  7.3152137e-01
 -1.2429382e+00
  1.6047844e+00
  2.8742328e+00
  3.0859666e+00
 -7.6365590e-01
  1.2513344e+00
  2.5262322e+00
  1.5592897e-01
  3.7249744e-01
 -2.9989109e+00
  5.1771897e-01
 -7.1786356e-01
 -8.7032479e-01
 -2.9206736e+00
  2.6881857e+00
  3.1619873e+00
  2.1725297e+00
  1.9011483e+00
  4.8426679e-01
  7.8889966e-01
  1.8657669e+00
 -6.0216489e+00
 -5.0433154e+00
 -1.6976357e-01
  6.6017038e-01
  1.6983473e-01
 -5.1513205e+00
  4.5175390e+00
 -6.6142726e-01
 -1.1075935e+00
 -1.6049433e-01
  1.2548897e+00
 -1.7210989e+00
 -3.4847167e+00
  2.7839835e+00
  2.5771699e+00
  8.1501645e-01
 -1.4838367e+00
  2.0164351e+00
 -1.0536484e+00
  1.3043687e+00
 -6.5892267e-01
 -2.1268871e+00
  2.6109985e-01
  2.6198666e+00
 -2.2482886e+00
  1.3574861e+00
 -9.9575543e-01
 -2.7575597e-01
 -9.9997646e-01
 -7.9149044e-01
  2.7525160e-01
  3.1413844e-01
  3.1831353e+00
 -3.0867581e+00
 -2.8308206e+00
 -3.6395109e+00
  5.4299378e+00
 -1.4322346e+00
  1.3684809e-01
  2.1278605e+00
  8.5191876e-01
 -1.7388989e+00
 -1.6273892e+00
  2.3206768e+00
 -3.7995568e-01
 -6.7610323e-01
  1.3377105e+00
 -1.3007715e+00
  8.6199605e-01
 -1.4253442e+00
  6.4883780e+00
 -1.1542096e+00
  8.6518300e-01
  3.2074127e+00
  1.3817959e+00
  6.6751623e+00
  3.7818620e+00
  5.0751907e-01
 -2.4336116e+00
 -1.2402477e+00
 -1.4702322e-01
  1.3345270e-01
  1.6208600e+00
  6.7144805e-01
 -1.2055433e+00
  2.2315736e+00
 -1.4609865e+00
 -8.7054688e-01
 -2.5887215e+00
  5.0194710e-01
 -3.2232666e+00
 -4.4298360e-01
  4.9387783e-01
 -2.4615762e+00
  5.1274711e-01
 -1.1155322e+00
 -1.2590668e+00
 -4.9569955e-01
  2.1547425e+00
 -9.8586732e-01
  7.4503821e-01
 -2.2832876e-01
  3.5982273e+00
 -2.5061383e+00
  1.1055113e+00
 -2.6109750e+00
  3.8273621e+00
 -3.4463413e+00
  2.5452366e+00
 -6.8277484e-01
 -6.8524390e-01
  1.6631448e+00
 -2.5177834e+00
 -2.3102140e+00
  4.8852727e-01
 -1.6437801e+00
  1.3083924e+00
  5.9359115e-01
  4.5000982e+00
 -8.3082145e-01
  1.6827468e+00
 -1.2109238e+00
  5.3078288e-01
  1.0282040e+00
  6.3945374e+00
  5.3283054e-01
  1.0334295e+00
 -2.2167430e+00
  3.1350270e-01
  2.3448775e+00
  7.1085984e-01
 -1.1971145e+00
  1.2262759e+00
 -3.3772745e+00
 -3.3697999e-01
 -2.3615518e+00
  3.6153528e-01
 -3.8507044e-01
  1.3133676e+00
  4.6966434e-01
 -1.4940701e+00
 -2.3731570e+00
  5.4274821e+00
  1.2599828e+00
  2.4435244e+00
 -1.7536855e+00
  8.8494271e-01
 -7.3901421e-01
 -4.9361815e+00
 -2.1114963e-01
  5.7713203e+00
  3.6306643e-01
 -2.0280600e-01
  1.7314600e+00
  5.7626641e-01
  3.4906204e+00
  3.3327558e+00
 -5.2327847e-01
 -4.1366272e+00
  9.5490372e-01
 -2.1624651e+00
 -4.2564774e+00
 -2.2678201e+00
  1.6213351e-01
 -2.0716233e+00
 -2.6420941e+00
  1.7296053e+00
 -1.4547392e+00
  2.1981771e+00
 -6.8456388e+00
  1.0444394e+00
  2.3758790e-01
 -2.6209195e+00
 -2.0009916e+00
 -1.7969412e+00
  1.9325671e+00
  1.0208594e+00
 -1.2868537e+00
  6.9296927e+00
 -2.3212597e-01
 -2.9790716e+00
  3.1561222e+00
  2.3013398e-01
 -3.6423454e+00
  7.2590607e-01
 -1.2675111e-01
 -4.5860019e-01
  1.1761103e+00
 -2.9286768e+00
 -4.8823395e-01
  1.1837355e+00
 -7.4703276e-01
 -8.8475132e-01
 -3.7379706e+00
  1.5461866e+00
 -2.5553095e+00
  1.8083448e+00
  3.2285402e+00
 -4.3959293e+00
  2.0845118e-01
 -3.4849486e-01
  2.0849445e+00
  1.4815626e-01
  1.5364590e+00
 -1.9169447e+00
  2.0346031e-01
  2.8501782e+00
  4.4586396e-01
 -3.3569791e+00
  1.2815900e+00
  1.8451107e+00
 -1.3483843e+00
  3.5477388e+00
  6.1367363e-01
  3.6432714e+00
  4.1725202e+00
 -1.4709020e+00
 -6.3335288e-01
 -1.6982586e+00
 -5.8411396e-01
  1.0045643e+00
  1.1131451e+00
 -1.1301994e+00
 -3.0349197e+00
  2.7280533e+00
 -2.6583426e+00
 -5.6968540e-01
  1.2858454e+00
 -8.9050871e-01
  1.5195397e-01
 -3.6411078e+00
 -2.3113830e+00
  1.7600116e+00
 -2.3204474e+00
 -1.0611106e+00
  2.9815266e+00
 -2.5764164e-01
  2.1628456e+00
 -4.5864553e+00
  1.2513582e+00
 -6.6925758e-01
 -3.6183766e-01
 -9.8640656e-01
 -9.5990360e-01
  1.8628504e+00
  8.8951278e-01
 -8.4233183e-01
 -2.0760262e+00
  1.0351027e+00
  1.3874679e+00
  4.9162860e+00
 -5.3361547e-01
 -2.2765965e+00
  3.4998393e+00
 -1.8101468e+00
 -3.1038027e+00
  1.9606760e-01
 -2.4502282e+00
 -2.8953738e+00
  6.1362758e+00
  7.0787585e-01
  1.4131175e-01
 -1.5153986e+00
  1.6928407e+00
  5.3601456e-01
  3.4804981e+00
  2.1822970e+00
 -1.0166922e+00
 -2.1786460e-01
 -1.8668392e+00
 -3.6092520e-01
 -2.4831483e+00
  7.4769778e+00
  1.6363791e-01
  3.5989950e+00
  3.6099672e-01
  7.6695490e-01
 -5.7788105e+00
 -2.8545070e+00
  3.2797626e-01
  1.0069227e+00
  1.5996039e+00
  1.3810072e+00
  1.3840634e+00
  4.5203775e-01
  2.0354605e+00
 -1.8383925e+00
  4.7070756e+00
 -1.1174189e-01
  8.5128516e-01
  1.9691370e+00
 -3.4443936e+00
 -6.0449237e-01
 -6.2271440e-01
  9.4093639e-01
 -1.4034741e+00
 -2.7109983e+00
 -9.1651809e-01
  6.1778700e-01
 -1.4790069e+00
  1.2017348e-01
  1.2017348e-01
  1.2017348e-01
  1.2017348e-01
  1.2017348e-01
  1.2017348e-01
  1.2017348e-01
  1.2017348e-01
  1.2017348e-01
  3.7500963e-02
  3.7500963e-02
  3.7500963e-02
  3.7500963e-02
  3.7500963e-02
  3.7500963e-02
  3.7500963e-02
  3.7500963e-02
  3.7500963e-02
  2.0779429e-02
  2.0779429e-02
  2.0779429e-02
  2.0779429e-02
  2.0779429e-02
  2.0779429e-02
  2.0779429e-02
  2.0779429e-02
  2.0779429e-02
  3.0119156e-02
  3.0119156e-02
  3.0119156e-02
  3.0119156e-02
  3.0119156e-02
  3.0119156e-02
  3.0119156e-02
  3.0119156e-02
  3.0119156e-02
