nep3 3 C H N 
cutoff 3 3
n_max 8 8
basis_size 8 8
l_max 4 0 0
ANN 50 0
 -2.0138830e-01
 -2.3202982e+00
  9.8579335e-01
 -1.2504922e+00
  2.4041174e-01
  3.5591667e+00
  1.3476309e+00
  4.9973825e-01
  4.1141548e+00
  4.5821838e+00
 -9.7864050e-01
 -4.2467362e-01
  1.1485699e+01
  2.3989272e+00
  3.1688578e+00
 -2.4370878e+00
 -1.4491372e+00
 -5.1871312e-01
  4.9357467e+00
 -2.1007168e+00
 -4.6253586e+00
 -7.6383114e+00
  4.6812749e+00
  5.0976572e+00
  2.2140608e+00
  1.5051733e+00
  5.9076548e+00
  3.5618606e+00
  1.8992622e+00
  2.8760054e+00
 -1.9657335e+00
 -1.9884081e+00
 -6.7656264e-03
  3.2319741e+00
  5.3833175e+00
  1.3344269e+00
  2.2041037e+00
 -6.4923811e-01
  7.2405562e+00
 -2.9020339e-01
  1.7494114e-01
 -1.4492532e+00
  2.0697596e+00
 -2.2031062e+00
  1.8123883e+00
  1.2338967e+00
 -1.5580487e+00
  1.4364345e+00
  4.8651627e-01
  2.7332671e+00
  9.7345549e-01
 -1.5168527e+00
  2.4064434e+00
  2.9801333e-01
  5.5891454e-01
 -6.5771217e+00
  1.1237986e+00
  4.2558944e-01
  1.7868176e+00
 -7.0248265e+00
 -4.6611938e+00
 -1.8908899e+00
 -2.4020550e+00
 -6.1284280e+00
  9.6530902e-01
 -1.1794801e+00
  3.0032334e-01
  1.4960978e+00
 -4.6332717e+00
 -7.0901088e-02
 -6.1531954e+00
 -3.2530880e+00
  3.6902020e+00
 -1.0225334e+01
 -4.7306671e+00
  6.2187868e-01
  2.4192224e+00
 -4.3890581e+00
 -4.7078627e-01
  1.5573582e-01
 -1.1521852e+00
  5.5773187e+00
 -6.3102508e-01
 -2.0506887e+00
 -3.0174444e+00
  2.2222068e+00
  3.3255153e+00
 -4.7831841e+00
 -8.2749242e-01
  2.9379728e+00
  3.6575348e+00
  4.8283968e+00
  6.0925717e+00
 -5.8659654e+00
 -4.8040059e-01
 -1.2314876e+01
  1.5714420e+00
 -2.0174634e+00
 -2.0416350e+00
 -6.5093045e+00
 -1.7184951e+00
  1.7440501e-01
 -5.7933021e-01
  5.4444626e-02
  3.2977848e+00
 -4.4955926e+00
  6.3270097e+00
 -1.1803402e-01
 -1.1041059e+00
  3.8399754e+00
 -1.3080316e+00
 -4.4172158e+00
  3.4635372e+00
 -1.2235110e+00
  1.8975006e+00
 -3.9809215e-01
 -2.1242490e-01
 -2.2173375e-01
 -9.1746831e-01
  7.8920484e-02
 -7.4844675e+00
  3.1763864e+00
 -2.9598002e+00
 -8.4925663e-01
 -2.4423921e+00
  2.1028967e+00
  2.7783496e+00
  2.6940038e+00
  1.2588545e+00
  1.7617568e-02
  2.7255628e+00
 -4.2905040e+00
  5.0649863e-01
  2.5231831e+00
 -7.7928340e-01
 -2.2372332e+00
  5.8613048e+00
 -2.0770717e-01
  5.0120959e+00
 -4.0432987e+00
  1.0588894e+00
 -8.3651328e-01
 -2.3461699e-01
 -2.1740457e-01
  1.3267796e+00
 -4.2508378e+00
 -3.4904947e+00
 -3.9831305e-01
  2.6767215e-01
 -4.5193642e-01
  6.8710737e+00
  2.0724033e-01
 -3.9967039e+00
 -6.2925708e-01
  4.8499017e+00
 -1.0488558e+00
 -8.2789320e-01
  3.2672713e+00
 -4.3895695e-01
  2.8711312e+00
  6.6063219e-01
  2.4906292e+00
 -1.0355910e+00
  1.1129210e+00
  2.4577577e-01
  4.3236866e+00
 -2.2809038e+00
  3.3498964e+00
 -2.7290127e+00
  3.7945490e+00
  2.0899351e+00
 -5.5769062e+00
  2.6280255e+00
  7.4508077e-01
  4.4516569e-01
 -8.4300671e+00
 -6.6211247e-01
  5.5121675e+00
 -1.4596348e+00
  8.0386651e-01
 -3.9883120e+00
  2.5703576e+00
 -4.3280368e+00
  1.5899680e+00
 -3.7882924e+00
  1.7173991e+00
 -2.1940262e+00
 -1.4668901e+00
 -2.4682503e+00
 -1.0966108e+01
 -7.3276711e-01
  8.9082181e-01
 -1.1046017e+00
 -1.5822381e+00
 -2.5419600e+00
 -5.9567857e+00
 -2.0036228e+00
  2.2074699e+00
  3.4646926e+00
 -4.3529630e+00
  1.0241168e+00
 -4.7504702e+00
  7.0484395e+00
  5.8912549e+00
  4.0249119e+00
  4.9863625e+00
 -3.7255769e+00
 -3.8901668e+00
 -6.6839492e-01
  2.0404739e+00
 -3.7303574e+00
 -5.6591086e+00
  1.1187466e+01
 -1.4558214e+00
 -2.6743692e-01
  1.1866367e+00
 -2.9358139e+00
 -2.4530268e+00
 -4.1777673e+00
  8.9142360e-03
  1.9400444e-02
 -3.7791336e-01
 -7.6530833e+00
  6.8976802e-01
 -2.0111251e+00
 -5.4259090e+00
  2.0222774e+00
 -1.5211802e+00
 -7.8684115e-01
 -1.0345889e+00
  2.4158771e+00
  2.7495587e+00
 -5.5295730e-01
 -2.8784921e+00
 -7.9819798e+00
  2.0604291e+00
  3.4204855e+00
 -3.6799490e-01
  3.2903051e+00
  1.9343294e-01
 -2.3658361e+00
  3.6055102e+00
 -3.2683256e+00
  1.5926257e-02
  1.8268034e+00
 -1.1769209e+00
 -2.2173324e+00
 -2.1587288e+00
 -6.3779092e-01
  3.4770877e+00
  9.2020893e-01
  3.1209319e+00
  1.1517875e+00
 -8.7057251e-01
 -7.4069600e+00
 -1.8045092e+00
  2.7405910e+00
 -7.6395887e-01
 -1.0742151e+01
  1.2325841e+00
 -2.5150043e-01
 -2.0515449e+00
 -1.5258827e+00
  3.2079978e+00
  4.5550947e+00
  2.1910093e+00
  7.0587295e-01
 -1.0094129e-01
  1.5882347e+00
 -1.6471777e+00
 -9.2117852e-01
 -1.7328236e+00
 -2.3755627e+00
 -4.8904405e+00
 -3.1987274e-01
 -2.5065117e-02
  1.2686723e+00
 -8.4487069e-03
 -1.7978807e-01
  1.2621072e+01
  1.2584997e+00
  1.7200077e+01
  8.9088422e-01
  2.9423162e-01
  9.3782365e-01
  3.7011981e+00
  2.4334593e+00
  1.6114640e+00
  7.5295269e-01
 -3.3816197e+00
  3.9553675e-01
  3.8688531e+00
 -1.0965525e+01
  5.5271673e+00
 -7.9251593e-01
  1.7012206e+00
  3.8234556e+00
 -2.5687065e+00
 -3.3361876e-01
  9.6107936e-01
  7.0167413e+00
  8.2714260e-02
  3.3081169e+00
  8.0796118e+00
 -1.8536520e+00
 -3.9627047e+00
 -4.5362008e-01
 -1.3434161e+00
 -2.3624140e-01
  9.5177215e-01
  3.0004768e+00
 -1.6658465e+00
  1.9610502e+00
 -4.0955186e-01
  1.7768994e-02
  3.3341177e+00
  5.3056102e+00
  2.3768935e+00
 -4.8829303e+00
 -1.0702236e+00
  4.1647458e+00
  5.8793575e-01
  1.6596754e+00
 -3.0581194e-01
  1.6141552e+00
 -2.9276040e+00
  1.9903269e+00
  4.6920204e-01
  1.6739305e+00
  1.9131511e+00
 -1.4016593e+00
 -3.7023211e+00
 -5.4965086e+00
  6.1389953e-01
  3.2528224e+00
  6.8552861e+00
 -5.2701557e-01
 -4.6708522e+00
  2.4672186e+00
  4.0585222e+00
 -2.0186656e+00
 -3.0948287e-01
 -5.9964627e-01
 -1.0647979e+00
  3.5878084e+00
  9.0521973e-01
 -6.8580837e+00
  1.2353296e+01
  1.8554496e+00
 -1.9832875e+00
 -2.8579869e+00
  3.1731653e+00
  8.5437024e-01
  6.2283891e-01
  5.5790954e+00
  8.6612015e+00
 -9.3926781e-01
  9.9405807e-01
  1.8608978e+00
 -1.5224838e+00
 -2.8990483e+00
 -2.4543065e-01
 -5.3114986e+00
  4.0860581e-01
  2.6779609e+00
  4.2934952e+00
 -4.4076524e+00
 -3.8847535e+00
  1.7004728e+00
  1.6364391e+00
 -4.8970332e+00
  1.4637011e-01
  4.2276158e+00
  2.3857920e+00
  5.8815289e+00
  3.1301577e+00
 -1.0203075e+00
  8.5329413e-01
  3.6922076e+00
  9.3906611e-01
 -6.8134813e+00
 -8.4499872e-01
  3.0183907e+00
  2.2173402e-01
 -3.6053941e+00
 -1.1353030e+00
  2.3226776e+00
 -1.0698472e+01
 -3.6155770e+00
  5.9842048e+00
 -7.4482937e+00
 -1.7903566e+00
  4.6414666e+00
  1.6232736e-01
  1.4684526e+00
  3.4921298e+00
  2.3327298e+00
 -2.8118138e+00
  2.2826130e+00
  1.1351051e+00
 -2.9207368e+00
  2.0532081e+00
 -8.3548898e-01
  1.1980584e+00
  2.4864960e-01
 -4.2596033e-01
  7.9496443e-01
  2.2692008e-01
  1.9930899e+00
  1.7017905e+00
 -1.3393919e+00
 -7.2143044e+00
  2.5949984e+00
 -3.6343923e+00
  1.4571452e+00
  2.0729597e+00
 -5.2571735e+00
  2.3447928e+00
  6.6537414e+00
  6.1891454e-01
 -1.5899631e+00
  6.3335791e+00
  1.4681348e+00
  2.1100054e+00
 -2.2945506e-02
  1.4231390e+00
 -5.4107575e+00
 -1.8015258e+00
 -1.2509482e+00
 -6.6112548e-01
 -1.1063215e+00
  3.4790962e+00
  2.1871676e-01
  2.6803334e+00
 -1.4986571e+00
 -1.4997196e+00
 -1.0092317e-01
 -5.8853045e+00
 -4.2928451e-01
 -9.3962806e-01
 -2.1135278e+00
 -2.9515491e+00
 -5.2606028e-01
  1.0739903e+00
  5.2313361e+00
  1.8564038e+00
  4.7415966e-01
 -2.3502482e-01
 -2.8149464e+00
 -1.7419487e-01
  5.1818424e-01
  3.4752448e+00
  2.3585263e-01
  3.2231376e+00
  1.5124331e+00
 -7.6460004e-01
  7.9334056e-01
  5.0732622e+00
  1.5467299e+00
  2.4609725e-01
 -3.5311346e+00
 -1.8528596e+00
  8.1133728e+00
  7.8548378e-01
 -4.3811264e+00
 -4.0576959e-01
  4.1248345e+00
  1.1421435e+00
 -1.6322473e+00
  9.7893608e-01
  3.5584085e+00
 -6.8983374e+00
 -7.8195429e-01
  5.6143332e+00
  1.2394249e+00
 -6.5179911e+00
 -4.6711435e+00
  1.6575516e+00
  4.5498834e+00
  2.2236090e+00
  7.0399923e+00
  4.9898129e+00
  3.8642588e-01
 -2.0544314e+00
 -5.6094966e+00
  4.2350793e-01
 -5.1528873e+00
  5.6136856e+00
 -3.0429494e+00
  7.7379389e+00
 -1.2241772e-01
  1.2192881e+00
  3.4984675e-01
  4.8685083e+00
  5.2006984e+00
 -2.3104222e+00
 -1.3658477e+00
 -9.5091209e-02
  1.4301838e+00
  1.0563186e+00
  3.1130522e-01
  5.8702242e-01
 -2.8411229e+00
 -2.8656497e+00
  2.6798396e+00
 -1.1448617e+00
  1.6313070e+00
  1.2276481e+00
 -1.4919444e+00
 -7.7731413e-01
  4.3026466e+00
 -1.0847270e+00
 -2.1071908e+00
  8.3613384e-01
  1.0089818e+00
  2.2378877e-01
 -8.1117868e-01
 -1.5417997e+00
  2.3965466e+00
  3.8902142e+00
 -4.2553697e+00
 -1.0404502e+00
  1.1441222e+00
 -3.6256635e-01
 -3.2507246e+00
 -4.9891558e+00
 -4.8644648e+00
  1.5343081e+00
 -2.2333434e-01
  6.1606312e-01
  1.3979582e+00
 -6.0876238e-01
 -9.2588782e-01
 -2.4505286e+00
  2.8973281e+00
  5.7277107e-01
  1.2025258e-01
 -1.2754825e+00
  4.5243540e-01
  2.0295157e+00
 -2.3833475e+00
 -3.4365690e+00
 -5.3989053e+00
  3.2441466e+00
  4.4030752e+00
  4.0001479e-01
  2.3501172e+00
  2.8319702e+00
 -1.1797473e+00
 -1.0152219e+01
  4.3773317e+00
 -1.6438789e+00
  1.2874339e+00
 -6.1516128e+00
  3.3273108e+00
  4.0602088e-01
  1.0440798e+00
  8.1703120e-01
 -6.9727759e+00
 -4.2387199e+00
  1.2544197e+00
 -1.4554877e+00
  1.5236998e+00
  4.2926663e-01
  1.7844802e-01
  3.0256932e+00
  1.4300859e+01
 -4.1357386e-01
 -1.0278527e+01
 -5.6325240e+00
  8.3330727e+00
  2.5615323e-01
 -6.7783451e+00
  4.8148909e+00
 -1.5441520e+00
 -3.5015745e+00
  1.5169305e+00
 -2.0285697e+00
 -1.3650320e+00
  1.7371585e+00
 -2.9256837e+00
 -5.8039112e+00
  3.3234458e+00
 -1.6067518e+00
 -8.7802553e-01
  3.8988113e-01
 -5.4034872e+00
  3.7482371e+00
 -8.0411249e-01
 -4.5245448e-01
  4.2302294e+00
  1.9683148e+00
  3.4694705e+00
 -1.6376640e+00
  7.6092610e+00
  2.4573047e+00
  1.1103941e+00
 -9.4859910e-01
 -1.8897563e+00
  2.9578812e+00
  2.9850767e+00
  2.0508959e+00
  1.3151761e+00
 -4.0910778e+00
  3.0102578e-01
  4.1034040e-01
 -6.8021303e-01
  3.2010121e+00
 -4.4148197e+00
  2.0045984e+00
  1.1721820e+00
  1.1389645e+00
 -7.0700212e+00
  3.0383496e+00
  4.5764422e+00
  4.8985286e+00
  1.2849977e+00
 -3.4535325e-01
  5.4532175e+00
 -9.0353167e-01
 -3.0579913e-01
  8.1735241e-01
  6.4664072e-01
 -7.4946201e-01
  3.2520528e+00
  3.2734604e+00
 -1.3191588e+00
 -8.0531740e+00
  9.4187422e+00
  1.6421173e+00
 -1.6964706e+00
 -4.4653073e-01
 -1.4439778e+00
 -9.2506021e-01
  1.0349954e+01
  1.8966011e+00
  4.2389846e+00
  6.6881526e-01
  1.8993381e-01
  4.0879159e+00
 -6.4972878e+00
  3.3539692e-03
 -4.4890010e-01
  2.7552404e+00
 -1.0558378e+00
 -2.6271358e+00
 -1.5906503e+00
 -6.6948593e-01
 -3.1558411e+00
  6.9088620e-01
  1.4364494e+00
  1.9855430e+00
 -1.1507814e+00
  4.3446183e+00
 -3.9130223e-01
  2.0847385e+00
 -2.8625124e+00
 -8.5569181e+00
  2.7349710e-01
  2.3540797e+00
 -2.8754723e+00
 -1.6263833e+00
 -2.4461405e+00
 -2.3429434e+00
  6.7208409e+00
 -6.2369943e-01
  2.8981328e+00
 -5.4214182e+00
 -7.0012438e-01
  5.1398911e+00
 -4.8925261e+00
 -4.5046206e+00
 -2.1591039e+00
 -5.8306704e+00
  2.0086422e+00
  4.8687464e-01
  3.5881524e+00
 -1.0890504e+00
  1.2526501e+00
 -1.3027577e-01
  3.2862165e+00
 -8.2753670e-01
 -1.3549914e+00
  1.3846376e+00
  3.1418097e-01
  1.5968897e+00
 -2.6364589e+00
  4.6495533e+00
 -3.7890227e+00
 -1.3307890e+00
  6.4790201e+00
 -2.2370058e-01
 -4.6904240e+00
  1.6467364e-01
  1.1682798e+00
 -2.7512002e+00
 -6.9699283e+00
 -1.1600149e+00
  8.2647924e+00
  8.5402966e-02
  6.0002184e-01
  1.5482346e+00
 -1.6704670e+00
 -3.0289199e+00
  2.8330412e+00
 -1.2633519e+00
  2.0148635e+00
  5.3323865e+00
  1.2743721e+00
 -4.0228927e-01
 -7.1036033e-03
  7.9742956e-01
  1.2190272e+00
  2.3255816e+00
  1.6363906e+00
 -1.2327548e+00
  4.8017558e-01
  3.0297706e+00
 -5.5934942e-01
 -1.5057658e+00
 -1.9035548e-01
  2.8181376e+00
 -3.1424494e+00
 -4.7525886e-01
 -9.1605562e-01
  3.4157541e+00
 -2.0191309e+00
 -1.8000860e+00
  9.2753047e-01
 -8.0508060e+00
 -3.1250587e+00
 -7.0279217e-01
  2.7507145e+00
 -2.0866498e-01
 -2.3712430e+00
 -3.7412524e-01
 -1.1001604e+00
  2.8351300e+00
  2.0032213e+00
  6.0155225e+00
  2.6833155e+00
  2.8505900e+00
 -4.8546350e-01
  8.4038639e+00
 -1.9659706e+00
  3.2260406e-01
  1.9793658e+00
 -7.9515326e-01
 -1.5407495e+00
  2.8789303e+00
  1.3797884e+00
  7.1349974e+00
 -2.0402021e+00
 -1.0639471e+00
 -1.5515600e+00
 -1.9389114e+00
  1.5388122e-01
  2.4666677e+00
  5.5087495e-01
 -4.1756630e+00
 -2.5976915e+00
 -4.7333689e+00
  8.5564440e-01
  9.4451779e-01
  2.1820168e+00
 -2.9155898e+00
 -4.1518372e-01
  3.7721446e-01
  3.1413970e+00
  3.1467729e+00
 -6.0901785e+00
  5.7828159e+00
 -1.6327431e+00
 -9.1299599e-01
  1.6021917e+00
 -2.7671525e+00
  5.2132668e+00
 -3.6388435e+00
 -5.9014196e+00
 -1.5001508e+00
 -4.4872322e+00
 -8.7928718e-01
 -9.8360786e+00
 -9.0533876e-01
 -3.9083428e+00
  8.1548491e+00
 -6.2664008e+00
 -1.3603187e-01
  1.3216975e+00
  4.3692422e-01
 -3.1430528e-01
  1.4469717e+00
  6.8024445e-01
 -6.0146465e+00
  5.2685165e+00
  3.5267289e+00
 -5.6044493e+00
 -4.0783432e-01
  5.7983599e+00
  2.9730697e+00
  3.9119947e+00
  3.5814211e+00
  7.0753461e-01
 -8.7572289e-01
  2.3927174e+00
 -4.7381535e+00
  8.3128624e+00
 -5.0008737e-02
 -1.9665699e+00
  2.3251479e+00
  3.7953562e-01
 -2.1596744e+00
 -7.0050508e-01
 -1.9361159e-01
 -1.1626513e+00
  2.2345434e-01
  3.3609874e+00
  3.6582959e+00
  4.7196281e-01
  1.1950302e+00
 -7.3165412e+00
  2.2873263e+00
 -6.0182891e+00
  2.7553496e+00
  2.9473874e-01
 -5.2606408e-03
  1.0541449e+00
 -2.9850762e+00
 -2.1686130e+00
 -1.1091740e+00
  1.1061639e+00
  1.6734691e+00
 -1.1569291e+00
 -1.0464247e+01
 -8.9213663e-01
  3.2510963e-01
  1.1811227e+00
 -4.3863516e+00
  3.0758708e+00
 -8.8381701e+00
 -2.8563526e+00
  4.1107950e+00
  9.8047245e-01
  4.2565006e-01
 -2.2015195e+00
  2.7882585e-01
  1.2659522e+00
  4.2105951e+00
 -3.2853434e+00
 -1.1442081e+01
 -4.8113203e-01
  2.6839743e+00
  1.4994979e+00
 -1.0493041e-01
  1.6111385e+00
 -9.4118243e-01
  2.4282216e-01
  1.0585980e+00
  6.3340127e-01
 -7.4041212e-01
  1.0114036e+00
 -2.4237368e+00
 -1.3120420e-01
  5.4679090e-01
 -3.6180979e-01
  1.7552869e+00
 -7.2537225e-01
 -1.2897329e+00
 -1.2501938e+00
  8.1634545e-01
  3.8810959e+00
  1.3894500e+00
 -3.1382148e+00
 -8.5581839e-01
  8.4342110e-01
 -3.8815373e-01
 -5.0584543e-01
 -1.8024261e+00
  3.9777631e-01
 -9.2037839e-01
 -7.7596444e-01
  1.6947879e+00
  2.0533128e+00
 -1.6478248e+00
 -4.5557943e-01
 -8.6867702e-01
  6.6104400e-01
  1.5572983e+00
 -4.6285009e+00
 -1.2860947e+00
  1.4319562e+00
 -7.5626314e-01
  1.3042418e+00
 -8.6234450e-02
 -1.3247116e+00
  2.4975026e-01
  1.9034319e-01
 -1.8441211e+00
  1.3448671e+00
 -2.4862781e-01
 -2.5875268e+00
 -1.0931282e-01
 -4.2618763e-01
 -5.2758646e+00
 -1.5068966e+00
 -7.5709558e-01
 -3.0499320e+00
  5.8968706e+00
 -5.2748523e+00
 -1.0700704e-01
  7.5879896e-01
 -7.1004181e+00
 -4.9107674e-01
 -5.0445652e-01
 -1.3301296e+00
  2.2300227e+00
 -2.5669296e+00
  3.7650559e+00
 -6.9769559e+00
 -6.5113354e-01
  1.9658223e+00
  9.4152033e-01
 -6.1270889e-02
 -3.9043927e+00
 -8.7884865e+00
 -2.8827634e+00
 -2.9355571e+00
  1.2490420e+00
  6.1128974e+00
 -1.1083584e+00
 -3.4753168e-01
 -2.6541290e+00
  6.1369872e-01
 -4.5536876e+00
  1.2117600e+00
  4.3901658e+00
 -2.0789678e+00
 -2.3302393e+00
  1.5158498e+00
 -3.8372087e+00
 -1.9440322e+00
 -1.7690849e+00
  3.9743608e-01
 -5.3181777e+00
  1.0266727e+00
  3.2036331e+00
  1.3546971e+00
  5.7746744e-01
 -3.9815705e+00
 -1.8582802e+00
  7.4685776e-01
  1.8560565e+00
 -3.9476544e-01
 -3.1296164e-01
 -2.7864072e+00
  3.0058994e+00
 -8.4500664e-01
  3.4511507e+00
  1.4939423e+00
  1.0378535e+01
 -5.2064008e-01
 -1.9531757e+00
  8.5650617e-01
  7.9220927e-01
  5.9962261e-01
  1.6773620e+00
 -9.2755580e-01
 -4.5594039e+00
 -2.4123456e+00
  9.6576452e-01
 -3.8406405e+00
 -7.5179017e-01
 -2.1556473e+00
  6.2223263e-03
 -2.6849017e+00
 -1.9080176e+00
  1.9741724e+00
 -5.7255940e+00
  1.4564195e+00
 -2.9027672e+00
 -1.4511638e+00
 -4.9433589e+00
 -9.0390867e-01
  1.3958890e+00
 -2.2001481e+00
  3.3708078e-01
 -1.2376690e+00
 -1.6008189e+00
 -3.5959198e+00
  3.5451174e+00
  2.1893935e+00
  1.9451697e+00
 -1.0050654e+00
 -3.9902008e+00
 -1.7018323e+00
 -3.4729928e-02
 -2.1576293e+00
  9.3586105e-01
 -5.3658404e+00
  5.1519074e+00
  6.5522213e+00
 -3.3639371e-05
  1.7216882e+00
 -7.1175976e+00
 -2.7362511e+00
 -2.2269025e+00
  3.1982958e-01
 -5.6588078e+00
 -5.0216546e+00
  9.9619108e-01
 -1.2464803e+00
  2.8542736e+00
  5.1559248e+00
  1.0028943e+00
 -1.1245823e+00
  1.8427734e+00
 -3.2110563e-01
  6.5114307e-01
 -2.8851526e+00
  6.3835102e-01
 -1.6834381e+01
  8.7802052e-01
 -1.1718587e+00
 -7.2758508e+00
  4.0677518e-01
  2.8191895e+00
  2.3742390e+00
 -9.9354851e-01
 -1.0178502e+01
 -1.0041556e+00
 -8.3839931e+00
  8.0260248e+00
  5.7073921e-01
  2.9319699e+00
 -5.4734006e+00
 -5.2829628e+00
  2.1364625e-01
  2.1549702e+00
  4.7299600e-01
 -1.3611071e+00
  1.3990909e+00
 -3.3741310e+00
 -1.5712337e+00
 -3.6741522e-01
  4.1107001e+00
 -6.6080993e-01
  1.2026112e+00
  2.6388454e+00
  5.9475517e+00
  5.1283318e-01
  3.3744981e+00
  6.6683966e-01
 -1.2077113e+00
  2.4050119e+00
  1.1571969e+00
  3.2720857e+00
  5.3338413e+00
 -2.6355176e+00
 -3.7896364e+00
  9.5610005e-01
  3.5642371e+00
  3.0900449e-02
  1.9715720e+00
 -6.8963223e+00
  3.0178788e+00
  2.6118246e-01
  3.8634796e+00
  3.0743527e+00
  3.6730654e+00
  2.4214621e+00
  2.8848703e+00
 -8.3156204e+00
  4.0918789e+00
  8.3793056e-01
 -4.6572003e-01
 -2.1863797e+00
 -1.0511492e+00
 -3.3902655e+00
  2.8700321e+00
 -5.2283678e+00
 -2.0048380e+00
 -4.0666070e+00
 -8.0266428e+00
 -7.6442027e-01
 -1.8689957e+00
 -6.3623319e+00
  3.5975835e+00
  2.4331365e+00
  3.0442057e+00
  4.1187966e-01
  4.5574560e+00
  7.5251460e-02
 -2.1875596e+00
  4.6806850e+00
 -2.5928252e+00
  1.3585644e+00
 -6.6254969e+00
 -1.0614821e+00
  1.8718135e+00
 -2.7190568e+00
  1.9672586e+00
  9.2751843e-01
 -2.4160788e+00
  6.8907351e+00
 -1.9290475e+00
 -3.5860872e+00
  3.7111189e-02
  8.6512548e-01
  8.9044237e-01
  5.3380060e+00
 -6.4928784e+00
 -3.8426104e-01
 -1.2730103e+00
 -3.3417859e+00
  3.6594588e-01
 -1.0000947e+00
  9.8717415e-01
  4.4925160e+00
  6.5122194e+00
 -9.6952677e+00
  4.1816278e+00
 -2.6158757e+00
  3.3389978e+00
  1.7527573e+00
 -6.5153856e+00
 -1.0741916e+00
 -1.0120569e+00
 -2.1433902e+00
 -6.2421501e-01
  1.7167908e+00
  8.9725977e-01
  2.8658125e+00
 -4.3009672e+00
 -5.5013647e+00
 -4.5973353e+00
  1.5794243e+00
 -4.8610554e+00
 -2.5944948e+00
 -9.7546971e-01
 -1.4214256e+00
  2.9049605e-01
  5.4007745e+00
  2.5378842e+00
 -7.6731868e+00
 -3.0705318e+00
  5.0380535e+00
  1.6173747e+00
 -2.6462069e+00
  1.9618042e+00
 -2.2608097e+00
  8.2126036e+00
 -4.2490368e+00
  2.9500227e+00
 -4.1589622e+00
  1.1199601e+01
 -7.7947178e+00
  2.5592158e+00
 -2.8319480e+00
  1.9179521e+00
  5.4016501e-02
 -2.3374076e+00
  2.3508329e+00
 -1.7460438e+00
  3.1520922e+00
 -2.0934105e+00
  2.1386948e+00
 -9.3092471e-01
 -2.7717159e+00
 -9.8822765e+00
  2.6711628e-01
  1.2141113e+00
  1.5601782e+00
  2.5856934e+00
 -8.4583127e-01
  7.4961648e+00
 -3.7946720e+00
 -9.3919861e-01
  5.7892126e-01
 -1.7257366e+00
  3.5340917e+00
  9.0623522e+00
 -2.3510535e+00
  2.8890672e+00
 -9.9547851e-01
 -1.5174690e+00
 -4.5564432e+00
  7.9610062e-01
 -2.5967259e+00
 -4.1902039e-02
 -2.9660885e+00
  2.4234302e+00
  1.6208740e+00
  6.5173359e+00
  1.1289790e+01
 -1.9015770e+00
  5.7717023e+00
 -1.1032503e+00
  1.5105582e+00
  2.1095757e+00
 -2.5608327e+00
 -7.1678412e-01
  4.3519163e+00
 -1.2518860e+00
 -6.7948613e+00
 -3.1467755e+00
 -1.9873500e+00
 -2.9039288e+00
 -5.1532221e+00
 -6.4662657e+00
  3.7303491e+00
 -2.9753985e+00
  1.6568520e+00
  9.4836734e-02
 -2.7050254e+00
 -1.9903316e+00
  6.2773556e-01
 -5.3902066e-01
 -1.5373291e+00
 -7.2964926e+00
  4.9430046e+00
  2.4936298e-01
 -1.0711610e+00
 -7.5845867e-03
  9.1603577e-01
 -2.0925148e-01
  7.1761050e+00
  1.2562978e+01
  3.3024876e+00
 -1.2857438e+00
  2.6322262e+00
  2.0578718e+00
  6.6175485e-01
  9.7312555e+00
 -3.6324859e-01
 -1.8280530e+00
 -3.7773997e-02
  1.7584076e+00
 -2.2546496e+00
  2.4313951e+00
 -4.5205007e+00
  2.9394705e+00
 -7.5642910e+00
 -7.3962677e-01
  1.8652221e+00
  5.9577119e-01
 -1.6674806e+00
 -2.1871388e+00
  9.3072748e-01
  2.4025304e+00
 -1.7967184e+00
 -1.4092367e+00
  5.9203753e+00
  4.2553523e-01
 -7.7883250e-01
  1.3115128e+00
  2.5796950e+00
 -5.6297107e+00
 -6.5656453e-01
  1.3998838e-01
 -2.8954539e+00
  4.4844623e+00
 -5.4216876e+00
  6.5558398e-01
  1.1540347e+00
  3.7377508e+00
 -1.8895913e+00
  6.4158821e-01
  2.5175524e+00
 -2.9715385e+00
 -2.8887498e+00
 -7.3492151e-01
 -5.4438210e+00
  1.3285803e+00
  9.3189058e+00
 -1.4642586e+00
 -2.8115830e+00
 -3.5593519e+00
  2.4652511e-01
 -1.0711235e+00
 -1.2976443e+00
  2.7581975e+00
 -3.6182740e+00
 -1.2813816e+00
 -5.8283556e-01
 -1.7226950e+00
  1.0668817e+01
 -3.1953776e-01
 -2.0164275e+00
  5.2281394e+00
  1.6961733e+00
  3.2282577e+00
  2.4871764e+00
 -3.8295870e+00
 -1.9051962e-01
  4.5860167e+00
  6.0709324e+00
  6.2617713e-01
 -2.3349569e+00
  2.1116798e-01
  2.0379336e+00
 -5.0593057e+00
 -6.7081654e-01
 -2.2356000e+00
 -3.7390532e+00
 -1.3111297e+00
  1.1517307e+00
  2.1560942e-01
 -1.6397128e+00
  1.1997434e-01
 -1.0039632e-01
 -1.6443522e-01
  5.3863902e+00
 -6.3954729e-01
 -1.3218015e+00
 -3.3697128e+00
  1.3104005e+00
 -6.0370761e-01
 -1.9679044e-01
 -1.3050183e+00
  1.4452963e+00
 -4.7380586e+00
  3.4798927e+00
  2.9446599e+00
  1.6816940e+00
  8.5086900e-01
 -4.3524561e+00
 -3.4359429e+00
 -3.7753026e+00
 -4.5759635e+00
  4.8710018e-01
 -4.2409310e+00
  1.7101178e+00
 -1.5408305e+00
  2.5118997e+00
  2.5191746e+00
 -3.4701794e-02
 -1.5558623e+00
  6.7527204e+00
 -2.0134118e-01
  2.1374240e+00
 -1.0077455e+00
  3.6135266e+00
  1.4119081e+00
 -1.6241648e+00
 -4.5739241e+00
  3.3159488e-01
  1.1565149e+00
 -1.8836692e-01
 -1.3963360e+00
  2.9492753e+00
  1.6981686e+00
 -1.7366651e-01
 -3.0453198e+00
 -3.6630616e-01
  8.0685520e-01
 -1.1679460e+00
 -1.4513185e+00
 -3.1293802e+00
 -1.0664071e+00
  2.3288786e+00
  3.1281166e+00
 -3.3539817e+00
  3.9197726e+00
 -6.9521527e+00
 -5.0329471e-01
  2.6437812e+00
 -2.3909371e+00
  2.9214702e+00
  3.9455535e+00
 -1.3197445e+00
 -3.5081317e+00
  4.5578260e+00
 -5.7973285e+00
  6.5749755e+00
  1.5577471e-01
 -1.7695774e-01
  1.7435538e+00
 -2.5534183e-01
  3.2534363e+00
 -4.4113245e+00
 -3.8761101e+00
  8.9475071e-01
  5.7394629e+00
 -3.8673958e-01
 -8.4390634e-01
  4.5187464e-01
  6.7098269e+00
 -1.3089648e+00
  2.3935907e+00
  5.2016592e+00
  5.4374971e+00
 -3.3574277e-01
  1.1479665e+00
  9.8830450e-01
  2.5935757e+00
  2.0732188e+00
 -3.1211696e+00
 -6.7457640e-01
 -9.2103338e+00
  1.4126521e-01
  2.6540365e+00
 -2.4270465e+00
 -6.0759556e-01
  2.8959949e+00
 -8.2008278e-01
  2.2784014e+00
 -3.4007022e+00
  4.5256993e-01
  2.2820239e+00
  3.2329197e+00
  3.4871405e-01
 -1.9264872e+00
 -1.5722269e+00
  6.0627899e+00
 -2.5679216e+00
  2.7726409e-01
  5.2931762e+00
 -5.9867086e+00
  8.7397938e+00
 -7.5293958e-01
 -1.1626357e+00
 -2.6086855e+00
  4.9102821e+00
 -1.9902688e-01
  2.4724662e+00
 -1.8626795e+00
 -2.3295846e+00
 -3.9662964e+00
  2.7654603e+00
  2.9387937e+00
 -2.0057898e+00
  5.2099235e-02
 -1.6292087e+00
 -2.6613820e+00
  2.9257879e+00
 -3.5598040e+00
  2.3547106e+00
  1.4106687e+00
  2.2388678e+00
  1.1736119e+00
  4.0453629e+00
  1.5868869e+00
 -3.4820762e+00
  3.4598932e+00
 -1.9959463e+00
  4.0371716e-04
  4.6257720e+00
 -1.1630607e+00
 -6.7489810e+00
 -1.8039529e-01
 -3.0736475e+00
 -4.4559188e+00
  7.6063889e-01
  8.6024098e-02
 -3.6390986e+00
  1.1860526e-01
  2.7586403e+00
 -2.8061156e+00
  2.1380484e+00
 -2.0319250e+00
 -4.5520413e-01
  5.2119565e+00
 -8.2464689e-01
 -1.3559338e+00
  1.6004159e+00
 -3.0503467e-01
 -5.0823197e+00
  1.1009837e+00
 -3.3733723e+00
  8.3600740e+00
  7.9060903e+00
 -1.0335511e+00
 -5.5745196e-01
  2.1570964e-01
 -3.0110416e+00
  2.8412759e+00
 -7.1887417e+00
 -9.2455882e-01
  1.8261245e+00
 -5.9060097e+00
 -1.8532025e+00
  3.9759421e-01
  5.7492785e+00
 -1.3370401e+00
  3.4061387e+00
  4.8269504e-01
 -2.5931787e+00
  2.4736217e-01
  1.2151943e+00
  5.8016362e+00
  1.0059584e+00
  5.1424408e-01
  2.1918211e+00
  2.7040007e+00
 -2.3585420e+00
  7.6963120e+00
  3.2979591e+00
 -9.6672851e-01
 -4.6853328e-01
 -6.2014914e+00
 -3.2487304e+00
  2.8913741e+00
  4.1349564e+00
  3.5660813e+00
 -2.0493784e+00
  4.4151607e+00
 -2.6366434e+00
 -4.3912455e-02
  3.6794668e-01
 -1.2373790e+00
 -7.8303403e-01
 -1.2223121e+00
  1.5414625e-01
 -3.4503796e+00
  5.2104135e+00
 -2.9066816e-01
  4.4488387e+00
  5.0431961e-01
 -1.1476741e+00
  6.5293670e-01
 -2.1035409e+00
  2.8504655e+00
 -3.5432377e-01
 -1.3690343e+01
 -2.1577692e+00
  3.5646210e+00
  2.6643040e+00
  3.7390397e+00
 -2.3727922e+00
  3.8373096e+00
 -1.7855330e+00
  6.7458153e+00
 -3.7263229e+00
 -4.0399051e+00
  3.5727632e+00
  2.7827716e+00
 -3.5116465e+00
  1.0977492e+00
  2.8474784e+00
  1.6270836e-01
  3.2488232e+00
  4.3845692e-01
  3.3640900e+00
  7.5890392e-01
 -1.3550961e+00
  7.0038432e-01
  8.5463834e-01
  2.2480927e+00
  5.4591432e+00
  3.4666498e+00
 -3.9939287e-01
  4.4474416e+00
  4.7341952e-01
 -2.2952953e-01
  1.7247353e-01
  1.5163269e+00
  1.7080575e+00
  3.9929338e+00
 -2.6426907e+00
  3.5117180e+00
 -2.1299644e+00
 -4.0395622e+00
  1.8665059e+00
  5.3551388e-01
  1.0183375e+00
 -3.5170076e+00
 -9.8866606e-01
 -3.2203505e+00
  7.2992557e-01
 -9.2475395e+00
  2.6063149e+00
 -2.7104449e+00
 -1.6328057e+00
  3.3988853e+00
  6.8792528e-01
  7.8541505e-01
 -2.2207298e+00
  5.6227036e+00
  1.0211662e+00
 -1.8063526e-01
  1.6025528e+00
  4.1886072e+00
 -1.6412246e+00
  4.0628710e+00
 -6.6238060e+00
 -2.0721192e+00
 -3.2484682e+00
  5.8012099e+00
 -1.2195286e+00
  1.8299401e+00
 -5.3911119e+00
 -2.2663088e+00
 -3.5521390e+00
 -3.7747672e+00
 -1.1970891e+00
 -7.7377520e+00
 -1.0955434e+00
 -2.0824223e+00
  1.4870908e+00
  4.0199013e+00
 -1.1452678e+01
 -2.1566132e-01
 -4.5006437e+00
 -1.3910917e+00
  8.8651520e-01
  2.7029111e+00
 -1.4728745e+00
 -5.6407433e-02
  5.2190661e+00
 -7.3929858e+00
 -3.2116373e+00
 -3.8582984e-01
 -5.6077580e+00
  5.3548923e+00
  7.8431332e-01
  5.0758094e-01
  3.1333618e+00
 -3.1938167e+00
  1.2771194e+00
  3.2259591e+00
  1.0057162e+00
  6.4599830e-01
 -1.0517608e+00
  1.0892247e+00
  2.4623957e+00
  2.9358518e+00
  9.8643595e-01
  2.2412701e+00
 -2.3691840e+00
  1.8040152e+01
 -1.4964774e-01
 -4.4190116e+00
 -7.0687199e-01
  3.1517816e+00
 -5.9939523e+00
  1.2242099e+00
  9.2629987e-01
  4.0038495e+00
 -5.3186498e+00
 -6.2889183e-01
  1.2524903e+00
 -1.8570955e+00
  2.4093525e+00
  1.8871154e+00
 -4.6142539e-01
 -3.9990667e-02
  2.5587437e-01
  1.8922260e+00
  5.1392639e-01
 -1.1855285e+00
  6.0849628e+00
 -1.5742112e+00
  2.9982524e+00
  2.9746835e+00
 -5.0184002e+00
 -2.1430910e+00
  8.7324119e-01
 -8.0810719e+00
 -3.4192209e+00
 -9.3928909e-01
 -1.8333980e+00
  3.3745494e+00
 -1.9873191e+00
  8.8013417e-01
 -6.6699333e+00
 -8.8582373e+00
  2.1522512e+01
  4.0519390e+00
 -3.1099603e-01
 -4.0600033e+00
 -8.2517838e-01
  1.0760615e+00
  3.3891490e+00
  2.9501443e+00
 -6.5422535e-02
  3.3079872e-01
  4.8290863e+00
 -1.3896245e+00
  4.5370660e+00
  2.5900158e-01
  5.4731548e-01
  8.7245846e-01
 -1.7267778e+00
  2.2098930e+00
 -4.4825664e+00
  7.4701405e-01
 -6.3939589e-01
  2.5011621e+00
 -6.2738872e+00
 -5.8406878e+00
  3.4083030e+00
 -2.3657391e+00
 -3.3693979e+00
  1.7137319e+00
 -1.8179374e+00
 -2.7661197e+00
  1.7971535e+00
  2.4107307e-01
  1.0392346e-01
 -1.8314373e-02
  3.9343233e+00
  5.5253963e+00
  2.9699373e+00
 -5.2138882e+00
 -9.1184225e+00
  7.6015514e-01
 -1.8860410e+00
  5.3777022e+00
 -2.3608727e+00
 -7.7771792e+00
  7.8398986e+00
  1.1770793e+00
  6.2695223e-01
 -2.4127409e+00
  1.3164756e+00
 -2.3533688e+00
 -7.9684267e+00
  3.4469457e+00
 -4.7876673e+00
 -1.2092237e+00
  5.2854815e+00
 -4.0769844e+00
 -2.3114905e+00
 -4.9864432e-01
  4.3607316e+00
 -1.9568201e+00
  5.5883713e+00
  1.5947372e+00
  3.3131273e+00
  2.5823237e-02
  4.9916878e-01
  6.4713264e-01
 -1.7028558e+00
  2.1194551e+00
 -9.1498345e-02
 -4.8091607e+00
 -3.6706917e+00
 -3.3364036e+00
  5.2047553e+00
  4.8298888e+00
  3.8163438e+00
  1.1546895e-01
 -4.5078549e+00
 -3.9804792e-01
 -1.3286757e+00
 -3.0051279e+00
 -1.2120680e+00
 -6.9811492e+00
  1.2248162e+00
 -6.3941431e-01
 -1.8183630e+00
  7.0970154e-01
  1.7665640e-01
 -3.9278738e+00
  6.3679123e-01
  1.0880681e+00
  7.1064347e-01
 -2.8189573e+00
  6.1196136e+00
 -3.5583189e+00
 -1.7454009e+00
 -9.6701437e-01
 -4.5699302e-02
  1.5121520e-02
 -2.7949495e+00
 -3.4836009e+00
  6.4099474e+00
 -1.7444763e+00
 -3.7424737e-01
 -1.6275987e-01
 -2.6754234e+00
 -1.7124033e+00
 -3.1954064e+00
 -2.9148469e+00
 -2.5842929e+00
 -3.2296923e-01
 -3.2908213e+00
  1.4051169e-01
 -1.4566506e+00
 -3.7153598e-02
 -8.7062937e-01
 -2.4993124e+00
  1.8775955e+00
 -2.1636913e+00
  3.3809557e+00
 -5.1834183e+00
  2.9180026e+00
 -1.6053858e+00
  3.2180563e-01
 -5.6179440e-01
  2.3489268e-02
 -4.2158918e+00
  1.3769248e-01
  3.2749717e+00
 -2.6668162e+00
 -2.8705993e+00
  1.8697964e+00
 -9.9688627e-02
  9.4204438e-01
  2.2898097e-01
  2.1331728e+00
 -4.9819499e-01
 -1.0751506e+00
 -2.0243595e+00
  1.4186586e+00
  2.0005748e+00
  6.6015184e-01
 -2.6166894e+00
  7.6388130e+00
  1.3110822e+00
 -5.1575994e+00
  4.1389828e+00
  2.1958259e-01
  2.7015784e+00
 -6.6358328e-02
 -4.5967360e+00
  2.6137352e-01
  1.9883735e-01
 -6.8774128e-01
 -3.2356296e+00
  7.2359686e+00
  3.3044560e+00
  3.1372042e+00
 -8.1973553e-02
  3.8035259e+00
  2.6179657e+00
  1.9449360e+00
  5.0066175e+00
 -4.2612508e-02
  3.9611185e-01
  5.9143581e+00
  3.9574173e-01
 -5.3121576e+00
  5.3118490e-02
  1.8637584e+00
 -4.3378031e-01
 -1.5694970e-01
  1.5334140e+00
 -1.7558256e+00
 -8.6267799e-01
 -9.6363109e-01
 -3.2116449e+00
 -1.6500753e+00
  9.8910122e+00
  8.1470366e+00
 -4.1183157e+00
 -4.5248203e+00
  9.9925923e-01
 -8.3736801e+00
 -7.6296932e-01
 -3.4139018e+00
  2.8851351e-01
 -5.7394280e+00
 -2.6043067e+00
 -2.0560749e+00
  4.2321053e+00
 -2.6689261e-01
  3.1613045e+00
 -2.2894766e+00
 -1.0157999e+00
  2.1330724e+00
  1.1290323e+00
 -9.7830267e+00
  1.1468415e+00
 -3.5828820e-01
 -1.3635567e+00
  3.4924521e+00
 -4.6823778e+00
 -4.7310290e+00
  1.5541906e+00
 -4.1886725e+00
 -2.5251002e+00
  5.7100406e+00
  2.0807791e+00
 -1.1927201e-01
  5.3710165e+00
 -4.2605942e-01
 -3.9488974e+00
  1.9468275e+00
  1.7544731e+00
 -4.8316720e-01
  6.2782711e-01
 -9.4193399e-01
 -6.6612178e-01
 -8.7829322e-01
  4.9596572e-01
 -4.4398379e+00
  2.1958988e+00
  4.8415065e+00
  1.7081162e-01
  4.4031787e+00
  9.7267647e+00
 -6.8591275e+00
  1.1976252e+00
  3.2268317e+00
  6.2976348e-01
 -1.4375600e+00
  1.8750124e+00
  1.3166926e+00
 -3.0410752e+00
 -1.5911922e+00
 -1.1602617e-01
  7.3767958e+00
  7.6684731e-01
  1.5136103e-01
 -1.8505807e+00
  1.1340542e+00
  2.8020909e+00
 -9.3900710e-01
  7.7320218e+00
 -1.0311260e+00
  7.0634332e+00
 -1.2041279e+00
  1.4214381e+01
  3.8869295e+00
 -4.5006716e-01
  2.4176688e+00
  7.9066116e-01
  2.7455606e+00
  9.7949326e-01
 -2.2780955e+00
 -1.4137515e+00
 -1.2551363e+00
 -5.8818972e-01
  8.6550909e-01
  8.0295858e+00
  5.6676831e+00
 -3.0110655e+00
  1.4257349e+00
 -7.2199821e-02
 -1.5265234e+00
 -3.8813634e+00
  2.0481422e+00
 -9.4511824e+00
 -1.6265154e+00
 -2.1479219e-01
  2.3238461e+00
 -7.1335249e-03
 -1.7742611e+00
  3.4216392e+00
  2.6955419e+00
 -3.8869209e+00
  2.2649155e+00
 -6.3267130e-01
 -1.1550326e+00
  3.1009930e-01
 -9.2369664e-01
  2.1797459e+00
  1.8518957e+00
  8.8524491e-01
 -1.2492194e-01
 -2.6911536e-01
 -3.7295449e-01
  3.7136395e+00
  3.5216376e-02
 -8.7189472e-01
 -2.4382511e-01
  2.6448140e+00
  2.5931447e+00
  2.9669950e+00
  2.9691088e+00
  2.5461731e+00
  8.6774290e-02
  6.4705257e+00
 -1.2536365e+00
 -1.6263421e+00
  7.5076256e+00
  3.0543945e+00
 -1.4441154e+00
 -6.0270424e+00
 -1.5710950e+00
  2.9201081e+00
 -2.4585643e+00
 -2.2430360e-01
  1.8069354e+00
 -1.0401285e+00
  3.2085915e+00
  2.6941936e+00
 -5.5571713e+00
 -9.7991383e-01
  1.8296602e+00
  2.0127769e+00
  2.6159570e+00
  1.3436952e+00
 -3.4469986e+00
  3.6273861e+00
  4.1016224e-01
  7.6359468e+00
 -1.3422179e+00
  2.5926256e+00
  1.6079264e+00
 -1.0614790e+01
 -1.8302294e+00
  2.9980173e+00
 -4.4283164e-01
 -3.5357003e+00
 -7.3475176e-01
  5.2927485e+00
 -1.6023666e+00
 -2.2594275e-01
 -1.6892270e+00
  4.6184203e-01
  1.5970385e+00
 -1.2519045e+00
 -9.1014916e-01
 -4.1824427e+00
  2.2862813e+00
 -3.2589900e+00
  4.3940306e-01
 -2.1817718e+00
  3.3683032e-01
  3.7739871e+00
  1.5948606e+00
 -1.5155208e+00
  3.1260941e+00
 -6.8066058e+00
 -3.3855498e+00
 -7.2788854e+00
 -5.5759673e+00
  4.1744690e+00
 -4.0318646e+00
  2.6319602e+00
 -6.7986542e-01
 -1.2691233e+00
 -1.3621250e+00
  1.4873267e+00
  2.7908628e+00
 -1.3830917e-01
  5.8623743e+00
  9.5098215e-01
 -5.8952934e-01
  2.2245169e-01
  5.2414837e+00
 -1.2466872e+00
 -3.8494759e+00
  3.4234509e+00
 -5.9530151e-01
 -2.1151364e+00
 -1.9899590e+00
 -4.6171200e-01
 -3.5800605e+00
  3.0475047e+00
 -3.7833783e-01
  5.6593022e+00
 -1.8835133e+00
  2.1245878e+00
 -5.1534863e+00
  5.6515032e-01
  2.5923795e-01
  2.0899615e+00
  3.6256056e+00
  3.6513412e+00
 -1.3182844e+00
 -1.5091319e+00
 -4.3070235e+00
  9.8521405e-01
  8.1489420e-01
  1.2246288e+00
 -3.1936054e+00
  3.4328740e+00
  6.9109187e+00
  2.1198070e+00
 -5.0235081e+00
 -2.6197135e+00
  6.6752596e+00
  9.0713543e-01
 -3.1988921e+00
  6.4229560e-01
 -3.4596808e+00
 -9.2332512e-01
  9.8475003e-01
 -1.1716647e+00
 -5.7391009e+00
  3.1067293e+00
  1.8319257e+00
  2.2524045e+00
  5.6807423e+00
  1.2934097e+00
 -4.0976945e-01
 -5.4014540e+00
 -6.3114882e+00
 -1.7164909e+00
  1.7031271e+00
 -5.3639398e+00
 -2.8950328e-01
 -3.1732588e+00
  3.5050483e+00
 -3.0197835e-02
 -9.8171884e-01
  1.0157135e+00
  1.5760472e+00
  2.8028228e+00
  4.9636167e-01
 -4.3436728e+00
  3.8102851e+00
 -1.4935684e+00
 -3.1785884e+00
  3.8663881e+00
 -5.9739914e-02
  8.0648154e-01
 -4.9176416e+00
  7.0401919e-01
 -3.9901297e+00
 -1.5826513e+00
  1.0332967e+00
  1.6016518e+00
 -1.1721158e+00
 -7.5174648e-01
 -8.4739703e-01
  2.5180724e-01
 -2.7730548e+00
  6.4130521e+00
  6.5335613e-01
 -9.1402382e-02
  1.9680233e+00
  4.0979552e+00
 -9.4690913e-01
  2.5216334e+00
 -3.6308831e-01
  1.4012578e+00
 -8.0196786e-01
  3.9501371e+00
 -2.6593657e+00
 -7.9906154e+00
 -3.9828382e+00
  2.8747198e-01
  8.4068501e-01
 -1.6862309e+01
  1.1515179e-01
  3.9583099e-01
 -1.5609065e+00
 -1.3552058e+01
  2.7543674e+00
  1.6002457e+00
  5.8595471e+00
 -2.7442162e+00
  1.2871174e+00
 -2.8986475e+00
 -5.1868279e-03
  2.4567528e+00
 -1.1945536e+00
 -2.7278402e+00
 -5.5290074e+00
  4.1570959e+00
 -1.7549345e-01
  3.3937361e+00
  1.6315757e+00
 -9.1533508e+00
 -2.6098483e+00
  8.5337467e+00
  3.8589735e+00
  2.4772367e-01
 -1.9749895e+00
 -2.5843563e+00
  2.0475011e+00
  2.2626938e-01
  2.7574942e-01
 -5.4190631e+00
 -1.1952566e+00
 -8.8376451e-01
  1.0140487e+01
 -3.0734446e+00
  2.6387784e+00
 -2.8176320e+00
 -1.3244618e+00
  2.0377111e-01
  3.5067544e+00
 -2.2584371e-02
  8.6931620e+00
 -1.2831198e+00
  5.5370760e-01
  4.9872026e-01
  4.6131949e+00
 -3.1006563e-01
 -5.0965590e+00
  2.4463220e+00
 -1.0492193e+00
 -2.4517066e+00
 -3.6127636e+00
 -1.4655498e+00
 -5.8099717e-01
  1.3217211e+00
  4.5997515e+00
  2.1492693e+00
 -2.5349410e+00
  4.9002447e+00
  6.4386719e-01
 -2.1813314e+00
  1.0181819e+00
  2.9720083e-01
  2.5553863e+00
  3.2831219e-01
  1.4346191e+00
 -1.2978463e+00
  6.2102351e+00
  8.2610874e+00
  6.9870005e+00
 -1.4873211e+00
 -8.7045276e-01
  4.0077333e+00
 -1.9096086e+00
 -2.1858761e+00
  4.6033087e+00
  7.6078331e-01
  5.5583053e+00
  6.0904247e-01
  1.0454599e+00
 -1.0103735e+00
  2.3337932e+00
  5.6942880e-01
  3.2743380e+00
 -2.4229910e+00
  1.5919007e+00
  8.6603093e-01
  3.1230185e+00
 -1.6471262e+00
 -4.3478789e+00
  2.7775970e+00
 -3.9842057e-01
 -1.5056822e-01
 -2.5313735e+00
 -2.7889168e+00
  4.8993313e-01
 -6.1387396e-01
 -3.1504362e+00
  5.3000969e-01
  1.0744877e+00
 -1.3540736e+00
 -6.2133770e+00
 -7.8445524e-01
 -1.4191589e+00
 -6.0419691e-01
  3.4930725e+00
 -1.3166460e-01
 -3.7115669e-01
  1.2384610e+00
  2.0438523e+00
 -7.4718052e-01
  5.7937078e+00
 -1.7347611e+00
 -2.3752573e+00
  2.9063168e+00
  6.6744608e-01
 -2.8935549e+00
  5.6036696e-02
 -3.1621022e+00
 -2.3036563e+00
  1.3228238e+00
  1.9425924e+00
  1.7772166e+00
  2.6065536e+00
 -1.2657884e+00
  1.8084095e+00
 -3.3001111e+00
  3.0233133e+00
 -4.5118853e-01
 -3.7396553e+00
 -5.1731253e+00
  6.9223804e+00
  2.0932689e+00
  9.6275568e-01
  2.1614795e+00
  3.6974320e+00
 -4.8324628e+00
  4.9595060e+00
 -1.2769357e+00
  1.2154791e+00
  9.5724277e+00
 -3.9756334e+00
  3.5676308e-02
  2.7773349e+00
  9.6791780e-01
  1.1978651e+01
 -1.0113494e+00
  7.4238067e+00
  3.0829937e+00
  4.6797128e+00
 -5.4495544e+00
  1.9473224e+00
 -2.8166845e+00
  9.2162371e-01
 -3.2548490e-01
  3.2788711e+00
 -9.3262248e-02
 -9.3910551e+00
  1.4295268e+00
  1.2496273e-01
 -5.8959117e+00
 -5.1643252e-01
  1.7098744e+00
  9.7480333e-01
  1.7160968e+00
  2.7327096e+00
  2.5848031e+00
  5.3982997e+00
 -1.5562624e+00
  5.7213616e-01
  1.4787851e-01
 -7.0345469e+00
  2.5203022e-01
 -2.1752851e-01
  1.0184835e+00
 -1.4703090e+00
  1.3334076e-01
  6.9974951e-02
 -1.8542553e-01
  1.3589382e-01
 -1.2181842e+00
 -7.1558639e-02
  3.6421890e+00
  1.6167833e-02
 -2.0456527e-01
  4.4490072e-01
 -2.3293061e+00
 -7.6688844e-01
 -8.3254635e-02
 -1.3594286e-01
  3.0172305e+00
  2.2688994e-02
 -5.4958558e-01
 -2.9436791e-01
  6.7711815e-02
 -4.2036647e-01
 -1.3932404e-01
 -2.0358531e+00
 -9.9823907e-02
 -9.9082321e-02
  6.3955539e-01
  5.6037111e+00
 -1.9383989e-01
  3.8649239e-02
 -1.1463971e-01
 -7.5787351e-02
 -1.0455739e-02
 -2.7037936e-01
  8.8342053e-01
 -9.6475756e-01
  1.3356366e+00
 -4.2392343e-01
 -8.4683150e-02
 -7.2207344e-01
  1.0470288e+00
 -9.6749321e-02
  4.0653199e-02
 -2.1999729e-01
 -6.6952497e-02
  1.9072896e-01
 -1.7626775e-02
 -1.4105441e-01
  3.0380797e-02
 -1.2441671e+01
 -3.3872612e+00
  5.4736185e+00
 -1.4290072e+00
  1.0295061e+00
 -8.0329714e+00
 -5.0176024e-01
 -2.1723473e+00
  6.3323102e+00
 -6.5508618e+00
  2.4608004e+00
  9.2377925e-01
  1.8494706e+00
  1.4938083e+00
  2.9203534e-01
  2.3261480e+00
  5.3696818e+00
  9.7219431e-01
 -9.3781281e-01
 -3.8503330e+00
 -9.1007614e+00
 -1.3757520e+00
 -2.8420920e+00
  9.5644855e+00
 -4.7255325e+00
  1.7053359e+00
  9.7957838e-01
 -8.4270203e-01
  2.9314077e-01
 -5.8992405e+00
 -9.6638813e+00
 -9.8555982e-01
 -1.3102872e+00
  1.7911118e+00
 -1.3846678e+00
 -1.3765297e+00
 -1.0335798e+00
 -6.5448529e-01
  1.2667602e+00
 -6.7055011e-01
 -2.7388489e-01
  7.6622379e-01
  8.6839360e-01
  1.2517252e+00
 -9.3719959e-01
  5.7882327e-01
  1.1993320e+01
 -4.6812123e-01
  2.7775567e+00
 -7.8871828e-01
  8.6366820e-01
  9.2700911e-01
 -1.0795306e+00
  2.5922134e+00
  1.1435948e+01
 -2.3572836e+00
  5.1356810e-01
  4.1436052e+00
  9.4851822e-01
 -1.8135886e+00
 -4.3263850e+00
 -1.9877131e+00
  4.5412970e+00
  6.4787459e-01
  3.1257412e+00
 -2.8564304e-01
 -3.2748160e+00
 -1.8802910e-01
  4.5256357e+00
 -3.1701404e-01
 -2.1240270e+00
 -4.4435730e+00
  1.8563904e+00
  3.6015449e+00
 -3.5975335e+00
  8.0161791e+00
  7.8866279e-01
  5.4316864e+00
  1.1920172e+00
  2.0018709e+00
 -5.4567800e+00
  2.3230538e+00
 -1.9513290e+00
  1.8838415e+00
 -2.3858878e-01
  4.1403546e+00
  1.7404053e+00
  1.4701214e+00
  2.8299019e-01
 -2.5855427e+00
  1.2103390e+00
 -1.5122401e+00
 -2.5501506e+00
  1.4069177e+01
  1.8690983e+00
 -7.7731328e+00
  4.0999875e+00
  4.3606853e+00
  8.5224688e-01
  4.0425496e+00
 -1.8269149e+00
 -1.2049707e+00
  6.9917030e+00
 -9.6846657e+00
  6.0941297e-01
  1.8676753e+00
  6.5079767e-01
 -4.5891190e+00
 -2.0275073e+00
  9.1190225e-01
  2.5977488e+00
 -2.3643332e+00
  5.6440812e-01
 -3.2660298e+00
  1.6675738e+00
  1.9670283e+00
 -1.5439558e+00
 -5.8128190e+00
 -3.0401127e+00
 -1.0501378e+00
  1.8498408e+00
  1.4813131e+00
  2.9187365e+00
  4.4114575e+00
  7.1619148e+00
  2.0572839e+00
  2.7254076e+00
 -9.3007392e-01
  3.3018124e-01
  1.1372014e+00
  3.6500490e+00
  8.4951246e-01
 -2.6972289e+00
  1.5609214e-01
  1.2134119e-01
 -1.8624691e+00
 -4.5616242e-01
 -2.0307007e+00
 -4.8882751e+00
 -3.1273291e+00
  6.4367957e+00
  6.5554490e+00
  5.3988314e-01
 -4.8908577e+00
  3.1611450e+00
  1.3929193e+00
  2.1033525e+00
 -1.9949080e-01
 -1.9251508e+00
 -6.6483617e-01
 -6.1115456e-01
 -1.2977209e+00
  4.7211266e+00
 -5.5549984e+00
  1.7132275e+00
 -6.4481676e-01
 -4.4613323e+00
 -4.7900715e-01
 -4.6551032e+00
  1.9931654e+00
  3.3400311e+00
 -2.5638719e+00
 -6.1414819e+00
 -1.2133659e+00
  1.3581018e+00
  3.5502377e+00
  1.0657980e+00
  7.5365013e-01
 -4.0304303e-01
  4.1047020e+00
  6.4465060e+00
  3.3253429e+00
  7.7465916e+00
 -3.0373049e+00
 -9.7550583e-01
 -1.5892490e+00
  3.3166137e+00
  1.5313475e-01
  1.1773064e+01
 -2.2811067e+00
  7.3521562e+00
 -1.2892654e+00
 -9.3674415e-01
 -2.5059593e+00
 -4.7817330e+00
 -3.9322393e+00
  4.5232906e+00
  2.1219597e+00
 -3.8258011e+00
  2.0530505e+00
 -3.3466041e+00
  2.4017832e+00
 -6.7579585e-01
  4.7087333e-01
 -6.6705179e+00
 -3.1412399e+00
  2.6407502e+00
 -4.7805171e+00
 -4.6153779e+00
 -1.4282218e+00
  2.1185889e+00
 -3.2776494e+00
  6.0817184e+00
  2.6846702e+00
 -4.1308918e+00
  5.0908828e-01
 -4.0868011e+00
  5.4812593e+00
 -9.2590971e+00
 -3.6703730e-01
 -1.7586060e+00
  2.8888850e+00
 -2.4553766e+00
 -1.8042140e+00
  2.9072401e-01
 -5.6313071e+00
 -1.5710448e+00
  1.3278623e+00
 -1.4079471e-01
 -5.7709060e+00
  9.2524010e-01
 -7.0435019e+00
 -7.6805701e+00
  3.0610604e+00
 -6.9396222e-01
 -2.6801312e+00
  1.8109264e+00
  6.6860193e-01
 -3.7631884e-01
 -7.4387479e-01
  8.5383773e-01
 -3.6730292e-01
 -2.6762686e+00
 -1.4451094e+00
 -2.3256698e+00
 -1.2349840e+00
 -1.3843995e+00
 -1.2512003e+00
 -1.1619371e+00
 -2.2706265e+00
 -5.8502092e+00
 -1.7225045e-01
  1.7088140e+00
 -2.0053167e+00
 -3.0577397e+00
  5.8283103e-01
 -6.9977207e+00
  9.1001832e-01
 -1.2705007e-01
  3.7022827e+00
  7.0940506e-01
  4.9470086e+00
 -6.0428591e+00
 -8.7613325e+00
 -2.3370368e+00
 -2.2421224e+00
 -1.3465991e+00
  7.2556005e+00
  1.0850582e+00
  2.2801776e+00
 -6.7955031e+00
  1.3649800e+00
  2.3650110e+00
 -3.3563356e+00
  5.2514763e+00
  7.0584655e+00
 -1.6478486e+00
  2.5284154e+00
 -3.1717081e+00
  2.2570658e+00
 -8.5266829e+00
 -5.7170234e+00
 -1.5591388e+00
  4.2579494e+00
 -2.5836146e+00
 -2.8311864e-01
  3.0473533e+00
 -9.9412054e-01
 -9.9799967e-01
 -2.7548368e+00
  2.5566728e+00
  2.7977118e+00
 -1.0774400e+00
  2.7399263e-01
  3.0009689e+00
 -1.7442243e+00
  5.2022606e-01
 -1.9163076e+00
  3.9159009e-01
 -5.7416768e+00
 -1.3906223e+00
 -3.2414279e+00
  8.9940012e-01
  2.3034675e+00
  2.8927479e+00
  1.0115248e+00
  3.4494212e+00
 -5.7631984e+00
 -1.4365634e+00
 -3.2214823e+00
 -4.4465404e+00
 -5.9555542e-01
  3.6026306e+00
  2.5901308e+00
 -2.9991474e+00
 -6.9653192e+00
 -6.0133529e-01
  2.2813404e+00
 -1.7988425e+00
 -3.3015757e+00
  2.4126930e+00
 -3.9064491e-01
  2.3962016e+00
 -1.5267179e+00
 -3.0382409e+00
 -3.3602839e+00
 -8.6868918e-01
 -1.2235351e+00
  1.4984457e+00
 -8.0618244e-01
  1.1727806e+00
  2.8214115e-01
 -1.1175551e+00
  3.1605643e-01
 -1.0393374e+01
 -2.3885791e+00
  1.0029987e-01
 -8.4145784e-01
  4.1024466e+00
 -4.6879849e+00
 -1.7479517e+00
  3.1375558e+00
 -1.1564924e+00
  4.2859936e+00
 -5.1071997e+00
 -8.7799877e-01
 -1.8333395e+00
 -1.9100730e-01
 -4.4031644e-01
  1.6928545e+00
 -1.3928372e+00
  4.3382192e+00
 -6.8582207e-01
  2.9978867e+00
 -1.5658101e+00
 -2.0985730e+00
  2.4312501e+00
 -2.9274373e+00
  5.0641060e-01
 -4.1426182e+00
 -1.1960471e+00
  4.9355731e+00
 -4.7808437e+00
  1.1614813e+00
 -6.9839888e+00
 -1.7496659e+00
  1.1820914e+01
 -3.1836638e+00
 -7.8954625e-01
 -5.8297558e+00
  7.2370124e-01
 -3.0241158e+00
 -4.1761851e-01
 -5.0839324e+00
 -3.3582056e+00
 -1.8644601e+00
 -7.9550725e-01
  7.1111789e+00
 -4.6219735e+00
 -5.1761794e+00
 -2.8465559e+00
  2.1087134e+00
 -2.3971984e+00
  1.8125554e+00
 -1.2165238e+00
 -1.0324420e+00
 -3.4549997e+00
 -4.1290646e+00
  9.6113837e-01
 -1.8553009e+00
  3.6795197e+00
 -2.5624225e+00
 -1.3328570e+00
 -4.3386409e-01
 -1.8068043e+00
 -4.3843532e+00
  5.7452135e+00
  1.0414053e+00
 -1.1937505e-01
 -5.4330187e+00
  5.6454635e+00
 -3.5414488e+00
 -1.8392045e+00
  3.7837262e+00
 -7.0357637e+00
 -6.2840408e-01
 -9.6777654e-01
 -3.2729569e-01
 -1.6132530e+00
 -1.0421541e+00
 -1.0245282e-01
 -9.4816828e-01
 -3.4632335e+00
  1.2781320e+00
  2.9377081e+00
  2.5620570e+00
 -1.1812984e+00
 -1.8466095e+00
 -6.1511426e+00
  1.0527522e-01
 -2.3381035e+00
 -5.3928332e+00
  7.8233713e-01
 -1.6534203e-01
  8.9713407e-01
 -4.2135425e+00
 -7.1147246e+00
  2.4177632e+00
  4.3150267e-01
  1.3910941e+00
 -2.1251554e+00
 -3.9802299e+00
 -1.6507632e-01
  6.5315479e-01
 -1.7639964e+00
  6.7378283e-01
  2.0489984e+00
  7.1867208e+00
 -3.9785190e+00
 -3.0444360e+00
 -9.4888103e-01
 -3.0062325e+00
  5.9441590e+00
  2.2679651e+00
  1.2902972e-01
  1.5871943e+00
  1.0455388e+01
  3.5832758e+00
  2.7855797e+00
 -1.1184329e+00
  3.9789767e+00
 -1.1405724e+00
 -2.3409688e+00
 -1.0349767e+00
 -3.8135970e+00
  4.6749678e+00
 -7.5812650e-01
  1.4133162e+00
 -2.8971293e+00
  4.6642068e-01
  1.2189130e+00
 -6.4049751e-01
 -3.7761631e+00
 -5.1446609e+00
  1.2145245e+00
 -3.0154576e+00
 -9.3194467e-01
  9.2550611e+00
 -2.6297810e+00
 -6.0736954e-01
  2.7606804e+00
 -1.2984449e+00
  1.2373934e+00
 -1.3456624e+00
 -1.8702573e-01
 -1.7107219e+00
  1.1882478e+00
 -1.0338670e-01
  2.8270335e+00
  1.8840604e-01
  1.3231928e+00
 -2.3892665e-01
  7.2457442e+00
 -9.1651028e-01
 -2.0216157e+00
  4.4741650e+00
 -4.8545618e+00
 -3.7750010e+00
 -4.3200712e+00
  1.7659676e+00
  3.9290866e-01
  2.4412590e-01
 -9.0123260e-01
 -3.6298461e+00
  6.9114506e-01
  1.2476082e+01
  7.1942455e-01
  2.1772351e+00
 -6.1147320e-01
  3.2216613e+00
 -7.7000785e-01
 -1.0508685e+00
 -3.1881647e+00
 -2.7128651e+00
 -2.6268873e-01
 -1.3658025e+00
  2.2764626e+00
 -1.7863194e+00
  4.5497575e+00
 -3.7758861e+00
  4.0446048e+00
  1.5343970e+00
 -1.0644814e-01
  1.1963612e+01
 -5.4441357e-01
  1.8562666e+00
  3.7660785e+00
 -4.4749408e+00
 -1.8754016e+00
  4.6329364e-01
  1.0869927e+00
 -3.7210586e+00
 -2.2193866e+00
 -1.4068027e+00
 -5.5116236e-01
  1.9488605e+00
  1.3479435e+00
 -4.4054313e+00
  7.8395662e+00
 -4.9227524e-01
  1.1004249e+00
 -2.6696939e+00
 -2.4651380e+00
 -1.2820165e+00
  2.8202372e+00
 -1.3973603e+00
 -4.7016811e+00
  3.0324135e+00
  1.5994430e+00
 -2.7645357e+00
  1.1293521e+00
  1.0613989e+00
  6.6171008e-01
  1.7068608e+00
  4.4986448e+00
  8.1312269e-01
 -2.0917668e+00
 -3.5817418e+00
  1.8629730e+00
  3.1497648e-01
 -2.0246289e+00
 -1.4156107e+00
  2.8196187e+00
 -9.8635697e-01
  8.6687112e-01
  3.4015937e+00
  2.0229526e+00
  5.1518745e+00
  4.0240240e+00
  1.2347529e+00
 -1.8533842e-01
  1.4506675e+00
  1.8220032e+00
 -7.6404705e+00
  5.1712239e-01
  1.6752346e+00
  1.0890790e+00
 -1.1269137e+00
  1.8986431e-01
 -7.2686750e-01
  2.9414517e-01
  1.8239815e+00
  3.6074543e-01
  1.2955462e+00
  4.8332472e+00
  3.3893015e+00
  1.4556426e+00
 -2.3190553e+00
  4.1632252e+00
  1.7129382e+00
  9.9435158e+00
  1.7813191e+00
 -5.3129373e+00
  1.5007185e+00
  3.8070233e+00
 -3.8723452e+00
 -5.0756645e+00
  3.2079759e-01
 -5.6592317e+00
  6.8453145e-01
  6.8636227e+00
 -7.5712223e+00
  9.0259761e-01
  1.5581161e+00
 -1.1721946e+00
 -5.4083520e-01
  1.7060074e-01
 -8.1770974e-01
  1.3533221e+00
  2.7887678e+00
 -1.4218866e+00
 -9.8643833e-01
 -2.5771914e+00
 -5.0605106e+00
 -3.6755383e+00
 -1.7537063e-01
 -9.7246820e-01
 -1.5505838e+00
  3.8930428e+00
  1.0948362e+00
  1.6120037e+00
 -1.9216338e+00
 -1.4675024e+00
 -1.8777487e+00
  9.6046495e-01
  4.8521116e-01
 -1.7995476e+00
  1.2272731e+00
  1.4840770e+00
  1.6113372e+00
  3.8031516e+00
 -4.6883063e+00
 -4.8609918e-01
  4.1225505e-01
  3.0054469e+00
  5.0070672e+00
  8.0931091e+00
  4.1513354e-01
  1.4107817e+00
  4.6923941e-01
  4.3166542e+00
  3.3947964e+00
 -2.3186905e+00
 -3.8034150e-01
 -3.5433545e+00
 -4.0793744e-01
 -4.7269893e+00
  1.9383144e+00
 -3.0702138e+00
  1.4526396e+00
 -2.8129363e+00
 -8.2260954e-01
  1.6069794e-01
 -1.4779643e+00
  3.0683017e+00
  3.8778136e+00
 -9.3816227e-01
 -1.2275023e+00
 -5.8257117e+00
 -3.2238748e+00
  7.2256813e+00
 -7.5316435e-01
 -3.7516889e-01
 -1.1240181e-01
  9.1536957e-01
 -1.6290256e+00
  2.6976328e+00
  5.0866055e+00
  6.1818129e-01
 -2.1843057e+00
  1.3149855e+00
  5.9777279e+00
  5.8392181e+00
  1.6980575e+00
 -8.4100717e-01
  2.6843971e-01
  1.9128700e-01
 -1.4350946e+00
  1.1445963e+00
 -7.6206774e-01
 -1.2335436e+00
  1.2941097e+00
  1.5136443e+00
 -2.4061580e+00
  3.3777788e-01
 -1.3672629e-01
  9.5222149e+00
 -2.8350282e+00
 -4.1194167e+00
 -1.5988146e+00
 -3.1442361e+00
 -4.8998666e+00
 -4.9989423e-01
 -1.0699044e-01
 -8.1505984e-01
  3.0406160e+00
  4.9012375e+00
  2.9867826e+00
 -7.3480314e-01
 -7.3720527e-01
  4.1108996e-01
  3.1788516e+00
 -2.3489907e+00
  3.1754953e-01
  1.5226138e+00
  1.2893987e+00
  4.0904060e-01
  7.5894456e+00
  6.4214945e+00
  1.3909289e+00
 -7.0240581e-01
 -1.9958318e+00
 -5.7610559e+00
  2.3884914e+00
 -2.2786791e+00
  3.1364472e+00
  5.7353890e-01
  1.5029205e+00
  1.0083834e+00
  1.5517030e+00
  4.0435658e+00
  1.6252450e+00
 -1.1774069e+00
 -1.6331112e+00
  1.8523085e+00
  2.0408034e+00
 -1.4569684e+00
 -6.5292549e-01
  7.0086946e+00
  1.5514675e+00
  2.8899703e+00
 -7.3877740e-01
  1.4295796e+00
  1.0957907e+00
 -4.7369862e+00
  2.4971445e+00
 -3.0740552e+00
 -4.9763217e+00
 -1.6759292e+00
 -3.7754402e-01
 -4.7391839e+00
  1.4200686e+00
 -2.8640757e+00
  7.1009407e+00
  3.6313981e-01
 -1.1153275e+01
 -2.4612079e+00
  5.5490935e-01
 -1.2797121e+00
 -3.7993634e-01
 -1.9830241e+00
  1.9109795e+00
 -4.3165112e+00
 -3.4906557e+00
 -4.3278062e-01
 -1.6735026e-01
 -1.2218202e+00
 -3.5484378e+00
  4.1940084e-01
  7.2693267e+00
 -2.3241751e+00
  2.5179307e+00
  5.5795586e-01
 -1.4858971e+01
  4.2535267e+00
 -5.1987249e-01
 -9.0071583e-01
  2.2552154e+00
  3.2596049e+00
  9.6540254e-01
 -1.5361097e+00
  5.3770761e+00
 -7.3560226e-01
  7.2881484e-01
 -3.8445828e+00
  2.4324064e+00
 -3.8958077e+00
 -1.9960420e+00
 -9.6422595e-01
  1.8097266e+00
 -2.3432500e+00
 -4.0168147e+00
 -9.8984152e-01
  2.4483676e+00
 -1.7021468e+00
 -2.5222042e+00
  3.5465503e-01
 -1.1290683e+00
  2.3364329e+00
 -1.3268471e+00
  3.3188293e+00
  1.4659972e+00
 -2.7217057e+00
 -1.3407480e+00
  2.2178714e+00
 -1.8201859e+00
  8.5931945e-01
  5.0300121e-01
 -1.5094728e+00
  1.3307438e+00
 -3.3524890e+00
 -3.9433670e+00
  1.9071027e+00
 -2.7620227e+00
 -4.8717517e-01
 -5.6821084e-01
 -5.2741170e-01
 -1.3508886e+00
 -1.1181620e+00
  1.7150283e+00
 -2.1271052e+00
  5.2833676e+00
  3.8747808e-01
 -3.3580580e-01
  7.3816478e-01
  1.2734481e+00
 -6.8390709e-01
 -5.8300817e-01
 -9.3061094e+00
  5.5667830e-01
  2.2516077e+00
 -2.0662150e-01
  1.5027496e+00
 -1.5528750e-01
 -4.6891472e-01
  1.0240133e+00
  1.1870308e+00
  5.3250027e+00
  1.8531500e+00
  1.3913921e+00
  1.4362015e+00
 -2.2584465e+00
 -2.4431431e+00
  2.3395081e+00
 -1.1843876e+00
 -2.7840493e+00
  5.8741026e+00
 -4.9338717e+00
 -1.0140756e+00
  9.7039557e-01
 -2.5573605e-01
 -2.2795851e+00
  6.1176443e-01
 -1.8788249e+00
  1.0928392e+00
 -1.1690582e+00
  3.0474081e+00
 -8.2684684e-01
 -1.0322585e+00
 -2.5593476e+00
 -1.5568712e-01
 -1.7253399e+00
 -1.2953812e+00
 -1.6813147e+00
  1.4880180e+00
 -4.6576924e+00
 -5.9438318e-01
 -3.0853963e+00
  4.0627341e+00
  1.5513247e+00
 -2.1295464e+00
  6.4572042e-01
 -2.3987751e+00
 -1.2705287e+00
  5.2749062e+00
  7.9519498e-01
 -3.5603802e+00
  4.3315893e-01
  2.9748940e+00
 -2.7329493e+00
  2.7927896e-01
  4.3589267e-01
  9.8242593e-01
  3.4745696e+00
  6.2801642e+00
 -1.0847431e+00
  1.5319369e+00
 -3.9938650e-01
 -3.7009177e+00
  4.7370577e+00
 -9.9146092e-01
 -7.1896005e-01
  1.1085615e-01
  5.0020308e+00
 -3.3551164e+00
 -1.2066034e+00
 -5.1249450e-01
 -1.2684798e+00
 -2.4611373e+00
 -1.4221218e+00
 -6.2630067e+00
 -2.4355385e+00
  2.4407828e-01
 -5.9409988e-01
 -1.2525700e+00
 -2.6356268e+00
 -1.5537751e+00
 -1.6239130e-01
  2.6123500e+00
 -5.7717052e+00
 -5.1667553e-01
 -6.4077001e+00
 -9.7514713e-01
 -5.2882773e-01
  2.5532630e-01
  6.0213715e-01
  2.8998218e+00
 -1.5578543e+00
 -7.7033019e-01
  3.7360494e+00
  2.0235515e+00
  3.0515742e+00
  3.9690360e-01
  2.6534400e+00
  2.2109783e+00
  1.0651528e+00
  1.5068883e+00
  4.3327820e-01
  1.1194705e+00
  3.7859843e+00
 -2.0833740e-01
  1.6886525e+00
  2.4750490e+00
 -6.6149783e+00
  1.4959186e+00
  2.2504821e+00
  1.1227185e+00
 -5.8577001e-01
  1.4652181e+00
 -5.2595353e+00
 -1.1468309e+00
 -1.1191838e+00
  1.9857353e+00
 -1.2308590e+00
 -7.9392319e+00
 -4.2299080e+00
 -3.0366411e+00
  3.2105339e+00
  3.3560622e+00
  1.8384545e+00
  2.1709709e+00
 -1.3706325e+00
 -9.9916267e-01
 -4.6991267e+00
 -3.1791029e+00
 -9.5096099e-01
 -8.9141464e+00
  3.1959358e-01
 -2.9205510e-01
 -2.1884465e+00
  2.3206863e+00
 -1.8982756e-01
 -5.2660713e+00
 -4.3948798e+00
  2.7634630e+00
 -2.7080688e+00
  1.5866433e+00
  6.0375386e-01
 -1.9217738e+00
  7.9864216e-01
 -4.2297530e+00
  2.0500353e-01
 -3.2102315e+00
 -4.3805739e-01
 -5.2481902e-01
  2.1428156e-01
 -2.8693514e+00
 -5.3786426e+00
  1.1848857e+00
  3.5637696e+00
 -6.7030096e-01
 -5.7544804e-01
 -2.2439785e+00
 -2.6347830e+00
  5.9260237e-01
  1.3381962e+00
 -1.9574115e+00
  5.9253633e-01
  6.9561589e-01
  4.4058175e+00
  3.9050524e+00
  6.7484403e-01
 -2.8042989e+00
 -1.0156846e+00
 -8.5701120e-01
 -6.4066201e-01
  4.5190039e+00
  1.8329061e+00
  2.9718986e+00
  1.2800965e-01
  4.6388240e+00
 -1.8003029e+00
 -1.5512679e+00
  3.5946265e-01
  5.7225424e-01
  1.4222536e+00
 -2.4679766e+00
 -1.3418505e+00
 -6.4186722e-01
 -3.2885683e+00
  8.9222550e-01
 -3.4590960e-01
 -1.8433918e+00
  1.5854809e+00
 -3.4220526e+00
 -3.2989466e+00
  3.4743357e+00
 -4.0311213e+00
 -3.4274135e+00
  2.3002487e-01
  1.8420436e+00
 -2.2055924e+00
 -3.8376427e+00
  1.4227703e+00
 -1.1001687e+00
  2.7663126e+00
 -2.8499677e+00
 -2.2788446e+00
  1.6619253e+00
  3.2458701e+00
 -3.2369548e-01
 -1.4467108e+00
 -2.8143969e-01
  1.7505283e+00
  2.7572498e+00
  4.8220143e-01
  1.2835809e+00
  2.1330476e+00
 -2.9505620e+00
 -4.0396428e-01
 -1.2093902e+00
  1.6259730e+00
  6.7728704e-01
 -2.2811487e+00
  4.8439255e+00
  1.2964618e-01
 -1.4015812e+00
 -1.3479332e+00
  2.5375712e+00
  4.9226041e+00
  1.0919998e+00
  5.4164033e+00
 -4.7198749e+00
  2.2413909e-01
  1.1957241e+00
 -3.9056766e+00
 -2.5024331e+00
 -1.1376445e+00
 -1.7392720e-01
 -3.2881370e+00
  5.5240703e-01
  2.8730221e+00
  4.7225533e+00
 -1.1577338e+00
  3.0287688e+00
  2.1463819e+00
  1.8975238e+00
  3.7615219e-01
  2.4350519e+00
  1.5525535e+00
 -8.4986097e-01
 -8.7261140e-01
  1.3712047e+00
  1.3687356e+00
  2.0212097e+00
  1.5386276e+00
 -4.5865586e-01
 -4.6699995e-01
  1.2001313e-01
  6.2487655e+00
  2.1775203e+00
 -4.8747647e-01
 -2.4898448e+00
 -2.3650825e+00
 -1.1620510e+00
  2.0394170e+00
  2.3038769e-01
 -1.4909053e+00
 -6.7236513e-01
 -6.3450308e+00
 -1.8767993e+00
  3.9355047e+00
 -9.5958924e-01
 -1.3675711e+00
 -3.0389590e+00
 -2.7369339e+00
  2.3665893e+00
 -8.2905388e-01
 -7.8956289e+00
  3.7608824e+00
  3.5218496e+00
 -4.3708873e-01
  1.1380231e+01
 -3.6054555e-01
  4.6511421e+00
 -2.4251759e+00
 -1.8754003e+00
 -4.8516278e+00
  3.0319700e-01
  3.8785927e+00
 -4.1084269e-01
 -2.7780302e+00
 -9.4480336e-01
  1.5335813e-01
 -1.2698876e+00
  2.5714297e+00
 -4.4914559e-01
  4.0905051e+00
 -1.1561707e+01
 -1.4489955e+00
 -5.9359694e-01
 -1.9455736e+00
 -1.5937610e+00
  1.2572577e+00
 -3.1327546e+00
  4.4398456e+00
 -1.8582480e+00
 -2.0296247e+00
 -1.2909843e+00
 -4.2082219e+00
 -1.6962487e+00
 -1.1351430e+00
  3.0589304e+00
  2.4895737e+00
  5.7306957e-01
  4.0831637e+00
 -1.0378214e+00
 -2.9729600e+00
  1.1025316e+00
  7.6063883e-01
 -3.0721097e+00
  1.8150885e+00
  8.5693938e-01
  3.0069747e+00
 -2.2448318e+00
 -1.4535083e+00
 -1.2583930e+00
  1.1065890e+00
  3.6243805e-01
 -3.4513947e-01
  2.5882473e+00
  1.9894196e+00
  3.5621841e+00
  8.6355692e-01
  1.0743188e+00
  2.2361755e+00
  3.2374823e-01
  4.3290684e-01
 -9.8230338e-01
 -2.2517564e+00
 -6.1671042e-01
  1.7640983e+00
  1.3468112e+00
  5.4397354e+00
 -6.1953485e-01
  1.0991459e+00
  8.6144191e-01
  4.8544736e+00
 -7.9020840e-01
  2.9903805e-01
  3.0864913e+00
 -1.2233285e+00
  1.1919794e+00
 -5.8521861e-01
  4.4307435e-01
 -2.3617609e+00
 -1.5121256e+00
  5.8781570e-01
  1.3417284e+00
 -5.3637705e+00
  2.3006825e+00
 -1.3197380e+00
 -2.4132919e+00
  1.1278729e+00
  2.6204529e+00
 -3.4827509e+00
 -7.8773731e-01
 -2.8986025e+00
 -5.1303596e+00
  2.0002289e+00
 -4.2333474e+00
  1.4769574e+00
 -1.0875057e+00
 -2.4129841e-01
 -1.2878988e+00
 -8.0487186e-01
  3.0347347e+00
 -1.7423521e+00
  4.5663724e+00
  2.6086038e-01
  7.7851760e-01
 -1.1992567e+00
  3.1744394e-01
 -2.6334054e+00
  1.7030345e+00
  1.9371203e+00
  3.6746507e+00
 -1.3535367e+00
  1.0466671e+00
  6.3160831e-01
  3.8968709e+00
 -2.3784509e+00
  4.7760878e+00
  3.2278353e-01
  1.4301094e+00
  9.2320337e+00
 -2.3535361e+00
 -9.4316590e-01
 -3.6411126e+00
  7.2925466e-01
  4.5263094e-01
 -1.6376749e+00
 -8.7049615e-01
  3.9754331e+00
 -9.4514275e+00
 -3.4970460e+00
  9.8102403e-01
  4.1586633e+00
  9.7297436e-01
  3.6539990e-01
  8.4424126e-01
 -1.0080987e+00
 -3.8615992e+00
 -4.7461903e-01
  5.7946759e-01
  2.3364174e-01
 -5.5732155e-01
  1.1934320e+00
  1.3597130e+00
  4.9928159e-01
  1.9622024e+00
 -1.2535322e+00
  3.9248052e+00
 -1.5045418e+00
 -2.2814343e+00
  5.4052811e+00
  3.9526367e-01
 -8.7379497e-01
 -1.0660616e+00
 -2.3555627e+00
 -1.3976781e+00
 -3.7961705e+00
 -6.8040776e-01
  1.6673506e+00
  1.6839111e+00
 -2.7536478e+00
  4.9830694e+00
  1.3999994e+00
  1.4990460e+00
  1.8429365e+00
  1.1768523e+00
 -1.9701514e+00
 -6.3356347e+00
 -5.4923749e-01
 -1.2691957e+00
 -7.3973256e-01
 -1.8033944e+00
 -1.7871263e+00
  4.4788213e+00
  1.6668451e+00
 -4.5518216e-01
  5.8600554e+00
  3.1942580e+00
 -2.6413703e-01
  1.6606442e+00
  3.2641652e-01
  1.5205381e+00
 -3.6630802e+00
  2.6550605e+00
  2.3723924e-01
 -4.5036116e-01
 -2.6616123e+00
 -1.6804365e+00
 -1.9929974e+00
 -2.0050588e-01
  6.1692405e-01
 -1.1210308e+00
  3.8757119e-01
 -3.0247593e-01
 -4.3364239e+00
 -1.8123590e+00
 -1.5656422e+00
  5.6824231e-01
  3.5382800e+00
  2.0896292e-01
 -1.0243746e+00
 -3.2615914e+00
 -3.3249636e+00
 -3.1095319e+00
 -9.7710848e-01
 -4.7208953e-01
 -3.5901874e-01
  3.6278894e+00
 -2.2328937e+00
 -5.0120192e+00
 -3.4535654e+00
 -6.9046134e-01
  1.1384537e+00
  6.9493413e-01
  1.1198230e-01
  1.2346379e+00
  8.6400199e-01
 -6.9236153e-01
  1.9530954e+00
  5.2185903e+00
  1.5090970e+00
  2.1547713e+00
  3.3824859e+00
  1.0095370e+00
  2.6327983e-01
 -7.4698555e-01
 -1.4174268e+00
 -7.4713979e+00
 -4.4289848e-01
 -2.6626799e-01
 -2.7315891e+00
 -1.2458261e+00
 -1.6618290e+00
  3.1138270e+00
 -2.9842663e-01
  1.0154628e+00
 -1.3490095e+00
  2.5366619e+00
 -2.2980626e+00
 -1.4962332e+00
  3.1251590e+00
  1.9948134e+00
  5.8403021e-01
  4.9702907e+00
  1.6429851e+00
  1.3200159e+00
  3.2040966e+00
 -5.0747576e+00
 -1.1805080e+00
 -1.7304698e+00
  1.2706429e+00
 -1.4349894e-01
 -3.0784039e+00
 -9.5215434e-01
  2.4404988e+00
 -2.2101517e+00
  5.7777910e+00
  3.3864543e+00
 -1.3412646e+00
  2.2899432e+00
 -2.6275067e+00
 -4.0126853e+00
  8.2845110e-01
  4.6228814e+00
  2.3524231e-01
 -2.0112720e+00
  5.9826422e-01
 -2.7804222e+00
  1.2668474e+00
 -2.6842179e+00
 -1.3285220e+00
  1.1403111e+00
 -3.5868359e+00
  9.2355633e-01
 -5.2327961e-01
 -2.1295054e+00
 -1.4273490e+00
 -1.6779628e-01
  6.6872960e-01
  2.1326473e-01
  1.3075017e+00
  4.0652471e+00
  4.3754120e+00
 -5.2205527e-01
  3.1819400e-01
  3.5162809e-01
 -7.2314191e-01
 -1.2868952e+00
 -1.7300726e+00
  3.0892744e+00
 -4.5811480e-01
 -3.6841412e+00
 -2.0284331e+00
  2.7221167e+00
 -4.6822205e+00
 -6.8265313e-01
 -2.0549994e+00
  3.8355453e+00
 -5.3384104e+00
 -2.4548168e+00
 -2.3030964e-01
  3.2386885e+00
 -8.7230420e-01
 -7.9116869e-01
 -9.0451610e-01
 -9.8969346e-01
  1.1024102e+00
  1.1123351e+00
 -2.0551157e+00
  1.2439673e+00
  1.3676001e+00
 -3.8608611e-01
 -3.0204913e-01
  2.1833832e+00
  6.3683099e-01
  3.2098070e-01
  1.0372696e+00
  3.7756711e-01
  8.8824832e-01
  2.9397485e-01
  1.4520968e+00
 -8.8115287e-01
 -2.8349537e-01
 -1.0175536e+00
  1.9047942e+00
 -8.5801214e-01
 -7.1474433e+00
 -3.9948478e+00
 -1.2203867e+00
  1.9554764e+00
  3.0603390e+00
 -1.5365747e+00
  7.0269012e-01
 -4.7631520e-01
  4.5922451e+00
  4.8175473e+00
 -1.3375446e+00
 -8.0640149e-01
 -7.5686059e+00
  2.4517179e-01
  6.9742638e-01
 -1.2004031e+00
  3.4193498e-01
 -1.3443366e+00
  2.9982467e+00
  2.2504997e+00
  1.3335921e+00
  7.6220781e-01
  4.3610859e+00
  7.2569066e-01
 -1.2062147e-01
  2.6581376e+00
 -3.7206855e-01
  8.8305157e-01
  1.0100166e-01
  2.3346984e+00
 -1.1181821e-01
  3.6054376e-01
  4.2109523e+00
  5.1288569e-01
  3.1200153e-01
 -6.7995512e-01
 -1.0664651e+00
 -7.5026383e+00
 -6.6285694e-01
 -4.2039328e+00
 -3.8313284e+00
  1.0883420e+00
  1.8278328e+00
  1.1815137e+00
  1.6140232e+00
 -6.0991955e+00
 -1.9186937e+00
 -7.6876813e-01
  6.9738632e-01
 -1.9367486e+00
 -9.8681867e-01
  1.0252191e+00
 -1.6760470e-01
  1.5550364e+00
 -3.5519728e-01
 -1.1042839e+00
 -3.1419167e-01
  6.1851459e+00
 -2.9279957e+00
 -1.7379880e-01
  5.9677595e-01
 -4.1760364e-01
 -4.1762271e+00
  8.8582945e+00
  8.8960350e-01
  2.7033169e+00
  2.6374636e+00
  1.5954413e+00
  1.3536730e-01
  1.3536730e-01
  1.3536730e-01
  1.3536730e-01
  1.3536730e-01
  1.3536730e-01
  1.3536730e-01
  1.3536730e-01
  1.3536730e-01
  1.1245549e-01
  1.1245549e-01
  1.1245549e-01
  1.1245549e-01
  1.1245549e-01
  1.1245549e-01
  1.1245549e-01
  1.1245549e-01
  1.1245549e-01
  1.0114449e-01
  1.0114449e-01
  1.0114449e-01
  1.0114449e-01
  1.0114449e-01
  1.0114449e-01
  1.0114449e-01
  1.0114449e-01
  1.0114449e-01
  4.0069237e-02
  4.0069237e-02
  4.0069237e-02
  4.0069237e-02
  4.0069237e-02
  4.0069237e-02
  4.0069237e-02
  4.0069237e-02
  4.0069237e-02
  7.5562179e-02
  7.5562179e-02
  7.5562179e-02
  7.5562179e-02
  7.5562179e-02
  7.5562179e-02
  7.5562179e-02
  7.5562179e-02
  7.5562179e-02
