nep3 2 C H 
cutoff 8 4
n_max 8 6
basis_size 8 8
l_max 4 0 0
ANN 50 0
 -1.3072519e+00
 -1.5154955e+00
 -9.9818408e-02
  5.6321698e-01
  3.0797515e+00
 -1.1781839e+00
  2.5231152e+00
  1.3305897e+00
  9.3522698e-02
  2.0911248e+00
  1.3220005e+00
 -1.6176633e+00
 -1.9086544e-01
 -2.0492477e+00
  2.6742071e-03
 -2.0603662e+00
  2.9729015e-01
  5.6103736e-01
  2.8419816e-01
  3.3543649e-01
 -1.4602214e+00
 -6.2920952e-01
 -5.1588470e-01
  3.8724859e+00
  1.7576523e-01
 -1.8149135e-01
  1.0133225e+00
  1.0770734e-01
 -2.6026132e+00
 -1.6341159e+00
 -2.6945963e+00
  2.9761952e-01
 -2.8110607e+00
 -8.8592017e-01
  6.5290499e-01
 -6.6861540e-01
 -5.3585219e-01
 -1.3643301e-01
 -9.8774564e-01
 -3.9773283e+00
 -2.0739081e+00
 -9.3099052e-01
  1.9648169e+00
  2.5584130e+00
  1.6677408e+00
  2.8374166e+00
  2.6260581e+00
  2.5376525e+00
 -5.8119659e+00
  5.8940268e-01
 -8.0900019e-01
 -1.1525387e+00
 -2.8635211e+00
  1.3808236e-01
  4.6511281e-01
 -7.0443416e-01
 -2.9359996e-01
 -1.1663042e+00
 -1.1151800e+00
 -2.4599142e+00
  6.0125166e-01
  6.8839723e-01
  1.8896773e-01
  1.7883426e+00
 -3.7660089e+00
  7.0799366e-02
  2.9616475e-01
 -5.9309082e+00
 -4.5969829e-01
 -7.2473359e-01
 -1.2894022e+00
 -4.2657807e-01
  5.6044281e-02
 -3.0416790e-01
 -7.2870356e-01
  1.8911388e+00
 -8.2608914e-01
  1.1720724e-01
 -1.9422265e+00
 -1.1468564e+00
  5.7807755e-01
 -8.6435032e-01
  6.0193986e-01
  2.6267784e+00
 -6.1685854e-01
 -7.4318480e-01
 -3.7876433e-01
 -2.0536225e+00
 -1.9868273e-01
 -6.1542511e-01
 -3.2218701e-01
  3.2030362e-01
 -1.0384730e-01
 -1.2551258e+00
  7.6495057e-01
  9.2792737e-01
  1.3922137e-01
  1.9840804e-01
 -3.1905273e-01
  2.8450134e-01
 -1.5824695e-01
 -1.0280118e+00
  6.1792576e-01
 -1.3285915e+00
 -1.5254825e-01
  1.6442826e+00
 -1.1817583e+00
  1.5146327e-01
  5.3519994e-01
 -7.3146832e-01
 -9.6364051e-01
 -2.3759678e-01
 -1.7633426e+00
  1.3371556e+00
  3.8242251e-01
  2.5537425e-01
  3.0616871e-01
 -5.1342076e-01
 -1.4220064e+00
 -3.0913967e-01
  4.4705361e-01
  1.4936699e+00
 -2.8188252e-01
 -5.9239769e-01
 -1.2248383e-01
  3.7205331e-02
  7.5389850e-01
  1.1079404e+00
 -2.2065325e+00
 -1.7304856e-01
 -2.2173707e-01
  2.8199947e+00
  1.3862498e-01
  4.3414822e-01
 -3.4204143e-01
  2.0793715e+00
 -1.8759598e+00
 -6.6143811e-02
  1.0588712e-01
  2.8991598e-01
 -7.9057986e-01
 -3.9712477e-01
  7.8200603e-01
 -2.1890022e-01
  6.1067915e-01
  1.5944403e+00
 -4.4824845e-01
  1.4431888e-01
  7.6614290e-01
 -2.1512704e-01
 -8.8580531e-01
  1.6648500e+00
  8.5747373e-01
 -2.7756226e-01
  2.6546332e-01
  1.7365941e+00
  9.6282655e-01
 -1.3880128e+00
  4.6116619e+00
 -1.8860233e+00
  8.3109051e-01
  4.3969366e-01
 -7.7405900e-01
 -8.1344092e-01
 -3.1794080e-01
 -1.5995514e+00
 -9.5186990e-01
  1.0245007e+00
 -6.5302539e-01
  8.4022790e-01
 -1.5028682e+00
 -4.9299839e-01
  1.5574261e+00
  1.1952906e+00
  4.3058449e-01
 -2.2452427e-01
  2.0302996e-01
 -6.5851998e-01
  4.6445042e-01
 -4.7198820e-01
 -1.8427296e+00
 -1.2142088e+00
 -1.2550128e+00
 -7.4678361e-02
  1.9117796e-01
  2.5637248e-01
  2.9506862e-02
  4.1877061e-01
  1.0276728e+00
 -1.2630529e+00
  1.3454355e+00
  1.4427527e+00
 -2.0482215e-01
  2.0455855e-01
 -1.7292593e+00
 -2.4759784e-01
 -5.2132219e-01
  1.3028840e+00
 -8.4645158e-01
  1.4437541e+00
 -1.3775235e-01
  1.1513070e+00
 -1.5891425e-01
  9.7313464e-01
 -2.5933346e-01
 -3.0436227e-01
  1.0003673e+00
  2.4097522e-01
  3.3839127e-01
  1.2979436e+00
  1.6090289e+00
 -7.2041959e-01
  8.3291483e-01
  8.7156487e-01
  7.5591534e-01
  1.0884752e+00
 -6.7022502e-02
  5.2955009e-02
 -1.5767111e-01
  1.3703250e+00
 -3.0224302e-01
  1.7987964e-01
 -6.8376762e-01
 -1.0456747e+00
  2.1772401e+00
 -1.7163844e+00
  9.8079032e-01
 -1.4129721e+00
 -7.0899576e-01
 -1.5095792e+00
  9.0956998e-01
  1.2415129e+00
  2.8972640e+00
 -5.2477252e-01
 -1.6889439e+00
  3.2796774e+00
 -8.2141805e-01
 -5.8004391e-01
  3.5279918e-01
  3.3960545e-01
  1.2920997e+00
 -1.2223008e+00
  6.0601664e-01
 -1.7060642e+00
 -1.5239090e-01
  2.6854064e+00
 -1.6120062e+00
  1.4143978e-01
  7.2270983e-01
 -5.5485666e-01
 -7.0184195e-01
 -1.1243590e-01
 -1.7473539e+00
  2.4498904e+00
 -6.5870118e-01
 -4.0824118e-01
 -5.3717583e-01
  1.8136565e-01
  9.2537475e-01
 -2.1713635e-01
  7.0884746e-01
 -1.7698964e+00
 -5.3658164e-01
  5.4985958e-01
 -1.4270079e+00
  3.2027441e-01
  1.3077091e-01
 -5.2364618e-01
 -4.1846529e-02
 -9.4320156e-02
  4.8767948e-01
 -1.0319947e+00
 -2.1543060e-01
 -1.8761461e+00
  1.5099831e+00
 -3.4418204e+00
  3.9612778e-02
 -6.5331322e-01
 -1.4642076e-01
 -9.8548192e-01
 -1.6597115e+00
 -2.2151368e+00
  1.9433334e+00
  6.2459338e-01
 -2.0300066e+00
 -1.3936334e+00
 -1.3001748e+00
  1.3999492e+00
  1.6337188e-01
 -2.1597030e+00
 -1.3134441e-01
 -7.4449396e-01
  1.7325693e-01
  2.2154417e+00
  1.0048816e+00
 -6.9387293e-01
 -1.0209477e+00
 -1.3410351e+00
  2.5751836e+00
  1.4709080e+00
 -2.0283750e-01
  1.9131356e+00
 -4.4184971e+00
 -3.4241304e-01
 -1.3405073e+00
  1.6371022e+00
 -2.0340667e+00
 -9.7731358e-01
 -1.2553666e+00
  4.5501938e-01
  2.4823911e+00
 -7.2794795e-01
  1.6059327e+00
 -1.3832746e-01
  8.4154791e-01
 -1.3314661e+00
 -2.3339649e-01
  3.0637768e-01
 -3.6602598e-01
 -2.1785519e-01
 -1.5917727e-01
  1.2208723e-01
 -1.4957689e+00
  1.4540865e+00
 -8.7534878e-03
 -1.3771495e+00
 -1.7658454e-01
  2.8925237e-01
 -5.5482638e-01
  6.3411021e-01
 -7.9215986e-01
 -2.4140206e-01
  3.0446273e-01
  3.0433497e+00
 -3.3023419e+00
  1.4742287e+00
  1.7506161e+00
  6.0520619e-01
 -1.0016590e+00
 -2.8090808e-01
 -4.7445276e-01
  2.2536513e-01
  4.7776055e-01
  6.8483621e-01
  1.6251103e+00
  2.0817453e-01
 -1.8223590e+00
  3.5715929e-01
  2.2318317e-01
 -4.6103770e-01
  4.7226347e-02
 -1.1247467e+00
  7.0860147e-01
  7.2981723e-02
 -8.1647068e-02
  1.3114991e+00
  2.0653710e-02
  2.1316698e+00
  1.5073831e+00
 -7.9987872e-01
  8.5776502e-01
 -3.2981792e-01
  1.3510253e+00
  1.6893177e+00
  8.2408205e-02
  1.5097795e+00
  5.3368825e-01
 -4.9289125e-01
  1.2776867e-01
  3.1574726e-01
  2.3564400e-01
  1.4530285e-01
 -2.2000096e+00
  5.1574004e-01
 -9.5695490e-01
 -1.9150689e-02
 -3.0506811e-01
 -6.3914925e-01
  2.9619300e+00
  2.4911208e-01
 -2.1656767e-01
  1.7836729e-01
  1.5765287e+00
 -1.4308272e-01
  2.6164979e-01
 -1.1739970e+00
 -5.8874376e-02
  2.4613879e+00
  1.2380354e+00
  1.0038084e+00
  2.2460300e-01
 -3.1488150e-01
  1.1479616e+00
 -7.8863844e-02
  1.2864165e+00
 -5.0052297e-01
  2.3052011e+00
 -7.8164154e-01
 -8.7620556e-01
 -4.9410611e-01
 -1.6851900e+00
 -1.0195274e+00
  7.0185047e-01
  1.5373462e+00
 -1.9201827e-01
 -8.2545245e-01
  2.0338554e+00
 -9.8114866e-01
  9.5610410e-01
 -7.5248635e-01
  1.0844258e+00
 -3.9612145e+00
  5.7102942e-01
 -3.3278012e-01
  7.2771013e-01
  1.8278395e+00
 -6.6035247e-01
  2.9905510e+00
  2.4760571e-01
 -1.2806423e+00
 -8.9915502e-01
  1.1539131e+00
  9.7126055e-01
 -2.2846167e+00
 -3.6662214e-02
 -2.1148243e+00
 -4.4952792e-01
 -3.4588568e+00
 -2.3661160e+00
  3.6044329e-01
  5.0908871e-02
  2.2100406e+00
  5.8689994e-01
 -1.1127672e+00
  6.3879995e+00
 -9.3322057e-01
 -1.6989030e+00
  7.5409007e-01
  2.1723359e+00
  9.8608780e-01
 -8.1450924e-02
  4.8267680e-01
 -4.2467985e+00
  1.3326198e-01
 -2.6846007e-01
  5.4518837e-01
  4.0938789e-01
 -7.6001650e-01
 -9.4861799e-01
  2.4115239e-01
 -1.4686465e+00
 -1.6462327e+00
  1.6765023e+00
 -7.0698339e-01
 -1.9883866e+00
  1.1204188e+00
 -3.9983496e-01
  1.9402306e+00
  5.0968760e-01
 -1.9471887e-01
 -1.2402999e+00
 -1.6344888e+00
  1.1548831e-01
 -1.6873643e+00
 -2.6679701e-01
  4.0605459e+00
 -1.3794649e+00
  5.3948683e-01
 -9.3661916e-01
  1.6060768e-01
  7.1057335e-02
  5.0839150e-01
  4.8870155e-01
 -7.4035421e-02
  1.3726717e+00
 -1.7242645e+00
  1.4800031e+00
 -4.1345149e-02
  5.4591632e-01
 -8.3521038e-02
  1.4836433e+00
 -1.0499352e+00
  1.6920187e-01
 -2.0046096e+00
 -1.6580405e+00
 -1.3782915e+00
  9.5376229e-01
 -1.1541692e+00
 -2.6870736e-01
 -3.9228194e+00
  5.7386386e-01
  5.8223635e-01
 -6.0878831e-01
 -1.0672398e+00
  5.7622451e-01
  8.8419586e-01
  6.4732367e-01
  4.7963338e+00
 -4.4579263e+00
  2.9676807e+00
  3.5401156e+00
 -1.4209347e+00
  1.7431120e+00
 -3.4602910e-01
 -2.6537392e-01
 -1.1392237e+00
  3.1166130e-01
 -1.0759201e+00
 -1.4231473e-01
  1.8956261e+00
  7.5077337e-01
  4.3320274e+00
  3.4203254e-02
  3.5248027e+00
 -1.4315787e-01
  9.1757411e-01
 -2.4231443e+00
  1.4829578e+00
  5.5276304e-01
  9.5170963e-01
 -1.8232648e+00
 -1.2980157e+00
  3.7829006e+00
  1.1540433e+00
 -5.9464943e-01
 -1.2351186e+00
  7.0765036e-01
 -1.6641121e+00
 -7.0634581e-02
  7.5558472e-01
  1.3927950e+00
 -1.4834515e+00
 -8.2565323e-02
 -1.9589728e+00
 -3.6603338e-01
 -1.9798633e-01
  9.5971361e-02
 -5.4950528e-02
  2.3322165e+00
 -2.0897155e+00
  9.3542814e-01
  6.7897439e-01
  9.4129986e-01
 -1.0816767e-01
  6.4236678e-02
 -2.7930391e+00
 -1.2409047e+00
 -5.6210065e-01
  7.7915162e-01
 -2.8586313e-01
  8.9995545e-01
  4.3672356e-01
 -5.7158279e-01
 -1.0387774e+00
  5.5048501e-01
 -1.8610579e-01
 -4.6599063e-01
 -7.4245244e-01
 -3.2992885e+00
 -9.6052539e-01
 -1.7458967e+00
  4.9868718e-01
 -1.2586782e+00
  9.3882307e-02
  3.8548276e-01
  1.6537673e+00
  1.6207088e+00
 -1.1014280e-01
  1.7834544e-01
 -7.7560151e-01
 -1.0446289e+00
 -5.5830300e-01
  2.0603456e+00
  6.6011482e-01
 -2.3110364e-01
  2.5186844e+00
 -2.8646255e+00
 -5.5847436e-01
  3.2753484e+00
  7.6959170e-02
  2.4154662e-01
  2.2424984e+00
  3.9423490e-01
  2.3967174e-01
 -4.4514346e-01
 -7.2351656e+00
  3.7438505e+00
  3.7827688e-01
  7.7159576e-02
 -1.1447783e+00
  7.8552648e-02
  1.7002130e+00
 -7.6003319e-01
 -2.4190784e-01
 -2.6325326e+00
  4.7529426e-01
 -1.5146571e+00
  5.8055055e-01
  3.7327123e-01
  1.5120161e+00
  5.8292097e-01
 -5.1239341e-01
 -6.1402553e-01
 -3.3689198e-01
 -2.1146145e-01
 -4.7311407e-01
 -1.3131465e-01
  8.3585852e-01
  9.1716254e-01
 -4.6040125e+00
  2.4554218e-01
  4.4995373e-01
  5.8829463e-01
  2.9914963e-01
  2.3588969e-01
 -5.5928952e-01
  1.2878944e+00
  2.7113974e-01
 -1.7258554e+00
 -1.9620723e-01
  2.5753157e+00
  1.6420221e-01
 -1.7621931e-01
  1.2741445e-01
  1.0687431e+00
 -4.8811507e-01
  3.0905706e-01
  1.4626215e+00
 -1.1038288e-01
 -4.3847809e+00
  2.4064718e-01
 -1.5537156e+00
  2.8617659e+00
  1.7097410e+00
  8.6981052e-01
  5.6532824e-01
  4.9432644e-01
 -1.6702667e+00
  3.6097834e+00
 -3.3685327e+00
 -2.3893009e-01
 -8.5892653e-01
 -1.9122273e+00
  7.2416568e-01
  1.4165412e+00
  1.3037062e+00
 -2.6345694e-01
  1.4905139e+00
  6.8804693e-01
  1.1019127e+00
  7.5720257e-01
 -1.1171135e-01
 -1.0253656e+00
 -2.9848728e-01
 -2.2774681e-01
  2.0492038e-01
 -6.9659817e-01
 -1.2347586e+00
  6.5098077e-01
 -4.0052819e-01
 -5.8962679e-01
  1.7052978e-01
  1.1348354e+00
  6.7734420e-01
 -8.4415942e-01
  5.8423859e-01
 -1.7003771e+00
  7.4174422e-01
 -2.4989423e-01
  1.0668095e+00
 -3.9222258e-01
  5.1276555e+00
  4.7394490e-01
  4.3466979e-01
  8.3485490e-01
 -1.9528396e-01
 -4.6243930e-01
 -1.7032897e-01
 -1.0799816e+00
  2.6158354e+00
 -1.7956179e+00
  8.9358717e-02
 -1.8879735e+00
  9.6655500e-01
 -1.6592479e+00
 -1.7814320e+00
 -1.3660279e-01
  5.8293447e-02
  1.3370348e+00
  1.0128053e+00
 -1.6555209e+00
  1.3617975e-01
 -2.1956687e+00
 -3.4283400e-01
 -1.3517836e-01
  3.8047748e+00
  1.8608965e+00
 -5.0667691e-01
 -2.0890598e-01
 -6.1416793e-01
 -5.5533433e-01
 -3.0369298e+00
 -5.7082224e-01
 -3.1265001e+00
  3.5113007e-01
  4.0580857e-01
  2.1554377e+00
  1.9768174e+00
 -2.3828223e+00
  1.0237789e-01
  5.0371766e-01
  7.1481889e-01
 -5.6667447e-01
  1.0371097e+00
  6.2788598e-02
 -1.0116570e-01
 -3.7190074e-01
  1.1310585e+00
 -1.2451229e+00
 -6.9151807e-01
 -3.0729291e+00
  5.9327161e-01
  7.6962745e-01
  1.2451094e-01
  4.8490566e-01
 -2.2319045e+00
 -7.4049437e-01
  1.3466319e+00
 -1.4723525e+00
 -2.5753406e-01
 -3.4986088e-01
  3.5031062e-01
  3.1538695e-01
 -6.6970772e-01
 -3.9820831e+00
 -6.8095699e-02
 -1.3767456e+00
 -1.1520311e-01
  2.2896311e-01
  2.1314905e+00
 -2.8094146e-01
  2.2024407e+00
 -1.0720813e+00
  1.8862435e+00
 -1.0739350e-01
  7.9206443e-01
 -4.5525488e-01
 -2.7426054e+00
  6.6889685e-01
 -8.7516576e-02
  5.1278228e-01
  3.6954930e-01
 -1.9220569e+00
  7.6288295e-01
 -6.9805741e-01
 -4.2072421e-01
 -1.8760931e-01
  8.5688722e-01
 -3.4579867e-01
  2.4978105e-02
 -1.0656705e-01
  9.7457391e-01
  2.1334293e+00
 -5.7908088e-02
  1.5177906e-01
 -1.3808510e+00
 -1.6946535e-01
 -2.0860687e-02
  2.1416223e+00
  5.8089714e-02
  1.6330547e+00
 -1.4895805e+00
  1.1070467e+00
  7.5144164e-02
 -4.9587950e-01
  7.3201835e-02
  2.0849958e-02
  9.9151957e-01
 -1.0439188e+00
  1.2377647e+00
 -7.6109076e-01
  1.9555187e-01
 -1.1256393e+00
 -1.3789401e+00
 -3.0311251e-01
  1.2697906e+00
 -3.1771430e-01
  1.4411512e-01
 -3.1062299e-01
 -4.9890649e-01
  8.1628627e-01
 -1.8903445e+00
 -7.4971423e-02
  4.0478015e-01
  7.6614219e-01
  5.0266773e-01
 -5.0394326e-01
  1.3509859e-01
 -1.3589038e+00
  3.4778774e-01
 -6.2620455e-01
 -1.2901978e+00
 -1.2238946e+00
  7.5260413e-01
 -6.6447496e-01
  4.4743605e-02
  2.8012128e+00
  1.0639556e-01
  1.3182745e+00
 -2.4932122e-01
 -5.4927403e-01
 -3.1417496e+00
  8.1175423e-01
 -2.1272562e+00
 -1.8662144e+00
  1.5131700e-01
 -1.4205989e+00
 -1.8851526e-01
 -6.3954461e-01
  7.9040349e-01
 -5.5850542e-01
 -2.6513228e+00
 -1.6891743e+00
 -1.4216879e-02
  5.8972579e-01
 -8.6664522e-01
 -1.1132269e+00
 -1.8510151e+00
  1.7580748e+00
  1.8577012e+00
  1.2552009e+00
 -8.6161685e-01
  1.5162508e+00
  1.9111806e+00
 -1.7228451e+00
 -2.4141932e+00
  1.4254555e+00
 -2.3159614e+00
  6.8979496e-01
 -7.4516362e-01
  2.5657849e+00
  3.6848910e+00
 -1.1113597e-01
  2.2043771e-01
  1.3020567e+00
 -7.8449196e-01
 -8.3758092e-01
  1.0835950e+00
 -2.5130703e+00
 -8.9294791e-02
 -2.5109252e-01
 -1.7711396e+00
 -1.4055241e+00
 -1.2341952e+00
 -1.5221136e+00
 -2.3054423e+00
  1.9281515e-01
 -1.9239161e+00
 -3.3543396e-01
  6.5793234e-01
  2.6687653e+00
 -2.4043265e-01
  3.9080770e+00
 -3.2255392e+00
 -3.6097913e+00
  1.0350355e+00
 -1.4792861e-01
  3.4130602e+00
 -1.1732488e+00
  2.0492573e-01
  3.2365365e+00
  1.0114652e+00
  1.9512421e+00
 -3.0577343e+00
  1.2878069e+00
 -3.3217518e+00
  1.8167688e+00
  1.6278301e+00
 -5.4270047e-01
 -2.2742810e+00
 -3.1024511e+00
  2.6387733e-01
  6.3690948e-01
 -3.5870624e+00
 -1.3562146e-01
 -2.1821247e-01
  1.5842864e-01
  9.1311133e-01
 -1.4046310e+00
 -5.0332582e-01
 -3.2691324e+00
 -3.6602955e-02
 -1.8541036e+00
  1.7009063e+00
  1.4746512e+00
  5.1418406e-01
 -1.0164394e+00
  3.8792808e-02
 -1.9905094e+00
 -2.2979622e+00
  5.0259542e-01
  3.5514364e+00
  2.8825915e-01
 -2.6894846e+00
  2.8804626e+00
  1.2946137e+00
  5.6185681e-01
 -5.4105490e-01
 -8.1604034e-01
  9.0707392e-01
  6.2091179e-02
  8.2695979e-01
  3.0502969e-01
  3.3059947e+00
  3.1492859e-01
 -2.8001888e+00
  6.5274291e+00
 -1.0594175e+00
  1.0039620e+00
 -6.6282946e-01
  8.7687683e-01
  1.8232863e+00
  2.0019357e+00
 -2.4324864e-01
  9.8757482e-01
 -2.7284606e+00
 -3.2348543e-01
  4.5034131e-01
  4.8109969e-01
  3.5045481e-01
  9.1656166e-01
 -6.2328994e-01
 -2.8584039e-01
  1.2551479e-01
  2.0785208e+00
 -2.0651165e-03
  5.2389956e-01
  1.3974868e+00
  2.8507171e+00
  2.9341656e-01
  9.0536978e-03
 -1.6135259e+00
 -6.2407774e-01
  1.3698833e+00
 -8.7572283e-01
  1.7362893e+00
 -1.9187835e-01
  1.5375061e-01
 -6.8537116e-01
  9.2758805e-01
  4.4762051e-01
 -2.9217956e+00
  2.0910823e+00
  3.2566971e-01
 -1.8422017e+00
  6.8063915e-01
 -1.6280168e+00
  4.2543575e-01
 -2.5780503e-02
 -7.9342014e-01
 -1.7903501e-01
  1.2800313e+00
  8.9743006e-01
  1.6779115e-02
 -7.7990383e-01
 -3.8827839e-01
 -2.1685677e+00
  2.2100101e+00
  2.1858492e+00
 -4.2894268e-01
  3.7780961e-01
  7.1207696e-01
 -5.2236624e+00
  1.3799793e+00
 -3.9220130e+00
 -1.0493965e-01
 -1.8330898e+00
 -3.0876203e+00
 -1.4467826e-01
  1.3384453e+00
 -2.4576418e+00
 -4.9264207e-01
  4.6271366e-01
  1.7712241e+00
  2.6210265e+00
 -2.0184588e+00
 -3.8249881e+00
  1.4656616e+00
 -6.4857823e-01
 -2.0416491e+00
 -3.1530184e-01
 -2.7203553e+00
 -3.0249865e+00
 -3.6829840e-03
 -1.3709092e+00
 -1.5736489e+00
 -5.8826625e-01
 -1.3447320e-01
 -1.2936678e+00
 -1.4731531e+00
  7.7017194e-01
 -5.3595388e-01
  6.9379795e-01
 -2.6210210e-01
  1.5403518e-02
 -2.7035749e-01
 -2.1485775e+00
 -2.3780149e-01
 -4.5381498e-01
  1.1522608e+00
 -1.9574037e-01
 -9.3728328e-01
 -7.8524107e-01
  1.6321692e-01
 -2.3883265e-01
  2.3436584e+00
  1.3121102e+00
 -1.5996305e+00
 -3.9185452e+00
 -7.9141688e-01
 -1.4665964e+00
  6.0105842e-01
  2.7001196e-01
  2.6989859e-01
 -5.8704150e-01
  6.6410720e-01
 -6.1111248e-01
  1.7302184e+00
 -1.3427448e-01
 -1.9659404e-01
 -1.4832981e-01
 -1.8187618e-01
 -1.3617420e+00
 -6.0511559e-01
  3.3111382e-01
  1.7329707e+00
 -1.2714937e+00
 -1.9872175e+00
 -4.6600550e-01
 -1.0892061e+00
 -6.7512858e-01
  7.2954684e-01
 -7.6117718e-01
  1.1943313e+00
  2.8274193e-01
 -2.0647163e+00
 -2.3800983e+00
  2.1205734e-02
  2.3060496e+00
  2.8834755e+00
  3.2199080e+00
  2.9815979e+00
  1.0384532e+00
 -1.7102532e-01
 -2.1999288e-01
  1.2676347e+00
 -1.6036658e+00
 -6.2745786e-01
  1.7409337e+00
  5.3489834e-01
 -3.7099984e+00
  3.0156329e-01
  4.0840435e-01
  4.5324297e+00
 -3.1760242e+00
 -2.9110706e-01
  5.7833505e-01
  3.2735247e-02
 -9.7102180e-02
  2.6231573e+00
 -9.9622303e-01
 -1.1917812e+00
 -6.6115928e-01
  2.6359070e-02
 -5.4878694e-01
  6.6676605e-01
 -1.1899266e+00
  1.8592480e-01
 -7.4537766e-01
 -4.3060145e-01
 -5.4551703e-01
  1.9547653e-01
 -6.3292778e-01
 -1.4425523e+00
  2.7875822e+00
 -3.2794590e+00
  1.9560317e-03
 -1.6567122e+00
 -1.1169176e-01
 -3.8556063e-01
 -1.2332331e+00
 -1.6930752e+00
 -5.2739072e+00
 -1.3157753e+00
 -1.4834978e-01
  9.7136456e-01
  1.0864115e+00
 -1.6582391e+00
 -2.3032386e+00
  4.1853914e+00
 -9.0754402e-01
 -1.0929520e+00
  1.3285069e+00
  4.1674876e-01
 -1.9816351e+00
 -8.2848722e-01
 -2.0902214e+00
 -3.2284734e-01
 -1.2031603e+00
 -1.0019445e-01
  1.6474226e+00
 -1.0716879e+00
 -2.1351479e-01
 -8.5985690e-02
 -2.1111719e-01
  3.2788289e-01
  5.4136050e-01
  1.7342830e+00
  3.9549932e-01
 -4.6987766e-01
 -8.0540645e-01
 -2.3982884e-01
  3.0026352e-01
  1.7828587e+00
  3.5110754e-01
  1.2116686e+00
 -2.1512661e+00
 -1.4126165e-01
  3.5936990e+00
  1.4089799e-01
 -5.8429891e-01
 -4.5472649e-01
 -1.2620867e+00
  5.9798855e-01
  4.0845150e-01
 -3.8094881e-01
 -7.7118248e-01
  1.8853211e+00
 -1.2341374e+00
  1.1636165e+00
  1.6585677e+00
  4.5661792e-02
  7.8383392e-01
  7.4408406e-01
 -1.6857258e+00
 -1.6201016e+00
 -6.7294818e-01
  8.3378279e-01
  1.5083317e+00
  2.8437352e+00
 -2.9767833e+00
  5.3520346e-01
 -2.2957470e-01
 -2.6234396e+00
  3.0752683e+00
 -3.7162943e+00
 -1.3739897e+00
 -2.1921496e+00
  5.5378065e+00
  1.2632769e+00
 -1.4642633e-02
 -1.7484565e+00
 -1.1742158e+00
  1.1794941e+00
  9.6875805e-01
  1.4138336e+00
 -2.2240479e+00
  1.1132311e+00
  8.4248656e-01
  1.0738405e+00
  2.1723382e-02
 -4.2683935e+00
 -3.9643613e-01
  1.1809144e+00
  2.8132465e+00
  2.2861211e+00
  1.1288124e+00
  1.8380921e+00
  7.7310830e-01
 -1.0851022e+00
  6.9105172e-01
  2.5318451e+00
  7.8676170e-01
  1.7420907e+00
 -4.4802952e-01
 -1.2807361e+00
  4.9921095e-01
 -1.7512153e+00
  5.6278425e-01
 -4.1109079e-01
  1.2647530e+00
  2.9883044e+00
  1.5535704e+00
  1.4105265e+00
 -1.4296739e+00
  3.2021694e+00
  1.1507201e+00
  2.7203927e+00
 -1.2587076e-01
 -7.1996289e-01
  1.3962089e+00
  2.8435130e+00
 -7.5481254e-01
  3.6025092e-01
  6.3782185e-01
  7.9794014e-01
 -1.8219862e+00
  8.1010622e-01
  5.0472820e-01
 -9.0645993e-01
  1.1356013e+00
 -4.5235941e-01
 -2.0094273e+00
  6.1528397e-01
  4.0134106e+00
  4.7641268e+00
  3.1313248e+00
  1.7624754e-01
  2.5147519e+00
 -1.4799552e+00
  7.5486642e-01
 -4.4217691e+00
  1.0555109e+00
  5.6144768e-01
 -6.6484731e-01
 -4.5532100e-02
  7.6890367e-01
  8.6211413e-01
 -4.6889329e+00
 -3.0927184e-01
 -3.3684857e-02
  1.4407265e-01
 -9.6199793e-01
 -4.2691422e-01
  7.5838512e-01
  2.3764715e-01
 -7.2514564e-02
 -9.8582900e-01
 -1.1694041e-01
 -9.5147693e-01
  9.4577754e-01
 -9.4534868e-01
  8.0919015e-01
 -2.8818327e-01
  2.0393794e+00
 -1.4985816e+00
 -3.6145346e-03
  1.7606094e-01
 -2.9293367e-01
  4.0071827e-01
 -2.4944403e+00
 -7.0223057e-01
  4.8583727e-02
 -8.5225999e-03
 -8.8229549e-01
  1.1612068e+00
  2.4007633e-02
 -1.0765172e+00
  4.8174191e-02
  1.6004590e+00
 -9.7974569e-01
 -2.1835957e+00
  2.4920723e+00
 -1.5321122e+00
 -2.5215396e-01
  1.3969920e+00
 -2.7019200e-01
  2.4740505e+00
 -6.6862535e-01
 -6.1639136e-01
 -9.4772726e-01
 -3.8309538e+00
  8.9334136e-01
 -5.0948694e-02
 -2.1100013e-01
  1.4924198e+00
  1.4913108e+00
 -3.6295378e+00
  1.7771360e+00
 -2.8338867e-01
 -5.1612163e-01
  2.1779342e+00
 -6.9365954e-01
 -4.0115416e-01
  3.0530179e-01
  8.6029530e-01
  5.9405472e-03
  8.7037587e-01
 -2.0341280e+00
 -3.1274182e-01
 -1.4148760e+00
  1.9912466e-01
  9.4870460e-01
  1.2843057e+00
 -2.3227799e+00
  8.6104900e-01
  1.4731966e-02
 -8.6959672e-01
  6.2825555e-01
 -4.8836154e-01
 -5.3399259e-01
 -1.9292513e+00
  2.6171616e-01
 -3.8757262e-01
  7.6737493e-01
  4.8858216e-01
 -7.2811395e-01
  1.3039696e-01
  7.6989895e-01
  8.3729690e-01
  1.2377595e-01
  6.0229194e-01
 -2.2417073e+00
 -1.5708039e+00
 -2.4007742e-01
  2.1268663e+00
  5.3845000e-01
  7.0329070e-01
 -1.1215837e+00
  2.2876498e-01
 -1.1756608e+00
  3.9434594e-01
  1.2143805e+00
 -1.3827046e+00
 -9.5471598e-02
  2.0990995e-01
 -1.8198130e+00
  2.8037247e-01
 -1.5349761e-01
  2.2640576e+00
 -2.6963668e+00
  1.2169912e+00
  1.1148299e+00
  9.7644454e-01
 -3.2367089e-01
 -2.4912849e-01
 -7.0512086e-01
 -2.3746591e+00
 -7.5512016e-01
 -9.4827396e-01
  1.1222590e+00
 -7.7067769e-01
 -1.0409110e+00
  1.0300533e-01
 -5.7123071e-01
  4.3943715e-01
  9.3933868e-01
 -8.8765997e-01
 -2.0106830e-02
 -7.6170081e-01
  2.7202767e-01
 -1.9135742e+00
 -3.7229449e-02
  1.9570678e-01
  1.8451880e+00
 -8.2213765e-01
 -3.4014210e-01
  2.4249163e-01
 -1.0653636e+00
  9.9967551e-01
  7.6535302e-01
  4.9463809e-01
 -5.2017224e-01
  8.2517141e-01
  1.5157455e-01
  1.5987459e-01
  7.5869703e-01
  7.6089460e-01
  1.0553663e+00
  8.7753290e-01
 -3.2995306e-03
 -8.5808486e-01
  2.2482033e+00
  6.7637360e-01
  1.5364829e+00
 -9.8113084e-01
  1.4848942e+00
 -1.4143565e+00
 -1.7059482e+00
  1.4275682e-01
  3.2089384e+00
 -1.3266875e+00
 -5.0090593e-01
  9.4901115e-02
  5.1774406e-01
 -2.1701616e-01
 -1.5886277e+00
  1.5382003e+00
 -4.8541617e-01
 -1.0290736e-01
  2.3603954e+00
 -3.0532497e-01
 -1.9164287e+00
 -1.0888948e+00
  4.5730788e-01
  2.0852094e+00
 -3.5512648e+00
 -1.1471581e+00
  1.4853795e+00
  3.7820700e-01
  3.2304490e-01
 -1.9644381e+00
 -1.7767917e-01
  9.1074473e-01
  1.2183979e+00
  8.9350879e-01
  1.1556163e-01
 -2.2587988e+00
  1.3346508e+00
 -3.2865763e-01
 -2.5217026e-01
 -1.0813635e-01
 -1.8878493e+00
  8.4258169e-01
 -1.2438264e-01
  5.3658366e-01
  3.3787699e+00
 -6.0352693e+00
 -7.1634054e-01
  1.9099627e+00
 -8.5903794e-01
  8.4103900e-01
  1.4099323e+00
  1.9891143e+00
 -8.0653095e-01
  6.8016315e-01
 -2.3828335e+00
  2.7807324e+00
  1.6283005e+00
 -1.9560353e+00
  4.0547218e+00
  1.7358929e+00
 -3.3301966e+00
  1.2193422e+00
  2.8681970e-01
  7.0465499e-01
  4.1882330e-01
 -5.6515044e-01
  1.2564248e+00
 -1.1392406e+00
  1.2731450e+00
  1.7410495e+00
  1.4930147e-01
  1.1193216e+00
 -2.4893680e-01
  3.4952154e+00
 -4.4076180e+00
 -1.2068479e+00
  4.6384570e-01
  3.4702846e-01
  7.1874905e-01
  7.8397471e-01
  1.5414212e+00
 -2.7458689e-01
 -7.2330010e-01
 -3.8038783e+00
 -4.0657902e+00
  1.2215017e+00
 -8.9639068e-01
 -2.7533824e+00
 -7.2924566e+00
  2.5971308e+00
 -8.0075508e-01
 -3.9746222e+00
 -2.7088755e-01
 -2.6898822e-03
 -6.8307388e-01
 -9.5523190e-01
 -1.1652924e+00
  2.1228330e+00
  7.5921290e-02
  7.7250016e-01
  1.5086218e+00
  7.4975419e-01
 -3.3949656e+00
  3.7683865e-01
 -1.8239393e+00
 -1.7380801e-01
  1.3425487e+00
  1.2181680e+00
 -7.9565847e-01
  3.5176817e-01
  1.2563274e+00
  7.2079062e-01
 -1.1706702e+00
 -3.6913154e+00
  2.0547828e-01
  4.7781863e+00
 -1.7771015e-01
 -1.3752323e-02
 -4.9874479e-01
 -1.2922391e+00
  1.1751573e+00
  4.2236492e-01
 -1.3487259e-01
 -1.9268926e+00
 -2.4322905e-01
  2.3997596e-01
  3.1980560e+00
 -7.9146951e-01
  3.2253933e-01
 -3.4684929e-01
 -2.3846366e-01
  1.1930367e+00
  1.5737337e+00
 -2.0962789e+00
  1.7133060e+00
  3.0935735e-01
 -9.3801355e-01
 -8.0030435e-01
 -5.4972237e-01
  6.4323699e-01
  5.4110396e-01
  3.8107723e-01
  1.7396677e-01
 -2.4117985e+00
  6.7479253e-01
  2.3556364e-01
  1.4034975e+00
 -9.9178118e-01
 -3.7496418e-01
 -1.1668515e+00
  1.0253655e+00
 -6.1318099e-02
  1.7266724e-01
 -1.2327620e-01
 -4.6287203e+00
  1.9656560e+00
 -1.8512638e+00
 -1.4153805e+00
 -1.1721554e+00
 -6.0780395e-02
  1.2866560e-01
 -2.3616593e+00
  9.7240484e-01
  1.8689482e-02
  5.3748184e-01
  3.9672095e-01
  1.6399901e-01
 -1.4964483e+00
 -3.6391459e+00
 -2.6258096e-01
 -1.7861899e+00
 -3.1472531e-01
 -6.6126186e-01
 -3.1365961e-01
 -2.2307925e+00
  1.1395196e+00
  6.5627503e-01
 -8.1407756e-01
 -1.7549320e+00
  4.6790898e-01
 -1.2716709e+00
 -7.5514179e-01
  7.4653292e-01
  3.2250786e-01
  3.1991348e-01
  1.3120160e+00
 -5.1002973e-01
  1.0682142e+00
 -3.3248669e-01
 -9.6543811e-02
 -4.5324937e-02
  7.4629456e-01
 -2.6391821e+00
 -2.5314126e-02
 -1.0217969e+00
 -1.1379576e+00
 -6.4193219e-01
  2.7402508e+00
 -4.8777733e-02
 -4.3974319e+00
 -1.9861660e+00
 -1.5063746e-01
  1.1618860e+00
 -1.1092600e+00
  7.2003591e-01
 -5.2525729e-01
 -1.0319370e+00
  4.9987800e-02
 -2.4604048e-01
  6.0722697e-01
  2.2386556e+00
 -1.1295887e-01
 -1.3207600e-01
 -1.1315904e+00
  8.7186146e-01
  1.0811495e+00
  3.1560130e+00
 -1.3556485e+00
  1.8218471e+00
 -1.0498683e+00
 -2.1786911e+00
 -5.8723706e-01
 -8.8711804e-01
  3.7698647e-01
 -8.1400722e-01
 -9.9583611e-02
 -3.9593163e-01
  7.5295871e-01
 -1.7682155e+00
  3.7583318e-01
  8.6239928e-01
  8.9574522e-01
  4.7956190e-01
  5.3571023e-02
 -2.3868930e+00
  2.3184381e+00
  2.2957879e-01
  3.5413384e-01
  5.5911016e-01
 -8.3329850e-01
  6.5088396e+00
  2.6190636e-01
  1.3960819e+00
  7.4659187e-01
 -2.4883850e+00
  4.2963046e-01
  3.6860967e+00
  3.1453732e-01
 -1.8868921e+00
  4.9015826e-01
  9.0616637e-01
 -7.0265770e-02
  3.1428251e-01
 -3.4090251e-01
 -2.3000314e+00
  1.6122462e+00
  6.2294567e-01
  1.8099861e+00
  9.2314029e-01
 -4.0646002e-02
  4.9671423e-01
 -1.4463601e+00
 -3.7156180e-01
 -1.9440163e+00
 -3.7487481e+00
  8.4618652e-01
 -2.1739076e-01
 -5.5614233e+00
 -1.7684884e-01
  3.4215906e+00
  1.3182617e+00
 -5.7084304e-01
 -4.4893375e-01
 -9.4447583e-01
 -1.5635136e+00
 -1.6006261e-01
 -3.3259693e-01
 -1.7251960e+00
 -4.6280640e-01
  7.9227388e-01
  3.8394943e-01
  3.9247537e-01
 -3.3211749e+00
  6.5239906e-01
 -7.1766919e-01
  6.9352949e-01
  9.4000691e-01
 -3.6097002e-01
  2.5989373e+00
  1.0810445e-01
 -1.0463358e+00
 -2.5468161e+00
 -3.2914808e+00
  3.8245013e+00
  1.9960961e+00
  6.6011387e-01
 -2.2598431e+00
 -6.6871428e-01
  2.8638251e+00
  2.4556524e-01
 -9.4445187e-01
 -3.1978493e+00
 -3.9549127e-01
 -1.4747335e-01
 -2.7246282e+00
  4.6599975e-01
 -9.6662050e-01
  1.6307460e+00
 -3.0077744e+00
  7.1627671e-01
  6.9184583e-01
  8.7785977e-01
  6.6243184e-01
 -2.5927644e+00
  1.1125605e+00
 -3.7817279e-01
  8.1252873e-01
 -3.9026353e-01
 -1.9824913e+00
 -9.4120985e-01
 -1.6883954e+00
  8.3846575e-01
 -9.0088442e-02
  9.4390672e-01
  2.4298823e+00
  4.5700130e-01
  1.6701928e-01
  1.0005963e-01
 -2.7554700e-01
 -3.1329256e-01
 -2.5908712e-01
 -3.3665869e+00
 -2.2195261e+00
 -8.0305791e-01
  8.4448743e-01
 -7.9117441e-01
 -1.0459138e+00
 -2.3270977e+00
 -9.6255720e-01
  1.0665902e+00
  1.5524638e+00
  7.3235947e-01
 -1.5837805e+00
  4.0633974e+00
  2.4657208e-01
  7.5179046e-01
  4.4195987e-02
  9.8454630e-01
 -3.8053626e-01
  1.6057918e+00
 -1.1708419e+00
  8.4587127e-01
 -1.3929001e+00
  7.0665817e+00
 -3.0865030e+00
  3.1602979e-01
  5.0627929e-01
  2.3651354e-01
 -7.0984548e-01
  5.1702753e-02
  8.6499465e-01
 -1.1035874e+00
 -1.2894889e+00
 -3.0461609e+00
 -2.7663708e+00
  2.4144869e+00
 -2.4380319e+00
 -7.0756001e+00
 -2.5444228e-02
  2.8385797e-01
 -9.1938192e-01
  2.7803729e+00
  1.7336375e-01
 -4.6905577e-01
 -1.4140487e+00
  1.8123716e+00
  3.4426789e+00
  1.1941280e+00
 -1.2008967e+00
  1.6069334e+00
 -1.0653034e+00
 -5.4499513e-01
  7.3679566e-02
  4.0690020e-01
  5.1507676e-01
 -1.8803827e-01
  5.3386819e-01
 -3.0423582e+00
  3.8167551e+00
 -7.2363329e-01
 -2.7054408e-01
  1.9475125e+00
  1.3399272e+00
 -1.0632420e-01
 -1.7319010e+00
  3.3032568e+00
  1.6248602e-01
  1.0164465e+00
  4.3650600e-01
 -2.8716433e-01
 -7.9190820e-01
  3.2680236e-02
  1.9453486e+00
  3.9430732e-01
  1.9366343e-01
  5.5141747e-04
 -5.8283901e-01
 -4.5339808e-02
 -1.7624310e+00
  2.6771009e-02
  7.1636558e-01
  3.6915609e-01
  3.9683357e-02
 -2.0084989e-01
  8.4018666e-01
  7.2855365e-01
  5.8717620e-01
 -7.6468647e-01
  8.5384440e-01
  3.7941957e-01
  3.5596293e-01
  4.4271188e+00
  8.6627364e-01
  3.4475723e-01
  1.2774952e-02
 -1.4488091e+00
  2.2698727e-01
  4.4964070e+00
 -1.3771415e+00
  3.6025077e-02
 -5.3943679e-02
  1.2706788e+00
 -3.5250771e-01
  1.9434743e-01
 -1.5427940e+00
  4.2570601e+00
 -1.5248897e+00
 -6.9825315e-01
  1.9032882e-01
 -1.4281837e+00
 -1.3564261e+00
  1.6307776e+00
  1.9614892e+00
  7.6098412e-01
  2.0435715e+00
  5.4631788e-01
 -4.1163168e+00
 -2.6585076e+00
  1.7308625e+00
 -7.4571842e-01
 -7.9292583e-01
  5.4796743e-01
 -1.4761704e+00
 -8.2563800e-01
 -1.6060134e+00
 -1.4454100e+00
 -2.1575541e+00
  3.9950663e-01
  2.1105165e+00
 -2.6495242e-01
 -7.3228180e-01
  8.9074636e-01
  5.6200874e-01
  6.3708073e-01
 -4.2219806e+00
  6.9042170e-01
  6.5316546e-01
  3.9425928e-02
  1.7679894e-01
  5.0589305e-01
  1.5024141e+00
  1.2241404e-01
  4.0879163e-01
 -4.3104775e-02
 -1.5839936e-02
  1.4167784e-01
 -4.2191586e-01
  1.3646685e-01
 -7.5895143e-01
 -1.5595304e+00
  2.5788369e+00
 -2.9890032e+00
 -1.7636845e+00
 -3.1081874e+00
  1.0740882e+00
  2.6774507e+00
  1.2051075e+00
 -1.3798910e+00
  2.5931439e-01
  3.3822832e+00
  5.8108181e-01
  2.3319072e-01
  2.6855979e+00
  2.1363592e+00
 -3.7561560e+00
  3.0033741e+00
 -7.1457309e-01
  1.5356174e-01
  1.7328247e+00
 -1.7904056e+00
  1.4836020e+00
  2.7432156e-01
  1.0892675e+00
 -3.9465380e-01
 -6.4344448e-01
  4.1479218e-01
 -9.0882528e-01
 -2.5960180e-01
 -7.1947825e-01
  3.4360382e-01
  3.8575332e+00
 -1.6518262e-01
  1.9197360e+00
 -3.0005970e+00
 -1.0292722e+00
  5.5937272e-01
  2.2783732e+00
 -3.0812573e-01
 -2.3194995e+00
  3.5757610e-01
 -3.0115035e-01
 -6.1124676e-01
 -2.7137411e+00
 -8.2360762e-01
 -1.5888789e+00
 -1.9215000e+00
  4.0742054e+00
 -9.3700320e-01
 -8.2320292e-03
 -6.6127725e-02
 -3.5894926e+00
  4.0017217e-01
 -2.1539749e-01
  4.2960823e-01
 -2.8375305e-02
  1.3222522e-01
  2.4219913e-02
  1.2381243e+00
 -6.9967300e-02
 -4.8107058e-01
  2.4112561e-01
 -1.9757716e-01
 -7.6058370e-01
  6.7560685e-01
 -6.1135709e-02
 -2.2878185e-01
  4.6404976e-02
  2.8484312e-01
 -5.6680791e-02
 -2.0072204e-01
  1.2437283e+00
 -8.2717925e-01
 -2.6290306e-01
  3.9235735e-01
 -1.9374362e-01
  1.0367350e-01
 -3.2690805e-01
 -4.4574976e-01
 -7.0097014e-02
 -5.8880067e-01
  2.5773644e-01
  3.6880597e-02
 -2.9705215e-01
 -1.9882430e+00
 -1.0800827e-02
  8.5799722e-03
  3.1916001e-01
 -1.4525600e-01
 -5.4732835e-01
 -1.2417744e+00
 -6.8055660e-01
  5.1204610e-01
 -2.0943339e-01
 -6.3411844e-01
 -3.1730732e-01
  4.0812862e-01
 -2.8169873e-01
 -8.1173480e-01
  8.4323463e+00
  1.8954889e+00
  9.1208994e-01
  2.8556044e+00
  2.3850259e-01
  2.2868750e+00
  4.6097088e+00
 -3.2580686e-01
 -2.3741174e+00
 -3.8263872e+00
  1.6518207e+00
 -5.7228732e-01
  2.5271330e+00
  1.8885070e-01
 -2.3158693e+00
 -1.4862448e+00
 -1.0547915e+00
  1.6397922e+00
 -3.6060613e-01
  7.0248097e-01
 -5.2757913e-01
  1.1672262e+00
  5.6472600e-01
 -2.1863861e+00
  1.7539331e+00
  1.7919382e+00
  2.0592575e+00
  4.8234609e-01
  2.8576994e+00
  5.4305725e+00
 -2.0478114e-01
 -1.3773066e+00
  1.7610006e+00
 -3.3733946e-01
  4.3360943e-01
 -5.2773643e-01
 -1.5928406e-01
  4.7493839e-01
 -1.2391551e+00
 -2.7417536e+00
 -7.2390950e-01
 -1.1489429e+00
 -2.8666198e-01
 -1.2800447e+00
  6.8381280e-01
 -3.0091853e+00
 -2.3096436e-01
  7.6776737e-01
 -1.3652530e+00
 -1.1062175e+00
  4.1455600e-01
 -2.4386394e+00
  2.7448717e-01
  1.1170595e-01
 -2.2604018e-01
 -1.2612298e+00
 -3.0005902e-01
 -1.1354089e-01
  1.6227989e+00
  3.6743286e-01
  1.0344772e+00
 -1.0895386e+00
  3.0655840e-01
  3.3172863e+00
  7.3739851e-01
  6.2005299e-01
 -2.4164889e+00
 -1.9422768e+00
  5.2062517e-01
 -2.7496251e-01
  1.4475112e+00
 -8.0952322e-01
 -1.2391833e+00
  1.2454667e+00
 -5.5023807e-01
 -3.0723548e-01
  2.7225468e+00
  1.6003205e+00
  1.2804531e+00
  5.0398793e+00
  3.0967692e-01
  2.0188758e-01
 -1.7154480e+00
 -1.3244219e+00
  1.0798274e+00
 -2.9002924e+00
 -1.0731963e+00
 -1.0149207e+00
  1.5140277e+00
  8.3162481e-01
 -3.1002007e+00
  1.0459387e+00
  4.5412222e-01
 -1.8969138e+00
  2.9749677e-01
 -8.1724459e-01
  8.1205827e-01
 -9.1210252e-01
  6.9211924e-01
  1.8930452e+00
 -2.2632563e+00
  1.7583578e+00
  2.0562901e+00
 -2.7531159e+00
 -2.3790424e+00
  1.3676270e+00
 -1.6430460e-01
  3.6615589e-01
  2.4566242e-01
  1.6015290e+00
  1.9591408e+00
  4.9475861e+00
  4.4393036e-01
  1.6230221e+00
 -4.5390999e-01
  3.8932614e+00
 -1.2562187e+00
 -1.4191860e-01
 -8.6452603e-01
  1.7734913e+00
  1.7357017e+00
 -2.5675038e-01
 -2.7186003e+00
  1.0958563e+00
 -3.0611113e-01
 -3.4983444e+00
  3.0513148e+00
 -2.3209554e-01
  1.1834235e+00
 -2.8022454e+00
  1.1735240e+00
 -1.4417102e+00
  1.9450721e+00
 -1.2867181e+00
  9.0144163e-01
 -1.0559484e+00
 -1.7137843e-01
  1.5076554e+00
 -1.4106824e-01
  6.5464175e-01
 -1.2007695e+00
  2.0471685e+00
 -5.0372028e-01
 -9.5263755e-01
 -9.7228575e-01
 -4.9308273e-01
 -1.4253981e+00
  1.4641441e+00
 -6.3516635e-01
 -1.9211525e+00
  3.5903389e+00
 -8.0190486e-01
  1.8320986e+00
 -1.5837983e+00
  2.3922104e-01
  3.6478922e-01
 -3.9566302e-01
  3.2507055e+00
 -2.9790671e+00
  1.3927951e+00
  1.4037999e+00
  7.5284177e-01
  8.6435574e-01
  1.5242192e+00
  2.9860067e+00
  6.6132557e-01
  2.6494622e+00
 -5.2591181e-01
  1.9533635e+00
 -1.4401509e+00
  1.8590716e+00
  1.4767733e+00
  2.5590971e-01
 -2.6252303e+00
 -3.3284804e-01
  1.9760231e+00
  1.5774070e+00
 -2.4868734e+00
 -2.7554783e-01
 -1.7504719e-01
 -4.9791142e-01
 -5.5574644e-01
  6.4674115e-01
 -9.2533576e-01
 -5.4587197e-01
 -3.6853628e+00
  1.0967863e+00
 -6.2283647e-01
 -1.0973682e-01
 -6.5236712e-01
 -8.1708968e-01
 -1.1648302e+00
  2.1931478e-01
  1.1532047e+00
  4.8892054e-01
 -4.2661195e+00
 -4.8769599e-01
 -5.0477743e-01
  9.3392718e-01
 -3.0212235e+00
 -2.8108332e+00
 -2.7485782e-01
 -1.5051939e-01
 -1.6038426e+00
 -1.4556565e+00
 -6.0967839e-01
 -1.6279519e+00
  4.2221004e-01
  1.2866735e+00
 -2.1454728e+00
  1.6393858e+00
 -1.9813326e-01
  2.9548153e-01
  3.3369282e-01
 -9.7827649e-01
  9.1992742e-01
 -2.6959074e+00
 -6.1874574e-01
 -1.9005036e+00
  1.9779098e+00
  1.3151910e+00
  2.2213962e+00
  1.7234820e+00
  9.6928239e-01
 -5.8441740e-01
  2.9816370e+00
 -1.0121604e+00
 -1.6223627e-01
 -1.0842597e-01
 -2.1403426e-01
  1.5830724e+00
 -2.5911736e+00
 -2.0192113e+00
  2.1104107e+00
 -3.2520578e+00
 -3.9470169e-01
 -2.3849020e+00
  8.9553714e-01
  1.2024055e-01
 -1.1500404e+00
  1.5343434e+00
 -2.2671828e+00
  6.8257934e-01
  3.5975420e+00
  5.9584183e-01
 -2.7028968e+00
  1.6321082e+00
  2.7376685e+00
 -2.5857365e-01
 -1.6720137e-01
 -2.7536434e-01
 -5.4455477e-01
  4.4967374e-01
  1.4850485e+00
 -4.7311860e-01
 -3.0014381e+00
  1.3385470e+00
  3.8340511e+00
  3.9801511e-01
  4.9076572e-01
  4.4056338e-01
 -3.0763845e+00
  1.1702944e+00
 -1.4763056e+00
  1.4731773e+00
 -1.4557788e-01
 -1.7269272e+00
 -1.7195150e+00
 -1.3750415e+00
 -3.9439470e-01
 -1.3126107e+00
  5.7825100e-01
  9.0140909e-01
 -1.2574230e-01
 -8.3269376e-01
  2.2518709e+00
  6.4546669e-01
 -4.6851653e-01
  2.6749814e+00
  3.9383686e+00
 -3.1987197e+00
  2.5820088e+00
  2.9150063e-01
  4.1952720e+00
  2.5054121e-01
  9.8816407e-01
  1.8076144e+00
 -1.4167106e+00
  7.0676905e-01
  3.4638128e-01
  2.1334240e-01
 -4.6094051e-01
  1.9132695e+00
  3.7623360e+00
 -1.3546544e+00
 -4.4700757e-01
  9.0400738e-01
  2.4469135e+00
 -1.8420206e+00
  4.3055680e-01
 -9.2880994e-01
  5.7473165e-01
  8.4954023e-01
  2.2841656e+00
  7.5573623e-01
  1.8522004e+00
  1.5992168e+00
 -1.4017755e+00
  7.2733670e-01
 -8.6337423e-01
 -1.8519926e+00
  1.4072936e+00
  1.5703869e+00
 -2.6335039e+00
 -2.2830002e+00
 -2.3314664e+00
  1.4786416e+00
 -3.2714186e+00
  2.3730987e-01
  4.9569944e-01
  5.0493473e-01
  8.8362086e-01
  1.5647310e+00
  2.4654157e+00
  2.4747464e-01
 -8.3683848e-01
  1.7878916e+00
 -7.1828157e-01
  5.3342110e-01
  7.8625655e-01
 -2.0304185e-01
  8.8413662e-01
  9.2780757e-01
  2.6593382e+00
 -8.6627895e-01
  2.4626269e+00
  6.9337213e-01
  5.8812869e-01
  1.0249782e+00
 -2.5258913e+00
 -2.4629531e+00
 -3.6827365e-01
  5.8789611e-01
  1.0937517e+00
  2.2754054e+00
 -2.2217140e+00
 -5.7180840e-01
  6.3689816e-01
  4.0117210e-01
  1.8073739e+00
  8.1045699e-01
  7.4793690e-01
  4.1721746e-01
  1.7528619e+00
 -5.3415138e-01
 -9.4291389e-01
 -1.3059101e+00
 -5.1774418e-01
  1.9430488e-01
 -4.1869476e-01
  5.9612697e-01
 -1.7047294e+00
  5.5205691e-01
  6.6756201e-01
  1.0127351e-01
 -1.7260767e+00
 -1.1432601e+00
  2.7770832e+00
  7.9187143e-01
 -4.7405291e-01
  3.6173359e-01
 -2.1386336e-01
  8.6478370e-01
 -3.1475329e-01
 -2.7473950e+00
  5.3619158e-01
 -1.2456805e+00
 -1.1078724e+00
  3.1067377e-01
 -7.5319344e-01
  2.0206606e+00
  5.7907975e-01
  1.5989013e+00
 -2.2570708e+00
 -2.4258444e-01
 -2.9408207e+00
  1.5661434e+00
 -1.2714562e-01
  6.2778836e-01
  6.0597318e-01
 -1.1488389e+00
  2.8713927e+00
  8.4045482e-01
  1.8286638e+00
 -5.2429765e-01
  4.3559593e-01
  1.3870769e+00
  2.6625293e-01
 -5.2574229e-01
 -6.0763747e-01
 -8.6064798e-01
  1.9465944e-01
 -2.3806343e+00
  2.5912264e-01
 -2.7707355e+00
  1.9483730e+00
 -2.1305325e+00
 -4.5288169e-01
 -5.2966255e-01
 -1.3952184e+00
 -9.2989415e-01
 -2.5880466e+00
  1.6700196e+00
  1.3074942e+00
  1.7899841e-01
  7.5933856e-01
  4.4373116e-01
  1.1346799e+00
  2.8178811e-01
 -4.2556277e-01
  8.3524430e-01
 -2.0646591e+00
  1.1681823e-01
 -1.1190331e+00
 -1.3223814e+00
 -1.1512421e+00
 -3.5254726e-01
  2.8040211e+00
 -8.2405287e-01
  1.2946194e+00
  2.1349727e-01
  2.3990681e+00
  6.0894322e-01
 -4.7914639e-01
 -8.1338942e-01
  3.5892442e-01
  1.1062622e+00
 -7.0806694e-01
 -6.7522812e-01
  1.4578564e-01
 -1.3087316e+00
  1.5992801e+00
  8.5748273e-01
  9.5035195e-01
 -9.2768365e-01
 -5.5044657e-01
 -4.0896729e-01
  3.2780814e-01
 -8.8903481e-01
 -2.1926985e+00
 -8.6125422e-01
 -1.0940434e+00
 -2.4155202e+00
  1.8133749e+00
  1.9098309e+00
  8.1796890e-01
 -4.6347457e-01
 -1.1099247e+00
  2.0713463e+00
  2.5739259e-01
  4.2605275e-01
 -1.5531316e+00
 -5.5405724e-01
 -1.5390389e+00
  9.0800434e-01
  7.2165281e-01
 -1.9002099e+00
  1.2279360e-01
 -5.4583770e-01
  1.0774182e-01
  1.0195330e+00
 -2.0214696e-01
 -6.1584502e-01
 -2.1199353e+00
  1.3189269e+00
 -3.0564637e+00
  2.9698524e+00
  1.0121275e-01
  1.2433825e+00
 -3.3891406e+00
 -3.3358559e-01
  2.3077734e+00
  8.8039303e-01
 -2.8594688e-01
  6.8689364e-01
 -8.2517123e-01
 -1.9852661e+00
  2.4788728e+00
  2.9571025e+00
  1.3211858e+00
 -1.8535467e+00
  2.6193495e+00
  2.9544929e-01
 -7.0084143e-01
 -1.5210654e+00
 -4.1340649e-01
 -1.3919791e+00
  1.9227369e+00
 -8.9516580e-01
  2.6533015e+00
 -1.8918159e+00
 -4.0150318e+00
 -4.9259561e-01
  2.5301474e-01
  1.6991358e-01
  1.8646224e+00
  1.3772683e-01
 -1.8988652e+00
  7.8367823e-01
  8.8310742e-01
  2.2749960e+00
 -3.7480146e-01
 -1.1619447e+00
 -1.2130225e+00
  1.0559901e+00
  1.5510880e+00
  3.3026263e-01
 -1.2209241e-01
 -1.2338599e+00
  2.2034473e+00
 -1.8667363e+00
  1.2810494e+00
 -1.1642346e-01
  1.6197786e+00
  1.6344554e+00
 -2.0067790e+00
 -7.0897496e-01
 -1.2572414e+00
  2.1233094e+00
 -7.5807828e-01
 -1.1239882e+00
 -1.3882066e+00
  9.9607784e-01
  1.9746554e+00
 -8.3615309e-01
 -2.3439419e+00
 -1.2840605e+00
 -2.4944453e+00
  1.0775545e+00
  3.3020118e-01
 -4.3914384e-01
  3.7859377e-01
  1.2103943e-01
 -6.4917600e-01
 -2.6769948e-01
 -1.1560795e+00
  5.1733744e-01
  1.0196277e+00
  1.9572259e+00
  1.3655126e+00
 -2.5487411e-01
  1.7056291e+00
  1.2140279e+00
  5.4837137e-01
 -1.6866519e+00
 -1.5930647e-01
 -6.4951414e-01
  5.6930971e-01
  2.4212730e+00
 -1.2188669e+00
  1.7390381e+00
 -1.2396245e+00
 -4.1006008e-01
 -2.6992553e-01
  1.6462104e+00
  9.8438364e-01
 -5.1788855e-01
  1.1732768e-01
  4.6125796e-01
 -9.3818200e-01
  1.3876704e+00
  6.6627467e-01
 -1.4766139e-01
 -8.9964896e-01
 -7.1009117e-01
 -6.9043297e-01
  1.7113842e-01
  8.8186245e-03
  8.8186245e-03
  8.8186245e-03
  8.8186245e-03
  8.8186245e-03
  8.8186245e-03
  8.8186245e-03
  8.8186245e-03
  8.8186245e-03
  2.3166943e-02
  2.3166943e-02
  2.3166943e-02
  2.3166943e-02
  2.3166943e-02
  2.3166943e-02
  2.3166943e-02
  1.5537684e-02
  1.5537684e-02
  1.5537684e-02
  1.5537684e-02
  1.5537684e-02
  1.5537684e-02
  1.5537684e-02
  9.3520554e-03
  9.3520554e-03
  9.3520554e-03
  9.3520554e-03
  9.3520554e-03
  9.3520554e-03
  9.3520554e-03
  1.1876453e-02
  1.1876453e-02
  1.1876453e-02
  1.1876453e-02
  1.1876453e-02
  1.1876453e-02
  1.1876453e-02
