nep4_zbl 2 H O 
zbl 0.9 1.8
cutoff 8 4 487 65
n_max 8 6
basis_size 12 12
l_max 4 0 0
ANN 40 0
  5.4250324e-01
  4.5742370e-05
 -1.6540399e+00
 -1.3559410e-05
  5.8013350e-01
 -2.1502642e-01
 -7.5212120e-06
 -9.9612093e-01
  2.0935550e+00
 -3.7039063e-05
 -1.6698573e-04
 -1.5409471e-01
  1.1811160e+00
 -7.7899116e-01
 -1.9712995e-01
  7.0444667e-01
 -9.6272707e-02
 -3.3079135e-01
 -2.8632792e-05
  7.0840353e-01
 -6.0915983e-01
 -6.3004489e-05
  1.5220645e-01
 -2.1523085e-01
 -7.2124028e-01
  7.2983794e-02
  1.1333752e-04
 -8.7019853e-02
  4.4975674e-01
  6.5845591e-01
 -4.8514817e-02
 -1.8276480e-01
  1.0833961e-03
  1.8056074e-01
 -7.8415281e-01
  2.2107313e-04
  2.0799344e+00
 -1.0122870e+00
  1.2664891e-05
  4.4725132e-01
 -1.4636699e-05
 -6.4494408e-05
 -1.8960183e+00
  2.8459481e-05
  2.3190579e-01
 -9.2724848e-01
  1.1694565e+00
  5.2650101e-02
 -3.0754825e-01
 -1.4252576e+00
 -1.2391472e+00
 -1.7266846e-01
 -3.2049662e-03
  1.6654416e+00
 -9.1016787e-01
  6.1268491e-01
  5.1061362e-02
 -1.7936541e+00
 -4.3721840e-01
  3.6576408e-01
  1.4152088e+00
  2.3730440e-01
  1.8174478e-01
 -1.1551087e+00
  2.4954034e-02
  5.6192286e-02
 -1.7709625e-03
  2.0298054e+00
  3.9652035e-01
 -3.9368403e-01
 -1.7984920e+00
  4.4244549e-01
  1.0455072e-02
 -2.0737515e-01
 -1.4173724e-02
  3.9542647e-05
  5.5625957e-01
 -2.9393977e-06
 -2.6282025e-04
  9.9147296e-01
  8.1560029e-05
  8.2758710e-02
  2.1278849e-02
 -7.0943779e-06
  9.7782130e-04
 -7.0304327e-02
 -4.1171053e-01
  2.0309194e-04
  5.8375573e-01
 -1.3160931e-01
 -3.5207733e-04
  3.9848492e-01
 -7.7134788e-01
  1.2992087e-01
 -1.5111704e+00
  4.4202935e-02
 -8.8371289e-06
 -1.8142427e-04
  6.8441814e-01
 -3.8325423e-04
  4.5985243e-01
 -2.0532584e+00
  3.3291660e-02
 -8.7977841e-04
 -6.7496359e-01
  1.5753080e-01
  1.9433279e+00
  2.4871014e-02
 -1.3054568e+00
 -6.5902270e-02
 -6.9556582e-01
  3.3522971e-02
  9.4780762e-06
 -8.0468297e-02
 -1.6346579e-05
  5.2649659e-01
  4.1688183e-01
 -6.4906003e-06
  9.1062707e-01
 -6.4537518e-02
  9.2613460e-05
  1.3549613e+00
  1.3863292e+00
  4.0531713e-01
 -1.6851831e-04
 -1.9032981e+00
 -7.3803380e-06
  2.0900539e-01
  4.8967972e+00
  9.6338250e-02
  1.7181380e+00
  5.8289652e+00
 -6.9098324e-02
  1.2979248e+00
  8.6095615e-06
  2.5231874e+00
  2.1914427e+00
 -2.9628014e-04
  3.5728078e+00
  5.4604340e-01
  2.8237078e+00
  3.5828727e-04
  3.6963266e-01
  4.0888837e-01
 -1.8319605e-04
  3.0783136e+00
  8.4477997e-01
  4.2818785e+00
 -1.4606975e-01
 -4.2475585e-05
  3.6187444e-04
  3.2039530e-05
  4.4644567e-05
 -2.4231300e-01
 -1.5938012e-05
 -3.5824082e-04
 -1.6186902e-01
  6.2381339e-05
  1.3072672e-03
 -3.0933669e-01
  8.7551505e-04
  3.8512892e-01
  1.5583867e+00
  3.2220727e-05
 -2.1005595e-05
 -1.1023954e+00
 -2.8539818e-02
  4.6389517e-01
  3.5814784e-02
  1.5034800e-04
 -3.6579600e-01
  3.9182212e-03
 -3.2247927e-02
  2.8984091e-01
  5.2712709e-01
 -8.8308287e-01
  2.2308800e-02
 -5.9706068e-01
  1.2701758e+00
 -4.6192199e-02
  8.8022411e-01
  1.4414719e-03
 -3.1594993e-03
 -2.2456264e-02
  3.2578723e-04
 -1.5011171e-04
 -4.1209889e-05
  1.7916180e-05
 -1.7496670e-05
  1.9294141e-05
  5.0647807e-04
 -3.3463002e-05
  8.6201464e-05
 -2.6115520e-06
 -5.1207462e-05
  2.2519625e-05
 -3.1610415e-04
  5.6442864e-06
 -1.1170102e-04
  6.8841095e-05
 -4.0726573e-04
 -4.9125019e-04
  2.0746577e-06
 -2.5067155e-04
 -5.6337794e-05
 -2.6060983e-03
 -9.0814446e-04
  2.3311168e-05
 -5.8009675e-05
 -6.7973733e-06
 -1.0169489e-01
 -3.4639356e-06
 -1.3182943e-01
 -2.3963259e-05
  8.5095002e-05
 -2.7569877e-05
  4.4078377e-04
 -4.8677340e-02
 -6.6633726e-04
 -1.0880409e-03
  3.1367108e-05
 -1.6759067e-04
  4.2020369e-05
 -7.7331997e-06
 -1.9446282e-04
  1.9774096e-05
  2.0975688e-07
  9.8254641e-06
 -1.0195023e-05
 -1.3546339e-05
  2.3846890e-06
  2.4389574e-05
 -2.3421811e-05
  6.8092481e-06
 -9.1750131e-05
  7.0444420e-02
  3.4543054e-04
  2.7861356e-04
  9.0476773e-05
 -2.1821772e-05
 -5.3683030e-05
 -2.3243197e-06
  1.4336201e-03
 -1.2866048e-04
  2.5664302e-05
 -9.6104653e-05
  2.8278821e-04
  1.7553954e-01
  1.7962636e-03
  1.6115992e-01
  4.6290114e-04
 -1.8699990e-04
  5.2600866e-05
 -8.3808847e-02
  1.9286437e-01
  1.6361670e-01
  1.5990296e-01
 -1.0844910e-03
  2.5447286e-04
 -2.8383240e-04
 -6.3898588e-05
  2.7497386e-04
  4.4823214e-06
 -4.4133929e-05
 -1.1053969e-04
  2.6399213e-05
 -3.2715940e-05
  2.4284769e-05
 -2.4902667e-05
 -7.1785494e-04
 -8.5132575e-05
  1.8683495e-05
 -5.0607359e-04
 -1.2201305e-04
 -6.6789602e-05
 -2.3683521e-04
  7.4898725e-04
 -1.1484786e-04
 -4.4299621e-05
 -1.0382733e-03
  6.8914916e-05
 -3.4498185e-05
 -1.2773545e-04
 -1.3949814e-04
  3.2375305e-05
 -1.2162443e-03
 -2.8717220e-03
 -4.6765900e-04
 -1.1786467e-04
  1.8871960e-05
  1.1067340e-04
 -4.3099611e-03
 -1.0208396e-03
 -4.6538580e-03
  1.6151908e-04
 -5.9077840e-05
  1.3773212e-04
 -1.3800689e-05
 -1.7075097e-05
 -8.4621297e-06
  5.1077190e-05
  1.2819139e-05
  3.5071371e-05
 -7.3810271e-04
 -4.6350473e-05
  1.1026987e-05
  8.4814346e-06
  3.3036625e-04
  6.0112303e-04
  3.3592840e-04
  1.1447583e-04
  9.6805874e-05
  1.9946247e-05
 -5.6858921e-06
  5.9655326e-04
  1.1429566e-07
  2.3012008e-05
 -2.4509736e-04
 -1.1560232e-03
  1.0931351e-05
  7.6240965e-04
  1.2150532e-01
  2.3723915e-04
  2.0795587e-01
 -1.5818511e-04
 -5.7909845e-05
 -2.2252396e-04
 -7.9111988e-04
  1.6187270e-01
  3.8820326e-03
  1.8035419e-02
 -3.7204347e-05
  1.0284026e-03
 -3.6796859e-01
 -9.7959347e-02
  1.1774703e+00
  1.2040999e-04
 -6.1259751e-05
  2.5748565e+00
  2.6226076e-05
  1.1898515e+00
  2.4182571e-03
 -4.9262711e-01
 -1.1722527e+00
  2.4987309e+00
 -2.3745160e+00
  4.8780379e-01
 -1.0951245e+00
  3.5149717e+00
 -1.9355999e+00
 -1.1989292e+00
 -1.4882737e+00
  1.2881684e-01
  1.1149929e+00
  1.3206074e+00
  1.5621530e+00
  3.0266631e-01
  5.9778309e-01
 -1.3129202e+00
 -9.1670573e-01
 -6.6441774e-01
  2.0881952e-01
  2.2696378e+00
  1.0105857e+00
  5.0564307e-01
  3.2621378e-01
 -7.6830345e-01
 -1.1332383e+00
 -2.7338028e-01
  5.6958687e-01
 -3.7839336e-04
 -2.3569116e-06
 -1.0103673e-04
  1.1259617e-04
 -8.4865882e-05
 -1.1964266e-04
  1.8893206e-05
 -1.0336014e-04
  3.3860586e-05
 -1.2664923e-05
 -5.3011521e-05
  2.2944492e-05
 -3.3699925e-04
 -3.8593791e-03
  1.4189674e-04
  6.7823392e-05
 -1.2400172e-04
  3.5434464e-04
  7.8279700e-05
 -2.3562498e-06
 -5.9735763e-01
  4.1234598e-06
 -1.2167662e-05
 -3.5186440e-05
 -1.5440525e-04
 -1.4415343e-01
 -1.1187562e-03
 -1.3248780e-01
 -3.4677472e-05
  1.0755007e-04
 -6.6999197e-02
  1.0811227e-02
 -2.3750976e-01
 -7.4001402e-02
 -3.5766357e-01
  4.0934002e-03
 -1.0267533e-03
 -7.8040490e+00
  1.0649943e-05
  2.4734454e+00
  1.8503302e-05
 -4.6694764e-01
 -1.3783574e-05
 -1.4202584e-05
  1.2511556e-04
  1.0981785e+00
  4.2382483e-03
 -3.8009927e+00
  5.5407424e+00
 -1.2187866e-01
 -8.8506061e-01
  5.4953794e+00
  6.0082495e-04
 -9.6195815e-03
 -2.3307223e+00
  1.3128922e+00
  1.4655080e+00
 -8.2873636e-01
  8.9465535e-01
  4.7714424e-01
  1.1402597e+00
 -1.1843381e+00
 -1.2543485e-04
  2.0270252e+00
 -9.2576683e-01
  2.1912989e-01
 -1.2512826e-02
  3.5525087e-01
 -2.8408378e-01
  1.9699301e-01
  1.4655949e+00
 -9.4631326e-01
 -2.3572545e-03
  2.7892020e-01
  4.2231879e+00
 -6.2061786e-06
 -2.4049960e-03
 -3.2658383e-05
  1.2668624e+00
  1.2943432e-01
  2.1870360e-06
  1.4437035e-04
 -2.3373373e-01
  1.1213878e-03
  2.1735237e+00
 -6.3622885e+00
  4.2178474e-02
 -4.4159959e-05
 -2.3233733e+00
 -2.7545729e-01
 -7.5348657e-01
  1.4128860e+00
 -2.6643999e+00
 -8.5113160e-02
  4.1980195e-01
 -9.0059185e-01
  1.3658272e-01
 -6.8058139e-01
  3.9385477e-01
 -8.4902033e-02
 -2.1016994e+00
  9.8892260e-01
  1.0006310e-02
  2.2043921e-02
 -1.4900726e+00
 -6.2332526e-02
 -1.2178992e+00
  2.9501003e-01
 -3.9844024e-03
 -4.0406695e-01
  3.7371922e+00
 -1.0923344e+00
 -1.0405936e-04
  5.0278687e-01
 -1.8479569e-04
 -7.5102770e-01
 -3.4269285e-03
 -7.5943262e-06
  1.0320487e-02
 -1.6908288e+00
 -1.2651346e-04
 -5.9096597e-04
  1.5148538e+00
 -2.4028187e+00
  1.1672759e-04
  6.0205311e-01
 -1.2595801e+00
  8.5787731e-05
 -6.3041574e-01
  2.8706393e+00
 -1.1922331e+00
  9.1847375e-02
  4.3691087e-01
  3.7295595e-04
 -1.7305500e-04
 -5.4762876e-01
  2.3821081e-01
 -2.2724429e-05
 -1.2787402e+00
  8.2672703e-01
 -6.2967408e-01
  8.4910892e-02
  2.1334819e-01
 -6.8147439e-01
  1.4836229e-01
 -1.5386059e+00
  1.2003551e-01
 -2.5328283e+00
 -1.1093266e-05
 -1.5338845e-04
  8.1956037e-05
  4.5223795e-05
  5.9858733e-04
  7.4373856e-05
 -1.9750286e-04
  1.9557223e-05
 -3.7112969e-04
 -1.8917302e-06
 -1.7583508e-04
  1.6827145e-04
  6.6267305e-05
  1.0022951e-03
  1.4724652e-03
  1.3233551e-04
  8.5014844e-04
 -1.3411491e-06
 -2.0678805e-05
 -1.9044957e-04
  3.3126041e-04
 -8.5608706e-05
  1.4202158e-04
  6.3081661e-06
  1.4341497e-04
  2.6362852e-04
  1.2100831e-04
  1.7563628e-02
  1.7445376e-03
  4.7907070e-04
  3.7831407e-05
 -1.7992903e-04
  9.7024441e-04
  4.6093721e-04
  1.4311323e-04
 -3.3733161e-04
  3.4029759e-04
 -5.5525249e-01
  1.0233418e-04
  5.5713247e-04
  8.1456186e-05
  1.0763037e-04
  5.1347140e-02
  3.1970867e-05
  1.3955705e-05
 -6.6670078e-01
  1.9659235e-05
 -9.0260532e-05
 -3.5119746e-02
  1.3248248e-05
  1.0228705e-03
  2.8389022e-01
 -1.9781490e-05
  3.9755655e-04
 -7.9536378e-01
  1.4696443e-03
  3.4562688e-02
  3.0225536e-01
 -4.2674631e-02
 -2.9227050e-04
  2.1815711e-01
  3.5077289e-01
  3.9184889e-01
  1.5516146e-03
 -2.6439579e-02
  1.2218536e-01
 -4.6677556e-02
  2.7990457e-01
 -4.2949504e-01
  4.8402027e-04
  1.5161200e+00
  3.9167669e-01
  5.1042926e-01
 -6.4347261e-01
 -1.2616034e-05
  1.3651390e-05
  9.3103790e-01
 -6.0046863e-05
  2.2338336e-05
 -8.9812361e-02
 -2.4328649e-05
 -6.1445870e-04
 -9.8551810e-04
  3.3335274e-01
  3.5353085e-01
  2.1273780e-01
 -1.0317225e-03
 -2.0402414e-04
 -1.3438152e-04
 -5.9729350e-01
  4.9740973e-01
  1.0521633e-01
  1.6612397e-01
 -1.2498178e+00
 -2.4926894e+00
  2.2037351e-01
  8.5227042e-01
  2.3800144e-03
  2.5534397e-01
  3.6990753e-01
 -2.1205603e-03
 -2.1480341e+00
  2.3483364e-01
 -4.9070597e-01
  3.2828015e-01
  5.4676312e-01
  9.4330702e-03
 -5.6615204e-01
 -3.4469327e-01
  1.1372908e-01
 -8.3937949e-01
  3.0590498e+00
  3.8710365e-01
 -2.9999607e+00
  7.2875978e-06
  3.9430418e+00
  5.1379710e-01
  6.4791289e-05
 -1.7941201e+00
  2.0997353e-02
 -1.2632277e+00
 -3.1361554e+00
 -5.3758067e-01
 -1.0035878e-01
  2.2736580e+00
 -6.3164196e+00
 -9.1392392e-01
 -3.6001214e-01
 -6.8457496e-01
 -1.5276650e-01
 -3.7495333e-01
  2.3674958e+00
 -4.9680761e-01
 -3.1914404e-01
 -1.0688616e+00
 -8.7851876e-01
 -7.5633508e-01
 -1.2541141e-01
  6.3739884e-01
  1.6073862e-01
 -7.3678964e-01
 -4.9935043e-01
  6.2328696e-02
 -2.4040570e+00
 -1.3614959e+00
 -1.2815273e-01
  6.4081514e-01
 -3.1241512e+00
  5.2427638e-02
 -9.6072014e-05
 -1.9999735e-04
  1.7669254e-05
 -1.0589118e-05
  3.8140050e-01
  8.5194961e-06
 -2.9411507e-04
 -2.0269896e-01
 -5.0352322e-04
 -4.1003877e-06
 -4.8261578e-03
 -1.9993506e-04
  2.6548666e-01
  1.3860224e+00
 -5.1814847e-04
 -2.5606836e-04
 -2.6603878e-04
 -4.7762372e-02
  5.0375551e-05
  9.8743469e-05
 -3.1408036e-04
 -4.0139228e-01
 -1.2491874e-01
  4.8749495e-01
  2.6703900e-01
  2.7729264e-01
  4.1495838e-05
 -1.2055432e-04
 -1.6521435e+00
 -1.9731098e-03
 -7.9454146e-02
  9.5935337e-02
  2.0488360e-04
  8.5827714e-01
 -1.6088322e-04
 -2.7842662e-01
  4.1274569e-05
  2.1546766e-06
 -4.9197865e-06
  4.2588810e-05
 -9.5922005e-06
 -1.2757438e-05
 -4.1208095e-06
  9.9647286e-06
  2.1570375e-05
  6.1239848e-06
  4.4888729e-04
  1.9471771e-04
 -2.0408711e-06
 -1.3450671e-05
  1.0203015e-04
  2.8738764e-04
 -3.2570500e-05
  7.1130489e-06
  6.4783270e-04
  8.6817112e-05
  2.0476251e-03
 -7.0655032e-04
  1.0641549e-04
  1.0381018e-04
  2.5634217e-04
  6.6481225e-02
  4.6346671e-05
  2.7202663e-01
  8.0230238e-04
  1.0422554e-04
 -7.6198441e-05
 -1.6018194e-04
  3.5070930e-02
  1.2421622e-02
  1.3703973e-03
 -3.3528617e-04
  1.3616381e-04
  1.6952604e-06
 -2.4003004e-05
 -1.8422444e-04
  1.1003407e-05
 -5.3478860e-05
 -4.7139850e-04
  3.4143250e-05
 -3.9820043e-05
  1.1147920e-03
  3.4008897e-04
 -5.9874924e-07
 -1.5659162e-03
 -3.3064920e-05
 -3.4399770e-04
 -2.1506164e-03
 -8.0842030e-05
 -2.4118224e-04
 -5.3403455e-05
 -2.0925056e-04
 -1.8252636e-04
 -1.0584501e-04
 -1.4905208e-03
 -2.1141419e-05
 -1.4152477e-05
 -1.1228283e-04
 -2.4869913e-04
 -3.5912366e-05
 -1.6402568e-03
 -3.0427811e-05
  1.0391016e-04
 -8.5563166e-04
 -4.0365540e-04
 -1.5626417e-04
 -3.8672192e-04
  7.9794736e-06
  3.1665587e-04
 -1.3080817e-03
 -4.6542863e-04
  3.0347741e-07
  7.7367600e-05
 -1.1213302e-04
  1.0234393e-05
 -4.3343010e-05
  1.3149951e-05
  6.5602787e-04
 -1.3353489e-04
 -2.1117174e-05
 -3.0279816e-06
 -2.7012560e-04
 -4.8722256e-02
 -1.9198620e-04
 -1.9079797e-04
 -1.7736837e-03
 -8.4616713e-06
 -5.2958261e-04
 -4.9149228e-04
 -5.1004958e-05
 -2.1470370e-05
 -1.0882265e-05
  3.4285196e-05
 -2.3347320e-04
 -1.4816653e-03
 -6.6442072e-02
 -1.2514151e-03
 -2.5334641e-02
  6.1599269e-05
 -3.1384456e-04
 -2.8301414e-05
 -2.7484237e-04
 -9.4705231e-02
 -1.0492818e-02
 -1.1832036e-02
 -2.9821717e-04
 -1.5959293e-05
 -1.5610103e-01
  4.4604720e-05
 -6.9367474e-05
  1.1394484e-04
 -1.0368864e-04
  1.7839044e-01
  7.5478332e-05
 -4.4066031e-04
 -5.9382069e-01
  5.9947785e-04
  3.8028338e-05
 -2.4470447e-01
  4.8850413e-04
  7.1543910e-02
  5.3335069e-04
 -7.6502096e-05
 -2.2038190e-04
 -1.8890809e-01
 -9.6212797e-02
  4.9345252e-01
  2.7727734e-02
 -6.1217003e-04
 -2.9244420e-01
  1.3712979e-03
 -6.6344380e-01
  7.0969006e-03
  7.8791195e-01
  1.3526352e-01
  8.3729491e-02
 -3.7604752e-01
  1.5033998e-01
 -5.3514555e-02
  1.0694686e+00
  5.9385650e-04
  3.0059734e-01
 -5.1659691e-01
 -2.8430742e-01
 -2.4055487e-04
  4.3801385e-05
  7.0194081e-05
 -6.8157227e-05
 -3.7168495e-05
  3.1463167e-04
 -8.8534733e-05
  1.2520746e-04
 -7.5803581e-04
  2.5703610e-05
 -2.6513094e-06
 -1.6129240e-04
  2.5300675e-03
 -4.5627090e-05
 -8.1820664e-04
  2.5291499e-06
 -8.1883505e-04
 -4.6834648e-03
 -1.8224430e-04
 -2.2077961e-04
 -3.1106867e-04
 -4.1816784e-07
 -2.8116352e-04
  4.6793598e-04
 -6.8928952e-05
  9.4343600e-04
  6.6748506e-04
  3.6926568e-03
 -1.8967171e-04
 -5.7226367e-04
  4.2912274e-05
 -6.5330951e-04
 -3.4340878e-04
  6.2911463e-04
  2.5395302e-05
 -1.6996362e-03
  6.5031770e-04
  2.1585099e-06
  2.5948197e-05
 -1.2353082e-04
 -1.0690487e-05
  1.9158098e-05
  5.2464986e-01
  5.8863865e-05
  7.5169140e-05
  6.5808072e-06
  4.5067784e-05
  6.2184299e-05
  6.6369947e-05
  9.7322406e-04
 -1.2671131e-04
 -7.7818204e-06
 -1.4794694e-05
  1.0744325e-04
 -1.4576320e-04
  6.1321912e-06
  3.2134610e-03
  1.7573213e-03
 -1.0292590e-04
  2.1850085e-05
 -6.3757898e-07
 -3.6889184e-04
  8.3876066e-02
  6.5205910e-04
  6.2153120e-02
  1.6110571e-04
 -9.3154194e-06
 -1.4943837e-06
 -3.4602713e-03
  1.4704040e-01
  5.6963286e-04
  1.2205185e-01
 -1.8601336e-04
 -8.3808918e-05
  2.1565797e-04
 -5.6443087e-06
  2.4839695e-05
  3.8692058e-05
 -1.4959981e-05
 -5.9205511e-05
  3.9933086e-05
 -1.6163592e-04
  1.1483934e-04
  1.3299522e+00
 -8.8792613e-06
  2.0147651e-05
  1.6499097e-04
  4.7461543e-04
  5.4292901e-05
 -5.1183757e-05
  2.5481285e-04
 -8.2811464e-05
  9.8295743e-04
 -2.2744233e-04
  5.1524220e-03
  1.0054858e-04
 -6.7385059e-05
 -8.0929720e-05
  4.7829980e-04
  2.1817446e-02
  1.9310811e-03
  1.6265459e-01
  1.0338335e-03
  1.0208253e-05
  7.9777965e-05
  1.2571464e-04
  1.5933605e-02
  2.6716372e-02
  3.0415848e-02
  9.5670542e-04
 -2.2829526e-04
  2.5278303e-05
 -3.7885043e-06
  2.1550460e-07
  1.3476090e-05
  1.6323772e-06
  8.8766334e-05
 -1.9856143e-05
  3.5842048e-05
 -7.7718036e-04
 -1.3461922e-05
  9.2254835e-05
 -7.2367133e-05
 -7.9930418e-05
  1.2596974e-05
  1.4566462e-05
 -9.4060015e-05
  1.4739534e-05
 -3.3756519e-06
  1.4131518e-05
  8.6382010e-05
  9.0763450e-01
  9.6653450e-05
  1.6159556e-04
 -1.5039078e-04
  4.0979791e-04
  6.1452540e-04
  2.5946836e-04
  3.2111609e-03
  6.2626053e-04
 -2.7080281e-05
 -5.1558574e-05
 -2.0918020e-05
  2.7384938e-04
  2.2262696e-03
  1.1523230e-03
  1.6711467e-04
  2.2843773e-04
 -7.5382425e-04
  1.6476533e-05
 -5.0865645e-05
 -3.5498131e-05
 -6.1749721e-05
 -4.3298554e-04
 -6.5578664e-05
  4.1131396e-04
  2.5211647e-04
  5.3796985e-06
 -1.1676671e-05
  1.2716174e-05
  2.1513941e-04
 -1.9977098e-05
  8.8355875e-05
 -5.0111357e-05
  1.9689312e-04
 -3.3453114e-05
  2.8563364e-04
 -3.9722762e-04
 -1.5587619e-03
  4.1533288e-04
 -1.3124604e-04
 -3.5238631e-05
 -1.8280782e-04
 -4.7254715e-02
 -8.0233149e-05
 -2.0533714e-01
 -1.6543525e-04
 -1.2290948e-05
 -1.9033620e-05
  8.4917987e-04
 -5.1947538e-02
 -3.6953501e-03
 -1.4971209e-01
  6.8522361e-04
 -4.5482602e-04
 -1.9621915e-05
 -7.0195434e-05
 -1.3882085e-07
  1.4794571e-05
  7.1810100e-05
  9.3290022e-05
  1.0967174e-04
  2.5025671e-04
 -2.6777049e-04
 -6.2751722e-05
  2.7952651e-06
 -4.0714978e-04
  5.8781516e-06
 -1.3870581e-03
 -8.2969270e-04
 -5.4372480e-04
 -9.4418263e-04
  6.9722970e-05
 -2.6878892e-04
  8.5157335e-05
 -8.0577930e-04
  2.3610331e-04
  2.9306345e-06
 -1.5326649e-03
 -4.5711320e-04
 -4.2377137e-02
 -1.9321984e-04
 -8.2426541e-02
 -1.3856374e-03
 -4.3773730e-04
 -7.1328046e-04
  2.6672271e-03
 -4.7849346e-02
 -2.4210806e-03
 -2.5415990e-01
  2.9722467e-04
 -4.0169855e-04
  2.5774917e-04
  1.5765429e-05
 -8.5425512e-05
 -1.0585992e-04
  3.2845350e-05
  4.3708757e-03
 -6.5091306e-05
  1.4972535e-05
 -5.1670049e-05
  1.2565296e-04
 -2.7785902e-06
 -2.9126909e-03
  1.3341854e-04
 -1.3418166e-03
 -3.3405991e-03
  2.8813203e-04
  6.5870045e-05
  1.9909692e-05
 -4.8341224e-04
  1.1542541e-03
 -1.0581758e-04
 -9.8857276e-07
 -2.5663190e-05
  9.7151817e-05
 -9.6775062e-04
 -1.1936087e-05
  1.7952643e-04
 -1.2819801e-03
 -2.6758770e-03
  2.4162515e-03
  4.3272495e-04
 -3.1120216e-03
 -1.2905356e-03
 -2.8174636e-05
  5.4450124e-04
 -8.3377847e-05
  9.5017772e-04
 -9.0010051e-04
  2.9808771e-07
  3.4846529e-05
  3.6988104e-06
  9.2578113e-05
  1.0771454e-02
 -2.3628740e-05
 -3.3185590e-06
 -6.9547862e-02
 -3.5063241e-04
 -1.6754073e-04
 -6.9239764e-03
 -1.4583950e-05
 -7.7297245e-03
 -4.5575714e-04
 -7.8458688e-05
 -7.7097155e-02
  6.2417792e-04
 -2.3602945e-05
 -2.3899770e-01
 -3.4262669e-01
  5.8455049e-04
  1.6201881e-04
 -1.3280996e-06
  4.7339945e-06
 -6.1874528e-04
 -6.5846136e-04
  2.2220583e+00
 -1.7900409e-02
 -1.4280979e-05
 -1.1299285e+00
  8.3861858e-02
 -6.0354292e-01
  7.4897331e-01
  6.7192346e-01
  1.8005163e-04
  1.8396613e-03
 -1.6712128e-01
 -6.1162944e-05
  1.1843820e-04
  6.1534018e-05
 -3.6603233e-04
 -4.1611475e-01
 -1.4877416e-05
  2.3896402e-01
 -2.2730796e-01
 -4.6914010e-05
 -1.0063562e-04
  4.2215914e-02
 -9.2299056e-01
  5.7579714e-01
  1.1452261e-04
 -1.9762642e-03
  3.7586656e-03
  9.1448896e-02
  4.3494550e-05
 -1.0584150e-04
 -2.4643628e-01
 -5.0000254e-02
  9.5940923e-04
  4.6742240e-01
  2.7931139e-02
 -2.9718709e-01
  5.6473422e-04
 -5.7133311e-01
 -1.3150139e-02
  2.3331232e-03
 -6.1184346e-06
  3.2476667e-01
  7.3381639e-03
 -4.9977785e-01
 -2.6269981e-01
  5.2907277e-04
  8.9677401e-02
  4.4719145e-02
 -8.4847052e-06
 -8.1181701e-05
  3.6506972e-05
  2.8857595e-04
 -1.3137335e-04
  2.7572534e-05
 -3.1332108e-01
 -6.5015572e-01
  1.3213936e-03
 -3.0306368e-03
 -1.0214972e-01
  6.5566009e-01
 -1.3802943e-03
  2.5922740e-03
  2.1505714e-03
  8.5775182e-03
 -2.8226098e-01
  4.4245888e-02
 -2.4206439e-01
  1.1437964e+00
 -2.8275594e-01
  1.3082998e-02
 -1.7833423e-02
  2.2507365e-01
  3.2487763e-03
 -2.0881321e-01
  1.2310562e+00
  2.0866393e-01
 -4.2369628e-01
  1.1154451e+00
 -2.4401955e-02
 -7.3568481e-01
 -4.5202658e-04
  1.0429491e+00
  7.2693664e-01
 -9.0852368e-01
  8.4648384e-03
 -2.7101376e-05
 -3.7405151e-01
 -2.1739861e-05
  2.9602600e-03
  5.8267713e-01
 -1.4320493e-06
 -7.6830310e-01
 -9.8097592e-04
 -1.0919856e-05
  1.9446005e-04
  2.0801820e-04
  8.7040273e-05
  8.3918084e-04
  2.0786875e-04
  4.7990360e-04
 -4.2204457e-04
 -1.0448947e-02
 -2.3987058e-03
 -1.0518080e-04
  2.4872407e-04
 -7.1591325e-03
  9.8804478e-05
  1.3586566e-04
  4.7542949e-04
  1.6185305e-03
  6.5564597e-04
  4.9769972e-04
  5.0334050e-04
 -2.1388406e-04
 -4.6559633e-04
 -6.2379098e-01
 -2.0284776e-03
  1.0850310e+00
  1.2861755e+00
 -4.2988635e-03
 -4.2413446e-01
  6.9916546e-01
  1.2613817e-04
 -1.4037972e-03
  5.2866467e-06
 -3.6729202e-06
 -1.6949898e-02
 -1.4530247e-05
 -1.9093495e-04
  1.9742739e-01
 -8.8931579e-04
 -3.2595894e-04
  2.2745909e-02
 -8.6705165e-04
 -1.8826928e-03
  1.9364315e-04
 -6.0452080e-01
 -2.2056374e-04
  8.0871528e-01
 -8.3835706e-02
 -7.6797232e-02
 -1.2261862e-01
  9.4234988e-02
  8.8956789e-04
  5.4363566e-03
  2.1568358e-01
 -7.1376986e-03
 -8.6588983e-04
 -1.2529044e+00
 -4.3313631e-01
 -7.0041290e-04
 -2.8074451e-04
  1.7126523e-02
 -9.6855253e-02
 -1.3708445e-02
 -2.1890497e-01
 -1.5101406e-03
  1.1575013e-02
  1.9322865e-04
 -4.4721350e-05
  1.5504844e-03
 -1.8332632e-05
 -6.2212507e-06
  4.2321853e-02
 -4.3526967e-08
  3.3626085e-05
  1.2992117e-01
  4.4186836e-06
 -7.6470379e-04
 -1.8592721e-03
  3.1820211e-05
  9.8174205e-04
  2.1239740e-04
  1.6075783e-04
 -2.0163538e-04
 -9.9188233e-05
 -1.9023601e-04
  3.9284987e-05
  2.4525387e-02
  1.0418884e-03
 -1.0818918e-04
 -2.1689125e-04
  1.0758084e-05
  4.3827391e-01
 -3.7817738e-04
  1.0634723e-01
  2.4931440e-02
 -1.6258220e-03
  6.6968673e-01
 -1.4014553e-01
  1.2738754e-01
  2.3534109e-01
  1.4557877e-01
  6.0458905e-03
 -1.1211520e-05
  2.4330616e-01
  1.0890711e-02
  4.2658966e-04
 -2.3616692e-05
  9.6399024e-02
 -2.9452127e-01
 -3.3008728e-05
  4.7989152e-04
  9.8050520e-02
 -7.3993313e-01
  1.1031716e+00
 -5.2946186e-01
 -1.8087615e+00
 -4.7809552e-02
  6.8744272e-02
  8.0266297e-01
 -1.2603409e+00
  4.1820323e-01
 -1.0936730e-02
 -4.6644356e-02
 -2.2306819e+00
 -1.4233901e-01
 -3.6352509e-01
 -1.0782425e+00
 -9.6536830e-02
  1.1441083e-01
 -3.2378852e-01
 -1.3853192e+00
 -8.2902856e-02
  3.7094080e-01
 -2.5617328e-01
 -4.4581202e-01
 -2.8703856e-01
 -2.5227835e-02
 -1.9347051e-01
  3.4812179e-01
  3.2126886e-01
 -3.9155281e-01
 -8.4317617e-06
  7.5020450e-01
 -3.2917615e-05
 -8.2779467e-01
  7.2639875e-02
 -5.4449943e-06
 -3.8680653e-04
 -8.3889854e-01
  1.1566279e+00
 -8.0779433e-01
 -4.8124388e-01
 -1.6689284e+00
  7.4840260e-01
  1.9971348e+00
 -8.7041277e-01
  3.5059597e+00
 -1.8258568e+00
 -7.0194906e-01
  6.6927006e-03
 -2.9112747e-01
  3.6908755e-01
  3.5990363e-01
  7.3821461e-01
  7.4747765e-01
  9.7966832e-01
 -5.5586088e-01
 -2.5414920e+00
 -9.6635623e-03
 -8.7240607e-01
  1.4314615e+00
  2.7633858e-01
 -1.5591064e-01
  3.9670342e-01
 -1.7236570e+00
  3.9003202e-01
 -6.9409490e-01
 -8.0947572e-01
 -6.4554451e-06
  2.2946435e-03
  1.2241950e-05
 -1.5674934e-03
  1.8320522e-01
  2.9185894e-05
  1.4645649e-02
 -4.2801741e-01
 -1.8128814e-01
 -1.3889757e+00
  5.1365465e-01
  3.3473887e-04
 -4.9545795e-01
  1.3032183e-01
  1.3448005e+00
 -2.7438009e-01
 -7.9979044e-01
  1.6668992e+00
  1.2768175e-04
 -9.0007621e-01
  8.9816988e-02
  9.2892833e-02
 -1.6466794e+00
 -1.3209194e-01
  1.7063140e+00
  1.2206480e-01
 -1.5170782e+00
 -7.5573218e-01
  2.6049513e-02
 -2.6103311e+00
 -5.8388719e-03
 -2.4186599e-01
 -2.0205933e-01
 -7.8530347e-01
 -4.7797132e-01
  8.3134919e-01
 -5.4526168e-01
  3.3662745e-06
 -6.2021404e-03
  1.3621768e-05
  1.3547997e-03
  8.8336703e-04
 -1.1157487e-05
  1.1350353e-06
 -2.4307422e-01
 -2.2105223e-01
 -1.4060003e-05
 -1.1012439e-04
  5.3374877e-04
  8.9255738e-04
  1.1428262e-01
  2.6343236e-02
 -3.1379625e-01
 -5.0895309e-01
 -2.6145026e-01
  8.0445462e-01
  9.4082642e-01
  1.4797763e+00
  8.9226311e-01
 -6.5368402e-01
 -1.1703737e-01
 -1.5723181e-03
 -2.6839030e-01
  2.3306613e+00
 -4.4414017e-01
  4.2788199e-01
 -1.9468704e-01
  6.1717518e-02
  3.0041751e-01
 -8.3539438e-01
  6.6565461e-02
 -9.5433438e-01
  1.9452158e+00
 -2.4593415e+00
  1.8021991e+00
  2.0892069e+00
 -8.9196259e-01
 -2.3982551e+00
  3.0838292e+00
 -2.8160903e+00
  3.0670996e+00
 -2.8475518e+00
  2.0161746e+00
  2.5793803e+00
 -1.9051865e+00
  2.1889648e+00
  1.8651379e+00
 -3.3628109e+00
 -2.3005397e+00
  1.6899028e+00
 -7.1551114e-01
 -2.4389343e+00
 -2.8926988e+00
  3.4316168e+00
  2.9677362e+00
 -2.2656364e+00
 -3.2534494e+00
 -3.0533655e+00
 -3.1004291e+00
 -3.3886244e+00
  2.6783249e+00
  3.0916898e+00
  3.4933126e+00
  3.6135943e+00
  2.1549006e+00
 -2.2155106e+00
 -2.2825661e+00
  2.2127056e+00
 -2.2084358e+00
  1.5319960e+00
  1.5861635e+00
  2.1474416e+00
 -1.8721576e+00
 -2.5170290e+01
  1.3314460e+01
  1.7055367e+01
 -1.0792906e+01
 -2.5394985e+01
  1.8817478e+01
 -2.2868742e+01
  1.3190990e+01
 -1.6919941e+01
  1.9641502e+01
  2.0818136e+01
 -2.1076908e+01
  3.1829367e+01
  1.4988070e+01
 -2.3300396e+01
 -2.1756754e+01
  1.5112420e+01
 -2.0375519e+00
 -2.1740776e+01
 -1.5868054e+01
  2.0664396e+01
  1.6537056e+01
 -1.8422897e+01
 -1.4391549e+01
 -1.9307940e+01
 -2.4739140e+01
 -2.2955585e+01
  1.1163142e+01
  2.3779720e+01
  2.3818548e+01
  1.8340239e+01
  1.8417360e+01
 -2.6548141e+01
 -1.6331490e+01
  2.2792990e+01
 -1.2246106e+01
  2.8190134e+01
  1.2066987e+01
  2.0183508e+01
 -1.8237242e+01
  4.0064828e-05
 -2.7972777e-04
  4.2241787e-05
  3.3072738e-05
  5.3152340e-05
 -3.1255797e-05
 -6.5791742e-06
  5.8160185e-05
  2.0047653e-05
 -4.4277349e-05
  4.0592739e-05
 -4.8006608e-05
 -5.7699450e-05
  3.1778141e-05
 -1.0963465e-03
 -5.6388158e-06
 -2.3056866e-05
 -1.9340172e-05
  1.5295334e-05
  4.2635505e-04
 -1.0024314e-05
  5.3656229e-05
 -4.2376490e-04
  7.7904208e-04
 -1.0178556e-05
 -3.1377177e-04
 -1.3778341e-05
 -6.0983813e-05
 -3.5466930e-01
  1.6884369e-05
  3.8399983e-05
  5.6859546e-05
 -1.0254001e-04
 -5.6749109e-06
  6.1960280e-04
 -1.7204855e-01
  9.9538047e-06
  9.7242337e-06
 -6.0901039e-05
 -4.2397816e-05
  5.3679909e-05
 -1.4750667e-05
  5.8436526e-05
 -3.4073986e-05
  2.3298709e-05
  2.0517217e-04
  6.0229791e-05
  3.7549024e-05
 -2.6640575e-04
  9.9845447e-06
 -1.6815140e-04
 -9.1302436e-04
  4.8669490e-06
 -1.2657848e-04
  2.7037144e-04
 -1.2090401e-04
  3.8496637e-05
 -1.1053927e-06
 -6.0441937e-05
 -4.9516115e-05
  3.5267199e-06
 -4.7888891e-05
  6.0402708e-05
  3.6159538e-05
 -4.0409333e-05
 -2.3589413e-01
  5.8617698e-05
 -2.5693422e-05
 -6.2258550e-06
 -2.1362144e-03
  3.8080900e-05
 -1.6325097e-04
 -1.1894210e-01
 -1.6669434e-05
 -2.9896371e-05
  2.8037463e-04
 -2.7536809e-05
 -1.6023678e-04
  5.0505467e-05
  7.5418345e-04
 -1.2981809e-04
 -1.7298047e-05
  4.3068472e-01
  3.9956019e-05
 -1.4697404e+00
  9.4977123e-01
  3.4626842e+00
  1.2136648e+00
 -6.8679041e-01
 -1.3024164e+00
  5.2537303e-04
 -2.9740983e-01
  1.0282516e-03
  1.2273310e-01
 -9.1692984e-01
 -5.1369485e-02
  1.0729330e+00
  3.1051338e-01
  4.2505449e-04
  2.5637376e-01
 -5.9708923e-01
  1.1819042e-01
 -7.6055694e-01
 -1.8159802e-05
  1.4574570e-04
 -6.0088050e-01
 -6.6306092e-02
 -8.5048500e-04
  1.0427553e-01
 -9.9129498e-02
  9.3474060e-01
  4.4860084e-05
 -5.9666931e-05
  3.2186941e-05
  4.3859521e-01
  5.9173578e-01
  2.5073162e-01
 -8.1144884e-05
  1.1956782e+00
  4.7911663e-02
 -6.3454789e-01
 -7.9728878e-01
  1.7102928e-01
  4.9074247e-01
 -5.7815909e-01
  4.7075996e-01
 -4.6444014e-02
  3.3416304e-01
 -6.0662138e-01
  8.6196113e-01
 -6.5728742e-01
 -6.4955449e-01
 -1.4679910e-03
  1.5081461e-01
  2.8484458e-01
 -1.1279290e+00
  1.6464726e+00
  1.6152689e-01
  4.7783587e-02
  1.5785323e+00
 -1.2894137e+00
 -5.0322807e-01
 -1.1282260e+00
  2.1778774e+00
  2.3133533e-01
 -6.2789452e-01
  1.7128743e+00
 -3.5867476e-01
  6.1418010e-05
  1.8302469e-04
  3.6056132e-05
 -1.0564253e+00
  3.0308984e-05
  1.7723009e-01
  4.2820386e-05
  1.6272702e-04
  4.0398833e-01
 -3.0953888e-02
  1.6093257e-01
 -1.3712746e+00
 -3.9369074e-01
  5.3044629e-01
 -3.0472746e+00
  1.4832765e+00
 -4.0113837e-01
 -3.8769987e-01
  1.0497053e+00
  7.8158304e-02
  3.5157624e-01
 -2.0985584e+00
 -1.9752750e-01
  1.0384451e+00
 -1.2370243e+00
  2.9287139e-01
 -2.2405198e-01
  1.7935786e-02
  4.3918774e-01
 -1.1103466e-01
  6.9968469e-02
 -1.5615933e-01
  5.1615000e-01
 -2.3863888e-01
  2.5261962e-01
  8.7399632e-02
  1.0020744e-01
  4.2598131e-05
  2.3366229e-05
  5.2411793e-05
 -4.0325699e-06
 -4.7100159e-05
 -9.9954603e-04
  2.3819963e-05
  4.0014722e-05
 -1.6959668e-04
  1.6218632e-05
 -2.6573039e-06
  4.0616251e-06
 -4.9818550e-06
  5.5491328e-05
  6.4261939e-04
  5.1758860e-05
 -9.1427928e-06
 -4.7385336e-05
  6.8751480e-03
  5.9975257e-05
 -3.9407983e-05
  4.6683807e-04
 -4.8458256e-05
 -1.9291003e-06
  6.0891583e-05
 -4.1372993e-04
  2.9016141e-04
 -3.0274918e-05
  2.0415372e-01
 -1.2320293e-05
  1.5967655e-05
  2.0379349e-04
  4.3180180e-03
  3.8065416e-05
 -1.1551909e-04
  1.1101471e-01
  4.6277291e-06
  5.5251698e-05
  6.2354957e-08
  1.1909460e-05
 -1.7854269e-05
  5.7455967e-05
 -1.6643573e-05
 -9.3134640e-06
  1.7210681e-04
  4.3510649e-06
 -4.5687917e-05
 -1.0159255e-05
 -2.8001412e-04
 -3.2528129e-05
  2.2795453e-05
 -3.1802425e-05
  3.1977350e-05
  2.1312080e-04
 -2.8697497e-04
 -4.4850360e-05
  5.5189874e-05
 -1.4739957e-04
 -1.7820532e-04
 -2.9782321e-05
  2.0971169e-05
  1.9135792e-05
 -3.2033731e-07
 -3.7914612e-03
 -7.2385272e-04
 -1.5409283e-01
  1.7852326e-05
 -5.2671105e-05
  1.7084792e-04
  5.3168141e-04
  5.2487894e-06
  9.6819233e-05
 -1.0809209e-01
 -4.6043206e-05
  5.5963796e-05
 -3.1313655e-05
  5.0557719e-05
 -6.0300630e-05
 -2.8072824e-05
 -4.1124955e-04
  1.7696741e-05
  1.3366090e-04
  5.8354530e-04
 -9.4659081e-06
 -5.6737765e-05
  3.0611052e-05
 -1.5328673e-05
  6.1782025e-06
  1.3990562e-05
  3.9243948e-04
 -2.9479587e-04
 -3.1773270e-05
  6.2261941e-04
 -3.1470066e-05
 -1.0360843e-05
  9.0700074e-04
  1.8275010e-04
  4.7155918e-05
 -1.7538659e-04
  2.9707263e-04
 -5.1292445e-05
  1.3956126e-04
  1.4275779e-01
  2.7174811e-04
 -3.0841100e-05
 -2.8910904e-04
  5.9424805e-05
  2.7817534e-04
  7.3261803e-04
  6.5481238e-02
  2.7961785e-04
  5.2827399e-05
 -6.5973781e-02
 -1.7438550e-05
  6.0862018e-05
 -2.9917795e-04
 -2.6686780e+00
 -1.2895300e-05
 -3.3556091e-05
  4.2154469e+00
  1.6216429e+00
 -1.3681560e+00
 -1.8609107e-01
  8.0130033e-02
 -2.5031602e+00
 -1.1828411e+00
  1.5694913e+00
  3.4788302e-03
  3.6295053e-01
  7.0396620e-01
 -1.3342687e+00
  2.0665855e+00
 -1.3220739e+00
  3.5528287e-01
 -2.6777349e-02
  2.0153131e+00
  2.3718290e+00
 -1.2602448e+00
  1.1984706e+00
 -1.1301956e-01
  1.5592113e-01
 -6.8486434e-01
  7.7062678e-01
  1.3706892e+00
 -8.5322738e-02
 -9.2117181e-03
 -2.3125371e-01
  5.2354348e-01
  4.9859897e-05
  1.0946908e-05
  3.6005171e-05
  3.4497760e-04
  5.9177994e-05
  5.9559970e-05
  4.7737991e-05
  4.7305784e-06
 -5.8072907e-05
 -3.9775346e-06
 -1.7765911e-04
 -3.0014536e-04
 -5.8779558e-05
 -1.1402736e-05
 -2.5800166e-05
 -4.5301618e-05
  1.3452892e-05
  2.1483705e-05
 -5.8298752e-05
  2.6008495e-04
 -9.7657874e-05
 -3.5982511e-03
 -6.5804576e-05
  2.1612394e-05
 -1.2049758e-03
 -3.9237525e-04
 -1.6388655e-04
  3.6121906e-05
 -5.7595167e-03
 -4.7865897e-06
  1.5940535e-05
 -1.8409322e-05
 -2.7502450e-04
 -3.4646342e-05
 -4.2190339e-04
 -1.9073378e-02
 -1.0145832e-04
 -5.7703837e-05
  5.2375162e-05
  6.8972399e-06
 -3.6178211e-05
 -1.4387057e-05
 -1.5168346e-04
  4.3607561e-05
  1.7610275e-05
  6.0692459e-05
  6.0895713e-05
 -2.0353442e-05
 -4.8018002e-04
 -4.6642512e-05
 -3.7508700e-05
 -4.6316538e-02
  1.9951573e-05
 -1.4524422e-04
  4.4022541e-05
 -1.0625218e-04
 -5.9655871e-05
 -2.2143724e-04
 -1.4278963e-03
  2.4319674e-04
 -3.5449941e-04
 -2.6373724e-05
 -2.4978488e-04
 -3.8086937e-04
  3.3757588e-01
 -6.0021764e-01
 -1.0699410e-05
  1.6359576e-04
  4.9606508e-05
 -1.4457619e-02
 -9.2848419e-04
 -1.7678820e-01
 -8.5900025e-03
  3.9583858e-05
  5.4325730e-05
  1.5889907e-05
 -5.5511689e-05
  3.2073960e-05
 -2.6897513e-05
 -4.0507275e-03
  4.8104179e-05
  5.3793592e-05
  4.9420451e-06
 -1.2381464e-04
  2.8430595e-04
 -1.7621039e-04
 -1.0302011e-04
  8.8530598e-04
  1.2380122e-02
 -3.6296275e-05
  1.6237147e-05
  5.2770531e-05
  2.1290316e-04
 -1.7414137e-05
 -1.3453858e-05
  8.5687777e-04
 -5.1799143e-04
  5.8774582e-05
  3.4748230e-04
  2.3862842e-05
 -1.7209438e-04
 -5.7306595e-05
  3.5170361e-01
  3.5251614e-05
  3.8625862e-04
  9.7216571e-06
  3.4398679e-02
 -3.1752290e-05
  7.2520651e-04
  2.2697413e-01
 -1.4933405e-04
 -3.9741426e-04
  4.0485014e-05
 -4.5068417e-05
  3.6612251e-05
  4.6850575e-05
  6.0409689e-05
  1.2257960e-04
  1.4076484e-04
 -3.5742554e-04
  1.5554288e-04
  2.4927018e-04
 -1.4745702e-04
 -1.3770082e-05
 -2.2045879e-05
 -6.0045029e-05
 -8.7360917e-07
 -9.1240936e-06
  8.1346907e-06
  3.2038988e-05
 -3.4323035e-04
 -2.4996157e-04
 -1.6318386e-03
 -1.6854936e-04
  2.3221695e-04
 -7.6826676e-05
  6.8806519e-05
  1.7960041e-05
  2.6060260e-04
 -2.5664881e-01
  4.4098317e-05
 -1.5043046e-05
 -1.2170753e-04
 -4.4763734e-04
 -1.3499803e-04
 -6.2166713e-04
 -1.1198476e-01
 -4.4586977e-05
  1.2343477e-06
 -4.1758314e-05
  4.6899080e-05
  6.0887163e-05
 -1.5183893e-04
  1.6346276e-04
 -4.7884230e-05
  7.2034691e-06
 -5.2449512e-05
  1.2891791e-05
  2.0539449e-06
  1.5258668e-03
  6.2854542e-06
  1.1591426e-05
  1.6326660e-02
 -4.1107263e-04
 -2.6733594e-05
 -3.1274943e-05
  3.6916067e-04
 -9.8115345e-07
  1.0695115e-04
  1.6906435e-03
  1.0323322e-06
  2.9632373e-04
  1.3990189e-03
 -1.0995538e-04
  1.4081760e-04
 -1.7483209e-03
  4.2681301e-01
  8.2062652e-05
  1.7718034e-04
 -1.1713745e-04
  5.2976888e-03
  2.7201606e-06
  3.0064231e-04
  1.7861576e-01
  4.1200011e-04
  1.2289057e-04
  1.1024360e-06
 -3.6151647e-05
 -2.8533454e-04
 -3.2175456e-05
  1.4263943e-04
 -5.6693363e-05
 -3.9923834e-06
 -1.5108580e-05
  5.3641381e-04
 -3.1881700e-05
 -1.4502759e-04
 -4.6721660e-05
 -9.0559502e-04
 -1.7802359e-04
 -1.4254873e-04
  1.1485961e-04
  3.7518381e-05
 -1.1312583e-04
 -5.0607213e-04
  1.6946720e-04
 -1.6086196e-03
  5.5638313e-05
  4.7961435e-05
  2.4621240e-05
  1.9394409e-05
 -2.6892074e-05
  1.5838350e-04
 -2.0572925e-01
 -1.0610853e-04
  5.9890255e-05
 -5.1299350e-05
  1.4852494e-04
 -2.7190452e-04
 -8.0366604e-05
 -1.4897519e-01
 -3.7797561e-04
 -9.9727877e-06
  5.8541165e-05
 -3.8437469e-05
 -1.2073693e-03
  1.1041647e-04
  1.5262312e-04
  5.1317405e-05
  4.3240703e-05
  3.6296594e-01
 -4.1088682e-05
  5.2525502e-05
  2.4718894e-02
  1.8212965e-04
 -5.4496224e-05
 -6.2017637e-01
  2.6322619e-04
  2.9784464e-05
  6.6357566e-04
  8.3272960e-03
  1.1745180e+00
  3.7789854e-01
 -4.7881092e-04
 -4.5784507e-02
  1.2019598e+00
  1.3261140e-04
 -5.3261216e-03
  1.0020281e-03
  6.5074307e-01
 -2.0375328e-05
 -9.0613529e-02
  1.3080121e-04
 -3.5565880e-03
  5.0471079e-02
 -1.4422788e-02
  4.8471935e-05
 -4.4106677e-01
  1.4785382e-01
  4.0330924e-05
  1.0976566e-04
  2.4688648e-05
 -2.8328280e-04
 -1.8296663e-04
  4.3357875e-05
 -6.0540362e-05
  4.9858223e-05
  3.9707662e-05
  6.4605221e-05
 -2.8772160e-04
  3.9924904e-05
  3.8874412e-05
 -1.8257707e-04
 -5.4636123e-05
 -2.9521236e-05
  2.3460583e-05
 -5.9240218e-05
  2.1163929e-04
  1.6643692e-04
 -2.9947315e-04
 -3.5496803e-03
  1.3882048e-04
 -3.2157084e-05
 -5.3261891e-05
  7.9063949e-04
 -1.4846923e-05
  4.3037453e-05
 -1.9573900e-01
  1.7320120e-04
  6.0698283e-05
 -4.8712885e-04
 -1.6143550e-04
  2.7575012e-04
  1.5311925e-04
 -5.4861899e-02
 -2.6904332e-04
 -5.6660519e-05
 -2.9741925e-05
 -2.9396893e-05
  5.8743324e-05
 -1.7659815e-05
  1.0038938e-03
  4.3202515e-05
 -5.6418844e-07
 -1.5970599e-03
  1.6599575e-05
  2.5135605e-05
 -2.6240721e-03
  2.5321431e-05
 -2.7443506e-03
 -3.2276518e-03
 -5.1807892e-05
  4.8674287e-05
 -4.6546315e-06
 -6.6730374e-04
  3.3101904e-05
 -4.0072034e-04
 -4.2205490e-04
 -2.8593352e-04
 -2.3534585e-05
 -6.0604609e-05
 -8.6698250e-04
 -9.9059038e-02
 -8.2392544e-05
 -3.0718762e-01
 -4.1172843e-04
 -2.0298836e-05
 -4.1367322e-05
  4.7540700e-05
  8.2668339e-06
 -9.5984727e-02
 -1.5495467e-01
  2.0933831e-04
 -9.1151759e-07
 -5.6336976e-05
 -1.3427105e-05
  1.8937859e-05
 -3.0666317e-05
 -5.6473087e-05
  3.7681304e-05
  1.3765498e-04
  9.7132070e-05
  1.4484049e-04
  5.4804401e-05
  3.9230971e-04
  2.9038428e-04
  5.8121015e-05
  5.4254517e-05
 -7.1354693e-06
 -1.1628131e-04
  1.6717111e-04
  1.6176717e-04
  1.9702095e-05
  3.3974259e-03
  7.2855823e-04
  2.8757370e-04
  2.7065464e-05
 -1.4806895e-04
  2.1603479e-05
  6.8590789e-06
  3.9818397e-04
  2.7965093e-01
 -1.6198077e-04
  1.4245004e-05
  1.1882518e-04
  1.7986099e-03
 -2.4943278e-04
  4.0286622e-04
  1.2806454e-01
 -2.7166332e-05
 -1.9002484e-05
 -4.6636229e-05
  5.9184211e-05
  1.8132421e-05
 -1.7255622e-04
  9.0634711e-02
  1.7378795e-04
 -1.1053239e-05
  4.7733987e-04
 -1.6750774e-04
  1.0122218e-02
 -8.7492448e-01
 -6.0875603e-04
  7.7238068e-04
 -2.4082586e-02
  7.7317305e-02
 -1.0633439e-04
  2.5954808e-04
  2.0138782e-03
 -5.9345450e-05
  2.0840369e-01
 -1.8364492e-01
  9.5974710e-03
  1.1227914e-04
  6.8279231e-05
 -8.4009206e-01
 -6.0222046e-05
  1.3952955e-03
 -5.3667634e-05
  4.8610189e-05
  1.6869225e-06
  2.1757785e-04
 -1.2197976e-01
 -3.8022953e-04
  1.6117163e-04
 -9.2763031e-01
  6.9283080e-01
 -6.0863636e-05
 -5.4395761e-05
  1.8805305e-05
 -5.1582003e-05
 -6.6734046e-06
  2.0395961e-05
  3.3729906e-05
 -5.6835892e-05
  6.6359908e-06
 -5.8532227e-05
 -1.5049983e-06
  2.4132653e-04
 -4.2303152e-05
  3.1071973e-05
 -1.1895421e-04
  1.1548998e-03
 -2.3130628e-05
  1.9085769e-06
  7.4835298e-05
  3.4775398e-06
 -9.9864039e-05
  4.1343177e-05
 -2.9274009e-04
 -1.8298280e-04
 -1.8525567e-05
 -3.9624027e-04
 -2.9139669e-04
 -2.2570060e-04
  1.7165837e-01
 -5.4894236e-04
  6.3768314e-04
 -3.9186798e-05
  1.4508373e-04
 -1.3076969e-04
 -4.8857710e-05
  1.0723873e-01
 -1.1095130e-04
 -3.4176348e-05
 -8.7898752e-06
 -1.8134648e-05
 -4.2922817e-05
 -3.2582175e-05
  8.8539894e-04
 -2.9441340e-05
 -1.3955645e-04
 -2.4824023e+00
  2.8998365e+00
  2.8763510e-05
  2.5258427e+00
  3.4581721e-01
 -2.8053060e-01
 -8.2369375e-01
 -1.1813095e+00
  4.2343989e-01
  4.1185711e-02
  1.9911766e-01
 -2.1720524e-01
 -1.7093627e-03
 -9.2224622e-01
 -5.3594965e-01
  6.4324152e-01
  1.6134435e-03
  2.3739040e+00
  2.3464862e-02
 -2.3522904e-02
 -1.3460447e-03
 -9.4043821e-01
 -1.7588402e-04
  2.5267687e-02
  7.8760701e-01
  1.1975683e+00
  3.5985839e-01
  4.7141269e-01
 -9.1000646e-01
 -3.9610604e-05
 -2.8325070e-05
 -1.5767226e-04
  4.9659982e-05
 -5.9359332e-05
  2.8311581e-04
  5.2707881e-05
 -3.4014625e-05
 -1.1273738e-03
 -9.6804697e-06
 -2.7470605e-04
 -2.9945470e-04
 -1.3448995e-04
 -1.2353632e-04
 -5.4301348e-05
 -1.1958148e-04
  7.0210590e-06
  1.2000451e-04
 -1.3915786e-03
  1.3794436e-04
 -3.0471067e-04
 -1.1593759e-03
  2.8854300e-04
 -8.8615656e-05
 -5.9611746e-05
 -3.6553207e-05
 -5.2531599e-05
 -2.4886066e-04
 -1.3848791e-01
 -2.6867496e-05
 -7.6858024e-04
 -6.0241637e-05
 -4.3888867e-04
 -2.1093215e-04
 -4.2277039e-04
 -1.4648536e-01
 -5.3700674e-05
 -5.3163298e-05
 -4.0225947e-05
 -4.1511823e-05
  2.8772822e-06
 -2.5741141e-05
 -5.4214332e-05
 -4.4055869e-06
  6.0029517e-05
  4.2139381e-04
  5.9065023e-05
 -4.6030415e-05
  2.0533421e-03
 -4.0109921e-05
  3.5081400e-06
  3.7083018e-03
 -3.6972964e-05
  1.8628405e-05
 -5.0237973e-04
  4.4260287e-05
 -1.2954819e-04
 -1.6959752e-04
 -7.5145119e-01
 -1.2452502e-04
 -1.6410180e-03
  2.8609600e-05
 -1.3638021e-04
 -6.0853607e-05
  7.3865103e-04
  2.5647134e-01
  1.4242351e-05
 -4.4929820e-05
 -1.7667402e-04
 -2.0450243e-05
  4.9608147e-06
  6.5139402e-04
  3.5024998e-01
 -4.2427881e-05
 -4.0145860e-05
 -1.8245196e+00
  3.1268883e-05
  4.8394105e-04
  5.6114459e-05
  1.8062929e+00
  3.4867444e-05
 -1.5855138e-01
  1.0454078e+00
  8.2450962e-01
 -3.3489653e-01
  7.9954618e-01
 -3.4860185e-01
  4.5787156e-02
  9.3946517e-01
  6.1767554e-01
  1.0959779e-04
 -1.5137280e+00
  1.8600923e+00
  4.4647977e-01
 -2.1478167e+00
  2.0350296e+00
  2.0508701e-01
  1.4277694e-01
 -2.0142856e+00
  8.1532437e-01
 -2.6782455e-02
 -4.0378120e-02
  1.5128657e+00
  3.7961239e-01
  7.5504261e-01
 -5.7951337e-01
  3.8500473e-01
  4.5622643e-02
 -2.9436259e-02
 -9.7465241e-01
  5.3506076e-01
 -5.8772785e-05
 -2.6995500e-05
  4.0008326e-05
  5.4055341e-05
  1.5959922e-04
  2.0664724e-04
 -6.2156665e-05
  3.2694727e-05
 -1.4507894e-04
 -7.8738694e-06
  1.7575713e-04
 -1.2342299e-04
  3.4562327e-05
 -1.0988424e-04
 -5.9580259e-05
  6.0614580e-05
 -5.4180964e-05
 -3.9029870e-05
 -3.1703392e-05
  6.2110386e-04
 -2.4950286e-04
 -7.1976701e-04
 -1.4701071e-05
  6.0986622e-05
 -1.4890730e-04
 -1.1330584e-04
  3.2476419e-05
 -1.6035523e-05
 -1.5016191e-01
 -3.4100216e-04
 -3.8745723e-04
  1.0202692e-04
 -5.4914469e-04
  1.0950405e-03
 -1.4026708e-03
 -3.8091198e-01
  1.3252461e-04
 -5.6299465e-05
 -5.5988196e-05
  5.4377699e-05
  3.3262782e-05
  1.5353131e-05
  2.7328338e-03
  5.0877567e-05
  1.2527093e-04
 -6.0937131e-05
  1.4863176e-05
 -5.3633368e-05
  2.8938728e-06
  2.1896139e-04
  5.5942361e-05
 -3.1440304e-05
 -5.5196215e-05
 -1.5475527e-04
  1.6483660e-05
 -1.3075068e-04
 -1.2115309e-04
 -1.6400959e-04
 -3.2295908e-03
 -3.0386684e-04
 -5.5674685e-05
 -1.5166840e-04
 -1.3721178e-03
  5.8112179e-05
  1.7868089e-04
 -1.4281343e-01
 -4.9363816e-04
  4.2225998e-05
  2.5091055e-04
 -4.0552640e-04
  6.0655388e-05
 -1.4976722e-04
 -9.0347186e-02
  8.5342588e-05
  4.8305865e-05
  1.4020983e-03
  5.7477060e-05
  3.2441196e-05
 -4.6715639e-05
  2.3785400e-01
  2.1840795e-05
 -5.5573641e-05
 -2.0193397e-01
 -5.3345677e-05
  3.0463238e-04
 -1.1990031e+00
 -4.0321022e-05
  7.9687001e-05
 -5.8521751e-02
  2.9546456e-04
 -1.6351256e-01
  1.8379385e-05
  2.5405354e-04
 -1.4778866e+00
  2.7677460e-04
 -1.9933304e+00
 -2.5238825e-05
  1.6335326e-03
 -1.8710336e-02
 -1.3780922e+00
  7.9257257e-02
  7.2125232e-01
 -7.6808847e-02
 -9.9238627e-02
 -4.1981006e-01
  2.0226419e+00
 -9.0462029e-02
  5.7524458e-06
  1.0125085e-02
 -2.5091417e-02
 -1.4653936e-01
 -4.2377698e-05
  2.3589997e-05
 -2.4026338e-05
 -3.9696999e-05
  5.5100122e-06
 -1.5826865e-04
  2.4205516e-05
  1.7327485e-04
 -1.1426147e-05
 -5.0659542e-05
  3.1870390e-05
 -5.0097361e-02
  2.0066413e-05
 -4.4422274e-04
 -1.7722332e-04
  4.6832763e-05
  1.1126769e-05
  8.1855564e-05
 -6.2671614e-01
  2.1867389e-05
  2.6477923e-04
 -2.7842104e-04
  1.4453816e-04
  5.0546270e-05
  5.9062586e-05
 -2.7409810e-04
  8.5517589e-05
 -1.0835879e-04
 -2.4089760e-01
  7.5699143e-05
  3.5189741e-04
 -1.7982732e-04
 -5.0499747e-03
 -4.9015746e-04
 -6.5820338e-04
 -4.9130756e-02
 -2.1971590e-03
  6.1332457e-06
 -6.9485283e+00
  6.0829203e-05
  2.8831503e-04
  5.9692931e-05
 -2.5051582e+00
  2.8812243e-05
 -6.0213591e-05
  1.5566329e+00
  2.4406931e+00
  3.9559428e-02
  9.6925831e-01
  2.7490434e-01
 -9.9833363e-01
  8.0625325e-01
  2.0077090e+00
 -2.9451940e+00
  1.1890081e-01
  3.1648469e+00
 -2.3045983e+00
  1.8202393e+00
 -2.0163569e-01
  1.2972596e+00
  3.3481231e-01
  6.0562366e-01
  2.4401672e+00
 -6.4626761e-02
  2.8690597e-01
  6.4154649e-01
  2.2517550e+00
 -1.2880778e+00
  1.3904369e+00
  1.7162411e+00
  6.8788898e-01
  7.0093042e-01
 -1.1950421e-01
 -2.5969794e-01
 -6.0727743e-05
  1.5888960e-04
  4.8304690e-05
  1.7259757e-04
  2.0479758e-05
 -1.2184095e+00
  2.5375919e-05
  1.2908111e-05
  1.1702734e-02
  6.8642431e-01
 -2.4425678e-04
  2.5694032e-04
  9.6590333e-02
  1.1450132e+00
 -2.3065357e+00
 -1.1223112e-03
  3.9312214e-01
  6.0450623e-04
 -3.0690768e-01
  7.6983637e-01
 -3.3802038e-01
  1.8473542e-01
 -1.6822678e-05
  9.8866016e-01
 -8.8007879e-01
  3.7492034e-01
  2.0976002e+00
 -6.8383321e-02
 -7.8147793e-01
 -3.7434116e-02
  7.4623954e-01
  4.4364348e-02
  1.6945870e-01
 -2.5451163e-02
 -1.2100470e-01
  3.0654256e-04
 -1.3230737e+00
  5.8874379e-05
  1.5529392e-06
 -2.3353876e-05
  3.0860243e-05
  4.2252323e-05
  1.6642766e-04
  5.5287179e-05
  5.8320013e-05
 -9.9016506e-05
  1.5560017e-04
 -5.9758906e-05
 -2.3890453e-04
  1.8004396e-04
  3.0166298e-04
 -1.7506842e-02
 -1.4859021e-05
  1.1592197e-03
 -3.0458980e-04
 -6.2425039e-04
 -3.8869239e-05
 -1.5278220e-04
 -7.2743971e-04
 -6.6740310e-04
  2.7890803e-04
  3.5970524e-04
 -2.3346842e-05
  8.8223038e-05
  3.9182491e-06
 -2.9355994e-01
  4.0650702e-04
  5.8702579e-05
  2.4137853e-04
 -6.6921872e-04
  2.2919721e-04
 -1.1977799e-03
 -2.3668154e-01
 -2.3843970e-05
  3.6224923e-05
 -1.9655826e+00
  3.2036110e-05
  1.3095055e-04
  1.7265310e-04
 -1.8547974e+00
  5.6249803e-05
  1.8310186e-04
 -5.6959480e-01
 -3.7410622e+00
 -2.3186057e+00
  3.6830239e+00
  2.8331158e-01
 -7.1816175e-04
  1.3364390e+00
  2.7271753e-02
 -5.2095068e-01
 -5.2107743e-04
 -1.8589948e+00
 -6.9378632e-01
  3.1553778e-01
  8.8833719e-01
 -6.6233283e-01
  8.6089468e-01
 -4.2552477e-01
  2.1943722e+00
  2.4831963e-01
 -1.7324687e-04
  1.3115788e-01
 -8.0801767e-01
  2.9560173e-01
  1.6056139e+00
 -5.3093308e-01
 -9.7100675e-01
  1.2562826e-05
  1.3248725e-01
  2.9932031e-01
  4.7152564e-05
  3.7300801e-05
  5.2268813e-05
  5.2899111e-05
  5.6645007e-05
 -6.3888554e-04
  6.8778531e-06
  6.1113906e-06
  1.5319645e-04
  1.2759408e-05
 -9.5860662e-05
 -3.4964291e-05
  3.4258796e-06
 -5.4028009e-05
  2.2377108e-05
 -4.2719339e-04
 -8.6374175e-06
 -5.8010079e-05
  5.5251573e-04
 -3.8610018e-04
  4.2675858e-04
  1.0261282e-03
 -5.4892054e-05
 -6.6814449e-04
 -1.2560435e-04
  2.2834705e-04
 -5.3316046e-04
 -4.3198674e-05
  2.2430418e-01
 -2.1894919e-04
  5.8353420e-05
 -1.8188877e-04
  1.9214461e-03
  9.0908475e-04
  5.3519321e-05
  6.3811511e-02
 -7.1654451e-04
 -3.2833173e-05
 -2.9618858e-04
  3.7353093e-05
 -5.7833749e-05
 -4.6795940e-05
 -1.6400592e-05
 -2.1827003e-05
  6.0188806e-05
 -1.0161778e-04
 -1.3859876e-04
  2.7099965e-04
 -9.6870400e-04
  3.4340174e-04
  3.2652413e-05
 -1.4035178e-03
  1.4730769e-05
  6.0924347e-05
 -4.1360830e-04
  7.9707417e-05
 -1.3873431e-04
 -7.9703368e-06
 -1.6224229e-04
  2.7331065e-05
  2.8195591e-05
  1.7853070e-05
 -2.5613414e-04
  5.4874812e-04
 -5.1118009e-04
 -3.8011900e-01
  2.7754105e-04
  6.3520804e-04
 -4.2564818e-04
 -5.3902166e-03
 -3.8070529e-04
 -1.3161790e-04
 -1.9073211e-01
 -4.9070563e-06
  1.9694156e-05
 -3.2869993e-05
 -4.7557169e-05
 -5.9776637e-05
 -2.7386841e-05
  4.9258524e-04
  5.6805504e-05
  3.4563689e-06
 -7.6459528e-06
 -5.1655727e-05
  2.6882390e-04
 -1.3401700e-03
  4.1229578e-05
 -1.8243388e-04
  4.9662308e-06
  2.2934114e-04
 -1.5034399e-05
  1.8539580e-05
 -1.5563342e-04
  3.5922672e-05
  2.4727649e-05
 -2.0057689e-03
 -7.5762175e-05
  4.3726028e-05
  6.0657640e-05
  4.9918610e-05
  8.6914847e-04
  3.0492345e-04
 -2.2182256e-01
  1.7472361e-04
 -5.8692658e-05
 -5.4417353e-04
 -1.8302533e-04
 -1.9800074e-03
 -1.4396568e-03
 -1.1551774e-01
 -7.8482926e-04
 -2.4696215e-05
  3.5342295e-05
 -2.8737450e-05
  5.5513057e-05
  4.4107583e-05
 -1.6937708e-04
  4.9765618e-05
  5.7918387e-05
  1.7715377e-06
  1.1325187e-04
  2.7479971e-04
 -2.3891068e-04
  2.4070266e-04
  2.7423229e-03
 -1.1497873e-04
  4.6474401e-05
 -4.5714365e-05
  5.8527352e-05
 -6.2136486e-04
  6.1471188e-03
 -5.4762848e-05
 -5.4836622e-04
 -1.5715911e-04
  1.1270335e-03
  7.6375210e-05
 -4.0529188e-04
  4.6543726e-05
  4.9521721e-05
 -5.9916500e-02
  3.8022568e-05
  2.9098467e-04
  1.5057035e-05
  7.6669412e-06
 -1.2518206e-03
  4.8158869e-05
 -1.4601487e-01
  5.9685615e-05
  1.3733041e-03
  7.7165029e-04
 -5.3193424e-05
 -4.0781139e-05
  5.7692021e-05
 -3.6010090e-03
 -1.7922162e-04
 -1.2106654e-04
  9.3349528e-01
  9.2266572e-01
  8.0414212e-01
 -1.1451107e-04
 -1.5394627e-04
  1.5999336e-04
 -3.7786743e-01
  6.0348571e-03
 -1.0390350e-02
 -1.7338386e-01
 -4.2962024e-01
  6.5499723e-01
 -1.2005511e-03
 -5.7325810e-01
 -3.0296457e-03
  1.4240420e-04
  5.3341769e-02
  3.0924767e-02
  3.6752297e-04
 -7.5984956e-03
  5.9796137e-01
 -1.2794572e-01
  1.0562005e+00
 -2.3357956e-01
  8.0106759e-01
  6.4090496e-01
 -4.2192402e-01
 -1.2857021e+00
 -3.8325018e-03
  5.9039769e-05
  1.3070623e-05
 -4.1074891e-06
  5.7027228e-05
 -3.9267441e-05
 -5.0757069e-04
 -6.0272469e-05
  4.0693099e-05
  6.0574097e-05
 -6.0742863e-05
  1.3746468e-04
  4.2164139e-04
 -1.4654148e-04
 -4.3438096e-05
  7.6744903e-04
 -3.6981095e-05
  4.0978615e-05
 -1.4027816e-03
  5.5056949e-05
 -1.4481010e-04
  2.8408039e-04
  6.9631445e-03
 -3.0479470e-04
 -3.8875875e-04
 -2.3803225e-04
  8.5889804e-04
  1.4241265e-05
 -2.4137662e-03
  3.9642081e-01
  1.4600935e-05
 -3.0320507e-05
  4.6299791e-04
  1.2478234e-02
 -5.5441753e-05
  7.6016644e-04
  1.7083739e-01
  9.1456066e-05
  5.1177085e-05
  2.9890073e-04
 -5.0619426e-05
  3.4892815e-05
 -2.6174182e-05
  4.0314949e-04
  4.7709778e-05
  5.3646683e-04
  3.2074304e-04
  6.1564861e-05
  4.9554310e-05
 -9.0797205e-04
  2.4512003e-05
  3.8757931e-05
 -3.5400736e-01
  1.5618089e-04
 -2.2450226e-05
  1.5691976e-04
 -7.8440731e-04
  6.1544921e-04
  2.1697964e-04
 -1.1855155e-01
 -5.2593747e-04
  1.4773435e-04
  3.9824331e-04
 -9.4483923e-03
  2.8123305e-04
  2.2097643e-02
 -2.9779041e-01
 -1.6445384e-04
  1.8263172e-05
  1.7020035e-04
 -2.2661496e-02
  2.2188858e-04
  1.3700119e-04
 -2.3050132e-01
  1.9658520e-04
  2.5572698e+00
  2.9355357e+00
  2.1520152e+00
 -1.6065303e+00
  1.9075335e+00
 -2.9357877e+00
  3.2253821e+00
 -3.1690474e+00
  6.4852750e-01
  3.3340101e+00
  2.6119912e+00
 -2.7044897e+00
  2.7660005e+00
 -2.3027573e+00
  2.9161503e+00
  2.5274746e+00
  2.8775976e+00
  2.5989206e+00
 -2.7656014e+00
  2.2344739e+00
 -2.9439445e+00
  2.5576262e+00
  2.7695310e+00
 -3.0832703e+00
 -1.5588267e+00
  2.8789907e+00
  2.9994142e+00
  2.1050882e+00
  2.7804654e+00
 -5.8935577e-01
  2.2164171e+00
  2.8518519e+00
 -1.4869282e+00
 -3.2328908e+00
  2.7475491e+00
  2.9782267e+00
  3.3121338e+00
  2.3812537e+00
 -2.4813442e+00
  2.4105756e+00
  1.4240604e+01
  1.9990044e+01
  1.3944758e+01
 -2.4837238e+01
  2.7174253e+01
 -1.7928015e+01
  2.8195808e+01
 -2.2694792e+01
  3.3762558e+00
  2.2553707e+01
  2.0710871e+01
 -2.1793098e+01
  1.4627904e+01
 -1.1140779e+01
  1.8504389e+01
  1.9519445e+01
  1.3828854e+01
  1.3333745e+01
 -1.5989515e+01
  2.2593149e+01
 -1.6101599e+01
  2.1029728e+01
  1.1523979e+01
 -1.7616577e+01
 -1.8919209e+01
  2.2731098e+01
  1.6399437e+01
  2.5034557e+01
  1.5307976e+01
 -1.9101419e+01
  1.6623627e+01
  2.5049519e+01
 -1.2577163e+01
 -3.4105862e+01
  2.2097086e+01
  2.0358715e+01
  2.9810043e+01
  1.6754356e+01
 -1.3777874e+01
  1.9489252e+01
 -7.4051807e+02
  1.0525191e-01
  7.4552613e-01
  1.0147986e-04
  5.0808867e-06
 -4.2276516e+00
  2.6856623e+00
 -4.2847340e-05
  1.2072307e-04
  1.0355024e+00
 -2.8031617e-01
  1.0976566e-04
  6.4938475e-05
  7.3553658e-01
  1.1279086e-03
 -8.7577100e-05
  9.3275530e-06
 -2.6094944e+00
  1.8796815e+00
 -6.7894936e-05
 -1.1679452e-04
 -2.4744563e+00
  2.7226189e-01
 -1.1962166e-04
  1.0089154e-04
  4.5381200e-01
 -1.8146651e-02
 -4.1506781e-05
  1.1130012e-04
  1.1282870e+00
  1.9518678e-01
  2.9527095e-01
 -1.0485866e-04
 -1.5640727e+00
  1.1291659e+00
 -3.6588468e-04
 -2.5424817e-05
 -1.8544902e+00
 -1.2275086e-02
  1.2136050e-04
 -2.6958253e-02
 -7.3617256e-01
  3.7755758e-01
 -1.0811075e-04
 -1.2181627e-04
  3.3658758e-01
  1.6717480e+00
  2.4011008e-01
  9.2551119e-05
  4.7348909e-02
  1.0260007e+00
  1.2161221e-04
 -1.0915496e-04
  5.4375741e-05
 -4.8159545e-05
 -1.3721329e+00
 -1.4116311e+00
  3.1348627e-05
 -1.1634985e-04
 -1.8076384e+00
  5.0181246e-05
  5.2101484e-05
  4.4026598e-05
  5.5454779e-01
 -9.8249346e-01
 -8.2858704e-04
  4.0743889e-05
  3.5723095e+00
 -2.2449787e+00
 -9.2519395e-02
  1.1354643e-04
 -1.5082715e+00
  5.7786381e-01
 -2.9871051e-04
  7.0055867e-05
 -8.2519525e-01
 -7.8429383e-01
 -8.4169706e-06
  1.1433988e-04
 -4.2338022e-05
 -2.7293614e-01
  2.5230744e-01
  1.1398900e-04
 -1.9095453e-03
  3.1379980e-01
 -5.6193090e-05
  1.2166876e-04
  3.9895558e-01
  3.6213458e-01
  6.3872059e-05
 -1.0919089e-04
  4.4159830e-01
 -2.6968002e-02
  7.7016939e-06
  1.0821394e-04
  9.4518423e-01
 -1.6453664e-01
  1.2099334e-04
 -8.3804691e-05
  1.0716333e+00
  1.2292479e-01
 -1.2199765e-04
 -8.6043066e-05
  3.3915722e-01
  1.2999849e-01
 -1.2901254e-02
 -9.0367645e-01
  2.9065434e-06
 -1.1891771e-04
  9.9865717e-01
 -1.4449385e+00
 -7.7543962e-05
  2.6897792e-02
 -9.0463209e-01
  1.3057507e-02
  4.0297062e-05
 -1.1281295e-04
 -5.6266563e-05
  1.1293246e-02
  1.1292595e-04
  1.0740733e-04
  1.0095963e+00
 -1.0906148e+00
 -1.1834877e-04
 -1.2201953e-04
  3.3363053e-01
  2.2029507e-01
  1.6552567e-05
 -1.1407789e-04
 -8.8389790e-01
 -1.4162011e-01
 -1.1690478e-04
  6.8943016e-05
 -4.0649410e-02
 -6.2021703e-01
 -4.1907962e-05
  1.0862494e-04
 -3.2868658e-03
 -1.1480712e+00
  3.5119167e-04
 -7.6940334e-05
  1.1840770e-02
  9.7322314e-05
 -1.2059494e-04
  2.7282365e-05
  3.6705440e-01
 -3.7973800e-01
  7.2649273e-05
 -1.6777358e-05
  9.1046160e-01
 -2.6376161e-01
  1.1825156e-04
 -1.0854040e-04
 -9.0771746e-03
 -4.3467560e-01
  1.1797505e-04
  2.0579275e-05
  1.1984120e-04
  1.1633948e-04
  4.1322850e-02
 -7.9970050e-05
 -1.1014404e-04
  5.1847634e-05
  8.6924292e-06
 -1.1177926e-04
 -4.1368767e-05
  2.4422643e-06
 -9.9927442e-05
 -1.0418231e-04
 -1.1413791e-04
 -1.1192450e-04
 -2.5274913e-04
 -7.2733033e-05
  8.0025282e-05
 -4.0090832e-05
 -2.5996688e-04
 -2.0675971e-03
 -4.7771820e-05
 -1.1686742e-04
  5.9441151e-04
  9.0757173e-01
  7.1208087e-05
  1.2158632e-04
 -2.6545787e-04
 -1.1242332e-04
 -8.1247214e-05
 -9.2895789e-05
 -8.2637444e-02
 -2.8082501e-04
 -1.1583879e-04
 -1.1988380e-04
  8.9218050e-01
  8.6640641e-05
 -1.0370553e-04
 -3.5526368e-04
  3.7586277e-03
 -1.1047362e-01
  3.6419008e-04
 -1.0767637e-04
  5.1560037e-05
  4.2706055e-05
 -3.7376793e-07
 -5.8652146e-04
 -3.3139443e-01
  8.3143968e-05
 -6.1039440e-04
 -1.2195820e-04
 -5.6365435e-04
 -9.5959771e-03
 -6.0077161e-01
  1.3413281e-02
  6.3753653e-01
 -8.8127519e-05
 -5.4302174e-01
  2.3319441e-01
 -7.3245083e-06
  5.1647108e-05
  9.3555683e-01
 -9.5477439e-02
 -8.9026558e-05
  1.2074204e-04
  7.4345040e-01
 -1.0514067e-04
  1.0174826e-03
 -3.8331509e-05
 -1.4187797e+00
  1.2598686e+00
  3.1919960e-06
 -1.2113688e-04
 -4.5279092e-01
  2.5482985e-01
  9.6170021e-05
  1.2156465e-04
  1.0997454e-01
 -3.7419442e-05
  6.9070826e-05
  3.7069527e-05
  5.2307123e-01
  1.0350339e-02
 -1.3167399e-05
  7.5309846e-04
  3.3668286e-04
  4.3713376e-01
 -8.6746193e-05
  2.0218149e-04
 -6.5221494e-01
 -1.2186266e-04
  7.5031989e-05
 -8.6002547e-05
 -6.2399709e-01
 -2.4233615e-02
  1.2203420e-04
  1.3338571e-03
  3.1945625e-01
 -6.9468420e-05
  1.2139774e-04
  9.1409347e-05
  6.3571870e-02
  7.1886316e-02
 -1.2201157e-04
  4.7529145e-05
 -1.6628016e-02
 -5.3354394e-01
 -3.7341306e-01
 -4.7360677e-01
 -1.3943624e+00
 -2.6173660e-07
 -3.2831550e-01
 -1.2053862e-04
 -2.7761189e-03
 -4.6557516e-01
  1.3346261e-03
 -7.4719435e-05
 -7.4293508e-05
 -4.1830701e-01
  6.8131216e-05
 -6.8746686e-01
  7.4782825e-01
  4.4734278e-03
 -1.9717999e+00
 -6.3890767e-01
 -3.9384234e-01
 -5.6422091e-01
 -2.3411784e+00
 -8.0488338e-05
 -5.8127749e-01
 -1.0086113e+00
  7.3873299e-01
  6.8917412e-05
 -2.5248834e-01
  3.5608322e-05
 -1.7334117e-01
 -8.5795569e-01
  9.1877505e-02
 -2.5547183e-01
 -1.0424645e+00
 -8.9205660e-02
 -5.2404749e-01
 -6.9885242e-01
 -1.0007386e+00
  9.7622088e-04
 -1.0271741e+00
 -2.0983575e-01
 -3.9468967e-05
 -2.4890706e-02
 -9.4874322e-01
 -5.9195358e-04
  9.9569541e-01
 -5.4887380e-02
 -1.6056958e-05
 -7.7007321e-04
 -2.3180842e-03
 -2.8995267e-04
 -1.2133218e-04
  1.1932306e-04
 -1.0630035e-04
  9.5703457e-05
 -1.3226911e-03
 -6.2814943e-05
 -4.5010465e-06
  1.1327083e-04
  1.0960496e-04
  5.0898150e-05
  1.5805683e-03
  5.7080309e-05
  9.8390039e-05
 -1.9106981e-06
  3.5695492e-05
 -8.1928747e-06
 -1.9424258e-05
  1.1629835e-04
 -1.1681032e-04
  1.1569119e-04
 -8.1709586e-05
  8.7392742e-05
  7.6641802e-05
  3.8673770e-05
 -1.0173106e-04
 -6.2047729e-05
  4.4399312e-05
 -1.4848956e-05
  1.2160125e-04
  1.1063763e-04
 -1.2163157e-04
  1.1527251e-04
 -1.5285928e-05
  4.2216838e-05
  9.0687303e-05
  9.3115734e-05
 -8.7465749e-05
  7.0434048e-08
 -2.5833466e-05
  1.1968647e-04
 -2.3421724e-05
 -4.0195275e-05
 -8.0179008e-05
  7.3289040e-05
 -8.0040627e-05
 -9.7334319e-05
  8.1285791e-05
  8.8469802e-05
 -1.2079193e-04
  1.1464266e-04
 -1.1787400e-04
  1.1782355e-04
  4.8996925e-01
 -4.0169525e-01
  1.7321275e-01
  6.0998523e-01
  2.7660763e-01
  8.4335858e-05
  7.3524198e-04
 -5.5659275e-05
 -4.2126200e-01
 -3.5860285e-04
  1.3116815e-05
  1.1703670e-04
 -3.4678234e-03
 -1.3093832e-01
  3.3825816e-04
  5.3420285e-05
  9.7857207e-01
 -3.4232515e-01
 -1.1924220e-04
  5.5977514e-05
  7.9444446e-02
 -4.7185429e-05
  1.9647602e-03
  1.1472952e-04
  6.1189115e-01
 -1.4869334e+00
  3.1356931e-02
  2.6724658e-05
 -1.8561476e+00
 -5.5770916e-01
  2.1459697e-05
  2.4754371e-04
 -5.2026087e-01
 -2.0031468e-05
  1.4937002e-03
  6.7717017e-05
  1.9223194e-01
 -5.4082298e-01
 -1.0720743e-04
  6.0296792e-04
 -8.5628992e-03
 -1.8015256e-03
  5.8453828e-01
  9.5342184e-05
 -5.7207274e-01
 -1.0738122e-04
  6.1005721e-04
 -9.7347176e-05
  4.8034665e-01
 -1.9237745e-01
 -3.4835894e-04
  4.9782608e-05
  5.5305880e-01
  1.5759316e-03
  7.8341752e-01
 -1.5805130e-03
 -4.7753724e-01
  7.3633237e-05
  8.4411412e-01
 -3.9425759e-05
  9.7104812e-01
 -5.8976264e-05
 -7.2854757e-02
 -6.0289307e-04
  2.4917786e+00
  7.6958051e-05
 -8.4590802e-06
 -2.1899583e-04
 -7.0158683e-02
 -1.7396832e-04
  2.9068599e+00
  1.9169506e-04
  3.3427755e-04
  6.9353868e-05
  1.5862085e+00
 -8.1396867e-03
  9.8311776e-01
  1.2081213e-04
  5.1959014e-05
 -9.7864016e-04
  1.9906606e-01
  5.3898495e-04
  2.2876432e-02
 -3.1129141e-05
  5.4525550e-02
  7.7602331e-04
  3.4402528e-01
  3.0802028e-05
 -1.0627861e-03
 -1.9458568e-05
  7.1397388e-01
 -8.3084470e-03
  2.5495781e-02
  2.8267919e-04
  1.9184849e+00
 -2.5814365e-05
 -8.7692395e-02
  9.8426426e-05
  7.0015669e-01
  2.8314545e-05
  2.0103870e-01
 -5.5863376e-07
  8.2280248e-01
 -1.2099865e-04
 -6.5440732e-01
  1.9834536e+00
 -7.9131871e-01
 -1.4299462e+00
 -3.0435474e+00
  1.7263641e+00
  2.2153834e-01
 -1.5635905e+00
  1.6700484e-01
 -4.3784100e-01
  5.6177331e-04
  4.0640774e+00
  3.2176123e+00
 -8.3451909e-01
  1.1926593e-02
 -1.8619142e+00
  1.7169222e-01
 -3.4004477e-01
  2.7553120e+00
 -3.7235007e+00
 -4.1034162e-01
  2.4814899e+00
  2.2368714e-01
  4.6541343e+00
 -1.2674147e+00
  8.0737025e-01
 -1.2680835e+00
 -1.0510882e+00
  8.7288022e-01
 -1.8237242e+00
 -7.8693062e-01
 -1.4036691e+00
  3.3823025e-01
 -2.4362876e+00
 -4.0295306e-01
  6.6073880e-02
  6.1169255e-01
  6.3754261e-01
  7.0250285e-01
  7.3802316e-01
 -1.3662028e+00
  1.9925284e+00
  1.9590478e+00
 -1.8492383e+00
 -1.4102142e+00
  1.2737773e-01
  1.5290930e+00
 -1.8843811e+00
 -1.5125424e+00
 -2.2258842e+00
  1.2718880e-01
 -1.2459404e-01
  1.5700526e+00
 -2.4228556e+00
  6.9471002e-02
  1.3741957e+00
 -1.3244957e+00
 -3.2090838e+00
  5.6243851e-04
  2.9223591e-01
  1.3098931e+00
 -8.3876388e-05
 -2.5060210e-01
 -2.2543906e-03
  2.0819747e-01
 -6.1794525e-01
  9.7526836e-01
  4.8574672e+00
  5.2109861e-01
 -1.8713354e+00
  6.2093729e-01
  5.4171230e-03
 -9.1089976e-01
  1.6274481e+00
 -3.8574216e-01
 -3.4507608e+00
  2.8573814e-01
 -6.6617750e-02
  2.9322386e-01
  2.7495868e+00
  1.3320365e-03
 -1.4093660e+00
  5.5252385e-01
  1.0523154e+00
  5.7643700e-01
 -1.8074251e+00
  3.0391940e-01
  5.1628137e-01
  4.1453257e-01
 -6.3927168e-01
  1.0750075e-01
 -1.6417308e-01
  8.2780135e-01
 -8.9112478e-01
  2.1983786e-01
  2.6342840e+00
  6.7972767e-01
 -9.8664963e-01
  2.1776430e-01
  1.7835999e+00
  8.5031927e-02
 -3.5760406e-01
  6.9586121e-02
  2.0486720e-01
 -5.0895059e-01
 -4.3355209e-01
  1.4201139e+00
 -1.7352231e+00
 -3.7593752e-01
 -2.5452371e+00
  3.6573112e+00
 -2.6110661e+00
  5.1083379e+00
  1.9935199e+00
 -1.4489683e+00
  1.1458412e+00
 -1.7478594e+00
  2.5886550e+00
 -3.4996858e-01
 -6.0668284e-01
 -3.3717535e+00
 -2.8021033e+00
  3.5849438e+00
 -4.2471261e+00
  6.0134476e-01
 -1.6580459e+00
  1.2078575e+00
  1.6333828e+00
  1.5858099e+00
 -7.2832847e-01
  1.1289666e-01
  4.8889947e-04
  8.2403672e-01
  1.2872044e+00
 -1.7344590e-01
  5.5336952e-01
 -1.1690752e-01
  2.8837305e-01
  1.4505965e-02
 -1.8253646e+00
 -1.6104497e+00
  7.2002505e-05
 -5.6709003e-01
 -9.7888088e-01
 -2.5061462e+00
  1.3280989e-02
 -4.8366860e-01
 -1.1303042e+00
 -1.6587411e+00
  1.6138256e-02
 -3.4656575e-01
  1.6677290e-01
 -9.6464461e-01
 -8.1018025e-01
 -1.3956667e-01
  4.8160398e-01
  2.5815105e-01
 -1.2980150e+00
  1.1356235e-04
  8.6814648e-01
  4.3235693e+00
 -1.3813690e+00
 -7.3696529e-03
  1.4149039e+00
 -5.8459467e-01
  2.1178545e-01
  3.4000579e-05
 -2.5207001e-01
 -1.9141845e+00
  1.4542235e+00
  2.1609998e+00
  7.7932471e-01
 -1.1808628e-02
 -6.0381007e-01
 -4.9831158e-01
  6.0611081e+00
  1.2939765e+00
 -1.4888675e+00
 -1.5132537e+00
  2.2347963e-01
  3.0175218e-01
 -3.1871076e+00
  2.1152082e-01
  1.7184488e-02
  4.7782513e-01
 -1.8223747e+00
  2.0824807e+00
  4.7368168e-05
  8.2627875e-01
  8.6587000e-01
 -4.7909769e-01
  1.1963987e+00
  1.3968272e+00
  1.2935525e+00
 -3.3076367e-01
  2.5000378e-01
  9.6341747e-01
 -8.6337781e-01
  3.8778773e-01
 -1.2250768e+00
  6.3091642e-01
 -2.1470857e+00
 -9.5323175e-02
  5.3202891e-01
  3.9321750e-02
 -5.9441388e-01
 -8.9119875e-01
  1.4352261e+00
  2.5474587e-01
 -2.0983825e+00
  5.3901386e-01
 -3.0848386e+00
 -4.4670105e+00
 -6.5110593e+00
  2.4882983e-01
 -2.2692689e-01
  1.2259274e+00
  5.1468382e+00
 -1.2188319e-04
 -1.1465958e-04
  2.2659705e+00
  7.2963161e+00
  1.5037737e+00
 -1.8333700e+00
  5.4513031e-01
 -2.6637518e+00
  2.9035656e+00
 -7.0536834e-01
 -1.3864946e+00
 -4.1140985e+00
 -2.3652202e-01
 -2.2371669e+00
 -8.3185446e-01
 -2.6244504e+00
  1.0516575e-04
 -1.7280447e+00
 -6.6202450e-01
  1.0802974e+00
  8.6894053e-01
  2.6028554e+00
  7.1654312e-04
  4.9252418e-01
  3.8970958e-03
 -2.4837306e+00
 -7.6781616e-02
 -1.8357870e-01
  1.2190671e+00
 -2.2056580e+00
  1.7851414e-01
 -1.3891803e+00
  2.7075643e-02
 -2.4406729e+00
  6.9670103e-02
 -1.2344292e+00
 -4.0255580e-03
  9.7586346e-01
  1.0657167e-01
 -1.4239477e+00
 -5.9320676e-01
 -5.3285263e-02
 -1.7553954e+00
 -9.6722394e-01
  1.0004205e+00
  1.6961305e+00
  1.5681526e-01
 -3.8286021e+00
  6.8574286e-01
  6.0425591e+00
  1.1616876e+00
  8.5842543e+00
 -3.0115135e+00
 -2.4048290e+00
 -1.4463519e-01
  5.5646282e-01
 -2.7225037e+00
 -2.7264330e+00
 -1.2232497e+00
 -3.5080819e+00
  9.7520328e-01
  6.0664907e+00
 -8.0162220e-02
  3.4332669e-01
  5.4304266e-01
  3.2788815e+00
 -1.9862496e+00
  1.6848530e+00
  2.8641298e-01
 -8.4580883e-02
 -8.0132830e-01
 -7.1094668e-01
  5.0962079e-01
 -3.9780793e+00
 -2.9348707e-01
 -1.3423337e+00
  3.0989498e-01
  1.4939107e-01
  6.8135685e-01
 -6.5264523e-01
  1.5356375e-02
  3.7117240e+00
  2.1060307e-01
 -4.1371155e-01
  2.2129877e-01
  4.1942568e+00
  1.1480245e-01
 -8.6024308e-01
  6.7658502e-01
  1.1209532e+00
 -1.3649660e-01
 -2.9487094e-01
  4.9262065e-01
 -4.9725878e-01
  1.5831956e-01
  1.0269824e-01
  1.2710768e-02
 -9.2094690e-01
  2.7102551e+00
  4.9008918e-01
  1.5567044e+00
  1.1018971e-01
 -1.9808109e+00
 -8.3481157e-01
 -1.1917540e+00
 -1.1922272e-01
 -3.5728126e+00
 -4.6518663e-01
  1.8286780e+00
 -1.4777335e+00
  4.0151210e+00
  2.3472860e+00
  1.2745060e+00
 -3.8105762e-04
  2.6228697e+00
  1.8221656e-03
 -2.2919680e-01
  2.1624680e+00
  6.4551174e-03
 -1.3415289e+00
  6.8198514e-01
  9.1906768e-05
 -2.2537839e+00
 -8.3402348e-01
  1.8397686e+00
 -3.6563451e+00
 -2.3594841e-02
  7.1123105e-01
  6.7710203e-01
 -2.9040511e+00
  2.1101749e-01
  4.2114049e-01
 -8.0872625e-02
  8.6489695e-01
  1.2123867e+00
  7.5065531e-02
  4.3560740e-02
 -1.0859188e-04
  1.1430835e+00
 -8.4425706e-01
  1.5767952e+00
 -1.9566432e+00
  7.6747042e-01
  6.7222792e-01
  6.3799059e-01
 -2.0042267e+00
  1.5780827e-03
  1.5780827e-03
  1.5780827e-03
  1.5780827e-03
  1.5780827e-03
  1.5780827e-03
  1.5780827e-03
  1.5780827e-03
  1.5780827e-03
  2.9194031e-03
  2.9194031e-03
  2.9194031e-03
  2.9194031e-03
  2.9194031e-03
  2.9194031e-03
  2.9194031e-03
  2.3938329e-03
  2.3938329e-03
  2.3938329e-03
  2.3938329e-03
  2.3938329e-03
  2.3938329e-03
  2.3938329e-03
  2.3740700e-03
  2.3740700e-03
  2.3740700e-03
  2.3740700e-03
  2.3740700e-03
  2.3740700e-03
  2.3740700e-03
  2.3108860e-03
  2.3108860e-03
  2.3108860e-03
  2.3108860e-03
  2.3108860e-03
  2.3108860e-03
  2.3108860e-03
