nep4_charge2 2 Te Pb 
cutoff 8 4 73 8
n_max 6 6
basis_size 6 6
l_max 4 2 0
ANN 30 0
  2.2935511e-01
  5.6576878e-01
 -1.9469945e-01
 -1.2673809e-01
  7.5635910e-02
 -1.4811207e-01
  8.2231987e-01
  1.1381641e-01
 -4.8422778e-01
  8.1534266e-02
  6.1035804e-02
  5.4224774e-02
 -5.7914607e-02
  1.2321446e-01
 -2.7374265e-01
  2.5328243e-02
  6.5608430e-01
  1.6890492e-01
 -1.6361815e-01
 -1.2297200e-01
  3.1446245e-01
 -5.8414054e-01
  5.0527968e-02
  1.3005245e-01
  1.5110153e-01
  1.4386940e-02
 -3.5935670e-02
  4.4121817e-02
  2.9459780e-01
 -2.7721420e-02
 -1.8457508e-01
  5.5998373e-01
 -7.3824847e-01
 -1.2107179e-01
 -5.9983667e-02
  1.3926274e-01
 -1.7427914e-01
 -4.3235887e-02
  2.8375238e-02
  2.2247910e-02
  1.4323753e+00
  1.4862028e-01
 -1.8299198e-01
  3.0912524e-01
 -1.0753892e-01
 -4.2513147e-01
  1.2712738e-01
  2.3098908e-01
  8.2033128e-03
  3.7047341e-01
 -1.8402371e-01
 -2.2750202e-01
 -1.8600249e-01
  2.1621209e-01
 -4.9149755e-02
  2.3922718e-01
 -2.1191335e-01
 -2.7532125e-01
 -9.7368985e-02
  6.4921521e-02
  2.7919585e-01
  2.7075456e-02
 -1.3918751e-01
 -6.6568658e-02
 -7.6287103e-01
  1.1567416e-01
  1.6331173e-01
  1.4666717e-01
 -3.0820504e-02
  2.6658061e-01
 -1.4573205e-01
  1.6930614e-02
  3.3310410e-02
  4.9942013e-02
  1.6883847e-01
 -3.7590310e-02
  3.6860271e-03
  1.0690486e-01
 -1.6581790e-01
 -9.6632972e-02
 -7.2686888e-02
 -1.6154276e-01
 -3.8745593e-02
  3.7341782e-01
  3.8205159e-01
  1.8282522e-02
  6.1979878e-01
 -6.2529311e-02
  2.0494302e-01
  1.6805170e-01
  2.9504618e-01
 -7.2949833e-01
  7.0379797e-04
 -4.8996365e-01
 -3.0350667e-01
  3.2884163e-01
 -5.8497507e-02
 -2.4917370e-02
  6.0317844e-01
  4.0463600e-02
 -1.9083229e-01
  5.9289120e-02
 -1.3308574e-02
  8.6532623e-02
 -8.7964110e-02
  8.5658103e-02
  1.4356313e-02
 -9.3512945e-02
  5.4122087e-02
  1.2922971e-02
 -9.1221228e-02
 -1.4749064e-01
 -3.3912629e-01
  3.1844589e-01
  2.2446410e-01
 -2.5589904e-01
 -2.5699461e-01
  7.3752694e-02
 -1.2696395e-02
  1.5356958e-01
 -3.5012740e-01
 -6.8430729e-02
  2.5819170e-01
  3.7716638e-02
  3.5655037e-02
  1.1004005e-01
 -4.6047843e-01
 -4.7297645e-03
  9.7253613e-02
  1.1278068e-01
  4.6500170e-01
  5.2214447e-02
  2.5040305e-01
 -4.1388381e-01
 -4.6020746e-02
  1.1236615e-01
  5.4423839e-02
  1.3916677e+00
 -5.4246873e-02
  3.0000532e-01
 -1.2469811e+00
  1.3692230e-01
 -2.1286801e-01
 -1.1000900e-01
 -9.9903762e-02
 -2.5551373e-01
 -1.1534957e-01
  2.7271569e-01
 -6.9875583e-02
 -4.4502810e-02
 -1.3646778e-01
  6.5929413e-02
 -4.1231457e-02
  4.0036817e-03
  2.6695862e-01
 -4.4534698e-01
  4.6251878e-01
 -7.0246525e-02
 -4.2309377e-01
 -4.0739406e-02
  6.0191951e-03
  4.9879262e-01
  2.9613096e-02
  1.8007461e-02
  3.3392581e-01
  8.5893676e-02
  2.7868521e-01
  1.2586908e-01
 -2.6694351e-01
  1.4829728e-02
 -1.2212998e-01
  4.7455022e-01
  6.4718150e-02
  8.0707662e-02
 -4.5435095e-01
  3.3127955e-01
 -7.4442603e-02
 -4.0939516e-01
  8.9230627e-02
  1.2905487e-01
  4.6286032e-01
  3.8051638e-01
  3.8809668e-02
 -5.5244297e-02
  2.3585106e-01
 -1.0784417e+00
 -3.9071986e-01
  1.3148519e-01
  6.6314168e-02
  8.3174579e-02
 -3.3661193e-01
  3.3753055e-01
  2.4784376e-01
 -2.6042300e-01
 -3.1707010e-01
  3.3145878e-04
  7.9009235e-03
  7.5661547e-02
  1.4651638e-02
  8.2181469e-02
 -1.0893735e-01
  5.2243441e-01
 -3.0583462e-01
 -2.8732322e-02
  3.5916272e-01
  2.9263329e-02
  6.7102146e-01
 -2.4613082e-01
 -8.8387775e-01
  1.4571053e-01
  4.3064439e-01
  6.9413304e-02
 -6.1327208e-02
 -2.8524453e-02
  1.3859794e-01
  1.3576308e-01
 -3.4530044e-02
  2.4996464e-01
  7.9915807e-02
 -2.3658165e-01
  8.1060462e-02
 -3.5697767e-01
  1.8606781e+00
 -6.7744471e-02
  1.9939165e-01
 -3.0487660e-01
 -1.5327165e-02
  1.6048135e-01
 -3.4523898e-01
  6.1340696e-01
  2.9677251e-02
 -1.2361240e-01
 -2.0412788e-01
  9.3646497e-02
 -2.8545144e-03
 -4.3201245e-02
  3.2924339e-02
 -3.6302152e-01
 -2.2123489e-01
 -1.0415627e-01
  2.8253788e-01
 -1.1194934e-02
 -2.1420181e-01
 -1.5333027e-01
  2.2856754e-01
 -2.2762202e-01
 -7.5831181e-01
 -3.4598732e-01
 -1.3031477e-01
 -9.2239507e-02
  1.6901460e-01
  7.9249665e-02
 -2.7954087e-01
  4.1416639e-01
  8.9267112e-02
 -4.9511859e-01
  2.9960212e-01
  1.4700323e-01
 -1.7126757e-01
 -4.2322451e-01
  2.6811615e-01
  1.5869218e-01
 -1.8520172e-01
  4.6364713e-02
 -3.6012205e-01
  1.5619072e-02
 -3.2792953e-01
  9.2681766e-02
 -2.3932016e-02
 -1.1294191e-01
 -3.6138138e-01
 -3.5007352e-01
 -7.3859280e-01
  6.5417685e-02
  7.1328714e-02
  1.7276460e-01
 -3.9450083e-02
 -6.0890436e-02
  1.4934185e-01
 -2.2089707e-03
 -3.7005867e-03
  2.3805935e-02
  2.9711372e-01
  1.5950544e-01
 -4.3353546e-01
  1.4850178e-01
 -1.8399917e-01
  6.5793239e-02
  3.3431277e-02
 -1.3739279e-02
  2.3550701e-01
 -4.8963908e-02
  3.5353532e-01
 -3.4458601e-01
  2.0437432e-03
  2.7496621e-01
 -1.4550607e-01
  3.7777506e-02
 -3.6388069e-01
  1.0134143e-01
 -4.7486961e-02
  1.4993837e-01
 -1.0374723e-01
  9.2669174e-02
  1.9870873e-01
 -1.1875945e-01
  2.7441826e-01
  3.1623900e-01
 -5.7981446e-02
  2.6194310e-01
 -3.9293632e-02
  3.1323817e-01
 -2.0133363e-01
  2.2941281e-01
 -2.1495184e-01
 -3.8251329e-02
 -3.6289196e-02
  1.3145198e-01
  5.1655859e-02
  2.6951768e-02
 -3.3125091e-01
  5.0484717e-02
  3.1720930e-01
 -3.9132614e-02
 -1.6820073e-01
 -2.5176540e-01
 -8.4881246e-02
 -7.5292781e-02
 -9.1761574e-02
  3.0179608e-01
 -1.3100025e-02
  4.5052138e-01
 -5.5621173e-03
  3.3129606e-02
 -1.3732266e-01
 -2.5195807e-01
 -3.4511483e-01
 -8.3517277e-01
  8.3674468e-02
 -3.7555388e-01
  1.9609024e-01
  1.2344772e-01
 -1.3329165e-01
 -3.7439104e-02
 -1.2196169e-01
 -4.2246845e-02
 -3.4728386e-02
  1.7517826e-02
 -3.2856409e-03
 -1.3199241e-01
 -1.3268670e-01
  2.9984862e-01
 -3.7593983e-02
  1.3667322e-02
 -4.5694046e-02
  6.3484453e-02
  1.8195978e-01
 -1.6773717e-01
 -1.5895845e-01
 -3.2323442e-02
 -3.9933171e-02
  2.2688709e-02
  1.0573225e-01
 -1.1779465e-01
  1.8696640e-01
  6.2522702e-02
 -5.4900836e-02
 -3.4166038e-01
  2.2865444e-01
  3.3919615e-01
 -1.3238031e-01
  3.1835207e-01
  2.0585580e-01
  4.1670762e-02
 -8.3212532e-02
 -1.6912200e-01
  6.0412961e-01
  1.5794408e-01
 -2.5141714e-02
  7.7173740e-01
 -1.2706010e-01
  7.7230014e-02
  2.4478737e-01
  6.7922175e-01
 -1.9065261e-01
 -6.3282830e-01
 -2.1266140e-02
 -6.0234208e-02
 -1.9855249e-01
  4.6797261e-01
 -1.4184496e-01
  1.3709205e-01
 -9.7297549e-02
  2.2592762e-01
 -1.7725725e-02
  3.0013232e-02
  6.5411776e-01
  5.5450660e-01
  2.3672529e-01
  3.0472976e-01
  3.4187543e-01
  2.2957732e-01
 -1.8476085e-01
 -8.8167682e-02
 -1.6659005e+00
 -1.9033347e-01
 -4.9842113e-01
  2.2292899e-01
 -1.0104825e-01
 -7.0777349e-02
 -3.5978031e-01
  1.3306148e-01
 -4.3883692e-02
  2.6664656e-01
  7.0373073e-02
 -6.2640198e-02
  1.3890819e-01
  2.8598684e-01
 -5.4437220e-01
  1.2569174e-01
  2.6572725e-01
  1.7796396e-01
 -1.4435947e-01
 -2.6118085e-01
 -5.8651495e-01
 -3.2248896e-01
  3.5442200e-01
  3.8047478e-02
  2.1750554e-01
 -4.9620587e-02
  1.6680963e-01
  6.3018650e-02
  7.0758894e-02
  4.4346794e-02
 -1.8674231e-01
  5.5450225e-01
 -1.4791262e-01
 -3.3774397e-01
 -2.4106454e-02
  1.7175188e-03
 -1.3405812e-01
  2.2017917e-01
  3.1238335e-01
 -7.2310260e-04
 -1.2066500e-01
 -3.1829393e-01
  2.8127246e-02
  7.5555086e-02
  6.0455322e-02
 -1.4151509e-01
 -2.8130937e-01
 -4.1383475e-02
  1.8488859e-01
 -1.0305185e-01
 -1.1435836e-01
 -1.5547095e-01
 -2.6640698e-01
 -1.0732714e-01
 -1.6459621e-02
  9.4770938e-02
  1.6779934e-01
  3.7419745e-01
 -4.4429366e-02
 -1.6171034e-01
 -2.3813890e-01
  5.0969970e-01
  8.4685668e-02
  8.7846024e-03
 -1.5237352e-01
 -1.2528783e-02
  4.1924961e-02
 -4.4266275e-01
  6.5201841e-02
 -3.0263209e-01
 -1.0199144e-02
  7.2602718e-03
  1.8512991e-01
  2.3864767e-02
 -1.3776496e-02
 -3.9090833e-01
  2.9546511e-01
 -2.3608306e-01
 -2.2086604e-01
 -3.0614167e-02
 -2.8260320e-01
 -1.3230172e-01
 -3.5263918e-02
  1.1120093e-01
 -2.3607340e-02
  2.2201268e-03
  3.3681193e-01
  2.1348308e-01
  5.4570615e-02
  6.9237918e-02
  1.8339957e-01
 -5.2460071e-02
  2.9432657e-01
  8.2605362e-02
 -1.5001318e-01
 -4.2386025e-02
 -5.0533216e-02
  1.0698964e-01
 -6.6799837e-01
  3.0413699e-01
 -2.2668503e-01
 -5.4562116e-01
 -1.0518739e-01
  6.6630170e-02
 -2.6633170e-02
  2.3066536e-01
  7.4836150e-02
  4.3152940e-02
 -1.4239675e-01
  9.5892452e-02
 -8.7008074e-02
  1.4243865e-01
  1.0201991e-01
 -1.6643633e-01
  5.9156239e-01
  6.5457895e-02
  7.6471651e-01
  4.1749716e-01
  3.6436352e-01
 -3.1510589e-01
  1.3002281e-01
  2.6535083e-02
  7.4667804e-02
 -1.6631864e-01
 -8.7040760e-02
  2.7975094e-01
 -1.7827572e-01
  9.7403832e-02
 -2.5371465e-01
  4.9358612e-01
 -1.2087037e-01
 -2.4988118e-01
  1.6139512e-01
  7.2544321e-02
 -7.1971321e-01
  8.1166841e-02
 -3.2552528e-01
 -2.3300368e-01
  3.1654355e-01
  2.5567902e-02
  1.4190386e-01
 -1.6601862e-01
  1.2112962e+00
 -1.8761098e-01
  1.5196857e-02
 -2.5632817e-01
 -3.6091451e-02
 -2.5211083e-02
  5.0068963e-01
 -6.5623177e-03
  1.4780725e-02
 -1.1369884e-01
 -1.1410227e-01
 -6.4149427e-01
 -1.4417034e-02
 -3.2497346e-01
 -1.5723990e-01
  3.4087464e-01
 -7.4761741e-02
  1.2518376e-01
  6.9724098e-02
  6.7302153e-02
 -2.2029907e-01
  6.4546563e-02
 -2.6694411e-01
 -7.5507612e-04
  3.7678875e-02
 -3.1412732e-02
  6.1358262e-02
 -3.7945561e-02
  1.3809852e-01
 -1.8003054e-01
 -9.6872814e-02
  2.1378818e-01
  1.7904852e-01
 -5.9359157e-01
  4.1098647e-02
 -2.7575576e-01
  7.1842775e-02
  1.2969643e-01
  2.1197759e-01
 -3.5284221e-02
  2.1705617e-01
  1.7000639e-01
  7.2206259e-02
 -3.1303415e-01
  5.4500949e-01
  2.7675685e-01
  3.1104600e-01
 -9.3997112e-03
 -4.3425626e-01
  1.4678216e-01
 -1.3950077e-01
 -2.3272935e-02
 -6.7155033e-02
 -5.0443888e-02
 -3.4888554e-01
  4.2727981e-02
 -5.7509935e-01
 -2.9426628e-01
  2.8992629e-02
  1.5735690e-01
 -1.0326242e+00
  2.7945044e-02
  2.2067578e-01
 -3.5565609e-01
  2.6383755e-01
 -6.7214094e-02
 -3.8168675e-01
  2.5525523e-02
  1.4552401e-02
 -1.2939860e-01
  1.2619571e-01
 -1.7980801e-01
 -2.4753690e-01
  1.2951617e-01
 -6.1718650e-02
 -1.5262334e-01
  7.0475543e-01
  8.2699165e-02
 -2.1769735e-01
 -5.5994008e-02
  9.8871857e-02
  8.9135721e-02
 -1.2540974e-01
  1.2221411e+00
  1.2262563e-01
  9.9068272e-01
 -8.5695565e-02
 -2.2659343e-01
 -1.0648049e-01
  2.1645124e-01
  1.7075017e-01
  3.3511734e-01
 -1.2866513e-01
 -3.2661300e-02
 -2.5763035e-01
  7.1950173e-01
  1.8301077e-01
 -4.5277931e-02
  1.7485866e-01
  1.4001063e-01
  1.7630787e-01
  2.0832422e-01
  3.2196519e-01
  8.3096243e-02
 -1.8261468e-01
 -1.6132352e-01
  1.9639924e-01
 -4.7422484e-01
 -3.8752592e-01
  7.7648610e-02
  1.2786129e-01
  1.5195549e-02
  1.6001374e-01
  1.2919448e-01
 -2.3791498e-01
 -6.0013097e-02
  3.8629021e-02
  8.2322061e-02
  4.3735895e-02
  7.6409049e-02
  1.5773618e-01
 -8.9605473e-02
 -1.2329238e-01
  3.9385706e-01
  1.2895368e-01
 -2.1832846e-02
 -1.3996060e+00
 -1.4254802e-01
  5.4775432e-02
  3.0909914e-01
  9.2284304e-01
  4.6216652e-02
  7.4797645e-03
 -3.0234495e-01
  8.3941869e-02
  4.1317582e-01
 -4.1445881e-02
  1.3562220e-01
  2.0172209e-03
  7.2679639e-01
 -4.1086577e-02
 -1.9367847e-01
 -1.4202254e-02
  2.4414217e-02
  6.0201336e-02
  5.7553273e-01
  2.5208285e-01
  2.0077716e-01
 -2.9833237e-02
 -2.4098232e-01
 -6.1656678e-01
 -6.0932708e-01
  3.9123836e-01
  1.9993631e-02
 -1.8170728e-01
  2.3938374e-01
 -2.2471859e-01
  2.7187772e-02
 -1.3910596e-01
  4.8735932e-02
 -1.9704701e-01
  1.6449759e-02
  1.1260257e-01
  1.6238756e-01
 -2.2382337e-01
  2.3744425e-01
 -5.6474376e-01
 -5.1519698e-01
 -8.4953167e-02
 -2.9660860e-01
  8.8904673e-01
 -1.7757487e-01
  2.4881907e-01
  5.6679696e-01
 -7.0985633e-01
  1.1722980e+00
  2.3226311e-02
 -1.6374570e-01
  6.3734895e-01
 -2.3893217e-02
 -7.3675746e-01
 -7.4013889e-01
 -8.7083346e-01
  3.1341511e-01
 -6.1445546e-01
 -2.7970821e-01
  1.2920120e-01
  5.5665076e-02
 -4.5526728e-01
 -2.7898511e-01
  1.2936068e-01
 -1.5519196e-01
 -1.2550752e-01
  1.4439890e-02
  1.6032615e+00
 -6.5102905e-01
 -4.9339333e-01
 -6.8304312e-01
 -1.4366378e-01
  2.5259247e-01
  9.9616967e-02
  4.1356277e-01
 -6.0374492e-01
  4.6109360e-01
  1.6415952e-01
  1.9516258e-02
  6.5847379e-01
 -1.2168202e-01
  3.9328888e-02
 -3.6225248e-02
 -8.7091559e-01
  1.9878225e+00
  1.5571425e+00
  2.1727450e+00
  1.9869979e-01
 -3.4603231e-02
  5.5639159e-02
  6.0578723e-02
 -1.1827036e-01
 -2.5152922e-01
 -1.1671927e-01
 -4.3452093e-01
  1.0743101e-01
 -1.6273907e-01
 -1.7617510e-01
 -5.1525416e-04
  2.0339817e-03
 -1.8127553e-01
 -2.2592728e-01
 -1.5640809e-01
 -1.8582972e-02
  1.2057216e+00
  6.4894959e-02
  1.6004270e-01
 -4.7972901e-03
 -4.7684837e-02
 -1.0828592e-02
 -1.9959070e-01
 -2.3607261e-01
 -1.9225444e-01
  1.5058546e-01
  1.4653114e-02
 -3.2061208e-02
  5.9804380e-02
  5.7070430e-02
 -1.1880690e-01
  3.2642367e-01
  7.5528502e-02
  1.6951819e-01
 -2.3797193e-01
  3.3129382e-01
  1.8555081e-01
 -9.9452091e-03
  1.5136683e-01
  5.8464664e-03
  5.1768875e-01
  3.3242497e-01
 -7.5044304e-02
  4.7152162e-02
 -3.3412510e-01
 -3.5094693e-02
 -1.6539440e-02
 -8.8727117e-01
  2.6902673e-01
  5.0750154e-01
 -3.5709926e-01
 -3.2868040e-01
 -1.4070700e-01
  5.1696229e-01
  1.7625853e-01
  1.1209124e-01
 -5.9672505e-02
 -3.7043549e-02
  2.0138079e-01
 -2.6194772e-01
  3.8797495e-01
  6.5605491e-01
 -3.9108616e-01
  1.7534199e-01
 -6.7795193e-01
  1.1878932e-01
 -1.0240328e-01
 -1.5772264e-01
  7.3874905e-03
  2.5630675e-02
  1.4562503e-01
  1.7954628e-01
 -1.1204211e-01
 -2.5527105e-01
 -2.0540230e-01
 -3.5113778e-02
  1.2150787e-01
 -3.2077819e-01
 -3.0137298e-01
  6.5292042e-01
 -1.2205391e+00
 -6.3016020e-02
 -2.2335069e-01
  1.2204195e-02
  2.1139130e-02
  2.1927325e-01
 -1.4056325e-01
 -5.3341204e-01
 -1.1288581e-01
 -4.5039481e-03
 -9.3754768e-02
  3.2221270e-01
  1.3636029e-01
 -2.2479485e-01
  4.2493486e-01
 -2.1902114e-01
  2.2350581e-01
 -2.7218568e-01
  1.1096932e-01
 -2.5105238e-02
  1.3490872e-01
  2.2127140e-01
  4.0027656e-02
 -1.5146859e-01
  6.4304536e-03
 -3.6285728e-01
  3.3074550e-02
  2.8122723e-01
  5.6785539e-02
  1.3150966e-01
 -1.6928349e-01
 -8.1552327e-02
  1.4630468e-01
  5.8341585e-02
  2.6899984e-01
  4.7718331e-02
  2.3765986e-01
 -6.8820119e-02
  2.1863440e-02
  2.7660687e-02
  4.2891372e-02
  8.9143710e-03
  4.4225585e-01
  9.8678343e-02
 -3.0496952e-01
  1.2172924e-01
  3.2700881e-02
  1.2930490e-01
 -1.4200193e-01
 -1.4160214e-02
  3.2614201e-02
 -1.5935710e-01
 -4.1813394e-03
  1.1839370e-01
 -1.9679289e-01
 -8.2605267e-01
 -1.0455538e-02
  2.0646301e-01
 -7.3154338e-02
 -3.4816138e-02
  2.4385920e-01
 -4.2343467e-01
 -8.3929144e-02
  6.0005900e-02
  9.3042709e-02
 -2.5575832e-01
  2.6147050e-01
 -1.7521037e-01
  2.4489982e-02
  2.1058270e-01
 -8.0569625e-02
 -9.3302697e-02
 -3.9876074e-02
 -1.4727339e-01
 -3.5937560e-01
  3.3016029e-01
  1.5560782e+00
 -6.9768094e-02
  8.0114622e-03
  9.3349648e-01
  3.8688385e-01
  8.0201037e-02
 -9.8035678e-02
 -4.1414848e-01
 -1.6117707e-01
  1.7544515e-01
  2.3051403e-01
 -3.9808705e-02
 -7.4754663e-02
  1.0510926e-01
 -4.0233865e-02
  2.2539720e-01
  7.3180631e-02
 -1.2029411e-01
 -7.3737852e-02
 -4.6091130e-01
 -1.1108816e-01
  9.8622668e-01
  1.6985463e-01
 -8.4301993e-02
  1.0680518e-01
  4.2960814e-01
 -2.1544261e-01
  1.6247455e-02
  7.1069407e-01
 -2.6863852e-01
 -8.8905287e-01
 -5.7342285e-01
 -9.3310900e-02
 -3.3052504e-02
  2.7220964e-01
 -1.6895965e-01
 -9.4330736e-02
 -3.8188174e-01
  3.3050036e-01
  1.0304199e-01
  4.9204338e-02
  1.3126744e-01
  1.1911291e-01
 -4.9310669e-02
 -9.9622652e-02
 -2.5504920e-01
 -1.9459645e-01
  1.3908188e-01
 -8.3972268e-02
  6.9083035e-01
  3.2048658e-01
  4.5670774e-02
  6.6895589e-02
 -1.0624648e-01
  2.9454226e-02
 -4.2934257e-01
 -2.1162838e-01
 -3.2616740e-01
 -1.4477299e-01
  4.8125092e-02
  3.9214063e-01
 -1.3018295e-01
 -9.3213595e-02
 -2.7548885e-02
 -1.0438221e-01
  1.4119138e-01
 -3.5564396e-01
 -1.5823691e-01
 -3.6321676e-01
 -8.2646251e-02
 -1.2302834e-03
  2.4774633e-01
  1.4087960e-01
 -2.2356102e-01
 -5.9449137e-03
 -1.8289760e-01
 -1.8973152e-01
  2.2022051e-01
 -1.3410510e-01
  2.5103208e-01
  6.3981019e-02
 -4.5925554e-02
 -9.7420931e-02
  2.1998914e-02
  3.3970755e-02
  2.0157844e-01
 -4.3885034e-02
 -7.4958585e-02
 -3.3260819e-01
  1.3764077e+00
  1.6696382e-03
  2.0309001e-02
  6.8740720e-01
 -5.4929409e-02
 -3.3329405e-02
  3.3426646e-02
  6.2465880e-02
  7.5054282e-01
 -2.4394471e-02
  1.7897712e-01
  1.7865159e-01
  1.0665321e-02
 -2.3125562e-01
 -7.3187739e-02
  9.6797869e-02
 -3.4349415e-01
 -8.9754775e-02
 -2.3098658e-01
  1.4840938e-01
  3.9893817e-02
 -3.4066784e-01
  8.3913118e-02
  3.9368056e-02
 -3.1608495e-01
 -1.1925411e-01
  2.9464805e-01
  2.9299158e-01
  9.4296336e-03
 -6.0638860e-02
  2.8080344e-02
  2.0007234e-02
 -5.0635403e-01
  6.5311648e-02
 -3.6526334e-02
  6.6514865e-02
 -2.9457396e-01
 -8.4701791e-02
  2.2006175e-01
 -1.5028608e-02
 -2.5923941e-01
  3.1744274e-01
 -7.4460489e-01
 -3.9720643e-01
  3.9892364e-01
  3.9176756e-01
 -4.2498935e-02
 -1.6638905e-01
  1.7451616e-01
  1.8280570e-01
  1.2993902e-01
  1.6004099e-01
 -6.0847059e-02
  2.4309829e-01
 -2.6099741e-02
 -6.9309086e-02
 -2.1713039e-01
  5.1844813e-02
 -4.6826590e-02
  1.4890265e-01
  1.6472277e-01
 -2.3254654e-01
 -2.4392603e-01
 -2.9402360e-01
 -3.4015715e-02
  5.8994345e-02
 -9.1121033e-02
 -2.4465570e-01
 -1.6126366e-01
  1.1440937e-02
  1.3603172e-01
 -4.0680480e-01
 -1.9642875e-01
 -1.4031640e-01
 -2.5401412e-02
 -1.7646603e-01
  2.3742259e-02
  1.8916115e-01
  2.8414148e-01
  1.5590638e-02
 -3.5250203e-03
 -2.0176146e-02
  1.2869819e-01
  3.5718960e-01
  3.3942863e-02
 -3.9551847e-02
  5.6692344e-01
 -8.7395385e-02
  2.5544319e-01
 -2.8875190e-01
  4.8331361e-02
  7.7606820e-02
 -2.4127385e-01
 -2.4922098e-01
 -1.3784899e-01
  2.2639160e-01
 -1.7984568e-01
 -1.2844865e-01
 -4.0066570e-01
 -4.3224584e-02
 -2.5852659e-01
  4.5615662e-02
  1.1782219e-01
  4.2827953e-02
 -4.7157776e-02
  2.7037337e-01
 -6.0465533e-02
 -5.0060682e-02
  9.5139192e-03
  4.7012648e-01
 -1.1115033e-01
 -6.9421932e-02
  2.2969654e-01
  9.4920404e-02
  3.4200139e-02
 -1.6666146e-01
  1.1335845e-01
 -2.8327155e-01
 -3.7689230e-01
  1.6584770e-01
 -7.9427153e-02
  1.6967429e-01
  2.8862217e-01
  3.2871020e-01
 -9.8124661e-02
  1.2454699e-02
  1.6764579e-02
  2.8757575e-01
 -1.1345037e+00
  7.4801064e-01
 -1.8698534e-02
 -2.8680339e-01
 -4.1755462e-01
  7.2364055e-02
  6.7836620e-02
  4.7092825e-02
  2.6557973e-01
 -2.5948632e-01
  1.6395723e-02
 -1.3194767e-01
  1.3718902e-02
  7.5548831e-03
 -1.1122842e-01
 -1.9166593e-01
 -1.5713967e-01
  6.9833532e-02
  6.1229753e-01
  6.1333265e-02
 -1.3816451e-01
 -3.0857103e-02
  3.1979743e-02
 -4.4128135e-01
  2.0264043e-01
  1.8437341e-01
  3.4583709e-01
  2.8557664e-01
 -2.7528250e-01
 -2.1326993e-01
  7.0955202e-02
 -4.1430882e-01
 -3.8919917e-01
 -6.1975908e-02
  6.4051330e-02
 -1.3036942e-02
  4.4763029e-02
  3.3726424e-02
  6.2514983e-02
  1.1698721e-01
  8.9526130e-03
  3.1790376e-01
 -2.0615314e-01
 -1.0833052e-01
  3.1652834e-02
  4.0622970e-01
 -1.9246211e-02
  8.2664981e-02
 -1.2742479e-01
 -4.4406238e-01
  2.4455854e-01
  2.2508174e-02
 -2.7512997e-02
 -4.1615301e-01
  2.3613985e-01
 -2.5195473e-01
 -3.4744092e-03
  1.4472629e-01
  8.4076151e-02
  2.4972709e-02
 -2.5003457e-01
  5.2833542e-02
 -1.8973209e-01
 -2.2441277e-01
  6.0939801e-01
  3.6413562e-01
 -2.0140965e-02
  1.6436787e-01
 -1.6995725e-01
 -1.0859508e-01
 -2.5041804e-02
 -1.2755431e-01
 -1.3283874e-02
  2.7761883e-01
  5.9865552e-01
  2.9436386e-01
 -4.0050158e-01
  7.2581244e-01
 -3.0719301e-01
 -1.6630905e-02
 -2.8544915e-01
 -2.3467304e-01
 -2.5020871e-01
  2.3379372e-03
 -1.8817754e-01
  3.3434424e-01
 -8.8458890e-01
 -6.7436397e-01
  1.4848624e+00
 -7.2562508e-02
 -7.4518466e-01
 -1.6395559e+00
 -3.3767283e-01
  1.0748133e-02
 -1.6150150e-01
 -2.7461252e-01
  1.9389345e-01
  1.7381091e-01
 -2.2830048e-01
  2.9449433e-01
  1.5790818e-02
 -6.2960885e-02
 -3.7391591e-01
  1.3546190e-01
  3.4495685e-01
 -8.5533041e-01
  1.9071251e-01
  3.5783359e-01
 -1.6802752e-01
 -3.3941045e-02
  2.5607398e-01
  1.2877057e+00
  1.8709265e-02
 -1.6008009e-01
  5.0584648e-02
 -2.3370326e-01
 -2.2488451e-01
 -5.7941198e-02
 -3.0387124e-01
 -1.1919270e-01
  3.1420816e-02
  4.1363662e-01
 -1.3901429e-01
  3.9342150e-01
  4.2458797e-01
 -3.2453710e-01
 -1.5299296e+00
 -7.5225174e-02
  7.0968431e-01
  1.3913263e-01
 -7.5751580e-02
 -1.3148136e-01
 -1.3845345e-01
 -6.0064489e-01
 -1.1915659e-02
  4.9565859e-02
  2.6786357e-02
  1.8666120e-01
  3.3401523e-02
  2.1689614e-02
  4.8061147e-01
  2.3594974e-02
  1.7708363e-01
 -2.9370597e-02
  1.0471648e-01
  2.1222140e-01
  2.2496043e-01
  6.5401748e-02
  2.1140198e-01
  7.7162515e-03
 -1.0774408e-01
 -1.3592064e-01
 -8.0194771e-02
  2.5889248e-02
 -1.6343164e-01
 -1.1172059e-01
  2.9725656e-01
  1.0919522e-01
 -1.0571878e-01
 -1.3747835e-01
 -3.4375444e-01
  1.5322809e-01
  2.5494525e-01
 -8.9278556e-02
 -7.8920841e-02
  2.0397042e-01
  7.9732217e-02
 -1.5260069e-01
  1.3150997e-02
  1.7282221e-02
 -2.5070431e-02
  4.0347796e-02
 -1.9001476e-02
 -4.6701443e-01
 -2.4082873e-02
  4.5967484e-01
 -3.1879896e-01
 -2.4448289e-01
 -4.0741199e-01
 -9.6982442e-02
 -2.5376904e-01
  9.3377354e-03
  1.1180101e-01
 -1.5147162e-02
 -2.4048803e-02
  1.3893782e-01
 -1.2329103e+00
 -3.1160524e-01
  6.4234567e-01
 -1.6670112e-01
 -7.5512356e-01
 -1.7568396e-01
 -1.4422986e-01
 -1.7226441e-01
  8.8249671e-01
 -3.4645951e-01
  3.6998838e-01
 -1.1617934e+00
 -1.0316482e+00
 -1.7346473e+00
  1.9298238e-01
  1.3052269e+00
  1.2348714e+00
  1.1727294e-01
 -4.5653227e-01
 -9.8233902e-01
  1.5319755e-02
 -4.4770861e-01
 -9.1563410e-01
 -1.2356181e+00
  1.8762809e-01
  6.5310264e-01
  1.0307471e+00
 -3.9198767e-02
  9.4664901e-01
  1.3083166e-01
  1.1067186e-01
  2.8174356e-01
 -1.2990534e-01
 -5.1385772e-01
 -2.0456311e-01
  1.1875231e-01
 -9.7680077e-02
  2.3543203e-01
 -2.1339731e-01
 -4.3887973e-02
 -4.7886189e-02
  2.2818752e-01
 -1.1312387e-01
 -5.6596573e-02
  2.7282083e-01
 -1.4984699e-01
  1.3276969e-01
 -9.3579598e-02
 -1.6476723e-03
  1.1496835e-01
  2.5606802e-01
  1.3867922e-01
 -6.3861325e-02
  2.3768870e-02
 -1.0470925e-01
  1.8982733e-02
 -2.6163422e-02
 -5.0705427e-01
  1.5963614e-01
 -3.2556781e-01
 -1.0588104e-01
 -4.2458504e-02
 -1.4392623e-01
 -2.3393375e-01
  9.9753961e-02
  3.7138429e-01
 -9.0781964e-02
 -4.2770728e-02
  1.1934032e-01
  3.5474293e-02
  2.0212848e-01
  3.0700645e-01
  1.9637658e-01
  3.3721521e-01
 -8.1968717e-03
 -8.7159179e-02
 -4.1439012e-01
  1.2332296e-01
 -1.7655644e-01
  1.3156958e-01
 -2.4931984e-01
  2.3303981e-01
 -1.2808660e-02
 -1.5818875e-01
 -9.9562354e-02
 -6.5242909e-02
 -1.4958465e-02
  1.5909728e-01
  1.3522807e-01
 -1.4332899e-01
  1.5982831e-01
 -4.3691477e-01
 -6.4402325e-03
 -2.4374731e-01
  1.1242971e-01
 -2.9903767e-01
 -4.2678464e-02
 -4.1191509e-01
  1.3108903e-01
 -4.0531944e-02
  7.6332055e-02
 -1.0571902e-01
  4.1399437e-01
 -1.0761400e+00
 -8.9729661e-03
  1.1657297e-01
 -8.4519081e-02
  1.3077831e-04
  1.1237566e-01
  8.1599414e-02
  1.0569207e-01
 -1.6667192e-01
  1.4021492e-01
  2.3998882e-01
 -7.2613925e-02
  1.1300258e-01
 -2.2490425e-01
  3.1772903e-01
 -7.2784805e-01
 -1.4965862e-02
 -3.1580883e-01
 -1.9055778e-02
  1.4657801e-02
 -1.5524268e-01
  3.2055292e-01
 -2.3453881e-01
  1.0129375e-01
 -3.0958885e-01
  2.3482202e-01
 -1.4978089e-02
  9.3021935e-01
  3.0764607e-01
  1.8229373e-01
  1.5141654e-01
 -2.3280235e-02
  3.0776837e-01
  1.5459895e-01
  2.4771330e-01
  6.5585804e-01
  5.6975540e-02
  1.6349827e-01
 -3.1122530e-01
  2.9987380e-01
 -3.7070197e-01
 -8.8372767e-02
  7.1922623e-02
  1.5970375e-03
 -1.4108442e-01
  1.0488585e-01
  3.0824399e-01
  1.8567614e-01
  1.2375454e-01
 -1.4864169e-01
  2.4503561e-02
  1.6971271e-01
 -3.9714217e-02
  1.9230604e-01
  1.3820620e-01
  1.0903355e-01
 -2.7187553e-01
  4.3742958e-02
 -5.4949731e-01
 -4.6349162e-01
 -7.3219784e-02
  1.4600770e-01
 -2.7383763e-01
  7.9713516e-02
 -2.3354994e-01
 -2.5772598e-01
 -3.9745994e-02
 -4.1538045e-02
  1.2495070e-01
  3.2135971e-02
  1.9992194e-01
 -1.3054995e-01
 -3.7434497e-01
  2.9884258e-01
  1.3368700e+00
 -2.1371044e-01
  2.2185798e-01
 -3.1988710e-01
  1.1233789e-01
  4.8782763e-01
 -8.1664482e-03
 -1.4487335e-01
 -6.4025693e-02
  3.2785777e-02
  1.8338400e-01
 -2.0517703e-02
  3.0952424e-01
 -2.0146398e-01
  2.8798345e-01
  4.5386583e-02
 -4.1076701e-02
 -8.5576877e-02
 -1.3332817e-01
  9.9133402e-03
 -2.2084117e-01
  1.0277051e+00
 -3.2606814e-02
 -3.8100764e-01
 -1.5633695e-01
  1.7670153e-01
 -3.7282476e-01
  3.1505138e-02
  1.6127247e-02
 -4.1737691e-02
 -2.4630000e-01
  1.2593876e+00
 -4.0651178e-01
 -2.7875623e-01
 -2.0303911e-02
  1.2970580e+00
  1.3327532e-01
  4.6208572e-01
  1.3081297e+00
 -6.8653859e-02
  1.3348256e-01
  3.9190769e-01
 -1.0844226e+00
  3.4556037e-01
  2.4094547e-01
  4.4498265e-01
 -2.6360565e-01
  1.5499432e-01
  6.0650747e-02
  1.4356779e+00
  3.3477589e-01
 -5.6731042e-02
  2.5812215e-01
 -5.2243733e-01
  4.2303395e-01
 -3.2868540e-01
  2.2035712e-04
 -5.6222665e-01
  2.5683487e-02
 -2.6582628e-01
 -3.0586514e-01
  1.1666948e-01
 -2.6584449e-01
 -1.3765969e-02
 -5.9717599e-02
 -1.5901859e-01
 -6.3146830e-01
 -1.4894199e-01
  1.2664250e-01
 -9.3599364e-02
 -2.3859297e-01
 -2.9169081e-02
 -8.2145758e-02
 -1.6093208e-01
 -6.8035930e-02
 -7.3302217e-02
 -4.8917392e-03
 -3.2724133e-01
 -2.0808755e-01
 -3.9110025e-03
  7.7103812e-01
  1.8514261e-01
  9.3926758e-02
  4.1358343e-01
  1.7559086e-01
 -1.3463031e-01
 -1.4892296e-01
 -1.5305249e-01
 -8.8180266e-02
 -3.9456304e-02
  2.3713559e-02
 -9.6549407e-02
  1.1460747e-01
  1.8955001e-01
 -1.5286322e-01
 -1.1226287e-01
 -7.6757103e-02
  3.4490871e-01
 -7.6751851e-02
  3.1891030e-01
  1.0260576e+00
  2.7938634e-01
 -1.1485517e-02
 -1.2884700e-01
 -2.2997659e-01
 -2.0054933e-02
  6.9928549e-02
 -1.0801230e-01
 -3.1919566e-01
  2.2680400e-01
 -8.3332304e-03
  7.3815852e-01
  1.3161792e-01
 -1.2409539e-03
 -9.8536067e-02
  4.1993707e-01
  2.4969546e-01
 -5.4002655e-01
  1.5302943e-01
 -2.0515439e-01
  1.4216930e-01
  3.1017125e-01
  2.1855403e-01
 -2.9624550e-02
 -9.7905353e-02
  2.8388392e-02
  9.0439148e-02
 -6.7553163e-04
  2.0878294e-01
  1.1457953e-01
  1.8354751e-01
 -1.1557433e-01
 -3.4785831e-01
  1.1896585e-01
 -3.4321263e-01
 -1.1610796e-01
  2.7963817e-01
 -1.9506603e-01
 -1.7177148e-01
 -6.9601730e-02
 -2.3085658e-02
 -3.4815000e-04
  9.0877064e-02
 -1.5892524e-01
 -2.1597551e-01
  1.3014363e-01
 -4.9260836e-02
 -1.6939946e-01
  8.7023020e-02
  2.2508633e-01
 -8.9410476e-02
 -3.9062008e-01
 -3.3228880e-01
 -2.2776081e-01
 -3.2064718e-01
  1.8077418e-01
  1.0641862e-01
  1.5908365e-01
  1.2630257e-01
 -1.4792450e-01
 -1.2061515e-01
 -2.2898909e-01
  9.6653357e-02
 -1.4955372e-01
  1.7599982e-01
 -2.7011655e-02
 -3.1143021e-02
 -3.6488120e-02
 -7.5888582e-02
  1.0181464e-01
 -3.4775969e-01
  3.9542013e-01
  5.7477331e-01
  1.8571852e-01
 -6.8300419e-02
  4.5823914e-01
 -1.9254643e-02
 -2.4741212e-01
  2.0391833e-02
 -1.0605501e-01
 -2.2996852e-02
 -5.9489526e-02
  1.1327482e+00
 -2.9796669e-02
  5.7549190e-02
 -1.8563248e-01
 -2.1799605e-01
 -1.7251655e-01
 -1.3317716e-01
 -1.7517148e-01
  7.5799108e-01
  3.0510843e-01
  6.6181184e-03
 -8.4752068e-02
 -4.3494606e-01
 -3.6686033e-01
 -1.6260767e-01
  7.3164925e-02
 -9.5375203e-02
 -4.7435892e-01
 -2.1415092e-01
 -2.6451156e-01
 -9.5724756e-01
  4.1522017e-01
 -2.5090396e-01
  2.0918663e-01
 -2.4036439e-01
 -1.7844279e-01
 -1.0340770e-02
 -1.5098815e-01
  2.3275627e-01
  1.3190605e-01
  1.0140160e-01
 -1.7911697e-02
  1.0706987e-01
  2.2081342e-01
 -9.4304353e-02
  1.3163576e-01
  7.0249155e-02
  9.9686004e-02
  4.9383473e-01
  4.0945491e-01
 -3.7016010e-01
  2.2545490e-02
 -6.1977752e-02
  8.1808612e-02
 -4.6840966e-01
  2.7327761e-01
 -6.2532133e-01
  3.1455314e-01
 -6.1220881e-02
 -8.1138000e-02
  1.1692435e-01
  2.2310892e-02
 -1.6059591e-02
  3.6552030e-01
  2.5646225e-01
 -1.3225644e+00
  7.9807393e-02
  8.9109711e-02
 -1.1317653e-01
  4.2669107e-03
 -2.0945311e-01
  8.1355564e-02
 -1.6184382e-01
  1.9709267e-01
  5.3937888e-01
  1.5625583e-01
  6.5527149e-02
  4.5039243e-01
 -1.6324827e-02
 -1.9379117e-01
 -2.2330397e-01
  3.1913186e-03
 -1.2439454e-01
  3.2127339e-01
 -2.3304974e-01
 -4.5206404e-01
  1.4848837e-01
  2.0523161e-01
  6.7018032e-02
 -1.1483136e-01
  4.2465221e-02
 -2.1734230e-01
  1.6247612e-01
 -1.2829795e-01
  1.4376613e-01
 -1.3780618e-01
 -2.7566513e-01
  4.9348012e-02
 -1.0979138e-01
 -2.1074958e-01
 -8.0380604e-02
 -1.1743482e+00
 -4.5040995e-02
 -2.0184056e-01
 -5.0563145e-02
 -3.9755362e-01
 -2.1884733e-01
 -3.3172380e-02
 -1.4131148e-01
 -2.6304973e-02
 -7.3098779e-01
 -2.7338919e-01
 -9.4819693e-03
 -3.8071433e-01
  1.2258180e-01
  4.5451435e-01
  2.8489813e-01
 -6.9022399e-01
  1.8878008e-01
  1.6147228e-01
 -2.9589641e-01
 -1.4018086e-01
 -9.1042653e-02
 -1.5408534e-01
  2.1015725e-01
 -2.3197378e-01
 -2.9075824e-02
 -2.1806841e-01
 -1.4768615e-01
 -4.5884618e-01
 -9.2915192e-02
 -1.5724270e-01
 -1.5406810e+00
  1.7610145e-01
  4.7296116e-01
  2.0594463e-01
 -3.7367873e-02
 -2.2329018e-02
 -1.4286324e-01
  1.9995306e-02
  8.9732699e-02
 -3.9191987e-02
  1.7302285e-01
  8.6381501e-03
  6.4245594e-01
 -4.5516720e-01
 -2.4187735e-01
 -5.9279895e-01
 -5.7054150e-01
  2.7863446e-01
 -1.5870924e-01
 -2.1219580e-01
 -6.3046522e-02
  3.2058164e-01
  2.4858557e-01
  5.7595233e-03
  8.2882881e-02
 -3.6341507e-02
  3.5214323e-01
 -9.1771148e-03
  4.3396011e-02
  3.7720852e-02
  8.2483880e-02
 -1.5609376e-01
  7.3818348e-02
 -9.4278201e-02
  2.3295311e-02
 -5.6011278e-02
 -2.0667227e-02
  4.6285111e-01
  2.1833803e-01
  3.5799764e-02
  1.0047410e-01
  1.8274044e-01
 -3.9086089e-01
  1.0489679e-02
 -1.5482394e-01
 -3.4094128e-01
 -2.8735178e-02
 -1.8255213e-01
 -1.3412423e-01
  8.7830983e-02
  2.8823256e-01
 -4.0314265e-02
 -1.6904558e-01
 -2.8413951e-03
 -5.2350801e-01
 -1.8855907e-01
 -3.1163719e-01
 -6.9498546e-02
 -6.3778281e-01
 -3.1787670e-01
 -8.3087973e-02
  4.6975326e-02
  1.5864618e-01
  2.0955987e-01
  5.0829011e-01
 -2.0808695e-01
  4.8858172e-04
  2.1835232e-02
 -2.7188739e-02
 -1.3566491e-01
 -8.8208839e-02
  5.5859495e-02
  3.9095303e-01
 -4.6204276e-02
 -1.6524053e-01
 -1.2216469e-01
 -2.3992904e-01
 -1.1889992e-01
 -5.0414577e-02
  8.6109912e-01
 -1.7726222e-01
  3.8632356e-02
  2.4172258e-01
 -7.5150549e-02
 -2.3657304e-01
  9.8249123e-02
 -3.9385222e-02
 -9.2860058e-02
 -1.4573833e-01
 -2.4828017e-01
  1.3536601e-01
  5.6278552e-03
 -4.9603996e-01
  3.5857297e-02
 -5.6039847e-02
 -4.9044514e-01
  1.2276312e-02
 -7.6235496e-02
 -8.7571658e-02
 -1.8467036e-01
 -2.2896314e-01
 -2.8156859e-01
 -1.1761135e-01
  8.8086836e-02
  4.2078799e-01
 -1.2619212e-02
 -6.1468095e-02
 -1.3444687e-01
  1.1961002e-02
 -1.5500619e-01
  2.7801478e-01
 -1.6649762e-01
  4.4272214e-02
 -1.7739849e-02
  3.6462745e-01
 -9.1881109e-03
 -4.1560668e-02
  1.9960602e-01
  1.9097351e-01
 -1.7068180e-01
  9.8079033e-02
  3.9772713e-01
  3.5707289e-01
 -5.1774389e-01
 -8.2743086e-02
 -6.0655955e-02
  7.2695985e-02
  1.8741107e-02
  2.7143297e-01
  3.1285867e-01
  1.1079879e-01
 -5.9521753e-02
 -1.8460672e-01
 -2.3040302e-02
 -1.1677751e-01
 -5.7488358e-01
  2.0481701e-01
 -2.0483600e-01
  9.3907937e-02
 -1.9892275e-01
  2.9144896e-02
 -5.4126203e-01
 -1.1528684e-01
 -1.8391730e-01
  4.8556603e-02
  5.0919704e-02
 -4.4397032e-01
  1.8862924e-01
  3.4365493e-01
  6.3319631e-02
  2.7997008e-02
 -4.4771767e-01
  1.3664076e-01
 -4.9553636e-01
 -7.7223264e-02
 -3.5438232e-02
  7.2345175e-02
  3.9613488e-01
  1.3050890e-01
  3.4086785e-01
  1.7437041e-01
  4.0846258e-01
  9.5434010e-02
  1.6121808e-01
 -6.0599953e-02
 -3.4190226e-01
 -8.6805828e-02
  3.1673011e-01
  4.2474493e-02
 -9.3602434e-02
  7.1099079e-03
 -2.5862056e-01
  1.4998139e-01
  2.0995060e-01
  8.8803433e-02
  1.7901278e-01
 -1.3741165e-02
 -1.9572480e-01
  9.1247983e-02
  4.5655381e-02
  2.1067382e-01
 -1.1814563e-01
 -2.9039362e-01
 -1.4961343e-01
 -2.4169794e-01
 -1.8902500e-01
 -1.3064246e-01
  2.8378862e-01
  9.9994794e-02
 -4.3406188e-02
  1.2044481e-01
  3.7595278e-01
 -3.3408664e-02
 -2.6228374e-01
 -3.1056404e-02
  1.5609397e-01
 -9.3027353e-03
 -1.8425305e-01
 -6.9662869e-02
 -1.1240686e-01
 -2.3665138e-01
  5.7354337e-01
  2.2963794e-01
 -1.4252065e-01
  1.8290308e-01
 -6.2925562e-02
  6.6078588e-02
 -9.8082632e-02
  1.5527937e-01
 -1.7973864e-01
 -3.4535754e-01
 -3.0732329e+00
 -4.6361816e-01
 -4.8516866e-02
  9.9502029e-03
  2.4386841e-01
  1.4332800e-01
  2.2562803e-01
 -2.6076210e-01
 -3.0027332e-02
 -9.2153847e-03
 -6.2306821e-01
  1.1631338e-01
 -7.3480770e-02
  2.8986079e-01
  1.9537264e-02
  6.2089048e-02
  2.1910855e-01
  8.7570302e-02
  2.7085692e-01
  9.5145464e-02
  2.3007695e-01
 -1.3023998e-01
  8.8395154e-01
 -1.4056982e-01
  1.8928955e-01
 -9.8710403e-02
 -8.3310120e-02
  3.0375073e-02
 -1.1205690e-01
 -1.0936868e-01
  1.0335922e-02
  1.5686564e-02
  6.4517871e-02
  5.9941694e-02
  9.2800021e-02
  1.0469770e-01
  1.4455931e-01
  7.2797076e-03
  3.0121496e-01
 -1.8809001e-01
  8.7729044e-02
 -1.9023773e-01
  1.7135806e-01
  2.5698259e-01
 -1.6028857e-01
 -1.2912020e-01
 -4.8216045e-02
  1.2840742e-01
 -6.5481707e-02
 -2.7086678e-01
  1.2671514e-02
 -8.5753864e-01
 -1.5341154e-01
  4.4499987e-01
 -1.1634825e+00
  7.8982547e-02
  1.0320784e+00
  1.8022141e-01
  1.7575273e-02
 -5.8910477e-01
  3.5374317e-02
  2.3040222e-01
  3.2101405e-01
 -3.2586604e-01
  3.4447149e-03
  6.0659889e-02
 -7.2780156e-01
 -5.2191865e-01
  1.4611379e-03
 -5.2586639e-01
 -1.6424334e-01
  4.8380665e-02
 -2.9752735e-02
 -8.2299876e-01
  3.6851555e-01
 -3.8377531e-02
 -1.3286726e+00
 -3.9777270e-01
  7.8647323e-02
  3.5153654e-01
 -7.5242019e-01
 -6.2806178e-03
  3.4738626e-02
 -1.9315049e-01
 -2.5598454e-01
  1.1755539e-01
 -7.5477317e-02
 -3.6471331e-01
  1.1226848e-01
  1.5838362e-01
  2.9483470e-01
  1.6861920e-01
  1.3768883e-01
 -3.4101647e-01
 -5.2235074e-02
  7.5900410e-03
 -7.8621715e-02
 -7.4481033e-03
 -2.9144973e-01
 -3.3716491e-01
 -2.7932459e-01
 -7.2295591e-02
  1.2997349e-01
  1.0490912e+00
  9.2220031e-02
  1.6438246e-01
 -7.4500769e-02
  4.2315081e-01
  5.3371292e-02
  3.2700887e-01
 -1.5006551e-01
 -1.7835601e-01
 -6.8779260e-02
  1.6576976e+00
  2.7883220e-01
 -3.3971254e-02
 -6.4395301e-02
  2.0481960e-01
  1.1306076e-02
 -1.9373444e-01
  1.0263382e+00
  1.1460944e-01
  1.7906281e-01
  2.0736915e-01
 -4.5705253e-01
  1.7944151e-01
 -2.6872990e-01
  5.5503261e-01
  4.5124099e-01
  6.4735122e-02
 -2.5737840e-01
 -2.2938363e-01
  4.3299846e-02
  1.7334287e+00
  1.1809961e-02
 -4.9907584e-02
 -4.5413810e-01
 -2.1799274e-01
 -8.1438005e-01
  4.9881712e-02
 -2.8943723e-01
 -6.7676800e-01
  4.6905488e-01
  4.2150259e-01
 -4.0428523e-02
  9.4817907e-02
 -8.2116789e-01
  2.0259398e-01
  1.4400719e-01
 -1.8751849e-01
 -5.5094205e-02
  1.1262038e-01
 -1.0735676e-01
  1.2394711e+00
  2.2837460e-02
  1.1350180e+00
  1.4458217e-01
  7.9366779e-01
 -1.0236142e-02
 -6.2334073e-01
 -6.3344613e-02
 -2.4019262e-01
 -1.0236933e+00
 -1.1319973e-01
  1.1487044e+00
  5.3884980e-04
 -6.8703808e-02
 -5.7859641e-01
 -1.2740951e-02
  7.8752264e-02
  4.4849947e-02
 -1.6369286e-01
  1.6734503e-01
 -4.4589255e-02
  5.0432786e-02
  4.8244646e-01
 -6.7994528e-02
  9.9857137e-02
  7.3523834e-02
 -1.3132118e-01
  4.5297681e-03
  8.8277286e-01
 -3.8692975e-01
  2.9618949e-01
  2.4599107e-01
  8.6407125e-02
 -7.7132471e-03
  5.6812547e-02
 -2.7023191e-02
 -5.2398168e-02
 -4.4466707e-01
 -4.5406941e-01
 -3.3265647e-02
  3.9110914e-01
 -7.3183668e-01
  3.7258327e-02
 -1.4327037e-01
 -1.6227411e-01
 -2.4770992e-02
 -1.4680773e-01
  3.1525338e-01
  9.3798324e-02
 -2.9713804e-01
  1.0731765e-01
  1.9734908e-02
 -1.4749755e-01
 -3.3263680e-01
  4.2990646e-01
 -1.6338877e-02
  4.2145502e-02
 -4.9384242e-01
 -4.2742729e-01
  3.4895667e-01
  9.1607422e-02
 -1.2089638e-01
  1.3698588e-01
  2.8465837e-01
  1.3965026e-01
  1.2059913e-01
 -1.4515211e-01
  8.8574111e-02
  6.7142281e-03
  1.9598131e-01
 -3.9774039e-01
 -2.4465445e-01
  1.9497536e-01
 -2.0074350e-01
 -2.6323867e-01
  3.6490817e-02
  3.5653403e-01
  3.3152726e-02
  2.0026287e-01
  1.3503982e-01
  6.2312260e-02
 -1.7892202e-02
  4.0786165e-01
 -2.5460407e-01
  2.0480679e-02
 -5.0207442e-01
  2.4370563e-01
  2.1745397e-01
 -1.7398715e-01
  2.1919279e-01
  9.1564849e-02
  6.2008917e-01
  1.1374552e-01
 -2.0362852e-02
  3.5609400e-01
 -4.7869623e-01
  5.9499508e-01
  1.0713161e-01
 -1.4940335e-01
 -2.3580531e-02
 -1.3295352e-01
 -1.6088174e-01
 -6.4173087e-02
  1.2435787e-01
 -5.6323385e-01
  6.7499571e-02
  8.0248368e-01
 -6.4191349e-02
 -8.3043292e-02
 -4.2703912e-01
  8.2978353e-02
  7.3473774e-02
 -2.6969188e-01
 -9.6950114e-02
  2.3558415e-01
  3.7062141e-01
  1.8503767e-01
  9.2864774e-02
  5.5754721e-02
  2.8504816e-01
 -7.9403752e-01
 -3.0390662e-01
 -1.4653088e-01
  1.8333143e-01
 -2.4921547e-01
  9.8389268e-02
 -1.4983997e-01
 -4.3328786e-01
  1.0701714e-01
 -4.4370213e-01
  1.9085167e-01
  1.5616578e-01
 -4.4931811e-01
  1.9015139e-02
 -1.6204952e-01
  1.9738425e-01
 -7.4703069e-03
  1.4382697e-02
  1.0658982e-01
 -1.1076520e-01
  3.6115348e-01
 -1.4927533e-01
 -1.6620287e-01
  1.3192502e-01
  3.0378756e-01
  7.9519548e-02
  4.3968704e-01
  2.4957713e-02
  6.5493542e-01
  5.0079003e-02
 -9.7151056e-02
 -1.8224042e-02
 -7.4490763e-02
 -8.0058694e-02
  1.2240473e-01
 -3.1634730e-01
 -1.9070904e-01
 -5.4907179e-01
  1.4900376e-01
 -4.4566114e-02
 -1.1219849e-01
 -2.8541249e-01
 -2.8877264e-01
 -3.4216806e-02
 -4.6873961e-02
  4.9962349e-02
  3.2644015e-02
  3.1607941e-02
 -3.8307123e-02
 -5.4849040e-02
 -5.3216416e-02
  1.6862455e-01
 -1.9126092e-01
 -4.2176720e-01
 -2.2440044e-02
  1.7814144e-02
 -2.8462490e-01
 -1.3244128e-01
 -1.2187290e-01
 -1.2731038e-01
 -1.4499177e-01
 -5.8974340e-03
 -1.3648458e-01
 -3.6105044e-02
 -2.6071033e-01
  5.1889533e-01
  1.1495248e-02
 -4.7262322e-02
 -5.2557403e-01
 -1.3828664e-01
  2.1535455e-01
 -9.3251690e-02
  2.0845462e-01
  1.0766621e-01
 -1.8564153e-01
 -4.5979731e-02
 -2.9755694e-01
 -7.8741163e-02
 -4.0524614e-01
 -2.5646552e-01
 -1.5355904e-02
  4.3478269e-02
  2.5733146e-01
  5.8233019e-02
  2.8949043e-01
 -6.0646422e-02
  8.3442914e-01
  2.3937854e-01
 -2.9143119e-01
  2.3149550e-02
 -4.0496945e-02
 -8.6484313e-02
 -8.9082763e-02
  5.7564739e-02
 -1.1686114e-01
  6.5288670e-02
 -6.2504846e-01
  2.5673357e-03
 -9.8275527e-02
 -4.3370083e-02
  2.3855124e-01
  2.3116717e-02
  4.7382364e-01
 -2.8240439e-01
  1.0898338e-01
 -1.7133510e-01
  2.1043697e-01
  2.3743045e-03
 -6.5240818e-01
  1.4802566e-01
 -4.1293120e-01
 -8.2103238e-02
 -1.5255828e-01
 -9.7420238e-02
 -3.4775216e-02
  7.7706045e-01
  3.0292451e-01
 -5.6064850e-01
  1.8347663e-01
 -7.9322630e-01
  4.8471126e-01
  4.1052139e-01
 -1.7478420e-01
 -2.7028856e-01
 -6.6165025e-03
 -6.7910261e-02
 -4.3209869e-01
 -2.4197701e-01
 -3.0590066e-01
 -2.8635256e-02
 -3.4859233e-02
  2.8803697e-02
  2.2317959e-01
 -7.0530653e-02
 -1.0642716e-01
  1.4003548e-01
  8.1658113e-01
  1.7430033e-01
  5.8040023e-02
  5.4929477e-01
 -2.1644488e-01
  4.7753844e-02
 -3.9890394e-01
  2.4903224e-01
  8.4405998e-03
 -2.1050109e-01
  4.0596804e-01
  4.0548753e-02
  6.2722516e-01
  3.8142627e-01
  1.4834528e-01
  2.5656450e-01
  1.6534083e-01
 -7.4355081e-02
 -1.5783592e-01
 -2.7004373e-01
 -7.5181723e-02
  1.1576504e-02
 -1.3926524e-01
 -1.5265191e-01
  2.6062313e-02
 -3.7777439e-01
 -4.7447890e-02
 -5.7657105e-01
 -6.9455229e-02
 -2.1559095e-01
 -3.8025267e-02
 -3.0423928e-02
 -1.1365585e-01
  3.4319222e-02
  2.2126286e-01
  1.5515453e-01
  2.0604621e-01
  1.2047685e-01
  2.9735854e-01
 -5.5084173e-02
  7.5098686e-02
 -1.0482785e-02
 -5.9311014e-02
  8.8871151e-02
  1.1068715e-01
 -3.0775481e-01
 -2.8637323e-01
  6.5789863e-02
  1.1954970e+00
  1.9666882e-01
  1.7579129e-01
  2.0715783e-03
 -1.1101755e-02
  2.5592315e-01
 -5.0528686e-02
 -6.3590616e-02
 -4.3683022e-01
 -3.2984272e-01
 -6.2264256e-02
  1.3384892e-01
  6.3196439e-01
  7.9740584e-02
  3.1737527e-01
  5.8628310e-02
  1.1664923e-01
  3.0317921e-02
  1.4210422e-01
  3.0564535e-01
  4.1209733e-01
  8.5825157e-01
 -6.4382821e-01
 -6.8951041e-01
  6.9913492e-02
 -8.6977437e-02
 -3.1779055e-02
 -1.7786427e-01
 -8.2131378e-02
 -2.6997271e-01
  3.3130485e-01
  2.0271905e-01
  2.0933600e-02
  5.4498541e-01
  2.0211686e-01
  2.9971263e-01
 -3.2899396e-03
  8.0380566e-02
  1.6103120e-01
  6.0110860e-02
 -1.3132210e-01
 -7.7975984e-03
 -3.0670443e-01
 -6.1086811e-02
 -1.5198898e-01
  2.3498848e-01
 -2.0906740e-01
  6.1825007e-01
 -9.8596409e-02
 -1.4939488e-02
  8.8592529e-02
 -4.5424423e-01
  3.1448606e-01
 -2.3368444e-01
  7.0564657e-02
 -4.5779973e-01
  2.9700836e-02
 -4.5539001e-01
  2.6222851e-02
  2.7492981e-02
 -3.6386332e-01
 -5.2284068e-01
 -5.3035237e-02
  1.1241543e-01
 -1.7463361e-01
  1.7541677e-01
  6.6088073e-02
 -4.4022763e-01
 -4.0814352e-01
 -6.8294453e-03
 -3.4124475e-02
 -3.9694205e-02
 -1.2689319e-01
  1.0045832e+00
  1.6526750e-01
 -6.2450979e-02
 -5.1377368e-01
  1.8448634e-01
 -2.6076263e-02
 -2.0819117e-01
  5.6190394e-02
 -1.2613834e-01
  1.1004562e-02
  6.2341356e-01
 -9.4001263e-02
  1.5076509e-01
 -1.6102892e-01
 -2.0433637e-01
  6.9649583e-01
 -4.2294616e-01
 -1.4705464e-01
  1.5379405e-02
 -2.1598260e-01
 -2.2534734e-01
  3.3983231e-01
 -1.6189153e-01
 -7.2684914e-02
 -2.9613219e-02
 -1.4681490e-01
 -2.6570922e-01
  1.9910781e-01
 -6.6845365e-02
  3.3495450e-01
  2.1769103e-01
  3.3268830e-01
  3.5975423e-01
  1.0147779e-01
  3.5705104e-02
  1.1466419e-02
  7.5013660e-02
 -7.4279830e-02
  6.4204715e-02
 -3.4585979e-02
  8.1302583e-02
 -5.2161485e-02
  2.4439164e-01
  2.2698402e-01
 -2.2559160e-01
  3.9235377e-01
  1.2105156e-01
  9.7086348e-02
 -3.0995280e-01
  1.3763349e-01
 -3.3372816e-02
  1.2196178e-01
 -2.3236191e-01
  1.8484566e-01
  1.1106221e-01
 -6.1024055e-02
  6.0027026e-02
 -1.8965362e-01
 -3.0989915e-02
 -1.4778641e+00
 -9.9318609e-02
  1.8285294e-01
 -6.1225843e-02
 -4.2285979e-01
 -3.6243923e-02
  3.0088097e-01
  1.1201340e-02
 -1.5202960e-01
  9.5437959e-02
 -1.3865158e-01
 -1.7453061e-02
  4.7208056e-02
 -8.8496470e-01
  3.2532758e-01
 -1.9032218e-01
  2.8632656e-01
 -1.7471524e-01
  8.4661357e-02
 -1.0451856e-01
  2.5860554e-01
 -5.1834274e-02
  1.3659178e-01
  2.3056196e-01
  3.4641749e-01
 -9.5320560e-02
  1.1938552e+00
  4.4299582e-01
  3.4584302e-01
 -2.0757619e-02
 -2.1785231e-01
 -1.0528704e-02
  2.1515908e-02
 -6.0008734e-02
 -2.7804691e-02
 -5.5619974e-02
  1.3402505e+00
  9.7908027e-02
  1.1158510e-02
  1.2521915e+00
 -5.1563431e-02
  4.2344835e-03
 -3.1212607e-01
  2.1689318e-01
  8.0289312e-02
 -4.9313599e-01
 -3.8960107e-02
 -1.2222236e-01
  7.1289742e-01
  1.9367482e-01
 -2.2389579e-01
  2.2282238e-01
  2.5834015e-01
 -5.9086877e-01
  8.0674917e-02
  2.6070750e-01
 -2.6737767e-01
 -2.5306612e-01
  3.7810937e-01
 -9.6768618e-02
  6.3663512e-02
  8.3341390e-02
  4.0345347e-01
  2.9235309e-01
 -1.6219704e-01
  1.0965596e-02
  1.4827509e-01
 -6.6199064e-02
 -6.3358223e-01
 -1.2113661e+00
  8.5820273e-02
  1.1868864e+00
 -2.2012624e-01
  3.0081077e-02
  6.5276855e-01
  6.8976414e-01
 -1.4338748e-01
 -1.6583382e-01
 -2.2506040e-02
 -4.0786788e-01
  1.9717325e+00
 -1.2444028e+00
  1.9252576e-01
 -5.7563639e-01
 -1.3558143e+00
 -1.0017119e-01
 -5.0307021e-02
  1.4346077e+00
 -1.1277039e-01
  1.1653644e+00
  2.5067613e-02
  2.8688109e-01
  8.1431460e-01
 -4.4888070e-01
  1.4444588e-02
  9.8622322e-01
 -1.4997853e+00
  3.3959576e-01
  1.0028368e+00
  1.6427896e+00
  2.9430947e+00
 -2.8409908e-02
  9.7402489e-01
 -1.6083647e+00
  7.3371363e-01
  1.8005493e-01
  2.1026553e-01
  1.7617283e+00
  1.0931427e+00
 -2.0430664e-02
 -3.0411553e-01
  2.9887730e-01
  7.0612735e-01
  3.2154027e-01
  2.9268682e-02
  1.1492390e-01
  7.3113173e-01
 -4.4251075e-01
  5.1593995e-01
  5.4328877e-01
  1.9008847e-01
  1.2384622e+00
  1.2741268e-01
  2.8229022e-01
 -1.6948619e+00
 -3.8633490e-01
  1.8698575e-01
 -1.0001500e+00
  3.3457384e-02
 -9.5092833e-01
  4.4025809e-02
 -1.1939398e+00
 -9.6323013e-01
 -1.4369419e-01
  1.0032877e+00
 -3.6722761e-01
 -1.0551505e-01
 -7.5946748e-01
  1.2213532e+00
 -4.6598679e-01
  6.4235961e-01
  8.0643541e-01
  1.0887958e+00
  4.8085761e-01
  3.3681765e-01
 -2.5467220e-01
 -2.2295098e-01
 -2.6912975e-01
 -2.7548614e-01
  1.8053255e+00
 -2.6371732e-01
  1.1873510e-01
  1.4273814e+00
  2.9433656e+00
  3.3189586e-01
  1.9861700e-02
  1.4233036e-01
  3.0373967e-01
  8.5780602e-03
  1.6495758e+00
 -3.3679705e+00
  4.5610979e-01
 -1.4684317e-01
  1.7101613e-01
  1.3269340e-01
  9.2820905e-02
  2.4619820e+00
  1.6069852e+00
  5.9669805e-01
 -2.0837161e-01
 -8.2654822e-01
  6.4114416e-01
 -1.2075738e+00
 -4.2162914e+00
  9.3409872e-01
  2.3576205e+00
 -1.1029186e+00
  5.6625903e-02
  1.0059570e+00
 -1.0551732e+00
  6.6501033e-01
  3.8628441e-01
  3.9644057e-01
 -1.2442422e+00
  9.1606283e-01
 -1.1926271e-01
 -9.1397083e-01
  1.8132048e-03
  1.1282856e+00
  1.9002554e-01
 -3.9229617e-02
 -7.5047344e-02
 -2.2616957e-01
 -1.3756648e-01
 -2.0597625e+00
  1.3808754e-01
  6.8216361e-02
 -1.7272219e-01
  3.1712613e-01
  1.3494380e-01
  8.7397689e-01
 -4.5934337e-01
  1.2224399e+00
 -2.2720575e-01
 -1.7625509e-01
 -1.2111074e+00
 -3.4080580e-01
 -8.1207730e-02
 -9.7859822e-02
 -2.2031450e+00
 -1.4091538e+00
  3.7147769e-01
  5.0460213e-01
 -5.0050303e-02
  1.7066222e+00
  1.0455055e+00
  2.7479727e+00
  1.5824710e-01
 -1.9353111e+00
 -2.1519072e+00
 -3.8465637e-01
  8.0725175e-01
  1.0807875e+00
  2.3170671e-01
  7.9417825e-01
 -3.3372462e-01
 -2.6295722e-01
 -3.4692532e-01
 -1.6301897e+00
  2.0167468e-01
 -2.9569187e+00
 -3.6272091e-01
 -1.1395006e+00
  7.7437758e-01
  3.5415154e-02
  1.2630210e+00
  3.1264263e-01
 -2.8645649e+00
 -7.4750286e-01
  9.0023726e-01
 -9.6267503e-01
  1.7252361e+00
 -8.2690233e-01
 -2.1474776e+00
 -7.6570682e-02
  5.1711696e-01
 -4.6341977e-01
 -6.0357962e-02
  8.7481755e-01
 -1.8419071e-01
 -1.3023448e+00
 -8.4248092e-03
  8.8850552e-01
 -1.3985450e+00
  1.2412559e+00
  2.0267553e+00
  5.8332151e-01
  8.3098561e-01
 -2.6711862e+00
  1.2056195e+00
  7.2111869e-01
  7.0398611e-01
  1.0966178e+00
 -2.6517177e-01
  3.0022380e-01
  9.8281777e-01
  2.2050347e+00
 -1.4925267e-01
  1.1102707e+00
 -1.8254138e+00
  4.6456590e-01
  1.6603223e+00
  2.6694462e-01
 -2.0980794e+00
  2.2792826e+00
  6.3409813e-02
  2.8237560e-01
 -1.2993975e-01
 -1.3880267e+00
  1.8147213e-02
  5.3514946e-01
  9.4400561e-01
  5.1643068e-01
  2.8546077e-01
  5.7266212e-01
 -3.5570520e-01
  1.6204678e-01
  1.6468379e+00
  6.5196043e-01
 -8.7984842e-01
  2.2445972e+00
  4.9730656e-01
  5.3423997e-02
  7.0455976e-02
  3.3937332e-01
  4.4341916e-01
 -9.4561124e-01
 -1.5014592e-01
  1.1139333e-01
  1.0369831e+00
 -1.2695341e-01
 -2.1210653e-01
 -5.6480372e-01
  4.2513022e-01
 -4.9862525e-01
  4.6149690e-02
  8.8178641e-01
 -1.3139187e+00
  9.4766311e-02
  1.2571786e-03
  1.0282862e+00
  8.3936580e-02
  5.2015579e-01
 -2.3251748e-02
  1.8370681e+00
  6.1212713e-01
  2.6006004e-01
 -5.9879390e-03
 -1.1099162e-01
  1.6050578e+00
 -7.3753941e-01
 -2.4293838e-01
  1.0117242e-01
  1.3362058e+00
  2.8335970e-02
 -5.9436582e-02
 -4.0874752e-01
 -2.5875667e-01
 -2.2796435e-02
  7.4547929e-01
 -2.2935009e-01
 -3.9508957e-02
  2.0461433e-01
  1.3404249e-01
  4.3290175e-02
 -1.5714763e-01
 -3.4450307e-01
 -4.3596202e-03
 -7.3565073e-02
 -4.8956814e-01
  1.2772006e-01
  2.4791352e-01
  6.1668664e-02
 -1.5805000e-01
 -1.6096085e-02
  1.8765631e-01
  2.4738254e-01
  3.8666570e-01
  2.1156409e-01
  9.6101761e-02
 -1.1867157e-01
 -4.3159407e-01
 -2.0834346e-01
  6.8311766e-02
 -7.0275672e-02
 -5.2889442e-01
  2.4602495e-01
 -7.3919229e-02
 -1.7431398e-01
  1.4174915e-02
 -6.4403522e-01
 -1.2563533e-01
 -5.0801855e-02
  6.0869843e-01
  1.8278366e-01
  5.1113659e-01
  3.7462389e-01
  2.2749668e-01
 -7.0504863e-03
  1.2992145e-02
 -2.2861497e-01
 -2.4124429e-02
  1.4936019e-01
  2.9001671e-01
  5.4415995e-01
 -4.9510145e-01
  3.1491145e-01
  1.3355307e-01
  6.2470522e-02
  1.8944603e-01
  1.8642719e-01
 -4.4161718e-02
 -1.6249771e-01
  1.3217111e+00
 -4.9676785e-01
 -1.1035182e-01
 -1.0959741e-01
  3.6791986e-01
  1.0563422e-01
 -6.8184830e-02
 -1.0805961e-01
  4.6231592e-01
 -5.1191711e-01
  3.3502042e-01
  1.8881343e-01
 -6.1377767e-02
 -1.3187028e-01
  1.0419729e-01
  1.0603783e-01
  9.9193549e-01
  9.6163392e-02
  1.5350029e-01
  3.5571468e-01
  4.1648690e-02
 -2.6330814e-01
  4.7897533e-02
  8.6539008e-02
  8.5095152e-02
 -3.0704376e-01
 -3.0074772e-01
 -8.0257875e-01
 -2.4999447e-01
 -4.7430556e-02
 -9.7488508e-02
  9.1574773e-02
  1.9984913e-01
 -1.7220026e-01
 -3.1267723e-01
  8.0262505e-02
  3.4649250e-01
 -4.5026809e-01
  3.5843110e-01
 -1.0086609e-01
 -3.6872542e-01
  8.5535780e-02
  6.1872721e-02
  2.2991130e-01
 -7.7784069e-02
  1.3669120e-01
  1.5666123e-01
  3.1594053e-01
  7.5609505e-02
  1.5584829e-01
 -7.5717129e-02
  3.6426809e-02
  6.0343301e-01
  3.1587085e-01
  2.6575470e-01
  8.2418120e-01
  1.3781759e-02
 -1.5334080e-01
  6.8860427e-02
 -9.9928707e-02
 -6.4582601e-02
  4.3360787e-03
  4.1317025e-01
 -1.0485942e+00
 -3.2481514e-02
 -1.2305333e-01
  2.8430578e-01
  4.1264060e-01
 -1.4287814e+00
 -5.0517231e-01
  8.3095167e-04
 -1.5507193e+00
 -3.4265423e-01
  5.7408188e-02
  1.3443325e-01
 -4.1749537e-01
  1.2488344e-01
  4.5186084e-02
  1.2949301e-01
 -8.8355815e-01
  2.3683517e-01
  1.4221833e-02
  2.9400852e-01
  3.3297923e-01
  3.2469917e-02
  4.0698431e-02
  1.0992385e-01
  9.5963798e-02
  9.0840720e-02
  2.9713672e-01
  2.3695065e-01
  1.9750525e+00
  2.1328948e-01
 -2.1933202e-02
  3.0670704e-02
  1.2316249e-01
 -1.1954617e-01
  8.3812386e-02
  1.2308006e-01
 -1.1455144e+00
 -1.6568094e-02
 -2.3512657e-01
  3.0118555e-01
  1.8071172e-01
  1.4220311e-01
 -4.5354940e-02
  1.4044686e-01
  7.5108922e-01
  2.4764380e-01
 -5.7382655e-01
  2.1517108e-01
  2.1517108e-01
  2.1517108e-01
  2.1517108e-01
  2.1517108e-01
  2.1517108e-01
  2.1517108e-01
  6.0767341e+00
  6.0767341e+00
  6.0767341e+00
  6.0767341e+00
  6.0767341e+00
  6.0767341e+00
  6.0767341e+00
  3.0845664e+00
  3.0845664e+00
  3.0845664e+00
  3.0845664e+00
  3.0845664e+00
  3.0845664e+00
  3.0845664e+00
  1.2707429e+00
  1.2707429e+00
  1.2707429e+00
  1.2707429e+00
  1.2707429e+00
  1.2707429e+00
  1.2707429e+00
  3.9686656e-01
  3.9686656e-01
  3.9686656e-01
  3.9686656e-01
  3.9686656e-01
  3.9686656e-01
  3.9686656e-01
  2.4156071e+01
  2.4156071e+01
  2.4156071e+01
  2.4156071e+01
  2.4156071e+01
  2.4156071e+01
  2.4156071e+01
