nep3 2 C H 
cutoff 8 4 358 50
n_max 8 6
basis_size 8 8
l_max 4 0 0
ANN 50 0
 -4.6958363e-01
  1.3598107e-01
  1.0244376e-01
  2.8180620e-01
  5.0190729e-01
  7.3755145e-06
 -3.4943654e-04
  3.1978041e-02
 -1.4416469e+00
 -2.6219225e-01
 -3.0323718e-04
  1.5369600e-04
  1.3749159e-05
  9.6879760e-03
 -6.8428659e-01
 -3.5236046e-01
 -6.3680899e-01
 -1.5200494e-01
 -6.9088026e-05
 -1.0979141e+00
  4.3034676e-02
 -1.0404365e+00
 -3.5944989e-01
 -5.4981396e-02
 -1.0141628e+00
  5.6220531e-03
  3.3196580e-04
 -1.1499473e-03
 -1.0138962e+00
 -1.1494967e+00
  1.8385965e-02
 -6.5822584e-05
 -9.1741067e-01
 -9.1317976e-01
 -1.5031573e-01
 -1.3827600e+00
  3.0391992e-04
  2.2510908e-04
  3.3355367e-04
 -1.2422929e-04
 -4.6766825e-05
  1.2588907e-04
  4.5215475e-05
  8.4682972e-05
 -6.5740598e-05
 -6.3476175e-05
  1.3575453e-04
  1.4645263e-04
  1.0076876e-04
  2.4716233e-04
  1.1819048e-04
  3.8144357e-05
  5.7148322e-05
  7.3108502e-05
 -4.2364954e-06
  1.2995330e-04
 -8.3144205e-06
  3.2978685e-05
  1.5254880e-04
  8.0939062e-05
  1.2358633e-04
 -1.3537089e-05
  2.0499532e-04
 -1.8747978e-05
 -2.9544621e-05
 -5.6768067e-06
 -6.7813620e-05
  3.8674138e-05
  7.5192678e-05
  2.2537808e-05
 -3.3263440e-04
  7.7569894e-07
 -2.1247171e-05
 -4.9440514e-05
 -2.7787955e-06
 -4.2827224e-04
 -2.0761782e-04
  4.7295493e-05
  1.8153060e-05
  5.9263832e-05
  7.1267699e-05
 -8.7931103e-06
 -1.1038304e-04
 -4.0964056e-05
  4.1697785e-04
 -2.7648430e-05
 -8.4553751e-05
 -2.3065454e-04
 -8.2630984e-05
  6.5394102e-05
  2.7947950e-05
 -1.1186725e-05
  4.5098677e-05
 -1.4940665e-05
  3.5410625e-04
 -1.4806425e-04
  1.5429209e-04
 -7.3566453e-06
 -1.5273203e-04
 -9.1684160e-06
 -8.8219298e-05
  8.8528941e-05
  3.1515083e-07
 -7.8022873e-05
 -2.6440803e-05
 -2.3209468e-04
  2.3608180e-05
 -5.3627729e-05
 -1.3233747e-04
 -1.8052783e-04
 -2.0325850e-04
 -8.9902960e-06
 -2.9282639e-04
 -4.8374026e-05
  3.3092877e-04
  2.6160365e-04
 -3.7926449e-05
  1.0611833e-04
  2.8302965e-01
  2.1994254e-05
  1.7596399e-04
  2.9334333e-04
  1.7023527e-05
  1.2705191e-04
 -2.9280204e-01
  1.4349153e-04
 -1.9759727e-01
  4.0160434e-05
  4.8823455e-05
  3.6277655e-05
 -1.1927904e-04
 -2.6895079e-05
 -7.2537083e-04
 -6.4741951e-05
  5.5561752e-05
 -4.0505171e-01
  1.0092462e-04
  7.5878997e-05
  4.4009583e-05
 -2.8150883e-01
 -4.4055239e-05
  3.3701934e-05
 -1.1203144e-04
 -4.0113089e-05
 -6.9255312e-04
  4.1686559e-05
  4.5353172e-06
  7.1414370e-06
 -5.5411554e-05
  1.3571796e-04
 -1.4421923e-04
  1.2975888e-04
  8.1064009e-06
  3.9852891e-04
  1.2364112e-04
  5.4733420e-05
  2.2919099e-04
  2.9432279e-04
 -2.8040219e-04
 -2.6160252e-04
  7.9096346e-05
 -4.6075289e-05
  2.6145692e-05
  4.7964786e-06
 -5.1963780e-06
  6.5810644e-05
 -7.6301018e-05
 -6.4553024e-05
  1.1344196e-04
  2.9357130e-05
  3.6408022e-05
  1.2528671e-04
 -7.7730234e-05
  1.2692284e-05
 -1.1223184e-04
  8.5865126e-05
 -6.1460851e-06
 -2.3673507e-04
 -1.2276502e-04
  2.5333593e-06
 -8.1667320e-05
 -9.2410075e-05
 -3.5888163e-05
 -2.8420907e-05
  2.5042777e-05
  1.2311841e-04
  3.3635940e-02
 -1.2464303e-01
 -5.8703345e-01
 -1.7892915e-01
 -2.7709922e-01
 -2.4614653e-01
 -9.6484828e-01
  3.8654594e-05
  2.0778675e-01
 -4.1204730e-01
  2.2080634e-02
 -4.3860534e-01
 -2.6207913e-02
 -9.9066412e-04
  5.9980285e-01
 -5.7830075e-03
  4.1547039e-01
 -2.2497989e-01
  4.3661621e-01
 -3.8966842e-05
 -3.0507684e-01
 -3.0193891e-04
  9.5882869e-01
  3.4691303e-03
 -1.2154401e-04
 -1.8008959e-03
 -3.1293740e-03
  1.8972394e-04
 -1.5668549e-04
  1.3104772e-04
  3.7607542e-01
  3.3997370e-05
 -2.2979961e-05
 -5.5126950e-02
 -2.0974274e-04
 -2.2430185e-04
  1.3961257e-01
  1.7193900e-01
 -4.9028522e-01
  7.6497841e-01
  1.2045764e-01
 -4.8140328e-02
 -5.0488389e-01
 -1.8379954e-01
 -4.6390769e-04
 -6.9791597e-01
  8.6872205e-02
  2.5326982e-01
 -1.3502021e+00
 -9.4067767e-02
  1.2980089e+00
  5.9609532e-01
  1.4958870e+00
 -2.2243392e-01
 -1.3528793e-04
  2.0786474e-02
 -2.0297136e+00
 -1.6739990e+00
 -4.6097940e-01
 -1.5694764e+00
 -1.9236985e+00
 -5.1053768e-01
 -6.6596174e-01
  2.2275329e-01
  4.4212097e-01
  3.4192690e-01
  4.7102258e-01
  7.9697913e-01
  1.1531789e-01
  1.1016829e+00
 -4.8401129e-01
  2.2444229e+00
 -1.3321224e-01
 -2.5115575e-04
 -5.7846037e-06
  3.0175561e-06
 -8.8858214e-06
 -8.2080122e-05
 -6.0171238e-05
 -1.2588174e-04
 -1.0842409e-04
  2.2074375e-05
  1.1485579e-05
 -5.1899144e-05
  5.3000738e-05
 -1.0556752e-04
  2.7150631e-06
 -1.2933668e-04
  1.9034971e-05
  6.5965403e-05
  6.4191181e-07
  6.0655999e-05
  5.8552283e-05
  4.8099275e-05
  2.0148391e-04
 -8.2111801e-05
 -1.5331261e-05
 -3.3605953e-05
  2.9642966e-05
  1.7932680e-04
 -2.7899057e-04
  1.6135595e-05
  2.6759735e-06
 -8.1575876e-05
  1.1020857e-04
  4.4220869e-05
 -1.1668613e-04
 -9.0242211e-05
 -1.0391120e-04
 -2.5830712e-04
  4.1001109e-05
 -4.1638581e-05
  2.0486972e-05
  2.9120562e-04
 -1.3047730e-04
  2.2692313e-05
  9.5882264e-05
  3.2652561e-06
  8.2089346e-06
  6.9630109e-06
 -1.6784841e-04
  8.5949214e-06
 -1.7156752e-05
  9.4021525e-06
  6.7102221e-05
  3.6439742e-06
 -3.8514459e-05
  1.4745710e-04
 -2.8473494e-05
 -5.3565189e-05
 -8.7794815e-06
  9.0433263e-05
 -2.0946409e-04
  1.8420225e-04
  1.2100347e-05
 -1.1536206e-04
  1.5993768e-04
  2.5067030e-04
 -6.1132145e-05
  1.0609344e-04
  1.4484598e-01
  2.2156769e-06
  4.6690777e-05
  9.0670819e-06
  1.3221689e-05
 -2.1035681e-04
 -5.2086700e-05
  1.6315760e-01
 -1.6340517e-01
 -9.6265131e-01
 -1.7358389e-03
  2.0927452e-01
 -2.2307700e-02
 -4.6564713e-01
 -2.5318956e-05
 -7.7470550e-03
 -7.3352888e-02
  1.5807697e-03
  5.9861642e-01
 -3.5127753e-04
 -2.5811762e-01
  3.3014756e-02
  1.1819149e-02
 -2.6390609e-01
 -5.7453644e-01
 -1.3158374e-04
  6.4462018e-01
 -2.5281045e-01
 -7.4646978e-06
 -1.3351276e+00
 -6.6459256e-01
 -1.5776945e+00
 -3.1096549e-03
  1.9817766e-05
 -2.1599571e-01
 -8.4023434e-01
 -1.4264767e-01
 -3.1354335e-01
 -2.9840893e-01
  1.0787163e-02
 -7.1232098e-01
 -3.4896821e-01
 -4.2454872e-02
 -1.6531255e-03
 -4.7633498e-06
  5.9331043e-05
  4.5552591e-05
  3.6910227e-05
 -2.1067804e-05
  5.5462027e-05
 -5.2482239e-05
 -1.0735480e-04
 -2.5749273e-04
  7.8983831e-01
 -5.7442703e-05
  2.7664208e-05
 -1.0203980e-04
 -3.6812777e-05
 -2.0473888e-04
  5.5621509e-03
 -6.6887638e-05
  1.0742927e-04
 -3.3945675e-04
  3.5105890e-03
  4.5111254e-05
 -5.1640003e-05
 -1.2163218e-04
 -6.4241467e-06
  3.5405985e-01
  3.5910765e-05
 -4.8816972e-05
  6.6117602e-05
 -6.1844607e-05
 -2.2916551e-05
  2.3376777e-05
  3.4845558e-05
 -1.4782546e-04
 -2.7939459e-05
 -4.3699434e-05
  2.8119757e-07
  7.8544770e-05
  1.5451768e-04
 -9.6553049e-06
 -4.5458062e-05
 -5.1045971e-04
  1.0900438e-04
 -7.5443550e-06
 -2.1099154e-04
  8.0627760e-05
 -2.4392889e-04
  4.5829525e-05
  2.8163811e-05
 -2.0209428e-04
  1.1402510e-04
  2.2098463e-04
 -1.0593137e-04
 -9.8119526e-05
  5.3975975e-05
 -1.2614606e-05
  2.8626537e-06
 -6.7209992e-05
  7.2556140e-06
 -1.0973221e-04
  5.1137642e-05
  5.7931131e-05
  7.1336550e-04
 -2.5471749e-05
 -3.7777822e-06
 -1.8241646e-04
 -3.4040528e-05
 -1.5620868e-04
  5.7564026e-05
 -1.2514642e-05
  5.2936608e-05
 -3.4325180e-04
  4.1687998e-04
  8.0127138e-06
  3.6045562e-06
  8.4867284e-02
 -1.6865330e+00
 -9.8508161e-01
 -3.2578078e-01
 -1.1125223e-01
 -3.0004738e-02
  1.2071906e-01
 -1.0274427e+00
  2.6288223e-01
  2.1133928e-04
  5.7338029e-02
 -1.1773410e-01
  2.0826855e-04
 -4.6163112e-01
  3.6057028e-01
  2.3949645e+00
 -1.8154203e+00
 -7.9346859e-01
  5.4591900e-01
 -1.1031935e-02
 -6.2128339e-02
  8.6893588e-01
  1.4262103e+00
 -6.9268727e-01
 -1.2507231e-02
  2.0023804e-04
  2.6404715e-01
  1.1608889e-01
  9.8016925e-02
  1.6372938e+00
 -1.1393428e+00
 -8.6164612e-01
  1.3669821e+00
  2.0428464e+00
 -1.1356091e-03
  7.2640908e-01
 -5.7280909e-02
  3.1380918e-05
 -1.1235998e-04
 -3.6127101e-05
  1.7808723e-04
 -5.6518740e-05
  7.5738004e-05
 -9.2544746e-05
  5.3359425e-05
 -7.6079254e-05
 -5.2518371e-05
  2.5905812e-05
  1.4942387e-04
  3.6103381e-06
  4.9068040e-05
 -4.7065452e-05
 -1.0403879e-05
  5.3690575e-05
  3.0379319e-05
 -8.4321036e-05
  8.9963309e-05
 -4.6822850e-05
  2.3495255e-05
 -5.7514808e-06
 -8.3394239e-05
 -2.6723192e-04
 -2.0393135e-04
 -1.7424585e-05
 -3.6144866e-05
 -1.4213814e-05
  3.7763754e-04
 -1.9865820e-05
  7.7835284e-05
 -3.1476596e-04
  2.8866981e-04
  2.1331981e-04
 -5.6635752e-05
  1.9384165e-04
 -2.3834907e-01
 -1.7801178e+00
  4.1502485e-01
  3.6342291e-04
  3.2081744e-01
  1.6512047e-01
  2.2815903e-01
 -3.7314577e+00
 -1.3313494e+00
  2.8542742e-01
 -1.7649513e-04
 -7.3030752e-01
  9.5784307e-02
  3.7664306e-01
 -2.1246598e+00
 -4.4856137e-01
 -1.1296344e+00
 -5.8929030e-02
  1.1400794e+00
 -1.0035383e+00
  4.5631580e-02
 -1.4424649e+00
 -4.8341796e-01
 -1.7187462e+00
 -2.2152232e-01
  1.7259658e-04
 -1.8142563e-01
 -9.7975679e-02
 -5.9280086e-01
 -1.9114580e+00
  1.4530128e-01
 -3.7745264e-01
 -3.1087641e-02
  3.8858060e-02
 -1.9051716e-01
 -2.2003777e-01
 -2.7701205e-03
 -1.0382111e+00
  6.9069433e-01
  8.9824772e-01
 -2.2269122e-02
  1.1484820e-01
 -2.1143349e-02
  9.0837842e-01
  9.6004319e-01
 -6.7629444e-05
  5.2388288e-02
  9.8716354e-01
  5.1268451e-02
  2.1993020e-04
 -1.2265502e-04
  6.9789730e-02
 -1.4277657e+00
 -2.4242203e+00
  3.1855438e+00
 -5.7704151e-01
  9.0959793e-06
  7.3834944e-01
  1.4743583e-01
 -5.3640881e-05
  4.9173832e-01
  1.1022947e+00
 -1.4739831e-04
 -1.2129306e-02
  2.2712110e-01
  1.1106488e+00
 -3.7301463e-04
 -5.7715420e-02
  1.1603323e+00
 -8.4202975e-01
  1.2659094e-01
  1.3010940e-04
  2.3305955e+00
 -3.5554573e-02
  5.9712535e-01
 -6.7169726e-01
 -1.5891014e+00
 -5.8937810e-02
  8.9737982e-02
  1.5563434e+00
  7.1814531e-01
  1.3373792e+00
 -2.9757574e-01
  3.7188940e-02
 -1.0940051e+00
  9.4143771e-02
  3.7547768e-04
  3.1988636e-02
  1.6908644e+00
  2.4594810e+00
  1.3912147e+00
  5.1845926e-01
  1.4854758e+00
 -2.1112765e-01
 -4.0963031e-02
  7.7054483e-01
 -9.3045259e-01
 -7.3458159e-01
 -1.4582059e-01
 -9.6236166e-05
  1.6079761e+00
 -5.0808835e-01
  1.0870697e-01
 -1.8659773e+00
  8.6621933e-02
  4.2752755e-01
  1.7984993e+00
  2.4220350e+00
  4.3008295e-01
 -2.2370257e+00
  5.6191730e-01
  6.8601756e-04
  8.4905750e-01
  7.8515577e-01
 -1.2281096e-01
  2.9291078e-01
 -2.1889790e-04
  8.3092153e-01
  1.9609478e-01
  2.1636616e-01
  6.8407124e-01
 -6.1740566e-06
  2.2745518e-01
  2.4466321e-01
  2.8298375e-01
 -2.9824026e+00
 -2.9699671e+00
 -4.0429813e-01
 -9.0923679e-01
  4.6745902e-01
 -8.3978039e-01
  2.1813299e-01
 -8.5520661e-01
  1.8761601e-04
  5.2152472e-03
 -1.3648821e+00
  8.7976962e-01
  1.0472445e+00
 -2.0056045e-02
  2.2468600e-01
  9.2949238e-05
  1.0959156e+00
  1.9105767e-01
  2.4398215e+00
 -1.4021842e+00
  5.0997829e-01
  1.0713331e+00
 -2.2089833e-05
  2.8317493e-01
  7.9552412e-01
 -6.1817706e-01
 -9.2915684e-01
 -5.7707781e-01
  5.2761894e-01
 -3.9353274e-02
  1.1526031e-01
  3.3830866e-01
 -6.9309479e-01
 -1.1737349e+00
  8.8355340e-02
 -7.2711188e-01
 -1.0254609e-01
  1.2403892e+00
  1.6973592e+00
  3.7526152e+00
  4.6518739e-02
  3.0022159e-01
 -1.1080763e+00
 -1.1253582e+00
 -1.6564451e+00
 -1.3808162e+00
 -1.2184864e+00
 -7.6411939e-01
 -1.0674263e-05
  1.6262415e-01
 -6.8596625e-01
 -2.1571212e+00
  1.5104483e-01
  7.7264302e-04
 -2.2623534e+00
  1.9739121e+00
 -7.0569277e-01
  2.2531822e-05
 -2.6854930e+00
  2.1193686e+00
  2.4463201e-01
  2.0122614e+00
  1.8134612e+00
 -6.5476263e-01
  7.3959745e-07
  1.0779952e-02
  4.0313822e-05
  4.8536074e-01
  1.2570127e+00
  1.5157601e+00
  5.4349613e-01
 -1.9337071e-01
 -8.9669611e-06
 -2.4318066e-03
  2.8859192e-01
 -3.8955730e-01
 -2.1637383e-01
 -5.3151870e-01
  3.3984241e-05
  3.5259336e-02
 -1.7078009e-02
 -3.5848764e-01
  6.8585810e-05
 -1.7639286e-04
  1.8720982e+00
 -1.6188593e-01
  8.4041661e-01
  2.2662501e-01
 -5.1705696e-02
  2.3761668e+00
  1.7523782e-01
  1.1629679e+00
  3.7863302e-01
 -5.5326933e-01
 -7.9807863e-02
 -8.4269488e-01
  4.0662912e-01
  4.2067116e-04
  3.1733591e-04
 -7.7820274e-05
 -3.9806706e-05
 -1.3279979e-05
 -2.4846951e-05
  2.7890000e-04
  2.7391805e-05
 -1.0182638e-04
  1.1848733e-05
  9.3713963e-05
 -1.3180253e-04
  6.3729189e-05
  5.5990618e-05
  2.5564044e-05
  1.3565175e-05
  4.3094245e-05
  1.0397891e-05
 -7.7039869e-05
  3.3587326e-05
 -5.7387282e-05
 -5.0203587e-05
  4.0028189e-04
  1.5956892e-04
  1.1951068e-05
 -1.2779454e-04
  3.3089360e-05
  1.5841546e-05
  1.4615848e-04
 -3.2646174e-04
 -1.2411455e-04
  2.2711443e-05
  1.0981332e-05
 -1.2199281e-04
 -1.8032977e-05
  3.5415482e-04
  4.0505306e-04
  1.1623943e-04
 -9.1405120e-05
  3.2664968e-05
 -5.9908034e-05
  2.3639110e-04
  4.7744077e-05
 -2.1722639e-05
  3.3539916e-05
 -1.4355569e-04
  5.5849938e-05
  8.4558364e-05
  2.0772715e-04
 -7.2780218e-05
 -1.7919188e-05
  4.2552754e-05
 -1.7990702e-06
 -5.9424747e-06
  3.6125970e-05
 -1.7263232e-05
 -5.2380430e-05
  6.5592809e-05
  7.6512988e-05
 -4.1162319e-05
  4.9683982e-05
 -9.9868994e-05
 -7.2206851e-05
 -1.9991156e-05
  1.3051186e-04
 -6.1212624e-05
 -2.0097550e-06
  3.1904397e-05
  1.5313522e-05
 -4.2153006e-05
 -1.0241000e-04
 -3.1875788e-05
  1.0127742e-04
  4.1851443e-05
  4.1676924e-04
 -2.2776046e-01
  4.7227059e-02
  1.1602864e-01
  1.2013713e-01
  1.8292570e-01
 -5.9433321e-05
  1.4568716e+00
 -2.2476274e-04
  1.7104778e-02
  5.4028636e-01
 -4.2735037e-01
  9.6192352e-02
 -8.0861926e-01
  1.2525992e-01
  5.4442030e-01
  6.7805189e-01
 -1.3389400e+00
  3.5040188e-04
 -5.0256032e-01
  2.2010796e-05
 -3.8437897e-01
 -1.7427483e-05
  1.8575568e-01
 -1.4393855e+00
 -6.0274590e-02
 -3.1588569e-01
 -7.4314475e-02
  4.2869294e-01
  2.4740931e-01
 -1.2274885e-04
 -1.1718104e-01
  2.9257254e-04
 -1.2710677e-01
  5.7715595e-01
 -1.1763444e-01
  2.3316653e-04
 -1.5305102e-04
  2.0717640e-05
 -9.7541633e-06
 -1.1642184e-04
  2.7076490e-05
 -5.2445153e-05
  1.7375847e-05
 -1.9098687e-04
 -1.5064189e-04
 -1.9905754e-05
 -1.0485805e-04
 -9.2410482e-06
  8.9101159e-05
 -4.5547094e-05
  1.1828898e-05
 -6.6159831e-05
  9.4837196e-05
  1.0304627e-04
 -6.7055487e-05
  1.0537085e-05
  1.4453666e-05
 -9.3915944e-05
  1.4649540e-06
 -6.2796324e-05
  4.6802277e-05
  1.1037342e-05
 -1.5942221e-04
  2.2689532e-05
  4.8183254e-05
 -1.0426060e-04
 -6.1412256e-06
  2.0467585e-05
 -1.6340613e-04
  2.2225506e-05
  4.5198725e-05
  2.2985372e-05
  2.0323143e-05
  1.2164111e-04
  9.8018390e-05
 -7.7572317e-05
  1.1860485e-04
  2.1959489e-04
  1.4011355e-04
 -4.4764514e-05
  1.7499573e-05
  1.0598457e-04
 -3.8873699e-05
 -3.1310748e-05
  1.7403543e-04
 -7.4908357e-06
  1.4850129e-04
 -5.8211874e-05
  2.8275355e-05
  1.7672979e-04
  8.4617233e-05
  7.3940500e-06
  4.0576506e-05
 -1.1235859e-04
 -8.3646199e-05
 -5.0110120e-06
  1.5687168e-04
  1.1637963e-04
 -4.5522407e-05
 -1.1943474e-04
  3.7546088e-06
 -8.0271304e-05
 -5.7367197e-05
  7.5119780e-05
 -7.8732250e-05
  8.0673206e-05
 -2.0288983e-04
  1.6455483e-06
 -9.0894035e-05
  4.2564216e-06
  3.7322957e-02
 -1.0950664e+00
  2.8233510e-01
 -1.9369557e-01
  9.9539004e-02
 -2.3359396e-05
 -5.5358189e-01
  7.2316460e-02
  9.5142269e-01
 -1.2998582e+00
 -1.3949958e-04
  1.3205734e+00
  1.0149175e+00
 -5.1659483e-01
  1.2445163e+00
  7.1049690e-01
 -1.6592005e-01
 -3.4761390e-01
  7.9349363e-01
  1.0759462e+00
 -5.7917632e-02
 -2.8415134e+00
  1.2693318e+00
 -2.1687732e+00
 -5.3999543e-01
  2.8567885e-03
  3.1380889e-01
 -2.2071202e-01
  2.3460541e+00
  2.1349685e-01
 -1.6222316e+00
 -5.7935935e-01
  1.6431099e+00
  1.5734804e+00
  8.8181302e-02
 -7.0695406e-01
  9.2718077e-01
 -3.4438652e-01
 -6.2597968e-02
 -3.5560083e-01
 -7.6795799e-01
 -3.4311599e-01
 -1.4851068e+00
 -1.0512667e+00
  1.7654963e+00
  1.5798682e+00
 -7.8583461e-01
 -1.0878768e+00
  3.8234282e-01
 -5.6564261e-04
 -3.2400480e-01
 -2.1676658e-01
 -1.2356696e+00
 -5.3226060e-01
 -3.5132966e-03
 -5.8459371e-01
 -5.9784001e-01
  2.3559128e-01
  8.3292186e-01
  6.4130709e-06
 -4.9148285e-01
  1.4248879e+00
 -5.6269215e-05
 -7.7177817e-01
  1.2680873e-02
  4.4658113e-01
 -2.4293585e-01
 -2.1268589e+00
 -8.6062342e-01
  6.7436749e-01
 -4.5281801e-01
  3.5437262e-01
 -2.4561539e+00
 -4.2442523e-05
  7.6015385e-07
  1.7299295e-05
 -6.0112900e-05
 -1.9817962e-05
  1.6841305e-04
  7.7610326e-05
  2.7491586e-05
  7.7402459e-05
  5.4462813e-05
  2.3218774e-04
  3.4275545e-06
 -3.2284873e-04
  2.8378035e-06
  2.9248738e-05
 -1.1586046e-05
 -3.6534122e-05
 -1.4609333e-04
 -4.3393153e-05
 -2.9313299e-04
 -2.0109165e-04
  4.1701023e-05
 -2.9413339e-05
 -6.2403968e-05
 -9.3304450e-05
 -9.6607539e-05
 -4.3546740e-04
  3.5149613e-05
 -8.5113395e-05
 -3.6340398e-06
  1.5888529e-05
  7.6149609e-06
 -1.2003996e-04
  1.3402372e-04
 -9.3785398e-05
 -9.5874333e-05
  9.3638817e-05
 -7.4171388e-05
 -8.0113648e-05
  5.3468291e-05
 -6.5336942e-05
 -8.9568894e-05
 -7.1041366e-05
 -6.7488822e-05
  7.3305259e-06
 -2.6262063e-05
  2.0442225e-05
  7.9674734e-05
  3.8355961e-04
  1.0292510e-04
  1.1865059e-04
 -2.5536765e-06
  2.3883484e-05
  7.6059718e-05
 -1.0926158e-04
  9.3249779e-05
  5.8394791e-05
 -7.8276389e-07
 -2.6252284e-05
  1.2249821e-04
 -4.4735425e-06
 -1.4607838e-04
 -2.2714390e-05
  6.4950393e-05
  1.0872018e-05
  4.1850519e-05
  5.0933882e-05
 -8.0592363e-05
  6.8045272e-05
  9.4133829e-06
 -1.2572113e-04
  1.3824884e-05
 -6.2122766e-05
 -5.1176849e-06
 -1.6799945e-04
 -3.9290715e-02
 -1.0235834e-04
 -3.5100481e-01
 -1.4633569e-01
 -4.3139130e-01
  2.1550929e-02
 -2.7028340e-01
 -3.4820732e-01
 -8.4906131e-02
  1.5062775e-04
  1.9050013e-04
  1.8685265e-01
 -9.0615553e-01
  1.1022413e+00
 -9.3546778e-01
  1.4951749e-01
 -1.5718865e-01
 -5.7986709e-03
 -1.1431861e+00
  3.7809825e+00
  7.3117512e-01
  8.7803900e-01
 -3.6320031e-02
  2.5548714e-01
 -4.9075907e-01
 -3.7348196e-02
 -4.2421049e-01
 -1.4804697e-01
  6.9287485e-01
  1.7292341e+00
 -1.0069427e+00
 -3.1341527e+00
  6.5884936e-01
  2.4693244e+00
 -2.1939799e-01
 -1.1691957e+00
 -2.3970013e+00
 -5.1328856e-01
 -2.2254141e-01
  1.2188121e+00
  9.1646296e-01
  4.3005848e-01
 -6.5082705e-01
  1.1709213e+00
 -8.6852103e-02
 -9.2715609e-01
  5.0846046e-01
 -7.6327205e-01
 -6.1067098e-01
 -1.0218055e-03
  7.0852983e-01
 -5.5326301e-01
 -1.0282388e+00
  2.1974115e+00
 -1.9688568e+00
 -3.9233071e-01
  6.8977726e-01
  2.4029279e-01
 -2.2809914e-01
 -3.0680845e+00
  3.8982680e-01
  1.3808877e+00
 -1.6937023e+00
 -1.7524149e+00
  2.0460186e+00
 -2.5023322e+00
 -7.2677851e-01
  1.8270276e-01
  1.0605500e+00
 -4.8493588e-01
 -1.1593306e+00
 -7.5584334e-01
  1.0155929e-01
 -3.6619332e+00
 -1.5836642e-05
  1.1531470e-06
  2.5562158e-05
 -2.2015728e-04
  4.1105755e-05
  8.4187173e-05
  1.3153253e-05
  6.6863046e-05
  7.9072866e-05
  1.0797779e-04
  1.8162376e-04
 -5.8582777e-05
 -4.0626543e-05
 -5.8939517e-05
  1.3967141e-05
  2.0222795e-05
  7.9318277e-05
 -6.8830079e-05
  6.3608677e-05
 -2.6327509e-05
  1.0561521e-04
  1.0567176e-04
 -2.1483772e-04
 -9.3775352e-06
  1.2442395e-04
 -3.3082048e-05
 -2.6895170e-04
 -7.7536577e-05
 -5.3356948e-06
 -1.6520567e-05
 -2.6359537e-04
  3.7981237e-05
 -2.4168785e-05
 -1.1701952e-05
 -8.9217792e-05
  9.4705916e-05
 -4.6618716e-05
  2.1711338e-01
  1.4278201e+00
 -1.8442653e-03
 -9.7629100e-01
 -1.5016952e-01
 -1.5689652e-01
  1.3954210e+00
  1.2027255e+00
 -1.5064269e-01
 -2.8576475e-01
  5.2663684e-01
  3.7203571e-03
  4.0541214e-01
  1.3056800e+00
  1.2542102e+00
 -2.3706409e-01
 -2.9902873e+00
 -8.2624382e-01
  1.4765172e+00
  8.3644772e-01
  8.2548428e-01
 -1.7717333e+00
  3.4945443e+00
 -1.2296087e+00
 -1.7396930e+00
  3.2318726e-01
  1.7773242e+00
  4.4576892e-01
 -5.6329554e-01
  2.5581715e+00
 -1.3993540e+00
  1.3681833e+00
  4.3357671e-03
 -1.0257675e-01
 -5.0366980e-01
  4.6465042e-01
  3.2139862e+00
  7.4359668e-05
  1.0706203e-04
  9.2435293e-05
 -1.3502675e-05
  1.4144574e-05
  2.4122688e-05
 -8.8470159e-05
  1.3172954e-05
  1.7154518e-04
 -4.5446868e-04
 -1.5485096e-04
 -1.1534566e-04
  1.5103152e-04
 -2.2399011e-04
 -7.5209414e-06
  3.8738230e-01
 -1.4794299e-04
 -9.8970369e-05
 -3.2336880e-05
  4.0454188e-01
 -1.1980750e-04
 -8.2101258e-05
 -5.6530062e-06
  5.7289191e-05
 -1.4700918e-04
  3.6097186e-05
 -5.2102245e-05
 -4.6302157e-05
  1.5009828e-04
  5.5180681e-06
  1.2307421e-04
 -9.9811710e-05
 -2.2745653e-04
 -1.0325216e-04
 -1.2551315e-04
 -7.6624929e-05
 -3.0197956e-05
  1.2165388e-05
 -4.8033660e-05
 -1.1354494e-05
  2.5401241e-06
 -6.0199932e-07
 -5.1511139e-05
  2.6643506e-04
 -7.6387434e-05
 -9.8654462e-05
 -2.2915697e-04
 -3.4416335e-05
  2.2014405e-04
 -3.4940917e-05
 -3.8812152e-04
  1.1209747e-04
  4.9859715e-05
  7.1510032e-05
 -8.2018581e-05
 -1.0941168e-04
  6.1099046e-05
 -3.1071580e-05
  3.0841624e-05
 -2.3944392e-04
 -3.2527271e-06
 -4.7709462e-05
 -6.5053500e-05
  3.1707903e-05
 -4.2961663e-05
  1.4863541e-05
 -4.2800539e-06
  1.9143670e-05
 -1.0505284e-04
  2.6282276e-05
 -4.6167706e-06
  1.4384060e-04
  5.4970391e-05
  1.1688128e-04
 -4.7239617e-02
 -1.1719010e-01
  3.2736384e-03
 -5.8400560e-02
  1.5677574e-01
  5.7527238e-01
  6.6851012e-02
 -1.4379241e+00
 -7.6816386e-01
 -1.6313354e+00
  1.0862828e-01
 -8.4750988e-02
  1.2880309e+00
  1.1394411e-02
 -1.9227427e+00
  7.2170240e-01
 -1.0203531e+00
 -2.1742022e-02
  6.5978944e-01
 -3.1926629e-01
 -1.8249586e-01
 -2.8603416e-02
  3.6973828e-01
 -5.7895708e-01
 -1.2582560e+00
  3.0760610e-01
 -5.6180499e-05
  5.8726573e-01
 -1.6018183e-03
  1.2606306e+00
 -2.9311311e-01
 -1.2830181e+00
 -2.7559927e-01
 -2.0809015e-05
 -6.4151123e-02
 -5.2231449e-01
  2.2542848e-01
 -6.7827204e-05
  7.5968075e-01
 -5.5588847e-05
  2.0725994e-01
  9.4059488e-04
 -4.9514179e-05
  2.4559200e-02
  1.8757392e-01
  7.2720402e-04
  1.5946374e-04
  4.6283982e-04
 -2.0780091e-04
  1.5901086e-01
 -6.1932980e-05
  9.0025187e-06
 -7.1296855e-03
  1.9944169e-01
  2.9180307e-04
  4.0998604e-04
 -1.9017404e+00
 -1.0778918e-04
 -3.4770861e-01
  1.7504955e-03
 -1.1022007e-05
  8.4797806e-01
  1.3271345e-04
  1.2949184e-03
 -5.0498202e-05
  2.6943001e-01
 -2.4738096e-04
 -1.7632568e-02
  7.2859597e-01
 -2.7657953e-01
 -1.3451427e+00
  2.3172511e-04
  1.0556633e-04
  3.2199923e-06
  5.0524035e-05
  1.8817666e-01
 -1.9554307e-05
 -7.8181492e-04
 -2.4178151e-04
 -4.8834590e-07
 -1.0178843e-04
 -2.4591111e-01
 -6.8421095e-06
 -3.6270339e-02
 -9.5441274e-04
 -4.7924368e-06
 -5.3559116e-04
 -4.4552438e-05
 -5.2737641e-06
  1.8498360e-01
 -2.7051975e-04
  9.0371832e-06
  1.0682146e-05
  3.3426594e-02
 -1.5399889e-04
  1.2582843e-04
 -1.5077244e-05
 -4.3666623e-05
  7.5649242e-03
 -8.5131214e-05
  1.6036621e-04
 -1.3243839e-04
  3.9821718e-04
 -7.3179261e-05
 -3.2928510e-06
 -8.6347463e-06
 -4.4449404e-05
  1.6875648e-04
 -1.5188301e-04
 -7.3140177e-06
 -6.9427188e-08
 -5.7194557e-06
  4.3884659e-01
 -5.0332706e-04
  1.5614276e-05
  5.8431087e-05
  1.5203341e-05
 -1.7762832e-04
 -1.1818830e-01
 -3.7975035e-05
 -2.4178281e-02
 -1.9022668e-03
 -9.4664301e-06
 -2.9965249e-04
  3.5763736e-04
 -7.4687237e-06
  2.7444379e-02
 -1.7662304e-04
  4.9601735e-05
 -1.0491757e-05
  1.5642308e-02
 -5.6826095e-05
  5.8708794e-04
 -2.6562921e-05
 -1.0381111e-04
  2.6995651e-03
  4.1072963e-05
  3.0356590e-05
  2.8733786e-05
 -1.1373182e-04
  2.7543987e-05
  4.4423217e-04
 -4.8929080e-05
  3.2281547e-05
  1.6826105e-04
 -2.9914442e-04
 -2.5073587e-07
 -2.0870617e-05
 -1.0188043e-01
  2.0213272e-01
  7.8560245e-01
 -6.8834306e-05
 -5.1074330e-05
 -1.6062623e-01
  4.0383431e-01
  7.1631245e-02
  8.9216519e-06
  1.4145415e+00
  1.4549999e-01
 -1.2983240e-01
  4.1156235e-01
  9.9947501e-05
  1.9490820e+00
 -2.2901580e+00
 -8.4771991e-01
  3.5480395e-01
  4.2203617e-05
 -4.9162808e-01
  1.1340610e-01
  6.0195982e-01
  3.1688113e-02
  2.7253749e-02
 -1.1099544e+00
  1.2199902e-05
 -4.5244843e-03
  1.6988925e+00
  2.5334229e+00
  8.6408071e-02
 -7.1935904e-01
  6.9841558e-01
 -1.6617404e-01
  4.0262100e-01
  3.7249345e-01
  1.8555248e-02
 -8.4532446e-01
  1.3077068e-04
 -5.6597222e-02
  3.2588008e-03
  7.0041086e-04
  6.2729261e-05
 -2.3328264e-06
  2.3851676e-02
  1.4243038e-01
  1.3795130e-04
  1.4162075e-02
  2.8008321e-01
 -1.6656207e-04
  3.6112261e-01
  1.0939329e-04
  1.5358029e-01
 -1.2398385e-01
  1.9356100e-03
  3.9013906e-04
  1.9498474e-04
 -1.9238506e-01
  1.8627044e-05
  3.6583906e-01
  1.4155738e-01
 -2.2435870e-05
 -5.3606790e-02
 -1.1372080e-04
 -2.2248710e-04
  1.7379837e-02
 -3.0347916e-01
  2.7554095e-01
 -4.3183361e-05
 -4.3413559e-01
  9.1945425e-05
 -4.0871012e-03
  1.6458172e-02
 -5.5207551e-02
  4.8798065e-05
 -8.8389454e-05
 -3.7202984e-01
  1.3638127e-01
  7.2621828e-04
  7.6139018e-05
 -9.1667408e-01
  5.9335816e-01
 -1.1957488e+00
 -5.9669096e-06
 -2.8463819e+00
  4.5331061e-01
  6.0406959e-01
 -1.6434616e-04
  8.1997216e-01
  1.3250654e+00
  1.6407166e+00
  2.7494150e-01
 -2.6259887e-01
  4.3698603e-01
  5.4620087e-01
 -3.4522913e-05
 -2.4790149e-03
 -1.4010598e-01
  1.6949442e-01
  1.3047318e+00
 -1.4309695e+00
  3.1410565e-04
  2.2823706e-04
 -5.3447620e-03
  1.4705851e-04
  9.1947719e-02
 -2.2932711e-01
 -8.8770531e-02
  1.9913416e-04
 -6.7611560e-02
 -1.3182804e-01
  3.4906061e-05
 -5.5819809e-01
  9.7403985e-01
 -5.7777474e-03
 -1.4449893e+00
  6.8546001e-06
  1.1106784e+00
  2.7429584e-01
 -8.3557539e-02
 -3.8511524e-04
 -3.5400048e-01
 -1.9520124e+00
 -1.9589856e-01
 -1.0933325e+00
 -3.2673439e-01
 -1.5160195e+00
 -9.7425634e-01
  5.6354475e-01
  2.1152149e-01
 -2.4582622e+00
 -3.6501303e-01
 -1.6916951e+00
  2.1399578e-02
 -1.3195982e+00
 -2.1069977e-03
  1.4861940e+00
 -2.1584789e-01
 -1.1640453e+00
  1.6339133e-03
  3.3450162e-01
 -4.5430592e-01
 -5.0727759e-02
 -9.5175474e-04
  1.3683875e+00
  1.2977567e+00
  1.8497871e-01
 -1.2251880e+00
 -6.9893086e-01
  9.6646487e-05
 -1.7890966e-04
 -1.1286287e-04
  1.5233310e-05
 -1.2707083e-04
 -2.4077418e-04
  2.2472423e-06
  1.1307343e-04
  1.1175558e-05
 -2.8395933e-05
  3.0490634e-04
 -4.0621197e-04
  2.3927765e-04
  2.5940666e-04
  9.8895071e-05
 -1.1432419e-04
 -1.9097920e-06
  8.8494584e-05
 -1.2212776e-04
 -1.5930319e-04
  3.1722375e-04
 -1.1598764e-04
  1.0232364e-04
  4.7664656e-05
 -3.0904782e-01
  1.3355862e-05
  3.8367518e-05
 -5.7189609e-05
 -3.2879901e-04
  1.5653773e-04
  3.5627294e-05
 -1.3552823e-04
  3.1093639e-04
  1.4939843e-04
  1.1672774e-04
 -1.5217172e-04
  1.1319621e-04
 -9.7690672e-01
  8.3204687e-02
  1.5472897e-02
  4.0765703e-01
 -1.8118089e-04
 -8.5168535e-01
 -6.0994257e-03
  2.5927400e-05
 -5.6913233e-01
 -1.0982417e-01
 -8.3023791e-05
  3.7527180e-01
 -5.1813782e-05
 -6.4699780e-05
  1.1573313e+00
 -2.0595279e+00
 -4.7367483e-01
  2.0613071e-01
 -1.0429916e-04
  4.1125432e-02
  5.4575670e-01
  1.5791994e+00
  4.8891325e-05
 -3.6694073e-05
  6.0377485e-01
  4.1691250e-01
 -1.3956737e-03
 -9.8122953e-05
  6.2583560e-01
 -9.4507957e-01
 -2.7838585e-01
  8.1758134e-02
 -4.4545901e-05
  9.3371749e-01
 -4.3522225e-05
  2.1413696e+00
 -6.8228401e-02
  5.9119044e-05
 -2.5255475e-04
  2.7641827e-05
  3.8703796e-04
  8.8211142e-05
  9.2774189e-06
  1.4710802e-05
  4.5908320e-05
  1.6303458e-04
  5.8109683e-05
  1.6221446e-05
 -8.0266342e-05
  3.3660250e-05
  1.4517459e-04
 -8.1362341e-06
 -1.3334482e-05
  1.9765819e-05
  7.4760981e-05
  2.6470330e-05
 -2.4151878e-04
  3.4765408e-06
 -4.2993619e-04
  5.0328667e-06
 -5.6504519e-05
 -1.9259667e-05
 -1.7881914e-05
 -2.3308265e-04
 -2.7581188e-04
 -1.0573883e-04
  5.7413188e-05
 -3.9539351e-05
  1.2832915e-04
 -1.1628073e-05
  1.3199572e-04
  2.5729662e-05
  7.4252730e-06
 -1.4801486e-04
  1.2896372e-05
  9.8834998e-06
 -3.0063728e-05
  5.3956574e-06
  6.8122172e-05
 -3.2486212e-05
  1.4310643e-04
  2.9562694e-05
  9.3002287e-05
  9.0289395e-05
 -5.3914577e-05
 -9.6295262e-06
  8.9228743e-05
  3.2766827e-04
 -5.9053800e-05
  1.6754550e-05
  5.8117832e-05
  4.0451218e-05
 -7.7822740e-05
  6.9787511e-06
 -8.0330850e-05
  6.5417400e-05
 -1.8577903e-04
  2.1615307e-04
  5.8955051e-05
 -1.8851574e-06
 -4.1012187e-05
 -6.6008353e-05
 -1.2220071e-05
 -1.7639441e-06
 -5.8247606e-05
 -5.0179071e-05
  1.7995733e-05
 -1.7526223e-05
 -4.5093151e-05
  3.5317559e-04
 -3.4659961e-06
  1.7746293e-04
  3.8361748e-05
  3.5106594e-04
 -3.1699892e-05
  2.0088712e-04
 -5.5378896e-05
 -8.4201974e-06
  1.0538359e-04
  2.5322608e-04
  2.0262356e-05
 -3.0954045e-05
 -9.7638309e-05
 -1.2090313e-04
 -1.7998314e-05
  2.0700440e-04
 -1.7276818e-04
  2.1654923e-05
  2.1629232e-04
 -3.0916126e-05
 -1.3408771e-04
  1.9304349e-05
  1.1967950e-06
 -1.4086740e-04
 -2.3225319e-04
 -5.4810283e-05
  8.6370335e-07
  2.6022532e-05
 -2.2417003e-05
  2.5972759e-05
 -1.7423608e-04
  3.2877644e-05
 -1.1406813e-05
 -6.0455986e-05
 -3.7636641e-05
  3.4005468e-04
 -2.6988298e-05
 -2.0630255e-04
  8.4864136e-05
  1.5806744e-04
 -1.5680549e-05
  1.0551888e-05
  2.5447618e-04
  1.1590437e-04
 -1.3816897e-04
  2.1616489e-04
 -3.7610451e-05
  1.1278381e-04
  7.5727603e-06
  1.1377055e-04
  5.3040276e-05
 -3.6610718e-04
  1.1657431e-04
 -5.4568965e-05
 -1.4646972e-05
  3.9949526e-05
 -4.4058594e-05
  1.1456796e-04
  5.2228163e-05
  7.7909244e-05
  5.4197917e-05
 -6.2457919e-05
 -7.4399475e-05
  8.9045381e-05
 -1.4919094e-05
  4.8361766e-05
 -6.4424188e-05
 -8.0725571e-05
 -1.1486190e-04
  4.3529166e-05
 -1.1802947e-05
 -1.7282763e-04
  5.7445530e-05
 -3.4855337e-05
  2.8828617e-07
  5.8877933e-05
 -2.7867858e-04
 -3.1376097e-05
 -2.3270877e-05
 -8.1018676e-05
 -2.2893747e-04
 -1.3919966e-05
  8.7304779e-06
  8.6326530e-05
 -4.2811087e-05
  8.4603221e-07
 -9.9785968e-05
  8.8572364e-05
  2.4655943e-05
 -2.0713035e-04
 -1.0007025e-04
 -2.5090912e-05
  7.5513279e-05
  1.0008475e-04
  7.6607612e-05
 -9.9943045e-06
 -1.0034096e-04
  1.9276220e-05
 -1.4602719e-04
 -2.3480861e-04
  1.0124398e-04
 -2.1365575e-05
 -2.3061903e-05
 -7.0848146e-05
  4.5551940e-05
  5.8908827e-05
 -1.2048225e-05
  6.2566731e-05
  7.4855292e-05
 -7.5988144e-05
  3.4087108e-05
  1.2513321e-04
 -2.2274840e+00
  2.1936451e-04
  9.0000758e-05
 -1.3841076e-05
 -1.2169202e-05
  8.3510268e-01
 -2.2405543e+00
  2.1426724e-05
 -5.1226281e-05
 -1.9398491e+00
  1.9764707e-04
 -5.6958954e-05
  9.5237041e-01
  5.1401462e-04
 -3.0199976e+00
  2.4147367e+00
  2.6815329e+00
 -9.9156523e-01
 -6.7222483e-02
  3.2086663e+00
  7.1656214e-05
  2.2048425e-06
 -4.0734953e-01
 -9.7387601e-06
 -3.6861320e-04
 -1.6148703e-01
 -1.6473249e+00
 -1.1012175e-04
  9.8658595e-05
 -8.6399877e-01
 -1.2642221e+00
 -1.8655242e-04
  1.4065029e-01
  3.3854637e-01
 -1.6985282e-04
  8.2686347e-01
  7.1746600e-01
 -1.5382768e-04
 -3.9770544e-05
 -2.6047778e-01
 -1.0592977e-04
 -8.8790834e-01
 -2.5092882e-01
 -1.2866315e-05
  1.5461367e+00
  7.7031342e-05
  7.9673810e-06
  1.8091594e-04
 -6.8911453e-05
 -1.1903793e-05
 -5.2871525e-01
  1.5654403e-04
  9.6392911e-03
  1.4754786e-01
  4.9724367e-05
 -4.9798879e-01
 -3.6540964e+00
 -8.2336158e-02
 -7.3975204e-03
 -1.0392922e+00
 -1.0133696e-01
  1.1261147e-05
  5.5307233e-01
  5.2380485e-05
 -1.1322834e+00
 -6.3099843e-01
 -2.1513264e+00
  2.6978832e-01
 -2.6434943e-01
 -1.6052706e+00
  2.8586734e-05
  1.7626793e-04
  2.6950234e-01
 -4.5126125e-02
 -1.3692554e-05
  4.1760239e-01
 -9.3272704e-01
  5.1071966e-05
  5.4524207e-09
 -3.9223135e-01
 -1.1246425e+00
  1.7666315e-04
  6.5054238e-01
 -8.8806935e-02
 -1.6460392e-04
  1.5388134e+00
  2.6953432e-01
 -1.7226928e-01
 -1.7849277e-01
  2.2147313e-01
  3.2541206e-01
  6.4850223e-01
 -5.3345865e-01
  9.9256851e-02
 -3.7830028e-01
 -1.0951069e-04
  8.0371690e-05
  2.4037303e-04
 -3.2850023e-02
 -6.8581840e-03
  1.8644053e+00
  3.4120719e+00
 -2.1188192e+00
  1.0002842e-01
  2.8971860e-01
 -1.0008553e-01
 -4.4566607e-01
 -1.0001145e-01
  1.0000168e-01
 -6.5447992e-01
 -4.7653896e-01
  1.0000037e-01
 -1.0006803e-01
 -4.3441663e+00
 -3.4483123e-01
 -1.0000166e-01
 -1.0000408e-01
  8.7844670e-01
  1.0000164e-01
  1.0000536e-01
  1.0009382e-01
  2.9731432e-01
  1.0274646e+00
 -1.0003333e-01
 -1.0000116e-01
 -2.0719126e-01
  1.8609302e+00
 -1.0001589e-01
 -1.0004732e-01
  6.6639453e-01
  3.4124652e-01
 -1.0013020e-01
  1.0030185e-01
  2.0101025e+00
 -9.1685706e-01
  1.0004235e-01
 -1.0041025e-01
  1.1161227e+00
 -1.1068254e+00
 -1.5531968e+00
  1.1096988e+00
  1.0125060e+00
 -1.0000999e-01
  1.0001630e-01
 -1.0000063e-01
 -1.0000291e-01
 -3.1449884e-01
  1.4611928e+00
  1.2693657e-01
 -3.1709459e+00
  8.1094325e-01
  1.3601834e-01
 -1.0001450e-01
  9.9971199e-01
  1.5742704e+00
  1.0054685e-01
 -1.0063321e-01
  5.7897037e-01
 -1.0000001e-01
  6.0099691e-01
 -1.3616207e+00
  2.5617509e+00
  1.0000148e-01
  1.0006806e-01
 -1.0000825e-01
 -2.1531832e+00
  2.1330721e+00
 -1.0021631e-01
  1.4268453e+00
  1.4142811e+00
  4.6120334e-01
  1.0645902e+00
  7.9227680e-01
 -7.2624195e-01
  2.8634512e+00
 -3.8712138e-01
  2.4165914e+00
  7.8262627e-01
  1.0017650e-01
 -1.0014246e-01
  1.0010893e-01
 -4.2860004e-01
 -1.0000005e-01
 -1.0001203e-01
 -1.0002817e-01
  2.3579204e-01
 -8.8529277e-01
 -2.6690784e-01
 -9.1735476e-01
  4.5655146e-01
 -1.8975415e+00
 -2.1631394e-01
 -1.0000882e-01
 -1.0003219e-01
 -2.5916841e+00
 -1.0009258e-01
 -1.0005186e-01
  9.6043253e-01
  4.6079072e-01
  1.0032270e-01
 -1.0004871e-01
 -2.8951749e-01
  1.6526343e+00
 -4.5913416e-01
  1.0001858e-01
  4.6078950e-01
 -1.0007665e-01
  1.0003172e-01
 -1.6476054e-01
 -1.3725826e-01
 -6.1049336e-01
  1.3227885e+00
  4.9840403e-01
 -1.0023965e-01
 -5.8931369e-01
  1.0012243e-01
  1.0007193e-01
  2.8072548e-01
 -1.9820638e+00
 -1.6555867e-01
 -6.1191660e-01
  7.9661024e-01
 -1.3957911e+00
 -1.0196773e+00
 -2.5571311e+00
 -2.6932001e+00
  6.0275412e-01
 -7.8922552e-01
  1.0000913e-01
  2.5418785e+00
  8.6822701e-01
  9.7940969e-01
 -6.9533318e-01
  1.7572470e+00
  1.0001025e-01
 -1.5867183e-01
  1.0001811e-01
  1.0490049e+00
 -4.1638857e-01
 -3.2510236e-01
 -5.0960284e-01
 -2.1353016e+00
  1.0000628e-01
 -5.2462763e-01
 -1.9679275e-01
  2.4179387e-01
 -4.7236693e-01
 -1.5214983e+00
  1.0003160e-01
  1.0001304e-01
 -1.0005344e-01
 -1.0003666e-01
  1.0024010e-01
  6.2298173e-01
  3.9803067e-01
 -1.0005454e-01
 -1.0000662e-01
 -2.0306849e-01
 -1.0000201e-01
  1.0000813e-01
  1.0006376e-01
 -1.0002942e-01
 -1.0000651e-01
 -1.0012650e-01
  1.0001799e-01
 -1.0004562e-01
  1.0004850e-01
  1.0000964e-01
  1.0006826e-01
  4.9436358e-01
  1.6105916e-01
  1.0016820e-01
  1.2745093e-01
  1.3228374e+00
  3.3658540e-01
  1.0000565e-01
 -2.5537175e-01
 -3.0625433e-01
  3.4623259e-01
  1.0000168e-01
  1.0000686e-01
 -1.8208206e+00
  5.3336662e-01
 -2.2197786e-01
 -1.4013624e-01
  3.2007289e-01
 -1.0000001e-01
  1.0005778e-01
 -1.0000195e-01
 -4.0265054e-01
 -4.3251901e+00
 -4.5729399e-01
  1.0000744e-01
  3.3904076e+00
  8.8709211e-01
 -5.2038169e-01
  1.0000005e-01
 -2.6630087e+00
  2.8524806e+00
 -3.5061666e-01
 -1.0011721e-01
 -3.6371553e-01
  4.9172421e+00
  1.0007237e-01
  1.0000648e-01
  1.6794528e+00
 -1.5125207e+00
  1.0006571e-01
 -1.3728266e+00
 -9.5673680e-01
 -2.7220362e-01
 -1.0000410e-01
 -3.0779526e-01
  1.0245062e-01
 -2.4909334e+00
 -1.3804761e-01
 -1.0018956e-01
  7.1428168e-01
 -7.3246956e-01
 -1.0000084e-01
  1.0371847e-01
  1.0000188e-01
  1.0000181e-01
  1.0016374e-01
  1.7274475e-01
  1.2374046e+00
  4.0562129e-01
  1.0002726e-01
 -2.2395840e-01
 -3.0883238e-01
  5.4664201e-01
 -8.9597327e-01
 -1.0018455e-01
 -4.2669997e-01
 -7.6685584e-01
 -3.0380121e-01
  4.2528763e-01
  1.6010302e+00
  8.3301872e-01
  1.0703034e+00
  1.0208944e-01
  8.9257914e-01
 -1.1433937e-01
 -1.0001031e-01
 -3.8345572e-01
 -2.3998706e+00
  1.0418699e+00
  4.0084863e-01
 -1.0021650e-01
 -7.7793097e-01
  2.3891887e-01
  1.0004952e-01
  1.0000388e-01
  1.0000142e-01
  1.8102829e+00
 -2.9256058e+00
  6.7825466e-01
  1.3258741e+00
 -1.0000805e-01
  1.0199461e-01
 -1.0011809e-01
 -2.3707161e+00
 -1.5573486e+00
 -1.0003938e-01
 -1.2511620e-01
  5.5584121e-01
 -1.6064227e-01
  3.1329697e-01
 -8.2369852e-01
 -1.0000154e-01
  1.3312060e+00
 -4.1176543e-01
  1.0000125e-01
 -1.5545982e+00
 -2.2461011e-01
 -7.0527452e-01
  3.1802982e-01
 -2.5017509e-01
  1.2860121e+00
 -4.7073549e-01
  1.0000195e-01
 -7.2969675e-01
  5.4194927e-01
  1.0001419e-01
 -9.5697576e-01
 -1.0032907e-01
 -1.0011849e-01
 -1.6110188e-01
 -3.6534560e-01
  1.1582536e+00
 -5.3252143e-01
  2.6257110e-01
 -2.1219298e-01
  2.4629104e+00
 -1.0001728e-01
 -1.0001849e-01
  1.0000136e-01
 -2.1796253e+00
  3.6273485e-01
  1.0001981e-01
 -1.0000407e-01
  1.0658286e+00
 -1.5795619e+00
  1.0309316e+00
 -1.0003059e-01
  1.5267369e+00
 -1.8072584e+00
  9.3803239e-01
 -1.3149089e+00
  4.6096206e-01
  2.2047400e+00
 -1.0325092e-01
 -1.0002093e-01
 -1.3961079e+00
  2.0860559e-01
  1.0010231e-01
  1.0013442e-01
  1.0000023e-01
  1.0510498e-01
 -4.0144363e-01
  1.5200132e-01
 -1.0000199e-01
  1.6581315e-01
 -6.7014921e-01
 -4.0988886e-01
 -3.7475604e-01
  2.9277235e-01
  7.2423840e-01
 -1.6491106e+00
 -1.1954987e+00
  9.3629885e-01
  2.4079037e+00
 -2.4613736e+00
 -3.7457642e-01
 -9.7310215e-01
 -1.0938711e+00
  4.9502417e-01
  7.7675611e-01
 -6.0969585e-01
  1.5972555e+00
  1.8622833e+00
  1.5098645e-01
  1.3583472e+00
  2.1520946e+00
  1.2333190e+00
  1.3335418e+00
  1.3954245e-01
 -3.1627560e-01
  1.2475793e-01
  2.0014987e+00
 -6.9975811e-01
 -1.4842674e+00
 -2.8397167e-01
 -1.1006447e+00
  1.5826851e-01
 -1.1466193e+00
 -1.6860539e-01
 -1.5125875e+00
  7.2781408e-01
  5.8272547e-01
 -2.2483331e-01
  1.1348038e+00
 -4.0383750e-01
  1.2738523e+00
 -5.6794423e-01
 -4.3340877e-01
 -1.1531227e+00
  2.2915894e-01
 -9.7932756e-01
  2.0625966e+00
  1.2987148e+00
  3.0052531e-01
  8.9849234e-01
 -1.8254541e+00
  1.0000021e-01
 -3.9096704e-01
  4.2578968e-01
 -1.9681250e+00
 -2.0635495e+00
 -1.0810993e+00
  1.0000106e-01
  1.8503926e+00
 -3.9802101e-01
 -1.4162534e+00
 -1.0002626e-01
  3.4203023e-01
  1.3037030e+00
  7.2596043e-01
  3.5835382e-01
 -2.9897349e+00
  5.5729526e-01
  1.0001531e-01
  1.0000055e-01
 -1.0389555e+00
 -2.6169840e-01
 -3.7985179e-01
  1.8300022e-01
 -2.0200543e+00
  1.0001330e-01
 -9.1835451e-01
  5.5599040e-01
 -2.1779473e+00
 -1.0326648e+00
 -9.7963107e-01
  2.9917893e-01
 -1.0000739e-01
  1.8855729e+00
  5.5293316e-01
  1.0000613e-01
  1.1602757e+00
 -1.3175354e+00
 -4.5191333e-01
 -9.5324004e-01
 -6.8225211e-01
 -7.0879543e-01
  1.8269367e+00
 -3.3770108e-01
 -1.0000008e-01
  7.6131022e-01
  1.4545420e-01
 -4.0239564e-01
 -5.5268228e-01
 -1.0045992e+00
 -1.9606638e+00
  2.0675847e-01
  2.8726177e+00
 -1.5073020e+00
 -4.0399551e-01
  1.0000346e-01
  1.2930293e+00
 -6.7295146e-01
  1.1208133e+00
  2.7625757e-01
  1.0000443e-01
  2.7108183e+00
 -8.7995821e-01
 -5.4193705e-01
 -1.4008298e+00
  7.5405478e-01
  1.9542408e+00
  7.7132761e-01
 -1.0064573e+00
  1.9450904e+00
  7.5052649e-01
 -4.6730575e-01
 -1.8631959e+00
 -1.8227632e+00
  1.0000066e-01
 -5.7739776e-01
  1.9805355e+00
 -4.1331320e+00
  1.7346951e-01
 -1.0003243e-01
 -5.3141057e-01
 -1.1239266e+00
  3.8871709e-01
  1.0000092e-01
  1.0000280e-01
  3.8730419e-01
 -5.6174314e-01
  5.5157095e-01
 -1.8736959e-01
 -8.7687558e-01
  1.0000021e-01
  1.7012772e-01
 -6.9330704e-01
 -1.0244251e+00
 -4.9574569e-01
  2.8022048e-01
  2.2421277e-01
  1.0000409e-01
 -9.3237013e-01
 -8.9540064e-01
  1.7303325e+00
 -1.8831488e-01
 -4.1705546e-01
 -1.0003949e-01
 -1.0000097e-01
 -1.2682310e+00
 -1.7613043e+00
  2.8080067e-01
 -2.5808954e+00
 -8.6437124e-01
 -1.5330055e+00
 -4.9694327e-01
 -2.4966633e+00
  1.0000250e-01
  6.4460099e-01
  6.0712171e-01
  4.5657296e+00
 -1.0510045e+00
  1.0000020e-01
  4.7735876e-01
  2.0291169e+00
  1.9082477e+00
  1.4254910e-01
  1.3446263e+00
  4.8515594e-01
  1.9230008e+00
  2.8772490e+00
  1.9059370e+00
 -1.0000448e-01
  1.0000492e-01
  1.0000233e-01
  1.1648210e+00
 -1.8844011e-01
 -5.0125134e-01
  1.4348930e-01
 -2.6580825e-01
  1.5943936e+00
 -2.4181924e+00
 -7.3822421e-01
 -1.0034928e-01
 -1.7278283e+00
  1.1467407e+00
 -1.2849039e+00
  1.0004131e-01
  3.2308960e+00
  1.0693128e+00
 -1.0000442e-01
 -6.5370393e-01
  7.5560564e-01
 -3.3817112e-01
  4.5907116e-01
 -9.5363158e-01
 -1.5428159e+00
  3.5746256e-01
  1.0000037e-01
 -1.0000660e-01
  1.8748571e+00
 -1.1786981e-01
  1.0005886e-01
  1.8440813e-01
  9.5981640e-01
 -9.0119553e-01
 -1.0000222e-01
  1.0000069e-01
 -9.6711510e-01
 -7.2213525e-01
  2.9559284e-01
  2.6920718e-01
  2.2133844e+00
  5.0600022e-01
 -3.8162819e-01
 -2.4479812e-01
  1.2918875e+00
 -3.7153261e+00
  1.8764970e-01
 -1.0048759e-01
 -1.9093716e+00
  7.3588622e-01
  1.9940181e-01
  1.8815435e+00
 -1.0000271e-01
  1.7753178e+00
  1.1586959e+00
  1.1384001e-01
 -8.8017666e-01
  2.1733242e-01
 -2.8227156e-01
 -1.5681016e+00
  1.4106361e+00
 -8.6375409e-01
 -1.3027639e+00
 -1.4147515e+00
  1.9939964e+00
 -1.2216352e+00
 -1.6521597e+00
  2.7691311e-01
 -8.7195444e-01
 -9.1238815e-01
 -1.0000075e-01
  6.6724133e-01
 -5.6321824e-01
 -3.5823911e-01
  9.9131948e-01
  7.9990560e-01
  3.5187076e-03
  3.5187076e-03
  3.5187076e-03
  3.5187076e-03
  3.5187076e-03
  3.5187076e-03
  3.5187076e-03
  3.5187076e-03
  3.5187076e-03
  3.8665857e-02
  3.8665857e-02
  3.8665857e-02
  3.8665857e-02
  3.8665857e-02
  3.8665857e-02
  3.8665857e-02
  1.3424996e-02
  1.3424996e-02
  1.3424996e-02
  1.3424996e-02
  1.3424996e-02
  1.3424996e-02
  1.3424996e-02
  1.2556508e-02
  1.2556508e-02
  1.2556508e-02
  1.2556508e-02
  1.2556508e-02
  1.2556508e-02
  1.2556508e-02
  8.4156208e-03
  8.4156208e-03
  8.4156208e-03
  8.4156208e-03
  8.4156208e-03
  8.4156208e-03
  8.4156208e-03
