nep4 2 Te Pb 
cutoff 8 4 73 8
n_max 4 4
basis_size 8 8
l_max 4 2 0
ANN 30 0
  2.3890752e-03
 -8.0975838e-02
 -1.8205905e-02
  1.9137630e-02
 -8.4709134e-03
  3.9395742e-02
 -2.5138641e-02
  2.7411886e-02
  3.0354424e-03
  6.5759909e-03
 -5.7097122e-02
  1.9431900e-02
 -1.4356947e-02
 -1.5992099e-02
  2.0820521e-02
 -3.0937897e-02
  7.7250078e-03
  3.1134009e-03
 -6.2336892e-02
  7.6025546e-02
 -7.2735157e-03
 -1.2004731e-01
  1.9548289e-02
  4.0933886e-03
 -8.5825093e-02
  9.2317335e-02
 -4.1713938e-03
 -4.6933625e-02
  2.1451529e-02
  3.4802824e-02
  6.9844007e-02
  6.0986113e-02
  1.6670986e-03
 -1.0461512e-01
  9.0999484e-02
  3.2309324e-02
 -3.5014275e-02
 -7.6685637e-02
 -1.8533504e-01
 -1.0555126e-02
 -8.4974259e-02
  3.3643607e-02
 -3.8876880e-02
 -4.0538455e-03
 -1.1593039e-02
 -1.1497159e-01
  4.6937671e-03
 -1.5879209e-01
 -9.8029569e-02
  6.9239982e-03
 -3.6857255e-02
  4.1601174e-03
  3.5685122e-02
  1.8665843e-02
  2.0671919e-02
 -2.1535100e-03
 -4.3654274e-02
 -1.0131429e-03
 -2.7512114e-02
 -3.6853839e-02
  2.5756799e-02
 -4.5917161e-02
  1.2711550e-01
 -5.9336416e-02
 -2.6514528e-02
  5.0140984e-02
  2.1474094e-03
  1.6709927e-02
 -1.4946893e-02
 -2.2861630e-02
 -4.0127408e-02
  2.0091755e-02
 -1.9841017e-02
 -3.0537676e-02
  6.8554059e-02
 -1.2136934e-01
  9.0916939e-03
  4.2455543e-02
 -1.2171157e-01
  1.3253675e-01
 -3.9183155e-02
  2.5690958e-02
 -1.9723058e-02
  1.1833280e-02
  3.7586376e-02
 -6.5052263e-02
 -2.2182172e-02
 -4.5057036e-02
 -6.3942686e-02
  2.2121640e-02
 -6.9440604e-04
 -8.8877432e-02
 -4.1602116e-02
 -6.1888773e-02
 -7.0844563e-03
 -3.3447981e-02
 -9.5461300e-03
 -7.1974739e-02
 -5.1969782e-02
 -3.1156642e-02
  5.2418173e-03
 -3.6667448e-02
 -3.4040239e-02
 -3.8409986e-02
  3.3256438e-02
 -8.8449769e-02
 -5.0966695e-02
  2.3190856e-02
  4.8579577e-02
 -4.9903210e-02
  2.2093505e-03
 -5.2951474e-04
 -1.7518306e-02
 -5.0688885e-02
 -1.7287986e-02
  1.8119883e-02
  4.2108130e-02
 -6.0911819e-02
  5.6398056e-02
  7.4613355e-03
  1.5336901e-02
 -2.6926875e-02
  1.8415306e-02
 -2.6070924e-02
  8.7858140e-02
 -9.5815221e-03
 -3.0472393e-03
  1.5627664e-02
  4.9183216e-02
  3.0291336e-02
  5.0303739e-02
  1.1983305e-02
 -3.0020138e-02
 -8.6801648e-03
  1.4923176e-02
  9.9690426e-03
 -5.3706367e-02
 -3.2190236e-03
 -1.4214742e-02
  4.1905974e-04
 -4.0574819e-01
 -2.9623481e-02
 -1.0335885e-01
  1.9014953e-02
  1.7428149e-03
 -2.3394391e-02
 -2.8541522e-02
 -3.1694014e-02
 -3.0839369e-02
 -1.5405154e-01
  9.7817499e-03
  9.9624746e-02
 -1.2932364e-02
  2.3632437e-02
 -9.7449580e-03
 -1.8482476e-02
 -3.6299713e-02
  1.4387207e-02
  3.2741141e-02
  1.9436603e-02
  2.8412206e-02
 -3.9575592e-02
 -7.8346761e-04
  2.0577002e-02
  2.2780631e-02
  7.6938316e-02
 -4.8362548e-03
 -8.3861211e-03
 -6.0119620e-04
 -6.6477716e-02
  2.6801161e-02
  5.5056969e-03
 -7.2651459e-03
  4.7892183e-02
 -9.9636603e-04
  4.5985308e-02
  1.0128113e-03
  1.2726726e-01
 -8.5225143e-03
  3.3060786e-01
  1.9467646e-02
 -1.7713254e-02
 -1.3040259e-02
  3.7833788e-02
 -8.4453657e-02
 -1.1333907e-01
 -1.3798211e-02
 -8.5325766e-04
  1.5218066e-01
  1.3804333e-01
  1.2809843e-02
  2.8094656e-03
  2.0890879e-02
  7.7744536e-02
 -2.4884485e-03
 -6.6562675e-02
 -3.0985340e-02
  4.3281499e-02
 -1.3319359e-02
  3.8305935e-02
  1.2594309e-02
  2.6085114e-02
 -4.4910638e-03
 -2.4469163e-02
 -4.1607451e-02
  4.5681563e-03
  5.1468756e-02
  4.6934154e-02
  1.8287875e-03
  5.5675516e-03
  7.8809780e-01
  6.3885003e-01
  9.7852570e-01
 -1.1609713e-01
 -3.5616949e-01
  5.9050121e-03
 -1.3263336e-02
  3.7552085e-02
 -3.8912112e-03
 -4.8153393e-02
 -4.9681664e-01
  8.0784559e-03
 -1.3605571e-02
 -1.2977596e-01
 -9.6764751e-02
  4.3188915e-01
 -4.9962025e-02
  1.0872039e-03
  1.6605083e-02
 -1.3301682e-02
 -5.1246520e-02
  9.3961535e-03
  5.1781153e-03
  2.9343131e-03
  2.0418676e-02
  1.2858864e-02
  6.4153604e-02
 -4.1521834e-03
 -7.5364993e-03
  2.3747405e-02
  4.8673926e-03
  1.7774943e-02
  8.5379638e-02
  4.2199366e-02
 -5.6854719e-03
 -1.4788052e-01
  4.3394882e-02
  2.0978848e-02
 -7.1695581e-02
  6.6370936e-03
  9.0888739e-03
 -1.3306764e-03
 -1.0612806e-01
 -2.2058554e-02
  3.9747380e-02
  3.1510636e-02
  2.8350290e-02
 -3.3596437e-02
  7.7394962e-02
  1.1773117e-02
 -1.4882270e-02
  1.1681100e-02
 -6.1415724e-02
  2.6787578e-03
 -2.3652654e-02
 -1.6121531e-02
  1.7656627e-03
 -4.0920153e-03
  1.0378485e-02
  8.8207990e-02
  1.5357316e-03
 -1.9317321e-02
 -1.9955071e-02
 -3.8719637e-04
 -3.5909079e-03
 -3.1994555e-02
 -7.0967458e-02
 -3.8425684e-02
 -2.4006553e-02
 -6.6821285e-02
 -2.4194141e-01
 -5.6858744e-02
 -2.3631757e-02
 -2.9306056e-03
 -3.6522396e-02
 -6.9226153e-02
  3.2022320e-02
  1.0824974e-03
 -8.7084085e-02
 -3.1449443e-01
  2.3554422e-02
  5.6276288e-02
 -2.0384528e-02
  2.6049895e-02
 -5.8109939e-02
  1.5185907e-02
  1.6077373e-02
  3.3170726e-02
  5.7591960e-02
  2.8803833e-02
  3.5163593e-02
  1.2895908e-02
 -1.3042891e-02
 -7.4173197e-02
 -2.0430762e-02
  2.7838318e-02
  2.7841730e-02
  1.1907169e-02
 -3.2215886e-02
 -1.8544957e-02
  3.2195774e-01
 -1.0850203e-01
  1.3064865e-02
  1.9350886e-02
  7.4199565e-02
  1.4839433e-02
  5.0958390e-03
  3.7313648e-02
  9.0433089e-03
  5.1483802e-02
  8.4913142e-02
 -1.4541745e-02
  5.0587751e-02
 -6.0670730e-02
 -2.6074573e-03
 -5.9464142e-02
  5.3259777e-03
  1.3670903e-02
  1.2395436e-05
  6.6707939e-02
 -2.3446517e-01
  1.9093875e-02
  6.3542990e-05
 -2.3215628e-01
  2.5487828e-01
  4.0187218e-04
 -5.0481226e-02
 -8.2075819e-02
 -7.1478516e-02
 -3.1318963e-03
  1.6654592e-03
  5.4085767e-03
  4.6676885e-02
 -7.0731252e-02
 -1.9745596e-02
 -8.9497894e-02
 -1.7525963e-02
  8.5871909e-03
 -4.8115410e-02
 -7.5718440e-02
 -5.2136718e-03
  1.6898949e-02
  2.2043628e-01
 -4.1895349e-02
 -7.8718647e-02
 -2.3975201e-02
  5.7822622e-02
  2.1892775e-02
  4.7342945e-03
  3.8066663e-02
 -1.7534070e-01
  6.7416921e-02
  1.2493887e-02
 -6.9817863e-02
  2.7262142e-02
  7.4931972e-02
 -5.7007670e-02
 -1.7026179e-03
 -4.2614816e-03
 -1.1662245e-01
 -2.8016171e-03
  4.1850181e-03
  1.0231111e-01
 -4.6859641e-02
 -3.5639010e-02
 -1.5846203e-03
  6.3526213e-02
 -4.6562679e-02
 -4.3208603e-02
  9.9055236e-03
 -4.6452336e-02
 -2.6388944e-03
 -5.5689793e-03
 -2.3555266e-02
  6.4245075e-02
  1.8759567e-02
 -3.6497217e-02
  1.5820454e-01
  2.8137551e-03
 -7.6719247e-02
  1.2888053e-01
 -2.2669701e-02
  1.1420557e-02
 -1.3918942e-02
 -1.0563426e-01
  3.4707285e-02
  1.0820846e-01
  2.4943933e-02
  8.7319568e-02
  3.2906932e-01
  7.3290132e-02
 -1.2571433e-04
  3.9918408e-02
  4.2307965e-02
 -5.8413912e-03
 -8.9173302e-02
  7.6146223e-02
 -1.4840518e-02
  8.2100876e-02
  1.1805378e-01
  1.9953713e-02
  3.7883349e-02
  1.6869729e-02
 -4.7496103e-02
  1.0942493e-01
 -3.1386213e-03
 -3.5558173e-03
  3.3612903e-02
  6.1502378e-02
 -1.1821629e-03
  3.5736355e-01
 -4.4273338e-01
  8.6900759e-01
 -1.5378687e+00
  7.9808271e-01
  1.1738511e+00
 -1.6584769e-02
  8.0588236e-03
 -4.0387053e-02
 -2.4072004e-02
  3.8257021e-02
  4.6567083e-03
 -4.0007796e-02
  1.0329621e-02
 -1.7573836e-04
  1.6773990e-01
 -1.0062849e-01
 -1.4264927e-02
 -7.0806414e-02
  5.0238416e-02
 -3.3973950e-01
  4.8911893e-03
 -1.3241723e-02
 -1.8522584e-04
 -1.6847638e-02
 -2.2658208e-01
 -2.1997062e-02
 -4.3696228e-02
  8.1273414e-02
 -2.0252176e-02
  2.3981391e-02
 -3.2201938e-02
  1.4087701e-02
 -1.9918634e-02
 -6.0481071e-03
  1.6100610e-02
 -1.3642736e-02
 -2.3217125e-02
  4.2158250e-02
 -4.0847394e-03
 -2.1114873e-02
  1.5143958e-02
 -2.0218914e-02
 -2.5614301e-02
 -8.3120242e-03
  6.4631984e-02
  3.1239029e-03
  9.8267414e-02
  9.5184008e-03
 -2.4276944e-02
  1.6574217e-02
  4.7681283e-02
  1.3019095e-02
  5.1241387e-02
 -4.9837585e-05
 -3.7772618e-02
  1.3822316e-02
 -9.9966273e-02
 -5.1618167e-03
 -8.9779072e-02
  3.5949923e-02
 -5.9706080e-03
  4.4436019e-04
 -2.1436911e-03
  2.5789147e-02
  1.6539707e-03
 -3.6804240e-02
 -1.1938168e-02
 -8.6120442e-03
 -1.8700279e-02
  9.8426387e-02
 -2.0593487e-02
  1.3469951e-02
  4.8485864e-02
 -3.2953650e-02
 -2.6889950e-02
  1.3929942e-01
 -7.2923966e-02
  3.8780637e-02
  2.0982374e-02
 -3.4306705e-02
 -2.6820819e-03
 -4.8473671e-02
  3.6258053e-02
 -6.8192177e-02
  1.9358102e-02
 -9.8463753e-03
  3.1933554e-02
  4.9363676e-02
  1.9598916e-02
  1.5415979e-02
 -3.9276753e-02
  5.3632401e-02
 -2.9746589e-01
  3.3625584e-02
 -1.9169018e-02
 -3.4779005e-02
  6.2303897e-02
 -5.7794009e-03
 -1.7633207e-02
 -1.4945554e-02
 -1.0050685e-02
 -1.7379180e-02
 -3.0740878e-02
 -2.9672202e-02
 -5.1254354e-02
 -2.1396510e-02
 -5.3157937e-03
 -6.3213088e-02
  2.6646178e-02
  1.2917805e-02
  6.9194790e-03
 -8.6513404e-03
  3.0331939e-02
 -3.9852057e-02
 -4.2698402e-02
 -2.9898442e-02
  3.3862960e-02
 -2.1905045e-03
 -1.8667174e-04
  1.2783067e-01
  5.2067041e-02
  8.1335224e-02
  6.2062394e-02
  4.0579126e-03
 -1.3971346e-02
 -5.2429412e-02
  4.5043100e-02
  2.5940159e-02
 -1.9692108e-02
  2.8403725e-03
  4.4538085e-03
  1.5684467e-02
  2.4529053e-02
  3.1448617e-03
  1.6487578e-01
 -3.9250351e-02
  4.4538468e-02
 -5.3548510e-03
 -7.4780941e-02
 -8.6765870e-02
  1.6719060e-02
  2.1419089e-02
 -2.0637799e-03
 -8.3939664e-02
  1.4353114e-02
 -3.7024934e-02
  3.7068594e-04
  2.8259577e-02
  6.7476310e-02
 -3.0689862e-02
  6.3434489e-02
 -5.2234799e-02
 -5.3387348e-02
  3.1636965e-02
 -2.6255939e-02
 -2.5007030e-02
  1.1140069e-01
 -4.6572525e-02
 -5.0129712e-02
 -1.5560734e-01
  5.0420193e-03
 -8.3509669e-02
 -6.2317763e-02
  2.7887067e-02
 -4.7821556e-03
  4.0068501e-03
 -1.0320621e-02
 -6.5263420e-02
 -1.1134543e-01
 -9.2198998e-02
 -2.0885188e-02
 -7.3994376e-02
  7.7213817e-03
 -5.3517550e-02
  5.6876052e-02
  5.5158413e-03
  1.1303656e-02
 -1.1069281e-01
 -1.5285796e-02
 -1.8065727e-01
 -1.0062955e-01
  1.0345995e-01
  1.3712457e-02
  2.6377028e-02
 -4.1715163e-03
 -8.5923091e-02
 -2.0687968e-02
  4.2199481e-02
 -2.9058486e-02
 -6.2097717e-02
 -9.9239952e-04
 -2.6904067e-02
  1.6558846e-02
 -5.4709233e-02
  7.1013950e-02
  3.5101205e-02
 -7.8222081e-03
  3.9846625e-02
 -2.8541254e-02
 -3.8358173e-03
  5.5886745e-02
 -3.3942997e-03
  6.2018070e-02
 -1.1706377e-02
  9.6345201e-02
  1.2826188e-02
  6.9758303e-02
 -2.1255615e-03
  5.8336412e-03
 -2.0232394e-02
  1.6895046e-02
  4.9951684e-02
 -4.9632130e-04
 -1.3532333e-02
  7.4466236e-02
  4.8825353e-02
  5.9155032e-02
 -1.5890941e-02
  3.7914429e-02
  3.0898808e-02
 -4.1877415e-02
  2.1581370e-02
  2.7623484e-02
  8.1678033e-02
  5.8791589e-02
  1.7236015e-02
 -4.1111600e-02
  1.0885443e-01
  5.2575350e-02
 -8.9981239e-03
 -3.1418290e-03
 -2.1498868e-02
  8.8332109e-02
  2.5227169e-02
 -2.0687168e-02
  7.1420777e-03
 -5.0180193e-02
 -2.1774577e-02
  2.9579970e-01
  3.4343623e-02
 -5.2107301e-02
 -2.2202983e-02
 -3.1714749e-02
 -2.0468645e-02
 -1.4370731e-01
  2.8762950e-02
  3.9897256e-02
  7.6376833e-02
  2.0506494e-02
 -2.1911623e-02
  2.4034899e-02
  9.0553716e-02
 -1.8197949e-03
  2.5970377e-03
  3.6333811e-02
 -3.2941368e-04
  1.0010982e-01
  8.6780936e-03
 -1.7004879e-02
  3.2812844e-03
 -6.6752583e-02
 -3.2737248e-02
 -9.6181436e-03
  2.6933093e-02
 -1.4908591e-03
 -2.1319471e-02
 -1.5702607e-02
 -3.1844396e-02
  1.1305840e-02
 -3.7813616e-01
 -1.2418355e-01
 -1.0286180e-01
 -1.6678834e-02
  4.6338937e-01
  3.8037738e-03
 -1.6445105e-01
  2.8660614e-02
 -2.5428366e-02
 -8.4035523e-02
 -1.2623612e-02
 -8.5282825e-02
 -2.2032445e-02
 -5.9267122e-02
  3.3278137e-02
 -1.0335965e-01
  3.0014382e-03
 -4.5153541e-03
 -1.3864535e-01
 -2.1157536e-01
  7.8752369e-02
  2.2331143e-02
  1.7514892e-02
  1.3574468e-02
 -8.5955575e-02
  6.6032805e-03
 -9.9858111e-03
  4.7010973e-02
 -1.6774770e-02
 -1.7569591e-01
  8.3727866e-02
  1.5148129e-03
  6.4080626e-02
  9.9116087e-02
 -9.2834190e-02
 -1.9057738e-03
 -2.9709492e-02
 -1.0310192e-01
 -2.3560828e-02
  7.4524181e-03
  8.5422872e-03
  1.6839366e-02
  2.5274023e-02
 -7.2895163e-03
 -5.6017376e-03
 -7.9707801e-02
  2.1370475e-03
  9.2381217e-02
 -3.5171673e-02
 -1.0413397e-02
 -6.9208560e-03
  5.0249565e-02
 -1.8214559e-02
 -3.3258140e-02
 -3.7991330e-02
 -2.6831325e-02
  2.8728591e-02
  1.3101768e-02
  3.1133832e-02
 -1.8188413e-02
 -5.6540197e-01
  1.0400997e+00
 -5.3673846e-01
  8.5342103e-01
 -1.1343094e+00
  2.4896155e-01
 -5.7356808e-02
 -4.0867925e-04
 -2.2476281e-01
 -1.3087061e-01
 -2.1923557e-01
 -2.4397671e-01
 -1.2945684e-02
 -1.2778284e-01
  2.3672450e-02
 -5.9793040e-02
  1.1027627e-02
 -5.1870961e-02
 -2.2998954e-01
 -1.7987689e-01
 -4.2810118e-01
 -2.0447968e-02
 -1.5302156e-01
 -5.4847467e-01
 -1.5329176e-01
  5.9008729e-02
 -1.4579207e-02
  3.1270197e-01
  1.4498023e-02
 -1.9425919e-02
  6.3490790e-01
 -1.7794978e-02
  4.9355680e-01
 -6.4389682e-01
  4.1862923e-01
  5.4094449e-02
 -3.0724229e-02
  2.0136146e-02
  5.7994163e-01
  4.3403977e-01
  3.3181930e-01
  1.8646866e-01
  2.0747805e-01
  1.9310294e-02
  6.6727656e-01
  2.7396780e-01
 -2.2874072e-01
  1.7708710e-01
  3.9897409e-01
  5.5772901e-01
  5.5240143e-02
 -6.5822758e-05
 -1.6101174e-01
  1.1488791e-01
  2.6492255e-03
  1.3040289e-02
 -2.1855336e-02
  4.5115005e-02
  9.9013131e-03
 -1.0459159e-01
  3.2362880e-03
  2.9568717e-02
  4.8304450e-02
  3.1829163e-02
 -2.1889886e-02
  7.9915211e-02
  2.8726352e-02
  3.7374523e-02
 -3.1697318e-02
 -1.1491235e-01
 -2.7721063e-03
  9.7071324e-03
  6.9690393e-03
  2.3965828e-02
 -2.9136364e-03
 -6.6251531e-03
  1.3746566e-02
 -3.2107946e-02
  5.4581482e-03
 -3.7181834e-03
 -2.3351727e-02
  3.9363574e-02
 -1.7408760e-02
 -4.4604104e-02
  2.0921670e-02
  2.5076292e-02
  2.8079929e-02
  7.7312939e-02
 -5.7936800e-03
  2.2699790e-02
  3.2839198e-02
 -4.0590733e-02
  2.2039136e-02
  3.1727888e-02
 -1.3388784e-01
 -3.6963373e-02
  6.0804974e-02
  5.2883569e-02
  1.2326890e-01
  3.8860679e-02
  1.2992606e-02
  7.9787215e-03
  1.3041356e-02
  6.9597669e-02
 -4.4243790e-02
  9.3796318e-03
  2.0926764e-02
 -3.8487017e-02
 -2.6662303e-02
  2.9301553e-03
  4.2188570e-02
  2.2267222e-02
 -1.0737335e-02
 -2.5931569e-03
  4.0100258e-02
 -1.0743289e-01
 -2.3690537e-02
 -3.2065129e-03
 -3.2270160e-02
  1.7014857e-02
 -8.6892396e-03
  2.6807941e-02
  3.6200687e-02
 -8.4255710e-02
 -3.3527471e-03
  1.1562445e-02
  9.2500582e-04
  4.2084181e-03
 -2.9203186e-02
  4.2763900e-02
 -7.5619757e-02
  1.4633124e-02
  8.5241208e-03
 -4.0009219e-02
 -2.0718424e-02
  4.4167217e-02
  3.2501076e-03
 -1.4573957e-01
 -1.9607518e-02
  7.8980923e-03
  6.1324403e-02
  7.0470363e-02
 -6.1670408e-02
 -7.7405587e-02
 -3.7600376e-02
 -1.2701610e-01
 -1.1685987e-02
 -1.7795933e-02
  3.2522984e-02
  7.1706465e-03
  3.8039759e-02
 -2.3051161e-02
 -2.1040840e-02
  1.2941837e-02
  4.4083394e-02
  8.2653746e-02
 -2.4689339e-02
  1.3602450e+00
  1.0947974e-02
 -7.4932775e-03
 -2.9405713e-02
  1.5652491e-02
  6.1697785e-02
  3.6496431e-02
  2.5263128e-01
 -6.7536975e-04
 -6.4816251e-03
 -1.2492769e-01
  8.5637756e-02
 -7.0297667e-03
 -1.1139298e-02
 -5.7086900e-02
  5.4485098e-02
  1.4475640e-02
  4.1961767e-02
  4.7771323e-01
 -2.2873534e-01
 -4.2131828e-04
  5.4585971e-02
 -1.2380672e-01
 -2.9571136e-02
 -1.2932028e-01
  1.0842510e-02
 -2.3208136e-02
  3.6006488e-02
  1.9400718e-02
  7.3871769e-02
 -3.0109769e-01
  2.7466666e-02
 -2.0148595e-01
  8.0551848e-02
 -1.0892569e-01
 -6.2161915e-02
  1.6516614e-01
 -5.5820483e-01
  1.6293082e-02
  2.3186743e-02
 -1.2984556e-01
  3.0501783e-02
 -2.1298650e-01
 -6.0904294e-02
  3.7255701e-02
  2.8139794e-02
 -3.4213382e-01
  3.0013217e-02
 -8.1133384e-01
  4.4302267e-01
 -2.5647208e-02
  2.2423156e-02
  4.3286485e-04
 -2.4731716e-02
  3.2936841e-02
  4.8275165e-02
 -6.7803130e-02
  8.9605823e-02
 -1.0374230e-02
 -5.0685345e-03
  6.0666811e-02
 -1.8284526e-02
 -3.5777710e-02
 -3.1688660e-02
  3.0028557e-02
  1.1589671e-02
  1.2531975e-02
  2.9658545e-02
 -2.1839631e-01
 -5.8435481e-02
  1.0752494e-01
  2.5077781e-02
  3.4601301e-02
  1.2576686e-01
 -8.7762095e-02
  1.3390484e-01
  7.3369280e-02
 -6.2679715e-02
  7.5209171e-02
 -3.2464933e-02
 -5.7005901e-03
 -3.6746789e-02
 -1.5648708e-03
 -1.0280731e-01
  5.9136190e-02
 -2.7998863e-03
 -2.8908856e-02
 -3.3568867e-02
  3.3704005e-03
  3.9282702e-02
 -1.2895837e-02
  1.8664425e-02
 -4.1717244e-03
 -1.7006012e-02
 -1.2190916e-03
 -3.7260476e-02
 -2.2944333e-02
 -1.3684981e-02
  6.5949408e-04
  9.6516266e-02
 -4.5113545e-02
 -4.1553928e-03
  3.7613168e-02
 -8.7330276e-03
  3.5574313e-02
 -4.0299416e-02
  2.5860996e-03
 -4.2356465e-02
 -1.8552015e-02
  3.4113906e-02
  2.1562250e-02
  4.3697036e-03
 -3.6530636e-02
 -1.6561761e-02
  4.4790801e-02
  2.5593106e-02
 -6.0436957e-02
 -6.4700857e-02
 -4.7187049e-02
  4.6220861e-02
  3.6909789e-02
 -9.0867452e-02
 -5.9570324e-02
 -2.6076802e-03
 -2.8474154e-03
 -1.5106564e-02
 -2.3699671e-02
  9.9811740e-03
 -6.0035877e-02
 -9.1358893e-02
  9.3729034e-02
 -2.1947183e-02
  5.4713752e-02
 -2.4471255e-02
 -6.7918718e-02
  1.6721349e-02
 -3.6120236e-02
 -1.8606897e-02
  8.5506178e-03
 -1.3827260e-02
  1.2594747e-02
 -6.3673392e-02
  1.1712068e-01
 -1.0510132e-03
  2.7764218e-02
 -1.8909384e-02
  6.1157778e-02
  3.1829409e-02
 -1.8288938e-02
  4.9028985e-02
 -2.8081318e-02
 -1.0229257e-01
  4.8203334e-02
 -1.1716166e-01
  3.7764413e-03
  5.3844068e-02
  2.0482993e-02
  3.7810989e-02
  2.1372894e-02
  4.7546472e-02
 -2.4007584e-01
 -2.2646273e-03
  2.8647382e-02
  4.4895992e-02
  3.4016132e-02
 -6.9395497e-02
  5.7777856e-02
 -7.4822605e-02
  5.0203286e-02
  4.9138837e-04
 -2.4097678e-03
  1.2557335e-01
 -2.9473076e-02
 -4.9767196e-03
 -1.3768147e-01
 -3.7115104e-02
  3.8287401e-02
 -4.6730973e-03
  1.0304282e-01
  2.7363729e-02
 -1.2424209e-02
  1.8487232e-02
 -4.0402669e-02
  8.9684399e-03
  7.2919857e-03
 -5.8754273e-02
  2.2620282e-03
  3.7205666e-02
  3.3334341e-02
  1.2700482e-02
  1.7789686e-02
 -5.1801067e-02
  4.8782986e-02
  1.2792283e-01
 -2.3217823e-02
 -2.5252350e-02
 -1.4622732e-03
 -5.4394347e-03
  5.0040748e-02
  3.9446622e-02
 -9.8955475e-02
 -1.5558135e-02
  1.3350662e-02
 -2.9788665e-02
  5.2617543e-04
  5.3346530e-02
 -8.0876239e-02
  6.6938810e-02
 -1.4693745e-02
  5.4165032e-03
  7.1490943e-02
  3.4714121e-02
  5.2886256e-03
  9.3938271e-03
 -2.0473257e-02
  5.0355908e-02
  1.1780083e-02
  1.4709981e-01
  4.9650688e-03
 -3.6053535e-02
 -5.8264419e-02
 -1.7272792e-03
  2.5137616e-02
  5.7026923e-02
 -1.6978344e-02
 -1.3217617e-02
  1.5185660e-02
  7.3810257e-03
 -9.4263209e-03
 -3.7400473e-02
 -6.3764229e-02
  4.4666879e-02
  2.9628225e-02
 -3.3467952e-02
 -1.3419078e-02
  1.8171543e-02
 -3.3659723e-02
  7.8296117e-02
  1.0509085e-01
  4.7991544e-02
 -4.9486335e-02
  4.8074193e-02
  3.7309572e-02
 -2.5821937e-02
 -3.4265551e-03
 -1.8954670e-02
 -1.7799419e-01
  7.3090650e-02
 -9.5089292e-04
  1.7868159e-02
 -1.1694770e-02
  6.8599716e-02
 -2.6175767e-02
 -4.5091745e-02
 -2.7383087e-02
 -7.8224711e-02
  1.0128077e-02
 -6.5256297e-03
 -2.8614189e-02
 -4.5524114e-03
  1.8892286e-02
 -2.8048530e-03
 -2.8859703e-02
  2.9672295e-02
  3.0886966e-01
 -2.0210423e-01
 -3.4079690e-02
  3.5301633e-02
  2.8722586e-02
  3.1724270e-02
  2.1011434e-02
  3.5984565e-02
  1.3677048e-02
  1.0642973e-02
 -2.7689967e-02
 -2.1644947e-01
  4.2701874e-02
 -8.9474777e-03
  2.9428605e-02
 -1.9125391e-02
  2.4483204e-03
 -6.6560447e-02
  3.0379996e-02
  9.3907248e-03
 -4.9654048e-02
  1.5055026e-01
 -5.2919567e-02
 -4.1499902e-02
 -3.4440491e-02
  8.5454984e-03
  1.3459992e-02
 -7.3112801e-02
  2.5857722e-02
  6.2518686e-01
 -7.1286494e-01
  4.8919450e-02
 -4.4195527e-01
 -5.0914991e-01
  1.4643784e+00
 -1.2173980e-03
 -3.5726717e-01
  8.6356588e-02
  2.0553893e-01
  2.0117303e-02
 -1.3933066e-02
 -3.6913776e-01
 -4.7943454e-02
 -1.0538845e+00
  2.0451310e-01
 -8.3452776e-02
  9.0007055e-01
 -1.1990533e-02
  6.2370408e-01
 -4.2578757e-02
 -6.0616499e-03
 -9.9712855e-01
 -3.6986083e-02
  5.7211071e-01
 -4.7248416e-02
  2.0107755e-03
 -1.3504033e-02
  3.9007258e-02
 -1.7835011e-01
  1.3162945e-02
 -3.9743684e-02
  4.3810569e-03
  6.7848921e-02
  4.5470905e-02
 -1.0161002e-02
  1.6626885e-02
  2.9886944e-02
 -6.6029288e-02
 -2.2440981e-02
 -1.9103983e-02
  6.6324681e-02
  2.2346338e-02
 -4.4429701e-02
  3.4016676e-02
 -3.4408566e-02
 -1.2909156e-02
 -3.4797040e-03
  2.3396369e-02
  2.9100023e-02
 -1.6864527e-02
 -1.3192179e-02
 -6.7016799e-03
 -1.2068279e-03
 -5.9894990e-04
 -3.6922898e-02
 -1.0119252e-02
  3.0291670e-03
 -2.2895344e-02
  8.1990371e-03
 -7.0265405e-02
  5.4616863e-03
 -5.9760436e-02
  4.6300109e-02
  3.2046150e-02
  3.9116894e-03
 -1.3180753e-02
 -3.0745785e-03
  6.9589235e-02
  3.0337287e-02
  9.3458276e-03
  6.6667981e-02
  9.8859891e-03
 -1.3314047e-02
  5.7724595e-02
  8.5262254e-02
  1.3497464e-02
  1.5044299e-02
 -2.2183750e-02
  3.2005109e-02
 -1.5814014e-02
 -6.1970516e-03
 -4.5779165e-02
  7.9261713e-02
  8.8585600e-02
 -1.5355067e-02
 -8.1895869e-03
 -7.1926382e-03
 -3.2675634e-03
  1.1537186e-01
 -5.5361506e-02
  1.4730854e-02
 -7.6325327e-02
  1.0956908e-01
  7.5264610e-02
 -4.2464919e-02
  7.0690140e-02
  7.6370145e-04
  5.3412367e-02
  1.4305177e-02
 -1.0731901e-02
 -4.4879921e-02
  8.3088808e-02
 -5.7894375e-02
 -6.8633191e-02
  1.2481210e-01
 -3.3894416e-02
  6.9639616e-02
 -7.2000764e-02
  8.4896326e-02
  2.9659258e-02
 -1.6033013e-03
 -9.0635922e-03
  2.7863495e-02
 -1.4273196e-01
 -2.9199282e-02
  3.2203510e-02
 -3.2822525e-03
 -1.1025440e-01
 -3.7819326e-02
  5.9861053e-02
 -3.3663046e-02
 -1.0546426e-01
 -1.0583899e-02
  6.1060009e-03
 -3.7263006e-02
  1.1939287e-02
 -2.3613356e-02
  2.9683542e-02
 -1.8870156e-02
 -1.8569972e-02
 -2.5208093e-02
 -1.8646669e-02
 -8.3157927e-02
 -5.5585086e-02
 -3.4066137e-02
  2.1490239e-02
 -4.1571926e-02
 -3.3126492e-02
 -9.3997963e-02
  9.3251623e-02
  3.1667605e-02
 -9.6183103e-03
 -6.0777072e-02
 -9.4446940e-03
 -3.5184510e-02
 -9.0958729e-02
 -4.9372107e-02
 -3.3326883e-02
  6.3493118e-02
  3.0180241e-04
 -1.0372633e-02
  1.4655106e-01
  1.9112920e-02
 -2.4961328e-02
 -5.6185383e-02
  5.3044525e-04
  6.9125064e-02
 -2.3849509e-03
  2.4745630e-02
 -4.0631987e-02
  2.7918136e-02
 -1.4306469e-02
 -1.8820478e-02
 -1.4049915e-02
  6.2744780e-03
  3.6228035e-02
 -5.3732109e-01
 -1.4030728e-01
 -7.7108905e-02
  3.0421337e-02
  4.8409026e-02
 -8.2791680e-03
 -3.2668132e-02
 -1.4030559e-01
  7.1670115e-02
 -7.1571139e-03
 -1.9016443e-02
  2.1871621e-02
  6.5096073e-02
  3.2775078e-02
  1.0244301e-01
 -6.0796511e-01
  4.1572022e-01
 -2.7882978e-02
 -5.1679332e-02
 -2.1587582e-03
  8.9621119e-02
 -1.1266264e-02
 -1.8334347e-01
  3.1731680e-02
  1.1196758e-01
  1.5611279e-01
  5.6237821e-02
  9.9260077e-02
 -1.9717574e-01
 -4.0596458e-03
  1.6230408e-02
 -9.4282366e-03
 -4.0595362e-01
  1.1674159e-02
 -1.6080844e-01
  6.4789087e-02
 -7.2909049e-03
 -1.3561500e-02
 -1.4654881e-01
  7.0916940e-03
 -4.2469464e-03
 -2.4914524e-02
 -7.1405739e-02
 -1.8558612e+00
 -1.5312703e-01
 -5.9992504e-01
 -3.1661272e-01
 -5.3791797e-01
 -7.6086706e-01
 -1.4128123e-01
 -3.4580551e-02
  8.3483845e-02
  9.3941493e-03
 -1.6706440e-01
  9.6446918e-03
 -3.7661936e-02
 -5.5901140e-02
 -3.6574465e-01
  4.2661340e-03
  7.2141312e-02
 -1.2209399e+00
 -8.7156847e-02
 -3.9191493e-01
 -2.9067943e-02
  3.5963443e-03
 -1.3428099e-03
  2.5178149e-02
  4.9013990e-01
  7.2611600e-02
 -9.9320151e-03
 -2.1891829e-01
  1.0552183e-02
 -4.1223690e-02
 -6.5128857e-01
 -1.5335639e-02
 -2.7069696e-03
 -1.0659339e-01
  6.8081785e-03
  1.7859584e-02
  2.2829402e-02
  5.7122499e-02
  7.1393944e-02
  1.3544103e-02
 -3.6407072e-02
 -4.6091918e-03
 -2.5541452e-03
  1.4611641e-01
 -1.8876566e-02
  6.8781048e-02
  4.1791394e-02
  1.7507799e-02
 -4.8385765e-02
 -2.4208577e-02
 -7.4590713e-02
  1.0173447e-01
 -3.1014111e-02
 -5.6876424e-03
 -1.3417469e-01
  1.2707733e-02
  5.8360234e-02
  7.5641692e-02
  3.0207349e-02
  7.5993299e-02
 -5.0813995e-02
  4.3065348e-03
 -1.4317949e-01
  4.0805293e-03
 -5.8333736e-02
 -4.8367254e-02
  3.3094116e-02
  5.9600331e-02
 -1.0629732e-02
 -3.4220729e-02
 -4.5257226e-02
  2.2794221e-02
 -3.7227534e-02
  2.2874188e-02
 -9.6024829e-04
 -1.1595555e-01
 -8.2340827e-03
 -4.7366172e-02
  3.0009741e-02
 -1.6866449e-02
 -7.0274258e-03
 -1.1930450e-02
 -1.5545009e-02
  3.6210380e-02
 -6.4372614e-02
 -2.4177492e-02
  5.0237130e-02
  3.3279181e-02
 -5.9940841e-02
  3.6260802e-02
 -9.9124148e-02
  1.5216693e-02
  1.0565849e-02
  1.6350031e-02
  1.5318056e-03
 -3.8609393e-02
 -1.8343324e-02
 -4.4697274e-02
 -6.2198251e-02
 -2.1912474e-03
 -8.2244709e-02
  2.6570626e-02
 -6.8152547e-03
  1.6019261e-02
 -1.4309038e-02
  3.8342364e-02
 -2.0139033e-02
  3.3528421e-02
 -4.3437768e-02
  4.3699309e-02
  4.3321103e-02
 -2.2062978e-02
  1.3190064e-03
  1.5908130e-02
  2.3801778e-02
  1.1255901e-02
  3.6126703e-02
  2.7169737e-03
  9.8653339e-02
 -1.1543182e-02
  1.2951778e-01
 -2.0298029e-01
 -2.5535475e-02
 -5.6946808e-01
  1.9741667e-02
 -2.5136007e-02
  1.0609973e-02
  1.8242251e-02
 -1.1931513e-02
 -2.7916135e-02
 -2.4328055e-02
  3.6040269e-02
  1.0128210e-01
 -3.7912466e-02
  3.2568064e-02
 -1.3282328e-02
  5.9220508e-02
  2.3298422e-02
  3.4081910e-02
  1.4359884e-02
 -8.2781455e-03
  2.2466921e-03
  6.4129811e-03
 -4.2002898e-02
 -3.3227809e-02
 -5.9205233e-03
 -6.2619275e-03
 -8.8576965e-02
  5.8809388e-02
  1.0211281e-02
  1.5760394e-02
 -1.9694552e-02
  1.0734276e-01
  4.9355395e-02
 -4.4702321e-01
  2.7845820e-02
 -4.7987658e-03
  4.7001396e-03
  3.3368994e-02
 -2.5025014e-02
  3.4769133e-02
 -6.6417754e-02
 -4.6180584e-02
 -4.8856810e-02
 -5.4517437e-02
  3.8356468e-02
  1.6778508e-02
  3.9916653e-02
  1.2629461e-01
 -3.7003789e-02
 -6.8313852e-02
 -1.8515978e-02
 -7.6493986e-02
 -2.5893613e-03
 -2.8982847e-03
  2.2037458e-02
  3.2024860e-02
 -3.5773616e-02
 -6.5319287e-04
  1.3603709e-02
 -2.9492231e-02
  4.6377212e-02
  1.1001761e-02
  1.0201782e-01
  6.9065996e-02
 -3.3409677e-02
 -2.5484413e-02
  1.1265463e-01
 -8.7981112e-02
  1.8152231e-02
  8.7765586e-03
  9.2021570e-02
 -1.6572837e-02
  5.0005008e-04
 -1.7789611e-01
 -1.5912062e-02
  6.5954551e-02
  2.8099768e-02
 -2.3585441e-02
  1.8321227e-01
  7.3487289e-02
 -1.8151576e-02
 -3.7030656e-02
  1.7379746e-02
  1.3942248e-01
  4.5708541e-02
  1.7272832e-02
  3.4806464e-02
  8.2406856e-02
 -1.3965257e-03
  1.3647313e-01
 -4.1351449e-01
 -2.1466444e-01
  6.9873601e-01
 -1.8911800e-01
 -6.9646109e-03
  1.9558794e-03
 -1.0893036e-01
  2.7489251e-02
 -5.1341962e-02
 -1.0120766e-02
  1.1682528e-02
 -5.7269940e-03
  2.1563328e-03
  1.2303369e-01
  7.8825548e-02
 -3.3183444e-02
 -1.0919339e-02
 -1.7598774e-02
 -1.0052865e-01
  5.2127521e-02
  9.1988649e-03
 -1.7105242e-02
  1.3511644e-03
 -6.0006510e-03
  3.1938661e-02
  5.8394067e-02
 -1.6929358e-02
  1.2613089e-01
 -2.8603729e-02
 -4.2104501e-02
  1.0198021e-01
 -9.5112529e-03
  5.5500478e-03
  4.7434967e-02
 -1.9271974e-02
  7.5986765e-02
  8.2129158e-02
  4.5712836e-02
  7.1215490e-04
  1.1982769e-02
  2.9214574e-02
  2.9016059e-02
  6.2071469e-02
  2.1534213e-01
 -4.5455755e-03
 -7.7783681e-02
  9.1041047e-03
  2.6385862e-02
  1.6782202e-02
  6.3769594e-03
  7.5387076e-02
  3.0206021e-02
 -4.6137117e-02
  3.2798991e-02
  2.4238438e-03
  1.9362282e-02
  1.4390784e-03
 -3.8535576e-02
 -1.3924118e-02
 -2.4960922e-02
 -2.5990728e-02
 -6.7521636e-03
  3.4928732e-02
  1.2212615e-02
  4.0552918e-02
  7.3721506e-02
  9.4503075e-02
 -3.6554754e-02
 -1.6943015e-02
  2.8040143e-02
  1.9609404e-03
  1.9253358e-02
  4.3236133e-02
  5.4228593e-02
 -2.0416979e-02
 -4.0092282e-02
  4.6421271e-02
 -3.9032739e-02
 -6.6230791e-03
 -4.2707950e-02
 -2.1019764e-02
 -2.9794315e-02
  5.0231155e-02
 -1.1664070e-02
 -6.1591256e-02
 -3.6813607e-03
 -2.2870447e-03
 -1.6866839e-02
 -4.1590583e-02
 -5.7130907e-02
  1.4111158e-02
  3.8215756e-02
  3.4144692e-02
 -3.5790040e-03
  5.4419443e-02
 -3.9845135e-02
  1.9226039e-02
 -6.0400456e-02
 -2.0829614e-02
  1.7801857e-02
 -8.7434649e-03
 -1.5562017e-02
 -4.7713749e-02
 -6.3018436e-03
 -2.3937538e-02
  5.0773103e-02
 -1.2974012e-02
 -3.6711090e-03
 -5.5801272e-02
  1.9778829e-02
 -3.9825834e-02
  1.6221346e-02
 -3.4500565e-02
 -1.4902148e-01
 -5.8099809e-03
 -4.0194456e-02
 -1.6535749e-03
  3.1732209e-02
  3.1251512e-02
 -1.3432615e+00
 -6.5817761e-01
  8.4977828e-02
 -1.5524340e-01
 -1.5736103e-01
  1.8918766e-02
 -9.0506498e-04
 -2.8338340e-01
  5.5508200e-02
 -2.7673653e-01
 -4.8494767e-02
  3.8110428e-02
  1.5936213e-02
 -6.3821501e-03
 -3.7636450e-03
  8.0686959e-06
 -4.3255206e-02
 -1.3337791e-01
  2.9735873e-02
 -1.7112118e-01
 -3.9997956e-04
  8.4001914e-02
  1.1102615e-01
 -8.4956013e-02
 -1.3240765e-02
  5.8611803e-02
 -6.3004666e-03
  2.6099894e-02
  2.4032880e-02
  4.9072992e-02
  3.0167082e-02
  3.8986057e-02
  6.2871478e-02
  1.3284494e-01
  6.5579657e-03
  2.6264979e-02
  9.6295096e-02
 -4.4602811e-04
  3.3842832e-02
 -3.9779373e-02
  1.1421976e-02
 -5.0941315e-02
 -9.3561821e-02
 -1.6639097e-02
  7.7068478e-02
 -4.0519554e-02
 -2.9062605e-02
  1.3150985e-02
  2.6766671e-02
 -7.2695084e-02
  7.6045253e-06
  3.2204300e-02
  2.6947504e-02
 -3.3667661e-02
 -1.5290342e-03
  4.1297298e-02
 -2.7192604e-02
 -4.0088683e-02
  4.0753260e-02
  5.0770473e-03
 -6.5215811e-02
  8.9452855e-02
 -5.1046699e-02
 -3.6970896e-03
 -8.7584250e-02
 -1.3803503e-02
  3.4276191e-02
  4.6372835e-02
  5.8630340e-02
  3.9076257e-02
 -6.1498929e-02
 -1.2047834e-02
 -6.4107873e-02
 -3.9067011e-02
  3.7746422e-02
 -1.2325782e-02
 -6.6204667e-02
 -2.5342956e-02
  1.3759707e-02
  2.1719562e-02
 -8.9088611e-02
  5.3911097e-02
  3.1847376e-02
  1.0144628e-02
 -3.5468638e-03
  1.2013740e-01
 -6.1123766e-02
 -2.7955115e-02
 -1.5370963e-02
  1.4625228e-02
  5.3538635e-02
 -5.0138421e-02
 -1.7369139e-01
 -6.0479339e-02
  3.9797757e-02
  4.1141670e-02
  9.1701001e-03
  5.1368121e-03
  7.9225982e-03
 -2.7764213e-01
  7.0953956e-03
 -2.4399221e-02
  2.4466363e-03
  3.9030236e-01
  6.1286809e-03
 -1.2269120e-02
  6.5071531e-02
 -2.8084053e-02
 -1.4067124e-01
 -6.9030942e-03
  1.3693545e-02
 -3.9183635e-02
  1.0457586e-02
 -2.1436870e-01
 -7.7077518e-03
  9.6680215e-03
  3.0442651e-02
 -2.3657994e-02
 -5.7916306e-02
 -1.7684564e-02
 -4.0619142e-02
 -2.9945312e-02
 -1.8472001e-02
  3.2001149e-02
 -6.7813568e-02
  3.6454538e-03
 -1.7304808e-01
 -6.7084581e-03
 -1.2383976e-01
 -1.2604387e-01
  2.2878926e-02
  7.3183211e-03
  1.0736788e-02
 -3.8505003e-02
  3.1038776e-02
  6.4625514e-01
 -1.0773060e-02
 -5.5003483e-02
 -3.0257376e-02
 -3.2606569e-01
  9.1687448e-02
  1.7202029e-02
 -6.6540170e-01
 -1.1176782e-02
 -6.1806787e-02
 -2.5691090e-02
  3.0761451e-01
 -7.5741723e-02
  4.9715903e-02
  4.1044511e-02
 -2.6491323e-02
  8.9861915e-02
 -1.4298052e-02
  7.4776135e-02
 -4.4385423e-03
 -3.0293709e-03
  3.6018409e-02
  2.5514576e-01
 -9.5899081e-01
  3.4181539e-02
 -4.5292312e-03
  2.6520509e-02
  1.6077695e-03
  2.8417759e-02
  5.0500172e-01
 -8.3531535e-01
 -1.8025920e-02
  1.1083487e-01
 -3.3321127e-02
  2.6462156e-01
 -2.1390523e-01
 -1.9109963e-02
 -8.6089659e-01
  3.9464742e-02
 -3.6564280e-04
  1.7767858e-02
  4.7549537e-01
 -1.9333985e-02
 -4.3859303e-02
  2.6038837e-01
  3.7476158e+00
  6.4242065e-01
 -8.3685040e-01
 -2.5458857e-01
 -1.6233697e+00
 -3.4357775e-02
  2.4119851e-01
  1.2394200e-01
  3.9858475e-01
 -5.3616065e-01
 -5.8568049e-02
 -5.0831586e-01
 -1.8875417e+00
 -3.0180970e-01
  4.6415222e-03
  3.5393071e-01
 -1.3660975e+00
  1.4855832e-01
  4.8361486e-01
  1.9213568e+00
  6.6760534e-01
 -1.7658571e+00
  1.1308078e+00
 -2.2193547e-01
  4.2005023e-01
 -4.7305129e-02
  4.1664843e-03
  1.9427596e-01
  1.0616498e+00
  1.8808861e-01
 -7.6249152e-01
  9.6511430e-01
  4.1039061e-02
 -2.4135536e-02
 -9.4064122e-01
  5.3417253e-01
  5.5711311e-01
  1.8765338e-01
  5.4501593e-01
  9.1867012e-01
 -8.1515364e-02
 -1.2622420e-02
 -3.3667648e-01
  5.3551894e-02
  3.5020858e-02
  5.3425545e-01
  8.9794910e-01
 -7.2174537e-01
  5.0623220e-01
 -6.0367095e-01
 -1.4099556e+00
 -2.3661555e-01
  1.3309586e+00
  6.9792406e-03
 -2.1980731e+00
  3.1482124e-01
 -2.1523812e-01
  1.1855767e-01
 -4.3665916e-02
  1.4987364e+00
 -1.8937073e+00
  3.3390167e-01
  2.6321656e-01
  4.6456212e-01
 -4.0201858e-01
 -6.4906728e-01
  5.8838999e-01
 -5.6216067e-01
 -3.6319235e-01
 -1.9121742e-01
  1.2301400e-01
 -1.2959449e-01
 -1.8139784e-01
 -1.4037194e+00
  1.2930726e+00
  2.2691166e-01
 -1.3936359e-01
  3.4954134e-02
 -5.1766778e-03
 -4.9952783e-02
 -9.9141533e-03
 -1.4594405e+00
  4.4939181e-01
  5.3291400e-03
 -4.5675614e-01
  1.5441747e+00
 -2.0946637e-01
 -5.6335622e-01
 -2.5727680e-01
 -1.5549664e-01
  5.1982945e-01
  1.2914507e-01
  4.5266119e-03
 -1.3468950e+00
 -1.3316767e-02
  3.0112388e-02
 -9.1497427e-01
  5.8459038e-01
  1.1842085e+00
 -3.5316393e-01
 -1.0972656e-01
 -6.7557603e-01
  7.1974498e-01
 -1.6170040e+00
 -1.0274192e-02
  2.1706775e-01
 -2.0732337e-01
  2.8652048e-01
  3.5133886e-01
 -9.6699154e-01
  8.8580859e-01
  3.8766384e-01
 -6.1071283e-01
  2.8426892e-01
 -6.2694621e-01
 -1.4296858e-02
  5.2828822e-02
  1.9577652e-01
  4.8213744e-01
 -3.5042804e-02
 -1.2272238e-02
  1.5296159e+00
 -6.0479760e-01
 -1.8318210e+00
 -4.2139268e-01
  4.1610017e-01
 -1.5921062e+00
  1.2205915e+00
 -4.4031996e-02
  1.5885105e+00
  1.0138669e+00
  5.2835578e-01
  3.4163579e-01
 -1.9748196e-02
 -3.1637251e-01
 -5.4328036e-01
 -2.8814349e-01
  2.7038968e-01
 -1.7460530e+00
 -1.0451103e+00
  6.2297362e-01
 -1.0591623e+00
 -1.8021909e+00
 -8.2025863e-02
 -2.7887928e-01
  1.0936306e+00
 -1.0842441e+00
  1.4400890e+00
 -8.1713714e-02
 -3.9047696e-02
  9.6431591e-02
  7.9356655e-02
  4.6523982e-01
  7.9488929e-04
 -2.5200474e-01
 -2.6143387e-01
  2.3293746e-01
 -1.7145745e+00
  6.7899195e-03
 -3.9484152e-01
  8.9171159e-01
  1.6840348e-01
 -2.4831849e-01
  7.9526812e-01
 -1.2954646e-01
 -6.6355699e-01
  5.2299470e-01
  1.2953815e+00
 -1.1994798e+00
 -1.0348270e+00
 -8.5848099e-01
 -2.8556025e-01
 -7.3542345e-01
 -2.6209429e-01
 -3.1817499e-01
 -8.4047800e-01
  6.7914301e-01
  1.2689531e-01
  1.7412736e-01
 -9.4155467e-01
  1.1783037e+00
 -1.5302722e-01
  2.5530747e-01
 -1.2190411e+00
  9.4337448e-02
 -4.4304464e-02
  3.0600591e-02
 -6.2176986e-03
 -8.7757915e-02
 -7.9801632e-03
  2.0891576e+00
  2.2619653e-01
  7.5996138e-02
  6.5321408e-02
 -9.3613453e-03
 -1.8804225e-01
  3.8991723e-02
 -4.8836816e-02
  5.4213339e-01
  2.5040790e-02
  1.6911918e-02
  3.8495385e-03
  8.1419379e-01
 -4.4914964e-01
  4.1947622e-02
 -8.9471303e-02
  1.3766250e-01
  5.7461244e-01
  5.9162147e-02
  5.0572913e-02
 -4.1996798e-01
  4.1622740e-01
 -3.7422612e-02
 -7.4124798e-02
  8.2989275e-02
  2.0842865e-01
 -4.9425112e-03
 -8.0534570e-02
 -5.4697029e-02
  1.0440972e-01
  4.4280685e-02
  1.1384558e-02
 -6.1853815e-02
  1.5193462e-01
  1.2931144e-01
 -6.9623835e-02
  4.2429890e-02
  2.1119017e-02
 -2.3069719e-03
 -2.1878187e-02
  9.5548362e-02
  2.3181349e-02
 -1.7454372e-03
 -7.8384597e-03
 -6.2441550e-02
  2.2739770e-02
 -2.6416734e-02
  1.7043235e-02
  2.9772820e-03
  9.4309822e-02
 -2.9391574e-02
  4.1526031e-02
  3.3836104e-02
  7.8618461e-03
 -2.6762735e-02
  2.9335476e-02
 -2.6426581e-01
 -7.3682286e-02
 -2.0071691e-02
  3.0279193e-02
  3.2656634e-01
 -3.0927598e-02
  8.5763499e-02
 -4.4291250e-02
 -2.4221224e-01
 -5.2143317e-01
  6.6348702e-02
 -1.0833451e-01
  1.1552880e-02
  6.3125052e-02
  3.5651022e-04
 -6.2368054e-02
 -3.0754527e-01
 -7.9506911e-02
  6.4782552e-02
  8.7128878e-02
 -8.6724013e-02
 -5.5019730e-01
  7.0950463e-02
 -6.5710638e-03
  7.5918861e-02
 -2.5021458e-01
 -6.8825595e-03
 -4.3127313e-02
 -1.8977175e-02
 -1.8799722e-01
  2.6536021e-01
 -8.1407633e-03
 -7.9303853e-02
 -4.3437186e-01
  5.1779754e-02
 -5.9072871e-02
  1.7162859e-02
  3.9843239e-02
  4.9147392e-03
  3.0986987e-02
 -2.1944201e-02
 -9.9850702e-01
 -3.4678869e-02
  2.8684465e-02
 -3.9747381e-01
 -8.6510986e-02
  6.9654077e-02
  6.1212648e-03
 -1.2388387e-01
  9.5715195e-02
 -7.7284999e-02
 -2.9642209e-02
  5.1499987e-01
 -6.1126813e-02
  2.2959375e-01
 -5.2427910e-02
 -5.4235235e-02
 -2.4336608e-05
  4.2208418e-02
 -2.4002673e-01
  3.9802443e-02
  2.7102692e-02
 -1.1235746e-01
 -2.8650692e-02
 -1.4629883e+00
  2.8828189e-02
  6.2530870e-03
 -7.9928897e-02
 -2.1160837e-01
 -3.6057506e-02
  7.0747219e-02
  1.3632766e-02
 -2.6311234e-01
 -6.7377254e-02
  1.1136574e-01
  7.2430354e-03
 -3.7665594e-01
  3.5206191e-03
  6.1990961e-02
 -4.5705896e-02
  1.5608236e+00
 -1.0314200e+00
  3.4504163e-01
 -1.3159011e-02
 -1.3946671e-02
 -3.6598650e-01
  4.7607195e-02
 -1.1098062e-01
  3.5657309e-02
 -1.7177374e+00
  2.3479784e-01
 -2.7283365e-02
  8.6677432e-01
 -1.6796379e-01
 -1.2452284e-02
 -2.0838117e-03
 -1.0269728e-01
  2.6138214e-02
  2.0671952e-01
  1.0170879e-02
  9.9882558e-02
  8.6139709e-01
  1.4610559e-01
 -1.7714160e-02
  6.1411109e-02
  3.0054718e-01
 -4.2576878e-03
 -1.0292974e-01
 -4.2070490e-01
 -1.7640503e-01
  1.1291273e-01
 -5.1276974e-02
 -3.6714542e-01
 -2.4797671e-01
 -4.2523522e-02
  1.7445830e-01
  1.7445830e-01
  1.7445830e-01
  1.7445830e-01
  1.7445830e-01
  3.1867151e+00
  3.1867151e+00
  3.1867151e+00
  3.1867151e+00
  3.1867151e+00
  1.6190689e+00
  1.6190689e+00
  1.6190689e+00
  1.6190689e+00
  1.6190689e+00
  6.9877112e-01
  6.9877112e-01
  6.9877112e-01
  6.9877112e-01
  6.9877112e-01
  2.2210346e-01
  2.2210346e-01
  2.2210346e-01
  2.2210346e-01
  2.2210346e-01
  9.7094488e+00
  9.7094488e+00
  9.7094488e+00
  9.7094488e+00
  9.7094488e+00
