nep3 1 Si 
cutoff 5 5 53 53
n_max 10 10
basis_size 10 10
l_max 4 0 0
ANN 50 0
  3.6077505e-05
 -7.8140557e-01
 -6.6455647e-07
 -1.5650981e-05
 -6.7006546e-01
 -2.9050419e-05
  1.8823016e-02
  3.9129802e-05
  2.3570561e-05
 -8.8667315e-01
 -1.6335727e-07
 -1.7545728e-05
  2.4597339e-05
  1.4917916e-05
 -3.5818766e-06
  8.9354835e-05
 -9.7571838e-06
  6.2796214e-05
 -1.1474859e-04
  3.3695778e-05
  4.7377253e-07
  3.1083655e-06
 -1.3942731e-04
 -1.9506091e-05
  4.0933432e-05
 -2.1030701e-07
 -2.5974578e-06
  4.2616164e-05
 -3.0804022e-05
 -3.0723208e-05
 -7.9757538e-06
 -3.0646923e-05
  1.3497790e-06
 -1.0888512e-05
  2.8306011e-05
 -2.9846964e-05
  4.3750886e-05
 -8.3271988e-02
 -2.6454638e-05
  8.5616487e-01
 -1.5861679e-05
  2.0771053e-02
  7.5633578e-02
  3.1393434e-08
  2.5347936e-06
  2.7348322e-05
  9.7697765e-02
 -1.4868817e-09
 -1.9843028e-05
  8.2738639e-05
 -1.2513854e-01
  3.3240148e-03
 -7.0321250e-05
  3.2428884e-06
  3.9608467e-06
  2.9035381e-04
  5.7641351e-01
 -2.5021567e-05
 -2.3981595e-06
 -6.4602852e-01
 -5.2836029e-05
  1.4725645e-01
  2.2248254e-05
 -8.7133273e-03
 -7.2057307e-01
 -1.4342189e-04
 -7.0167712e-06
  4.3896748e-06
 -2.2728162e-04
 -1.7716771e-05
 -3.0631360e-03
 -1.7575266e-04
  7.5916869e-06
  7.0967235e-06
 -1.1351504e-05
  1.2352373e-04
 -2.6110110e-06
  6.9507878e-05
  6.8983417e-07
 -1.5213400e-01
 -3.8082935e-06
 -8.1389233e-02
  1.2155055e-04
  1.2393109e-07
 -3.0549141e-02
 -7.1160764e-05
 -3.6197471e-05
  1.1071744e-05
 -4.1341795e-05
 -1.1448128e-01
 -2.6439762e-01
 -5.0375729e-07
 -1.6659831e-01
 -1.0000762e-05
 -5.9832364e-01
  6.1605746e-01
 -1.9776662e-01
 -2.6084986e-01
 -1.2358979e-05
 -3.1713516e-05
 -3.3393744e-02
  1.2542769e-01
  4.1619605e-06
  2.9699544e-03
 -1.7835760e-06
  6.2982122e-05
  2.9332010e-05
 -5.1589584e-01
  1.1770829e-01
  6.9451809e-02
  4.5763913e-06
 -1.7031850e-06
  1.2852448e-05
  6.4467295e-06
 -9.4857351e-06
 -1.4722991e-05
  1.4401514e-06
 -6.8942813e-06
 -1.6464954e-05
 -1.4070100e-05
 -1.3383048e-05
  2.3219682e-05
 -1.9035133e-05
  3.0065767e-06
 -4.8833413e-06
  1.1677125e-05
  1.3623299e-05
 -4.2815196e-07
  4.4030076e-05
  9.8911469e-06
  1.5439353e-05
 -3.4469300e-05
 -8.5533866e-06
 -5.1507245e-06
  1.4640772e-05
 -1.3934283e-05
 -1.5752512e-06
  4.1580592e-05
  1.4572436e-05
  2.4363317e-06
 -5.4864444e-08
 -3.3518296e-05
 -1.0442127e-05
 -9.0960357e-06
  2.2207319e-05
 -8.1844209e-06
 -2.5210420e-06
 -7.1429395e-06
  3.8456028e-06
 -4.6349815e-06
 -1.6154820e-05
  6.0628604e-06
 -5.5197408e-05
 -1.6874170e-05
 -2.0710418e-06
 -5.2947066e-06
 -2.0959675e-05
  2.1035214e-05
  8.7797751e-05
 -3.2857895e-06
 -5.7154548e-06
 -7.9600877e-06
 -2.6060738e-05
  9.9610106e-06
 -1.7453879e-06
  1.0466024e+00
  1.3551039e+00
  2.1968681e-05
  6.0270952e-05
  2.8502481e+00
  1.2125461e-01
  1.0540152e-02
  5.6243944e-06
 -3.6867996e-06
 -3.6785328e+00
  4.8519000e-06
 -3.0217525e-06
 -6.7090578e-03
 -3.6481595e-01
 -4.7759254e-06
 -2.8812105e-05
  4.8719372e-05
 -1.9482051e-01
 -1.3680268e-05
  4.3499532e-01
 -4.7861387e-05
 -7.9230513e-06
  6.6752441e-02
  1.0053312e-01
  6.8247296e-05
  2.1082513e-01
  2.2077954e-01
  1.1937292e-02
  2.3335249e+00
  9.6429085e-06
 -1.3499662e-01
  9.2763484e-01
 -3.5841331e-01
  1.5034763e-02
  2.9527745e-01
 -7.8755748e-01
  1.0937058e-05
  4.7178841e-03
  1.6258831e-05
  4.5167617e-02
  1.6011967e-04
  1.4083378e-02
 -7.7608565e-05
 -3.4074366e-01
 -2.9464929e-05
 -1.0619211e-04
  1.6471367e-01
  7.8229976e-05
 -3.8880494e-01
 -3.1274438e-05
  1.5604407e-01
 -5.0627284e-02
 -7.0541428e-04
 -3.3363940e-06
  2.9980105e-03
  3.9013967e-01
  5.6864202e-01
  1.7256783e-05
 -2.1710929e-01
  5.1531758e+00
 -1.4264628e+00
 -5.0938815e-01
 -5.2135277e-01
 -1.9157486e-01
  1.0292601e-01
  8.4868956e-01
  1.5228582e-04
 -4.1186150e-02
 -7.9711729e-01
  7.6892793e-05
 -7.4463928e-01
  2.8172299e-01
  7.9022384e-01
  3.6998738e-02
 -1.7223452e-01
 -8.2950485e-01
 -4.8667938e-01
  9.9962326e-06
  7.1145380e-01
 -2.1740352e-01
  4.3109922e-05
 -9.0126675e-01
  2.2306793e-05
  1.6035345e+00
 -1.1525987e+00
 -2.9084124e-03
  1.0799163e-02
 -2.3255827e-01
 -1.3048024e-01
  2.9144865e-01
  9.8005730e-01
 -3.6510469e-06
 -2.9159704e-01
 -1.1915045e-04
  5.0194257e-01
  1.6158798e-01
  3.1536859e-02
  2.1155007e-01
 -6.8147135e-01
  1.0705435e-06
 -2.9655167e-01
  7.3276627e-01
 -4.1853971e-05
 -8.8297452e-07
 -2.7867606e-01
  1.3464257e-01
 -2.2901094e-04
 -2.8304061e-01
  8.6594358e-02
 -1.3256964e-04
  7.3111683e-01
  6.1839163e-02
  9.5398390e-01
  5.7162553e-01
 -2.0445318e+00
 -3.3164772e-01
 -1.0593959e-01
 -2.6621801e-01
 -2.9853800e-01
 -5.1182008e-01
 -1.7253000e+00
  8.3595854e-01
  2.4259761e-03
  4.0824115e-01
 -1.5409140e-01
 -6.0043287e-01
 -5.2724969e-01
 -1.6901989e+00
  1.2667299e-02
  9.0390694e-01
  5.8186910e-05
 -1.1327761e+00
 -8.6358553e-01
 -6.2252402e-01
  4.6540040e-01
 -1.0266074e+00
 -3.6136877e-02
  5.7283822e-05
  8.9985001e-01
 -2.3887798e-01
  2.6613276e-02
 -5.0676751e-01
  1.3144885e+00
 -1.0768924e+00
 -5.9536743e-01
 -1.1618079e+00
  4.6038878e-01
  5.7118177e-01
  8.2667917e-01
 -1.3303068e+00
  2.7228865e-01
  1.4511432e-01
 -1.4464858e+00
 -9.9824071e-01
  2.1969482e-01
 -2.6570672e-01
  5.4773724e-01
  5.9986414e-05
 -5.5986870e-02
 -5.7436842e-03
 -2.0960431e+00
 -1.1928501e+00
  2.3026554e-01
  8.7656558e-01
  1.0490890e+00
  3.0539788e-06
 -7.9859376e-05
  1.5706306e-05
  2.8211907e-06
 -2.9243815e-01
  5.6160370e-05
 -1.2409942e-05
  7.7643572e-06
 -1.4169498e-06
  9.7112497e-06
 -1.6372673e-04
  6.6315282e-05
  2.5951755e-05
 -1.5141570e-08
 -8.8139459e-06
  5.8350324e-05
  4.9652492e-05
  7.8571829e-05
  3.6661466e-05
  3.4068467e-05
  1.1563333e-05
  3.6330084e-06
  1.1530012e-06
 -4.1029352e-06
 -1.0649198e-05
  1.1444833e-05
  2.0111926e-05
 -1.8355511e-05
 -1.5088294e-04
  1.1786339e-06
  2.9915678e-05
  6.4410069e-06
  1.8659998e-06
 -1.4768244e-04
 -1.9789140e-05
  1.0109764e-04
  2.1393716e-06
  2.2576352e-05
 -3.1333326e-05
  9.5026029e-05
 -3.0583260e-06
 -1.6323966e-05
 -3.9544484e-05
  1.9020406e-05
  7.3993765e-06
 -2.1472547e-06
  1.4620027e-05
  2.2550062e-06
 -2.8148754e-06
  2.7667277e-04
 -5.3594908e-05
 -3.1111238e-05
  1.6984816e-06
  9.6685602e-05
 -3.6558536e-06
 -7.1033001e-02
  1.8347217e+00
  5.3190958e-02
  5.0484306e-01
 -1.1034768e+00
  7.6269448e-01
  3.4756665e-04
 -1.3321697e-05
  6.3991852e-02
 -2.1684580e+00
  1.0026614e-04
  7.2399757e-06
  2.9048905e-01
  6.8727797e-01
 -9.1301690e-06
 -7.7271920e-01
  1.2014096e+00
  1.5800251e+00
  1.1201309e-01
  5.8720196e-03
  5.8295310e-01
  2.7322021e-01
 -2.1533708e-06
  2.6219633e-01
  1.0540708e+00
  3.4623103e-05
 -1.4143689e-04
  7.2551823e-01
 -2.6918225e+00
 -2.8900421e-01
 -1.5073395e-01
  6.5471727e-01
  4.8581219e-01
  2.2808167e-04
 -4.5485985e-01
 -8.3128303e-01
  2.5599808e-01
  3.5943009e-03
 -2.5232121e-05
 -2.9419117e+00
 -5.6735616e-02
  4.6655065e-01
 -8.3384937e-01
 -5.0111834e-02
 -1.7914481e-05
  1.2505478e-02
 -1.4076366e-05
 -3.3774018e-02
 -2.2608791e-03
 -8.4373683e-02
  4.4235628e-02
  3.6106768e-01
  5.0067220e-02
 -4.5265485e-02
 -4.6810187e-02
  4.1548789e-01
 -2.7058476e-01
  9.4057759e-05
  5.6774086e-01
 -1.4401240e+00
  1.1719297e+00
  8.6774647e-01
  4.3421146e-01
 -1.3831171e+00
  2.0061085e-01
 -1.1868861e-01
  1.5550153e-05
  1.8891567e-01
 -9.9117585e-02
  5.9077382e-04
  1.8029858e-04
 -3.0239502e-01
 -1.0752215e+00
  2.4556044e-01
  2.4481559e-01
 -4.0752095e-01
 -8.6482924e-01
  9.0612358e-01
  3.5534626e-01
  7.1066028e-01
  2.3862810e-01
  3.1364812e-03
  2.7468443e-02
  1.2876501e+00
  3.9261994e-01
 -7.2731358e-01
  1.8943849e-01
  5.7624185e-01
  5.3856808e-01
 -7.8582127e-07
  1.1518589e+00
  1.1479006e-04
 -1.6846688e-02
  3.3509810e-02
  2.7362702e+00
  2.4572438e-01
 -5.8870387e-01
 -6.8991810e-02
  4.8660768e-05
  4.3529505e-01
 -6.6370144e-02
 -1.0559805e-01
  8.3776817e-05
 -8.1838137e-03
 -1.4428915e-01
  3.5451680e-01
  2.9331353e-01
 -3.8737189e-02
 -1.7779842e-01
 -5.8640814e-01
  5.4997236e-06
 -6.7106062e-06
 -6.1183264e-06
 -6.7679712e-06
 -4.3268437e-06
  4.0967283e-05
 -6.7325386e-06
 -3.2569287e-06
 -3.0609786e-05
 -4.2733795e-05
 -5.2947998e-05
  1.2057948e-05
  7.5643133e-05
 -7.3570964e-06
  1.5873613e-06
  9.7139331e-05
  4.6076289e-06
 -1.9536867e-05
 -4.2268530e-06
 -1.3381365e-05
 -8.6210167e-07
 -7.8073901e-07
 -4.4254157e-06
  3.2709395e-06
 -1.6614746e-05
 -2.0024117e-06
  2.9171547e-06
  2.6365389e-05
  3.2502139e-05
  2.0652808e-06
  9.9364343e-07
 -2.9153348e-06
  2.7183203e-05
 -3.5072295e-05
 -4.6231980e-06
  1.1040431e-05
  4.9720024e-05
  6.3015686e-06
 -1.8117024e-05
  3.2398231e-05
 -2.0632662e-05
 -1.1764671e-05
 -5.1413739e-05
 -5.1852021e-07
  7.0048354e-06
 -9.0440932e-05
  6.1091509e-06
 -9.9700719e-07
  2.7595696e-04
 -2.2032331e-05
  2.4886276e-05
  1.9708707e-05
 -9.0254593e-07
  5.0781029e-05
  3.2153332e-06
  1.7959044e+00
  1.1138928e+00
 -7.4705654e-03
 -2.5242877e-01
 -3.5543313e+00
 -7.8154302e-01
 -1.5071174e+00
  4.7151834e-01
 -1.0433630e+00
  2.9469162e-01
 -1.3894680e-01
 -4.9579164e-01
 -3.9770934e-01
  4.9345052e-01
 -6.4473745e-05
 -2.8029518e-02
  3.8958475e-02
 -1.9537383e+00
 -2.7377838e-01
  6.0104585e-01
  4.7154543e-01
  4.1511038e-01
 -1.3229543e+00
 -4.8481819e-01
 -1.0193789e+00
 -6.7821398e-02
  6.5615110e-02
 -8.5726293e-05
  1.1332404e-01
  1.0583854e+00
  6.6442542e-02
 -3.1866756e-01
  1.6050088e+00
 -2.9480332e-01
 -5.4785031e-01
 -1.3741865e+00
 -1.7232603e-06
 -3.9301422e-01
  8.1685614e-03
 -5.6772214e-01
  1.5724918e-01
  7.4033523e-01
 -4.6850282e-01
  2.5894537e+00
 -3.1805623e-03
 -7.5333571e-01
  2.7705470e-01
  7.3589226e-06
  1.2101852e+00
 -4.0486196e-01
  4.7107333e-01
 -1.5344379e+00
 -4.4658214e-01
  1.0947347e-01
  1.1883716e-02
 -3.0009803e-06
  1.0521107e-05
  8.4738413e-06
 -4.7625786e-06
 -6.2198774e-07
  1.3229367e-05
  6.7977686e-05
 -3.1040329e-06
 -5.1178954e-06
  1.6277092e-05
  1.8674244e-05
 -1.7595274e-05
  8.9818359e-06
  3.5946126e-05
  4.8641496e-06
 -3.8851267e-06
  4.0883806e-06
 -2.7696981e-07
  2.6719290e-06
  2.6825819e-06
 -1.7580789e-05
  4.6494988e-05
 -6.7996225e-06
  1.3130758e-04
  1.8803468e-05
  9.4640973e-07
 -1.0570730e-06
  1.0356850e-05
 -2.8496417e-05
 -1.2468840e-06
 -3.0548936e-06
  1.5347954e-05
 -5.8233477e-06
  7.3195233e-06
  3.3280630e-05
  6.5922206e-05
  8.9401628e-06
 -9.5289761e-05
  2.2367511e-05
 -3.7931147e-06
  4.3100874e-05
  2.2069878e-05
 -9.8955265e-05
  2.3805894e-06
 -1.5371685e-05
 -3.2394521e-05
 -1.1230609e-04
  7.1613131e-06
 -1.3828970e-05
 -1.2705008e-05
  1.3946739e-05
  6.6771448e-05
  2.4163906e-05
  3.0315364e-06
 -8.5614563e-05
 -1.2192336e-05
 -2.5461912e-05
 -3.1346831e-06
 -1.1369588e-05
  2.6474422e-07
  6.2560748e-06
  1.1649518e-06
 -8.3161049e-06
  3.3840744e-05
  3.7151849e-06
  1.3089060e-05
 -2.1043483e-05
  1.2022199e-05
  1.3017438e-05
 -5.8586957e-06
 -2.8823549e-06
 -2.7044247e-05
 -3.9259525e-05
  1.6790584e-05
  1.1668943e-05
  1.8637330e-06
 -5.0621989e-06
  1.7846352e-05
  7.5365765e-06
  1.8769073e-05
 -1.0939602e-05
 -1.9556619e-05
 -1.2373092e-05
 -7.2049363e-07
 -2.1197257e-06
  1.8066654e-04
 -4.0472323e-06
  6.9133471e-06
  2.0474181e-06
  2.9178926e-05
 -6.9987782e-06
  1.9431218e-05
  3.7523652e-05
 -6.2556814e-05
 -2.5814338e-06
  6.2834270e-06
  1.8075418e-06
 -1.7663011e-05
 -1.4686116e-05
 -8.2087055e-05
 -2.4296478e-06
  1.1053718e-05
  1.6815309e-05
  4.8963880e-06
  1.5451860e-06
 -4.5821889e-06
  7.6588158e-06
 -2.7783926e-07
  4.7873486e-06
 -2.1720289e-05
 -1.1964425e-05
  3.5935086e-06
  7.3896217e-06
 -2.0725192e-05
 -2.6139187e-06
 -4.1509134e-05
  1.5042431e-05
 -1.1266238e-06
  1.7673726e-06
  8.3243525e-05
  5.6684570e-07
  2.0267080e-05
  5.2556979e-06
  6.4797950e-06
  3.0557425e-05
  4.1547946e-06
 -7.1506776e-07
 -2.1471124e-06
  2.8646096e-05
 -5.1278689e-06
  2.5053946e-06
 -1.3543958e-05
 -2.2396237e-06
  8.2234612e-05
 -6.6443245e-06
  4.2800029e-06
 -3.7311620e-06
 -2.0394813e-05
  1.5734184e-05
 -2.4623953e-06
 -1.7723683e-05
  1.3073245e-06
 -2.0469910e-05
  7.7924363e-07
 -6.0362032e-05
 -2.4307812e-05
  2.9876082e-05
 -2.9126386e-07
  3.5191508e-05
 -5.9871682e-06
 -7.6235979e-06
 -4.2686948e-05
  3.7566599e-05
 -5.4594193e-06
  8.2833890e-07
 -1.0700426e-06
 -1.6991320e-05
 -5.1265588e-06
  1.0562867e-05
  4.2861366e-06
  3.4488551e-06
 -5.8399939e-05
 -5.5337085e-05
  7.5482512e-06
  3.9829479e-07
 -4.5360081e-05
  8.9546644e-05
 -1.2001390e-05
  3.3094573e-05
 -4.6089405e-01
 -6.5389504e-06
  3.8079914e-05
 -1.9115725e-05
 -8.4414089e-05
 -2.7850822e-06
 -2.1706892e-05
  5.8522182e-06
 -8.3324512e-06
 -4.8646649e-05
 -1.2398143e-04
 -2.1027361e-05
 -6.8933937e-06
 -5.7343172e-05
 -2.2562454e-06
  5.9508525e-06
 -1.2256608e-05
 -3.7790793e-05
  2.6853713e-06
  6.6612824e-06
  5.7409663e-05
  5.7389279e-06
 -2.3353767e-05
 -7.5642276e-07
  5.5558721e-05
 -5.1772013e-02
 -5.0170079e-06
  5.5778003e-07
  5.9310682e-05
  2.8828294e-05
  7.0305027e-06
 -3.4348020e-01
  1.5395122e-05
 -1.1493031e-05
  6.4231654e-06
 -3.9161640e-01
 -1.6620057e-05
 -3.3545327e-06
 -3.0045637e-06
  1.3088889e-04
  1.2701961e-04
 -4.2090178e-05
  1.0690573e-04
 -1.4517549e-05
  2.4368433e-06
 -9.3930532e-05
  5.6185312e-05
 -2.3313264e-06
  1.5393387e-05
  1.5168657e-05
 -3.4714283e-06
  5.4321245e-05
  2.1631101e-06
 -2.2561087e-06
 -3.5589565e-05
 -1.1621969e-06
 -6.5067143e-05
 -1.5172576e-06
 -1.7754975e-05
 -6.6710736e-06
 -1.2013391e-05
 -5.1523816e-06
  7.7786099e-06
  4.5100369e-06
 -7.7835466e-06
  3.0316746e-06
 -5.5740452e-07
  1.4962868e-06
  1.7944578e-06
  4.5390721e-06
 -3.0662573e-05
 -5.8723936e-06
 -3.0619478e-05
 -4.7463295e-06
  1.1763887e-05
  8.7887211e-06
  5.3563599e-06
 -3.8961915e-07
 -2.3440065e-05
 -9.4887964e-06
  1.1556572e-05
  2.1439548e-05
 -5.1376105e-06
  2.8448532e-05
  7.1626700e-06
 -4.3594599e-05
 -8.4663516e-06
  1.1784284e-05
 -1.4207639e-05
  1.2553052e-05
 -1.3589124e-05
 -4.0234459e-06
 -2.7689505e-06
  1.1208378e-05
  1.4063175e-05
 -1.8682808e-04
  5.2396845e-06
 -9.6852100e-06
 -1.0605805e-06
 -5.9752492e-05
 -1.6471556e-06
 -1.1476447e-05
  2.6306334e-05
  1.7573344e-05
  2.9742387e-06
 -1.6977139e-05
  4.7195581e-01
 -3.6275280e-01
  7.8040585e-02
  5.3311712e-01
  5.8276999e-01
  5.4376137e-01
  1.8941211e+00
  5.6917280e-01
  6.7778578e-06
  4.0193513e-01
 -1.0746651e-04
  7.3425958e-06
 -9.0358080e-05
  3.1930216e-02
  6.3778922e-02
  5.3291056e-05
  3.5065856e-02
 -7.0512379e-03
 -2.1166113e-01
 -3.7258923e-01
  7.1293414e-02
  4.7789457e-01
  2.1867047e-05
 -3.5534200e-01
  6.4631349e-01
  8.4788830e-05
  5.4400206e-01
 -1.1364230e-04
  1.0564604e+00
  9.1865891e-01
 -8.3222045e-03
  7.1018529e-01
  6.0546130e-01
  1.2037050e-01
 -6.5180578e-04
  7.6327485e-01
  1.5176554e-02
  2.1963894e-01
  8.7042304e-07
  1.2451746e-01
  3.3407521e-01
  2.5437254e-01
  3.3509517e-01
  2.5754467e-01
  5.1581315e-05
 -8.2947426e-02
  8.0635673e-01
  1.6729589e-05
 -1.7459763e-02
 -3.3281121e-01
 -8.2794851e-01
  2.6011302e-03
 -2.4261293e-01
 -2.1114127e-01
 -1.4021385e-06
 -3.0496709e-05
  2.3811710e-05
 -1.1413659e-04
 -2.3169612e-05
 -1.7289412e-05
  4.9668015e-05
  5.6836143e-06
  1.8391485e-05
 -2.4159181e-05
 -3.2471360e-06
 -5.5644385e-05
 -2.0848927e-05
  1.4515588e-06
  6.2234023e-05
 -5.1078194e-05
  7.4505888e-06
 -1.7644204e-05
 -2.1691360e-05
 -4.9870550e-07
 -2.1417296e-05
 -1.8207702e-06
  3.1560339e-06
  2.8454779e-06
 -8.5490537e-06
  7.0427982e-06
  1.5429415e-04
 -6.4789660e-05
  2.2795937e-05
  5.3715507e-07
 -5.1789953e-06
  1.3563543e-06
 -4.7860676e-06
 -1.6377568e-05
  1.9643561e-05
  1.1777640e-05
  4.1404437e-06
 -2.9433172e-06
 -1.5219064e-05
 -2.8901981e-05
  1.7923888e-06
 -2.0329469e-05
 -1.1128094e-04
  3.3667231e-06
 -4.1352061e-05
  5.3319091e-06
  3.2801518e-06
  3.4974397e-05
 -2.4356334e-05
 -2.9062262e-06
 -3.3923094e-05
  1.2380759e-05
  3.0595495e-06
 -4.7134228e-05
  1.5844096e-06
 -3.5468634e-05
  4.9125115e-06
  2.1228372e-05
 -4.4124772e-05
  1.7033835e-06
 -3.8290004e-06
 -5.2885966e-06
  5.1276827e-05
 -1.0263087e-06
  4.2375677e-06
  1.3275879e-07
  1.6405222e-05
 -6.6837706e-06
  1.6633780e-05
  1.1786912e-05
 -2.5974714e-05
 -5.3275220e-05
 -3.6491369e-05
 -1.9388361e-05
 -3.0084673e-05
 -6.6357798e-06
 -1.3235614e-05
  5.0761769e-06
 -1.8915250e-06
 -6.5592998e-05
  2.2450542e-05
  2.1279651e-05
 -2.1612974e-05
  6.4823967e-06
  4.9867294e-06
 -1.5824704e-05
 -7.2942798e-06
 -7.9751058e-05
 -3.3259323e-06
  7.7218601e-06
  6.6651392e-06
 -2.4586185e-05
  2.9495816e-06
 -4.1515796e-06
 -2.3001103e-06
  1.5568751e-04
 -1.7467622e-05
 -1.4199053e-05
 -7.1169366e-06
  3.6801961e-05
 -2.0346406e-05
  1.0684439e-05
  1.2871884e-05
 -3.7039757e-05
  5.0192539e-05
 -1.4711430e-06
 -2.2507522e-05
  1.3269394e-06
  5.8300457e-06
 -1.0862589e-05
  2.0319044e-06
  2.0220889e-02
  1.1520904e-01
 -2.3242487e-06
  1.4379501e-04
  4.8373595e-01
  2.9548913e-01
  5.6496263e-01
  2.0842432e-05
  4.2141023e-01
  6.7154698e-02
  6.7697541e-04
  6.0079561e-04
  8.3226887e-06
 -1.3459363e-04
 -2.3194271e-04
  6.5485447e-06
 -3.4754652e-05
 -3.6072519e-01
 -1.7392506e-04
 -1.0088163e-01
 -6.5141248e-05
  1.3939874e-05
  3.0792627e-02
 -8.8304387e-06
  5.4276288e-01
 -3.5720589e-06
  3.3273017e-01
 -1.7534759e-07
  7.4013722e-01
  1.5762815e-04
 -1.0082025e-01
  5.4424396e-07
  6.4897766e-05
  4.3029255e-01
  4.1064927e-01
 -3.6263156e-01
 -6.5974245e-06
  7.2437823e-01
  1.5071070e-01
  2.9506066e-01
  1.1178757e-01
  1.9865165e-02
 -8.1871688e-01
  1.0912474e-05
 -1.5429196e-05
 -1.2237544e-01
  2.3774039e-02
 -2.2080458e-05
  1.9794747e-01
 -5.3171312e-05
  9.0554160e-05
 -6.4174277e-03
  2.8022970e-03
 -1.2467840e-01
 -7.9898804e-05
  1.7808019e-05
  4.9852297e-06
 -9.8991950e-05
 -1.7110862e-04
  1.3539069e+00
 -3.6627753e-05
  1.2713019e-04
 -3.8993472e-05
 -1.3090406e-05
  1.2125698e-03
  2.9742903e-05
  1.6965314e-05
  2.1632461e-04
  1.5530975e-02
 -2.4600097e-04
  1.2976928e-01
  1.1628449e-04
 -1.2139437e-05
  6.9233781e-01
  7.8559816e-02
 -3.4181398e-06
  2.0507915e-04
  9.4250491e-04
 -1.4252431e-04
 -3.8500154e-01
  9.1289794e-06
 -3.7382084e-05
  2.3647287e-07
 -2.8401064e-02
 -4.1261172e-01
 -9.8501928e-02
 -5.0297116e-05
 -2.4395046e-01
  8.8445086e-04
  6.1471810e-06
  5.6027018e-02
 -1.0263455e-04
  6.3300081e-02
 -1.5814403e-04
 -2.9829690e-01
  1.7120151e-02
 -9.3112983e-02
  3.7987109e-05
  1.0663645e-02
  8.4793210e-06
  8.0043331e-02
  8.9644957e-01
 -2.9492825e-05
  1.2111974e-02
  2.0685713e-01
 -2.6249760e-03
  6.5550950e-07
 -1.1834457e-01
  9.6715286e-02
  6.2616408e-01
  4.5815352e-05
 -2.9615579e-02
  1.3735445e-04
  3.3629217e-06
 -4.7815165e-01
  1.0180329e-04
  2.8998381e-01
  1.6019125e-04
  2.2481909e-05
 -2.4128298e-01
 -1.1708034e-02
 -1.3117507e-04
 -5.2002706e-05
  1.1186632e-04
  4.6831561e-04
 -6.8947666e-06
 -2.2898629e-04
  8.7348334e-02
  2.8163664e-05
  1.0600220e-01
 -4.1771173e-07
 -1.2559057e-05
 -1.4365060e-04
  8.0242164e-05
 -2.8558812e-01
  6.4915315e-05
  4.7573219e-05
  3.6031994e-05
 -3.7551042e-02
 -3.7346836e-05
  8.6044800e-04
 -1.9185489e-05
 -4.9758767e-04
 -5.2541489e-04
 -1.6336741e-01
  9.8481396e-05
  5.1872823e-05
 -3.7812919e-05
 -4.6002897e-05
 -2.4518678e-01
  2.3275061e-02
 -1.3018304e-03
  2.0118579e-04
 -3.3083721e-05
 -2.1479798e-05
  1.8595862e-05
  4.3903645e-02
  1.3645257e-05
 -6.7580894e-02
  1.4862256e-05
 -1.4209526e-04
  1.5166075e-03
 -2.2149677e-03
  3.5924822e-02
  2.2608769e-01
  2.0968232e-01
 -4.6323273e-01
  1.2016768e+00
  1.5664696e+00
 -6.1359978e-01
  9.9477559e-02
  2.1389177e+00
  2.5001817e+00
  4.9561176e-01
 -5.7894069e-01
 -4.7628391e-01
  1.9309789e-02
 -8.3037341e-01
  1.2527301e-04
  9.8971546e-01
  1.3769975e-02
  2.9199873e-03
 -8.1610501e-01
 -2.1508791e-01
  3.9079824e-01
  1.9670451e-04
  4.5428731e-02
 -7.6361763e-01
 -1.0861019e+00
 -4.5733705e-01
  4.2805615e-01
 -2.0812760e-01
  3.0748138e-01
 -9.1762826e-02
  2.0716304e-01
  2.5460550e-01
  5.4214430e-01
  7.3138587e-02
 -2.9837722e-01
 -1.4700719e+00
 -3.8018143e-01
  1.0255089e+00
 -2.1248409e-01
  4.9513155e-01
  2.8151467e+00
 -7.1417338e-01
  1.5215127e-01
  2.1645575e+00
  1.1708788e+00
  7.5196630e-01
  9.3988821e-02
 -9.4193029e-01
  1.1132732e-01
 -7.5016963e-01
 -1.9397662e-06
  1.4209051e+00
  9.0215230e-01
 -1.8895036e-01
  6.5620959e-01
 -5.3917062e-01
 -6.8028721e-06
  1.8235309e-03
 -3.7125868e-05
 -1.2511807e-06
  3.2876951e-01
 -5.1087809e-06
 -7.2396761e-06
 -1.5166652e-05
 -5.9820970e-05
  1.7551281e-05
  1.1106593e-04
  1.0068357e-05
  1.3055696e-04
  1.8203039e-02
 -2.5864606e-04
 -6.1909273e-06
 -3.6420253e-05
 -7.9045020e-02
 -3.3188537e-03
 -5.0931055e-02
  6.8637615e-05
 -2.5979221e-05
  1.7754815e-05
 -1.6190021e-05
 -4.4805314e-02
  9.4845882e-06
 -1.6578257e-05
  6.3736178e-04
  1.3650281e+00
  8.6114087e-05
  1.3803770e-03
 -1.7630905e-02
 -3.8278440e-06
 -5.8524711e-06
 -1.4440261e-01
  1.0578851e-01
 -2.9371487e-02
  1.7403512e-05
  7.1766777e-07
 -1.9100168e-01
  4.7702357e-05
 -2.4981357e-02
 -1.2223321e-03
  9.4711937e-02
  5.1021919e-04
  2.2906084e-01
 -9.8806486e-02
 -1.2783870e-05
 -9.4762087e-05
  4.1622852e-06
  5.7441396e-01
 -2.8012766e-05
  6.7753471e-02
  2.6986592e-05
  1.8299348e-05
 -6.2641911e-06
  3.4500747e-06
  2.8055717e-04
  1.5310718e-05
 -8.6608943e-06
  1.0841715e-05
 -4.1878998e-06
 -1.9380470e-05
  2.3138704e-05
 -1.5753254e-05
 -5.5089354e-06
 -6.6553468e-05
 -1.0950323e-08
  2.0595686e-05
  1.2677503e-07
 -7.1188624e-06
 -2.1886906e-05
 -2.2078006e-05
  7.2431781e-06
 -3.3786458e-07
 -2.0094247e-05
  1.5091077e-06
  2.7355842e-05
 -4.5530538e-05
  1.9184668e-05
  9.5468467e-06
 -2.4319746e-05
  3.6791291e-05
 -6.1928681e-06
  1.6904711e-06
 -2.5004738e-05
 -1.6934722e-05
  1.4706006e-05
 -7.8720166e-07
 -3.6773374e-05
  5.5476568e-05
 -1.0648478e-06
 -2.0802438e-05
  1.4692341e-05
  1.9920740e-06
  1.5077359e-05
 -2.3225119e-05
  1.9035902e-05
  7.4055151e-06
  4.2898259e-06
 -9.8953351e-06
  1.3489518e-05
 -1.5075856e-05
 -5.0652593e-06
 -1.8701083e-05
 -7.0806786e-06
  3.5412904e-06
 -7.7742641e-07
 -5.9134272e-06
  3.1711368e-06
 -6.2910331e-05
 -1.5681684e-01
  6.7431167e-02
  7.1042545e-02
 -1.1605582e-02
 -7.7902764e-02
  1.1701676e-02
  4.3770470e-02
 -1.0070194e-03
 -9.8573295e-03
 -5.9389032e-02
 -3.3652626e-02
 -2.4580726e-02
  2.2051267e-02
  9.6144509e-01
  9.3530683e-04
  3.0687508e-01
  2.3856141e-02
  5.2713149e-05
  3.7245672e-02
  6.1918044e-01
  6.7720544e-03
 -9.3047014e-03
  3.6274236e-02
 -2.1100913e-01
  4.8751879e-02
  8.9744888e-03
  8.2840188e-04
 -1.6987753e-01
  1.1222762e-04
  1.3259186e-01
  2.3503762e-01
 -6.6968561e-03
 -6.4178859e-04
 -2.1661732e-02
 -1.5213545e-03
  5.1132834e-01
  1.6177209e-01
 -8.1233019e-03
 -1.7141418e-04
 -3.5686358e-03
  4.4542542e-03
  1.7442264e-02
 -8.4414445e-02
  2.1641489e-02
  5.0465111e-03
  4.8499193e-02
  3.3357933e-01
 -1.0152844e-01
  2.3745285e-01
 -5.1238701e-02
  4.5124806e-02
  2.3328295e-02
  2.4828833e-02
  4.2331256e-02
 -6.4988781e-06
 -2.2184362e-05
 -1.7135833e-04
  1.8717112e-05
  8.3013794e-05
  1.9354307e-05
  6.8828199e-06
  1.5817741e-05
 -1.7337625e-05
 -3.6451409e-06
  6.6924811e-05
  2.5587347e-05
 -6.9944158e-06
  3.2629519e-05
  2.2096215e-06
  1.4208660e-05
  4.1460526e-06
 -1.7918233e-05
 -6.7778524e-06
 -7.2444841e-06
  2.9330957e-05
  1.8304825e-05
 -4.2356037e-06
  2.2257167e-05
  4.7754838e-05
 -2.1356625e-05
 -4.5978995e-06
 -1.1003589e-05
 -6.2961276e-06
  2.0016047e-05
 -1.3635352e-05
 -3.3965720e-05
  5.2790106e-06
 -7.4989757e-06
  4.8453296e-07
  3.5535268e-06
 -1.0452432e-05
 -5.4467773e-06
 -5.9470740e-06
 -2.5881863e-07
  2.6281330e-06
  9.3933821e-05
  1.6697895e-05
  1.1079572e-05
  4.7875717e-05
 -5.2898748e-05
 -3.5220328e-05
  4.1859599e-05
  5.4012168e-07
  6.4051810e-06
  6.8421077e-06
  1.8205317e-05
 -4.1458056e-06
 -2.7738302e-05
 -4.3745331e-06
 -1.9065161e-01
 -7.6866943e-01
 -5.2502387e-06
 -1.5246444e-05
  1.0604457e+00
  1.4998464e-01
 -3.0000162e-01
 -2.1471646e-05
  4.7485340e-02
 -2.7643174e-01
 -1.5698306e-05
 -2.4531829e-01
  1.8793280e-01
 -6.8739271e-01
 -2.3456749e-05
 -9.0136874e-01
 -2.4950272e-01
  6.3309586e-04
 -5.2939129e-05
  9.7089587e-03
 -1.7383339e-01
  5.9013539e-05
  2.1347908e-04
  4.9122053e-01
 -7.2226518e-01
  9.9442432e-06
 -1.7807804e-04
  3.5923279e-03
  5.4091078e-01
 -1.3371683e+00
 -1.3952143e+00
 -1.5466459e-06
 -1.5079853e-01
  8.1208760e-01
  3.0746477e-02
  2.1360788e+00
 -7.8389414e-05
  3.0787069e-01
  7.3894419e-02
  2.2144191e+00
  5.4714978e-01
 -3.3339030e-01
 -1.0141844e+00
  4.6536043e-01
  3.0984371e-05
  4.8044667e-06
 -5.0047237e-01
  1.1026114e-05
  1.8387486e-01
  3.8005110e-06
  9.1926086e-01
 -2.2820155e-04
  1.4386083e-01
  4.0967882e-02
  2.8236461e-04
 -3.0148271e-06
  2.6059088e-06
  3.9575600e-05
 -8.1667963e-07
 -7.5779171e-05
 -4.5827778e-06
 -4.5836791e-06
  1.2060005e-05
  6.9413186e-06
 -1.2868553e-05
 -1.3067298e-06
  2.9897883e-06
  8.6927512e-06
 -3.1955627e-05
  4.1641462e-05
 -1.0944836e-05
 -1.2687109e-05
  1.2794032e-05
  1.2525639e-05
 -1.5243133e-05
  5.3534957e-05
  4.1757277e-05
 -4.0422579e-05
 -5.1503401e-05
 -3.4659988e-05
  1.0496275e-05
 -3.6595779e-06
  1.4630493e-04
 -2.5708614e-05
  5.8588885e-06
  1.6050606e-06
  1.0939946e-05
  4.8209808e-05
  2.8822049e-06
  4.6081173e-06
 -2.9247656e-05
  9.7020811e-06
  1.3301549e-05
 -7.6125121e-05
  8.9592540e-05
  3.0221945e-05
  1.1291009e-05
  1.0356343e-05
  1.1909968e-05
  9.7527281e-06
  1.0337608e-05
  4.5208304e-05
  1.3571347e-05
  6.0617581e-06
  2.2982797e-04
  6.9455186e-06
  4.6238210e-06
 -8.0512209e-06
  1.2820019e-05
 -4.0354902e-05
  3.2268192e-05
  4.3835496e-07
  1.4970418e-05
 -2.6410935e-05
  1.4746051e-05
 -1.3539457e-05
  5.6496217e-05
  6.3614625e-06
  2.2296879e-05
 -1.1059209e-05
  8.8705765e-06
  5.0089943e-06
 -1.6373642e-04
  1.1462771e-05
  7.1646748e-05
  1.6083994e-05
 -4.5558977e-06
  2.8238051e-06
 -3.9467100e-06
 -2.5129141e-04
 -2.2998127e-05
 -8.5602896e-06
  4.2980173e-05
 -2.6171335e-06
  7.7914801e-06
 -1.3641301e-05
  1.3407183e-05
 -1.2962752e-05
 -1.3708400e-05
  8.9682224e-05
 -4.2807853e-05
  1.3265595e-05
 -7.5142998e-06
  9.8369446e-06
 -8.8771812e-06
  1.2344971e-05
 -3.6936253e-05
  5.6340223e-06
  2.4438177e-06
 -1.0044539e-04
 -1.7556297e-06
 -2.0908359e-05
 -1.2936766e-05
 -7.6909218e-06
 -3.5405460e-08
 -1.0843503e-05
  9.7892080e-06
  1.0022508e-05
  1.6609903e-07
 -4.5689890e-06
 -1.3137997e-06
  6.9356424e-06
  2.2912855e-05
 -5.3665858e-06
  1.0579086e-05
 -3.7967788e-05
  1.0924815e-05
  8.0424834e-06
  5.4778789e-06
 -6.1090673e-06
  4.7262867e-05
 -1.3040821e-05
 -1.7052796e-05
  9.9157924e-06
 -1.0503294e-06
 -1.1666526e-05
 -3.7301461e-06
  8.2236311e-06
 -1.5229109e-05
 -6.0822913e-06
 -2.8579096e-05
  9.1242273e-06
 -5.8130786e-06
 -1.9454170e-04
  3.8163431e-05
  3.3587032e-05
  1.4386676e-05
  6.2109543e-06
  7.0100541e-05
  2.6471480e-05
 -7.1660843e-06
  1.6150793e-06
  2.4570980e-05
 -2.9696164e-05
 -1.0108014e-05
 -1.1114530e-05
 -6.7234992e-06
  2.6817830e-05
  3.0398126e-06
  1.0528463e-04
 -1.2803919e-05
 -8.1557764e-06
  4.4796880e-06
  1.5884078e-05
 -5.1719917e-06
  4.0542698e-05
  1.7561342e-06
  1.0373646e-05
 -1.3378254e-05
  1.5706790e-05
  1.0784118e-05
  2.9178793e-06
 -7.6546849e-06
  1.4523924e-05
  7.5020976e-06
  3.0022663e-06
  1.0468395e-05
  1.1256365e-05
  6.7597521e-06
 -3.2740365e-05
 -1.0518732e+00
 -2.0061300e+00
  6.6734065e-06
 -6.1606205e-01
  6.0673791e-01
 -1.5850059e+00
 -3.4767434e-01
 -3.2700589e-01
 -2.0691447e-01
 -2.1616204e-02
  9.9463075e-01
  6.5705091e-02
  2.3277383e-01
  3.9259151e-01
  3.6038688e-01
  3.3148068e-01
  1.1617768e+00
  1.4052054e+00
  2.8168242e-05
  2.5343291e-02
  2.0220998e-01
 -6.3535041e-01
  6.1221039e-01
  8.0012095e-01
  1.4241306e+00
  2.4441624e-06
  3.7141296e-01
  1.0480824e+00
  2.3014128e+00
 -7.7231193e-01
 -1.2981081e+00
  7.9654497e-01
 -1.3875502e-01
  8.5721380e-04
  1.4976883e+00
  1.8559918e+00
  2.8734767e-01
 -1.4445204e+00
 -2.9250041e-01
  1.2820244e+00
  1.3811122e+00
 -5.3203080e-02
  4.5066711e-01
 -1.6516359e-01
  4.5255792e-06
 -7.2054148e-01
  5.3839553e-03
 -6.1854790e-04
 -3.2758397e-01
 -9.5892145e-05
  1.6548456e+00
 -1.3056543e+00
  5.0028782e-02
  1.2442571e-05
 -6.8921858e-01
 -1.3508139e+00
  8.3346450e-01
 -4.0913801e-05
 -8.4006959e-01
 -1.1426249e-01
 -1.3950976e+00
 -1.0021062e+00
 -3.7691385e-02
  3.2155913e-01
  6.6205764e-01
  1.2220305e+00
  1.4397006e-02
  2.8787556e-04
  2.2047746e-01
 -5.6795454e-01
  8.5663617e-02
  4.7675297e-02
  8.6729787e-03
  1.4663665e-02
 -2.5558573e-01
  1.3371186e-04
 -1.2551971e-01
  1.7415097e-05
 -1.5738922e-01
  6.1294472e-01
 -6.5765470e-01
 -3.5842009e-02
 -1.4929514e-01
 -7.8337514e-01
  4.2183805e-02
  2.4551151e-02
 -7.3050463e-01
  8.7824064e-01
  1.9954685e-03
  4.1654821e-06
  1.7594577e+00
 -1.6631693e-01
  4.5662578e-02
 -3.6823934e-01
  7.3188519e-01
  4.6819795e-02
 -1.8269260e-01
  1.6601464e-02
  1.2194929e-01
  7.2553426e-02
  4.2035695e-02
  8.1571954e-01
 -1.9819546e-02
 -1.6162430e+00
 -7.4555469e-01
  2.1400450e-02
  7.1811342e-01
  3.8676363e-01
 -2.4430838e-01
 -2.8503627e-01
  1.4868939e-06
  3.3641040e-01
  3.0245663e-05
 -6.1167462e-05
  1.4664437e+00
 -3.3468320e-03
 -8.7039635e-02
  7.3971214e-06
 -2.1658374e-01
  3.1711024e-05
 -1.1207198e-05
 -2.3840712e-05
  4.7613894e-06
 -1.3042150e-04
  1.4074382e-05
 -1.1623244e-02
 -5.8730762e-04
 -3.4170949e-05
 -2.2314898e-04
  5.4214274e-06
 -2.4617648e-05
  6.9992097e-06
  2.7709646e-04
 -8.9186451e-06
 -1.1838292e-01
 -6.6396278e-06
 -1.4879929e-05
  8.6633681e-06
  1.0271876e-05
 -3.2361516e-01
 -2.5091179e-02
 -3.5017852e-05
 -1.9085662e-04
  5.4591997e-06
 -1.4365182e-05
  1.9686970e+00
 -1.7023234e-05
  1.0056328e-01
 -3.3921792e-06
 -9.5057523e-01
  4.6835795e-02
 -2.4352218e-04
 -1.0503343e-05
  7.9692163e-06
 -3.7255737e-05
 -1.2498661e-02
  6.8704955e-02
 -3.6503443e-05
 -1.3699275e-04
 -3.1706478e-04
  2.2790596e-04
 -7.1589178e-01
 -2.0891847e-01
  6.1917311e-01
  1.7717337e-04
 -2.1013925e-06
  1.0093444e-06
  3.7786544e-06
  1.4182971e-06
 -6.6378584e-06
 -3.4858447e-05
  1.3540606e-05
  4.5168385e-06
 -3.2512529e-05
  4.1214832e-07
  6.5849295e-06
  2.4299043e-06
  4.0371838e-06
  4.2362306e-05
  4.6773266e-06
 -1.8388880e-06
  1.7216211e-05
  1.0249965e-05
 -8.8396582e-06
 -1.4898204e-05
 -6.3171683e-06
  9.8771970e-06
  1.3585772e-05
 -1.3204834e-05
  1.5058200e-06
  1.0640649e-05
  1.7801469e-06
  4.2380188e-06
 -6.8554039e-07
 -1.5228280e-04
  6.8474033e-06
 -2.1972266e-06
  4.2852362e-06
  2.1922763e-06
  7.2931884e-06
  3.1000614e-05
  1.1653852e-05
  6.6302227e-06
 -2.4850722e-05
 -9.4426714e-06
  1.3348420e-06
  2.6775364e-05
 -3.7348294e-05
 -1.0451266e-05
 -4.0174913e-05
 -5.3965518e-06
  4.2342177e-05
  1.1609345e-05
  2.2516194e-06
 -1.4782969e-05
 -7.2938856e-05
 -8.5989213e-06
 -1.1601280e-05
  1.0419647e-05
  8.6799309e-06
 -1.3873105e-04
 -1.6899101e-05
  1.3316069e-05
  3.4956759e-04
 -3.3593571e-03
  3.9194748e-04
  1.4786618e-03
  6.5206405e-05
  1.3537110e-01
  2.5611111e-05
 -3.8229396e-06
 -6.4981491e-06
  1.0453750e-04
  1.2684386e-04
  1.6122946e-04
  7.8374896e-06
 -1.0542237e-05
 -2.3343175e-05
 -1.5154465e-05
  3.7078949e-05
  9.6366384e-06
  4.3509594e-06
 -1.4881519e-04
  5.4298239e-06
 -2.1622059e-06
  2.8668090e-05
 -1.5063791e-05
  4.9192886e-07
 -8.5139480e-05
 -3.9120136e-05
  5.3300878e-06
  1.0501924e-04
  3.0827272e-05
  1.2276216e-05
  2.5463628e-06
 -2.9323766e-05
 -3.6540594e-06
  1.2987791e-04
 -2.9486175e-05
  8.6682647e-02
 -3.5708374e-05
  3.5542842e-05
  4.2198866e-04
 -4.3279753e-05
  8.6670167e-05
 -1.9462545e-06
  1.8368669e-02
  1.2392996e-04
 -5.2675646e-04
  1.6662401e-04
 -1.9794921e-04
  2.6577865e-03
 -8.5114654e-05
 -8.3632140e-06
  1.4448882e-05
  1.0642856e-02
  1.0398552e+00
 -2.0681820e-05
 -4.0693450e-04
 -5.5400532e-01
  7.2059418e-05
  4.4952703e-01
 -4.2574719e-02
 -1.4281025e-02
 -2.5326782e-01
 -4.5571822e-05
 -1.5380249e-03
  1.6712654e-01
 -6.9414556e-05
 -8.3697599e-04
 -1.6172022e-01
 -4.1597065e-02
  9.4436320e-05
 -1.0382239e-04
  2.2433077e-01
 -1.3398208e-05
 -5.0355625e-06
 -7.0106791e-05
  1.6418488e-04
 -7.2338098e-01
  1.9507328e-04
 -2.5792468e-01
  7.2019227e-02
  1.1219759e-01
 -1.0125926e-01
 -2.8776395e-01
 -4.2544991e-02
 -3.1867053e-04
 -2.5342355e-02
 -4.9002722e-01
 -9.9599051e-01
 -3.2635946e-03
 -1.2152807e-01
 -3.6630942e-04
 -2.9400533e-01
  1.0609393e-01
 -5.0120080e-01
 -6.5810704e-01
  3.8039949e-02
 -7.4015225e-05
 -5.9168022e-02
  1.2058324e-02
 -4.3941536e-06
  2.2875854e-04
  1.4959491e-05
 -8.0445856e-01
 -4.4889680e-01
 -8.0548489e-01
  3.2688865e-01
  3.6804882e-01
 -3.5935038e-01
 -3.2505419e+00
 -1.2229328e-02
 -6.0504666e-05
  2.4190915e+00
 -5.1156497e-01
  3.1510988e-01
 -7.6212102e-01
  1.4167165e+00
 -4.4980279e-05
  2.1497760e-06
  2.9936347e-05
  5.9510785e-01
  1.8664785e-01
  6.4810319e-04
  2.4236320e-01
 -4.6541607e-03
  3.4776266e+00
  1.2467798e+00
 -3.1504268e-04
  8.5325152e-01
  4.1702594e-07
  1.2646901e-04
 -2.0917658e-05
 -1.5889210e-01
 -2.2867703e-06
 -7.0039821e-01
 -5.1252604e-01
  8.3884561e-01
 -1.1175941e-01
 -5.3881443e-01
  7.9667218e-05
 -3.9760724e-01
  5.1991266e-01
 -2.5044176e-01
 -2.2898679e+00
  4.0354731e-05
  8.5425951e-02
 -7.7664918e-06
 -6.0886723e-01
  1.6250656e+00
 -2.2801758e-04
 -1.3530116e+00
  3.2277072e-05
 -4.4563649e-08
 -3.7724272e-04
  2.4905214e-01
  5.6354773e-05
  9.3179059e-01
 -1.2245096e-01
  1.8991225e+00
  7.7708296e-02
 -4.2814806e-01
 -3.8182825e-05
 -3.0020243e-04
  1.5271828e-04
 -3.2566071e-01
  5.7438747e-09
  7.3420946e-05
  2.9899365e-01
 -6.6790009e-05
 -2.3811141e-01
  4.9871160e-04
 -7.0233762e-01
 -6.9237307e-02
 -5.8701774e-04
 -3.8689905e-05
 -9.7800903e-03
 -4.5562407e-05
  3.3302948e-02
  2.4090555e-02
  4.4243294e-03
  4.4262078e-02
  5.5746841e-03
  3.5419188e-02
  7.3448064e-05
 -3.0436242e-01
 -2.9087630e-01
  1.1619881e-02
 -2.3859274e-02
  4.9114396e-06
 -5.4034805e-01
 -8.8347986e-02
 -2.1046855e-01
 -2.8426711e-02
  1.2436555e-01
 -2.7737568e-05
  7.2360352e-05
 -8.3480544e-02
 -7.5703836e-05
  1.3978571e-01
  2.0479433e-01
 -1.2310882e-02
 -2.9391102e-02
 -4.2993563e-01
 -1.6582774e-01
 -2.3740476e-02
  1.0493343e+00
 -1.9018206e-01
 -2.5823870e-04
  5.8298536e-02
  1.4278431e-01
  1.1855978e-05
 -2.3673552e-01
  9.7353914e-06
  1.5673599e-01
  1.1851158e-01
  4.2900443e-01
  3.0425487e-02
  1.1278929e-03
 -1.3801500e-05
  1.2673455e-05
  3.1652373e-05
  1.7195581e-06
  8.9526361e-07
 -1.3626825e-05
  2.7176562e-05
  4.2223288e-05
 -2.7873230e-05
 -1.2932020e-05
  4.1760912e-05
 -3.0782967e-06
 -9.1457196e-08
  8.0797298e-07
  2.0859266e-05
  2.0105913e-06
  1.0481555e-06
 -5.5743949e-06
 -1.3817700e-05
  3.0636609e-06
  5.3610911e-06
 -1.4983427e-05
  5.6289146e-06
  9.3232986e-05
 -1.3568631e-05
  5.4128709e-06
 -7.3497249e-06
 -2.3373548e-07
  3.5660738e-05
  1.3351806e-05
  1.3872179e-06
 -1.0330190e-05
  9.1703969e-06
 -8.5661031e-06
 -5.6196068e-06
 -6.1264423e-06
 -6.6107241e-06
  8.3624836e-06
  3.7806444e-08
  2.9831746e-05
 -7.5534804e-06
 -1.5147049e-06
  7.5965036e-05
 -2.5202289e-06
 -4.5845423e-05
 -3.6422509e-05
 -9.3091649e-06
 -7.8941184e-06
 -1.3519957e-05
 -1.4831562e-05
  3.4670252e-06
  1.0472181e-02
  1.2840915e-05
 -1.2022687e-05
 -1.4167163e-05
 -9.5942682e-01
  2.1835399e-01
  9.5554042e-06
 -2.8274828e-01
 -3.3248898e-02
 -4.3422237e-04
 -5.2699548e-01
 -1.9827378e-03
 -7.3076457e-02
 -1.1450877e+00
  4.3124355e-06
 -1.4269032e-04
  1.1968198e-01
 -6.1703373e-05
 -1.5758570e-04
 -1.2962331e-01
 -1.1063045e-03
 -7.3998469e-01
 -4.3515968e-01
 -7.2743987e-06
 -1.5101346e-05
  2.2810960e-07
  6.4673666e-05
 -2.2983870e-05
  1.6638229e-02
 -1.0565708e-04
 -5.3287572e-06
 -1.1675446e-04
  9.0215623e-01
  4.1835674e-04
 -3.2710758e-01
 -4.4541321e-05
  1.5026900e-05
  1.7487063e-06
  3.2744913e-06
  8.9605123e-02
 -7.7822215e-06
  1.1248579e+00
  7.5587981e-05
 -9.1465753e-01
 -6.7108762e-05
 -7.4333753e-03
 -7.4410208e-02
  1.1626551e-01
 -1.7704657e-05
 -1.3222580e-05
 -3.3714864e-02
 -6.1007660e-05
  2.5141484e-01
 -1.6545194e-04
  9.7074464e-04
  1.0870983e-01
  1.1816413e-04
  1.7619534e-08
 -1.2421700e-02
 -1.4325240e-01
 -1.7733642e+00
 -1.2277523e-05
  1.4629201e-05
 -3.0073974e-02
  4.5498148e-01
 -4.8188677e-01
  6.4206753e-05
  2.1362893e-01
  1.9569964e+00
  1.9259094e-01
 -1.4677870e-05
  2.3733327e-01
 -4.1025582e-01
 -6.1214267e-04
 -1.4449932e-02
 -2.7525920e-04
  8.2191594e-02
  1.6547638e-04
  7.0369983e-01
 -1.1430014e-01
  6.2630992e-05
  2.8157499e-04
  5.7465756e-01
 -1.1637003e+00
  3.4794348e-06
 -1.6831791e-04
  5.8439171e-01
  2.1675585e-01
 -6.4261723e-01
 -1.2293831e-01
  6.4268097e-05
 -3.4071499e-01
 -4.8620947e-02
  2.4138410e-04
  2.5308871e+00
 -9.7784750e-06
  1.7131591e-01
 -2.4884941e-01
 -2.5907576e-01
  1.0226243e+00
 -6.7469553e-04
  9.5411640e-01
  4.8449010e-01
 -1.8693336e-06
 -4.4976761e-05
  3.2651088e-01
 -1.2830739e-05
 -3.7824959e-01
 -2.9979697e-03
  1.8726031e+00
 -1.0885128e+00
  1.9576972e-04
  3.7983528e-01
  2.2731412e-02
  6.0916052e-05
 -6.5878621e-06
 -3.0520274e-05
 -2.2387455e-06
 -3.9446266e-05
 -3.6433004e-05
 -6.2627823e-06
  3.5071080e-05
 -1.1098824e-05
 -1.0882608e-05
  4.0951541e-05
  1.2114764e-05
  8.8994311e-06
  4.7425278e-06
 -1.7789371e-05
 -3.0958479e-05
 -3.7879345e-05
  3.7918567e-06
 -1.9475431e-06
  1.0744820e-05
 -3.1053223e-05
  8.5495312e-06
 -1.1939923e-05
  1.4363705e-05
  5.4430120e-06
  4.1883879e-08
  5.9327402e-05
  3.2614920e-05
 -4.3240052e-06
 -1.4387326e-05
  8.6631517e-06
 -1.0429503e-05
 -2.4955748e-06
  1.4792647e-06
 -4.5349305e-05
  2.7704711e-05
  3.5889072e-05
  1.3767595e-06
 -6.5629428e-07
 -5.5592900e-06
 -9.7432903e-06
 -4.2530704e-05
 -1.2881833e-05
  4.7645812e-05
 -6.4158353e-06
  3.7268060e-06
  1.5334912e-05
  9.5792966e-05
 -8.1452445e-06
  4.5601286e-05
  3.9083170e-06
  1.0703075e-06
 -1.4877476e-05
 -8.1927487e-07
 -3.9843862e-06
 -6.6136463e-06
 -1.2522296e-05
  7.1477939e-06
 -8.3476270e-06
  1.0608640e-05
  3.7744323e-06
 -3.9677634e-05
  2.7754759e-06
  9.1528926e-07
 -8.7183216e-06
  2.9692542e-06
  5.8210856e-07
 -2.0389291e-06
 -3.9878232e-05
 -9.8723112e-06
  1.4413986e-04
  8.1586231e-06
 -1.4610519e-05
  1.1925399e-05
 -8.1372113e-05
 -1.1247963e-05
 -5.3662416e-06
 -1.3707086e-05
 -1.0604716e-05
  7.6618417e-06
 -2.2323647e-05
 -3.5557380e-06
 -1.0386096e-05
  5.8901633e-06
 -2.9457453e-05
 -1.3539712e-06
  3.0663500e-07
  2.7006166e-07
 -1.0090202e-05
 -2.6029868e-05
  1.9691292e-06
 -5.8657493e-05
 -6.9436521e-07
 -2.6036891e-05
 -1.1383775e-05
  9.6271042e-06
 -4.0635750e-05
  3.7204281e-05
  6.8635868e-06
  8.4399562e-06
  9.9974359e-06
 -1.5475402e-05
  2.9393241e-06
 -2.8020462e-05
  1.0729563e-05
  1.0164470e-05
  3.8932030e-05
 -2.8112241e-05
  7.5163938e-05
  1.2863839e-05
  6.8322397e-06
 -1.2600048e-05
 -4.5208250e-05
  1.5507269e-06
  2.9285147e-06
  1.0552224e-04
  6.7582687e-06
  7.7508776e-06
 -7.6726974e-06
  1.6347758e-06
  2.0853951e-05
  8.6109712e-06
 -1.0526273e-04
 -4.6984487e-06
  1.2350437e-05
  5.6235665e-05
  6.4241849e-06
 -2.0508255e-06
  1.1624035e-05
  2.3114993e-05
  3.2748156e-07
  2.9238867e-05
 -6.7967172e-05
 -7.7282866e-06
 -5.2802498e-06
  4.3396485e-06
 -4.0625328e-05
  7.8755820e-06
  4.4592898e-06
 -2.2575157e-06
  4.3510867e-05
 -5.2416741e-05
  3.2246776e-06
  1.1184988e-05
 -8.0594573e-06
  3.6409063e-05
  3.5470921e-06
  1.2805862e-05
 -3.8659349e-05
  7.0324809e-06
  6.7806519e-05
  1.0449909e-05
  2.7680442e-05
 -3.1812338e-04
 -2.6944543e-05
 -1.9348656e-04
  7.5602238e-06
  3.4970726e-06
  9.7735074e-06
 -1.1377886e-05
  3.5095925e-06
  3.5022598e-08
  3.3002846e-07
  1.3745554e-05
  1.2679206e-05
 -1.2967336e-01
 -3.8444947e-02
  3.6915197e-05
  2.7032503e-01
  1.2085899e+00
 -9.1093624e-01
 -6.6502875e-01
 -1.4658910e-05
  5.3299539e-02
  6.3261956e-01
  3.1515834e-01
  2.5210800e-04
 -1.7791283e-01
 -9.4965689e-02
 -2.0210223e-01
  2.8406272e-02
  1.0369383e-04
  1.3648890e+00
  7.6871741e-01
  1.1678008e+00
 -3.9495340e-01
  1.6756947e-04
 -5.2592254e-01
 -6.4066763e-04
  1.1548265e-01
 -1.3126873e-05
  1.8064672e-01
 -4.9218597e-06
 -1.3980260e-01
  8.3406031e-01
  4.6969610e-01
 -1.3433442e-02
  2.5486511e-01
 -4.8728746e-01
  1.7284197e-01
 -1.0737455e+00
  4.2237784e-06
 -2.4726042e-01
 -4.6476303e-03
  1.3638138e+00
  1.5269148e-01
  7.4406612e-01
  1.9271888e-02
  1.3915534e+00
 -9.7871280e-01
 -1.6010280e-01
 -5.1584005e-01
 -1.2730208e-05
 -5.5515730e-01
 -3.2465270e-01
 -8.2500413e-02
 -6.1179826e-06
  1.1139956e+00
 -3.5913596e-05
  9.4733306e-04
  1.0191705e-05
 -1.4034494e-05
 -7.0106967e-06
 -1.4229335e-05
 -3.7996182e-05
 -1.0669955e-05
  2.3010807e-06
  2.9011414e-06
  1.8020899e-05
 -1.7191787e-06
  9.5612961e-07
 -3.7476686e-05
  2.5964987e-06
 -3.0657400e-05
 -5.3872877e-06
 -1.0566962e-05
 -4.6880650e-05
  1.0920733e-05
  7.1893032e-07
 -3.7333644e-05
 -7.5260796e-05
  1.2973009e-05
 -8.8019042e-06
 -1.9966890e-06
  4.7851831e-06
  1.1130043e-05
  9.1461488e-06
  4.0442283e-06
  3.8657650e-05
  5.5554742e-06
 -7.0783375e-05
 -1.2958873e-05
  5.1405082e-06
 -3.2501587e-06
 -1.0655493e-05
 -2.7521395e-07
  1.0452236e-05
  1.5879094e-05
 -2.3319084e-05
 -8.0775217e-06
 -5.1751772e-07
  1.0548214e-05
 -4.1811614e-05
  5.4284592e-05
  3.5528992e-05
 -1.4894826e-05
 -1.4074387e-05
  3.6895776e-04
 -7.0336384e-05
  1.3153930e-05
  2.4644633e-05
 -6.2559579e-05
  6.3601656e-06
  5.1875468e-06
  1.3667507e-05
 -1.3024575e-04
  2.1283409e-05
 -3.6473772e-05
 -1.1740296e-04
 -3.5578083e-02
 -2.1680806e-05
  9.4111128e-05
 -4.4773038e-05
  5.5233121e-04
 -8.5361175e-02
 -1.0069032e-05
  1.2375388e-04
  1.3568879e-03
  1.2344757e-01
 -4.1436590e-05
  4.0216494e-04
  4.9988320e-04
 -1.2352783e-04
  3.6096048e-05
  1.3620204e-05
  1.0524255e-05
  2.1940641e-04
  1.3375455e-04
  6.8040797e-05
  4.5821416e-06
 -1.3292269e-05
 -1.2740081e-04
  3.4363468e-06
  4.0875611e-01
  3.3308638e-04
 -6.6817506e-07
 -1.2211052e-04
 -1.2988853e-05
 -1.3870579e-05
 -6.7999295e-05
 -1.0974689e-05
 -2.0306239e-05
 -1.8765319e-05
 -4.0324143e-04
 -1.6007817e-01
 -3.3022534e-02
 -3.5016834e-05
 -6.5822547e-05
 -1.8495417e-06
  7.3692045e-06
  2.6350254e-01
 -1.6971196e-01
 -1.0646560e-05
  5.8910485e-02
  2.5609192e-01
  4.4132319e-01
  9.9702322e-01
  6.8894638e-05
 -2.4238750e-04
  3.6114117e-05
 -1.9838705e+00
  3.5890591e+00
  2.7521109e-02
  5.6399709e-01
 -2.6787906e+00
 -2.1502735e-01
 -1.3197676e+00
  3.5176909e-01
  9.7990918e-01
  1.6886898e+00
 -2.8215480e-01
 -6.7210101e-02
 -7.2813219e-01
 -7.7682698e-01
 -3.5554194e-01
 -3.2572100e-01
 -5.3744256e-02
 -8.2415003e-01
  1.0101662e-01
  1.4801827e-01
 -9.2656106e-01
  9.0542699e-06
 -1.6381960e-01
 -6.7771733e-01
 -7.6778835e-01
 -3.1665852e-04
  6.0854352e-05
  5.9395343e-01
  3.7101060e-01
  8.6261809e-01
  1.2492838e-01
 -8.7880898e-01
 -9.5639207e-06
 -1.0412327e-01
 -8.1764817e-01
  9.5482975e-01
 -9.8276220e-04
  4.9282768e-01
 -4.3094966e-01
  1.2348400e+00
  1.4965124e-01
 -3.5470286e-01
  3.2416247e-02
  3.9845040e-01
  4.5356524e-06
  3.8580257e-01
  2.1794926e-02
  9.0158901e-05
  1.3622537e+00
 -1.0731467e-05
 -6.8817094e-02
 -7.4069179e-03
 -6.3098013e-01
  7.2004989e-02
  3.6109659e-01
  1.7993146e-06
 -2.0121354e-01
  7.3458132e-06
  1.0700712e-05
 -1.0059901e+00
  1.1876185e-05
 -2.8657007e-05
 -1.1631027e-05
  1.1982207e-05
  6.1524463e-01
  5.2579330e-06
 -5.8089725e-05
  1.2151981e-05
 -1.4410530e-05
  1.0353721e-05
  2.1224614e-04
 -6.9941552e-06
 -8.9107280e-06
 -4.1590265e-05
  7.0692413e-06
  1.1402130e-05
  3.5463841e-06
 -3.5311024e-07
  8.1310712e-04
 -7.9909415e-07
  3.4404617e-05
  9.9184699e-06
 -6.7633127e-06
 -1.3808665e-05
 -5.6996712e-05
  6.1283106e-05
  8.0193444e-05
  8.6465971e-06
  1.0409533e-05
 -2.0802720e-04
  2.6892856e-01
  5.2489590e-06
  8.6518079e-02
 -3.4788653e-05
 -1.7950847e-06
  3.7662808e-06
 -6.4870551e-06
 -1.0200123e-05
 -4.0137867e-05
  4.6483751e-06
  1.4352348e-05
  3.9358106e-06
  8.5455176e-06
 -1.0647013e-04
  6.0482256e-05
 -9.4531206e-06
  1.8502238e-05
 -3.9640713e-06
 -7.2045048e-05
 -1.0209877e-05
  1.4885960e-04
  2.6383370e-01
  1.2944945e-05
  8.2798517e-01
 -1.7179018e-01
 -1.0040890e+00
  1.5542359e-05
 -8.5529089e-01
  2.9917267e-01
  6.1840756e-06
 -8.7078281e-02
  3.2468211e-05
  1.4726428e-05
 -3.0633451e-05
 -5.0826538e-06
 -1.2790269e-05
  9.7725487e-01
 -7.7162222e-06
 -1.1684573e-05
 -5.4526818e-01
 -1.2662455e-01
  8.9077920e-01
  1.9333825e+00
  1.0926360e+00
  6.1657585e-05
  2.0088537e-05
 -9.0052608e-06
  4.9468410e-01
  1.1073592e-05
  3.9351708e-06
  1.1599901e-05
  1.3675351e+00
 -9.0077496e-01
 -1.8895444e-01
 -1.2043711e-05
  7.0622402e-05
 -2.4973679e-01
 -1.1382595e+00
  7.4769258e-01
 -3.3980366e-05
  3.8304800e-01
  1.5550728e-01
 -3.3172006e-07
  2.3956143e-05
  6.0902353e-06
  2.8984383e-01
  1.1879456e-05
  1.0197704e+00
  7.6946503e-01
  9.1073357e-02
  2.7668330e-01
 -2.1794094e-01
 -1.2906857e-05
  5.4278815e-01
  1.5972042e+00
  1.5544411e+00
  1.8294293e-01
  8.7828600e-01
  1.5630462e+00
 -2.0535465e-06
 -2.9884877e+00
 -8.7439381e-02
 -1.2507214e-05
 -2.0334312e-07
 -1.5557428e-01
 -3.9490183e-06
  5.8286595e-01
  3.1449134e-05
 -4.5175698e-02
 -3.8962182e-01
 -4.0916023e-01
  3.8872278e-01
  9.4227219e-01
 -7.4307072e-01
  1.3641294e-05
  1.5347277e+00
  4.2319454e-05
 -3.6422598e-01
  9.3633622e-07
  9.5609284e-06
 -5.4124621e-06
  2.4578745e+00
 -5.8884585e-01
 -2.0682715e-01
 -2.0127804e-06
  3.0663109e-01
 -4.5066607e-01
  4.2404413e-01
  1.2206157e+00
 -2.2480832e-04
 -3.1192210e-01
 -3.4128967e-01
 -1.1268735e-05
 -5.5044106e-06
 -2.1817018e-06
 -8.7246048e-01
  1.1800759e-05
 -3.5811299e-01
 -6.2296301e-01
  1.5517029e-01
 -6.1376119e-01
  3.3001867e-01
 -1.0000097e-01
  2.9341939e-01
 -1.6988372e+00
  2.1905231e-01
 -4.1825739e-01
  3.0859724e-01
  1.4572763e+00
  2.5126085e+00
  1.4932387e+00
 -1.3988766e-01
  6.0411614e-01
  3.8113266e-01
  2.1440506e+00
 -1.7509578e-01
  1.3896040e+00
 -1.8197788e+00
  1.6734794e+00
 -1.2497028e+00
  5.3516746e-01
  5.9741360e-01
  6.0407603e-01
 -9.7113317e-01
 -1.0000058e-01
 -1.3590888e+00
  4.1291645e-01
 -8.0309129e-01
  1.9881691e-01
  1.1080759e+00
  2.6150057e+00
  1.0000251e-01
 -4.6867391e-01
 -1.2848281e+00
  1.2612793e+00
  1.4377265e+00
 -1.1708889e+00
  1.6992080e-01
  3.5916132e-01
 -2.2289307e+00
 -8.9332104e-01
  1.0211401e+00
  5.7606298e-01
 -2.7254680e-01
 -5.8148140e-01
 -1.8882742e+00
 -1.6618891e+00
  4.0784111e+00
 -2.3699014e+00
  1.2248611e+00
  1.7196819e+00
 -2.5708644e+00
 -2.6715951e+00
 -2.2009506e+00
 -4.2630041e-01
  8.7612444e-01
  5.3024065e-01
  1.0468682e+00
 -1.4232165e+00
 -6.4594668e-01
  2.9835651e+00
 -2.1054499e+00
  5.0838161e-01
  8.3784217e-01
  2.1074953e+00
  1.4210162e-01
 -1.0000022e-01
  1.2813922e+00
  1.5548542e+00
 -5.2517670e-01
 -3.7768182e-01
  2.6692498e+00
 -1.2782207e-01
 -9.9484158e-01
  8.1106436e-01
  1.1480336e+00
 -6.7204452e-01
 -1.8130827e-01
  4.3050265e-01
  1.4123451e+00
 -1.4196732e+00
 -5.4027379e-01
 -1.0000120e-01
  1.0000036e-01
  1.0884967e+00
  1.4163953e+00
 -6.7874020e-01
 -3.7000579e-01
 -1.5822361e-01
  1.0000033e-01
 -1.5418959e-01
 -1.3041843e+00
 -1.5039350e+00
  1.0003737e-01
 -5.2464002e-01
 -5.8675653e-01
  4.3736187e-01
  9.7364807e-01
  1.0000337e-01
  1.0001472e-01
 -6.4595169e-01
 -5.4438549e-01
  2.0628500e+00
 -1.5246753e+00
 -2.3977814e+00
 -5.8901733e-01
  1.0000002e-01
  8.5511643e-01
 -2.5624425e+00
  5.7289720e-01
  6.5750116e-01
 -1.5654397e+00
 -1.0596925e+00
  1.9781884e+00
  1.0000391e-01
  2.0844357e+00
  1.9355047e+00
  1.0000008e-01
 -2.4048858e+00
 -1.4271665e+00
  6.6140217e-01
  4.6453655e-01
  1.0000250e-01
 -8.5372388e-01
  2.8121030e+00
 -9.8941165e-01
  3.0531245e-01
 -3.8007262e-01
  1.8936083e-01
 -1.2729468e+00
  1.4929742e-01
  1.6618641e-01
 -1.1983335e+00
  1.0000245e-01
 -1.2926471e+00
  1.6433415e-01
  6.9323325e-01
  6.2896192e-01
 -1.8710612e+00
 -1.4809842e+00
  4.1475818e-01
 -2.6241984e+00
 -9.4124705e-01
 -1.3844659e+00
  1.8389896e-01
  1.1653503e+00
  9.4118387e-01
 -9.9593997e-01
  1.0000502e-01
  1.2119317e+00
 -2.4075997e+00
 -8.1539541e-01
  4.7952142e-01
 -5.9279943e-01
 -2.0297161e-01
 -7.2155881e-01
  1.5224781e+00
 -1.0245664e+00
  1.2508391e+00
  3.0967011e+00
  1.6457489e-01
 -1.3215685e+00
 -3.9204258e-01
 -1.0000041e-01
 -6.5204585e-01
 -2.3384348e-01
 -4.6241385e-01
 -1.6311402e+00
 -1.0000565e-01
  3.1599498e-01
 -8.8017374e-01
  2.2239885e+00
  1.0000236e-01
  5.5788827e-01
 -5.9681714e-01
 -1.5633773e+00
 -2.6650071e+00
 -3.1370459e+00
  1.4615691e-01
 -1.8275946e+00
  1.4030411e+00
  1.9744653e-01
  2.4093232e+00
  1.0259515e-01
 -8.4942508e-01
  2.5274961e+00
  1.7786516e+00
  1.0000007e-01
 -7.0244670e-01
  1.0000035e-01
  6.5955669e-01
 -9.6784633e-01
 -1.5838079e+00
 -5.0173557e-01
  1.0077709e-01
 -1.1181459e+00
 -2.0490294e+00
 -1.8290672e+00
  7.2060579e-01
 -1.2544186e+00
 -7.4054366e-01
 -6.6756576e-01
 -6.2734842e-01
 -1.5552663e+00
  1.4393555e+00
  1.3236905e+00
 -6.9782931e-01
  8.0052948e-01
 -1.8634554e+00
  1.0001519e-01
  9.3258631e-01
 -5.5314773e-01
  4.1937408e+00
  4.7938403e-01
  1.0000019e-01
  1.4211721e+00
 -8.7852722e-01
 -3.7026209e-01
  1.7962937e+00
  9.7017509e-01
  1.0004286e-01
 -4.6655959e-01
 -3.0890725e+00
 -2.1288576e+00
  1.0000043e-01
  1.8047789e+00
 -1.0001847e-01
 -2.2573802e+00
  1.7812564e+00
  2.1070759e+00
  1.0000025e-01
 -8.7509108e-01
  1.0000002e-01
 -3.1629095e+00
 -2.9431787e+00
 -1.0661956e+00
 -1.5105894e+00
  4.0092454e+00
  1.0000002e-01
 -2.0896725e-01
 -1.0981617e+00
  1.0000046e-01
  1.0972209e+00
  2.5284978e-02
  2.5284978e-02
  2.5284978e-02
  2.5284978e-02
  2.5284978e-02
  2.5284978e-02
  2.5284978e-02
  2.5284978e-02
  2.5284978e-02
  2.5284978e-02
  2.5284978e-02
  4.5465637e-02
  4.5465637e-02
  4.5465637e-02
  4.5465637e-02
  4.5465637e-02
  4.5465637e-02
  4.5465637e-02
  4.5465637e-02
  4.5465637e-02
  4.5465637e-02
  4.5465637e-02
  2.5835413e-02
  2.5835413e-02
  2.5835413e-02
  2.5835413e-02
  2.5835413e-02
  2.5835413e-02
  2.5835413e-02
  2.5835413e-02
  2.5835413e-02
  2.5835413e-02
  2.5835413e-02
  1.5193031e-02
  1.5193031e-02
  1.5193031e-02
  1.5193031e-02
  1.5193031e-02
  1.5193031e-02
  1.5193031e-02
  1.5193031e-02
  1.5193031e-02
  1.5193031e-02
  1.5193031e-02
  1.0317245e-02
  1.0317245e-02
  1.0317245e-02
  1.0317245e-02
  1.0317245e-02
  1.0317245e-02
  1.0317245e-02
  1.0317245e-02
  1.0317245e-02
  1.0317245e-02
  1.0317245e-02
