nep4 6 H C N O S Cl 
cutoff 8 4 26 25
n_max 4 4
basis_size 8 8
l_max 4 2 0
ANN 5 0
 -1.4378748e+00
  2.1342578e+00
 -9.8077279e-01
  7.3457235e-01
  1.9974399e-01
  8.6293042e-02
  9.5846766e-01
  1.9794729e+00
  6.3777232e-01
  3.0319971e-01
  2.1561961e+00
  1.0482507e+00
  9.3623817e-01
  2.4988880e+00
  3.7901416e-01
  1.2836795e+00
 -1.1250596e+00
 -8.6309135e-01
 -1.9211708e+00
  2.9152162e+00
 -3.9424419e-01
  1.5136158e+00
 -1.0985266e-01
  3.8474354e-01
 -5.0093168e-01
  5.8413541e-01
 -1.7996049e-01
 -1.9273438e-01
 -1.3333814e+00
 -2.3044963e-01
  5.6582451e-01
 -1.7724502e+00
 -8.6967808e-01
 -7.7971882e-01
  1.4197954e+00
  1.5337019e+00
  2.5206900e+00
  8.8120125e-02
 -5.1838297e-01
 -3.0676377e+00
 -1.8159999e+00
 -1.6693152e-01
 -3.6477327e-01
 -1.6002890e+00
 -3.7368383e-02
 -1.7793162e+00
  1.9747846e+00
  3.9439020e-01
 -3.6369162e+00
  1.2672433e+00
 -1.1167636e+00
  6.4298883e-02
  5.9412513e-02
  1.0600230e+00
 -4.7583809e-01
  1.9469435e+00
 -1.0239606e-01
 -4.5964539e-01
  1.7589451e+00
 -9.0766174e-01
  6.6464536e-02
 -2.7849584e+00
  6.3994622e-01
  1.3148226e+00
  1.3166808e-01
 -9.1582042e-01
  4.7963399e-01
  9.2656749e-01
 -1.7749119e+00
  4.5869192e-01
  1.3614939e+00
  3.6608672e-01
  3.2555115e-01
 -3.8484281e-01
  1.6997398e+00
  5.1240104e-01
  1.4731884e+00
 -3.0236497e+00
 -2.0983305e+00
  8.1543601e-01
 -1.5926633e+00
  9.7020739e-01
  2.9528335e-01
  1.4034174e-01
 -5.5680972e-01
  1.5614364e-01
  2.3627882e+00
 -1.5504836e+00
 -1.1219977e+00
 -7.2771353e-01
 -4.9959174e-01
 -1.0832602e+00
 -5.0157690e-01
 -3.4952715e-01
 -1.0115077e+00
 -2.3363665e-02
  1.2220052e+00
  1.3884417e+00
 -1.3858018e+00
 -2.9798579e-01
  2.1112790e+00
  4.5104486e-01
 -3.5713542e-01
 -3.0371304e+00
  1.4253327e-01
  2.3917923e+00
  8.1409320e-02
  5.2905685e-01
  1.6054747e+00
 -2.3508933e+00
 -7.8447998e-01
  1.5092862e+00
  4.3391716e-01
 -8.0308652e-01
 -1.9194947e+00
 -7.6297736e-01
  3.2225223e+00
  1.6761763e+00
  1.0519285e+00
 -5.0852340e-01
  9.7531253e-01
  4.3568289e-01
  2.4192950e-01
 -5.7133722e-01
 -1.4775555e+00
  8.2580370e-01
  5.2601360e-03
 -4.9252856e-01
  1.7749182e+00
 -6.3218725e-01
  2.0552115e+00
  1.2131311e-01
 -1.3581909e+00
 -1.1412489e+00
 -3.6884066e-01
  9.3258041e-01
 -1.5184639e-01
  5.0242031e-01
 -3.6991495e-01
 -1.0690758e+00
  2.3632276e+00
 -4.5107538e-01
  1.0058266e+00
 -1.8302205e+00
  9.5954165e-02
 -1.3108437e+00
  3.2094651e-01
  9.7403497e-02
  9.7665817e-01
  1.9454887e+00
 -1.3107886e+00
 -3.3993655e-01
  2.0712352e+00
 -4.4433775e+00
 -7.5250661e-01
 -7.7096903e-01
 -7.9401886e-01
 -3.7272474e-01
 -1.8765384e+00
 -1.1091756e+00
  1.0830437e+00
 -5.2741563e-01
 -1.0130737e+00
 -9.5255655e-01
 -3.3067364e-01
 -1.9382126e+00
 -5.1392204e-01
 -2.8360048e-01
 -1.5798479e+00
 -7.1696383e-01
  1.3778093e+00
  1.7387214e+00
  6.7518063e-02
 -3.6681366e+00
  5.9431583e-01
  1.7400000e+00
  3.0356681e+00
  6.6085076e-01
 -2.8843722e+00
  1.1268991e+00
 -2.0583036e+00
  8.8495356e-01
  1.1857073e+00
  1.1465232e+00
  2.4103360e-01
  3.3652408e+00
 -3.4223208e+00
  4.3221974e+00
 -2.6477554e+00
 -7.9800203e-02
 -2.1662445e+00
  1.9773638e+00
 -2.3430436e+00
 -2.9002702e-01
 -2.3894794e-01
  3.3002466e-01
  1.0700916e+00
 -8.0796957e-01
  4.0260577e-01
 -6.1442500e-01
  1.7794089e+00
 -1.0832657e+00
 -1.7273725e+00
 -2.1476831e-02
 -3.7907490e-01
  6.1289537e-01
  6.7109650e-01
 -7.2435237e-02
  8.8070661e-02
  2.0773647e+00
  3.0818064e+00
 -9.2949092e-01
 -1.0072664e-02
 -1.1501544e+00
  6.7334998e-01
 -2.4903102e+00
 -2.6656966e+00
 -1.1612089e+00
 -1.2190053e+00
  1.6619151e+00
 -1.5006158e+00
 -4.5603061e-01
  5.9758747e-01
  3.5619542e-01
  1.0409214e+00
  1.8383709e+00
  1.0594492e+00
  1.2867205e+00
 -6.8145686e-01
  1.2769655e+00
  2.4290423e+00
  2.1222572e+00
 -1.0647845e+00
  9.5092309e-01
  5.4010105e-01
  1.2907689e+00
 -5.3146939e+00
  5.8981246e-01
  1.0017018e+00
  5.3581589e-01
  1.0915738e+00
  1.9179921e+00
 -1.3869073e+00
 -6.9480956e-01
  2.5397208e+00
 -8.6498189e-01
 -1.5219181e+00
 -5.1486570e-01
  2.0760343e+00
 -2.6054134e+00
  7.3799002e-01
 -1.1228520e+00
  2.5441560e-01
  1.0194864e+00
 -1.5122850e+00
 -1.1144474e+00
 -2.0065627e+00
 -7.4606597e-01
 -1.1397858e+00
 -2.1425412e+00
 -3.1093879e+00
  6.8696827e-01
  2.5445217e-01
  1.3171171e+00
 -8.7210667e-01
 -6.2384146e-01
  6.4404035e-01
  2.7117131e+00
 -1.3058436e+00
 -3.5691643e-01
 -1.8090005e+00
 -7.8860044e-01
  4.7566053e-01
  8.3897245e-01
  1.4126779e-01
  3.4905190e+00
  9.9627785e-02
 -2.7761710e+00
 -2.7054799e-01
  7.1836197e-01
 -3.1764171e+00
 -5.4598629e-01
 -8.9957684e-02
 -2.3334186e-01
  1.1641328e+00
  2.7512440e-01
  7.1660984e-01
  1.7855386e+00
 -7.6906800e-01
  2.3148379e-01
  7.1117014e-01
  4.2599207e-01
  4.9848658e-01
  1.1877868e-01
 -9.5810449e-01
 -2.4286771e+00
 -2.9331776e-01
 -1.3735864e-01
 -2.7264757e+00
  3.3881679e-01
 -4.0907222e-01
  6.8968022e-01
 -1.7973739e+00
  6.6009545e-01
  4.5808382e+00
 -9.7234681e-02
 -2.0758772e-01
 -5.0431204e-01
 -3.5102785e-02
 -7.2184300e-01
  1.3036388e+00
  5.0301564e-01
  5.7168317e-01
 -6.0411358e-01
 -9.9400949e-01
  3.7421560e+00
  1.8732148e+00
  1.3971838e+00
 -2.5858104e+00
  9.9474657e-03
 -1.2552885e+00
 -7.6205981e-01
  2.0963345e+00
 -9.6234739e-01
 -1.0294837e+00
  1.9507182e+00
 -1.1924307e+00
 -6.2445879e-01
 -2.0120282e+00
  1.7686197e+00
  2.7129367e-01
  2.1050523e-01
  6.0090244e-01
  3.2355247e+00
  1.1513009e+00
  3.9201102e-01
  1.3200295e+00
  5.0502270e-01
 -1.4339928e-01
  1.7123958e+00
  1.2282441e+00
  2.7225847e+00
 -1.7140515e+00
 -1.2162131e+00
  4.2298245e-01
  6.8662894e-01
  6.3624388e-01
  1.2952856e+00
 -1.9818136e-01
 -4.6432614e-01
  7.1856119e-02
  1.0560580e+00
 -1.1528846e+00
  2.5936532e+00
  5.9351331e-01
  1.1571777e+00
  3.4721327e-01
  5.1249313e-01
  1.9938130e+00
  1.4647451e-01
  8.3416456e-01
  1.9585795e+00
 -2.5697408e+00
  2.1891394e-01
 -1.4644294e+00
 -1.2712569e+00
 -7.8228766e-01
  6.1886430e-01
  4.1522411e-01
 -1.1879981e+00
  9.1776296e-02
 -2.1131256e-01
  4.4810244e-01
 -4.1438412e-02
  8.6537138e-02
  1.4404026e-01
 -3.4632766e-01
  1.5573249e+00
 -2.2796571e+00
 -2.5407597e-01
 -9.7985888e-01
  1.8648257e+00
  1.2395686e+00
 -9.5866877e-01
 -1.9121151e-01
  1.1185900e+00
  2.9601544e-01
 -3.2059422e-01
 -1.9064827e+00
 -3.5077907e-02
  1.5397176e+00
 -2.3995110e-01
  4.7229263e-01
 -2.3505168e+00
  4.6153831e-01
  1.5480277e-01
  5.8712566e-01
 -1.3185694e+00
 -1.5267913e+00
  3.6591291e-01
 -3.1446927e+00
 -7.3701519e-01
  1.7018642e-01
  7.7801806e-01
 -1.9914129e-01
 -7.3042226e-01
 -1.2177452e+00
 -3.1902817e-01
 -1.9837101e+00
  1.1404154e+00
 -2.0219035e-01
 -7.8917366e-01
 -9.9691474e-01
 -1.8971254e-01
  2.1283352e+00
  1.3807118e-01
  3.1983116e-01
  2.5213192e+00
 -1.7426741e+00
  3.4105465e-01
 -1.8094113e+00
  5.2397788e-01
 -7.0104969e-01
 -3.2888291e+00
 -1.2411456e-01
  2.6053822e+00
  8.8195801e-01
  1.4205406e+00
  1.3359574e+00
 -1.6166039e+00
 -2.5935239e-01
 -1.7967080e+00
  8.1129473e-01
 -1.0941302e+00
  1.7385958e+00
  1.0304655e-01
  2.2925623e-01
  2.5211304e-01
  1.8165542e-01
  2.3702490e+00
  2.2710655e+00
 -1.5174402e+00
  1.3258108e-01
 -9.7463921e-02
  7.4010313e-01
  1.3522871e+00
  2.2714642e-01
 -3.4916615e-01
  1.1096199e+00
  5.7461900e-01
  8.1573540e-01
  8.3638632e-01
  8.7777483e-01
  1.4488931e+00
 -1.1150795e+00
  1.0919305e+00
 -4.6112657e-01
  4.7871265e-01
  1.7953317e+00
  1.7070666e-02
  2.8482373e+00
  1.1028055e+00
  6.8034565e-01
  2.2532458e+00
  1.1755960e+00
 -2.2116187e+00
  5.4294534e-02
 -5.5398923e-01
  2.8144425e-01
 -5.0235826e-01
  1.7124981e+00
  1.6923451e+00
 -2.7879915e-01
 -3.1462212e+00
  8.8499713e-01
  1.5746723e+00
 -1.2294388e+00
 -2.4393232e-01
 -1.8030983e+00
 -2.3505995e-01
  9.2952317e-01
  4.6152014e-01
 -3.1762013e-01
 -3.4135818e-01
 -1.4161211e-01
 -2.3840043e-01
 -1.4273113e+00
 -1.9846925e+00
  3.9921129e-01
 -1.8962198e+00
  1.1927161e+00
 -4.0030465e+00
  1.3903627e+00
  1.7799107e+00
  1.6943178e+00
 -1.1951386e+00
 -2.5087090e+00
  6.0323572e-01
  5.5939722e-01
  1.1845691e+00
 -3.0125568e+00
  1.0009311e+00
 -1.7962860e+00
 -1.3197219e+00
 -2.7292106e+00
 -1.8926940e+00
 -8.9523450e-02
 -5.3771955e-01
  3.5088681e-02
 -1.4525800e+00
 -4.1796789e-02
  2.3084684e-01
  3.5467055e+00
  3.8992327e-01
  1.3972429e+00
  1.5924875e+00
 -1.1628336e+00
 -3.4566686e-01
 -1.0055296e+00
  6.5634286e-01
 -6.6113025e-01
 -3.2676548e-01
 -4.9872980e-02
 -1.7822444e-02
 -9.2193097e-01
  1.7756592e+00
 -1.8391122e+00
  1.0792426e+00
 -1.8980439e+00
 -8.9313900e-01
 -2.0635753e+00
  1.1824493e+00
 -4.4975844e-01
 -4.6561432e-01
 -1.3482951e+00
 -1.2271118e+00
 -1.1119276e-01
  2.6228896e-01
 -1.3452107e-01
 -5.1219320e-01
 -3.6188516e-01
 -8.9944226e-01
 -1.3730079e+00
 -7.1579382e-02
 -3.3242589e-01
 -3.6200266e+00
  6.0373202e-02
 -2.0653060e-01
  1.2331545e-01
  1.7156214e-01
  1.0802929e+00
 -5.3926176e-01
  8.8657963e-01
 -5.1608527e-01
 -1.2985405e+00
  2.6911059e-01
  7.2048724e-01
 -1.6598769e-01
 -2.2331667e+00
 -4.9385729e-01
 -9.3205750e-01
  6.7044932e-01
  4.3132716e-01
 -5.1660359e-01
 -3.0647233e-02
 -7.7381599e-01
  6.3105452e-01
  1.5865682e-01
  2.0505720e-01
  1.1354288e+00
  1.1079270e+00
 -1.2485304e+00
  4.5235910e-02
  1.6139237e+00
 -3.9623722e-02
 -2.7892807e-01
 -1.2658021e+00
  1.4074949e+00
 -1.6749842e+00
  3.3946636e+00
  7.6335591e-01
 -6.6650283e-01
  7.2594821e-01
  1.2037534e+00
  3.6827502e-01
  7.8135568e-01
  1.6513624e+00
 -2.2116363e-01
 -3.4409216e-01
 -1.0704489e+00
 -2.4288297e+00
 -9.6628368e-01
 -5.1396344e-02
  9.0332878e-01
  5.5101824e-01
  2.6012349e+00
  1.2595854e+00
  8.7374800e-01
 -1.0649143e+00
  1.3150574e+00
  1.8046225e+00
 -2.1483016e+00
 -1.7254245e+00
  8.0790186e-01
  1.6170557e+00
  5.5992264e-01
  5.8311331e-01
  3.7653294e-01
  2.1866159e-01
  5.7651883e-01
 -1.6893879e+00
  1.1542556e+00
 -3.7131498e+00
 -8.3380032e-01
  1.3661674e+00
 -1.7817194e+00
  2.7916255e+00
  1.3357536e+00
 -3.7154734e-01
 -2.6458018e+00
  1.3111898e+00
  1.4029742e+00
 -5.8679193e-02
 -5.1697105e-01
  2.0397937e+00
 -6.5776952e-02
 -1.9716187e+00
 -1.9260436e-01
 -1.8421413e-01
  2.0561855e+00
 -4.5172387e-01
 -1.7202247e+00
  4.3264660e-01
  5.3180695e-01
  9.1065079e-01
 -1.2198280e+00
 -2.3482821e+00
 -7.8326339e-01
  2.8761551e-01
  4.7629544e-01
 -7.2122693e-01
  3.4926444e-01
 -1.2704998e+00
  5.1416600e-01
  1.5297805e+00
  1.1440572e+00
  2.6974982e-01
 -1.8184645e-01
  1.2060345e+00
  2.8934106e-01
  2.8807714e+00
  4.8808679e-01
  2.0644501e-01
  1.2643445e+00
 -2.3472916e-01
  3.3722484e-01
  1.0676675e+00
 -5.9697509e-01
  5.3443763e-02
 -2.9567394e-01
 -4.3916559e-01
  6.6195059e-01
 -1.0502717e+00
  2.1814151e+00
 -1.2761652e+00
  1.3380430e+00
  2.6536298e-01
  4.2622691e-01
 -2.9146293e-01
  2.8523084e-02
 -1.4375167e-01
 -3.1526849e-02
 -3.2969885e+00
 -1.6993191e+00
  5.7950437e-01
  7.5543952e-01
  4.5986436e-02
 -3.7805685e-01
  7.0591515e-01
  1.7427609e+00
  1.3876952e+00
  2.7920043e-01
 -1.0547236e+00
  8.8636434e-01
 -9.6940637e-01
  3.2390943e+00
  2.1590512e+00
 -1.0455673e+00
 -4.2761990e-01
 -4.8033401e-01
  1.8156229e+00
  2.1963906e+00
 -3.4820023e-01
  3.4000492e+00
  2.9389547e-02
  5.9233874e-01
  7.4796140e-01
 -2.8416891e+00
  4.4560859e-01
 -3.8635287e-01
 -5.4081023e-01
 -2.4025168e+00
  3.4452415e-01
  1.7052106e+00
 -3.7329239e-01
 -3.9891225e-01
 -2.9993966e-01
 -1.7187487e+00
 -1.1301979e+00
 -6.2117290e-01
 -1.7337097e+00
 -5.8130229e-01
  5.1391792e-01
 -5.0500405e-01
 -3.1258039e+00
  1.3095254e+00
 -2.7365358e+00
  4.2233637e-01
  2.3319817e-01
  8.8059509e-01
  5.0223339e-01
  1.5154346e+00
 -6.4668870e-01
 -2.0935316e+00
  1.4149871e+00
 -8.9561448e-02
  5.5698190e-02
 -2.0612605e-01
  1.8968992e-01
  1.9508790e+00
  2.8815201e-01
  5.1668596e-01
  5.1219624e-01
  1.7464478e+00
 -1.0779548e-01
  3.0384904e-01
 -5.5167586e-01
 -3.3777180e-01
  7.3247492e-01
  2.3309298e+00
  2.3688003e-01
  2.8025470e+00
  2.4826832e+00
  1.6656551e-01
  3.1032932e-01
  1.3998946e+00
  2.6518369e-01
  1.0352883e-01
 -1.0076303e+00
 -3.2136393e+00
 -2.3638791e-01
 -1.3169216e+00
 -3.5878100e+00
  1.1020333e+00
  1.3511585e+00
 -9.8093760e-01
  7.0056647e-01
 -1.1492151e+00
  7.3166054e-01
 -1.9876434e+00
  5.9101456e-01
 -8.2523906e-01
 -3.0172881e-01
  1.3158985e+00
  3.6759120e-01
 -1.2933515e+00
 -2.1181300e+00
 -1.6081541e+00
  2.0763206e-01
  3.2339861e+00
 -1.0312405e+00
  9.3729120e-01
  5.4166466e-01
 -6.8543023e-01
  2.7655213e+00
  1.7964321e-01
  1.6725065e+00
 -2.1064060e+00
  1.9768158e-01
 -1.4345345e+00
 -1.4329541e+00
  1.1870917e-03
  1.1669400e-01
  2.4473810e+00
 -5.4263657e-01
 -9.9296856e-01
 -3.2583052e-01
 -3.4136158e-01
 -1.7645197e+00
  3.5178736e-01
  9.9157226e-01
  1.4201227e+00
  9.7381073e-01
 -1.4191648e+00
 -1.1462653e+00
  3.0426230e+00
  5.2211781e+00
  1.6866496e-01
  2.4132831e+00
 -2.2067663e-01
  8.1758296e-01
 -2.3752505e-01
 -3.6081731e-01
  7.2887743e-01
  1.3699751e+00
  3.4126577e-01
  1.8316280e+00
  5.5706841e-01
 -1.6125256e-01
  3.7769485e+00
 -2.3032727e+00
  1.2521658e+00
  1.1522577e+00
 -1.1696700e+00
 -1.1474365e+00
  5.5625099e-01
  7.0088655e-02
  9.7197372e-01
  5.7040697e-01
  6.2106025e-01
 -1.3038684e+00
 -1.0711528e+00
 -3.5478356e-01
  6.0772634e-01
 -2.2183059e-01
 -7.1665353e-01
  7.7410823e-01
 -5.2870274e-01
 -1.6264063e-01
  8.9492761e-02
 -1.1258456e+00
 -6.8759668e-01
 -1.0840451e+00
 -2.0567901e+00
  1.4071006e-01
  1.0690801e+00
 -7.3020452e-01
  1.5688466e+00
 -4.1567206e-01
  3.9313731e+00
  2.0073333e+00
 -1.4714353e-01
  7.3860115e-01
  1.0820570e+00
 -4.5555687e-01
 -1.8195686e+00
  4.3613040e-01
 -1.0395645e+00
  8.6262226e-01
  2.6547205e+00
  1.2159318e+00
  1.6511658e+00
  7.4828976e-01
  4.5883036e-01
 -4.6711165e-01
  2.3631265e+00
  6.0733640e-01
  5.2052987e-01
 -2.2053750e+00
  4.2447850e-01
  1.0300884e+00
  7.3435235e-01
 -1.4288336e+00
  6.1197501e-01
  8.1588462e-02
  4.0244564e-01
 -1.0398848e+00
 -2.0037091e+00
  1.0151553e-01
 -8.0059808e-01
 -8.3172731e-02
 -1.8100123e+00
 -2.2538006e-04
 -5.7727295e-01
  9.9669957e-01
 -4.3524772e-01
 -4.0566199e-02
  1.4009846e+00
  1.0670557e-01
  2.5585752e+00
 -2.5846988e-01
 -2.2931240e+00
 -5.1398635e-01
  4.0301681e-02
 -1.4243585e+00
  2.2185245e+00
 -1.6001759e+00
 -1.5319221e+00
 -1.2843727e+00
  2.0404875e+00
 -7.4984354e-01
  9.8519737e-01
  4.3367338e-01
  3.0573821e-01
  3.1060287e-01
  6.7456037e-01
  2.3832374e+00
  2.6392035e+00
  9.0430838e-01
 -2.0467630e-01
  3.1448996e+00
  1.2811972e+00
 -2.3057804e+00
  7.9301196e-01
 -1.6868842e+00
  4.4801727e-02
 -1.4195180e+00
  3.1209149e+00
 -9.8386645e-01
  3.2160497e-01
 -2.8331652e-01
  3.9784724e-01
  1.0334758e+00
 -1.9485976e+00
 -1.0909935e+00
  2.3096144e+00
 -1.1541493e+00
  4.9607438e-01
 -7.4567124e-02
 -1.3048220e+00
  2.9374092e+00
  3.4044508e-02
  8.3313495e-01
  3.4107747e+00
 -1.1757479e+00
  1.3006839e+00
 -2.4395714e+00
 -9.1535050e-01
 -1.2309135e+00
  8.8404559e-02
 -1.1006248e+00
  8.4895450e-01
 -5.3957796e-01
  1.9845580e-01
  9.1763407e-01
 -5.0394446e-01
  2.8336307e-01
 -3.0975940e+00
 -1.3107013e+00
  5.5045074e-01
  1.0834422e+00
  1.5099962e+00
 -2.6410604e+00
 -1.1963227e+00
  3.4211662e-01
 -1.3615029e+00
  1.0742911e-01
  5.8643639e-01
 -1.1068052e+00
  1.1552038e+00
 -7.8384125e-01
 -1.5473720e+00
 -1.5272783e+00
 -4.3319024e-02
 -2.0447122e-01
 -3.5886478e-01
  2.6462035e+00
  7.7354199e-01
  1.4299611e+00
  4.4819921e-01
 -4.7586989e+00
  5.5204620e+00
 -6.7884856e-01
 -1.4496086e+00
 -9.7824788e-01
 -1.6804916e+00
  1.8864000e-01
 -1.0318184e+00
 -7.4496216e-01
 -2.2150549e-01
 -5.2330381e-01
 -1.7412577e+00
 -8.7505805e-01
  4.3796211e-01
  1.7303964e+00
  7.9136729e-01
  1.4201602e+00
  1.5416090e+00
  5.3687167e-01
 -1.8949977e+00
  3.1333011e-01
 -9.9891680e-01
 -1.4933282e-01
  3.7278984e+00
 -1.7323525e-01
 -6.0915357e-01
 -1.6155461e+00
  2.0479305e+00
  1.2995337e+00
 -2.0878434e+00
 -1.6760058e+00
 -2.3216004e+00
  6.0276234e-01
 -2.4410030e-01
 -3.2992074e-01
  1.2021219e+00
 -9.4590092e-01
 -9.8489553e-01
 -1.1811248e+00
 -5.5521339e-01
 -7.2096813e-01
  1.2548788e+00
 -1.0839506e+00
 -5.7130659e-01
 -2.0001807e+00
 -1.7014686e+00
 -7.8551710e-01
 -3.0674958e-01
  3.3748856e+00
 -8.1328273e-01
 -1.5853292e+00
 -2.1116831e+00
 -1.1648130e+00
 -5.2934468e-01
 -3.2710126e-01
 -1.0649064e+00
 -1.7719525e-01
 -2.2336893e+00
  2.5070119e-01
 -8.0005002e-01
  2.3902149e+00
  3.1939301e+00
  6.7499036e-01
 -9.6635276e-01
  3.2872868e-01
 -1.2419516e+00
 -1.5206289e+00
  1.6409039e+00
 -9.1850984e-01
  1.2176930e-01
  2.4541128e-01
  2.0486069e+00
  4.5269197e-01
 -1.0282214e+00
 -2.3689768e-01
  2.0294671e+00
 -9.7978061e-01
 -1.6938145e+00
  5.0916123e-01
  3.2249541e+00
  3.4696836e+00
  8.5946208e-01
  9.8158461e-01
  6.7837566e-01
 -8.7909800e-01
 -3.2445829e+00
  1.2478423e+00
 -7.6206976e-01
 -6.0190457e-01
  1.3528126e+00
  1.7337157e+00
  2.6735878e-01
  5.4713511e-01
 -1.4361933e-01
  9.0312803e-01
  1.2723613e-01
 -4.0664133e-01
  3.5580602e-01
  1.0414120e+00
 -2.2860758e+00
 -1.9075778e+00
  1.0126901e+00
  1.3845098e+00
  4.8007679e-01
  5.9431589e-01
 -8.2355767e-01
  2.5410220e-01
 -5.0917447e-01
 -6.7345005e-01
 -4.3551087e-01
 -2.1656533e-01
  5.1552790e-01
  3.2304728e-01
 -1.2109802e+00
 -9.3291527e-01
  7.4942136e-01
 -4.1791639e-01
  7.1198618e-01
  3.5875905e+00
 -1.1559689e+00
 -1.0300200e+00
 -3.3577219e-01
 -1.1889147e-01
 -1.5768573e+00
 -3.9182870e+00
  2.3079650e+00
 -5.4464519e-01
  1.1498518e-01
  1.1392851e+00
  7.5380158e-01
  1.1481396e+00
  3.0545421e+00
  2.6654587e+00
  1.1480736e+00
 -1.5576141e+00
 -1.1123179e+00
 -1.1505487e+00
 -1.1445619e+00
 -4.7483870e-01
  3.0060470e-01
  1.5223892e+00
 -5.1308852e-01
  5.2248484e-01
  1.0455197e+00
 -8.6120284e-01
 -2.4596527e-01
 -7.9569525e-01
 -9.8029518e-01
 -1.2501670e+00
 -3.1989568e-01
  3.8597402e-01
 -1.6250709e+00
  1.5517694e-01
 -9.4473648e-01
 -1.5441056e+00
 -1.1776592e-01
 -1.4202422e-01
 -1.4564793e+00
 -2.1290791e+00
  1.6733900e+00
 -1.7903570e+00
 -6.8419868e-01
 -1.6696863e+00
 -5.3583938e-01
 -6.3476098e-01
 -1.0936736e+00
  2.2458778e-01
 -9.3450016e-01
  6.9010627e-01
 -1.0748153e+00
  1.0629354e-01
 -2.8465560e-01
  4.6637809e-01
 -5.7406008e-01
 -1.6357663e+00
  2.8248972e-01
  3.5971749e-01
 -7.4573958e-01
  1.0129409e-01
  1.0404853e+00
 -7.2306401e-01
 -1.1211580e+00
  3.0305786e+00
 -4.4811070e-01
  8.2605273e-01
 -3.6299270e-01
 -1.5569580e+00
 -1.2670085e+00
  5.6143928e-01
  3.1431121e-01
 -2.3217185e+00
  8.3819944e-01
  1.5533552e+00
 -1.6212384e-01
 -3.4400029e+00
 -1.0758879e+00
 -2.0636783e+00
  1.2689486e-01
 -4.3786314e-01
  4.4412363e-01
  8.3110833e-01
  1.7399710e-01
  2.1451914e-01
  2.2172987e+00
  6.9332099e-01
  3.4690803e-01
 -1.4581808e+00
 -7.5331783e-01
 -1.8321946e-01
 -4.3833396e-01
 -1.5787670e-01
  2.3445752e+00
  3.9693388e-01
 -6.7843759e-01
 -3.7703776e-01
  3.2938571e+00
  1.0241407e+00
 -6.2563884e-01
 -1.7756557e+00
 -1.0394367e+00
 -9.7227824e-01
  1.8102305e-01
  1.2560654e+00
 -1.0577296e+00
  1.1990422e+00
  9.7051251e-01
 -4.0841731e-01
  5.3970367e-01
 -1.0391214e+00
 -9.9364316e-01
  1.0266358e+00
  8.9207339e-01
  1.5368047e+00
 -3.8410801e-01
 -6.4305127e-01
 -9.9150878e-01
  7.9480481e-01
  9.2653203e-01
 -3.0366802e-01
 -2.5640209e+00
 -2.9117322e-01
 -6.2730885e-01
 -1.6383575e+00
  2.9276788e-01
 -1.4053416e+00
 -2.1336989e+00
 -1.6372308e+00
 -1.8234991e+00
  9.0722644e-01
 -2.5645852e-01
  1.5927427e+00
 -1.8739337e+00
  2.2597912e-01
 -9.9346727e-01
  2.1612498e-01
 -1.5260314e+00
  1.3278412e+00
 -1.5303156e+00
  7.3861140e-01
  3.6053291e-01
 -8.6497831e-01
 -6.6733539e-01
 -2.7014058e+00
  4.0611008e-01
  3.6692673e-01
  8.6717850e-01
 -1.0433512e+00
 -1.9256043e+00
 -4.5131263e-01
  7.2843808e-01
  2.1429777e+00
 -6.8765360e-01
 -1.6088358e+00
 -1.4419320e-01
 -2.1037745e+00
  1.4115250e-01
 -7.4591428e-01
 -6.9824064e-01
 -4.4025499e-01
 -1.9044140e-01
 -1.5464529e+00
 -2.1287036e-01
  1.1348737e+00
  4.0361428e-01
  4.0406063e-01
  8.4548253e-01
  5.3282243e-01
 -4.8151159e-01
 -1.4506213e-01
  1.6147667e+00
 -2.1156830e-01
 -8.2780731e-01
 -1.0718277e+00
  1.6461740e-01
  1.1578697e+00
  2.6299474e-01
 -4.9936441e-01
 -3.5831219e-01
 -8.8615155e-01
  5.2810508e-01
  2.2699654e+00
  2.0685580e-01
 -1.3148406e+00
  5.8710682e-01
 -6.8039465e-01
  1.8118361e-01
 -7.5191259e-01
  5.5505383e-01
  1.3419510e+00
 -9.8327088e-01
 -1.2942420e+00
 -8.2407141e-01
  7.5741100e-01
 -5.7698029e-01
  1.0110332e+00
  1.6975304e-01
  1.9165691e+00
  2.4230716e+00
 -9.7761166e-01
  1.1480036e-01
  4.8254916e-01
  7.5860775e-01
 -2.0529563e+00
  4.7481665e-01
 -4.1595128e-01
  1.5297982e+00
  2.3131223e+00
  7.2962976e-01
  1.6511053e+00
 -7.7096438e-01
 -4.9964625e-01
  3.7629473e-01
 -7.4972034e-01
  3.7087743e+00
  6.2957054e-01
  1.5844781e+00
 -1.3265532e-01
  2.2742939e+00
 -1.2342027e+00
 -3.8789007e-01
 -7.3463947e-01
  4.6214429e-01
 -1.4283612e-01
 -7.6874715e-01
 -1.3648827e+00
  2.7976227e+00
 -2.9009929e+00
 -6.6553032e-01
 -8.5361713e-01
  8.8707650e-01
  1.5184737e+00
 -1.2520199e+00
  1.0010933e+00
  8.5896349e-01
 -1.0042009e+00
 -1.0830232e+00
 -1.3360392e+00
 -1.7405406e+00
 -6.9776762e-01
 -2.9952011e-01
 -1.6905624e+00
  3.5146699e+00
  1.2716001e-01
  2.2077477e+00
 -1.0710126e+00
  8.9965707e-01
  2.9310292e-01
  1.7317680e+00
  3.3587260e+00
  1.6105337e-01
 -2.1677570e+00
  2.2114699e+00
 -2.5988990e-01
 -1.5726969e+00
 -2.4699216e+00
 -6.5905005e-01
  1.4062119e+00
  1.3387455e-01
  2.1330333e-01
 -2.4267662e+00
  2.5111091e-01
  2.8732976e-01
  6.4910799e-01
  1.1104147e+00
  1.6346315e+00
 -1.9218960e-01
  1.1146522e-01
 -2.0340982e-01
  1.4564211e+00
  1.6241455e+00
  4.7742662e-01
  1.1728705e+00
 -8.1295323e-01
  3.2077835e+00
  2.6826799e-01
  3.7499586e-01
  1.7565242e+00
 -1.5547897e+00
 -1.2283088e+00
 -1.1172166e+00
  3.9222834e-01
 -5.8798563e-01
  8.7331259e-01
 -1.2238060e+00
 -5.0182623e-01
 -4.4462651e-01
 -4.2760620e-01
 -6.8364418e-01
 -5.3813827e-01
 -2.2141117e-01
 -1.9126457e+00
  3.3785770e+00
  9.1301441e-01
  3.8980371e-01
 -8.7448323e-01
 -9.1029167e-01
 -1.4468137e+00
 -6.4445245e-01
  1.5263927e-01
 -3.1532323e+00
 -1.1781653e+00
 -1.8033834e+00
  9.0777296e-01
 -7.1759862e-01
 -1.1577398e+00
  4.1601962e-01
  6.1603492e-01
  1.0524254e+00
  3.3421693e+00
 -1.1367229e+00
  8.0300975e-01
  1.3030133e-01
 -2.2290814e+00
  1.7007698e+00
 -4.7536555e-01
 -1.3345643e+00
  5.0990695e-01
 -2.6793644e-01
  6.6604996e-01
 -2.1731884e+00
 -2.3247797e+00
 -3.7905679e+00
 -1.7417116e+00
  2.5892967e-01
 -1.5719384e-01
 -2.9383085e+00
  2.6115796e-01
 -1.5867541e+00
 -7.3767960e-01
  4.3353900e-01
 -3.3707529e-01
  1.1185308e+00
 -1.8957159e-01
 -1.0509913e-01
  1.0259569e+00
  5.8972806e-01
  7.4787110e-01
  8.4871411e-01
 -4.9373555e-01
  2.3260948e-01
  2.3630995e-01
 -5.2345240e-01
  3.0486518e-01
  2.0754826e+00
  1.3736782e+00
  1.8184415e+00
  5.0688189e-01
  3.5667636e+00
  2.3591134e-01
 -2.1648743e+00
  9.8276144e-01
 -2.1437376e+00
 -4.3065467e-01
 -8.4497124e-01
  2.4852028e-01
 -1.7577646e+00
  2.2644479e+00
  9.4599605e-01
  1.6586678e+00
 -1.9994563e-01
  1.5572155e+00
  1.9377309e+00
 -3.2934269e-01
  2.8701360e+00
 -4.8694310e-01
  4.8051196e-01
  2.6508224e+00
  6.6264796e-01
  2.8894377e-01
 -1.4462664e+00
 -3.3241805e-01
 -9.2633748e-01
 -8.5826254e-01
 -5.5627656e-01
  9.6595681e-01
  1.2222825e+00
 -2.9272950e-01
 -8.4864634e-01
  9.1088986e-01
  1.0737977e+00
  1.3705742e+00
  2.7868903e-01
  2.9352984e-01
 -3.6515865e-01
 -1.3478038e+00
  1.9411769e+00
  1.2477924e+00
  1.6185200e+00
  1.6245863e+00
 -2.4464571e+00
  9.7176409e-01
  1.6771357e+00
  6.2811559e-01
  3.7597057e-01
 -1.2264783e+00
 -2.2557485e+00
 -3.9803858e+00
  1.2255213e+00
  1.1049773e+00
  2.4374941e-01
  3.0547184e-01
 -1.9406501e+00
  3.0941193e+00
 -2.0740125e+00
  6.5099049e-01
 -3.7690309e-01
 -1.1217989e+00
 -3.4672111e-01
  3.2870150e-01
  9.8981035e-01
  1.5743744e+00
  1.1513699e+00
 -1.3913314e+00
 -7.5799674e-01
  1.9724170e+00
  3.4657332e-01
 -2.0681291e+00
 -1.7434394e+00
 -1.2122564e+00
 -4.4169524e-01
 -2.5355726e-01
  1.6103034e+00
  1.8084431e-01
  1.1538531e+00
  1.2348568e+00
  4.7965565e-01
 -2.9505112e+00
  1.4277781e+00
 -2.9789388e-01
  1.1272508e+00
  6.2404335e-01
 -2.3992610e+00
 -9.9535835e-01
  6.2222046e-01
  1.4868175e+00
  8.7299800e-01
 -7.4159980e-01
  3.8241327e+00
  1.3987590e+00
  1.0978522e+00
  1.7283766e+00
  1.6910919e+00
  3.7105423e-01
  9.0703815e-01
  1.4822466e+00
  3.7657127e-01
  1.9915720e+00
 -1.2212876e+00
 -9.0728259e-01
 -1.2894831e+00
 -8.3889169e-01
  3.0355768e+00
  2.7900109e-01
 -5.1956397e-01
 -6.7454743e-01
  5.9284675e-01
 -6.8001306e-01
  8.3671379e-01
  5.6447405e-01
 -1.4603808e+00
 -9.7342545e-01
  6.0653454e-01
  5.7667446e-01
 -7.5408721e-01
  5.1886719e-01
 -9.7654921e-01
 -2.0891884e-01
 -6.4369911e-01
  1.6565729e+00
  5.1600945e-01
 -3.6430377e-01
 -3.5321338e+00
 -6.8737048e-01
 -3.3916420e-01
  3.5805297e-01
 -4.5391047e-01
 -4.9674138e-01
  2.9596108e-01
  2.6082430e+00
 -1.8316377e+00
  6.5700972e-01
  8.3127189e-01
 -5.7129437e-01
 -1.6791748e+00
  6.1932242e-01
 -3.0387261e+00
 -3.1015368e+00
  1.1497219e+00
 -2.5176734e-01
 -1.7688857e+00
  3.3148998e-01
  1.7087778e+00
 -1.9993235e+00
  2.0088208e-01
 -2.0537356e-01
  1.7562503e+00
  3.7808231e-01
 -5.0994521e-01
  2.0525544e+00
 -2.7881888e-01
  4.2988780e-01
  1.9903770e-01
 -8.3806992e-01
 -2.0926601e-01
  1.8526154e+00
  6.3661414e-01
 -5.3498071e-01
 -4.3392137e-01
 -7.5908518e-01
 -1.3255429e-01
  1.3515849e+00
  2.6850309e+00
 -1.5446713e+00
  3.5344335e-01
  1.3601669e+00
  7.6141655e-01
  2.1428239e+00
  1.2352794e+00
 -1.2051078e+00
  7.3229265e-01
  2.9216242e-01
  7.5721103e-01
  1.2946038e+00
  1.4750959e+00
 -5.5013472e-01
 -1.1361700e+00
 -7.4758095e-01
 -1.7014074e-01
  9.8517013e-01
  8.1523114e-01
 -4.4350636e-01
  2.6447049e-01
  5.4435515e-01
  7.0816278e-01
  2.0756924e+00
 -2.4093151e-01
 -7.5103253e-01
  2.1773062e+00
 -1.2405852e+00
 -1.9379108e+00
  1.3127513e+00
 -1.8363501e+00
  6.3023037e-01
  7.3360878e-01
  1.1435360e+00
  4.3526149e-01
 -1.1482204e-01
  1.2020793e-01
 -3.3212236e-01
 -1.7603299e-01
 -9.2702436e-01
 -1.2636942e+00
 -1.6046809e+00
  9.8475188e-01
 -2.5501587e+00
 -8.0465925e-01
  6.5968680e-01
  1.6603218e+00
  5.0844538e-01
  9.5169818e-01
 -2.8819261e+00
  7.3754948e-01
 -3.5383156e-01
 -5.5510342e-01
  6.7036504e-01
  1.3769984e+00
 -1.5365311e+00
 -4.5426708e-01
 -2.1618026e-01
  1.4117457e+00
  1.3965756e-01
 -4.2490697e-01
 -4.3626168e-01
  1.5089163e+00
 -1.2680949e+00
 -5.2000374e-01
 -1.2189022e+00
  2.7931383e+00
  3.5190711e+00
  2.9588625e+00
  3.0317078e+00
  2.6794067e-01
 -9.2101127e-01
  2.4125903e+00
 -1.4064227e+00
 -1.8698446e+00
  1.3707419e-01
  3.2688266e-01
 -6.1417580e-01
 -1.4713249e+00
 -2.7259111e+00
  3.8479754e-01
  4.0359506e-01
 -5.1921082e-01
  2.1946003e+00
  5.3030169e-01
 -4.5260975e-01
 -3.2442078e-01
  2.1194196e+00
 -3.5272053e-01
 -8.4123653e-01
 -2.8209150e-01
 -9.7510129e-01
  6.9040549e-01
 -4.3014973e-01
  3.5713705e-01
  3.3648673e-01
  7.9166335e-01
  7.2048301e-01
  2.1225584e-01
 -1.4142122e+00
  1.4522952e-01
  2.9088700e+00
  2.1952705e+00
  2.1781886e+00
 -1.9708893e-01
  1.0488354e+00
  1.2203512e+00
  4.2379296e-01
  2.2685657e+00
  6.9368750e-01
 -2.8743765e-01
 -1.0438813e-01
 -3.7156242e-01
  7.3262423e-01
  3.0565432e-01
  1.0975870e+00
  1.0914197e+00
 -4.5714328e-01
 -5.8378798e-01
  1.4309132e+00
 -1.7126696e+00
  1.0535021e+00
  3.6606023e-01
 -6.8494618e-01
  2.9003552e-01
 -4.5710340e+00
  1.8753242e-01
  4.5986924e-01
  3.2847622e-01
  2.3999453e-01
  2.3200176e+00
 -1.9971422e+00
 -5.5807149e-01
 -6.4818949e-01
 -1.1103317e+00
 -6.8978447e-01
  6.3222724e-01
 -4.7843375e+00
 -1.4951358e+00
 -1.1074107e+00
  9.0511441e-01
  2.3584571e-01
  2.0823094e-01
  3.6790304e+00
 -2.7083645e+00
 -9.0915960e-01
 -1.9172688e+00
  1.9696462e+00
  1.2867578e+00
  6.8758893e-01
 -1.4461181e+00
 -2.1202240e+00
 -1.7748764e-01
  1.3678004e+00
  2.9753408e+00
 -6.9654763e-01
  1.3589938e+00
  2.5936690e-01
  9.2151529e-01
 -4.1215399e-01
 -1.0086519e+00
 -5.7713598e-01
 -5.4127932e-01
 -1.8758766e-01
  3.3174777e-01
 -1.6014353e+00
  7.5825226e-01
  3.5496304e+00
  2.5022233e+00
 -8.9367515e-01
 -3.3263472e-01
  4.6942151e-01
 -2.3469850e-01
  1.8772755e+00
  1.1054461e+00
  2.4557710e-01
  3.1557199e-01
  8.3641553e-01
  2.5702660e+00
 -2.5325255e+00
 -3.2898316e-01
  4.3338269e-01
 -7.5338477e-01
  5.2675858e+00
 -1.1648383e+00
 -1.6041586e+00
  1.3832203e-01
 -1.8348042e+00
 -1.3321121e+00
  1.8687019e-01
  3.3447680e-01
  2.1957581e-01
  1.1668943e+00
 -1.3796519e+00
  2.2918627e-01
  3.6601775e+00
 -1.0563353e+00
  7.9967731e-01
 -3.3028957e-01
  2.4483728e-01
 -7.4622852e-01
  1.9861864e+00
 -9.5367795e-01
  9.1385657e-01
  2.2654444e-01
 -4.3123236e-01
 -2.4320135e-01
  1.2830122e+00
 -1.7447999e+00
 -2.9862907e+00
  2.1374080e+00
 -2.7012002e-01
  1.5310160e+00
  1.4097456e+00
 -2.5196159e+00
  3.4269914e-01
  1.4192836e+00
  2.2140963e+00
 -2.2211733e+00
 -1.1845007e+00
 -3.3493617e-01
 -1.1232206e+00
  1.1462123e+00
 -8.4339249e-01
 -7.7175534e-01
  6.0906661e-01
 -3.9615226e-01
  1.5691565e-01
 -5.1075864e-01
 -1.6195278e+00
 -4.1675368e-01
  1.5519710e+00
 -1.5103356e+00
 -1.2356126e+00
 -7.9692733e-01
  2.9231634e+00
 -2.7572101e-01
  2.0782866e+00
  9.7267550e-01
 -1.1295017e+00
  6.4692688e-01
  3.1772780e-01
 -3.4066841e-01
  5.6028008e-01
 -7.7460194e-01
 -1.3559315e-01
  3.2872586e+00
 -9.3582207e-01
 -3.6642176e-01
 -1.4262520e+00
  1.6305777e-01
  2.5835010e-01
  6.6812497e-01
  1.5800743e-01
  4.5497125e-01
 -7.5605202e-01
 -2.3278898e-01
  1.7111992e+00
 -2.2677329e-01
  7.6629418e-01
  1.1916391e-01
 -2.0121684e+00
  2.5613773e-01
  1.0857363e+00
 -1.0573827e+00
  1.0321665e+00
  7.8583169e-01
  1.0868564e+00
  3.0966887e-01
  5.7649714e-01
 -3.4473102e+00
  2.8025126e-01
  9.3278080e-01
 -1.7242447e+00
 -1.3591012e-01
  7.4374890e-01
 -1.5136338e+00
  4.8426399e+00
 -1.0292967e-01
  1.4351063e+00
  1.6531545e+00
 -8.0793220e-01
  8.7004244e-01
  4.0999073e-01
  7.3558879e-01
 -8.3403116e-01
 -1.8617144e-01
  1.1520728e+00
  2.8618765e+00
  2.1271946e+00
  2.0590274e+00
 -3.8985565e-01
  2.3725486e-01
  5.3671014e-01
 -3.3450851e-01
 -1.0307246e+00
  8.6124605e-01
 -1.0290763e+00
  1.0283583e+00
  3.9680043e-01
 -1.0891119e+00
  1.0795895e+00
 -3.7070394e-01
 -1.0364734e+00
  2.5791171e-01
  1.4002659e+00
  6.8483996e-01
 -7.3457044e-01
  2.1130354e+00
  2.2552578e+00
 -1.4751066e-01
  1.5708064e+00
  5.0062990e-01
  2.8141296e-01
 -4.0097612e-01
  2.0784097e+00
  5.3780836e-01
 -3.7954739e-01
  9.7831315e-01
  5.8693981e-01
 -6.5354401e-01
 -1.6324335e+00
  6.1019427e-01
  3.6673677e-01
  7.0656997e-01
  1.8385540e+00
  2.9766658e-01
  1.1304749e+00
 -1.4035146e+00
 -2.2635603e-01
 -1.2029856e+00
  5.5728579e-01
 -1.9219400e+00
 -2.0507748e+00
  2.1746440e+00
 -1.4289979e+00
 -1.8946655e+00
  9.5833564e-01
  1.1910217e+00
 -4.2036419e+00
  1.2268641e+00
 -3.5779276e-01
  3.0737195e+00
  1.0598917e+00
 -3.4122305e+00
  1.6100869e+00
  1.3672168e+00
 -2.3194118e+00
 -2.8721166e+00
 -4.6884426e-01
 -6.4024973e-01
 -3.1709945e+00
 -4.3555835e-01
  2.6983497e+00
 -6.2977523e-01
 -1.1403687e+00
  9.2081225e-01
 -1.0465259e-01
  1.5224487e+00
  2.2150394e-01
 -3.1440678e-01
 -1.6170302e-01
  6.3995010e-01
 -8.1234926e-01
 -1.5447336e+00
 -1.2487421e+00
 -2.8234458e-01
 -5.1322097e-01
  1.6256489e+00
  1.3808908e+00
 -1.4355787e+00
  7.3212051e-01
  5.1411784e-01
 -5.7437551e-01
  3.0789227e+00
 -3.7024900e-01
 -9.3909168e-01
 -1.3831731e+00
 -1.7417769e+00
 -7.9389960e-01
  1.8347924e+00
 -1.7719170e+00
  4.5844641e-01
  1.1472147e+00
 -2.9990640e-01
 -1.1903377e+00
 -1.5724987e-01
 -4.5394060e-01
  3.1294358e+00
 -3.4230825e-01
  1.2660335e+00
 -6.3668877e-01
  1.5703431e-01
 -2.3667474e+00
  7.8990310e-01
  6.5997028e-01
  3.5575864e-01
 -1.3520243e+00
 -1.7771382e+00
  1.8309907e+00
  9.7783923e-01
 -1.6811619e+00
 -1.1282326e+00
  9.0485251e-01
  2.2511366e-01
  1.7382595e-01
 -1.3734661e+00
  4.5225635e-01
  1.4261129e-01
  2.2738879e+00
 -6.6699868e-01
  2.7795970e+00
  2.4984035e+00
 -1.2272226e-01
 -1.7752433e-01
  1.6366563e+00
 -4.9621817e-01
 -2.7486593e-01
  2.9214165e+00
  1.3507423e+00
 -6.3836777e-01
  1.1262802e+00
 -2.1606596e+00
  5.1736391e-01
  4.6600199e-01
  6.2170100e-01
 -1.4810377e+00
 -3.2562023e-01
  2.8027630e+00
 -2.7136443e+00
  3.0313082e+00
 -1.2259290e+00
  6.6775829e-01
 -1.0141501e+00
 -3.8662297e-01
  5.1990408e-01
 -7.5147933e-01
 -1.3218879e+00
 -5.3029871e-01
  1.4078540e-01
 -1.0028682e+00
  1.9881432e+00
  1.9642198e-01
  2.9559524e+00
 -1.0148588e+00
  2.1365669e+00
  4.5529839e-01
  1.5334742e+00
 -1.1483355e+00
  6.1766088e-01
  1.5303690e+00
  4.2702918e+00
  2.4419209e-01
  1.0502013e+00
 -5.1600134e-01
 -1.2491691e+00
  2.5275302e-01
 -3.3128414e+00
 -2.1442139e-01
  1.0071747e+00
  1.0705613e+00
  1.8816265e-01
  2.2602828e+00
 -1.3104370e+00
 -8.4608477e-01
 -2.6321247e+00
 -3.1105816e-01
  1.8381287e-01
 -1.9821453e+00
 -4.0248409e-01
 -3.3131847e-01
 -3.5138834e+00
 -1.6125509e-01
  2.6397467e+00
 -2.5999528e-01
 -1.1320442e-01
 -1.9696781e-01
  8.2508171e-01
  7.4143481e-01
  8.2302773e-01
  2.3535421e+00
 -2.7276903e-01
  3.2282903e+00
 -8.0402774e-01
  7.8881514e-01
  1.0946898e+00
 -2.3644254e+00
  1.5453458e+00
 -2.6639995e-01
  2.6613110e-01
  2.6918602e+00
 -1.7873784e+00
  8.3967102e-01
 -9.7836787e-01
 -4.2103128e+00
 -1.0741357e+00
  1.3645577e+00
  7.3602444e-01
  1.9679359e-01
 -1.2707323e+00
  1.1559716e+00
 -2.7107975e-01
 -2.9243395e-01
  1.2345566e+00
 -1.3568366e+00
  1.7714249e+00
  1.0387975e+00
  3.4487786e+00
  3.4896312e+00
 -7.1445584e-01
  1.7165536e+00
  3.5851619e-01
 -1.2376043e-01
  5.7816637e-01
 -1.1227247e+00
 -1.5068723e+00
 -4.7612444e-01
 -6.5876037e-01
 -1.3127633e+00
 -1.3060808e+00
 -3.1316624e+00
  2.1000173e+00
 -2.4499328e+00
 -1.1886109e+00
 -1.5557531e+00
 -1.0031681e+00
  1.1413965e+00
  2.4081531e-01
 -2.9766393e-01
  1.5873295e-01
  1.5055634e+00
  3.2614055e-01
 -1.4918323e+00
 -1.2600482e-01
 -3.3577332e+00
  1.1241471e-01
  4.9199116e-01
 -1.7084391e-01
  1.1371942e+00
  1.2595269e-01
 -1.7504761e-01
 -5.0350523e-01
 -3.2122588e-01
  1.2652528e-01
  2.1679485e-01
 -1.8202987e+00
  6.1814880e-01
  2.2556967e-01
  2.0942762e-01
 -1.4566226e+00
  9.9692142e-01
 -1.0201130e+00
  1.0865879e+00
  7.6656109e-01
 -4.0230194e-01
  4.9365419e-01
  5.1029611e-01
 -4.8419121e-01
 -2.7613136e-01
 -2.2865602e-01
 -5.0524276e-01
 -9.7093266e-01
 -1.8246117e-01
 -7.6237458e-01
  3.0044594e-01
 -2.1523663e-01
  8.7417734e-01
 -4.1964543e-01
  1.3041532e+00
 -6.7337245e-01
 -1.0021778e+00
 -4.3710628e-01
  1.6130671e-01
 -4.1315237e-01
  1.0066099e+00
 -8.3748507e-01
  4.6376055e-01
 -1.6044644e+00
 -3.7202609e-01
 -4.3107766e-01
  2.8183630e-01
 -2.0642298e-01
  2.0284445e+00
 -3.0854354e+00
 -8.3085114e-01
 -4.1532046e-01
  1.1549940e+00
  5.0534326e-01
  1.7925134e+00
  2.2370401e-01
 -6.4004284e-01
 -1.0137790e+00
  4.0039703e-01
  7.4721622e-01
 -3.2917171e+00
 -3.3065143e-01
 -8.1445181e-01
  1.0163648e+00
  1.3182731e+00
 -4.2670202e+00
 -1.6323996e-01
  1.8973162e+00
 -7.0629424e-01
  5.0228637e-01
  5.1463062e-01
 -2.0318875e-01
 -6.4715308e-01
 -6.6922247e-01
 -9.3330997e-01
 -2.6757524e+00
  8.3281213e-01
  6.9223589e-01
 -5.8612645e-01
 -1.2773392e-01
  5.3043509e-01
  6.3134217e-01
 -2.2541100e-01
  1.8213633e-01
 -3.4386399e-01
  1.0439197e+00
  3.5373363e-01
 -3.3829284e-01
  4.5047602e-01
 -1.4231013e+00
 -2.3012239e-01
 -5.1027328e-01
  1.2416991e+00
  3.8997030e-01
  2.3193429e+00
  1.0546994e+00
 -1.3288242e-01
 -7.9665411e-01
  1.3040234e-01
  1.7415730e+00
  8.1299663e-01
  3.1313071e+00
 -1.5573875e+00
 -1.3512533e+00
 -5.8766854e-01
 -2.5350077e+00
  3.7620088e-01
  2.4619503e+00
  1.0794089e+00
 -1.0686765e-01
  2.0373385e+00
 -5.4698259e-01
 -4.5915374e-01
 -5.2227938e-01
  1.0514249e+00
 -4.8565629e-01
 -1.3818543e+00
  1.9899521e+00
 -6.1793113e-01
 -1.6998093e-01
  5.5133605e-01
 -2.6247380e+00
  1.0491883e+00
 -2.0748973e-01
  4.6321169e-01
  1.9151779e+00
  1.4189163e-01
  1.9784472e+00
  1.4382030e+00
  1.0461549e+00
  1.8477988e-01
  1.1701926e+00
  1.3248420e+00
 -1.5962452e+00
 -1.7505196e+00
  2.5614116e-01
 -2.3989153e+00
 -5.7206136e-01
 -1.6254181e-01
  6.3885993e-01
  9.6507823e-01
  2.6170132e+00
 -2.4654844e+00
  1.2691767e+00
 -6.8446153e-01
  4.6083885e-01
  2.1626306e-01
 -4.2964122e-01
  4.1644688e+00
 -2.6980519e-01
  2.2528238e+00
  5.2180505e-01
 -2.8321276e+00
  1.5586126e+00
  2.0565188e+00
 -1.4880902e-01
 -3.5325515e-01
  1.3349602e+00
 -1.3907092e+00
  1.2099557e+00
 -2.0766251e+00
 -8.2641065e-01
 -8.6508507e-01
  1.2558844e+00
  2.2141507e-01
  2.0410541e-01
  3.5722411e-01
  1.1712714e+00
  2.5402343e-01
 -1.0005479e+00
  1.7898129e+00
 -1.1336281e+00
 -1.0368012e+00
 -1.0638362e+00
  2.0170562e+00
  2.8737497e+00
  6.2614757e-01
  3.2843527e-01
 -9.7133428e-01
 -2.3397195e+00
  3.2973891e-01
 -4.2119136e-01
  5.7464260e-01
 -1.5815035e+00
 -2.2545376e+00
  1.0765724e+00
 -7.2173929e-01
 -2.7242954e+00
 -5.1230639e-01
  4.0050364e+00
 -2.9213870e+00
  6.5571070e-01
 -6.5232074e-01
  9.5798826e-01
 -2.7564055e-01
  7.5550073e-01
  1.7167500e-01
  1.0136951e+00
 -1.2578899e-01
  9.4904816e-01
 -8.5461569e-01
 -4.4878781e-01
 -1.0566688e+00
 -3.3868444e-01
 -1.6109701e+00
 -1.8612283e+00
  2.7919874e+00
 -3.1779327e+00
  1.4814837e+00
 -1.3032920e+00
  4.4723627e-01
 -1.3697423e+00
 -3.8105842e-01
 -4.3515894e-01
  2.9687810e-01
 -7.3168993e-01
 -6.1608523e-01
 -8.4247959e-01
  7.3652613e-01
 -1.9986096e-01
 -8.2833159e-01
  1.2401371e+00
 -2.9937618e+00
  2.5200877e-01
 -1.4277216e+00
  1.6869866e+00
 -2.2924564e+00
  1.5374129e+00
  5.6210655e-01
  6.4805847e-01
  8.3579457e-01
  2.3878837e+00
  3.1889671e-01
  1.8522555e+00
 -3.0416015e-01
  1.5807089e+00
  7.4411821e-01
  1.7394462e-01
  2.8562050e+00
  1.0932293e+00
 -9.5334262e-01
  2.8410358e+00
 -1.6030236e+00
 -8.2852203e-01
  4.4367657e+00
  1.0480926e+00
 -8.3685541e-01
  3.3430150e-01
  3.9200513e+00
  1.0940698e+00
  1.5680625e+00
  9.3639827e-01
  1.7625141e+00
  1.1773907e-01
  3.9394125e-01
  6.2492669e-01
  6.0512489e-01
  1.1080033e-01
  1.6979040e+00
  2.0262733e+00
  4.2046186e-01
  1.8130252e-01
 -2.0586815e-01
 -6.1858648e-01
  8.7705642e-01
  3.4605670e-01
  8.5594285e-01
  8.6782271e-01
 -4.0925640e-01
  1.2737587e-01
  2.9819722e+00
  2.4655291e-01
  9.0406144e-01
  1.2973133e+00
 -6.7249370e-01
 -3.0697000e-01
  1.1364403e-01
  1.2483392e+00
  4.2960885e-01
 -2.1682317e+00
  4.3933254e-01
  7.6766992e-01
  1.0165423e+00
  4.2219722e-01
 -2.3039699e-01
 -8.7133735e-01
 -7.9888570e-01
 -1.5900458e+00
  1.6236460e+00
 -4.8211694e-01
 -1.6868334e+00
 -9.6558511e-01
 -2.5105503e-01
 -7.5307381e-01
 -1.6499968e+00
  1.2274325e+00
  3.0100432e-01
 -2.9225972e+00
 -2.2904949e+00
  1.3886150e+00
  1.3696371e+00
 -3.9857882e-01
  1.8647665e+00
  1.0447592e-01
 -1.0639699e+00
  1.3686062e+00
  4.7991690e-01
 -7.0819247e-01
 -4.1485626e-01
  1.4190170e+00
 -1.3551041e+00
  1.3506369e-01
 -1.6556150e+00
  4.8948866e-01
  3.9369717e-01
  7.8121752e-01
 -1.0199706e-01
 -5.1934534e-01
  2.3073459e-01
 -7.6901698e-01
  5.0320393e-01
  1.0068380e+00
  4.9811825e-01
  1.3949560e+00
  8.5933107e-01
 -1.6203338e+00
 -1.2741084e-01
  1.2208905e+00
 -6.7558229e-01
 -1.3496437e+00
  6.7337835e-01
  8.0960536e-01
 -4.9859372e-01
  3.1579916e+00
  1.0356122e+00
 -2.8555028e+00
 -1.5530548e+00
 -8.6296320e-01
 -3.2964635e-01
 -2.8447444e+00
  3.7604660e-01
 -1.0436141e+00
 -2.4229670e+00
  4.9877915e-01
 -1.2100040e+00
  1.7761800e+00
 -1.3873032e+00
 -3.5107186e-01
  7.1603209e-01
 -1.2222009e+00
  3.0758898e+00
  9.3503690e-01
  1.4017342e+00
 -3.9816666e-01
  2.7586442e-01
 -2.4049482e-01
  9.5092130e-01
  4.8006277e+00
 -2.4525418e+00
  1.2464814e+00
  7.7746856e-01
  1.2027764e-01
 -8.3302516e-01
 -2.4238941e-01
 -1.0950761e-01
 -2.1866253e-01
  4.8190960e-01
  8.0844420e-01
  5.2904588e-01
  1.0239451e+00
  5.1627493e-01
 -1.2688200e-01
 -1.6651469e-01
 -1.0787990e+00
 -1.9747535e+00
  7.5163829e-01
  1.3245521e-01
 -2.2224274e+00
  1.2583067e+00
  2.5841491e+00
  3.1284332e+00
 -1.3658135e+00
 -1.1972632e+00
 -2.4778599e-01
  5.5676645e-01
  1.2481016e+00
  4.4506541e-01
  2.4265376e-01
  1.5673614e-01
 -1.1728210e+00
 -6.8791264e-01
  3.2266059e+00
  1.2802364e+00
  1.0285612e+00
 -3.5301954e-01
 -5.3877389e-01
 -3.0438781e-01
 -6.9742787e-01
 -7.3213983e-01
  2.9332387e+00
 -5.2050501e-01
 -3.9146787e-01
 -2.2306187e+00
 -8.1464547e-01
  1.6594639e-01
  2.5057313e-01
  2.8490427e-01
  1.5262718e+00
  2.3406997e-01
  1.9965543e+00
 -1.4170394e+00
 -6.9752622e-01
  9.3946457e-01
  6.0349286e-01
 -1.6906744e+00
 -2.6823571e+00
  1.4545357e+00
 -1.3972648e+00
 -1.3464952e+00
 -2.6532345e+00
 -5.3242302e-01
  8.5475832e-01
  4.7206530e-01
  1.7807630e-01
  1.3383505e+00
 -1.5574387e-01
  1.4323312e+00
 -5.8442664e-01
  1.6164194e+00
 -1.4119607e+00
 -1.9248925e+00
 -2.3626953e-01
 -2.3079093e+00
  1.5417339e-01
 -2.4916289e+00
 -3.7816185e-01
  2.3929417e+00
  2.1856239e-01
 -5.2342618e-01
  1.4517534e-01
 -4.6840093e-01
 -1.5649235e+00
  1.1563972e+00
 -1.7706801e+00
  1.1575977e-01
 -1.2402639e+00
 -1.0287309e-01
  1.3707997e+00
 -1.6698895e+00
 -4.1925421e-01
 -1.2174761e-01
 -1.0253160e+00
 -1.5619168e-01
 -2.8342199e-01
  4.2002773e-01
  1.2212368e+00
  2.8162271e-01
 -1.5188175e+00
 -3.2002169e-01
  2.5858825e-01
 -2.3890612e+00
  1.5837262e+00
 -1.0576029e-01
  8.6398679e-01
  1.1868616e+00
 -3.2412329e-01
  2.1828609e+00
  1.1942096e+00
  7.4126732e-01
  3.7765223e-01
 -4.4082731e-01
  2.2766820e-01
 -1.1660022e+00
  4.3737164e-01
  1.1481524e-01
  1.4655396e-01
  1.1223928e+00
 -3.3039987e-01
  1.4887525e+00
  5.5845505e-01
  1.1055619e+00
 -1.3165935e+00
 -2.7447002e+00
  6.3391012e-01
  5.1958126e-01
  8.7966365e-01
  2.6455164e+00
 -1.7371297e-01
 -1.3408151e+00
 -2.7560183e-01
  1.8434267e+00
  2.7835035e-01
  2.7604523e+00
  5.2845252e-01
  4.2400572e-01
 -2.0023444e+00
  3.5195595e-01
 -7.5550222e-01
  5.5246204e-01
  1.3525637e+00
  1.5528522e+00
  4.0970197e+00
  2.9962380e+00
  1.5765781e+00
 -2.9866713e-01
 -8.5167497e-01
 -1.0490817e+00
 -6.5144700e-01
  1.5963815e+00
  1.3153758e+00
  1.6082128e+00
 -1.0055549e-01
  3.3269140e-01
  1.5194386e+00
  1.6931696e-01
 -1.0910535e+00
 -2.4999292e+00
 -5.0586468e-01
  2.9288812e+00
  3.9673191e-01
  3.0627263e-01
  1.2812087e-01
  8.8563609e-01
 -8.5753030e-01
  1.5289133e+00
 -6.0551226e-01
  5.1905257e-01
  1.3710514e+00
  2.3287647e+00
  2.1740322e+00
  2.9833925e-01
 -1.2677266e-01
 -5.3782570e-01
 -2.6615554e-01
 -2.5457287e+00
 -8.1832135e-01
 -1.1922714e+00
 -1.6621301e-01
 -1.9984974e+00
  1.1562886e+00
 -3.5111353e+00
  3.5643771e-01
 -2.2176477e-01
  2.0984587e-01
  1.3732117e+00
  2.2268085e+00
  1.0212301e+00
  5.8958846e-01
 -1.5031704e-01
  9.0886545e-01
 -6.0248935e-01
  2.3229668e-01
  6.7840987e-01
  1.6011798e+00
 -1.2976320e+00
  7.9035771e-01
  1.4841794e+00
 -4.0224645e-01
 -5.9852600e-01
 -2.5197959e+00
  3.7932823e+00
  9.8198026e-01
 -3.2050386e-01
 -7.3369020e-01
 -7.2735846e-01
  2.6104128e+00
 -4.7168365e-01
  4.1993245e-01
 -5.7671094e-01
 -2.1232247e+00
 -8.1017357e-01
  8.9430231e-01
 -2.5084343e+00
 -1.6379386e+00
  1.1833743e+00
  1.4088422e+00
 -1.2724836e-01
  1.0594562e+00
  2.3989737e-01
  6.2569404e-01
 -1.2223494e+00
 -7.5124234e-01
 -1.7595476e-01
  1.1589764e+00
 -7.5376987e-01
  1.4181901e+00
 -1.1500975e+00
  4.0709820e-01
 -2.0411351e-01
 -9.0965307e-01
 -4.3077407e+00
 -1.7784377e+00
 -8.6682743e-01
  1.0205780e+00
  6.8887943e-01
 -1.3339134e+00
  1.3879035e+00
  2.2623272e+00
 -7.7952588e-01
 -2.4110296e+00
  1.0854127e-01
 -1.5664173e+00
  2.4840360e+00
 -3.9267695e-01
  8.9892840e-01
 -1.2635901e+00
  2.9274561e+00
  3.1590838e+00
  3.2015667e+00
  3.2854722e+00
  5.0808996e-01
 -1.0279037e+00
  1.5570605e+00
  3.3541682e+00
  9.8565620e-01
  5.8278751e+00
  4.8313756e+00
 -7.3441535e-01
  3.3761923e+00
  9.6667999e-01
  3.1233377e+00
 -3.2714692e-01
  6.8877459e-01
 -2.3890278e+00
  8.7426323e-01
  5.2110291e-01
  1.9848949e-01
  4.8697519e+00
 -2.1277000e-01
  6.7917204e-01
 -1.2650068e+00
 -3.2165033e-01
  1.1491420e+00
 -7.3613948e-01
  5.0633883e-01
  2.0866618e+00
  2.0561311e+00
 -8.0921143e-01
 -6.1455828e-01
 -1.1575276e+00
  3.5706654e+00
 -6.4245224e-01
  6.5874004e-01
 -1.9384068e-01
  2.1935718e+00
  1.5350064e+00
 -1.6683061e+00
  4.3139148e-01
  2.1017757e-01
 -8.8226432e-01
  1.9030746e+00
  6.1879921e-01
 -1.1561997e+00
 -1.7106339e-01
 -1.8851575e-01
 -2.6880279e-01
  2.2035539e-01
  1.1221299e+00
 -3.4175897e-01
  1.3488506e+00
 -5.4750484e-01
 -8.1019950e-01
 -1.2132142e-01
  3.0789323e+00
 -1.4378520e+00
  1.6232297e+00
 -9.4306022e-01
 -4.3213034e-01
  3.5803244e-01
  9.0595698e-01
 -1.7843902e-01
  6.6316968e-01
  2.1477944e-01
 -4.6883109e-01
 -2.8674370e-01
 -1.2236036e+00
 -1.5081089e+00
 -1.3243669e+00
  1.0651177e+00
  2.0528296e-01
  1.2022736e+00
  2.7022407e+00
 -1.0126232e+00
  1.5527804e+00
 -4.4192681e-01
 -1.4872508e+00
  2.4403274e+00
 -6.2556076e-01
  2.1903050e+00
  2.4608734e-01
  1.4363217e+00
 -1.8575668e+00
 -3.3513820e+00
  1.3598202e+00
 -1.4590256e+00
 -3.5493106e-01
  1.4983764e+00
 -1.5783159e+00
 -9.2774731e-01
 -7.1476287e-01
 -4.2262071e-01
  9.9711758e-01
 -1.5749073e+00
  3.1083069e+00
  2.2869408e-01
 -1.0633399e+00
  6.6111338e-01
  2.6141644e-01
 -2.7458960e-01
  8.5677570e-01
 -1.7275522e+00
 -1.1655591e+00
 -1.0358202e-01
 -6.5753919e-01
 -3.8504359e-01
 -1.1582192e+00
 -8.8991952e-01
  3.1161714e-01
  3.8150764e-01
  4.9459929e+00
 -3.1521305e-01
  2.2282238e+00
  3.8344419e+00
 -2.5808120e+00
  4.1980548e+00
  2.4804895e+00
  9.0858233e-01
 -4.4326270e-01
 -4.0140101e-01
 -3.8765517e-01
 -1.5471445e+00
  5.7485437e-01
  1.8571783e+00
 -1.3275280e+00
 -1.6261480e+00
  2.9490554e+00
  4.2943692e-01
 -1.0435030e+00
 -1.8248582e-01
 -2.7851818e+00
 -8.7639314e-01
 -2.4342799e-01
 -1.3118982e+00
 -1.8412173e+00
 -9.5823359e-01
 -1.2340483e-01
 -1.4447792e+00
  3.5571763e-01
  1.1981219e+00
 -4.9447268e-01
  1.1513418e+00
  1.5939616e-01
  9.8773813e-01
 -4.1094127e-01
  1.0804446e+00
  2.3294876e+00
  2.4693796e-01
  1.0660214e-01
 -1.4645665e+00
  3.7367785e+00
  1.4276568e+00
 -7.0473731e-01
 -2.5467658e+00
  3.5049531e-01
  2.1851546e-01
 -1.0369133e+00
  1.0686397e-01
  2.6715627e-01
 -5.3979063e-01
 -1.3343920e+00
 -2.3530180e+00
 -6.4052057e-01
  2.2662871e+00
  1.0984650e+00
 -2.7050841e+00
 -1.5289099e+00
 -5.0358737e-01
 -4.1488907e-01
  2.5160486e-01
  3.8414165e-01
  1.1895914e-01
  1.5809655e-01
 -2.0719128e+00
  9.2616189e-01
  1.7165465e+00
 -2.4950440e+00
  5.2887064e-01
  5.5296129e-01
  1.5536315e+00
  3.5937691e-01
  1.3984221e+00
  4.6638545e-01
 -1.1694493e+00
 -3.8001938e+00
  2.7117755e+00
 -7.6333904e-01
 -5.3480107e-01
 -5.1164037e-01
  6.3098729e-01
 -1.4227648e+00
  1.4903575e+00
  3.9964500e-01
 -1.0978097e+00
 -3.1766953e+00
 -1.2630924e+00
 -4.8894590e-01
  3.7091959e+00
  1.0276192e+00
  3.2288185e-01
 -1.2528890e-01
  1.4070851e+00
  1.6382402e-01
  5.6383902e-01
  1.2611274e+00
 -5.5674225e-01
  1.9380549e-01
 -1.9186734e+00
  3.9034426e-01
 -6.3492078e-01
  8.5593414e-01
 -1.3619059e-01
 -3.5887343e-01
  2.3898666e+00
 -4.2280218e-01
  1.5266485e+00
  3.1790111e+00
 -1.9628228e+00
  1.0029179e+00
 -1.2919298e+00
  1.5936558e+00
 -9.1203755e-01
  5.6836188e-01
 -1.1954696e+00
 -1.4418292e+00
 -2.1536388e+00
 -2.3625567e+00
 -2.4751833e-01
 -4.0332025e-01
  5.7914895e-01
 -1.1112124e+00
  6.2558162e-01
 -1.5192951e+00
  9.7344679e-01
 -5.0902045e-01
 -1.1053383e-01
  4.4249719e-01
 -7.2472936e-01
 -1.9580958e+00
 -2.0476122e+00
  2.1218395e+00
 -3.7193341e+00
  1.0786761e+00
 -7.1567172e-01
 -5.0093913e-01
  1.0524572e+00
  8.9371979e-01
 -1.1127037e+00
 -1.0260803e+00
 -1.6694732e+00
  2.8461294e+00
  5.1080841e-01
 -1.2166358e+00
  1.3118826e+00
  8.9172959e-01
  1.1800354e+00
  3.3981147e+00
 -1.0009925e+00
  8.2708359e-01
 -2.6772600e-01
  1.4404276e-01
 -5.6230277e-01
 -2.7882877e-01
  8.5836214e-01
 -1.0871356e+00
 -2.5121072e-01
 -8.8329881e-01
 -1.1242532e-01
  3.0137806e+00
  1.2474273e+00
 -8.6830944e-01
 -1.9366786e+00
 -7.8584921e-01
 -8.0934697e-01
 -2.7631540e+00
  2.5771108e-01
  2.2936008e+00
  2.9987201e-01
 -9.7985768e-01
  2.4034137e-01
 -6.7537785e-01
 -2.6457009e+00
 -7.5339651e-01
 -8.5617208e-01
 -8.6725271e-01
 -4.0248278e-01
  1.9099852e-01
 -4.8421815e-01
  2.4162357e+00
  1.5336378e+00
  4.1351137e-01
 -7.5598162e-01
 -6.3447827e-01
 -6.2976187e-01
  5.2223003e-01
 -5.7026666e-01
 -6.7962420e-01
 -3.2240317e+00
  4.1819558e-01
 -1.6836879e+00
 -6.5566963e-01
 -1.6558710e+00
 -1.3273787e+00
 -3.1907651e-01
 -2.6485708e-01
 -1.1819961e+00
 -1.5604793e-01
 -2.3654020e+00
  1.3313915e-01
 -3.7161820e+00
 -9.4733924e-01
 -4.9726388e-01
  8.6072505e-01
 -1.4572961e+00
 -1.4734038e+00
 -3.2126331e+00
  1.2847555e+00
  2.0916328e+00
  2.3966372e-01
  3.0335562e+00
  1.7525810e+00
 -1.7708447e+00
  3.6133521e+00
  3.5080504e+00
  7.2368199e-01
 -3.1110454e-01
 -2.7718863e+00
 -1.3255681e+00
  1.1326312e+00
  6.2843466e-01
  6.6273135e-01
  2.0620430e+00
  1.5120779e+00
 -2.9210083e+00
  5.3021985e-01
 -3.9939424e-01
  2.6005617e-01
 -2.2945431e-01
 -1.8902954e-01
 -6.9522858e-01
 -8.0300593e-01
 -3.2260793e-01
  2.0513568e+00
 -2.1858713e-01
 -1.0451610e+00
  1.3716927e+00
 -1.1062139e+00
 -6.2247503e-01
  5.5784756e-01
  1.2369899e+00
 -8.1978667e-01
 -1.1631597e-01
 -1.3088560e+00
  1.9690820e+00
  1.0401572e+00
  1.6476151e+00
 -5.5218518e-01
 -1.8386430e-01
  1.0851586e+00
 -4.5135427e-01
  3.8818893e-01
  2.9813037e+00
  4.5978078e-01
  7.5541538e-01
 -6.5973908e-01
  1.5222781e+00
 -1.3653708e-01
 -1.7763445e-01
 -1.1819581e+00
  2.5198016e-01
 -2.4864125e+00
 -2.3019919e-01
 -8.2988197e-01
 -2.1657681e-01
 -3.5557160e-01
 -2.3020046e+00
 -1.8287361e+00
  2.0855892e-01
 -1.3957866e-01
  2.2068000e-01
 -2.9002314e+00
 -5.5823511e-01
 -1.1988863e+00
 -1.5599382e-01
  2.9801953e-01
 -1.5360080e+00
  1.8956811e+00
  2.7963024e-01
  5.0319809e-01
  2.3642403e-01
 -2.3858814e+00
 -1.6486147e-01
  4.4523987e-01
  4.8114341e-01
  1.1389828e+00
  4.1254401e+00
  1.0295497e+00
  1.4598467e+00
  1.5540434e+00
 -7.3552120e-01
 -5.9887195e-01
 -2.3201532e+00
 -2.8762262e+00
 -2.1446702e+00
  1.3001418e+00
  1.2531282e+00
  8.9380521e-01
 -1.0739480e+00
 -1.6694273e+00
 -1.9018279e-01
 -4.8713061e-01
 -4.3700325e-01
 -2.4372194e+00
 -5.7055610e-01
  1.6623302e+00
  4.6204939e-01
  1.3239903e+00
  7.2286326e-01
  2.3847203e+00
 -6.9054210e-01
 -2.3911673e-01
 -2.0093553e+00
  2.0208406e-01
  2.3202786e+00
 -2.1301024e+00
 -1.5291313e+00
 -5.5939817e-01
  4.1656959e-01
  3.0441215e+00
  2.8188425e-01
 -1.7611253e+00
 -2.6492271e+00
 -1.1727328e+00
  2.4364278e-01
 -1.0331275e+00
 -1.1166203e+00
 -3.4819475e-01
  3.8801906e-01
  1.5011445e+00
  2.2617137e-01
  1.6572071e+00
 -4.2660591e-01
  1.8245630e+00
  3.8107827e-01
 -1.2780999e+00
 -1.5504373e+00
  1.1250947e+00
 -3.6891782e+00
  1.1512767e+00
  7.9224944e-01
 -1.5431372e+00
 -7.1744400e-01
 -1.0964220e+00
 -4.8314598e-01
  1.0584797e+00
 -1.0059564e+00
  1.4208482e-01
  6.7165244e-01
  2.2441406e+00
  1.1070024e+00
 -1.8216760e+00
  5.3430885e-01
 -3.9940381e-01
  3.2740560e-01
  3.5023281e-01
 -6.0326093e-01
  9.5257330e-01
  8.0368632e-01
 -1.4952791e-01
  1.4244295e+00
 -2.3714797e+00
  7.3431963e-01
  3.8994226e-01
  9.8742712e-01
 -1.2306814e+00
 -2.7256970e+00
  1.4446430e+00
  1.6031610e+00
 -1.0935022e+00
 -1.1718306e-01
  9.5580161e-01
 -1.2257817e+00
  1.4001054e+00
 -8.1088024e-01
 -5.0305188e-01
 -2.9308861e-01
 -2.8143445e-01
  2.2816414e-01
 -9.4697529e-01
 -1.3252902e-01
 -1.1950383e-01
 -2.6019335e-01
 -2.5650389e+00
  8.1705892e-01
 -3.2445717e+00
 -2.5330088e+00
  6.7339182e-01
  4.5929256e-01
 -2.2961685e-01
  1.2146485e+00
 -6.7045820e-01
  1.2460355e+00
  5.8328176e-01
  2.6092160e+00
  1.8733194e+00
  3.9760113e+00
  1.3960571e+00
  3.6923319e-01
 -4.6370158e-01
  1.6820309e+00
 -2.1176217e+00
 -4.7956428e-01
 -3.0746311e-01
  3.3353126e-01
  1.0768845e+00
  1.9969333e+00
 -5.1307356e-01
 -6.0734737e-01
  1.5962396e+00
  5.0154495e-01
 -1.1980629e-01
  1.2897962e+00
 -7.6568198e-01
 -4.1956675e-01
 -9.9495655e-01
 -1.6444336e+00
 -4.9072862e-01
  7.6830697e-01
  1.4559265e+00
 -1.0445985e+00
 -7.0963550e-01
  1.2875111e-01
  7.9355836e-01
  3.1604097e+00
 -2.1103749e+00
 -8.0235749e-01
  2.1132815e-01
 -1.4037391e+00
  8.4755850e-01
  1.9462149e+00
 -1.1732012e+00
 -2.0526149e+00
 -4.9151707e-01
  1.4720671e+00
  2.2044547e+00
 -2.7230611e+00
 -5.0027549e-01
  9.1112316e-01
 -3.7291369e-01
 -3.1981111e+00
 -2.0863841e+00
  3.1302929e-01
 -5.2812672e-01
 -4.9408281e-01
  4.0816864e-01
 -1.6987628e-01
  1.6867270e-01
 -9.8387676e-01
  2.4324355e+00
  4.3134370e+00
  6.6565818e-01
  6.4290422e-01
  3.2311487e-01
 -3.8234672e-01
  1.3733056e-01
 -8.0866545e-01
  6.7233902e-01
 -4.6201932e-01
  4.5347700e-01
 -2.4972251e-01
  1.7634471e-01
 -1.5543751e+00
 -1.1786016e+00
 -3.6703306e-01
  4.2079096e+00
  3.2982764e+00
  4.6024895e+00
  8.2207334e-01
  1.8815675e-01
  8.0830133e-01
  1.7462120e+00
 -2.1007919e+00
  1.3597200e+00
  5.5414045e-01
 -9.0112406e-01
  4.3908027e-01
 -6.6084570e-01
 -6.9035536e-01
  1.7157415e-01
 -9.8477405e-01
  6.2607116e-01
 -1.4087833e+00
  4.7300062e-01
  6.9329083e-01
  1.1432509e+00
  3.5742264e+00
  6.0208768e-01
 -9.6047729e-01
  1.0780283e-01
  3.7708300e-01
 -3.9078088e+00
 -7.0159757e-01
 -6.8745238e-01
 -8.9038509e-01
 -1.1897999e+00
 -3.4905761e-01
  1.1352533e+00
 -7.7403402e-01
  2.5902729e+00
 -1.1289208e+00
  1.7135251e+00
  1.5544530e+00
  1.5988017e+00
 -1.4818615e+00
 -1.4262847e+00
  9.5431525e-01
 -5.8723944e-01
 -3.5266775e-01
 -1.3475082e+00
 -9.3527895e-01
  2.2030282e+00
  1.7846990e-01
 -7.8633773e-01
  1.9331943e+00
  1.2142067e+00
  1.7423569e+00
  1.2974563e+00
 -2.9926383e+00
 -1.2543764e+00
  2.0646901e+00
 -8.1096840e-01
 -1.3737634e+00
  2.3132002e+00
  1.0605747e+00
  8.0150914e-01
  6.7285639e-01
 -1.0019568e+00
  8.9136147e-01
  2.1380935e+00
 -1.1750669e+00
 -2.0445904e-01
 -1.3695785e+00
  1.0083685e+00
  2.4378699e-01
  8.8784260e-01
  1.2933836e+00
  7.0796734e-01
 -1.6584439e+00
  7.0722365e-01
  1.7153525e-01
  9.4950682e-01
  1.5356957e+00
  1.5002922e+00
  1.3754810e+00
  1.3568619e+00
 -1.8411381e+00
 -1.6199565e+00
 -3.6146194e-01
  1.7888441e+00
  1.1054951e+00
  3.6456394e+00
  7.8862876e-01
 -5.6433421e-01
 -1.8640674e+00
  4.1305813e-01
 -3.6854133e-01
 -2.1059580e+00
  1.8275199e+00
  9.4537139e-01
  2.5038201e-01
 -7.4577707e-01
  7.3056799e-01
 -8.8177365e-01
 -1.3427356e+00
 -1.9746447e+00
 -2.1031666e+00
  1.3977238e+00
  5.0107396e-01
 -1.9333889e+00
 -8.1861520e-01
  4.5351991e-01
 -2.7160234e+00
 -6.3844645e-01
 -2.5406697e+00
 -3.2128339e+00
  1.8579832e-01
  4.6196839e-01
  7.8265429e-01
  1.9977546e-01
  3.1388801e-01
  3.2541537e-01
  1.6919154e+00
  8.2243955e-01
 -1.1558759e-01
  1.6841339e+00
 -4.0790457e-01
  5.2383089e-01
  1.5651911e-01
  7.9517990e-01
 -1.2560190e-01
 -8.0673873e-01
  3.4666176e+00
  9.6442175e-01
 -2.4516468e+00
  3.2231724e+00
  1.1887604e+00
  4.7190687e-01
  2.9297698e+00
  1.0037049e+00
  2.0688266e-01
  2.1950080e+00
  7.4683470e-01
 -7.5523007e-01
 -4.0653154e-01
 -2.9080832e-01
 -3.4874794e-01
  1.8352582e+00
  2.1433637e-01
  1.3235393e+00
  3.4873095e-01
 -3.1276375e-01
  3.2933478e+00
  8.4987068e-01
 -1.1682513e+00
  4.8270285e-01
  4.6820036e-01
  4.1466740e-01
 -1.5075669e+00
 -5.4517156e-01
  1.1119334e+00
 -1.5842612e+00
 -4.6135788e+00
  1.3461868e+00
  5.0557953e-01
 -1.6785010e+00
 -6.9743234e-01
  5.9837174e-01
 -3.0104630e+00
  1.1296173e+00
 -1.0991697e+00
  6.3654470e-01
 -2.5274935e+00
  1.6972864e+00
  4.2006841e+00
  1.9867597e+00
 -6.3648516e-01
 -5.1535559e-01
  2.2139394e-01
 -4.7904560e-01
  1.3071073e+00
  8.9662457e-01
  9.9504298e-01
 -1.3749529e+00
  9.3487072e-01
 -1.1367941e-01
  2.0484157e+00
  1.3032863e+00
  5.0767124e-01
 -1.3170350e+00
 -8.8736898e-01
  4.7090588e+00
 -1.6150607e+00
 -1.6846160e+00
 -2.8340158e+00
  7.0162868e-01
 -8.6279756e-01
  1.5808811e+00
 -1.1619030e+00
  1.4087770e+00
  1.4410138e+00
  8.5765374e-01
  2.2095791e-01
  2.3406935e-01
 -4.6103466e-01
  1.2093084e-01
  9.9782562e-01
  1.3796891e+00
  3.4889442e-01
  1.3991854e+00
  2.5545385e+00
 -8.1918347e-01
  5.2597266e-01
 -1.1831414e+00
  6.6201383e-01
  1.8197984e-01
  1.5597431e-01
  9.1188014e-01
 -2.3195167e+00
 -3.0608222e-01
  1.9432038e+00
 -2.7396137e-01
  3.9375827e-01
  1.0431796e+00
 -2.1739107e-01
  5.9398252e-01
 -7.8939342e-01
 -1.7513915e+00
 -3.1067702e-01
  2.2347722e+00
 -4.2544654e-01
 -8.3961862e-01
 -5.4274976e-01
  2.5521049e-01
  1.3221847e+00
  4.0930057e-01
 -1.4373006e-01
  1.5206010e+00
 -3.1426808e-01
  2.5538747e+00
  2.6388466e-01
  1.7729383e+00
  1.3575379e+00
  6.4879072e-01
 -2.6909485e-01
 -2.8972585e+00
 -1.5633509e+00
 -5.7652575e-01
  3.0143765e-01
 -1.2571752e+00
  7.4079311e-01
  1.1100181e+00
  3.5173613e-01
  2.2002205e-01
 -9.6522582e-01
  2.2558503e+00
 -2.8103800e+00
  6.4994341e-01
 -6.8783176e-01
 -1.9930943e+00
 -1.1229099e-01
 -2.1087565e+00
  1.4470896e-01
 -1.6696180e+00
  1.8154411e+00
 -1.3164059e+00
  1.9281340e+00
  4.2637411e-01
  2.3092601e-01
  3.4934826e+00
  5.4910117e-01
 -9.9894649e-01
  2.1973476e+00
  7.9080057e-01
  1.3069482e+00
  1.9419675e+00
  1.1382236e+00
  3.1518893e+00
 -1.5629247e+00
  2.6669782e-01
 -2.5924355e-01
 -4.3463668e-01
  1.6193479e-01
  3.6128119e-01
  1.9695271e+00
  2.8121743e+00
  2.2509747e+00
  6.6958970e-01
  1.1514255e+00
  3.7462774e-01
  1.0861653e+00
  2.8476593e-01
 -6.0705024e-01
  5.9708154e-01
 -4.7099403e-01
 -2.3225553e+00
 -1.7731316e+00
  1.8905482e-01
 -2.1689841e-01
  5.5335706e-01
 -7.5481391e-01
  1.3636403e+00
  1.4976501e+00
  6.8823862e-01
  5.8246636e-01
  5.3434080e-01
 -1.2873589e+00
  7.0881122e-01
 -2.4021089e-01
 -2.2745728e+00
 -2.4996500e+00
  2.4842831e-01
 -1.5525643e+00
 -5.2435547e-01
  1.0087850e-01
  3.1780753e+00
  3.4253554e+00
 -1.9211179e-01
  2.7715635e-01
  1.0964707e+00
  1.6418966e+00
  5.8502716e-01
  4.4205824e-01
 -5.6450295e-01
  3.0480545e+00
 -1.4802988e+00
  2.1429116e-01
 -1.4337806e+00
  3.3379183e+00
  1.6234661e+00
 -6.4366478e-01
 -1.6389835e-01
  1.4738068e-01
  1.1402004e+00
 -9.8247367e-01
 -1.7425987e-01
  1.4924791e+00
  1.0343189e+00
  9.5545334e-01
  2.0955474e+00
  4.2086464e-01
  2.4891850e-01
  3.2964227e-01
  2.3443279e+00
 -3.8182342e-01
 -5.1239192e-01
 -2.9307076e-01
 -2.5432050e+00
  2.4332210e-01
 -2.2125173e+00
 -1.8718013e-01
  2.1482470e+00
  2.8449318e-01
  4.5225906e-01
 -3.4893677e+00
 -3.5645456e+00
 -1.7851940e-01
  7.3758245e-01
 -1.4251695e+00
 -1.1255959e-01
 -8.5549641e-01
 -2.7966985e-01
  6.1686772e-01
 -1.6493202e+00
  2.9595006e-01
 -3.3855119e+00
 -2.4990978e+00
 -6.2699777e-01
 -6.3121206e-01
  1.9617605e-01
 -1.1597987e+00
  6.5731663e-01
  1.1533646e-01
  4.6660593e-01
  2.6023468e-01
  7.2342432e-01
 -3.5124373e-01
 -2.7826214e+00
  2.2878397e-01
  1.6767183e-01
 -1.5661074e+00
 -1.4886293e-01
  2.5599673e+00
 -3.7212032e-01
 -1.2256229e+00
  3.2778826e-01
  6.6811776e-01
 -2.2767694e+00
  2.2630813e+00
  3.2110412e+00
 -2.0375521e-01
 -2.0253434e+00
 -7.4902833e-01
 -1.7286968e-01
  2.7385948e+00
  2.8541547e-01
 -3.4326288e-01
  8.6544341e-01
 -5.2280706e-01
  1.5898177e-01
 -2.0660188e+00
  1.4960825e+00
  2.3875472e-01
 -1.7385743e+00
  1.7266335e-01
  1.2253543e-01
  2.0430453e+00
  2.8649261e+00
 -1.4186350e+00
  6.5471846e-01
 -7.0893925e-01
 -1.1561810e+00
 -3.8923657e-01
  5.0415283e-01
 -4.9954373e-01
 -5.0208020e-01
  2.6529911e-01
  1.4478704e+00
 -1.1076388e-01
  3.8824376e-01
  1.0494515e+00
  1.6594885e-01
 -1.2509712e+00
  2.3893693e-01
 -4.2088714e-01
  2.2704729e-01
 -1.1686215e+00
 -1.4380856e+00
  2.6279244e-01
  6.1716187e-01
 -3.9812967e-01
 -1.4263704e-01
  9.4872779e-01
  2.2861974e+00
 -4.5355415e+00
  2.7131426e-01
 -1.1728958e+00
  6.3473386e-01
 -9.8105514e-01
  9.1057533e-01
 -2.7376851e-01
  1.7488953e-01
 -5.2682817e-01
  2.4406621e+00
  2.6217234e+00
 -2.5237143e-01
  1.1043828e+00
  4.4393441e-01
 -9.9893844e-01
 -2.8107336e+00
 -4.6769671e+00
 -8.9761901e-01
 -7.6307189e-01
 -5.9876525e-01
 -2.5974655e-01
  1.6329079e+00
 -4.4215053e-01
  9.4381773e-01
  5.2533567e-01
  1.6387407e+00
  7.7905476e-01
  1.5942814e+00
 -2.8748097e+00
 -1.9966322e+00
  1.4847946e+00
  2.2985997e+00
  1.7538372e+00
  9.5832694e-01
  2.5411830e+00
  1.4916346e+00
 -1.0624398e+00
  1.4391825e+00
 -1.3236171e-01
 -1.2655245e+00
  4.8724350e-01
 -1.3772837e+00
  7.4014533e-01
 -2.5137799e+00
  8.2229018e-01
  1.5003178e+00
  1.7956933e+00
  2.5971508e+00
 -1.1382974e+00
  1.6498605e+00
 -2.6363999e-01
 -2.0002493e-01
  3.0531991e-01
 -9.5577109e-01
 -1.0890903e+00
  1.9344753e+00
 -8.6083281e-01
  3.2606645e+00
  2.4307302e-01
  1.9476849e+00
 -1.0504662e+00
 -1.0060779e+00
 -4.5510599e-01
  2.7215326e-01
 -1.1077307e+00
  2.3187220e-01
 -3.5664088e-01
 -2.6221642e+00
  3.6200124e-01
  1.5292311e+00
  1.3271830e+00
 -2.4452296e-01
 -5.9620726e-01
  2.4751549e+00
  8.5698014e-01
 -1.4207861e+00
  9.9168289e-01
  8.4659147e-01
 -2.0372754e-01
  6.3503164e-01
  1.2536973e+00
 -2.8201382e+00
 -3.6857591e+00
 -5.1575327e-01
  7.4139816e-01
  1.6573627e+00
 -1.5237581e+00
 -9.6583158e-01
 -4.7962072e-01
 -1.3152236e-01
  3.0700688e+00
  7.5276774e-01
 -7.7888447e-01
  2.9071836e+00
  2.6315236e-01
  1.2574657e+00
 -2.0832889e+00
  2.7874501e+00
  1.1023691e+00
 -1.1865860e-01
 -1.8854952e+00
  1.5013760e+00
 -2.1857181e-01
 -9.5165062e-01
 -1.5936214e-01
 -1.9438221e+00
  5.4060292e-01
 -4.1790491e-01
 -3.9511141e-01
  2.3223116e+00
  1.3847883e+00
 -1.8522786e+00
 -1.0147545e+00
  2.5435323e-01
 -2.8182757e+00
 -3.3282360e-01
  1.4029233e+00
  1.0856962e+00
  1.0859077e+00
  2.5378904e+00
  3.3175114e-01
 -9.9575496e-01
 -1.0279630e-01
 -8.7792510e-01
  2.5110946e+00
  3.2385626e+00
 -3.0876741e-01
 -1.6307670e+00
 -1.4421034e+00
  4.5852417e-01
  3.1629628e-01
  2.5427032e+00
 -1.4716666e+00
 -3.7238121e-01
 -2.2147534e+00
  7.9971260e-01
  2.2233572e+00
  2.1063098e-01
 -1.0543274e+00
  2.0902729e+00
  7.5479066e-01
  3.1958708e-01
  2.5929339e+00
 -1.1218337e+00
 -5.0010657e-01
  7.3023456e-01
  1.0634434e+00
  4.9344781e-01
 -5.7878691e-01
 -9.4433999e-01
 -3.0179217e-01
  5.5914927e-01
  1.9967868e+00
 -1.0258195e+00
  3.4470689e+00
 -1.1547965e+00
  1.1777444e+00
 -9.4576514e-01
  1.3526139e+00
 -7.4694502e-01
 -6.9840115e-01
  8.1159049e-01
  2.1980171e+00
  1.0705900e+00
 -5.0961465e-01
  1.3355263e+00
 -7.6119977e-01
 -4.4778746e-01
  3.6881080e-01
 -3.9499018e-01
  3.6078739e+00
  1.5908061e+00
  2.3149955e+00
 -2.2129314e+00
 -1.3934995e-01
 -7.3999661e-01
  1.9098380e+00
  2.0011203e+00
 -3.3294113e+00
  4.3497115e-01
 -3.5002785e+00
 -1.8442252e-01
 -3.6570662e-01
  1.5967369e+00
  2.0763528e+00
 -1.5917382e+00
 -2.9223056e+00
  3.2196698e-01
 -5.1530099e-01
  1.2821922e-01
  3.0402379e+00
 -1.3021923e+00
 -5.9562302e-01
 -2.4601698e-01
 -3.2095754e+00
 -1.2780128e+00
 -1.6020900e+00
 -8.9729518e-01
 -5.9547544e-01
  1.7180603e+00
  5.0103444e-01
  2.2398233e-01
 -3.1006387e-01
 -3.2165008e+00
 -1.2835929e+00
  9.0671206e-01
  1.1242862e+00
 -3.7741917e-01
 -2.7266572e+00
 -4.8780623e-01
  9.4136220e-01
 -1.8317488e+00
  3.8705170e-01
  8.8940668e-01
 -2.9346064e-01
 -2.0566916e+00
 -1.0631747e+00
  3.1328428e-01
 -2.5104022e+00
 -6.6241390e-01
 -2.0682881e+00
 -1.1184684e+00
  4.2205733e-01
  4.3480578e-01
 -2.8645287e+00
 -1.1703522e+00
 -1.7988263e+00
  7.7466559e-01
  3.1554797e-01
 -2.3681703e+00
  1.0425979e+00
  4.4439843e-01
 -4.2200473e-01
 -9.1723907e-01
  3.7393430e-01
  2.8378303e+00
 -5.3586084e-01
 -2.0365614e-01
  1.6613145e+00
 -4.1734284e-01
  3.0685514e-01
  4.9387234e-01
 -3.5533473e+00
 -6.1702269e-01
 -1.6525455e+00
  1.9983279e+00
  8.3497632e-01
 -8.3709669e-01
 -9.0771520e-01
  1.0849457e+00
 -6.3322103e-01
  2.3690572e-01
  1.4165252e-01
  1.4525013e+00
  4.8472774e-01
 -1.5423735e+00
  2.0738220e-01
  4.2539129e-01
 -2.1070950e+00
  8.0873841e-01
  4.3389159e-01
 -8.6827791e-01
 -2.5838516e+00
 -1.5060854e-01
 -2.1916039e+00
 -8.2884598e-01
  5.0008768e-01
 -6.7322344e-01
  5.7072198e-01
  1.8950980e+00
 -1.8586886e-01
  6.7241162e-01
 -1.3491094e+00
  2.3033494e-01
  1.4837569e-01
 -9.5401585e-01
  7.7210772e-01
 -5.7337707e-01
  7.1738523e-01
 -7.0826107e-01
  2.7249086e+00
  5.6351376e-01
 -3.7071455e+00
  1.9449080e+00
  7.1418536e-01
 -1.2278681e+00
  2.1968956e+00
  1.0064512e+00
 -1.7233465e+00
  4.4025183e-01
 -2.7653084e+00
  2.5263760e+00
 -1.5730530e-01
  9.0759158e-01
 -1.9293944e+00
 -1.1292660e+00
 -3.5004871e+00
 -1.5941775e-01
  8.8690817e-01
  2.5768397e+00
  1.8950415e+00
 -2.1831477e+00
 -1.7467819e+00
  1.4905846e+00
 -4.9554265e-01
 -2.3132763e+00
 -4.1482750e-01
 -1.0155380e+00
 -4.9931130e-01
  5.5024332e-01
  5.4147947e-01
 -7.0635867e-01
  4.6057561e-01
  1.4340378e+00
  2.1526656e+00
  6.8459767e-01
  4.7714072e-01
 -1.1563452e+00
 -1.4345324e-01
 -5.4363912e-01
  1.6455879e+00
  2.1473533e-01
  3.1036985e-01
  6.9690526e-01
  9.6316838e-01
 -1.0894285e+00
  1.2983774e+00
  1.3684154e+00
 -3.5019693e-01
  1.6259280e+00
 -1.4107674e+00
  4.0514454e-01
 -1.6730351e+00
 -2.2459567e+00
  2.7332506e+00
  1.6604710e+00
  1.3832799e+00
 -2.4011610e+00
 -2.0854785e+00
 -6.2020612e-01
  1.4397036e+00
 -2.9765415e-01
 -1.0393922e+00
 -1.5767524e+00
 -6.1245281e-01
  1.1482033e-01
  4.1888750e-01
 -7.3597932e-01
  1.2199711e+00
 -2.0143645e+00
 -6.6549796e-01
 -6.5422201e-01
 -1.5911190e-01
 -2.2131758e+00
  1.1844805e+00
 -1.3663633e+00
  1.9552331e+00
  5.7088894e-01
  4.4846544e-01
  9.3608403e-01
  3.6039565e+00
  1.6978744e-01
 -5.4930604e-01
 -3.6442978e+00
  4.5615780e-01
  5.6419259e-01
 -9.2765999e-01
  3.4019175e-01
 -2.9015574e+00
  9.1507423e-01
 -4.2220590e-01
 -3.9796034e-01
  2.1945734e+00
  4.1784248e-01
  2.5692317e-01
 -1.2285506e+00
 -2.1137495e+00
  9.9295503e-01
 -5.7329512e-01
 -3.1159577e-01
  1.7538929e-01
  3.1828701e-01
 -2.3456841e+00
 -1.5357985e+00
  1.8446695e+00
 -1.0046881e+00
  1.7859759e+00
 -1.6837439e-01
  1.0822203e+00
  6.5658492e-01
 -1.3625071e+00
 -1.8743961e+00
  3.5272554e-01
  2.2921221e+00
  1.5763256e-01
  1.7388285e+00
 -4.0182692e-01
 -9.6918124e-01
  1.9832237e+00
 -1.1991360e+00
  1.2684885e+00
 -4.3145928e-01
 -2.6312447e-01
 -2.8676140e+00
 -1.4045744e-01
  7.5426877e-01
 -3.5075778e-01
  3.4831765e-01
  1.3591388e-01
 -4.5293266e-01
 -3.4631127e-01
 -3.8499892e+00
 -2.9777625e+00
 -1.8816900e-01
 -4.1991305e+00
  6.9997895e-01
  1.1899985e+00
  6.9632119e-01
  4.5197424e-01
 -2.1188354e+00
 -6.0500365e-01
 -7.0766771e-01
 -3.8731703e-01
 -1.0956608e+00
  7.2517955e-01
 -2.9648471e-01
  2.6727605e-01
  1.2941343e+00
 -1.5531151e+00
  1.8929015e+00
 -2.3134086e-01
 -2.4846971e-01
  2.9359832e-01
  1.0136817e+00
  5.4843283e-01
  7.8610313e-01
  2.8799579e-01
 -2.0308398e-01
  2.2711439e+00
  1.4683999e+00
  5.5293059e-01
  1.2465407e+00
  5.0674981e-01
  2.7377260e-01
 -1.1167789e-01
  6.5468204e-01
 -7.8074080e-01
 -3.1771719e-01
 -2.2181456e+00
 -2.5238475e-01
 -1.2708813e+00
  8.3816963e-01
 -2.9922321e+00
 -3.4987074e-01
 -1.9659927e+00
  1.4459800e+00
  8.7436283e-01
 -1.3464183e+00
 -1.3637093e-01
  1.1175430e-01
  3.6232350e+00
 -1.8653102e-01
  1.0061063e+00
  1.8400646e+00
  1.3988974e-02
  1.3988974e-02
  1.3988974e-02
  1.3988974e-02
  1.3988974e-02
  1.9523688e-02
  1.9523688e-02
  1.9523688e-02
  1.9523688e-02
  1.9523688e-02
  1.3189454e-02
  1.3189454e-02
  1.3189454e-02
  1.3189454e-02
  1.3189454e-02
  7.1277418e-03
  7.1277418e-03
  7.1277418e-03
  7.1277418e-03
  7.1277418e-03
  9.9607827e-03
  9.9607827e-03
  9.9607827e-03
  9.9607827e-03
  9.9607827e-03
  3.5790391e-03
  3.5790391e-03
  3.5790391e-03
  3.5790391e-03
  3.5790391e-03
