nep4_dipole 2 O H 
cutoff 6 4 110 40
n_max 6 6
basis_size 10 10
l_max 4 2 1
ANN 10 0
  1.2199693e-04
 -9.9002227e-02
  7.3409654e-05
 -4.7464818e-02
  1.0624882e-04
 -8.1188169e-05
  3.0939174e-01
  1.5562795e-04
 -9.7540140e-02
  1.5163621e-04
 -2.3688313e-04
 -1.5334750e-04
 -2.8674869e-04
  2.5211214e-04
  1.1260555e-03
 -2.9007491e-01
 -1.0167014e-04
 -1.0149235e-04
  5.2912463e-05
 -6.2216748e-04
  9.7419554e-03
  1.0283500e-03
 -1.9981335e-01
  1.8948672e-04
 -7.4871859e-05
  3.1179315e-04
 -1.5496922e-03
  1.2489584e-02
  4.3194165e-04
 -6.1163963e-03
  2.2097115e-04
 -1.2833912e-04
  2.2422176e-04
 -3.5050299e-04
  3.0241687e-05
 -9.0504662e-05
 -3.1501280e-05
  4.8987527e-05
 -2.5201376e-04
  2.8463612e-05
 -2.9361196e-05
  1.9967512e-04
 -9.6424999e-05
 -8.1704406e-05
 -9.3913266e-05
 -2.0333723e-04
  1.8139063e-04
 -9.7805923e-06
  1.0031723e-04
 -6.8331201e-06
  2.4274200e-02
 -1.1878261e-04
 -1.0909670e-01
  1.5964906e-04
  1.3300210e-04
  4.3208835e-01
  9.8567409e-03
 -3.7630707e-01
  1.1575123e-05
  9.4533891e-05
  2.6270978e-05
 -1.7789367e-01
  1.0205220e-01
  1.5030852e-01
 -7.8842026e-01
  1.1207164e-05
 -2.2103748e-05
 -1.4198905e-04
 -1.2773742e-01
  1.7105804e-01
  1.7366911e-01
 -8.9271611e-01
  1.7492333e-04
  4.9053695e-05
  3.1562766e-05
 -1.1900634e-01
  1.6642666e-01
  1.3282450e-01
 -3.1532201e-01
  1.8206130e-05
 -2.9532999e-05
  1.7311242e-05
 -1.8062523e-02
  2.5581220e-02
  8.1182499e-08
 -2.5317026e-03
  2.1502620e-04
  4.8005943e-05
  1.4569188e-04
 -2.0919938e-04
 -7.1257447e-05
 -5.4377106e-05
 -2.9552181e-04
  6.9360620e-05
 -3.3598906e-05
 -1.0359657e-04
  4.7001987e-07
  4.3774268e-04
  8.2030247e-08
 -4.2844957e-01
  2.3098332e-06
 -8.8010319e-02
  1.8432025e-04
 -2.6170473e-04
  1.5447992e-01
 -2.4490856e-04
 -2.1470288e-02
 -1.1077990e-06
 -7.7059856e-05
 -2.8377139e-05
  3.6886235e-05
  3.9477512e-04
  7.2638463e-04
 -1.1637362e-01
 -5.2149542e-05
  2.9081988e-04
  5.9214992e-05
 -1.2250005e-04
  2.0960177e-04
 -1.1224593e-05
 -9.1199785e-02
  1.1943652e-04
 -5.4100765e-05
  1.1737176e-04
 -8.4569663e-05
  4.9734605e-04
 -1.6831620e-04
 -7.5977470e-04
 -1.5500779e-04
 -2.5002027e-04
 -9.5558986e-05
 -8.6260072e-05
  2.3811813e-04
  1.5494224e-04
 -1.7365153e-04
  2.1847161e-06
 -4.3437496e-05
  2.0580769e-04
  1.8571156e-04
 -7.0060356e-05
  1.5536629e-04
 -1.6993038e-04
 -4.4462588e-04
  1.2657499e-04
  1.0757506e-04
  2.3905202e-04
 -1.2524152e-04
 -4.4856297e-06
  4.3150503e-05
  3.2268610e-05
 -5.2836727e-05
  1.1809286e-05
 -6.5563181e-05
  3.1343228e-05
  6.0043294e-05
  5.8094785e-05
  1.8825404e-04
 -3.4200365e-04
  1.3753533e-04
 -9.7820368e-05
 -1.8157583e-04
  5.2185384e-05
  1.4208263e-05
 -7.5944581e-06
 -9.0484442e-05
 -5.4919859e-05
 -2.0030953e-04
 -2.0181052e-04
  1.2047216e-04
 -5.4096701e-05
 -8.5392661e-05
 -1.2939872e-04
 -3.4260051e-05
 -2.1278451e-04
 -9.4546442e-05
 -2.2853297e-05
 -1.5083868e-04
  1.5413991e-05
 -5.5085799e-05
  1.7145165e-04
  1.7414172e-04
 -4.6876710e-05
 -9.9341472e-05
 -2.1923491e-04
  4.7252182e-05
 -2.5521460e-04
 -1.9764432e-04
  4.1536699e-05
  6.4444226e-05
 -1.0298602e-04
 -9.0714653e-05
  1.6352479e-04
 -8.4376516e-05
  2.8728970e-04
  1.5756952e-04
  6.9011468e-05
  1.5266369e-04
  5.4376658e-02
 -3.1627275e-04
  3.9532346e-01
  5.4770859e-04
  5.5380638e-06
 -8.7674409e-01
 -1.2341664e-01
  2.3224363e-01
  5.8538044e-05
  5.9591919e-05
  2.3526879e-04
  1.3969873e-01
 -1.9657850e-01
 -2.9887596e-01
  4.2014340e-01
 -1.4681696e-04
 -6.2830157e-05
  1.2491005e-04
  3.4955251e-01
 -4.0782529e-01
 -2.5218239e-01
  2.8849947e-01
 -1.6151035e-04
  1.3864190e-04
 -1.5457660e-04
  3.3015764e-01
 -4.0272874e-01
 -1.3501005e-01
  1.5366423e-01
 -2.1122821e-04
  4.1957883e-05
  6.8114765e-05
  1.4494926e-01
 -1.6136386e-01
  1.1344371e-04
  1.0863468e-01
 -1.0337996e-04
  1.3191733e-04
 -1.3606690e-04
 -1.1149830e-04
  2.0432797e-04
 -2.6577260e-05
  6.7427536e-05
  1.1694719e-04
 -1.7047908e-04
 -2.2994327e-04
 -6.1458486e-05
  1.0000380e-04
 -6.7619199e-05
 -4.5357426e-03
  9.9835488e-05
  2.8839690e-04
 -1.1347952e-04
  9.8849378e-05
 -1.3968151e-04
  2.7811226e-05
  1.5126316e-05
  2.0054707e-04
  8.7611741e-05
 -1.2856528e-04
 -8.6273885e-06
  3.0822228e-04
  2.8029620e-04
  2.7880166e-04
  8.5416679e-05
 -1.2509793e-04
 -7.0396243e-05
 -2.4879698e-04
  4.4010005e-05
 -2.3027480e-04
  5.1079559e-07
 -4.5614859e-05
  2.1289756e-05
  4.0464995e-05
  5.4370164e-05
  3.2620021e-04
  2.8117007e-04
  6.1729414e-05
 -4.6370944e-05
 -5.7868536e-05
 -4.5922399e-05
  2.6817532e-04
 -1.0241322e-04
  5.5181048e-05
  2.9484901e-04
 -1.2879306e-04
 -4.4215325e-05
 -2.9553452e-05
 -6.7419103e-05
 -3.2012129e-05
  9.2715993e-05
 -2.8816552e-05
  1.2873275e-04
  6.3361513e-05
  1.1236015e-04
  1.1428042e-05
  1.0532710e-05
  2.0095531e-04
  1.1873104e-05
 -2.0709806e-05
  8.6086977e-05
 -2.2828844e-04
  7.8532039e-06
 -1.1518360e-04
 -1.5446708e-04
 -2.1836178e-05
 -3.5850180e-04
  5.8891113e-05
 -1.4163231e-06
 -2.7642050e-04
 -1.9065128e-05
 -1.4350987e-04
  2.5102799e-04
  2.5751444e-05
  1.7443400e-04
 -8.5864624e-05
  9.3575791e-06
  4.0398339e-05
 -1.1999797e-04
  1.2994318e-04
  8.3969950e-05
  1.7075532e-05
 -1.1214602e-04
  8.8371999e-05
 -2.0204902e-04
 -2.0873609e-04
 -9.2187161e-05
  1.2550459e-04
  1.0285355e-04
  7.8666308e-05
 -2.3256631e-04
 -8.3444887e-05
 -3.6054622e-05
 -2.7369242e-04
  1.6299852e-04
  1.2444350e-04
  4.7145342e-05
  6.2133426e-05
 -3.1291516e-04
 -8.4603031e-05
  8.2449478e-05
 -1.6214590e-05
 -2.8155578e-04
 -2.2429078e-06
 -8.5009167e-05
  1.4075218e-04
  2.6986023e-04
 -5.0454124e-05
  1.8516237e-04
 -4.6478108e-05
 -4.4974910e-05
  4.4322096e-05
 -7.7041834e-05
  5.1666844e-05
 -3.4134264e-05
 -1.8157523e-05
 -3.4140473e-06
  2.0966452e-04
 -6.2078827e-05
 -2.4717880e-04
  4.9101425e-05
  6.8961890e-05
  2.5699001e-06
 -1.7465440e-04
  1.4689701e-04
 -8.2928731e-05
  1.1737486e-04
  1.1957363e-04
 -1.3986642e-05
  3.8245045e-05
 -1.4587128e-04
 -1.5604739e-04
  2.9057852e-04
  1.1641149e-04
 -2.3943150e-05
 -1.8470292e-04
  1.5584647e-04
 -1.1514337e-04
  4.2038453e-05
 -3.5040930e-06
  4.5889101e-04
 -1.2205567e-04
  7.7531091e-05
 -9.6404488e-05
  3.2913751e-05
 -1.8449283e-04
  1.0660094e-04
  1.4287412e-04
 -1.1565829e-04
 -7.5557218e-05
 -1.7171704e-04
 -7.6269348e-06
 -5.4974229e-05
 -3.1574917e-04
 -7.6193384e-05
  1.3059741e-04
 -4.1517633e-04
  4.4239903e-05
  2.1418190e-04
 -8.3944054e-05
 -2.7574453e-04
  1.3856156e-04
 -3.9480190e-05
  1.4324161e-05
  4.4417968e-05
  2.8632732e-05
  2.7259893e-04
  4.7475740e-05
  8.6434920e-05
 -3.9030139e-05
 -1.9485602e-04
 -2.1804763e-04
 -1.6132208e-04
 -1.3490504e-04
  5.3634405e-05
 -3.8973858e-06
 -1.7849082e-04
 -2.1265779e-04
  1.3198200e-05
 -1.6318953e-04
 -1.8279589e-04
  3.4538601e-04
  2.7498061e-06
 -5.1951502e-06
 -1.9738318e-04
 -6.3281062e-05
  3.0221327e-05
  1.8428544e-04
 -2.7699933e-05
 -1.2047157e-04
  3.2338834e-05
  2.0420103e-04
  1.2954707e-04
 -5.8921341e-07
  9.1354545e-05
  1.7967389e-04
  8.5062275e-05
 -2.6884495e-04
  2.2365220e-04
  2.3787394e-04
 -1.1543262e-04
  7.5098978e-05
  7.1052258e-05
  5.0525312e-05
 -4.8738325e-06
  5.1832663e-05
  9.6485506e-05
  1.2275805e-04
  4.6501518e-05
 -1.5382001e-06
 -2.4188866e-04
 -1.2769162e-04
 -7.3480704e-05
  1.5129533e-04
  5.2165728e-05
  3.8608054e-05
  6.6247594e-05
 -1.7024310e-04
 -3.8443719e-05
 -1.1708945e-04
  1.3578392e-04
 -2.0774067e-04
 -1.5684441e-04
  7.5161770e-05
  1.0021094e-04
 -1.3453775e-04
 -5.2140203e-06
 -1.6129948e-04
  8.6774569e-05
  1.5133817e-05
 -2.0520619e-04
 -7.4557989e-05
 -5.9960399e-05
 -2.4967402e-04
 -5.6590510e-05
 -1.4219300e-05
  1.3624907e-04
  5.3338041e-05
  6.5255423e-05
 -2.8540340e-05
  1.8127123e-04
  1.5796440e-04
 -8.0962011e-05
 -1.7564715e-05
 -1.0507338e-04
  6.8207723e-06
  7.5576034e-05
 -1.2782578e-04
  2.1854235e-04
  2.7196162e-04
  1.2369726e-04
 -4.7747802e-05
  1.2370075e-04
 -2.6696105e-04
 -5.5140130e-02
  1.3791324e-04
  2.2499686e-05
  5.4854684e-02
 -1.1111088e-04
  2.5971790e-04
 -1.0555013e-04
 -8.4945525e-05
  3.9571409e-05
 -5.6328642e-01
 -1.0822568e+00
 -3.9926109e-01
  7.6206707e-05
  1.8241159e+00
  2.3030902e-04
 -7.5281176e-05
 -2.3160070e-04
 -4.1978012e-05
  4.6425117e-05
  9.3284820e-05
  4.6162353e-05
  1.8743506e-04
  1.5752098e-04
 -6.1329411e-05
 -1.6444622e-04
  1.7608527e-05
 -3.3442292e-04
 -1.9784174e-04
  1.6715522e-04
 -1.6839892e-04
 -4.6702544e-04
 -4.5866477e-06
 -2.4848955e-04
 -1.4259496e-04
 -8.9947396e-05
 -2.3290279e-04
 -1.3412478e-05
  1.8601128e-04
  1.0936316e-04
 -7.4623124e-05
  1.0319923e-04
 -1.9751208e-04
 -1.9679141e-05
  4.3966502e-06
 -1.1631702e-04
 -2.3620483e-05
  2.7453134e-04
  3.3263856e-05
  3.1302628e-04
 -5.2601274e-05
  1.0499093e-04
  5.2894124e-05
 -4.4488766e-05
  8.9258800e-05
 -1.2575607e-04
 -1.5956344e-05
  4.2917821e-04
 -1.0305718e-05
  5.6891036e-05
  1.3752931e-04
 -1.3767856e-05
  8.6532462e-05
 -1.8364619e-04
 -7.0836932e-06
  1.2252205e-04
  1.7648692e-04
 -4.2942556e-06
 -2.3629074e-04
 -1.8440373e-04
 -1.6194234e-04
  1.1534576e-04
  6.7587418e-05
  1.2495532e-04
 -2.0079878e-04
  1.8397992e-04
 -6.2091276e-05
  6.8863243e-05
 -1.4822787e-04
 -2.1287655e-04
 -1.0746536e-04
 -1.8927721e-04
  8.4282212e-05
  1.0212804e-04
  7.8040321e-05
  1.2163589e-04
  1.0789657e-04
 -1.5860552e-04
  2.3769113e-04
  1.6245624e-04
  1.0777300e-04
  7.6741904e-05
  5.2443582e-05
  2.2290269e-04
 -7.2884541e-05
  1.7594558e-04
 -1.9705022e-04
  1.3633896e-04
  2.1770866e-04
  1.6598537e-04
  1.1404737e-05
 -1.1859468e-04
  1.3185611e-04
 -2.6139044e-04
  2.2242914e-04
 -1.6891494e-04
  2.6930790e-04
  2.9669318e-04
 -3.4802117e-05
 -1.5132451e-04
  2.3283751e-04
 -6.9461576e-06
  7.5905969e-05
  1.4006492e-04
  2.2499697e-04
 -1.3645864e-04
 -8.5180494e-05
 -2.1446319e-04
 -8.7017710e-05
  4.1123600e-05
 -3.6313661e-05
 -3.7546422e-05
 -1.2630416e-05
 -3.3824814e-05
 -1.0355886e-05
  7.1354152e-05
 -2.8882013e-04
 -3.6102755e-04
 -3.6124671e-05
  3.2985801e-04
  2.9058172e-04
  1.6035557e-04
  2.0326291e-04
  9.4367479e-06
 -1.8361518e-04
 -3.1047668e-05
  1.3953972e-05
 -1.1387157e-05
  2.8660426e-05
 -1.8140888e-04
 -9.6721351e-06
  3.7232268e-05
 -5.6695666e-05
  5.4198135e-05
 -2.6870123e-04
 -3.0589770e-04
  4.2677864e-05
 -2.2473572e-05
 -2.6925845e-04
  5.1943720e-05
 -1.8006084e-04
 -3.8114475e-05
  2.2890235e-04
  4.5117198e-05
  9.9398443e-05
 -1.0246156e-05
 -1.2744431e-04
  7.0793430e-05
 -2.5672291e-04
 -1.2369343e-05
  1.3318048e-04
 -1.5228758e-04
 -4.3506861e-07
  5.7121641e-05
  3.8754373e-05
 -1.0391493e-04
 -3.5419775e-04
  4.8760081e-05
  3.5939131e-05
 -1.8683862e-04
 -1.0915836e-05
 -1.2449121e-04
 -4.2314455e-04
 -6.7454152e-05
  3.8423146e-05
  9.8534874e-06
  2.3394779e-04
 -7.4905642e-05
 -1.7625419e-04
  1.4183574e-05
 -4.7602116e-05
  1.2773504e-04
 -6.5183311e-05
 -2.7890390e-05
 -1.6486997e-04
  1.6724688e-04
  2.2376039e-04
 -1.1874572e-04
  2.7322991e-05
 -1.1515430e-04
  3.3771234e-05
 -1.6444017e-05
  1.2541784e-04
 -2.4983840e-04
  1.7986432e-04
  4.5601551e-05
  3.7250360e-05
  5.9413937e-06
 -5.3352967e-05
 -1.8279663e-04
 -1.7820601e-04
  1.1588418e-04
  2.4720075e-04
  1.0391840e-04
 -8.8477093e-05
 -1.3476291e-04
 -4.0990355e-05
 -1.1105004e-04
  1.3842230e-04
 -6.5732391e-05
 -4.0011415e-05
 -8.1367041e-05
  1.2376629e-04
  3.3973416e-04
 -2.0313310e-05
 -1.3192082e-04
  2.5806443e-05
 -2.2976399e-05
  3.2126965e-05
 -3.1960729e-04
 -2.0995038e-04
 -1.3119084e-04
 -1.0292646e-04
  1.2740072e-04
  1.1150676e-04
 -7.8644291e-05
 -4.6071542e-05
  1.2289900e-05
 -8.8624918e-05
 -1.0803322e-04
  9.6152115e-05
  2.8269371e-04
  6.7431894e-05
  9.0268135e-05
  1.9777786e-04
 -1.0519472e-05
  7.7029821e-05
 -6.2694220e-05
 -3.7015790e-05
  8.6198706e-05
  7.4569267e-05
 -1.6156088e-06
 -9.9947370e-05
  2.0916923e-05
 -3.2472468e-04
 -1.3318934e-04
 -1.3780095e-04
 -1.5042504e-04
 -3.2986724e-04
  3.0415927e-04
  1.1333150e-04
  1.9962770e-04
 -3.4877012e-05
  1.9041626e-04
  2.8569740e-04
  1.0362634e-04
 -6.2605999e-05
  1.9163566e-04
 -6.9353664e-05
 -4.6296114e-05
  1.6715891e-04
 -1.0630284e-04
  2.0227479e-04
 -1.0995362e-04
 -8.0938487e-05
 -3.5098845e-05
 -4.9760132e-05
 -1.6849464e-05
  2.1168945e-04
  7.9150261e-05
 -1.7444232e-04
  5.6290110e-06
  2.5532750e-04
 -8.1109119e-06
 -2.0020556e-04
  6.6575376e-05
  1.4197025e-04
  5.9886597e-06
  2.3471017e-04
  1.5781616e-05
 -2.6373222e-04
  8.2851970e-05
  1.0178825e-04
  1.6190299e-04
 -3.2075073e-05
 -1.2051878e-04
 -1.2862786e-04
 -5.1403880e-05
  1.3975280e-04
  1.9157940e-04
 -3.3483835e-04
 -1.2125302e-04
 -2.6411592e-04
  2.0443402e-04
 -1.7852693e-04
  2.2015929e-04
 -1.2519772e-04
  8.7436558e-05
  2.2168228e-04
 -2.3730939e-04
  1.6051835e-04
  8.2794075e-05
 -1.0288360e-04
  8.7268554e-06
 -2.5183693e-04
 -2.0492496e-04
  4.3744384e-04
  3.9782852e-05
 -3.2234042e-05
 -7.8691395e-05
 -8.5907312e-05
 -7.7289207e-07
  1.3935725e-04
 -2.5097233e-05
  5.8574111e-05
  1.6241487e-04
 -5.5527595e-05
 -4.4337638e-05
 -2.0462077e-04
 -3.7703612e-05
  2.0969735e-04
 -1.9325575e-04
  2.0533992e-04
  8.4682419e-05
  3.2155251e-05
 -2.3698316e-04
  7.2212832e-05
 -1.0643203e-04
  2.5090060e-06
  2.3060525e-04
 -8.4274317e-05
 -3.5222014e-04
 -4.1900514e-04
 -5.3352727e-05
  4.4851775e-05
  3.5499211e-04
 -8.4740408e-05
 -1.9482999e-04
  1.3492430e-04
  6.6376750e-05
 -5.9704951e-05
 -2.0330711e-04
  1.3518140e-04
  8.3145962e-05
 -1.9586489e-04
  1.5818414e-04
 -1.1439565e-04
  5.0418861e-05
  3.1637956e-04
 -4.7566904e-05
  5.0342969e-05
  8.4542604e-05
  2.7823413e-04
 -1.2457816e-04
  8.3552251e-05
  2.4931480e-05
 -2.7013009e-05
  1.2822864e-04
  1.2121858e-04
 -2.7183624e-04
 -2.4847078e-04
 -5.1570896e-05
 -2.5845640e-05
 -2.0007090e-05
  6.2664862e-05
 -3.7122652e-05
 -7.7011182e-06
 -2.7056245e-04
 -3.2413434e-05
 -3.0066710e-04
  1.9631303e-04
  1.2898041e-04
  2.3608674e-04
  1.8010144e-04
  1.2789627e-04
  1.8272156e-05
  2.8277547e-04
 -1.6883016e-05
  2.0538288e-04
  8.5164778e-05
  1.0984000e-04
 -2.8011069e-04
 -1.1249645e-04
  5.6269822e-05
 -2.4811723e-04
 -7.6942531e-05
  1.1493692e-04
  2.2868773e-04
  4.7680714e-05
  5.5596025e-05
  2.5405202e-04
  1.1708552e-04
  4.5697172e-05
  5.0960778e-05
 -2.1443937e-04
 -9.9733370e-05
  2.0488480e-04
 -8.1148282e-05
 -1.6398021e-04
 -3.0176132e-04
  9.9769655e-05
  1.1100982e-04
  1.4913631e-04
 -6.5848901e-05
 -4.6735357e-05
 -1.8394861e-04
  4.4955302e-04
  7.2093499e-05
 -3.7269077e-05
 -1.1582726e-04
  2.3971286e-04
 -1.9670759e-05
  9.4026305e-05
 -1.9893497e-04
  5.9481731e-06
  3.0835872e-04
  4.5237484e-05
  5.7807098e-05
 -3.8981176e-05
 -1.5182198e-04
 -9.2694463e-05
  1.0392169e-04
 -7.3170035e-05
  2.2036854e-04
  8.3884996e-05
 -1.3196610e-04
 -1.1211396e-04
 -2.2394957e-04
  1.6219210e-05
 -1.9296994e-04
 -1.7129163e-04
 -1.6576996e-04
  1.2261048e-04
  1.2327688e-04
  1.1431277e-04
 -7.5732001e-05
 -1.1133969e-04
 -1.5425718e-04
  1.5756232e-04
  5.7288358e-05
  4.2823909e-04
  5.4952263e-05
  3.3674933e-04
 -1.2039812e-04
  2.1088938e-05
  1.2254858e-04
  9.5980329e-05
  1.5557323e-05
  1.8556564e-05
 -1.9070819e-04
 -1.1871570e-04
  2.7768914e-05
 -2.5091588e-04
 -1.5394909e-04
 -1.4141740e-04
 -8.9840170e-05
  1.8963375e-04
  3.6002224e-05
 -8.6781758e-05
  5.3761851e-05
 -3.9875333e-04
 -2.1894833e-04
 -2.3664876e-04
 -4.2565454e-05
  1.0887669e-04
 -1.2368397e-04
 -5.9231646e-05
 -1.0873278e-04
 -1.9991467e-05
 -2.1267023e-04
  3.1358286e-05
  3.0675734e-04
  9.2592942e-05
  3.7815575e-05
 -2.3388107e-04
  1.2777641e-04
 -8.1537139e-05
  1.7590473e-04
  1.2068457e-04
  2.8253390e-04
 -1.5215294e-05
  9.2778508e-05
 -7.9668913e-05
 -1.5075094e-04
 -2.6876343e-04
  2.4409392e-05
  2.8100831e-04
 -9.3276991e-05
  1.8007224e-05
 -8.5152278e-05
  5.0127288e-05
 -1.5483529e-05
  1.8654716e-04
  1.9322298e-04
 -1.4146032e-04
 -2.2466736e-05
  1.1154257e-04
  1.2652576e-04
 -2.9230243e-04
 -3.9614982e-04
  9.7484008e-06
 -8.5083157e-05
  2.2079793e-04
  4.5089670e-05
 -2.2558075e-04
 -1.4023285e-04
 -7.4025680e-05
  1.7161368e-04
  1.6001481e-05
  2.1198514e-04
 -9.6552385e-06
 -7.7410259e-05
 -2.1370036e-04
  1.7694127e-05
  3.2617743e-04
 -1.1671469e-04
  2.6583605e-04
  3.3338714e-05
 -1.4253280e-05
  8.0005892e-05
 -1.5409314e-04
  1.7915535e-04
 -1.3724474e-04
 -1.1396178e-06
  6.9081252e-05
 -8.9373636e-05
 -4.0169863e-05
 -8.8375426e-05
 -1.3962203e-04
 -1.4877961e-04
 -3.8523058e-04
 -2.3658717e-05
 -1.8040682e-04
 -9.3202514e-05
  5.4272397e-05
 -6.1618562e-07
  1.0150608e-05
 -2.3385652e-04
  6.0008715e-05
  4.6465808e-05
 -9.5068244e-05
 -8.2016537e-05
 -5.8848542e-05
  8.6991495e-05
 -1.2061691e-04
 -2.1804158e-04
  1.7742913e-04
  9.5380536e-05
 -8.6145286e-05
 -1.7697636e-04
 -8.6842592e-05
  3.4761702e-05
  5.1656858e-05
 -7.7929202e-05
 -1.9344961e-04
  8.5669883e-05
 -1.8472744e-04
  1.0848219e-04
 -1.0407228e-04
 -1.4319994e-04
 -2.0085720e-04
 -7.7661207e-05
  1.8968817e-04
  4.6228397e-05
  1.9921898e-04
 -9.3002331e-05
 -8.1065140e-05
  1.6189911e-04
  1.1606702e-04
  9.4593866e-05
 -2.9997234e-04
  1.7373244e-05
  2.3018496e-04
  2.2412703e-04
 -1.8581332e-04
  4.9717379e-05
 -1.1360521e-05
  5.4885502e-05
  1.4831494e-04
 -4.7285259e-05
  2.8125674e-04
 -2.2533438e-04
  6.6440523e-05
  2.7704102e-04
  3.3571734e-05
  1.3224027e-05
 -4.7599529e-05
  5.3017731e-05
 -4.6461541e-02
 -2.5586935e-04
 -1.1589231e-05
 -1.5322062e-04
 -7.2687049e-03
 -2.8283874e-04
 -2.7734964e-04
  2.9891591e-05
  4.5435295e-01
 -9.4388204e-05
  6.1057640e-06
  2.7385057e-04
  4.3128359e-01
  2.2278065e-04
  4.6834131e-05
  9.3660764e-02
  1.8542376e-01
  1.5516269e-04
  2.3147906e-05
  8.5642612e-05
 -7.0007998e-01
 -9.5688622e-05
  2.3214752e-04
 -1.7329361e-01
 -2.8572077e-01
 -2.4512541e-04
  7.8844569e-05
 -4.0578073e-01
 -1.1107083e-01
  8.4742096e-05
 -1.8092759e-04
 -1.7657735e-04
  1.2741642e-04
 -7.9640369e-05
  1.0988110e-05
 -1.5733291e-05
  6.8856476e-05
 -1.0998008e-04
 -3.5052301e-05
 -1.0861314e-05
 -2.1093128e-05
 -1.2187106e-05
  1.1147559e-04
 -8.4461863e-05
  1.2563578e-04
  4.8123482e-05
 -8.3543513e-05
 -2.0601776e-04
  2.2736762e-04
 -5.7553945e-05
  1.9592709e-04
  1.6230530e-05
 -1.0756072e-04
  8.4959509e-05
  2.2982505e-05
 -3.1826063e-04
  3.8149006e-05
  6.1882411e-06
 -4.8969610e-04
 -1.2403808e-04
 -5.3133670e-07
  4.0616269e-05
 -2.6622309e-05
 -1.3151469e-04
 -1.6171833e-04
  1.5743794e-04
 -1.3985553e-04
  1.7763594e-04
 -1.6696306e-04
 -6.4469823e-05
  2.9305273e-04
  3.7925427e-05
  4.0341014e-04
 -1.6814648e-04
  8.2434970e-05
 -3.3847835e-05
 -1.5655577e-02
  3.1973055e-04
 -4.0965300e-05
 -5.4631699e-05
  2.0475179e-01
 -8.7541484e-05
 -1.1345019e-04
  9.5149308e-02
 -1.6792607e-01
  1.6248343e-04
  1.4398986e-04
 -8.0179336e-05
 -1.6651109e-01
 -7.4053285e-05
 -3.8336409e-04
 -1.1848068e-01
 -2.7140247e-02
 -2.5337801e-04
  6.9944872e-05
  2.0999258e-02
  2.7178580e-01
  1.7214220e-04
 -4.7089557e-05
  3.8321223e-02
 -3.6063559e-02
  6.4920998e-05
  3.7122823e-06
 -5.2629117e-02
  3.9555475e-02
  3.4934961e-05
 -1.0925294e-04
  5.6249462e-04
 -1.8020829e-02
  9.1772359e-05
  7.9969133e-05
  9.4401546e-02
  1.7661576e-01
  1.0858772e-04
  3.4742311e-04
  1.3064520e-01
  1.6558208e-01
 -2.4333776e-05
 -5.1837789e-05
  1.7390412e-05
 -2.8285841e-04
 -1.0778067e-04
 -8.9471156e-05
  1.7147954e-04
  6.6453380e-05
 -4.0667900e-04
 -4.3692005e-05
  1.8843455e-04
 -2.1402159e-04
  2.4908748e-05
 -2.3327199e-05
  1.4741064e-04
 -8.0518286e-05
 -3.1220168e-04
 -1.2949928e-04
  1.9490991e-04
 -1.9118257e-04
 -3.0245035e-04
  3.4134029e-04
 -2.2761890e-04
  1.8315937e-04
 -1.1271836e-04
 -1.7286291e-04
  8.5102511e-06
 -2.1619453e-04
 -2.0666159e-05
  1.4584333e-04
  2.5110418e-07
 -2.1441975e-04
  4.7167700e-06
 -1.0157318e-04
  5.8562182e-05
 -9.2642085e-06
  2.2638653e-04
  9.6052900e-05
 -2.1301052e-05
 -3.4768698e-05
 -1.4565793e-04
  7.1196091e-06
  8.6214190e-05
  1.1363772e-05
 -3.8547332e-05
  1.6765842e-04
 -3.5357163e-05
 -2.1250662e-05
 -1.4627632e-04
 -1.1801557e-04
 -1.1547717e-04
 -2.3015305e-04
  4.6181427e-05
  1.1958218e-06
  3.9961509e-05
  1.3954680e-04
  2.8186763e-05
 -2.7189473e-05
 -2.5795415e-04
  1.6319928e-04
 -1.6425742e-05
  3.3181961e-04
 -6.2414358e-05
 -5.7257614e-05
 -1.4319972e-04
  6.8220717e-05
 -3.0619703e-04
 -1.8591867e-04
 -1.6716991e-05
 -3.8058031e-05
  3.3782053e-05
  1.0020163e-05
 -1.3310426e-04
  7.3404015e-05
  1.1360435e-05
  4.2496590e-04
 -1.7977243e-05
 -4.6375346e-05
 -5.6562320e-05
  2.4960054e-05
 -2.4871919e-05
 -5.8434787e-05
 -1.0598546e-04
 -6.0355349e-05
  4.7840153e-05
 -4.8862104e-05
  1.0224844e-04
  3.8169361e-05
  1.8031371e-04
  6.0591057e-05
 -1.6443392e-02
 -6.3027062e-02
  1.3551116e-04
  9.9805720e-06
  2.0877500e-01
 -1.0896279e+00
 -1.2000109e-04
  5.1058971e-05
 -2.0308888e-01
  3.5045695e-01
 -1.3441964e-04
  7.6206328e-05
 -3.0179513e-03
  7.3548079e-01
  2.5272614e-04
  3.0438032e-05
  1.3729377e-01
  9.4703980e-02
 -6.1646773e-05
  9.4269984e-05
  7.4390739e-02
 -4.2947960e-01
  1.5855640e-05
  1.1686844e-04
 -1.8591577e-02
 -5.6504643e-01
  1.7193620e-04
 -1.7733139e-04
  2.8367827e-02
 -1.6028611e-01
  4.8701756e-04
  5.5158642e-05
  1.0429013e-01
  1.7235712e-03
  2.3212344e-04
 -8.3891318e-05
  8.7288685e-02
  1.5396042e-01
  3.7972957e-05
  1.1788672e-05
  1.8697299e-02
  9.2856616e-02
 -3.3902401e-05
 -8.6799882e-05
 -1.1717154e-04
 -1.5183441e-01
 -1.2410803e-04
  7.1363917e-05
 -5.1389320e-04
 -3.5824075e-02
 -1.8032244e-04
  1.2408214e-04
  6.2168766e-02
  1.2888902e-01
 -5.9839309e-05
 -1.3812137e-04
 -2.1066506e-01
 -2.6728284e-01
  2.8307972e-05
 -1.9538328e-04
  2.8061688e-02
 -2.1776329e-01
 -1.2515733e-04
 -1.2100662e-04
  1.4461679e-04
  2.3046054e-03
  1.4015066e-04
  5.0559389e-05
 -2.8964478e-01
 -6.1816085e-05
  7.0768765e-05
  5.9077989e-05
  3.4916607e-01
 -6.7860223e-02
  2.7217146e-05
 -7.2973671e-05
 -2.2587341e-01
 -1.2154637e-01
  6.9796566e-05
  2.6724642e-04
 -1.1254946e-04
 -9.6518181e-02
  1.2018046e-04
  7.5859723e-05
  1.7254958e-01
 -2.4515329e-01
 -1.0641488e-04
 -7.4321775e-05
 -6.1900672e-02
 -5.4331285e-01
 -5.4059572e-05
 -1.2092411e-04
 -4.7620357e-05
 -1.8627677e+00
 -2.0845819e-04
  2.1791407e-04
 -2.9096424e-03
  1.1480732e+00
  3.2190230e-05
  1.7174711e-05
  8.6278588e-02
  1.2662952e+00
  1.0687193e-04
 -4.6475827e-05
 -2.1819798e-03
 -4.7662219e-01
 -6.7885470e-05
 -6.9656453e-05
 -9.6867578e-03
 -1.0391910e+00
  2.1243947e-04
 -1.0440395e-04
  8.7669306e-03
 -4.0998775e-01
  8.1461352e-05
  3.9752453e-05
 -7.4410446e-02
  8.2625069e-02
  3.3376560e-05
 -1.9668207e-04
 -4.6404190e-02
  1.5777257e-01
 -1.9716224e-05
 -1.8635450e-05
  1.2286000e-01
  8.1443451e-02
  1.2356011e-04
 -5.6819066e-05
  5.7268392e-02
 -2.2214174e-02
 -9.4890580e-05
 -7.8670113e-05
  6.4666463e-05
 -2.3268579e-04
 -2.5489004e-04
 -1.5873442e-05
  1.4223267e-04
 -1.3959304e-04
  7.8672692e-06
  1.9188803e-04
  1.6737626e-04
 -5.1036666e-05
 -1.0652355e-04
 -1.5396246e-04
 -2.1887583e-05
  8.5376378e-05
 -2.1038660e-04
  1.2097529e-04
 -8.9104433e-05
  4.4109034e-05
 -1.8688064e-04
  1.3452412e-04
  3.2125015e-04
  3.2118725e-05
  1.3765461e-05
  1.4466721e-04
  8.4878600e-05
 -1.3012420e-04
 -8.8379980e-05
 -9.0225454e-05
 -6.5912004e-06
  3.4413877e-04
 -2.2689949e-04
 -6.5331158e-05
  8.8810877e-05
  3.8803719e-06
  1.0694462e-04
  2.0659246e-04
  1.5063274e-04
  1.4208334e-04
 -4.4692541e-04
 -4.4983251e-05
 -6.2004132e-05
  1.0685874e-04
  1.0572353e-04
  1.2004098e-05
 -2.6903590e-04
 -3.2580690e-05
 -5.0383758e-05
 -8.3383216e-05
 -1.4691890e-05
  2.1091466e-04
  3.0068542e-05
  1.4751784e-04
 -2.9316582e-04
 -1.3204074e-06
 -7.3912262e-05
 -3.0515762e-04
  5.6675526e-05
  2.3504958e-04
 -1.8948228e-04
 -1.7270478e-04
  1.8919050e-04
  1.0512773e-04
 -1.6436246e-04
 -8.4194558e-05
 -2.0689931e-04
  6.6717745e-05
 -1.3113646e-04
 -6.9635949e-05
  4.4586017e-05
  1.9316491e-05
  5.0744904e-05
 -1.0033842e-04
  9.0091380e-05
  3.7081303e-05
  2.6157431e-04
 -2.3889107e-04
  2.5840261e-04
 -1.1277266e-04
  8.1694205e-05
  3.2402674e-04
 -4.6621954e-05
 -1.2987913e-04
 -2.7435378e-04
 -1.5642199e-04
  3.5672765e-05
  3.7261184e-06
 -1.1318383e-04
  2.2472489e-04
  1.6223069e-04
  1.2145999e-04
  8.7137516e-05
 -7.4069314e-05
 -1.5700620e-04
  2.9916928e-05
 -3.3429035e-06
  5.1658717e-05
  3.5791036e-05
 -3.3431064e-05
  5.1099567e-05
 -9.7542659e-05
 -2.1001972e-04
  1.8442638e-04
  8.2338236e-05
  2.0331360e-04
 -2.2713692e-04
  8.2685714e-05
  1.7181096e-04
  4.4951666e-05
  1.2593444e-04
 -9.0625144e-06
  8.8869674e-05
 -4.7670314e-05
 -2.5958228e-05
 -2.3563587e-04
  9.4285693e-05
 -1.0099446e-04
 -4.4450237e-05
 -1.7386339e-04
 -1.0063569e-04
  2.5954567e-05
  3.2360060e-04
  9.0539208e-05
  1.3566538e-06
  7.1460563e-05
  7.7985613e-05
  2.2712025e-04
  1.3852336e-04
  4.7051089e-05
  1.2367817e-04
 -9.6632888e-05
 -7.5590913e-05
 -1.8231605e-05
  3.1955626e-02
  1.6473781e-01
 -4.0138202e-05
 -1.0605393e-04
  2.4839974e-04
  4.6591666e-03
 -6.3101297e-06
  8.5805492e-05
  1.3878231e-04
  1.3151169e-01
  1.0703673e-04
 -2.9528109e-04
  5.9205968e-02
 -5.7820395e-02
  1.4606801e-04
 -1.1797150e-05
 -1.0074809e-04
 -1.2057470e-02
  8.0705038e-05
  1.0400378e-05
  7.5129792e-02
  3.1866869e-01
  2.3223250e-04
  7.3937896e-05
  1.9371878e-04
  7.1289432e-01
 -3.5836256e-05
  2.3379398e-05
  5.0872237e-05
  7.6888159e-02
 -1.7061821e-04
  2.1609358e-04
  1.0702514e-01
 -4.1834524e-01
  2.5633664e-04
 -4.8293779e-05
 -4.2275077e-04
 -1.8750130e-01
  1.7295318e-04
 -3.6193419e-04
  9.4524287e-02
  1.0826479e-01
  4.0809883e-04
  1.2640530e-04
 -3.5376757e-04
  3.9432241e-04
  1.0407055e-04
 -9.6444848e-05
 -1.4334462e-04
  4.1917603e-02
 -1.2044265e-05
  1.0707328e-04
 -8.7094560e-02
 -2.0958450e-01
  2.8761543e-04
  3.4009170e-04
  5.7964755e-04
  2.4386457e-01
  6.2143081e-05
 -4.2880073e-04
 -2.8391682e-06
  9.9596187e-02
 -2.1893022e-04
 -2.4986712e-05
 -1.5863116e-01
 -5.3404495e-02
  2.3980290e-04
  1.2616788e-04
  1.8356870e-01
  2.3403318e-01
 -6.3276246e-05
  1.9837909e-04
 -1.7921321e-01
  3.9964208e-01
 -7.0683564e-05
  2.9058685e-05
 -8.0526344e-02
 -3.1064283e-06
  2.2044452e-04
 -7.2656010e-05
  1.6207637e-01
 -5.8709407e-01
  6.8451285e-05
  6.3891959e-05
 -2.4466401e-01
 -5.4412359e-01
 -2.8762166e-04
  2.5197159e-04
  2.2089034e-02
  2.2089034e-02
  2.2089034e-02
  2.2089034e-02
  2.2089034e-02
  2.2089034e-02
  2.2089034e-02
  2.5242958e-02
  2.5242958e-02
  2.5242958e-02
  2.5242958e-02
  2.5242958e-02
  2.5242958e-02
  2.5242958e-02
  8.0110375e-03
  8.0110375e-03
  8.0110375e-03
  8.0110375e-03
  8.0110375e-03
  8.0110375e-03
  8.0110375e-03
  4.5292098e-03
  4.5292098e-03
  4.5292098e-03
  4.5292098e-03
  4.5292098e-03
  4.5292098e-03
  4.5292098e-03
  4.7784154e-03
  4.7784154e-03
  4.7784154e-03
  4.7784154e-03
  4.7784154e-03
  4.7784154e-03
  4.7784154e-03
  2.3544026e-03
  2.3544026e-03
  2.3544026e-03
  2.3544026e-03
  2.3544026e-03
  2.3544026e-03
  2.3544026e-03
  1.3647575e-03
  1.3647575e-03
  1.3647575e-03
  1.3647575e-03
  1.3647575e-03
  1.3647575e-03
  1.3647575e-03
