nep4 2 O H 
cutoff 6 4 319 94
n_max 12 8
basis_size 16 12
l_max 4 2 1
ANN 100 0
  3.2307897e+00
  2.6756210e+00
 -1.4719665e+00
  4.1039455e-01
 -2.5796664e+00
  1.6288069e-01
 -1.8970624e+00
  5.0637989e+00
 -4.1231375e+00
  7.1032782e+00
  3.6332893e+00
  2.6598535e+00
  2.3901742e+00
  1.1304117e+00
 -2.2191459e-02
 -2.5646429e+00
 -1.6199921e+00
  4.7129922e+00
 -9.8906571e-01
  1.2081044e+00
 -1.6311125e+00
  4.6077180e-01
 -2.2872546e+00
  7.4058068e-01
 -3.8184521e-01
 -5.7147336e+00
  4.1656218e+00
 -1.5899491e+00
 -3.1586461e+00
 -7.8624952e-01
  3.7932456e-01
  1.5787388e+00
  1.5633733e+00
 -4.9607549e-02
 -1.1122984e+00
 -5.7606035e-01
  5.8713608e+00
 -1.6072540e+00
 -4.7595507e-01
 -4.8168537e-01
 -1.5715160e+00
  2.9449372e+00
 -7.5293040e-01
  3.2822925e-01
 -7.0159984e-01
  2.7713931e+00
 -5.8252323e-01
 -2.6617947e+00
  3.3657537e+00
  5.5266851e-01
  1.0385789e+00
 -1.6474146e+00
  4.2422852e-01
  4.0117540e+00
 -7.7950984e-01
  8.3458132e-01
 -4.8569098e-01
 -2.8301990e+00
  7.9388775e-02
 -2.0142941e+00
  7.2629654e-01
  7.4274069e-01
  6.3160169e-01
  1.0310314e+00
  2.9975396e-01
  5.4278247e-02
  6.6528660e-01
  1.7007470e+00
 -1.5493650e+00
 -2.2870656e-02
 -1.0953146e+00
 -1.2843847e+00
 -6.9991750e-01
  5.1966548e-01
  2.3493452e+00
 -1.2499824e+00
  1.1920304e+00
  4.9857712e-01
  4.4700224e-02
 -3.6564615e-01
  1.1987604e+00
  1.1151925e+00
  2.4214706e+00
  2.7435083e+00
 -2.8583598e+00
  2.0494342e+00
 -7.9865575e-01
 -3.8043065e+00
 -1.6399444e+00
  2.9877040e-01
 -3.0277455e+00
 -1.2149283e+00
 -3.0028188e+00
  1.4923317e+00
 -9.8061316e-02
 -3.3067510e+00
  2.2288532e+00
  6.6000491e-01
  3.2149959e-01
 -1.7891011e+00
  2.8022051e-01
 -6.9941813e-01
 -1.9486679e+00
  1.8554952e+00
  3.1696038e+00
  1.1018265e+00
 -2.1897101e-01
  2.6362637e-01
 -1.5941580e-01
 -1.1226979e+00
  1.9395396e-02
 -1.1406287e+00
 -3.7963672e+00
 -1.1828225e+00
 -5.3258437e-01
 -1.9062411e+00
 -1.9718225e-01
  8.4054321e-01
  8.4564990e-01
 -4.9086061e-01
 -1.4899415e+00
 -1.2680559e+00
  8.9728606e-01
  8.5542727e-01
  3.1157535e-01
  2.2349210e-02
 -5.1117098e-01
 -2.6943868e-02
  1.4711919e-01
 -3.9413011e-01
 -2.3371708e+00
  3.0168182e-01
 -6.8770349e-03
 -6.4679825e-01
 -2.8579404e+00
  6.9306350e-01
 -1.3115864e+00
 -6.0067785e-01
 -1.1556308e+00
  1.3316305e-01
  4.0519085e+00
 -3.2323200e-02
  1.2804092e+00
 -1.2390494e+00
 -3.2698636e+00
 -2.1105695e+00
 -1.2219273e+00
  2.6311567e+00
  1.1900336e+00
 -2.9836495e+00
 -7.8171682e-01
 -2.2806220e+00
 -4.9208629e-01
  1.0100683e+00
 -6.5264940e-01
 -5.3684515e-01
  4.6504575e-01
 -5.1573557e-01
  2.1461568e+00
  1.6900054e-01
 -6.3991398e-01
  2.5805311e+00
  1.8071419e+00
  1.3576509e+00
  3.4883316e+00
  6.3826197e-01
 -1.3332211e+00
  1.1406497e+00
  4.1618781e+00
  2.9334116e-01
  5.7347828e-01
 -3.0019855e-01
 -5.9645709e-02
  1.5538458e+00
  1.9727545e+00
 -5.5997419e-01
  1.3919959e+00
 -2.0265485e-01
  4.1619521e-01
  1.8356193e+00
  3.8290250e-01
  1.6546443e+00
  2.1100736e+00
 -7.1499848e-01
  2.3412547e+00
  4.7240222e-01
  4.3468270e-01
  1.5294854e-01
  3.9131016e-01
 -1.6911978e+00
  4.7238219e-01
  9.8579454e-01
 -3.4824818e-02
  1.0908489e+00
 -6.0841041e-03
  1.7080344e-01
  9.7573837e-03
  3.4760097e-01
 -3.9460263e-01
 -8.6107794e-03
  7.5528756e-02
 -1.2462066e-02
  1.4025964e+00
 -1.7179647e-02
  1.1358064e+00
 -1.0237615e+00
  4.1535801e-01
  5.6016010e-01
 -6.7843235e-01
  1.1797272e+00
  1.1470878e-01
 -5.1393551e-01
  9.2724186e-01
 -1.7610919e-01
  1.2110054e+00
 -4.2065832e-01
 -1.6828965e+00
 -1.0125626e+00
 -8.7606508e-01
 -6.0169810e-01
  1.5582479e+00
 -4.9286324e-01
 -8.1248319e-01
 -1.3915842e+00
 -3.9169729e+00
  4.0924144e-01
  2.0136120e+00
 -7.0007324e-01
  9.4668365e-01
 -8.6255080e-01
  6.7620492e-01
 -6.8890607e-01
  5.0752795e-01
 -2.9230514e-01
  1.5775591e+00
 -1.2186366e+00
  1.3921832e+00
  5.0495756e-01
 -3.0980363e-01
  9.5163184e-01
 -8.2929239e-02
  5.0594646e-01
  8.5504353e-01
  2.2248211e+00
  7.5441879e-01
  1.7900759e+00
  1.0611750e+00
  6.4893520e-01
  1.8163185e-01
  1.1266023e-01
  3.8277623e-01
  8.7564671e-01
 -4.4874504e-01
  7.8412688e-01
  8.0054981e-01
  1.6661699e+00
  5.1823074e-01
 -3.8030377e-01
  7.7282739e-01
 -1.1105865e-01
  3.3930424e-01
 -1.3408844e-01
 -3.2898057e-01
 -2.8574792e-01
  5.2080220e-01
 -3.7086961e-01
 -1.1426327e-01
 -5.5405863e-02
 -4.1757360e+00
 -4.5997877e+00
  2.6684780e+00
 -2.9250820e+00
  1.9413178e+00
 -2.9254076e+00
 -1.8743595e+00
 -3.4032440e+00
 -6.0537848e+00
  1.8734233e+00
  7.8887053e+00
 -5.4445462e+00
  3.8106549e+00
 -2.6120045e+00
  4.2202124e-01
  1.6618673e+00
 -1.1688375e+00
 -1.1261584e+00
 -6.1135983e+00
  7.0712453e-01
  2.1276550e+00
  2.6559834e+00
 -8.0020416e-01
 -7.7718014e-01
 -1.1309047e+00
 -4.5577028e-01
 -4.6025124e+00
 -5.7722425e+00
  1.4827641e+00
  1.6559652e+00
 -5.7312670e+00
 -1.1672339e+00
 -6.3005381e+00
 -1.7204726e+00
 -2.4395649e+00
 -2.6569813e-01
 -5.0356340e+00
 -2.2648229e-01
 -1.3703260e+00
 -1.4123662e+00
  3.0078992e-01
 -2.0665033e+00
  2.8086784e-01
 -2.3744631e-01
  7.8732193e-02
 -1.0169037e+01
  1.0311779e+00
  3.3798876e+00
  1.2458620e+00
 -2.9149413e-01
 -9.5261246e-01
  7.2848135e-01
  2.3415373e-01
  4.3363556e-01
  1.4325792e+00
 -1.6386344e-01
 -4.9764091e-01
  6.3325733e-01
 -4.8467517e-02
  3.5319358e-01
 -1.6506996e-02
 -1.6850750e-01
 -9.8879158e-02
 -7.8433979e-01
 -1.4771856e-01
  6.1085507e-02
 -9.4323203e-02
  1.1811794e+00
 -5.9798841e+00
  2.7536433e+00
  1.2330936e+00
  3.2426167e+00
 -1.0141561e+00
  3.3103695e+00
 -1.8086327e+00
 -4.9570041e+00
  8.2884502e-01
  2.0413318e+00
  1.3636769e+00
 -1.6279036e+00
  1.1682484e+00
 -2.0091543e+00
 -1.0907937e+00
  1.4772404e+00
 -3.5338092e+00
  4.4047976e-01
  8.6709040e-01
  8.3390802e-01
 -7.8774297e-01
  6.7947507e-01
 -1.5360819e+00
 -3.7474173e-01
 -8.8455486e-01
 -1.4813590e+00
  1.9027158e+00
 -2.6245177e-01
  1.1361125e+00
  2.9440922e-01
 -3.5747594e-01
 -3.6903080e-01
  8.4179699e-01
  1.2524688e+00
 -1.9825604e+00
 -3.3768556e+00
  4.1606117e-02
 -5.4598236e-01
  1.1707453e+00
  8.9760280e-01
 -2.8522632e+00
  8.3170511e-02
 -7.7865142e-01
  2.6149802e+00
  4.7450309e+00
 -1.7666282e-01
  2.4246724e+00
  2.0844498e+00
 -2.3143926e-01
 -4.0900522e-01
  2.3282889e-01
  1.0645507e-01
  2.9779065e-01
 -8.5979503e-01
  3.0449569e-01
 -3.5552931e-01
  1.0728083e+00
  1.6299817e-01
  1.9589989e-03
  1.2004720e-01
  3.3522391e-01
  2.9101679e-01
  3.4076107e-01
  5.7905894e-02
  1.0544559e-01
 -4.0652685e-02
 -5.0819783e+00
  8.8634282e-02
  4.6826953e-01
  1.0579659e+00
  1.3688540e+00
  2.1284423e+00
 -6.0434031e-01
 -6.5271169e-01
 -2.2882791e+00
 -1.0354972e+01
 -1.0979206e-02
  3.0040938e-01
 -2.1853046e+00
 -9.0787417e-01
  6.0818129e+00
 -3.6127281e+00
 -1.6485658e+00
 -1.8746938e+00
 -5.0341983e+00
  5.8491659e-01
 -4.5198827e+00
 -1.7342067e+00
  1.3501533e+00
 -2.4651914e+00
  2.6743395e+00
  8.2376063e-01
  1.8513501e-01
 -2.2855313e-01
  1.1357487e+00
 -6.8230498e-01
  2.8152068e+00
 -6.6047680e-01
  3.2809010e+00
  3.5005164e+00
 -3.0120380e+00
  2.2556748e+00
 -2.2666817e+00
 -1.6525488e+00
  1.4949272e+00
 -2.4253209e+00
 -2.2676101e+00
 -1.4783025e+00
  3.1640189e+00
 -1.9152738e+00
  1.7596697e+00
 -1.0906007e+00
 -2.9721339e+00
 -1.1234598e+00
  2.2594202e+00
  4.1458151e-01
  2.4310799e+00
 -4.4352406e-01
  4.1428956e-01
 -1.0387740e+00
 -9.7241896e-01
 -3.7199751e-01
 -5.8218485e-01
  1.5156497e+00
 -1.4067429e-01
  2.3138742e-01
 -3.3356726e-01
  2.5095576e-01
 -3.1370214e-01
 -5.3942698e-01
  4.9931166e-01
  1.0875800e-01
 -6.5892376e-02
 -6.2711959e+00
 -3.7212784e+00
 -1.8061240e+00
  4.8540533e-01
  6.5187330e+00
 -9.2607802e-01
 -1.0468546e+00
 -2.6555312e+00
 -4.3286519e+00
  7.8302127e-01
 -5.8809620e-01
  7.4864435e-01
  3.6750533e-02
  7.9236621e-01
 -8.4188908e-01
 -5.4503207e+00
  3.5249622e+00
 -3.8012087e+00
  3.5708542e+00
 -3.3091518e-01
  5.5350666e+00
  2.7469037e+00
  8.2788628e-01
  2.6299131e-01
 -1.7685326e+00
  8.0161583e-01
 -4.2127588e-01
  1.1041778e-01
  1.9256285e-01
  2.6597753e+00
  5.2306855e-01
  1.9165011e-01
  2.7438564e+00
 -2.4878043e-01
  1.8105831e+00
  4.7930881e-01
  1.7578380e+00
 -5.1669753e-01
 -9.2242891e-03
  5.2113996e+00
  6.0619020e-01
 -2.1950898e+00
 -8.9121711e-01
 -1.5017999e+00
 -1.3793510e-01
 -1.3770859e+00
  1.6626792e+00
  2.5278264e-01
  2.0471939e-01
  4.3057314e-01
  8.1032223e-01
  5.2307744e+00
  2.1401649e+00
  5.5160230e-01
 -3.3466434e+00
 -9.6244097e-01
  1.1640552e+00
  7.2972971e-01
  2.7656067e-02
  1.1839492e+00
 -7.2118461e-01
  1.6352418e-01
 -6.0018015e-01
  3.2061899e-01
  3.8238272e-02
  1.0977950e-01
 -5.4633254e-01
 -2.3835592e+00
  5.0555027e-01
 -2.9985423e+00
  1.3931894e-01
 -8.3508134e-01
  3.2646579e-01
 -7.5439215e-01
  1.3068864e+00
  2.4074919e+00
 -8.4336096e-01
 -4.9314997e-01
 -1.6460366e+00
  8.6199343e-02
  5.4556835e-01
 -7.2547805e-01
  6.2748092e-01
 -5.5297726e-01
 -1.5022842e+00
 -1.1494862e+00
  4.9674812e-01
 -5.7106405e-01
  1.6402929e+00
  1.4396815e+00
  5.4656535e-01
 -5.9354126e-01
 -7.0754975e-01
  1.5392888e+00
  1.7256156e+00
  1.1785129e-01
 -6.6024795e-02
  5.9775710e-01
  1.3218116e+00
 -2.2546449e+00
  1.1030335e+00
  1.3731234e+00
 -1.3389463e+00
  3.5891515e-01
 -4.4604978e-01
  2.1327300e+00
  6.1106795e-01
  1.3933579e+00
  1.4927706e-01
  1.5545139e+00
  5.9020495e-01
  1.0447538e+00
  1.5425631e+00
  6.2186635e-01
  1.8048691e+00
  7.8658938e-01
 -1.0421526e+00
  3.0264154e-01
  1.3222051e-01
 -1.0187900e+00
 -2.4446100e-01
  1.9437916e+00
  5.6629086e-01
  1.1244065e-01
 -7.1604615e-01
 -1.6711926e-01
 -5.2427477e-01
  3.0150926e-01
  2.6106134e-01
  6.1723316e-01
 -1.2094699e+00
  2.0901214e-01
  5.0030518e-02
  5.9592519e-02
 -6.5082169e+00
 -8.2640057e+00
 -4.3015571e+00
  3.0589752e+00
  4.0254221e+00
 -2.3070051e-01
 -1.0462930e+00
 -2.2685468e+00
 -4.1375041e+00
 -3.9862425e+00
  3.0196769e+00
 -3.6529539e+00
 -2.8013518e+00
 -2.9219437e+00
  1.8079844e+00
 -4.8570685e+00
  8.9582241e-01
 -2.3135850e+00
 -1.5502781e+00
 -1.2757812e+00
  1.4197704e+00
 -2.7069387e+00
 -2.5280919e+00
 -5.3143783e+00
 -2.8501086e+00
  1.3836613e+00
  7.7392742e-02
 -8.5786283e-01
  1.2140717e-01
  8.5258132e-01
  4.0719604e-01
 -2.2921226e+00
 -4.0147195e+00
  2.8014588e+00
 -1.8415018e+00
 -9.7295183e-01
  2.9828531e-01
  2.7661152e+00
 -1.5942218e+00
 -1.9359460e+00
 -1.2748789e+00
 -8.7037551e-01
  7.6142210e-01
  4.2833095e+00
  3.1074431e+00
  9.5661336e-01
  5.9470379e-01
 -1.3900481e+00
  8.4450787e-01
  2.4967501e+00
 -2.9477570e+00
 -3.2652013e+00
  7.0728827e-01
 -2.0014000e-01
 -5.3043933e+00
  9.2687048e-02
 -6.3412845e-02
 -3.4752994e+00
 -7.2357303e-01
 -9.2391767e-02
 -2.9683861e-01
  5.4241359e-01
 -7.9596782e-01
  1.2860024e+00
 -3.4528115e-01
  6.2191635e-02
  1.3593656e+00
  2.5335584e+00
  1.5237747e+00
 -1.0863396e+00
 -4.5485969e+00
 -5.0654006e+00
  3.7305508e+00
  7.0218694e-01
 -1.1034136e-01
  3.8415911e+00
  6.0399017e+00
 -4.4815350e+00
  3.8809233e+00
 -1.4396814e+00
 -2.7847066e+00
  1.0469898e+00
  1.8259022e+00
 -1.9134166e+00
  1.3679379e+00
  3.5570874e+00
  6.2869251e-01
 -4.2658706e+00
 -1.8448356e-01
 -2.2795543e-01
  1.0637488e+00
  1.6121453e+00
  2.7484496e+00
 -1.0605309e+00
  4.4804607e-02
 -9.3605161e-01
 -4.2469725e-01
 -1.9413029e+00
 -3.2769063e+00
  3.8509045e+00
  2.0632710e+00
  1.8027768e+00
 -3.3370991e+00
  3.5479765e-02
 -5.5687332e-01
 -1.1920959e-01
 -6.7874074e-01
  1.1462245e+00
  1.4266144e+00
 -2.2776926e-01
  3.0337558e+00
  6.5446180e-01
 -1.5789905e-01
  5.7428074e-01
 -1.9390986e+00
 -1.6387369e-01
 -6.4334464e-01
 -2.2555366e+00
  2.0405652e-01
  2.8123361e-01
  3.7123210e+00
 -2.3493335e+00
 -3.6561158e-01
  2.9116557e+00
 -1.4940594e-01
 -2.5649437e-01
  4.7182229e-01
 -9.5762497e-01
 -9.5201313e-01
 -7.1825927e-01
 -1.7050149e+00
  9.1515847e-02
 -3.4437990e-01
  3.3379793e-01
  3.9754007e-02
  1.0740883e-01
 -1.7142458e-01
 -7.5049353e-01
 -2.1622996e+00
 -7.0061207e-01
  7.7500534e-01
 -1.4942261e+00
  8.4872939e-02
  6.6356599e-01
 -9.2352921e-01
  3.8536170e-01
  3.5169467e-01
  3.5813451e-01
 -9.6573383e-01
 -3.5071135e-01
  1.9094889e+00
  3.7049681e-01
  1.2036659e+00
 -3.1362864e-01
  8.1560993e-01
  5.3945202e-01
 -2.8976351e-01
  1.0750040e-01
  9.9055946e-01
  7.8936592e-02
 -2.2701836e-01
  6.5202989e-02
  9.7402406e-01
 -7.9929002e-02
  6.7315859e-01
  1.9542108e+00
 -2.2454518e-01
 -1.0821181e-01
  1.7305106e-01
 -3.3642551e-01
  2.2068410e+00
 -4.5197600e-01
  3.7055269e-01
 -8.4620512e-01
 -2.0991714e-01
 -6.0763443e-01
  1.3088818e+00
  1.7181033e+00
  1.6567249e+00
 -5.2296835e-01
  1.1006191e-01
  7.1705002e-01
  1.1115485e+00
  2.6485494e-01
 -1.0088983e+00
 -2.1653447e-02
  4.3873057e-01
 -4.1124013e-01
 -2.2825107e-01
  3.2631853e-01
 -7.1114314e-01
  7.0995653e-01
 -1.5666591e-01
  6.3482279e-01
 -5.1135391e-02
  3.7706327e-01
  1.0381683e-01
  1.3280224e+00
 -2.8240886e-01
  2.9690801e-03
  1.2947260e-01
  1.8577050e+00
 -4.2038174e+00
 -6.3674325e-01
 -5.0914478e-01
  3.3792236e+00
  1.2047702e+00
  2.1713133e+00
  4.5683098e-01
 -1.6129880e+00
  1.8841159e+00
  3.5311995e+00
  1.1120028e+00
  2.1572397e+00
  6.5010649e-01
  1.1793997e+00
  4.6898219e-01
 -2.9136601e-01
  6.9695920e-01
  1.5155141e+00
  1.2433347e+00
  8.4474564e-01
  7.3366547e-01
 -3.3099094e-01
 -9.9285454e-01
 -5.2975935e-01
 -1.6004108e-01
 -3.5367131e-01
 -2.4724464e+00
 -3.6527172e-01
  6.6392846e-02
 -9.2995918e-01
  5.7702679e-02
  6.2054175e-01
  1.6834551e+00
  7.3400003e-01
  6.8405074e-01
 -1.4133167e+00
  8.7164216e-02
  4.1128388e-01
 -9.7491187e-01
  2.8329962e-01
  1.3038752e+00
  2.9501677e-01
 -5.6335551e-01
 -1.7161302e-01
  3.8412157e-01
  5.5832458e-01
  1.8424559e-01
 -3.7726530e-01
 -4.0589869e-02
  1.0298388e-01
 -5.6795727e-02
 -2.8175211e-01
  2.6465744e-01
 -6.7426568e-01
 -6.9527052e-02
 -1.6239123e-02
  6.2650198e-01
  1.2026625e-02
 -1.8146238e-01
  5.7998937e-02
  1.1604898e-01
  7.0478010e-01
  3.7766706e-02
  1.0248289e-01
  3.7296452e-02
  8.8581495e-02
  9.2539281e-01
 -4.4554605e+00
 -6.4006953e+00
 -3.0137098e+00
  1.0961943e+00
  3.7431078e+00
  4.7240603e-01
  6.4361387e-01
 -4.0699410e+00
  5.6686014e-01
 -7.5672932e-02
  1.2826883e+00
 -4.8024788e+00
 -8.6591429e-01
  6.5237057e-01
 -2.6126394e-01
 -1.0074481e+00
 -4.8676615e+00
 -2.6669977e+00
  6.4806008e-01
  8.6532064e-02
 -5.1948724e+00
 -1.0933757e+00
 -4.1325635e-01
  5.8752126e-01
  2.5272696e+00
 -2.1304859e-01
  1.8043830e+00
 -1.3943790e+00
  3.4538868e-01
  5.9695989e-01
 -3.4111257e+00
  1.4010828e+00
 -1.9805819e+00
 -2.4483322e-01
  2.9800352e-01
 -6.9567246e+00
 -2.3350374e-01
 -1.2320384e-02
  2.3287147e-02
 -1.3570796e+00
 -8.7646729e-01
 -1.3850958e+00
 -9.7877896e-01
 -2.4187694e+00
  8.8117033e-02
  5.0682944e-01
  3.2316909e+00
 -3.4878084e-01
  1.8888009e+00
 -2.3517251e-01
 -1.2490615e-01
  5.9656477e-01
 -1.0748523e+00
 -8.2960320e-01
 -9.6706468e-01
  7.2654200e-01
  1.8136475e+00
 -4.6039227e-01
  1.2435502e-01
 -5.2238762e-01
 -1.7436124e-01
 -1.8273643e-01
  1.3041864e-01
 -2.5336406e-01
 -1.1787987e-01
  3.3997944e-01
 -1.4187495e+00
  2.6216462e-02
  7.4383140e-01
  1.2333541e+00
  4.2986053e-01
 -6.9574183e-01
 -2.8119292e+00
  2.7304270e+00
  2.6106498e-01
 -1.4297223e+00
 -1.0884107e+00
  4.0477648e-01
  9.2851967e-01
  9.8907016e-02
 -7.7238441e-01
 -1.9589363e-01
 -2.3270144e+00
 -1.0909442e+00
 -5.4717350e-01
 -4.8698211e-01
  3.0787146e-01
  2.0073909e-01
 -1.4533588e+00
 -1.6677895e+00
  5.5412805e-01
  2.3446140e+00
  7.7985173e-01
  1.7042286e+00
 -2.1583476e+00
 -1.0479547e-01
 -2.4819016e+00
 -4.3967134e-01
 -5.9167713e-01
  2.6582062e-01
 -2.8833144e+00
 -7.9226696e-01
 -7.5194210e-01
  5.5675459e-01
 -1.0798031e+00
 -7.8553909e-01
 -1.0996850e+00
 -2.6170552e-02
 -4.7113828e-02
 -2.6885369e+00
 -4.8212284e-01
  2.3149014e+00
 -5.4501332e-03
  5.3153306e-01
 -2.5411711e+00
 -2.2207506e-02
 -5.2393848e-01
  3.2958764e-01
  2.4999663e-01
 -3.6640960e-01
 -2.3477182e-01
  3.4818569e-01
  8.1695336e-01
 -6.2121135e-01
 -7.1137071e-02
  1.2484638e-02
  1.9172794e-01
 -2.4969356e-01
 -1.5221991e-01
  2.6256862e-01
  2.4577516e-01
  9.4786011e-02
 -1.3452457e-01
  1.5420263e-01
 -6.9890094e-01
  3.9972877e-03
  8.5741687e-01
  2.5401912e+00
 -3.3864820e+00
 -2.4639609e+00
  3.2144895e-01
  3.6532130e+00
 -2.2014425e+00
  2.5210207e+00
 -3.0233651e-01
  3.3218858e+00
 -1.6461929e+00
 -3.2518280e+00
  1.5617371e-01
 -1.0179250e+00
 -1.2117580e-01
 -1.5084971e+00
  3.0988166e+00
 -1.0563108e+00
  1.0685637e-01
  1.6799937e-01
 -9.2729443e-01
  4.0212240e+00
 -3.4448843e+00
 -1.6126442e+00
 -4.6840281e+00
  3.5969496e-01
 -1.9296583e+00
 -2.3794277e+00
  7.4682260e-01
 -2.6086497e+00
 -1.0680723e+00
 -5.6930717e-02
 -2.0594738e+00
  1.4699700e-01
  5.9212941e-01
 -5.6328088e-01
  8.0910689e-01
  2.4393070e-01
 -6.0866028e-01
  6.6010773e-01
 -3.5759282e+00
 -2.1041801e+00
 -3.5001993e+00
  5.0798666e-01
  3.3258371e+00
 -4.2758307e-01
  8.7065464e-01
 -8.3633542e-01
 -1.6677959e+00
 -5.2766979e-02
 -1.3531287e-01
  3.9241726e+00
 -4.3126327e-01
  1.8931553e+00
  5.3213805e-01
  2.8462493e-01
 -9.0656948e-01
  4.6653077e-01
  2.1740949e-01
  2.2585362e-01
 -1.4382017e+00
  3.6725447e-01
  4.3509248e-01
  3.8678061e-02
  5.2464299e+00
  4.7615738e+00
  1.0874165e+00
 -2.2147331e+00
 -1.0723822e+00
  1.4528413e+00
 -2.7501550e-02
 -6.9638050e-01
  2.3143764e+00
  6.3601685e-01
 -2.7058933e+00
  1.9023362e+00
 -2.2632948e-03
 -3.0066819e+00
  5.1648364e+00
  4.3096485e+00
 -3.5855398e-01
 -3.8201034e+00
 -1.2073618e+00
 -2.7103186e+00
 -1.2856106e+00
 -4.6384697e+00
 -1.3100220e+00
 -2.5786886e+00
 -1.2688067e+00
  2.2830226e+00
  4.3030143e+00
 -3.4342902e+00
  1.9118294e+00
  2.7798221e+00
 -1.0084884e+00
 -3.2331071e+00
  1.6398132e-02
  1.2176248e+00
 -1.3905817e+00
 -6.3394660e-01
  3.9921925e+00
  3.0067343e-01
 -2.2604628e+00
 -2.4092522e+00
  3.2741425e+00
 -1.2609563e+00
 -6.8732613e-01
 -1.5240632e+00
 -2.5552793e+00
  8.8003641e-01
 -1.9562340e+00
  2.0904095e+00
  2.2175519e+00
 -3.2548571e-01
  1.5163487e+00
 -1.7374166e+00
  1.2682958e-01
  3.3949524e-01
 -2.3656292e+00
  5.2765429e-01
 -3.2346213e-01
 -1.0940785e+00
  3.2291573e-01
 -1.0174847e+00
 -2.3149571e-01
  8.1863964e-01
 -2.3421837e-01
  1.1374671e+00
  1.3034096e-01
  2.4430400e-01
 -6.5809149e-01
 -5.2640071e+00
 -2.8959534e+00
 -2.8756394e+00
  1.7310692e+00
  2.3541367e+00
  1.4887925e+00
 -1.4590724e+00
 -7.0961463e-01
  3.8113513e+00
 -1.3639487e+00
 -3.7205267e-01
 -1.6293482e+00
 -2.4505508e+00
 -2.3793325e+00
  2.9241340e+00
 -1.7973276e+00
  5.9065640e-01
  7.6490846e+00
 -2.8725963e+00
 -3.2161069e+00
 -1.9378053e+00
  3.5100722e+00
  1.7920609e+00
  3.6635432e+00
 -2.3907759e+00
  8.5441756e-01
 -1.8879703e+00
  3.9336600e+00
  1.9176048e+00
 -1.0136566e-01
  6.0018654e+00
 -1.0596304e+01
 -8.1533957e-01
 -1.9746649e+00
  3.3502293e+00
  5.6043777e+00
 -5.5264459e+00
  2.9665565e-01
  2.1385124e+00
  1.9454533e+00
 -2.4267282e+00
 -1.9888674e+00
 -1.2430594e-01
 -3.6052334e+00
  2.7830298e+00
 -4.1144152e+00
 -5.2423100e+00
 -1.3973958e+00
  1.7285650e+00
 -1.9610180e+00
 -5.1001877e-01
 -3.4974238e-01
  2.2403678e-01
 -9.4285923e-01
  1.0153659e+01
  2.0538599e+00
  3.6009353e-01
  4.7600296e-01
 -5.3111213e-01
 -1.5110453e+00
  8.7445396e-01
  3.4333995e-01
 -1.3259734e-01
  3.1508711e-01
  9.2173487e-02
 -2.1519165e-01
  6.2506151e-01
  7.4611634e-01
  2.0643501e+00
 -3.5525377e+00
 -2.6648681e+00
 -2.5384483e+00
  1.4195515e+00
  2.4158797e+00
 -1.3537838e-01
 -2.3306334e+00
 -8.2361960e-01
  1.0200076e+00
 -3.3318830e+00
 -2.3740640e+00
  1.8191955e+00
  1.4639992e+00
 -3.4904776e+00
 -6.3540138e-02
 -2.2599361e+00
  9.5824534e-01
  4.0599415e-01
 -6.3433039e-01
  2.4600952e+00
  1.7186770e+00
  1.1783522e+00
 -6.7566782e-01
  7.8070158e-01
 -4.1752763e+00
 -5.1087933e+00
 -6.6545226e-02
  3.9926836e+00
 -3.0203695e+00
  2.8137949e-01
  5.1851310e-02
  3.1960540e+00
  2.3261437e+00
 -2.2791657e+00
 -3.2546446e+00
  8.9812815e-01
  3.0037544e+00
  2.4434617e+00
 -5.5135900e-01
 -2.7431107e+00
 -1.3826640e+00
 -2.6997283e+00
 -2.4941382e+00
  2.4277514e-02
  1.9362446e+00
  1.6027094e-01
  6.4118493e-01
 -6.8787384e-01
  4.0985942e-01
  8.4888232e-01
 -4.2670602e-01
  3.3956009e-01
  1.7378510e+00
 -8.2855529e-01
 -1.3319810e-01
  1.0514368e-02
 -7.3399201e-02
 -1.4890468e-01
  1.2271263e-01
  3.1145698e-01
  3.4274384e-01
  1.5961680e+00
 -4.1229807e-02
  4.0482454e-02
  8.3147228e-01
  5.0036922e+00
  3.6624558e+00
  4.4838667e+00
  1.2598065e+01
  3.9215653e+00
 -1.3825946e+00
 -2.9268675e+00
 -1.2352829e+00
 -3.5734580e+00
  3.9128454e+00
  1.9421948e+00
 -5.9272594e+00
 -3.0318203e+00
  7.3861368e-02
 -6.5104258e-01
 -8.6367452e-01
 -3.2842653e+00
  1.1497961e+00
  2.9757223e+00
  2.3224600e-01
 -3.4851328e-01
  3.3857346e+00
 -6.8312329e-03
  2.2931620e-01
 -1.7918830e+00
  1.1801631e+00
 -9.9569088e-01
  9.1192806e-01
  6.5226811e-01
 -2.8158634e+00
  2.9375419e-01
 -6.5043819e-01
  5.0314054e+00
  1.1544639e+00
 -5.0067902e-01
 -2.9410167e+00
  2.5497499e+00
 -1.5954235e-01
 -1.4779361e+00
 -3.0009105e+00
  9.4628108e-01
  1.4501697e+00
 -9.1441590e-01
 -1.4100929e+00
 -2.5337784e+00
  2.0074635e+00
 -1.4711834e-01
 -6.4476162e-01
  1.6161696e+00
  2.0283203e-01
 -2.4674466e-01
 -8.0711924e-02
  3.4696352e-01
 -7.2462744e-01
 -2.8223500e-01
 -4.1277504e-01
  7.2809368e-01
 -1.0498730e+00
  1.7500728e-02
  2.0619750e-01
 -1.0776487e-01
 -1.6908725e-01
 -4.3264970e-02
  4.2116544e-01
 -1.8030943e-02
  9.8625225e-01
 -1.4565176e-01
  2.1214385e+00
 -9.0878236e-01
 -5.0440660e+00
 -1.1127876e+00
 -2.3822165e+00
  3.6130586e+00
  2.1926932e+00
 -6.9023299e-01
  2.2599468e+00
  2.3248122e+00
 -4.0562057e+00
  2.6865768e+00
 -3.6780577e-02
 -1.2070100e+00
 -7.9532605e-01
 -4.9867034e-01
  1.3577941e-01
  2.6895781e+00
  3.2032423e+00
  3.4449773e+00
  7.1599621e-01
 -4.0927000e+00
  2.5339689e+00
  1.9930439e+00
 -3.3099310e+00
 -1.8164240e+00
 -1.0004959e+00
  2.2110164e+00
  1.8250014e+00
  1.8723319e+00
  1.1654810e+00
  9.0188868e-02
 -3.2120365e-01
  5.8959103e-01
  3.7342308e+00
 -5.3735131e-01
 -4.9250584e+00
  2.3595197e+00
  2.3685935e+00
  1.6413696e+00
 -4.8416069e-01
  1.9371883e+00
 -3.1763215e-02
  1.1820540e+00
 -1.6306449e+00
 -9.6307766e-01
  1.4058956e+00
  2.0549426e+00
  7.7078086e-01
 -1.0669753e-01
  3.5623427e-02
 -1.7946079e+00
  1.7539620e+00
  4.2277202e-01
  1.3886130e+00
 -1.2251530e-01
 -8.8647377e-01
 -1.9836095e-01
  4.0135410e-02
 -1.0755367e+00
 -1.9757020e-01
 -2.6823696e-01
 -2.3234762e-01
 -3.5816128e+00
  2.1983492e-01
  6.6929497e-02
  3.9718625e-01
  1.7178478e+00
  1.5128551e+00
  8.8775009e-01
  4.1177516e+00
  2.3032095e+00
 -4.5232730e+00
 -5.0853193e-01
 -1.3343644e+00
 -2.0798955e+00
 -1.0374074e+00
  1.6856780e+00
  1.5372117e+00
  4.7023077e+00
 -8.7654305e-01
 -4.3745971e+00
 -9.7940630e-01
 -3.7292533e+00
 -4.5102218e-01
 -4.9099112e-01
  1.2435269e+00
 -1.7573214e+00
 -2.4546821e+00
 -2.7938361e+00
 -1.4369026e+00
 -8.2864267e-01
  3.8747671e-01
 -1.5607187e+00
 -8.0231726e-01
  5.0237422e+00
  5.0136024e-01
  1.7661449e+00
 -3.7882829e+00
 -7.2662491e-01
 -1.3555272e+00
 -1.3195827e+00
 -2.0196176e+00
  1.4961962e-01
 -1.0701125e+00
 -1.4280486e+00
 -2.2553568e+00
 -9.1765362e-01
 -5.1019537e-01
 -7.1777183e-01
  5.4917359e-01
 -3.9828107e-01
  3.0640924e+00
 -7.5238079e-01
 -5.0055093e-01
 -9.3261287e-02
  1.6441648e-01
 -1.1892217e+00
  1.1751582e-01
  3.2188094e-01
 -7.5093919e-01
 -1.7169516e+00
  6.6425568e-01
 -5.5080527e-01
 -3.5218808e-01
 -1.6643378e-01
 -3.6818224e-01
 -3.5591096e-01
  1.2692069e+00
  2.7650988e-01
 -2.0720895e-02
 -6.7012912e-01
  4.5232272e-01
 -1.9513381e-01
 -2.3260322e+00
  3.5094655e+00
  6.1243777e+00
  5.5007095e+00
 -3.7233136e+00
 -8.0339336e+00
 -1.5494746e+00
 -1.8037773e+00
  4.6426845e+00
 -4.6639171e+00
  1.5974851e+00
 -9.1828470e+00
 -2.3548856e+00
  1.2390608e+00
  1.6528232e+00
 -9.0043098e-01
 -5.9697194e+00
  2.8808124e+00
  2.9091654e+00
 -7.6080221e-01
 -4.7123343e-01
  2.9553227e+00
 -1.6119199e+00
 -1.6416364e+00
  2.3819456e+00
 -2.4974656e+00
 -3.5784227e-01
  1.3600764e+00
 -2.9713763e-02
 -1.5975405e-01
  1.5292064e+00
 -2.4826412e+00
  2.1509194e+00
  2.8757706e-01
  1.9534281e-02
 -6.5833801e-01
 -2.4816735e+00
 -3.7149870e+00
  1.7976171e+00
  7.2253342e+00
 -3.3353361e-01
  4.8023212e-01
 -5.9657311e-01
 -1.8105036e+00
  1.2845173e+00
  1.5585450e+00
 -1.0460885e+00
  1.2130934e+00
  3.9320624e-01
 -1.8655577e-01
 -1.7466210e+00
 -4.2733777e-01
 -1.6408472e-01
  7.5353414e-01
 -1.0437020e+00
 -2.3979492e-01
 -2.0587176e-01
 -3.5550393e-02
  1.8967220e-01
 -5.9475827e-01
 -6.4068221e-02
 -3.0052069e-01
  1.8402904e-01
  8.4945261e-02
 -2.1709898e-02
  1.9650041e-01
 -4.8912171e-02
  4.1051235e+00
 -3.5967693e-01
 -9.2528552e-01
  1.3913679e+00
 -3.2803831e-01
  9.8379600e-01
 -2.6978738e+00
 -1.5242175e+00
  7.1048105e-01
 -5.0810307e-01
  1.3696815e-01
  1.1166425e+00
  1.2406888e+00
 -8.7501401e-01
  3.9990256e+00
 -2.7739437e+00
 -5.2221971e+00
 -7.6647382e+00
  3.7029772e+00
 -5.5768871e-01
  9.9828327e-01
 -7.9643559e-01
 -9.3110123e+00
 -5.2736416e+00
  9.2112535e-01
  1.7342706e+00
  1.6730258e+00
 -5.1441813e-01
 -8.9745575e-01
 -2.0157647e+00
  4.4280653e+00
  4.7467157e-01
  1.5848945e+00
 -2.6258633e+00
  3.0928655e+00
 -2.9734232e+00
 -4.0843672e-01
  5.9004247e-01
 -5.7909856e+00
 -6.3037179e-02
 -3.2055528e+00
 -4.0417728e+00
 -4.4110596e-01
  4.3551354e+00
 -1.9327619e+00
 -1.6716635e+00
  2.7329085e+00
  2.3438833e+00
 -1.8897517e-01
 -4.8288584e-02
  2.0792849e+00
 -1.0646019e+00
 -5.7997320e-02
  1.6913553e+00
  3.6334029e-01
  7.5517344e-01
 -4.8570809e-01
  2.4706773e-01
 -5.0066125e-02
 -2.3695949e-01
  6.7798448e-01
  2.0850508e-01
  1.3345233e-01
 -5.4980242e-01
 -1.3357490e-01
 -9.2460671e-03
  1.5248469e-01
  5.3702551e-01
  2.3315754e+00
  1.9916959e+00
  8.5366249e-02
 -2.8812656e-01
  3.1026433e+00
 -2.0072589e+00
  4.8248215e+00
  4.4999924e+00
  3.0070465e+00
  7.3509628e-01
 -2.6331544e+00
 -2.6839483e+00
 -1.1914221e+00
  1.6097788e+00
  3.3885264e-01
 -1.6332358e+00
  4.2346897e+00
 -2.8997231e+00
  6.0839210e-02
 -8.6303806e+00
 -7.1131665e-01
  8.3691049e-01
 -3.5069665e-01
 -2.3427918e+00
 -8.6509234e-01
  3.4549963e+00
  5.3256540e+00
  1.0834849e+00
  2.4405367e+00
  1.9954491e+00
 -5.6394339e+00
  2.3757541e+00
 -2.8401067e+00
 -3.5774620e+00
  1.1201978e+00
 -3.4272978e+00
 -1.0228393e+00
  2.2349389e+00
 -4.1947131e+00
  1.0026493e+00
 -1.6897476e+00
 -1.0975857e+00
 -3.5814559e+00
  3.4967382e+00
  1.2006885e+00
  1.1157149e+00
  4.9006243e+00
  2.3394930e+00
 -1.8684149e-01
  1.9582418e+00
  1.2391894e+00
 -7.8651482e-01
 -4.3151620e-01
  2.3170044e-01
 -3.7324354e-01
  2.1941781e+00
  2.7580407e+00
 -7.8802325e-02
  4.4729249e-03
  3.9989662e-01
  3.4313783e-01
  4.4736645e-01
 -6.2312584e-02
 -9.5215201e-02
  3.1639481e-01
  1.3337438e-01
 -1.2391388e+00
 -3.5718160e+00
  7.6266546e+00
 -4.4565272e-01
 -3.8943350e+00
 -1.3801110e+00
  4.4364896e-01
 -1.4205444e+00
 -2.4136729e+00
  2.4638379e+00
 -1.8239615e+00
  1.6517082e+00
  6.4844880e+00
  3.7597666e+00
  1.2179840e+00
  1.0061948e+00
  4.3572178e+00
 -6.2044277e+00
 -9.6905224e-02
  1.0653936e+00
  2.3261664e+00
 -7.3440146e-01
  1.8819039e-01
 -6.2693048e-01
  3.4631684e+00
  2.1277163e+00
 -3.8605890e-01
 -1.4366441e+00
 -2.7839572e+00
 -7.5586808e-01
  1.9604151e+00
 -2.5006344e+00
 -1.6127541e+00
 -9.1982037e-01
  5.1436281e+00
 -3.7632043e+00
 -3.3221753e+00
  5.1719322e+00
  2.7721767e+00
  1.6673769e+00
  1.3025804e+00
  1.4341050e+00
 -9.7428411e-01
  4.5958371e+00
 -1.6657705e+00
 -2.8563831e+00
  1.6181523e+00
  5.2185907e+00
  5.3161716e-01
 -8.4776580e-02
 -1.9388103e+00
  1.9475509e+00
  1.0673960e-01
 -5.9774983e-01
 -2.1584661e+00
  1.4189402e+00
  4.4905192e-01
  1.2259570e+00
 -7.0925623e-01
  1.1134136e+00
  2.0450683e-02
  2.6111260e-02
 -4.8371184e-01
 -2.1930778e+00
 -3.3301374e-01
  3.1336343e-03
 -2.1892889e+00
 -7.0340765e-01
  3.0087123e+00
  5.6354923e+00
 -2.2653013e-01
 -1.6765694e-01
 -2.0390649e+00
 -1.7674109e-01
 -1.2467208e+00
  6.5386562e+00
 -6.2461551e-02
 -1.0720594e+00
  1.0095469e+00
 -1.4206908e+00
 -1.3950337e+00
 -1.7296414e-01
  5.1308598e-02
 -8.5357893e-01
  3.9513326e+00
 -8.5837260e-02
 -2.2803717e+00
  3.9525046e-03
 -7.8717411e-01
  1.5078126e+00
  8.5656680e-02
  3.7453118e-01
  1.6421051e-01
  1.0320563e-01
 -3.2565296e+00
 -4.3991113e-01
 -1.2541007e+00
 -2.6140149e+00
  1.4762253e+00
  2.0559955e+00
 -4.4131848e-01
  3.5410160e-01
 -9.0254235e-01
  2.3916805e+00
  2.3388736e-01
 -5.4870462e-01
 -4.6759081e-01
  1.7233030e+00
  2.1068397e+00
 -2.8915620e+00
 -2.8246656e-01
  1.0028977e+00
  1.2876428e+00
 -8.3223683e-01
  8.2877219e-01
  4.2962313e-01
  7.5660855e-01
 -3.3055842e-01
 -5.6493449e-01
  2.7814752e-01
 -7.8837639e-01
 -8.2053745e-01
 -1.5654586e-01
  8.1682092e-01
 -4.7274757e-02
 -1.8623956e-01
  3.9771181e-01
  1.5844113e-01
 -1.4290319e-02
  4.8894244e-01
 -7.5535798e-01
 -3.7422845e-01
  6.2145879e-03
 -2.4184307e-01
  4.6059637e+00
 -3.8917758e+00
  2.1517837e+00
 -1.1036820e+00
 -1.7193225e-01
  2.4358699e+00
 -1.1025099e+00
 -3.7232323e-03
 -2.8589976e+00
  2.5417697e+00
 -6.8283486e-01
  3.1820149e+00
  3.2629189e+00
 -1.2039633e+00
 -2.0501280e+00
  3.4310564e-01
 -2.3413877e+00
 -5.7738525e-01
 -2.6457872e+00
 -2.1211636e+00
 -5.7401997e-01
 -1.6281149e+00
  3.8449910e-01
 -7.2781283e-01
 -1.3222733e+00
  2.9265115e+00
  4.9691588e-01
 -8.2111561e-01
  1.4076205e+00
  2.2700803e-01
 -1.7957438e+00
 -8.9957029e-01
 -2.8362362e+00
  3.9165148e-01
  6.1516845e-01
  2.8903589e+00
 -6.0807781e+00
 -1.0749956e-01
  1.2367809e+00
 -1.7169436e+00
 -1.6362153e+00
 -4.8846450e-01
 -2.3134105e+00
  8.3654159e-01
  4.7787437e-01
 -2.6331234e+00
 -1.1008979e+00
 -1.4478805e+00
 -5.6440324e-01
 -9.0606326e-01
  4.0508699e-01
 -3.2973167e-01
  5.9697503e-01
  6.9739234e-01
  3.1982861e+00
 -3.6846331e-01
 -5.7357180e-01
 -2.3617494e+00
  2.0344578e-01
 -1.1208895e+00
 -2.5243443e-01
 -3.5508934e-01
  1.9323157e-02
  5.0185537e-01
  4.4514894e-01
  2.6255572e-01
  2.0758399e-01
 -3.5755692e+00
 -5.4720106e+00
 -5.9734815e-01
 -3.4976263e+00
 -8.0067253e-01
  3.1989152e+00
 -7.4783623e-01
 -8.4449452e-01
  4.3029265e+00
 -4.5800352e+00
 -1.9931538e+00
 -1.6235463e-01
 -6.1874456e+00
  9.4338477e-01
 -3.2087562e+00
  3.7149951e+00
 -1.9420960e+00
  1.8643123e+00
  2.2136283e+00
 -4.2331824e+00
  1.8168164e+00
  8.2930392e-01
  4.5726719e-01
 -2.2720499e+00
 -1.3540654e+00
  4.1887531e-01
 -8.4905332e-01
  1.3658144e-01
  6.8018824e-01
 -1.2172931e+00
 -9.9931818e-01
  3.6185884e-01
 -8.1651729e-01
  7.3149109e-01
 -7.7078909e-01
  1.7949951e+00
  3.4902463e+00
  2.5082383e+00
  4.2814221e-02
 -7.3498018e-02
  3.2076284e-01
 -9.5410275e-01
  3.0348867e-01
  6.5991092e-01
  3.8900638e+00
  2.6555872e-01
 -1.3899219e+00
  3.2405496e-01
 -1.6003773e+00
 -1.8860671e-01
  5.2917820e-01
 -1.6101219e-01
 -5.8025599e-01
  1.3024302e+00
  6.7233139e-01
 -4.6846673e-02
 -2.0041151e-01
 -1.2694097e+00
  1.3401091e-01
 -5.3465986e-01
  1.5977807e-01
 -5.5907359e-03
 -5.3099561e-01
 -1.0789332e+00
 -1.4336021e-01
 -1.3984396e-01
 -2.8738227e-01
 -5.4707928e+00
 -3.8398910e-01
 -2.4151089e+00
  1.9630281e+00
 -8.3877230e-01
 -4.4390674e+00
 -4.0143261e+00
 -2.7122869e+00
 -6.2630787e+00
  1.8721945e+00
  4.0406847e+00
 -1.8165267e-01
 -6.3076955e-01
 -1.1457793e+00
  1.3635316e+00
  6.1260557e-01
 -1.2456532e+00
 -5.0145608e-01
  1.3191714e+00
  1.2129450e+00
  2.0338459e+00
  1.1293609e+00
 -5.2797264e-01
  5.6567097e+00
  1.2183513e-01
 -5.3995430e-01
  1.9798579e+00
  2.5656838e+00
  2.1950607e+00
 -1.8590467e+00
  3.4081268e+00
 -2.0072286e+00
  3.1172493e+00
  5.5690046e-02
 -1.4698254e-01
  1.5825834e+00
 -1.9989311e+00
  1.6765767e+00
 -2.4497163e-01
  6.8044148e-02
  5.3959787e-01
 -2.0015419e+00
 -1.9662812e+00
  1.7238266e+00
  1.1792182e+01
 -4.9074550e+00
 -9.3944293e-01
  3.4102720e-01
  3.2906368e+00
 -5.7396583e-02
  3.0935199e+00
 -3.6346930e-01
  6.8637991e-01
 -7.4302840e-01
 -3.2493463e-01
 -6.4600027e-01
  1.4815273e+00
  1.3089806e-01
 -2.5584933e-01
 -8.5825163e-01
  1.2618810e-01
  8.1308506e-02
 -2.3025848e-01
 -2.0165244e-01
 -5.4921445e-02
  4.9359590e-02
 -4.4297594e-01
  3.2210934e+00
 -4.7004089e-01
 -1.2470829e+00
 -1.3746413e+00
 -8.3610725e-01
 -1.3552023e+00
 -1.4138041e+00
  6.4137805e-01
 -4.6972638e-01
  2.7872047e+00
 -7.1889997e-01
  4.0096555e+00
 -1.0625784e+00
  1.2554839e+00
  8.4507070e-02
 -7.5971389e-01
 -3.5783973e-01
 -2.5750523e+00
  3.6102042e-01
  1.2723262e+00
 -7.3230886e-01
  1.6695883e+00
  8.5334562e-02
 -3.8556847e-01
  7.4482918e-01
 -5.0278598e-01
  2.7867048e+00
  1.9957767e+00
 -1.1711622e+00
  6.6927075e-01
  1.1294723e+00
 -3.6052400e-01
 -2.6366966e+00
 -5.6983268e-01
 -1.3903484e+00
 -1.8274442e+00
 -5.2970690e-01
  3.7130937e-02
 -1.5969431e+00
  1.3111035e+00
  6.8103391e-01
 -2.5314999e-01
  7.0419425e-01
  8.6165929e-01
 -4.6537644e-01
  2.7834837e+00
  2.5670614e+00
 -1.1971949e+00
  2.9664496e-01
  1.6078191e-01
 -1.4045207e-01
 -5.5094004e-01
 -4.1188499e-01
  5.8985519e-01
 -5.4448175e-01
 -4.9482030e-01
 -3.7801556e-02
  7.4955255e-02
 -1.1650873e-02
 -5.6899828e-01
 -3.5947461e-02
 -5.9379984e-02
 -2.1223103e-01
 -5.7873189e-02
 -7.9987608e-02
 -1.3007632e-01
 -5.0446880e-01
 -1.3281200e+00
  2.1200876e+00
 -1.5954445e-01
 -1.2929929e+00
 -1.0065298e+00
  1.3242105e+00
  3.9398534e+00
 -2.0275760e+00
 -2.6105139e+00
 -7.4765444e-01
 -2.0945492e-01
 -1.3768367e-01
 -1.2352318e+00
  1.7637029e+00
 -1.5720062e-01
  4.8357031e-01
  2.8799908e+00
 -2.1928948e-01
  2.5547009e+00
  1.1393275e-01
  1.4494734e+00
  1.4890505e+00
  1.0925956e+00
 -1.1264936e+00
  1.0139916e+00
  3.7197988e+00
 -1.3430463e-01
  2.6877153e+00
 -5.0987184e-01
  1.6563458e+00
 -1.7011999e-01
  1.8396198e+00
 -4.5092807e+00
  6.6612673e-01
  3.2593856e+00
  1.2025893e+00
  1.1472890e+00
  1.8367000e+00
  1.1784593e+00
 -2.2317328e-01
  1.6404573e+00
  1.2825854e+00
  6.6657406e-01
 -4.7569048e-02
 -1.5747614e-01
  1.6620164e+00
 -1.7152649e+00
  1.5959802e+00
  1.7900431e+00
  2.3633201e-01
 -4.9977767e-01
 -1.0240787e+00
 -4.0309697e-01
 -8.7580606e-02
  9.3211335e-01
 -7.2522998e-01
  1.9216909e+00
 -2.1350687e+00
 -1.3286607e-02
 -6.6955370e-01
  3.5638046e-01
  2.5697567e+00
 -1.0736142e-01
 -9.7820705e-01
  4.7080272e-01
  2.1556620e-01
  4.3254212e-02
 -1.7851110e-01
  2.6962988e+00
 -1.2460219e+00
  9.2340446e-01
  6.5330496e+00
 -2.2854755e+00
 -5.7276993e+00
  3.4184068e-01
  1.3891495e+00
 -7.8424305e-01
  4.1179957e+00
 -3.4393497e+00
  8.1826463e-02
 -3.9558402e-01
  1.7821734e-01
  9.1344494e-01
 -7.0944250e-01
 -8.2776463e-01
 -6.5472579e-01
 -1.2884381e+00
 -2.8515774e-01
  2.8135271e+00
  1.5709853e+00
  8.6512458e-01
  1.3459997e+00
 -8.5984814e-01
  9.7817004e-01
 -1.7569605e+00
  2.3850980e-01
  1.6952420e+00
 -5.7082331e-01
 -2.2200158e-01
 -1.2145559e+00
  8.5082173e-01
 -1.7386372e+00
 -7.0805442e-01
 -1.5810038e+00
  2.1613336e-01
  1.5358497e+00
  2.3467948e+00
 -2.7924654e-01
 -4.3238606e+00
  4.3066815e-01
 -2.4764389e-01
 -3.2196614e-01
 -4.1505456e+00
  7.1216744e-01
  3.3877689e-01
 -1.1796938e+00
 -2.3694885e-01
  4.9086747e-01
  3.7617898e-01
 -1.0052122e+00
  9.2232209e-01
  1.7801620e+00
 -3.5974312e-01
 -1.2238497e+00
 -2.1806604e-01
 -1.4921813e-01
 -5.6904358e-01
 -9.0592727e-02
  1.7557977e-01
 -2.1376204e-01
 -9.8931718e-01
  5.6485370e-02
  2.1644678e-02
 -1.8633939e-02
  1.0869539e+00
  2.5611382e+00
  1.3025776e+00
 -2.2931659e+00
  2.0444725e+00
 -6.9097090e-01
  3.4232944e-01
  1.4289299e+00
  1.6087252e+00
 -8.7013263e-01
 -1.7162671e+00
 -7.4278980e-01
  7.7142489e-01
  1.4416878e-01
  1.2257687e+00
  1.6438466e-01
 -1.1325516e+00
 -3.5826199e-02
 -1.9783167e+00
 -4.6869668e-01
 -1.0516131e+00
  1.8030269e+00
  2.8783309e-01
 -2.9315297e-02
  5.2999675e-01
  2.4595587e+00
 -1.0033267e+00
  2.0248506e+00
  4.3062869e-02
  2.1715772e-01
 -5.4723704e-01
 -7.3908782e-01
  1.3997988e-01
  5.7201046e-01
  1.5513978e+00
 -3.0931306e-01
  2.2189906e+00
 -1.9106242e-01
  7.5619185e-01
  1.4432664e+00
 -8.7742335e-01
 -7.9404593e-01
  9.1883546e-01
 -8.2877314e-01
 -1.4190610e-01
 -7.5013202e-01
 -1.7115746e-01
 -5.4235822e-01
  2.1340210e+00
 -3.0255854e+00
 -2.4723145e-01
  5.9791380e-01
 -1.5025581e-01
 -3.0914137e-01
 -1.4371516e+00
  4.1742586e-02
  1.0617922e-01
  7.3891681e-01
  8.3515160e-02
  1.6298358e-01
  8.2014091e-02
  1.6722769e-01
  2.5691107e-01
 -7.4908346e-02
  1.0342654e-01
  7.3266394e-02
  5.5715743e-02
  5.9700799e-01
 -2.3369558e+00
 -2.1117907e+00
 -7.7107894e-01
  1.0407745e+00
  1.2405982e-01
  1.9460618e+00
  7.5977467e-02
 -2.9349136e+00
 -3.6068101e+00
  2.5234467e-01
 -1.0580029e+00
 -2.9832709e-01
  1.4713023e+00
  1.4151727e+00
  6.3330777e-02
 -3.1052365e+00
  3.5062757e+00
  1.1274239e+00
 -3.0692286e+00
  9.3716693e-01
  4.3183694e+00
  2.1200020e+00
 -1.5349426e+00
 -1.2224547e+00
  1.3579093e+00
 -1.4072526e+00
 -7.1448398e+00
 -1.8155067e+00
 -1.9753689e+00
 -4.9306755e+00
 -2.9848957e+00
 -1.1882433e+00
  4.3877811e+00
  4.3936417e-01
 -1.0820999e+00
 -2.7017996e+00
  5.8268654e-01
 -1.4419901e+00
  2.5349846e-01
 -6.2611639e-01
 -4.9813357e-01
 -2.3330264e+00
 -3.2925403e+00
  1.1816764e+00
  2.1165652e+00
 -3.2522252e-01
  5.0347513e-01
  8.1027704e-01
  7.3270649e-01
 -6.3643903e-01
 -7.2865188e-01
  9.8101699e-01
 -9.7468972e-01
  3.2492816e-03
 -2.8658242e+00
 -7.9027349e-01
  6.6031557e-01
 -8.6839169e-02
 -2.8697950e-01
 -4.8054006e-02
 -5.1892292e-01
  5.1562957e-02
 -1.2856082e+00
 -5.1690452e-04
  1.5142296e-01
 -3.4892908e-01
  3.8566344e+00
  1.4676950e+00
  2.7428617e+00
 -4.9082065e+00
 -6.7316384e+00
 -1.8491478e+00
  1.3562785e+00
  1.7402982e+00
 -6.3632879e+00
  1.9022944e+00
  7.9190081e-01
 -1.7036829e+00
  2.5351162e+00
  1.4039210e+00
 -4.2186189e+00
 -1.3067988e+00
  3.7321296e+00
  1.3671511e+00
  1.1839199e+00
 -8.3516562e-01
 -2.2777100e+00
 -4.1957146e-01
  3.0828181e-01
  2.4948115e+00
  1.0748200e+00
  2.2306705e-01
  9.2700845e-01
  4.4309393e-01
  9.0217859e-01
  1.0262468e+00
 -9.0017538e+00
 -6.3930817e+00
 -4.3442731e+00
 -1.5957185e+00
 -8.1219161e-01
  2.1338875e+00
  1.1888902e+00
 -2.7818377e+00
  1.6207032e+00
  7.7597733e+00
  1.1262751e+00
 -7.7310160e-02
  1.4172045e+00
  7.9574317e-01
 -6.7268014e-01
 -4.6606076e-01
 -3.7718952e-01
  2.5992491e+00
 -8.6720154e-02
  4.0216619e-01
  8.9608842e-01
 -4.4163725e-01
 -1.5344182e+00
  1.0780873e+00
 -1.5659424e+00
  1.7241198e-01
  7.1403146e-02
  1.4225861e+00
  1.4405054e-01
 -5.9397638e-01
 -1.3663279e-01
  4.6000965e-02
  4.4550925e-02
 -1.3226295e+00
  1.9798521e-02
 -1.1643285e-01
  2.2083822e-01
  3.4745836e+00
  1.8146425e+00
 -2.4304798e+00
  1.1593695e+00
 -7.2228985e+00
  6.0759692e+00
  3.9532399e-01
 -2.0340984e+00
 -9.5280182e-01
  2.2246168e+00
  4.0488157e+00
 -1.7614130e+00
 -4.1893992e+00
  3.5361478e-01
 -5.3491467e-01
  2.5719373e+00
 -8.4846252e-01
 -5.1029048e+00
  6.8702862e-02
  2.2515521e+00
  1.5753130e+00
  4.1366139e-01
 -1.3487252e+00
  2.5887203e+00
  1.1849487e+00
  1.6080645e-01
 -3.2677567e+00
 -7.3993188e-01
 -2.3138204e+00
 -1.7446798e-01
 -5.2093720e+00
  1.3843206e+00
 -2.4784775e+00
 -8.6386341e-01
 -1.5111825e+00
 -4.4923706e+00
 -2.2780943e+00
  2.3875159e-01
  9.0274495e-01
  6.6410668e-02
 -1.0440515e+00
 -1.3546729e+00
 -1.3737557e+00
  1.4032979e+00
 -3.4570305e+00
 -3.1749263e+00
  2.6205473e+00
  1.2002845e+00
 -1.0436509e+00
 -2.5367293e-01
 -2.3258564e+00
 -1.7701536e+00
  6.5913022e-01
  6.6800848e-02
  3.5549873e-01
  2.0727688e-01
 -6.0262436e-01
 -1.2930943e+00
 -2.8748736e-01
 -1.1622957e+00
 -2.1790996e-01
 -4.8153359e-01
 -8.0024838e-01
 -1.1740294e+00
 -3.7690759e-02
 -7.9323657e-02
  3.0262193e-01
 -4.1776505e+00
 -3.0564685e+00
  3.0867226e+00
  9.6773362e-01
  4.3977399e+00
 -3.5392599e+00
  2.3698800e+00
  8.0269468e-01
 -2.9843767e+00
 -4.8399124e+00
 -3.8720534e+00
 -8.3896378e-03
 -6.9196510e-01
  1.6313322e+00
 -1.6776273e+00
  3.0210946e+00
  3.3006313e+00
 -1.5078553e+00
  1.9787859e+00
 -6.3666189e-01
 -5.2984176e+00
  2.1663536e-01
 -2.6716928e+00
  4.6256505e-02
  1.8283804e-01
  5.7939291e-01
 -7.9698620e+00
 -2.7231950e-01
 -5.4772139e-01
  6.0291207e-01
 -2.1350486e+00
  2.4417474e+00
  1.9811010e+00
 -1.4635410e+00
 -1.2985427e+00
  2.4285884e-01
  1.9933603e+00
 -5.0573111e-01
  3.0584536e+00
 -2.3901010e+00
  3.4888365e+00
 -8.4200346e-01
  3.5879898e+00
 -1.1637777e+00
 -3.1660407e+00
  3.3984149e+00
  1.9983160e+00
  1.5504113e+00
 -2.6734586e+00
  1.5069824e+00
  2.9746783e+00
 -2.4588563e+00
  5.0130624e-01
  2.6233230e+00
 -3.1469393e+00
 -1.9732281e+00
 -2.8877573e+00
  2.7234581e+00
 -8.3698981e-02
 -1.4095285e+00
 -1.2186277e+00
 -6.5014702e-01
 -1.1490067e+00
 -1.8099785e+00
  1.4128618e-01
 -3.5141820e-01
 -6.9399148e-01
  1.9293870e-01
  4.7156239e+00
  2.6004460e+00
 -5.4175091e-01
 -2.4430263e+00
  1.7603407e+00
  4.9498010e-02
  1.6948161e+00
  1.5437317e+00
  5.1854348e+00
 -1.6317418e+00
  5.7942014e+00
 -2.9971461e+00
  1.0562757e+00
  2.3452706e+00
 -4.2605519e+00
 -6.3154477e-01
 -1.3759595e+00
 -1.0161260e+00
  4.7520480e-01
 -1.1444138e+00
 -2.1059034e+00
  2.5055856e-01
 -2.9841590e+00
 -7.3894542e-01
  9.3645953e-02
  2.5238380e+00
  5.2400666e-01
 -3.4317474e+00
 -8.6731654e-01
  2.6357368e-01
 -2.5675744e-01
  1.7637722e+00
 -2.9000068e-01
  5.3158402e-01
 -1.8226103e+00
  9.4043094e-01
 -1.0277977e+00
 -2.2414026e+00
  2.5302799e+00
  2.1288640e+00
  5.9821445e-01
  8.4026951e-01
  7.8308177e-01
  1.6914258e+00
  2.1516142e+00
  3.0065143e-01
  1.3370277e+00
  3.6971169e+00
  4.0472904e-01
  1.6362920e+00
  6.0066146e-01
  2.3629861e-01
 -3.0741291e+00
 -7.7814299e-01
  1.7446093e-01
  8.4706947e-02
 -2.3922317e+00
  2.2363085e-01
  5.6308504e-02
 -6.6569380e-02
  3.9844830e-02
 -1.2722057e-01
 -9.4665460e-02
  3.9554384e-01
  2.0868742e-01
 -2.2500728e-01
  3.8797174e-02
 -1.2835489e-02
  5.0166473e-02
 -1.9841075e-02
  1.1386212e-02
  1.5945373e-02
 -2.8731961e-02
  6.3422890e-03
  6.3662641e-03
 -6.5074131e-02
 -2.4073403e-02
  2.3043675e-02
 -1.1810610e+00
 -1.0074393e-02
 -1.6793000e-02
 -4.6465687e-02
  3.4835666e-02
  2.0760521e-03
 -1.6221434e-02
  2.0147169e-02
 -6.2911794e-02
 -4.7661491e-02
  2.4251903e-03
  3.7880704e-02
 -6.5238155e-02
  4.4357311e-04
 -5.4559186e-02
 -3.9851941e-02
  7.3499866e-02
  2.6982879e-02
 -2.1546617e-02
 -1.7534146e-02
  3.7082318e-02
  2.2272391e-02
 -8.3236471e-02
 -4.6505161e-02
  2.0223929e-02
 -1.4375864e-02
 -4.7321748e-02
 -7.3028028e-02
 -2.4287496e-02
  5.6997884e-02
  1.4585631e-02
  4.5939855e-02
 -9.2729315e-02
  1.6427319e-02
 -1.1293355e-03
 -3.2276914e-02
 -3.4692533e-02
 -8.0374181e-02
  1.5279424e-03
 -1.3138802e-02
  9.5171578e-02
  6.2500820e-02
 -9.7453156e-03
  5.2205235e-02
 -3.1784356e-02
  2.2138063e-02
 -4.3735962e-02
  2.9444892e-02
 -2.7206110e-02
  8.5668759e-03
  2.0064043e-03
  3.9349115e-03
 -1.0968572e-02
  2.4362653e-04
 -8.2977545e-03
 -2.6009576e+00
 -9.9182820e-01
 -4.7035046e+00
 -4.8072180e-01
  3.8571613e+00
 -2.3734579e+00
  1.9252528e+00
 -2.3198154e+00
 -5.9632087e-01
 -2.7651403e+00
 -4.0533361e-01
 -1.0125533e+00
  9.2729878e-01
  3.8614719e+00
  2.3226006e+00
  5.0592321e-01
  1.4131047e+00
  1.9367481e+00
  3.1503314e-01
 -3.0384107e+00
  9.8363690e-02
 -9.2906559e-01
  1.4703171e+00
  3.5309684e+00
 -7.8904331e-01
 -2.3228776e+00
 -4.1000371e+00
  1.3614074e+00
  3.0673084e-01
  2.1031232e+00
  2.3436577e+00
  2.2692189e+00
  1.3545045e+00
  2.2727258e+00
  1.4026580e-02
  1.8282743e+00
  1.7153382e+00
 -1.1838497e+00
  4.9021113e-01
 -9.4335639e-01
  1.9211481e+00
  3.5877903e+00
  3.0929843e-01
 -1.8002926e+00
 -2.5115252e-01
  2.4147229e+00
 -2.8318739e-01
 -2.2767700e-01
  5.6140223e+00
  4.1052938e-01
  2.7584004e+00
 -1.6802241e+00
  1.5413136e+00
  3.5441774e-01
 -2.4843495e+00
  2.6553321e-01
  4.1344725e-03
  3.2926362e+00
  4.9626507e-02
  5.7463448e-02
 -1.8214536e-01
  7.8738660e-02
  2.6140508e-01
  1.7320185e+00
  2.9067881e+00
  1.4376403e-01
 -8.9622271e-01
  2.4865148e+00
  4.1731415e+00
 -2.8934143e+00
 -1.5209999e+00
 -2.1520982e+00
  6.1717191e+00
 -1.6465324e-01
 -2.1128740e+00
  2.2369223e+00
  2.0749884e+00
 -2.6045446e+00
  4.1119800e+00
 -3.9490874e+00
 -4.2638831e+00
  2.7508461e+00
  2.3483548e+00
  1.1150341e+00
 -5.1487093e+00
  2.6926801e-01
 -1.5767968e+00
  3.8228784e+00
 -3.8648218e-02
 -4.0991516e+00
 -5.6360084e-01
  3.8474271e+00
 -1.3792766e+00
  3.7351468e+00
 -1.5348361e+00
 -3.0350273e+00
 -2.4895751e+00
 -1.5596440e+00
 -3.6396635e-01
  2.5200760e+00
 -2.9835608e+00
  1.5424470e+00
 -1.9787825e+00
  8.5111970e-01
 -5.8009917e-01
  1.8564097e+00
  2.4787581e-01
  8.9346778e-01
 -3.8859792e+00
 -1.6365523e+00
 -5.1557965e+00
  9.0724595e-02
  2.2312815e+00
 -2.9750712e+00
  1.5906085e-01
 -1.7741728e+00
  1.6780559e+00
  2.0148635e+00
 -1.3598756e+00
  1.0715258e+00
  1.5398915e+00
  6.8118227e-01
  8.8582945e-01
 -1.5720412e+00
  1.0555321e+00
 -2.1708627e-01
 -4.3041107e-01
  1.2620230e-01
 -7.5972676e-01
  7.3301323e-02
  3.7776715e-01
  7.8155585e-02
 -3.2305849e-01
  5.4319030e-01
 -2.0782404e-01
  5.8713686e-01
 -1.0207853e+00
  4.6697483e+00
 -1.8194435e+00
 -1.8316492e+00
  1.3620247e+00
 -5.2903438e-01
 -4.9427390e-01
  1.7701197e+00
 -2.9524157e-02
 -1.8059571e+00
 -5.3026915e-01
 -2.3076303e+00
  2.7788064e+00
 -3.5542795e-01
 -3.2932494e+00
  3.1286020e+00
 -5.6535869e+00
  1.3547035e+00
 -3.2517338e+00
 -5.7529092e-01
  3.6383774e+00
  1.9108529e+00
  2.3131995e+00
  3.5329604e+00
  4.3542957e-01
  1.2831304e+01
 -6.7103410e-01
  1.7657757e+00
  2.1499738e-01
 -1.0380152e+00
  1.8372707e+00
  8.5435790e-01
 -1.6598316e-02
 -4.7954879e+00
  4.9797244e+00
  1.2478737e+00
 -6.1431217e-01
 -5.6222792e+00
 -1.0948385e-02
  1.5038273e-01
  4.1383389e-01
 -3.6560190e-01
 -5.6622569e-02
  2.9806134e-01
 -1.8610672e+00
 -2.5473946e-01
  1.3619683e+00
 -2.8988254e-01
  1.5086057e+00
 -5.1911789e-01
  2.5188807e-01
 -6.9335550e-01
  3.0286472e+00
 -9.3218237e-02
 -7.4027020e-01
  1.0285110e+00
 -3.1180322e-01
 -8.1918143e-02
  2.6365295e-02
 -1.3184537e-01
  1.6262121e-01
 -1.8434326e-01
  4.8512451e-02
 -1.0768001e-01
 -6.7631803e-02
 -1.7284752e+00
 -1.9031048e+00
 -3.2699139e+00
  6.7001253e-01
  1.3945357e+00
 -1.7326359e+00
  7.9817528e-01
 -9.3167621e-01
 -2.7123907e+00
 -6.9405806e-01
  1.9307709e+00
  1.6906531e+00
 -2.1391940e+00
 -1.7263491e+00
 -3.1067421e+00
  1.2745080e+00
 -6.9365346e-01
 -7.9127187e-01
 -3.9313488e+00
  4.5100152e-01
 -1.9815935e+00
  3.3987698e-01
 -2.4541490e+00
 -5.1274335e-01
  9.2612702e-01
  1.9062022e+00
 -1.8383808e+00
 -5.9729159e-01
 -5.0817765e-02
 -1.0928890e-01
 -1.7852327e+00
 -1.4566916e+00
 -3.0102718e+00
  1.1568850e+00
  1.7792238e-03
 -1.6646110e+00
  2.6209848e+00
  1.0596238e+00
  1.7774101e-01
 -7.4522567e-01
 -2.8656750e+00
 -3.2820348e-02
 -2.3180944e-01
 -4.4272761e+00
  1.1049123e+00
 -2.2870417e+00
 -6.2955779e-01
  1.1997896e+00
  9.9678004e-01
  2.0265941e-01
  7.9579943e-01
  2.8274050e-01
 -4.0129319e-02
 -4.0328306e-01
  2.5267777e+00
  3.1630459e-01
 -9.5631289e-01
 -9.8221794e-02
 -3.7144914e-01
  1.0423857e+00
 -7.9738401e-02
  4.9809486e-01
  2.1693330e-01
 -1.3204041e+00
 -1.6709231e-01
 -5.0342673e-01
  1.7477483e-01
 -4.6987748e+00
  7.5543797e-01
  3.6714238e-01
  2.9084961e+00
  3.5754237e-01
 -2.7022223e+00
  4.0214460e-02
 -3.7588802e-01
 -5.6403154e-01
 -3.9212327e-02
 -1.8389611e+00
 -7.0320487e-01
  6.5695977e-01
 -3.9230690e+00
  4.1222115e+00
 -2.2095597e+00
 -1.1276853e+00
 -9.5679641e-01
 -4.2172167e-01
  2.3711848e+00
 -2.8764262e+00
  1.1640893e+00
  2.0439672e+00
 -5.0124478e-01
  2.0047219e+00
 -2.4332459e+00
  1.0414228e+00
 -1.9761246e+00
 -2.4984617e+00
 -2.8933290e-01
  1.7814695e+00
  2.5402027e-01
 -1.7024942e-01
 -5.9667939e-01
 -5.9538138e-01
 -1.8406016e+00
  1.3155229e+00
 -2.9819341e+00
  3.6398226e-01
 -2.1440558e+00
 -8.7917632e-01
 -1.5334171e-02
  1.7786171e+00
  8.7960416e-01
 -5.0774755e+00
 -3.2669408e+00
  1.0000039e+00
 -1.9099996e+00
  1.4332196e-01
 -1.1806748e+00
 -2.5994873e+00
  2.6079187e+00
  3.8243037e-01
 -9.9113321e-01
  4.1578910e-01
 -2.7054620e-01
 -3.1778276e+00
  1.8920485e+00
  7.5130284e-02
  3.9376071e-01
  1.0127748e-01
  1.8572196e-01
 -1.4375278e-01
  1.3575618e+00
  1.3832713e-02
  5.7518548e-01
  2.3821433e-01
  3.2643907e+00
  2.4661849e+00
 -2.5363951e+00
 -1.4909247e+00
 -1.5110643e-01
 -2.2069831e-01
  4.9234343e-01
 -4.6589141e+00
 -7.8907233e-01
  4.8660675e-01
 -3.6628525e+00
 -1.8233682e+00
 -4.4686604e+00
  1.7951995e-02
 -5.5001125e+00
  5.8375633e-01
  5.5163007e+00
 -3.1490369e+00
  5.0925857e-01
  9.8500383e-01
 -4.5767400e-01
 -6.9209642e+00
  3.6002357e-02
  2.0653541e+00
 -2.4707530e+00
 -7.5365238e-02
 -4.9778223e+00
  3.8769300e+00
 -7.5588655e-01
 -9.8743516e-01
 -1.4416615e+00
  9.4672799e-01
 -1.0119583e-01
 -5.7977891e-01
  2.5760436e-01
  2.6964318e-02
  2.0409293e+00
  5.7448775e-02
  2.8222588e-01
  1.1269448e+00
  8.6392176e-01
  3.2772441e+00
 -1.5010967e+00
  7.6934683e-01
 -7.6777309e-01
  4.2798904e-01
  2.0560741e+00
 -4.7121522e-01
  4.0812130e+00
  7.6814458e-02
  1.1978294e+00
 -5.9153956e-01
 -1.1422718e-01
  2.0615625e-01
  1.1995047e+00
 -2.6837707e-01
 -2.7144223e-01
  5.3102668e-02
 -8.5243948e-02
 -2.3588879e-01
  1.8038705e-01
  3.0553833e-01
  3.3737254e-01
  1.2450938e-01
 -6.1522022e-02
 -9.3942530e-02
 -1.4252573e-01
  2.9427037e+00
  2.0618410e+00
  3.2360272e+00
 -8.5400712e-01
 -1.3099221e+00
  2.1923707e+00
  2.4899240e+00
  2.8339126e+00
  2.0253282e+00
  2.6890264e+00
  3.2690758e-01
  2.3016584e-01
  4.8335147e-01
  6.4316201e-01
  1.5823925e+00
  9.6865147e-01
  3.3942327e+00
  3.3115706e+00
  7.3435326e+00
 -1.1244848e+00
 -3.5892260e+00
  6.6714352e-01
  2.9609733e+00
  1.8527479e+00
 -1.5004033e+00
 -5.3957534e-01
 -6.4043605e-01
 -1.7345032e-01
 -4.7722602e-01
  1.3114849e+00
  1.5948805e+00
 -2.4442321e-01
  1.0600990e+00
  1.6220490e+00
 -6.6215677e+00
 -1.2029110e+00
 -3.7002704e-01
  2.7293086e-01
 -7.7729380e-01
 -1.1982787e+00
 -6.0990465e-01
 -4.4932752e+00
 -8.4123313e-01
 -1.5041776e+00
  1.4624982e+00
 -3.2952654e+00
 -4.1319170e+00
  4.1798976e-01
  1.6100371e-02
  9.0414822e-02
  2.8079134e-01
  1.9876795e+00
  5.1701099e-01
 -3.7509450e-01
 -3.0542011e+00
 -1.2433072e+00
  1.8237202e+00
 -7.3164028e-01
  2.8267667e-01
 -4.7669178e-01
 -2.7241951e-01
 -1.2616750e+00
 -1.4877269e+00
 -2.7384177e-01
 -8.4885083e-02
 -3.7174237e-01
 -6.3715500e-01
 -8.0515313e-01
 -1.8406299e+00
  4.0614513e-01
  1.3024060e+00
  8.1212163e-01
  1.2400358e+00
 -6.7255557e-01
  2.1202028e+00
 -8.0518663e-01
 -2.9287356e-01
  1.5312310e+00
 -1.6932410e+00
  3.0044666e-01
 -8.6348605e-01
  3.9735143e-03
  1.1625832e+00
 -5.1263624e-01
 -1.2666268e+00
 -1.4826143e+00
  6.5049046e-01
 -3.8905108e-01
 -2.8791366e+00
 -1.0353780e+00
  9.1016337e-02
  1.7670307e-01
 -1.0979492e-01
  1.9075015e+00
  1.2336257e+00
 -1.1415279e+00
 -3.8069889e-01
 -1.5141466e+00
 -3.2497019e-01
 -3.4912801e-01
 -1.8096727e+00
 -2.6932528e+00
 -3.4529319e-01
 -6.1531502e-01
 -2.7631948e+00
 -2.7155819e+00
  3.3562288e-01
 -4.4349822e-01
 -1.0948232e+00
  1.7450047e-01
  6.6022712e-01
 -1.6108718e+00
  1.6432562e-01
  9.5331959e-02
 -8.6879677e-01
  2.4739651e-01
 -9.2682004e-02
 -1.2159485e+00
 -5.4907554e-01
  1.8165858e+00
  3.7898162e-01
 -2.0361834e+00
  6.1345482e-01
  4.0564555e-01
 -4.0730742e-01
  2.8143638e-01
 -6.5886664e-01
 -1.2508252e-01
  4.9775783e-02
  7.7004313e-02
 -2.3787906e+00
 -1.5996804e+00
  4.1316232e-01
 -1.4740627e+00
  3.8109407e+00
  3.7516434e+00
  9.3729705e-01
 -1.2630735e-01
 -3.1998534e+00
  1.1575563e+00
 -1.5380536e-02
 -9.0707481e-01
  2.6590037e+00
  3.6609099e+00
 -2.0560181e+00
  2.5282333e+00
  8.4866387e-01
  1.2635913e+00
  6.6129661e-01
 -3.9313048e-01
 -1.9868331e+00
  3.3281205e+00
  1.1356864e+00
 -1.9061567e+00
 -6.1891317e-01
  6.3372499e-01
  8.9628887e-01
  1.3167754e+00
  5.2168155e-01
 -2.9178720e+00
  2.1647978e+00
  2.3161376e+00
 -7.4648976e-01
 -2.8024290e+00
 -3.0680785e-01
  3.0072639e+00
  1.3059396e+00
  7.9467237e-01
 -3.1860466e+00
  3.1725869e+00
  2.6049099e+00
 -2.2775726e+00
 -2.7418213e+00
 -1.3857173e+00
 -1.2855830e+00
  1.1559347e+00
  8.8486385e-01
 -2.6099093e+00
  2.1594021e+00
  1.7355907e+00
 -1.6227535e+00
 -2.9136755e+00
  3.1151295e-01
 -1.0262760e+00
 -2.8127283e-01
  1.4041249e+00
 -1.2070799e+00
 -4.1800529e-01
 -1.5353101e+00
 -3.2468601e-03
  7.4336076e-01
  1.6447073e-01
 -6.0053784e-01
  3.8269548e+00
 -1.0232099e+00
  3.8517039e+00
  2.0494294e+00
  1.6965959e+00
  1.3747103e+00
 -9.5711887e-01
  2.8581243e+00
  7.2393389e+00
  1.9025139e+00
  6.4089341e+00
 -4.0291028e+00
 -4.2959124e-01
 -2.9662061e+00
 -3.7905095e+00
  2.2075980e+00
  4.5945511e+00
  6.9093525e-01
  3.6285180e-01
  5.1132116e+00
  4.2481575e+00
  6.9723272e+00
 -8.2501960e-01
  8.5658962e-01
  1.2837628e-01
  1.3887174e+00
  3.4490082e+00
 -9.2339599e-01
 -2.3727391e+00
  2.7219329e+00
 -4.2897791e-01
  1.2479284e+00
  1.7016287e+00
 -9.2099154e-01
  8.5194506e-02
  4.5493239e-01
 -1.7034985e+00
  2.8838441e-02
  1.3056611e+00
  8.2500553e-01
  1.6075147e+00
 -2.1681466e+00
 -6.4663968e+00
  2.3293915e+00
  2.7403765e+00
 -1.1561157e+00
 -5.7970530e-01
  1.7746717e+00
  1.9723814e+00
  2.1365242e+00
 -6.9775575e-01
 -2.8746076e+00
 -3.6455944e-01
  7.2487658e-01
 -2.1971920e+00
  1.6806246e+00
 -1.3513453e-01
 -1.2654321e+00
  3.9987984e-01
  3.6569032e-01
  4.7043285e-01
  2.2741100e-01
  3.1906706e-03
  1.3637127e-01
 -3.5109809e-01
  7.4075297e-02
  3.7815714e-01
  3.5979858e-01
 -4.1575325e-01
 -3.1335005e-01
  8.5184351e-02
 -1.1044375e+00
  1.5712006e-01
 -1.7953748e-01
  2.0715253e-01
  1.3445876e+00
  2.1114452e+00
  8.7133873e-01
  1.2703147e+00
 -1.9279610e-01
 -5.9474677e-01
 -3.7359145e-01
 -1.4194568e+00
  1.0725083e+00
  4.5004252e-02
 -4.5544523e-01
 -6.2153262e-01
  6.0106831e+00
  8.7849748e-01
 -1.1658324e+00
  2.1567903e+00
  1.7163608e+00
  1.3068496e+00
  1.7223214e+00
  1.1620491e+00
  1.6152819e+00
  1.4472810e+00
 -1.7394176e+00
  4.0048036e-01
  1.0770792e+00
  1.5506718e+00
  1.3038576e-01
 -8.0713493e-01
  6.0539916e-02
 -6.8927449e-01
 -1.4313953e-01
 -6.0049647e-01
  2.7576962e-01
  1.8934004e+00
  2.6123970e+00
  1.3577709e+00
  2.0726497e+00
  4.2212263e-01
  1.8857188e+00
 -5.7431281e-01
  8.1142811e-03
  1.4134785e+00
 -2.3590050e+00
 -2.7534372e-01
 -1.5479426e+00
  2.7506607e-02
 -1.7240949e+00
  6.5530866e-01
  2.6659768e-02
  6.4188474e-01
 -5.0433431e-02
 -1.0786456e-01
  1.4474447e-01
  2.9788572e-01
  1.9478469e-01
  6.7608304e-02
 -2.2965625e-01
  1.0028638e+00
 -2.3601046e-01
 -6.5577854e-03
 -1.2044198e-01
 -2.4156404e-01
 -3.4979337e-01
  3.9196745e-01
  5.2938610e-03
 -5.4874120e-04
  4.5776284e-01
 -4.6201186e+00
 -1.0958450e+00
  5.6438642e+00
 -1.6977297e+00
 -5.0408006e-01
  1.3844369e-01
  1.5460381e-01
 -1.9217364e+00
 -5.4478484e-01
  5.4616946e-01
 -6.0496168e+00
 -8.0473685e-01
  4.7901699e-01
 -4.5304868e-01
  3.5000589e-01
  3.5326142e+00
 -1.0395527e+00
 -1.2913173e+00
  3.0724158e+00
  6.9428855e-01
 -2.6192737e+00
  1.7957017e-01
  1.2253202e+00
  1.5985209e+00
 -3.2188129e-02
  1.1810156e+00
  2.2645710e+00
  2.4902079e+00
 -3.8091125e+00
  1.0972246e+00
  4.9341803e+00
  2.1250999e+00
  7.3815417e-01
 -1.3008702e+00
  1.1701810e+00
  7.1629584e-01
 -7.3256886e-01
 -1.0474161e+00
 -3.3293767e+00
 -7.8196871e-01
  2.0217831e+00
 -4.4274905e-01
 -1.5117130e+00
  1.6723970e+00
  1.2613666e-01
  7.3558044e-01
  7.7649444e-01
  1.0728254e+00
 -3.4793302e-01
  9.3670118e-01
  5.3093201e-01
 -7.6677924e-01
 -4.9386358e-01
  2.2262613e-01
  2.0616314e+00
 -1.2708619e+00
  3.8978178e-02
  2.0180066e+00
  2.2146356e-01
 -1.4931262e+00
  2.4605921e-01
  5.1730180e-01
 -3.1581485e-01
 -1.3211968e+00
  1.1969342e-01
  1.8213186e-01
  2.3145752e-01
  2.2679589e+00
 -3.3073032e+00
  1.0529820e+00
  6.7016225e+00
 -4.4820533e+00
  1.4427782e+00
 -5.9990937e-01
 -4.3784642e+00
  3.3359568e+00
 -8.6107022e-01
 -3.8378060e-01
  2.0781898e+00
  6.6405582e-01
 -1.5664607e-01
 -1.7859576e+00
  4.1698031e+00
  6.2483394e-01
 -2.4416040e-01
  1.2755212e+00
  3.9925179e-01
  5.3758688e+00
  2.4345229e+00
  1.5099113e+00
  4.6169653e+00
  2.3593915e+00
 -9.8476678e-01
 -2.1658192e+00
  2.3949873e+00
 -5.7635897e-01
 -1.4253314e+00
  2.7477858e+00
 -2.5988181e+00
 -5.3552908e-01
 -9.6421200e-01
 -1.9658762e+00
  6.1132455e+00
  9.9851710e-01
  2.3167815e+00
  4.8435947e-01
  1.8550467e+00
  1.6456127e+00
 -1.6601939e+00
 -7.1972710e-01
  4.4304651e-01
 -2.1970782e+00
 -2.1427499e-01
  4.7336486e-01
 -5.9603459e-01
 -4.6160225e-02
  1.2512959e+00
 -5.0552511e-01
  3.7604788e-01
  1.2893462e+00
 -2.0116687e+00
 -1.5225300e+00
 -8.1565142e-01
 -9.5494699e-01
 -1.1981723e+00
 -4.2674559e-01
  1.4067593e+00
 -8.4213215e-01
 -7.1068656e-01
 -1.8068007e-01
 -9.4389135e-01
 -4.0620312e-02
 -1.4972568e-01
 -2.7770066e-01
  1.5392642e+00
  1.2337600e+01
  1.0047466e+00
  5.2460222e+00
 -2.0522661e+00
  4.1739404e-01
 -7.2648394e-01
  5.3666234e-01
 -1.6914722e+00
  2.0386658e+00
 -1.2080154e+00
  3.6796236e+00
  1.0327510e+00
 -9.1470122e-02
 -2.5963303e-01
 -1.4692792e+00
 -5.6234461e-01
 -2.3095591e+00
  3.4142039e+00
 -1.2652943e+00
 -1.4700909e+00
 -3.6505516e+00
  2.4571087e+00
  9.2634428e-01
 -9.1531783e-01
 -3.0063901e+00
  9.2320603e-01
 -1.7183396e+00
 -2.2386401e+00
  2.6692739e+00
 -3.5316451e+00
  1.2741370e+00
  2.4504056e+00
  9.6217960e-01
 -5.2474642e-01
  3.3651750e+00
  1.5596428e+00
 -1.0589523e+00
  1.1751592e+00
  1.9105715e+00
  2.9694202e+00
 -6.1012667e-01
 -6.5998548e-01
 -1.4120831e+00
  8.8325423e-01
  1.1475105e+00
 -2.1128941e+00
  2.0282862e+00
  3.1743050e+00
 -2.8904057e-01
 -3.2036233e-01
 -3.7155935e-01
  5.9292251e-01
 -2.0719497e+00
  1.3196807e+00
 -2.4867980e-01
  6.6803569e-01
  3.7212965e-01
  2.3376448e-01
 -9.6622236e-02
 -2.5303707e-01
  1.9346981e-01
  3.0995023e-01
  8.7483186e-01
 -4.9719796e-01
  1.8920426e-01
 -7.5165856e-01
  5.7557740e+00
  8.1361008e+00
  2.2242010e+00
 -5.9703097e+00
 -2.7453368e+00
 -2.0915857e-01
 -1.7538793e+00
  3.9680142e+00
  4.4383926e+00
  2.2654269e+00
 -1.3390087e+00
 -1.4219261e+00
 -2.0684242e+00
  9.8377931e-01
  3.5322864e+00
 -5.4363446e+00
 -3.4075606e+00
  2.1464424e+00
  1.0294256e+00
 -4.0104613e+00
  3.2990220e+00
  2.2939608e+00
  2.0328827e+00
  5.0648174e+00
  2.6049020e+00
 -4.4616280e+00
  4.2291179e+00
  3.4339325e+00
 -5.2093635e+00
 -2.3192462e-01
  3.2897975e+00
  5.7789845e+00
  7.7725399e-01
  1.1225920e+00
 -2.5239325e+00
  5.4323716e+00
 -5.4881942e-01
 -2.8895721e+00
 -5.8624358e+00
  1.1768056e+00
 -1.6378272e+00
 -2.1886024e-01
 -5.3539085e-01
 -8.2497841e-01
  7.0998144e+00
  1.4809043e+00
 -1.9793885e+00
 -4.4309278e+00
 -1.7874079e+00
 -5.8012903e-01
  5.6800149e-02
  1.9411254e+00
  2.2139195e-01
 -3.9038119e+00
 -7.5220633e-01
 -7.6620513e-01
  1.3165952e+00
  7.3046672e-01
  2.3261870e-01
  1.8334654e-01
  1.2416902e+00
  2.9357677e+00
 -8.9615697e-01
  1.9951627e+00
  9.9523330e-01
  3.3285359e-01
 -3.7526113e-01
  4.5662632e+00
 -1.3415495e-01
 -2.9084263e+00
  4.3764205e+00
 -2.4311538e+00
  3.4400387e+00
  9.9526435e-01
 -2.8276036e+00
  2.7014372e-01
  2.0021242e-01
 -1.4410455e+00
  1.4727417e+00
 -4.1169319e-01
  5.1517873e+00
  2.7064204e+00
 -1.5314816e+00
  2.1726620e+00
 -9.4425774e-01
 -9.8893940e-01
 -5.4608598e+00
  7.6330113e+00
  3.3737290e-01
  3.5636988e+00
 -6.4079895e+00
 -1.8922421e+00
  2.6113772e+00
 -9.1298443e-01
 -4.2918243e+00
 -8.5696131e-02
  1.5330458e+00
 -2.6423454e+00
 -3.5618961e+00
 -2.5753329e+00
 -5.7659604e-02
 -2.7329150e-01
  4.9942698e+00
  2.1836264e+00
  1.6957887e-01
  1.0923028e+00
  6.3890345e-02
 -2.8031516e+00
  1.3301847e-02
 -2.9437551e+00
 -2.8577313e+00
  4.3279176e+00
  1.4302063e+00
  1.7569235e-01
  6.7167896e-01
  1.6376227e+00
 -5.0372124e-01
  3.7050064e+00
  2.6069281e+00
 -5.1081848e-01
  2.2528181e+00
 -4.8082771e+00
  1.1491457e-01
 -2.1328924e+00
  4.7730322e+00
 -6.6849090e-02
 -1.6323433e+00
 -3.0466074e-01
  5.2969739e-02
  1.9626513e-02
 -1.2803657e+00
 -5.9944328e-02
 -1.1676438e-01
 -4.3489270e-02
  1.3282267e+00
 -1.0808504e-01
 -5.3478897e-01
 -1.3250480e+00
  3.6761835e+00
 -2.0554760e-01
  2.7618518e+00
  5.1592436e+00
 -1.2264349e+00
 -4.5594316e-02
  3.0388989e+00
 -7.1967608e-01
  4.3309875e+00
  1.9212526e+00
  4.7248359e+00
  1.6003687e+00
 -1.9601487e-01
  2.6540518e-01
  4.6594887e+00
  2.0573796e-01
  2.2986126e-01
 -6.0217820e-02
  3.4863660e-01
  2.0851426e+00
 -1.3197021e+00
 -3.3678851e-01
  1.1981481e+00
  1.6991298e+00
  8.3662653e-01
 -2.5500330e-01
  2.0857670e+00
 -7.3502958e-01
  4.1574493e-01
  4.4783771e-01
 -1.3697836e-01
 -1.3034397e+00
 -3.9329176e+00
  1.5745187e-01
 -4.3414626e-01
  2.2585301e-01
  1.1452600e+00
 -9.6086180e-01
  8.8531256e-01
 -2.0351841e+00
  7.8612888e-01
  1.2505658e+00
 -1.2914523e+00
  1.6278198e+00
 -1.6714540e-01
  1.9366789e-01
 -5.7354461e-02
 -4.4095777e-02
 -1.2170096e-01
 -2.1624602e-02
 -1.4622815e+00
 -5.4469127e-03
  1.4429891e-01
  1.1095126e+00
  3.3547755e-02
  2.2851430e-02
  1.5380433e-01
  1.5882768e-01
 -1.7352037e-02
 -3.6060920e-01
  4.8488714e-02
  1.6078332e-02
  3.8751330e-02
 -3.3657303e+00
  1.6466253e+00
  4.3573861e+00
 -5.0457854e+00
  3.9906073e+00
 -2.2518585e+00
  9.0971857e-01
  4.4901662e+00
 -1.6631773e+00
 -6.4067512e+00
  3.1472108e+00
  3.3378943e-03
  2.9093535e+00
 -1.2873708e+00
 -4.9404815e-01
 -1.3973090e-01
  4.0728346e-01
  1.4083462e+00
  5.0558691e+00
 -3.6244938e-01
 -6.9237012e-01
  1.9644802e+00
  9.0977567e-01
  1.7931637e-01
  1.9230064e+00
  1.6576796e+00
  4.2731705e-01
  4.9610119e+00
  1.1906781e+00
  4.6633926e-01
  1.0243118e+00
 -3.1043410e-01
  4.2640525e-01
  1.5221919e-01
 -1.3509119e+00
 -1.0490673e+00
 -4.3849510e-01
  2.3125570e-01
 -4.9211536e-02
  9.4282216e-01
 -1.6229589e-02
 -2.7018827e-01
 -9.6468657e-01
 -1.1362609e-01
 -2.6571116e+00
 -2.0766122e+00
  4.7690576e-01
 -1.5787426e-01
  9.5325220e-01
  7.5916224e-03
 -7.3463172e-01
 -4.7183165e-01
 -8.5330701e-01
 -3.6745706e+00
  3.8492687e+00
  8.9912915e-01
 -5.9316295e-01
 -2.8924420e-03
 -4.7951555e-03
  8.2933861e-01
  3.8624872e-02
  3.3994257e-01
  1.3218144e+00
  5.6953329e-01
  2.5181371e-01
  6.7527980e-02
 -1.4907131e-01
  4.0547708e-01
  2.6320562e+00
  2.2513464e-01
  1.9574655e+00
 -1.3180109e+00
  2.0570817e+00
 -1.2500565e-01
 -1.1704805e+00
  1.7068821e-01
 -9.9259835e-01
 -9.0234154e-01
  2.1577086e+00
 -9.3002033e-01
  2.6147544e+00
 -8.1145132e-01
  3.7132189e-01
  2.4575913e+00
  4.1414249e-01
  5.7494301e-02
  1.1802251e+00
  6.9246836e-02
 -2.3427160e+00
 -6.8157578e-01
 -4.8344925e-01
  5.3081262e-01
  1.7261751e+00
 -8.8435268e-01
  1.0459999e+00
 -2.1862991e+00
  1.2337083e+00
  2.2290547e+00
  3.8745783e-02
 -1.3834820e+00
  5.5162752e-01
  1.4281602e+00
 -4.3292004e-01
  4.3946758e-01
 -4.4719383e-01
 -8.9182073e-01
  1.7182831e+00
  2.9457641e+00
 -1.9057227e+00
 -2.3181243e+00
 -3.2806063e-01
  7.4252546e-01
 -2.4414247e-01
 -2.6071206e-01
  8.2063538e-01
  9.7159702e-01
  1.0069668e-01
 -1.1332396e+00
  3.8564128e-01
  1.5789397e+00
  1.7504261e+00
 -2.2200823e+00
  9.6374810e-01
 -1.1761155e+00
  1.0786626e+00
 -1.0554165e-01
  7.4452335e-01
 -5.0134128e-01
 -5.2413195e-01
 -2.1758745e+00
 -1.1671695e+00
 -1.3321355e-01
 -1.3703921e-01
 -7.1433151e-01
  4.1181006e+00
  2.6455555e+00
 -2.7288771e-01
  4.2095165e+00
 -4.3602228e+00
 -2.0234113e+00
  1.3965335e-01
 -2.4707847e+00
  1.4196903e+00
 -2.8392518e+00
 -5.4084933e-01
  2.7211256e-02
  2.1874588e+00
  7.2898078e-01
  2.1860528e+00
  4.5921135e+00
 -2.0066736e+00
 -4.3376732e+00
 -2.8197432e+00
 -7.1227944e-01
 -1.2134870e-01
  2.5932294e-01
 -1.7988800e+00
  1.0843283e+00
  3.4933737e-01
 -9.0620339e-01
 -1.4893435e-01
 -2.9024577e+00
  2.4415433e-01
 -1.5037590e+00
 -1.3902619e+00
  3.4916964e+00
 -2.0875239e+00
  3.0448673e+00
  2.4533906e+00
 -1.5787214e+00
 -3.9474726e+00
  7.6825166e-01
  3.2757697e+00
  1.3717968e+00
 -1.3671961e+00
 -3.1971886e+00
 -1.6975905e+00
  3.3409405e+00
  1.9676045e+00
 -1.5945647e+00
  3.0960268e-01
  4.4530134e+00
  2.1930888e+00
  2.7480243e-02
 -5.1297724e-01
  8.4207332e-01
 -3.2247186e-01
  8.5158956e-01
  4.1763511e+00
 -6.1526728e-01
  7.4535406e-01
 -2.5907819e+00
 -2.7033135e-01
  1.1354654e+00
 -1.5735249e-01
 -5.9750628e-01
 -3.1619042e-01
  7.1827173e-01
 -5.8534586e-01
 -1.1793928e-01
  3.6690840e-01
  1.8627931e+00
 -2.2504139e+00
  2.3341119e-01
 -4.0652886e-01
 -1.6973336e+00
  6.8647064e-02
  4.2932805e-01
 -1.8270061e+00
  3.1810859e-01
  2.6495771e+00
 -6.4452225e-01
  6.1803613e-02
 -5.9740186e-01
  1.4494938e-01
 -7.9047287e-01
 -1.2331561e+00
  9.1954758e-03
 -2.1523736e+00
  3.3927745e-01
  2.5754404e+00
 -3.4561653e+00
 -1.0659081e-02
  7.5138336e-01
 -7.7863407e-01
  4.2734966e-01
 -4.4089663e-01
  2.0217209e+00
  5.7362181e-01
  1.1989352e+00
  1.6039588e+00
 -1.3157916e-01
  1.3103033e+00
 -1.9696975e-01
 -6.7761505e-01
 -1.2105983e+00
  2.1858335e-02
 -1.9894263e-01
  2.2052462e+00
 -4.3691644e-01
  4.8164248e+00
  8.2448447e-01
  7.4664247e-01
 -1.6519314e-01
  1.0975759e+00
  8.8259149e-01
  1.8331820e+00
  1.9173722e+00
 -5.3943735e-01
 -1.1317717e+00
  4.2934379e-01
  7.4363911e-01
 -5.3488171e-01
 -1.5768431e-02
  6.8689060e-01
 -2.3774509e-01
 -1.8126586e-01
 -3.3963045e-01
 -3.4515239e-02
 -6.9703832e-03
 -5.2474499e-01
 -5.5776406e-02
 -1.0403392e-01
 -1.8196736e-01
  1.9813357e-02
 -7.0752680e-02
 -9.3466349e-02
 -4.0602735e-01
 -5.3534901e-01
 -1.0823638e+00
  1.4991170e+00
 -9.7583723e-01
  6.9084622e-02
  1.6770041e+00
  2.6448959e-01
 -1.2817910e+00
 -1.8853073e-01
 -2.1060424e+00
 -9.5081687e-01
  1.0370337e+00
  1.6939534e+00
 -4.1677040e-01
 -1.0725125e+00
 -8.8401228e-01
 -5.7999942e-02
 -8.3153886e-01
 -1.0478562e+00
  1.1960907e-01
 -5.4178166e-01
 -1.4635088e+00
 -8.4974205e-01
 -1.7013131e+00
 -6.7787685e-02
 -2.0231950e-01
 -4.4353360e-01
 -2.6392148e+00
 -8.5148233e-01
  4.0073296e-01
 -7.0662123e-01
 -2.3773059e-01
 -1.5257450e+00
 -2.4412273e-01
 -1.4526285e-01
  1.0108911e+00
 -5.1872337e-01
 -1.6758506e-01
 -3.2750714e-01
 -1.9463414e-01
 -2.1964021e-01
 -1.3237293e+00
  5.3573228e-02
  7.1134573e-01
 -5.9865452e-02
 -5.8874327e-01
 -3.5841680e-01
 -2.4262951e-01
  2.0407526e+00
  4.5259830e-02
 -9.6334346e-02
 -1.6347958e-01
 -7.8169629e-02
  8.4265418e-02
  9.8667368e-02
  4.1706741e-02
 -7.3898807e-02
 -1.1827826e-01
 -5.4037571e-03
  2.4174689e-04
 -1.2125874e-01
 -4.3179978e-02
 -2.1412100e-01
 -1.1248719e-01
 -2.9983802e-02
 -1.3357252e-01
 -2.5523778e-02
  2.4874325e-01
  9.4064730e-01
 -5.0742972e-01
  8.3180822e-02
  2.8494685e+00
  9.7820318e-01
  7.5071687e-01
 -1.1412672e+00
 -2.3324910e-01
  2.0387347e+00
 -3.7046044e+00
  1.8370459e+00
 -7.5369519e-01
 -2.5617349e-01
 -3.2394022e-01
 -1.3127644e+00
  1.2691529e-01
 -1.6609510e+00
 -1.0015393e+00
  5.6204665e-02
 -5.0157076e-01
 -1.7741105e-01
 -4.7309625e-01
 -1.8332073e-01
 -2.9618913e-01
 -4.4789657e-01
 -6.5066475e-01
 -1.8140310e+00
 -1.4683925e-01
  4.0758526e-01
  2.7530169e-01
  4.5004213e-01
 -6.1342340e-02
  8.6595231e-01
  5.5205220e-01
 -8.3625966e-01
 -7.3408943e-01
  5.4905438e-01
  1.6977522e-01
  4.2242527e-01
 -2.3997832e-02
 -2.8845015e+00
 -6.7832142e-01
  2.6806223e-01
  3.1492752e-01
 -4.8160765e-01
 -1.4074200e-01
 -1.6744044e-01
 -1.8736242e+00
  2.9605005e-02
  4.3276465e-04
 -1.1357751e-01
 -1.9328301e-01
  4.5566064e-01
  2.7160120e-01
  1.0823425e-01
 -1.8934298e-01
 -2.4995354e-01
 -4.2407416e-02
 -3.3281928e-01
 -4.9537360e-03
 -8.5164271e-02
  8.0133341e-03
 -5.1885915e-01
  6.6141356e-03
 -2.2290431e-02
 -3.6632117e-02
  5.2821679e+00
  5.2621598e+00
 -4.5968871e+00
 -3.9454522e+00
 -7.4569097e+00
  3.9521017e+00
 -6.2264109e+00
 -1.2823476e+00
  4.9800596e+00
  7.5994711e+00
  7.9371119e+00
 -3.4916945e+00
 -8.9890653e-01
  3.3726079e+00
 -1.9456240e+00
  5.2452536e+00
 -3.4574723e+00
  3.8902694e-01
  1.7507795e+00
 -5.0802722e+00
 -1.7286539e+00
  2.3672464e+00
  8.2498968e-01
  5.4680431e-01
 -2.4839756e+00
 -2.4136519e+00
  3.9430780e+00
  1.6680973e+00
  2.4576633e+00
 -2.6525009e-01
 -1.4236970e+00
  2.9401567e+00
 -6.1875993e-01
  1.1928345e+00
 -1.7463189e+00
 -7.8640521e-01
 -3.0373374e-01
 -1.2729803e+00
  1.5192305e+00
  1.7137239e+00
  7.6188499e-01
  2.4753382e+00
 -3.6690867e+00
 -1.0942398e+00
  7.3143544e+00
 -4.1604513e-01
 -1.2155952e+00
 -5.0474155e-01
 -6.4283049e-01
  3.0298147e-01
  2.5164041e-01
  2.5694203e+00
 -2.1710157e+00
 -1.9087373e-01
 -1.0539238e+00
 -6.4866543e-01
 -2.5979748e+00
  2.4955165e+00
  2.7339302e-02
  2.7690557e-01
 -1.2628822e-01
  1.1175279e-01
 -8.5578698e-01
  5.2855039e-01
  5.1512122e-01
 -1.8144372e-01
  4.0936846e-01
  4.9784751e+00
  2.7770705e+00
  3.9699678e+00
 -2.8944864e+00
  2.7207179e+00
  3.8431433e-01
  2.6049380e+00
  1.5601003e+00
 -2.0942948e+00
 -2.9616666e+00
 -2.8627906e+00
  5.1404061e+00
  3.9430974e+00
 -2.3962755e+00
 -3.5467098e+00
 -1.1905977e+00
  3.4125381e+00
 -3.2340577e+00
 -5.0883732e+00
  1.9974943e-01
  3.8902464e+00
 -2.6090498e+00
  7.2940311e+00
  2.7375579e+00
  6.4387447e-01
  1.6999624e+00
 -1.3977183e+00
 -1.2572578e+00
  1.1667897e+00
 -1.5992093e+00
  2.5741727e+00
 -1.1547580e+00
  8.0533832e-01
 -9.8493308e-01
  3.9251986e+00
 -2.9886696e+00
 -1.2587569e+00
 -2.2977300e+00
  3.4919429e+00
 -9.4618440e-01
  1.3556762e+00
 -9.7309756e-01
 -1.6856033e+00
  4.7010398e-01
 -2.0436754e+00
  4.7684555e+00
  4.5674434e+00
 -2.6869161e+00
 -2.4022279e+00
 -9.3709022e-01
 -5.3072244e-01
  1.2738404e+00
 -3.5129037e-01
  9.8824456e-02
 -6.7073517e+00
 -1.1167442e+00
  1.8850225e+00
  1.9237804e+00
 -1.0240726e-01
 -6.2017906e-01
  4.1442078e-01
 -1.4665510e-01
 -6.9091308e-01
 -2.2315795e+00
  7.0491657e-02
  3.7770640e-02
 -2.7098730e-01
 -3.2427614e+00
 -7.6191826e+00
 -1.2137192e+00
 -2.2755537e+00
 -4.8663788e+00
  2.2326615e+00
  3.4964347e+00
  3.0773480e+00
 -2.6073923e+00
 -1.2911413e+00
 -3.8944893e+00
  2.1683562e+00
 -2.9013896e+00
 -1.0251231e+00
 -1.4608424e+00
  1.5172830e+00
 -9.3423122e-01
 -8.3573967e-01
  6.4340368e-02
 -1.2888672e+00
  1.2359773e+00
  4.3140860e+00
 -3.4068117e+00
  1.5202100e+00
 -5.0633991e-01
  3.8350468e+00
  1.8067775e+00
 -3.2013817e+00
 -1.3138553e+00
 -1.4177622e+00
 -1.7266563e+00
 -3.3734977e+00
 -3.9575515e+00
  2.5981295e+00
  8.7329054e-01
  3.2987416e+00
 -8.4767580e-01
 -3.4804120e+00
 -1.3162369e+00
 -1.7509253e+00
 -7.8508663e-01
 -4.1042004e+00
  3.4336665e-01
 -1.0197470e+00
  2.4911022e+00
  2.5773525e+00
 -6.8489693e-02
 -1.8085703e+00
 -9.9632543e-01
 -3.7775332e-01
  1.3726991e-02
 -1.7231329e-01
  4.6907708e-01
 -4.9366713e-01
 -5.3159577e-01
 -4.1420820e-01
  6.7578846e-01
 -7.1847165e-01
  5.5966765e-02
  1.8740739e-01
 -1.1010142e-01
 -7.6608211e-02
 -2.3921208e-01
  3.5894185e-01
 -4.4901263e-02
 -3.2233529e-02
  2.2838673e-02
 -2.8180089e+00
  1.4128618e+00
  1.9061493e+00
 -5.9742641e+00
  5.5972252e+00
 -1.7435999e+00
 -5.2033010e+00
  3.5248446e-01
 -6.1799169e-01
  2.7037468e+00
  1.9437857e+00
  7.8125858e-01
  2.5857899e+00
  1.7153692e+00
  2.3853710e+00
  1.1763489e+00
  9.4485343e-01
 -2.3132691e+00
  3.1160045e+00
  1.1283696e+00
  8.6098242e-01
  2.6837947e+00
  1.0843253e+00
 -1.3938404e+00
  1.1401894e+00
  1.3889166e+00
  1.2829243e+00
 -3.5652250e-01
 -1.2240515e+00
 -1.2172635e+00
 -3.6341321e-02
  3.2072270e+00
  2.7460854e+00
 -1.5544183e+00
  2.8238064e-01
  1.8841294e+00
  5.9159980e+00
 -2.4600913e-01
 -1.2535530e+00
  4.7236553e-01
  4.4987135e+00
 -1.6190956e+00
 -1.1130344e+00
  1.0609059e+00
 -2.6733239e+00
  3.4971020e+00
 -9.8665959e-01
  9.9615520e-01
 -1.3497477e+00
 -2.4045561e-01
 -1.4070729e+00
  1.0510406e+00
  4.0695283e-01
 -8.6072373e-01
 -2.5295877e+00
 -3.8704127e-01
  6.7291379e-01
  2.2046897e-01
  1.9462413e-01
  4.3850920e-01
  1.5122707e-01
 -1.2565918e-01
 -3.2060826e-01
  4.4990382e-01
  7.4642904e-02
 -1.2581387e-02
 -6.8688847e-02
  8.1610279e+00
  3.2215950e+00
  4.4203129e+00
  1.0991039e+00
 -4.0623369e+00
 -2.6564066e+00
  1.9656297e+00
  1.8413348e+00
 -2.3985796e+00
  1.6923163e+00
  4.7199053e-01
 -2.6943014e+00
  9.2647856e-01
 -3.3955948e+00
 -1.2769045e+00
 -2.1013455e+00
 -1.5656902e+00
 -3.6004815e-01
 -2.9031291e+00
 -5.4383045e-01
 -8.0943722e-01
  3.0795054e+00
 -2.9039913e-01
 -4.7444353e+00
  1.4037197e+00
 -2.3040791e+00
  2.3228788e+00
 -7.7542616e-03
 -1.6063058e+00
 -5.4752177e-01
 -1.1951301e+00
  2.0542138e+00
  5.3554850e+00
  1.4623690e+00
  1.1091709e+00
  6.4463133e-01
 -4.0069580e+00
 -1.4810759e+00
  1.4546624e+00
 -1.3744700e+00
  1.3100429e+00
  4.3969240e+00
  2.0102158e+00
 -1.8554331e+00
 -4.4212151e-01
  3.8453963e+00
  1.3084370e+00
 -1.1142360e+00
  4.5267873e+00
  2.8508902e-01
 -8.9012915e-01
  2.1339776e-01
  3.3210170e-01
 -4.8776379e-01
 -1.4540452e+00
  5.8657742e-01
  7.6931918e-01
  1.0157017e-01
  1.0512790e-01
 -4.1479234e-02
  1.8276890e-01
  5.4692078e-01
  2.6574764e-01
  2.0757658e+00
 -6.3681692e-02
  3.0956993e-01
  7.0027918e-01
  3.4489118e-02
 -6.2489603e-02
 -1.0693304e-02
  7.9160720e-02
  9.2616091e-03
 -1.0764690e-02
  4.2851541e-02
 -1.7740883e-02
  1.3940650e-02
 -1.1610884e-02
 -3.2913435e-02
 -2.4911292e-02
 -2.1340635e-02
 -1.0164740e-02
 -2.4401424e-02
 -3.4598734e-02
 -2.9027728e-02
 -3.9999053e-02
 -1.0237203e-02
 -3.1343371e-02
 -6.7093037e-02
 -6.9864772e-02
  2.0453359e-03
  4.3688178e-02
  8.4904812e-02
 -2.1910856e-02
  1.4174639e-02
 -1.4198573e-02
  1.8774735e-02
  2.8688235e-02
  1.0868180e-02
  2.4261482e-02
 -4.4486996e-02
  4.2513460e-02
  5.9105899e-02
 -3.3538062e-02
 -2.1848775e-02
  1.1557112e-02
 -1.7091999e-02
 -4.7288472e-03
  6.6804744e-02
  4.1445095e-02
 -5.8130022e-02
  2.8978687e-02
  5.2303314e-02
 -9.6763745e-03
  2.7475111e-02
  3.5316270e-02
  1.6330532e-04
  5.4368474e-02
 -6.4415717e-04
 -5.0699741e-02
 -1.7563866e-01
 -8.3253495e-03
  7.1722701e-02
  6.9990858e-02
  6.9470905e-02
 -1.3044304e-02
 -5.9697258e-01
 -5.1890749e-02
 -3.1267069e-03
  2.3617536e-02
  1.2710418e-02
  8.9725070e-03
  1.7542643e-02
 -8.3008138e-03
  3.2801688e-02
  1.3707318e+00
  5.2700609e-02
  3.2245508e-01
  1.8464272e+00
 -4.7441812e+00
 -4.0128407e+00
 -2.8719857e+00
  1.2557937e+00
 -6.2175655e-01
 -8.8435239e-01
  4.5312400e+00
 -9.8391552e+00
 -1.9902732e+00
 -4.1042571e+00
  2.2400056e-01
  5.8640724e-01
  2.2397771e+00
 -2.0576304e-01
 -4.1290178e+00
  1.4214822e+00
 -1.0160309e+00
 -2.0464659e-01
 -4.3261576e-01
 -4.8767558e-01
 -4.7126311e-01
 -1.8796761e-01
 -1.3217441e+00
  2.9543676e+00
  6.2215990e-01
 -4.1544491e-01
 -1.6891245e+00
  2.5106151e+00
  3.7362478e+00
  5.2474874e-01
 -1.8159720e+00
  6.0920615e-02
 -8.1887418e-01
  1.6299689e+00
 -8.1308579e-01
  1.7259495e+00
 -1.0406615e+00
 -6.1358118e-01
  2.4299450e+00
  3.3593621e+00
 -6.4646557e-02
 -1.1647265e-01
  9.0485245e-01
 -8.5879689e-01
 -3.0060103e+00
 -1.3838033e-01
  1.5084861e-01
  9.7711670e-01
  4.2678335e-01
 -6.5323997e-01
 -1.0579305e-01
 -1.1034826e-01
  4.0507418e-01
 -6.4617187e-01
  6.9749512e-02
  4.7668749e-01
 -1.2303685e-01
  2.3151918e-01
 -3.0045000e-01
  7.4418999e-02
  1.6013287e-02
  1.3047895e+00
  2.0230928e-01
 -5.4416637e+00
  2.4752395e+00
  1.2683430e+00
 -3.0231106e-01
  6.6712880e+00
 -1.7488089e+00
  2.2031794e+00
  2.3234379e+00
 -1.8777092e+00
  2.0807817e+00
 -8.2902014e-01
  4.2595735e+00
  9.4151944e-01
  3.0362627e-01
  2.8978732e-01
 -1.2868607e+00
  1.1037409e+00
  4.4715342e-01
  2.2851334e+00
  3.8877409e+00
  6.5095592e-01
 -2.9992573e+00
 -5.3728037e+00
  1.8490968e+00
  7.9721618e-01
 -1.6172212e+00
 -3.7995980e+00
  6.8501681e-01
 -1.5418900e+00
 -5.3739738e-01
 -8.1697083e-01
  2.3954151e+00
 -5.6430774e+00
  1.8969481e+00
  2.1642029e+00
 -2.9060380e+00
 -9.5777196e-01
  1.7221833e+00
  1.6788046e+00
  5.7306600e-01
  3.8222401e+00
 -2.0024354e+00
  4.4124514e-01
  4.9897223e+00
  7.3893386e-01
 -8.2375479e-01
  2.9866428e+00
 -1.3877259e+00
 -4.8644519e+00
  1.3307693e+00
  1.4871836e+00
 -2.4151680e+00
  4.1482931e-01
  2.7549312e-01
  7.1931258e-02
  1.7568226e-01
  2.0486759e-01
  5.2333510e-01
  9.7346693e-02
  1.4636163e-01
 -2.3773475e-01
 -7.8545012e-02
  8.4491241e-01
 -2.6415559e-02
 -6.2762678e-02
  1.6472377e-01
 -1.0349467e+00
  6.7168465e+00
 -2.8100231e+00
 -3.9145083e+00
  3.5123749e+00
 -8.3409529e+00
 -5.1919966e+00
 -4.5530338e+00
 -4.0097389e+00
  1.1438369e+00
 -6.8279600e-01
 -1.4628968e+00
  1.6542480e+00
  2.5931850e-01
 -6.7468214e-01
 -4.8894784e-01
 -5.3325891e-02
 -4.4394803e-01
 -2.3202076e+00
  1.8165953e+00
 -6.4255017e-01
  1.2370604e-01
  2.8622586e-01
  3.0351419e+00
  1.9861882e+00
  1.7736086e+00
  2.5909880e-01
 -2.3301430e+00
 -1.3658900e+00
  1.1634091e+00
  1.1462920e+00
 -4.5417204e+00
  2.5197170e+00
  2.6511793e+00
 -1.9554167e+00
 -2.0616589e+00
 -3.0957136e+00
  5.0557489e+00
  5.9373778e-01
  2.8384683e+00
  3.2975545e+00
 -2.7571732e-01
  3.9358766e+00
  2.1267409e+00
 -2.2029305e+00
  1.9076407e-02
  9.7469032e-02
  1.4781830e+00
  2.3669381e+00
 -2.3147780e-01
 -8.3849415e-02
 -3.4074351e-02
  5.5405253e-01
  2.3004487e-01
 -5.0451481e-01
  3.4723833e-01
  1.3351400e-01
  2.8869468e-01
 -6.1611629e-01
 -5.4836083e-02
  5.2667856e-02
  1.3351405e-01
 -7.7315889e-02
 -2.0694858e-01
 -2.3979399e-01
 -7.8916112e-03
 -3.6502149e-02
  2.9387891e-02
  4.4649046e-02
 -4.8268514e+00
 -3.3341572e+00
  2.6441894e+00
  3.3715491e+00
 -1.9080633e+00
 -1.0903406e+00
  5.9561914e-01
 -5.5844636e+00
 -2.9194427e+00
  5.6777053e+00
  1.4483880e+00
  8.9988714e-01
 -1.7584978e+00
 -4.1193360e-01
 -2.5470700e+00
  9.9907184e-01
 -4.2068748e+00
 -4.0382504e+00
  1.2668425e-02
  5.6276828e-01
 -3.6880648e+00
 -8.4319964e-02
 -1.3342500e+00
  6.5795535e-01
  1.8743788e+00
 -2.6916952e+00
  1.1683298e+00
  3.6181688e+00
 -1.6062829e-01
  1.0803996e+00
 -2.1340373e+00
 -2.4275956e+00
 -8.6401904e-01
  1.1999750e-01
  2.2923915e-01
 -3.8842697e+00
  5.6134858e+00
  1.0244092e+00
  3.4528762e-01
  3.1906087e+00
  2.2947429e-01
 -1.8620799e+00
  2.0396044e+00
 -3.4548249e+00
 -1.7309209e+00
  3.1493905e+00
  3.3120253e+00
  4.3358202e+00
 -1.1080028e+00
 -8.2600039e-01
  5.0329965e-01
 -4.8077342e-01
  1.3333753e-01
 -7.4312717e-01
 -5.0294489e-01
 -4.5556125e-01
  8.6877145e-02
  3.2131001e-01
 -9.7511041e-01
 -2.7799131e-02
 -7.9400265e-01
 -4.8822588e-01
 -4.2202501e+00
  2.2594580e-01
 -3.4293211e-01
 -6.0166782e-01
 -3.1911826e-01
  1.4486455e+00
 -1.4051013e+00
 -2.7562705e-01
 -1.3089874e+00
  5.4973429e-01
 -2.3642173e+00
 -8.9876789e-01
  4.3956298e-01
  1.0648907e+00
  2.6665467e-01
  2.8737862e+00
  1.1982632e+00
 -9.5233935e-01
 -8.1809902e-01
 -3.6185977e+00
  5.7293123e-01
 -2.3353631e+00
 -8.8902026e-02
 -2.1630170e+00
 -1.1956231e-01
 -2.7189941e+00
  1.4700300e-02
  1.3348268e+00
 -1.5314307e+00
 -2.3704872e+00
 -5.1849455e-01
 -7.1372545e-01
  5.5094618e-01
 -1.1942565e+00
  2.0148344e+00
  2.6420271e-01
  3.4904510e-01
 -8.2135648e-01
  8.1704021e-01
  1.1934626e+00
  1.4936623e-01
 -1.7446448e-01
  1.9141659e+00
  2.4916075e-01
  1.1027652e+00
 -3.6762047e-01
  6.1686540e-01
 -1.3098843e+00
 -3.8391451e-04
 -1.8076210e-01
 -3.1614476e-01
 -7.1007574e-01
  1.7396599e+00
  8.7221324e-01
 -4.5703837e-01
 -3.5683453e-01
 -8.2428068e-01
  1.2839061e+00
  4.2384106e-01
 -8.9439839e-01
  1.8147474e-02
 -9.2263222e-01
 -1.8244636e-01
 -1.1075469e+00
 -9.3138078e-03
 -3.0084872e-01
 -3.2456994e-02
 -1.4761244e+00
 -9.6260749e-02
 -2.0761983e-01
 -4.3358814e-02
 -2.8863535e+00
 -3.2602468e+00
 -4.8298340e+00
 -4.2918901e+00
  3.6382754e+00
  3.3956568e+00
 -2.0947702e+00
 -5.4037409e+00
  4.6015687e+00
  1.2628265e-01
 -2.6892287e-01
 -5.4544479e-01
 -2.4588380e+00
 -1.1304071e+00
  2.8297453e+00
 -3.7955251e-02
  3.0709207e+00
  2.4239554e+00
  8.1400925e-01
  7.2330832e-01
 -1.1251515e+00
  4.8809214e+00
 -5.8774357e+00
 -7.0299382e+00
 -2.4867260e+00
  4.2864294e+00
  3.6297352e+00
 -2.6980624e+00
 -1.0377041e+00
  2.7513828e+00
  1.5835147e+00
 -3.4926720e+00
  2.0594702e+00
 -1.2900647e+00
 -1.8815190e+00
  4.0184312e+00
 -4.9862509e+00
  5.5892520e+00
 -3.9132936e+00
  5.9524412e+00
 -3.0796461e+00
 -3.6497550e+00
 -1.2512709e+00
 -2.7372071e-01
  2.0043488e+00
 -5.3151846e+00
 -4.6109176e-01
  1.7294878e+00
  4.3364334e-01
  6.1397195e-01
 -4.7012773e-01
  4.8193401e-01
 -5.0251395e-01
  1.2947859e+00
  2.0056157e+00
  4.3223315e-01
 -1.4943897e+00
 -2.5707623e-01
 -1.3618959e-03
 -3.8234559e-01
 -5.9756118e-01
  6.6312879e-01
  6.7293930e-01
 -3.4753385e+00
 -6.7451708e-02
  3.2095841e-01
 -2.1200008e+00
  5.7330399e+00
  4.0490952e+00
 -2.5042999e+00
  4.5307727e+00
 -5.1796846e+00
  4.9104152e+00
 -3.8517351e+00
  6.3772950e+00
  1.5106163e+00
  2.5104361e+00
  6.8935609e+00
  3.4252471e-01
 -3.3538685e+00
  2.9282343e-01
 -5.5165641e-02
 -4.2401881e+00
  2.2599232e+00
  2.2661464e+00
 -4.2323608e+00
 -2.6407483e+00
  1.8475581e+00
  2.1290448e+00
  2.6204607e-01
  3.9964960e+00
 -1.1146489e+00
 -2.1147211e+00
 -1.9489337e+00
 -2.2300932e+00
  1.0368325e+00
 -3.2532498e-01
  3.6448538e+00
  3.2581205e+00
 -2.8491273e+00
 -3.6892006e+00
  5.0058475e+00
 -1.2346315e+00
 -4.4061265e+00
  1.0094064e+00
  2.6546173e+00
 -1.6679162e+00
 -2.3631629e-01
  4.4009563e-01
  7.1878296e-01
  2.5265378e-01
  2.6832688e-01
 -1.9597881e+00
 -1.3889244e+00
  9.3041307e-01
  2.1698563e+00
 -6.2390351e-01
 -2.1979086e+00
 -1.7294295e-01
 -6.0773551e-01
  1.2061847e+00
 -2.8495545e+00
 -1.1056870e+00
 -2.2850897e+00
  5.6207317e-01
  1.3913892e-01
 -1.4073901e+00
 -1.5327978e-01
  2.0507579e-01
 -5.0747520e-01
 -6.6375786e-01
  1.3269362e-01
  3.2322690e-01
  2.4074215e-01
  6.3355517e-01
  3.2912669e-01
 -3.3919225e+00
  2.1200182e+00
 -7.0776150e-02
  4.4044709e-01
  2.9427290e+00
 -5.4672980e-01
 -7.2545297e-02
  1.4827913e+00
 -6.6248026e+00
  6.5959418e-01
  3.1983163e+00
  5.7812858e-01
  1.1719354e+00
 -2.3917744e+00
  1.2659186e+00
  4.7972760e-01
  8.9982611e-01
 -4.9823850e-02
 -1.4575835e+00
 -1.6212583e+00
 -4.0295095e+00
  1.8200160e+00
  3.7303376e+00
  1.0013442e+00
  1.6007626e+00
 -2.6059811e+00
 -2.2514927e+00
  7.6949757e-01
  1.7781471e+00
  2.9155333e+00
  2.0987692e+00
 -4.4639093e-01
 -5.6153023e-01
  8.7352175e-01
 -3.7211494e+00
  1.2250433e+00
  3.4768152e-01
 -6.2625861e-01
 -1.2758986e+00
 -3.1728432e+00
 -1.7014749e+00
  1.5314183e+00
 -4.8828293e-02
 -5.6235394e+00
 -3.8764998e-01
  2.7876153e+00
 -6.1134654e-01
  4.0506878e-01
 -6.4617634e-01
  2.4628198e-01
 -3.9748847e-01
  6.7440313e-01
  4.1325411e-01
 -1.5634861e-02
 -3.4162611e-01
 -1.5519783e+00
 -3.9650232e-02
  3.5683507e-01
 -2.5027189e-01
  5.2430385e-01
 -1.7159562e-01
 -3.5407307e+00
  2.7571186e-01
  3.0199371e-02
 -3.6737880e-01
 -4.1495733e+00
  7.9715025e-01
  4.2850413e+00
 -3.8113310e+00
  5.2713041e+00
 -5.1659393e+00
 -2.9540122e+00
  1.3476861e+00
 -5.2296388e-01
  3.0711708e+00
  1.9245186e+00
  1.3923656e+00
  5.2057962e+00
  1.8980392e+00
  3.7105966e+00
 -8.9518571e-01
  2.1079769e+00
  7.6399833e-01
  3.7265239e+00
  2.9999530e+00
  1.7679470e+00
 -5.9960701e-02
  2.2887933e+00
  6.8799955e-01
 -9.6600270e-01
  1.5843499e+00
  1.5493958e+00
  2.3998840e+00
 -4.6301885e+00
 -1.0414149e+00
 -2.3147008e+00
  2.5976377e+00
 -1.2216176e+00
 -2.1236452e-01
  1.4038359e+00
  3.9309487e+00
  2.6773753e+00
 -2.2323220e+00
  2.4627817e+00
  1.2148429e+00
  2.8239312e+00
  2.9901392e+00
 -4.9707651e-01
 -4.0476990e-01
  2.6035397e+00
  1.2209172e+00
 -1.8995142e+00
  2.7537289e+00
 -9.3212503e-01
 -9.5198041e-01
 -2.8388679e+00
  4.5649961e-01
  7.5403553e-01
  6.1206198e-01
  1.0615228e+00
 -3.6937222e-01
 -2.4096292e-02
 -6.9071710e-01
  1.1823153e-01
 -3.4520575e-01
 -1.7453380e-01
 -7.7051592e-01
 -7.8354490e-01
 -1.5522952e-01
 -5.4379974e-02
 -5.8246482e-02
  1.4840898e-01
 -9.2859071e-01
  8.9162350e-01
  2.2849817e+00
 -2.2422390e+00
 -4.6449825e-01
  2.2222159e+00
  3.8888773e-01
 -1.1693636e+00
  2.2997034e+00
 -5.4372180e-01
 -3.3208627e-01
 -1.0829076e+00
 -3.1716964e-01
 -7.2070283e-01
  5.5999622e+00
  1.3784574e+00
 -3.4591079e+00
 -3.2621559e-02
 -5.0028586e+00
  1.5454067e+00
  5.7214546e-01
  2.8771818e-01
 -8.6516529e-02
  9.7240371e-01
 -2.2441585e+00
 -2.8248577e+00
 -1.5819182e+00
  2.0825491e+00
 -9.7000730e-01
  2.7052283e+00
  7.2683887e+00
  3.0330127e-01
  1.4499028e+00
  2.5072167e+00
 -1.7530735e+00
  2.9955202e-01
  1.1191850e+00
 -1.6726909e+00
  7.0016539e-01
  6.1368555e-01
  2.6829014e+00
 -2.1505654e-01
 -1.3905600e-01
 -2.8713109e+00
  2.5402811e+00
 -4.0569210e+00
 -2.1286786e-01
  2.6765440e+00
  1.5458524e+00
  3.8381490e-01
  3.9333928e-01
  1.3006061e-01
 -2.5558150e-01
 -1.1993684e+00
  6.4101100e+00
 -1.2375271e+00
  3.9393836e-01
 -4.6136670e+00
  7.6453000e-02
 -5.7742852e-01
 -8.8365793e-02
 -5.3426087e-01
  7.9067871e-02
 -9.8834169e-01
 -6.2035722e-01
 -1.0174185e-02
  3.2382417e-01
 -5.9565705e-01
  2.7630517e-01
 -1.0306597e+00
 -4.4796996e-02
  1.4284877e-01
 -2.1190214e+00
  5.4592270e-01
  1.2770143e+00
 -3.2320857e-01
  1.6758773e+00
  9.6428311e-01
 -4.4524595e-01
 -1.6591249e-01
  4.7167686e-01
 -8.2070744e-01
 -8.2552634e-02
 -4.7908619e-01
  1.8655752e-01
  1.2939997e-01
 -2.7454609e-01
  2.0341599e-01
  8.0399752e-01
  3.2985455e-01
  1.5613346e-01
 -1.1977117e-01
 -3.6906585e-01
  3.9727592e-01
  1.9022825e-01
  4.9369529e-01
 -2.8781840e-01
  5.0561156e-02
  2.8060162e-01
  1.0555389e+00
  1.4519578e-01
 -1.7921869e-01
 -4.5281240e-01
 -3.0088210e-01
 -2.2721034e-01
  8.6849391e-02
  8.8450527e-01
  3.5549054e-01
 -9.4166076e-01
 -2.1389523e-01
 -9.6616280e-01
 -8.6233938e-01
 -1.2807566e+00
  1.1115767e-02
 -2.1818779e-02
  1.6132295e-01
 -3.1110290e-02
 -3.8207855e-02
  1.2108816e-01
 -1.7969543e-01
 -2.7814183e-01
  1.3714063e-01
 -1.1413906e-01
  2.8226424e-02
 -1.3381526e-01
  1.2264750e-01
 -1.0318036e-01
  2.2453224e-02
  5.5132415e-02
 -5.4480948e-02
 -5.5549704e-02
  1.2800817e-01
  2.8039262e-02
  1.4072706e-01
  1.1240971e+00
  6.9317250e+00
  1.8878785e-01
 -1.0609297e-01
 -1.3678699e+00
  1.7803543e+00
 -1.9838144e+00
  2.6354139e+00
 -1.1651003e+00
  5.5834332e+00
  4.1300454e+00
  1.9397234e+00
  2.4795165e+00
  1.1559798e+00
  1.8154860e+00
  1.0508318e+00
 -3.5887339e+00
  3.1284111e+00
  3.8146002e+00
  1.0540961e+00
 -6.1011052e-01
  4.6820570e-02
  7.4985886e-01
  4.3538392e-01
  1.2664355e+00
 -1.9936075e+00
 -7.0053482e-01
 -2.6754537e+00
 -7.0203108e-01
 -1.3453432e+00
 -2.1882084e-01
 -1.9687741e+00
  3.9597583e-01
 -5.0926173e-01
 -6.6367060e-01
  2.9752874e-01
  3.3064131e-02
 -5.1133728e-01
 -9.9245459e-01
 -8.5900658e-01
  2.7388465e-01
 -1.1816456e+00
 -1.5748580e+00
  1.9701448e-01
  4.9700266e-01
  5.1437540e+00
 -4.9894023e-01
  1.1732275e+00
 -1.6333960e+00
 -5.9737902e-02
 -6.2520564e-02
  3.7702861e-01
  2.3453057e-01
 -4.9852028e-01
 -2.4367271e-01
  1.6918029e-01
  1.0064702e-01
 -5.1961362e-01
  9.3715057e-02
  4.6307808e-01
 -2.1607345e-02
 -2.4504820e-02
  7.8480914e-03
  3.6536214e-01
 -2.4129149e-02
  2.4108825e-02
  2.8333299e-02
 -6.0064459e-01
  7.7840662e-01
  3.4825559e+00
  2.6010597e+00
 -4.5720453e+00
 -7.8286204e+00
  5.7733555e+00
 -4.8723016e+00
 -1.6487131e+00
  2.4719677e+00
 -6.0806193e+00
  2.0064750e+00
  4.3594947e+00
  2.7578621e+00
  6.2373009e+00
 -6.5536654e-01
  4.8986569e-02
  4.6713514e+00
  4.1357317e+00
  2.0489028e+00
 -1.2088156e+00
  1.4445273e-02
  1.5447741e+00
  1.2419225e+00
  2.0111775e+00
 -8.4668386e-01
  2.5440061e+00
  4.3092003e+00
 -1.3739969e-01
  6.2140244e-01
 -1.1530612e+00
 -1.0477701e+00
  1.7591765e+00
 -1.5912417e+00
 -2.0022982e-01
  1.7102115e+00
  3.9305077e+00
  4.0791059e+00
 -2.9888263e+00
  3.5735705e+00
  2.4807854e+00
 -1.6028905e+00
  6.3503885e-01
  2.9095974e+00
  1.4588422e+00
 -1.2862002e+00
 -1.7265263e+00
  5.6924635e-01
  6.3485128e-01
 -3.3388513e-01
 -2.6241956e+00
 -2.0625851e-01
  8.9107871e-01
  2.1475332e+00
 -1.4084460e+00
  1.4276081e-01
  4.8191810e-01
  8.2218969e-01
  3.8752213e-01
 -1.7207081e+00
 -2.2024453e-01
 -4.5954168e-01
 -2.7571452e-01
  3.3491597e-01
  6.6037893e-01
  8.0850028e-02
 -1.4872555e-01
 -2.6824496e+00
 -2.0558085e+00
  7.0983348e+00
  8.0674613e-01
  3.1178647e-01
 -1.4443514e+00
  3.5137618e-01
 -2.4526305e+00
  2.9032655e+00
 -9.3908811e-01
  1.3064522e+00
 -1.4019358e+00
  3.6124415e+00
  3.9522405e+00
 -1.0025591e+00
 -2.4423668e+00
  1.1360936e+00
  2.7186772e-01
 -2.3268564e+00
  3.5017123e+00
 -1.7580304e+00
 -1.1524704e+00
  4.0714025e-01
  2.8821223e+00
 -1.1589345e+00
 -2.2157385e+00
 -4.8863635e+00
  3.5524547e-01
  3.3291423e-01
  2.5224221e+00
 -1.0366896e+00
 -2.5287476e-01
  2.4360679e-01
  1.4551067e+00
 -2.5089190e+00
  2.4900298e+00
  1.9553641e+00
  1.1606418e+00
 -2.2514610e+00
  1.9675375e+00
  9.3930739e-01
  5.1963282e-01
  7.0129953e-02
 -2.7394438e+00
  1.0794441e+00
  9.6718454e-01
  1.4064158e-01
  3.3808094e-01
  1.9078240e+00
 -7.5923222e-01
 -1.1127942e+00
  9.5264637e-01
 -1.1516063e+00
  4.4046706e-01
 -4.0294371e+00
  9.5541966e-01
 -1.4053093e+00
  2.2634895e+00
  2.0085135e-01
  8.7381490e-02
 -2.5558326e-01
  3.9722675e-01
  3.0003488e-01
  1.3571789e+00
  5.2925837e-01
  7.2714966e-04
 -3.2983184e-02
 -8.6223453e-01
  1.8580785e+00
  9.1392767e-01
  6.4418869e+00
 -3.1687777e+00
  1.0663141e-01
  3.2516766e-01
 -8.6537546e-01
  5.9601359e+00
  2.8521912e+00
 -5.2906551e+00
  6.2612551e-01
 -5.8233547e-01
  3.2048936e+00
  2.0845902e-01
 -2.0875444e+00
  1.4647095e+00
  2.9372916e+00
 -2.4576497e+00
 -4.0932387e-01
 -1.0515364e-01
  2.2863610e+00
  2.9000299e+00
  1.2296501e+00
 -1.2512602e+00
 -1.0271609e+00
 -2.7070755e-01
  2.4915457e+00
  1.1262901e+00
 -1.4984405e+00
  4.3059611e+00
  3.3521906e-01
  2.1052787e+00
 -4.5319419e+00
  5.5017418e-01
  6.5021920e-01
 -3.3394775e+00
 -2.9927125e+00
  6.4219815e-01
 -2.3846676e+00
  2.2836049e+00
  1.9024689e+00
 -3.9061663e+00
  1.3367232e+00
  1.0022565e-01
  3.0481606e+00
  1.5787530e-01
 -1.5672697e+00
 -1.7732794e+00
  7.0851064e-01
 -3.1361005e-01
 -3.2759315e-01
 -1.0113255e+00
  1.2513199e+00
  7.2358847e-01
  5.2552038e-01
  5.2815282e-01
 -2.6412773e-01
  1.6442996e-02
  6.0836923e-01
 -6.8914860e-01
 -5.3776079e-01
 -4.8229346e-01
 -9.3077880e-01
  1.6111252e-01
 -4.2642403e-01
  1.3428991e-01
  7.6555533e+00
  1.0901037e+00
  4.5760789e+00
  1.0171523e+00
 -8.2097015e+00
  3.3026531e+00
 -1.3356526e+00
 -1.5390331e-01
  7.2585726e+00
  2.7868822e+00
 -1.0178955e+00
  2.2163479e+00
 -1.3901238e+00
  2.4402287e+00
  6.9337577e-01
  8.0165796e+00
 -2.3640714e+00
 -1.9710326e+00
  3.1617453e+00
 -1.7353735e+00
 -7.0239186e-01
  1.5541148e+00
 -6.2350772e-02
  4.1233449e+00
 -6.2489808e-02
 -1.7881514e+00
  1.4391204e+00
  5.3446375e-02
 -2.5791116e+00
 -1.6628426e+00
  2.6030979e+00
  9.6896973e+00
  2.3393385e+00
  3.8651174e-01
 -3.4910843e+00
  8.0067511e+00
  4.2599940e-01
 -4.3229208e+00
 -2.4930148e+00
  4.6390600e+00
  1.3869869e+00
 -6.3584381e-01
 -2.2737014e-01
 -9.3437946e-01
  2.5304055e+00
 -2.0185127e+00
 -3.7632638e-01
  4.0574729e-02
  1.8567904e+00
 -2.8033409e-01
 -2.7492332e+00
 -2.7557483e+00
 -3.4302801e-01
  4.3972641e-01
 -8.5922730e-01
  3.6515236e-01
  2.8130907e-01
  8.3742338e-01
 -3.1334713e-01
 -1.2128725e+00
  1.6179718e-01
  1.2180505e+00
  3.5484895e-01
 -2.1598919e-01
  3.2120600e-01
 -2.1959573e-01
  8.0582446e-01
 -3.2885408e+00
 -6.3306637e+00
 -1.1980637e+00
  2.5689826e+00
 -6.7480311e+00
 -3.9313910e+00
  1.4095559e+00
 -2.7900646e+00
 -2.3553286e+00
 -3.8262897e+00
 -4.1377797e+00
 -9.0236801e-01
 -4.8915401e+00
 -1.3661734e+00
 -1.8581364e-01
 -1.1000549e+00
 -2.1042237e-01
  1.3936212e+00
  2.0743945e+00
  6.0052955e-01
 -2.4350142e+00
  5.0228202e-01
  1.6095152e+00
 -2.8856552e+00
 -1.6284963e+00
  4.9209970e-01
  1.8644549e+00
  1.4270638e+00
  6.9944996e-01
  1.1030875e+00
  2.3519111e+00
  4.3278578e-01
 -1.1626389e+00
 -1.8592505e+00
  1.9667671e+00
 -1.5361553e-01
 -4.7402148e+00
  2.3336370e+00
  2.0610013e+00
  5.7177687e+00
 -3.8547528e-01
 -5.0203562e-01
 -2.1311607e+00
  1.8062778e+00
  3.2223721e+00
  2.9785011e+00
 -7.5838423e-01
 -2.1884241e+00
 -4.0437708e+00
 -3.4250104e-01
  1.4219639e+00
  7.8636003e-01
 -2.5334999e-01
 -1.1262684e+00
 -2.1650062e+00
  3.7263992e-01
  1.0246314e+00
  2.7062657e+00
 -1.5649444e-01
  1.1056838e+00
 -5.4437842e-02
  5.8243647e-02
  1.4576161e-01
  8.4320503e-01
 -8.0671884e-02
 -1.6156121e-01
 -1.4086144e-01
 -1.1261128e+00
 -3.4454182e-01
  2.7878711e+00
  8.6213732e-01
 -2.0574267e+00
  2.8274815e+00
  2.5721209e+00
  6.0097069e-01
  5.2970061e+00
  1.7485069e+00
 -6.3464198e+00
  8.2076836e+00
 -6.1227150e+00
 -1.0919398e+00
 -1.2018838e+00
 -7.5461656e-01
  1.6498982e+00
  5.8338590e+00
  1.2344824e-01
 -2.0395646e+00
  5.6609136e-01
 -8.7804407e-01
 -8.5893244e-01
 -2.8173850e+00
  1.0386004e+00
 -6.4736789e-01
  1.9686364e+00
 -1.4087428e+00
  5.6432950e-01
 -3.2955246e+00
  3.7069154e+00
 -2.8327358e+00
 -2.5819573e+00
 -5.5053979e-01
  2.8312595e+00
  2.4310722e+00
  3.4363085e-01
 -5.4848516e-01
 -3.2305713e+00
 -4.1371374e+00
 -1.8220183e+00
 -3.1556885e+00
 -4.2058975e-01
 -2.0662934e-01
  1.5739608e+00
 -1.8096827e+00
 -1.9022307e+00
  3.7279634e+00
  5.4338784e+00
 -2.3674850e-01
 -1.8067394e+00
 -5.3474844e-01
  7.7660668e-01
  3.9434424e-01
  1.5224645e-01
  2.6183349e-01
  1.2314969e+00
  6.6488767e-01
 -3.9523322e-02
  4.7041279e-01
 -2.9601052e-01
  4.4358369e-02
  1.0180291e+00
  5.5405223e-01
 -1.3907582e-01
 -2.2377487e-02
 -2.0644665e-01
  1.1775702e+00
  4.5309038e+00
 -4.0969357e-02
 -9.9002028e-01
 -1.7494026e+00
  5.0021511e-01
  3.7440723e-01
  1.0232854e+00
  2.2407827e-01
 -4.3370155e-01
  1.1105515e+00
 -2.1494303e+00
  1.0375807e+00
  7.2420645e-01
 -9.0284777e-01
 -3.1031704e-01
 -6.2203550e-01
  2.3062935e+00
  2.5895147e+00
 -1.0536590e-03
  1.4603994e+00
 -3.4771223e+00
  9.9419153e-01
  7.0365387e-01
 -4.0703702e+00
 -1.5357254e+00
  6.7555737e-01
 -2.4670551e+00
  2.8314469e+00
 -3.2973423e+00
  1.4665536e+00
  2.7687359e-01
  1.8302698e+00
  1.9189726e+00
 -1.2306988e+00
 -1.4958856e+00
  1.2205118e+00
  1.8428741e+00
  2.4223762e+00
  1.7710876e+00
  1.2217081e+00
  1.7954569e+00
 -9.0654290e-01
 -3.7627438e-01
  3.7548740e+00
  1.0311086e-01
  9.7999114e-01
  1.5087391e-01
 -2.2301445e+00
 -6.5932834e-01
 -7.7392840e-01
  7.8667015e-01
 -1.8656700e+00
  1.9720343e-01
 -9.9667192e-01
  2.0088707e-01
  2.1307003e-03
 -4.3228954e-01
  3.4614950e-01
 -3.3004415e-01
  3.4290454e-01
 -8.4488029e-03
  1.0321009e+00
  3.0121094e-01
  1.5459333e-01
 -1.5324686e-01
 -7.9362231e-01
 -1.2721212e+00
 -1.5022873e+00
 -2.9849539e+00
 -2.9424790e-01
 -1.1921208e+00
  2.8144085e-01
 -7.6193476e-01
  5.9283009e+00
  2.0702775e+00
 -7.3434772e+00
  1.1413671e+00
 -2.3596227e+00
 -1.4348351e+00
  1.5822577e+00
  9.9694267e-02
  1.2169101e+00
 -4.5243934e-01
 -6.8521631e-01
  2.9518876e+00
  5.0374293e-01
  2.4846497e+00
  7.4804175e-01
  1.0028977e+00
  1.0386629e-01
  2.3557033e-01
  9.1038424e-01
  8.3522958e-01
  3.6507395e-01
 -2.2812555e+00
  3.9315562e+00
 -2.5434957e+00
 -2.0395367e+00
 -1.6288365e+00
  8.1124938e-01
 -2.2598567e+00
 -2.1155248e+00
  2.4722934e+00
  7.0839286e-01
 -1.2912989e+00
 -4.6233349e+00
 -5.2205843e-01
 -2.3110151e+00
  4.2868665e-01
  2.2853391e+00
 -2.1646428e+00
  3.6485648e-01
  1.5560136e+00
 -2.4804232e-01
 -4.4050703e+00
  1.1432903e-01
 -6.7477578e-01
 -4.4310001e-01
  1.3270012e+00
 -2.1622922e+00
 -8.9439136e-01
  2.6108429e-01
  1.5050395e-01
  6.4098793e-01
  2.3785215e-03
  4.0667090e-01
 -1.0358126e-01
  3.7048402e-01
  7.9357646e-02
  1.5035594e+00
  1.7914090e-01
  8.1206933e-02
 -1.2898669e-01
 -8.6638206e-01
 -1.6283622e+00
 -6.2835699e-01
  1.3911158e+00
  3.5676844e+00
 -1.6683343e-01
  8.1123364e-01
  1.6155144e+00
 -3.5021114e+00
 -2.7801166e+00
  2.2834692e+00
  2.1753051e+00
  1.9358059e-02
 -2.6327186e+00
 -5.0067353e-01
  1.8741703e-01
 -5.6454506e+00
  4.5147066e+00
  4.0000772e+00
  3.3250697e+00
 -2.7601280e+00
 -6.4514022e+00
  1.9241484e+00
  9.7410399e-01
 -2.5946746e+00
 -3.1281953e+00
  4.6846724e-01
 -3.8007696e+00
  3.3088809e-01
 -7.0410568e-01
  4.8770618e+00
 -7.7372992e-01
 -1.9641747e+00
  1.4204251e+00
 -6.2473672e-03
  2.5465056e-01
  5.7000046e+00
 -8.8943040e-01
  1.9068381e-01
 -5.0003901e+00
 -2.6117430e+00
 -3.0178363e+00
  1.1529317e+00
  7.3387884e-02
 -1.1740464e+00
 -2.1657565e+00
  1.9259000e+00
 -1.6496468e+00
  4.5563555e+00
  1.2705210e-01
  1.7976078e+00
  1.4144968e+00
  4.7797921e-01
 -3.1455827e-01
 -2.8865852e+00
  1.8913266e-01
  1.0645741e+00
 -1.4774014e+00
 -7.2923135e-03
  2.2743464e+00
 -3.6933217e-02
 -1.5279919e-01
 -6.2424022e-01
 -3.3915368e-01
 -3.1254724e-02
 -1.5621955e-02
 -1.0702379e-01
  8.2211494e-01
  1.1032411e-01
  7.9807477e+00
 -3.1846094e+00
 -6.2022567e+00
  2.5791655e+00
  3.9033852e+00
 -3.6674447e+00
  4.9559836e+00
  6.9730169e-01
 -8.2570581e+00
  4.1279135e+00
  4.3631897e+00
  1.4723426e+00
  1.7467407e+00
  1.3111268e+00
 -2.1913874e+00
  5.2104037e-02
  6.4928985e+00
  8.6689746e-01
 -3.2740340e+00
 -1.8926833e+00
 -5.3459346e-01
  3.9874238e-01
  3.6585219e-02
  6.8790317e-01
  1.4417506e+00
  5.9745808e+00
 -2.5345590e+00
 -6.4781466e-03
  2.1839325e+00
  9.4726533e-01
  3.4016163e+00
 -7.4081743e-01
  1.4868368e+00
  2.4559093e+00
  2.9669192e-01
  1.3254478e+00
 -1.3305024e+00
  2.1692429e+00
  2.9204425e-01
 -9.5172089e-01
 -6.5240180e-01
 -3.2851167e+00
 -2.2051747e+00
  1.8783037e-01
 -1.4823631e+00
  3.7416446e-01
 -9.1560078e-01
 -3.2513353e-01
  6.1802614e-01
  3.0506000e-01
 -3.8159624e-01
  3.9042294e-01
 -5.7285255e-01
  6.7719775e-01
 -8.1265342e-01
  1.5254469e+00
  1.6789950e-01
 -7.2045052e-01
 -2.0587919e-02
  8.2721867e-02
  2.6118413e-01
 -1.0875746e-02
  9.2292614e-02
  1.5354088e-01
  6.6491060e-02
 -1.7491077e+00
 -2.8066404e+00
 -1.0868173e+00
  6.0846716e-01
 -6.4324856e+00
 -1.1097734e+00
 -1.7228786e+00
  3.8521485e+00
  1.2198906e-01
  8.7051493e-01
  1.9845819e+00
 -4.9466494e-02
  2.6226816e+00
  1.3478419e+00
 -3.9497862e+00
  7.4447566e-01
 -6.5120286e-01
 -3.2327418e+00
  6.6217537e+00
 -1.4369091e+00
 -2.0133417e+00
  2.9268453e-02
  8.4328371e-01
  4.9107389e+00
  5.5911787e-02
  1.5226756e+00
 -3.0568385e-01
 -1.3217129e+00
 -4.5770973e-01
  5.9682322e-01
  1.0005360e+00
 -4.5507131e+00
 -1.0463168e-01
  1.8658096e+00
  1.8357846e+00
  6.8819845e-01
  3.9208086e+00
  9.8595965e-01
 -2.6128888e+00
 -3.6889346e+00
  2.1699500e+00
 -1.6816683e+00
 -1.9625518e+00
 -8.2634664e-01
 -1.7245537e+00
 -2.5246060e+00
  6.5391582e-01
  1.9591222e+00
  1.9805229e+00
  2.9450944e-01
  2.3331060e+00
 -3.5671651e-01
 -2.0275235e-01
  1.6721334e+00
 -1.5021387e+00
  8.8076502e-01
 -7.7550665e-02
  1.6087098e-01
  4.4922058e-02
 -1.0933752e-01
 -5.9319936e-02
 -3.4351739e-01
 -1.4408672e-02
 -2.6591164e-01
 -5.5212128e-01
 -1.5744589e-01
  6.4449906e-02
 -6.3332474e-01
 -1.8896376e+00
  2.7622790e+00
 -5.2947583e+00
 -1.0924529e+00
 -3.0188358e+00
  1.3304112e+00
 -1.3879809e+00
 -2.6132872e+00
  2.2479432e+00
 -9.3114138e-01
  5.4162731e+00
 -5.4911137e+00
 -2.1646106e+00
 -1.9649016e+00
  1.9230281e+00
  3.9992821e+00
 -5.5955964e-01
  6.8754780e-01
  5.4499006e-01
  9.7334611e-01
 -4.9398627e+00
 -3.1331058e+00
 -1.3278005e+00
 -1.3295474e+00
 -8.3954787e-01
  1.6061322e-01
  1.1702676e-01
  1.5040302e+00
  6.4813268e-01
  5.1582971e+00
  2.0381231e+00
 -3.8068216e+00
  2.4715557e+00
  3.2870260e-01
  6.3240761e-01
 -1.3813026e+00
  7.9474556e-01
  2.5692520e-01
 -2.2638972e+00
 -1.1869214e-01
  2.7066987e+00
  2.9391167e-01
  1.2477134e+00
  1.5109884e+00
  2.5074375e+00
  2.0314801e+00
  1.2500048e+00
  1.7345251e-01
  1.0138934e+00
  6.8853929e-04
 -4.1373768e-01
 -3.6216560e-01
  1.5536020e+00
 -1.6413540e+00
 -6.2082624e-01
  9.2160456e-02
 -6.6330183e-01
 -1.9995977e-01
 -7.1889800e-01
  1.7311907e-01
  5.4205656e-01
 -4.5626077e-01
 -2.1986945e+00
  2.0037432e-01
 -5.2513540e-02
 -3.5683522e-01
 -1.9915707e+00
  4.4863834e+00
  1.9847957e+00
 -2.9674087e+00
  3.4509189e+00
 -3.1327381e+00
  9.9401230e-01
 -1.1054841e+00
 -4.0351028e+00
 -9.7622740e-01
 -3.1613986e+00
  1.9005371e+00
 -1.3962026e+00
 -2.5600281e-01
